[3.597685310246245,-1.3779371661659002,0.6747129344652914,-3.2625808403742555,-1.6139121296381137,2.448787541251872,-1.8502666802534789,-1.9786757112254352,1.2346518992437199,-1.8194855713585617,-3.042005142223057,-0.8178221709494269,2.9068146278251056,3.5557733634446517,-3.273451309603339,-0.7135124467653533,1.0703894103862464,-2.180746552732881,-0.8221860223347797,0.29838403551454287,-0.36530515747224259,1.133169823964809,-0.3632493967625263,-0.05188171423962529,0.7440069102634839,2.4629155613419115,2.388282956976778,2.593589474819531,-0.8186000362249537,-3.280685153021259,2.7766823179531006,-0.5121751509148587,2.185819573917443,-3.9984242339050368,-1.3351626218759505,-1.245402005346213,-1.4736939003723888,1.3037020464073006,-2.894393497700534,0.1640747453661362,-2.651793672377143,0.49597917253047898,0.5190633733345482,-0.9313331043443152,1.5225920983445365,3.2851806936297978,-3.1193492723609248,-3.1934108466246515,-2.984088787851311,-2.039590227134882,3.0659919213931587,-0.17563416721474923,3.143332153399065,3.158050247183721,-3.846379244801266,-3.685729792129865,1.1946512452182035,3.9921116680388879,2.5564305681069756,-2.871817279353831,-3.667182735361039,2.7496370146036606,-1.6440360136976405,-2.4477098321224748,-3.4676049659454986,-3.302191354902659,3.688695243043651,1.0346936764343982,-3.2892375945096647,1.3185521928688263,3.373867119736606,3.2992594127587457,1.7664609243789409,-3.069777263136767,-1.5706840282917539,0.5706027536172318,-0.945759201741968,-2.3777387571930674,1.050821687861725,2.355966811884847,2.5026859497402667,-0.950421318303551,3.930468283968655,-3.293743252807433,3.6729787144267265,-2.3980611700528815,-0.2623445520905461,-2.371053409085441,0.13652304040020359,1.2098527834986275,-0.9247181319021545,-1.5954917098580202,-2.7430343395059735,3.6989252657369438,0.8157817235738287,-2.215091283085476,-2.7064284145021038,3.4382401653987797,1.6163193485777292,1.9301383988378947,1.0812799620524736,1.992802389801117,-1.0167821598500207,-3.1956578688240198,0.4899718587101196,0.24080308143170016,-2.0428087223040185,2.05734435200495,-0.5534049526838558,0.8797488698502614,3.289322043626969,-1.4292117967426466,1.7550199060684922,-1.7657139726264502,-0.1913156744964386,2.10770503848647,3.0687136906387488,1.7743320862460142,-3.648713649053205,1.1837806966268128,3.2006585177933495,3.7241790143219157,-3.73242585934036,-0.7824254308741407,2.4321451851874498,0.9937161733337909,1.8959751953502995,-2.8567399689246839,0.04441839486983312,-3.3955475649350408,-2.6161762917206756,1.115212771301115,-1.9978122092847857,2.1125920478765769,2.493231498383482,-2.37641453778388,0.04407521995505803,1.6155298356065729,2.198227782615059,-1.6720871543798462,0.7174667166209483,1.5384432745263075,-2.8663451424150727,1.0752837773208768,2.28771271120758,-0.22824226483195687,-3.268398733417196,-3.45725482239329,-3.024136657392946,-3.0570157687336678,-3.325785638314029,0.7759514486292209,-1.056541053188701,2.731350497180033,-2.5272980659377994,-2.9990579105431767,2.3150136527925175,3.5615997138782644,2.5949791245873419,-3.410565500260824,-0.13731492240386435,-3.245323016558987,-3.4215012241564635,3.9192909699196809,-0.39178442574196406,-2.566676748469468,-2.1087101055819037,-1.7240776612702904,0.38730019868222867,1.0453800106141067,-0.28086251217079996,0.2626351381691929,3.4243275290466776,1.321318342807321,0.22586427636399976,2.5105276847749806,-2.4963374878359358,-1.7950246274545204,-3.3087801410854258,-3.2884862466644977,1.9522221989621303,2.8750372770014307,3.530379877682047,-0.3800093568341225,1.8135424962927669,-0.9989294842350702,-2.8290716640081348,1.0985096179520842,-2.7527496486752067,-2.9583036517339549,2.8831524988178645,-0.7420079623157585,-1.252093774582015,0.726982970366671,-1.7562885476976436,-3.842558487459777,-0.6602738237307264,0.7936475534203202,2.602693628696704,-1.6771801559770603,3.761209596236684,3.5659018092032515,2.9950879450318776,-2.435112453896344,2.6016715267222274,-1.7819255611870384,-3.1799139763117925,-3.5820931963482964,-0.45334828193808809,1.6103032203613097,-0.5589498846592029,3.086215968541887,3.5123981011917655,3.294578315770325,-0.7641428372761678,0.11390204157984574,-1.0015331389981872,3.6088741325045134,-2.97269754156786,-0.146828379209355,-0.8069927471078058,2.647205901718892,3.106745282956897,1.6302520751071166,1.440338324510976,-1.9615423366213898,-1.0122869574393916,-2.2022422819838889,3.004787364638138,-2.945897297680058,-1.2814612942299473,-1.2496149446648526,2.232010459156993,-3.047303498839092,2.7097364028472814,-3.1005383750898156,2.994772582270387,2.9337730775318109,-2.795112559536646,-1.8296761035129983,3.8215053651421906,3.8204962451006878,2.4040902758642055,0.4262418881637373,-0.9291938014332841,0.7069311365604607,1.5641174853659213,0.1719787437611089,-1.5578293633927505,-2.904481514651714,3.955452532347908,2.4097257143787855,-1.5722670784625797,-2.5866830705768555,1.4571624602293652,3.6354004876311034,-3.823012733140719,-2.6674229186190034,2.164504595634992,0.5869072615316204,-2.548037301060308,1.7390601053564794,3.866902355926027,-2.483924323366903,-3.2989830598813638,-0.2773173801933293,3.1191989929768537,-2.070415532471321,-0.3493539716300378,0.07515855774859315,-3.3406965895497198,3.58912080642307,-2.95638344068647,-1.4123673582767434,-2.980691108277048,2.374899121924803,1.9733039584126653,3.4049418029299449,-1.8814711649214787,2.3952775069470686,-0.5363431064855959,3.2463843722358129,-0.41179243879829766,1.8213715257615784,0.27228969853341758,3.0090527904571768,0.49485146525338666,-0.09543098076461143,-2.467528368708729,-0.4200691087266524,1.9835853709513885,2.621506662623312,-3.9262434853080014,3.140252153156964,-1.662194316749928,-1.9058324931577267,2.958001775071992,1.6031677639384566,-1.4450109538157179,-0.11217108679679533,-0.7176340611428689,-3.33046038241073,-2.9939388853809536,1.8742511963332414,-2.9744565316272677,-0.8590578248108693,2.4136011656690288,1.6736552766933378,2.7901580488506525,1.4036914048266259,2.1367028187872929,-1.6969002346906024,-2.8861191527926168,-0.2915118173806279,-0.9040148455740935,1.0688576728901636,0.540700049791039,-0.20217488514668403,0.604624240325836,0.022305660086049174,-2.597760367471995,3.9444288268493628,-1.6741103564009945,-3.9320884527486408,-3.8992662717864574,-1.8997122573151979,-3.202391903645225,0.913856261982243,1.1514756082100029,-1.467460541557484,-3.4490633564209469,1.0066854232592287,0.14344249349025962,2.516537154935004,-3.1103238558801067,3.0607488867248087,-3.025335408187839,-0.8301775554295661,1.3149483014260098,-1.5766847743635744,0.8526172486068946,-1.0845814590448484,-0.20386073099194847,-2.3030413729643888,-3.207530789771843,-3.119960266171022,1.510604934070706,2.730936438571918,1.0304752226448262,1.3713308715905637,-3.868490695471059,0.25793636078937079,2.9268667043711549,-1.7421175440937445,-1.8849866998063354,-3.811744631123277,1.2935417782984625,-3.8876396718505488,3.472586768855585,0.48983858137906557,-2.4810581082051774,1.7291076247563613,-1.4527908272598192,-3.0787784717375956,2.3933810015091314,-2.4274824452859624,-2.123662115709335,2.4419800394311466,3.26013592392957,3.629975757040703,0.6658300927366856,-1.9238217116205137,-3.505045858191357,-2.9320297271655404,1.7770050733441388,-3.1962223371735076,2.061615540695967,2.7413048790941394,2.583461065516105,-3.284235510651081,3.0256749091718104,3.2743289676921227,1.8828566317583225,-2.2238932245671005]