[-2.5693176200061025,-1.458743909947862,1.8565259991982349,-3.4500953888102607,3.2336442916812748,2.530919042113302,2.1628752786401854,1.1090667207758145,3.197748379335777,-2.553277303711347,-1.216169793119107,-1.7507020139669055,3.8663350895034629,1.6708174071844422,1.8109073663120308,-0.3862468603979732,0.21619805250770075,1.291777648802773,-0.5806863481788691,-2.6021841219006776,0.7030445385947202,3.746942082112457,0.39467012331063247,-1.7652767877642377,-3.5889133098721794,2.9946865564459674,0.04935205197599135,-3.8531535958976876,-2.4442525099110847,-0.004762959678693335,-1.3178899993359466,-1.2034870579110387,-1.7701261539907754,-3.7483679531497779,-3.5314316750293335,-3.938654222196896,2.311996855102893,-1.39907432326528,-0.5235790441692929,-1.2754257479737544,-2.0481983203449305,1.0473080501814618,1.6738543523089736,3.5473436385500074,3.79941404299852,0.014526957480888392,-1.822640018952461,-0.3040026558851503,0.3941803690938457,-1.4256343389093838,-0.7996748265698341,1.1051526064337454,0.6268674694840435,-2.0523476806327487,-2.031832964971697,3.5140419132533795,-3.8193504966955089,1.4644306484439254,-2.191714537756937,-1.6339896190982056,-3.515295368461075,3.8206430904236647,2.084058140845041,2.3402321537786179,-2.88923384073479,2.7177119966042859,1.3974126891487063,0.8828338595900567,1.3971912746617595,2.532831699862143,-3.950447665160981,-0.8259731509567319,-3.329645888769872,1.845004311582728,3.41895591484473,-1.9191855110769094,2.0321482924327105,0.20345556100484964,1.3206804504889523,1.3930436413342813,2.798196707999579,-2.4914107109404997,-2.367122200348783,-3.868365980176516,2.619719880404352,1.6137474978134457,2.722217734331357,-3.2927977293220165,2.508474611331862,0.5134671528147443,-2.397271220793046,-0.3234290481207944,0.27729939929848959,-3.507313205902081,3.555142899967824,3.6168921062122809,0.6848658123841265,-1.3366767811719616,-0.1430668185937558,-1.394245573539572,1.9554933083450692,0.11809316615955989,-0.41446846656436256,-1.7035976264130393,0.7137438578682431,-0.7741085716144411,-3.3935544633379397,1.1201280872454174,-1.6578500168531392,-1.0923623144496553,-3.366570316195199,-0.5754437626815607,-3.7204833777975354,0.269531315796776,-3.801885183419576,-0.3935896880960854,-2.602051830214986,0.42218168520371526,1.3911079596817784,1.979469097609459,-2.489466398293586,0.6837787216836633,0.7614106431236962,3.3130408169190614,-1.8484796263318356,-1.9784762927488105,-3.697478988000504,3.907472878361391,3.715310057063167,-2.946237660859965,-2.7827169322745055,-3.5068294338341747,-3.3751731619614118,-1.299277972774666,2.14482450020098,-1.1808288459702015,-2.6371540537180548,1.5846867777452057,-1.7740979672447566,3.655400395187976,0.44799604811702578,-1.9043388241651185,2.794686469845063,-0.05690396885312765,-1.8470076245473129,-3.1903589947498345,-0.5881563858199765,-2.3416842064919205,-2.2632467943840579,0.629969371179393,-2.8619128392231127,3.4675446360149015,-3.9105448360144567,-3.362482122580432,0.2140274583723576,-2.2077614264296239,-2.6431806218510864,-1.4119304938413695,-1.2648953702416537,-2.6673745695689625,0.15211019443359409,-3.05753568537422,2.9179240037588016,-2.15772978535385,0.8369331457868823,-0.09378349460798696,-1.5630844952088337,-0.6723059118825061,-1.7394586168909375,-1.4887402853677776,-3.8512135831818528,3.7784347658925245,-3.5381620336628147,1.3346003762406263,3.941993487703667,2.0562491713974699,-3.3740351689098455,0.7074603511290087,3.056425021535153,-1.3284519362199117,1.6603077155306485,-0.7395636323513424,-3.6627442226571755,1.9907670833911607,2.6701725072188129,3.0282053984475354,-1.1441659724060687,1.1805505275586504,-3.472892345955646,0.4191900800073114,-3.077047567974729,1.6726959078152426,-2.1564458881415398,-1.1448243606539513,-1.8291298937056338,3.8536797877939259,-3.1537349285936786,0.17031820980244029,3.2868033564424765,-3.316927867649853,-0.136083809167439,-3.7365995200374817,-3.8307129292546477,0.7794194752471038,-3.4793247053180789,-1.9590026347079109,1.6188205309491073,-2.74500160500608,-0.48535146948880927,-0.04026447235091979,0.7737997077835299,1.3519964879159199,1.4515306190614706,3.646438749850173,3.4953454454385248,2.665451136002157,1.2045640391721318,-2.527709958513473,0.9149079304702523,-1.2312323777168697,0.39082056587674787,-2.6495567831146449,2.0111161477512189,-3.7093985250553924,-2.0260505749039199,-0.4710713469282819,0.28120616531062217,2.1408266873089,-3.8029672553318,-3.7622998371806437,-1.0248439943723416,-2.2495912593952109,-0.042686156349793117,1.216809973918843,0.4489311072701021,-2.564900724072488,-1.3628925549442957,-1.5844641977231105,-2.226027333142043,-0.5001417285195748,1.118672724064587,-3.273547190466643,-3.798638831726482,-2.3909394469308404,0.4327947520197366,-1.5216209630781615,3.3832166407454897,3.8864948724959786,2.1958406714094016,-0.5954810403697304,-2.0303748038479538,-0.47433364446375139,2.5909779451075565,-3.3427905044710197,0.46180675079889169,2.791925799457511,0.2998803858028447,-1.20662089380421,2.627528373715249,2.848845357310222,0.25299312580970137,-1.430861026802308,-3.2846136463294597,-0.365819909328847,0.8602864590862707,-0.7094694797571461,-2.0244184792371415,2.345024747470787,1.7372417471289588,0.7030806005361514,2.1118428480975917,1.7148651253516896,1.9294066295960857,-1.8077996677046378,1.6042267432054054,-2.196242335676928,-0.591214168736049,1.0878803393453192,0.36402440881350986,-3.830814082246822,-0.3671470902235059,1.3272786166877886,0.32092584477304078,-1.7382599850131025,-3.7640347701842495,2.9237631129626004,-1.9392522255492344,2.5181494211818338,-1.5144248413274469,-1.3856104021996439,2.2848095793973606,0.5781367095915337,1.6898185022915904,3.850909122744633,-0.6846901966838814,-2.6321510518560267,-3.941417962301627,3.3850426522708725,3.1025688063261205,-1.9997852212762642,-1.1283048505466218,-1.1063182606606666,1.753051996473312,-0.6855586487569854,-2.299596719993592,-0.9572151371468003,-3.0548144089535524,-1.0369088670155638,0.6944298707199863,2.8774778187114515,0.4721975537481331,2.8560163173463835,1.9980957629808965,2.3475331216493435,-2.990192605151515,2.8817783233614788,-3.0462987681320827,2.9750529966190175,-2.1908313103426426,-3.571858564025802,-1.7252804392625463,1.0123609702925709,3.8373635791523776,0.7410177193626462,2.0938978009015347,-0.5606397759441091,2.790617403919625,0.04950174159853571,0.21921416386549898,2.8951605783021705,-1.663430286134588,-2.766440098837693,-0.5624240509191152,2.3382339738428827,0.5935815096136938,2.0704317572562749,-0.06401642695516863,0.2540928694095781,-3.624358237935702,-2.3344839132092867,1.9539254994985092,-2.260646999547406,-1.3842637976807302,1.0875282106481815,2.8291296686551696,-3.033788089928235,-3.533531856876208,-0.4073157109070562,1.91154151614632,-3.769773235214619,-2.274678538143146,-3.9974444516505924,3.6794512183306438,1.1836614283383736,-1.2997913389566148,-0.26872183322831036,-1.4207985702213042,1.3324533571219633,-3.0861258009513214,3.7107008291725718,-1.4542128294400874,-1.9707539410575486,1.0816125283049596,-1.5607966254537385,2.782173570322283,3.4086366418349698,3.302688600657646,2.157608789604236,0.7759432552703052,3.221395853086488,3.212546832906943,1.4840706996628033,2.378415262125464,3.0944046219334799,-1.0830822722125398,2.011251025086522,2.824184375811125,-2.1348580126959426,3.1387971758168078,-1.1593230390433096,-3.7907326000935326,3.2570816582152215,-2.6943176780730386,-2.3975350031604139]