[[77.83095608787066,5.430593597994544,95.88294979956692,73.43847408523547,67.61027318701317,-4.229711978017161,105.21357648562784,-42.58363254866953,88.25441852485173,-105.99548668492446,26.188449847484884,-3.6478195187778676,22.1102939952843,44.236453452876158,76.58643343356433,19.40080197556326,36.99072712704699,21.249873979801323,10.040084160128512,40.52111941338757,-46.09458959189483,-87.99940596106679,43.397862162637789,-14.94947537162766,49.36160718551371,-49.648343318488617,49.56932582290207,-133.73434007280114,182.70773237576004,-65.32780409019839,21.82709820778181,120.64681776779372,-118.13212971848317,41.296539462072157,-36.99158591309287,-58.070585935416229,-10.924499702149653,71.54182640097375,-31.615083390636554,25.996140329885365,-87.35242310641459,109.92790329195479,-33.63344436737912,90.91481247805032,-89.21343859026305,-142.29546475691454,113.72674892492839,-35.34494094693836,-3.5523437431020845,-16.05317198779706,-132.83514138911279,-57.909135357943139,31.944814722355998,20.885199519408883,-43.482202189165878,-124.52979767890015,91.74116977863983,-94.52387601261361,-10.220486336100528,-43.42976429029313,100.58230793710985,-7.926751150510737,-10.450940398564307,117.57053862860704,106.41062122631769,77.30863798496684,30.856198264713787,-52.77671038598608,37.58945509710531,-112.28718814363171,24.837815660778259,-72.0507415773107,47.72057428894079,72.37203732457204,106.95799699734637,3.767938143684167,62.3316146383629,18.45731533206013,-36.896232137620689,-25.94843787881605,129.77789031196066,-16.030338584014126,41.53256984831029,41.382941932072949,8.25756909479475,-153.16485500455327,45.698419941964207,49.02064256225268,21.55240254884734,35.945255657366619,-72.40237404872132,307.32120380995556,50.2702495571577,2.485680509857229,112.99587647700679,-105.0571375482557,147.14987418638149,-21.298804410338759,-57.33127946618634,-40.60434340062324,137.60754271413217,119.97731967773261,64.1789772180963,152.98193016602353,-4.958543131498907,138.1453659030204,43.1575617858489,-37.97772871389581,-87.03977921276496,-84.10923568485966,5.124044124608692,145.025494060381,-33.66678508404809,-78.61301751567346,27.15172417727897,166.3747356713438,278.504775232042,266.932331375725,360.8385489073146,367.43828080218,210.57768278404527,215.81282869394887,-5.355198194943708,1.8480987790446073,-179.8127417282554,-245.36416758706646,-245.47585448255414,-228.15793495389839,-111.18247363680048,-43.82680834116058,-31.84356688644004,133.1603637293006,60.74163999160864,-85.20846197954013,-27.79896248263726,96.5751520905871,187.2824980277796,-3.278747745567496,-21.76808625366287,-56.224637137608208,-47.735589210769948,-27.956726583441538,-9.844740344768619,289.83642157010805,325.6893463129126,134.17015210742464,219.6302318242116,139.14629479101618,107.63050331019751,200.3387309683099,30.71354529801428,-261.4530746314407,-315.7175175548747,-378.8937922256419,-520.5549845982898,-620.9001923816169,-410.06901367066106,-331.5523042957835,206.52095469055295,148.50680501468464,26.548913288260225,48.539434589257179,-87.11411518410842,-159.55079479141606,5.2183382304014069,88.56703689457584,-81.60415298993644,-108.49641272094606,65.66785579238736,84.75817705289572,375.9512510285127,193.036683879144,374.2009658573976,108.81993406841875,276.32652042111575,173.53015246449849,375.5212359257775,73.41050841691134,-436.49912518531178,-811.4998771446685,-902.7369001226656,-815.7726892249377,-478.9728576487415,-397.3630504080319,-543.2439492120506,-430.6811830830607,20.066665394687076,200.3088353227098,393.86123163501858,75.48098148017856,-127.89442333559689,94.51119249840298,68.28505176505257,31.862102245394988,-12.171104706256207,42.26935831597499,-33.808717165844829,191.5924073299532,448.6892405482425,387.2397198960093,261.1483482539155,74.67385291435004,313.92602469233636,485.93428524110166,354.92368765758558,-107.34721688756415,-980.1660272880174,-1045.5454406217025,-743.4113533262469,-830.9401156168234,-463.6678801654385,-652.5736743279136,-753.0945116771511,-359.0833003450923,-3.213190390402323,61.30119049171186,361.6576967674303,106.10663005901802,89.81576435947933,56.54077759415636,103.40347767188865,118.45443567442358,-41.764407151301877,-55.03916156231103,-89.64979674293783,168.78722082591436,501.1040823850379,645.140302663295,248.64280137478938,39.781170216429099,516.1619301102616,600.8190622482206,302.76590720896118,-751.1767596053925,-1045.8747028177789,-1009.3777807857557,-750.140036773643,-602.0957121575646,-347.0422285695935,-378.64844178899616,-464.6990204264477,-180.4712818386006,161.43632290311906,136.45702386706928,227.8585292779051,196.3961421077013,-70.10070667891198,1.170865366717316,34.20624646129678,61.22186275556116,-67.00275246127268,47.50824818355006,-3.3395554588164177,101.64404206694037,578.807443218292,387.63407446681648,372.9755342464922,539.4589848919693,889.2518042985549,448.84400218050339,-267.4191329416966,-1526.652319512739,-1649.3086910053845,-1236.0774934235647,-607.7556434883686,-545.2146531320057,-599.2709075600014,-719.0807451526476,-649.2670340045758,-469.8992540672364,-475.59847283172828,-94.33428465695065,154.35328966702324,460.1865161809184,97.86433164626077,94.87819294790158,-62.47097254844132,-92.51862542899156,-47.447150487837877,-37.64186773924891,-88.92238835159079,322.77780564444699,697.2065673703588,391.7588797394114,216.61157764600226,452.38522915750277,1136.5843896403947,801.5839781295498,-534.9694042326078,-1875.305834937059,-1936.3668770058208,-1320.5031888307788,-645.3643688824076,-344.94598373363479,-639.6632058114683,-765.494624038912,-532.3647561249869,-589.7617857706599,-443.0432278848635,-417.7811202490864,-152.52536821460857,268.82782942658226,547.8248843324974,206.588412194471,145.6882298141555,158.50168696241642,34.08391970437163,-55.02668145705852,145.26163754575857,219.75408059655514,793.3376851831791,316.3936916934423,-166.66627021333054,353.8756445057966,1175.2643548065037,943.2849571732795,-286.7553658057985,-1547.0375691418533,-1599.5112586730098,-884.0502729913238,-903.9412983150425,-789.9515601983268,-997.0003914110686,-949.9713919246194,-294.03766152275827,48.94010103326614,-27.00724132978175,-105.46476100107584,-406.3468987457717,-251.41959040587003,125.96507564589699,289.71657306010499,5.526476192310286,35.57637732243257,32.93993818329745,-19.942403274398584,-23.28642487441688,126.15464058248942,527.0883010408473,48.65722542170691,-751.5599539953054,99.6098874019104,1069.5241565693085,1126.1965169750723,182.59400108408105,-1368.8183746520077,-1616.2259223932848,-968.2264783381904,-533.5589761298568,-705.6235614470579,-1059.2881592112279,-797.551496428855,-453.473121551336,-59.82225136288319,29.990448424773548,462.80772397679336,72.06549260574026,-304.5327721583774,-20.176215244748698,745.4829849594058,162.44462885220245,121.31128323148769,65.81946954438684,3.0134326429213176,-35.29691156188753,177.24163084090297,655.8726540186556,-456.2054829948987,-686.0297375258276,-122.30170407675006,273.0356084472852,1018.5248359729685,555.7989895636765,-971.6959792727948,-1108.6078681413422,-1014.7468493838509,-639.7604830905882,-361.5778608226857,-421.19175355137778,-204.00459579147566,-92.84907717192832,242.03010085156613,12.32618722385428,502.76811303167178,380.5625729744358,-647.7016915782931,-181.45198260939905,677.3499549065151,290.3078761372258,53.42399639607526,-43.29577128579391,-59.486052740831919,-147.76905266716165,409.93985815745597,407.43365570159167,-438.0925204178791,-443.39290336618145,135.9120827378358,367.70317804604709,157.44603984398592,-11.98830605577515,-668.0037864466531,-1022.3031120737459,-1119.5585438172248,-1144.1348836390296,-316.50303413967228,-173.74374041761605,-215.55042590396048,616.9112682511105,595.1157426247564,318.33267874925846,758.7240773110943,626.000363032544,-217.7034357787238,-537.7333762687015,554.8766796298322,439.92177354153696,255.06312714473754,140.19033886371424,-146.1318916488221,78.14068701738906,225.11158345914923,296.7950558040467,-130.90470407689103,-277.89694060069919,245.77894538437963,566.9240545647322,516.8992710032009,-137.7766905103898,-486.7729072687084,-790.2159487060213,-955.3548156624962,-1450.7144712817172,-906.0166105615787,-690.7914042433945,-506.8153073610873,149.33027190849075,606.8529690352917,545.7898522969728,881.7918630977201,779.4043610728618,-178.34579413314459,-619.1882390682649,355.5258165661027,327.8130611366658,105.2772448060955,1.8079799288242742,-24.13938541592646,164.88335177437677,340.3949158580025,379.1725191381151,-400.68594176982006,-294.3986595300603,-97.27397676594326,534.5191999860113,665.2081716317995,-8.006188313325533,-274.24322416974999,-1055.589125560472,-1215.6487393795583,-958.0119182546954,-1251.6541799256189,-965.7637686303593,-681.1268467541803,-395.6678504635353,-129.0693891625038,61.65376637668346,545.8661861305108,263.3503204463734,-175.23324567018254,-629.7893823114023,389.43407786726649,480.26584856108397,145.56321939426057,-9.285665034694773,236.05305131805077,74.89357985664849,259.7557106783771,388.3942694562043,-455.2575818704488,-941.176822952929,-466.11158613558316,-73.7863459950026,766.1751507740917,772.6120139505626,77.14661708020152,-385.2589417847164,-603.8024927643023,-433.5682529656174,-882.783831199847,-720.0651938853074,-516.8666840039284,-450.0720306664175,-447.68679602277407,-30.71551218087816,59.40748658948323,193.78406373829109,-216.55033436832796,-565.5300003485018,465.7459307966999,338.73816920175178,134.0012840672165,143.34782949620374,89.10789357991655,-93.3883209530637,91.93441772757498,230.7778184884413,-221.25502199846179,-623.8023677355635,-570.3652136854016,-320.52395044261547,293.616624183721,772.274193055143,751.752549748243,35.240715657891538,-479.7235686999786,-273.7275052799915,-287.8344455349145,-504.9745720574008,-623.5068050584287,-497.482056640648,-296.1497893820118,138.0109346443245,-31.79874924961384,-109.54868927642294,-285.65341845939437,48.02883683346949,501.2729038685408,472.34982887620188,138.02423981327989,-85.52630117386969,-77.73108777860277,52.225292057774499,-0.6225631928186964,40.220174608504908,-352.72255187366536,-403.1803107880495,-335.8573509296299,-252.92486973729755,27.716730927203323,394.4708459610998,459.21178845390826,623.1601619872832,183.76103219979883,-293.33373934166357,-650.278046902795,-800.48411108595,-1024.8133861825887,-1198.6644834828799,-1060.910601063721,-443.6459868459228,-19.703406370632405,-19.87736534807723,88.40184468150905,39.65650044527969,460.83546883581729,142.89245435517683,99.88022104225623,14.283225810060936,28.441800101392887,-23.640522989373975,117.55847951515304,-141.55078915573649,-358.2329064626075,-520.9891375632454,-277.71812135967385,-425.2524101735148,-251.1946509597899,186.42653519575209,221.69479185120674,215.8778227547994,19.175920430025159,291.3990400323111,-151.61769235583709,-696.2450544668532,-1208.1504450033493,-1332.5997103519827,-1153.2869221773668,-467.3674075974987,-9.628806392350305,25.922509058048087,24.690954016171106,49.87049449484699,222.05492899653658,249.5361835525624,-26.091093716947655,-161.1934240384468,28.410357186931284,103.95614155615489,-101.40071721926644,89.6517455750142,-216.5633057568304,-422.61827484831329,-223.9774048035363,-344.08437852070997,-439.0808770231516,22.644648922013624,243.61699058270595,392.95034818121919,314.254473926642,411.91192534195536,116.87725105999502,-621.5590048290436,-1108.8446028577144,-1258.6428799649514,-1033.5103275587997,-625.3346412708247,-72.84403518449163,-223.9911923632329,-159.4538942196833,137.34364303966584,145.60020714905,28.497859599580399,176.53479182853784,36.30713149150514,88.34900874320039,-32.1758670441804,127.98234081833839,-167.46520282934763,-72.06816314664762,-193.2622187774683,-169.5147092971779,-94.2566647325669,-226.409061368203,-130.18966983191539,71.75271443161367,79.66355455320043,215.53922113685884,222.92269551087228,-17.811276364368827,-306.3269510945207,-431.9436181676284,-861.0260478868003,-1005.3413756699467,-540.9211940970589,-157.10329096664118,-56.725665199997127,-100.69617190200339,199.33305978602335,83.38116989413354,2.484758554995974,35.76411686821973,85.94409429969915,116.5785498420222,96.3637371819095,-68.57143302441216,-234.6443725460026,-25.89121274123193,-250.3937665786553,-20.296237277022298,-40.448067716387949,-11.852240809967578,-166.69491863160097,47.3517116172781,93.95315620415981,-59.33841093339996,40.043783744589067,-37.12113117797386,-115.02785004704654,-249.37304044212545,-276.9440852511766,-468.6447286138023,-164.49347238601079,317.0956950281375,342.2169946324991,23.346502905610259,191.57398260341595,75.29721327611195,130.03428954744488,-76.73495821899452,65.60467102493733,55.04224479765991,-15.907858036981454,63.360917974094267,-91.13568973356954,218.73746905027287,-27.552496057391914,-88.57400901216303,91.50182997396992,62.987188186249607,-121.48468565820315,-21.22568593830993,-66.30849406331066,-84.87390860638934,66.64861162026138,-16.894204322629979,60.16627017178026,-57.73857506824727,-40.721141286273489,233.86234939779212,559.0919155378532,444.9596269108217,559.962154172645,273.58710676491446,149.32251989754796,32.577410416884237,41.49952279851368,57.155883775109149,-101.19169253613339,-82.82138926517863,23.561982555321185,77.0428630213063,121.08830891320508,31.273645067895676,119.25497186100222,-106.47195842075,-4.0769689402359,-124.7326783484745,55.87842523069498,-72.47696456529477,55.72765199402578,-115.02961136669964,-32.68265811351262,-51.028363518999729,-98.5058506229112,12.789253643241587,6.4996801210548889,157.43727525552917,337.1084342285071,430.06991129653206,267.23136963128607,144.6397883019083,31.9671847939662,16.91064673003438,-71.85052818311118,-60.475808852185199,48.87660329610032,64.81351883087103,-7.781810675262778,105.91732327689441,-27.108360347509828,138.7520893523586,41.10504080013886,36.76828245762001,-12.484230305290576,13.22020477082689,11.795117696201276,39.80656596277999,-118.76166426180318,-30.779046385980423,-57.84769451376486,-47.74347174558312,45.49627330731945,-93.05457177304554,72.9357020817776,94.87155529463209,117.89688246955511,15.376447157124084,-44.890058764246308,-85.93353264351468,-187.7434732392306,125.97275065535684,106.13004359648501,-91.50203172980261,252.4494389668016,17.197440910996656,-5.090951333532698,19.272604584939729,59.20033781135204,52.15218504143549,18.19214117128595,23.705225247249559,-97.91947537522266,-2.556650796007111,0.9273359557757535,-54.652332554385377,-146.55132746332584,-47.58458695049227,-127.14328992629329,106.15578371905203,-39.02965753180237,-38.274425775603059,50.44864105909287,18.42608168688516,124.78221429107966,-53.928543420532168,-29.13453800136324,-6.019693910511838,39.96824872554228,-13.951465690569047,-65.74464663786488,4.15460777473898,27.9865527290238,-103.95349353390015],[-6.048660303257875,-1.656329318339683,1.2804660851421646,-0.5460132462069489,-6.722675266305742,-7.00407149330258,-14.515019700177787,3.213313917617896,-8.910023018787,-20.771461647241066,1.5149709992947998,1.1075503819192936,-7.589068850686112,-15.067856132241636,-1.4455301032353035,1.1400140469139642,-5.164147152552508,-2.3106767112340247,-5.287165619557805,-8.571513841684367,-22.105986843361216,-1.6450230928729182,9.107014248045868,-7.372238049492717,-5.270715050267191,0.7793522358686443,-0.5143248166962899,0.2951527163389284,-7.000391019591784,-21.956532881022878,-6.85506896428409,1.4213074026593656,-0.7568261295699355,-3.2645345296209506,-3.465108452469376,-2.335665911337534,-4.302077443794762,-3.178074563941686,-4.327322814543732,-0.4834962006542081,-7.818328612629495,-18.732720008333449,-1.1651897825761406,-3.4908031969353887,-1.7655511822307622,2.956931980339307,-8.649879195501264,-8.085097101235095,-6.616299173671986,-3.088321972988572,1.4702645840786526,2.4801080520314118,-2.082481660162256,-17.45602129794667,0.7389221931426747,-18.921080477458245,-7.62583934433013,-8.571014420207363,3.015466839603089,-0.555774001190876,-6.800181884211192,-21.208928893798875,2.5730943136437607,-9.368172256372063,6.432232610602066,-8.339774443952623,-1.0553173259774527,-25.91739684468401,-6.794602246882013,-9.444263351928706,-14.154093178189207,-2.0963437098773918,-11.11190629006997,-2.236531521511093,-7.166125174902124,-7.369886723376122,-4.474974525002505,-0.7042178586668193,3.84629922965496,1.3319285051306494,0.2560542280893431,-5.242574549965775,-2.84389666840822,3.5787601437930998,-6.189407464431776,-1.5066692043680783,0.08053202951335047,-4.359285482053241,-11.025369835582547,-4.431124825675881,-9.82844343376781,-19.126306454190418,6.989852053531632,0.3467324937216654,-1.2608777400661886,-11.928809276364972,-2.335102721019487,-5.250675031403025,-4.980753727959065,-5.70402329475602,-5.452485497008871,-5.295608867274744,-3.4232170174973826,-1.9534160039826719,-6.191350455553329,-9.31197698636525,-8.834464409128115,-2.405742363229549,3.9782770233664217,-7.868579814260685,0.18667850915070445,-1.781994269442634,-8.942497143158395,-7.128779354679959,-12.324259254021982,-10.540632982241354,-5.497717799105461,0.2630067443268007,-2.0698761214595198,-14.866680573465187,-1.8552738296434839,-8.623422267683818,-13.92781390526408,-4.200755281557484,-5.642655184534313,-0.9712007248823588,-7.91226115377425,-1.200078119862647],[0.789036332486659,2.648030727301836,-4.818236575150468,-3.355897629530924,-0.7320452392418886,0.7619613089092014,0.19783482495643843,-2.946241691503841,-3.1733402561577446,-6.835358935867129,-8.500115461590382,1.2770548005745586,2.771580249360931,2.3115022692367837,-0.6391464308254303,-1.6094380953944177,-1.7889106012875805,2.38586172783985,-5.869974879026128,-2.6610356238364365,1.2608625629500728,-2.0719411337065405,-6.054199673842253,-0.06968257241311055,0.8728563812361113,-2.1616726492884319,-0.30283984186068527,1.5229153743212894,-1.8957713496703759,-1.9344588746124155,-3.7798441898706289,-2.5587339550239,1.4473676180122533,2.906187165736805,-3.265361329455639,1.6965739127210078,1.39212986412145,3.8963354786065405,-0.5897534150294772,-0.7647089912331488,-4.465560588955749,-5.022289094953855,0.6854910169565807,-4.604855992873076,-1.1693805651233858,2.0314780847939239,-6.840424520704192,-7.140750341924475,-2.3987787095303165,-2.4934708105505356,-0.5236708637806787,2.587293287730567,-4.112618092380549,-1.2446730225519934,0.1706527381144103,-7.053854492433715,-0.014992326670609168,-4.6531235052523869,-0.6706945006199053,-5.719343999983055,2.2441836080484438,-1.3811578654047153,-1.0477761689347274,-5.973603177878596,1.0028462270783154,2.776177398625175,-5.993934626425876,-0.19443067117734814,1.3977370680088877,0.44959799881258658,-6.706936427466766,-2.903687325527498,-4.916036609549406,-1.2628575108053078,2.411839382497147,0.6487645867664403,-0.4165043690762453,-3.0584912173541207,-0.20718982390851913,0.03157065459785698,-5.891028572902384,0.6134191965399517,-7.712211753028884,-3.5498918096822988,-1.6922729043179188,0.6348483925287318,1.5794064394714978,-4.017099212074982,3.0313841976950908,-8.246075284008607,-1.2051893997449262,0.09313207955456278,-4.58069017381614,-5.650262571814652,-4.155242026997352,-2.0499431372617309,-4.729813978579421,-5.2642991482357399,-5.594806727314935,1.0194650405620656,-0.7599495369110793,3.4697568062823018,1.1253162395395116,-6.588685038827853,-1.67602212074258,-4.858419797454183,0.8654112712723076,-0.3231344560627172,-1.476708182055519,-6.320381575128069,-4.687302310425412,3.84573965674431,-5.016251120741776,-2.1463353206900974,-3.9575478336026079,-1.6851059098487374,-1.5792295459277717,-2.317988528176721,-3.4570808156288486,-0.8036594283199253,-0.408700820840729,-0.8132835838576449,-2.4332920095644767,-6.954760344209607,0.656289895888659,-1.99433874650799,1.2183173446803682,-6.736784635255682],[-3.538765373834158,-2.8569936368760606,-1.4550556741144623,-1.1662583523314026,-5.402990363178525,-0.8092342525079094,-4.468410936588901,-3.3115378250570806,-0.7959039723409751,-3.018914597683675]]