[1.626104117272412,3.4695315042391554,1.6201821932312184,0.7897101062818042,1.6624208388269333,-1.4781395632280106,-3.0905891988180169,-1.8862738886507016,-0.9785545501128061,-1.0792862599761364,1.5538558542484316,-2.1274040772226776,0.7138000662840431,-1.914438366459807,0.8919028945903325,-0.9673524300355345,-3.7162505903949407,1.9568638360967433,-0.5659583509902555,0.9263446354439502,3.7322247750259329,0.6571151095870951,-2.724643929009555,2.5215109429963027,3.6550622977080096,0.31278770075732967,-0.8494849933372601,-3.803507819141779,-2.910950071296659,-2.1366527358790288,0.45677731369938,-0.3322242778868125,-3.2541344538209477,3.3658298624505686,2.95224825570848,-1.8771842108946547,1.0379888047997135,-2.2319056606408944,-2.8475884830600277,1.7289865703976367,1.9622677784208778,0.6670453397872782,2.0804593306290766,3.4885685339544425,0.9960095331671193,-2.0694827111639,-2.0882460400626519,-0.39542271332736358,-1.4003788055148959,2.8172642567459844,0.12125563594498878,1.222766489991577,-1.490264285218631,-3.690959170506722,0.6147320559999763,-3.9933681292568545,-3.2500779250323017,2.1711752487615376,-3.3676496922366407,-1.5011105488340635,-0.6735340673566608,0.2804164100038502,-2.810764192237097,1.050037883147409,-1.7710710002330219,-1.2381916225147052,-0.7591785240304967,1.1403621047433604,-0.18819338336114289,1.5088224515061449,1.702722196953351,-0.5882244358965336,1.8206630396077666,0.34707539694088399,1.3137138496227837,-3.537876022007535,-2.2837726225314549,-0.14565425312234815,2.051205725587395,-3.5419886520151939,2.705401718757077,2.476218629147793,2.7704512103248124,-3.884549119718619,-1.58997400264777,-0.7563552075090465,3.4263663348097816,-0.2515590800793943,-1.8059913343995347,-2.629976051591145,-3.8020342514211888,-3.550784392576884,-2.2428924208107885,-0.7416019186149863,0.9005201721596006,2.605471910895216,-0.8404374063577382,1.647634143527089,-1.0669049689296629,-3.7702612944184716,0.6656405062498383,0.09687577180882023,2.8303305596562025,3.7464891258323957,-3.507345923856416,3.0513941082817714,-0.33052082345314939,-3.245346555796237,-0.07419676507201323,1.746690330269093,-2.0521750559161138,-3.3505068823705486,3.311278356622288,-3.709505884960449,-2.9339554489664616,2.0693545949747049,-0.522250346012803,2.0076652520751097,-0.06995314388471585,-0.5929686398085197,1.439085414082932,0.22413561277849149,-2.1507719580983037,-2.0270681549296896,-1.6505884942059144,-2.668122380174304,-0.40255630997775695,1.5536475184590178,2.421747347630916,-1.3813056524739427,0.7074427609486849,-1.9379670332937025,-0.5374014812061061,1.3233603846231388,0.31609621653696787,-1.404568960472133,2.1462432558357316,-2.0691317221982166,3.5275408348556649,1.7634294852940898,-2.4503254665917799,-3.7129033641558735,-0.6251198983344404,-3.6182155908212074,0.8165634868799154,-3.7533175196624999,-3.343633721443668,1.7389098859617818,-2.994193544879365,-2.2046216587040767,-0.06364154311248549,-2.2506601349409189,-0.867117728673735,3.989521575225292,-1.1803506641978148,2.702377933711314,3.3060171098115607,0.8274452832135379,-2.352074858862922,0.5808548833834193,-1.8624225938605923,1.3997895381260195,-0.7583635905170914,2.2907296221069766,2.972354480520986,-2.9335914312983597,0.21475383128210979,-1.788221204289867,1.6174561463014446,0.9787740112863741,-3.3287939812122735,1.3414113497576548,1.8381944836610523,0.8495667689835482,1.3155730761279108,2.6793343474404116,-0.09165086305342185,3.6353187348637876,2.9956687045511236,-1.5319521168488917,-0.04595206513182837,0.382760590678453,0.41670284710290508,0.7543270611337407,1.5863107959930867,0.1422449846048881,2.5435900255986985,1.109733426369754,2.3350190271781345,3.533082535004855,2.010677113908451,-3.1624605472127449,1.4790069017438486,-1.3252217494633743,-3.744089459134531,0.029889573611928456,-3.4062203076540875,0.20565687335958406,-1.86170286014246,3.6608853377368906,-2.2802877124154037,0.6096296597689843,-1.6139039557695432,3.877167233958901,3.1743627564323129,3.7493710027287738,-1.687591281001815,0.41499597099802179,-3.5013908759313026,-2.6773937001265795,-1.308270316932541,0.8445728237080177,1.8898166655732958,1.6992976442093176,-0.2751445814633575,3.8664536242401477,-3.0764919249054358,0.4425349487992323,-3.202012430023787,3.9196068505673224,1.993154660946841,-3.0752266923534687,2.9579532755355215,3.331978573386225,-3.7665759386063639,-0.8427717987741223,1.3247237376109987,-0.10230309847914221,0.6900344106714611,0.03055885012187609,-3.2718541989576019,2.3278386067300218,-1.6995206759291398,2.8230713345573097,-3.3351732630913739,3.8985588141190936,-1.5032410188861663,-1.418616924063654,0.19081540567565637,0.41132482448804988,2.009711990392664,-2.8529270987064647,-0.6160993937917902,-0.9040318876470384,3.9318184152702635,1.655425246060366,-1.44231768973305,-2.924742965621231,-2.546951965060944,1.327179191856147,-2.6969791042544237,2.020512862586984,-3.9072667795613675,-3.682447365187997,-3.764514109803014,-1.3351880903798288,3.118783479678865,-0.3073408403648399,-0.9745945822594406,-0.31925645240810587,-3.561388586263819,-2.1604718483158429,0.7065205789847333,-0.24109355061835736,-2.4522694863824316,-3.690828240461281,-0.7913667016374288,-0.6964329711663524,0.10807890196907977,1.3455648201183755,-2.4962219175553548,-1.6120944997947045,1.7268950270907154,1.459344396070005,-3.769303433846975,-0.686652977910269,2.1446589784828156,3.93860600642779,3.5449108802168478,1.8138417908406029,-1.1337464999038998,-0.7083322698121679,1.0910288427492097,-2.426102335371991,-2.0158071695780848,-2.1528400221359087,1.4907093584191316,-1.3259159739420783,1.6207666503119223,3.9708817573464314,0.9777262873041259,-1.5121982309063873,1.8112067132700665,-0.9128444196493231,2.191419882751423,2.992166978016839,-2.3482599623291575,-1.9116930532381387,0.3951119197617192,-1.3670383144139089,-3.123510032336741,-2.6870917313217577,-2.9943572211897626,1.8694103899234085,3.80426553805476,0.9146606633861083,-2.260341423376177,-0.09543157696147398,-3.40590435934228,-1.0492299840555726,-2.674574142565792,-2.2359125887517754,0.4020680430209156,2.7389196800312716,2.29865871812188,-3.642531522140086,-2.808105416239316,-0.5083350341955788,1.5045686177158766,3.254900584071266,3.5275834924038449,-2.6184784870952129,-1.5607710741701129,1.0490369631041486,-2.3865318100951198,0.6010561607664444,-1.3767810705181356,-1.7879614454233866,-1.9712894819953926,-0.7699970508124476,-0.29855508890908757,-2.9311317169838739,0.8643080517822002,-2.280658188995776,0.6081311249837329,1.8078175710314169,-2.997338471749276,1.6934769029034396,-1.245977444728739,0.04228600159139351,-2.8159381899838369,2.795011957100508,-1.9256841421568645,-1.440272263042865,-3.328901850194965,3.148209130456996,2.9738090483261736,3.4090026633816459,3.724372656191213,-1.4177373200248947,3.3183273173184739,-2.1692022935640109,2.0225982556794808,-0.8425521132490006,-3.0135141330521995,0.5228469343510511,1.4650170351469818,2.4365987684370609,-2.077873116599066,0.0786787505340465,-1.1224233117801126,0.8294322315181093,0.7561063436591136,1.1853535165031906,1.2573963537572608,-2.301384780679097,3.64864523200393,-0.3127415867322314,3.721595572889349,-1.2473962265132597,-2.4353601315362036,1.5059622750169278,-1.877557151755118,-3.078384421237259,1.3707912657000634,-0.8650352987851822,-3.7084501965410014,-1.2761021502602324,1.0825751079270214,-2.959712134577839,-1.1660807651869814,0.9782187989135824,-2.0827470927912747,-2.4682376990355596,-1.110509923971177,-2.516952730049245,-2.492028657630698,-3.1489240650137226,-1.839550064784313,-1.616810928550237,0.6402526673334599,-3.097703028057837,3.816643849684712,-2.310799641130833,0.43140356066856269,-2.563611902050569,3.1519599731452025,1.7517073204315894,3.851465322964345,-0.7572412442379557,-1.42552017070812,2.9505242563895939,-3.343195149921552,-2.056825270256807,2.5651111814509388,-3.403737647471962,2.607576773528801,-1.5762958015963094,1.6806275413415098,2.189459494052471,0.5874921028491844,1.1586316915282656,-3.71681509077142,-0.4958493725122006,0.8083681038009338,2.820349177053112,2.1059746003796304,-1.644977472852883,-1.4587935318276169,-2.3991193948699598,-1.027609899843263,3.810022126950387,1.3920378872313535,-1.4519970640148179,0.8391093470934639,3.8927993514052465,1.681748236565796,1.9811608756448998,2.357766565821537,-1.5186909497330286,0.5347936523448578,1.9514187607462779,3.2412426244849197,0.10864362643068315,-0.44728879083054298,3.194309222811012,-0.11478204382172308,3.291270449012682,1.070807493009947,-0.273028220213698,-2.2670493670710449,-3.1061290108690384,-0.49942095331822836,-2.636536321979645,-3.891813877559473,-2.8533599192813989,0.10410228592548432,-1.306263210327961,1.347884491364506,-2.566642762786838,-1.7067960291769442,0.7053257926550263,2.7615489015435887,2.7823378071486095,3.5810429237444536,-3.7618052888341566,3.419366393726614,0.3857068953104381,-3.2456093545028326,1.7729750902090827,3.701199451342063,-3.5976420331530827,1.6456035712578725,0.04783129493377469,3.99471147511381,-2.314560851826993,-0.49383566225692379,1.488811762375966,0.007466130719993913,-0.038890389574655518,1.1717445349467966,-0.5617003815464547,-3.6923971409339577,2.3857737152629925,-1.9992520544551427,-1.255736230582366,-1.3693335073624767,3.495247556134217,1.2039161763377413,-1.6941562318609958,0.20196565072218587,-3.102597705904511,2.5672895273503357,-2.401945837736913,-3.255937527537129,-2.5963775752784707,3.301116397531831,3.2574382532706327,-1.2391549576719443,2.0849088151448385,-1.650278478503935,-2.1705568792124207,-3.4890944071878229,-1.1026473008706664,-3.4197545393313586,-0.40724456887854978,-1.9144931390422198,-3.6247566662130579,-0.17457478152919049,-1.5838287218653227,2.4981651885339399,2.689066876410582,-0.4612391826415534,-2.671262524795349,2.826634262043134,2.724641497284078,-1.6838554619114453,3.2734578141999686,0.5622887736200228,-0.9922146696174503,-0.4658884127352563,-2.5638074412821787,-0.6257878014772551,-3.8264401913847676,-3.0842296372395507,-2.5309948981144778,-2.164162940508745,-1.7885858945622762,-2.6282256061335325,-0.34669521595741617,2.4890187999878,-1.396416316255542,-2.632996567875618,-1.2721483952007598,0.5689056696287089,3.089399821559555,2.3325269445839007,-2.157777983064136,-1.2972725028896675,0.8746335748314706,-0.5906622522229261,3.5272557503323265,-2.5773514821588154,-2.723142491105915,-2.459963884829314,-3.2488921081009316,-3.703745774634088,1.3678074428060816,-2.1710372505634796,-0.6559843291988132,3.293867997282799,-3.072694060749688,2.8907844831211637,-3.6010857444879909,2.363350602869124,2.1537652041741337,2.1917739144355794,1.1263654183666346,-2.3874412444970769,1.2998753383894677,-1.9462441270167597,-3.6005593904479475,-0.4406913329071731,-2.7675952672526256,2.220079972769379,2.395835062578101,2.0537055922360114,-1.9772688093479476,1.5882338898180129,-0.11815949075775456,-1.144150898323212,-1.2489961899635303,-1.46800130071332,-2.049216252788031,1.0924087156691523,-3.218629065837214,-3.4753405587827785,-3.198291683826792,0.38089874395005376,-1.3025112494480527,-1.4441870227931944,-1.1624472367914776,-2.537215751073022,-0.28652599264071557,2.2823906518448444,-0.5697591949148004,1.1929009207873627,-2.0049130810091357,0.838970673334857,-1.0499325577278074,-1.3516296040157734,-2.9512567638430058,-2.725893550186563,-1.3742585333181224,-2.1127651730749417,3.2110940618646879,-1.6345446075528685,3.7459282772340698,3.19931293655534,3.334214083072898,-0.9890579835546378,3.6528534271412145,1.1874542472390353,-1.944931576810041,0.9874679120365277,-3.7216503859458838,-0.36785561306304639,-0.5251734612567756,-3.8331254770218559,2.170198114022357,-3.515443230244543,0.15867457425427124,-0.5317881655804477,-3.518642321537693,-1.9221405744550744,3.5811504503755744,-0.2783288208428052,-1.609485309641184,-2.09359008782745,-0.7202980606683473,-1.0276641379667273,2.484090198885892,2.4429651301014987,-0.20707713279561824,-1.9028174545412382,-0.024010623702841018,-3.5584905146601235,0.2851206591201043,2.1601353988988585,2.8368641402005174,-3.334428208022506,-3.500310906937787,-1.863036881094823,-2.4057874356433945,0.08959790783740829,0.14349219225866517,3.6320799389995548,-2.6746361410447347,-0.10340505425890379,3.4921177773020046,-1.3213043489602419,1.8637342742303718,1.4923339044325293,-2.8929525765779608,-0.6931193216235334,-2.6176659772265316,2.7900824650340274,-0.375523773981868,0.7487306231203696,-1.3973656652157188,2.661508043807645,-2.507550763832014,-3.256317269819272,-1.916254027862024,-3.9058077856147115,1.48961869409065,1.3017722088798954,-1.740760499050708,3.785469780249838,-3.0342000395675976,-3.6087742535140494,0.5474408710934302,-1.8571479081099707,2.4041635765483368,-1.890240966837423,1.4602744424315493,-1.3989984904994318,-2.207774334941522,-1.892105646121928,3.087015349563769,-0.9480269306899363,0.8878581631025035,2.6205833489052869,-0.967693521791217,-3.274457904817206,3.865742543750594,-3.8001431713755737,3.815607375354819,0.08023397467474158,1.297585205786965,3.2954309654591817,2.010063386115257,0.17370112569406349,1.4446091444165843,-3.0731171513034125,-0.5794696370316981,-0.6764026619395425,-2.732695364395963,1.369678548386351,0.29538449305087247,0.4323107968248028,0.07333210764329223,3.3748345930987284,2.6141084556777427,0.7062402698085402,-3.9775821695208579,3.125487561518777,-1.125677737000318,0.3150298947574015,-1.8209170064726577,-1.4086608743289267,-1.2613236085168858,-1.4622677577384904,2.622871300193773,-3.814945232539526,-3.741563988107192,-0.08434567932958537,-2.015862619233909,-1.145219470555114,1.5814864956794939,-0.845394894358426,1.0928485893144143,-1.3767298658153118,-2.375710690097776,-2.570609701284341,1.6613382766033178,1.6288785974110223,0.5552593362457676,-3.4696808077603844,-2.2071934013410638,0.4795992563565452,2.873458655499066,-2.57392435084326,-1.6299663081604783,3.761501729816949,3.0735261900844454,3.179311116501732,1.6254853619996679,2.185259830572936,1.3719385283672346,-0.7651111372967778,-3.492783450151692,-1.5077171512563459,2.996742703659751,-3.4479726315168,-2.791903674079858,2.014667530076494,2.0440911676795707,3.000892009857295,2.937090973202819,3.1563011434426357,1.859717035736388,2.6634800220145209,-0.6959355187403489,0.1288259153611584,-2.2751862212609685,1.7226725997292976,-3.12924834568003,3.5253716562633468,0.6887417400244171,-2.6056149825762828,3.1904891143972406,3.3106449698836819,-0.018024811768060368,0.9765610329839278,-1.8899709088158952,-3.5768368771040448,-2.374121701210643,3.2164474606993709,-2.340025526197513,-0.005704581250764784,3.5093626984142096,1.8176319332604534,-2.9206645715454027,-1.136740649859165,2.5128868188417137,2.236156995692933,-1.669530336069611,-2.3648544711927714,-1.588938668697384,-1.2336304447823617,2.585033285146964,2.233634702877616,-2.831953812030884,1.3185327698308625,1.55759639710873,0.16234676919298875,2.323912630403764,1.0009582416856607,3.008965696872144,1.2978500426330993,1.0174715332337332,0.23075306337221858,1.3654008514370562,1.6803085484359502,-3.0620603855469286,-3.9649000121215138,2.0300709507476579,-1.8747562135961238,3.301547203728653,1.0970047253791853,1.9501755841325786,2.9832321970739255,-0.16406732601027786,1.4384762431171377,3.389550907455148,-3.9638116012610418,-1.8265636949408509,-1.678574235113926,-3.1516644235151718,-3.545525552345379,1.8272286295339165,-1.4878912661416415,-0.0778914295161075,1.5399126061938998,0.6650603068843877,-1.7299330553302426,3.8847016658903339,1.775680516749195,0.8278378562592819,-1.6416104497222115,-2.238403657793688,-2.219174471446424,-3.8108060753560695,0.9258972618982719,0.3929502241822984,-2.090342566157992,-0.20541372751432886,1.7605089691473639,-3.935832807532763,-1.7489668427817067,-1.6283483943976725,-1.186629942590988,3.0097686085444739,2.8367814455672315,-1.263125558286115,-1.3566667734666729,2.0449249351093785,-3.129153957407352,-0.9431497241118558,0.09362609153120794,-2.841631572781985,2.438453342121673,2.0787865359639534,0.3934866152544787,2.5364955675881655,0.20477304892801397,2.8759859241391299,3.5174483112393588,1.8419162181458982,-2.7889211532459567,3.2544494555324068,1.9448992084321218,3.627118527513331,1.4495223881743487,2.764785434115881,0.6006399877119435,2.175679402300725,3.0926057148929164,-3.416237685526794,-0.3153955715778076,1.5036963384933069,2.41935746978094,-1.0338793118511616,-2.9367727894758097,-0.3132369574680789,2.2438918657504125,-2.8294700598349467,0.7452725989173201,2.5809630140685746,3.900732325295672,-0.9312555806138863,1.8544759337352064,-0.4000818251817364,-2.635018720507456,-3.099988114545832,-2.121723891348269,-2.7728081847039087,-2.7281182046767649,3.7054225553332067,3.8167878991638446,0.9614060044389516,3.3112428320170199,-1.18832553193886,-2.8085433839082496,3.300823136410279,2.776986694069417,-1.45431128797922,1.2273748675689334,3.762200044331731,1.5036875386097873,0.0020032450808793458,0.23074408562944716,-1.189830224801776,1.2126308090193954,-3.426310678625427,-3.4109988575771394,-1.2391301543004707,-3.3042399379965099,2.5940859994990559,3.2590264608342709,-0.3523135748834676,1.8933615961828468,3.851235282004854,-1.7774377931980175,-3.3205281412560057,3.8901584379407527,3.6702207045458357,1.8979355185310186,-1.5663178494804405,-0.5467325416422744,-1.4934595602566552,0.04350098442687589,-0.3920114863281894,-0.20111965907600294,-2.372760789059636,3.782775163505238,-1.384641911252068,3.5496210786764248,-3.9187540190510496,-1.7275293609068614,-0.7075716599549151,3.607077917364344,-2.3483015543157368,-0.39379855546325706,-2.7367064515753816,3.33818582441842,0.4067913375321037,-3.01586963527273,-2.60644272689174,3.152222308955749,1.999385698237277,2.8580769822289699,2.5801390888429509,-1.7380009214199197,-2.647100000884964,-2.8051540768378038,1.819011964567883,0.8378539908116851,3.296105510576801,-1.0096232377239867,0.09162882329847033,0.2736629358006484,3.952779710933971,0.7865069634389412,3.884543704860455,-1.2970360985780174,-3.4818528290868828,-3.9594020395817246,1.6276390152853174,-3.168297933661555,2.118318694856346,-1.3417165590295015,0.8069507894894441,2.3146168457109947,-1.2242555181794393,2.1955690433231984,0.011674764747536593,0.3853925508587457,2.4307646163962977,-1.7749194233454804,3.5175891782797796,0.9903287219539916,1.1104862818863178,0.44468075265332898,-1.8136797795527853,2.473204330384301,-1.9578868029851136,-3.0237872367772029,-0.9807500006623846,-2.9414935206321024,-2.13175954762767,-1.7482693208379772,-1.6093174708681593,2.1703470890733369,1.4423472278648735,1.7826204159257815,1.7483212908945323,-0.6603408773270802,-0.6345055800626265,3.6644591302452449,-0.1480496754310503,-3.0531590690127707,3.2365279583569954,3.5071889874394577,1.370150465296602,2.6571350947605056,2.504400091465855,1.3837084804994167,-1.5359777896118415,-1.8145927252004102,1.5967415675171593,-1.658386831085812,-1.2066503917859739,-1.6760425505795616,1.0542217161796553,-1.8283020783541149,3.383982891737187,3.419959817110165,-1.6396046357690855,2.0240401837586745,-3.3606476817314867,0.7158172276767711,3.968972836075217,-3.561459732417539,2.2844838379777885,1.1072363969667452,0.8714137370641018,-0.6951847797839532,0.3725741726615688,1.87786194911308,2.6625130905834197,-0.6843859056988597,-2.123007907553176,-3.0534721351009095,3.867029659383647,1.889428766815123,2.5261111553380948,3.1493242672636274,1.0715313226828923,-1.5348253318201695,1.7617963387381109,-0.5181910957371692,1.022242530940792,1.3866304952040896,-2.5216902367945979,-1.1236196636424099,-0.1905809648044554,1.7690879501607464,1.8511645054916013,-0.3474970100960979,3.035374354673638,3.671732978090075,-1.1674682002772874,-1.9314469406137809,2.397311885258045,-3.1617777913874436,-0.8714535930973748,-3.6820196665355819,1.5243463948819845,2.8818198980984155,1.5678639267388333,0.32909879927996768,0.0511297455248414,-3.034702309815608,3.2627720577667445,-0.0015788979784465696,-3.356634395343054,-0.6316617029732523,-2.60986352357172,0.5739032763311345,-1.4939946703544616,0.739202230789938,-1.9445540479406274,-1.0098474016559074,-0.47860573992546487,2.000621813507262,-0.2740004588323439,1.3098149608149532,-0.23753686045536516,3.1376930137240226,3.315179702423575,-3.849502208644809,-3.515800846348159,1.6791519816445604,-3.0348018527704418,-3.2427302811539979,-0.8356311756119796,2.409773813258206,-2.0927688224476848,0.7843950373509054,-1.3748342191138719,-0.6863151699989007,-3.6329130060141496,0.30364121010486047,-3.0682710043518535,1.7232869618118399,-0.9403599991417444,3.035584312716918,0.6348425978624439,2.2634797340392707,-2.5812464833402526,3.34988161479081,-3.4948041332225214,-2.4852865035552726,0.605428233368162,-2.9967385424613246,0.9538973046638546,0.3738935568705273,-1.8015383878048808,-2.421711972127941,-1.9307141245360536,-0.7204370859873175,3.0723340004961718,-0.6182776818352898,2.921163476776007,2.927784854647417,3.8042002929826079,-1.1467388793055049,2.3691316383761737,1.9479091865023524,-1.3541893382131194,3.4420657261449048,3.594758261459469,3.047914477944695,-1.287952641728172,2.6408295337239719,1.4340147323035196,3.3224910142648049,1.213424916149922,1.5375135839419443,-2.744375117522149,-3.9554744685455249,1.7268450912927343,-2.274446342354925,1.144277264505864,1.9477093860219226,-3.493756492153711,-3.3678405509952968,2.856357962478895,-3.471822328746942,-0.6474367104580852,3.734562861362118,1.7983594015020499,-0.09004082588179174,-3.2161724243872698,2.004646284002974,3.7425097756188165,1.4844695504283632,-1.0066618010393483,-1.6781041654103158,-0.8412604629783884,2.001906396614224,1.667209145604284,0.3760887701051887,1.8907171710891638,1.1995936282952924,0.1600630348597143,1.8952328750528303,-1.3351752336499523,1.3420151713956417,3.931863656489985,1.9200080586830897,-0.7114257271886846,-2.7026297112106976,-2.2011235697939339,-0.8780542835076519,0.8262576791883749,-1.8568734162705898,-1.7472241631228816,2.5711369627372937,2.6518132600900525,1.800975732420639,1.376960512665316,1.5629128902726919,1.3883911288602367,2.6584423244948249,-3.3113372521288868,-1.6134579865449795,0.9460892760781574,3.8897773270036639,0.8858497132129486,1.192621369232434,3.4407300590707408,-2.9248781621780957,3.9972722403890295,-1.12602831860179,-1.1658502811106415,-3.3321927952998369,1.2055464499205054,-0.019092919313880464,-0.48138719092047368,3.1621444074547,-3.9710925654737707,-2.459449581994872,0.4412544117930812,3.3450281907779404,0.3304070422233192,-0.10361623426670086,2.7255237975524349,1.4233843249762482,-3.588199823455139,-1.7094244440725933,-0.37449146041966965,-3.0273575315432437,1.2573077223207508,-1.8672993901925799,3.0530675382547018,-2.785897975668931,-0.511089955093311,-3.768674940578686,2.2103025258263928,-3.001224545945087,-1.0434062068484656,0.6877843393273135,-3.287331277452794,1.7469661169766165,-0.09017728019283489,1.4046118554255003,0.5565628245273793,-3.143746419983527,2.363963494410444,-2.8200959431867558,-1.535809190778422,1.9523212162068076,1.1253033210199446,-3.5086038312529528,-3.4700785883834168,-3.1100978766542628,-2.010147474515456,-3.934730377455402,-1.5993605445978203,-1.7994286186531754,1.969957071706367,0.7543471153175858,-2.939380624716005,-2.959044428231431,2.177457666862723,1.1059804183524023,-0.46402822497954868,0.4627495877640371,-0.7443392294155358,3.8282931723760438,-0.126238209053531,0.6885564221438152,-2.3653645365271647,3.7883942613043848,2.591877579485306,-2.912699916576371,-2.356141953333551,0.8376729733677397,-2.722340723851036,3.804409896038009,0.2334235183049529,-0.862970092561339,3.85335833581576,-3.5295100924065236,3.82267293123697,-2.6058410111493295,2.6640563516592,1.9022586918974183,-3.807327705344518,-2.4126209850216426,1.3257056924852569,3.58909997182075,-1.1264759158355669,0.5073514970144286,-2.1533909411662686,-3.431611079863343,-1.8193369601106804,2.058843844980922,1.2084271645565954,1.8845272192527638,3.224332075074427,-1.6687946881131622,-2.9386083878223436,-3.0485237960267099,2.023873127865862,2.0407345343312279,-3.959511720223859,2.761442470283205,0.7664141340573796,-3.5282017177983135,-0.7035043040197069,0.3996794758742235,1.0503637482910389,-2.44253041720682,3.4869582679269346,-2.478610924265995,3.112811435338661,0.42019396775324227,2.8967842724913419,-2.744738314695171,2.1765653549263899,1.4250380035103172,0.7259457490417871,-2.0709445671091268,3.8795218772681707,0.02031113932853046,0.8729334196287324,-0.7907717000446135,-0.8326731075480769,3.758375010516885,2.675956931457681,1.1865339843760739,-1.8009547726954869,-3.0427542276779055,-0.8182250063326357,1.8737530164832413,-0.5769358788521404,1.1497497052647746,3.9823583136861995,2.003553462136935,-1.069088085029847,0.20517443977360284,2.5010043533585977,-3.916115758288128,-3.018775841523519,2.1110519268493626,-3.2072897591569857,3.91112950581402,-2.605774900658517,-2.352095424278101,-0.6542260082172755,-1.087800929141647,-1.4653148726034749,1.231805697505079,2.081462705682341,-0.9787397768044954,3.3069518849457015,0.4562390798094409,-0.271718222391218,-2.176891843175941,3.0059210044862185,1.940263954380005,-2.495123231319748,-3.0745354309894914,-2.776546716135573,2.734870872360272,-0.6367633905428463,3.0264161884475104,-3.396348793766914,2.2863032765494948,1.2818274134058552,0.4740765809694878,-1.5144537300190475,1.1351394802503868,-1.963372791652507,3.0865093972127735,1.6442395296911406,-1.9648123739064974,-1.0499392700807544,3.114621904284526,2.2152824067616567,0.09340401072140026,0.9715414338906578,-2.6137992994010288,3.0156077212318959,0.2268317510433686,0.4706772735684144,-3.4303265883926699,-3.567140804607183,3.9974912553302266,-2.1886120248453464,1.856567947876873,-2.967744226754432,-1.321182101992168,-2.2345207546128895,-1.7016496510576039,0.5011673567834816,2.0059168459834648,3.776618837269064,1.572011346790232,-0.6824176402595876,-2.8387298082897685,-0.9704515592299112,2.883366253237771,2.8174631584433929,-1.5164630414191896,-1.8963428872046438,-1.1687871753323239,-1.2226437340271288,-0.6903336217517193,-2.7776292990992985,0.1803396360420768,-2.775438453624881,2.057186839919348,0.48525426024379217,3.231506997625128,1.5649051838390902,1.8243840596113117,-3.5437910230392255,-0.47244032014355499,1.7464679772277637,0.339304244821089,0.7553131700251878,1.2236103020840519,-1.4083180372853637,-0.9611772162001702,1.0691589934050195,1.0434752514364663,3.977570555559983,1.1121821185729398,-0.23302920279261397,-2.9011128508255128,-2.9970922933193657,-1.1823595974424082,-2.1089790848894429,0.16918204695674889,-0.07498117972741625,-3.9671137671697824,-2.1014332027739126,-3.083674200908596,2.9140857105024819,3.156070763250157,3.8923122040148,1.1076265272205817,2.9633773789703605,1.572737622735887,0.6785278271242463,-2.141803061231971,3.293729831198781,1.2662026689154092,-2.772356956250328,-0.6088361105225262,-0.9179116086035195,2.0363587647481458,0.32648646882156387,-3.111375580314906,-3.9002459890783065,3.2194134769210915,-0.4896291353656217,2.285761293818852,3.8298108201785299,-2.496194249810916,0.8487376900380115,-1.2220942369584973,1.6143785618481533,3.3743030362312966,-1.4971668223806012,-0.523112822219334,2.7871655405143676,-0.15288133099279123,-1.7565304483173477,3.2492312476975799,3.260431202606199,-3.795399554739279,2.6379523354772509,1.4113261309335075,-2.7393650398846667,1.5562787365811018,-1.6750500793613679,1.0575566844437923,3.529225475489607,-3.066575128470129,2.5324865209977966,-1.121439528444576,-3.623562265298813,-1.7156088475552097,1.6194953228829566,3.3361356438097164,-3.5744533625020846,-1.268021097895618,-0.8401706759095307,-3.406381711608243,-1.784641762796496,-0.2317357940267526,-2.792572252921392,-3.983895159993568,-2.7085430072645026,-2.8055062018350105,3.8210176032218845,-3.0665027149371859,-0.8287130244615542,3.141772965726875,3.086982822789717,-1.2967282829059655,3.9640357462681239,-2.0141336634577948,-0.8400031297569315,0.5441077202536278,-3.999053474871599,-3.1130082557516447,-0.19319572204273606,3.3935657330986519,-0.6683599135382077,2.419116377263241,-1.064092373147255,0.06210643131088833,3.190922286996315,1.1570127485259594,0.849979772251892,-3.0354734575728594,1.8865928253702676,0.7022985322907038,3.7938006540455158,-1.6975201150751627,-0.540822972105824,3.146657225333631,1.5981046496002334,1.6103545976783167,-1.7978777347859152,-3.8692335633382877,-2.0303257609854317,-0.34985891872272925,-2.6518585071733824,-0.002153476587268832,-2.534296757714019,2.123385641121348,-1.1549130128019488,3.4987045971717638,-1.7853240286795276,0.5961046709388125,-0.6107912475052972,-3.8185713051186669,-0.29285934627663959,-0.20071306587074923,1.2678727657034932,-0.7006108554468542,-2.8759049327778545,-1.8023924581591547,1.7137245699198447,1.311230714435566,-3.6895181793677676,1.3430186338606838,-0.5163956555019107,-2.3617157120188549,2.6170541231834258,-0.8283022257767545,1.7888032919999848,0.629685393058093,-0.43624921821684939,-0.858498072900437,1.7093491332107096,-3.035539351340919,0.7757757171840991,-3.6722574374442189,-2.474090446279555,2.7047656750126558,-3.481336343564907,1.6762082634750968,-2.6026821307780869,2.2110455048827868,-2.1877305395855508,0.4272312149445545,0.2282145167985652,2.9759171723383215,0.48293329321814495,2.124933759706109,-2.721216747268982,3.031728568579063,-3.3196292330273149,0.7102669282369201,-3.2685634543401749,-2.892526193886977,-0.38369538268419048,2.4181400044732976,3.3619753425603937,2.5785578556086117,-2.8632466500414619,-0.5578289256229034,-2.003176644288331,-2.2879931166600766,-2.5943999629299467,0.9045120111958971,0.5924480706252329,-3.9605048096120516,-0.7208574134819434,3.333450427169544,-0.0680829350193759,-0.4959824305294005,1.7026135930598479,-3.5677728516932447,1.0938591904755466,2.2360316092452647,1.8078237569194294,-3.6255876756977889,2.9292759221713968,0.2903712571348471,3.5131754587467727,1.4480189944113616,-2.0609177053488318,2.7287124012189656,-1.292821890109151,2.1849829687963444,-0.9141921031267051,-0.5032636564606803,1.515927755407037,-1.5187752140890015,-0.35683639084461996,3.999143964092882,-0.24448828253185884,0.7781716313947058,0.17610711845615335,-2.199418574830071,3.5725300275663809,2.1906272648086366,2.4555405605829909,-0.9293072751506732,3.2442824850375269,-3.904394739784002,1.8940369102321544,0.6639738676675844,-0.8932148253822307,0.1482649700783325,-0.9694111800668852,-2.5207053027842996,3.5961513396422095,-3.2079714394221385,-3.955711740602837,-0.6455829525783516,1.8162169961554824,-2.668531543327097,-2.7268309329635196,-1.9403129742581609,0.6544281529245586,-2.4119012347557247,0.3538432490519243,-3.768336953307914,-3.6905940812619244,1.8678684581830379,-0.10849680511209226,0.32469118614422856,3.469096415079399,-1.7326251662422774,-3.205040273834446,-1.581466755178588,0.2975684758511541,-1.64848121542439,-0.4313768837016261,1.2294670168103439,-2.5898285447542008,-3.751247197178018,2.668057712152108,0.33612253383361959,1.0912681042158772,3.4154136612630134,-2.465367772690403,-1.4326960132957317,1.2793486575272804,-0.7939180108032178,-2.474616615876835,3.2098741748613248,2.2867701178783985,2.7808930626054959,3.6785899156409025,3.896943258629414,-2.7400135254070099,-3.542311684218756,-2.1445499620878678,2.7464002382174197,-1.9796255621522632,-0.9829975429176707,1.8087436334692653,1.3436139331199817,-2.4609110982651218,-2.622573025141719,-0.40380494124981328,1.649806568552819,-2.037949855937221,1.5034093562867499,-2.226575857946032,2.428310401446832,-1.6730312863935402,0.514891069371707,-3.6820021315751108,-0.5575081066482392,-1.790142802736515,2.5453135824185315,1.560988497378652,3.121280054497542,-0.6221741702526253,1.9844474589981199,-1.3381925905938046,1.1122568618588496,-0.37716146829436805,1.9680063129731194,-3.19591330233572,-1.9616171290207108,-1.5433813665197283,0.9226642670289955,-0.5873919983199896,3.193982427839538,3.597685593501594,-0.05168534500580768,1.6513629111510158,3.401338439487371,3.3742962803798228,-0.9880593178585517,-1.7034867042095637,1.9213690910418145,2.5839410025580236,-3.1898427949994918,3.4353796749812108,-3.083891737508787,-2.2933631050198599,3.2344749493643256,3.557704698032106,-3.7941319788618586,-0.5027915294568004,2.0779634591968225,-1.9320028274544419,-0.01489196393209391,1.1584988768345844,2.835268477645184,0.9108972560597239,-0.5534155818158286,-2.123293767965209,1.9418464218537555,2.2770250697983416,-0.31049296250096339,0.566239861806844,0.5250457781993356,-2.4780790074170344,-1.7817099779836848,0.14277136847709039,-2.1753047808514607,-3.226604474679812,1.2035334024832132,1.1001071655240145,-3.7104821798509528,0.9215787945914471,0.30199099288750466,3.8778719745407148,1.1768974621629207,0.6176297441648204,3.832242728695026,0.5516103006850424,-0.8159332281893645,2.058939563293962,2.359859833687991,2.5892401264253399,-0.6605433830844998,-0.3345407714638471,-1.457661237312127,0.23415336256280296,0.49202929773845485,2.2099820450519926,2.436479600801394,2.2802089445741098,-1.2340463217267599,0.4524202318093238,1.7413720396104804,1.7302386713538818,-1.3995282241478647,-3.824971321451544,-1.2295552992215624,3.896402816014324,1.2118125378945628,-1.5583168883452515,0.9711123311039209,-2.449290665404292,-2.219742841034334,0.5987115420486822,1.9056894236930858,0.537469182245319,3.5635976727608558,1.726083793826053,-0.3880937887197238,1.4146025871061934,-1.9904940023551754,-1.7513396577758274,-0.6327658311265161,-2.5226983290030917,1.8787104925850109,3.3090291962201725,-2.975108619975953,-0.1749716396197556,-3.6133960220419798,-3.1006041823348085,-0.9176233749307914,-0.6437520397941212,2.480349772517113,-3.947145935167006,-0.7556745824542981,-3.683726484679182,3.085234594537921,-2.6473482817920637,1.480555042015789,-0.7715262660570323,-2.6059558876710184,2.9469574375320084,-2.1043179884549314,0.3836835303544559,2.009420782351599,1.6864671220394119,-0.8391362167003287,0.0020155085356288184,1.6244136490830448,-0.07774492296397795,2.9139423860994748,3.158795981098156,-3.1190543221904987,-1.577489290764232,1.524923150457301,3.6969064536578335,2.405008406420757,3.895955971390089,-2.3895979251762409,-2.1420604228234536,1.0801166500315738,-3.2168277490082319,2.9877261202523774,2.9591675334756184,3.2680678100264046,-3.148092961180353,1.723062642848996,-1.8292226009036073,-1.7466964982315903,-1.3487646217531333,0.274489610425964,-0.7644694460398858,2.5609480636682786,-3.071635201153735,3.69308441852582,0.8698763456217877,-0.8844704973887418,-3.07393943479563,-0.3550404004166874,-1.6558851780008084,-2.752299370557619,-2.1859193265379988,1.834532834234449,-2.3936450208921977,2.1597727111982909,-3.9322661785592789,-1.1489163098929805,2.102905799260676,2.614005999308003,3.0016218483319427,2.6780726904366478,-0.030935440065734677,0.5955864200274723,-0.9034054390360693,-3.4234314262383487,1.7282374845686306,2.8880405710884249,2.005149471180405,-1.0575282773009943,1.0227509699264195,-2.2549619715564086,-0.5234678469062641,2.6132908706551136,1.5232554044717768,0.9372865384936624,0.24873972619250307,-0.4528265095179975,1.964997908280453,1.220585662787533,-1.228468792694546,1.1449846851360964,-3.605076972617872,2.0398040008870019,-3.917847553695162,2.7201313344369977,-3.7879953540696356,-1.3408935280323782,-0.8735978644583875,2.4451103713620876,-0.1482903436297036,-1.375612047685939,0.38525437962979228,-0.9904933947741839,-1.14264049014243,1.323261153775193,2.9868175841736059,-0.17719480172928415,1.3884245019526134,-1.5263633406643563,2.0170072524125715,2.3764712617405348,2.294520283173079,0.17340874182581346,-3.3346711268591227,1.817334988268425,2.7468308275272239,1.1079362570844618,2.3657170869126844,-2.093451351178782,-2.7937823996643997,-3.873388473316579,-0.5673013809859677,-2.898231942288483,-0.6003561785400819,1.3980043717857536,-0.9483905573230709,2.3087617903995234,-2.786848838927213,-1.0227593082242968,0.12336434360738657,-2.1476296696110808,-1.172754741201592,3.4193636973952845,-2.4067674359766526,-3.6123481523000509,-1.401164795350704,-2.778894409626968,0.19083774700266699,-1.3054322341428082,1.4231179374530446,2.596557937917221,-2.6688235766851395,2.2488143608492709,-2.8786842895703,-3.5291477533237396,0.3817188483748106,0.8555797987356906,-3.8012453753867296,-0.3935393415619026,-2.660426107498928,1.0878492496756982,3.8020721163139319,-1.6706330162643007,-2.262529672562893,-1.4341021000545907,0.9532653488196736,-2.0677183295854757,-1.731025532982111,-1.7781847015332309,-0.3605310120104923,1.3505658810489419,3.035696373393436,-2.821232064897491,2.4462292321884275,2.8942383205216659,-0.16181991312290856,3.564652151025152,-3.413392183773224,0.9050609150691296,-1.9851807991856703,-0.515215252192986,0.5769118061382441,3.313798992223206,-3.9933072555680075,2.9520960142943046,1.5104680146187182,2.4770305843037168,2.699217962466699,-2.1429066166166779,0.6042812418761239,3.2853408931993597,-2.587201330311933,-2.2526998568535996,-0.19534493585597069,-3.109434415860523,-0.32193642294324245,3.0843465279405004,2.1662722350369485,-2.254697838915293,1.6719552077660627,2.3701450076248609,-2.9583368316415106,-3.4721476092702447,-0.06292505510507085,2.6663185120230814,2.8928338256199987,3.6885511332701315,-1.9210721258166004,-1.021320177059713,-3.648965564782383,3.1630731492607548,-0.9905422380889588,-2.206220733925335,-3.6698492627796677,-0.11481122648896958,0.09094756046537533,0.19813728531402487,1.848334482704816,-3.587534104729029,-0.9259093536949761,-3.4505807353894317,-2.0627944088315468,-3.8279458186355486,-1.6638111035883388,-0.9842175176302204,-1.7130634018316409,2.413795930385011,1.056198411969313,-3.5019368181202239,1.152074958728968,1.226498089340521,1.2971043516740944,1.614407188657002,0.33494333054875727,-1.4089881706463743,-2.628138728806496,-0.13978221495189925,-1.8191811240321148,-2.1854821125937597,1.9564654273636677,2.7884932678135758,0.1014205337308951,-1.3339836907884573,1.375503447776767,-2.8110278782929809,2.3598745269228029,-1.8289289509864198,-2.327027643227259,-2.736421300098681,0.24818146055945523,0.026404403109052234,-1.1118767318696766,1.9563677678005052,3.33772835400693,-1.515569465909402,-2.211532649711632,3.891593768112485,-1.3012319143916609,-1.5726478584164914,0.7696416836810514,0.7954916096556195,3.6592837658325658,3.5488034242840698,1.4417295049704127,-2.093553219713826,2.1728482472092844,-2.0869092483619875,-3.846152333615162,3.7444237188050666,-0.41813597920241798,3.9867020822678667,-3.8374577550434019,-3.162917643541861,1.124649392855507,0.9960771148839491,1.2939799169330125,1.3397491584830475,-1.9500030955709198,-0.04843175266157851,1.36127784938457,3.5613743290674195,0.47124064046205219,-3.947636643349105,-2.10037946437986,-2.3190042198967317,1.065947037350159,-0.20780362307086443,-3.696631806722337,2.565203219897132,0.7953463827083329,-2.971514223436321,1.7463199983920923,-1.7940513058690509,2.085476986614438,-0.3229524375548982,-0.03257795550074416,-1.6729780842322182,-1.393844385955175,-3.6122975984972198,1.0636616607014418,1.1027276615290367,-3.250553168983399,-1.2046560156045106,0.6769099557056579,-1.494441394820235,-3.4884740856939926,2.6423298486185766,-0.7873800261771455,-3.65164110030772,-0.08709733429947897,-1.6115613662119673,2.8925106107172695,3.3917394823342956,2.224321375589871,2.557099770536303,3.164029210309649,1.7372726606845062,0.49855065795629019,0.2640274845903239,-3.8399135978801919,0.40960948658278709,-3.2547551870606874,0.0497345144409147,-3.3101614205174068,-1.0560239829888607,-0.8322291727177495,-2.1837680562495365,-1.3809778243434475,-2.5211344902555199,-2.6078064587717995,1.3909388230117035,-2.316351914480949,2.7667095818049107,-3.203740910116445,-0.03549985865671612,-0.8001188567854065,1.0295701755371836,1.721729878445407,0.654465067305888,0.010247109275815625,-2.7401629285778466,3.6464176282537945,-2.325396968309093,1.1510034896105035,3.387829375853628,0.42020896548310029,3.8375625911907464,-3.355943948323005,-0.41824765270901756,2.87665977067196,-1.9688599477158844,1.199599610901144,-1.4814651387411937,-0.6099774213154854,0.10002236836968503,-0.5744843211187316,-2.4887032561715358,1.1546843400393244,1.6611720541113667,0.9132254694410849,-0.9089753386012145,-0.3194528146310418,-1.042609015632095,2.11835528622861,-1.1204994014610633,0.24688067106647616,-2.0162810700231175,2.4805652942932046,-3.1057775885438057,3.06165498247925,-3.242107257427781,-2.3793234945848926,1.3399020093991459,0.7933929575839027,-0.5194869309989247,1.3934342286815547,0.2173632937716352,-2.7308290390841298,1.716519469829998,0.004304241367975692,-1.6776445400372707,3.630084722474315,-0.48996168235670747,-0.2018631248313696,3.8140566994235467,2.65983202572463,0.11996004986422904,-3.4261084277048274,-0.2221719972911691,-3.720314663620303,1.446330272005767,3.3859495765873648,-1.1863474153142966,-3.743063030160358,1.0304781047171635,-1.2188180965969365,-1.1809752196524193,-3.339010004375238,2.339534526572617,-1.5101738571541042,1.8959107015617197,1.476557212095507,-2.991840441801224,-3.7683865407569385,2.796676749456184,1.7906859533991915,0.3770951796663402,3.968912902092984,2.7130935545512324,-2.065485403331482,0.7233323611969,-3.942531862491827,3.5470283037839609,0.997316032651117,-3.3715739278486636,1.1037290929663675,-1.752787278488183,-1.5154345065932109,-0.665283457867365,0.5137400275223616,-1.0317356649434809,-2.808301318478171,-3.1525622959090739,0.6790507411207534,-3.3458120944324865,1.0349267129385603,1.188868024192156,3.902131066580483,-1.2881855656218342,-1.9773671143819352,0.7475845882401169,0.5438950929233952,3.103449869155816,-1.1971520674658614,-3.81038671316713,-3.6430250542728066,-1.5287458110720048,-3.1779273863318,1.085610711640924,-1.0066718428040125,-2.553331779557656,3.3377992113216559,-0.16386438147368333,-1.9800154843577305,3.677050746169609,0.36838484413841057,2.8143237480039726,-2.661390880077879,0.6809912231048489,1.4592328207218746,-0.5040708244104142,-3.009268370564321,0.08710952927009608,3.679758450808876,-2.970522690178594,-0.31215881031137018,3.2792186780061955,-3.122781451772827,3.435288542740035,0.5900621811772115,3.2009290223026,-3.573326689888143,1.4509208899272155,-2.4417837157201598,-0.2727085442025885,-2.1301559016183395,1.3886823087710206,-2.736120595809271,-1.9135670524216622,1.0408557591291965,-3.520265345976738,-1.0382169059912697,3.601311760158069,1.7849746700869656,3.9575535245178248,3.57191493872796,2.7005985649094557,3.093304279661707,-1.8727934462140914,-3.0871035744696204,-0.5356204500365449,0.4210339799695344,3.639368362334956,0.5715632436431299,2.303930839124571,2.6128717877586888,0.5450301824067436,2.2215526327676038,-0.1184085638787078,-0.5282240006062855,3.241190855492654,2.2823144609074887,2.2433579044802824,3.4583723482616817,1.8926304444031557,0.031934340369472739,0.5829045306447691,2.359482935679246,2.8590919834425136,-1.478170147769343,-2.2183464139182735,1.0166851640820483,-3.775288840535765,0.9552237022997261,1.0683778321332663,2.133917727562798,-2.42709550102592,3.897433054860496,0.6987244737148366,3.124263687944482,-1.479799179117338,-2.119270638531704,-3.8439333336856436,0.1692090242183273,-1.4052406051240035,1.7146843483471575,-0.5761454915011699,1.0673404429721023,0.8084937656820914,1.9590054056124986,-1.7524820847852949,2.4858249183481737,0.714956910893985,-2.127619040311653,-0.5232438110836641,0.8272179972387459,1.5964463355036216,2.016824114980447,2.2408342594748369,-3.5411776510441239,3.8086364434678607,0.21599191346808323,1.2741627149879147,-0.8117433849369826,3.1811561829309547,-0.9635409261470311,0.9396384494960284,-3.916780662331095,-0.04108901530207998,-0.21568556278127083,-0.8621730888808248,-3.1967813380522926,-1.6680054780932652,2.323379414359617,-2.547673253886151,-0.8486840701857572,-1.6486112335785377,-0.46390843977504306,-2.349711671318161,-2.6196955813448294,3.1718886361595688,-1.5480555510117125,2.8764279737134474,-1.8783853273996967,-1.9414281560411107,-0.8613612671691264,-1.9583138438862955,3.48376976296698,-1.835195528392745,1.5314544974907927,-0.46832717492475398,-3.180571487015718,-3.1794190599227027,-2.875139451266099,1.7308256729676464,2.252759661851405,1.0090833945993155,1.5397334082255246,-0.3566888247759996,1.6138183763972718,-1.5880165686685679,-2.1125815476976665,2.032929731873131,-1.3042568637711459,1.1669888672578113,-0.22871251143872585,3.978943243421112,2.573846841509736,3.9116473053609059,-1.6982906977784785,-1.4069144295458776,3.6665906688252125,-0.6053078525781412,2.4908243359218735,1.016875956917307,1.2452490682282829,2.814911789498158,3.106148947769813,2.476858792631731,-3.0462154171442687,-2.2608825152780689,-2.980910325093965,-1.8663984499122626,-1.3487642254996147,-1.3528330147468515,-3.0422802357520126,1.2633597416517333,-2.1899583328303526,3.8858841933547207,-0.18462232256747325,2.3058269203434555,3.545459851154119,1.6983735756769,3.510985461887418,0.28544975599821145,-2.2536220109135014,0.164387410798847,-3.1445584088252565,-2.072557226261207,-2.847670166523213,-2.639940740198239,3.240464994414493,-0.6890505418234552,0.822682317919031,1.394808422011021,1.8183825541682444,-2.615977413620553,3.348653239381238,-3.235817039340848,0.7596916123908182,3.6669301753619489,1.7914565461478028,-1.977901092625299,1.815838767672787,-3.288559810807153,-2.6050769868281504,-3.3179009785236159,-2.2463159559758294,0.42983272676544717,1.5294447060639956,1.265630954618831,-0.014287550353509593,-0.22063126998365147,0.4652073576393967,-2.5560619097198264,-0.4757290708024797,0.6737845611977962,-1.5390029446602525,2.601631855416727,1.5922507789243899,2.2991971797671457,0.812719621599773,-1.047616437793767,3.3247233915497009,-0.6203922895881571,-1.9967483668391013,-0.9356758684286108,-1.9297463563480529,-3.979228817940931,-1.2871711207412718,-1.5174036804643907,3.5838517833180818,0.22056468473071168,1.336860127117454,0.059104097127034019,-1.860420685262179,-3.344257984838155,-0.35452871626906937,2.57116987993719,1.0421721310981163,-3.36657423302366,2.4150934295028207,0.5052167129416683,-0.20458219328733397,-3.038147736616242,2.9798502993104218,2.639108758152453,-1.7199663854319066,2.3142813781991329,3.8736875394875369,1.9984546665991765,2.655569422626698,0.7674796586739863,-2.137333332251777,1.3401931542015709,-0.8264043019685696,2.4599220052905226,-1.4641324988467562,-1.9726676547406295,-2.3320772782102736,-3.507589109235779,-3.5638561424769374,-2.430392016958354,-2.7239383543789845,-0.06499827707643058,-3.9085116463911575,-3.424732680617601,-2.0388257711460238,1.1385981249583815,-3.4281474820887976,1.2497941056855862,-2.1552520678879665,2.843647129490434,-2.770887759635688,1.2321587715447367,1.3710568503772445,-2.7160162450987439,2.41672963062798,-1.907784388370957,1.7098572038903246,-1.0439935548498279,-3.922789758483714,-2.576199665823129,-2.126856337431146,0.07995235157273229,-3.7654707393989215,-0.07816348139862761,3.6903423326745674,3.3086265660592897,1.0846520044765909,-0.6086216589380096,3.109696774433968,0.40771896265598608,-0.44450837586887839,-0.5590108952856705,-0.80967223913577,1.400195951587027,2.9745576414569729,0.18002442646319406,-2.362523760615831,-3.9016878836020796,-1.0087482000800224,-3.2128132803711697,-0.03585879324406016,-1.6239799586608213,-1.1136659206010594,1.7665309115006478,3.83581025529344,2.6111912733510715,-0.6281984238028573,-3.3268983472206647,3.616214157887481,-0.15463953832899958,1.1066500026078874,-2.143010097749645,-3.5735025683332104,2.895354019756045,-1.3446612580175775,1.3803430167621498,1.9978313805021424,3.9308086224099245,1.523486262356017,2.349236630949491,1.452174667766081,-3.948767968206176,-3.7785866478701175,-1.9367897950440023,-3.3915648100104365,-1.153017931506847,0.8508492924331268,1.7101981700090612,3.3016844673191985,-3.5671818272551816,3.1523439409194706,0.8505117597588816,-0.12182544388220706,-0.4084288556706712,-0.0619957214219371,3.094484360042495,-2.010472871498708,-2.2145859557541884,1.844798899048799,3.655159690860466,-2.0648427170588805,-3.9889975285242267,-2.470155391433556,-0.29031810604766919,2.7437928493577594,2.8329598447726909,2.70430027926161,0.7312316213457093,-1.6031892470187455,-2.731971324689119,-0.8607958460176961,-1.6603670394328037,-3.6697124267272418,-2.437286904838121,3.0928755816399819,3.9840323055254807,0.5067718528217702,1.0345364641751749,-3.9554323877209329,-3.2924541964471647,-1.1737109350998694,3.732093075005076,2.971453973523534,3.3117353825031126,3.4072839540363635,-3.4320749932448537,-3.0193897655283017,-2.7773230029136428,-2.6991677881885849,2.903757385713299,3.8312909298430899,-1.2940025375463778,-0.0737228537732948,-2.475971390105294,1.7788439978500579,-1.956460600028196,-3.89045182763737,1.1949143922706558,0.24421488169422113,2.188443215634747,-2.148372402846702,-1.6313035786828254,3.4562652956065538,-0.8918925866774552,-0.5732281344440322,-0.042953262456693289,1.1959260698296995,-2.987271576746796,1.3297384572961209,-1.75363452582312,0.7399234371590122,-2.6407427862919699,-2.4304043919960627,1.625549839635478,-3.3971847393217518,-3.8060098455710538,3.773453452839238,-2.267176328602811,-3.710393632790792,1.4748461518292145,-0.6945209547170099,-1.1361079618437176,1.667336126433046,-1.0732370490906165,-3.645143153738722,-3.7417200239285286,2.8715041733167929,-1.5562106243009116,0.5280002555441108,0.9866806568938724,2.6602379033609235,-0.9487059772687572,3.381727152071247,1.2496246026774145,0.881716646788874,2.4720377388412935,-3.972014712526489,1.4541586016768343,0.8432829445472025,3.365552421103093,0.7331730572463897,-0.755120878776365,3.670861334915924,-2.4373045090479295,0.7994589815554276,3.35903134630668,1.5455581842448627,-2.3368476013392556,-3.4755909845366599,-1.8135538901137727,1.020118882272694,2.3129924815860827,-0.6981960265991882,-0.3143328298560315,-1.212706635554014,-1.131272968383736,2.292352557100233,-3.395241653820902,-2.9586571791437406,1.9764688267095423,-0.33999820587891196,1.3808717593984437,0.7767400012803769,-2.451288716026519,-3.907682377903577,1.3431266690256179,1.7962342192673538,1.7076520269898348,1.0743571304265496,-0.3193215012397461,-1.485927965036897,-1.517135943115944,-3.301235731768765,-0.39786113115082979,-3.7835828687454349,0.7419388198741954,-1.3942344035780197,1.6812799591890908,-0.7781980215480606,3.0784663067429545,-1.758888091751989,-3.558301068093453,-1.834148676744926,3.0644752025970778,3.1131748255853139,-1.8705020740599566,2.4337617810104854,-2.282950635056528,-1.6181802736713229,1.1142315211238847,-0.8304683467391583,-0.97305212397003,1.0705046148120765,2.8257682260338088,2.914996839327432,-2.72956657919762,1.4337245202309595,2.6674779376648134,-3.7957858426221575,0.9664334883579322,-2.723202549670628,2.4808733328256435,-2.597986195608751,-1.1009760251082399,-1.5745745019420712,2.335005531321433,2.85784426685335,0.8933009749380299,-3.6481071694327307,-0.1333844976721663,3.330539068810862,0.2803633566800734,3.747356340286718,-2.239341944367065,3.1123916578086838,0.29695268506127539,-1.8920174042872893,-2.026627105641114,-0.4403716372208617,1.592376846185961,-0.33295875571672997,-2.969095138683663,-3.70681885677517,2.302845454237535,2.617181032292617,-2.163740039626541,1.373706383666672,-0.503607600714358,-2.8414111707174038,-1.3920520559980523,0.5782270115133867,-2.03891316169541,-1.808447553359123,-2.3440018846391039,3.221997678664941,-1.1491922391196908,3.4877772292124886,2.1809957399021249,1.566921051171967,0.673201102763402,-3.822505752769409,2.465890143351606,3.8115306198940308,2.3993891571438068,-0.9349433736197652,0.2013399110378833,0.13988794651820947,3.077052934473538,-0.016228042173662029,-1.5005165367696452,2.1057384753066499,-2.999541985259664,-2.892222043161154,2.247341208231446,-2.2249607976325249,1.1632948882488599,2.4202565886895108,-0.7329085994154303,-0.23021551425795984,1.2114779896903452,3.576112612736863,-3.399596675152763,0.6277331950292622,-2.35427336582271,1.8321514244987825,-3.2586281760640345,1.6321543083917023,-2.660297357240866,-2.932844429056674,-2.4228084625091137,3.1663838916601767,1.4142971872966835,-3.926203877968754,0.9274992837707172,0.22614935716597896,-0.5793475489538251,1.0689261378219133,-1.297294305865588,0.8941092817014411,1.3815775724774433,-0.17742579780149393,0.5022544302836778,2.3264397742280478,-1.363682777516253,-0.3763652916385878,0.01405023038510933,-1.049192961500273,-0.11728692726650891,-0.8758017890946155,0.041470852653641369,-0.21023267059438689,-3.867712426289658,-3.439783689329796,-3.7243966158364225,-2.70087904364531,1.624445941616008,-3.708349204935967,1.2735419206313444,-3.920387491873341,-2.5977567860672687,0.3277791254503617,2.4640336512436207,2.601826935391607,-2.373102706979858,-0.5411011793069405,-0.6068698208715573,-3.2734240038525685,-2.097242943457892,-3.709156771472216,-3.3021154460046446,0.5284153894587194,1.8336057591509266,0.6573923361596181,0.5035605379844732,-0.5717570740971611,0.9462060389674001,-3.8374222688391548,-0.6043364141864274,-0.8601114268212138,-0.06417374014263278,-3.946069427078413,1.9543718427277384,-2.8118740932292987,2.7737719871925545,-2.2857484952211548,1.333037813353541,3.47774792227838,2.6951464191763687,2.669981623646774,-0.35373485731704337,0.6884755628916963,-2.2791403185865555,-2.6432963037061585,2.866894688523325,-3.048732083949421,0.6476294175266943,-2.7871692206997809,3.5791796241544535,-2.7708526547334477,-2.457396861106224,-2.720051099862136,-1.680971706337125,-3.468522046212902,0.9274878803906264,2.4536477553942239,-3.7734391592920897,-2.0656041322589777,-3.7329361446608395,0.14664986929909497,-1.2400388830557086,3.206202774388953,-3.107890309537696,-1.6457429581001544,3.3132338376859886,3.836444386127174,1.7976475126279317,-2.482313421496883,3.865820377771583,-2.2497811232573579,-2.7731812991720634,-0.7191548772862646,-0.4286786244723204,3.1536595610766975,1.9079832018074417,0.24181597841718006,-2.365985398732561,-3.9428250965941737,1.5866837909799845,-2.299929469701378,0.46567671095122878,3.3517454901743379,3.35250128744827,-3.980386216376287,-3.85061857975849,3.7198868439494756,-2.9962536376099955,0.7352638472420594,-2.3384486889942535,-2.169392247382424,2.455784641303226,3.923348236692447,-1.2022280513532525,2.5298123340596057,0.12700300013865996,3.5870451467709598,3.1239716574345719,1.7446907475305338,-1.9957925096081378,-1.842574169189534,1.5973884351130794,-0.3184460999028724,-3.1472952567952134,-1.414747733687088,3.6640122454755614,2.896639750009423,0.11049616978266386,2.928992201008824,-2.730982997463123,0.16177284991666419,-2.2941073083000589,3.178600982047559,0.011627673588969323,-3.89393671927058,2.9486363576258114,-3.286604192569693,3.5202300041228957,0.011281399075697252,1.853406555440463,-1.1586844438995654,-3.601950447234988,-2.093686278994647,-0.9127018966063962,1.6881782949074733,2.479600794640617,3.0336601098788504,0.7362653969824944,-0.8141273349743228,-2.906471121483211,-0.5014667923314713,2.965364029892135,2.2827230331118297,0.18471061535720957,3.581594106195463,2.8626835938197106,-2.959502502004031,-2.271133346133328,1.4431345271266674,0.6104491344951226,3.5188621383238054,-0.49696493236198138,-3.0233652469443408,-1.9687531905610092,0.8510122455723197,3.762597937976806,-1.4293564172796983,-1.2646488954812088,-3.4545606862119966,1.2769256343046234,1.2027915136963437,1.797126209860485,-0.8486884595996183,-1.6152324083049328,-3.694386816376574,-1.4093599863827285,-1.2163762348912846,-2.2215351480956997,0.08432522948427845,2.3228104507729725,-2.6289403330548826,-2.9965635016564997,-3.445981278142513,-0.19510587814911596,3.250790950948627,0.2495862117241261,1.8833658465056376,-1.9755820132776186,2.5229506147490845,0.8548277393863062,3.6016126707112399,1.2279978225542046,0.5845514479570442,-3.5866782084964594,2.0127086235312339,2.2780749898962204,1.7173132511815866,-2.948907463689366,2.3930317701191035,3.0608833865411428,0.913486422782027,-1.4325120278678663,-1.5660236839742412,1.846895679457008,2.7741134827602078,2.0305313243794087,2.984474807175193,3.134910112731462,-2.66859844184616,-0.8254584122334938,-0.055780444214972749,2.004772681703912,0.7390729787682417,-0.25382291278645577,-3.9802564540214337,-2.3194983282883649,-1.0909467119903503,0.21019377279174024,-2.4095349644187644,0.9355267278163728,-2.574200319804925,0.030741127849200468,0.32107889039449236,-2.2164095021883769,1.241998139428162,-0.14267773176230826,2.963897938844588,0.3269585235547634,-3.0861685521400137,0.6779733065862654,1.6545973634122256,-2.7454998308790978,0.4919214950778006,-1.8956426767289972,3.1869210220263479,3.066911285052914,-2.286904216788658,-2.3132715960224727,2.2601906938067355,1.3608182886833289,-0.021545973764102834,0.6462530905846542,0.5169140142220803,-2.735641253759937,3.430514817224995,-3.9271313357775,0.06976186773098725,0.9224378055878608,2.5253664670603586,3.654296180949614,1.739603393598955,1.039873653105146,2.0935685763002409,-3.8208420717283788,-2.741033343466052,0.5559931812239656,-3.36167087901147,0.7580196979586722,3.9895326289011576,-2.7817061460642709,-0.9451188570954665,-1.8770636983000662,0.07830829755426105,3.6056533682088105,1.3110424618205805,0.43162937953111238,-0.6269601781660106,2.0878220402504175,0.9187558555088717,-0.8266597274791039,-3.339943433467905,0.4861580406786645,-0.20165487670690752,2.5284299213296679,-1.5775215433159576,-3.5213147492015679,2.786279719652282,-3.401149841388863,-2.690465909790121,-0.1350187305592525,-3.484018720944124,3.4479037201640709,-0.43589407025250717,2.0833656137019318,2.0785638067522198,-3.4586960445109815,3.8368776775126696,1.3638864116612793,-1.8139360659159599,-1.8350459410129026,0.16431836288315705,3.8400632491617,2.5514887285707967,2.1107470066626217,1.766656935779804,2.3327672272274917,3.87773040972694,-0.7116893953276267,3.528332576646834,2.1691289880671569,-2.2387032461003626,-2.174362816253703,-1.752593803884544,3.4464679991151749,1.741186619380236,3.895850829626278,2.519581835265451,-2.7361351619346605,1.330354849370039,3.639484484372491,0.47107569498891257,0.0705330499708623,-1.304074314789842,-1.8568843849455943,0.2566858967452834,-2.823006126551884,0.5266891314746989,1.1488518420760859,1.4243928203775243,0.28401554591886937,-3.163661912758058,0.9352409347435264,3.7588840233794338,1.9228252053552924,-2.888460165245733,0.1706803144723148,0.8474909796570866,-2.6742133927373468,1.319696314432493,0.08002719429607019,-2.3166528342285694,1.141064453225269,-1.9041371516136137,3.810456706668977,-3.033136389621755,2.585483357806334,-3.1922966918932609,-1.7013078290925892,-2.8096909508144618,-3.2641854761481507,0.4333907307022278,-2.5000620417033847,1.3109769093814175,-3.535425508960377,-1.0194208658869107,-2.685808656123214,1.1385451498126545,3.8676443752056679,-0.020311624929968854,1.700918112218095,-2.7008226761267766,-3.344717000809135,-2.0953348699752185,-3.639183052866213,-1.219425327478226,3.6232311806099908,-2.3363605253607337,0.836903924614746,-3.6074162320306124,-1.183759360979666,1.8379905607360892,-2.1629357271132809,2.292398626082779,0.34271424255938146,1.3246426124276623,-2.7046038410144277,-0.8300080465308026,0.12225361322963036,-0.23594848696324445,1.1087392605715448,-2.8398310804660378,0.747863334775225,2.8009444971069694,-0.4799466837327666,1.9746478457212283,1.4929624042551649,-1.2160140438669869,-1.0452080221934764,-3.716660301066181,0.2121419161230964,-2.6203235569217036,1.5731315865005247,-3.413213309055421,3.5312242956527166,-0.23384883297351778,-0.21875226082579059,0.8854291583098481,-2.836977560518207,2.5891989444164276,-2.9262509879941147,3.178110170808342,1.1998767950484553,0.2514578186828027,-0.8039721453346809,2.9331351729987906,2.818591785278743,-2.1598194002926087,1.2847779614538837,-0.4941617408244037,1.6781228417636137,2.2737425887831606,2.410364032923657,-3.3762833071593976,0.21083803438870953,0.9571341245564646,2.276141196113813,-0.2826737473237255,-1.0093842019112849,3.6447317683448716,-2.39639134301963,1.2212623977627058,1.891944102396459,3.7842218277987484,-1.2664904615867146,-3.4939843406288748,2.9863288834829007,-0.5475992847550513,0.0337435753125348,-1.8673600181827919,0.5962605224620017,1.8170510838917205,-2.940386376243893,0.21924240459282097,3.0687446114386258,-0.20082785262334314,-3.190012628072293,1.6401809177112777,-3.3171244845067937,-0.2671628266529653,2.499946646874653,1.6126396002136892,-1.9165305182490987,-3.9239225255187417,3.025664498533943,-2.180979658790811,-1.194314202793735,-2.404194575564146,2.848789340293955,-1.3278237413154886,-0.8741690694156838,-0.4200626530383511,1.3533430880688214,-3.311868796328442,-2.7814363945574476,1.9024780622194797,0.874136297938807,-3.465241255080363,-3.164640109667057,-1.9739285176307158,0.18572707030732173,3.990646941473859,-3.7581703957195407,-2.744740145666981,1.835882554958106,0.28474423293167297,3.2555109974046667,-1.3944348943535017,2.9669666615693188,1.2048334569060276,-1.0508448659846224,1.058304533654571,0.026697215710573376,2.663546589443377,-3.2844327058579738,-1.5858231153024578,-3.9807096660585685,-1.496342620762052,-1.289573518839678,-2.3996065934843067,2.7811517219876125,2.2411417362317618,-1.283652406825471,0.008474932488563347,2.8768859445404546,0.881081555248703,0.5814253738302071,0.851604886119695,-1.9884255243102569,-0.7197545031118198,3.1516329191116556,1.4371646664201468,-0.25679955712249838,3.7032679805305115,0.20788568783949747,-3.8786296998553357,1.7556503463632618,-2.4867615770942619,-3.913635455598774,2.308148014267279,-3.064448624784551,-3.1294111911929134,-1.2826898343258587,0.9175744685622149,-3.093342234594746,-0.4651162021886177,0.3582663092000695,1.9702507959994949,-1.7629877603586229,2.971039437934871,-3.366635889850418,-2.7380380380176208,-2.205658593384678,-3.435872232120871,1.0107133052888183,3.0036158920462059,1.6670930796946105,-1.1380218665380555,-3.2255567716351658,-0.6580580399158968,-1.0938480206513133,0.5661107584594092,-1.6598700125325677,2.365970277287868,1.6271749698155134,-3.9879858924538498,0.21758361412879435,-3.049978917168735,2.733379732647439,2.3990174597597955,2.5100461011313168,2.148905382423589,3.4167377891161907,-0.9208257348582265,1.8946932210468575,-0.9238459116017328,3.794489023573165,1.36391858648091,-2.333463618912563,-1.629382700792286,-0.8710359700143489,3.3768058189287215,1.7021816468260554,-1.233096054237391,-1.1825849063466179,-1.2449528960645203,2.3409358347311004,1.5069174715186745,3.5020520067779659,2.9539820463027937,-1.5424648054404815,0.506775304405279,-3.5747831079559209,1.7493852543439515,-0.24478324979646594,1.774214132144758,3.6775271403162197,-3.3616467876313509,-2.7391548014794617,3.6045472582089266,3.548760862520372,-0.7432115734254887,-2.779024451955914,-3.954197740706671,3.5232559866942214,0.7945540437834859,0.890459647492186,2.9528263709150188,2.7185053512633896,-2.2057450483026717,0.19931407231021226,0.38223273144664296,0.8090382457763292,0.557660994738697,2.206083451341912,-3.418511927636736,-0.24940416422563239,-2.7036476128935638,2.6248624797436435,0.5417910436229114,1.1340648486132006,0.6319557036180079,-1.4738363078927553,2.2915009972138584,-3.898740901294639,-3.2916998676840825,-1.8462838773050728,-0.3938757171038867,3.6330121049037897,3.012615555067204,-2.1877222851155597,1.5181665182358622,2.630686389782541,-2.4762948434035909,-0.9193035183086076,0.058010491500870568,-0.9754381046810199,-3.6666405856453077,2.773909039582893,-2.307072534515971,3.7029092035518156,-1.348767869034055,1.4046445567370736,3.457337769668359,3.1504195364972364,-0.7786765618822171,-3.452828106476387,3.8164456081182447,3.0609207324584748,0.27671891634215486,-0.4974803457558783,-0.4259292362766267,2.9378899698074329,-3.461905226681928,1.9549234111627883,2.380260591238496,1.4091405323889897,-2.1464517274476337,-0.3263762654151723,-3.272436656685242,-0.47158080591498399,-1.879341310591897,1.5114334135826156,-0.9465295223641463,0.5750581706076297,2.84747245852743,2.2133641153334029,-1.2620445290277827,1.8854667657279612,1.046058325272333,0.7084378781059408,1.6233855100005626,0.27131539216675018,0.48512325680865589,1.916701806978626,0.7988776833222699,-1.9870846044362479,-3.8427939549422698,1.9754484360655625,-3.7718753637118107,-2.1521729993857727,2.18074363385103,0.5972231121143521,-2.803388894243083,0.6483558635129292,3.819944352312774,1.6502723872258943,-1.1605252730549519,-1.1687745202120288,3.8165922054629419,2.0734966258522657,0.5893249682921482,-3.3004514044250259,2.553916954649723,1.9831104098623689,-2.761618284276982,-3.3004328790633519,-0.8264968396761505,-3.1872930182304,-0.9351065715500733,1.1053409721248376,-1.761596335163844,3.07273628822396,0.3994974535717075,0.2073579341534879,3.5357964105294394,-1.224218723312502,2.4549302207557819,-3.2519267686083976,-0.9613420119389318,0.6826733816993862,-2.4559207931855955,-1.789661188300939,3.9721783074680356,-3.329082641239342,0.3232720542377905,1.58438501255453,3.1216057640116618,0.41176504971614139,0.85256700017597,-1.6249538475589385,-2.9744410451555955,0.9971315299072483,1.1410973539674823,1.0709203221767494,-0.28888756199212919,0.30098188615858847,-3.546346252143902,0.034117401616054369,0.5418206830114878,3.0661830775700906,0.9192170873285841,3.766146378858947,0.37845679089606856,-0.638309846454284,1.5239859000201257,-0.3861937899741468,-2.495878584571737,-3.423870021380691,1.2561771269631326,-3.51000333790474,-2.347911484520922,3.175695509231275,1.4617548712947182,3.034667415696658,-1.3719643103114053,-3.9726077792383744,0.820666815726284,-3.2525112636737,-2.8803215006671598,-1.706783078974784,-0.9316915361596818,-0.7140369633473389,-1.130758843308026,0.3413457758367189,-3.2279487780964617,0.05788506097149959,-1.3039019526105485,-3.50187039586009,-0.27905868492297639,3.4968085855382586,-2.7194902201845947,-2.259731827073705,1.2313658046092267,-0.24543216409616676,-2.122118295117022,1.670959857710943,3.081831742999835,0.751277712716333,1.2913571898241037,2.3965862880189068,-0.3926615099676276,-1.0688203666122063,1.358579827979712,-1.6185731464966187,-3.6117659545680649,-2.7484690082857918,3.0224497232106506,2.8805109638026415,-3.5540250629182088,1.7249016074278858,1.9165559132813295,-3.402955400646963,0.6436002734970234,-3.5876256792750107,1.1442671454879232,-0.7923945776706558,1.0154903669520979,1.333183120077564,0.6726834508923734,3.5089816937061375,-3.328701696860298,-2.2107713939035644,3.749517771957799,-3.5746223823278164,-0.8482824926199211,1.0688763046865138,1.7498041273277228,3.5615622175107006,2.642932546997005,-1.0767887280728917,-2.5690015641672199,2.187346189608025,-2.6931467726700779,3.729510691420934,-0.637185432236782,2.318661421944097,3.0710868510456494,-2.2555526411341626,-2.8856388351240138,-1.2809040314634984,-1.1671905405914647,1.4486308473206169,1.7339718866165513,-0.6929254795825346,-2.567669569373942,3.465156644323825,1.0854451170138342,1.4583827603220137,-3.869795016336278,2.614604724737549,3.464660537834124,0.6505983198722483,-1.2421653779411182,2.472502467493909,1.527069636901829,-1.3479559287181582,-1.2804052359464467,0.28402212112634475,-0.9657198487187897,-3.7256877043005049,2.528727697034526,0.880148572592728,3.7154443300265145,-3.2620394623533146,2.4365607324445079,-0.862776948546272,-0.5533077076994848,-1.7580491156950862,2.5288905303872877,-0.10532175843580216,-3.1914371862388295,2.9913725327942295,3.281579926761591,-1.9479498856324929,-1.7293700980534064,3.3157911376927506,2.5637024608807614,-1.8479923823709586,2.43864560631791,3.0723751322783299,-1.516600171010918,-1.7199724824315189,-1.8480118201089473,-0.23842998294196095,-2.953357019778437,3.722536198760186,0.4837046250239192,-1.297780947321594,2.7640592455514936,2.829499573584468,3.8497480136825175,2.279837679306426,0.728841834228418,0.4094585817078791,1.0493774461581618,1.940708707756345,1.455779454843558,-3.493832952075204,1.0305316675143699,1.2580122890513677,-2.7373197636109856,-3.4434378786682648,3.8973472702740485,-1.5873647668163305,-3.0742974678337307,0.6195488376690719,-1.0325730825448554,1.8916407709107839,2.844593207967864,-3.329419682298483,-2.122435305782721,1.7871549624099724,-0.6463573862182583,1.6653525957092566,0.26119794446539049,-2.1497882228706137,3.951064591501768,-1.7320709589575112,2.14754412586013,2.058367994958748,-3.136871254796331,-0.029428791677537315,-0.4236262853787609,-1.7643693160144827,0.6099005517635829,-1.4260730763091472,-0.15234678051600726,2.276222558554595,-3.542739158871222,-2.963766568922046,3.954646570725588,-0.5877356470417718,-2.780804226226909,1.7159180461703585,3.4930320745421579,3.069628885454742,-1.2159218013876013,-2.6703256024435255,-0.9661488379105288,-2.6336959178151906,1.4611009447953745,-3.0442940375410316,1.7863955334083706,-3.170252737596676,1.6156258032351892,2.764802001415169,2.250350098860321,-2.50870119446593,-1.2493055036466212,-3.660873615495368,0.12453642739603588,0.7376837710226383,0.25749240018759247,-0.6704071666991753,-1.2143774704307875,0.6219043917605092,-2.407957742483129,-2.0694429683887476,0.00020360320863765935,0.07263382618635905,-2.7796830903885558,-3.351863895627515,1.8216572836189374,3.4013742282683987,-3.0947877542705157,3.2929882333427207,-3.362428224503101,-2.0869187113959999,1.0689798348446989,-0.6655081646315841,2.0172587047793728,0.0677926022333315,1.8603460571278632,2.9461943079203056,2.1396752841848807,1.4535509939746448,-0.8988152300251626,-2.010030738170581,-2.1945989082489927,-2.953493066952296,-2.2009016575926374,2.461141345316385,-1.5089168975476018,-2.1709161565160208,2.228562596386017,2.2534998848675906,2.3706219551050369,-2.1729456731610039,3.761429871085916,-2.1647246445583887,3.1407622522783846,-3.047200741211273,-1.2757115584352424,0.002007118719776102,-1.1855895051550763,3.5771863715826166,2.686215581374574,0.8185387738778891,-1.559813077492281,3.7387675246289957,0.04200280016173874,-3.439667818571979,0.6796352661703145,3.3615064316833758,1.6722937055037735,-0.9230605749525731,0.11057353645703572,1.152468864220463,-0.8966928116837103,-1.0057100185582864,-0.2118154634629852,-0.04900741501145034,-1.3639703567233055,2.6843855147155715,2.9915365451499476,2.005151108241776,-2.32921465761272,-0.5809846859211925,-1.2657840697719003,1.195792484406982,-1.5396076122513796,-2.301440936679609,2.1028024374681966,-0.425333132999393,2.026488769752837,1.7287035257402277,3.972082324555524,-3.967264451850939,-2.009861781166957,3.170846515179103,-0.28329335840856109,-1.9388053014954015,-1.493535889615771,3.999744327507721,-1.8097755580515036,-1.5297849587359596,1.5567400342414395,0.5948241719113199,3.555983365076999,-1.2445790872554748,-1.2825367151455503,1.449835168460984,-2.6070927112759536,-3.956655676982516,-1.8642192653526016,0.548565286800037,2.6032011516717068,-1.6955055530131853,1.07043712483698,3.2682703855619286,2.904294300570051,0.06069271123793207,-3.157740362057333,0.8604266111387231,-3.290697710389354,-3.190002423894902,2.2997784959973526,-0.388966741640151,0.6021481538702567,-2.4573220081570996,-1.6002165733992054,1.1195154539940698,2.562645427634748,-3.6155096154930685,-3.4383982548975684,-2.847756002341442,1.2738655406415847,-0.5091035474178847,-2.888327445524612,3.1727509235664215,3.926849800007248,1.9004569810978076,-1.1173266556844193,1.7365358296285472,-1.5130979126801399,-1.8008361072751447,-2.6318468461126658,-2.005724373313546,-2.6422542390126759,-0.467188525178569,2.1294492476442157,-0.5979370914982167,-3.137055537993633,1.5399058406151252,0.2926953839255395,-1.9982270236624443,1.387724689519394,-2.022988476234632,3.467588124182509,-2.2066421436572876,-0.653114302404598,-3.1478653347118845,-1.2875924427114159,1.845085101698058,2.5870518874119048,1.462291219538197,0.019834092727982978,-3.7908110558324656,1.4781541918046957,-2.79282320455592,-3.8300372590367708,1.7782077240865518,-0.4710197069040678,-3.867104404603972,2.629062350559823,-2.9236186661558838,-2.389926142821225,1.031436685637174,-1.4310910954554315,1.3503386297585998,-2.304302642329863,-2.2397289773247976,-3.817269464907379,3.828454506566433,1.2034900962657167,0.37893423369270887,3.964194828740778,-1.7441250920315186,0.39652116153855757,-3.0467100582903887,-2.317130881768552,1.3884685805897404,-0.3174004562032584,-1.0486450267715944,-0.22291596805682624,1.4100730489041685,2.9445987159252846,0.3401598778893522,-3.926744778160394,-0.8538473203722992,0.7855733119892534,0.014008495046266667,-0.303718440957395,2.7380609778822588,1.5739676124142746,-2.221715912461673,-3.93409490326599,-2.3637742063282269,0.10265361756873315,-3.2047494956761675,-0.18324830702143037,1.9763091583539412,1.7583101525750742,2.3696401014156889,-3.323428141520525,-2.4429284324810967,-1.5723043362837493,0.2701469013227946,0.9079016079720885,1.7829934863020399,-0.4515953684353624,2.44718718834754,-3.9994839462440145,2.831814319959391,3.70804885639589,1.7836324791015824,1.6490083923354063,-3.9199591778606734,3.3331356742274229,-3.240974333582338,-1.3399187520328846,-2.5488596245098007,-0.09404471162021455,-2.4996943086345206,1.3884231645099537,1.3198377155767168,3.0332760843873727,-0.02559019505271798,0.01179596015486073,-3.120979019736854,3.4951928919427077,2.114394203189554,-2.0625846926794937,-1.9649174201062148,-3.799201495908849,1.4010187641927266,-2.772269592206401,-1.8160320778127817,3.2112656145801168,-2.522207106135604,-2.2954108258452967,-2.4338544285607766,-0.07383420051836431,-0.8760601546685687,-0.3646044436285214,-0.6517078525461439,-1.7831957841390247,3.0618002530375998,-0.12299482944087181,-1.3559146816023305,3.891852384401073,-3.6463616973246326,-2.7032885089932998,-3.6367143171517988,1.7847948189198207,-1.3482863007922619,1.5435008808435225,-2.2491587951887279,1.2111169656589072,0.8467695422413479,-3.457673153447584,3.6194962953330407,2.8542810855409286,-3.8050920990661858,-3.3286503489086369,1.5591316596605847,-3.5905013739227336,2.835327528037415,-2.321472559489684,2.5619732266411878,0.3061622701138136,-1.5004800002191879,-1.3000160854794823,-0.28385221006017127,3.7596647570145098,-3.7598616964213988,-2.260133007884903,2.3016558589443605,3.7045004487325299,3.2339358037668646,0.016545602920906789,2.922256302061733,1.763114621949046,3.1569313009824384,-1.6286756487668764,-2.48432018543292,3.7101088891880487,-2.649803741196683,0.8842430131859764,2.159353257712972,0.09866692847039094,-3.6573122120430678,2.639674518384238,2.8595809905002165,-3.454495714551088,-2.494343215420731,-2.3722955363728435,-1.6874109013182042,3.589183623445204,3.6052836710043216,-0.35077693416355318,-0.20369694571244335,-2.871201646554849,-2.9813800625062338,0.24171342833676325,-2.0692769661026499,1.7557065315415317,-3.035959248628358,-3.177290911765767,2.701818215716531,3.4925757456249979,1.762303567451049,0.27028145572100295,3.6226125722248225,-1.8113606754377046,1.3351528535766546,2.7494891037853055,3.5811815222229015,-1.1031199135512316,0.657842692773861,-0.10131536866249125,1.823699794067977,-3.0213596973071246,-3.1491668995335457,-0.03801472027633235,2.0365015026148436,1.2783028744497376,-1.855915465536276,3.5747732352033285,0.8978330906571692,-3.7166604092312518,1.1882583103160336,2.1415420257110657,-3.7425336189082376,-0.8945645669047673,-2.5039318999576727,3.7301271315608179,-3.269977822140347,0.24861876834837116,3.710956226664284,3.2892722925159676,0.29688213236889107,-2.0312866633135897,2.805619488223794,-1.899411781721927,-1.169131553011859,0.84629511370479,-0.8961428942569609,-2.773593240974016,0.46361553899354215,3.3102349219855604,-0.7779525789971906,2.9952152901822659,-1.3178608710904774,-1.0289542042464424,-3.549034729194328,-0.9428622762273582,2.1869123879762677,-3.7770879199625808,-0.5353564971025611,3.5824323082904279,-0.4074518913149152,-3.0623977788115139,-1.9013702579909664,-0.38400609516177566,-0.4912871087385027,-0.6407346545730945,-2.680203907027857,0.062334999628266277,-2.2191028182445757,-0.9919068627821641,-1.0459698621577332,-3.1742417612893156,3.720059645026872,-3.3521323221514836,-1.7631691122441618,0.7265542077435843,1.6581321808971695,-1.1889474935631768,-2.981457384846105,-2.8975335804449209,-2.2381771353992105,3.3197496957419085,-2.1325188235185248,-0.6706551609103437,-2.2216427899942587,-3.023386122719561,2.313064231722815,2.944501359378525,0.38100590060210406,-0.41838136500436975,-3.806067603367639,3.82134614930888,1.1316251075491773,2.34501492358977,-1.2219389799906145,2.506326492994784,1.755140519769883,-2.292176665143213,-0.09673529895835365,3.394578140266975,2.255021662495885,2.8694514697508817,0.23530440727864744,2.9220141286138636,3.721344433175073,-1.337124588290383,1.8053296457121429,0.8149643906482584,1.3366241562169466,-1.2774779956703029,1.8406938497918742,-0.43383897121709028,-1.1038539270405126,0.4656797052582995,0.9017587052835507,3.660320145227222,3.194970283502802,-0.5327887543363123,-3.5438322049438328,1.4757868077440826,-1.4909072240694235,2.784594756014279,-1.616365624336895,1.6838971892188877,0.8367529512884904,3.554832854260251,3.1166790823897765,3.5774212561115235,-2.5080077806486269,0.5582153736250444,-3.263737334700405,-0.5890428449206029,0.8283815814997624,-0.23792948562961925,2.281106082962153,2.3756135124619499,1.4100846370802574,-0.9514470034810127,0.6400606335161267,2.237478235064682,1.8933958130750393,-1.1819884493680535,3.801768038335263,1.2254628194096249,0.17407623500925419,-2.833310185831408,1.906012493232672,0.4609663655470424,3.0141574915295985,0.03171533415410366,3.9063513474456,1.3540422629474929,-0.0014325841933331419,-3.002785558814888,3.652512200903371,0.15840376181162076,-2.2893194556078297,-2.6949478603666208,-0.13986038532437829,-3.323750232848827,1.499566629842609,1.9156441931825859,2.703220386998698,-0.7228631405949264,-1.285363315797822,-1.3019067461769574,3.5965609492348138,-3.2036565003511745,-3.8600410072370634,-3.614936733098606,3.439544123754949,0.7803407667974271,-1.5727220275661067,0.397757108347637,-3.175660968411343,0.29424104430371225,0.01017907269880336,-0.17442130700393666,3.0878103418467619,2.8748156582501069,1.4521954118963052,3.3027421305820026,-0.7277546042621292,3.181545639828829,-0.12081591844462714,0.958859945636525,3.9352972904621446,0.9782579799368021,-1.9843330215517146,-3.996706007432503,-0.4171831193069322,-2.3470283827997244,-2.2053083262916317,-2.9751661097701529,-3.4394253175579916,1.5202956993237545,0.8123769941568506,-2.644377737114122,-3.412358667664595,-3.796658886017828,-1.7971033874030356,1.156427964311594,1.434653848262939,-3.896941298396487,-1.8804916115307416,-2.5102916976303755,0.18124866851343758,-0.08341017808477935,0.4339249950021111,2.0161731698095,0.6638696944509492,-3.6460636743260039,-3.592424834435178,-1.9483754565868646,-3.228885599487616,-3.9021196067824874,-0.05520725317067465,2.451788231177919,-1.0675011160110264,-1.8673770846930085,0.3156026996396273,-3.015126519154175,-2.463284917891155,2.7816501701261506,-1.0396124375921839,-2.55375588596859,-2.733949220776273,-0.5514811579182359,-2.183039135249145,-2.7116259829833817,-2.632380839572809,-1.5842253083934486,-3.864633874348214,1.3011888216968819,0.6147387085753389,3.278649623049537,-2.067686418929916,1.5609995504663977,-0.9539890112295419,-0.7619682711319784,0.9347098538718734,1.7711680021959664,3.2107220221953467,-3.330973754582155,3.8436323502174236,-1.35485560048902,-2.7199900558671219,-0.0764825376854974,-3.151748211995586,1.1326312455525348,-1.6895886496132633,-3.7089856281085824,-1.224664892787526,2.6890566642096056,-2.9848563993533014,-0.8718486331646373,3.225010275286733,-3.488195948633651,-0.7299163184830659,2.4919718788779274,-2.380118444785924,2.060953972046385,-3.0836780515576107,-1.3415395217300004,-3.232757123209896,-3.220857390015728,-2.116837549346501,-0.5063085909325658,-3.1095154417655719,2.7874299111518905,-2.1026780167014529,-2.7385101022560809,-3.3379950981941386,-1.3144682281570519,1.370340652198526,-3.4973494935350226,-2.9135824714199165,-3.3982638286472657,3.4501161276032317,3.4242577253810619,2.8155830230633098,-3.733852538639166,-2.2645755349208116,1.1835693302870008,-2.1020407989732829,-3.3519192995186515,3.710440342110494,3.677211109610406,-2.685246213091646,-2.2620912461554179,-3.7855148749980724,3.2978091221803229,-1.8499255872912324,-2.8841005226784945,1.8518195728912606,0.8627043550444817,3.46650022453153,-1.7096451833579716,-0.2933421355020547,1.44382294084408,0.8078932264978906,-3.072782992750299,-0.9694948149459408,-2.081101324375026,-3.110456544578451,-2.3211153586867327,-2.3371494827465026,-1.0547904802964968,-3.4253689996423288,-3.385663915450741,-0.9835831095838434,-2.490275374857087,-1.9915043439186713,-1.3151147629283549,-2.4863561494635508,-3.4833478648920899,-3.6121827904508816,0.9607406993712466,0.0008250200936696928,-1.5093905353474802,0.3295203868147878,-0.6275685297995031,2.300651811798817,2.0910931323805075,1.580058019475965,3.119270045754149,-3.1379802030951504,1.5435631934325969,1.753156853680009,-1.1281291454605358,0.28578875354946389,2.6626438338211306,1.8443615193941537,-0.2798003531904758,-3.272416061771647,0.7949945425778822,-2.1107804002985848,-1.1362493558340068,-1.0281976521149228,-0.4537589292511628,-2.4537305472902295,-1.7695575698763476,-2.9601751901038257,1.5564573333381429,-0.49682807115307439,-2.453299770442875,1.6660491217346572,1.1539538058506036,3.3703080201492705,3.7799584182937027,3.699922020562391,-0.7779821992681288,0.4612124464575116,-3.538380631477315,2.425331364990133,1.274148942117435,1.5428493593773265,0.7708326191097825,-3.81225251178837,-1.5955113807244957,3.958013348184262,-2.1023211871883689,-1.302924338477229,-3.711816149727891,-1.5679162208684579,0.01105945169309841,1.2448047494430706,1.1809795370160022,1.2932684388157823,0.605416577683024,0.4145321381600864,3.4797950083885604,3.9014196525193656,2.603407140159006,-2.283324428425642,1.5415194447742363,-3.169889066201878,0.296756013476152,-1.6913985846736637,2.002806247551762,0.9639952623397869,-2.5120593111665387,-3.0009762938685187,0.9322940995079252,0.04343952851969579,3.6694914233550044,-2.9125540421035236,-3.3657833595600579,2.16929524440215,3.711650504999435,-3.5119793896576665,0.19180387868005245,0.630521151178467,1.584567188571783,3.3518744539366738,0.36466123069475567,-1.217329963083996,0.3945660942987672,2.9894316236987858,-2.941375789414674,2.0451016090673814,0.06597892607036204,1.107891494961648,3.1383387016982287,-1.0147131196176576,-0.4385642632675726,1.009027708280839,0.4316218759203325,0.884817353768943,-2.8077651880003389,2.3198033929044676,1.3208231899258039,3.2180463611579235,2.392421893223763,0.3069752152719669,2.2071939714477075,-2.6231208195763857,2.006166225640845,2.003221810535555,3.025759843433959,-0.8329991475932201,-2.197216111219456,-2.1963275755798694,1.521952968799094,2.095146653718496,1.4759340757555775,-2.042683958286461,-2.153178438346333,-0.005096354863201924,-1.154525483920679,0.5870527358000119,1.1150606615508015,-3.054261326144716,1.7582902032254593,-3.035918923324873,3.2218801265639289,-0.88613960819818,2.2384184949457834,3.643976880046642,-3.6624092216717836,-1.595258864778211,0.8391699226435332,1.0768517073237352,-3.3533675786045187,-3.7335105924558249,-0.13672862854686386,-1.4468413824938209,2.868649186921501,-0.9801256764523272,1.9717425903877449,-0.8152791082667592,-3.646172427893049,-3.2878369005177188,2.2352258801215525,0.7980217040859872,-3.5602843254190557,2.595831500102058,0.9695842614531642,1.687153339255845,-3.819598136023849,-2.2363714900105684,3.6450984622906388,-2.543192939562343,0.015287785314160196,-0.3178046794516225,3.0039712141360788,1.0348097522575808,-1.6343712907327833,3.477560084738654,0.9409598019913128,3.863818993240214,-2.636057690350145,1.4699556568774517,3.8798794457640346,2.893179156879137,-1.431166341651788,-1.7826657741028849,2.113571667573521,-0.1469433958784203,1.231342499192512,2.8269239279537876,-0.02639144775054092,-1.3638271749161033,3.7001265707441846,-3.22930106850259,0.7880764490322045,3.958586891142807,-2.1483951271178585,-0.06954834642058838,-3.83869145984052,-3.2400674979552068,2.8251392792064129,-3.232406436317836,1.9797475498795017,-0.8675324352598197,1.5255244400540589,-0.8368064810147207,0.377980207328922,1.177737092741011,0.7920641516825038,-1.7548100562164655,-0.33407444833371416,-0.033839490510863438,1.5581996555686777,-3.1668041934828086,1.2950800099200493,0.9824659325074441,-3.4863774004384044,-1.475555919907067,-3.154058679271192,3.9298770323981495,-2.4825209683034554,3.9331256029972696,-3.038697983226701,-1.1902319576259917,-3.9738114967998747,-0.8652702772668883,3.524340922269298,-0.2019802810400948,3.703275497290565,0.5422348457368038,-1.8163580522828147,0.39018843997275357,3.900548081985858,-1.4947554079823962,-3.5578180117641686,1.09078979417336,-0.577674039698409,1.7085338497637555,3.292841055333372,-2.4749551724681488,-1.0338956198670442,0.7006217759687452,1.1674698008829517,-2.8900737514546614,-2.608292350936485,0.45243279642674585,1.5396277523953144,-0.4087401089639693,-1.3167152726417975,-1.0175238144868848,1.098010407605674,-3.2100957763483359,-1.9932844365362419,-0.2775053584408589,3.918432355058993,-0.09484851822947782,2.864432085628853,1.0453665466778964,1.509314166722059,-0.38513341244299839,0.6610960967123383,0.953350294866163,3.8978691638968856,0.056795751281654819,2.124312784807958,-3.6914576936054654,1.6140895338492057,-0.793333274214129,-3.661780804973553,-3.4486810437980806,-1.2968111769366396,0.34463044793932787,-0.11388812613855293,-0.9784516884699455,-2.940328458911276,-3.3765633082709094,1.0471209912113145,1.973036935563151,1.107167717355538,-3.05260360066619,3.0105416877206494,1.131038716359381,3.380711504259712,0.038944979722818299,-3.0330654836743067,-1.682368886445568,0.9692515074552182,-2.258726541534643,-2.530546711345319,-3.618546560843777,-2.948944203344346,2.7537723038638237,3.363017553117392,0.8121364538010116,-3.341603848185871,-3.6340688959565936,-0.7779586074550471,-0.7118995861228328,0.0559631195485677,2.651130477467871,3.634280207884057,2.5222685800075039,3.8655796475898578,-0.1900826090587524,-0.325843120136051,-3.019543131083343,3.1785677810234764,-0.7861850647983566,-0.76484768735795,-2.8682118921081969,0.8513095033131268,-2.6373477976142416,-2.307046862307338,1.395999171252491,1.3343524522940023,-3.5253638793071477,-3.4446458023077026,2.2010717348261856,0.6943910772010984,-0.3201224014537376,-1.5967522230941429,-3.8841276936399948,-3.1141015561273255,3.5504020830060716,-3.2750846159963737,2.28058038918899,2.961350648702493,-0.5160622057178337,0.5821154010963863,0.09804137095182153,1.71018902263918,-0.7289065883185844,1.0329480507099263,2.348461455928276,2.6187898267273965,1.800740072981717,-1.4974321869591949,-1.8123692336147295,-2.035857597148105,2.7574068641504558,2.868175804502245,0.9229011923605706,-2.7351654697289584,-1.8966507309654739,-3.600343561305019,-1.7433743468861965,3.3800748473214794,-3.3972625878520548,-1.7149341376744536,1.6440973631435219,0.8081042125288089,-3.060987213492112,-2.860712374230866,1.3061727027538277,0.5952567681127867,2.4981067961985428,-0.3192979985007147,-2.651320587342738,-3.217685734170381,3.181471668024736,-1.3513024139142776,0.548020758653907,3.140658559203697,-0.6733593393929789,1.6386416981982537,-2.4461823862525486,-1.635903249490008,1.9606550447157903,-2.809473811153093,0.9237752575309441,-2.9683259293579908,-2.393013969371146,-1.133232626573635,2.899486579903199,0.7844869619337889,1.8177349273609469,2.0493738762863664,-1.4645148754997147,-1.9450888405697145,2.66756165750576,-2.3045008511409419,-3.952436722593542,-3.9061038355927115,-2.1806107224171145,-2.8372433897446358,-0.15768240199453843,2.059649816743767,-3.449792001383422,0.2163318646527168,-2.285292272299939,-0.6543521911376045,2.98706763314539,-0.4871065838798858,2.2798948518190107,-0.1148544614265481,-2.5540421055615587,-3.0454418193604999,-3.452907623877543,0.23678852162455578,-2.351197944302627,2.403316085821251,3.446774196034342,-1.1522641685897138,-3.7179454074277746,3.034113591564818,0.5941248412660558,3.813305122166862,-3.020118836463312,2.465986077029081,-0.6317177960809983,-0.5231177800816038,-3.651311353164237,2.023619038944803,-2.3545836321547934,-2.9293070657806,3.702868043795508,-2.568189777446303,0.3501629697382258,0.5164420025995833,-2.784501319826923,1.9953263069249987,-2.2487634080843525,-1.855611832764495,-3.551605959795305,2.6285361038104586,-1.5735125421209642,1.3198158769192832,2.3623843095941279,2.0562836664697805,-0.8258204299201284,-0.31048441698189879,3.6105883221572485,-0.7295582125569142,0.10221544501656776,3.388736524875392,1.0038208655949533,2.7365793276022307,-1.8369614598740319,-2.488030661107862,-3.172605066957158,0.29073094674096558,1.9715244293681256,-1.303129505071672,2.4521135964213665,0.35327844867057225,2.6974567970740797,-0.6426980568809269,-3.1222975227639786,1.3301875950955813,2.086178145668433,3.782166291280179,1.9157656147443457,2.7723300758922368,-1.8585145717047576,-3.313832193168188,1.4213838780120547,0.00439598011133846,0.8399298463996088,-3.510264139856564,-2.0752428893470347,0.3850801407238569,3.692813637400403,-2.5129530009398115,-3.9812432236596608,0.03428477408252473,-0.9887825065304883,-0.6095676530010836,3.1007516866875468,2.4959859330668578,0.08898050229795018,3.2251288216573679,0.6318220050542474,1.9600548845432667,0.7470789002698579,-3.4934755545405347,3.4649879777673497,1.051798853835911,0.05454836135175789,-2.6918749226554858,1.8506816691628663,1.3798662374340883,1.7331777407216418,3.059485140491665,0.9370978865217303,0.5328126654543048,-1.5596654031252333,2.818649698189856,-0.7788670724216855,-3.966345982631017,-0.43768696004139509,2.879825309677841,-3.8152688060002397,2.853064586569414,-0.647710396781001,3.87799575052313,-1.9569930273171126,1.8446019356263479,-1.1821887521153423,-0.9381716951547003,1.1732804398617037,0.8113100890137073,-0.20059721228544115,0.35307009076168596,-0.6541198182065982,1.9442925206436038,-0.009302551398415071,-2.7279901037743876,0.16897495672482688,1.290213123104655,3.3926494965027649,-2.187430567570461,-3.8044786960634484,-1.9011676803581852,-1.3597846318001919,-2.808648361696422,0.8039622497831438,1.4352421487856173,-0.6263532136636192,-1.6825054755782796,-0.6976052581073449,3.6310362101260287,1.203298892918773,1.8472591551387856,1.0049351385852897,-1.0259045851808324,-3.0969898928671206,-2.0967944985168964,-0.6184663756005213,-2.6275603214617968,1.7648028391398692,-1.290092041369588,-1.1144083550775752,2.429364577574634,-2.2982881639978318,1.8493107850102453,1.1817951615831169,-3.4236147857587095,-1.6282521932129226,1.510786117655722,-0.9772504605462766,3.13000181197856,-2.484557682434348,1.4538950597030694,-0.8588558569413394,0.752428104023628,-0.031141734746809925,-0.2600187647077219,0.8560225614784027,2.0159476024368097,2.756926985883684,2.18914291584633,-3.279195879686479,0.443742501846379,-2.548468192361227,-2.2205732880939967,0.2108526155840078,-0.9446676915871208,1.7651988109980597,-0.5758544636629317,-2.5489734838543649,-2.684562830406458,-0.06296083413558318,-2.514443841815333,-3.5505506895281586,2.381121620658112,3.181699730580024,-2.7187286429291968,-1.2762506770827607,2.030106811045247,-2.3765792669026739,0.38194505480107568,-0.3452596393593106,0.2615340227505678,-1.004851470732766,3.883703271450589,-0.7456411201559716,-1.80183591197357,3.7338352635585707,-1.4806134110687986,3.01370498649501,0.8499168139384654,-2.1084901548577426,0.14105060765947464,2.700521714402207,3.3041830697672145,-3.420516282416246,3.3210161542045499,1.619532938403582,3.5433528043816366,-2.6679094610428306,3.7344773358918248,-1.5927369038647097,-3.0812705169472665,1.0551424716753087,-3.353226592717035,-0.263023073581679,-2.113115489237197,-2.9414030110819588,0.1971219709775598,2.6515589060956659,-3.1620929110481379,1.2482646004481533,2.813332383491737,-3.739458769421635,-1.8968887374778394,-1.688514096976255,3.378811888421378,0.6608439123068202,2.314864661459569,0.9914400120722693,-2.44364013976418,2.6899925433278026,-2.899695247640725,-1.2462152249161938,1.082233720419529,-1.6929543151236287,0.8755299891685757,-2.0631634076019829,0.7138517961111139,2.8046040486550076,3.1656991064506458,-1.2024155847111702,3.3125256763264749,0.8315990278819232,-1.395957714949118,2.824008321727888,3.3792682989364586,-0.8538444641135783,1.8590656109528352,-1.6641536722202162,3.060408385070936,2.2593685880561615,2.2230964220931916,3.8018577997590947,1.8448225091044002,0.6915114112061795,3.907581603285333,-0.26358354694777277,-2.912737386014763,-1.7829537992100964,2.354954065643099,-0.5821889676351457,0.18728747996859686,2.7437138496623145,1.5197663852422326,-1.677390638866479,0.7760822219708903,-3.2899024378874595,2.1734193067521829,3.09276595812109,-0.21642110195670129,2.9688320488680537,-1.5656869959522233,-3.5397969116193606,1.1859065564278169,-0.13013378142225119,2.4251386892886099,-2.187723416888778,0.825218145854028,3.4441411697750574,1.860446248078648,1.8684951896804956,-3.375638459690917,-3.3754891347366735,-0.33150432706198176,1.2116774630105809,-3.869049324353525,3.593842234445896,-3.2045853663737295,-2.9467101642087156,2.1228100958345426,0.4932227664747382,0.8967280667141537,1.294592550383828,-1.1529697865119113,-0.9777724184398169,3.900833515967099,-3.3553834134945497,-0.3436327517113822,0.4044179803343031,3.257472345512565,-0.7606896395973042,-0.959333981728598,-1.3575196296581139,-3.9755479192912475,0.27081575658535597,-3.214041373951625,3.3322846584940395,-1.9053229791410429,2.002965938555472,1.4976021518199519,1.538059122682271,-0.17055405127825574,-1.1718756946022764,-2.6849427907442555,-2.527947680261982,0.6207294544916708,-1.9859555064815755,-1.9663410951141938,-2.2823804672545018,1.4850732411869397,-3.1296387100917109,2.606305235831347,-0.0275764584238003,3.8641763558182378,0.6169534512226482,0.48669988507661,-1.262752188650943,-3.2233733510866484,-1.8899045450426587,-0.942347991541421,-3.9157942267100838,3.8907997714432795,2.5688980565838559,-0.7995910101665755,-1.6943638107425834,-1.0431537900328889,-2.1000825332006398,-1.8844127355393834,0.4024836797329483,-3.5877156187544578,-1.5999744760116235,2.122437826062151,-3.651406667947991,-3.872990256942975,-2.700303146309743,-3.605975600045621,3.7769255707800415,0.25414481651730105,-0.21890640795997719,-3.208920078184314,3.116727727923541,0.17750750457648313,0.7567577620634456,2.7193041372166055,-1.5633641565042123,0.11741185417882516,-1.6516679276442173,-1.6261099038579828,-0.15616524762469576,-0.4267561865186844,-3.3938978573019584,-2.100183693844527,-0.6388029192173284,3.553919033482666,1.337563639108624,-3.3729659338059276,3.1513837982293406,-2.7585285544142446,0.38661319148146769,3.048800507080027,-0.9757815603431903,1.2216411521667619,0.6531993695029579,-2.0512103221104827,1.3528186485645133,3.362079256710423,-3.72392827392446,-1.3636588193138744,2.390437315319641,1.538025169224568,1.1419125910156157,-3.1532515045924356,-2.6453631946968416,-0.8293181162688172,2.41117057595772,-1.6462669943834845,3.414644924853106,-1.8680801063496182,-0.7734939652243786,-1.1956997454478627,-3.383240780461966,0.5730782679977651,-2.539135350159108,1.0622764244971608,3.3529805067301314,3.358075352645229,2.53431990565742,2.092375925314828,-3.2217080413615184,-2.418814285560459,2.1816832132014829,1.2757431616706328,2.0881071597250404,1.4753775241596863,1.0007022091417222,0.6572547900734493,-1.1031890898264186,0.918314513361226,-0.5580078623621871,-2.1126464649429605,-0.38906864301349489,0.5519579349027817,0.7218012287665871,-0.2843022438753626,-1.2721511007476066,-2.048810657590118,3.5977996502056079,1.9773851029962418,1.6520514716168516,-1.6064614439306136,0.003303191250910942,3.469596328338299,-0.5433555724673178,2.7381260727129694,2.012212248843907,-2.052033925291381,-2.4119966069175806,-2.655100868656649,-2.21758632266595,0.45637769456525048,0.11259467627767084,-3.847059717849027,1.1283901232876109,2.680986257966147,0.07632818440643785,2.4867687451065105,-3.9887934286629687,-1.6036086303912845,-2.844895093128117,-1.2513060786915116,1.601574618794908,3.7824354129785666,1.2537990193150198,-1.1284130849628396,0.01901535423721956,-1.0976604391646206,3.729487578827136,3.3531734788161415,1.1258027892287919,3.3437314960755639,-2.4721270726459796,-1.5986161780948758,2.08601809805877,1.360561635494678,0.8934756500413226,2.088090931887436,3.4604682436551474,-3.6718259096641079,-3.3909019095473686,0.5190587598593295,-0.3173028198841428,-3.72489797985586,-1.9007887744121293,1.3526496559786292,3.489777267761924,1.775436761948872,-0.14384248596990879,1.8816974368401667,0.6260600198368662,3.906078668839964,-2.7312526491839668,1.8920403455407602,1.7466826336480069,-3.5472431200700678,-1.0462224340244484,0.6176607091017665,0.7755420444043013,1.928822861443785,1.4391975212295823,1.470796260985904,0.016752225766048846,3.999766663038929,-1.182877029828305,2.83950617193513,-3.239398152763629,3.23130652305551,-2.8996720398990174,1.0338013264208784,-3.9596947574996497,1.2063237903494937,-0.057325609885497067,-0.8839946419349438,-2.2160089857590679,-3.6833473302985277,-1.23279300599713,0.4604259486775657,-1.7747992410452159,-0.4545594076610264,-0.9382709609863189,2.891294588912908,2.110351792475945,0.4729845697917918,-2.226582054363254,-2.9257682790976835,-1.3235479860828219,-3.425037850995193,-1.7268252792223003,-1.5680214929666346,2.6426250494446936,2.4603603881494457,2.9862037991256429,-0.6876152481294218,-1.9592095446701666,2.67239247110318,-0.4514096657599671,2.626056021861661,1.6527195543905329,0.5888997871071071,2.632222995340813,-2.3088412551482575,2.661492145419924,2.867135039971294,-1.8658715765954366,3.985826974460518,-3.3293678270272455,1.3485101457382447,2.3960825081491627,0.7169241687712065,-2.0332618523195604,-3.562729919199869,2.402946003151329,-1.6289328795976113,-1.6334344706886155,0.9642471243768975,-0.7043026427797796,0.1611998493136122,-1.0778177098924343,-0.48661527222124,0.19178956540492377,-0.2516445042635791,2.3035892703709717,-1.0381476072841869,-0.26714440481297965,-3.742570725376967,2.7769988651137416,-1.8910135515063845,-0.002918952301051325,3.120210225438777,0.39784138106695368,-2.1028032054874208,3.9369863711169446,0.6894428869625884,3.8193911647762457,2.4759889890563446,-2.9499407106071304,-1.3359581578242617,3.8123076545736387,-1.3007325046571786,-1.8825604574289843,3.1071142434602274,2.510586982161679,-2.0480512235192505,2.6965877742678616,-1.168347260034681,3.391589825455518,1.460240004707991,-1.420280648080711,-3.553084960251276,2.6938181483779379,3.2799989208545234,-2.5402702042074187,-3.0418138892989949,1.525146607178372,-1.2568872345792988,-0.9557496295107075,-1.0670598893820707,2.1123312279769177,3.496142606081597,-1.299938523063522,3.7125711996036037,0.8592047720123297,-2.2187200381209175,3.417880794961147,2.8851343100193036,-0.9148813291521483,-2.728181013614595,-2.3997197346745837,2.4623018807367824,-0.6819769383439309,0.389614176789685,2.7072621806695285,-1.4025446833885556,1.8831536609002413,-2.655932311743829,3.141411798905618,-1.437501948376912,-0.4308597901333657,3.6687561255111307,3.7291860024280405,2.9664422962719545,-3.4012982342649629,0.46820439582578557,3.0286538263192748,1.3589867195388675,-1.9472288393194773,3.7284902579451337,-3.9693508063539539,-2.2068384089096204,-1.0574373302531924,2.3901809311754524,-2.602024788363682,-1.1899582194511718,-0.33177970812945137,0.5578165971625557,-0.2676922761531715,3.555616873094059,-1.8711585879038948,1.920069475901764,2.9879888742325164,-0.4033090307966454,0.007751439849629449,-2.760218545412444,-2.4056998176761477,-1.2571977298155235,-2.6630834080984568,-3.574835235814085,-0.6753901794363542,-2.664302822232151,-0.22441211117569716,0.11796259352882732,-2.354611939738408,-0.5415169666761981,0.14341058843795996,2.3002223330976365,-2.2394604624414935,-0.736079051114741,-2.3880315194372239,-0.49443481023794769,2.0855893578642794,0.5324350542909917,-0.9527805171295531,-2.420357840633253,1.4498744700012028,0.2620433279375556,3.1824341772028097,-1.0009965355214557,2.937902848766284,-1.3905929154933928,3.3900042382712787,-0.5971272767317561,-2.1415726049723444,-1.9365180346638296,-1.3006112457077295,-2.4701245093983337,1.3693884877063392,-2.9942861381735996,0.34537978750619038,3.8714205815299209,-3.0679875023176228,-3.389449450029428,-2.559709707421776,-2.8510919057390318,0.060796373977450638,-3.1655173079949607,-3.194812586537756,2.645155280464114,2.505671799664448,-1.17849147539617,3.4940889219897075,0.6448239091107304,2.2894946163441958,-3.8903649027031506,-2.6514882353628854,2.179456176719981,-0.6275242026716912,-2.46184749354106,-2.8383701312943447,1.5237920013882534,