[0.4115235311549279,0.35787788263659428,0.6541460186905477,-1.0798106517717233,2.554767587586749,-2.0631823317195527,0.8084169340935334,3.6589995289708137,-3.046982873260326,-0.28785645212847146,-0.7263414442743377,0.2241542921929165,-1.1092674285550784,2.6754384193273976,-1.9942732521474225,1.8405793942575182,1.1920009116472948,0.29761997535450038,-3.2288248764012819,-3.340052208528249,-3.6651657277642366,-0.43795134834334617,2.6799326425968585,-2.8174533997781,0.8189806846342691,3.9343007622062906,-0.5126015742290111,-2.251704912012542,0.8004160277113055,-1.7499618359562446,-2.870644496249777,-0.4441469216517093,-0.8473322474715508,1.8887927089479,1.8212733589852457,-2.623752813566888,2.003400226626109,-0.44343693247340978,2.138703309069191,0.4263692060181743,3.889571228312512,-0.8303280632943908,3.179944472405908,-0.9964225262375299,-0.7194649191339746,1.0022310056315265,-0.07918181888451215,2.802363275689065,-2.19791681433908,-3.9810282526246585,2.932049039742566,-3.7506303930819415,-3.790071081618933,-1.3251798444925367,3.78599952416993,2.9908622655658538,2.847749228876433,-2.2198970039667955,-2.718198130251972,-0.11035682522365686,-1.0778854736591619,1.3387352963550079,0.7296216516343446,3.0864539539594,-0.3634453290883075,0.8432679959496738,-0.9001236300205735,-3.6842674653424405,1.8917591862184465,-3.646879633914523,-1.990102173133386,1.577186322595323,2.2525102800886129,2.3763530724315045,-2.6858878255623788,-2.850843553337432,-0.7626678916690326,3.5247551473615559,-1.6564923304367865,3.5151684738290287,0.8979635336748686,-2.1187865759909325,-1.7558231310545407,-0.8733930808962365,-0.7462742339925574,0.16019738183934607,-2.312954676874104,2.4216600987926268,1.9001410200641927,1.728855508694667,2.621730325611625,-3.468731636800407,3.845408787461909,-2.715970659650824,3.101698323643383,1.889670070580526,1.4119752895188143,3.549386822139767,1.1908477681416559,1.9019535209711549,0.3191267632238013,2.6489009750276315,3.0169286906148899,1.5588179270875023,-1.93526556939309,0.8528590296667851,1.732268476208561,3.7048611177014356,-3.889800706489871,-0.3772461581934776,1.7520474406941134,-2.315944252700657,3.884137154357602,3.211085631869219,0.07882305546091928,-3.9620225101708685,-1.993744585874591,-1.1388515831064495,-2.606668756922316,3.1602729813245178,0.38635773850489577,3.067823787047544,3.3134047070722989,-0.17399825080005727,-1.8472148223360206,2.29720869617032,0.05364692762951506,3.231372051885023,-3.7044076631097289,1.9452780654110864,3.32626023445272,3.610699825477055,-1.6778277986983404,-1.412009504772441,-2.4942571421308337,-2.2076005694566929,2.020423962201469,3.4012503788048207,0.6730680943118763,-2.2600577106848149,-0.7153295723531086,-1.486848551176726,0.006064587681196443,2.979165053152096,-1.1308058851466747,2.739286442001549,-1.4489114380386168,2.029671903307075,3.5690545253955667,2.9934944614569316,1.3331137934993774,-3.5976775392658526,-1.9246833764749179,-0.5696439916396843,-1.8558992231898213,-3.3458661922696955,-1.781606283400851,0.43387604622446576,-1.2857801361188513,-3.6078102007105175,-1.4167238196916954,-2.667094975606867,1.0791316321717784,3.0713736806050218,-2.1671958442496876,-2.1420296581863296,-1.7955132860420305,2.7921518359090227,-2.4963348038304797,0.9777255781104026,-0.3214839855115843,-0.46503384805410788,1.4606297036318239,-0.6542782586384037,-1.6984769496771775,-0.27437485277784448,1.6230752354321885,1.4907586304639154,-3.513383040946821,1.9208165402327247,-0.8525743495056748,-1.1003221308096374,-2.023525382807107,3.827426357041719,-2.7384096559407977,-2.9469991977537459,-0.9429869348732032,0.06915731072239151,1.16653119613117,-3.3158667174327265,2.8113590679281854,3.611515261688215,1.150815443442763,-0.4227712727934456,-2.628266603929138,2.6412532388390437,-3.298734886884122,-0.6250922722775838,-3.939465469803406,-1.753955425754748,-0.450094083754353,0.8169271173832318,-1.1882088339931814,3.679864061936729,2.5245044428754106,-1.8548942383848477,-1.4800090339958414,-2.7556013337832017,1.3177778384752746,-2.4658098053824366,-1.4013728316240497,1.0375747939549705,-0.52798164438087,2.1305793058478796,-2.0618107894536275,-3.0997734357511765,-3.799640985398808,0.3484845071820022,-0.9172350584947191,-2.274309596513013,-3.8009694741964639,-1.4326182592606627,1.730829168386431,0.43362869910170778,-3.077414214548064,0.11670436970083476,-1.1716953899496939,-2.906277190689054,-3.8603814391654138,-0.11027684037178176,-0.3031619233682541,1.288139182816817,-3.773164338882081,-0.6421040266442459,3.5118218376675136,1.9506346326853255,0.5928501475276109,-3.5683104697714969,1.35654847319487,-3.433875636814272,0.41349342879730069,1.0010793921411212,-0.7661953949754441,3.303468303272809,-1.1510810710616984,2.4921153567476628,-0.3368646843093368,3.3582158563235087,-1.3021029954231196,-1.022273771747802,-2.229693914421736,1.170413900504153,0.00620229691503571,2.8828714556546135,3.0160421495180049,3.491075374030993,-0.35406978335179298,0.8398667133331621,3.659318562319676,3.4602242149335229,1.135584219826562,0.1947297430511945,-2.8256699730687639,0.9380729332011901,-1.877710689784995,1.1646904237458725,-2.7886724188607046,-2.4627902209012255,2.5620238038864437,-1.4413291649230198,-1.3209766626372908,3.387846714635508,-2.824731920426415,-3.091138128759562,-0.489546893489045,0.9808975530530963,-3.6301468069921558,2.2402260398933349,1.8940222353565855,2.102958105638711,3.5559191932587455,1.4581684541966916,0.1016048434663821,-2.0068708129847616,3.5842117933418518,-0.9511379468138601,3.4314239766413614,1.0594941461681256,3.2699873543790289,-2.0816342568236214,-1.074356418704526,0.79154345070814,-1.7930790207954113,1.073999470500823,-1.227988207463918,-2.398091826635726,1.5153279184913223,0.2900476487868415,-2.3193389440669129,-0.0959832575204016,1.032529474426532,-2.4022022989385558,1.2982698472873447,-2.5531551091323907,-0.5300364921102849,-3.4483292192400647,-0.030028326196079648,-1.7276683780925959,1.8172642375418038,-0.8918026930388141,-2.8660063816598519,1.6870090887198002,-1.8090343476894473,3.8801577156897375,3.6652482348395729,-1.70622635305548,-2.5674674812171816,-2.6234911368810049,3.7728493671776794,3.5283949271789938,1.7387828548263747,-0.6142106469833708,-3.7875323567173826,1.6827820183749074,-1.745413221199742,-1.4032339299381303,1.4801259788919099,-2.0608359704893726,-3.06952689363912,3.411075287524226,0.6925482345940761,-3.8507774332364397,-3.1553059189150325,-1.7302998960747334,-0.7488402775755285,-0.1852178808272278,-2.689173439039666,0.46244379822115358,-0.09719655467631916,3.8872731349495179,0.12480517183363826,0.9200071996581674,0.011402166816083082,-3.8504465769120825,-0.4248740480481692,-1.0519672646947199,-1.8521898120244123,-1.691780910799727,-0.7761411056805025,2.268080630652867,-0.7167621426095527,-0.5425833486859757,3.7128227408606255,-1.5561054706599842,3.7840326150385614,-2.3747192419293547,-3.6203612203853199,1.009539631397887,3.3127983571823016,-0.16608136737831259,2.133939290892955,0.9360410994114137,3.0520526319406109,2.620762611905162,0.8959431827181303,1.7945144039490675,1.4149760939708785,2.7491231233526829,0.8010409709472421,2.3611248196336467,2.9838932741430916,1.0268037347841546,2.1545556275934274,-1.435647152288161,-3.00395184414824,1.277527526624997,-3.428829715680818,3.067867736895235,3.9673121348730406,3.3239730889736984,1.2084271445403375,-3.6553172038850949,-0.9569531274270409,1.6788580569064174,2.3624800422874339,-3.443020258740642,-2.5541372798243815,-0.7561773108693612,2.4079386386141694,-1.2689646062669609,1.270885954785883,-0.19756971837143823,-3.457639404880452,-0.17731691509033177,-1.6929037352796508,0.4105669449456002,3.659869759555715,2.327234052189999,3.981567520128536,-2.097089970447568,2.2962802217244988,3.5612064332976249,2.674352501707437,-2.130280238642057,2.250841348618666,-2.342855590880929,-3.8559552548529227,-2.9146103106726919,-0.3379349480935012,3.153897767320916,2.2966603195046799,-1.3618880975835728,1.536865475374511,2.7643281858928558,-3.2579150934561209,1.6733461416056202,-3.5783555851022594,-1.2027617481916373,-1.798799730112927,-3.203652797580843,-2.958122374116492,-1.6853130758764097,3.5391513643134457,0.9541792486308189,-3.3493459495451924,3.421084927617631,0.918933010193574,0.4192150878560712,-3.939715831933033,-1.6270885175234205,-2.821736342349814,-2.962475929174829,-3.0722920153796249,2.53005042377218,-2.8382962155756195,3.0639367868767097,1.8748834016562839,3.976024474267577,1.691942110767224,0.9272246080873208,-3.6185563954471897,-2.553769356783361,3.4438677079015607,2.32467243453978,-3.680406364172205,-3.325977099931623,-3.383174243784838,-0.968236463629653,-0.30806455366428789,3.3043702039992279,-0.613467765765874,0.05551991562572489,-1.8082850630201913,-3.5707021654756314,2.4320655702123998,0.5189811845549297,-2.442857313761765,0.20419100253193979,1.4759490382514376,-2.057115342740069,-2.3536993395470855,3.392645466003466,2.7187359299943916,2.2924331451585049,2.823834029037319,-3.5561537165257777,1.0099510452426462,-0.7122282614678765,-1.2252849774787578,-2.844350797802206,-0.7395150059992142,3.179773205894101,-1.2383045430125448,2.4291926830743995,-1.0542023319242573,-1.0298304398920273,2.840791345547677,-3.899018236186607,-3.280084559205169,-3.0979667279477915,-3.217123843110988,3.189865314121497,-1.9473780469676092,-3.080083907640039,3.958705208208941,3.7010070385346989,-1.7239628927098723,-0.6433156358837395,-3.360145967992196,-0.33951476367943536,3.5899824015506676,-3.886821453314538,3.8047888772076217,-2.8500686262027878,-2.990776663338025,2.1503125873333914,-3.2354217573731285,-1.832353873005587,-1.666423062210271,-3.7644609914671065,3.028081511366409,2.6772999437629796,-3.469457709061021,2.623454014604464,-0.1331976745236645,1.696853159008601,-0.3559726568886923,-3.5543051785927348,-1.016636620122419,3.5714297250506155,-3.6310991961601806,-0.8092865424677864,2.2055211991546397,-1.8708259062018924,2.01975598941125,-0.09630255189270276,1.0242074090833154,-1.3536113847008656,1.022365715170384,0.5452468169425693,1.1019859569914426,-3.8737151733681935,0.46669282587051166,-3.3416882272653298,-2.2088713825181678,-2.1580252333043168,1.759198018568446,3.0573505569087366,3.515988591388787,0.8813642851215757,-0.06624970561694976,1.570066316507801,-3.682646504941136,0.5980832897696686,-3.706296972250711,-0.38746445479823068,-2.8328621611123134,-1.2446027376717198,-2.1600843278982104,-2.729620897025635,1.5753205826714343,3.1839183321346935,1.4395267340939127,3.465945877556691,3.19371538391089,2.141441179341971,0.42259722203309027,2.2990058160363384,0.2577168919641837,1.9980225109803458,0.8053200059124039,-3.191471639731704,3.450309859974171,-2.4570737513715539,-3.377302935101019,2.827698247816035,0.7890709098057656,-2.7076768896965985,-0.038862844457128179,3.4721357207009388,-3.5380469748567719,-1.9469711474269607,3.016604769733515,-2.4263881206683708,2.985337686000979,-3.6910157702209647,-2.1940018520180848,-3.2280969991178738,-2.491710416332494,-3.1694690343451299,-3.5369340383954315,-3.722406434567179,3.04367878506977,-2.629985820205567,-1.0351496575318622,-3.446762640955683,-1.8788140574984347,-1.3697750747521243,1.3792165964171579,0.5062125718757091,0.7776157167674995,3.51128300323854,3.3925570978975587,-3.6381973970125269,-1.2394573160587248,0.2372447483192408,2.196344142472811,-2.777785931790195,-3.648114955433255,1.879366478869823,-2.367827770030549,2.9688101252047867,1.2218220114016623,-3.298192689422309,-3.2719409794882639,2.6216844591484875,0.16965566834302948,-2.7498761570746046,-0.36434100462850318,-1.1370423910601256,3.7128007422274837,0.36386814235960776,-0.03359253272879337,-2.398445075246034,3.912153665046284,2.108275267726582,2.9035828085549468,3.9194171515231046,-0.38964408420643528,-1.3757099438764835,1.9039325996130874,-3.3739369081031649,2.175674265104881,-2.876200774623083,0.33745456371948637,-0.7842140979607348,-3.454369195202829,-1.3721858312544698,2.2290386246867008,-0.4138568868989656,-1.1953301440673326,-0.3668989202712647,-3.7133444029381508,-0.7068799036137852,-1.6291285978353055,-1.249084379618045,-2.265662363416772,1.2994884254645003,2.279928830499532,-0.8926439228727503,-3.3581466688363328,-3.7081754232905919,-1.877520004028492,0.9059613053771782,-2.2922934953869786,-1.5604204394881818,-2.14470783446777,-0.8216055810210465,3.450907026664625,1.2809315462637772,-2.1954482359078497,-0.3608867181521054,-1.5957959845262837,1.871980232001829,3.1446928368930218,1.7356634474729856,-3.438296482408484,-1.1551950987428706,1.845064910815644,2.301149739944412,-0.8204824280832588,-2.9868719826689569,-2.1965312753939907,2.68123761434724,-0.04124777308532668,-0.11378339911423274,-2.611180732075166,-3.8676248582390668,1.3299328029821088,-1.9331687115992809,1.25740261485452,1.1451581806619107,-0.7319079740479937,-2.546680263279276,-2.6341752486539296,-2.921605676961857,0.3213478370972602,1.7784030235794779,3.850679339735808,-1.2453433983259557,3.2820587871431634,-3.1466425003136786,-2.381162098193328,-2.4076300399156107,-1.830669116736576,1.9576131989307202,2.3369805090432127,1.5630997482746239,-1.9042148481433635,0.5385986513919843,-0.037734830735420169,-2.043633542960441,2.4942150408999819,2.0345540560305928,3.889780523080524,1.4314277827738025,-1.7074140086981087,-0.9906069075960922,-0.1334321299066572,-3.429821897200723,-1.3390545607397096,-0.3382391226481294,1.5118477465373737,-1.8146430251289732,3.9768764239941447,-0.6257685771016937,-0.879854003866976,0.5628139714892217,-0.47890067085579859,-0.38600767728999965,2.823176786625612,0.8293766957297155,-0.21726514860246483,0.6359678733027829,-2.0299270195304874,-0.10216514926694687,-3.290020058414255,3.4180336598513225,3.5346945122146549,-2.689123402212651,-2.3259232645110385,3.536757694810186,1.4268894741983794,-3.4332407917722245,-3.4906286651206894,-2.6767725409290099,0.2700006920194564,2.2083963393028425,1.986495411049586,2.2048299636380115,0.09394993024734255,-1.1470190924670743,2.5728007388698606,-2.3485406852143848,0.5371932080003452,-0.17462594891499706,2.6368686261362868,-2.3583780246596168,-0.8584006131951083,2.8575289108674957,-3.2500152832972635,-3.8155581399256865,-1.7301420669656838,-1.7730480485274667,1.1219846776753198,-2.182989238094936,0.7661288224458671,1.437411055320081,-1.2279636145044722,2.895685076950345,-3.961242503564084,-1.7037137699216372,-0.5442916579090957,1.4650926039436119,-3.488921553027043,-0.12984941801615514,0.5401724106627839,2.806969481904507,2.9302261450273887,2.5870855376942529,1.036974893208595,2.293047640569408,3.725460645398755,0.6331204657457557,2.2809256357600109,-3.9048287793494467,-0.3602601535790646,3.51760580298786,-2.5590674935997956,-1.3423636547364278,3.7715458610730216,-1.279821161603131,3.939855689696606,2.4772242798617736,0.2752540834077779,-1.4535478823894126,-0.1636700632808301,1.685476895656767,-1.8025428818975796,3.941347594631977,2.436044240595103,3.335951583864243,-1.0387447731845443,1.0625607514125158,1.4824171838958336,-2.9262840280026438,0.17382290291227155,3.7263198115488569,3.8885521019359077,1.7158783917833339,-1.1658310871026894,-2.938473835977751,3.3804306714926559,-2.3990190741551205,0.6579692987932306,-1.7251508083346215,-0.569871968306771,-1.6936414341625009,-2.269686437936234,-1.1464015255203213,-3.5445816489945676,3.9416904847746947,1.336688387525247,-2.0157881528910925,1.135162339333048,3.405322536073827,1.8980977816368939,3.7448843210448858,-3.20593165918688,2.4018242674324599,-3.7117268789446378,-2.09437358698057,-0.829066417627633,-1.4015483827990032,-0.9164990574325849,-3.6420513786445776,1.6476954164482765,1.7288341390739933,-2.8149749784275874,2.7837172830530969,2.9416421035991426,-3.738300656366852,-0.06383479512028045,2.580575837136159,-2.857882940004,-2.2093719518204297,-2.814286575808466,2.562391788237748,1.2505790966888544,2.7877121864668634,2.805306883465815,0.8712354591059679,2.5275331518110057,-3.480100064949025,-1.1592598498647393,3.340238737457022,1.7491311587969474,-2.0762155762160328,-3.9610413091491747,2.236080726758078,3.442394369146273,1.8465581641089389,-0.07324213280154646,0.24082957077420187,-1.0978012855062618,-0.910436193883404,1.39958331286702,-1.5209934566368944,-0.4127403269484644,2.725185284738256,-3.3903095436527437,0.1305178778686109,3.451918982835135,-2.133391494226718,-3.249490960752965,2.779200916621866,-0.4440612721294601,-1.5305866614328088,-1.1837484283592544,1.9336364719572235,-0.7174062956070129,-0.23895019186421807,-3.6902830818804155,2.71051317564827,-3.9218159963966059,-2.3691966311391665,-3.9532847800598489,1.9732867219022757,-0.23655327793210735,-2.136286723459432,1.0978871328431313,3.433997732918259,0.021747474874256768,2.7540497500230858,3.6463408804216677,-0.5816387406239558,2.0834310228427128,-2.164967035120391,3.101654507226254,3.7122769717050438,3.151848451017309,0.6109022368781023,-0.6551946541564335,-1.6503980114474784,3.521776399613099,2.9330900490717797,1.966173804501361,2.718808465391935,0.3571323637293995,3.0124309319306876,-0.37519801696334756,-1.8275658949070489,-2.370303814286615,2.2360001332065018,-2.6014704408016575,-1.2814014179363929,2.620012573749924,-1.4736510592630712,-3.912641849895052,-0.1717218452099163,2.72160985348774,-1.5326421476413073,-0.4626713935331688,2.179577692164022,3.9581320651887674,-2.437926274641277,2.7724163149645886,-2.120848416252672,-3.7205262500964286,-2.006668366835859,-0.7423254104044956,3.8384500154784826,-3.8591778100152069,-3.9661510731127604,-0.6998723207872766,-2.3095085578655194,-0.40765388414315587,-1.7260821523374406,-2.843664807208766,2.5987774964651288,-0.4943549921462109,0.145223105350766,-0.7399386861557338,3.8254768563796519,-2.797465823250798,-3.603799330949677,-1.0148968210519538,1.109507205919682,3.714328100501092,-2.344445512879398,1.532352523939668,-3.990863224611349,0.4959003095325558,-2.0045523226589836,2.8336796202092149,1.9258938255905314,2.0108160979908149,1.084067548473767,3.5242632026682418,3.8123105109399955,-1.0859792955879438,2.9332108246349879,0.9649525748362384,-3.4107993326992149,-0.375640796582954,2.3577882034928727,0.27487545775793978,-0.7900588463234488,1.2552521402339148,1.7554544389118459,-2.4465028538529784,0.790361683191561,1.9080240483494917,-0.5314376461290502,-2.68668184645385,2.3949428411864206,2.839801111326124,-1.1017275409256369,1.2244704756536856,-1.314389161859391,-2.7416874474015699,-0.47448510096415599,-3.5344675237353364,0.242490238364379,1.3189026852419899,3.221663517968559,0.6941805496739768,2.5111454826132615,1.7579840206283156,-3.8770380106901838,-3.4196329710043606,1.758343995215939,-3.367552355326856,-1.566451389184962,2.175423850626726,-0.8109551663395775,-3.6742316042258844,-2.0166350479486327,0.4401505263220189,-0.17779648743310995,0.836261312494857,-1.5358439777715612,-3.954547447651527,2.6197022117968844,1.5898750031678404,-1.7042684694265125,-3.745839021072846,2.272266538976786,-3.6991069185689078,0.9644302131884643,-1.0424314894384706,3.7219767901452958,-2.281652256237992,3.0007537263112384,3.7054539589049977,-3.4530091420707818,-2.0680087641890338,-2.405897506495549,-2.961202015117812,-0.46886093788298335,-3.114487461214214,-0.7947266042605934,3.7681014568045638,-3.4702939577917686,0.7681091267227007,-1.2963994680725924,-0.4141486364922906,0.18245034532768046,2.3818829135166634,-2.9384029617696507,1.8420060686034364,-0.6773622545879956,-0.4831192760744578,0.020285868865822289,3.038788297589459,3.4706573229132866,-2.620722879204963,-1.5658260018490927,-1.8101357522032498,2.5351430306293034,-2.7972529064433395,3.747756233782402,-1.1219290918068233,3.1894984440471267,-0.7844348871441875,-3.367766587532813,-3.4785496633680426,-2.9046943788258767,-0.6955620612397835,-1.4581931888054376,-1.5830593228252926,-3.8822933929906577,-1.8228875679096464,-3.787685223538909,-1.97285723463572,1.0953628122172186,-0.8519390611439812,-3.4956999814110505,3.529761879024516,0.5546013787188988,-1.9093793434611986,2.0662559976924195,-1.6371906810282567,1.2955592255560405,-1.062853594704947,-2.889096942522535,3.755272383380703,1.4973932840654234,3.8962313359720337,-1.0115732059200296,-1.8467169652551326,3.1783606386193679,-3.6193622747205858,-2.8581402147742098,1.6448484382035416,1.999270229170322,-1.3003097138688167,-2.4557578296084907,3.1208076762684335,-0.038427487361884397,-3.732402569501022,-1.236579986545502,0.27967770841384445,2.4721833404970425,-2.909677995297467,2.4811114215909324,3.7693054602758018,0.03655729922386097,3.0176675908713719,-1.9669786213877012,0.8955870945335533,2.238274039504801,2.588689691581818,-2.176485726523076,-3.0336590856539695,1.1719577068387475,-1.3733792626930504,-1.7217483159866965,-3.2413845253283215,2.1730595496962206,0.27268251259548395,0.6593428121181058,-1.6377534103730476,1.5167918659315048,1.426964866250783,2.3231848028928114,0.7713700560755301,-0.7656287395029953,-2.8760700882428784,0.8911698943293143,1.1493193475465438,-0.2791618722000846,1.8249620604350492,-2.4410874464575444,-2.52793753437454,-1.1861076662013322,2.230833266275507,0.9143603825670468,2.369642837250816,1.7265026612026918,1.176529798506162,-3.577531500601479,1.5710984187149633,-2.864359357289934,3.998334527644963,3.1373128459784649,-1.465629453704624,0.49428925949873828,3.381158109618509,2.270355180620059,1.1382130531427786,-0.34727550439035528,-2.700988579170229,-3.2239489081313348,0.5483066962734071,-1.3641954296600643,-1.4581572528999607,-0.14758005582542234,-0.13307042990788088,1.4425126151820909,3.5821171239562297,3.6992734778582756,-1.416374114657983,-1.117627076449172,-2.4840284175581557,-2.476510311975389,3.520435036666149,-0.8654618787376813,-0.011918797831220962,-0.012909898342098103,1.8555317223531028,1.151114666372715,-2.5531531680059738,-3.4518159554920277,2.742748997221973,2.0108445324464796,0.5583834345123568,-3.751984477440673,3.808164950277071,-2.5958143235002568,0.3348086288125236,3.6285120126680185,-3.9259707800901397,-3.9170878145755507,1.5970348230344219,-1.2487224675580804,0.8741054517261127,-0.6117750713820909,-1.248014963848977,-3.0394487308981388,-2.3166319675522155,-3.900311835314054,-3.7200630548172155,-3.1400401046607477,1.6619144606261154,-3.9154247068442658,-2.19540705967583,-3.0914837631338019,-2.2914003420205066,0.32576674552121345,-1.3220930563771907,-0.5320390106129977,3.401530145790808,-0.8332227267497165,-2.6824472586855636,-2.383758637707456,-3.9076758116172938,1.94757568731188,-3.3291886552220086,0.6825155014824595,1.4813768290969689,-1.6442119953868364,-2.467227741949313,-3.8421188903503697,-2.80175827879701,2.559227384560466,3.5946352552756206,-0.29286071415762029,0.27448918437299066,-1.9189523313754403,-0.9268837643190899,1.8292682536842105,0.7334279509652619,-3.8520751564014867,3.972455756094713,3.4425930441212246,1.232348896775366,3.9266701046031766,-1.1449534902681542,-2.8114593444913966,-3.544416994105923,1.3128293790821815,-0.25198183900988,-0.27044796608189528,-1.7383686111909869,2.5938421652668559,1.12298311107262,2.0374833373341456,-2.0150454584674195,-0.8452890146279974,-0.5347125040365113,1.0551516818311724,1.513955127168309,-1.1595096492675999,2.5632647718729366,-0.3780217564826034,1.121166188222178,0.8956964068558397,-1.040430189318936,-0.7636180188569242,-3.5204661989173919,0.8109245057545449,-1.0827436552060368,3.883080977064436,-2.1757649553959768,0.6094256359534072,-3.0745528185396289,-1.1009214131532448,2.380209427102556,1.4952226983543709,3.173376731258224,-2.6837770680615344,2.397545346926245,0.22941072668481778,-0.40874863523566509,0.12405314158176761,0.3766160370772056,1.8565327722170287,1.7565408328058219,1.8400309975158136,1.6264110996249049,-2.8865699603052565,-2.248460799817437,0.47873730605582046,2.151959422963955,-0.42204379664078486,3.817976565022059,-0.387775184039028,2.1928676368803927,-0.5602668680648437,1.930314140888207,1.2659631797136176,1.0551261757632738,0.6582050636662631,-2.6968175692035709,1.5473508239157293,2.160811963861428,-1.0404887402929648,-2.117036018890232,3.3977379321631258,2.2814771698000335,0.606662735639639,2.8964275315278869,3.9279727469279006,-0.5826465973831494,3.607250588203275,3.757024709063253,0.48077757062401185,2.93645691333782,-1.70854499694266,-2.927363000420706,-0.900002596170806,-1.401112528707305,3.531897375801406,2.4732279647504038,-1.1335077312740015,-0.7954902114050595,-0.46714269874086,-1.594207236202115,-2.586158327182712,0.6686938359107897,-1.1114635182851354,-1.3508895766536995,-1.4209325153528215,-1.3029586845418793,-1.5540104675694969,3.7864196248524308,2.2788341484725587,-2.3543899810611075,0.8124102586916111,3.284497719814942,-3.1353028187422664,1.5853526612485887,0.15732346377317886,3.8692295063110686,-0.009046734375250943,2.5696256066323,-0.061741196068125118,-2.096259987779913,-1.4600217894887798,3.6289283855548497,3.4330507565074095,-1.816211816061819,1.4773739938888886,-3.267744050576632,-1.4812347515224785,-1.7147182827669172,2.5108622326779779,-0.046740525391646418,2.5015514838010697,2.0393512080914517,1.479398512567938,-1.9467311114147359,0.5321515242714439,2.2449286853055367,-0.6362986193886373,2.428128099589536,-3.5537394400048978,-2.2853100737556284,3.9865972250972279,1.4017443518370279,0.9915010724683793,2.295382234729657,3.131882336500362,-2.165980684798746,-1.0111546067822202,1.6530714974360539,1.1775194271649392,1.1827929773250956,3.880727244727394,0.7851974066166649,3.2194181607369094,3.6599475901979199,3.146290821947133,-3.814428156291836,0.1501308345775394,0.9882058844254793,0.7472511819212517,2.1694509076475567,1.6890943080820443,-2.777406396539199,-3.344383033518139,3.3727895967720826,1.4880186449445186,-3.9381422233071579,-1.7719325190854463,-1.6339946409460103,-3.877084119593663,3.9390758646481647,0.29374399459015879,2.500811996449925,-1.4615718524506365,1.2590301250352712,2.2932735238268888,3.923153996987274,2.4537458845793296,1.064449540181558,1.8317810775601054,3.7783403712508214,-1.2141655701569095,0.5744072811817054,-0.636140342917809,-3.591490789340476,-1.3046737452882465,1.1144999794380138,-2.629454439972899,-2.478366883662213,-0.34064729100936566,3.025162198576627,-2.9719952449349247,-3.6931675494399949,-2.739628119387805,3.8640916478838278,-0.49573226276592666,-0.5833548503094195,-3.6006447544853055,-1.8236652224278614,2.020476200485308,-3.0752787220379007,-2.1746283018798069,-3.11790392609473,-1.9796570395710805,-0.3600909970934085,-3.1995568882230609,-1.7898266372916858,-1.1069631485282144,3.7740132174237095,3.524166953249427,2.6031836990884065,-1.0863666957430256,3.139481036365102,0.6862841903989949,1.110913556606782,-3.0959676854931335,0.2381705508649281,3.8560229671874186,2.859845135291325,1.7638498628374544,2.42500006451312,2.5733465941986894,1.1901414235653789,2.1465208246812379,-3.157303627004233,-2.8434206646280248,-0.7890806216217852,-0.34979844346620317,-1.3278078650252683,3.8094429965143119,2.670046860455951,-1.4705118083293707,1.0397343895614864,-2.124177991317488,-1.8084899679464697,-3.1397440261416946,0.7469902440510952,0.2749700918283553,2.665682659687082,-0.707964790373991,1.0542151412133914,-2.1470196480932399,0.2869114865072584,-1.4103267060843239,-1.5432686733712602,-3.755617648373134,0.6212958574912655,3.9200106761947399,-0.28246441978084749,3.9825686039035634,-2.4712796626931006,-0.48591053939587405,2.6908017775649286,2.4133361130735349,-0.593172841376868,-1.6549609219032873,1.0186438845819935,-0.6242584128680075,-0.5981839261181694,-2.5004176999125846,-3.8524111571157118,-2.345167697736488,-3.406045487635268,3.0821986855614336,1.1457845735069939,-0.4189565007149305,-3.09755997434588,3.119574929777654,1.015685977409059,-0.9089032393862215,1.1383967209439173,3.713803128696356,-2.869488687362529,-3.036667718002544,-3.7095820825456498,-0.15110555503559554,3.600207874931889,-0.7535100504762491,-3.080770302545174,1.100570916267066,-0.8544556506668206,-2.621688767813545,-3.180794548385446,1.471544289696829,0.3981984320670362,1.2805329048340255,2.4571962278543877,1.057350590977233,-0.7864689837612728,3.716346215070363,1.7641324358885858,1.2553001417138719,-2.982757177809141,1.9507183719461985,1.9757202483035155,-1.0701298880686852,2.4560029798544988,1.090389907093102,-3.6154632537170725,3.2197969157914638,2.597455770906903,-3.295807378814743,-2.3047536087726225,3.5951873800893274,2.851734889073727,3.1106549962952707,-1.2347072378921718,-3.4761881963360308,2.3679410798258369,-1.782748718534446,-3.566826753591548,-1.5112736786662593,-1.4767812058153192,-2.063872265663221,-0.7482004737032109,-0.15508084185263927,0.8663220863953418,-2.6890218042677658,3.4583635181532346,3.599864487303863,0.3038574612000122,-0.7846671187107548,2.5948547777679584,-3.7406569861920975,-1.884337123747323,-2.795014458051364,-0.8099118156913816,0.7976950966749099,1.52261101722301,2.795837513497747,-2.6615442613109074,-2.8003106181222714,-2.8934290518827634,3.0483001231813828,1.8729461359480304,1.940288351617843,1.087191403642331,-2.1498613147856746,-3.036751870692104,0.4511870629575503,3.2073811563762186,3.4840677612591426,-0.2036768727087972,2.9984597663661196,2.0630848102456804,-1.0011413906140574,-1.2323468857394636,-1.3191817815197967,-3.4412577208264967,1.6786469788160555,-3.815370844511521,-1.8813889919258529,-3.065515597629556,-2.8769861184188256,-1.11376092511971,2.354417138819209,-0.15803799356215898,2.295808518503728,-1.122619080660414,-0.11987300696875725,-2.2738750230239379,-3.027972105340928,1.2918972448355124,-1.59823025360695,-2.7732301926659757,2.086280412495567,-3.4673556645203567,-1.2292508769366535,2.386924420692414,-2.6577661498731297,-0.7502831310397402,1.0209607224293099,-3.617123559699701,3.332139867643818,3.3852082607997415,0.46171514191691989,3.9191060181887407,-1.2089397831484466,1.1421718033210402,-2.1489764546141716,-1.070958880776683,-1.69439322265994,1.5806432437299468,1.9110685834292865,-2.8854810476143326,-1.7092539461810877,0.045113156067055907,1.7814106070059462,2.2402394807802015,2.7037218234304944,-1.6327101613095765,-0.6099007358160078,1.2645626014124654,-3.9873010308617307,3.2694616029755174,-0.594595544340673,2.581658804062574,1.2831495545431749,2.8865067132204329,-2.669973452364215,3.2504644616328646,-2.6219561197088305,-2.706354750339342,-3.7635025141508287,2.1360971877990559,0.5988103998104162,-3.0325417497605597,-3.3334419236764054,-0.047133106173482767,2.192732687994039,2.24882976244382,-1.4478298773249883,-0.8094497133067391,-1.5634429817865264,2.5548391644782386,2.1884256173523539,-2.551716673406194,1.8178956462675205,1.2278440371810886,-3.256743937890154,-3.7489135792421095,2.606886008005932,1.0277331911792498,1.9116166673283557,-2.4623877134687506,-1.7497141465783557,0.9039298946488463,-0.6670124598499356,-0.18709385277425007,-2.9366627162920828,-2.535095635224306,3.6077680307924337,2.503085000524025,1.185883633533721,-0.8188079804013848,2.696739347916803,-1.7261541421002527,-2.604783653676928,1.7996332593228779,3.710775876462253,1.5325427864892492,3.1640169317102035,-2.1049833313615879,2.0286268969009315,1.4856215526496693,-1.3715238151801932,0.603396178634835,-1.7884406592178364,-1.3686308629018796,2.8995266116514237,-1.3860270107029787,-0.6175217746556951,-0.7547572430147937,-3.728338433089089,-1.2802969709876584,0.003091649557874554,1.5116351294410234,3.4744576988276147,-2.7116048095432676,-1.8927062908930444,-2.301035058237307,-1.378042433392171,-0.03290286308499879,-3.4800291759557089,0.08665502725463181,-1.246391058802519,-1.0515647577371308,-3.4600441619598154,-2.964186563219327,-0.8148087991996162,-1.8303421632086777,-3.412817799059587,-2.4600836484461334,2.6751660964121095,1.7114338206160263,3.0006224814083835,0.50443241530078,-2.2226458127992236,-0.46709397948703726,-2.4810613914740067,-3.511907701657763,3.418789609868595,2.811309200708772,-0.17535414825250029,-2.8352552069512138,-3.6670062635151066,-3.4933238215385975,0.7796065962781142,3.7889846145912067,-3.2234329194743189,-2.522187355265162,3.679602490152675,-2.5756652562134825,-0.9066356914968436,-2.750884735473626,0.7691842623695262,2.296945529470599,3.866387181631328,-3.5425741987869454,2.2037865643837026,3.868344657903222,3.0303166629081677,2.9781245644441469,1.1655104802347412,1.906197954383198,0.16253204231817265,0.2922752562581463,2.2268545776042405,-0.6415950843837679,3.6443647118911706,-0.6841658770526171,-2.456185259039427,0.5783790762220331,-0.32717766745597745,-1.1399027304739953,3.2157542327135157,0.17201118744141298,2.949769288819815,1.9966086146391984,-0.5194736883633035,1.1463810976312266,0.050914200196999107,-1.6906558315916947,-2.570851261595159,2.7814863211354456,3.9180091664364538,-0.4516265129366026,2.7366485290857467,0.8679772494662821,0.3958960299868419,-0.5273059350953542,-2.583241086803536,-1.5823284409094323,2.2978945376551538,1.7759546525617394,-1.0918168830636664,3.5584776917830229,-2.0824994906262477,-1.3477356046467029,-3.718976110510085,2.057059929668112,3.3176453734352595,-0.5876713030550187,1.5502484876155043,-0.8513332221257295,-1.8127440729358229,-1.9476437581224813,-2.3363069808275078,-2.6421055801227846,-3.0881667538815469,-3.9830590788281885,0.5496340090863923,-1.1785572798369382,2.3327768556240384,-2.6557170228086024,-0.35092834771728245,3.308751385383406,-0.09626933980300279,-2.2214679984324148,0.6563993251158529,3.462058347929587,-0.1846039499795571,2.4765868427006207,-0.8714143079187231,-3.1950641100615249,1.8647876082415547,-3.996803772919275,-0.9134337374949537,-1.0396665154274596,0.521499700494874,-2.317207831893004,1.551446324513237,-0.5235261736245713,1.4830877937138257,-3.445242212419946,-2.3483897710755086,-2.1486879922469948,-0.5899954130993441,-1.0025662532216249,-2.031264411717018,3.3070050267582316,2.722028685388117,-3.039138781368222,-0.6718989332948464,0.9682887234787128,-2.283620071077597,-1.6472618181836046,3.9534675756932469,-0.11064723079620387,-0.032999096519253038,2.509742599789125,2.783619756922823,-0.1670999021291273,-2.478890878567081,1.1386389224207694,2.196665709154531,-1.0962720348963997,-3.957058120299485,-0.3022097283636498,-0.24750771797263483,-3.9760798267682349,2.206866641391141,3.0328029057096455,-2.5188537979725025,-2.41123490829972,3.126464634236667,-0.8082618617607871,3.7870367372181716,-2.300983700921403,-1.8856217458915466,0.7355428030853704,-2.507813674247731,0.15019476972487223,2.9960864503203359,-3.3754276646014986,3.155301951746104,-1.9352125107290215,-3.5898957365575567,-3.270301169452181,-2.892920376147175,-3.009198182134937,-3.5893663128908299,-0.23163012259059458,-2.1279646574603845,-2.416271044711042,-3.317688672333701,3.697726286102945,1.045272275908693,-2.3471837445260945,1.2051172389614946,-3.0185817219857649,-2.209892357420247,-2.2879425975842144,1.0689274890444152,3.948615977784513,3.947010854239111,-0.5845508913987414,3.1200409773708186,-2.1596543419613996,1.834573852145696,0.8452296490729081,2.499702991172618,-3.487293577124448,-3.7525195741601919,0.2872978455837094,2.9859027036523066,3.2893454041003169,1.7501643864513695,2.5521683856782326,-2.330211639646503,-3.8250942295619687,-1.1621506890079987,-3.1266268917468835,-2.9524624975558915,-0.5439448876826329,3.0966919928354716,1.219760418297379,1.7926368060531042,1.5300613843680023,-1.236006144311947,-2.013201930171965,-1.5139513622813646,-0.39310993035573107,3.8157079994150626,-3.0501731473415596,1.6300605970572564,0.05781085254152796,-3.6869080802113745,2.4185601918888794,2.725645940191134,-2.283215216360098,1.094288193330108,-1.8515908311605803,1.3722887657664505,0.2867091759937779,-1.7381253463203877,-0.890952270135873,-1.7290272513282828,-1.529904411286914,-0.18713605514809029,-3.5121458925029058,2.326475387896246,2.2451321699267927,-0.9138002115117734,2.1522569582847455,2.3888110329869125,-3.542014135293994,-3.390124901604616,-0.7735603712500954,-3.3958757877616456,1.817287006540453,-0.6379233244702327,0.9054353292351829,2.6938261129307587,2.97617246878945,3.5475437909174305,3.7686490498472278,2.8714969889195105,-0.28176237959791075,-0.868425911509437,0.29213787932702575,1.9153774698242146,-1.6502814490889273,2.4597000823477748,1.4657966630289217,-3.7504404459081686,2.240585649160802,-0.15413915904087206,-1.853525570346009,-3.336629933648564,2.5726669243121327,-1.1157602141871648,2.069246731456018,1.3553654849296769,-3.230209135925856,0.36081244521661395,-1.5239018402645233,-1.3984131042745923,-2.329723383836984,3.2511693221121504,0.6083095559340439,2.0617420877625705,-0.6008360577029581,2.7616754909185365,0.36234330015102236,3.6124803605244679,0.43817121817114837,-2.0900833091261008,-1.8461555260875569,-1.2522175619100507,-2.7907770767460837,-3.408604493553815,-2.8246998872705646,-2.831990232978092,3.828537199132419,-0.5748216406782147,-1.2853713061051833,3.836196927423927,-0.6267445912868084,1.5187450638720926,3.3641616783003425,1.444665645441992,1.2864365769417444,0.21035050555086255,-2.5490893427593415,-1.621434140311848,-0.851016733172296,-1.7981350895908948,-2.448826733975432,1.7291128155604048,-2.606246106333975,-2.9622221936074917,-0.48250179373463278,-2.6884474908592725,-3.0734308352333494,2.3490397703251606,2.648284974255027,1.0538167560530303,2.532827589143123,0.17612327011148833,3.464848340137391,-0.5653597497029832,0.5191587795252906,2.285168389994654,-3.5386923625520225,2.592779176026502,0.15532600369508033,1.0573027494895673,0.3746634160381044,-3.462721632505855,3.7091709708069917,2.288178583241778,3.63369452845893,2.777562128229908,-0.5473782300887446,0.607120069942714,-1.2414956121615755,-0.09902455102309027,-1.4374580637831179,-0.24984533068902493,-1.4002313255210142,0.21084022490059074,-2.7653677298946457,-0.3928998179983496,2.4131152296923554,2.198135791066518,0.73037353675221,-1.9587721725841492,-0.477556374498457,-3.9501940737638909,-3.3063496736527977,-1.7687537158471463,-3.4008661807608178,-3.6920159809862955,0.03574145011643104,1.2023863034320144,-2.4451934927058938,-3.8399367091653504,1.231964725540661,-3.417907995296267,-3.0885296579914769,-0.24773665416788583,-2.656843017786464,-1.1893329489527143,-3.942175732656274,-0.014007724523336984,1.1993834371698756,2.1175151851657656,0.23890918772070258,-2.651170179191329,-0.33864815656373739,-0.46093100046221716,-3.8689362038608356,-2.413289227235726,-2.961651248678141,-1.6302444529346192,3.413406536653776,-2.195833359634756,1.550061598307697,-0.9564369840849345,3.7930966993095325,3.9280109016206756,-3.6647424458085799,-0.9148307260415614,2.394070685113028,-1.6360696027123505,1.7186780370822153,3.2095818776080469,3.8178914184911196,-1.5441435779695852,2.832127224616099,-0.30155089111294589,-3.716095631597568,-1.0891095097227817,-0.40349228264997119,-1.54322534313742,2.303634295086777,2.3101033755971347,2.4988955443791855,3.588265128642968,3.7689094975944519,-2.145434702257842,1.9448132849933977,-2.268837937111992,1.1557189846570717,3.943702567687402,-2.035541611277144,2.015421566672126,3.2550822821703146,-3.3457953151441188,1.605079128226678,-3.4162233372918049,3.574988560204174,3.147658582456092,-0.5991673665165367,-2.5666700329459806,-3.5128760979697057,1.0889222628911828,1.0867719883241538,-2.2272697626967306,1.379041029426947,-3.4830571014801148,-0.301082068518185,-1.3271224777313527,2.1963292594663574,-1.2156640534042618,1.72518910766936,-3.5699611812014409,2.723564082905784,0.7817541641971264,-3.688102628540981,1.775431468049935,3.9260662985576237,2.2804530722347309,-1.4678316719076135,0.1640890604251659,0.04311568946157074,-0.9852996286966749,-0.438289927541363,-2.7569221490309356,0.1189726867065195,1.9327713703636827,3.394767528518071,1.3652822707901385,3.3262928226184496,3.9979447038334809,-1.178402332332727,2.683822996870913,1.6424781130357298,0.47163445522643779,-2.3008054380608708,3.2203266515323287,2.7789337659925987,2.2715352072890218,2.70026205874601,3.1988794659552379,2.2667929394518717,-3.6480620578161018,0.15611805682549563,-1.4740292031828349,-2.8906038552444297,2.1061425079134326,2.896746073776442,-2.0898185273568314,3.5237165314939196,-1.795047044560482,-1.3278351015885593,1.457845851037474,0.8892868580562725,0.26448227122096226,0.9170201908838891,3.625768972624991,2.8856872720933559,3.73139153919828,-3.562496679194404,3.9623468440003659,-2.2794836009277938,-1.8409516850680737,3.8717160163448947,3.039503032468157,-3.605946430036189,-1.5879125559042163,-3.077932313438791,-0.5075129477379203,0.6769137040739013,3.886663042571046,1.6868456909730104,-2.1815829535994757,0.49630759696246065,1.8728691698869682,1.0535219810595429,-1.2104625633952078,3.8253096706356199,2.740117718550124,-2.7498389084234535,-2.763089740005997,0.4216607993346688,-0.2934752550397077,-0.6805265904259772,-0.027532554271272326,1.3511894315601448,-3.578819540564985,-2.3617006393605406,1.5397159151126952,-2.5410111027998765,1.3211405276289572,-0.4214914784244834,-2.311088567578185,-1.160701628584472,-3.0483997978746046,2.8013168476299379,1.553796713305724,1.873180637522287,-2.0697485879016428,3.8315755427020674,-0.8511876751544945,3.4291521778496136,-1.5012307857853733,0.44245324615429829,-0.6344154868557537,3.5235443157498578,-1.376727540313601,-1.9332186396962579,2.3620934499054204,-1.178682991445797,2.4914032402967907,2.372787246924405,-1.9090434386780198,1.8604392536734187,2.993692408183665,-0.6449231437814849,-1.220037927867688,2.1002393329497508,-1.3361458949999337,-2.4856503030268817,-0.8590327625457113,-2.640446829322947,2.4629939587586398,0.3066717804355381,-2.321266152973843,-0.9773672444498478,-1.0688448523833374,-2.648005163590093,1.9491542808216336,3.943880819745811,0.5357075417428892,-1.8918534666566123,-0.9351873076312993,1.657508622546688,1.7267478537072503,-1.7764923229460446,0.25084008787557546,-0.6373139581381135,-3.15094157473491,-2.6634246336637936,1.5753643599206538,-1.4482084665377988,1.453192311157987,-3.900240414667996,1.4384982613536375,-0.41841932021438846,2.3237923653187106,2.856104683038698,-1.4436134499264482,3.1183172187629299,1.4761727528854305,0.7785619017337,-3.823257198754848,-0.6168829730601748,2.0659514590125109,-3.3782911666986878,-2.985903454043237,-3.8888922722988328,-1.0825901914757468,2.2882576423327967,-3.88070200434637,0.08051267884875557,2.3252498521221467,-0.0026959152436811797,3.7232473799869778,3.7790008748280545,-0.6022312357534352,1.1229003668970546,-3.216110424905228,2.8732019652723057,1.63695584565244,2.6849518162452528,1.244216478008565,2.798719333650066,1.2412422955373348,-1.852437904448517,-0.8772281279943586,1.3631262557577593,-3.0958867241265937,-3.2005825508246614,2.2550995453591078,-3.147204334831887,-0.4777369077570368,-0.6032775416339922,0.1940189295954795,1.1112846598315907,2.183995690064852,-1.5972413860855269,2.960852073789572,0.0660538398225814,-2.278698797536836,0.6702451200525141,3.9445922187674258,0.7344493298242121,0.20807668574351635,0.4323859021590186,0.11530999426986899,0.26733411248031926,-2.7770575103119965,-1.9573306957145216,1.7158129497211104,1.30488802371368,1.762262998151427,1.5344946762921712,3.6029402496573645,-3.8721387540316938,-0.3101698720054282,-0.8874862029622399,1.5585702605912664,-2.758256891904672,-2.6465515558729084,0.9553525995326258,-3.3908308867644987,1.664484589794017,3.7176702330653086,2.9264326376609119,0.1869036952363583,3.1941749340847345,-1.4553110328531796,-0.35358445133319119,0.889148665373753,0.01742913098555743,-0.01598480750723752,-2.7709198931507936,-0.6878163474524344,-3.8768185496696176,1.5408331002093477,-2.4400773770370369,1.4268976561486886,0.5095789509750635,-2.00690460511478,3.9381771350975089,-0.5982964212827253,0.09744911340720819,0.5025076490138396,-1.3117521155355654,3.9016835455947049,-0.06212269205422061,-3.3709014299850956,-3.899759804728209,-0.3532627874020644,-3.159881324940902,-0.7419314788278095,3.650339953732269,-1.2505829648123719,-1.7883481628211103,-3.349324772916402,2.745603004509012,1.3404614208601063,3.653662501338803,-2.4564013954845524,2.1527980878254775,2.435624741948992,1.2949326463850906,3.568541974741305,3.3498615722362157,2.0134797802963968,-0.1425388453175298,-3.4156480848134187,-2.4161351274088407,-0.5325736369572953,-0.8535891894144709,-2.9412231291670727,1.827036308829749,3.89565681767354,-1.4335427497099334,-3.5678392865494539,-1.027388635701274,0.6535153264710214,3.9019651497307947,2.051255012625356,1.7309847807800836,-2.7495687661246048,-3.4060175642828396,-0.6364117983370408,-0.8623086863961609,-3.623007120075461,2.260725568685592,-3.2779959824740967,-0.5398781270756123,-2.703588015635817,2.506546073334394,1.4478240180416587,-1.2252859160713224,1.55668098061021,-2.3933502181503609,3.598897878978023,1.8568908413394923,-2.651955792021554,-0.15431717432237569,-3.2329426210241429,-2.8252163231407518,-1.5704169125900938,-2.204169162233012,2.398822882883519,3.486532491421439,3.3513541236830237,2.146314983373731,-0.856859159223629,-0.3517695949635107,1.428073677511752,1.6142446991375215,-2.6598510753994075,-0.6292025580643896,-0.42185086556787346,2.316243051269214,2.0100626121976017,1.8182339567946038,-0.06120849320636346,2.302116365516105,2.7284814217709698,0.3916221788420824,3.6017186203307576,3.5276675898077398,1.2179273634404977,2.681395873909733,1.653885696249227,2.396685399364415,1.5666883064305158,1.0150994383267023,-1.4877291102926079,0.3276051024758262,-3.924094100707549,-3.2291872252556486,3.149818261727498,-1.230328829193426,-3.167198995014833,2.421336264218003,3.4770316011551278,3.4162857642922415,-0.25816904273910548,-3.641167824869754,2.5288778412128467,2.388032726660005,1.9822637115299076,-3.8855801444414279,-3.3322018940773798,-2.940040445112687,-1.2425330093889322,-3.137350400516291,-2.9615835932624385,3.6572022125138119,-2.065931062480918,2.240464721406002,-2.416849014151212,0.6304237646168032,2.221831793509219,1.0300639330341249,3.1412435295317104,-2.0546596214114629,2.6419142754745836,2.766414466389546,2.1890737020502719,-3.2404629702103309,0.28141212518105709,2.324002916746582,-0.8086081579351967,1.8380391179324703,-3.994833488249421,1.8518065077325128,0.7289435056317748,2.1329609535168858,-1.0951598566880508,1.292687810941736,-0.06316888062979076,1.9987634477913484,3.3135121739335098,2.4707841213297865,3.9932439694288526,3.282973474525833,2.2723620239276416,-1.6176262478601247,0.8187669240435405,1.7966406462675142,2.7753280929004644,1.9909572702914718,3.013932664757304,-0.12434224040808295,-0.376978731402682,-3.3532115939023159,-2.912680480967336,-0.16648346076131505,0.09106133965940444,-2.8209126824749957,-2.3377957972950886,-1.4975022145896356,-2.6638726046909637,-2.9963219652314239,-0.24518487350502328,1.4599770501825056,-1.2826607421559589,-0.08162300787941046,-2.9073381493293608,-0.24076917284310807,1.8920767779904769,0.284765583594198,0.2994678479614423,1.045342484334184,0.6098581900510087,-0.5024541165176777,-1.3576608696665585,1.7877759900727118,-2.2384446838718725,-2.1079278295178565,0.0305506459502789,2.430482507137368,3.7588904329209038,3.698729828830362,-0.8438113836616592,0.6535216729131772,1.7848489348565409,0.6019816638384183,1.6637891310922806,-1.8372652336004052,0.6249473817829303,-3.332967075624106,0.8851511593296477,-1.183362212526221,-1.4191957241239719,2.601001142707534,-1.4251567622851616,-1.695370460686098,-2.0444477173756727,-0.4567482012918853,-2.331445725481635,-3.1873224670974178,3.9842694891341656,-3.102420223276823,-3.1618214967936328,1.635468128661298,1.8488542749321076,-1.17497107188841,-2.3461933472383809,0.90345182137803,3.850064403591488,0.5846611912732156,-1.6627818320508992,-3.773801811126458,-0.4761496887118086,-2.073282327438121,3.9813406861135256,1.4745497364789966,1.9620650358795198,3.344096690411182,0.5340855946673342,1.491383619311561,-3.9713076443339148,1.4643235381579097,2.810639192771669,2.6332237043480575,-2.8449392895669165,1.5063342158004139,0.9808966043521883,2.9010143685399445,-0.5050559285918022,1.1463180787026417,1.3682502613333406,-3.0767835955039706,-0.23286854224210797,2.397630106379297,2.8536970362545857,-1.2816262979686819,0.32111172855072125,2.7256128185132626,0.20475442158116587,-2.778391488415757,-2.682472118075557,0.24629432345710534,-2.775143999969167,-1.5716026190813966,-2.0474104708464049,-0.9015893509716813,0.2869774706239614,-3.3417403969131476,-2.8951317393333024,3.517242219520952,-0.6116212563853234,0.6304782874978363,2.1841910121618746,-2.2608933766492447,-2.0930484352030209,0.20359729700184649,2.601802840544239,2.182642383067771,0.5146221950437839,1.3765404240350235,3.808022368446614,-0.676615170471969,3.2954072141958798,2.186054901092376,-2.6145818943538465,1.489659327899112,2.237632495463643,-2.8321367226719644,-3.4938466942956785,-2.6699523181069395,1.5621585309348572,-3.022490320227033,-3.5632822020805445,1.1265283086886156,-0.23445902729689495,-1.4433127874459562,-2.339749883122076,2.9846208030412715,0.14481428200427527,1.7843228671452148,-2.6445016189201766,-3.525862446247622,2.193164225579814,-0.2741189042578611,1.9183223157859262,-3.730925723040837,-1.5260578592740884,2.217302129590613,-0.8061707596952223,-3.9124204501447146,1.6828961114513073,-0.8626841398721563,-0.7158342832361688,2.5565410455213275,-1.2651321574523964,-3.9904773804688737,-3.7334215119386604,-1.0053951038448686,-1.5760981475277019,-2.80031970956731,1.0571497592181425,2.237734401175998,0.8700479209292507,-1.6156551243151898,-2.182938273425881,0.1171886654171912,-1.5918539657486042,2.008135792871802,-1.653259814498785,1.849985781569445,0.13664024997408576,1.611932713838736,3.493165107246437,-2.4878357617042008,0.12887237980610156,-3.0434662087379698,1.2041013394816523,-1.616493173699638,-3.3133246893826024,-3.109166692078369,2.936530732580132,-0.7688155641542158,-2.1881624594328494,0.1034966627623799,0.16860781927892089,0.15308350332587929,0.49927827327031606,2.683937666231868,-1.4093708628680018,-3.3752669408726199,3.2200124611177989,0.3848553213939727,1.5221459886077025,-1.4662806792545953,-0.39817152916362788,0.47008366794179148,3.7318414160327668,-2.6559425747696308,-1.4413157034174989,0.9340492015320399,-1.6187034445910558,-2.0376782972913709,2.4541222913247644,-0.5782548338493998,3.7584307922867454,-3.607084130130925,2.438997641820107,-3.6910854736446669,-1.223256638053571,1.3738904992067589,2.178100023786487,-0.7942105934814192,-0.40018939703742775,0.1616938203192424,3.645875331461407,1.646124212468603,2.5120486620685584,-3.6715469596009235,-1.4433938994920022,0.7854568402589122,-1.671089562293753,-2.9756971886616805,-3.0056639889936704,-2.180316300549932,-0.14894724642453473,-2.482784010967201,0.016264556259978137,3.576200653733437,-1.1996045794390098,-1.9227168332228955,3.371194318546457,0.3285824087201821,1.7453432206959905,0.16933963548285914,0.2542441218570257,-3.4383228511344665,-0.34987873978621467,-2.498070214811306,3.978198471896823,-1.5127232584429278,-0.2284405141238839,-0.86498404225439,2.2504158087190815,0.3887339203655591,3.632283108699977,-2.827358806897026,1.9203346595061346,-3.4571980603869667,-2.7056985916750699,2.611525487380548,-2.903386523069268,2.1069337872230466,-2.258178032298595,-0.6675890921175276,-3.9105368439493715,1.2837684347600123,1.5840746364362098,2.7587936267434127,3.210227237713304,3.789558295694243,0.6904146256025676,2.1455466010340045,1.4546262393952958,1.5472063772663694,-3.600775356290309,0.2530680895091697,-0.10367160819776955,-1.5876139034393496,-3.7496187950278374,1.1704708924924905,1.933154637774389,0.4692154033225622,-3.726613192460225,-3.071167200647241,-0.27714022089270787,2.0925885419959275,-1.0647677642497476,-3.876701222191409,-3.793961802388967,-1.9656037942888683,-0.46248972168339366,2.083657053916064,-0.23904561942316938,-3.269180194728925,1.890055275046766,1.2044113088337519,-0.21469886849025955,-2.070179674421377,-0.5078196885032702,0.5517419952488609,3.4536391469246539,-3.1552251086501865,3.1890243543100587,1.9702020593893526,3.0679619877188024,0.9804739934079585,1.7909097700043005,3.9407646262547875,-1.8191637466196733,0.8214499483592093,3.658522430326043,0.5304124402624266,-1.1821413685926459,-3.8546194127312676,-3.661106356067143,0.714276920596018,-1.6594646935174547,-1.3329038406961796,2.2798577205391465,2.0178908070913819,-3.076617953400846,2.4419247235892778,1.1604800349665255,2.998767505092145,-0.8848302891974955,2.1808650864715899,3.9210953559945915,0.24377857393612957,-0.17544319023437739,0.7976765102376371,0.4783966706692251,-0.5637678817150764,1.9450248258756889,0.18489359573773,-2.1312262634736598,-3.3781030206064308,3.0556118728147068,-2.5729343712696197,3.1755248705696648,3.450801926609503,3.551328120473051,-2.7287792249043338,-1.698195793315053,-2.450830155115897,-0.16744818775829074,-3.0023363831054485,2.501543819443997,-0.349352261216036,-2.337460298756535,1.022819408183726,-0.7744197852176364,-2.7538637377832257,0.4053203134259391,-0.09911919057661067,-3.205016663869669,2.441573140731105,0.6324909013524289,-0.8326999742525436,2.354714785663811,-2.472239350610522,-0.4746593664523251,-0.5543578756756615,-3.070018928196532,-0.307168011090889,0.04347270913793366,2.172962818112028,2.6830845563716094,-2.7581850146203736,3.828663932352077,-2.165312142517097,0.31980201246958819,-3.650568842152863,2.4472042796825468,-0.586305687185745,1.7058189377736746,-3.8118455987053165,-3.358169529795611,-3.042882849064153,-3.962519451876825,-0.38986202528779026,-0.609750194347793,1.4081491599652836,-1.4987584032059758,-1.179270873788508,0.5964986284989688,-2.7241333624047314,2.4297008781853526,1.744603811498485,-1.821007035172842,0.9255171616862929,3.7514897686158079,2.323767198303729,-2.535217456659172,-1.142654705160492,-3.447698032342564,-0.8633485186024243,-0.01572233273260637,-1.5124822807125574,2.401111844644614,3.4268340952118274,0.8756255528665822,1.7816116439311394,1.5675081450371434,0.008818328407311782,-1.522394044654944,-1.4852606340312713,-1.4506010075982437,-3.7245399413956887,1.9878687934891853,-1.521135500453613,0.1327430091394186,1.6198441602259469,-2.2414100263755989,0.46198882501041629,-0.6867335697345087,-1.1819791548372452,2.5048906528494356,-2.8352700188210768,-1.9776996739017907,-3.4611144906607009,-1.119606342241731,-3.256840177977817,-2.1356181023594189,0.8538995057825316,0.028149564166614739,-3.5141898733300946,-0.9082958570423809,-1.1078356019800389,1.3826420145030057,-3.6984314319665936,-3.244810675176076,-3.1911013869933759,1.368671105995313,-1.2442586507523129,1.954036748852909,3.426515067819662,-3.918899564504221,0.6354010032277024,2.990131585030748,1.037347617752113,2.808089852274959,1.8797626196532802,0.12765665901131574,0.500823047227617,-3.320598021517598,-2.435401337162922,-0.07680597236720721,-0.5986816927877499,0.9268796089954945,-1.0432390762833519,-0.9622204173533187,-2.101349161783342,-2.3760007880073426,2.388257978496026,-3.533986689582499,2.6884458509855158,1.7927400133023604,3.631221838685602,-0.47871184906958677,3.247121367938858,3.792280212242704,3.0487598564980189,-2.6479459059129866,2.098635610913881,-0.2745709470193036,1.430013816477846,-1.9412324491819444,-0.6261076770606318,2.0540193191570079,0.5051995432794776,-3.847315727722468,3.249808999085422,3.170756341753312,1.5690417482177868,3.9065348896094624,2.3429061484685738,-3.564331435705949,1.1139695082997765,1.6423147313346043,-0.15865984356771535,2.5292902106917536,2.762823814310436,-1.4104133395402328,-1.84908377548669,2.7029367806017525,-2.791176304438615,3.302224540353177,-2.800315247650472,2.2217881534721508,3.24077440583942,1.8992148386833164,-3.352429152633115,2.2312231124833135,1.2268744606614278,-2.376654549517111,2.5818972769469417,-0.4185574656296396,2.436927775693561,3.320943142003359,1.3235498071004673,-1.396045215966712,1.2630283044525746,3.703839606775352,-2.1056957357323364,-0.4276913848767716,1.8363371725129865,-0.336157628743855,0.926845004055119,-0.13792528268618499,2.3601272567673146,-0.2467455669591787,2.1333670392984267,3.547716406027811,-0.017373452404407354,3.927240178499839,1.1609896147515278,-3.4285508878331347,-2.5863326827015529,-3.7836743492593944,0.5114849060632309,-2.18641864618294,-0.019327795082421996,3.535448257714889,1.7435967148353485,1.6750111613293025,2.6965388436903314,-1.039565015017345,-1.0243441669013418,-2.264623046549633,2.9264078414117655,1.8273294683337112,-1.1373161051510037,-1.3808318404597347,3.5115689162665779,0.5036010641792386,2.7826308855180894,-2.9183665292449119,1.0096631029236756,0.055328058789865689,2.1592284326638104,1.8465812015998165,3.982167792611188,0.7861161680474487,-0.15393185069754113,2.0230254669512437,1.7051690828160187,1.762269696807805,3.7149148722249949,0.07829127894628663,2.0787535595742749,-0.7325122579596159,0.3774762275578958,-1.5112324321034568,-1.2012342935419123,-1.8719419129702162,-3.957871747657345,-3.7670591706355829,-0.3813002503679561,-0.14723111784327948,-2.1107077955880166,-3.055351416990681,2.2209813573890617,-2.009782842490372,-3.410786135031369,-0.6778735625666998,-1.8293940824019138,1.065748974488347,3.7509397245241686,-3.3327604920891584,-2.284920829230085,-0.8638817334836046,1.1908726467191207,-3.6040805584212469,1.2091089289224355,0.18669396714029408,1.9392817414236144,-1.4474606308640506,-0.6257528026272814,3.867140001171542,0.08797720590660774,-3.785033195903093,2.2247830579513749,0.7198417990978978,1.9153479443879916,2.8240387040303327,3.8409707060439777,1.0902267590788189,1.9149999456762724,1.095300959926444,2.214332535337326,-1.9971523556464348,2.0186839215797987,-0.43789776003079608,1.8139535761562798,-0.656981640569434,2.467368850465295,1.584963679634817,2.176050805842129,3.454369323984473,-0.887132151970615,-0.1675120397318801,-1.7704465723656533,3.9526883213228256,3.4709343641544354,-1.419209790350086,-2.255379407926644,1.2801722908567293,-2.7979885790850069,0.5541207326311177,3.2882449827185997,-3.9167365827272588,0.32950094962335277,3.7935052266123439,-0.17941589929183533,-0.4603599915356895,-3.136091166644869,-0.5741291501856891,-2.4359372251516877,2.799159551457561,1.176513831151194,1.2196205367055458,-1.4249860193849687,-0.006995654923297456,2.3547641380801478,-3.2617708691230185,-0.8646901942541552,-2.009726633854804,-3.595666541461833,0.5103879083956162,0.16972783099400957,-3.6281843243133897,-2.0277919243547206,2.561912986995303,2.0137816521241005,-1.8923024076636866,3.3867085500110436,-3.1637807757383928,-1.9638899371311729,-0.005173678039862573,-1.9958129829887457,-1.7661713634363475,0.21254546712645795,-1.3044024931552008,-2.886046407347317,-2.24822318993777,-2.4047375822637599,-2.1656792593687896,-2.1402331753905239,-2.425157017367825,-2.8284610223160504,-1.3839418677114617,1.4145665439201559,2.8171731394910557,-3.3208705797025139,0.38986384279626398,-0.3154690979285535,3.3051954250600019,2.598026265797193,3.1456913510569839,-2.7633387814403518,3.0317465042517668,-2.3603690510769459,2.5274763789269585,-2.875345904821063,2.8760569862510669,-1.4131973647287773,-2.89015496197995,2.3928507654929538,-2.765073574895177,-3.6176629735574545,2.882757914169919,-0.7775575727799728,0.8253606583565265,-1.1694342152465962,0.5639999968418508,-1.556725785751607,2.6310005520174615,-3.2407899092103706,-2.6746959878543308,1.0431942173337224,3.540831180977145,0.6461875844547764,-3.948598544564258,2.871550444981273,1.0755422625956506,2.5907439322982208,0.8272640990049895,-3.9326544308501658,-1.7912837422546507,-2.6478014839084667,-0.3612797062087969,3.6794963822111255,0.7575839535745459,-1.2339021745192034,-2.3320313572468676,-3.744648351382401,-2.345065074706217,-1.3543406035490513,0.659858526465495,-2.5996134608193799,-1.4870327850131189,1.3912213985545945,-1.2787152478695719,1.9967625834310026,-2.707574775877129,-2.294340746112085,-2.732444785439778,2.644695178640294,0.45922162437901639,0.10942500387182452,3.3647806475660344,-1.5157583799182553,-3.270986000273788,1.6763288261335419,-3.3895490463536186,2.9768024664680095,1.4513889434568706,-2.6851338593028837,2.304685888648838,3.224872280872531,-0.7299962176714543,-3.0250829793666789,-2.1312569660477527,-2.721040429084849,-1.1363523889675274,1.5007434461814278,-0.2731561674287646,-2.0038865727342349,0.5013427542923443,-0.34991507852565198,1.0340428326795826,-3.1922706746474436,2.6687659451754675,-2.100157241431387,-2.7369656893009557,2.7054113757696438,0.20668041550153228,1.9827433318732979,-0.21651324085672386,3.992711188688019,0.6502583709081256,-2.80457397499495,-1.1854174042228625,-0.48845114737450348,3.06201324362923,-3.5499757823345918,3.8130700681133158,0.34337633256488955,3.4730548029358498,1.4454006134035025,-1.16948586289843,3.295248009253344,1.5754115651993459,2.6764683359017598,-1.9358912384004848,-1.3105267429464505,-3.3806807462196515,-1.391839460447221,-0.7499067822064995,-2.787148455386415,-1.3541529073433195,2.349300764198551,3.643676657416843,3.0358925173136885,-3.5730531039601676,-0.03063017379293065,1.6245016653624119,-1.7464871773046407,-2.868970205381528,0.5913717835425487,-3.8228371757774024,2.1154264177287445,-3.073208033464214,3.3592524954801439,-2.9612064398822826,-3.1956002962689675,-0.23618650937767783,-2.8214233550733978,-0.9150619170049266,-0.46855370817979416,1.9372763826219366,-2.463144623389238,-3.5069535629380779,-3.680003276188529,3.0074545501809659,-2.7846653054088739,-1.510844532195713,-1.9653204513482586,-1.5422976462133278,-0.9506869126326085,1.550563479105925,2.3103066371801095,-2.72266857077987,-1.7251755289606015,3.6049445532338879,0.10375268166091267,1.5880134891411207,-3.1092653427018499,-2.422309817402512,-0.3430821889714384,-2.7870845726598079,2.9547115029875989,2.1974320489656335,3.667603264319383,3.586755890084026,-1.7024626407200146,-2.609108019814551,-0.750927217231341,0.6685592631738935,-1.5285226300053685,-1.7106034506129826,-1.0911331654763872,0.7341243918124736,0.5014450296457493,-2.2825583580283919,3.3387168958228568,3.556552835644668,0.26722052721179159,-2.0901880169266597,-1.9900240837381036,3.8333393806419009,-2.370705606840624,2.248577460103582,2.9995105441859399,-3.7467778631531027,0.6902009476156676,1.3162127798009298,-3.7633967576431477,2.028999222116912,-2.892350396473275,-2.967419865728961,2.548699693512363,1.4408476069642236,3.7207937548638227,1.1600685875518897,-0.8158763796981532,-0.7568967537439386,1.1818790567447098,3.557514705094029,-2.5660117431348796,-3.472433021954261,-3.34392550399265,-1.5646767895012597,-3.457890135572274,-2.868514565706274,1.163197633154505,-0.8704497044639175,3.8277350569436905,1.4247242357326009,0.7458039515299175,2.2384559767118636,2.749636490288342,-0.7034418231415349,-1.2724968150400089,1.0110668998388644,1.50270541138375,0.7548658458799693,-0.660708359272201,0.3775885228697389,-2.774136810156108,2.19313267207502,-3.1447314391993794,3.3505815906753497,-1.3409355268456338,-1.206737395367254,-0.003528788943944372,-1.6997027744369342,-1.978067799927459,-0.4358239381245659,1.4789164129847433,3.015214136452239,-2.932933917836076,-1.6779469028192802,-2.0720370438436719,-2.620469789736818,-3.216060891176876,0.8234611842183757,-2.1222241015158005,-0.4414897196704983,3.515458378756427,-1.8681464207758012,-2.8222891547029507,-0.7018245101899476,2.126855591633409,3.7006901719413936,3.3736027743391698,0.3837537428808169,-3.2506260437172527,1.9255355977106499,0.9027148670670346,-1.6788491934590378,-3.094334760521839,-2.1616641260019149,0.9812270697009353,-1.6232789527536509,-2.2806298980403865,-0.10488542632841913,-3.819194513263457,2.2376180988965679,3.2750997019972365,-3.660139262448604,3.647426698445214,2.170615319314935,3.5026096946790936,-1.9896477544386438,-3.1934686308603279,0.5660744890441505,-1.680250966480626,3.3651431314056978,-0.6555955360017516,-1.0497329758136418,3.788885091870956,-3.5239507915770948,-3.4790333245761335,0.12978926780311007,2.751339062635344,1.8916540663787123,0.0644183469216193,-0.2798303594219522,0.5416951688738729,0.45093214772012138,-2.969945989369272,-1.6397387233607715,2.260166626543482,-1.2238232650178936,3.65300918321281,-3.985718745115207,3.822621463613048,3.7969991912860197,3.046406929352261,-3.714984943427618,3.8902637639476049,-2.112308816641246,2.2291236661457765,0.061149472430559018,-3.2003022703604415,-1.909160967255245,0.28997678522160799,2.046974769105935,0.2018550375610495,-2.8261824146838547,-3.7517313801434568,-3.4060874630138304,2.050720913699082,0.9462597042358265,2.3825306327389139,2.6108868193823717,3.3419827150883369,2.697479973906103,-3.252283922930273,1.6714442760968922,3.1009156197387996,0.06595621441884081,-0.5436265111040575,2.7152251885791616,0.5494181089551296,-0.46758210489030818,-0.5305852939089737,-0.7911843700970751,-3.016753845614602,2.7505026977643967,2.823250664796208,-2.840228815984231,3.838267960026619,0.9961533680887662,-2.957576455447386,-2.400109287142806,-1.7023090981011917,-0.8477333246577512,-3.6258351265437467,-2.6118485221037996,3.9680545423201947,1.1051448196561183,-2.8808056775734425,-0.4687698392643733,-0.5806015547960686,-3.258691601508314,2.2811497418124206,-2.5527485334208759,1.2603709887635218,-3.2732381856695067,-1.3651158905851462,-1.464644044649357,1.7586801404360149,-2.2583455510059835,2.8568337736736577,1.8783947954817802,0.48001562243066955,-0.5320739027272017,1.5133974155837278,2.159049109915996,-2.9658577610559275,2.1592696228211194,-3.1997387329413868,0.6641628446166958,-3.6882736943432565,2.8896719413766505,1.221009957145606,0.9437199207595475,-2.182203000549398,-2.3190010232099089,-3.399952138280728,0.40348850605277156,3.5714245878779868,3.823817628442125,3.4062191732004747,-2.4988499589156918,-0.4589627359734436,1.6400607627172317,-2.171721583239213,0.05614679307146009,-3.4928250693277826,-3.81809560487694,-1.9108452898680906,-2.476992005362508,3.262211139411926,-0.6615221925699009,-2.060589965780328,0.8986384731269386,-0.7677634715987656,-1.7485262756538625,-3.437641476638867,-2.7225483924893174,-1.4965619226555954,1.9194105127617514,-1.2949961746725214,-0.4988850419302653,-0.9558210931675975,-1.504082654936198,3.162510637085558,-1.4105623388959628,-2.000149343182054,2.4752833346992029,-3.362579973802238,-2.805585244206262,0.27850129900865019,-1.1404524257162192,0.912030625390396,3.094071957044685,1.0489223356130922,3.9082383206006785,-2.4654193947722486,-3.6135298150784695,-0.3674946843164406,-2.269933507753379,0.8599261529886517,-1.365192823015484,-3.85594946081953,3.502185497069778,3.2265300430254797,1.6268205843556807,2.572826817126148,-0.4103614551262835,-3.946148185896976,0.33502123259920327,-1.7050105024781262,-1.129736174188416,-3.614665989456662,1.5466579946708575,1.6633357489280379,3.2553032047531245,3.313611041775747,-2.593700946944816,2.391765636515024,1.46914993512745,3.397374436224549,1.9085987088423018,-1.3228289338525732,-3.6175567712491798,-3.320799510008423,-2.72028508989135,0.1486715313292235,1.9936384479090946,0.7875535285170514,-3.2119712836057614,-0.745461690901327,-2.0355519288420824,-2.8405208691735659,2.8978867789818727,-0.40504080383005106,-3.694459347065224,-3.265447878929982,-1.7732806277314877,-3.1658516852422515,0.0270110734035498,-3.2050000632651889,-0.2078108025631611,3.9649408057302244,3.944170126833426,3.674808950329961,1.5340934825509996,-2.1057451978049528,2.2373435044220466,0.828492556804652,0.9496218973141151,-0.1693084703154044,1.182143528106816,-2.9168833657305646,-0.42124357617106158,3.8945036516090507,3.7602394362709568,-1.7932120908494527,0.1505417991502016,-2.997191225159174,-3.5494588613024957,-0.7157457180503792,-2.7447077611185017,-2.9741173379525884,-1.069614949934918,-1.7155055703926546,-2.5243516355910886,0.9075348731986503,3.976883467134547,-0.15844344355316743,-3.725106407455443,2.2124719557784129,3.7392697419860996,3.0380920244031994,3.356109622474235,3.111819779283814,1.2894789062014916,-2.646113673157,-3.4508596841108138,-1.9173754221911106,-0.4786629478497686,-1.7668691998955924,-2.0711186114245976,-2.36217140940803,0.3595541231126713,-3.6192003306271047,-3.0249483574215745,3.6841459233020599,-2.1555630290446494,3.950887612700959,3.9943547173734146,-1.7313440594091292,0.8935857011001858,-0.5505618750733223,-2.3442332916384389,2.122831375638275,-2.522430253200758,-1.98251986424089,-3.4997746693013136,-3.3141612666593609,2.8762940188620425,-3.2696957346705854,2.8727885832145567,-0.14072086245361449,3.4499361070367637,-3.8323199164755179,0.3997707133438224,1.614161809244477,-3.709653976643148,-2.8960329985878516,2.607817932679919,0.7235431560427363,1.1278358351695728,-3.033691425717917,2.925430335094835,0.22223287163623785,2.9901414893511717,0.3070134657271488,-0.6903234379238936,1.1781027479063458,3.387128951133522,0.7788945221814725,0.06387220491747137,2.5351983194277887,-0.7554604237590556,0.050577424475620528,-2.055039677469681,2.874314890824709,-3.6379258336248965,2.269851628868807,-1.9820979936008388,1.9951658151573418,-1.1509771875161513,-0.053965901296864297,-3.4587546602980909,3.6050235381222954,2.8106236978728189,0.4898730827349791,-1.7189286035569503,3.261020644609503,1.4745936567388452,3.703556916189747,0.4509798748630711,-1.513548315917648,-1.0229032648321859,-0.6407617742787499,2.9362755270905058,1.027678001803645,3.0433232966514209,1.8949772196414925,-2.29370862769939,2.629271902874131,0.6207817403135136,-0.45012564447250349,-2.916964157350886,2.1292210272682148,3.9375344135776499,0.46047115154379539,-1.4982887731046653,-3.4418213568066848,-1.792429521001834,-2.6683702634806174,2.681432343555782,-1.432804488821388,-0.5187278490347778,1.5825546494742496,-2.9383440976098127,-3.092139573082096,-1.0596576271598207,-1.3422145619753095,-3.3537131758679816,-0.5777416807317886,2.3662589301711787,1.9988912273320683,-1.0029135755821237,-2.6681867399166085,-1.0040229563440919,-2.889578697370956,1.8612307360466467,-3.6652755370359335,1.8254868197024604,-2.033829261782306,1.3851798165403216,-3.2576687497537399,-2.0371207941876987,-3.297174236021542,-1.63914004904861,-3.0203810941684114,0.4042044220644847,-2.1093145487203639,2.4827979957767276,3.8471838517643874,2.577581019827325,3.2783338244831006,2.7614887746590988,-1.2885473940309032,-1.624613917055127,2.6391558410846285,0.2859719068327502,-3.4137999906823408,-1.4582632508861798,-0.415461814772323,2.1949920103208138,3.8315931499130055,-1.2806170709839773,2.58246300104501,1.69843804672138,0.6014434921367302,1.5271939538404374,-0.5505135192234683,-1.1798890811793646,2.675281074927785,0.06338925881154545,-1.5698624950449807,-0.4370748311650452,1.148875419682195,-0.7225869215465073,0.8251823378928895,-1.7991776352390519,-0.8709306923019609,1.5487557362504659,3.0141311616112906,-0.5019643052676805,0.9254988539461362,-3.7407985551118099,-1.898515656388161,3.957074072248772,-3.569233580645032,0.06673644998759176,3.275482383185108,-1.9174201495380883,1.239046079654437,-1.4581071609433983,-0.30843012992826837,-2.37171827150614,1.0587182763880386,1.437176965805766,-3.827514255574002,1.511259707570317,3.467575057280129,-0.9687523132048392,1.6516020453994234,0.5502421852930723,1.3274251097828618,3.1359529995184447,-3.339986055061999,-3.690657940742369,-3.235197276300161,-2.055657521226471,3.158331191331195,3.2287527909292397,1.6894449051581218,-0.19252082519066628,0.7374672944969669,1.3994211824787142,0.19769676450307917,2.2734522405634465,-3.3209518881622115,-2.6600665267636929,-1.6942455255633249,-2.4651963270655807,-0.8573893158244008,-2.7829588828841915,-1.195270731690755,1.9567800601490078,-0.8137892816710242,3.786983605206057,-0.2330788918997646,0.5619504775883231,-2.805615242409475,2.0427209121179299,-3.6206976438620259,3.7537873032957185,-3.201455854124334,-1.120058400374868,-3.693556296878282,-1.4187171304569029,-0.19832234136947325,-3.7731562647557146,-3.9116820277420478,3.582610260648255,-3.899157726347614,1.6984882365373153,-2.012273097148805,-1.4033087619803129,2.8085952328858188,-1.7358797829516102,-3.1865753070589237,2.918507562057596,3.498410161966051,-1.5856467486692819,-3.279999412851577,-3.299036074828172,3.4782272003478029,-0.919016394799911,3.0887069332254128,0.8420513008272001,-0.656611238867864,3.3507492301959544,-2.0649253479537075,-1.6029502925132795,-1.8971929274160767,-3.483025933461854,1.568747922210659,-1.8666954648988368,-2.965112349377902,2.5636131649649949,-1.615848090511683,1.6778667354592436,-2.5478494891466285,3.5338122692619455,3.4829390659245735,1.2170759528905287,0.6373978576219583,-2.9249957072680026,-3.5780764708602756,-2.567416874550582,-3.681212227832664,2.242597831842656,1.6035858642427288,1.0769562073665134,1.40367673218858,2.058284662604164,2.1234289235195558,1.6397541577307085,0.300113431177782,-0.265450401991256,3.4032986628912047,2.7488041087256018,3.7578094612233494,0.46083503310277509,-1.2055113292033413,1.5871420518685309,3.037884807302869,2.882678749397651,2.028269926998788,-0.4811043981702623,0.282362788215913,3.288824982178398,0.26975138144218838,-1.4100184265671372,0.7636227416346673,-1.5672180618904444,-3.264126815142655,-3.854629112985701,2.190759952071848,-0.40694249229367487,0.19559533792025353,3.9127008438355395,2.7451647915236689,1.5141191045804928,0.17171539414748783,1.4821089645928237,-2.10087776547657,0.0789961304426594,2.630422224151257,-3.0574881332540686,-2.580691235064551,-0.298171848055764,-2.8350192011881427,3.3100305766911317,0.7361598647244865,-2.701780009589222,3.517971030764551,-3.127053835781064,-3.981963087360441,-3.739997397700126,1.612852841508734,-1.7095838728120703,-3.074918710873108,2.009954114408802,-1.3252030111852982,3.674609090149037,2.7090668521260996,0.6623316371991272,2.482573390482959,1.4196702211238055,0.1358062565917093,3.59020122989196,-1.0376916257690637,-3.173580792314281,-2.7376256943160897,2.4375655221326717,-0.15156434281078025,0.9152319398403437,2.718302183104983,2.2682433691488086,1.9341847602970246,-3.3563505085092295,-3.233837269392785,-1.6187976107675384,-1.0785297209710914,-0.18621680242184714,-1.709857691569846,0.5273152327595954,0.2503783303073046,2.5816153920150004,1.6102993030823072,-1.1900957413892668,-0.1736323384500249,2.3988186028212619,0.7619208284209416,1.9380254363867505,0.7252606481973976,1.956246236834799,-3.81617291653796,-2.346547168383715,-1.0648355439787117,-2.723084537365402,2.455094743838326,-3.2903895671166216,0.23619191328748102,2.1743986181193488,-1.9020272393216385,-0.8960866669620893,3.998449114611935,3.360156878048482,0.696821238281637,-0.38049075876088325,-3.4001006467111116,-2.573350514434985,-2.0908939721712924,-0.289637837969841,-2.9598301524251324,-2.982441185314716,0.6717144683597205,0.18000702368707434,0.009629486207960447,3.6659601012683868,-1.5077238649772762,-3.484974747937172,3.6425704825364209,-3.5924290619705667,3.0202293698374547,-1.1413135441930154,3.2361792429601117,0.5719143457375884,-3.522794267806601,-3.0546362701630977,-0.7921794871756107,-0.7833168594336899,0.3834103778204243,0.7528995830041367,-1.3102559260227987,3.14078963395304,0.9042434276632401,-1.232748653093708,1.548017508395441,3.224117851077258,-1.4046767766077509,2.7832958834527705,2.3897871807551276,-2.2838151730332667,3.8977474968811078,-0.5678586683583005,0.7128580511488423,-3.6890614663671394,-3.519031335524968,0.019842236305778195,-1.5988329884622757,-0.9541701438819681,0.5280206753776273,-1.6228018295424567,-1.4420560086367578,-0.2777506426462999,2.370660407657482,-1.6821713457019317,-1.4784354953439305,-3.0453030321765288,1.589898512786271,-2.2988143009395145,-0.5990840796681685,-1.8247324511212063,3.137908717346888,-3.0254485576582796,-1.3362146975826175,-1.8974864545279469,1.3852302803797497,-1.6714537100681695,0.8212234040101238,1.64968900466173,0.45038712389410576,0.8308859999587632,2.5299474576903098,-3.0112780036701016,2.6323543451793487,-0.07839546707953638,-0.6167194438750057,0.765602071543185,3.411072510984952,-0.46371508824091,-2.194814360264978,-0.9753279618456909,1.2044872176563884,-0.8778380407224162,-3.7065300702029555,-1.3125154840793803,2.3718272710317969,2.6577263403632669,-1.7348651421261528,2.4656569191139896,-2.388247926429975,-1.6844050763935064,-0.06425412319079649,1.0108753757612928,2.8384179686501165,-3.6586448630444279,-3.458101925153981,3.1932431239726908,0.30575224786173207,2.6560614985868149,-3.8884918819428835,-2.907960302089176,3.175184192861064,0.5219801839457574,-2.918772699636163,0.8673848205781267,2.9397830148895878,3.4260503799890715,3.52753762471683,-1.3312194729821033,0.09439216131759309,-1.5081366190011263,0.7083707912624613,2.4351352581649756,0.47838651574486326,-0.5644677717437068,3.3151015050942638,-3.157710027714944,3.214779300875005,1.4043672996742994,1.2946581918168568,-0.8678752943260568,-3.5267055860296354,2.100555869870292,0.017025012336794988,-2.534508759294841,2.789385598217735,-1.4934843348744365,2.4807098255220199,-1.9184676166899184,2.5437780619036527,-2.2799788613971216,0.4059741419660279,1.2824821509517968,-3.2685860753893154,2.2622253114796768,-3.2920803974317929,-2.354490230368908,-0.6930734446403155,-3.1293666888104276,1.956659533995043,-0.7763000743714554,-0.9088275484595902,1.3773016670074113,2.759623064982814,2.5453412610131087,-2.860313188399971,3.0034629733228757,-2.262774125639428,2.808676607502467,-0.9879106438411878,-3.331826287530066,-3.3760677613651337,1.7130240545875478,-1.5657183339371559,2.1078870491383459,-2.948486443212796,1.2056779445514812,3.8961920975778598,2.4103122168123525,-2.737986377670823,3.8898099176105189,2.0981806676942984,3.784187072168975,3.7538473609560327,-3.3926527076405836,-3.4496451630450615,-0.9888530533837565,-2.6637625827867597,1.1632867459452987,1.845802265228425,3.766466617665068,-1.070971622392337,-3.222338877587542,-0.38089769032761269,-2.4666468176745894,-1.5749701933713745,2.5682847254123057,2.555258526546125,-2.7018437813991449,3.2743130906262865,-1.6821850144461746,0.6735013874121227,1.4444619189964643,-0.3154782912041041,-1.5486828797660535,-3.608102991750629,-1.5974318786826663,0.1312917413751835,2.7649046491115429,3.535906109284708,-3.1262572120154425,3.1693413017607607,-3.126684673748473,-0.2679289176778108,-3.3689300243898385,-3.3051779700068284,-3.4742880057062219,-0.3853797466792874,-1.7821204832107294,-2.184458286772479,-0.9667892520813295,-0.42602430662623927,2.08922174044082,0.876833462495763,-1.2533719579562759,-0.883023082103952,0.9845744946356048,0.476448318358381,1.318736192152449,-1.0486865241244444,3.3427763512803665,2.5533023564730739,-3.652848020789496,-2.2834685040374689,0.01525830721331456,1.9399639638989009,0.8417187349246804,3.1580400998684965,-3.311507919514259,-1.6538133676568217,-1.9271870303567385,1.8410548780919598,2.153547741848132,-3.5073610458253405,-3.9239589177654645,1.1034952420588092,0.5549678057861636,-2.045194387214737,-3.2318322568252535,1.2767135338911562,-0.06624406726359644,2.1408379821855965,-3.680818085253814,-0.7047110110420656,-3.3633112875625459,-1.0322834226390894,-0.7633648493679013,3.5176702515227529,-1.3528820296526485,-2.6501065876638139,-3.4071316970023419,-1.7053979812048235,-1.2121629194787929,-2.9698964807182426,1.2137989030768824,-3.0012465364325004,-2.9741629564535048,1.74465451917726,-0.39521249252402237,-0.8164949933304211,2.1226821358776055,-0.36663395749060637,-2.871338664540618,-2.524730788001845,-3.2280144634567335,-1.9439685375379883,1.9136644990462495,-2.693082897458204,1.904734796682094,3.5091108177290009,-0.5451389310340067,-1.122799684393968,-0.028762226063504316,-3.3087370621662348,-3.4874823982789584,-3.610792659880534,1.395666697573203,-0.5267714349965429,0.3345716775234182,-0.8852682960988156,-0.36435585187074639,3.6553085801748477,-0.5027344535104374,-1.0843076389415745,-1.9008852839079447,-2.3196518513272625,-3.3430504907126519,-2.4797977445250956,0.6419093060362675,0.21466499770452786,3.8542089034524276,-0.44621465873865398,2.964491793075851,2.9196461557591819,1.0752113759714464,-0.4291896831526163,-2.088849692447466,0.07749272312422484,3.2406862682952717,2.7806326975360875,2.3863055464594664,-1.1650090294366929,2.821747937413896,0.444431326535196,0.5735618116335086,2.790221402840692,2.982948062436969,0.6483554565217444,2.306857137991127,-0.21100928022068644,2.7494095235853539,-1.811831244573697,1.4837650356224375,-2.2454135830919075,1.8182343440010743,1.2491537824314998,0.05382876512549384,0.3066108023143901,-3.142527899959858,1.2751318705015349,-0.5846520061986835,-1.1835197415467,0.7347955076538915,-0.8372578838814737,-1.4309916218852584,1.744059542336423,-3.817622187748378,-1.08495829925236,1.807578705825251,2.6364588459446809,-3.0223323738955107,-2.321665299917427,-1.7056006264397477,-1.1320620753753284,3.464464010922377,-1.4394991600356822,0.8441523297448343,2.6911694722107617,-2.263312575956169,3.5289380070607105,0.5682353048971933,0.6318806047407302,-0.023791523901272039,-0.5245603702125055,-3.2101776748804706,1.40686110236883,-2.468251856869987,-2.628430886319701,0.8264600834346538,-3.1362758135032839,-1.1173558147357754,-2.13458354493381,-0.6812193643172029,0.12128670287477395,-3.458171088703982,-0.03453721619930761,-0.7571532850187721,0.22822194390298823,-0.6327803795472731,1.3685696453677494,3.8803893745967636,-0.3167852315444133,2.4663061062618176,1.5651709075566097,1.799647764948423,-1.4669461690337933,-1.554759190570074,-3.1482481495824077,-1.6079454621757643,2.7484375941226659,-3.0216946350781788,3.755399573576476,2.6555750400128597,-2.3208923523082438,2.389165227743695,0.46304275813715459,3.2480545404694309,2.8648460587305166,-1.0337730356018094,-0.6578001630447163,1.5850142364588483,-2.7483010847561486,-0.12718352914884457,-2.862231586181027,-2.632892938247794,0.05530205752544415,2.6211827326753669,-3.5638429228545744,1.698510439821777,-0.670952016866118,-2.94989829601038,1.1150099313277667,-2.750550794514063,-1.708277934007919,-3.709871287015421,1.7270665575912885,2.5119164773462767,-1.2801134295149917,0.49205367885884057,-2.008158538126973,2.549947858262427,-0.45472508488137999,-1.0734309169923462,-3.360448218210262,-3.4836629278286868,1.4820223735280607,-0.8848422878674762,0.41119726915162327,2.7372154135205024,-3.061603757637438,0.49931060147096498,-0.7497688779643612,1.1290483969847598,1.3168096350565986,0.3043553441050557,-1.787006101931265,2.3223270259921717,-2.074076623823265,-3.3866477395600116,-0.4019498539566355,2.3239884960696299,-3.2040503275811345,-3.0237018192801905,3.1276050763569849,0.5187070691806532,-1.7471860109817304,2.588046766980172,3.259751818759521,-0.5611624047166706,-3.6659330001510987,-1.346439747613016,1.0841423565995179,1.0343047222039444,2.742842540268282,-1.0036325988045505,-0.2181581257764682,-3.228820761459879,0.9813523761250611,1.4687569774992842,-3.938739716902421,3.9444813098783024,1.2169428407319459,-1.800773604446199,-1.6304949183486457,-3.1050056273777519,-3.5858153890078539,2.3508241289910618,-2.345757463367745,-1.1469592067569626,0.9903322885737493,-2.8971260125667506,0.3780290475888517,-0.1765137667337946,2.405003301484774,2.6893228198734189,-0.3397527121951285,-0.5252715677967628,1.0350015000539799,-0.7075362323696892,-1.4375393661491778,-3.2930962905576095,0.8275112720569062,2.7639295534785059,-2.0667615956213467,-3.5443364314627097,-0.967332137488655,3.141087796942812,2.381360076634227,0.2496538215546762,0.6916422851378519,-1.8870924959100286,-3.8460604072754727,1.10781999669946,-1.4486342890331126,0.565465670419365,-0.8101436909851305,2.5084506635798196,-1.1358342802196123,2.681964532784054,-2.4907480306471845,2.557307035635745,2.635466500047338,0.3813088300030749,0.23211572004437198,1.0857007265993915,-2.099407142172261,-1.3797209720378554,0.3509784398723923,1.4155650515318854,-3.5196304456779377,3.074523379898893,-0.5609691673323789,1.2644261566579767,-3.789428491477672,-2.5731804238368154,-3.5858629297960187,-1.1698300255551375,0.15666740904158073,1.8048188998922994,-1.8615746418638067,-2.3046223489243049,3.984394771472923,2.080668584088275,-3.4180000975835078,1.2248369594518254,1.7678612428726198,3.440458649494323,-1.5786317194044062,-3.4316804814209886,-2.0418255341379165,-0.9762964648322923,3.223044003526039,-2.8848122383482517,2.85624396151369,2.465146474268277,-1.6656177707775193,-1.9271642805003247,1.4490154043146762,0.7316514134527168,-2.4767617640991679,1.7580893176099589,-2.0591083235798246,-1.702449609309605,-0.061158090695879078,-1.9252923818338717,0.6571613790825266,-0.34603243118278295,-3.982291748740587,-2.191625259147207,-0.9312789874127871,-0.9800048278242244,3.316249718252293,1.411963512676631,-3.0617234836547375,-0.7537402332709371,-3.980078689297171,-0.23153989024517597]