[-0.00035654694608211,-1.2755455924626534,-3.7843760618830006,-2.841442536555722,-2.4441803770121446,0.7681311400439707,-0.9912498823900173,-0.365114616090332,-1.7676223976250199,-1.0519609252621749,-0.14071618216970672,2.2276544991910476,-0.484019192047032,-3.4403813794702828,1.093915679363394,-1.2716314838697054,-0.3447568678197556,-3.4760272976921184,-4.24283374478991,0.19652657519290943,0.6106387565415324,-0.8959587656098722,-2.7877856760636066,-3.814952790729336,-0.1416645718052482,-3.2193994032143955,-3.851225791605071,0.9137837986284892,-2.169980093156373,-3.2624867759318558,-0.3625483952619182,-0.006419330518382041,-1.262132383473634,-2.6324927542754179,-2.2124051762535839,-0.3152451810067096,0.949250584395395,3.287866599679226,-0.49034611712401,-3.1777199615765494,-0.9132310765411298,-1.6970983422071362,1.059688449197852,0.6335255450020921,-1.9262665631915368,-0.009133320201569866,-0.9241094887040098,-2.054466662206,-0.9436821589761109,-2.4595654497652714,-4.05052492441141,-1.3945004859250945,-0.5351648749694319,-0.4416100051605505,-0.5322394769875065,-0.6902816509332311,-1.6319217552128789,-0.3891736551352122,-4.756157574768585,-0.04982471675063247,0.20889181571275956,-1.7206139771247278,-3.247302368779961,-1.0636498379491187,-1.6603360022396692,1.0759391398241399,1.4161206269497169,-1.738899439473968,-0.6975271418167134,-0.8358174129505035,1.2177916212588232,-3.281940443271392,-1.9618391380035452,0.49548711753089005,-1.0487776930096047,0.041079039166708467,0.062276880984896327,-2.022639770315484,-1.6870810253644549,-1.85987688370864,-0.1812097165055004,-2.918075570637114,-3.409032256208752,1.5990641171614313,-3.068535803248104,1.9678779246564205,3.219403598142369,3.1287708258254889,-2.716179375585749,-0.9096830556139204,-2.6603320299217034,2.3919014505911306,-3.5737631823050357,-1.939494677579257,0.9176990630957989,-2.191122027263539,1.944120660859127,-1.2310023084661115,-1.9880261667945536,-0.5295480912984564,1.0864994548463527,-2.5036364564254329,-1.787134783527891,-2.0481396186724285,-3.6935464209089536,-1.5423399353637884,0.4723561179458826,-3.620940048253688,-1.8052537747410338,-2.255390760581341,-0.41785619732868337,-1.7145156118115155,-1.8139577127522822,-0.6247361221758482,-2.8395208321181446,1.4433039816758722,-3.843563229898339,1.1580597266266133,-2.7040825286178578,-1.6369065278489608,-2.4252679220398987,-1.7171132109701993,-0.686227797010774,0.9680430720900661,-3.7041184623552665,0.7904252433819049,-4.715308284999788,-2.3217711952689568,-2.3193154630283185,1.007790113588837,-1.5748031656224062,0.5130646089908889,-1.735406798742636,0.654795884248465,0.08971047560174166,-0.615848200464099,-0.4331547510822803,-0.7886942759495377,-2.088279079351434,0.39543786223113067,0.9032918376774919,-3.5690406585520786,-0.7894625452670033,-2.2939211964668826,0.8952006800949639,1.439672480289949,-1.044647924240528,0.8689341248451296,-2.666399366857424,-0.9024343875449382,-2.5716035992113186,-0.09011773677215386,1.2397930476427475,-1.817732405452671,-1.4419322112332052,1.412216065596526,-1.2067485648179286,-2.7679317420079219,-2.452563510309023,-1.7971310173548743,-0.1358342959430008,1.3160742299795075,1.049461125273785,-0.5607956081706811,-4.200301610959056,1.1907243086330033,-2.010975917697435,0.36250445375106418,0.4210063258999573,-1.0457124768847519,-3.077622290937272,1.4417048381994516,-0.7805349485703503,-2.760902272962623,-2.1215976931714475,-0.5278358320853996,-0.487945502422999,0.9533734903639071,-1.0928936857087035,-1.270647703680477,-2.3521828409454477,1.2067103655036287,0.5173974520650007,-2.054852373914553,-1.6857435325440189,-2.2110177460495636,-1.697867652890706,-2.227724674500267,-1.9935059605182089,-1.8224384278573112,-0.6671552871522469,3.3185520620270769,0.19932535516271086,-0.6948762633494882,-2.558688568250523,-1.0385454478227439,-0.06430555157086936,-2.3364299385610609,-2.263531416721626,-1.0868334745115132,-1.341107285044452,-1.4686818394175585,-0.024554726107687005,-0.11374813504609663,-2.279772444121663,0.6597607490092138,-0.43869272283418667,0.5137959189097924,-0.3359343129547758,-0.7630009913077691,-0.1382203480017347,-1.5617581946685753,-0.10808790316135728,1.1443949132881329,-0.6190384802747537,0.9192190646454723,1.724325371342091,-0.6956037667920527,-2.7168761933210425,0.5509825938381668,-2.6469821367135264,0.8043980428020481,-1.7228852448357573,0.4638928506359052,-2.2093797149154676,-1.267196358678278,-2.692836203314939,1.8074640425019016,-0.6465355875657622,-0.15209677862851049,-2.1398591339003247,-2.150488895481805,-0.043214793307076167,-0.6956716223972712,-2.518356056124047,2.179567270219761,-3.9491881791081568,0.9143046651215026,-1.358333369889458,-2.5653612850133777,-0.05331952113288901,-3.095805286438567,-0.9831154827741296,-3.5084566491413256,-0.4733333947555348,-1.09096409478068,2.244261658481139,-0.7222013306551652,-1.6071966001008205,-1.6955008713473914,-1.9203177208509533,-1.310401340900369,0.550497083248189,0.19048384124579738,-4.0194643870656618,1.7554395097032379,-1.6386665574780109,-0.26647435929775906,-2.126790561325781,-0.8516775254248168,1.1252751415737168,-0.05189556655882706,-0.6897692365398388,-0.3620806410163816,-3.4981938907906167,0.5861263150675123,-1.3497981447036279,-2.3745720990454699,-0.6506516695505364,-1.2362131326329827,-0.033237178880938699,0.5216706272204612,-1.7823946039188965,0.521257367359581,0.41281426710285498,0.2708163963424338,0.3261160631809588,-1.198341264408567,-2.709686676427748,0.42082373806885878,0.15388667796990447,-2.6219108750908335,-1.2983235642171929,-1.6146151807526413,-1.611047088291494,-0.7317145166978595,-5.1325816193564919,2.587117688677625,-2.8606171100451505,-2.883856210458634,-2.222338366353439,-1.9250383939375438,-0.1970504567253292,-0.2737924438249341,-0.17081514994780626,-0.6527381711417585,0.4605837206896862,2.3849661174776299,-2.037621515236746,-0.7860411147352998,-2.0734311287061688,1.3593780286489539,-1.3239131729262306,-1.189981247461733,-0.4829105399456098,0.7833894168728867,1.1928944513183935,-1.8311640391013522,-1.8083072189985379,-4.062008840533077,-2.2562022631318019,-0.5357425084938531,-2.7341454936280096,-1.4598875891612922,-0.17682765833522957,-3.0731437247777757,2.4960026904081467,-1.1391390877647636,-4.187498066461006,0.8879505309983254,-1.0806213744389175,-0.005032168871279857,0.6224810188632908,-0.5674467004186405,-0.7664160056689706,-0.69167390787274,-1.1881061488884666,-0.5039967155221869,-1.1998664021165562,-2.627980128665489,-1.1573657805790432,-3.271367978633868,-1.720092170640108,0.20246794384700296,-0.7754421431939742,-0.4778557369181234,0.39282162299878478,1.397419825060037,-2.9944563571308566,-0.7877917086822238,-2.8136850524432188,0.9700696638102423,0.43346944032264425,-0.39304234703051307,-0.47883304786974187,0.28166856724982405,-0.7256198776270165,-0.31952573143536686,-0.5875675565389336,-0.3957496442691581,-0.5727700357935792,0.7436500279387499,-2.2576580335360219,-3.4216028403923337,-2.629614306458612,-0.3375562405473541,-2.566946509665251,0.6986529394449847,-1.4707107853608264,-0.5705780261723338,-0.7819496085072824,-0.09511677228663132,-0.290193520686306,1.4398401351449562,-1.00979768418967,-1.0971870441687429,-1.5507407028970267,-0.19889835208431989,-2.1449116793281948,-1.6280004673676037,0.7825214075280895,-4.372957010028054,-0.6296161650384413,-1.27335100675541,-1.0937332520939518,0.2119439545143103,-1.3644482531604754,1.2173821620014487,-1.033524897612787,-0.8549135108203736,-0.6762879165304282,-3.783599500610725,-1.247341925153319,-2.1698509764939835,-1.2408198416938666,-0.8987329931686712,1.1124144004661516,-1.0538256872732433,-3.382705765275423,-0.23064117746877889,-1.9121603289977256,-1.7458721797891944,1.4081999778363066,-1.3109267990260108,-1.8730247025818075,0.06464340193508159,-0.8517003764598033,-0.8506977307230194,-3.229356432576486,0.7193087520521692,-0.008423325062033019,0.8675004904666603,0.6727721364510829,-1.0811144260986537,-2.3254868721560295,1.4186491599517215,2.440945304676084,1.0165908894928176,-3.157150330248499,0.3497282055619621,-0.16849808577389886,-0.6151247358232332,0.6774112446997547,-0.2116003485346722,-1.4611687788427115,-0.10967217873253525,-0.9654491862782034,-0.4215164757453325,-0.38757471827415737,-1.1229094226689754,-0.6936155722744448,0.13985774240718056,-1.0734070964086804,-0.25713084833752788,-1.5445426842585193,1.5902225752443718,-0.9311760312906777,-0.8097468826087312,-0.7567239421747462,1.7775795913956206,-0.1482920215483313,-1.7742052705598906,-2.2665009568507048,-0.8559583998273688,-1.113164096145551,1.2112868110005253,-2.086615447013685,-1.0242692756245749,-1.8379561980665729,-2.846363980213363,-0.6962422934124677,0.050501863592564,0.01880080354879233,0.1503209276156864,-0.3185223857159844,-1.6192346551941138,0.2018941019911888,-0.9208077438826686,-4.234107550588314,-1.7765430355687542,-0.07270660717940765,-1.605455183828922,-1.1147523449190049,-1.060437115228242,-2.376551311568497,0.42662142121850318,-2.042155841996776,-1.768483729449572,-1.8732398128968653,0.7541627273521632,1.3458609553996557,3.0297893123281915,-4.1864328022751799,-2.950346462181644,-2.5335573620351266,-2.7975119893461599,2.453013757173672,1.4108566823685727,-1.671431423161951,-2.012163554683632,0.32707135099049769,-0.5715128901388255,-3.8418875968949437,-1.3825700943801647,-3.043953717861881,1.4327466574247528,-2.487376532057072,-2.358313325377046,-0.9751207288331579,-0.3105144342845873,-4.536314418265958,-2.024920743278073,-2.365420918273188,1.0971388205596496,-1.239513123756398,-1.0105399626457632,-0.4832814102813487,-0.5157179462315097,-2.056323571949257,2.023880857490537,-0.024289478148650027,-2.9557316075094537,-1.0912996087748892,1.110063789244765,-1.437020471865724,-0.23752851506178855,-2.4225168692755538,-1.7358734077449938,-2.315770558417636,-0.014624396744235659,-0.3711050136669409,0.16024215697289394,0.29402123676630806,-0.8772893115781125,-2.991649643389875,-0.049610543760775959,1.139844863532595,-1.0789133619225995,-0.6141358606288406,0.44453396755898685,-4.005260797844579,1.0235368935807375,-2.990277347608024,0.7483036124313314,-1.4750202107974338,0.5563961216045082,-0.21953901943169935,-2.4459959506352129,-3.2613847951800785,-0.38006646009058939,-1.2352639409757094,0.6154985608788931,0.217154320523615,0.8815215500424197,1.1156235683924516,-1.1396493437718316,-0.07107796147152304,1.0474538768535678,-2.8236080592564116,0.5034021383182349,-0.04560011695163068,-1.2241779738987009,-1.5364766366316403,-1.3879261441386955,-1.9635764940594119,-0.16675945194424547,1.3772567564143024,-2.1620850157415267,-0.7970873291452083,-3.1432080231163534,-3.89068589814331,-1.9856865063055965,-1.564927012241645,-1.5323925772091703,-0.8432324604556526,1.0299804798234694,-3.7454810467597428,0.2906588352014562,-2.178917657377693,0.82156135923386,-3.657109579705058,1.4575369548095605,0.1572039456212324,-0.3781648782348367,-2.527258581323103,-0.2115646514498094,-1.2560964289968529,-2.8591481085719554,-0.30052415540901197,-3.374573061025403,-1.1179170141287925,1.0744265244424452,-1.5960296140628386,-1.3465064164439696,-1.4788861525132487,-1.7622642350887275,0.4468677647664624,0.13303851074344209,-1.1376186334955978,-0.21021503691149136,-0.5107187237364967,0.36745345819305616,-1.1666836208316465,-1.4794678097181283,0.9656277510097214,1.0928607468719068,0.7116799775214883,-0.41774833556694976,-2.340151613137026,-1.4050759837984739,-2.0833624136351656,-1.0814328163395813,-2.0964560199735056,0.5708006477861106,-2.2714393692080638,0.9287403468030868,-1.4593007840115407,-2.5852097685550849,-2.3812314742834057,-1.7440889782100973,-3.5537833654913935,-1.8503046990515624,-0.2024296636730456,1.9475008992982126,0.35764680647427857,-3.068131316404698,0.2233631210469231,-0.06687959594786731,0.10607643499734969,-1.4389360461157124,-5.086033873167676,0.07399112050245666,-2.311685931511436,-0.2538567874182041,1.6535211236356958,1.1700708185360176,-1.615506117257296,-2.457179256652719,-0.7854295683536003,1.0211248846106454,-1.8042666300897346,0.9681647493068134,0.7875293694856296,-0.9820684687116688,-0.5335916437783612,-0.8334267475740259,-0.29135320652152388,-0.9286697218804811,0.7241962220463537,-1.6803526779211889,-1.9942351128072287,-1.892849747320102,0.8896574217091213,-1.458497298367984,-1.498207549467783,-0.8486872371089707,-4.1720425686474169,0.5893504423596949,-2.2804655837987148,-2.287977365873006,-0.07424092454678957,-2.773989479039406,-0.29581689283825299,-0.3885659943531528,-3.8214958710004769,-1.0458802205222589,4.024332929941772,-1.5582195576437684,-1.6412070693235426,-2.1499779002158667,-0.12291097980060389,0.18887233147985753,-0.7989906134250464,1.000380636980797,-2.4288313200662796,-0.29658850188013727,-2.193166600288318,0.0751979520095506,-0.8915736140758169,-1.8949011286454492,1.6283035794679786,-2.495274448324036,-1.4826448097062846,-1.9100978444171093,-0.07593051699629652,-0.5566420724974691,0.6245786357936648,0.7291611308417982,-0.9016447488099798,-0.004200291610550695,3.2947165749182516,-2.186910337696056,0.3520079210910322,-1.1052048391084382,-0.9663288933039811,-1.442307980649364,-2.70871538586682,-2.724328415762247,-1.7276234835636229,0.44695189317133096,0.3709426301778465,0.38763499436095,0.43874453087396089,0.4935043089060204,-3.9982305513851408,0.566822958438144,-4.702854968842006,-0.07771289869395648,-1.1630960268832536,-1.4993096557154838,-3.477382711154137,0.7176599699615992,-2.6919144369336704,-3.7513782980423846,0.9500100431499406,-2.5911651682884928,-0.37100637174693976,-0.4115958198293597,-2.342073536576965,0.519632998416555,-2.0528167429071346,-2.28513083159081,-0.36123870138251176,0.17874727000201835,-2.7325277347941236,-0.006972703830592032,-3.9363452425688316,0.3388434478802249,-1.1810504478564319,-1.2022542967485444,-1.2717770465422976,-3.5555911586143296,-3.9357548780473214,-1.4353004152932208,-0.648772677261095,1.4837050167777886,-1.1626375610007374,0.7550338988928782,-3.1944430394048379,-1.8081437008236854,-2.5547877033014019,-1.562482179955422,0.5515657320587232,-1.9222261567414909,2.048528354742855,1.4192191634569765,-1.4394463480836573,-2.021789433140201,-1.3294826718020397,-0.9441905959975843,-1.3002839029162746,-3.003337619151605,0.36980610201904015,-1.9724681455274063,-0.6148238646493293,-0.9494367262023219,-0.08237740302195118,0.32223102157982849,-3.8772842961141804,0.002597618054484348,-2.5571713190607996,1.332393813655333,0.5797211445326935,-2.4421623157212024,-1.0832087112699809,-3.511054929367023,0.514001470197784,0.3199025349856569,-1.3248272104875055,-1.1952347738592198,0.2613670986890232,-0.36134640335531439,-1.4916532259112972,1.3557680984175189,-0.1753966111346994,-0.23939981472194078,0.054389469715306486,2.3466318079108996,-0.16760540367287925,-0.9949403566969367,0.4618303216773638,-2.762063271525766,-0.4510749445404865,-1.6785908873798213,-0.3312091224821369,-0.40472527489106366,1.7248857570895742,2.046082000278456,-0.4814702224877976,0.9720037250095128,-5.059713619430161,-1.8414689735150456,-1.1119932042554313,-1.9815188583098274,0.893966986552159,-3.1739153096922085,-0.08754344062477114,1.049764832038175,1.2518126266870416,2.3353449619502446,1.003160832500821,-0.817338754600054,-1.2561167291051672,0.025636431693142733,1.3280824493965187,-2.306709311712842,-1.806649612515929,1.7216562630109594,-3.2446736181298205,-0.9738886627791125,-0.6984570255042993,-1.8735467701537188,-2.402859027856219,-0.36926372584985936,-4.149626224741461,-0.7207231149128427,0.9242973875448839,-1.4115137799516336,-1.1264115750749467,-0.6751361599757478,1.839815702093467,-0.1790271303567328,-0.7865507105574114,-2.255204593341592,-1.5067537270704977,-0.5373281520262994,-1.6919414678030836,-1.2332958085781088,-1.0703132310552264,0.9248045245510153,-0.888203906757798,0.7134115918145659,-2.280615030325611,0.15285176752212357,-3.276812652926922,0.4088291869460798,-1.2822312078198839,-2.073452259809165,-0.8485193849089849,0.08578722628714669,2.0901990823722618,-2.9637444032245567,-0.0014996406710899684,-1.4007493207150937,-1.8383098533882927,-2.805194670191293,-1.2510797319171192,-2.0659501598275358,-2.2423076864824567,-0.787409717919699,2.2465709503100594,-3.0752792589645967,-2.782918130856409,-1.2991840942538465,-1.3830546808591493,-3.6567847465167344,0.23978767507266775,1.7306114222235945,-1.4602888846611289,-0.005439516340479123,-1.2828497737086465,-0.05190792146874796,-2.621504631805404,-1.8382227380084562,-1.6237457652575574,-2.6843157341793164,2.1176304783928034,0.9308910751510096,0.9757098688722093,-0.41436507422144205,-1.318122328810543,-0.5597304141318336,-0.006709780139788248,-0.3625631302386896,-2.4810471436890046,-0.5890912537894631,-2.65529357484501,2.410616006708841,-1.4958383836650562,-1.0374671707898887,-3.7831983661160479,0.18595083111837205,0.41028420202813106,-0.3441466269620598,-0.5300125509227942,-0.18137110321280168,-1.1903959835929777,0.4212553439946323,-2.917116824495574,0.5847609508724978,-1.4387018867427906,-0.41019983646730526,0.3934222029066035,-1.3941010811345303,-1.8533642589772559,2.171607886576105,-1.2377011788711617,-0.09276820794319059,-3.100831223635237,-3.6146769086706045,-3.6837783708295226,-2.0393045734849779,-0.4676772159322085,-2.1260521698712457,0.8034904252326132,-1.1914778848474617,-1.9687739282673398,2.26350538661885,-1.0264588078801187,-1.5958921414287398,0.3505289755449521,-2.339263952700189,0.9350805394787506,-1.293874121483981,0.26776163969997177,0.21287725818171467,-0.5856974784932509,0.8755146387039883,-0.7988183387435217,-1.5770756770818626,-2.940366304815332,0.4450749620375761,-2.0455808294573387,-2.456977741001424,-1.5431139125368559,-3.3615271237080939,-2.5799964542051527,1.6760284002548734,0.09136643333108371,-0.6105107755518526,0.7166123083471837,-1.4850138724078004,-1.2984857022889167,-2.4184487015761424,0.1573881040774118,-0.6894293812709986,0.5979028819148579,-0.004808290114852866,-1.7644321492671027,0.23940249391319796,-0.10232358364997073,-1.9693459678850874,-2.758885309417426,-1.4025696829590973,-0.5656377477228864,-1.7568152765417647,-2.645795434292963,0.5858640229870685,-1.7266105679476254,-0.6331387026665849,-2.4832331310689645,-0.6968159155787687,-2.1400477053294346,-1.3814164528383364,0.0625281557643801,-0.1111222670917103,-3.040555167758458,0.16821350199776628,-2.3392183842917424,-0.7136235401468447,-3.213080033861964,2.6713937209762466,-0.08010193595539067,0.2666856882600413,-3.172203167120586,-3.1729833088768295,-3.044900615520311,-0.724526175633937,-3.3032394433001355,-0.3512316414542918,0.7140427649415201,1.038208301550301,-1.049397465349574,-0.7428254501081314,-0.2036952536351638,-0.6642560249985419,-0.058922964885593068,2.2648595115709448,-0.2163597694166951,-1.6203460844964937,1.3339736977568409,-2.9246810604965605,-1.6307825533592407,-3.0380337688406189,-2.4817552387107759,-2.359835087316793,-2.153176385950925,0.1281996454743538,-1.5425335152244316,2.478675565357721,-1.9350466958198527,0.5510779609723513,-2.178869730628667,1.137744060525386,1.833236507841543,-0.2505655422302328,-2.9179404382725195,-1.450752987382598,-1.3934235392480774,-0.6069143571695584,-1.2509168312630237,-0.6919570094654894,-3.9213425195156477,-0.38221473596401109,0.3908889619350154,0.43927704207471848,-0.8699213353985645,0.4325108413094407,-2.2975133094856288,-0.9150428522130462,-0.09488005161865607,-1.7098816129144048,-2.849925072796698,-2.1546096330927129,2.6623228517137949,0.435611488177971,2.8449406232735625,-2.7398928982601919,-1.9799447249964076,0.18122805581608224,-2.526123139713882,1.8571842250135838,-2.6362853091690865,-2.218045052819504,3.164715996762746,-1.0076501901317965,-0.4832398311787358,-0.4942548313141235,-1.145033603602175,-2.7285325097407275,-3.046619914995131,-1.3760214793557979,2.1309936267778979,0.08461482707537864,0.1812086931177057,-1.1307070613273778,0.2884582920308327,-0.3225639534295652,-2.4449820908859185,-2.8672777903988919,-3.4406499369178835,0.03953151911494553,0.46918797634615647,-1.448390149275185,-1.9432315059014327,1.7355842548539587,-0.5907758881826906,-0.25603330891024397,-1.0754737095144385,-1.2971745174170973,1.2337816945290632,-2.2188271154587779,0.872427746317344,-0.9894771952082966,-1.6817811007114448,-1.900583180584302,-2.589371278156573,0.31967989626843848,-1.8952494360033583,-1.2596277664875162,-0.845612503068948,-2.147537373829568,-0.4132698260643895,-1.9153152919469477,-0.9170619670880033,-1.8073860195791159,0.9586455341409392,0.35220233645136958,-1.8388949320316815,-1.6006540948231867,-0.6716754778613678,-1.6493960619404895,-1.5780736288500106,0.7268060087456554,-1.9780770049913104,-1.927443784684173,2.0242207988984828,1.2045725822937286,-0.32311560707650918,1.729307030894185,-2.644758041077908,0.31666059365106027,-2.490069090456043,1.3122986321176729,0.3706851376193985,-0.9500705759139497,-1.0985081983479368,-0.31228941273489366,-1.5016044811977299,0.28691489750550527,-1.078541058981946,0.7912503239865758,-1.9876647036121405,-1.6419647461073524,-0.6854821383869129,0.8367932883735476,-0.409930070826716,-1.2762972036416865,-0.8549737504978803,-1.3835945799131347,0.9846465094999704,-1.0776088974567957,0.5628705916813331,-0.5429402104615608,-1.5287529126891276,-2.0710092842752405,-0.34751344297496447,-0.46223990430357739,-1.2990884785873898,1.6959764345446203,-3.694512675298298,0.194746028321719,0.07938381405491246,-0.8593486099038028,-1.6213189571404288,-4.069637724546677,0.24208392209934319,0.9454537828278256,-1.489852594396992,1.333065210003438,-0.3328786376938608,0.011087492097809677,-1.2156295912845577,-4.342725518943176,-1.0064145367910156,-0.5583915910276346,-1.5192957829637828,-2.654094424978173,2.4658508810548969,-2.404728553307926,-1.0527282777642793,-3.3349502922926117,0.6374814324080282,-2.515363877953026,1.198891735481342,-3.204150027935162,0.3877802600807839,0.3097931303257778,-2.102289412007862,-0.3457725748984044,-1.0339841683657332,-0.6473861780542882,-0.24331492445139159,-0.8837389333789748,-0.2793564987008455,1.08990457716477,-0.3925485357190979,-1.3368304378590293,-1.138621846981212,0.26627223210689568,-0.06557469189195911,-1.9424546207324132,1.7957055214502904,1.600798245430021,-1.8677283675079744,-0.33169800153929387,-0.4232172054290905,-0.987682183819998,-2.2409521529781224,-1.7644075395611408,0.5498023363030238,-2.188768030482608,-0.2521503988997579,-0.2887124310622364,-3.9991076108084879,-1.912319348474334,2.152769034311325,1.536439378316413,-1.6772349654938719,-0.9250384888110117,-1.471906030519313,-3.3117662493699115,-2.792680093257154,0.4372063926642572,-2.759874268733947,-0.8616445299583628,-1.0617126039477696,-0.8408135983347953,-2.502711950476339,1.4915593324381949,-3.5266245576296519,1.0734962176577992,0.5652421986523999,-2.0910617121937409,0.19950347179437817,-1.7950089366879883,-0.5628045414248702,-0.7521903979818787,-0.6935561326973853,0.4862111615738357,-1.4996117732418866,1.8241560686335404,-1.9984453968495424,-1.5743574030723518,0.6167100660602832,-2.696456758169084,-1.8355329055466284,0.9627581394043026,-1.2605049216861486,-0.20377243692174283,-1.3757945539377934,-2.318574346848243,-0.2575902569322643,1.0391512402703043,-0.6609991203085289,0.012397313740411734,-1.1293838349470067,1.08216899240041,-1.147430815546303,-1.4188784844002794,-0.6251090797006217,-3.0453222556933055,-0.13311878838195113,-3.387785095398223,-2.0626538396054689,-2.9357893738772766,2.6349677504799846,1.8205390465611214,0.10277038680499656,-2.9303148563702159,-0.37631554071892478,-0.20802222488809256,0.8065143061261295,0.7718852879553847,-0.8010285372140251,0.705843890034122,-0.7059795647345526,-0.5833773159691438,-1.2254211386437173,0.0919188836082902,-0.3468309692132746,-3.4469196995651947,-0.6864759005629499,-0.15666295948826346,-2.8495518956657519,0.4440499507582006,1.7267726923159695,1.3724964618370217,-0.9536871682052607,-1.5640518338853509,-1.9025244717182817,-0.05863545701464187,1.2887393938306549,-1.1048507288718768,-1.6564488643802678,0.4103906616862496,-1.668919850171247,-0.6383185962981777,-1.5686249248403932,-1.1082576115763668,-0.245228656779909,-3.0119525608893227,0.20394080761097173,-1.135855132193513,-1.0258955098981613,-0.843456183925468,-2.723077596386568,2.914528518835814,-1.752039445856626,-1.3225970011674906,-2.0161976948719304,2.5181212460718696,-2.481912395295992,0.3502933949189918,-1.0889727987941203,-0.04886231499550531,-3.901082105839614,-1.8415237902605404,-3.040116435704438,-2.777143066295625,-3.444554144671509,0.23483570145662789,0.32046964143228909,-1.2377448800818905,-0.5127795038429315,-1.4314699449324997,-3.959096297810758,-0.5320095140643947,-1.6033225076384224,1.696504996054581,-4.5586922783536309,-0.37813530585978569,0.5177682896743013,-0.6407250526429646,0.5037959317039924,-0.6695024922812646,0.056958674697776757,-0.6637990060793549,-1.677347625558688,-1.5364071439847858,0.29280080638171449,-2.247852115176659,-0.08407105452296132,-2.6073145015577334,-1.2168572777239866,-0.32088427862304699,1.540193241597386,-1.5971786764289547,-2.119600751328257,-1.193883915155864,-0.8239867558873631,-0.2978124827102177,-0.034123282075709877,1.4318860528244637,-1.0074698346918414,-2.384202323260689,-2.641884000105562,1.0057124236274445,-1.7446132653857572,-1.149163697506679]