[-1.467471949514813,3.3824946649011347,1.365461578660116,-3.1498582079495129,2.23762079571176,-3.495205883159044,-2.8652132271929728,-2.242038687258427,-1.203963498615443,-3.724347168920393,-0.8928268667473658,-2.023377297974192,-3.192823877437349,-3.2793488399261969,-3.519371835805793,3.3514782774069005,-0.8418836484487147,3.375463485571065,-1.6124263281284819,-0.9957502940368199,2.597028533492119,3.443177509150983,2.891880362875721,0.4065658426318466,-1.3418397649607264,-3.688240567324268,-1.8662193106172376,-3.066419801292607,-3.475265660566798,-3.210947161933266,3.5128812392537016,-1.3285254069888984,1.271045331692326,-2.211336732216081,2.408307043620238,2.184187972834521,-3.374702494790186,-1.6082424355372256,-2.6389645007064379,3.6176425020434559,-3.635362069832686,-1.292614164841969,-2.5212442923894287,-3.2765775849428149,0.09513621374976733,-3.1008415372209887,1.7051278883660848,-0.3762542588912383,-2.804013420948941,-3.9302534513043909,1.5828600272229432,-3.1332448916439148,-0.5266886391286609,-0.7033123150827656,-0.03095085958827304,-3.4274257707705617,2.5232248252414477,-2.3317067893391725,-3.711579504554151,-2.7109000947041075,0.49186238643942739,1.6629539212981107,1.229227639321178,1.3379539957755365,-3.599528548816478,0.9944472245665237,-1.6102559893798392,2.738368279360821,3.618869344732227,-2.1178804827008399,3.122842164758655,-3.0874814806879486,0.14871842554970894,1.299831037121705,-1.5282431017448917,-0.7684705803596428,-2.5195036362877367,-1.9971336015717603,-3.374015118931327,-3.145383612558323,0.28762954718359526,-0.6105095583613005,2.9190266473774786,-1.40065642639054,-0.9688748807742353,3.47655806302396,2.4209516069281076,-0.9479286283071551,-0.30464648984437128,3.7740195108077829,-0.46520363438471459,1.6405215384459853,-1.5269084904232407,1.7632019655635488,1.4947709893727553,-1.0736695813542168,-1.101567950013278,3.2138274133350714,-2.91439474564441,2.163530176545981,-2.180697278253441,3.128181633327616,3.7197789337308926,1.6396010223251337,-1.126494876666502,1.361252918079816,2.785281255127603,0.6328107388813686,-1.1307976670788008,-3.8308848779387745,1.0682477054793056,0.08875387369571808,-0.5783121615779729,1.012701730814741,0.28939219772524807,-1.0179554700586815,0.14569155950426183,-2.551431180375369,2.6042116753987676,-2.064438927401036,3.222589575313675,2.0763046187422846,-3.3384675797408827,-3.0133129365698156,-0.23110273464868404,3.20772773492482,-3.9941083609289427,-3.023952395121107,0.33468375998481827,3.0542222815278299,-0.13321823830183988,-2.406522576488447,-0.8930757396275402,-3.6119141561698075,-2.1934435003606005,1.5157302904171309,-2.0037178505104489,0.9670226615802458,-0.8331711200386087,-1.2354436613928402,-1.7001866207406443,-0.4626722707397286,-1.866639299980756,2.606144626359452,-1.4860469195484472,0.6878900186350521,-1.0967657010326689,-1.7400255187497394,-1.2610610093340069,-0.9409449332909157,-3.0250077749080086,1.725147456704363,0.17400764243826218,-2.3140639505495637,0.324486481982337,0.7068462015503396,1.616104004073633,0.8684863819263518,-3.866456238703301,-1.4842788723624787,-1.1266420535886684,-3.380748929767673,-2.851403463271847,1.2706582629259869,-1.621198653275499,3.135191345438339,-2.5379502529371935,-2.151173910380707,-3.3770558628608429,3.015348437088476,-1.635315042465528,0.15572983286437837,1.2637053393578102,2.539650607210712,-3.449722216555732,1.7922318678782539,-0.3395469439504686,1.0525381651483264,-0.4136537190995808,-1.103504302759273,-1.873115066819121,2.2938115248172696,-2.6195095499777025,3.2690671604716607,-0.5711258483510056,-0.185858477359494,3.486083552330437,-3.496323083565356,-2.370150985077368,-3.3100091008532814,-2.579573250938572,-2.1949672949968237,-3.978415154979558,-3.4762878790203706,-3.1977764444956504,0.17374011905372378,-1.5220644728834847,-1.6219630909374717,-0.22421412894540627,-3.6395136038331605,2.695595864376048,0.010217207853413513,3.0584820569097914,-2.877235515753366,0.7407654948432203,0.2921693180546052,-2.878917824101376,-3.2311728124098009,-3.877836439138356,-3.635672020609289,-3.8030029748232376,-0.9606608580176186,0.7509729672276473,3.618341953028006,2.0263401850892599,-2.642908365029445,3.45914577905962,-1.828564471064963,-2.778172656308284,-2.4668701427534618,0.4921704560942892,1.6105037930627609,3.936499644822833,-2.160071503153299,2.9664424922790157,-3.610366809289049,1.6342837259923818,1.520080301001058,2.776626120128295,1.149569552147896,0.7107374949602807,2.050671416031114,-0.7246667906165689,3.1813870306750005,3.983534765409389,3.478407333294628,3.598993065828984,0.3439113348303211,-3.555783712833928,-1.9627094826684993,-0.9466271691409995,2.1174493836917387,-2.8196548522596984,-1.2704176398779419,-1.750568855788667,-0.4234730546864274,3.3435664351168628,-0.521338519832337,-3.6075575603496325,0.8821552920121762,2.6028044218118788,-3.271733140498836,3.656951718811081,2.1891055720819176,0.24588846971620627,2.4368021594659385,0.7096545397303595,-3.7446485725944136,3.142383065932356,1.185724306395521,-2.211280440713425,-1.5856070697979697,1.6002058839628504,1.9084947354301756,-2.5370988362589985,3.2893765551243838,-0.35231743253562178,-3.8022943994524835,3.8118105616504245,-0.7399349117933747,-2.468870890463517,-2.1172312821945065,-2.4469749013030146,-3.0615863559557079,1.2959385944465272,1.1317202233092747,3.231308103469674,1.4907397699589176,-0.1021104995881339,-2.700645343106352,-3.102783422352104,3.6317893664066229,-3.0980604401513176,-1.3222125334330306,1.4478662300860848,2.487163745732702,-3.2705089855984674,-2.238154157432213,-2.17274459337486,-1.0360965773909213,-2.254247680218347,1.3572144115366678,-0.37359610871922035,2.315553602000721,2.3165067090484268,3.529859596920999,-3.6626292393251189,-0.48777107275577316,-3.6538346437095887,-2.2256595419360094,-2.322555524394474,0.2563105841328488,1.4009528622086647,-3.5048865843018479,3.8620223268126079,-3.508339904564804,-3.4311592790177345,-1.36939690488395,0.1638872485458025,3.582467226999392,-2.5238287403971517,-3.2306571808447757,-1.1714352044275823,-2.751315796897618,-0.17630249538908616,-1.9877020631603133,-0.6723824145616801,3.547633203775786,-1.5062102455164206,3.817510778809546,-2.9601366275506475,2.0030548578799847,1.9424364331316433,-0.6242628823688927,2.180462210734329,-0.5206369427744682,3.4083048651567564,-2.730211585036562,2.9875094131406314,-3.2411031106646979,-2.925473672685226,-2.253515593844309,-2.456230577054182,3.18734899879286,-3.9800996079818047,0.9605413497339601,-0.8050592313513982,-2.8898180899430088,3.554078996912521,3.837955071556264,1.7583497376109785,-3.2932537449449557,2.7970080026510715,0.8923053977930815,1.97280453705962,-2.491956737736065,-3.455146792223408,-0.8343677051073772,-1.373549482589529,2.497305037059097,2.4472816555930319,-0.0351583741640733,1.9720720639082075,-3.6481030716299065,0.1072893323918569,-2.0848706598973436,1.3999799642605116,2.0051514062652169,1.1052427250822686,1.0020868579227927,1.1960911960747032,-0.7054829016209512,0.7634727474256309,2.5633486107321596,3.9477364967567238,1.2565627607992607,3.411681955919012,0.6542474043018816,-0.6995817951738361,-1.2813527760018582,-2.9308073768679128,1.0359142143037508,-2.8754182173854989,2.0376345280399699,-2.9310609834937155,1.6282199326702616,1.8721294504752795,3.7919490791645176,-1.943318303202245,-2.6054566537887489,1.1000141999442113,-3.111540081693585,-0.9902632020213495,-1.774467468289801]