[0.8921477424443784,-0.7403849408581618,3.121218823315302,-1.9440659317752012,-0.8512035252136831,1.6498523838773949,-2.7370298506680656,1.8790620244352914,-1.2986641394365746,0.5465611239511006,3.8873491368684887,-0.9817819403612491,-0.0472817222311015,1.9781532481174669,0.46245021676797917,-2.2139793871381725,2.104528231453198,-0.532108438811864,-2.5593807719939196,1.8132041148883183,2.9218134563320108,-2.596049227573289,1.9251848289044098,1.5403876539969846,2.9893767070108616,-3.827897436728014,1.5589157168208728,-2.4876042780021514,-1.5496730728430813,3.9327570913174716,-2.3262619054310358,-2.9077588849914299,2.231830352815467,-3.8573727525797976,0.6646166879427558,-2.7896914692933185,1.233141833082871,-2.8659352205952119,3.950140056888376,0.11431639837519825,-3.8796406773051865,3.266537085593871,-1.3879097275430726,-3.504264555769649,-1.8205730008048394,-0.8142619991754607,-3.268814760685035,1.2132469702023699,-1.5649065935837428,2.810388957317948,2.592312198988883,3.026536073715488,3.5590832648769759,0.12006216805965675,0.07277958015431896,0.434772602622985,3.273574144100772,-1.120826466045119,0.5710554840805502,0.2159294191176251,1.2456660750179634,3.9914203774359509,3.499256670780613,-0.9698852058721448,1.881558031395259,2.7751940365438809,-1.2005272577782869,-3.8299035894356558,2.4086290343628384,3.5352447505612307,-3.3192583118430525,0.8137698599574863,3.5182804315472779,2.484402360191848,0.7165921106664772,-3.990144195243011,-3.4977171333860248,3.937463360111715,-3.017430200186716,2.44413130102083,-3.3651029187219425,1.3549211374784696,2.618397891347187,3.383644174123133,0.20458727002056244,0.9622245372892468,-3.0728267596956666,1.0355580283680839,-1.4532463548537676,-1.8402856640442825,-0.9638053846436705,-1.0040670772360283,-3.2051230591409229,2.5696277479521845,-3.9028555851452264,1.8807712272439075,3.7334046194683578,-3.050439727670998,-1.5803136228479904,-3.9473125969792939,3.158382727307867,-1.604134871759407,-0.6888510769151486,-1.2868120269080424,-0.6576681188020093,1.0757690302697496,-2.28963464220083,0.42024716832140465,-1.8741366848847763,1.1348316319393766,-2.154710709851706,0.7231715838562574,3.0131681623054007,-3.7575069066161834,-3.4289389038858006,2.0248126089710345,1.4168240737400364,3.505601435699859,-0.13195269624956453,-3.2955585677649497,-2.6278747170891547,-1.1659176752917875,2.517534662173736,-3.141249424950681,-0.038559081725768388,-3.834038574434336,-0.5644331150029336,-3.4026703198970624,-3.483305161683721,1.1252116002488429,3.6816503447188149,-2.7498388927654986,-2.63269821043908,-1.2373701375882016,1.637096594625861,-0.6892914128468481,2.1450509017459176,-1.4539709504180154,-1.0892495953927369,2.7905949098976867,3.6040540593610927,-3.248681530535544,2.4467180963006616,-3.9614423203787334,-3.465072452854111,0.17831255852885254,-3.4923045899191429,-1.0506300175162762,-2.2111905701088148,-3.9109243216402449,3.5651731821635028,-2.6373064801828356,-3.759799161842846,2.6400616815838697,-2.5300568676707657,-0.774747095923731,-2.3499749483836149,-0.3698735796727932,0.26407307629089429,-0.12815621767945219,-2.199154037108671,0.4661282386699268,-2.3370910260773689,1.0296931613170735,3.627467609483875,1.036448179512715,2.93022106704083,2.0634059959278385,-2.0623533547909185,-0.9247029080169453,1.8685182175100206,-1.4821111405819474,3.2976750557556029,-3.771036811276934,1.703814315319903,3.6186727126176976,-2.3904232590038845,1.0409716819339972,-1.0111455857941723,-1.7151486557206626,0.12821013875995214,1.293691382199336,-2.5991912589354184,-1.8026853523627582,1.8930500819774992,-0.911637320033571,-0.5146264291413303,3.7517859242970665,-1.890688592267499,0.9590001088346494,-3.6506470278641629,0.04927304485496986,1.1967895208275837,1.8411613218979098,-1.890234753902982,0.9009133151398157,-0.3466001327549346,-1.7792154030656849,-2.938206221637702,-1.7141692348305727,3.018230627749638,1.8698824122758309,-0.18731572232703343,0.49968919512130319,-2.255713489427972,1.3154106617036448,3.64699332866903,-0.08007152485194369,2.1605187309343014,1.1163285886412249,-3.560836971479537,2.1150984373493069,-0.1817382174373774,2.511575412798223,1.9558548304720374,1.8442374476437787,2.1226799220244239,2.1478650462210009,1.489885099674698,-3.97587618390474,3.3170812789068639,-2.5553169222311427,0.8647964113216533,-2.532113891977591,1.8783270444279765,3.443084333299802,-1.242892319711373,-1.209042366540567,3.0292692577500128,2.6746976496279357,-2.002036412505027,-2.7666032868911,0.1764731418258787,1.7847735379176664,-0.8325936300234487,-3.355813807186979,-1.0107105207067014,2.255346938337996,1.5239659467600682,-2.2184338227586037,-2.1283674287381038,-3.1260591697192146,2.9275598727326734,-1.2237734367602516,2.478926044411609,-1.3035904567356616,1.6148348640432886,-3.2613571129393668,-2.0277536384504346,-2.52005531927822,-0.6876923063697458,3.8866918101214225,-0.8712298895515358,-1.521530793772027,2.6210723396373636,-3.731622416142491,2.0151813626244525,-2.716248742626269,3.4500756654173569,-0.5006331565226931,3.7802533434307374,1.1125390398962632,-1.5642883544098743,-2.2855294544968496,1.5977222579549775,-2.1275115246993385,0.7059840841901108,-0.8534546888459991,1.7597042190338002,-2.35761552424883,1.3160238348943035,-3.959193959262251,-0.23833953252093899,-2.0006141581544956,2.239470624669462,3.9203820090132694,-1.6768371001149288,-1.7060050837962502,3.736603352529647,-0.16931761588396578,-3.635512534029295,3.4699197410573765,1.2690307446127705,-2.9736827240594296,-3.9254363303733408,2.060157845302668,-0.5846890666166849,-1.5545299990356699,2.5413335208514278,-0.5004424927464175,-1.1819535045503012,-0.8250567666740913,0.07087867174895202,0.7760329249803339,3.066464278675615,-3.180170408801601,3.5544695685290366,-2.919375339670532,0.11523164292871435,-2.3451899474810196,0.5450480844391192,1.0432540649868685,-2.1028707421284205,2.0961726354439778,-0.053162655455261779,-0.9149764863688761,-1.8523447818263792,-0.411454268356396,1.1591384507646528,-1.060049603237485,-1.1180464142488893,-0.5630943097296717,-1.7778193420192426,2.360380981704208,1.795022866424925,2.178282669177154,2.515304269389018,-3.6595310386553656,-1.9533938087143493,3.6226448973349418,-3.6051982367483674,-0.6218660241130465,-0.2297969095272121,-1.108711712874217,3.466544722505441,0.0671213027804809,1.4105138852051776,-2.301835683838158,-1.8397866563282166,-2.7421096893658269,-0.6910215862392322,-1.6204434181732539,-1.149323639161324,-2.62810113701296,-1.5414781543666179,2.2299375072832037,2.9478867650183835,0.6334471608716674,3.5314301105140348,2.089625804924373,0.019043476789760484,-3.911079556604479,-3.1735658010718925,-3.0808651840845107,-3.924098202625866,-3.291714234889243,3.664214723955773,0.16051803228206563,-0.018288491579479206,-3.8458201835915144,0.2520405890049,-0.8003998819844869,-0.6038507796070123,-3.599442922853563,-3.8328892019521696,-1.8438797138404795,-3.6874897545234326,2.254376745150349,-3.381333775650938,3.994434206951664,0.0584628858609042,1.5018099236505176,-2.3478658086918919,-3.377955853653158,-1.4305834006468672,3.2805823372473315,2.0451184205801207,-0.12123837710135255,-1.545878190223158,-3.0529176851705586,-0.7807237179877478,-2.5000004060675806,-3.1359041966604757,-2.6629428130960717,3.5909693334806649,3.301154090152398,-3.058335236491561,1.4702833139003833,3.88132482788468,-1.413368711751209,-2.3513549903064527,3.2621518593039324,-1.8816934979483158,-2.5147973360016309,1.3469033185793622,-1.7354010146947768,-3.960914496651193,-3.526505426685598,3.621483796902794,1.9659195053990262,1.4340958128818136,3.5984060338469758,1.1831754034184608,-2.8900331322792489,2.6604410208576976,-2.658875351584282,2.4431755431203276,0.6900987040891282,-0.756124917895171,-2.8248051466277728,1.5707811766336395,3.357402126588002,-3.3616918272691418,-0.8408490363700929,1.954450939094051,-0.1042969970562917,-3.7708908022006488,0.22092142419805595,2.43948960217973,1.8580038455092174,2.0379932818900707,1.8618007342891048,-3.8762243390689248,-3.7584049951309765,3.4829748081516538,0.5089314228642241,-1.1506220579063256,0.7770233598420715,-0.6004924967900598,-1.3165604957426212,-0.2754224308120501,-0.8261767329932181,-1.4183384919576819,-1.8829664707921999,0.8273435110708602,0.5694584339321631,0.6826244459037936,2.853051363107708,1.9638345214964579,-3.9804864530756376,0.04323144697247905,-2.5703516421240097,-2.6887948595069828,-0.18853703473326734,1.4196958445800246,3.158957450182445,-1.194240978834653,-3.2996607151184857,1.2203650226378216,-0.9277070779486873,3.8876334657114786,-3.3323282645344429,-2.055649881374583,-1.6413692221784429,-3.2647497793149684,0.9109822332841624,-0.21405584244833165,0.15009691044557273,0.7256578472699342,-0.2914975482304145,-3.0586836145800149,-3.3699111498331577,2.1187294431345879,0.37803692852882078,-3.427220158336633,2.586348564663453,-2.520514998648957,-1.2400648495519476,-1.954687514049132,1.1327056149722586,-0.4657750737061461,-3.564356820211512,-0.7125041425573286,2.8164286073380486,0.8095449774628563,-2.883548465876924,-2.5865151585477568,-0.9153861921096809,-0.11450191953802591,3.509897223422251,2.7848169745822206,1.1050917697470633,3.461627128428021,1.093602715558637,-3.677822812899671,2.7764035891289895,1.2469936281418637,-2.5364661995350765,-3.0910331270735904,1.8707794756399503,-3.6074388483300634,-0.14631650968933308,3.6421208529476027,1.0389351667112683,0.15611813030482048,-0.41360059766979609,-1.0295805191120236,-0.6907903138781182,-0.36524975330444656,-3.0274402178905639,1.802187480184779,2.3740091220051138,-0.6272802301165141,2.701043363689381,1.176504671412789,-1.0470075946326452,1.8724081694836477,-3.5017011619299565,3.359948248884657,-2.4447686651877449,-0.7495186199989572,-1.7501367350482083,-0.7399053648226597,-3.7628986320737045,0.08389412387240114,2.6576964532367119,-0.21479727424978369,2.1214459509939376,-0.6107980147257059,0.9602249899529385,1.0642256052122888,1.3177414615533465,0.3212808073080975,-1.831680072147571,1.867839016147065,0.6209341471125489,1.852227953948562,-0.2826626489705293,-1.1880137859050389,2.121912269183209,-1.610257269894939,2.5409584947041807,-0.9722927748514989,3.836219618451091,-0.3827698989692896,3.5720615929410908,3.6711072224152394,-3.6221532957676576,-1.4958346175408435,3.5856813029601888,2.2640142022766724,1.71435110139055,1.8453559736069929,2.438051883803884,-3.1398182468872859,-3.202630072226821,-1.4453856893870254,-0.5601234547328744,-2.801897838569233,1.1868678167120548,1.4692537168874927,1.5595439100493219,-0.597944013581075,-1.8100126763445184,-3.014863304712838,-3.3407054298379279,3.910294095458841,-2.389575028664386,1.5105130213787064,1.7778139986471704,1.01795518380818,0.5297769392545879,1.3534843989113688,0.02575122016068576,2.992903170242628,-0.6985239859009376,-1.2453616122713323,-3.9003649864674978,-0.6523695266941036,3.9813401503365117,1.403584548372291,2.334707006013904,3.192531555097748,3.43166365021132,-0.564923689094476,1.3600047990442166,0.10139846029214805,1.4129946219987862,-0.4502480533521327,-3.7684815308000347,-2.479457010280538,1.7959466419568369,1.6173672135228837,-1.9730632364126928,2.470680996767096,0.7338769653037085,0.21578986882169194,-3.1016817992564276,-2.4463322531096107,-0.9769816072435853,-2.4840416739372985,1.7282429245191722,1.632602720736939,3.8044372810897046,-1.3766918413988452,2.102252251413403,-3.020742229493993,0.9458895705840869,3.2604639033010276,0.34666066878123749,0.15342614695846636,0.9028395014398329,0.10444474137474202,0.8765818147594011,1.4825419274323597,-2.466444189189102,-2.847889728324658,-2.3444741476108659,-3.0481806900842924,-1.4825302325174619,-2.9239935400028544,-3.935469292660608,-2.9831828517246166,0.2961859200838237,1.3173562817522858,-2.1243090685364605,-3.401264283316996,-1.3257830611524276,3.276873721886715,-1.5887419293517569,3.3127117769604,2.9538647596621034,1.460432632587489,2.7062777711017604,-0.5702450417805398,-2.5786602709875057,-0.9774490946216243,2.836011310750469,0.05882322678896745,-0.4197237928296085,-2.2482045922985778,3.3290354839266484,3.115296227778952,0.3573630692428784,-0.5533407859247985,-0.9872875912418844,2.6198705809347224,-2.9658127589955987,0.81526886585229,0.3576105764705133,-2.801130391378467,-1.1751016506280756,-2.7487196071494255,1.1849987321187144,0.07037018862891209,3.6821924171621669,2.3825021353028967,-1.9760481570465239,-0.9733010247236971,-3.406748850607073,-2.8596109561816505,-0.1616846963250511,-1.0302417115817209,-0.16242590771710398,-0.7287762372270885,-1.8267870709175556,-1.7107800884059723,1.6015794017040932,0.24889027011537924,-3.0691508163014307,-2.688296875789953,-0.628580523151131,-2.892385629803278,3.339215351954679,-3.2326720152301595,0.33482145966783519,-1.2205616190408113,1.7153293219647097,1.1504778695102723,-1.1843658172860794,-1.0389186111853397,-2.5722844184460227,-3.7005045367757907,-0.5731238521659492,-3.475438104976945,-1.5582763714163906,-0.03295409954113615,2.9631412149589915,-1.215131968773414,-2.697206633828107,2.545392430343316,2.3520682381294986,-2.808814256038813,2.5384477681528976,3.511903349769142,2.682973581167592,0.6857706862039574,-0.6856700077949027,-2.0379810500546418,-2.6485272711230838,-0.2033252124374767,-0.03765158432465454,-3.78960161636972,-0.9262992545370461,-3.1987108057993867,-3.162777898054822,-0.17074767184652729,-1.1477010383424045,3.8609641250123154,-1.7922503285266134,-1.0285015333288064,-3.4662084047440819,2.893491810364038,0.07296820753465294,-3.3751168659159695,0.024584330606034045,3.3667267907781959,-1.2996935943897959,-0.08391671739187867,0.4282796263069688,-2.486988913971155,-0.5559532806443137,2.061010911438262,-1.4978864674812405,-0.9032445820843778,2.085660647961734,2.58650055188404,-3.9302497181265858,2.9541360347774905,-2.9577601559866135,1.876944211346208,2.3465641353366708,0.9129246724347766,3.036419076951967,-2.484263734267193,3.3748593122913519,3.4739358294472666,-0.1417816782872221,0.9766173458258649,0.9659459227698095,-0.5728257402519679,-3.5969860916357616,-2.9817411853476569,-1.836662754317697,1.3115371052453258,3.5967733710704028,0.11175808757250749,3.2771498975339625,2.9420164855037616,1.0091064523238842,-1.4633272647450398,1.0124210136019683,-3.8144904390106237,-2.1895214869646786,-2.7870019020513805,-0.35117183515853,0.8513096524008965,-0.5094122844270943,3.400048055987278,2.8864177222979254,-0.84481864988793,2.4717776712251826,2.658228711127287,0.834777376449944,-0.002946021404407695,-2.918824776039079,3.669765857393852,3.1494319395302217,3.6316974468456486,2.068109422273178,0.9556833802096199,2.499849716251374,2.325147029069889,2.106548459527458,-0.13189608253936226,-3.1015508246416756,1.2480622298611977,0.9467868862280504,1.058864182299259,-1.1913846833111493,2.7115328846091888,1.43781344018294,2.549921121795567,-0.8328478350897408,2.2419156822017429,-0.6742833238074637,2.6585979562317165,-2.2319110882147479,0.2860324563430394,-1.2327444662857803,-1.2043791406307117,2.8991891300304459,0.19646985696782605,-0.40205513150120267,-3.1282263494343605,1.667956381620118,0.3266995928633376,0.3322421631236425,3.067515576386734,-0.46918547253400769,0.6693377537667855,1.1175769640854352,1.7159883847299363,1.1585188387542332,-0.8838783671674422,-2.0143862868134105,0.11662053003089934,-3.995040873208616,1.0203928887912595,2.7817011300519987,0.16368957143621278,0.5156728022445831,-2.8957443971544167,0.11519021837383203,0.878259856809195,-2.967485186833483,2.46921191286122,1.8505864488614768,3.258196309345588,1.1213861670950998,-1.7646746077068292,2.009369473158067,-3.665698859918902,-0.9235065046385342,-1.245163689220739,2.6622940681517157,-1.7850184410444568,-2.261633696683308,3.0147176024668376,3.809396058330287,3.971823408385008,1.4988583494051718,0.2611939760374984,2.0138071677147035,-3.509389087651127,-2.0188887513038136,3.393596830135751,3.1627838181256067,-0.8534082685434266,0.7225796208401665,2.7183164786138835,-0.7462272524842568,0.056598717816283009,-0.23625849317397197,2.006280627877193,1.6398490061582197,-3.3241974869970924,-1.9378513871002304,-1.431815045741647,-2.8085129427932076,1.7715283046271902,1.4044303472650839,-1.9296853752863792,-1.7182946109223494,3.515015007360774,0.1684310959066062,-0.8928660614769652,-3.105465191290487,0.097369135533798,-1.4368730825282937,-2.3312460539721266,-3.9413527529161964,3.5753191005046824,2.9349359020711169,-1.5619447246093046,-0.47214587996902837,1.7305518117844204,2.9060236214613015,-2.4600936241609476,-0.6874522244166874,-0.3558613059323881,-1.6936224180146165,-1.6348614166642,-1.2351179632482757,3.9983284122372035,2.2527137915058415,0.47767721445445945,-3.6137211694703499,1.8897799702153773,-2.76339887266551,-0.24979514761616684,-2.616896758712068,2.0161393181018907,-3.629672219641206,0.4197147648671633,0.7335385199553643,-0.420606919039229,-3.9726813071712074,-1.169144220108674,1.0799100631652108,-2.5946756698138246,2.37491588717232,3.5360371078481886,1.3763543565979327,1.9655083678379298,-1.2595131415880217,3.2077731989834374,2.9561315828883929,-1.8940679789750244,0.6913804414851699,-0.6191783418094923,-0.10418616883375465,2.6993165550922377,-3.642345970981032,1.776114433174051,0.7547944386401966,0.7334343302779613,-1.0874019627017182,-2.4961620176627674,-2.451248195974051,-2.7470477495052885,3.2736958958169506,-1.6360014015529965,-3.316402114616114,0.7377114498226751,3.328860407138669,1.7853106601785367,2.9724307494155486,-1.4267183989401043,-2.808128776828063,1.3699929419183353,-1.3509540967807892,-2.86203159572901,-0.7838758456050685,1.836116160414739,3.4720823151600825,-2.2128546154693886,0.6919248957515984,3.0844878360043976,3.3780527771716617,-0.06676936941664202,0.6029292943717781,1.461626925512486,1.8521031544819114,-0.8378050708370461,0.3752621185600251,-2.1519054135452038,1.3689414041031754,3.7815798443231607,-2.891331603095148,1.716709088128347,-0.4869249039647423,1.0292662558359008,-0.3044292085274274,2.795276339071944,1.515609097749711,-2.348025515011763,1.2673592680411226,2.286307207559613,-1.7570224157452073,-0.6218724896691745,1.094884989278702,-3.6747830091549718,-2.31607785703157,1.254028598935899,3.6844056577605048,0.7153034851207929,2.6475882851394356,-1.7825708642286804,1.3982441867690768,0.058631166692333817,-1.37557174131792,-1.9335199498240723,2.47841989301347,1.330030143748675,1.9415045260813786,-2.7554303277208644,0.568126073547039,-1.6526856016822853,3.87255110528261,0.8461451533949456,1.3061861775874153,0.8788158662889574,1.0595412184731883,0.2180882065415437,-3.6541703836663386,-3.458083673725084,-3.4044719885378109,-3.9474210676817496,-0.6083003128020705,1.1281911563846308,1.2074928301294375,-2.106723687569878,-0.6064903071074976,2.3586648680470017,-0.5178771892371543,-0.3852870612662844,-2.1310124318059415,-1.8764246654348467,-1.8239082559466076,0.11818506014867847,-3.4092095767238366,0.6094053051685258,-1.5826786993750233,0.4814165926589693,0.6008255574166856,3.1313316870937175,1.0264547693287183,1.7370907768931173,2.0589825018253888,-2.182720164644576,-3.1518215116446877,1.8318037714451264,3.4137948421524344,2.694345997087427,3.2869834078252655,-3.742471103402359,-3.559379509394444,-0.882131752308327,1.35405773694207,1.820056123959021,-2.977290610850292,-2.305467848535417,-3.5261075482309884,0.3096492097976231,1.5568974717883846,-0.15722843262589859,-2.038170194890137,-2.666116323666415,2.661417781264168,-1.809105237326369,2.2256507188810259,2.9518459801855698,-3.5818529749714864,-0.688892913425299,1.0599785338438617,-1.7518195872327096,1.455851192492383,2.7961751446474807,-1.9711068386226567,-2.1693887831349505,-1.1068555545552537,2.7759382827803558,-0.8316457044509598,1.6242797199038375,1.5459676456336853,1.393579154229731,3.4253697491768895,0.3690722481633806,-1.1025673920493644,0.435899766965818,-2.4622369588249688,1.7618303640163245,0.9895169117103402,3.5290179818915385,2.3726590442835668,0.3820112067609225,3.6715004721027348,2.960989436668731,1.402587912854428,1.288745146924331,2.1284560984255318,2.2472922416279967,2.8361256125167637,-1.2240286501595109,-2.3196636024747017,-0.9426927581985749,-3.0627064569901627,-1.870905489590462,3.587600508557247,2.056190600082682,3.9344095096090578,-1.387999349511123,2.4583664276387306,0.4171206929214657,3.5922007876217645,3.0733583580613867,-3.9600699891021717,-3.5607122129894206,2.6256763162413527,-1.519255199331206,-1.0621738907976342,-3.049463861877462,-0.5366625852419971,-1.2686331391086919,-0.94383787378861,0.3893016086332892,-1.3494170459739854,-3.450874338828293,1.836623667414658,-1.6170957223194478,-2.4614674367504376,-3.164059951443285,-0.21293652509256923,3.1771182701579585,2.8904429663880144,1.845249372542928,3.6061080609674605,-2.8666580792802405,-3.499893049182747,1.3545559461124049,-1.41530338010803,-3.597914969714722,1.815636002176669,2.017533789961276,-1.079321677705762,-0.6796060843818503,2.848960278184699,1.002231655202154,1.7901332186172728,-2.2907488970057665,0.7134785940835249,3.8693955171789078,-2.2041980799018825,3.5090580527511925,-2.937363102175966,-3.947773763822994,3.292563019451257,-3.9042745013487467,1.362530207563533,0.5721772749265011,0.375218108436532,0.2763000666908413,-1.2632557467271735,-2.8421547412973657,3.498882743914053,1.6776667532929413,1.1162631493879145,2.0786467263657828,-0.10623681826639153,0.7443806565298639,0.7225234413776596,-0.8636707280523714,3.4772076794227715,-0.5257345365534063,-3.1163305258540179,-3.1919656549058814,-2.4256787744144896,-1.1512236987640466,-3.2153623710527787,-2.868229671046344,3.638365303185074,-2.6996909837411025,-2.818027194921344,-0.4534080375345917,2.7637589552208245,2.4631582114355039,-0.1677346440911931,-0.15959686515931915,-3.224553158641692,2.0296391635551345,0.24155270490073645,-3.120700418593856,0.22933849648243677,3.963429861105973,-0.4657865148816569,3.5936453243924255,-2.5701396351232139,-3.779838820698795,-1.949681797228613,2.3571127953235138,1.3007205351320269,3.154493778936703,1.6844203305666366,3.815223414179461,-0.4392861205319276,-2.3926822857676406,-2.183299908810868,-3.122236072456988,-0.0644709115125277,-2.600380508347472,-2.777309824922553,-3.714172092369669,-1.2893494647610196,-0.1950659275193407,3.9942525927688106,0.5887797500537859,0.9688735233213786,-3.6020013116550455,1.118309783624957,-1.3073196888367696,0.8625627826309632,1.5298203105553734,-3.287660941860203,2.5202164779260816,1.3395949700450399,1.6084240848024454,1.3924026154136887,-1.426285486845206,-1.5134301538185984,3.5047590249878937,1.8751070093975396,-2.7343853189501905,-0.8285582182924232,-1.4862156292977398,2.0413664033120364,-3.373235426676178,-3.9531923244495479,-2.7742642447102225,-2.2554656357565925,2.251994241439337,-2.3184177103753997,3.965561242241363,2.8691619862331958,-1.9440171672140512,-2.4171179757290099,-3.334894674255117,-3.150226313031329,3.585442300317487,-1.1126934038623527,2.6317983078010496,-0.3377530234959307,-1.5573105047310279,3.1808337214621167,-1.738146664164347,2.343241614078817,1.6278781229363109,-3.556181208885879,-0.420195239320333,-3.7548733418289474,-3.7768341047657536,3.012804295803189,0.5145690088676078,2.577523315264319,-3.035964690413193,-1.3784675961456837,2.8472788732140348,-0.38282045101307729,-2.090154229584231,-0.8278364807113592,1.104981333461283,-1.6298747303609238,-1.159934446833181,-1.5140571889528554,-2.218530943351797,2.8189193676858297,3.5552352710536647,-2.212242881704519,1.726706101438955,-1.915674251839693,2.5715462060286535,2.273963504664681,-3.292356280013018,1.2094831508173015,-1.3527796894434426,0.9249151667339062,2.760246285233378,-3.036307633802184,-3.045282155280141,-0.7831859153107905,1.1640100717355138,-3.9951619018440667,-1.5986197896747856,3.158856849112764,-3.4418071171493178,-2.0154233897406419,-1.4989897528390744,2.8691041387926745,-1.5793783711906356,-1.3135493797159282,0.4634112526025982,-0.3772951589997655,-3.241034508628969,-0.18537940834274004,-1.14795735829234,-1.4412044583742976,-1.5643178287016329,-2.7734951523560467,-0.06244039375725463,-2.345335606275139,-1.4125170527259615,-2.7195336302400339,3.1205381884919349,0.684067271051437,2.584092406639062,1.160258792566415,2.5454284121952339,1.1518636916659606,1.1588583649441314,-1.0344299029871882,1.1895608001361664,-2.242076907255834,3.0382445609883854,-3.1681421143548098,2.7070448898705505,0.20914489400090464,2.232646657286347,0.9367228224956534,0.660165934588246,0.268609415797906,1.236227056547854,0.4069400250106341,3.314366727469279,0.1673720089951134,0.35670881085289088,1.1425795018443328,-3.8681924987075559,1.043974805262943,-3.846819327340615,0.9548165969953759,1.0475841032421745,-2.493515260170857,3.330286146034976,-3.593703038604377,3.549900317982429,1.2514103025392159,-1.1727490359942772,2.95149046673279,2.661452795449363,3.2725954462070865,-2.594713807820785,2.1271889131243508,-1.4534650768403897,2.037881820865163,2.2897655794684956,-1.3250697400647374,1.7532641309362554,-0.5609265461656676,-1.7605170836651292,-0.7225990199906514,1.6121999114995749,1.8160965727914578,-0.20663784868089953,3.8036610871433789,1.4164611956746268,0.36878795701008118,2.403612598843061,-0.8423076571546135,-0.6397470493662569,-2.028947764347609,-1.257880175456345,-0.8579227071302693,2.642434271087848,-3.212844388280164,-0.9068067682249978,-3.844286272494301,-1.746063165036581,-1.6881102661456842,1.2638388999432176,2.34694965133785,0.4030633428003254,-1.1884221225072643,-3.615456807681567,2.6969720443179856,0.2551811863809679,0.21204829000745119,-3.3330864742301289,-1.3157723504248867,2.520215531683908,2.140745351114308,-1.3874444232468255,0.8298870363222406,0.42283601744577839,-0.144474080999343,0.10704719211421754,-3.500591529475386,0.40414032411120096,-1.4979655228304978,3.3731451556737799,1.7577105095870734,-2.6855318397988805,1.5516098584187557,2.59170806026302,-2.0058112795606517,0.8212021767227835,-1.055704041371273,0.9041957285259281,-1.6447442564332234,-3.449748978429997,-1.699218944215322,2.092521792365968,-3.982199450078176,-3.829593715610872,-1.261713487602468,2.342499685050007,-0.4520978335410233,-1.7452595754505327,-3.828027837693562,1.3033098674115858,1.9083795322723845,2.50389838227676,1.1366211496749639,0.8060789012128709,-2.066332840313816,0.40570635282366576,3.6322276512840965,-2.580769979763109,-3.2708401859131417,3.0982759750455415,2.244740841705462,-1.371085881683455,1.4222728970277166,1.3924273989452614,-2.4854075462163509,-2.850422049266373,1.5533675418100304,-0.9731757895211608,-3.9094231417529556,2.6892329251522124,2.641199008955101,-0.14949781123791285,2.144015120425526,-0.9977338737247583,-1.8319990597487926,0.41253123102161828,-0.815717659451545,-0.6892595468518001,3.8797885225722474,-1.6899090652827323,2.760260882444059,-0.4699415208673494,1.485178165968617,0.2256622094293359,2.9846932683877469,-2.1586977397666109,2.581016706800362,-0.5309967149946984,2.8874716640730009,2.395770297874969,3.6719643005231257,-3.8967159045155945,-0.06554521187076845,-0.31752348022337908,2.73935765343733,2.6883328886516439,2.507700863725706,1.2367305987900439,-2.4785787930359737,-3.5001208294888359,-0.9426792116084268,-0.6138083485161159,-1.1719944346105936,-0.4909875530681076,-3.637679888288962,0.17130010113527129,-1.1388449202849423,-2.9909428086607008,-0.1860359508932934,-1.4737715601017092,-1.7661965647413747,-2.2537704760979819,-2.4809647106396639,-2.3672249129181006,3.958208294514356,-3.9608244049109615,2.9428106812671306,-3.807744787822691,1.0006909856055773,-3.9652698952599,0.8236044730181993,-2.955050989602565,0.7794848147643849,2.588396829163508,-2.1386889826023847,2.5756033001556206,-2.338398153303819,-2.73364867486303,2.942862634501621,-3.688730578519271,-1.996145269872111,0.8432634076487604,0.9855539561569637,2.5072371465506695,1.2661147581531092,-0.9131203306888205,0.6832955435294883,-2.8403015301303418,0.8817614530406619,0.4005274558319263,-2.3626330803701025,3.3517082098439827,-2.553888747075251,-3.1592929089475847,3.89285787242153,-0.8395570189699753,-2.7048877687255929,3.3226409256486297,2.2388598052048325,-0.36976052897568048,-3.6167906194450856,2.900469935608891,-1.452659835613603,1.397987197582049,-2.8435440858411775,3.4099245613518249,2.7692670302708874,0.35805204556293548,1.4493579851083105,2.8747871749476996,0.5914334030633368,-1.1488250798222757,-2.056955002225349,-0.7016918267430532,3.136011468951142,-0.564740971285044,0.7028538256898713,2.110062722427715,2.323805839504751,-0.9772475458115055,-1.6352054740000169,-3.517731254888652,-0.091206898676357,3.338669445781264,0.8481883581954479,3.3166804246698744,3.2895424716725136,-1.6490656693423936,2.902572817047557,1.4828710097913609,0.9955246653765197,-1.1627318704404797,0.15876549537815699,3.7136139375116814,-1.1462459183417587,-1.5409772898383248,3.8653294747383368,0.7702039300218688,-2.442266595000649,0.8125218771004015,3.3439316352469117,-3.734246681557986,1.862911451065493,1.5249950278969138,3.1494036695004237,-3.6026161402089649,-1.5726078529075312,0.14927081741324067,1.1167927661311819,1.5237562413636825,-0.8214384106449104,2.671647164889202,-0.3138583631647427,-3.1890107723741689,0.7260030897121723,-2.061713710471837,-2.1896430947967859,-1.715967246510704,0.6415130593480924,1.5449502830796727,0.1345200923595149,-1.7657996578362623,0.8235935819927835,-0.5547254769131162,-0.4283297750605346,0.46156373416538179,1.1852052660000166,-2.877208649892234,1.013099422552723,-3.3470520545405906,2.772607906471899,3.2568822074040897,3.087796765722781,-3.1554755059025698,3.1770554525853695,3.2736696850314486,0.4011090713105263,-3.437892321023215,-3.529858921621889,-1.2832211311429616,0.47630499843986398,1.9964838706259807,-0.07299986101853429,1.462743253657572,-2.2375369585602105,-0.6968857689886272,3.3762776631533368,-1.5981855458793748,0.2703389068058115,1.9554649280977615,-2.17070247033349,-2.6724777279356335,0.9794089109769795,-1.566060624667456,0.7120378989971838,1.4928126418292154,2.8003247646863107,-3.2254828569735549,-1.952691347373002,-0.15314827215144523,-1.5587834736164974,-2.1683343370432075,-3.398280050258605,-2.008680179108711,0.27872089466334418,2.5652453604627825,3.341806817877562,-2.591714699072753,0.6091433568727478,0.5614821164077926,-3.4254723355145275,0.8011857386255317,-0.35733303620185899,-2.084054768164062,-3.194406412749503,-0.2741493794494565,-3.3032192439477789,0.7187636836756344,0.3293893521034983,0.9091513761398336,-3.066145000194986,3.427510383118066,-3.3106103867713676,0.25626479261495396,-2.796602852180844,-0.6335424856814482,-1.2156486958157285,-3.2253380575601655,-2.222657942784654,1.6656749428227978,-1.4362986859589422,-1.4153838830209456,-0.2771545912968423,-3.382252239467956,-1.2912590208341924,1.5569516780797024,0.5827202717261084,-2.680507101286384,-2.25612322430462,-3.8351958119056936,-0.8871779263326352,0.4864336129165192,-3.4651441662461668,2.1355964221019336,3.915132829224782,3.9712887067779318,-2.051623117664386,0.39219752873815319,-2.715048315727806,-3.7269562801936679,2.1364713385936628,0.8830833114994494,2.6643095048998646,2.469537904063034,-0.47735481801094439,-2.7800341349516639,2.4524849557325307,3.792802743903385,3.003691406391324,-2.1060000880666447,-0.7926578131413393,-1.6920811581168478,1.3125033082361615,-3.697475482096884,1.1235376101365323,-1.6427929038980785,-2.3521215218038309,-0.6691977497308039,0.9186825259929794,-2.0365434017692287,-1.8800956558328806,3.521331915387081,-1.3396912755161277,0.19924739271680814,-2.5355709880598527,-2.6512661705692066,2.6467138398796656,-3.290818262480749,0.792134899480665,-0.5081643678190053,-0.5007587976980501,1.1720170409356854,-1.3928850442423962,-2.550278270880499,0.09089964940612916,2.273609733831483,-3.9946384814089788,3.316646919143164,0.09378881019173324,0.39645306901628798,-3.3201013529491627,-0.3374884801238116,0.2781201728083831,-1.3407171893531318,2.330610705089872,2.645846013395362,1.0024509218777649,2.398812061041159,-1.1831632342426018,3.022094626839948,-2.4064083889447964,2.588960300864029,-2.3652167737941278,3.379465199876993,-0.025583323933995096,-1.4924370954155908,2.087422572545483,1.7452622431430589,0.7723938023571142,-3.6694265447511675,3.3734243083568016,0.14068692220555957,-3.849012561941901,2.5612795787408118,3.0275130743495985,-0.48800604265285499,-1.918544587025529,0.09611141223382891,-1.0813720727055428,2.901388032380562,2.3971278714648065,3.0545863938928239,-3.695292629209309,-2.3698931138330208,-1.7158572748132768,2.248736913591488,-0.16245106252736697,0.5718121480094691,2.9339125140741144,3.384174023016432,-3.182481602609874,1.4597438040594737,2.5653442384754614,1.0668392067991999,3.987559573771505,0.1883862127245246,-2.5301474253465097,-0.16182360169773259,-3.726017675482499,0.9907188259706246,3.558221649971447,-2.540119762717925,0.40138335647471648,-2.4411872862452697,0.5813172804317741,-1.9497033042251069,-1.513198715170546,1.5357853917039144,-3.05004597125209,-3.229653233933411,1.7699688762851303,2.196722460193568,2.8703315621443608,3.6718650874113916,2.384835046128206,-2.7377025231002936,-3.6204380821908277,0.9399877157447945,-3.0050693889483286,2.733076322636448,-0.4133838184102905,-2.1054062788553695,0.37715336709257665,1.8769339943573256,0.02235142927707301,2.1327487552881649,-3.5723759058137656,-2.6980901352881947,-1.1695084029383234,1.9417250505302919,2.2977912440462324,1.053421288542153,0.5919019853112291,0.09651513555670466,-1.6940519897854359,-2.738813795675183,-1.619430491570659,0.1533134238735645,1.649631864316559,2.4855929327695867,-3.4128065116348686,1.1445072749343935,3.8691447800656819,-1.4074427148677649,2.2956898808201204,-1.0782608950438276,2.4591361910365405,3.3655963168028109,-1.0922171438023112,-1.1980907189396737,-2.389618203928137,-1.314427571979525,0.80681743464657,-3.6010007229251608,-0.8960541202781949,-1.5319929847538132,-3.407136148497422,1.3409285002757168,1.1165768327745847,-3.0198361770906638,3.8563612962551447,2.958277980833498,0.3812551463555973,1.0954086302062419,2.941405925677506,0.26335768943747075,-0.459233627718147,-3.2116487941097269,0.9352346383250145,-0.4987248330496623,-1.4536269988968618,3.7936068809455856,-3.210911977324071,-3.324542242105629,3.0180521925714816,1.8569092808512489,-2.264683701301088,-2.5392390945780276,2.75651772624294,-0.8514882206527874,-2.0536734402627596,2.5744394536101184,2.628400705020261,3.588877983991427,-2.544406208925797,1.483848030715066,-0.37645316633257078,2.882854370488496,-3.7585193143976145,0.3300960238806674,-2.9142216144421697,0.5404520610005692,2.2198653573047455,1.9473423490112812,1.133883217667269,2.152913813579681,0.29508445779565486,0.27269719000883088,2.943066273889462,0.9426371179596833,-3.122419518282017,3.401594669113922,-2.241438204776859,-0.055502068992448808,-1.8365774960885906,2.8812342987663088,1.2509488296683565,1.6740888103305079,2.4044310566693438,2.4464491130174386,-1.2769008869126102,2.8420055498861966,-3.8922379747254078,2.7124997239891686,-0.3911663331732447,-0.6190304665209114,3.4311985658479315,3.988301961811156,-3.089145843787401,-2.0342967713426587,0.08149569098987808,0.423121933809643,-2.448801507066454,2.8218429060050536,-0.8383568420540017,0.35170203139607816,-3.771372648406725,-0.07615024783517144,2.806809151385959,0.6711762565881179,3.1262112105129367,3.296186439630195,-0.4557307881793997,-2.740048653163033,3.8281901711646837,0.9542235916717461,-2.6641140199157258,-3.185440274491378,3.2086588975402297,2.98412059334568,-1.4242716835169292,-1.696541304863814,-0.9766123901615009,3.7410151556477517,-1.5575445695739845,3.8513019287651666,1.4424891435046706,-1.3310623122426309,3.187707956746486,1.3739025701611399,0.2533242525499322,-0.788894032077369,-2.7493135323428197,-1.530887050719386,2.884628259764738,-3.2794091233388569,0.6173690860914789,-2.5673039470418486,1.3102246437130872,-2.040148857768388,-0.17848690936685486,2.7012253406920738,-0.27571073345496269,0.13378498130573747,1.863179555095801,-0.24045292516569373,-0.6388476549822713,2.6563063096587138,0.011226316033009276,-3.5324132825551235,2.217418462988695,-0.8629045318128983,3.707824990164098,-0.864469112400811,-3.0849582929883434,0.6728620217913877,0.1019091701145225,-0.6158161432925793,1.2236399923482609,3.775311217612459,2.998126635663419,-0.7578004167024057,-3.8106093523316009,-3.299183162239798,-3.887749579563688,-2.711982588586446,2.7233845066600335,-2.4310525294201854,-2.094784588273722,0.3883635894477546,-3.26797094047397,0.1062824502577353,0.08269339601632009,3.4731031552517299,0.7897606329731719,0.6834403918974479,-3.4766220431115357,-1.5737495916184766,1.7580677371104914,-1.665663934491901,-1.4924203544844633,2.376606443454196,-0.7365903979162687,2.922806831743417,1.3035852846220149,-3.568605231197508,-2.396479607238751,-1.304631362414871,3.4194039224511059,3.6939492490454768,-1.954930341871172,-0.054384969763922267,-1.4575272906058688,-1.067832764037078,0.4698441302615537,2.830780298308162,0.4989781188161331,-3.107212203567145,2.07690887083674,0.22313709762162405,1.1634946203702406,-1.0668309407477983,-3.307361993835582,-2.4771285895162578,-0.8326540864537746,-0.5743773719743233,0.9394182267462314,-3.138506606075495,-0.9467788176199425,-3.470054330095154,-3.9660236722726678,-1.9257523493550866,2.8662477579928788,3.2243536071929519,1.2441373133123249,-1.631637253693686,2.134936616713783,-3.2298603062342297,-3.3026286450086248,3.6508776718995277,1.04438651969694,0.3868827085819362,0.9596274758927708,2.527229961797402,3.902861699471311,1.3387776353259727,3.4253260233897055,-2.712276440417269,0.15368153909607597,3.2766435402988476,1.072439087579066,1.5567388619795715,-3.798614356631253,2.2238857410950096,-3.175417145654988,0.37950524362868079,-3.4045278261827009,3.616211709107364,-1.657810686382996,3.5192183715634925,-1.824409233223012,3.45217689749441,-0.9572774859980824,1.8115531976277338,2.5624428944967105,2.0338517210710007,-1.4160032056796866,3.8614679491658867,1.194730471393897,1.6980317729268207,1.5989699379582608,-0.7517388991683236,-3.875026756869084,2.254341656846611,1.1611363242351658,2.49977554138603,-1.972073882445625,-2.8441422479095195,-0.1879249638540743,1.2733997332105372,0.030845771316454497,1.448942230753734,-0.14676511933443082,-2.7386533177334337,-1.5404368895608996,2.256087204490102,2.1829657411847398,-1.2760607636415354,0.6741433467349243,-2.5075671511611388,2.5038212037755755,2.170462763546036,-2.2126131981754355,3.5721128960796646,-0.6586881114477858,0.10266001109887846,1.516145490579114,-3.8123049358450915,0.011652029841114242,-3.2319420417184876,1.9143028642006499,2.8437809930922137,1.6879956019948797,-1.2443604049351116,-2.7224470037916195,2.6306728757743667,3.7883739923955508,2.490495300109564,-1.5946400597193853,3.907325055773052,2.5351068784298258,-1.1572183646735397,0.3613156523459349,-1.0249050106780209,-3.7439583754804968,-1.5245180847555098,3.5431638785327568,1.2017034904385993,2.745235900652551,-0.2745626211854697,3.7287641434763589,0.3965962234031446,-3.6932285693603648,-3.256561187128005,0.29802668733694839,-2.9921855001030428,-0.3077035970735691,-3.280560684708475,-2.019616603288826,-3.5240312885338325,0.0012089322237587297,2.883470663308997,-3.558936221065122,-1.955311492341285,0.6180537711212972,-1.9537102149561508,1.7983383728200089,-1.7707745458262246,-0.5402191179696081,-2.179353586822346,-2.291212715534269,2.9346770435415578,-0.1558784051751212,3.672265057962898,0.13950087002942802,-0.7387408979140877,-1.3115302539909069,3.6424938913844455,-1.0109944405145042,-3.347912710940813,-2.5578067155724009,-1.6780104302029353,-1.1876368164815077,-2.7020525134006458,-2.9932592926046537,-0.8502144989025278,2.589033615018776,0.5798615007309804,1.7253454352653784,3.844329377915132,-0.5212986670170794,3.546956856269129,-3.4511401689588689,-1.0677116587390172,-3.19149348355242,0.6775091862542704,-2.9856127173255979,-1.9180947899482115,-2.7118162115819457,-1.7418877895514662,-2.6898716971759546,-3.6104945758002549,1.0994178564274347,-0.016202795333638999,-1.8707754375777324,1.11030064829452,-2.3691460766956586,2.426181300130418,1.3130454987784815,2.4913943457124407,-0.3113411739777794,-0.7562268155558909,2.0426211577833595,1.334807209086894,-3.407573825468493,-2.4964608494875586,-3.8638833387023725,1.6116947607514716,2.9253357054729935,1.9040119643799534,-1.7671909377602957,-0.7967556666725386,0.1710074785151079,-2.8529088984456605,3.443338754596743,-3.7093170607883207,-1.2824397847644216,-1.9814099897837439,2.5266103203900478,3.933351071112434,2.8731629190072507,-0.6415660829284529,-3.6508944524174327,1.8513529342723772,0.554758738050368,-3.4394113757286526,-3.165693705824906,2.6732750976958075,3.5042443609786328,-3.5242962801495585,2.597408158678837,2.6228386146753008,-0.9256297689773889,-1.6978497811476723,2.6842810472175655,-0.264362001415253,1.3233388635992114,-2.1729633926375966,3.6488550641013406,-2.6600819224123626,3.2480055642639469,1.106893739144443,0.5914890486597315,-1.9473134135911486,0.47315774335340779,-2.4567172956004326,-2.209884238122501,-2.708275438349765,-2.2980840784870244,0.9960168882947835,3.354034675068709,1.1051133637315945,-1.3865539827061966,2.03863488779868,-2.829614658919744,1.0204576052369508,-3.170266392099469,3.493661203647245,1.438019966275914,-1.0997981986819403,1.3092806065018153,-2.3732336124902835,0.05053347250819051,3.068227439517001,2.270635294517966,-0.10272439684270096,-2.6377105914068297,3.0215870192956038,0.6960044917500969,-2.8843263885480328,0.23078414461503894,-2.809531622505779,2.5193548227615167,-0.9572204246351321,3.924402522340139,0.5393229460876023,0.01542688676304671,2.692148944130939,-1.9247171799750245,-3.896052031384939,0.3776345850392273,2.8213927235795959,-3.139443853783293,-0.612660526291114,1.8172262401910296,-2.2184831371037925,-0.9534846607815162,-1.9907565535234238,-2.3569644510624254,0.9285535004927006,0.5160136568940974,2.1813753728416085,2.0597331403145686,-3.1179862994018778,-3.8681123679934714,3.2785062808072578,1.7768476282738935,-1.9800583602993689,2.2031485833249606,0.12687145710388493,-2.7786489103030549,-3.6491096901225417,0.91775775697021,3.0278688214298645,1.8403919964147076,-1.20666184599723,-2.920668589586292,-3.222482407606573,0.3958362415797261,-3.4961158713285886,-3.146941412235879,3.6627194884736617,-0.6352007852392934,1.0854411191675935,-0.17675123356182444,-0.5018169360966924,0.31317485742868636,0.3762066813232421,3.380131138440782,3.9544311610045517,-0.26646178929367006,-2.9582695315529579,3.199512545913646,1.3654759871637766,2.6360433760424168,3.7408909887311516,-1.3240419795483456,-3.089106368328192,-2.8483025404620987,2.6812016802683216,-2.5677542871432639,0.028377446571766997,-0.6719872848256268,1.9555430421418195,2.37218847799347,0.2131004592833321,-2.2949951406011825,-3.6527822037931338,3.4692099767674264,-3.505860500346097,-3.7867146815232175,2.853379638716751,-0.1652038824006914,1.2154369610309824,-3.709150876029983,1.5509188657445563,1.1775731559622678,2.0656958370695079,3.2860307444946175,2.8802083256568737,1.2071319843560913,-3.7465059498900947,0.46683712928305978,-2.5492600420655995,1.3713602813810129,-1.2349950282004339,-3.771683787292856,-1.6386086952853259,-2.810636370095172,-3.00790771299173,-0.3425722472028614,2.9959557793131337,-2.386628029083533,-2.065343627544709,3.1354367661018029,2.70443645269928,-0.06562066615454732,-1.5152943229867584,3.0006836169694779,-1.0895474429703176,-3.2868630411061297,1.5826785879255843,-2.704044463969554,1.2645135984978416,3.2731578937873406,-1.062098760257747,-2.1111853753966169,-1.6272205590610299,0.73261422453895,1.7793768132715143,0.7513905217701344,0.9267270869746325,-0.32593333103718949,1.240317399246921,0.4207694851865522,-1.9016505165285365,0.9677287164338573,0.8181859799491464,-1.0306261560369308,0.7716729274460077,1.0128568971208552,0.6298188319855136,3.43150794817468,-3.8149068449557408,2.4262620160508305,1.0913793590163206,1.309759896980161,-0.9420694090777424,-1.4442667236247056,0.6986010294145695,-2.2344177692317865,1.3910773499640028,-0.5921684379313559,0.4181372288891918,-0.8797271417920412,-2.5013861729788289,2.6996862264198207,1.9847620847210364,0.09260909916351512,2.9379111024414659,3.007321236433002,3.2255400571049437,-2.5046664549228039,0.139307755436187,-3.2238601815830068,-0.3973463184596755,-0.22956782516066544,1.0300838872124177,-2.577559357794181,-1.4509118785528286,0.17757724630663319,-2.2008481631402327,-3.8391407016787806,-1.689255709845522,0.4568938556425861,-3.9513734261808066,2.474909145653873,-1.0887485679721732,-3.850368918144345,1.452481153807164,0.7092496084168847,-0.2269279286020771,-2.6818163967338846,-0.05606291398337504,2.3958760686977236,3.2941671179722675,-3.215412874808502,-2.081563671222936,3.1019685052951164,1.1526911054035934,-2.187962960623496,2.9102796162055757,-1.1361754335073278,1.6953572945055156,-2.91826902741,3.714702651440885,3.561392577319517,-3.766028793814277,1.106120188263647,2.390596347002009,1.9024105492909147,-0.26049938712406575,0.5962375350414968,1.1810296153953655,-0.2924408282850417,-1.3321748616982259,-1.3084749923102158,-2.8957939575109679,2.6656011934470147,2.7213439666646419,-3.0060765799798556,2.381795699410941,-3.1432130306899586,0.3517603579755306,1.3417255728700495,-1.7585741172046754,0.40685676914019455,2.8565590078040925,-3.4412829162296054,0.7987554160495796,-2.344601225276934,-2.438993314488104,0.035159850198794199,0.04969060494435418,-1.4660562143549019,-1.6291817185708769,-1.531778324575149,-2.3092542543446479,2.5294637935857517,3.1737570145969498,-3.9631046454539415,3.3504387045372274,-1.0139073061697337,-0.2603679189232677,-2.3861970981753606,-2.8346425808131459,-1.9982444424042783,0.10478332129660739,-0.09983912395509442,1.8036497091331656,3.475473064290939,-2.468148544150443,3.976413569421105,-1.659964093560033,2.23337813148244,0.9721760009849216,-0.11424683613431164,0.04520424386487498,2.474798161449388,-1.0297582321147348,1.8779880416903608,-2.7136745417300229,1.1591776933081369,0.36621329652828207,-0.617735858095001,-0.7760561989489891,2.53253144786299,0.8152300708046623,-3.1430625725225669,2.5593103046102607,2.5095716453966965,2.013303324845441,-0.30515557920895999,2.5273107311474565,1.4916061037954354,3.280542936692724,2.765069199092834,1.7357700973258919,-1.4705244584930085,2.3053362312357619,-0.30317814983452609,-0.28129064047899079,-3.7652987676712765,3.428190570129418,3.666714492508823,-0.637220303870784,0.20565165742979819,3.397425744245802,-0.8191245874630644,-3.3252971952049679,3.8201960175238298,0.16145509589190078,2.824693540710567,2.0002115716756707,-0.0896018573325561,-1.10202384237604,1.6516824415136818,-3.4262438656301938,2.878037185454531,3.4437993422361679,-2.3934910654189789,-3.6276342840006485,-2.954850037210621,-1.314186752444485,3.5917366860775079,-2.8824640646591614,-1.8204078463682352,3.5830139388037445,-3.749099151804349,0.23057276401612193,-2.295860383294782,3.1536039540805227,3.726610107923091,-2.9729338232752635,-3.8068847920566517,0.472918734141591,0.8175201938428423,-0.231238152933271,2.2756551252671848,-0.5373827351764602,-2.166813970547219,2.77463946962975,-3.297747724097782,0.36542104530251598,-2.3281841310786497,-0.04089526240404262,-1.798933415465594,2.755506738409556,-0.49356666325122769,-0.9495611739826855,-3.7338187522153696,-1.8413467869866569,3.205670117471602,-2.6017520015294908,-2.5296032789591917,2.1629921747392135,1.1957988271678142,-2.7129410121675674,2.5452364864613186,2.408418257920129,-2.79611725927969,0.5209794603847158,-2.6532278698326747,-3.622254314683751,0.342555379131932,-0.6407516783765068,-0.09332957532103326,2.218017921847154,-2.3195066086068145,0.7355504280666647,1.1224458368727604,0.5408692657531633,-0.7119231541877804,2.5771512405486556,0.041897513503436737,1.313908473165255,2.093847951556773,0.4724874834910473,3.1171648098227227,0.37059494569384557,3.2240966377215836,-3.912873373695838,-3.410123103999946,-0.4432434738789075,-2.2873657500407189,3.1078984180521296,-1.5437103953138765,-0.9181139305279924,0.27413016985989815,-0.09384628778684778,-1.0094538285025739,1.2541612345278317,-2.5834302073065844,-0.1414380521550349,0.29261522233304318,1.9219497289379346,0.7349758089737355,-1.9484071315266052,-1.9919976383661196,1.7770733900999823,2.4931887181886838,3.240844865901418,3.2247374170929108,-1.32972915757514,0.966674886317703,-1.598426978487957,-1.8248509079635403,3.0990056377117485,2.9226604388127885,-0.8174486023214234,1.0558276329560839,3.8385126315063449,3.024624979541711,1.3791446908496444,-3.6142332692363148,-0.17987109176530148,-2.349171182619054,3.4976179670899807,1.1939947228074229,-0.9933693807115243,-0.3804363839729641,-3.3420297152952527,0.6841821372277082,-2.6513101570617279,2.6737425338672837,1.007637157285063,-1.2244741941192175,-3.786194559231271,-3.366942257579594,1.848001620935686,-3.6048896935185468,0.7157947625177883,-2.7774981451258515,-0.8441258836609469,0.790468013666322,0.2035560334624673,-1.3520508402438303,-0.6769922774929134,-2.97887737303974,-2.2842546609427796,2.0039996089663729,-3.161761032080183,-2.9583313159801616,-3.2128235367264939,-0.667046523192276,3.415004230163542,-1.5424445786765125,-0.4413620352097196,2.4580518588481867,-2.3998965786133539,2.0325508830179075,-3.7029970869014194,1.7779050134340118,-3.7744985506377626,-3.4973473686924345,-3.130976618785331,0.028769522051847575,0.011015835749001113,-2.5268317665599406,-3.1587474003884106,-2.6097935002235657,3.61545030298989,1.511280895899282,2.3892921375394398,-1.775541967884472,0.56397390162513,2.3686527381207638,1.4702920438277004,3.1319958084450949,-2.385550968560266,3.462744543802602,-3.334235912105769,2.980375231522559,-0.16133892113410454,-3.9346106494217034,0.002918862459477367,2.9698930279405246,0.8539986747592296,-0.7295308986286175,1.4220094488774109,1.076188654727516,0.7013569357470963,-2.512099429107213,-1.1182024402776252,0.32607234653001618,0.14652758689964519,1.4503877836123609,-3.5850709751806306,2.8507049324258748,-1.240068637849989,-3.0824205824479584,-0.16981781886618009,0.510770208566047,-0.5580814050548282,-1.473178389416894,-2.7927204085087435,2.8776318082381016,-2.3287411234302839,-0.7026595418429358,3.4054193936535,-0.06966774191882741,0.22730077763236967,-3.093020399601908,-0.8792786028186888,-0.07157034559877307,0.9104921740881213,2.216535408689426,3.8990566328382405,-1.6376603771267198,-3.1805461598622015,3.8835320722678619,-1.4217009812696289,-2.7455149028128948,-3.4948441074613125,0.29891261125404969,-3.9504560405815036,-1.4013619678085208,-1.4603586180961914,-0.9049706546708853,-0.2302458472220419,-1.7734571443970957,-0.5805466689963099,-2.487228533308228,1.1136505320134918,-3.604757002499138,-1.522690795805527,-0.04235260131400076,-0.16872982093110346,2.296155542064535,1.039606259355156,0.5876306197406969,0.008853676796800159,3.6968448703288319,-1.7236125380124375,-2.2790220523638808,-0.27505862603912259,2.903488525658857,-1.7127184769131779,-3.0264326445705098,-0.9909069640568988,-3.823880375869198,3.1326645701102118,-1.1515860778013654,-3.1869221391176598,-0.04833946498346342,-1.9392002973774379,0.720659739958494,0.5656863003138408,-3.0599165233607286,-1.441080817421935,3.466624602721139,-0.559478880641189,-1.578007931371829,0.003710026348831441,2.397648250133833,0.45404029700938067,-1.8771586613763012,3.041777463099705,2.1152703915308548,2.092042776466652,0.8684556623756681,3.7486566543984347,-1.2423531478100268,-1.0776355461212362,2.4338743555686195,3.00762411595056,-0.3610066519927102,0.0556707585283327,1.8158722229711782,-2.027981984965124,-0.7242771759861884,-2.317793354901811,-0.9747183771338313,1.4344649085296793,-2.8989120272437276,0.5957943735430371,-1.9784767911378989,-3.664465879436807,1.0647924396124129,3.968650906159451,-1.0192814710364025,1.9139201909570823,0.14880742904996947,2.6257024944385796,1.3340250522213078,1.8868434931463112,-0.5426708649860608,-2.289279170450107,-1.083676068790458,2.2241601241323227,1.3946329768369444,-2.3039788312344147,-0.7975401599230594,-2.1018873097339929,2.2473501600595284,-1.5749318790597418,3.8928948953065287,-0.4280541233155366,-2.4659021168999066,-2.273360015499197,3.980334854473365,0.5530002683407265,0.3002276897579863,1.7715266344330197,1.2294363231277439,-0.48889321094601026,2.599238162010124,3.313629987587176,-3.913851728401597,3.736158893378554,-0.17222440146661123,0.7610484966013384,2.3590628924574785,1.4257395166944554,2.8264676825056984,-3.19201931790679,3.2890752090392736,-1.7943955044669944,-2.607302762566948,-3.6757347647678726,2.4069495593905856,0.7172430448419434,-1.741238869621894,2.9195270528707359,-3.294655628879468,2.1760996303811348,1.496302297050497,-1.0572582899241139,2.222913516176507,-2.387900788363747,-1.2439684454134046,3.51154306126723,0.11770439621619655,1.6114625483065757,-1.876440060588594,1.4220062059512504,-1.2835165986250373,-0.8492420356486987,-0.47395802115184995,-2.400944798234086,3.6369935624104654,-1.858250997282159,1.1931036880689013,-2.558133722878422,-3.897957928717747,1.670826341656042,-1.1017757200509638,1.9907956460799437,-1.9687232305935412,-2.7378559942446616,2.061498990190139,1.3012549512182164,1.0566018933921857,1.6849004494401854,-0.4239103978951422,-2.7526735167520934,3.318364130292073,1.0649784165165075,-0.7851693117302843,-0.8947833664404821,1.037510041949985,-1.3866984517961605,2.5869749389165479,-0.7425545224759242,2.027678742982107,3.2084357061958439,1.6328886257243563,-0.5572369515591868,-2.6910251094981865,1.0646633661712848,-1.9845983845003697,1.9441045850819388,0.1614733009823892,-1.950413089689695,-3.791092734668811,3.0134774838733247,-0.6909343775893317,1.0104176251197928,-0.9422089786581198,2.7527258568772865,-3.989400527060897,3.153329160117166,1.4678504665475707,-3.3531638056460268,2.340162485206541,2.7126945772025339,0.4382848721962205,-2.173675290544118,-3.884127081407179,-3.6583830963867669,-2.1179377982523066,3.504926648147083,1.1939685252982165,-1.519474376169587,2.5169681326880068,-3.0947340022062894,2.371837317128203,3.292921845384126,-3.5193584397755419,-3.608719028588159,0.4863083293016306,1.9938389259779799,3.7725436166293235,-1.4167043669190874,-3.054040826123755,2.268760107397993,2.9581390479621509,-0.5126619287093233,0.44985529963187345,3.2258070888436469,-0.7514777779979349,2.682437188874909,0.05169417577227975,3.9472128425015517,0.05961672676493546,-2.6717937747033799,0.7939429687241244,-0.8889387177249046,-0.361419721996433,-2.775082082134281,-0.08904570438188153,-0.7958416797215966,-2.7531124172627319,-1.849863516290981,0.5805016593171022,-1.2547987417234817,-2.2400591814583894,-1.2048361599650628,1.1955230771617709,2.364247102589892,-1.4638243080458278,3.7131120880349846,2.860861621438209,-2.7999617009509158,-3.1359499294542658,1.0352845621804124,0.40500400811874029,-2.361884039015284,-0.28360614115459717,-1.418265918418121,-3.0211503229638536,-3.090489815024288,-2.3317565224497649,1.8134435267129874,-3.1471654505433737,3.4555661032771329,3.829803717030023,-0.8353016649435263,-0.21250111483399948,-1.1684469327329355,-2.129279162240846,3.5844785839523105,1.0095749527906675,-1.9329385616587099,0.7839595216681916,-0.7261397138219545,3.665643406540031,0.895836296245828,0.6252263744806577,-1.1078621181684199,2.184396915988338,-1.6804873585547036,0.8592001136346283,-3.3209751781166156,3.068112101929911,-2.4658530500477147,0.03978424455546481,0.24215167288415619,1.4002740073977869,-2.4299133479681629,-2.857310821058465,-1.2170047641816906,-3.4997717226611719,2.0458386645525667,-3.1694185321551266,-2.4752699484434625,3.5295203476103769,-0.46368384684736188,2.4407744926370524,-3.189021811014446,2.4272691418520848,-0.6649066774894072,2.8778408292687915,-1.4715509553782945,-1.1372446449794902,1.9865409017056877,0.2725536470890315,0.6824668568764771,0.3367366913952523,0.4433956209111001,-1.9842592658668943,0.1325582099577387,0.7698705205398762,1.0819821236097056,-0.8998954365881942,-2.1515363063713,-0.6263752529323894,-3.0429469074421497,-3.6640080167104749,0.233624728630482,1.052561513427845,1.1438813269842685,-1.2548426912402262,-3.085753085003182,0.043280507139366267,-2.53507441038244,-2.6504590157018628,-1.9997556033150153,2.690761458167816,2.8984481461602584,-0.1755534038529254,0.1836404623803798,3.0583562910497958,-0.6380488104197264,1.2883850900691699,0.750907420145885,-1.5060087973170438,0.05638874918976278,0.46086369385083528,0.7055210916188424,0.9160143962247958,0.6389917453056446,3.655941530797736,-1.5968771898016619,-1.1148963658827252,-1.5338798949410162,2.4129607363138785,2.8805468894555217,-0.6576662938108022,-3.9987269168786678,-3.1007836211377866,-3.1143699145826808,3.943439094737074,0.2683345868087752,2.699353801170381,1.38915247691802,2.1518071776003806,-0.24921355756267528,3.877805815690353,-3.7500309493710635,3.483748639683256,-3.5558670787475039,-3.076583156700096,-2.7984336432172327,1.5260739493437373,2.299567784534192,-3.761455966326678,1.4169735345837058,-0.26777563676766027,-2.405428466188905,-2.798242816361337,-2.0242797215327856,3.334639619284858,-2.6562668349551785,2.5695069022231058,-3.22027009956207,2.504332289105222,3.923189518111845,3.8405835567196249,3.0028896760050127,-0.3837138401108211,0.38413471355338038,-1.5706674156068437,-2.6481667193120437,1.9008717475006716,-2.6518151338052577,-1.459110549684011,0.7591144698061383,3.687369339198786,-3.6736617883926918,-0.6148323891362144,2.169847151219744,2.1524381937875916,0.7880713707456328,-0.9756229540083263,1.2192372887804988,0.20722458207157413,-3.9710698550917415,0.06439090060398023,2.6879385523666308,-2.7574754715565188,-3.8802872712524429,0.43707249870998679,2.7658891715262339,-3.834492843110718,2.2598724923359327,-0.12288712615381647,-3.8124000210774424,3.3221015915190694,3.750024021661961,-0.02730986434281224,3.2974138821922605,-3.561448813011805,-1.5666932592626815,1.351998030885178,-1.1183226730996712,-0.5587857836400376,-0.6062660675123297,0.3893285956528425,2.6278278160962795,1.3823125941652004,2.825866952674355,0.8855680216530208,-0.4601644069774513,2.39849171798614,0.6232145940773624,-3.8263801996268977,-2.517563368402371,0.48203729333565628,-0.13507608380283643,3.248289537623087,0.006810490957707138,-3.5426609582630146,1.7366514307200403,-2.4638047207160289,0.4819436089121423,-2.352553714339896,3.590557907740748,3.8459184210436607,-3.230466020528448,1.9012765781607817,0.6168242219727249,-1.5056301680170732,0.06635530720615268,-3.9246599006723485,0.2835338246524808,1.4471767928331306,0.3957257457200791,-3.3052853540788478,-3.0383493163084589,-0.01794664018935399,3.980627905190146,-0.08991890411447456,2.6707992480342037,-0.7481128796070224,-1.4172698832147415,3.6018992339234856,0.21065039134450726,-2.736681626850338,1.265905055675261,1.7816144758595068,3.7976332553128815,1.5592713107348289,1.3452454169448763,-1.6384734127133703,1.4214541716704128,-2.091456557327599,-1.068627245109884,-1.3635745007399037,2.04735934882025,-2.9697866339424907,1.903111127776091,-1.5673691895596598,-3.8985177731102684,-2.425859113524494,0.3105078038888349,-3.3027079890132819,1.523237057217778,-0.31569797297282689,3.2373584444576259,-3.2487624241211234,-3.753729828403035,-2.2503567505592976,-3.313361779451176,0.2846415684237895,0.9343987812270083,2.2402466272401808,3.321389975922153,1.9577425318911255,-0.9734285650821699,-2.9717123434162877,-3.768107152760167,3.1026506512979639,-1.8978102914947675,3.903286528942046,1.7883432911057283,-1.7395282036915392,-0.1069068861626592,3.1591302379442656,-0.6235325841568882,-0.5110199538659996,2.764672736959782,3.3303271746528084,-3.928664465897109,2.8587654950184548,-1.4596236695420347,2.7881593272480806,-3.810791394568869,3.2328782450716577,-0.4099899488930605,-1.83807600123838,-1.075742244089077,1.2874196302732042,-3.0526113473096885,-0.496768703164717,-0.8043603953011704,-1.1036650086992757,2.4813779896919039,3.931676645049297,0.14783311334733008,-0.05691860046582775,-2.7532968183687407,0.12021131142325281,-3.2626025079055447,2.392851662272668,-1.0666018723047944,-3.0346019886584738,0.6076671660844042,-0.3341645456698148,-1.5680715167291839,-2.371911898114985,3.6788244078928145,-1.8364549649606553,-3.3895553013318,-3.5972303092714696,0.5154308488276298,3.184578481871622,-2.0477966902643978,-0.49034127380318917,-2.114518693517762,1.246513365330622,0.29003159427669447,-0.018764886164447826,-2.150975695381714,2.0132944035661115,-1.18814800393847,-3.6995508710578024,-3.2865932765609786,-3.882701636724322,0.42216148406097178,-3.5295911113512039,0.14037321995619224,-3.646891361122357,-0.8427914108017196,1.6137211273877057,-0.8806192215697761,-1.7685529204320139,-2.8613548732562856,-0.21646468304451184,1.465000364631857,-1.635662723781392,3.639919758024045,0.19441175695549529,-1.215932009654355,-0.17917922010857646,2.159506734113103,-3.1479825970535044,1.5275918893278995,-0.4754894528318081,-1.8473220543406433,2.317880535609895,-0.5803356918177018,0.16603332096389335,-3.70141877532995,0.1416016975463954,0.6275070849255107,-3.0042830099850947,3.438315265839403,-2.9355787006754685,-0.3582591546067244,-2.1238800862993498,3.7918497488713447,3.667837151089979,3.307044147114957,-3.1938771105694769,-3.473220740521823,2.6584121867778975,1.8006333433649724,-2.009328512055177,0.9975350578342583,-0.8442410663369311,-3.6104175102838287,3.5168723509239339,1.2710541358307444,-2.305389052231863,3.4731036627523146,2.4642511715844588,-3.409643341153423,3.667985581007092,0.8446548527935764,-0.6456720676043213,1.30399905431317,1.5667172671696408,-3.7485464153700827,-1.0777341778283825,-3.507162792618055,-0.06265496139936944,3.1094188092311096,1.8091922345466669,1.9711928331310027,3.8159892438536175,3.867341967474836,3.2328209019199969,-1.0943202692343926,2.0216573613754269,-1.7438705182866415,-3.909919726087306,2.3724726117254075,2.738712764354477,1.4043786412824613,3.5673604142205974,0.5686896805428825,1.3817005910462257,0.8579908808332846,-2.1635620143613449,-3.2877783132684055,1.4926343458950902,-3.438770175364729,0.20387717075878965,-2.1513637501623696,0.39242534044898749,-0.5682395642565459,-0.7571990630274412,-0.7290909845786855,-3.8827019164390919,-1.5848730819544644,1.6731939132723604,-1.0779531902024742,-1.1301534507949525,-2.313338232015443,0.3376259693703645,1.7857801946788712,-3.474372349934508,-1.805704171514071,-1.3098309954598302,-0.9265026273443178,0.2643129502026733,3.530828598616303,2.8277758801713039,-0.23576779912468116,-3.5709630776056135,-2.2799814616064788,-1.1542814773356157,2.6250004997597635,-1.264089746733477,-1.0446449251578878,-0.45852177220491999,0.6931980712200314,2.5609429671459527,-2.1027118526170716,1.5854874704537077,0.007186512966718794,1.1564288098202643,1.2024385698347864,1.334198736230598,1.9055677055807863,1.9507327399242734,-1.2394095352877042,2.8428926733593409,0.7605814426375392,1.376481450581191,3.8388211957139566,1.5433371753281656,-0.71695325064165,3.2343596054047,-1.208455231356446,-0.26164303080522,-2.473658545259445,-2.1380735620071444,-2.0182847021451497,-0.544754382046879,-3.3331390260965234,2.9409681060402059,1.4632448553032367,0.2583517220866147,-0.723970557619178,-3.755877240214615,-2.2220962715373178,3.4898987013876079,3.6596756029932795,-3.403397719788477,3.384449343034177,1.5446193888340805,-0.13527802026215086,-3.477550848150327,-1.6401423334468382,0.865785521219407,-3.872236482740772,-2.1178133256315938,3.385033812728418,1.8341663993899218,-1.2928652026936237,1.363316996025783,1.7418110219686965,-3.0691445945472539,2.270524863424918,-1.2805300688573314,-3.7281369597961175,2.5678250168110949,-2.7724050618671347,-2.507804961047782,0.04343955365520902,-1.8460326915722083,-0.8170463586143368,2.5131970015675044,2.470334420343333,-0.34081971926705548,1.4887827121250208,-3.6523405821390755,-2.4025227499818415,1.5863580750250944,1.7656844180392364,-2.9104339949147208,-1.7180665364745763,-1.1388626233324786,-0.2420031573883572,0.5401247857492519,2.258047559894468,3.3259022649637419,-0.059369552277354967,2.500329765811416,-1.8931816219928448,1.0966996642052909,-3.8419908720686628,-3.5595798920691568,0.23660420787877357,2.672917164131319,1.8533050301791079,-3.8707143951543419,-3.080030113276642,-2.443390977679182,-2.0508764558319134,-2.050667486041739,0.050273764159971538,-0.8643739529978953,-1.8690504129324899,-0.8050522784977803,-3.8526772520455907,-1.8807705269342703,0.22988716738429283,3.782799224678893,2.550121271221653,2.2670714308832959,-1.1319354243675138,-2.8594167591880366,-3.4196162966386165,-2.8341705513156558,-0.21649036226091579,0.9687763906089995,-0.4145660508188109,3.9300926171452916,-3.614419863297215,0.07360960530834415,-0.6110588282584049,2.083351913641793,-3.1893206626641747,0.8888303541725566,-3.242245045761174,-3.8166295506739278,0.02176396259081681,2.2984196317256115,2.6457288756633439,-3.8307748559158485,0.48671480010786807,3.284714727367774,-3.3152936377810189,-3.9382486167731729,2.9256714728744459,-3.7343654832523427,-0.5388332924202286,0.5076395078085207,-2.7324296346833867,-0.341417409078806,0.10980574287165546,-1.9616968737848597,1.5010811018486479,2.383739912820345,1.1624389213926812,-2.9844635128291205,0.30957532711628046,3.449226200524115,-0.5249174301034267,1.5627535598132783,1.8265400166781305,0.391763715391674,3.821302544284115,-1.8038142672860416,2.744773384006204,-2.9368862734297158,0.45075295755789748,1.6921125828699984,-1.7434766496569035,2.738390028614388,-0.591118444993115,-2.7849718751298777,1.3845712933597528,0.8632130503358146,-1.508835388592507,-2.9356107646166658,-0.5358473487361886,-2.7001989050578389,-2.2795917880264495,2.9498891418518244,0.5378125515930554,-1.4669953708114614,3.8982762090727665,-3.7922573125963998,1.723790751876071,2.8254982923911777,1.724270600482928,-0.23795722898683836,-1.0199250005171215,1.6225370066770939,-3.3868768516858784,0.5828549104240519,2.9055052729569059,-0.5204644742534557,0.3478986804035875,1.2875732443159854,2.97727077321717,-0.9113966506789024,1.2605939282172126,-2.0383072055408677,0.8100489465839811,-0.9984187082849447,1.1018373330026279,-2.3095516278217786,2.429608470478346,-1.0046808099609524,1.1578157391599913,-0.9122111583497086,0.6123482501271136,2.045899331355818,0.24324539872638518,-2.8744479308439665,0.20437978929723767,-0.3753569412614086,0.43789779970270717,-0.6585883882887984,0.3032145685640737,0.20611010624468396,2.3739152823762126,-0.4123799654587721,-0.16415677398631879,-0.6078351810157654,-2.5400891956620788,-2.5163931363988469,-3.02634961702075,-3.1530870400959536,1.4485152198968888,-2.0820450696584276,-3.1533776231401235,-1.141113398166822,-3.1990540951812695,-1.3001799752006134,-2.6722607839195939,2.3271778415116897,1.225861456137669,-1.8030624024398388,0.47113382494111458,0.04892419706951667,0.7574629269495663,1.1561306647505055,0.5214960434894786,-1.943816635611591,-1.1467605520611795,1.9591100197843892,3.0654243007198884,0.41530300364640118,1.5162690064972156,3.9240419126082894,-0.4313194926610959,-0.1421042794785512,2.9766303910138447,-3.2330733174468166,2.294764931161696,0.981867082560524,1.605646630099253,-0.6171889761772009,-2.3205976399194467,0.6739096897862167,0.2499691777446964,3.4887407791457827,-3.249223867049487,1.7614296117634166,-1.7135898788699305,3.198869875552109,-1.794637527955212,-3.696237786660978,3.4535921651069039,1.5288971341553142,1.0123203201377696,3.1505911336835705,2.6647115874503948,-2.017699885409849,-2.7391824422748014,1.3618499429725138,3.7895891959958165,2.216274912531434,2.766394667214266,-0.5790117627530709,-1.5939337250199109,-3.4987409729854006,2.7709243949400754,-1.4908368879565215,0.8165651669080596,-2.039727069386858,-0.7751262050859173,-0.06999765371488542,1.752972364070815,1.212735727820565,3.8722775522800996,-3.315332470689408,0.45669915477349756,1.4692539395529752,2.410444876499027,-1.9264109022239664,2.4145380156403615,-0.9766589406642472,0.4860886918268088,2.620647859018514,-2.6178981832562098,2.6586594594927046,0.40470962413688307,1.047529533855882,2.477975224220395,-1.8085045722034588,-1.74930213481886,0.4568896076937934,-1.8587528661958286,1.1390003331432289,-3.5778682099583616,0.2948621430635381,-0.1988390171190202,3.0535247929102775,-3.320025711548217,-3.4362060271104619,-2.1958451848675617,2.7898465436965376,-2.046472871801857,-2.9559939603274767,-0.5150274763428404,-3.2509818650668809,1.5842986041209315,-2.070298608388165,-3.911258303799632,3.92517569384143,-0.8435237732094052,-2.738395377825448,-1.860600874120456,0.10473478678561144,2.5248811431532829,1.438606487369972,1.3782152453672616,-0.20673130658860118,-3.454970299506006,3.969889663253233,3.719195342509246,3.880597508696499,-2.4061250942968046,-1.9906028039334365,3.3308762970204386,-2.1520092402057937,-1.0234277433041124,0.9412500004717632,-3.118927927601299,-0.031273971924582259,-3.2562904113763588,-1.2964701116032718,-3.400249573244949,-1.4127161392510497,-3.911377427477394,2.551087528720301,3.992810551735645,-2.2314077547247628,0.10479453250320869,-0.1193809474422276,3.7583602250774668,1.9652837196568696,0.6421892521361281,2.1329619072128924,-3.713627594109563,0.09685519032344559,2.496414562812441,-1.2500402483008735,0.007768937633299444,-1.9196130443752216,-2.39857798085393,-1.8634508860755495,0.3464591760229361,-1.265384896917527,-0.7080687520391076,-1.6962374981144946,-1.1567889665381249,3.9786122391280225,-3.291214466456598,-2.481275264631382,-0.5592524221513655,3.4591083574855965,-1.969795640540463,1.713322502889345,3.5665548906386768,0.12130181271919849,-3.2315373414121995,-2.9263519133977358,-2.7223819896111687,-2.721140742315093,-2.5203739950414318,-1.464140709030696,-2.5124761888358559,-3.835876133155712,-1.451176675616007,0.46135179220988578,-0.721439164070591,2.1031718389040607,2.0260315668285218,1.4619104276177329,2.8811283021382545,0.7104010227249402,2.169028354719055,-0.8602463008690471,0.42691140632874716,-2.7853340180143499,-0.44821553764558877,0.19057056816647134,-3.1764726201151136,0.8791661903831223,-3.4225004340015969,-3.7499044053155154,0.5639709995652691,-2.3712527275903838,-1.6757803275995989,2.782115969391641,1.9057327968677838,2.052274676786812,-3.883510897385767,2.0795843251430856,1.1220632025611704,1.605540620350336,-3.1101843778232807,0.819300737862604,-3.6771054149776498,1.6428929450361114,0.502395547414471,-3.528683721494433,0.32542261228256477,3.193457035245334,0.25381208676593927,-3.592952765294438,-1.2415752102475819,-0.16775794222389174,2.882237754752243,-0.4177730854410642,2.1819385838458169,3.7198619702567585,0.17534159868885536,-0.3964601927401732,-2.390910175782582,1.5136656982682837,3.5209386970275888,-0.28487599156634527,-3.9895013302647239,0.4181425567312047,0.3901306681780241,-1.3435692585717894,0.4779528452100026,2.2422063426124696,3.6201201134808178,3.465156849662713,0.9998440168044596,0.3439017655521921,3.7478980569626314,2.089911894672287,0.28763832079481146,2.85149156904468,0.8249489619020318,-1.6721862722712689,1.5287296868794407,-1.9669424472241042,-2.8436995396537467,0.5618853253654077,-3.42922892081374,-0.8066025110662454,2.746441516546823,1.8068169887273183,-1.2496059025269236,3.1027694453416805,2.859593723908711,-1.1341318268265913,3.2462221714748988,-2.7273335881651468,-0.4039730166812492,-2.35347335933551,-3.673120013450216,-3.0830466303208858,1.0946039298554089,-2.848816697991446,0.8671260338301838,2.598663415502382,-3.101305170769259,-0.5754904783318369,3.9677887104691687,2.195862041055128,2.7120036211486875,-2.5060049454319026,0.85861811572207,3.9502379511762149,-1.6247092834490962,-2.2108720114340487,-3.8156097484528486,-3.5835923657617458,1.3331807772975824,0.5228230592777479,3.243175228772178,3.984153513950729,1.6582789894030139,1.0011919720239089,0.9379640328731655,2.4320925406911479,-0.043134686952509108,-2.1801685981039586,1.3007483482935874,-2.386164175291934,-0.617559549488744,2.870982017331505,-0.5579217985833518,3.1693292920172348,1.4590044935368117,-0.5695661541517085,-2.8176339055637786,-0.5770721192768014,0.24576029388799992,-1.4228857643898872,0.7847226072711848,-3.872401932291905,1.8675613903244948,-0.05464083525259489,2.4246817581211879,2.309533346764195,3.3555959987609436,1.3043345206895083,-3.126725105027174,-2.349524792239423,-0.988760495081227,2.3445377126997135,2.6126634738371665,-2.8200978616659029,-1.1295990184159904,2.080817512572245,-1.8111124801193297,-2.266703074691481,-0.17894655187982967,-3.7279728230850859,2.9293423842296306,-1.8847273877813855,0.8393961813499562,0.8400338198655986,-2.0232986037150377,-0.07947649903589227,1.593055259686512,-3.8390141248390456,-3.381047346182762,2.4654423473980495,-0.5975627164826189,-0.8095091310043205,2.0005390598180554,-1.092504733037268,-3.902564250140057,2.05783399039355,3.9285360954153809,0.6926785286191644,-0.4712379403787619,-3.155874768151686,-2.0332049374969207,0.7324184163191365,-2.014625835942142,0.8754837528675257,-3.732483160795942,-1.262973078773591,2.1784032264097199,3.24530153882126,3.7357109276553368,-0.10049777630016643,2.1039992581809248,-1.2110489943760028,-1.2823237204674838,0.7343794410321696,1.6213909931628213,-1.5061618407150255,3.977790096451402,-2.343981191995457,0.07096702129086907,1.6451525658604754,-1.1463699869529043,-3.284967761923162,-2.03393099561269,-0.9491110692439193,-3.2261458053062856,1.552593878874089,-3.836621460722358,1.1451636468259415,-1.4570795736614946,3.1806824256044106,-1.223491618986648,-3.9383700949350866,-1.1496367127221135,-0.1933475887956453,0.749062349213073,-1.8912382171162748,-3.143279689267164,2.197394597461437,-3.5633520202761268,-0.4532038943633925,-2.236404152979028,1.976198956793569,-1.1213181643816464,-2.0744575814357457,3.9277492999539547,-1.734008949747956,-3.917803837200772,-3.382510306634762,-1.6712042375076182,2.8229087526409009,-2.1065917258939059,-3.872988136958517,0.34232819659151217,-2.9806188711385905,2.4798976874057647,-3.4190260897979867,-3.0907971541845065,0.6452377538071703,-3.5263070348514145,0.0212324979264773,2.9676634757154094,-3.73477719576736,-0.5584962336369743,-3.115684282146657,3.165809274354129,1.1562245913101599,-2.413324176314161,3.4904930119720696,-3.5200329957250586,-2.4884998115031315,1.732358237489409,3.5592607096819979,3.2705852936251968,0.1024753390088824,-2.968503836540542,-3.1458844880022696,1.1626594900046757,-3.2078797819299087,2.577528411225205,3.0599603082029827,3.1763226710636607,-1.3227119423773726,2.365317207214292,-2.7357600458412127,-1.7258911346218875,1.3817843632538756,3.787704202103213,-3.7211923644585847,-3.154470960676707,-1.1733017741258785,0.49955762123860927,-0.22442670486796158,-1.2539269260351043,3.8150408588158459,1.0131639986328312,1.6493386976013814,0.36642093831764557,-1.0370315329896647,0.8221156257951501,-0.15239950485208898,-0.36029704107939689,-2.0211110306597357,-2.3849106877698675,0.19827599721930423,1.6299465694814224,0.776420304984085,0.025161306813568097,-3.057672357518663,0.8044826423099485,-3.280926443076937,-2.2458917093077899,2.662866190884868,2.0075080966407148,1.4138411000209966,0.9130370399876124,2.8712000244775135,-1.4288252120797383,-1.3236415127401638,-0.699207209669561,0.9572797129668471,-3.7843753717717849,-3.979231874658037,-2.865666818247931,3.6753067651248338,-2.388986890808514,3.4166540662638367,-1.895089707527928,1.6473014573124836,-1.1140109118244928,-1.4369783055435975,-1.1047930994610445,-2.634670199763751,3.28569204090363,-3.923687561737216,-2.6123118424323108,1.9808738746674149,-2.9133912201344147,3.007334255360883,-2.183058170758441,1.9701136170435279,-2.252549869066934,2.1318082961299726,-0.3550345691876957,-1.261190740082494,-3.133932012557554,2.592399870758417,0.809393632319563,-0.04545356331089412,-0.891446682447681,1.190928203701322,-0.34305525298851427,-3.0227843318760865,1.909849299438723,-2.2861464685835655,3.6747665193221135,-0.6041037695747262,3.897605297556793,-3.146805393886633,1.1471772987004983,-1.0278290245309512,3.9543559728192045,2.8473743389517187,-3.283234343870147,2.362886561048003,-3.7416637377691,-3.522123319094555,0.9214338781016318,-2.438818037314962,-1.4871925270771023,0.5261113599963174,1.1794747863426114,-2.9870916651533268,-3.507954413280448,1.670724170727678,3.6463709420425047,3.193313968053494,-0.29635303529087567,0.4787715042125109,3.8188489451129854,0.9859261479785646,3.774331886520507,-3.978517012390758,3.2085705080068456,-3.1542427929879528,1.3251186325099048,-0.2155061812279273,-1.9036838928771188,0.11679042655411465,0.6961507992521954,-3.782276663801251,0.8803128961387037,3.548033294827224,0.346046691336535,-0.15369005078452159,-0.2673523874453778,-1.2251576587498808,-3.7237375788391544,-1.0295007004478559,3.406623158375086,-2.815315582554746,0.48360288605571,-0.8958501795121328,1.1591395905750935,2.8390974664385135,1.94325417670548,3.425554522295788,1.6038597410421512,0.05335600479833058,2.627903968078904,-1.0971019940626752,-0.7559794784392777,-0.9179420825213178,3.5086534957591839,-2.648747796867312,3.904515319341246,-1.8556591632193429,3.2060328802239459,1.2864170276552374,0.11276348136147085,-1.585416876034586,-2.0644916517510527,2.330101030796352,-0.5758741258300406,2.0627547432667168,-3.9534000246030418,0.5444016654209651,-0.08913825556810284,-3.865448435271948,-1.4042674085039833,-2.2005806171992576,-1.0534950473693359,3.2717232482625295,-0.7574133303972188,1.054139484526769,-2.8359445726574608,2.324847295653715,-0.5584769349270322,0.3160930405698199,0.8601423434688256,-2.6981810640135768,0.5535251488624295,-2.6947684321279476,0.2923407525863402,-0.80652457434528,0.0038819708141568656,-0.8161840283614816,-1.4168264289736544,-1.3099046666745063,-1.8975256408386583,-2.0136535301277629,-1.9796475338528857,-0.034164562377127619,-3.7732269616849427,-2.742547667306958,-2.7773901601122414,1.9038584865112079,-0.948237721530228,0.5370943122127398,-3.496259261160956,-3.70016497894093,3.272096562297836,3.3179167255905117,-3.1318187792574969,1.1097837036776275,-0.0528162730112367,0.2718530729400701,1.179083153829632,-0.5999817932716913,3.3448628122402299,3.4691229273898589,-2.3792080742606105,-0.377784261348866,-3.785259975514019,3.0810711008833575,2.522933141791044,-2.43880961346754,2.8269080103318018,-3.4700917392048966,3.223660672896246,-0.5785991608156917,-3.5753058542404405,3.2716688068393005,-3.4449370574439035,-3.4314835577392399,-1.094332307995689,3.2407713867396126,-2.262025460031002,0.9358845686470954,-3.3026540746158714,2.518010273488681,-0.0867507062287256,-2.4111711290565944,-3.482136430330602,0.0921077496716789,-3.8250512701061556,-0.3032941516217884,-3.616997632557881,-1.3792453603115132,-0.7670469358281429,-2.389097078008623,3.3709479603811705,0.139407388019972,2.3059407998529677,-0.1763987431709424,-0.8724692408608119,-3.5789646475798246,-2.190338005597969,3.6825325560087425,-3.8550036805678946,2.344998607242349,-2.095139664614857,-0.28817436757693729,0.5910713052472625,-0.6682053904101724,1.5579048806064214,0.40001156942085638,3.975210274047206,3.8394910030934925,-1.7315369284425056,-3.5756180330431199,-2.102788592458957,-2.604362777220943,-0.8043192417447509,1.8400170855269674,-3.6467900404986235,-0.8539473905589814,3.612823289246462,-0.2575710787859504,2.730271909038745,-1.1198006684388418,1.30415170600301,-0.44214186384130196,-1.9191724122705177,-1.6659600748103536,-2.7751108233223249,0.13763810009862799,-3.050590229688419,-1.730430014191886,3.9102363331747709,0.4448465303829501,-0.46683814481341737,-0.4895081876177907,1.2440749099675044,1.470468493759177,-2.1019521095134197,-1.4898072077872682,-1.303624273473159,1.4128135217795955,-0.5596864361868386,0.5484965807017002,-0.8430095872555166,-0.10155199397792125,0.7657538038357963,1.182335292603672,1.9469482943151837,-2.9063769231385327,3.442625903834572,1.4554182590403393,1.2246324133178038,-0.47933901439833806,0.8379490802485199,-0.20148760959224733,-3.2662648278919708,3.5651900935410385,-2.402309221058573,-0.6760112294940983,-1.9423011437142644,3.3576260151410528,-0.631123629402458,1.3151390869505689,-0.01973016679991968,-3.1565426586015459,-0.7127227872160338,-1.1796399831994629,0.7332951527650202,-0.380657948851141,0.09609511583345487,-2.9117993238766326,-3.472209615628575,0.43606123213954275,1.2769464191650526,2.404857326375959,-2.772226214945346,-3.3744090435541205,3.1129648423423239,-2.168003200262527,-2.6443497520958525,-3.7992190044677347,-1.098514054876321,1.4037296823411732,-0.9268267004778805,3.5974986834257605,1.4087114076946579,1.0006091346315503,0.477195607604763,0.729286074439969,3.257317266922742,3.0833995820621258,1.5726527661056942,-1.3636370282961164,0.21388224426702519,0.9218752837774646,1.597613758616629,3.866320500696383,-3.959917273078621,3.382133872187617,1.896305111062465,3.57030147561761,0.1576883843139596,2.30750602286834,-0.5450130803155415,1.5004417655067686,-2.7938529796007449,1.6268487784538906,-1.4687469215657885,-2.5132066728951596,3.027404963143626,-3.692394565843495,2.942300730321249,1.0071415628702437,3.5398340163585688,-3.447133249903376,3.823704693240667,-0.7701665269263243,3.5117835254300289,1.8693690395024732,1.9590501332116297,-1.5662965684923605,-0.23013951721740256,-0.7104624108588196,0.18884681591560516,-3.1257679791932748,1.1212734419732833,-1.5063210714177567,1.8502232803588195,3.2756512454252979,1.1837229790174524,-3.1119191938065597,3.842225526182025,3.626114726086855,0.8274245944954153,0.5251739175613199,-3.4622214132239295,0.5358593190159189,3.341348836667178,0.14337770481587509,3.034181840322833,0.29904526314947246,2.5970149314419208,-3.553470984570084,2.054662208250461,1.5396138912842004,1.4447710488725836,-2.3259652788875888,2.421679350920213,-2.461159903727692,-1.4795116154122304,-1.0763573341079343,-0.8216283795606179,2.418991794169801,-0.07561306661487977,-2.424394385839247,0.6550331561923724,-0.41701155179519758,0.10004713225628059,0.0013472297364129915,-0.7547773203935633,2.455459159923012,-3.63593464109033,-0.9197590611984536,-1.585292991618049,-1.417135406126551,2.0182391539677955,0.19038716980718108,-3.622670461871011,-3.3715116876296529,2.3309801034362076,-2.5364337875301619,-3.836182397088532,-1.8750169323405884,2.1276377536992294,-0.7313258557163442,-1.6157026795408936,-0.766130855431779,-2.9653980914140796,3.0760934117666149,-3.659742543069739,0.3103953703070612,3.717244563441654,0.10541303505720201,2.325023101984372,-1.297001022379666,2.709701588796184,3.8793413064729487,-3.7991658497673557,-2.836819858921964,-2.3729876849457645,2.7659109589969974,1.447422869486644,-0.7442513656693901,1.730376778325187,2.2957993369838958,1.038997963966958,2.9398668776334988,-1.6383831731445362,-1.0572223690111962,3.8094890464802049,-2.645181283004,3.819136980632238,3.773441725229321,-2.7412777792168949,0.7794054286534387,-2.9899511335136914,3.4138642194244896,-1.7791892032132033,0.5475718117655237,1.5617618216093706,-2.718377168770161,-2.996994928543633,0.6734782265617882,-3.823742301458041,2.2919553825039395,3.8846569871099048,-0.9764261477155189,-3.739192723045152,-3.9738239495951328,-1.3267706527827459,2.3968640651843948,2.67156070335358,1.8656561693102854,-2.76651379758225,-1.19422587768255,-1.345327470927254,3.177612312350293,-2.2356062863482188,0.31440057485660857,-1.3745871496242848,-2.3854410299840049,-0.4081750271133755,-1.0493917875479797,0.11750950129317861,-1.0280771069481619,2.6414164684087648,-1.008982174251627,-2.8647596846205607,1.1446055575116852,1.8661932598828744,3.051557932028394,-2.0641103453333509,1.588062495533693,-1.2876412777665929,2.942811210259017,3.1866757271637837,2.8644656242214809,2.002652744261371,3.4587359711335656,2.331235936882039,1.0022888886287503,-1.2734238607559479,-3.65773771020739,1.8802884224591985,0.5271757443959277,-0.803034398237453,-2.505074022160329,2.934434387502648,1.4450015644687602,0.651573419474949,0.21257559982719166,1.4702268360950833,-0.4529500021013826,-3.9244585123662905,-0.3318075862052903,2.308044258303725,-2.3780610963508694,-3.454684453710154,1.8765129121276303,-2.00030124388768,3.4706330991086107,-3.467102204828034,0.24299158688555257,3.0329254930026829,1.7148337754891526,-0.9194496521681079,-2.5544504277481474,0.9521769339146404,-2.2901144306220164,-0.9617938932805608,1.6043806804798698,3.7498636588193889,-3.839639935910763,1.7249915083397669,2.4144835493504548,0.13543941881778832,3.8249273977972164,-0.40029726235146537,-2.668878981039403,-3.38374856689443,2.5871478706593509,-3.7509743275472307,-2.4812975054590344,-1.6614729543757978,-2.01028440808526,2.2490624051607579,-3.8790040924344648,3.1315429506266598,0.20897735560429443,-0.045201426886470667,1.1173532770998947,2.859834945479747,-0.0016152542633458556,3.9005148039246499,-3.714025331175729,1.2238067254819925,1.85492042481739,0.12793847488960176,-3.5861347126650227,-1.3679638806884389,-0.22502325778167976,-2.5031622339760997,3.8978858986980899,0.6959915174596576,-0.20871029538628939,-1.415753167132772,1.6464619513019497,-1.4345295202790416,3.1665909946930217,3.7395305927268236,-1.8666667466781136,-1.1987807173335857,0.6720148958416976,-1.2504850024791539,-2.016747092505846,-3.218036795370355,-2.2275476007495786,-0.2179513383400291,2.6524782918313605,-2.7682734976413867,1.4099995555722825,-2.8090340284477666,-3.345635058057969,2.94890136936088,-3.7871532146804167,-2.440044503464094,-3.3621958485654588,1.979400158253064,1.191268337698415,-0.8983473793976406,1.642443382848115,-1.7794673486447588,-3.6189857699521266,2.240948135525783,-3.25316213450221,-0.672879833023976,-1.5574001654526333,-1.9128278216991124,0.043807538254642789,-3.91346399746723,-3.678092102930014,-3.082169556003346,-3.2862470315436758,-0.8941894753200648,-0.7544015252748402,1.2832748698513692,-3.284648939394434,-1.9040502712706529,3.1831140233407089,2.467609676960474,0.4893032336031844,0.6311659583453917,-3.2529914134568704,3.7060429864668205,2.5011487606885804,0.6477846953022093,0.24990206567995799,-3.933183047675014,-1.449428443696144,-1.6750452118805486,1.2952704290979958,1.1055306782118955,-3.3025931944008297,1.4317830892398416,-3.548687649684929,0.38249488152897195,-3.56390854647767,-0.7427261240094216,-3.5756813884628597,3.2942499942389187,1.0690242775385386,3.624475145303756,3.103335146614966,-0.5618640630705807,-2.34518102180337,-2.5097786897578038,-1.6776363296546198,0.8519186996781683,-3.1941626490823165,-1.4140259216662826,-1.9924072626075323,-2.728724144750105,-0.18051872822558225,0.34583016201666619,2.3771374521763066,-3.0193766117316116,2.338926524208758,-3.138451126479273,3.0838864650756916,-2.568196995378555,-3.8668511744972076,3.469996184249519,-0.28126592259551966,-2.0501663555108804,-1.063108661284585,-0.7867576959037859,0.839492568518148,0.21925530365022806,-3.71083869968132,3.5473920228887119,-1.550406902206352,0.7048197528661619,-2.228019177787896,-0.384423179267227,-3.6040569796460169,-3.025441960413186,-2.123504814662237,3.5915089993092268,-0.48166184700887806,-1.507579728634581,-3.8153677266830758,1.7486652040885718,3.02241064096041,-3.141201376227283,-0.10122021339198106,-2.6725538881377499,-0.3656742256875367,-0.8186468076567985,-2.574579387819388,-0.9226628375435568,3.3377231921548899,0.8194943248818092,0.21672545508061259,1.8438670377159632,-3.223862846046811,1.2171785444691806,-3.373245706858631,2.01203395118233,-3.083040670410207,-2.837507477229405,2.1690052009362059,3.5690582890364119,3.818741662032214,-2.489038395179712,0.2865771226131377,2.1247356490117248,0.6334342780198332,-3.8863745148486048,-1.0556238684672455,-1.458628564065904,1.596605136286425,-0.34452298550270657,-3.1234562234192886,-3.7307748346387079,0.7886089393928106,-3.9270202709602097,-2.4144777799666947,0.2894015879426819,3.1399362506262884,-3.6350504282469107,2.9906888396198845,0.7580785204751539,2.9062107557418894,0.7561834474124618,-0.2598167220612826,-2.790728575007244,1.3252750126990583,-1.5611058235783498,-3.8238171543258,-0.6283332943182423,2.1558520405143346,3.247482413427168,1.954863531865481,-3.0705282013187968,-1.9095980350786517,-0.5430419389498036,3.80903093471351,-3.8059594885684175,-1.0932459970796734,-0.7142092755027178,2.3907636860669108,1.5190090402536507,-3.216247545806892,0.5803745599163728,3.3558019841779709,3.109834137166578,1.4611135327931289,2.5921333916519995,-2.572097424830261,-1.226318087228278,-3.902171198652602,-1.9734891513214157,2.173111261309791,-1.6432475508072602,-1.8080934244818517,-3.5405840878643097,-2.0362565984925959,-1.7010462339405666,-3.9659102052044359,-1.4540357767924919,-0.045939982842819308,3.4647536131609737,-3.4995864783678884,1.532491149909526,0.7671595941616625,-3.6958367104484788,2.686177985679725,-3.5390049905677589,-0.2016311592053297,2.528188268976508,-0.8171765907851958,2.572692979477883,-2.7866519262874256,-3.8643483525801356,-2.21308257417825,2.784275323430112,-3.2712126880259539,-0.3967038933006659,-3.4048102375406348,3.5768024569342264,-3.402639539112041,-1.7588204976397693,-3.8491615884559504,2.4505527300373677,2.6717766826935946,0.3558027444983711,0.01066556777181038,-0.3615176217800966,0.668474572032367,-3.8044422804834907,1.060948933279973,-1.143408595870409,1.8379039058604825,-3.3410333766068387,1.4933320431112068,-2.350805187767037,-3.5465447427843346,-2.7043587097903449,-3.999122793388893,-1.5517881668633145,-3.1102424854269614,2.81487247403508,0.9864110141094438,-0.9519515691591882,-2.858420847091258,-0.5975014352750774,-0.7305286846022183,-2.767615371559616,3.7176251768144317,-0.4655165721029544,1.2728373093227293,2.7104961132421048,-3.7532766521545639,-0.21890016477644548,-3.5337668009150526,0.15879191252459536,-0.6878271318623861,0.1256511128447544,-3.6467442404141066,-0.36440889816772517,0.0210256809218885,-1.4741679359810399,-0.677866980169519,0.271432408982073,2.477152659735385,-3.6867144055323157,2.013105232467253,2.1572307955372969,-1.3688732189397384,1.0077666675938418,-3.8659771813946017,1.5364314823289745,3.502730209529699,2.202284632881505,-2.1334609925676926,1.118991228813032,0.03147031483277285,-0.4018600516112283,-0.4672560932422787,0.47428760940785077,2.720477383233514,3.970566498899209,0.5556709711913506,1.888603250319715,1.0374792029592684,1.8484773766081695,2.4592827398602266,-0.9490593681185862,-0.18149866439648777,3.1166485176052856,-2.122058234677085,-0.6180734860600641,0.057787249427128987,1.3192031384126715,2.189725746354406,-1.7196697278606446,2.5995929845409808,-1.9472531223686219,0.943905558109952,-1.489088762571206,-3.738261643409796,-3.2792997937583907,-1.4206027533055539,3.4176750240886939,-0.7860543200093806,-2.445235395528649,0.32805681897455765,3.73192363184509,3.8768650182839208,1.0504368527257527,1.0949224218813667,-3.479768467403904,-0.04157412472853572,-2.422239849387662,2.7526036323250837,-1.432708222348472,-1.253722951305246,-2.533525027985414,2.915690127258311,-3.0505416297044007,-1.0480035241337087,-1.4950674659528849,-3.4105903043689729,0.5494581586542173,1.1757480425835568,-2.066250287256155,-1.2486107769145818,-3.073403014621711,-0.5289574832459669,0.21293354079425343,2.439287345446515,1.0866586173084035,-1.22176763114925,2.921309375023319,-0.901849745386784,1.3439878444087415,-1.0136750245144753,-0.7917854618883047,3.28289486638078,-0.44158796596352425,1.2890762206665123,-3.2298026652875926,-1.6728025254149035,-0.5832394226250894,-0.3775476803005704,-2.5794374722061566,0.9145105138008391,-0.6017673758578512,2.3054676171457215,-2.675607053878217,0.25225060879694008,-1.4149972918107264,-1.3672438150931219,2.0883272150796978,1.3772739114043687,-2.413318364779551,0.9517053249148342,1.13070122054177,-0.5508051768278419,1.7569384255283192,-2.8358634367492314,-2.41360977801697,-1.530420237188004,1.037432299984439,1.9677571281411064,-1.9602003650235232,1.8744613820131138,0.7924436242184774,1.1287031163303159,1.9775436900316415,-1.9527954062568685,1.2565348001645865,-1.714652871021643,-3.6683694326816607,-3.3225053145926397,1.8007233006271122,1.8286664779423428,-1.4602966876887092,3.0134702046949615,0.5220825927117874,0.7647210225083505,1.2368978623666332,3.9606615664738875,2.370146285354741,0.21585587649898486,-0.9468334896801347,0.9779586036088634,0.47864975044028137,-1.6721178355170832,-1.8708795991660313,-0.06475228946757383,-0.8583399058477921,-1.9582825243154168,1.6791066487932014,2.013349993814132,0.3238593388099753,-3.499879317202965,-3.9410574320460469,-2.294426998114039,2.2887275297444784,3.8025797243507268,2.4417970258403747,0.4336978780790721,1.1835018731981553,-0.837791165318192,-3.7831481624084999,-3.7860376308700509,3.7588842410931546,-0.4107091588256546,0.5021111250444452,-3.0513850424477839,1.426759628849723,1.5906799329607298,-1.7400692970193497,-1.246921963602176,-0.7254249407641498,-0.38647845786775628,-2.17167128391928,-3.5176026230567789,-1.1780561018509486,-2.54712459425461,-2.5316107671502987,-0.8430928784225531,-1.9852802983135212,-3.9285992481013398,2.339761989827987,-0.06706081255476781,-2.522865749222224,3.081559045802533,-1.7193272281467705,-0.20612549647582613,1.0699357991775083,-3.8313831058455749,-3.5801294694954119,1.7060824400444466,-3.223290494992063,-3.4554696064764816,-3.501982321513017,1.3734056188143873,-2.2329116837709916,-3.694405624195827,2.5557379826776955,0.8892246859693502,-3.0419236627197128,0.614668442045117,1.8091347121462862,-2.0278190193758327,-1.3244927662546984,-2.8519914068922249,-3.0911224710655178,0.7738779614852085,-0.10339829336192175,-0.2517100798173084,-0.5429836031691819,-2.9767208209328448,-3.529176229950216,-2.9497705780738556,0.2990849690457065,3.6809137963118525,-2.0836637214947775,0.7694433157102854,2.2669085249562537,0.35772194487082045,-2.6019451092915668,0.4906071769372726,3.3980436758509935,-2.527002567648408,2.7417052359490388,1.3429124783539788,0.49128580715558636,3.980924029663538,-1.3476535117388287,-0.8194711414707319,-2.671445600418032,1.8488948671944075,1.8744944622074913,0.5396488366233667,-0.8780706251269335,-1.7685001172561244,0.8395975825436635,-2.874362405535482,2.572577236426328,3.5899289540700307,-3.685636119994646,-1.3370398903575112,-2.3349552884799928,-2.1773226122946065,-0.6445824937846731,-1.3617372645930053,-1.6034629633994176,2.832119175829643,2.3865361189518836,0.12712884019570759,0.7064997623918332,3.093404725990286,0.5030802076089076,0.8925545017203111,-0.098956156474163,0.8674051076005132,-1.1582396546139844,-0.2955307533675855,1.3646030460037322,3.709844245901648,0.533884653303863,-1.6778377552490965,3.9634875899883088,-0.7627739108618845,-3.3452659079698918,0.2520795118590744,3.9318089128270454,3.6853842510096435,3.604419984454137,1.8701886820745673,-3.048172784300788,3.2133637395036604,3.8738696080750074,-1.8496641024723238,3.350455434526163,0.6096693673507678,2.229314086392482,-3.5033999501272277,-1.9142033639682464,2.343668796930075,1.4440961419137369,-3.7393711829421294,-2.17065065554434,2.478300117600684,1.4894920540789887,3.190129329619552,3.723646077663129,2.9872300878369035,3.702841622067009,-2.642651104801306,1.6715518968574097,0.9300936399212167,3.5429520272687959,3.6519321456332456,-0.9423142587234876,3.2869167617900567,2.67205065686396,3.0333221215734067,-3.331714817838755,3.5163247437939288,-2.6827703326365386,1.1238012161543428,-0.9947164304051144,1.995166292495166,-2.504635727644347,-2.897136458006508,3.757048972861825,-2.7358879843556247,-0.15759911697362484,0.5483515243030483,0.3131876033857841,1.921091711608768,-0.9051200206503429,-3.147025181834655,3.3811997303488434,0.02668314716028153,-2.8885892537686326,0.5644755795632266,-0.12210181075886007,3.2442612377033548,0.5986817382638963,-3.349165895254158,0.5063787564716131,1.030345282569482,-2.1424503395292255,2.6695778768983198,-0.40378065061617188,3.502809285173904,-2.0952970160385666,-3.460308815185334,1.3119437292906034,2.5654615439956647,0.6578102543407347,-2.814129495115199,-2.6259555329539596,-0.1911712474022773,-2.4883855773642278,0.000923780966251897,-0.9062842394860022,3.838467927298616,1.0053034190701676,3.3023605471853587,-1.6378186964587978,3.359056837726647,-0.31699798020923267,2.8630474220785739,-2.9799010315741709,1.46255157044006,3.678097234363311,-3.0545883931286754,-0.37656204586088118,-2.6850514724860909,0.013973296330811458,2.7617330751137167,2.405582228348565,-1.07641952359678,0.7551479239092105,0.3236118453823975,-0.8154237871172752,-3.361132475271715,3.5861156741073705,-1.0192312524762466,0.9348365552053064,-3.6010869979486559,1.191448724286568,-0.16445083187096899,0.8987892279611938,3.8110250049385847,0.9273936686830782,3.6064983671504979,-1.6314786418744172,-3.5490737377583665,-0.518049714480366,2.4402152253102704,-1.2177775537787937,2.451658496850709,-2.824244270317127,-2.249569266418149,2.1147997568799949,2.045033885281363,-1.4288347310355876,2.4446142186066934,2.268724651853642,-1.371073823141588,3.1234912939627978,-2.545290777692159,-1.6087511343024497,1.2337665331460129,0.6613586973282475,-3.9281212658876196,-1.8714718322217137,1.8867407892903368,-0.282957456663979,0.877517418980986,-0.47627720143705068,0.23235001364599484,-1.310115021936137,-0.19073419637216405,0.9881875391813315,1.8510987040601137,-0.7827870240940149,3.6625066705314817,-1.295162983773488,-3.1046952434864316,3.2931518575860379,2.698260626875789,-3.3177537734033848,-2.714930617498597,-2.3729335595390745,-3.5666274214789,-0.5305583488990953,-3.524329534702118,-2.0223995332236379,-0.02216329586544319,3.565180014144577,-0.9702108737849111,3.4559101059773775,1.14290929913148,-0.11307694083604525,0.5146889657548046,-2.879148937213147,-1.1909582405682029,-1.605050039159481,0.21151679082136,-2.9283110493735524,3.3215472093601434,-3.194346578400835,3.1778017087812655,-1.3818273235115937,2.958434663784791,-1.7575508045859128,2.9308227205132928,2.020244027227717,1.2979463979297946,-3.957279487772027,0.22025215839178803,-3.385468443520044,-0.7418202304241719,-0.09259975601525561,0.15042767797663715,-2.4796456202901187,1.5464442837351742,2.1309189390853637,1.7875323525395155,2.008644162707271,1.8352634223175813,-2.4056853809599,-2.880294692077059,0.6216380024802097,1.9348692522651563,1.80127625333634,-0.409640961032556,3.2044903350476634,-0.016082750304165395,-3.5638620281208075,1.236334200960603,-2.5758443858495285,3.9342468015854017,-1.8266493295395626,3.4469705266322148,3.290675091020921,-2.5443171949364524,-0.8980763237602929,-0.300970742300084,2.558184018444811,-1.2160791855842955,-1.190315197668519,2.8312352332123078,-0.01432441888403968,1.061928374602032,2.2821888463017165,3.2012965635836787,-2.491596972305234,-2.7119902799660098,3.780259499027376,-0.5420766575275307,1.4878255686675975,3.279660595231907,1.6825094383213797,-0.5582489442625442,-1.7770250115582416,-3.074270383214925,-1.1750020283960885,2.7201056808085788,-3.4773421313827885,-0.6971512021901773,-2.655728422963323,-3.225431191840679,3.421900586384795,-3.0840393160870267,-0.8886579524739053,1.7022017428118357,1.6528543822372584,1.7441857553717997,-0.0865665836721965,3.4275499960079838,3.30250525235048,-3.821369776845139,0.5525084600434811,-2.0826616753040199,-1.4484058408213159,1.1018250908329979,-1.7689401745884413,-2.0024220413970594,-3.74955231990653,-2.5099558143019635,-2.4609907483149504,-3.411755015318329,-0.4349150451599153,-3.1913642361090508,3.2491054008506579,-2.93060715186958,2.7246428485295475,-0.822950816461377,-1.3178437761775124,-2.395625835009075,-1.7377841212014554,0.5536011031483321,2.872271642750145,0.11184280439079419,-1.5646853006147426,2.6023149768671569,0.8585450188232917,-3.3464442079914935,2.376445032216381,-0.39105818670211947,2.046590614652577,-0.36893797412640697,-0.3052688709608875,-2.057261296973399,-3.7575918540051198,3.426405240726443,-3.652082195657105,-1.1524484716730437,-2.084248998060903,2.3357423341056329,-0.8389608067870222,1.2630643716974266,0.283038960563319,-0.5244652867568211,2.466304310188683,1.163442900570284,3.8451067131131309,-3.635977119874947,-0.48406455595781297,1.651093452069082,-0.6456502323460784,1.9210352728333274,3.224013231752214,0.014324153006577412,3.915114292071502,-2.1856106096405956,0.1123223577346888,3.1268339546607057,-1.6515525200139969,-1.4520069342991998,0.8370446510150638,-3.524331968232417,3.996481574112037,0.09501365843430154,-1.9766341445819409,-1.4362168546546573,0.05756436805219689,-2.676155579587806,-0.6308285553854036,1.4589989509614477,1.3170732255582554,-3.9357210386436964,0.2949340541887926,-3.5434013853193369,-0.1578790748422172,2.612138212328201,2.884836121583745,3.3587479908573449,-3.838966453266668,-1.3811944072585212,-2.173340144707084,1.947732694072748,0.7024514410342757,2.7063440031356835,1.6040674479230504,1.7737444514031609,-2.1833974003170555,1.0926025691644528,-1.2556060762013735,0.2453887265621777,