[1.5790914409022375,-1.9125349406840507,2.5408927262350327,3.3543163542539728,-0.6099987471164443,-0.41785903520677949,-2.474480707727479,1.2829115018423752,-3.829738565201688,-0.7385857362295185,-0.7190908674630292,-1.6374829704035359,-2.9338333332062369,-0.3943907068172321,1.4310928915315309,-2.0587122941290234,-0.7445356900170497,0.9826708711632906,-3.0669475683977058,-3.719512107991201,1.9060948385416899,1.873989099184561,-0.4187579744608323,-3.447067947369683,1.1520136445937777,1.0258307304835262,-3.5289315270252095,-0.8547634074707151,-2.37177976904841,-1.5997395050913535,1.3844516403656134,-0.21584851738471245,-2.651823841727256,1.3772854160335282,3.954727234834393,-3.783143354175704,1.280876646890567,1.5454672504139345,-2.394144271701421,-2.046584343485689,0.008917284144053462,2.9516164877508395,0.6962480678196288,0.7794770223672094,-1.328823984570648,0.3294195616406972,3.3527724072331717,2.407564489017618,-3.45277280027325,-1.2914945008346719,-1.8340856031327456,0.15170128926511595,-0.4064904397626279,-1.2263878472255439,3.2706965213622487,2.6161710816625947,-2.7859509591241,1.7595061100833372,1.9666346118681207,3.8880862219954945,-1.9802135837370383,3.9490250905709045,-1.2961392245715234,0.9466485765196646,0.7009948071443253,1.5610151793111467,-0.6764983780431495,3.4550591115387014,2.1543058921266438,0.7231027631661764,-1.134159159155825,3.3619705925066967,-2.650844852081324,0.8226918836981962,0.37108815268543796,3.0001037111200068,-2.358962967061335,-3.0568858703133845,1.5615704939303763,-2.9841696095786425,2.8889213845633314,0.14144366565995093,0.1556233504996838,-1.244729286996874,-3.4212316878904076,-2.3330418042290956,1.610234695916719,-0.847882243292946,-0.8479373096440792,-1.5191754640713245,-3.7638969075590866,-3.0629554747680798,3.3344077140165568,1.9495048805676918,-3.1598788539149256,3.024371692332907,3.788249158153902,1.4250705012384036,2.0386410424091627,2.497350951534334,-1.0436008189726982,0.5412942395875415,-3.255403958867012,2.9453379270783515,-3.6739025087500156,-1.255427570669199,3.1477157619046407,0.41281192979628669,-2.638257445837464,-3.021932981016346,-1.2203764124093067,-3.573059600658749,0.36522582365343939,2.2465060502611076,3.3318822430539924,0.8486855901235613,1.1575664444523506,1.1986376922316975,1.0590031838832133,-1.0858970485440709,2.5766435725699807,0.6022118507160537,2.9713118247588046,0.32915242504382649,0.559358067420785,0.8401694357331664,-3.6457810707297755,-0.11850278580520435,1.4873279228667187,2.445425167565645,-0.521017156171393,2.4071215529821696,0.849449371031394,-0.9968087932474745,-3.4728621503027314,3.87498463260496,3.2108975833702759,3.4297319487539639,-0.12367112687415749,-0.5152921480852031,-0.868971057270608,2.7993530858987105,1.7756308965820705,-3.1727415026081315,-0.4122275904810726,3.8926465099396347,-1.6567740823753666,0.6503404652145299,2.5781503775096379,3.044845544228995,-2.735896493701671,0.4512465809599684,2.882049766948815,0.025768376101760638,-1.0053234733269483,-2.9859106919716389,-3.4376997210306348,-3.246357530095704,-3.1770057921447378,2.670477773739475,-3.730479908966066,-2.4794767860531516,-0.14132833746502428,2.4017429654412956,2.9392208318110759,0.017274663007216696,-3.5276586185104,0.41265191479376109,0.6173045086828255,1.8807811027230646,2.4189905421403514,3.380351836646015,-3.876963142616857,-2.6898407760675369,-0.4840150826870726,-1.3277420395964977,0.4992865601421368,-3.0019734519559444,0.10478031237366015,-0.7981947891436489,-0.7076676788469412,-3.525440303258284,-2.2929044079051774,2.3541689714166909,2.4944210188084119,1.3689715375305332,0.7190581774504397,-3.3763725416196266,3.635570061002751,-2.0045475706240465,0.5444901757133147,-2.13930028711997,-1.451618378900944,0.47941035570545589,-2.943085942927425,-1.6750241965834843,-2.6386385144245709,3.9823805775844667,1.0169988623576983,-0.3307579524530855,0.9908339723113366,-1.2062620733376335,-1.237401535422137,2.277359847050854,-2.9795735490045995,0.2004158161628693,-3.1459884039314476,3.695344545521606,0.8833605851835005,-2.958670474030317,2.122756051395177,-1.8957249457629593,3.975667816753364,3.2754040266512076,0.5914515927462398,3.976566770145121,2.0368606056168279,-1.6965241144516375,1.156329955174975,0.1818560658001429,1.4743253424781955,2.9600866166908137,2.8313515238701028,0.23852578926699409,3.251037072454083,-0.668467552302153,-0.7536121782041336,-3.258086098166796,3.6563585797119968,-1.3989100944246929,3.670716715521052,-1.2223351599743824,3.8579309441517699,2.9475605044955497,-0.45607326070476886,-0.6997902083892225,-3.3649511489592465,2.064868153651405,1.4540306920130544,-2.784002427334931,-3.079795183195854,-3.3604119711101259,-3.5545665118274094,-3.444022230268872,-2.4713320622095358,-2.9626880043334085,-1.32156337727237,-0.19286819356416297,3.227369022185834,0.6522397626646974,-3.430600860236977,-2.0492951856321559,2.6290066378602034,-1.8510964066875407,-1.2677693632179664,-3.7188881371177677,-2.3886365571981864,-0.7885755067180211,-2.9093662200585994,3.9395507550377024,-1.9244059345224356,-3.8690807345760218,-1.2479314923277692,-1.8220601619174633,-3.399206929029491,0.45640687776755586,0.8631414902931853,-1.2875566580670984,1.4625953219929536,1.874038694978072,2.8276263024924734,3.7705499344468116,0.2953829693774086,2.7003178484891716,-0.45954343164594416,1.301461203898926,1.9604822950069947,-0.6796724889791905,2.9320965977062496,2.7561169730849519,-3.9035996915308086,-3.16251374197199,-3.8984653037354777,0.32638835825468606,1.6041408192183183,3.2679800608700315,2.033067892504393,3.578363004486838,-3.6977653186345327,3.2121403894102604,0.2504550180114249,2.780984839398637,-1.1011504035900002,3.076262424950703,-2.7385607249604959,3.560230806107712,-2.5928452282021707,-3.7702056210271825,-1.6706145672583555,3.7438117428722608,2.3296787035410535,-3.3925893176247596,-0.19304180042484177,-0.6666911019632122,0.701699749784443,3.458570587507719,-1.5290305749384248,3.530122185666265,-3.634412038673303,3.5914269119645008,3.7379065869759318,2.8183635025580635,2.740632007886126,3.5741858410739146,0.16490992291616636,-3.7510573984210877,3.172064940646769,1.8347482318466942,1.6056261841242759,-1.6905501912994383,2.6351597193838085,0.027171360256635248,0.5695847204352873,2.5404911686129285,-1.9514219139637333,0.9401598125320572,-1.8900343733314136,-1.4417793560931376,0.8761024774799511,-3.099487192486688,3.857992465362994,-0.7951223409081629,3.1652790436985906,-3.9145732952454628,0.9915469901372989,-0.17932550859273256,-2.1346454479646885,-1.8986131940651772,-1.2877640491191292,-0.7908984214920283,-3.1124595074573637,-1.4909690946038357,-1.952082998091374,0.38091489952934057,-2.5706676925977929,-1.5006194685360599,-3.8574043434046159,-2.858690899879689,2.6591113454898656,-0.04683353443653182,3.9959725740522495,1.666231149890983,-2.7387615726937195,1.1437422991874025,2.336019179430288,-2.7388214267595147,1.472471427501822,0.4941095324505138,-3.199593491023699,0.8067709399507521,-1.4383479296690232,-0.06770954459140355,-0.7908396569751981,2.755290481391536,-2.103437607245435,1.754542359322981,0.31136641664419076,-2.0720759854873069,1.3311856169721069,1.299849628555414,0.2510538186709903,-0.8469924407199887,3.8722416252315368,3.8896404767551626,-0.40105268682032327,-2.495993803302717,1.9920758882615389,3.2503672104289578,-2.5310111555814105,0.434320155563114,1.1961532577070644,-3.2526460039994395,-2.1864931339107178,0.41296596858652548,2.2588206042580518,0.6501733651895583,3.744904351760229,0.8682674918476723,-3.7698144611923976,-2.997683883718965,-1.42469828916441,1.1257042231496746,2.238108807579854,-3.6648007097945696,-0.7938185442926047,0.00929141680524559,3.254762095774489,-1.8943750196855343,-2.896750618710831,3.129052458875128,2.373813754305565,-1.4977526154727219,-0.11295877865194104,1.0881937438958423,-0.6250238983376395,2.3937317078094546,-1.8500248324780613,3.2676977172347616,-1.5959712647160738,3.2592760078113427,1.9163770575348372,-1.32534327984348,2.184528561867819,-0.697485150381917,3.2727458372001827,-1.7445693271281214,1.0766258826937608,-1.1453711877339854,0.8187496206291574,-0.8482197047157918,2.4184130246008159,-1.358254977617693,-0.27029967994503237,-3.3410086290075666,3.9049996640317827,0.3670331765425541,2.714702613763447,-0.7865165002205963,0.992601555014379,-1.58342372270174,-3.682122538783199,-1.6938106195267864,-2.425166857496661,-3.739577766974156,-3.625510113597273,-1.5800181313091939,-3.010855733927312,0.3082764216812137,3.5445298794364454,-3.7296261037699498,3.476005197485783,-0.7580010174733578,0.09828554921218125,0.6071883649899679,-3.8900559870723576,-0.24256649747765003,-3.7940707206645944,0.11509966828460971,3.815807534270995,3.011931568523533,-0.6245984569773144,-2.166806352616997,0.5061934720660082,3.3698239970488439,1.4836886818137938,-3.4159224058484236,0.18344965036383965,-0.31760805908932357,-0.11300990746474304,-3.2138727752075537,-3.8962287099561356,-1.311107554326069,2.455188715225054,1.21776778479959,3.3340241742960137,-1.8678429075474946,1.5057254484553849,-0.8647892731228508,-0.7570531642680054,3.609098910840432,3.720633356414142,3.83417113120029,0.09314551899754609,2.6903204878975206,-0.013054009392968525,-2.3396189810980188,-3.8058316689680016,2.157295780012797,0.41725634465834196,-0.926255606267709,-1.145485155080628,-0.24656871199103826,0.26176409607559317,3.6052356225382296,-0.01254990371921294,0.4019742179426604,3.236105588499745,-1.1911995355749623,1.4022419893917695,-2.570955705609082,-0.5773023621548141,-3.3221371405009219,-3.5760544527925477,2.7469770210448898,1.125617995926957,3.768542651101482,0.7841449017314437,-0.0008871527718279371,-0.752153522858606,1.4567627825880206,-3.666739605655188,-1.959365682200306,3.3250984829668805,-3.8856954365268194,0.7873047985524915,3.4644111785182076,-1.405324959520785,1.1943369104182527,1.134613547782613,3.8899635733978314,-0.32908070076106279,0.1892657732900469,-3.607498566267137,3.370550934444214,0.6927267556009102,-0.865769478504024,0.33134151406814907,2.3239631427241376,-1.374542626640727,-2.139053333535969,-0.19753096980666186,0.5755727697783888,2.733125884610307,1.5822308321443819,1.3886602614204567,1.36036928105323,-0.36482785735794268,-2.5278494189584377,-2.7002843636591669,-3.0669415643128437,1.4466188185768543,-3.696369870761049,2.244045419356538,-1.05429614259923,-3.700436633440158,1.6204505764922229,1.4355279306586253,1.4686087030760229,-2.9832492411426,0.887141617883799,3.6847454143951507,3.4121140777709639,-2.5059922670322427,-2.827977018260821,-3.732749786245779,2.7959163962434054,-2.29022832194304,-0.26147268738310305,-0.7984697451273883,-2.1240429148664008,-1.9910168448136594,1.5244173104081709,0.8566339842571509,1.6540956073007607,-0.7136269272382911,0.5331982803392883,-1.5595908645854826,3.5298393522612354,0.9130690580488308,-3.7227213578135585,2.5171644601471989,2.2200994411919678,1.493352538106783,-3.8861160711582949,0.42459796372468885,1.900419332653473,-3.5192303398038966,2.8370185818262705,2.369854619194923,-1.7929708182660689,3.78160050429861,-3.258719619499608,-0.9135681585151012,2.676564170418864,-3.6257630464350125,2.15830023894744,1.5663222769536045,3.7739608896033438,-1.9033023209450182,0.6175880771634139,-1.5876034213885957,-2.895459828750469,0.8487757341859297,0.6655743148277846,2.5256913273795646,-1.302755000824028,-0.382614723445158,1.7979960059029417,-0.39301535296209258,0.343680571484585,-2.326609856047929,-0.8911227341163173,-3.0730423154101116,-1.7967964599943225,3.630167271652959,-1.3185759890601896,1.1329662702550652,-0.7838102753731973,-3.163056900150293,3.1850245012807107,-1.0356477047320832,-0.40272739824670747,-3.618497312077465,0.42793733785371926,1.9099099127018456,1.6888538095133888,2.89276743746957,-3.039385923547547,-0.1922098858456529,-3.998624024118989,3.8865185842553195,-0.6031244645313434,3.4161831096588237,3.1616419031789189,-2.5880939654430445,-3.290854498372598,-3.2353527331510287,-3.289186611468205,-1.8069309726465337,3.3073917099946019,-3.8287862621019,0.45321748058920799,1.5200975160303046,-3.5432603004244225,-1.069338824113357,2.3241345237063868,-2.6939663288780419,-1.6008626877272612,-1.1415630329976159,0.7775246761489028,1.4037908605584449,-0.24245688455181048,-2.8363388581283228,1.6344936880006094,-0.2007452194361592,1.740677737763928,-0.5681019823705409,-0.13325104536459787,1.3735123973200772,0.6126681926059856,2.2279750550930759,0.951023993103445,1.9404988187297212,3.0761708134191689,-1.8180505990184826,-2.7603325478578348,-0.5319218417173326,-1.5964022341544018,-3.120608767212196,-1.0784098329089902,1.0911819054602674,3.5225286825394646,0.4038922956322155,3.086871415057735,2.64848533802163,-0.12628179513013383,-3.1693794923968738,-2.760971436735022,-3.896676368548082,1.0478503737979477,2.6808045841174188,-0.21153139418014,3.290815332936033,-2.461949023392757,0.13519181731080555,-2.7317539016126437,1.1537289843638679,-3.4426737150654578,-3.204925167943582,-3.306690852445044,-1.3055575620040597,3.5926701756181815,2.9124409134078,2.5079739249266099,-0.06780475180944645,1.7099659775725976,-2.1638844990267804,3.244075606106965,-2.7407523527433828,-1.9996179929978338,-3.843358386041544,3.6772306026322649,-0.47189012337490246,1.787439010421073,2.7528368704068866,0.7696930569626588,3.19457815596928,3.5143948496538668,1.273829854954136,2.7231498737543537,1.4395454470903575,-1.9527753620426134,-3.2571302209638137,3.7203491104565105,2.491863205059132,3.538207423079971,0.3702132232863766,-3.42109094967895,1.0187290378848877,-1.6442040786202226,0.8744957514106861,2.994965786625783,3.1529162012144837,0.24091830851546537,-3.693389407224953,-0.8161360608058812,-2.665760078655069,-2.9681806441448108,0.6588277187483742,-0.45251216294533216,-3.9907192984866217,1.4523222651743453,1.1689293933283276,3.908505437076726,2.469633670567033,-1.2058830770702168,-2.5117698108020836,0.06201041450831646,-2.837300667943241,3.1318863743644904,-1.1680113223589912,-2.366223991480801,0.02777425802836131,0.4403350491635871,-3.027745347853932,-1.973009966526716,2.851942240051363,-1.3691082720462829,-3.939611810851879,3.6238304636609266,-1.0145020854519318,-2.350348906893503,-2.121059911113333,-1.9908062849936626,0.8805809310696304,-0.9262259006914297,-0.1409343127159577,0.5819181050671949,-2.781227501997339,-3.7838671190795827,-0.6438613587838022,-3.5890798226803817,-3.982371293072835,-2.959772399122855,-1.798336057341121,-3.9705935953156148,1.3891842963934398,-2.012834560125068,3.3026124698019458,0.30401205688175905,0.300403859394307,-1.235390391874314,3.09628792846351,-1.8560072855838515,2.2780565859286625,-3.510327398059001,0.804187405984778,-2.6017939026006768,-2.2573045028452025,-3.8508962945882949,-0.5311460613215973,-2.1911759212929349,-3.9109786230192657,-0.6546301448034813,-0.08831077825309053,-1.4402943195088805,-2.25534773575826,-2.3995907183504636,-0.7507248005566345,0.8442436982268502,1.2407128747245038,2.9111825048987516,2.73091203530792,-0.12357216655939674,-2.1520740436859588,-0.13610696883639673,0.8209453655629364,0.3327817319877786,0.21631037147271393,-2.9530413608457595,2.491706063734065,0.9954920795849258,-2.61101191199218,2.9049877187560284,0.6842074404724885,3.50037341737953,-3.721551105018504,2.0939152763691135,-2.941637112118185,-1.2770384011894292,-2.1836060160056798,2.744944938848491,-0.2594527258805668,1.5484993405645309,2.428802851219637,2.3484135891014414,-0.5201471414454135,1.8438231409487358,-2.4529246451292039,-0.5806396614422358,-2.768229272534324,3.8735157537394127,-2.867970628002327,1.4378354663720892,-0.7552296113876837,-1.1685330331124074,-2.5662142212971608,-1.8757985684274746,-0.34887355225280727,-2.3194667430950446,2.407885542322501,-0.8542997926466767,-1.7526218728482606,3.3129118904239496,0.23087118533313423,-2.286975423003721,-1.1537274546435799,2.6618998475106014,-3.5444265348743766,2.2586392591620205,-0.8639726953147429,1.2437774461647858,-1.8978056234400092,1.6999847504785058,-2.007166241045903,-2.9923445480463597,-2.0093597361569328,1.6449391339200075,-2.261227432771446,0.6699184709381667,-2.710159979391852,1.173945497796133,-3.6097163350980638,2.9880415880503055,3.12164992874278,0.3039569637938184,-1.8781301135720623,-2.273756269658012,-0.8742053177437319,2.69139115410999,-0.07847803492157279,3.2847244505208819,-0.22906155950140118,-1.1914032879203876,1.2358087622928622,2.4526743467231197,0.889381256768111,-0.6885735252430527,2.8605629370131995,3.1508931665608026,1.0014670169317555,-2.941462655919816,-0.537374229621177,0.6443939429600576,-3.8887743995090746,-2.884454587932672,2.6108188170288448,-0.1411613067132278,3.6114359811156389,-3.9308817514649405,2.921731669636765,0.19835303410916084,2.2021713943196987,0.1897807627338146,2.602564574701743,2.7365382737075008,2.4698612830871928,-1.7831392190029716,-2.682881030556281,-3.2693972229050329,3.931350278052715,-3.813877304474638,-0.15002157702013009,1.0505757998827817,-3.873080882767497,0.37544249399909726,2.990854046012667,-2.826920689660553,-0.01794703255850294,-0.8242557881239474,-1.9849273317627263,2.9246010058539078,-1.4879242340971999,0.7872151932185405,-0.5523994226363767,1.257883826340077,2.9428059732365829,-0.29531276057175606,-0.8175877462999841,-0.8274212416054338,-1.080029444155931,3.7876670181059914,-2.2739735896480637,1.9339517984718642,-3.1754331195777718,3.4945986571982976,-2.188635680575926,-3.1100356348666677,-3.9448718998177867,1.8181918528541062,2.6078921537275026,-2.0486925038344054,-1.5517544726516806,-3.538286420215144,2.2330589596778616,-1.6741886372196662,1.5282939150176614,0.7290532589391621,3.9399111378121969,-3.697598190708603,-2.4629445959759517,-3.9142943336079387,1.1686923070203497,2.879082120995003,1.212425056062587,-2.0226316843510077,-0.8373024108239517,-0.37071159687783075,-3.982429286258043,-2.602946848803441,2.9637884080855958,-0.22678089212982756,1.6396403596098406,1.434121191948214,-2.4894520059744105,-3.2762049072800529,0.02224748300636481,3.1032481940864118,-2.0378989812640064,2.963918909471113,3.5816059066396717,0.5721083293527309,2.4533634136732145,-1.1387280582496382,-1.7561863008884887,2.4982412869084626,-0.06797331540451257,0.7622717021764709,-2.8534883489867406,-0.3293451767123319,-3.953292984168053,3.100657390860108,-2.83766797635594,-3.80451327582002,0.15102621073564483,-1.4695277779863399,-1.0219771171110457,0.14354045932341642,0.972439220037792,1.9383049110232618,-0.3947545910176531,2.0376425296270055,-2.3906394368508456,-1.5172528870207627,1.0117642190049284,-0.7597773106982844,2.6658030825129668,3.5458179698233307,-2.4714505171072167,-2.8860368838494825,1.427000401476752,2.609197429095146,0.877442047395256,2.299080612839516,1.1197750875584279,3.1426363475519034,-0.6729104927802292,0.8648294432757586,3.134233378728415,3.8715539948498884,2.9889436919789347,-0.4858799631463191,3.957036914852263,-2.643955796729517,-3.3912543491276114,-2.3095787309505919,-1.2443225510468708,-3.9752347925189186,2.7907055284232964,-1.1028462416808456,3.8072455298930079,-2.0522530253437338,2.3131746412669518,-0.14173588802326265,3.1324536207382085,1.3194503751448874,-3.397538277606823,-3.919660728771179,1.2525283681235138,3.271568527728026,-2.036236795806815,-1.4520022550922674,-0.027026103630440225,0.09790502602629658,-1.456100931580078,3.178570738523389,-2.0566175500423666,-2.7390292186342517,0.7864667130908822,-0.8991017601046407,-1.5280895344917876,2.8356303449967967,0.06503717636596473,0.5499513981539286,-0.8084417408149598,-3.9771628488918919,2.1977501828548986,-3.603238015781992,-1.991898567963206,-2.648748050035741,1.0115966248197773,1.6375207860846067,3.177086042982314,0.8536846602982013,0.40830477766000686,3.913114694515394,-2.6296898584422836,1.9462581916007889,3.225806811376284,-2.0472453543147486,-3.243454088901034,-0.6465380994485968,3.568023690976152,-3.309146221831659,2.883528958757309,-1.316390995969046,-2.372375471661954,1.8548643023128726,2.8792992968863908,3.272283152840501,0.10875661385822166,3.590030542659366,1.8158983710352912,-1.5383475102733249,3.6935501256539728,-0.04303322712204305,2.263147339460482,-1.3428850501118944,-2.2835094824101889,0.5241277559245283,1.1475203200452855,-1.6049600019345485,-0.8900829946456543,3.8114377512005408,1.3152616401073943,0.39176363188099297,-0.6413154489301507,1.8302356041893147,-1.9454565495568124,-2.419251928416097,1.5302580964452757,2.2856301149116309,0.48734155568534645,-2.8712192395997588,3.213038365111693,-3.7089237745257108,3.762122407330386,-2.8133076144200865,3.882540440510331,1.3678010150210574,3.0068583451308745,-2.776923604498309,-3.060841218992489,2.7070717033653377,1.845587898517838,-1.9740156661707678,2.497494822389279,-0.29364951569943167,1.2575482535299383,-0.7305705902808553,-2.2428791028054828,-0.14816331993690236,3.041177965852981,-1.1283343337821069,1.262858866488175,3.7698215345265178,-2.843587507968664,-0.8230712296268445,0.5814732782814165,-0.47911016155105559,3.269810272812868,-1.66460032217873,2.9932878449589177,-1.554120298643728,3.566898810337052,-0.09154031078217262,-3.3736612826684224,-2.7974228852628277,-2.7888534863635909,2.1233103536466659,0.5252162321139977,3.9999301108604268,2.838712526427911,-1.1114801100402439,-1.80870885774892,-1.646302928316931,-0.7385098840181668,-1.9301583557353013,-3.0989887650538936,-0.5162343936873937,1.6594851906198578,1.5788038177874029,-3.985460250196036,0.721165025777097,-3.3267835610895,-0.344225933695798,2.842715756535619,2.690228521617282,-0.140515620388163,2.3841723460346317,-0.6123964597710077,2.3134150504811936,3.337780889310558,-2.277249628349967,1.3039887835502305,-0.8623323075938336,1.1808819555772319,-3.9881541052470599,-0.8487915964102533,0.9422587404368841,2.9252256600058876,-1.9737556128499814,1.7993469400776503,-3.6521730134616359,3.98089110924243,2.920292447088216,-1.3981434436808338,-0.20447577831904896,-1.2876291762976669,1.6422688012092124,-3.5209871795580769,2.119782441972796,0.7277188601467852,1.2088050392430497,-2.0895764236152418,-0.4775998992092587,0.6689303979473875,0.7661727319365923,0.009111993616714109,1.1849286435934739,0.5604889216075177,-1.1705598503366233,-1.6982417159654997,-3.187907697659793,2.1642386734771135,2.2183419926771,0.8179837158071761,2.136466423864854,2.944680950786185,-1.4086289477892076,-3.45276177180821,3.6274254325234605,-3.549451687030704,-3.3863786053470754,-2.031574924892725,1.332346990176375,3.602788347747481,-1.949331023573822,-0.9422543554358915,-2.360636962678951,0.7101704523455368,-0.6613521885156504,-0.7326234027997851,-3.370257676491656,-1.2150878096824443,-3.6937028782574377,-1.2821925481634447,0.05648707713752188,-2.5168972402277136,-3.122640069716754,0.6298507736634269,0.03548768315906781,0.682064048060302,3.0623628559239535,-1.600972668066925,-0.12391726327158992,0.8987023772203688,1.9153484291086534,2.6569586092416639,0.8335252637792001,-0.7626869544476884,3.054434377546217,-0.9765584757576724,2.7587377860606177,1.727406919146051,-3.7332110255119117,-1.928922217693229,-2.47780832673582,1.2793482157943288,3.963505849533136,-2.2440710266864478,3.9627213045631999,0.38842779038315547,-0.04667035366008121,0.024059499721552414,1.1458321170150319,-2.1826584962897757,-2.2327401669046118,1.6557717703841997,0.10489162934163954,-2.1121624719646165,-3.8856124181392719,1.600314353743812,0.5684861728006716,1.0640617813254406,0.07035161788183686,-0.5588995057477446,3.0223932643787148,-1.9938749546292092,-1.7664838110311898,3.1020188966183799,-2.897480304332877,1.906179772349489,-3.563231823479212,2.522563254427121,-1.318049757792654,1.9413195305875393,-0.044883480975292048,-1.0470160725419442,-0.9255447075995755,3.8166806777534818,2.2354312054778218,3.6457765955067638,0.38707035502871,3.998462256311873,3.7673700966221865,0.3265072222321841,2.663338637619079,-3.987885855503441,-0.28020716788135316,-1.119551468325767,-1.8963325083252479,-2.570617544268832,-0.5683697143852304,2.8295939396682456,-3.9794681543930885,0.21647200531617639,1.932999099565956,-2.327772154251268,-1.0414834714525212,-0.9456636503376492,1.6774201603058057,1.7407066061072767,2.2035101544890987,-1.415238668114805,-1.7820887971117135,-2.198183971784622,1.0505934086223912,0.8488742402970351,-3.020957985776495,-0.01847515353357032,2.2666411900561105,-2.591710942596933,1.01146983148762,3.8573505248922617,-1.8503883436062212,1.9838424688592609,-3.7190054290442378,0.8855795439384888,-1.5814195835747072,3.9706473538321536,-1.455001308006384,0.643605015040114,1.6646367055055854,-1.015213506464944,2.4615326950095888,-2.6030707078767678,3.6386324419283406,-2.435928321584359,1.883659784108037,3.117864690710949,0.6944896175551429,3.8198338429147888,-1.3020809161849838,0.7283368779772284,2.9114465171752537,-3.3262062357604389,-0.30881441738915807,0.41486425998148315,0.868682173472326,1.739827519954642,-2.0825302411384749,-0.4444535490197461,-2.8060420890739605,2.695876953769729,1.9285165801030156,-2.7701981952022436,-1.9558097805806299,2.0576054731476285,-3.7169866623725538,-0.2343066767681785,2.1563322219445029,2.1120607148394354,-0.28029853630362946,2.7405735186995079,2.9996705753206527,1.8814312953638038,-2.709104322085672,-0.22216700226689668,1.6202857495083736,3.9211096547398744,-1.7095757696779499,-3.4753089113858515,3.6535345366451219,-3.0001923974257815,-0.190991397377948,3.2633722759082417,0.11541196094656226,-2.7173906969341719,1.649866690875771,1.398516281762718,-2.9949411885775545,2.2636232783015179,2.5584622144392039,-2.439173745770935,-3.2773476403349708,2.378480866701289,3.4365169718802326,-0.00493359861002407,-3.0466635251249807,1.0489360530029953,-0.2582456155221531,-1.5086770345297358,-0.4895334247259433,-3.2239582203278127,3.0019484298309928,2.094617302459504,2.9451466105826675,0.1907951639560368,0.9016310192278025,1.0693034999573455,1.7469672886683068,0.7011254642738205,3.368247910477561,0.9513103530645042,1.1534491733034145,-2.8331354925453846,-0.8606122971721997,1.0459482154393918,1.8151787231203063,-3.333985039728204,0.7038399484454088,2.907838094570117,-3.419490718228153,-3.917868435223789,2.4233894107433677,2.5829716749326208,3.4697234147635109,0.9345913992491637,0.02296344367247194,1.3609634586909812,-3.9410677232049178,-0.5144331377052298,1.3145493711259766,3.8215064882065326,-2.440479888098454,3.3706540628474954,0.17195655824468759,-3.705321234378517,-0.18301738581567918,-2.6934581522235527,-0.40562991325754385,3.317040190741359,1.0255246502696399,-0.7113768312797006,-3.4142483487884247,-2.0390638845431114,-1.8204469298015036,-2.1831688716720816,-1.0433920552349374,-2.0255802632708734,2.324283721013444,-3.9187667171020017,-0.35302516938708297,-0.8284973930212802,0.3875141352652669,3.6577206154017114,2.7726524635142288,0.2520481159897008,0.3845925331203013,-1.9918465192792796,1.3356128917619446,-3.3494241414767629,-2.994126523080692,-0.205668738919357,2.6812004857733395,-0.9525398803418665,2.4738151728897099,0.8260440324750027,1.4791918708336,3.1943699880955087,0.6747192830086961,-0.6926645629128707,-0.8992157000801433,-0.42602831039788949,1.4598581738279775,-3.9085908014552874,-0.95748638623947,3.718529368508107,0.7228962627142952,-3.467915390425415,-2.2696050305828479,2.6362361908455069,-0.345552205320905,-2.721856698066582,0.3713757418311774,-3.788953790959746,-3.590431647158,-0.38052347400387789,2.8197289651412618,-2.6716105390310709,2.245953150755481,-2.2736636786615218,3.364836779470867,3.3023549091271535,1.5169244197101107,-2.2471509213162168,-1.9620258755986504,0.7118679235860972,2.5071038383373169,0.3266270152956041,0.5295773571453886,-0.4432018131111095,-0.6020967691092833,3.7315100149447888,3.679716323855698,2.0285654171554645,-1.259290305922674,3.554083541590683,-3.0677504733123328,-1.9080846934319758,-2.682320253403267,-2.31594748251871,3.69042657618619,0.4543453637391561,-2.378150091895554,-2.842913458810041,0.37746041992064685,1.762557522834478,0.5262786238147799,-2.53584014974372,-2.791977767923491,1.0334343642211464,2.3054543844106885,-0.2164171148730718,2.971600519899458,-3.0379004603155,1.2727159266607054,3.325389528392831,-1.9124053994494406,0.18607766056024389,0.1404862866338874,3.908261542471335,2.299136794962277,-2.612879208578798,3.2126794134797089,2.7874129916253347,0.587007797676061,-3.6024105211675057,-3.977026894495193,-2.5885714684597795,-2.5979946437076748,3.309475999437061,3.9406089938534407,-3.9264845176647125,-0.0328059213207057,-0.4314382129831935,-2.7082818013839589,-1.8324505108696985,-1.6529732368464195,3.941930372701232,-3.3618558616116518,2.146046207452425,0.6230590316045053,-2.848526216909227,0.9744760226903715,-2.8094242301835505,2.798011305631305,1.9087677703694164,1.3582510789956244,0.10794008496125862,2.969532237235259,-3.6187894765445165,-2.9181902089449167,2.174493279582663,0.483824660511865,1.2347401774312009,-1.8702613983361849,-1.6881808581485168,2.9654299446351057,-3.9224867161501386,-2.6249849293879388,3.4735401282528546,3.2502788310478527,-1.1102018019850153,2.5389243690120208,-0.14740226031192073,-0.6493083157529345,-1.3717794450180832,0.860273156241635,-1.3382654734254463,-0.9861694208996086,1.042432795836043,-0.15090680774623078,3.9396419997599096,2.0451904878174398,-2.966479330586747,-0.4069947214602134,3.233066365449198,-1.2967937826854,0.30214571764903477,-3.851631673703989,2.163683926114776,1.8807747526351575,0.6495498651370628,-1.7667361814097958,1.5790646104676887,-1.315663407987435,0.39491246278212169,-1.111274114452813,2.542476027765911,3.618520787124977,-3.0548926768140616,1.1205764010360069,-0.8991524373060376,-1.1810436097450073,-3.5624349022055048,-0.8512374549795789,-1.7846860159513869,2.4945829694946735,0.07641111369091203,2.4239854516321497,-0.6422591259239221,-3.365432971135977,0.8223609487056036,2.5670917470010456,0.47648308737066716,0.445217742088154,3.890679069002694,-1.0188849619430818,-0.19517479551746653,-0.094248306093341,3.3168851089441144,-2.324072131449687,-2.1499485216449445,1.6372113353460512,3.4442682002379438,3.5277513881163005,1.3717658839972824,1.2102845618717587,-0.8557279222879808,-2.2265838079088899,-2.4078682189276785,-1.8120253130565834,-0.5345999586945143,2.4520169670012335,-2.96772742782007,0.09851273015607198,-1.796595351018629,2.924476022180336,-0.09590118296382833,-3.7253081544178165,1.562155069009263,3.928855073193504,3.495048227486606,0.2866334452464976,-1.506099463614552,-2.751679370277058,-0.8655849807680018,0.3833297890276226,0.9175712367319937,-0.2949170619796886,-0.400409005018439,0.9258385303796475,-3.3481744693760389,0.06556295624939157,2.0048118046507525,-3.1251712869550944,3.412330152756506,-0.3457883903469261,-1.599449767772379,1.6659385962327438,1.1833892330868193,3.70318275426197,3.6640630375121328,1.2143386090211035,-2.477281186205948,-2.0688262526472487,3.372935420710098,0.35512947626113969,2.9805796335793595,1.1013153385048887,-2.471197825993606,1.5360703383018058,-1.6747424363464719,-1.4258277335093046,2.3914729489018997,-0.8957600429622514,0.18292396182163363,1.1848243009559152,-2.7811687676470049,3.879325234308821,3.2644662703850075,3.523159834983116,-0.4339882618577364,-3.54719688923028,-0.033227617828693437,2.2802881999940745,-0.6240483978927751,3.069636148141628,2.2431810502666176,-2.2749973165418266,3.0293323172049595,-3.5549275141865657,2.218422275524408,2.749359163857944,-3.7664350420107235,1.6359441578422188,1.1450908494139798,-3.714726379557449,2.484586064843702,1.1629738930242058,-0.850404590967061,2.8648255789687848,1.77763393566629,-1.8582755880603488,-0.6132255311762445,-0.7027940277130951,3.88813844528374,1.7086136026436619,0.9667321860462961,1.8638532373876942,2.6611719798900319,2.839943756284148,3.3287525672533819,-0.550950627304367,0.060385070825187629,3.0504359813258254,1.7018986281166387,0.048923625120549377,3.3164807955564878,-2.958622235661334,-2.376131326204283,-0.3797100487510736,0.12158700304550152,-1.6471904966594285,-2.9250091346723927,3.8085591874757869,3.689251341093777,1.9409572797194744,3.4942668531479237,-0.1317060637465941,3.3436516169637047,0.33742545331589027,1.960312458447322,-3.4392568697719145,-1.7136032321696003,-3.0707201812608648,-1.9652976634403157,2.213610708501693,-0.7920532542287104,2.819237640495068,-2.4228849978126965,-3.0197453424452966,2.962297061320606,-2.3949935233816319,-0.5393256308334475,-1.9066870950990358,-2.091842567264054,2.290233408541016,1.6021623767171534,-3.661795688072522,-0.49823618017615148,-0.6286368912472311,2.8180027471330337,3.1739421903422286,-0.02360739511390242,2.399285680577094,2.2037396509288165,-2.1508676399890946,3.759312099238441,3.5584564486862364,-1.8621692547557638,1.875934627110401,0.5539465055341877,1.7346418771915043,3.684479578832206,1.9769035393223798,-0.4265228345410703,2.6867352381954889,1.4337840677833969,3.2700151879047096,2.0136187001973484,-2.2407964494151466,3.314770272696107,-2.4679968831252259,2.674117887081392,0.5017956479304182,-1.7516105549197443,-0.5711837384843248,1.446348265527483,3.9719556068926904,-0.2639410943735909,2.3058225633861699,-0.4170446105704668,-3.0328742273817745,3.6580006631194967,-3.789215811950359,0.4185921415976024,-2.0685964288688547,-1.1574170085021545,-2.378755812515906,1.4148574449683134,1.5877809246703692,2.266785355216669,-3.8306230250404038,2.1483471582852129,1.6873841293986019,3.1714313944555245,2.2863338197031455,0.6653964915177832,-1.8533000671910379,0.5045940388119172,-1.1578220802486608,-3.5285803983093455,0.5117053353588279,-1.115429657772905,2.329179941292467,3.399633680358505,-1.1587038345017034,-3.523499650774702,1.0419002416153874,-0.1733647552331392,-3.5089477380932658,-3.7167908443912944,-3.16929743484718,1.683405365089662,0.8404745726858076,-3.2458774335602484,-3.778513215354711,3.5168317153960828,2.9955058379784136,1.0755936527162265,0.07835660648130372,-1.8309974871803628,3.831523016889183,-2.515135941428153,-0.5085915983710974,-0.4932199752730746,-3.7918150485843764,3.691199686648532,-2.5875335890200494,0.9637101573161839,-3.76754732481505,2.2590503249194846,3.6303966329715227,2.3668500474771685,-3.5811030106590717,2.316357988661519,-3.3562706817614798,0.14570893231230554,-1.33459371411095,2.145982815290143,-0.2430805383334873,0.055625203067049436,2.9343514274831046,3.755161727014751,-0.45880226181844377,-2.6511598389775097,-0.22460868337627128,-2.0378850900001996,1.129377626811669,-3.3588604602789609,-3.93947192660893,1.412177299902968,-0.24811379503705933,-1.2165191406892325,0.08313099536140634,0.3059534820217191,-2.0783105911806567,-3.6232254013565265,-2.0665597118945007,-2.7715809000162228,2.1358807780670849,-0.6210946170753753,3.9468756755151626,-1.076285787235866,-0.18422806515225632,1.7957788186226447,2.9697963316553954,0.8461532751658805,2.9166308559264175,0.9702424316381535,-2.5718615524259924,1.6948180337106829,-0.31729430036327047,-3.1222493512836344,1.6131567700735739,2.6674320855010658,2.9970625955347147,1.04666018723493,-3.0907549139815204,-3.2959959249329655,0.962555967672988,-2.2567617654836207,-1.0472270695552893,-1.699861099346167,3.635717612015487,-3.42894400598069,-1.656609259294659,-0.5684095200307409,-2.484896141949081,3.2719436715541496,0.8691849199593031,-2.653530045806588,2.1490060474743064,0.3846606205085701,-0.3088401728779322,0.02779086097376382,2.0484394379172086,-0.757229665542698,2.540544185987578,-2.377987673871867,2.561774803827433,3.922109608935341,2.697706218888639,-1.751885370138156,-2.18145417415597,-2.3179301243292427,-1.7906056627822234,-1.8101136512420002,-2.358229572093217,0.07849190772013515,-0.16274231599283363,0.10938217798052019,-0.4024290569784539,2.323205591386361,3.9849340423014816,-0.2487816784534278,0.6664072210300285,-0.39457684878043,-0.9649701347716952,3.6544235060945615,-0.4055223370221839,3.3184525377379137,-0.15871033359018917,3.3765562859882465,-2.6448959983613289,0.22428454999245063,1.767035187110336,2.089542930960407,-2.8281037714913417,-1.5632930521570983,3.5682199001325758,-1.727663137291623,-1.0599024594022773,0.7651479545856237,-3.9937959831621097,1.5406786732291869,2.6118566202662878,-1.2130314569714094,-3.1113980571978896,3.486521684869735,2.804587027733814,-1.7811786438292963,2.5188000954732425,-0.43505493271107889,-0.17912732780248653,-2.6986084927520475,-1.3851056972638283,3.710573717627052,-2.2179438142279146,1.6780344576580762,-3.5591358347336925,0.37565799494066978,-0.536156009283614,-3.2751314509757565,1.0109338075324344,-3.5155622017672165,2.3403975004392194,-1.3552187838090058,3.3614388683260119,-3.6046558950641476,-1.444198808442257,1.1122446349696782,-3.390555377350762,3.8640409552212704,1.5270842362358686,2.962875300705221,-0.05516059388197925,-1.6615239794876367,3.858529847818441,-0.05412587444980499,-2.4994830377502206,-3.9772523911074808,2.252706629758305,-2.5087594363037946,1.2683454286420793,0.09981928431949872,-1.6500719966999143,-1.9087938830596452,-1.1173238432909594,-2.0032843738016608,-1.8631221441671467,3.7558617991678657,0.797478218521043,0.9627396448132437,3.9454092554394997,1.4876885221530803,3.9137196225176344,1.5551767399966155,-0.49481301488740839,-0.5989146717666729,-1.6294485943772106,-1.1822660544881476,-0.6709761772449676,-3.2570192380744995,-2.4987321819533747,-3.130171180662722,-2.902082423430998,0.6836097281192206,-2.54603960461721,1.0821926266195768,2.8509829254730878,3.4100546735547194,2.191553030471666,3.303538018508844,-2.1672603593442938,-3.161086946374726,2.8269217794876608,1.1757485845966818,-0.9713197679273036,-3.7413552822371,3.318662592352405,0.024027316091252083,-0.08010148854837263,1.2578076398327074,-0.5736651439559193,1.9352855712016473,1.6936835699568889,1.5908907904746955,0.5074593951648234,0.7607307109105843,-1.1909481886699709,2.516229021465536,3.0310436958498156,0.7569014965926773,2.573544090465039,-3.5010370979389835,-0.25250555365813467,3.131793306490165,-1.0823217977804776,3.843954111154031,-1.3202692818684013,1.5605669888064187,3.1092663149659769,-1.4645862743052618,0.5244181818153457,-1.5602733849690278,3.8087065122934664,-3.2316654830972206,1.621088093523034,-1.877282574223372,3.48712926985925,-3.5764580696007677,2.9634866194687667,-0.5962322187792635,1.261221706361801,1.690678380718146,-3.907091560886716,-0.06198352040264665,-1.3144267343237173,-2.7394632086088857,3.5869743372881395,2.8681437139406906,2.865624597957444,-1.730602417886887,-3.2626265648370715,0.43832088097202517,0.30221776754693777,0.6973927631539247,-3.6335258233858989,-2.195936326041875,-1.7296582860647212,-0.5010380644915502,-1.3492531356814122,3.8762315034570475,2.1480843104868487,3.228035822774345,-2.3230195524840449,-2.795021561767234,2.8657926604501275,-3.186297579741992,-1.9986017942705734,-0.8763307662646651,1.2852680632131187,-3.1631356738252096,3.0484073012727146,3.9351703644093245,-1.513092470795412,-1.0328495025699558,3.2028431383567659,-1.9933649713536906,-3.0018420337080107,0.5459146222609457,1.2904983910994928,-2.6762293494375894,1.7629419774716802,3.3515857243788345,-3.099351314730443,2.3800372205176787,3.8365301430915768,3.4443822430141175,-3.539162087201304,-2.5261683881592349,0.012572241321517908,-1.5873823099429457,3.0348339366203245,-3.845841418336379,3.767343794817627,2.9262053860528765,-1.2834406768829228,-0.35637348517227709,1.7892652659326656,-1.2771253259278633,3.7281042431133084,3.105270517499412,-3.647719384974317,-1.7904447988019426,-1.8475663500009819,1.3181265834981666,-3.328818962383635,3.3094557974238407,2.2297910895937624,0.7912860489707043,-1.1981712659223989,2.160860085052298,3.058560002073441,1.3457207818714734,3.3333929998338087,3.714557329426621,2.3008063344347526,-1.3278716966768192,-0.8423487331258917,1.4607242822765923,-3.429959809706233,-3.446081864799549,-3.711387668453268,-3.8483384607996165,1.2920755070653308,2.0331766394850057,-1.3447862481331293,3.1167144210136978,-0.2889985417551513,-2.745875959903678,0.856241345367212,-2.2278001915686795,-3.5310029606722779,-0.6768347768064098,3.2481018205129938,2.5922505080630007,0.9991193034469408,0.9214195812119916,-2.095347914580148,-3.663731010105691,-1.4815233611739756,-3.119717116825103,3.8410622237115845,-1.077726839455481,1.4855915589008593,-0.03027354559823947,2.30772004326644,0.6259153990403616,0.8817545482864855,3.812960118244293,-2.7271561978487179,3.593608605569198,3.6681645221462029,3.3442346162596339,1.5297779769050868,-3.7836594438226438,1.1545156852607966,-1.4233964580547874,-0.9514119618613786,3.435810099111401,-1.65767341260516,3.5255185162404896,-1.7417401925505909,-2.9039518719644787,0.38669419093965198,2.2969015424926297,1.6763777977318864,2.138823366438408,3.8967401554094858,-3.9839471128540797,-0.05959985650634625,2.1276872597234526,-1.8834427210395489,-1.0753199542442574,0.5649728982244611,1.0520140450505462,-3.0099018179057817,-0.7485484612148115,3.072301103962835,0.5443526120060431,3.032484226111494,0.3160923485420808,-0.6598264081794509,-2.26795095907603,-0.3714372511324677,-3.699678945465874,0.9223916186701242,3.718970350641433,2.2093873048013465,3.289556966778413,2.575893731193214,-3.777327110469301,-3.411794107820554,1.1399331757757088,3.022816810247268,-2.921987512266041,-0.7678823394852723,2.086136435603393,-0.48606660981320007,0.48795048756609296,-3.7262953347114875,-3.9729483815765906,3.592912568182445,-2.63143965812268,-2.8183408269466296,1.9616040534309046,-2.5601925593172059,2.998767796024115,1.6219073404502833,2.6737065303409146,2.3185333172218316,-3.908330907363844,3.7820405693233569,-3.8468117390822895,3.2463920617624728,-1.2168038460647646,3.882706622916598,-3.726018297666905,0.0679783239515599,-0.14811220342781795,0.7233386731042035,-3.5762306273895527,2.989420425459077,2.5358719003736418,-0.4164233716971213,-3.949510978393163,1.1999841893048009,2.3269017434889029,-3.403263005625874,-2.7960450451416865,-2.1947190438248729,-0.44615826256162097,1.7877497747237233,3.8128729794721565,1.9962334402697444,-0.6618258353751108,2.328978493897952,-0.09020769219020775,-2.568079553960514,1.6561749308573673,-3.945462817728452,-2.3421569642571198,2.8557326646487457,2.692753489204989,-3.456040808507714,1.6773445636927483,0.7472001166908981,-2.100314973770594,3.972470892517343,1.4786217186178688,-1.3474472857062523,2.7310095030517607,3.240483408031097,-1.9802427931902765,2.8928181529962275,2.656488304893605,-2.866819929633076,-3.7077028204536059,1.1913305248080369,-1.2040915799983348,1.1509040920631862,3.758757980362291,-0.6353979578634217,0.7226698949216246,2.73969612452166,2.3046712115398044,1.4972816335415696,0.332016793161503,1.8164913100482494,0.19368672874789806,0.8452887956433637,3.2253769147506157,1.0285857102738226,-1.4771224992090959,-2.3085472595474236,-0.3240086215205962,3.8283430085132075,2.0377373578694346,2.267158550150592,-3.95659033104101,-0.6165692565491323,1.2450415493918277,-0.5185228545039253,-3.2045429434403545,-3.9708108187076984,0.8520352136319733,-0.5853709548472634,2.3901399647010166,3.836073484912215,0.3325040000140609,2.078226565957121,0.785631225465039,-1.9968702901952418,2.339786909463796,1.9653228205230518,-0.6774307583894379,-1.042523052321453,-2.6292615141310886,-3.6386705240482755,1.1434096514253698,-2.531770572006674,-0.8957678554714139,-1.003553982176049,1.6950715781927049,3.1925265367930546,-0.6071321611975018,-3.9329504518586546,-2.531371299396052,2.6673401699058187,2.431964972597517,-0.4464703739195046,-3.6471423292939555,1.3078098520311219,1.0672306955473428,-3.1272345000910297,-1.4836738979341713,1.4654677655667774,-0.5388416788407575,-2.331251386273193,-1.7303993215749607,1.526821413171752,2.313827514563111,2.7020610625073084,3.565242291637067,-0.9248435971403577,3.7929882975007329,-0.5434968965115923,2.595543750464305,-3.5161985800333399,-1.0945640719117114,1.4906933514888277,-1.5420278646367652,-0.5593676462152137,2.798132021819714,-3.64101302164289,-2.100639006498458,-2.6958637870464665,0.7819438088444137,0.4587739708624534,2.8857360415639237,2.1356723361213136,-0.4443714147702542,-0.6412170583303434,-3.9483399776733254,-0.8498221693890324,-0.3668884650100317,1.129014595001836,2.607394121793681,1.299772776510454,-2.4485527336371897,-3.646184635248326,-1.4718371825411383,2.069202492088694,-3.2632479646321839,1.062148581355851,-1.9476698840627763,-1.3242760139000947,3.0008133168810247,-0.3614715351757072,-0.2871339949786096,-0.6481034349836685,-2.7499132239240788,-2.9885332266359336,1.244597760601133,-1.907106878402593,3.6823712073359546,2.9591598963751437,-0.4272451888995432,-3.3220650632181778,-2.0436030255304535,0.7778442857209083,0.4847824281342614,0.2948509524081713,-1.1552238677812524,-1.9848607326244017,-2.1749849787954069,1.740168172557654,3.587206964601341,0.6605674995922168,1.0241483912130703,-0.9199046363403534,-0.3439273477726277,-1.581366881417634,-1.3255914270894527,-1.016312293891595,2.522683186080987,1.8623482909924443,-2.142687937311603,-2.4887699820469448,-0.9829887184966955,2.2336772207941459,-2.213628844207575,-0.6616216165214555,0.9930003466339406,-3.639311942760247,-3.418681908774171,3.698864640755687,0.30858433231506768,2.475645587738021,3.689805221553941,-0.3563255521332189,-0.19447744703655535,0.8329805414951288,0.5941762758548332,0.47359347590655168,2.5073862017727777,-1.4698519966622928,0.743404355429484,-1.4611236040616283,2.368180143471271,-2.566237696214012,-1.5368374266440695,0.7624819961863425,-2.6731271756040577,1.8163270321110395,1.8922721369093996,-1.7990312766423829,3.4127554737359535,-2.3306432074303666,3.444404456193171,-3.630080205218756,1.4286470296413399,0.34342004831478159,1.584139732099076,2.2937839041773504,3.7041959701290976,-3.921960240928768,-0.21305030494478495,-1.207120790014317,3.0221709447067024,2.759966393668285,0.04711217164429815,-0.010146247211324955,-3.2161797575890116,3.937582341548281,-2.655586605523885,1.894410307103815,1.6498110801180586,-0.44446318949655608,-0.7620149236203746,-0.824530808261944,1.2802772558963005,-1.105787563254596,-0.9999311269688391,0.6613509845415893,3.8485942219591129,2.764759684096001,2.508970526347447,1.651666916898182,-2.514037772400285,-1.0379003488939434,1.9851365590853565,2.7274809656734675,0.008652884225203828,2.3436952835647908,0.9908041133138621,1.679077662505053,1.9174951675483563,2.5573953060052494,-2.8180715405942458,3.437534325508101,-0.1721547069842373,-3.6030301566268587,3.476990309023166,1.4752617696658215,-3.6638607807858118,1.597505094562651,0.9562907917637498,-3.0652918517260616,-3.892015733188991,-0.7284128200423383,-0.017082981575033075,2.014183050765511,-2.495187434851597,-0.9829627562929935,-3.5987503028901068,-3.7947419394758326,-0.7857421386328376,3.609178584193659,-1.6778262920147818,-0.1845746040995202,-0.86346326315574,2.6841993601177327,3.2533802501323656,3.0618442833444554,1.9840529717039318,3.4149286693518867,0.5816293841803182,0.3813442612979303,-0.7563444726787016,3.0930173111611927,-3.56919032198521,-1.2551871594020164,-0.3868324108444978,2.6440050937710479,-2.7729864503949415,0.10543019956636446,-2.5661574137406246,0.23208737418240145,-1.4251055810290086,-1.6197056127217078,1.0408923319722919,1.1845500407952657,-3.352796553149692,2.4577051088690178,2.041012961073724,-1.0184381723294509,-0.5522706053029081,-0.6001629717487607,-1.6349292024003808,-1.9450321554950157,0.31635721723220647,0.7464093726837939,-3.3260239155744184,0.6713915297742341,2.4482096773678299,-2.4283906252420879,-3.1075608996536054,3.0362643510748574,0.9992997813588049,2.1218636668622254,2.8502586678919696,-3.0047010256960799,-3.2507914681415288,0.64169968195616,-3.960288813639295,2.5717081867708435,-0.13097825337374248,3.8311292445593487,1.6658838985500655,0.5683255804972331,3.187896861508495,1.5305154810576669,-2.780146929656735,-2.3700349168983605,1.2097331148235906,1.9481092418656659,-2.753865184379144,0.44508421628139507,-3.86392390998504,2.7995249085511917,-0.2724547982520473,2.763886978735921,1.5851586499027733,0.7873244165394517,-3.657974600416927,-3.9321355984719936,-1.4138275696671754,-0.38670378241631289,-1.480641513062592,0.8849046297435761,-0.49544546421951188,3.079784535455749,-2.1384282577669797,0.765588816884172,-1.5747506369220084,-0.6180468920837094,0.873650679709038,-2.185740618406877,2.9818759422476068,0.7051876589373789,2.4067875973298555,-1.0126348338204699,0.3145000394102109,-2.73343794913705,3.9165954429462976,2.853061893929132,0.3280843935266402,0.2740022812733942,-2.7652171288247304,-1.4492427806845845,-2.936029671995704,1.8315946760589528,-2.754548980764361,2.263458571766847,1.059299278007411,2.4405832993024134,3.3579127468945826,2.9624443752038784,-0.030424144938209886,0.35506179112406857,-2.930531217120156,3.279304610930592,2.997098770779477,1.5554923071041085,1.4883912540910736,-0.9211718776942934,-3.2621656308493067,-2.8704927085206828,-2.5002834678989585,-0.5844784476326064,0.8644194441892212,-3.99644333671983,-3.8469095369978296,1.4236465148671363,-1.9437496504216423,-2.0796231007798084,-3.3857077336815974,0.5359459074306328,-2.517634163114579,-3.3954526250304148,1.5941291499406419,3.497369969776858,-3.235205457103363,0.18950790861745227,-0.8886947732824011,3.665454822450947,0.7153460363995858,-3.229160582459306,-1.2763572381855273,1.6436859949994807,1.3034645310928444,-0.341097577860511,1.5213350314871415,-2.9696866990408266,-3.2461814900492049,0.7953011129128162,-2.0433849740850329,-1.4690283792313268,0.31073084782176876,2.3443373141090459,-2.677632903722878,-0.5428539188992312,3.328735034728653,-3.852498764475053,-0.9723733942171515,1.590208433478396,1.389769745039776,3.0586043259889879,-3.9772417771983719,-1.6047467496547619,-3.8712060844491829,-2.2344616962117636,3.932913279976618,-3.2962297862492866,0.9675357968457004,0.2468459250053998,1.9105721207113975,-0.3400335415575737,-0.36841790037556168,1.1578235974257077,3.251406189535353,-2.9186447087466655,2.6856548636411059,3.7583654607845808,-0.28790652655667339,3.6796453588749298,0.4328645614302795,-3.262055316342373,3.9783513625577475,-3.32658874859795,-2.990313560429195,-0.9763400476047712,1.0873031509496514,3.834360502507492,2.5878952797482537,3.485064522072947,0.7579607491888716,-2.5252027624816417,0.07599659629826938,0.6351618055621078,1.8077824640567002,1.0464800738786746,2.5174193345972659,-2.4756570054001569,-2.5961916743652138,2.0308861183232604,3.021031883997842,-1.547858654572007,2.2081820272745569,-2.5462187948329086,0.31855235584884769,-2.03289787067491,2.566834273958185,1.8313564782825865,-0.6220216666250751,0.763150568842903,1.5242147847825232,-0.4702332796152666,1.450401673132589,1.3363887839431259,1.8783198035970248,2.037245075305165,2.4514970125788348,1.1743260146770603,-0.08301637370919224,-3.612222302380232,3.782075781034675,-1.7361225287366056,1.496109545698137,-2.6212276807644239,-1.5228731437570887,2.867261218415117,3.9073385422725455,-3.6526022935474318,-1.1187712756095963,2.112389429319853,-1.295364214225257,1.265909848230712,-0.41274343910277247,2.8084216615221369,-3.3136378344155608,1.0758184300176428,2.9458203191019365,0.9162738729851938,2.585383145818332,-2.9553952561397924,1.6489140144801944,-2.188247041063338,-1.378232898168099,-0.85692704852696,0.37292038297251209,3.2303516850071096,2.902210166767925,0.8594890746136406,-0.39339915236715208,1.849890729042138,-1.433493844523017,-2.3894711632025427,-3.2299412875490649,-0.7825860741630863,-3.8509472316927528,1.228010343515698,-1.1528182309648008,-1.453877900263821,2.7334302402641859,-0.17472038835700144,2.3318708222887984,0.25165945368841138,3.0801510723194687,1.4675106529276497,1.2812575849168023,1.9045056495895257,0.7215609666110074,-2.662285920553093,-3.4644776784574686,-0.971772795334134,-0.5013677005902801,-2.4849958456814358,-1.5519810065437386,-1.7426716702082175,0.24749247147810039,1.8694357972198744,1.3228139711871628,2.1866418777341227,-1.957847444529184,-1.2761805126268747,-0.3758418342091152,-1.7193452593502079,2.8938693094182099,-1.3442861944453866,-2.2769077523610656,-1.235439804576112,1.1472847961149464,1.472002663816995,-1.2330825500217087,2.504381048937274,2.7106657405177394,2.6152629332404464,-1.2319789468995189,2.581747248247021,-3.0987284042287905,-2.054354749905116,2.1955174264351067,0.8213377340765335,3.4638709727882306,3.7712456383392949,2.3398965700149354,-2.5985642582728287,1.7702029881966262,0.8924295052551896,-0.5283541037110384,1.3174071382655353,1.1693891955259606,-1.848538223090053,3.4995066200713227,1.7247647327058742,1.4602922697171109,-1.5174530619240772,3.1713676707258156,2.6259967678418336,-3.5289210834367159,-2.222711614122927,-0.9582190999275289,1.8834407115354619,2.2906897906353906,2.6459867013671749,-3.3011885543231287,0.21244667830815446,1.1810240548771552,-0.8485239426110791,-1.874978675653425,2.141464157450388,-1.108185232183164,-0.7771901983554024,3.578050641869037,-1.6205918862347526,-0.050056778249396808,-0.788138427032749,1.7886596693677808,-3.149977272703204,1.1280111790161903,1.1432971847343998,-0.9159631133692427,1.614523367864404,-2.6740899255361816,-2.2755823987967007,0.558890087656108,1.5588930544555187,2.4024799991404297,-1.8645673771169962,-1.8145404006499737,-0.07067948567957672,0.03943739829234261,1.7597496275774126,3.928202262398025,2.7081083424945078,2.4161658032629376,-0.3316614699635261,-0.03768175936432683,2.8972845183366395,-1.7554397471740995,-0.7365340725851128,2.756344030350621,2.576054349143792,-1.3630291105227229,-1.9190400907593668,0.8244186768157809,-2.258402417276102,-0.24947029986707904,3.4571037272271027,-0.8579701542602753,-2.007252193642172,-2.701215757587912,-3.134375968181562,-0.08818268745441138,-0.518514881664544,-1.6057128809524955,0.15763792503111596,-1.1888640393098482,1.0011912743754544,-1.992668233840611,-3.4913583979559519,-0.5019529775457754,-2.567925064827758,0.10324701312057272,-0.6333779725432036,2.6968554920655389,1.5050272673740973,-0.2672341422103992,2.901260802088065,-2.4753053598556855,-2.947578065199445,-3.968106516675025,-0.7844681370649325,0.8720143595720176,1.001598061008174,0.7101582620794309,-1.5348067307269576,0.7956618188891378,0.4692048542244347,-3.7075787458326578,-3.983587803378021,3.5261386525902465,2.9667734189319194,1.6568632918600104,0.26112173303243138,2.434477746442015,3.8638321896332865,2.6262289598996606,3.843244055223213,3.6756151970773605,1.2681638752105853,-1.9208671253947963,-1.7225975051944174,2.7073494916449727,-0.7159646869073149,-3.5152996800825004,2.674930526934384,-0.780117042453476,-1.0469731171949695,-0.36312601009432146,0.9108420941713602,-2.08103825388437,-0.7685294820629478,3.4975397732744817,3.410959921309156,-1.2843014824484387,2.0047998135777336,-3.3978602644797339,-1.6548351650107256,2.8064375910483045,0.7322259585470672,-3.8916654375232495,0.012793499544842213,1.5834266862723503,-0.1300187174647076,-0.5756088516092157,-2.017063737713781,0.7372182454596752,-1.298481011375552,-1.9389615796908029,-1.3536616892279144,0.5388691632227509,-3.086086778893235,-2.470651131370378,1.6150290272088964,-1.7636370594692617,1.5595392647378299,-0.17384340497530438,2.1305202654789969,3.338722486775298,-3.6568208515127216,-3.8895632541049069,2.5036227447676184,1.1511181286667834,-3.1275961017138478,-3.5526822587263879,-1.023767523146194,-1.5180455229467816,2.507856392366693,-1.279453471895536,-0.7506622919079715,3.0313848914987444,-2.2894526582854359,-2.8029748018284996,-3.848722495004653,-1.8015341107040506,-0.5779996436119943,3.5113145732797594,1.9227744202974214,-3.6979560320275519,-0.9511489975334924,1.4717339765346847,-1.9234515653848854,-1.4809760062904614,1.1259318838663167,-1.2679162464066849,-1.468254528991732,0.8374959371961763,0.79385937147467,-0.5930922870837101,1.1582285429349888,3.2761427762586949,2.5620502221237047,-0.9139242934392693,-2.7736896051681434,0.523742177058236,-2.6315986213640487,2.0208963970618569,-3.4949762594959505,1.6296575958678608,0.8224074069505889,-0.7553487801260224,3.0446155665392808,1.8001307012947017,1.4033764893489576,-3.4663625902239767,-1.4037032009182407,2.778737838816782,-3.0927378859108085,-2.512994083514009,1.2791189939336736,3.061338427788842,-3.683108205791495,2.2238430898451817,0.33846745582312556,-1.0233709883705465,3.3092028382674947,-3.557978503786395,-0.5977051459586447,-3.2087534411749765,-0.5662110673696672,-3.677549608394285,0.4262864433320157,3.350308197166642,1.3010161731225969,-1.1747230977212764,1.6000601616853505,2.633344625470457,0.7529469872200805,-0.8985934051691411,3.9716130605893866,3.0879897328267544,2.5734242448820927,-2.944216271814752,0.8360078675922802,-1.4123144141471047,-1.179520033737286,-0.7639046110142287,-2.7533331995273828,3.9477778844069117,-0.994898490598189,-3.559434147591782,2.509949492206437,1.3643176934904827,-0.45212787765287479,0.7395554145872554,1.637062203919136,1.395168632223065,-3.6499781109366689,-2.094248317059785,1.18254309821151,-0.09607740916964236,2.129280424153243,-1.9265516362326603,-0.7755421878726916,2.9590223374689819,-2.8205683568482149,-3.460083344063394,0.9460137853796784,-0.8062981603917125,-3.8825826196183499,3.2345329093248,-2.5651838540873568,-2.25471944166296,-3.114525513185283,-0.7243808365017743,-1.7175050123179725,-2.727553668464357,0.8623344996853506,1.672096199383085,1.9195705963399288,-0.12134834563689112,-3.5195466960347359,-1.8686248997107653,3.828617490237261,-3.3692194909694708,0.7149292679013133,2.712108854344251,1.6036004406625733,-1.621312176448875,1.0365347485924055,1.9725580299811406,-2.022922824495552,-3.129400249055518,3.1028403349950715,2.4844105688512139,0.1902696218581701,-1.7645588712128134,-3.62097808451718,-3.187795792790099,-0.66628602444335,1.4149001457644924,3.825244893921086,3.760648253856819,-0.15022136997667857,3.913147387804627,1.9159910258651865,-1.0923418990902845,-3.1835970762456364,3.0276586670989795,-1.5892158074861938,3.3883634421866377,2.192203464672894,0.5355228998800694,0.8375920407527486,-1.382782674170935,-2.242789185535548,-0.3319656794271637,0.461729698711034,1.6379367124490925,-0.9241207162343779,-3.9377385757233558,-0.08076010840935433,3.094728993858247,-2.9274218330620807,1.7109463004522079,2.924227461418605,3.4467439900955867,1.5990480784400552,1.2834042086730647,3.0494521331354864,-1.632680363029044,-1.0142171899561188,2.3130105078088505,-3.6309276524601854,-3.377074463876064,-1.4447806276538276,-2.0320744202048646,3.2367219830861098,2.373952918855653,-2.2210352651876139,2.883035824841924,-2.8094965549185879,1.5724526308699894,-0.6836123891371935,-0.3016238908877058,2.8263050208527735,2.323567332812983,3.9218894007025995,1.8498361211025483,-2.6463722903309527,0.6395529346896689,0.3254438163455413,-1.3652081187466506,3.1369062151845208,-2.443848197585335,-2.241800865463345,3.8674135794540769,-1.2648860013231636,2.3442804159274619,0.12022275432323504,-3.9277055897450046,-3.7158103403187479,3.399679030224603,-2.0893503512206257,0.19414960663340875,2.028011132023627,-1.8433061013693915,2.7105317227515819,-2.38857603380292,3.182805627510204,2.6564610536379575,3.0608673555202676,1.4743852819637163,0.19573354173999925,-0.18467948633105658,1.01246313712252,-3.4177078276472478,-1.0102759071124579,1.6582187103612283,-2.1273299433387367,-3.379760896060155,-0.04222926901807522,-1.2334389516844518,-1.995271191443486,-1.5902467646669008,-2.318241898085895,2.9097337032009129,2.841128396949661,-1.9031548347874737,-2.4450374144853388,-2.039661596358541,-2.032906928138771,-1.405064504611726,-2.8735748754327545,1.8890391036855352,1.6688305070598526,0.05738211150474104,3.1777087651760418,2.0693030549999804,3.831790093194698,-2.6758477080892204,-0.4158066430941252,0.8503257139256899,-1.5830472489274746,-2.99486595554405,-1.5283938630748049,0.7286696805930859,-0.209304104150702,-0.27824633807795787,-2.5241882806495647,0.36428877835659359,-0.11156803700455687,0.17532277595976088,-0.8936711412862595,-1.4346872345275584,-1.3888028688962869,0.1328839505585968,-2.2398479027181956,-0.31304641170057737,1.459358920159488,-0.41222825825967238,0.730155436517065,0.263416632504069,2.536098434238972,-0.9817887017574305,-0.1663724858299267,2.8630632333799275,1.1926753619638416,-3.5488228240579255,-3.9806375882924325,-3.5085883807481368,2.0544313770781494,2.909989465124527,0.36702598615436346,0.13495732156941998,2.3348604405451258,-0.6912265174653831,2.2152891151531,3.795126957576139,-0.9914794325102199,1.9173276631781722,0.4824685237279356,0.8316003942238233,0.5852769635917472,2.570294431123984,3.212130043040963,0.9300550771176637,3.10297957307725,3.490235336421992,3.7168462476321268,-2.7096938668828445,-3.5902102802815127,3.0836799221944526,2.2707549244597775,1.6078217910486857,-2.1433834643590599,-2.1546793239100729,2.307224126399393,0.944661945926951,-2.9547435617870958,-3.169690900071812,-0.670677414721272,-2.4467942534196487,0.8038966022019141,-0.6275729480940919,1.0517966801848769,2.790728876598246,-0.2613980143275929,-1.5890321232627756,-0.46393387250090459,-1.017169273167351,-2.995683128182895,-2.7557883112074039,3.04091865749146,-3.7482899475063045,-1.9308184081138924,3.793083708063369,1.6420977337129017,-2.7457619129596866,1.9412138517525453,0.6407648538124091,-3.2416008076488929,-0.1005503023117651,-1.4594032705259883,-1.8383839283973756,-0.8934984464169835,1.1260377297304878,0.04238051513208241,-1.1235666268705434,-0.03883589447521252,-1.9415247969468049,-1.286749401489608,-2.874270860427389,0.12524221314195306,-1.0253140453982273,-0.9953894663258538,3.9550008997771197,1.4299158821886442,1.0537116851278424,1.1586250469565905,-0.7069341356658798,1.2078534258119494,-1.89129512548502,-1.9527276760207242,-1.3299660360348418,2.8556529670648249,3.6636080758691396,3.1312332460698455,-2.189250252369571,-3.98290647365475,1.4803009061318085,-1.5942688590696224,1.0870646145177228,2.2956332193189805,2.0555147223608536,0.31464895783875149,1.1325085435248346,3.126258742753711,0.2651384726898254,-0.8433394325520922,3.2344263191745048,3.065588607266174,3.0118476586042979,-2.660591190571438,-2.721034656553959,-0.4492270764838926,2.601184368167635,2.2776267064557658,1.4482482011860576,-1.7841597606468567,0.2905011503554453,0.5315891494500882,-1.4412431869668015,-2.7364050311326775,-2.69112104227875,-1.2654466512613494,3.7711074554546455,-0.6609854376470403,2.3011972617469205,-0.4071269667689119,1.0587528238111706,0.6578442200309658,-3.5896955283930405,-2.519191407440676,-1.1880730676527005,-1.6992451390233419,1.9765494139542899,-3.1112997976495517,1.830443960121765,-1.9183969840108857,-3.298991737390174,-3.5861415717502824,0.9456724570125283,-2.33645409287195,0.2436782545447569,-1.7260891025885404,-2.7558843886379256,3.349158435574778,2.6310084733385938,2.6742316061475135,-1.2799435564822129,2.744821384000492,2.2944619886612278,-0.7007123361585297,0.9286878132899163,-3.4982216350217456,-3.6422442749599677,1.6343330609636935,3.423142488463565,0.16605597930837313,-3.632507706075115,1.2581780496106,2.513913063588661,0.45432396147813317,0.947316241519812,-1.0849947041850659,-3.208740505945486,-3.1974894441947274,2.0653347725938007,0.3120348314037118,1.128556893180403,-3.140617001980991,-2.748353589652302,3.0515208048835724,3.3085292663748735,-2.973272650423655,-3.294707074428967,2.62299656377263,1.8252509370421333,0.46711391313441288,0.2198017736129687,3.2122693865338398,2.5567424765077177,2.4775391949807705,3.8168548864826885,3.7877410274008804,3.327184408337305,-2.546692452234307,1.3044135531417399,-2.8832463310005069,0.859912432731222,-2.8448347651195915,-0.6897987191488477,2.649682702971753,0.8278805082575449,-2.738548427560806,-1.8759464991376796,3.098342435324369,-3.686809087983014,1.487208112477866,3.337088719292713,-2.4107198460512118,1.2666582506901492,-1.476958268536375,-0.19908049940329576,-3.317356233342881,-1.7742678382788633,2.0215677288351205,-3.9471212680458365,-2.973342803849558,-3.1504123450236056,0.652942100244096,3.379790431919764,0.10748387751764899,-0.3917359799345357,2.290105055591809,-3.9763781595931455,0.8791744853900161,1.7842646404308953,0.11377805211121928,-2.676577267507847,-3.958540215702376,0.637327085994694,-3.290417149082808,3.9724964601466876,-3.7092774618865045,2.5764988156485755,2.0830999833149894,-1.3840801378350749,-0.06844308694713863,-1.254822323751256,-0.9084147239415596,0.28597010658069346,-2.9959796349461405,-3.8928951701729925,-0.4225737292091567,-0.13165339716423908,-0.768179926168745,0.9842100672471439,0.7930102504471712,-1.170775062430092,0.37901428999813638,1.4186406178781566,-0.6350956846028988,3.511478777741469,-1.8565498263754988,-1.2226645677412245,-2.4601512149444408,-1.303007195838318,-1.4578915609211878,-1.4024387099611138,-0.3613159056162054,1.8560360019682385,-2.1957580186471334,-3.536346152969821,1.3362092522283789,2.788168005790511,-1.2957882978741998,-1.1332676449895179,-3.5615545546014877,-1.7899021853407276,1.3215656783371639,-0.42725209977069769,-1.630055440503735,3.370146376246997,-3.8281704128992395,0.8036498344192387,-2.845413740944905,-1.677048294414706,1.902579979383347,-2.235787428896421,0.21882981263458935,1.2790560634564026,-1.7631600360768119,1.3222728778180635,3.015273990386045,1.2662878012578914,-3.432696023401663,0.014066874655055628,-0.4019209479307184,-0.6467294695331294,0.7761333503952388,2.441411942377032,3.152085111341128,1.6244766986214999,2.942259702252712,-2.9437853303688366,-2.5458279801353944,-3.266274064295195,-3.3764347065260358,3.337275971778407,3.974697638950042,0.6003138269045882,-0.5445539535950763,3.8569616783714117,-2.0293177463000555,-3.2007483712425834,-1.9784400438227153,1.5022773130978085,-3.5594756949185477,0.648226554226417,-1.7815402962475895,1.1570011976398345,2.591427826257804,-2.081472630242269,-1.9003376790190297,-2.099814592050226,0.3374715649794817,2.557560034834757,0.8336445760616034,-0.9248994114981797,3.6645434372690088,-0.098526657556258,-2.097216271458877,0.5071640775815594,1.518103386519491,-2.369567930653931,1.388842321737136,3.544906857836267,0.6421585770014611,-2.926866547584093,3.995212805552603,-3.79630744996354,-1.4099153013128528,3.6231963285489066,0.03094247759938895,2.6851985161144658,-2.3788704235890369,1.182093836822097,-1.5215482837524717,-1.3933766167731357,-1.2612171758556743,-1.2611447824738614,1.3082790249833885,-2.8129808157947835,0.6501064799651015,-3.6671323344160706,-0.18569242804396159,3.9948331749199674,-0.4892830373820021,1.4095948304226003,3.7869086650567578,3.731001578559181,0.9727948381659086,-2.1145223039772027,-2.975926817557597,2.420728248732553,2.792627724391278,1.8799392739131396,0.16531312065386317,-3.484980462961035,2.055753017193873,-2.417761451713762,3.6460171924913755,-1.897508528195643,2.6897771548298667,1.429608337058923,2.791255166375545,-3.82055599695276,2.039322477788181,1.3566095321733914,3.734700259942999,-3.4093466680830959,2.8856991603150927,1.495103232671128,-2.733696485553992,-3.3009534418911627,1.412303674271521,1.4257504230891965,1.3518585460754098,-2.762006884617694,1.8093465804855287,1.5991724639838126,3.7767011651908657,2.4000506457948607,-3.1512519772499356,1.679067457506152,-3.7648090147048727,3.656046462844391,2.780154062982324,-0.1654982861688412,-1.5444248829186334,1.1402251124087784,0.3548201336862471,-3.6110579901389698,-0.4474597140836616,1.0945442352164463,3.7353470229880676,0.4871567700107349,-1.303867078569982,-2.901050936256693,3.2980944709308934,3.363805542728066,1.2249785946369097,1.2454789970047005,2.654613276135807,-3.6018671925789125,1.1899407104734348,3.63634599895519,-2.2270271933586729,-0.33978881401243279,3.3933049830266386,3.448068896484604,-1.7829857344771088,-2.8403140591946167,2.2158000153453498,3.9756107310144319,2.538382517357906,-1.304629780046076,-2.163908616351633,-2.4746315374949408,-1.5719950507246834,0.24801337858848528,-2.3398084687708859,-1.7219833885531187,0.4674511470017215,3.0637848679671899,0.3155577733133432,-0.847446685666341,0.5431057894937119,1.2883427668372916,-1.4332226901076995,1.8828433752100038,1.2506806726404625,2.712718198669898,-2.9068191832559178,2.6853743589046834,1.8603975138582128,3.6411379493994815,-0.2589660692337956,2.7250940908366205,-0.8895555429507231,1.5297428281183594,0.9725482753098618,-2.4062371685203036,1.903369468876793,-3.3915611050803537,-0.41946474463405206,1.9492462138571414,-1.8664192769023774,-2.6841051469842966,1.6767764445109146,2.8891529294051896,-3.7654435832443955,-0.636374644753577,3.9448876102711765,-2.35121140270211,-2.7233875517035797,-0.5615104241154152,-1.4778423149745839,1.0673528228155256,1.8202939085133903,-0.8731906232885409,-0.27714623056882017,3.647686609205792,2.301397450773022,-0.9942611062785396,-1.7198329669223656,-3.362369997796126,-0.7652801242596714,1.3993891342109404,0.034088317702086538,-0.9291335130288703,-2.899328780314006,-3.996724653472116,-0.11973884580559169,-1.22980502027879,-2.4658548563529019,-2.116495791626715,-2.137507880442403,1.675751121351281,-1.522045722700126,-0.8914317111632064,-1.271749798357224,2.6266302921949959,3.619082490886683,0.8534921897358325,-2.8454305038978306,1.4655688443453335,2.104242251420918,1.5036626597467394,-0.4378035308096744,0.22010975040043236,-1.3445704693518624,-3.60822736926548,0.358035150565871,1.9420700714471125,-3.810501231320192,-0.5161091244302432,-2.851669762565673,-0.7877292246818684,-3.8866727099678268,1.7013974669712902,0.33374502030834388,0.5682463125771742,-3.351013468863913,3.839148115147559,-3.9403096180066328,3.7626042937755717,0.8405148991229323,1.0328208148705507,-3.681621380299073,2.0898003338948598,3.6597909857942438,0.3648293672022911,-0.5683201476965978,0.48289510798074888,2.547874716330334,-1.752562511804613,-2.944822329325941,1.1797598594343378,-2.7369675613991335,2.764505649610647,2.005012750656748,2.4245304259824467,-1.260407671115967,1.8751247947943588,2.9965493666726417,3.224438965514886,-3.5852367134393905,-2.2708966315707,3.5598761130405984,1.6924875904473816,0.9920183694507427,-1.0769524591075382,-1.0843929029810858,0.9174271243255019,3.8153055812036849,1.3852596560586106,-3.303298478109264,2.2915070132852595,-2.073621171044958,-0.6304640932965153,0.05647660158485124,-0.18972628674706039,-2.639434607835052,3.8498661217958629,-0.11068036905811263,0.8254064989270811,-1.0603446179369097,-2.448583752176347,2.970010389031632,0.8634842122704072,2.4012011303902209,-2.3331567036785048,1.5652390681411595,2.674082989914501,2.503807270863156,2.877285481230693,1.8748125295888896,-0.8664069029074353,3.3217127618054986,-0.7401141478109705,-1.9147335353028619,1.8505039140322586,0.9369878962208782,-2.702420854639067,3.9945633466602175,2.392614647644267,-0.9560495806438605,-3.1883603628337058,0.9842979660729787,-3.4885706296017737,3.270305609949798,1.9905491911414429,3.9724875604406035,-2.7436133951735277,1.7981566812220589,3.4883238754292789,1.7302516120689822,2.5412720354220106,-1.1431022607454582,2.0865543570086659,1.5470085672242143,3.4168287958638086,2.901001665143979,-0.23014381302400034,3.4355340342139675,2.1711582014632109,3.933685917412255,-1.5119536215805516,-1.940841895171481,0.5941238245897207,-3.221922993306233,1.781843621629216,-0.44726911812812966,-0.17172558712718478,0.3784043283532048,-0.428339703218783,2.9571868899838069,-2.499734736551223,-2.8750282645407045,-3.0824725953308116,1.2886794557876158,-1.0178679615480002,-0.10999046877247398,0.5102569869927986,-1.1112944731322685,-0.05964254016665271,-2.590983236997724,-2.188669252237288,1.7588809655289835,-0.6680426058501006,-3.821862641450444,-3.1394924700963218,-1.2736333909178033,2.6478248536084116,-0.5371907812470367,0.8027190742311507,0.924548423463972,-0.6848039858276662,3.007400718160582,-0.10202826377424423,-1.9334073387794435,-3.397337472462281,-0.009773058259879841,-0.512861332447162,-0.5736191112064313,-0.28155312249189726,-3.8198358829092999,-2.3714636610535857,-1.8349768186142706,-0.8698201551779485,-2.261072363283321,2.1068636622277117,-1.7632848758198395,-1.047341551606925,-2.071588794305425,0.6362763609625093,-3.173333954619719,-3.668020128474333,-2.0555779878322779,-2.46501927089475,-3.917310544945857,-3.1526463866510747,0.48077162570677337,2.7755574024839575,1.5760185391951228,-3.6821425674172296,2.7177382907381446,-1.4648021530924405,2.6312796050195308,-3.6708855125069617,-0.6277021683671935,-3.1901154169744618,0.2195502965335896,2.0259636232916726,-0.40184514896568848,-1.9971860110582823,0.3612604599058358,1.5899069210468487,-3.7880352039530065,-3.5311555006888,-1.3312685179514914,-2.965400987150921,0.1746499638047032,2.6868696184169327,0.20034945869372756,3.0651930706366254,-1.6104628660033012,-1.8406421268395184,-0.6387848711873509,0.9500270457386586,-1.7926055306706628,-2.9819111943966627,3.919131189756868,-3.210864547565622,0.05451149311292358,2.696123067189701,0.6423008689894223,1.0103008650375225,-1.3521200372799276,-3.1469710457160238,-0.05565790649486835,0.883835020851679,-0.03748601051491662,1.8867982537533284,-2.993234449783248,1.3519540825099528,0.1435204516462374,-3.287936764176864,1.8981718299215889,-0.33777168558292228,0.09310742544034412,-1.6721343074358955,-0.79546516149909,-1.7691597387615979,2.315713657100665,0.5513364388700062,0.7879201998315359,-2.610616404372516,2.140729649145216,-2.429475473763059,2.7889888766773636,-0.637664479533389,3.108719729629674,1.1920167808807279,-1.445623412386401,3.9051732044741485,3.4203045207851847,2.4258660831862439,-2.098061768435203,3.5768306930238618,-1.7408565786683655,-1.2908171330732777,-2.8369071372833867,3.1387517524736587,-1.3262612958638108,2.7776029295647239,-2.935535711805561,1.7066274231158359,1.2643276968131039,2.287821182379502,1.9600519891941524,-3.369311833627707,2.7919401294654149,-0.47020446057416778,0.4749335713093972,-0.42309394107688927,2.0465386414456896,0.23813148123727147,1.7761546325821316,-2.552593929918424,2.9009635663056647,-2.3326684058481179,-3.814603415705915,1.8340146602941463,-2.9598916533836139,2.139429996510028,1.3235658897851233,1.4952087055575963,-1.5269482147562022,3.092721119601965,2.3396795768583189,-1.5906178087965213,0.7153222657354954,-3.80830590438556,-0.26506971104912027,1.5056406438506072,1.0889129315989772,-0.6767486445879614,0.3445431388594944,-0.5996558951106989,-1.5648740024019885,-0.1542599388519319,2.326659967887413,-0.9423167608741965,-2.629631099102456,3.394336135942244,3.3229691950841069,2.2395805349936648,0.1960696855934243,1.9995928279182307,1.6929748821223934,2.419995306930331,1.8748159055687213,-2.4972245750161479,-0.30643693634809479,-3.730881591220383,-0.4673990260506313,3.1092106260424918,2.5459449096748436,2.243392207747961,-1.4964850343354695,-0.01834800961572447,3.338693324540988,3.4129123176329196,0.18381052899431706,0.7497431875290301,1.530569358106697,-1.3824624681234506,0.7336579837048252,0.09014924190864626,1.1511290494859639,-3.9420084763586846,-3.0267940432649818,1.3893252415225153,-0.8044936064620805,1.223900766485066,3.079296962892503,3.6895733587723278,2.288182102834834,3.892224351227145,-1.439765884510804,3.95830741666595,0.36437287440899449,-3.561599078013934,0.17891988872226428,3.389444789303032,1.4500406333948775,3.97828326823051,-0.30708473093429969,3.091622553536718,-2.872847474753301,-1.4501745692530295,-3.281119953809972,-3.0101968519187709,0.45507989722314426,2.7196056480560326,3.6298648433276199,3.0465081826670197,-1.3960467674862332,0.021330012479396033,3.2894797841925467,-1.3062393214763324,-2.4145635585101674,3.1322530331003008,-2.6547833489172616,-1.894496402344771,-1.9789685858011375,0.7043138238988691,-1.6540582657971415,2.9961004885075077,-1.5290409337387843,2.289332573199329,-0.6289833890233094,1.293425318590658,-1.2770760718075563,3.9941025912091376,2.9929393271152966,-3.0433760410735015,-1.6463308575114236,-2.2642583479056705,2.277072367601712,1.6365476902277579,-0.16932894253874387,-0.536891619717399,-0.675882074174786,-2.4097063099588587,-1.6158082430029064,0.7307604255542559,0.7676656439318252,-1.2828746051949365,-3.1036947633848568,3.4166867064149475,-1.185205774437119,1.3598583903390403,-1.7706710836570619,-0.21608978068119123,1.709235867750225,0.49106868015267227,2.158796999726442,2.1240431572514248,2.405584406195329,3.749665529529352,1.7786672861590747,-2.6506577412439764,-2.399739787626398,-0.9914098957586666,-2.2280710255198565,-0.040962716022310278,-0.24795805482871303,-3.7497297910680995,3.4731727649524215,2.160274055272656,-2.1538382547552628,-3.2618319793498395,0.9794640061939477,-3.493811692625364,3.6935909810028146,2.2543460610369996,-2.1643172914817478,3.4958547675839348,0.929264126563961,-2.205001144811243,-2.111920413535847,-2.8392084836410778,-3.3184559705054497,3.665268118028603,3.72253266529013,-3.0919895972679045,-3.029095784397958,3.7713886112644969,-3.2053460734318266,0.23961222909493075,1.9176295974053206,2.639183447014899,-3.7270297396775948,1.2617523653604046,-0.22824984981270747,-0.23481575168552716,-2.154642955419538,-2.9507595567150064,-1.2110123439046599,-3.991879728403986,-0.10073847399120961,-1.3301238774010623,0.9623908557101171,1.4411673123319507,0.40426267063166945,-0.6384663751081254,-0.5322022598402496,2.804357191429802,-2.1071116798182194,-1.5987213212179337,1.941785435990731,0.857385431862637,-0.20228170908336108,0.5879399668911782,1.4114559936747809,2.907025478230654,3.8476672508044347,-2.6456725403685938,-2.5138567288907955,-2.327003640942399,-1.0108989183602387,-1.881404550750898,-1.083034153868933,-1.8690643030207195,2.4314796329643535,-3.1660440652927654,-0.787130585091762,-1.9663644942794428,-0.27933264610092026,0.9638643809227583,-1.6418832472380223,-1.2571070722645373,-3.5949385079547229,-3.2678773773572589,3.7905408154294148,0.052502929190423767,1.4479213432483356,2.0683507014321558,-1.1931167058625354,-0.38677928911954675,-1.1608954887134327,-0.714502142156376,-2.543243432668495,0.23790626195065024,-0.9342045461378634,-2.481663029362715,-1.8521459670291379,-3.2840428763878046,-2.135099084082368,3.233861775025658,0.5061172819016857,-0.2607614059503369,2.5316324476899769,-3.9083641500851566,3.481261148652565,3.5824992483336697,-2.8636252305149396,1.1137470009635103,-1.8664165345448452,2.422934138791833,-2.4159240058581936,-1.3986830185503694,-1.6564646581657244,0.06796242103456329,-1.5452767943931074,-0.9271712832372911,2.221732355920543,-1.0075392562569048,0.363148045738364,-1.678632719361545,-2.3024726169912608,3.698858926869187,-3.3627603937402315,-2.5956934514621405,-0.5043243080861126,-2.913335108197181,3.118788443682792,1.4776493496464829,-0.39513612573475878,0.7547322720079075,0.7451956909600614,-1.6506198379792974,-1.0081368678135148,-2.4379505927510216,-1.7320920367129203,1.5541426046050529,0.5558072103984824,1.9653709873640147,3.368576384186632,2.7471611478699327,0.41035717293842746,-1.368728425876741,-1.4206934173876454,0.5427529858132676,0.5777657406953409,-1.239220699378195,2.8202342659855388,3.5782311824808374,1.5601984112997843,3.870046645396889,-0.696897841911827,-3.8191897888834385,0.4909316536987509,-0.5191026957170057,-1.3253619702203723,0.7273456570003569,-3.242522645463163,1.2464126031635479,0.2765111146119379,-3.580514864135462,-1.2555001264305724,-2.3102852867397249,2.2851755908369615,-0.3274037996898178,3.3564352494272748,1.1487830307082483,3.338608345420031,0.1637151386142639,0.6214080305309953,3.546885351828192,-1.5574609686434383,-1.0665019224932389,-1.7404977154902584,-1.2760528106237337,-0.8686160382562456,-1.527252320075294,0.07794632615998865,-2.4110690011853928,-2.943919822907654,3.558486647017901,1.1889947311417446,0.6992190911080574,2.0245859596681106,-2.3744329055640058,2.2756754572589177,0.0019334884670660913,0.9876880661410024,0.49673996789122479,2.0929264888521414,-2.840217718360556,3.2766910404598486,-2.496235818369211,-0.8573957969637556,0.40451675487706498,-1.2453823489136902,3.0003304987055374,-2.288236675031733,-0.3788621230480089,2.7340806233979677,-0.18419402163713784,3.692356167019942,0.7330893885764347,-0.255563000315977,2.882786024635558,1.1681414140344364,0.1125162896727927,0.19299745241842815,3.249754985987696,1.9140067649142206,-1.8908500146174777,3.2877448875951824,-2.418160988051393,0.5272929342623538,2.232807242817117,2.077138737658646,1.1078369517466254,-3.236213421029457,1.565742441506182,0.6091279497928275,3.0247953437413814,0.5233680570158716,-2.7840609437393279,3.6734529461937246,-0.9244962337825127,-3.9612621144046384,-1.661695839409953,3.9150301154799296,1.656388437400091,2.9564142313200927,1.7833624147323546,0.5144539507444916,-0.4833681603785651,-3.928632659780866,-1.6318174524751202,2.809194480086604,3.558004762211321,1.0739009292995059,-0.3092890458697719,-2.4749483628420227,-3.797784137849299,0.6218911259436872,-0.2911167185371033,0.8717989764719532,2.7098149204033996,0.6465476031209789,3.774626052299997,-3.2348423080718708,-1.5241950471667778,3.2196643833496267,1.7731229858304714,3.849317364211978,1.054090911728034,-2.0460121778996376,-1.417711237779612,-3.121774912893409,2.102344695002504,-3.179476707244179,-3.290842630469804,1.8696855940781934,0.7847924516663127,0.8483757990353178,-1.4167224123223539,-0.7257755699004056,0.9818253465826929,-2.9985997183572747,-2.496822479298146,2.4745210685356806,-3.9876467146394178,-1.032485954661662,-0.8977065412171432,-3.0186037995534695,-3.775350603718338,0.7287842009772652,-2.7305623393476257,-2.5024145367956445,0.5307729717922909,2.9319663314816006,1.5416567153778598,-1.6742539375163775,0.5100314182209962,-3.361675633870945,3.467170487999498,1.9004761438312077,0.8242101290202832,-0.4467775240679437,1.10742804256967,3.7518571118326857,-3.109233215802739,2.4163517172783024,-1.4153790239752267,-0.43682834252489069,2.5224416063063446,-0.4021708004676976,0.6833955182553266,-2.1785639099278795,-1.786260377981642,-2.5704888677674768,-0.6665466218066998,-0.5262946475737225,1.6921185880171992,-0.21527676001397645,1.8531857575287996,-3.2435511618260826,-3.931870668370622,-1.4738719543126158,-3.5033909904550306,1.8634554975202047,-0.5170751694506128,-2.7150583912844405,-1.4115234010995133,-3.4967986065657339,1.6961849986928526,-3.5026580792183816,2.623982159700769,-2.6853188395311937,3.464048396067568,-0.4923154309279578,2.1264374882107317,-1.672324311100722,3.5103041141038018,-2.985188624611161,3.1268305316837754,-0.5949136222718392,-2.652381689236992,-1.448561851340614,-0.45251183940179887,-3.150653598821437,-3.164130082606735,-3.8406933038924606,-2.130398845668539,0.2841555504612234,-3.3466960813223185,-0.3814017045195508,2.765116833249696,1.0195692395864989,2.012297925319599,-0.14644692376973923,3.7294307933609058,-0.5152302523173526,-2.219185653102265,-3.4891951222696075,-0.09738114882661542,0.2336679637838186,3.2212283850036558,-1.0442219927663528,-2.22684888836032,-2.9955736527205234,0.017706671928923613,-3.9492236375167355,-0.7020077345344211,0.367993193503553,-3.4834142338702218,1.7840992081242569,0.2656796810574713,-2.9931083430747487,-2.5065774658415975,-1.5199616030797,0.24237318167271483,-2.9540793576535417,0.8792141094600297,-1.3345083848643596,0.5786208050980104,3.1526626684102796,-0.22383541048867018,-0.31298153013428289,3.8197571323319465,-3.063708241215613,3.829633790374233,3.4932636780514194,1.1444759450215987,0.8182531476627704,1.725187784851932,-0.01381361554706495,0.822854275129588,-2.466959385445354,0.8076245155167507,2.2432796911344576,-2.2962669488097777,0.8058488776938528,2.989537540107425,-1.3135780492146303,-1.102519382823976,-2.8934363761497909,-0.8287319833435001,-0.45663990585946748,-0.2570853913793538,3.209528122050915,-0.746583106118563,-3.692374210028463,3.193059710239658,-3.5253644927606215,-2.792877552317563,1.9876294270520543,-2.1768828042730545,-2.4179917318655868,-0.08631340228089912,-3.0445328180260686,-3.591068423103022,-3.6666405845108338,0.2940545782576729,-0.4840048899783509,1.6309361922530839,-0.788069413200706,-0.5189308063280151,-0.15256880417631536,1.4982255483077749,-0.2477496915912527,-3.8900469854961319,1.0378623010476789,1.9672713639506788,-3.0131941810156066,2.3415099789031634,-3.0274155223817837,-1.45461451036255,2.564470156926296,-0.527473056636879,1.32401283540288,-0.5987458745850018,-1.277042229679431,-3.7532179100449509,3.695211332811243,2.1734867176278875,1.2801133696828986,3.213465060741374,-0.47808874397226655,2.2987279168237908,2.7502988170783109,-0.34991198512369606,1.9086947096870005,0.9833124553663959,2.277202703091021,0.847601220857336,-2.725026719276907,0.5055643820052538,-1.804556213663334,3.2315504790109497,0.6096439136452334,3.8965498162764016,-3.2544423077604849,-3.1778007943995387,-1.8611801672451963,-1.264953787953557,-1.9628902493770566,2.7583378676895498,1.5439622199275736,0.20576344453084517,0.627259166847316,0.7663776771483182,-0.1755262123134822,3.179643649946299,2.9493890881734057,0.838831761410745,2.447529800448498,1.1272715949767208,1.998902266967403,-0.5485218988221463,-1.51890214342564,2.7798181122739038,-3.9994087352838445,-1.712458089149334,2.087947394122069,-3.247139884364975,0.6487772523151598,-2.1136778875503676,-1.6086332811114444,-3.782004099319285,-3.773943897392174,-2.3336409401695246,-2.906428699260143,3.8469035472730255,0.6685740090711887,0.6497312123113828,3.719348905345827,1.5887371252449825,3.4767056705059975,3.8474786583886004,-1.8684609179490688,-3.9858950107654387,-3.2117334827212886,2.4390276401399628,3.2166568066119485,3.697920738079283,1.2895755282358792,1.1106364296472667,0.27126510900655989,1.8453000194261753,3.974844007201737,-2.0927933369015125,0.5947960113787474,-3.4607046793527038,2.7162746274717515,1.8543100537341975,-1.4195081262304515,-0.22708764773724766,1.7935816971129786,3.080219843193862,-3.478391322683236,0.28303721018902108,0.7552492293152913,2.147289473491398,-0.11570440605831345,3.677340488184008,-2.522417000403223,1.2491688785817683,3.7938604772960256,1.2603089939737649,0.887911532617486,-1.1087812228422498,3.869022106908126,-2.4022095499390119,-1.8291021665929499,-3.5934699255492319,-2.665874245794221,-0.918184802991453,1.167967923370762,-3.8105051987395379,-2.3528561156706475,1.7575073467213365,0.07722594848899434,-0.1593695590783002,0.5249352817452708,-3.42085949455309,2.4093506377867675,3.00563684013036,1.9593972554519992,1.9531885854651546,-1.3786497353982162,-3.930131422483134,1.2723605621474672,3.4178187556738566,-3.271205761591169,3.572519928065259,0.3921981012617195,-0.8060252808921715,0.1261713591776985,1.7330108333075885,-2.343062403210231,-2.8050440398950249,2.186848679208844,0.5802462336396914,3.315798950198648,-2.866152726406364,-1.7396425471490922,1.956071921990608,-2.098934239192344,1.2565221779898215,-1.1208571176646754,3.3852357837916227,-3.5295039250254325,2.354324812557218,2.9361181939472456,-0.9710902304266584,-0.6466155665781199,-1.1445562278852606,-2.2357338123626979,-0.6368514699645951,1.5424100919922923,-3.9619726114866928,-0.8828871305077772,0.02318278422712794,2.5764044900951399,-3.5237857878177456,-1.9597381020689418,2.0861206455458127,0.6327262914772991,1.4695521770544096,-0.1295463757789188,0.21886328956275315,-1.7845118369627094,0.46812245020011558,-1.0370276816220854,3.512196704386219,-3.8678219905363075,0.4827544398358441,0.9401496976467385,-2.067287373993244,0.8032805591698802,-3.2406353690829805,0.3078280924798902,3.70649600810256,1.427641181863092,-1.4032467655091792,1.5216518759393472,-3.366829394920143,-1.4899740386690875,1.9729773159064097,1.7715935473391645,0.5159922518439757,-0.26879628029253968,-3.8438643357753916,-0.35561600399904616,2.003255246411575,3.8859494142685566,3.1916769362757124,-0.9290950259968778,2.218625805015197,0.6730637594493709,-3.603551047262015,-2.054995586664993,-0.9974546921102474,3.589090984065426,-0.5791029783762411,3.311646690871293,1.1495668269665576,-3.3234505881213529,0.6276027432686169,-1.2286934619264507,-3.137961659884783,-0.8621201755007499,2.7356393312391757,3.7350626676934937,-3.500622019878218,3.004113494978439,-3.30822487915359,0.461195846922152,3.0827041872428166,0.8616832255664493,1.9399778532523576,1.4436247446794229,-2.8522317403647747,-0.10953271537473253,-3.1410753572499745,-0.1723500155107318,-1.467033977926727,-2.1846398966701114,-1.1277845377458338,-0.7928531883171315,0.4501093270925658,2.7098678646609706,0.44240626509832028,-0.6612592618722084,1.2924804220285147,-1.7742948979692619,1.7012367350888154,1.2883034742306832,1.9524447447753604,1.8518577910115664,1.6110385999124706,-3.4893485377858974,-1.2209852429091984,1.8870628548198712,0.8769298994286663,-1.4897929516311146,3.387501453279154,-3.999215074635642,3.9087870292672708,0.3975958572738145,-0.1712073137365948,2.1983844369489988,3.1394439326362839,-2.8034223151154507,3.095975196784364,1.820630580790625,-3.958060244093499,3.0451406161355338,3.011438514756569,-0.7841306650582629,-3.274500344464773,-2.060587328490109,3.4234892200006117,1.6095618064112856,-2.4550777800742855,0.5635428739903254,-2.70312172255774,2.8298553979857008,-0.7934063358615957,-2.217434822320464,0.7059102017161107,-3.054751575169634,-2.2765219674765797,0.2219271192556409,0.3210340284032105,2.657739636294502,1.8653275924539,-3.9406727762949478,3.077446457111204,2.342245810112228,2.93989842855608,-0.9501868330867713,-2.338253243383189,3.337824243273217,-1.918668457221658,-0.9287318853340609,-0.4342767295859371,-1.6651961023847888,-0.8566952891048665,-0.5373749145024933,-1.2950757611986428,-0.29634034882454776,-1.841754060033896,-3.9907608126104838,-0.4181297208224015,2.0269105544356975,2.235750512334323,3.2106954937906897,2.1037410242386409,-2.4541280408200105,-2.9409500292085317,3.0908024601890009,3.008576873778539,-0.8369193244105091,2.6665029790036378,-0.6220257629131174,-3.7618023928210437,3.4369433057314895,2.616422325244568,2.610525365489548,-2.5575520902252686,-1.7248347373420379,-0.7396886089095283,-3.3567244445291335,-0.7360523581777061,2.5013904956577308,0.7342170115063471,0.774969386493825,3.863351183590904,2.3003722342412757,-3.8059996516574197,1.3502933374063809,1.4740718555762716,1.571433755446428,-0.368795423228818,-3.1201016104068328,0.8459712076710124,-3.248841654947019,-1.2967754121091329,3.864147994236931,0.7022778980880275,-0.22386372319714988,0.4005275522926528,-0.4568541366559631,1.9981797286252184,-3.0909371132992708,-3.943701515462375,2.508101019452547,-3.990145107572892,0.376609643288794,2.535324668914943,3.3081259328092358,1.2534245537065907,2.2153935747981468,2.946492323867216,-3.1238352519613219,3.2278282093683279,0.05872709055125469,1.7576086142277375,2.463036005988018,3.475878912384146,0.8349403509019346,3.5576661929517989,3.3020036534304069,-1.6716330780569864,-1.8688914675954385,-1.3263024305170069,0.8283387103336146,0.5327429707148852,2.894983605153998,-0.01751718566604743,-1.1143565845393404,3.8872604360434508,-1.4611309098758432,-1.25286484146719,-0.06830198084365535,2.615310477531577,3.5127705404419897,3.3079020040976205,-2.605009250030788,0.35155670498692706,-2.068999859973049,-2.492371085084323,-2.899490894173371,-0.8282421908229631,-2.652411828890603,-3.8991350856206186,3.4951179250983515,-1.8287985309323352,-2.970183778511574,-3.3482045536758928,1.2708947100585997,-0.8302151893189615,-1.1935892442454135,-1.826872088572644,-1.7953258835394304,-3.976048012181737,2.732426592318829,-1.99011662519869,-1.8658793598923647,-1.371239832683891,-1.2789230849384874,-2.1187860712826795,-2.7439666977891576,3.3569682367780775,3.6049072315748278,1.6762354904128279,2.9492514091574897,-3.2217340281322617,0.623474803876289,-1.2135010203092043,-0.5061054505091234,3.1756505068341998,-0.23056520674551529,-3.0512427317209687,3.9340383043766096,-3.865715426095206,3.300331684095492,3.9438965209673135,-1.0096966965721779,-1.2858281904155993,2.4117346371666379,0.37733156682765137,-0.5651015766590888,-1.8726560744808223,-2.7648736539229068,-1.6342904402165442,1.0164410108226454,-1.2680605389731268,-0.2494902988212475,1.8899213463414278,-2.9101556434843669,-3.207949143933357,2.772887896521115,-0.10027411124766861,3.737024886135017,-2.5312565720358837,-0.9646952518078953,-3.1137393623682456,1.9117696696943325,2.9719714124067817,1.579409098629533,-2.833470116543805,-2.9972134100805407,-1.968736414221655,-1.543494181942801,2.9647487516786255,0.7983941946798305,-1.900882023413879,3.8670896641250449,0.013582943418561478,1.3423969740018614,1.8373915311220027,-0.9609855873436148,-1.3246768008290729,1.2664313135388837,3.442098418856327,3.556768746473291,-1.0552678349028873,-0.27103413899302267,2.322664925775751,0.5464205545651835,0.4144513816357236,3.268751872477713,-2.0437315415570289,0.5025445647324371,-2.3941545109164545,-0.05048984079216989,0.4657225512021812,-2.171257356976107,1.5665974023586893,-3.9522875873833698,2.9826531662827007,3.1470837095115344,-3.429487963951251,-0.5172221902286778,1.06312150409007,-2.8594612995291817,-3.1146604797779808,-1.16265969897143,-1.995718507341129,2.139709391622689,1.760703044566787,2.273102288630267,-1.0668220883691789,2.4652083799542447,3.6812457087097227,1.2144035561364178,3.690696615785649,2.6142329830452395,-2.307220193518078,-3.091483624304143,1.6016888813996753,-0.31992482415050618,-0.8458770931517261,2.9393299589757264,-1.863603056981537,-1.8209318002880313,3.5872200757187615,0.6567134591907573,-0.23197452590180313,-0.15893913894484869,-3.870267506758111,2.6398389566859796,2.9252577910970416,1.650631681062114,0.4660064046422354,3.3645039359257069,1.7584303401754636,-1.1093059810492623,2.5290462818442567,2.1019441715680369,-3.273813667619894,-1.456649076973962,-0.23023468715968699,-3.0613430538167449,0.04908201881945917,2.49592101257873,-1.1372002776957507,-0.41486632317022989,-0.8367592498766312,-3.7086623896285646,0.5165434824968003,-1.9567587236120725,-0.11783088563181465,2.317284573650923,2.0839412931802645,0.5989250503222428,-2.2392370014454698,-0.4917975634890661,1.5121523482206687,-3.1687319271415008,1.1033998146573332,3.763242846140976,3.6724162065432024,-0.4282069122065808,-3.0664363563908845,2.051693133756478,3.78292264599206,2.1605121599693515,0.39053822417285835,1.6381994895306962,-1.8059942894482016,-3.524524180214427,2.883797340433329,-2.8186712074110575,-1.5384564764161582,-3.8153391836292149,-0.3566267854723053,-1.33545146434594,-1.7111582583648853,0.682362781459271,-1.0860198132466366,1.1706009095311734,-1.9249590461000859,1.8178516103770095,-0.3784511454000823,3.5628020915473206,3.6922001765312588,1.9234536421768623,-0.16864044249581057,3.7533643120536448,3.072543357467632,0.6868719832379719,-0.9259019497462262,3.992840335350217,-1.546781227972767,-2.9780180141712524,0.11460081776515363,-3.110597599098658,-2.092634615797407,-2.1098064863600216,-2.437941159225253,-3.4642884372420639,-1.4576892289576156,3.6772741609458627,-0.24651268468236332,-1.6005079370056524,-0.9829102538354866,3.4515175623326428,-3.5108695220604435,0.08686938142753942,-3.8951922493324035,0.5020202742300715,-1.9711659550448034,0.7546421499249201,3.969630483518489,-1.9946971917276742,2.4598247477967476,2.8444106688461616,1.9542238305201077,2.820182967720471,3.79085668676439,0.12726025477122072,-2.2759115220177437,-1.0185006123986016,3.492855893875677,3.7794283910699688,-1.2330149351844358,-1.6954784146607496,3.141876075014812,-3.824277426553322,-0.2480333830720538,2.9820634449631475,-3.3467458466464476,-2.6288312860003204,-3.805167444992561,3.4945634477367086,-3.1324533479568377,-0.12933015996824438,0.31771497090254999,2.2616305734688249,-2.228020112793968,-1.2589429097829082,-0.2887326385917719,-3.8506013036824058,-0.15509159818024699,1.5925410209745455,2.8900025750832709,-2.6391411005885399,-0.5945111336280322,1.262981037227302,2.4874649742396857,-0.2342145296382636,3.857543277301601,1.8955454264138512,3.0288017150982764,-0.8144057061642582,1.6866147247150983,1.4646631650141258,0.7787420377513179,-0.29019319942742807,0.739863698307885,-2.8991657356673645,-2.58987896967375,1.5576732408186427,-1.4358719185397826,-1.3872919170288416,-3.8941791888922587,3.9873339382155486,-1.0521284371444646,0.31732914403226789,-3.3355454399812825,-0.8199032495556098,2.5052663129078587,-0.8026103645843252,0.6710646387466408,0.22278719464970554,3.780919535047654,1.725541956069967,-0.19636528870636539,3.6959021357902346,-3.3701153244833454,-3.651462897918533,3.9879666407263265,1.271444366883265,3.5174971622908988,-0.6961332203343122,-2.2899564725805536,2.431774378805459,-3.4920539791150677,-0.10064662434961869,-1.4473035390941112,-0.16727606470163626,3.183994171897976,2.5535046472295095,0.8391509428888782,3.1525387553214809,3.9382410970248715,2.785140220646654,2.088812516636887,-0.48599002326256626,-3.120413680675587,0.08442369188063292,-1.2640637167533429,0.11314954723420723,1.7604971343112253,2.107076591027883,-2.5355882810442837,-3.3980769829606149,-3.6310004304173786,3.5477825874102857,2.003483107674586,3.2651202568647745,0.01784889013930613,1.8690084651246633,-3.9504131499055514,-0.15770147743473318,0.3358404195900855,0.04611480023870396,1.5194803128286188,-0.7914487631225227,1.3543639763236169,3.6646719665229847,2.937352509113956,3.0380555322509705,-1.3226286565684103,-3.033241420919529,-0.7160455143272397,-0.39090133841669419,1.1434337110256117,0.7683900080495603,-2.069988416989074,2.087039173541613,1.2492104357371768,-1.9530392329564519,-3.5766969703369266,-0.9659908312029855,-0.961774427529505,-2.550669635153585,-0.4033311232687977,1.7641378378022346,-1.0058755925883736,2.400753915065594,-1.9263184695385807,-0.1137160798818746,2.452575358165003,-2.5138295738703455,-1.5838906531332955,-1.5789520277555889,-0.15959646200268885,3.4187711553153958,-1.2196798078497933,2.6193000580903229,-2.461872770794958,2.542270597441501,-0.21429476145375493,-2.0958592206402546,3.470052256954955,-0.12628222689616654,-3.093722275233958,-3.9915927847191927,-2.936277334658449,-0.15813862136508573,0.5527630851966645,-2.735521266793336,-2.969156571795156,2.2586645310409585,3.265910499856231,-1.7654350942703568,-0.17776307676384474,2.8770242700007797,2.352660381673269,-1.4880569774883644,-0.34645680088392796,-0.3009463394051872,-2.6221067936844015,-0.9149723259645439,-2.20197906548253,0.5751637385834885,-3.789094144347626,-0.2472121609793414,-0.646234084552564,-2.6441301811750925,-1.2031964624795287,0.8345389461555977,3.723775217975061,2.976425910559305,1.1155599424610472,-3.1996074303673547,1.783096845619304,-0.1804685977867342,3.732914786045473,3.758803421945122,1.2953057620672706,-3.77871787569201,0.8747722688858808,-3.7529854282436165,2.3227586999977518,3.739678285178514,3.353641306638484,-1.5401341383443006,0.7045299152286386,2.8306995666897167,-1.8007796724865886,2.058397184138518,-2.2027002684196814,1.0567024520046076,3.4767625876656638,-3.125334917706515,2.899861286520916,1.2878029780484264,3.4119919958619908,-3.0389089277915168,2.0086751477787798,1.7451458220263226,-1.346557837683607,0.4568479772403222,1.354827810369068,1.9992628575339247,-3.179064319562242,-0.17825058162600894,3.4453778196507445,-3.6492508498124858,0.6437987452864329,-1.658241640769326,-3.4840421344041188,-0.10294124336901711,-0.3668157855585976,-0.7125312361806484,0.8245765156827734,-0.8268244306935646,1.0987837796087572,3.1377831957655966,-0.41833596273304876,-2.634373340236845,1.7270855415389237,1.6556645485030713,-2.4703930921590127,-2.477413118741512,-3.9641186823405665,2.8015397375701607,-0.037420778975729488,-0.8306281411289929,-0.11045034218917693,-1.484522685763948,3.081100303489986,-2.984802760651255,1.5490055262482133,-0.919053863480608,-0.11297274264885982,-2.6440550211651745,3.134478015732669,-1.6560620754442477,1.626375944996707,-1.8575670648210477,-2.1496791147999234,3.0651096720801469,-0.23289733186669893,-0.6669998241583779,-2.2547447887709977,-1.919711924036032,3.5730463432493826,1.7633478730178807,3.5316477391471574,3.0486971579641759,3.2133093517897235,-1.8721957487805306,0.8047780670971534,2.583137187680288,-2.1526997078960798,0.8942083301231349,-2.0985352069250107,3.688254570620993,-0.7499152354911247,0.3754259259692265,-1.8058092855249977,3.6665806338452926,-0.16821971044861584,-1.923310783265559,3.230774539648972,3.042236482889204,0.270605156910217,3.460021756896313,3.709482354390011,-0.39852391975527548,-2.042229221869772,-1.343749068557618,0.7937147745773867,0.8901571062006024,2.223956654315537,0.5018446705727238,-2.17397601923739,3.9327624887957546,-2.6439302590502438,-1.4428793934994345,-1.5637039273411864,-2.500682996947198,-0.027071205227802376,2.708624623779655,-3.653838318132185,-2.0843515631079096,2.0524119881856208,-1.1913806119832638,3.259771165736929,2.0534586819885325,3.959178270223658,2.565066055776798,1.5328166441449583,-3.3648690401598477,-1.5642867305221929,-0.7888202418556789,0.9199167537176001,-0.22553362474820183,2.1562338338194548,-3.316010760035744,-1.0229413418274059,-2.585501126403038,1.289884236797346,0.10964756896848371,