[[-1.4366959482667774,-0.03947699909957292,2.3466748226708944,-1.3267042201073319,-3.0900714426969668,-4.8517753765584079,2.017143810884238,-4.437796973551313,4.566503934989544,4.337033162099843,3.1241883436993644,4.181865503043465,-1.5284530318504528,-4.970449248060071,-2.0159641976577826,-1.7890544579820403,-3.34013025866288,-4.142267714383834,4.101409764732125,0.0746004757487917,4.780968963128938,-0.784626574382024,3.9929366457630839,-1.0360863749068903,2.0752714379946868,1.77438579005993,-0.4257050120840371,-4.282633324845147,-4.230126280698608,-2.5099517005781948,2.8119933884500289,-1.8936719819442436,-1.1634920101315572,-1.5341097017677728,4.119752525213761,0.7150801118468433,0.564568098636208,-0.855089961510092,1.0252200610460225,1.03549433906593,2.2212868980783888,2.618584695302914,1.0857112869124189,-1.9987032637725913,-0.13587048477323905,3.7550147799175574,0.15983866155262839,-0.7554829955621027,-3.3272699827679306,-2.640106964176425,4.0560569026922839,-0.366259651834246,-2.6684413626851199,1.0239842258211472,4.630461118791583,-4.836450891260078,0.5786986015306441,-3.9933656130147616,-1.5374571767835966,-2.541794242959876,0.5659430998376998,-3.4890966359356936,2.0649904531562965,-2.326074317528379,2.7098848227996488,-3.4385663050983985,-4.930199688468322,4.4281744155364859,-0.821588512049289,1.9384113822555396,-1.5712445887133962,2.1023989055655036,-1.888288395693385,-2.3034544109224788,-4.383467152662135,-0.8792969631817824,-1.3231534428852215,-2.577072010116561,-0.49766014293298879,-3.785373513176907,2.8285468487538,2.9563551771014184,2.2326269189642824,4.57714781061757,0.6857165074593254,1.2578144698193894,4.177915597665097,-2.691588529373764,2.426587451206041,4.740399607394387,1.0162714443073087,1.3882119186490592,1.4415490417748034,1.3110826668746603,2.6061131213813084,0.26703589345956316,2.5989575394703845,0.8775348835503802,1.0466942202833727,-0.5753855893478992,-2.258881239244622,0.7742417599002032,-0.7486544612718804,-3.702636538580281,1.5487675639908716,-4.104358378008633,-0.46290506138196899,3.4302873428432489,-4.063196345370386,3.7157758354257046,2.3535948193478406,-4.634647631934243,-4.316533794144174,-4.928491864685594,4.205479722233191,-3.111991417065248,-1.3348774382600269,2.0236702742385006,1.8073587548581236,1.8531848845001298,-4.209947585776749,-2.406141103550131,1.849885667895009,-0.7857412600874802,-4.083620737919059,-3.5734927365553874,-2.213705556636313,-2.521229406147436,-3.705655470063965,-0.13372711635680058,3.3543024649471184,3.8573692889462114,0.6331109986694248,-4.446993608086956,3.875755388865492,-0.7342207546640984,-2.005993292493418,0.8441453531862795,-0.6840776899793468,2.1774706519162345,0.27477919082805526,-4.247110459119729,4.477121861728193,-1.0195220487721378,3.819134589943848,-0.6652075097328609,2.740002955714546,2.207699113648572,4.407010958522029,-2.5326304147574465,-0.4027689447826659,2.642325394385276,4.752190674556315,1.5227417719898782,2.881686946220362,0.6900830459743936,-3.276152857140636,-2.818063707802889,-0.7863360295249695,-2.005342613015506,0.18991807201247647,2.22861160951612,3.7251294496143259,-3.675833363930172,-1.2397757169353199,-0.5144865675446377,-3.0370658449620899,-1.1367203596642917,-0.35270226985827338,3.0359659032617936,-4.820844360351918,-1.9146958957800143,4.584940334009747,0.768358510689283,4.830604402577968,-2.944592418851415,-3.33868405371754,3.555227584267678,-1.0524038128612415,1.6219260563645897,3.6375297421215477,-1.686821305663755,-0.9528258452232086,-3.945374497084495,-1.1661210739914898,-1.0301062519639626,-1.1350780640924188,-4.565612657702527,-2.9059036770956885,-1.350029841321092,3.886919821961882,0.47440796277607247,4.059180394077838,2.1262306935178865,-3.712139122357689,-4.738714705861476,4.111674590701179,-3.8936236441912634,1.7191785845614474,-3.985221625658393,-1.4535025290465976,4.4515091889298159,-0.6170179594374581,-3.5134324418808147,-2.0699388557755649,-3.818565015889483,-1.0644935047728375,-0.8986817947958632,-2.274277074455412,1.7497878834871986,-3.5269594985620467,-2.777812617917496,2.2151013755367199,-0.6499025168477877,-2.5515060901636126,-3.3878183362993274,1.5233383553700498,-2.1736347695559088,-1.0380129531988818,2.514542784535787,4.58326142499169,-2.7102537215409976,4.791693070006964,-3.628321557532484,-2.29995322104821,-2.0071873371049699,-1.068309276184248,-0.7869054919618113,4.795760806115911,3.564576133839584,4.884531335890577,3.9694685626039738,4.262188591769405,2.7795035481719525,1.962795891787045,-4.157532650646781,-0.9472434247648938,-3.4071696294064548,0.6949874830255833,4.027897678435808,-1.3196858205573845,4.292334531896465,-2.9671801211140407,-4.914227243972138,3.757292775681586,1.7229579676046412,4.343540564174685,-1.0734394197126654,2.8821382468099339,-3.4422460326514434,2.2497233734678838,3.5112086476746655,-1.777769197546348,3.718681278488596,-4.669874469181884,-4.078954915443127,-3.8489797307065496,0.7958681752857055,-4.46968430459973,-2.431210221077043,4.280945980820535,-2.5902981488376568,2.9692780258889099,-4.592348212299989,1.1168594377009767,2.7660843057495247,-1.1784668250055166,0.6171642392543735,0.8970294059831749,-4.8084889118722249,-0.11017787617825192,2.610829560558006,-2.9093932329003264,1.71630395148778,-3.8446682017594129,-2.817020544717753,4.419293978868591,4.359614719410654,-4.4282119553869,-4.0783040416416489,-4.995963699632309,3.179092084825964,-4.772555168038366,3.1778082207671054,0.41151103773573186,2.564868950510963,0.40403301728797827,0.9654790075012434,4.135954475250166,-0.3517661747381968,-2.4949852257372209,-0.4537741665935986,-4.872291031144873,-2.9481350933821828,-1.2872921612068825,-3.404658090728759,-2.7157086139221597,-2.218301333357635,-2.3301818204816939,1.353144456634797,-1.3587109008471,-4.41057255147757,2.1174865639072628,3.731939152759468,-1.2190187184788073,2.752683176802659,-4.872955089247519,2.752148070430982,4.318486840912575,-1.1526927245713157,2.505570776050183,-2.240273228659186,-4.855893353362721,-4.322915905191387,-0.8865809402577263,-3.1031402070642639,4.520824403941624,3.7409675981510075,-4.71306454245574,4.900176504656375,3.994352446155743,4.1023361146741419,-3.2523235364808285,-2.4522608824623339,1.8145006892876606,3.6888153547072215,-4.39474384466632,3.9996224730271519,-3.664452481717536,-2.8750810133881279,-0.8463036215222357,1.658660573703381,-0.08879174919594224,2.9140633329655758,1.6602290415191057,-1.9708301980115924,-3.968439144586413,1.955896336186452,0.6863890011920422,4.715826291300271,2.6133471448247596,-0.16737153821231799,-0.038114616691895978,-0.9581715959481412,1.6382943450918684,-2.0022080796700116,-1.5008548593174885,-3.6193959055894675,0.13631883544134205,-1.5634608768851167,2.7879516327328037,-1.4597339976144657,0.6210768621305025,-0.44916680745938067,1.8000060283282496,-4.371344708333426,4.720277847761658,-1.1498178175703374,3.761266846102787,3.6848046332082466,4.6532852052872759,-1.4722080546542383,-0.22060839905017949,-4.2822515052414709,0.569055327748246,1.182508421712212,-1.8412012048482088,3.446845280039806,3.653962724157738,3.8757072279511854,-4.151853653756977,-1.5797903901423996,3.6845948970890509,-0.3208510118562118,4.5036698518828779,-3.1702237737536196,-4.7314669420151,2.2327685018458798,-0.9342378107379457,4.565145253138002,-1.7271225639372876,-3.1032781558223414,-2.4907768439641577,3.6679395235860787,-0.7222176504268232,-4.6043029986102319,-3.3588175356983358,0.929995622046369,-0.9691433183912759,-0.55933660399144,-1.6540056230009733,-0.07239280314612629,2.8731247498410106,4.947136224903421,1.0817478055137944,2.4323845660606855,-0.2954315978974451,-1.9387990549955239,-3.7422675906786164,-3.771710668234074,-4.123937125878392,4.295060711866592,-4.326484600298539,2.8121240055200236,-2.1585302737004339,-1.5091414683010649,1.9018218406873287,-1.4951261894792834,-2.4399374531219388,1.3921348919648349,3.5588163508872054,-4.160785655102879,0.8117524879762286,-0.8461978255848428,2.850053693823794,2.5068185065552219,-0.34135605372930835,0.8299599918649916,-3.495165071101849,-2.9724818484249839,-3.206733238088441,-3.053598465439318,4.836519045687496,-1.7196311665354394,-2.93538025138551,0.6131878300513058,-4.046035737279709,-1.2898662310470464,-0.6834610015882632,-3.2264765841507807,-3.19134087833892,-4.553875342406116,2.031093706241368,-4.420947442700008,-4.777565579631069,2.683473362482286,-4.278135493401059,-3.454906318284598,3.0721173584800018,3.6045467695318829,1.1241348922717132,-2.350387589243679,-0.9034678391832376,4.245803793979849,3.0128211198305587,2.878573737852097,-3.846134881856773,4.049270151516998,3.6795830878806909,2.0347913624495215,1.2187061807994449,-3.5338879786111696,4.408812109604561,-3.6524355708608615,-4.600499883168581,4.779288022338525,4.479501674717106,-2.3752407896930549,-3.9216499449280546,-0.6368242515651734,3.075313749142548,3.025578900018022,-4.4240419259875349,0.49140127965720917,-4.071441151590676,2.1946554809305587,1.1671901821165208,-0.701035253890991,-4.312382702470952,3.522606603068043,1.2386399063658927,0.5249444815197268,3.89908647792285,-2.549527511933025,-3.790252336058025,0.17837092130187139,-4.136575939667743,-4.570755939313219,0.07414308604697162,-0.33276729555556497,-1.2535740480413358,-2.5454044748846718,-2.209983125414153,-1.771099607204012,1.5785865373228357,-2.793861516667987,3.872349708984082,-0.7056758697198866,4.044185777438553,3.9818713295083816,-1.5865406413796326,4.506432955669691,-4.320075146164562,-1.7040679851368133,2.5701663295068037,3.765376597564913,-2.0680744836631526,3.550993893271991,-3.3151696196017559,4.277596008455568,1.0958809868690587,3.1056633543491989,3.9750455319045527,3.0170036539769127,-2.7811878775585354,-0.6216860795942916,0.3639633116128236,-0.9921292753898947,0.2027131318728852,-1.3854237253211022,-2.45852874051963,1.0031434613648092,2.829359212989556,-4.896459860886714,-3.32071006609344,1.7480300065997244,-1.9139239832360565,-4.752694903154513,-0.3056514933092611,4.109853260603446,-2.206274411023459,3.6569272696032408,0.036744917357084187,3.5468453762970069,2.340550289534754,-0.2709838686611472,-3.7556773413112189,2.292790495126763,-2.6041279953834799,4.2148596818767178,-0.24089732979987356,2.479891429954895,-4.664524417434045,4.391707231176651,3.1018675483305726,-2.838153889195068,3.258186458538809,0.25678057179954286,-2.5595432942177678,-3.750895342950187,-3.379903037546199,-0.7880007656987047,2.1223032887959247,-3.3897859099184446,4.933668452458628,-4.866716910680058,1.1664967858876799,-1.0404636832068047,-2.384427681017547,3.7641355700545917,1.9679848156606275,-0.951792028376286,2.2287116929937929,4.180855618597182,-2.15876092926254,-3.7201897730992177,4.282842589778182,4.5241208212047578,0.78800089234824,2.70071016001169,3.7865174600604947,3.793780770204066,-4.923388715520378,4.13503684209639,-1.4164777014354704,-2.108441832103713,2.1162823650199318,4.8236519394264569,-2.14546022655321,-4.3270533300946,-2.2987221378434716,-1.3779553906940166,1.5503237079234956,-1.3105446445165335,4.2016533477376349,1.9489416988022122,-0.7090231423758557,-4.286406391761009,-0.7117107250148962,-1.911166016754051,-3.434739938084961,3.8299484608685878,0.9364546596361265,1.5933672429422865,-1.7768347512558823,4.26916974876481,0.8096734155941157,-1.4636292934671967,-0.6091893108721309,2.6747602623647239,3.9642417001219529,-0.3724697938088939,-1.210881163340071,-4.375188377691835,-0.05120330607378065,-4.061385339109215,4.339069696018511,-0.39997305662580687,0.41463482380747598,3.394114407972745,-2.290735557856707,-0.5837829517235509,2.5805032762947057,-1.2503057099567077,-2.1464180300062649,0.3004571134556775,3.1362985832633347,-4.583834036218867,3.354475369306876,-1.063157619755937,2.507858249476703,-2.386798307212631,4.424949924781057,2.835571506105002,-4.498051491511131,1.8798413260170646,4.326822084156564,1.3642182168784656,4.185105632932105,1.9975307340576798,1.0028659028348122,-4.325338466365988,3.1353244256710348,2.340797693792254,-2.1263507836675377,-4.893594509220938,-1.5043670802954088,4.098786973220042,0.08007861371879877,-1.2643370641853285,-0.10374821231479592,-1.2577205006666324,4.053969957908844,0.9254194389149903,-4.419863104850004,4.448752619262548,-0.6199311056952386,-4.349182979970397,3.218573505751675,-3.9432891542966059,4.646657237405245,4.814168628587115,3.9255163982125849,-4.299836764440561,0.7184008604875247,-0.8055822407419369,-4.269404455595621,0.2353370551199081,2.7863624199036396,2.968518208864788,4.609633314434799,-4.997556870483698,2.6256933419280754,-1.957457490032388,-4.451515802486403,-3.966940442020799,-2.726654388899725,-0.8334940778182798,-0.4736217735041053,-1.5894387183471959,-0.04377459618287105,4.950027104512959,0.6109801208477803,-0.024359544110950539,4.842920588496412,-3.2196054314410857,-4.9672716265275949,-2.637877005222178,4.798157924253832,1.1489315486178633,-0.6270977946494512,1.267566387326273,1.911341578910677,2.002903638962098,1.3567890847336184,2.0000524635712937,0.4012313249744164,-0.6329235838946445,-3.4665002247155187,-3.1387558026186435,-1.945125354120458,-3.619402583303333,4.854199449738074,2.993176048561425,0.5445149227778803,4.278549236307622,2.736735737430158,3.1470118786620526,2.8145696564731939,-0.5618430123296729,0.9597002844221443,2.3366439982049469,2.806919722313155,-2.049941991707259,0.45141493872933316,3.54274896367607,-2.7014668171105349,-1.0580477117038068,2.90787102163799,-3.962573293192639,-4.537342104923836,2.665728981884257,0.05637600511659091,1.0224913722012888,-1.0192212223023889,1.4885302257187219,-4.144036102525664,-1.7900470765808186,4.748525903033334,3.7067637920813278,1.88659953528987,2.5148879972530979,1.100814537922865,1.732480748107065,-4.038287327083323,1.5571205347534554,-1.606010449358486,-2.781334528931808,2.2347574432684507,4.6480945622831169,-2.1216774771862636,3.150956032691358,-4.64310234805064,-0.7929500365676208,-0.37073043388736029,3.7458672671662649,-0.42034978678065029,4.492241820208319,-4.9352487138029,-1.348604609285962,-1.4577363814797897,-1.8610183233784695,-0.7665584553207965,-1.7596330795839297,-0.8561368578110713,2.939362177161815,-1.2834040939809555,1.4639319438778407,-0.36873977403531468,4.823262178183507,-1.5599877851983693,0.546083236364737,4.615619874382762,-2.4851687959747936,-4.485636153621099,2.5435591973579028,-2.4978074617353567,1.0454504006160084,1.6620846248009649,4.518169296848512,3.9429235188406706,4.257120327679727,2.8307072055393558,-4.1238582969161829,4.051583476485959,-1.2593228724480968,2.634310967904389,-3.4363731873146556,-4.550451006431411,4.9296243786898519,-1.147944123428286,4.369346666153945,1.0426547314909538,1.1284113791156989,0.40231453850562018,0.6019732511095723,3.2740236051290507,2.44660153055311,1.568464134811338,-1.6623582971833156,3.552774102525406,-4.885682394718602,-1.1982154649435569,-0.9403024324620475,-2.288300470983419,-1.6205603222460603,2.8844256705108046,2.4743336956974906,-0.3525710019059498,-3.5157314338052219,-3.7427093913288855,0.9603735521944481,-0.868089905648064,-2.781791903671854],[2.463715523787128,-1.30381151052881,1.4060122736021333,0.8344851793756885,2.0777304517380905,1.4875034131365759,-3.3815831006535435,4.1238247036922879,-0.8443245821667396,1.511285817938475,-2.87394613086634,1.2231853243998679,0.72521419524554,-0.1942946134232857,0.4291095964908278,2.637990567001193,2.110838716294367,-0.7046392451658257,1.0381312970951849,-3.5462919267075696,-1.7840630002966227,-0.6432069145779145,-1.5057206720237493,-0.8213293760778035,1.1703708244559775,-1.5599739676990466,-0.13815850027503585,0.8685995514315277,-0.3531427717959552,1.4302565237937713,4.9876509933622,-4.8898041644998548,1.540088909551203,4.6384708956908728,3.4720426320429929,-2.877007590479889,0.5435373215636421,-2.0311992997618324,-1.4761995348604054,4.874818142056558,3.9196765697974369,-2.580910454709695,0.9289164762665001,-1.2242534872511415,3.095930339454592,-2.3968161556844818,-4.685921466650611,-1.9515741806280685,-4.384551603607502,2.675384688335277,-1.7941612921105877,-1.3378024893636856,3.225024448634367,-2.855116556431529,-0.13251826332630668,-2.6857016606576158,-4.301628521131355,-2.696311379456038,2.073780080036645,3.058775223122257,1.3609349354518763,-3.5643402140664799,-3.5711609079440658,3.677314661912073,-2.4877936354723886,1.5408037362900394,1.8614641503026155,4.4861475918968189,3.7779140665055239,2.510856220994656,-3.592110767571295,4.708239284819889,-4.904543352770855,-4.552154126831395,-4.056027203520225,2.405797441722549,3.1690004795379917,-3.8140539097469245,1.8678037700205428,-3.835029594649342,-3.3621297993924257,-3.9243640089737208,2.384593496067864,4.082988439119825,-3.019847575317062,-4.132395230856206,-4.90589213774485,0.7147127143103482,4.424304109625606,-2.3373453659716638,-3.9707069179413425,-3.527474989034168,2.873444119856363,1.9144142527780997,1.3518300632866274,-0.14758639143380138,-2.5662062605065998,3.9960104580165369,-0.7460753718453224,-4.3137634337116,2.2157021024031309,-0.09363212754326123,-4.950043899153142,-2.8848307324731836,0.602986047456775,0.6364837984204232,2.186437618616587,2.563807768554909,0.6657373726202227,0.6316032720193743,1.3123790153832607,0.24400988139637648,1.0972481563470869,1.0340747002966398,-1.445277784293144,0.2453221891374291,2.0727333437484756,-1.3217511777509275,4.695883288104483,-3.460420512919468,-2.1501112042948256,1.5893187150569668,3.9450131609381104,-1.1513760392938953,-4.189371065383756,4.645178035911153,-2.8377479714231805,-4.706706962254351],[3.1800939998891755,-0.592081850026887,-3.2868044784342578,3.3511148391301508,-0.47417566516189738,0.1086050435695114,-1.5008384185761048,-0.06440006754178285,1.4958135185354405,-2.414742873090219,0.09300582979029937,2.6908150136125634,0.01770647185618479,-4.083320370360342,-3.828948024764438,4.582580789827912,0.0573708527808261,0.8839941775710329,-1.4785515644230439,-2.0643971601207609,4.155634958073817,0.4205807577623224,2.0850115630651748,-4.228530860895891,-0.766801043710041,3.4351619965802375,0.8018558828291864,0.8748346817078101,-2.1361916441891894,-4.236818150098175,3.1011566091920925,3.2933555839045387,2.9561032971936118,4.884084808353968,-1.7381159439645313,0.20126579332209894,-0.42454120970059919,4.832440835695934,3.0440873030855828,-2.336399885736361,1.5023464201822777,-2.5936465422329304,-0.5299972467519805,1.5046714512377433,4.321439793777381,-3.4563205714234868,4.857589830983343,3.4566354156543737,-3.0073032715840499,1.3496056207267573,0.5004196044238753,1.9832681034668918,-1.7097283686442824,-3.9864737304591388,2.1364677183796205,0.6893639504058511,2.0996931464459385,1.4838948481400838,-4.359839663818406,3.4944861004163285,0.5282993789634896,-0.7327507446532806,-2.0418732242695816,-1.4435144090024064,-3.781788678809768,2.846657274474987,-4.507780105999906,-2.7543643031993438,3.8745260635431797,1.3892531330860836,1.084548982995692,-0.6705774682732715,-4.072863570172261,-1.1899970056229919,2.0216067459954489,-3.0790235956010116,3.360606227865621,-2.195049375170333,2.1999330938298895,4.951299740357472,-3.3256767408778526,-2.1671767007986029,-2.667867607459793,-1.2630411987204935,-0.33798040273350429,3.1193968803808476,3.974025400411579,4.6260055085484119,3.982601688516903,-0.7457432905432211,-0.6645091902196612,-3.412013667845592,3.490292250616534,4.004574600358344,-2.1355446683493044,-2.8470425121677636,-2.713336358339152,-3.0373332046958128,-0.8453687333693001,3.145600958744051,-0.3990246221781901,-0.8479272119020469,2.698480859566841,-4.651779149611645,-4.34384347464435,4.938699875576781,-3.7774914590544546,-1.7954945241796286,4.966315566876736,0.32653405460358977,1.8564310750900149,0.1649172119309119,-4.720932861606116,-4.478374867499248,3.541777216650992,1.193531757927441,-1.9070985611702787,-1.0184836697093778,0.33561303637358899,3.921508682906035,0.8192539564130241,0.8607213042063577,-4.98341618778748,-4.265583712657627,3.231035346780944,-0.9110608288481714,-1.2645234127338956,2.1830639909659874],[3.6242164952448356,2.443152985954039,-1.8567493961112105,-2.658747388075982,-3.387915032304073,1.6007001363614413,1.675359866264122,-4.333292442382003,-2.285601217453954,-0.34306648416525356]]