[-3.5139776448521946,1.1277696115775476,0.024084211355301478,3.6565141875329916,2.2060656736799375,-3.9009599494157385,-0.13436720834444139,-2.135717091185307,1.9538881528081227,-2.016715240044169,-3.1271428583973366,-3.174288536112469,-2.4573546995125854,-2.206669430262437,-0.4421971616644298,-2.499682995458758,-0.09464205717670638,-0.4082951751163344,-1.8491117666358657,-1.817670974705912,1.556981582231579,0.0992662097149335,-0.2927553026270291,0.7616230061462943,-2.5326990255007306,-2.3294328049945198,1.4494094759889889,0.8072169958186528,1.877445009776288,3.678008976769001,-1.1603508102744487,1.335392050817152,-0.21037206401675857,-2.8362059284807055,-0.29921566984869499,1.7315720719996045,-2.1651260223274324,3.3841268307642284,0.42920989024382907,0.9401501503581837,-0.40585379129454127,2.6405253525064689,0.8240272731006941,-2.737931833716803,-1.3511880134201933,-2.7680842010678488,3.044341068297496,-3.480209893149369,-2.5738919922461047,-2.535083345697199,0.06262708882013613,0.2923458588257981,2.367020985573096,-2.3693039229251839,-1.7942719093870352,-3.7280126891283018,-1.2495286991886324,-3.2023667547478604,1.454958916134113,3.8051340523051468,2.7198443261302138,-2.0474945750287016,2.1027813295023565,0.8221107241505656,-2.5806198394099004,2.95878194591538,1.1023590589984993,3.2357988096406116,2.480125045970568,-3.221441590903985,-2.0700466287659937,2.12039889063311,-2.507960094850442,3.7803864901029406,-0.4906785733573864,2.2502031524570649,-3.659849204200305,-1.7293723278370926,-3.4561528838252277,-0.9627661460232062,-2.4026490179058506,3.861277402306844,3.5568987516045116,1.6172291272555813,2.4460052999128187,-2.117924414281764,-2.4853492275543456,3.832381027581488,1.63553492131763,-1.2414922230375556,3.803843756024154,0.32376947216009457,-1.3649831615593125,3.944210657031463,-0.5707835922804812,1.4648289693957013,-0.3386110698292091,-0.5484369653374124,-0.3291156133390061,2.613809891410809,0.20683441815592386,-0.6740087419234013,3.8981106193690708,2.278044644991379,1.6971012843509153,-3.926020444935558,-2.3292397298957594,-0.8705108472798193,1.227424881294147,1.5669138410790869,0.09673168974514912,-0.516052545227488,0.4325422464433517,-1.4222299506366783,1.2455953123402406,2.5420072141703,2.0678284377080686,0.311256862534389,0.3053766928740398,3.7976781976164606,1.4200816826125307,-2.743291479604954,-0.25520915414995218,0.05577604956738913,2.7541877904867286,-0.6285842004520488,2.450803669014989,2.4567623708543628,1.1104071506296105,-2.9839665511876838,2.4618912906939007,-2.066388463718104,1.1211450055288506,-2.8558903606124854,3.5990553401158147,-2.8847974784356325,3.716311498765398,3.8485003321707147,3.6988101391328964,-1.5192034328961777,-2.975223205043684,2.249064704501465,-3.3852260827354918,-2.238334137651984,-2.5507000937102086,-2.729216182163996,-1.8725340808375562,3.504668992591876,-0.606673286046769,1.8254993803731115,-3.4214752921915414,0.7750268374724545,-2.4531731879982265,3.107180081329137,-0.8532139910188479,3.0819541772770675,-0.9122518978181786,2.6566218671350967,3.1180117017954958,1.1837289467683628,-0.0900891049305752,-1.9235596722640978,-3.6386826409161578,2.9348228744465789,-2.657345031331527,-3.7426708259603078,0.9523435335845836,-1.1395352815607565,3.1877451665063116,-2.502576186840977,-2.7387412163623114,-3.8773442273562574,2.041198321292833,3.2573368836897078,-2.480090931019639,-2.7042840058126087,-1.878458886852904,1.3244704205424105,-3.365993891021578,-1.3360156317635986,-3.472436133787328,-1.507892436841253,0.9293271342498786,0.38832129526696859,0.7944871851041979,3.4778482365834817,-3.934180229885884,3.474433072762378,-1.4619986868204667,3.7396316982475668,-0.7318751606059504,-2.4566913909218668,1.6053251800672293,0.5535041624467585,-1.5252475739087979,-2.3828700410530114,0.038833321397986789,-1.089244054582373,0.06608573579036126,-3.529209076520158,1.0344723279439672,-0.15026812209712959,1.3211691090877738,-2.29376295584255,3.675522129854337,-0.6765574252635493,-3.9250907355686399,-1.2183692875696968,-1.535801292884367,-1.8987415000840909,2.249320814552237,3.344164608570045,-0.39665349564133747,-1.5817435509954357,-0.7206552513091997,1.5382498114825385,2.2007581113758247,0.5769297914987694,-3.2250944935920335,0.7068111411241818,-0.49171646908827229,-3.310663559216608,-0.24000098915788094,-2.907208949334863,-0.9089064175751416,1.4618026818986012,3.147280966208588,-0.8078668248401397,1.2852045802369583,1.7614472242321604,0.5473844797764524,-0.5937952827013076,3.441994071648515,-2.27958259961924,3.9352336539435139,0.0847819202248985,1.9999348744290205,1.4779347978953812,-1.1530041404200482,0.029035279498694778,0.6625685320301553,2.8128670015111956,-3.6407457364695885,0.17063391494703418,3.6861541583996004,-2.9394057502166239,3.195111574528653,-0.3214773086931384,-3.4482327474298328,-2.708541936867758,-3.198591547583476,-0.7599371783495137,-0.023096431445889466,1.7592593184792609,0.4380530121294184,-3.342553464891603,-3.7246821114018084,0.1633960841013664,-2.2507886854608598,-1.9181755225029192,-1.3642682583191013,3.6752705905121276,0.03073488000191471,-3.7156041014175935,-1.4011480488346598,-2.684321473523351,-3.4127148620093594,-3.018786116395229,1.8972364456949507,-3.2097544155316699,1.7713074438162205,2.460000430522264,-2.7508294167006968,0.3448072001019513,-3.2221351616939817,-2.9971768404597158,0.19401616491408459,-3.391159046809383,0.8644379284953088,-2.9915184025296615,-1.859110629603837,2.8502887546604338,-3.669106457442597,2.7774940090877395,1.2669881163522705,-1.0139144696514207,1.600415550573369,-1.0444377857034466,-0.716116504877782,3.0782175303018359,1.8437846877771796,-2.0992551780542625,0.4335313078450618,1.2967727123772273,1.776395186469479,-0.6501190932024115,-0.28099508718700708,-1.6664683022520626,0.4937026427971061,3.6099550759927618,0.6026167206634874,1.0933473537929999,0.6286335895384809,-2.1904929157930255,0.2255784587244145,-0.17049870879930063,2.691541363171975,-0.21338367933391745,3.098814870555895,-1.709865289451244,3.7387527831215205,1.4469062531537276,0.8317475164272778,-1.982368384609108,2.5748856417429897,-1.839158165589943,-3.765336478406388,2.1647964467087794,3.0214577570114446,3.906496629543007,1.602340459947425,1.1701213516349097,-1.6595356065475767,0.14194008768647405,-3.888430755165129,0.05040445878937305,-3.672355478992934,-3.3025680282307494,0.07409538954519413,0.36066087361690349,-1.2301031656243505,1.7008110821732752,-2.7972810847173035,-2.790826649864921,-0.5783031704280168,2.544215354324823,-1.8743650592560604,3.3103482533920927,-0.5889359193192674,-0.47823793460266886,-0.4735806402575913,2.096458460597188,1.6431021480510735,2.282995156220606,2.297976062873275,-3.067798119794368,3.106893488307268,-1.1490463176458639,1.8461879252168263,2.6834646861019815,1.145951783662313,-1.0168497397237036,1.3164067470303005,2.594025019011963,-3.1908693068747144,-3.5494822020642795,-0.557352483511254,1.3615743105846035,-0.14312624375635453,-3.8231974142180675,1.6053298992644543,-2.5710037148783719,1.8212779577953545,3.842519522435291,-2.746385812338847,-2.7772955462455934,-3.0391884366738086,-2.136402601478075,-3.7198288031728348,-1.5125513952647527,1.4432397214376565,0.4244360456523655,0.7690957072752802,1.8702662474946035,-2.3100447844586826,2.0362465597577028,0.3565273630446777,-0.38807100494589888,0.026280851066571743,3.4845074036687686,-1.3401303621872849,2.9558660157877867,0.1713857040370108,2.4988782900641839,1.4539236977341795,-1.1378099890683323,-0.36740236960281349,2.3571083704834958,-2.063387777735997,-1.1012505305159542,-0.44092322758150717,3.1169784654804948,-2.173566075378555,-1.2581990664703596,0.03978137487419975,-2.0884000722894369,-0.4399250098976444,-2.2221497693381515,0.8274629731929739,-0.04807947500367771,1.321134873851383,-3.1306334783707667,3.78424680553933,-1.83687173762414,3.9365765426332688,1.231723055434581,-0.11198764724639432,2.2216480709955279,0.43556988090627959,-2.7706022228715208,-1.3664776150475187,-2.2365528178579057,-1.7434771694786245,2.3888114580831445,1.5321964859492195,2.2735444028497158,-3.2048798419192527,3.917557952930384,2.1495078411659245,-2.0246023019925696,-0.7968419631339911,-3.309982299711632,-2.5855761832629584,-0.7481347127244165,-3.883327819092578,0.7945112607495037,3.0285063573052666,0.6062574360680637,-0.17330893275300508,3.8253045635405584,0.48560353570129247,3.652620727447869,-1.788852741520037,-0.6538927328449375,3.408378164373838,0.8843309288968095,1.7576425677081016,0.09829835937953568,-2.880189829070365,0.14874913149982484,-0.4731463887499905,1.9845893576792416,-3.2747141022730545,-0.021196001159985879,3.92822852585149,-0.7120625133494338,2.4769207110747546,-1.2979315051330574,-0.030984063613075598,-3.6884394562137965,-1.295996301111119,0.7762047903387979,-3.0805825970268225,-0.37872229694714756,-1.5363974526286593,-3.4792911882402306,2.33831972820201,2.174603041633846,2.132012109850237,-3.5918281570185508,-1.994721077657658,0.11167629669835755,-0.037193721577525099,1.8620267629096139,2.5046034756331085,2.6147940066317219,-1.9506007778054729,1.671887547594383,3.1299924703694756,1.8549306985045018,0.07848090892535531,1.7566867283212613,-1.5987279112921833,-3.4462614659012429,3.7123205024387779,0.05281327040158246,-0.4126504874721899,2.1233375168368875,-2.386355989625666,3.1390910342405524,-2.5972987690295854,-1.2844098179411783,-3.000305878598885,2.8033223221741156,-1.1952215158103732,2.257488514622646,-0.5147902782163689,3.524432861419588,-2.5674837876867526,-0.038070667794355198,-2.852446375605645,-1.7029724966927642,1.1938050314664768,-2.160118405851196,-0.7913420067479444,3.7786676665451557,1.412350202885734,0.696850994750065,3.6938180882324556,-3.7354952273166308,1.900843014606025,-3.468509686906885,1.2088423230878834,3.794975283344046,0.22041087867355459,-3.552348834636353,2.0717015989936478,-1.6807187656817602,1.7459874189481913,-1.4314114095885496,-0.33343877707100147,2.7443863663740437,2.011397413103494,-3.213867855554681,-1.788926819954774,-1.313724589918898,-2.606357990377166,1.498266585469108,2.0187548452444066,2.7431035233221516,-3.3089824603776067,-2.407439461515425,-0.8572534660087872,0.2993202911662234,-2.288070406171661,3.1705432386781666,-0.804355784119313,2.0841009601448059,-1.1778806086143872,0.7176463034228204,3.5246280348003005,3.2629975124853765,-2.0848320664897166,-2.6833616883522017,-0.000229536055292634,1.445160671107537,0.8435846166034144,-1.7819298572037488,-3.540187388121243,-2.924010824162311,-1.1255847202787737,-0.40457344617013449,2.234461037476934,-0.21309437111192842,1.7334439100260868,2.5762582054409819,3.0728493082373049,0.3941481032440981,-0.5128668365927693,-0.9760577785731073,-2.282512943448058,3.3726033708235665,-2.5527585812531035,-0.6708531244409721,-0.46950917042012288,1.178751029738419,-2.230614262799956,-2.8717564547310427,-1.523229297677104,-1.4137134368501663,-0.5414033488228167,1.339762278117263,1.1529861498135139,1.7014543904325966,-2.9868889697266036,1.4187008136624817,-1.7568868380725087,-0.8463543932817144,2.986730039802649,-3.0379477742229037,-1.355065318667043,-3.1524057664029279,0.819449977118202,-1.7985243790522958,-2.5125109796849278,2.0780008033642796,3.9055659303179288,-2.6244861560265866,0.2637493604061758,-1.911490651643235,3.56212662886056,-2.9689226680748819,-1.2954155216500869,3.552397364220343,-0.21657721020490307,-1.7521498323796652,-2.978069899515684,3.2434235782884448,-3.9511104859059404,3.8212184308959706,-2.9414239672357924,0.48025705662035547,-0.4664349833086108,3.0551268503716315,0.6940320560981332,-2.100410606087779,0.26910831489591216,-1.7335822822693015,-0.4974083459173215,1.8624939822808378,-3.5791442446749119,-2.62127284199682,-0.30465968609192908,3.3928915902736946,-1.9769467028089612,-2.536045246323668,-3.1968744636010726,-1.497686772143303,-3.5246740611295896,-0.6595554020081773,-3.026129697565943,0.08535542653105033,-2.9671364646035336,-2.087152233592133,-2.76645751651016,-2.291909391527554,1.0896466610765883,-2.6580223330261507,0.20449508949494622,-1.7397807414251719,-1.9858798802895009,-3.6572435893121435,3.1212621078915356,-1.1294676938953306,3.3740887754663655,-3.9375342427264137,-1.8074847848753242,2.0667878790844025,-3.383060115380931,-1.948992485188163,3.235634641428483,1.023454448541619,-1.1521717547109676,1.6937810026402609,0.5730893933905126,0.5870813196643141,2.8865970602967288,-3.529760175935306,-2.2366785549429109,0.34600575391791557,-3.2477700507378657,-3.6708367241773205,-0.14012708025543953,2.145247273791562,-3.527936558692735,-0.39222679154680209,-1.751494764487365,-2.384836926738119,1.0406191047197684,-1.9764489272033199,-0.6981517454579131,2.5707404625309415,-1.7950695650409985,-3.3655958662155438,-1.4639276994737243,1.681415651441153,-0.9482092120297876,-3.986320219972427,-3.745623074924292,-2.636444707937649,-2.0881916437797818,2.3254440066256967,0.5131070390612829,0.15226184604888982,-0.10921157551847749,-1.84821351641643,-0.05559444267900182,-0.920429323188358,3.9235993768613106,-2.7183065275160045,1.70647097309313,3.2794239574839034,-2.2869203010561645,-1.5387350313122708,-2.9701181964969844,3.044308860551018,-2.418068149557401,-3.6897735495672396,-0.5288643155436199,2.7400990353375986,1.1858133536776592,2.6293413082324488,2.744061318726282,2.8726813108091084,-0.109322048875093,0.7457627333491148,1.4786226762016508,-1.9000951951115626,-3.5248463079841079,-2.1335973718709937,0.08290494546813854,-0.5810259624203893,1.4497792259455329,-0.3372541782158489,1.8967925183921564,1.1382082209246987,-2.040888317612664,-3.0650102348962227,1.56255779027605,-0.37723131998424277,-3.369547545228211,3.5860232514697047,-3.95844570297161,0.2578545098687215,-2.9175060785888329,3.444036502412854,-0.5526229003180954,0.01636898095888384,0.5519528100690376,-0.07502717983305818,1.6215474825463928,-2.478917396890031,-1.754767859561956,-3.060168988205551,-2.127962682896939,-3.3320037290834314,3.469909060669016,-0.9970594332302811,3.529960965093168,-0.6807159950337942,2.6406140741939696,3.601927598442244,1.9611956301203133,0.9126970179372833,2.758273718467435,3.47884635262548,-2.1281028994614106,-0.12989976142096627,-1.1722079288368244,3.060216914111556,-0.3900416689309727,0.9154896714666991,-3.460276787369162,2.4253782056495636,-1.9075862992365834,-0.3780432151777058,-2.385531055585954,0.13224491881249457,0.34244064843458857,-0.8852209265620363,-1.709084867218066,-1.8671186291904203,-2.6988187334076016,1.4189610784438998,1.6085078440003358,3.7953432517107874,0.7077921732028001,0.9986713802663321,3.0226766260940804,0.7611512462041832,1.8112088667074753,2.7356903058211836,0.44913153386323936,-2.8133892609781379,-0.9270986236644552,-1.0801704954857679,-3.579271564492185,-2.928231952316919,-1.5268409667244969,1.6054693601704902,-1.6334267888994374,-2.1174125472543219,-2.8125261972370287,-2.4772037191942246,-0.6136546879851137,1.6907829288421815,0.5675864496976288,-0.7244144784663842,2.9228280248812119,-2.836539555346355,2.2933476398581824,-0.0879555433139032,2.218771966292187,2.5350015938027035,2.293764737603251,0.7507364518412283,-3.428887886827204,3.741289978896874,-1.049022366091444,-0.7305524992242491,3.2487562826224645,-0.13506320405140483,0.2265165252832384,-3.644619938720708,1.4468166262970952,0.24238014433216116,-0.4975166774145394,3.559942495854269,0.37821707349494018,-3.9070502995190985,1.8546466051673392,-3.878580707773099,0.5107553276011752,-2.2108850134906348,-3.6091513687638869,3.3505527083256227,-3.942716417362151,2.268532405848677,1.1784097618610634,0.3994656347647654,-1.544699786962294,2.23016140771497,2.8908589888849596,0.4089555636932207,-2.3773282326667646,-0.5059416890111246,1.4628332303734695,2.2713272102064314,3.2604692169058175,-3.5911541377508806,-0.7695376487368657,-3.622166569401317,-1.8624112814626697,-0.9499600743785417,-3.3328724060639898,2.8998492244517815,-1.0245792908319425,-0.6529594483360357,1.3469173224457807,-2.7604021201284976,1.1676178991327407,-0.011287171151701081,-2.7572013276836406,3.4598127135048157,3.3422494674161768,1.2183265207116279,-0.00005625033542266955,-2.3857566925288369,2.1501531008146035,3.3564946529499277,-1.5754738731773655,-0.03832477319480376,-0.7709523774641856,3.1019682024578785,3.9048317164777179,0.4607789050114155,3.224169294865142,1.6093523493907576,1.132004793709175,-2.230239715407399,-2.918149269266724,-0.022267726153028634,0.7471602336777483,-3.902922039161534,0.5669728179911449,-0.6086513675358072,2.8357794997837635,-1.8637408166494057,2.4122568877233494,-1.0790300495596859,-0.9823972078150016,-2.23915909940024,-0.36894115706104615,-2.2351750177342959,2.8978393624663889,2.5825353249239457,-2.8556681489214634,1.0369989507259617,0.13622724264692732,1.715103380441267,1.507437440616063,-3.4357545329961516,3.946808131255506,0.8719977766393345,-0.2851126498721728,2.34482216554405,2.3297223954269938,-1.0915546684548546,0.8011576904257813,0.4894645523230734,-3.956423108232122,3.31929943519636,2.161983832298489,-2.7815307654135825,-1.4358885685076493,-2.0490995279113237,-2.2553914804126826,-0.0043345302035413539,3.5118712411398329,2.81181143758603,3.504072941109447,-0.47627749071905459,-1.7941284702505256,1.8667227284662138,-1.704737212714126,-1.5672789071544138,-1.6254500010792735,-3.295492425378953,-2.8752533236767769,-1.4747410778679322,2.250178514171065,-2.825470186661968,0.4888328050370916,1.629866253591267,2.2878436037892486,1.1141353380025754,-3.9129738804165576,0.08442111273687569,-2.0384555286052548,1.1562819079927414,0.7619364018334895,-0.04841935319790358,1.2940804990922379,-1.506870611111208,-3.0944143267997319,-2.256626235892334,1.3314601206459083,-1.5126879794391195,-0.4889885080195322,2.471243711167138,1.5354784090057852,-3.8040273003496738,2.098491099600741,3.414485404544859,0.26666063117751906,1.4742324638898872,1.0520727041521499,-1.7228373831452986,-3.3620854640130535,1.4531187058631706,3.7812477707774185,2.697214758558543,3.5692142244500015,-1.1404063085879946,-3.2741624084093079,2.4749660342109767,2.9959341054407409,-1.0583136188061458,-3.0006370394416255,-3.6483548293170067,-3.471949686827733,3.1945842197059006,-1.3594033500789065,1.1915360105722366,3.3212032086676288,-3.3417427326934296,3.3820691406949656,-0.881612151498125,-0.48424788809349397,-3.1989748541243347,2.5457300644599378,0.2423176188425149,2.0979496525242435,3.3844064571328245,-2.142173718305611,-0.04463796669320086,2.8383322668188075,-1.3819607667898895,0.7371579111703728,3.3679191648271145,1.4858985555115574,3.0125334401587668,-1.290322155541704,1.766062483234653,0.6443285765616711,0.30480545467144806,-1.7872391803114987,0.7411785850106103,-1.8396174494604714,0.8158240242285242,1.3495895828233656,3.5165222787534127,-0.2903436052467063,2.3648606668567089,-1.675231158859412,-1.6700135236696452,1.033533850570156,0.46027942496873655,-1.5888043578922764,-3.641465894713707,3.5006657570020476,-3.186032958178817,2.9827556920586639,3.7345151004835746,-2.0162540336760026,1.63228471186601,-3.196873805500937,1.028821921581832,1.7689025884783672,2.5539373461328926,3.0817044348075228,-3.669309768473119,-1.9794979172134034,0.7358360240082469,-1.8281715673677335,0.5313836509930168,-3.015251564691021,-1.1605468814767866,-0.6110100029199224,1.152960916744659,-0.6211767675501976,2.177733225802341,-3.9643760090725159,-0.6927838909122619,1.0756698862270736,-0.9700547224921925,1.3520991258725115,1.6319959790175594,3.3578343891870139,-3.917934230822288,0.7407128078777241,-2.282977814748599,-2.7443914533628686,1.0422942888113057,1.0738409771046325,-3.93529703836884,-2.1231225127482977,1.9352230706490659,1.1168643337802556,-3.683860752173725,3.753601468309399,-2.928807160518348,-1.0698445056011486,2.929277134001631,0.6728951383705093,3.1835157671550258,-0.20728599907042545,1.0495015131670967,-2.1274277619839667,-1.20667547260713,-2.689892559726916,-2.135312144686992,-1.6617561040504736,-3.6519615060649146,2.8517976328895529,-0.20982768445193068,-3.1247627220507745,2.4359794886616008,-1.5817660933800584,-3.274967421774159,2.452335750706159,-1.7617445483588848,-3.1177512087787306,3.1613624482203539,-2.6540797379746134,-2.0160005615930975,-1.4162777695411076,-3.3274779728686836,2.5739353080540869,-2.84628675612156,1.0156815145416314,-2.5325303628965765,3.3636541859790887,2.270432262397982,-2.086984291277477,0.9344770951417161,-3.5657540269037009,1.4646281059402462,2.209824000967675,-0.8408570428105586,-2.6702279892633369,-3.386527180688991,-2.0387400479979167,0.4510730668345433,-3.974477837413681,2.4805148083166328,-1.4066816589911309,-1.523612979892036,-2.555223809814011,1.9097988805050852,2.113288916952328,-0.4757289007489509,0.47238476819775157,-0.8370611064401194,3.8687950173141738,1.3314530584451117,0.7008365746621648,-2.099187517530682,1.2046061987685147,-2.0414686448821808,2.199632550365256,3.2054308433324607,-2.408416366268388,2.149992167669061,3.7438270465607887,-2.8568596845556746,0.6263629560600617,2.9700402999774715,-0.017290869333338678,-0.298026765856636,-3.986156219954581,-0.7830696676377142,-1.0839958395702103,-2.5306513037628326,3.325785877366168,-2.0628673319771186,-0.7262599267512426,2.560659057050268,1.0193376129541845,-2.605225390086842,-0.5877162830565368,-1.5039085538875464,-0.14699267386458082,1.069426894423371,1.456901778828188,0.9685114115650961,-1.3255076349323448,-1.7285959635542705,0.8305693681998516,-2.10895857873495,0.4213572517024575,2.5717318153096997,0.9734785316852399,0.758470813961325,1.581338042068463,3.428866101171824,0.5641453381260879,3.2227129697270975,2.6798746484982578,0.713341480184261,2.6115973023088276,-2.4418207980502659,0.32127299280723867,-0.5946237307706985,0.8188490679078306,-2.183370405177426,-2.1330185187755967,-0.04562343081532716,-3.2377461905436206,3.8341589527794008,0.18337113875147183,2.6178588416404064,-3.2059559034795006,-1.9937962100895997,3.943385741406817,1.1536237667742722,1.770968796775425,-2.61640466566444,-0.36360728942667666,3.04928951140839,-3.4028807726904635,-3.1735628387516368,2.5220368077886219,-2.7646281403638168,2.5241407960506017,0.10150444716290164,1.7523903090437188,2.562763979525874,0.5953376298498379,3.1929661358398579,3.8191842457044524,-1.584551305869619,-2.8882786522728027,-3.6685918014791536,0.5094995900768966,-2.9237198692129064,-2.378132775884982,3.9365542447981785,1.9254072530042308,1.7907385898159314,0.9198372789244314,-3.969192402956451,1.7275679407845104,-3.045263290307096,-2.885031201571265,2.0003884031379908,2.1407138666838305,1.5095330235261493,-2.2076086381471855,0.1524676390993358,-1.6185244831883219,2.6892700246964305,2.2214616340809867,3.6845067293150599,-3.3534829357992645,3.9323291626300307,-1.388245679622015,-3.9263939137558605,-3.1871858708372757,1.2989301093606303,-2.7548796526559666,-1.6877401832827648,1.9787155671382637,-1.7912004305878285,-1.184161640159676,0.5479487505099785,3.276377404506314,0.003927303784433178,-2.7028664124827328,-0.23648477700723426,-0.47938309529644509,1.9634123856395727,-2.4003669807858047,-1.016788861131018,1.5498302376033344,-0.902309815013,2.676345328809579,-2.8901990142659468,2.651751727395406,1.323853057179016,-1.2277724069114895,-2.1253384567968585,1.0301320733306839,3.915204581343838,-1.1856730276003747,3.722405377047738,3.8709561754299095,3.758238216860816,-2.2863027528770969,-3.240273146162165,2.0020727597356409,2.4285628522111946,3.1475009435248788,-2.7413036473148448,1.04831029670963,2.2020471649980557,2.4520649650021006,-0.9965860578016057,-3.4138821133875796,0.23560852164678093,-0.5271086719083975,1.4459599557703929,1.9136792280268909,2.1339483279475255,-2.455147162357883,2.4317321998595089,0.7029681210189569,0.9517493002173945,-3.479382745230147,-2.5590655971398919,-2.3014330046698738,3.6102027033197059,2.126261044899609,1.2115739713402763,3.0273204370458899,1.3171047712744777,1.7508679513724559,0.552870477510587,2.6509933934700626,-1.3072489268390105,1.8043499725496153,-2.2849779770346467,-1.182709724800709,0.11239327818298861,-1.4769840354521203,-0.8188851620062678,-2.2163085073961525,3.6789315262161876,-3.926117503821634,0.3391648837174799,1.1211463132314599,-2.8443676961569199,0.10710841146064443,-2.805646834544211,-2.1098244498323686,-2.141203835080238,2.8253587105717115,-3.4337714774639727,3.6300755934960309,-1.622724566602283,3.7637685866278485,-3.257619961861147,2.989917394602581,1.8842775007119688,2.2270808889829558,1.3324995533300169,1.4722452429442426,-2.438703513080541,3.0625980096423239,-2.7907814109477009,-1.696974573974783,-2.5684669538310276,0.9967222814551633,-0.6452728576928644,0.19346160963402338,3.5430225987969186,-0.31145258670936495,0.7296155496056853,-0.6880078242652896,-2.615388637649021,0.9151053143093728,3.487101854306059,3.654714638012429,-1.1086436534782767,-0.9536862361630369,-3.456562324527246,1.3378068697317396,-1.3940996080232678,-3.6486538084424335,-1.7765733348316238,1.480214292843697,-0.9337801113755129,-1.2754375296470109,-3.7180032336716666,2.1095793935945688,1.6549862648437586,1.6494544800489309,1.7106028474001045,-1.8210937275086936,1.4259542494033176,-2.4373083712596355,-0.4384552000692503,1.3246278806700849,-3.104500550217777,-2.7826309508554045,-2.428274500612332,3.277615830530581,1.8000832070991129,1.9921583511755313,-1.704565863548063,-2.4328706509695685,1.6427195693582757,2.2646897770293519,-3.8884058256721056,1.3339026961647136,0.25038658006179839,-2.626294605648689,3.9941965262081577,1.0683122654474247,-0.5977885544231201,0.6693553369834495,1.919056491013004,-2.1350602838203809,0.045420759107073219,3.418308167779478,3.025280119548963,3.8787666477468605,-0.9217837191308271,-2.7085761546604889,3.33832697669373,2.959156221612867,3.8234721961381359,3.345811205663563,-3.155847078407289,-0.1196120706783772,-0.18320778212278578,-2.0793517486424974,-0.4787824583823719,-1.8963276555025726,0.6927783558051521,3.9069732787582849,-1.7362693142410176,0.6014663539014675,1.4041568094988338,-1.307002926783156,0.542718819707269,-3.435730565771033,0.28640074338840817,3.67306838666359,-2.908254132132269,2.4892154748036239,1.1958255286392464,3.90248552547983,1.3138764299074444,-3.762068859113154,-3.3503174588182986,1.213378187157871,1.8611925568763255,-3.980440352809561,-1.6478878019179087,-1.5398508025631799,-0.8227532906154045,3.104208561422772,-0.1019642660860709,2.7479789666460618,-1.2150685049476966,-2.3594827176397237,-2.815934872804646,3.2150375329943259,-1.666936288093682,1.4752834213016933,-2.5739052070447707,-0.04491050187599499,-3.134781305556732,2.3360353487321037,-0.021960805952778274,-0.2992435854930646,3.0110566807644609,1.8162992487016459,1.9788917728093055,0.17087159517051288,-3.9116595431276268,-0.5615150619457898,1.0422115236451175,1.1889505181768119,-3.8669351620132037,0.044417202762767619,1.9439763166847702,-2.5262683584901026,-3.156626250521306,2.0892119802967485,-1.2419177129214943,-0.8874401136163819,-3.5353543506438909,-1.1148147631301316,-0.2179719965154261,0.034696186170884327,-1.1244938049062752,3.4198683103825404,2.5390343444017198,2.5211069353436237,-2.15065393157429,0.9093341589911921,1.1712732578430299,2.6525044304020124,-2.5885672180768406,-1.1811111995904887,1.1405639360490608,-1.2439191428737997,2.638691877140273,-3.280554876429127,3.3513445002514326,-3.607720553323844,0.8657633842443495,-3.1920592900819635,-0.28089097093882367,-3.8465344314252567,0.6733752831396416,2.356999792052731,-2.3050264576625478,-0.11716665750143829,2.9591769117644537,-1.779163005863211,-2.0746802887045554,-1.3677045916217435,1.9500577426923416,-3.51725660805268,0.9568505327484758,3.746572156893408,1.121541679105725,-3.0492600081764458,-2.992299758394127,2.3037367974894327,-3.971955490689086,2.0155217577718256,0.43411880771490987,-1.345340873423307,2.738159473942149,3.2087499718811998,-2.987485528011214,2.0655253597611606,2.625919109760625,3.8269979528827626,-0.3398484500268746,-1.4829954174723313,-1.2366523751834733,0.3771122656233894,1.6765068708842082,-2.8294415565808217,-3.5556894839862265,2.04601307234652,-2.0679771476686685,-3.8898165687288968,0.972392325859035,0.21928279309061605,0.01565004198882214,-3.139525404665606,1.9575751814341516,-0.2814407351279087,0.045215888201939339,1.1581465643724407,-0.5549009564303733,1.458125994294658,1.7365075440553009,3.0766061552811188,1.0858825220090243,-3.6017447805903837,2.233498144701927,3.1423383624002607,1.6446974434532873,3.017411678515864,0.03075789866219658,-0.5821807186545416,-0.23377390113436204,-1.8514955241078022,3.6834655343564508,1.3694650506449416,2.931374593731494,1.4165408196712655,-1.6266602122626335,-2.050446424030177,2.716592005788165,-2.885027832771633,1.3504426957284528,-0.07364460450548216,0.6210550912330248,-2.0376244089077328,1.4410563051648629,-3.317142053526463,-1.7963334838583052,0.9904925268453493,-3.6007274138330089,-2.0967601349201576,-0.10154639783809216,-1.5492515680672439,-0.2984268452733385,-2.430954977690072,0.07200116661607048,-2.1441708214317645,3.972864327039436,-1.8507093541754,-0.177014972191877,-2.0424990847960169,3.4625807469133278,2.9908709676899498,2.3081184097340756,-3.436293414844803,-1.2386247368290849,1.5768444175118992,3.423863650895364,-1.084081964717135,-1.1835004844707629,1.4165728481608558,-3.673893353458322,2.6496594401986419,-0.9442919319326268,2.9032243321601,0.4675065859073202,3.2723359758597176,0.29970952392507668,-2.544064423368515,3.9992651692868597,-1.4775567499067349,1.6805673692826578,0.3250890900371983,1.8087404096168536,0.782419277580531,-1.7608176847719508,0.1945832040680049,0.6291534851380503,-3.423116169449851,1.7887611801640473,-3.0173833367344935,2.75944193196523,1.176418722210542,-3.093534970512593,1.945554140630664,-2.7924258097825778,-1.4926237316820279,2.7080753459300608,2.9547962020135056,-2.880024304989811,1.7509313366175885,2.7573617639618837,1.0179506822166378,1.198764594784997,3.9727894729424539,-3.543654650405487,-2.0945396971985126,-0.7281301796211155,-1.6780669522370833,-3.256051604566424,-1.9936755056720826,-2.655559357758799,3.3970948437663379,-3.94490466968177,2.2082531224886514,1.9016252071433302,-3.442545407862341,0.7699599330364499,1.9173439134858113,3.4258979663753488,2.247946601689744,1.5224984480566928,2.8094052462556666,-3.75434270173245,-2.785629137453327,0.7948452329845015,-0.8997239033875184,-0.5081782037923956,-1.311180902198849,0.8637379911449186,-3.557713517189872,2.1709800478255865,3.4658745830709147,-3.859418385533779,2.584992358841629,0.0401001232775835,0.7387064082223454,-1.0069507628211314,-2.532984567351458,1.1319504537951506,3.558755821603417,-3.189846937745603,-3.7430737220387249,0.32516965443797476,-1.9471015067248106,-1.720275250378691,-3.7605324506976185,-3.555759897831889,0.03668802176035779,-3.9712125642296867,-2.1276906693080699,0.17333237782917977,2.5144649112221115,1.3338554068644273,3.0250784947019095,1.048524008017715,-1.4064323666322106,2.3303178495337457,-1.089057723554774,-0.5723568935968155,-0.8014306550229664,0.753503451930885,3.1376258987434175,1.8798271444212987,-1.4982913114038115,1.4842831770655103,-3.051055232050354,-1.4244615805853458,3.716641000872708,1.851899995947912,0.8884885783218541,-0.3479122038741218,1.2526660189545114,0.09376249112585633,-0.3085575160925116,-0.07948406814001197,2.5499149952102346,0.11191968689163368,1.6144831665827804,-3.2086000787742936,3.5298364029562574,2.088306901581679,2.045192966115617,-2.0353682415924014,-1.8400128835443839,2.056536978336803,3.56437013599775,-1.791714832785457,-0.13788754630465384,0.1990589276720227,1.0430919839627846,1.752134852875579,2.2986887697895979,3.7366600967524405,-2.322510753358956,3.4751624411894914,-1.4249298784113603,-3.7208061119532447,-0.8827427418879292,-0.7381136634252288,-2.813609506820912,-1.5207754336539277,-0.4363543521889268,3.6284661110282085,-3.0121384180611567,-2.0017606846962447,-1.6072462911807224,-0.7334172351815438,0.947894270749357,1.1287669218462009,-0.258454324920101,-2.211055646490716,1.7191974862251805,2.5109103645708386,-0.6412335945634793,1.7931605082348324,0.9411903226197911,-2.186055084374691,-3.6583496857297845,1.0942577267972809,-0.6597565187730146,3.5675996880882669,-0.15613730533575444,0.4938885865053626,2.2697180787281017,-1.4099896744475898,0.8634852736681493,2.004424373740985,-3.1692283940269965,3.547386350116132,1.313196706313711,-0.30528769568098848,-3.662748859552292,-2.2733874809095377,0.32823101628858356,-1.6126476683485883,1.7818797196275398,-2.52545308106106,0.8211426989494362,2.616447436685852,3.8745899434807438,0.5545288754337161,1.252664867634472,0.574068616597315,-2.2257385412884238,-0.3018921261981349,2.50340023600625,-2.425720415758825,3.744930935477722,2.1148216100691057,2.52284412752965,-0.3059023216931409,2.6377797018924067,2.8477420787981639,2.471352252196235,1.582258847890749,3.6924174126298414,-3.600991015288587,-3.452554620536028,3.548250343012504,-1.655103273762158,-2.3218363736340406,0.29153202335133968,2.0149305473434344,-3.416724773802991,0.957771963687116,3.166383772193953,0.28206686476270806,-1.2176412303635312,-1.481872267381686,-3.078076074421535,1.8762389165949137,-0.846595101296826,2.424457826191923,-0.7013470725923006,-1.7431245493771124,-0.4588287365572219,1.4603958294755959,-2.5293272872777887,-3.2392544082647349,3.2235114525537726,1.2167720140292762,-2.667389109552059,-2.6513277528594729,-3.218399047156307,-2.2153516907159629,-2.089973348091884,-0.570993705301098,-1.8495745127577726,3.094201350533827,-3.716710505720492,-1.3653473049260745,0.5038682782686443,-0.8861089784398872,2.366606573061536,-0.32934529388103886,1.2415231262916367,3.6015727287993739,1.2270581532481462,-2.2899941672432506,2.2118275825468345,3.8979556580142287,-1.1851498269755346,-0.9076421454153782,-2.207658870862475,1.9483108020323155,1.2417408604359706,1.0442584508053177,-3.5071355085667808,-1.1173405633076739,-3.7088890548320645,-3.725096863653853,1.764961917709929,0.207827506502535,1.6626797110979297,-2.565506766680074,-0.9487940221997802,-0.22524704378899508,-3.1848805489288365,-3.3091010178407158,0.03798737909422378,1.252063448046191,0.6440139122566873,-1.0686746991260208,-1.474815512068805,-2.0201481437085375,1.4925322303873517,-3.27662532714824,2.2393166399693289,2.2690509329945449,2.9706200361426147,-1.2918184762013656,3.4420982402130244,-0.36171715383959848,-3.1177622743081789,-0.7756981120107585,-0.5026605136999562,-3.6833722335030378,1.2348040710597328,-0.959517025568192,-3.9390333086250877,0.5233044893916548,-0.12012352274704164,-1.4187886249395024,2.3992219901221256,3.9055934173758297,3.8531941940753979,-2.07609904087192,0.0948519375112582,1.7111331125118108,-0.004017498759590898,-3.2289392372375147,0.5690848525980847,0.21275882961978799,-3.2702672784403346,2.6751897515595477,2.997265973837581,-0.7959384378979006,-2.5312434177628368,3.212376692499702,3.9723400982301255,-3.03388682117777,-3.1316146358924428,-0.9286948356484286,3.805891987722206,-2.4949647895377025,1.4572347567615083,2.9051761179809585,3.2944449759676415,-0.3562364833571683,-2.5415539895698098,0.715206789593168,1.0666481871464813,0.8059093734675651,3.3788203953280586,2.9490266932235196,1.6423631461277753,-1.7092331701060167,-2.6762048464255718,-0.05267495024952851,3.1852191571207335,2.3732176895846406,-0.9251316431463454,1.0077311972440493,1.084898449704097,-3.2449731780558794,3.802109900411933,-3.749342215054284,2.8388695729392099,1.22791812822042,-3.649426797095332,2.8618164420232139,-1.8596589596722415,1.2771364704054822,-1.6325228765955069,-0.5204553047032687,1.6022853143328986,1.8326552638567968,2.5037129436165408,-1.7662418365763289,0.017497597785864018,-1.6855667653172189,-1.5257795093144576,-3.2373862439421918,0.834641363797135,2.5474067003269509,2.3458293726684937,1.4521906324882217,-0.6373590538300886,-3.8057596589649025,2.5491247769087819,-3.9992115736216444,-1.4723077738586084,-2.6183896828073696,-0.7947461497195478,-0.12327001524613812,2.4536232698506588,-2.602948622250093,-2.8231822363499017,3.788940329435742,1.515573621794509,-0.6788600010342571,-0.8849554792810801,3.9002210454019208,0.7018271317782849,-2.312662673758245,0.26478646531358498,2.6608515334751177,-0.996407054386375,-0.12941764138892609,-1.1105543331293709,-1.6733134204111518,-2.6772102670932718,0.019377785427523443,-2.7620170108294568,-0.7761820373023056,0.23371746616898027,1.2686029475868895,2.674426785650052,-3.622069052963834,-2.4856561351692196,0.4912758236507111,-3.426131583536142,2.1588480379452976,-2.3239224080596516,-3.6496881527590885,-0.48120327051240877,-1.665308236152602,3.4749984724177676,3.731062239132309,3.149577010508043,-0.14711609188021747,-2.597455881727896,0.19616463141786334,3.9439728827560289,-1.47830895971812,0.23721792530621678,1.9300281279219754,1.7554290910676072,-3.9046967792802675,-3.8513522189057109,1.710707539289312,-1.2874035812688654,1.8566430855054499,3.5358234401732808,2.5601205806256965,3.0328705362196226,3.584420727651171,-0.90614129269731,0.03767048425608799,2.646912549445392,0.6182377907213361,-0.6373438272616818,0.13683239990756758,0.3298987283119894,3.9708970390293167,2.8339530277931876,-1.1425013692555118,-2.271805994526134,0.5930191838600951,1.1099432546252857,-0.13827707464490203,3.2760727503386617,2.316363701031274,0.3580255272553421,2.76806204259133,-3.541212445327412,-3.171385788500446,-1.8254328261254303,3.308345697713742,-0.037747311937858189,0.9539185155389411,-3.8744743238458829,-1.9982513055995588,-1.5708491937145513,-2.662557568873427,-2.9552627263746737,-1.7443675131502945,-1.8686293809688939,3.6043081520185398,-0.8718950456427308,0.28245453395852496,-2.087263898273795,3.6395397907329087,2.754938377184576,-0.05058395350458689,-2.869166453374235,3.9635200719252676,-1.0002647591653782,0.18609229767403424,3.716138553957891,0.35960178240685627,-1.5209062753448193,-2.448902453650618,-0.12673092356195227,1.3804478037825448,0.754415611357131,-1.203173559975694,2.2065464111722195,-0.11531927995715008,-2.716883014164723,1.6478210521504,-3.681870963299809,-1.4950589342011079,-2.7664249278857566,-3.645265333107905,-3.9680566635394118,0.8964049764161048,1.9891195041017778,0.3787629326636779,-0.27069698544829437,0.1969884322468003,1.4140438292184712,3.716858324824729,3.2915178465715595,-0.7324014875645837,-2.0670400834580775,3.450296561728134,-2.6356364446089,-2.7280814725773228,-0.2121631450184953,2.9239651790621714,-1.68499537066217,3.370555747008435,-3.533621633145101,-2.3409712275108047,-1.3411753621216525,3.3740781487240376,-3.4684070379821518,3.8827362110167185,-1.1823536686962122,-3.0609901824703185,-2.993175143105871,-3.2230197228893004,2.2978425141962139,0.9359584605510438,0.4804597829732984,-3.025313214079512,0.5900416558639847,3.7375523065772509,-0.13847204006023818,-3.03741705703834,-0.7194260648291488,2.6566808275663007,0.712883953556835,1.220730423801231,-2.7004868572404696,1.643207320898413,3.494539089829682,-2.659254534082468,-1.4343690906596987,-3.111529483665544,-0.8331270470476335,1.0014123856026416,1.044909132255226,3.1387486553214627,3.5328764652338586,3.3537672989124998,-1.7606129675750584,1.4587427799379072,-2.354001578613847,0.9117104699853362,0.9749091692057483,-1.6653422774324048,1.6504874963978696,1.6453173087440778,2.2378189568625919,-0.7839434710374016,-3.4354371617744885,3.8414337103571034,-1.1911495765792513,-3.400503698719837,-1.1206426389665794,2.337653663146882,-0.5472798857313634,0.17743588722977855,3.9081592644178508,-3.9570148393352975,0.20702166711158655,-3.7580950946264739,-3.203989392690487,-1.130046242566635,3.8323845893953747,-0.35366365153539705,-3.536314436107329,-1.8199099934792776,3.581439549087877,-1.28307493498615,-3.523285589216509,1.0129295150318214,3.638534970038842,2.6376867472000669,-0.37150581154638098,-2.945622413089197,-0.7906220593661031,-0.5823628522981696,-1.8251478926863565,1.1389654867572859,3.915248986832399,0.22813032315577787,3.137901148495448,3.759574794160936,-0.4386083182347347,0.4932224305685544,3.7626099979857168,1.340106655553158,-2.9878226662154185,1.2234619508889742,2.6048494354091229,0.9219697605456743,-3.5924749839431406,-2.2426704045665728,-0.35507843653959006,2.6693599493818356,-1.1448002526693484,-3.102664705216653,-3.9705723312808365,1.1080794444161786,2.6545978794026539,-3.3120212679779454,3.43322226116177,-1.7915879317907857,2.9907059683880137,-3.093949419654347,-2.212660505904447,3.947490117023035,0.1339614349209759,-1.9449374107801634,-1.6546922828536586,-2.0902017856926218,2.5286281472141685,2.9741714141613535,1.1803986069615969,1.4409434956160868,2.752421852991092,-1.6972358221928108,-2.0823006309133609,-1.8937215264375314,-2.4337613093698895,-1.237070113362156,0.6361030228356466,3.6390056931831005,-1.8455528297582154,2.6204244936576268,-2.9200745569910779,-2.600718755203853,0.9974779097726989,2.9434929494199126,2.611542247186228,-2.731515573333364,-1.2139497986250996,1.6150777979198088,1.0577916307131013,-0.6813106737802881,0.7230771720311013,2.7897202412571158,-3.819111023000592,1.8339170158718528,-0.04360591265403513,-3.4136742775100226,2.151807734333409,2.4494548592806737,-1.8136036977170723,-2.411744159961394,0.3967288749970752,-1.1964136392203793,-0.6585141006004578,3.842652125900015,3.253227551426199,-2.139729451238324,3.2090290631249207,-1.9532832242775789,0.6364201749657639,3.6585177820703125,-0.8466648783318134,-0.03469623550092016,0.9267897393916105,0.5520377193712154,1.3446363464177305,-1.6204700580470002,3.7654273376400209,-1.1236994112588157,-1.4657125590506939,1.899756391729703,0.6742215157994398,-2.5647477622204954,-1.4166360807339056,1.0265235212945,0.8048524455611563,-0.17170823505868983,0.8555643536011504,-0.8369925756040262,-2.1797866802544005,-0.13279782232525307,-1.3641689185965727,-3.681636817005871,-0.9557035070274826,0.1926619630537445,0.8681363349447597,-0.08744142253371745,3.1411138289577309,-2.1324364324407316,2.741603010027233,0.522716472594734,-3.0942110495174957,3.0690885074083598,1.6049395136695024,-1.236092131866865,-2.128777480996484,3.904037402832893,2.1773965361065619,-0.6301261705235233,0.9339798524628353,1.3698009905079945,-3.5377136982080188,-2.3623618650777367,3.5495666999899448,3.8128282480142436,-2.4920169806612018,1.6029369215283894,-1.5816445621990652,-1.2977632585242954,-2.5459271939623298,0.24161799610874369,3.6179885147705219,-2.992570363782974,-1.546752184447147,0.9702675851456126,-1.4078861324440538,3.326276241380741,3.439829768778897,-0.5827316277162398,-0.3923927014411035,-0.07648581374280972,-0.2641554165296134,-0.701997843114456,3.745265052469401,3.0533250059327967,0.7141083458271291,-3.428237404960866,-3.3371228816808475,0.037751816415043219,0.6912094749608224,-3.841597523567157,-3.648525132613094,3.2412483722400786,1.683286151322708,-3.0054958911019415,3.827850052447636,-2.4491097421348817,-2.057761442220494,0.7762110538210907,-0.14899519328955436,0.09552642462815087,-0.025884441108988688,3.986211345535189,-0.03597802186427401,1.3366551663564872,3.28388651619941,1.5774914933224747,-0.05755938537768568,-3.3246539669534327,0.3704783118590864,1.305674035634281,-2.4588009980823619,2.034100660816181,-1.6710307363605459,2.9642970342159744,-0.1308915086981075,-1.5101501868503187,3.8608175810645877,-3.652392081948496,0.530117747602441,0.7292695010269847,-3.3178256436499478,-2.085110128352847,3.6404626339302466,-2.696523685119457,-3.258025315212798,1.0631318727328357,-1.270184759384665,3.8181035785062304,-2.3985795418071298,-2.354383427210914,-3.944246451468028,-1.2947322958679062,3.082334951395156,1.2619934210714093,-2.5536493824727568,-1.2037547128529623,3.99999233465541,0.695808900531456,-3.7726423971781095,-0.5988160580459656,1.8792737502222137,3.056125126452736,3.2566256729322129,-3.9583182873258426,0.9781365902655006,1.234524860158154,-3.7224625000770716,-2.307357503910586,-1.319053105619707,1.549503126153927,2.9381973721389196,0.780096886402263,-0.9099222491316306,1.8531299933078476,3.771118756978213,0.29430431121368008,-0.47834998411116116,-2.502450970187443,-1.5677743089927406,0.5699334390739788,1.3442861078674176,-3.989460818472841,-1.7795751925417288,3.809887656960787,2.19139342950683,-3.0183532050951475,1.54692280834748,2.3913641194551626,-0.841885570325992,-1.0555987282568394,1.878658248819554,-0.7147436099060462,-2.510771795519892,-1.7492942672631687,2.518198648594277,-1.6575758295877774,2.7522910530926278,2.624003420940565,3.212092182051931,-0.21131960464255984,-3.6652260984139337,1.0137488107218227,1.1910227141514316,-3.792137589230129,0.49769508042367596,0.45528269251009059,1.172630909776033,-1.017001503553365,2.531820475328926,2.771697306167699,1.1899207677682116,1.6183865668299689,1.6373699447592598,2.4991792490554545,-0.8225824133072681,0.2681334871890355,-3.4087394790595679,-3.5850228174500069,1.793136325596512,-2.036368068743923,-3.3584489428739525,-1.1889127580911263,-1.3846745232698199,2.153017825035164,-3.8653342570682795,3.0515626129047765,-3.329496765982923,-3.785719621503997,2.4670220373315896,3.044691825016665,-0.7013991197691405,-0.6011060398988144,3.512379282616675,-3.344776587340206,1.8361004566495725,2.050699970672266,-3.1609910258319875,-3.319583846591473,-2.50103174226939,1.972494234896267,-0.27703852498726536,-1.750446042956675,3.2681082792434719,-1.8687881624465428,-3.408258075643099,-0.19298989402478007,1.5347506722313825,2.0623532724327138,3.6128394364935847,3.5038724084882295,-3.201785031194923,2.0250524564320706,-0.49337796040425366,0.24375219535140769,-1.8774093248132984,-2.047574315722616,1.2295541149495178,-0.19494403005909767,1.140020278778099,-1.5157375141112544,3.9941841313494539,1.7735649491631449,2.3524771132175257,0.8481212155395994,3.5416123335583356,2.1461243398611167,1.4183672644919679,2.460097156451419,1.4432377158125745,-1.3665828062467372,3.7700186109646136,3.7644891589261455,-2.4600861410989465,-1.9830148655320275,0.28050298643632667,-1.83431498216652,3.842568684313406,1.771574402910395,-2.989789642082229,-3.268868836237158,-2.6974016710724015,3.5276917054482839,-2.2311545259157077,-0.20935637281837828,-3.160852476630141,1.9045774239257414,3.3984120628058305,-1.8091468623793612,-2.9503916066230575,3.1292413280977549,1.551151604849979,-0.8621243390660405,-2.6469946466076674,-2.117979286295183,1.9431531579809268,3.2605607609238129,-3.2994044471721537,3.0305000794836998,-2.414930183790501,0.0795510697579962,3.7261827028850318,-1.5376074901104636,2.8635530451661737,-1.9373469937241089,3.2935091836976264,2.4926238102009128,2.878729436002109,2.681452821534629,3.361272307899462,2.7247033504149087,-0.11905104244925191,1.5558017543305108,-0.5714156045255938,-0.8137170628778199,0.33195643192578308,3.4257338389207234,0.6990322121197563,2.3484393007689654,0.028241656492613566,3.125132612358101,0.5570999697047796,1.6484281108545354,-3.3707497509774297,-1.6254103977084762,-3.456347284565136,0.5599867161423227,2.58202015699779,-2.7352263500071194,-1.252285871610602,-1.5650024383296204,-0.7305691659647844,3.181231701030618,1.043700520062588,-3.6298141714602876,1.4722992158372375,0.853660428156009,-3.7551400590153509,1.5401145054369697,-0.21435780800141147,2.4777123141562464,0.598028467788466,3.9528391185816149,2.100637208635379,-1.1599150913991086,1.7440368258547006,-3.627578506412852,-1.8302631103656404,-1.5965501553782647,2.727557781850842,-1.9014424925536114,-1.1550132552586375,-3.5740246610067576,0.5938632247665625,3.484284927964967,0.11900319002361482,1.2116314855889954,2.900620551713682,-0.5933642962783772,2.250414283838727,1.248254070589761,-3.5584552623558149,-3.0296267742816678,3.437220881535552,-2.0964321924889628,-3.444685111815197,0.26384533916650279,-1.159476454889781,0.5832493304718138,-1.98401118804494,1.7122312769538857,-1.961181573427047,-3.4577559352732507,1.9825052570447027,-0.8760948545766107,3.0181726671960495,1.3488201375474889,2.70284997851243,-3.2363328060984104,0.2247740491481114,1.4980987570483909,-2.568777585126859,0.6226999036718333,-1.3704111072396848,1.7219375586402297,-0.9289438261358587,-1.0792282309566573,-2.2189090679453224,1.266932905851168,-3.324287083032874,2.421213272770604,-2.2782671285248714,0.4532800374128403,2.7385395974594104,-2.5120317806425396,-3.001250131247293,-1.4061557958369618,-2.220142472067584,0.6300046954411283,2.4790365396372877,3.2925451679531827,0.10015254370321536,0.09476105783278222,0.4704777779811229,-0.5326053418022365,1.0281634831356943,0.17797326756238619,3.7526692610447309,-1.9204004757390528,-2.2197440688903775,3.9765940732389035,-2.17112543563636,-1.2813262822831356,1.3274157774865883,-0.735300156213639,-1.903446650918724,2.729615125868624,-1.9121605939828666,-0.5842864238615064,1.3113306525811029,-0.00404815588328078,-0.4140100529670858,3.359364349963884,-0.8659745366566662,-0.569747794898384,3.17136426387784,-2.6696394191983119,-0.16831086316668676,1.0598088922035212,1.1858761389121409,1.876074602901121,3.748573271153064,0.8212102692049497,1.1831403288942335,-3.5858125621025005,2.2733854813897738,2.157064008825368,0.014795117452045759,-1.921411983821798,2.6463648233163798,1.809836601172167,-3.581061892035496,-0.5842955595313644,-0.35492774780062588,0.2973729048239413,2.0212338981957096,-1.5810930755381865,-2.1642315023917089,-2.928520574071915,2.7303961567923924,-2.192784678866963,-2.4297044054794618,3.735261556198356,2.4584608843160957,3.8316972835119387,0.24856442056846984,-3.8169177310959769,-2.8157340081730348,3.510700816844607,1.2432115475054069,-2.4496999857135908,-0.5823623066555028,-2.8407541458737226,2.284279054832872,-0.009530350823265588,3.5924093316053646,-0.6550027330396091,-3.8274421509441769,3.9281575196404008,-1.8957979356239088,2.577532101757815,-2.647321766548279,1.2721686766337506,-3.2873918445890828,2.4444649783755345,3.1954202135611959,0.942943991341771,-2.1184603791064378,0.18437445120706198,1.37150338240364,-0.02576499790797815,-2.707433924523855,-3.5614536148764959,-0.011261496143006644,-1.725913132951115,3.334045207808593,1.7241193208741735,2.122788221219623,3.0440558305178726,2.1450598364265378,0.8796385218152727,3.3781082073453669,-3.1551960517788,-1.7963973541835774,-3.557813007124384,2.0150474397889175,0.30527516631291809,2.418621368585879,1.1487094205589888,2.291324111945702,-3.674913632489427,3.6126004184423108,0.06503111746688895,2.9715590305168906,-0.5989939700562241,-0.6952762044908882,-2.4500438660285139,1.9151183436264719,-3.133661525939483,-1.3160472445433909,2.5355584157774899,0.13085991900011785,-2.3384869598850708,-1.6097828474862104,0.16366926220557599,0.8004272385646356,1.2120925405898433,2.654408002639264,-0.3161997193669075,-2.9373405541198238,0.7497524695942914,-0.1391235573767169,1.9346019651793754,0.4412091188074685,2.918137093471583,-1.4763635969535097,-3.6276816716692874,2.5108883167344668,1.4479265867126464,-2.5005191101528876,-2.822834052569032,2.596593695912512,0.22468160507375235,-0.43172101204200277,-1.504940622708931,1.7493401242275582,-0.4179991407466108,2.6995689841531247,3.9513636704347556,0.9123650239642469,0.9172916465131644,-0.9951796103571995,0.6990447612137922,-3.604648249100122,3.3495592620830605,3.1628885716442287,0.07508220060330295,2.79286633215557,3.78314696818829,2.179205818191888,-2.6995172025910136,-3.831771523250338,3.208664505692549,2.013174709353888,2.3776595227591779,-0.47325014073172136,-2.242617740702391,1.6741945702198776,-0.103523000158396,-3.970780646636844,-0.3613471018769785,3.0347065506507686,0.15866409979121433,-1.5894521475476653,-3.1283990959515179,-2.989114964008536,1.8060233954775349,-2.5984221619714109,1.6354355164652992,0.7235001082483183,3.523858474893143,2.2851571903479934,-3.1471924813452167,3.591792661817891,-3.669800741878599,-0.19668305821257116,3.689369760814314,-3.2173528025490247,-0.3859319450420384,-2.624289521864247,3.130807515851032,-2.8963352550061369,3.24258235508686,3.664926922819565,3.9916428172014335,0.6423815891323104,-2.3893948611568378,2.075767572739178,3.549113575175828,0.21024416615668962,-2.5173002226957275,-0.1097879902081278,3.3949468191751315,1.0062664773819732,2.8845410382227465,1.792785503968748,-1.7741159160053295,0.7169756136053795,-1.8335377305180139,1.2847638312350994,3.176825759129172,1.6150236855087697,0.6487139316570412,-1.8843376899932976,0.4651913679146329,3.916635733652366,-3.3208156420784569,-0.882644002553568,-1.3239156816655895,3.37470653624747,-3.1941910155900459,-2.4560028796966906,-1.2631181384219304,0.9282838285332051,-1.9754064366898865,0.18548427204153129,-3.52581228202789,1.4358168852737486,-1.9717767340983732,1.6436511529384799,-0.6627646900640194,-2.9678567099442576,-0.7802494795811106,-0.7863480694434524,-0.768679814813767,0.946994754983681,2.7781037895391265,-1.628272174807658,-1.174728820181272,-2.968440360631325,2.4012394009317266,-3.1642496435493658,-2.6573658469139778,-2.3380762623069755,-0.7650458358970467,-3.318077810369381,-1.121510935422787,3.636954852739372,-0.33986311531682658,3.375186059524358,-0.6529745215304283,-1.3185893189476306,1.435369377230887,3.9573600983326635,0.6382718994518841,-3.3223619439038094,2.537710298173603,1.3246354878137457,-1.8420258558610617,1.4016787904286039,-3.529740738662049,0.4575740292956292,-1.4119621952225943,1.0913019111214535,2.3544350117191845,-1.2449355032570538,-2.904331718555383,3.7857375676229809,2.946741760734893,1.6225369051097234,-2.5224677123898777,-1.6898190046757636,2.0508248374382189,-2.061486458093465,-1.5531134403839096,3.4244959493429967,2.2158376079865436,-2.954436737083123,-3.0996129825176155,-0.060124007190353049,0.08642726820722224,0.3526076328070511,1.0676668157636345,1.7301521874826689,-0.9515135952776035,-1.0176755848409265,2.876090130655488,-3.092121791024275,3.073143450723423,2.383032427486608,-2.640729600466207,0.17499989803859607,2.5694795724799146,-3.2413191810397645,1.9476825780850549,1.9182172558043523,0.6831267078458048,-0.055883538681909209,-2.268675100397777,-3.805146808365399,3.6749344937661707,3.1259155848494366,-0.28642125832396206,0.4665502005991131,-2.3313937247081499,-0.2855362571213016,-1.9471755088446666,1.8661701159533282,1.9254731821894256,2.3622239584378255,-1.4513366460419784,-1.3369201207788282,-1.1094270227469246,-3.055619223695558,0.2205310964128664,0.9725432319052061,-1.301950045659394,-3.0117512081456105,3.0958260789917,0.36543613834464319,-3.4012126155296746,-2.9349758073345155,-3.286643318015523,0.05583268102704597,-3.0679553698979458,1.214951140923234,1.08715907358068,-0.9366232953432496,-0.16025390894046777,-2.472769885124202,3.269236944083673,-0.1886775579945139,-3.580581985213267,-2.0790740504566997,2.6007436974279898,0.18315572578971563,-1.1703242663918304,2.603800694347764,2.801200446450614,-3.629569709541232,-1.195093365610589,-1.725793627717752,-1.095747246068325,-2.9852554912106425,-1.9472190079635113,2.317249641560597,-2.8403114618352687,1.8049846667147316,2.389390489257532,3.1325522355746369,-2.2242293768278458,2.068796436566756,3.8748684523818799,-3.643197573865817,2.4423666356285169,-2.517202554759412,0.8557864166280389,-0.3099732482517181,3.865651691702033,0.9053538723142429,-3.2294011140014238,2.2017602296257676,-3.5122092084090434,2.9494872421165878,-3.049666965642322,-2.86640925087446,3.9213192796579099,-1.98946744309994,1.7593653374675702,1.1622182553070717,2.0611095863363886,-1.7593718434524082,1.4185917227299508,-0.7805281593837998,-2.0165015699122366,-1.994429480674742,1.7291747831945062,0.7842608458855658,0.3700988271176584,2.125748283640437,3.3613688564242549,-1.451713060370926,2.1791653742533949,-1.2410571136025775,-0.8495977966922066,-1.230919119915104,2.1191955052332958,3.1411520184488088,-2.656725157904674,2.4440195868137666,0.2593054409563891,1.6628120942951866,3.2006408387993297,3.744853773638158,-0.010604578762054118,-2.063091311105431,3.443579556838971,0.5944113353525102,-2.03715915712801,3.615863029322795,1.8398196560294756,3.075592890206255,-3.6915525873976016,-0.9524186242072974,-2.875286821172814,3.2653971975753288,2.870317741645006,-2.047356227939858,2.7893751355114579,2.289554237626888,-2.8983010486607609,3.654027269105759,1.8083371429154199,2.0020948024362337,1.7707360536979789,-2.0389255160764945,-0.28401105342744317,-2.992423777204655,3.0047083005635244,2.5828317094946939,0.5305883343002842,-1.5235399026457462,0.525296711659955,2.4785952710074437,3.172714107413208,2.7718077002233194,2.308344093223891,3.3643436478661705,-0.6933547175167953,0.9098387857335384,-2.78030704337292,3.840297503299629,1.912064405087694,-2.117592114833977,0.29806978699261058,0.24365453490979317,-1.962238472858367,-2.959134395158596,-2.4022367130119326,-3.0463125049106116,0.751616681547187,-2.631154921373983,-0.34284806824442706,0.3326984805809916,-1.0517576875353508,3.822246507348976,1.1141528987715779,0.9768761834876054,-0.3405394179576453,3.93166589044936,-2.0792725421722055,-1.1218106168028337,-0.5627449760424896,-0.9810084899077989,-0.5861399441255217,-3.9004055947681497,0.8508644726414607,-0.5714777553960995,-1.4463732519252764,3.4089837048630908,-3.088065858420543,-3.072067431117448,-1.9098262458499689,0.42067477177662129,3.0941160326581746,3.6127031674757488,-3.0466642349689545,-3.04272372776365,-2.7369826844343887,3.2177638701970219,-2.286180126407337,0.9754925321572436,-1.3870070040863619,1.5320963850355183,1.4158026020838879,1.0924034267413,0.2034357815668555,0.40177086155215227,2.3970575459518459,-1.2877823159331213,3.047514200738841,-0.37922191296150156,-3.164252150412864,-3.2599172876336297,-3.346224982564781,-1.4122818881092803,1.1428991685254016,-0.9162755116608787,-3.6826848058594656,2.7437430819338024,2.604811968329196,3.5265881355488588,0.8618694135816192,-3.0052293487144015,2.579019663293437,0.35677635338103466,3.747067592611401,1.554665857517163,1.7686141043084112,1.0084753884520268,-2.5975500884737459,1.6330261324517262,3.2520686482964349,1.448549857801666,3.681052963094019,-2.915957382445085,-3.956239585886257,-0.018588455500041513,0.3628228879927331,-0.7108432574676493,-1.179953929409795,1.260595437436776,1.1295579252694177,-1.0645917123149274,2.1319122883074339,3.4049605814893679,-0.08464639995015433,-0.45588498320729178,1.9149297082196029,-0.5366614125929223,-0.24866866633709407,-1.3111990101009293,2.483632918991641,1.3570989641624465,0.6883489213831195,2.0676552370841287,1.7168397787524504,2.0718916102838067,-2.646604866971364,3.045879617718491,3.810239623305651,3.0519315502699717,-0.40758458222269669,2.9089825658021004,-1.1858304565833605,-1.998683318418536,-0.40456997272939168,2.4765793035878396,0.4664792835931886,0.7382495112326639,-2.0595142282130398,0.8692167797739288,3.3373739388711867,-3.993716957488483,1.6151809505548212,3.950349142633316,-1.7474274676228304,0.7727250619683854,3.0552133291962768,1.2057860407399659,-2.1055861331374796,3.6568761905009747,-1.2816800487738922,3.9405165899173779,-2.601322912857569,3.565697407356428,3.1352609796362156,3.2097450746077937,-3.5432616365264177,-1.5284482611385837,1.2956300877354466,2.0427621898124146,-0.24170348283842459,1.0550021787244735,-1.4062207578391313,1.9243440315166228,2.0620060138461637,0.9773588751220839,3.191892092047685,3.328678745191736,3.288344868402869,3.945632851546998,2.44834152687352,2.0502004977110976,3.207264205347373,0.8705117006807459,2.710036312467242,-3.9974669166935277,1.9607022033565187,0.6626185748954248,-1.561382517624871,-1.304918542734919,-1.995813045248525,3.0424404619564875,-3.627617102372037,3.0757718643094495,2.78980627784149,-1.9954050259348062,0.698639673065796,1.1635763887554696,2.9531516055220274,2.7104511357547009,-0.48276056767022826,-3.282487548151125,-2.582936218345921,2.9519131550660955,-3.8713118766238709,2.136167636445653,-1.4370141692513583,2.743674033365334,-0.15887940889949604,1.6091113625462628,1.99119150519123,1.7488753792292933,-3.762476443647775,3.3217078807054456,3.6689023628523964,3.6946673229750734,1.4594100777818842,-0.2876434168207078,-2.780765282325799,-3.102175139666766,1.232268428165363,0.17517154067160946,-0.946923495265251,0.7384190747148995,-2.353608980416177,3.257751636243576,-2.540010363987026,1.3295925590289582,-2.8414684005709116,-2.756231345263198,-2.8881817235620375,-0.8796251321439501,-1.5481062958846635,-1.0291517918752185,3.753759768302337,2.8616501253519628,-0.2447325501930917,3.0382949312995954,-1.4913321083633973,-3.274176899616408,3.700947576800419,2.670848161607144,2.0143447934276876,2.8598926457341076,-0.948148630424587,0.2032699160530198,2.1784458001536537,-2.945363494242617,3.3727902991750389,0.79274143385455,-3.174509107036629,2.3122165639873755,-2.981559680344305,0.9361455749346357,2.71470599607579,-0.384040426765063,1.236714683705812,-3.971309443543066,-0.9532959090570079,-1.2335311413261359,3.060173630832849,3.8911672971117916,-1.6567119036299619,-0.25956729168831296,-0.8021116785666891,1.548992324891528,-1.12634390065325,3.3898513845571704,3.845514022684087,1.552923407217163,0.8075689394786503,-3.25101630533963,1.2333948186164064,0.6413465356634411,3.266198562612608,0.9894748897373074,-2.0398362792106559,1.2243917840199359,1.63532318732861,-2.4492391951739727,0.6836627690945356,-1.1426835886555758,1.1083267437538327,3.930902088428587,3.4187372153931427,-2.444159558978644,2.5538294911311665,-2.0795375508329299,-0.3324778818836014,-0.22652848515281955,-2.7044135772821589,-0.3468372554925203,2.051348931914026,-1.9201867304954397,-1.3923150130905873,3.944832519744762,-0.9926845803751423,-3.9171087039887517,3.641029390061835,-0.026360954018300299,-3.8328034400590385,3.9286399801487494,3.4067599831322168,3.2211387579749974,0.769808592276255,-2.751750325487178,-1.8669610220067144,1.0747675578648695,-1.038426289114451,2.7469410758829397,-3.205893844321812,-1.1912546181101134,-1.1449037033736447,-1.3581891958674879,-3.898875140173799,3.3126698107236356,-0.6944790616072609,1.1471865366542096,0.21570373524822274,1.6623203928409645,-3.7495102859457658,-3.564689462153627,-1.9990056491324635,-0.7323477101814608,0.7176208930817447,-1.6878561487039825,-1.56532288794247,-3.538424032895872,-3.500363797147549,2.267243282845966,0.10048827301109054,-2.37831417227504,-3.055185314690484,-1.6321222124938333,-1.1267201569466237,-1.1171772264841898,2.266574801169517,-0.5480082284840968,2.1576647826380057,-1.2790606942503625,3.3987848996735146,-2.556613620668055,0.0628731317641078,0.13267601531994623,0.09072486057686025,2.5100848855295414,-1.876978355610827,0.31215266769728169,-2.855167283656943,1.8030127968098509,-2.914385002441179,-1.8334416993307253,-0.2692396606871361,2.2528340427977087,2.280161194749029,1.940002577403197,3.4719491443427925,1.1984947867392473,2.8324351780564616,0.008811202486007197,-2.0203603300271038,1.1249976319957665,-1.7415755707737122,-3.1203792216680448,0.8180262251570163,-2.6257959009007765,1.2899980806464502,0.21218736753499368,1.1710619631580804,2.950649280001172,-3.949316877818915,1.5675932493189438,-3.0847136191884987,2.3835363473053468,-3.1864025089942569,0.22631112036900359,1.8852730633406303,3.960330137742007,-0.5197491058999739,1.6760399841706502,1.2217901591473935,-2.4298314097383235,-3.390249978109832,-1.1493332600349969,1.5593213701361597,-0.6147720536625629,3.4326657689016448,2.890659218751387,-2.916309789436755,0.9610247212991832,-3.050558666228243,-0.06893208199848999,0.351278754741716,2.3625467451809829,-3.636105697730173,3.362998157592954,-0.9894684972922851,3.574469064745476,-1.4912086862995225,1.8159907501158648,1.7073517245463777,2.4070061919381127,1.312674078662627,-2.861577986705857,3.89748222964905,-0.07599968766056065,2.7308455081859437,-2.445687973669717,-3.9617760690816947,-3.7860975881453875,0.3631643925768948,2.9457324494863474,1.354705723656851,2.4672230288901995,3.7900541815551165,2.9726312883577714,-3.579724985229009,-3.902619143416352,-3.2641457505719719,0.4869601867700242,0.23023557094935577,1.8682448413699176,3.4363444132627567,-0.47350870928904267,0.4937218071191607,1.028037557110479,-2.2697314778013837,-3.8359529996812826,0.2851341281175115,-0.11650455111186542,-3.5793997864404485,-3.0005604111543464,0.3258647174848548,-2.0484895790241639,0.18872674515155464,-2.2322146246455336,-2.6500722289913529,2.8163861976597017,-1.2670197439517977,0.39801694676182378,-3.364716005131788,2.1093938305148427,-3.8926406314397639,-3.368865346444795,-3.646112195726783,3.411589037289783,-3.6784499486436186,0.9023004550216367,-0.6169222551770213,-2.985438452729144,2.161583379664531,3.269331387617159,2.83777136588955,-0.43435662251436027,0.7912848059816708,2.149630222995511,-1.8707885868466239,1.9738304500843036,2.356707865745615,2.730749383150454,1.6895439366007024,-3.818722869998065,0.8365961532286175,-3.6301925522876488,0.812505899432951,-2.492819618838574,-0.4641848240417632,-2.8791609631705237,2.3849808242618399,-0.7070728587953195,1.287278805961673,3.9890975295388237,0.6658961536210581,0.3522145464085238,2.6537673215686929,3.3500739910016454,-3.2961828347582236,1.5234516047888294,-3.7121738092516978,-2.7571789682278267,1.6034694983430118,-3.028080649449901,-0.4953260613035442,3.6682843025334179,2.962182285853154,3.287551036421412,0.25108999259959577,-1.17963614480123,2.60155556086705,2.269264718605692,2.781729935369473,-1.7004351879867264,-2.26269846788482,3.155729983124157,-1.3805528235208478,1.1484915834026364,-1.1549460955930898,-2.161351298284816,2.5434249701143578,-0.9434742923750916,-3.893947204202947,0.9680773607834237,0.7377922168780566,1.1549158888880103,-0.548120829595723,-3.9708468540213195,-0.8265947977381885,0.49417439440859836,-2.0111786119672354,-2.725317064831767,-1.2234232349909109,-0.5298062272342003,2.303692535156011,1.5837208390763725,3.192154162353111,0.7430785176411057,-2.6196891989485104,-2.9049080208639905,3.075894760405439,-1.3924686802398068,-0.48127135270026347,-1.662834460347744,-2.3198894369143856,-1.9514816260688495,1.037885401310887,-0.9080836938642083,-3.973659505575532,1.0520392902513703,-3.694036650043887,-0.05675696300355404,-1.554850706898347,-2.934925421307396,-2.2955435499807885,1.85546501745183,2.6334796012183396,1.1405403730866848,0.5220731934272633,1.889641317591228,2.1352719162041664,1.52020835841114,1.065627292032855,2.5407383675958519,-2.7365821931821259,-1.3490586602530675,-0.06897179882411364,-1.672647811026077,-2.4142601890837236,1.5992425012626184,-1.3603772925186349,1.5463656487504123,3.362590044163709,2.3178378877861816,-1.3966679531445659,3.5429660700214065,-1.8776139126148815,-0.8105249957103968,-3.0400128005383388,-0.9446535935568763,2.609941020970294,2.538418450135066,-1.3023122314663,-2.7722622387865547,-1.2365758277648809,-2.1738756250409025,3.9969664056914544,-2.7613021193810427,-0.22888431481277728,0.7685641138806965,0.8927662306045656,-3.2108050848115408,1.6204302227098558,-3.1771904487767097,-1.2271854008257764,-0.9866369853752326,-2.0764431319065155,1.1180203303110608,-3.664172654702311,1.0360613016219285,-0.3240824151746369,1.7545664192855944,-2.676569932451324,1.8147450903676888,-1.4805407614856492,1.8174303049501469,-0.04937057094617736,-2.9245837072307827,-3.292974301008183,-3.0628525915584747,2.650619172251133,-2.731170302742247,-1.2129673401180439,-1.7787634540816076,-0.487089712013721,-3.7296346431097877,3.27804430831827,1.2068335971809213,-1.1818943079208973,2.182163903201542,2.058703122414829,1.7572435156443876,-0.8782127360501646,-1.7608199521740283,-2.4869698499035808,-2.1520159449002635,-0.7236187902547755,-1.4566700140057023,-3.6887804444705116,-3.8892125422607188,-1.3822212327055957,-2.3455474054267,-2.8682952608762157,0.5014904822437885,0.029623503964534949,3.678938222836533,-3.7828419728141977,1.4769668395759413,0.9119101619272545,-2.7368110463829948,-3.839355148096664,-1.3947619906459894,3.21982170396777,-3.49347947966275,0.9812260314867549,-2.5803113004863995,-2.402079953914077,-3.1445195815278916,-0.19081386087611408,1.050512512421136,-0.17777268072539344,-0.6374747886968473,2.506672161182107,2.0694194260608924,-1.6403182465165552,0.8238918632118812,2.915759749828612,1.7316494123253863,-1.8011240271495375,-1.5259073388420464,-3.973248961290266,-1.6498182072168016,-2.270512176937423,-3.5763025893960318,0.2545071352025525,2.5236605585743989,0.4447342436125812,0.5424930118988867,-2.502145377668392,2.060915624453039,-1.390252708539407,0.9401614148948996,1.273233771920384,0.651278101802947,2.415978825650651,-0.44480357026628605,-3.4917475849094,1.0318235057658934,-1.512978751049504,0.6580242555350298,0.267447528959635,-3.7553643053450456,-3.279007400810076,-3.964246239886455,0.9096618405368551,-2.0627188108846967,-3.1383978744344276,3.9426764759107675,-3.3998169477643964,3.335180837285562,-0.5247813022768222,3.2011618878254106,-3.5716735166596305,-1.8628249499314154,-1.290499275862979,-3.6353257521165016,-2.813070552478406,1.8629295508735764,1.3607405294757973,0.6570065589369758,2.773431975551735,-2.5103122367699495,2.5513424643897917,2.3823216893715495,-0.6610532100876743,-1.515706272843355,-1.951756805392092,-2.847990819936718,0.9886233100113246,1.1130350652819985,-0.1823779836626569,-2.357593712057959,3.7172501765909846,0.17363139906120307,-3.742636699853393,-2.85285759726162,0.47701769982339306,1.5707562098854729,0.9756921177123621,-1.177050547744875,-3.622500083635951,2.3446405757908055,-0.6998375146615024,3.2997420449698957,3.7113823311326987,-3.96459125310144,0.6117854598674537,-2.180674641051283,1.2315358327723809,-1.5762998602735215,-3.631301361827056,1.171040720829871,-1.5900569361303454,-0.8252733242549157,0.6961562995425004,1.0630029061951616,2.103455493041807,2.7016525729890477,2.1475427069625017,3.5613236245841737,-0.7639765399389749,-2.9212451345438845,0.04680716452160194,2.7809336794267178,2.1351211079646879,2.988722179800889,-1.7049933180570954,-2.002768893737329,0.13274973874307784,-0.39613476969954056,3.4063728412118055,-3.557429007210973,-1.6261740484781807,-3.3283618760036237,-1.84390060749252,2.904491010052256,-1.949474442753438,-0.4964399552264991,2.9737535458153649,-3.766097093661558,0.48206933744277427,-3.810630908418429,2.3304400544323675,3.3433647524883245,-1.544901374751264,3.9977148711547869,2.3656082519161547,1.700330643030954,-0.474455508060613,-2.787001907281468,1.8410758064550095,-1.0628181877092436,-0.31455054825067388,1.6069136105299614,3.688557950992421,-1.4116823795774083,-0.45738770603534087,2.1099846482366946,3.8576261336893129,1.0966659901990568,3.968357440069206,-0.7393826920825843,-0.916692488000364,2.157737162404291,-0.8104053860456926,-0.6695153995057455,-0.7300789165444268,-2.8852245278398778,0.39481118589732847,2.1373297089287766,0.9981840555255444,-3.243696831128603,-0.3188716198436561,-3.833796627433859,-0.6111058418344515,2.668478608462019,1.5926629751295823,2.350723248077329,3.306165813705573,-1.7818102433831014,-0.8111023212398694,-1.3625360573212016,1.7067324190733536,-2.201899306764001,1.013576698702317,2.069027914250822,-1.244135637627149,-2.5097516523295715,-1.959787033361595,3.2033863749019266,0.31187220222467007,-3.5660425078232027,2.961229580771506,-0.8808305757758126,-0.5887591852314513,-3.152186714560954,1.5084065588039542,2.105966414559428,-3.484054799671041,-3.0533191550764497,1.4202099407749618,-2.3643871269107494,-2.294672033514696,-2.1407066139703749,3.0967879439658185,-2.670708373892543,1.440398639725644,-2.116386941790969,-2.6148792188042329,-1.5618840145363,-0.7239983776929242,1.3584701588710076,3.499472945808721,-0.5457194677038446,-1.2227785343435232,-1.8812194263903098,3.004013001723809,-0.4664338060023647,-2.740754278371151,-3.048478176818678,0.400593984426064,3.547030681358221,3.1845499901526237,-0.824308816992495,-1.2337002728959768,1.8687898281180369,-3.3328574334406495,3.478213418009431,-2.0674436252901637,-3.2855795287801845,3.265645117092575,1.3966866017855937,-0.937152437437617,-3.829978038025909,2.182139568552283,-1.484169927054392,3.170080409826469,-2.0322621480666465,3.8326287073414306,1.140405459263123,0.6906349808242744,-2.2974182763182968,3.8966728008707269,2.8055268721538537,0.710070065956673,-0.5887514089238481,2.895985116958844,2.2618253679468189,3.3663742730165895,-0.32082720647803156,-0.35238091686250697,-2.734389986813831,2.2656845842228314,-3.4819758215264526,0.2818144798358704,-2.4210512828122949,-1.9479671895110782,-2.883193295092248,-0.27776822571388118,-1.7534661238051266,2.2219035630654515,3.3966666488807144,-3.216376945676971,0.5985213319072242,-3.0634726899429758,-0.4385016618121833,0.5595826825729029,1.8603735839757896,2.471446038916409,2.122409062471932,3.737931549725446,-3.647910466072041,3.6417886369947807,2.559093204949111,0.22196362077953414,0.028225919787936428,-1.7685912607929509,1.0427425554666972,-1.4605096206149957,-0.5756128613189644,0.7408311101257636,-1.8039238211933145,1.4438063039673975,-0.510435285285153,0.7794398627107242,1.6552343233456846,-3.1650249012516884,-0.0445297174779371,0.8193943850487582,-1.3068300785355829,1.8638490558013859,2.703620039291142,2.3342308255139176,0.028045262045892195,-1.08193286811039,-0.7457102938652973,-2.8097844231214115,-2.9108162548796487,-3.5626172350582046,-3.2938511173889006,-2.192211882928457,-0.010833052970452562,-2.273034184926856,-1.5875485910955727,-0.7237647747123772,-2.186412401330138,-3.7184682157669215,3.651283555688833,-1.1163922952832713,1.0859081862540992,-1.4774779315317586,-0.061022298499257,0.816693229048794,2.9287821023419715,-3.191191386114161,3.886609316156904,3.9542984903477,0.1977879884844711,-1.5292086194991735,0.06493695989087467,-1.5981317193904357,-3.759983192028087,2.1443767220819929,3.479936847715182,-3.4104069088725739,-0.8073168253417569,0.042023137144310499,3.0359407669335276,-3.033073937403741,0.4837517142783554,1.6968764092915727,1.9615641571640668,3.2077828921670985,1.3433100372858862,1.6545959636146304,-1.864369070228873,3.2569030151621067,0.7887343440220187,-3.3805175656040395,3.1177895001944586,3.1764806813009347,1.6127512909533,0.836316294824055,-1.623765993833118,-2.7179873410520667,1.712191688814963,1.6931330151313038,-2.9338937485283678,-1.816142477467533,-0.9014980760462874,2.7168448208145516,-3.466932469329336,0.7505428444084075,2.6234423832673867,1.6294057627647716,-1.3144662052256307,3.0634752152586568,-2.550271750348206,0.14056802609660935,2.861684286344362,1.1827387525616624,0.7290522795880134,-0.1078249066492738,3.3609137189723707,3.5485387533124825,1.1362062068436903,0.334186213248457,2.4625263923239375,-1.8396203543640757,0.9375361092371373,2.0698430384260018,-1.7004484483781733,0.6451318552307859,-0.4701906840869461,-0.18721183339251214,0.6739350563478457,-2.2744895461906307,0.21213345498879833,-1.8039286907541444,0.12962315933745395,1.3397049173735516,1.7017521507992344,2.5753302041561865,-3.5304654416170768,-2.582533012494368,1.696046694923897,-1.8202262588900045,-1.8629819241229635,-2.826978795070632,2.321376657887204,-0.20107699998419815,3.6533463879647485,-0.7785841379884504,-2.003442186241692,0.30614452204416767,-2.5011507734821096,0.8677888807632863,0.7484196005044295,0.24700602540535589,2.749505550908415,-0.752731309142568,-1.20082915914411,3.0566659358114425,0.9461076346244335,-3.3647965780792674,1.2031503102282893,-2.7024162441462735,-3.6606982231784777,0.17857804472342488,2.6433698775656717,-3.75313438219583,2.833731508762071,-0.4391515271593447,-0.23372966277599772,-2.0269651101239116,1.8623906817947198,-1.141244164471926,-2.05394613046985,-1.9053260750857533,-1.8062708338383245,1.1991166542247119,3.0340209017825314,-0.927525434892905,-2.237941467302667,-1.4037178969635174,3.18823835579337,-1.5706526469440088,-1.4089614616564062,2.537199654429058,-1.9698387542487799,-2.7899256094865327,3.8040131802171608,1.139746100362692,3.48626633241079,3.0540478325290865,1.0353516612874625,-1.0107535639307115,0.500918129421021,-2.0094016428721996,-3.6697381843532197,2.519988479267753,0.9174412570740458,1.8479862006126844,-2.8708101857241976,0.8474816142399506,3.284551384124957,-1.3913518172747628,-1.6691578048285659,-3.8828879976867807,-0.8644710954274277,3.8132748104889639,2.8050380912301948,-3.9619517503533494,3.202103356247445,-1.2352561551731976,1.6040014095103459,-3.6628853337878395,-2.5302954772749777,-3.6635493172854689,-2.385518383121095,3.4243452644690457,1.5756829789262739,-0.12801999919854468,1.1798672590403863,3.813397803760946,2.6724319433663306,1.8776752298840798,3.9303157477911059,-0.3808140282394641,-0.5711878176790448,-0.2713779367212803,-2.2733729689466637,1.5209655006285115,0.36925424276857657,-3.685862390975176,0.5207909237534185,-3.998250007567929,3.6109361806262205,-1.7516501896899295,1.6819264781404569,2.8316019636976534,-3.214173357546005,2.2795455851064174,1.172694961566643,-1.5947715791073876,-2.266664950421511,-3.023560446092195,3.2371362527426026,0.06307452838972605,2.8198283324012038,2.8636059785558727,-2.7297029772495184,-2.1850313992790317,-3.5648149155812005,3.8422743272293449,-1.541100787549395,2.0959525505991438,2.4509271178049145,-2.349354630042879,2.790165933917965,0.5473161050875834,-2.787675322239142,-0.6456648847499587,-1.6799947024033398,-1.8074167199467673,-2.4616618862043095,-2.269002299254387,-2.470581300274241,-3.5142820454972867,-1.9928620923800334,-1.055470899459053,-3.8845654921303707,1.4088490541366197,-1.9856252814103277,3.932320019052603,2.5867625130692435,3.140840236504758,2.1840079827188019,2.0234769269219354,2.6672393331099055,2.4867084711763116,-3.3394395114554404,2.614283487614683,-2.8689914459509877,-0.8851244082129615,1.4656875033331725,3.82015567536343,-3.0936133516605,1.4670189897450419,3.5599297491579087,2.034922636458395,-2.1110340903747897,-1.0582507667378918,3.6489774929981708,1.8754542590719004,3.1472453428006146,-0.9169545317531413,3.582213425349357,-2.631755498647662,-3.306260959226954,-1.1356918616236629,-2.2239334678274327,-3.3986593568393888,3.9004547545738648,-2.5309546707861418,0.7767096707270618,2.4536266107248458,0.9241775241739312,0.3959485557895155,2.126338071625943,-0.10186224204769889,0.9231258164097289,0.5631623790788911,-3.0338101605900924,-3.6244661960800457,-3.67020219969639,3.8757818158616068,-0.3340525119242719,3.7948658438823754,-1.1718433801672637,1.5665110079147784,-1.0045462941293318,3.359234483239258,0.9075966282488128,-2.1121678623218,0.7874905822483393,-0.8348988629113148,0.42536110966576148,0.4713467570520109,2.5423756492615219,0.1324215522075063,0.9612720677675322,0.15180182944578569,0.5946982917002144,-2.713058664280143,-3.2472663582280489,-1.4803012238744478,1.223772321577476,-2.2076213514764184,0.7892569165488084,-1.179509616725152,2.2165073955612,0.9671232253362208,3.991203004422645,0.4845259910476294,0.9853424592857385,2.311443178886436,-2.7539803159379945,3.1005924322385667,0.3661946251383785,1.583067264097334,-1.5847585526732274,3.3794475291901326,0.3533980978518869,1.3489391155630335,-3.655568837782731,-1.789608770751206,3.02959836824854,1.6144418029086794,2.2416252820042299,3.5226517034347468,-0.9161331767349294,0.17480734421589706,2.93744081078695,1.9103918933408846,-3.696923097557905,-1.4411489324491918,-1.695706929824402,0.46511219336098189,-3.947084175802927,-2.9473806548034187,-2.6505803133356675,-2.1845601579438318,-3.968191647074822,0.10137709489141589,-3.360148246098639,2.955917481259232,-3.6274167288616434,0.7396495121217201,-1.6880867235745234,-2.350775540046489,-1.5946947468211495,-3.1088600903810779,2.246004913896389,3.865273528847239,3.0808296821625937,3.580755316635381,2.595714231993899,-2.5590335516612709,3.590640521575085,3.9197391540470605,2.7324378464633476,2.634417375525211,-2.291659673973321,-2.2043218819549326,1.8275072575742249,-0.07900192285420982,-0.355472824560479,-0.9474828468029335,3.777955462594414,-1.3345970541974115,0.5900032957101296,0.6942914128022055,3.6363717498271725,1.613444844337515,-3.0350221122950229,2.189000707985482,1.1157479147304468,0.741480885742531,3.4444288148445585,-2.2745747928941517,-0.6379420960430275,0.3683415738879239,-1.3848712155722459,1.5814490989804604,-1.191505595754279,-1.7684600197084138,-1.4658390311758086,0.6779624455428701,3.48344882154818,-0.6087312607600781,-0.9927302565885965,0.19284620351987326,3.9399646442624336,2.5486839150997975,2.5950751545749206,3.190932115764161,-3.856806227475553,-3.991492587616899,0.7877625211895785,-1.0675788848910087,2.2428216000885499,0.7334015764486717,-3.2016344729462977,3.7717736421860339,1.3083107720227787,-2.5161975389839696,0.02844809444829277,-3.570228752057277,-3.2850494601127639,2.0151972628575587,-0.8081986750284675,-2.86124914983618,0.17627938475890926,0.1656271341073543,-2.5615756406306708,1.2305457972282517,-1.2283114912445952,-0.024833385878776816,-3.370588062916399,2.649276522270826,2.2835625004005175,-3.5480672587360218,0.37285599165468588,3.1629512155783017,3.3128175342743928,1.746498306919035,3.163778030866262,-1.974993724136664,-3.6860064881921774,-1.024936910852569,1.7514850756187342,0.5323599038678468,-0.6123933329905069,-1.022153269211989,-0.3955809453992378,3.6787642206467154,-2.8340744733431819,-2.08486845370441,-0.9126636947272433,3.605140978398391,-1.5949413062163858,-2.8984121122842545,-1.1612315941391974,-1.8210192602247697,-2.916598891345841,-0.8997933349099521,-0.19439618764053447,3.8407382181533684,2.9597267283367305,-1.0463642703157775,0.2724591866612718,0.6451500594996169,2.9177072112588995,-1.0828456326591578,2.277568688471928,-3.963496487372262,0.6304195263195611,3.9225832734936327,0.024014173906842907,0.1953065026631604,3.4846341384468006,-3.828692992411268,-1.7712510450661834,-2.8261347933448039,-3.0854735762612934,-2.7429836857189144,-1.7528017936544347,-0.6715492658303157,3.6468411685755548,2.6908778799599357,-1.0018454937007689,1.0572058205088633,-3.231371450999573,-1.4015378886731898,2.65081745099213,-3.238955603139125,3.32390628553524,2.807054115917185,-0.16178582531082087,-1.610916366664341,-1.1690189704339345,3.2243821214173726,0.5369853227590609,-0.31552335841060166,-2.0496423688053317,-3.83705582536588,3.728570927679936,-0.7923614025699133,2.9111580680280797,3.5132605786983257,1.3760577540169506,-0.539540532717597,-2.272534488898957,3.1403151574637278,-3.3942816567856459,3.537757010125272,-1.5354579729794225,-1.1409493585043563,0.5406558288123602,-3.079271257151216,1.0127188663937279,-0.15755446146096098,-3.2005233023853849,3.1337907958598718,-3.42197626081757,-3.7441209119070919,-0.6918829081256595,-0.5045169012578077,2.822919530477483,-1.183383742676476,-3.942506641475811,-3.955632694434181,-3.9335461112010758,-0.6175990404879492,1.256025151904404,-1.2209118532991488,-1.5104777756323016,-1.617921439599311,3.2829026037306257,-1.633760714538447,-1.0471164561579743,-2.7776824026586377,-1.0206643377170808,3.0428396365277425,-0.26050182151851,-0.03115017000147624,0.4637997887370293,-0.07702643946999977,-0.4186310900874697,-1.6319097709457434,0.9992659335415635,0.9411007341107132,3.581325283895361,2.104880014541755,-0.9402685089399023,-1.365908642142619,2.072233427758829,1.2935698049918303,-2.204649059168455,-2.571441152006199,-3.356033615487857,1.0324362081766854,3.7322033734992789,1.0174918197629169,-2.1003175804827105,-1.8432800845460909,-2.7955438374708274,0.05328487993204245,-3.743488995025703,3.633581650144974,2.796377481693616,-2.250288467557107,3.475074373341714,-2.5638914870444688,2.4370908712925134,-1.8711640631064289,0.5964238534611326,3.26030554071517,0.11942877368900273,-0.47285194687229317,3.010523084843408,0.7569133323585158,1.0064088124925759,-2.315940771128668,-1.4755228885938046,2.479280116837426,1.878558234757115,-1.6806622248653279,-3.771966890938721,-3.6449430653410674,3.5650497907382574,-3.331060750915725,-0.7527801759748749,2.0246393251996359,-2.569215910999671,-2.2058550948181514,1.6987698285344975,0.28816734287369796,-1.9919468721895646,0.36506691747185907,-1.3543055052208768,-3.496650402719336,-3.069995640897405,-0.3687897061429375,2.098002947430878,0.970341404756839,2.1079135321183557,1.1348913708223494,2.321476161623865,-0.21985564307815176,-3.236849494154707,1.5492419862085605,-0.09780580438201003,0.2714743395282646,2.506080808857374,2.838887599177382,-1.3060282397772468,3.8450387846607194,1.566124316133453,3.165055716047597,-1.165226578355786,2.6249415829908315,-2.390501977374649,-1.6330028243775186,-2.3821064401052549,-3.5218425039884488,-2.9655854786029689,-3.1995406193730124,-0.4922233338950266,-0.40711263398409006,2.9029793491161399,3.6309239440814204,-1.1047824378539309,2.8876752781738519,-0.6583205084475454,2.326259128999996]