[3.5043826853837105,-3.83750392027851,-1.3440730170637319,1.1179249397762883,-0.2891193265870362,3.6713625706244885,0.895513469226703,3.679609623500255,-0.5931134825334485,-1.6791758564062889,0.3210956955109996,-1.4925457579467434,-0.17095957769549753,0.27837175321224896,0.8592977258278731,2.2080677556550007,-0.8424212310631694,2.6907455717515029,-2.7535022695915698,3.1508192848594778,-0.7169609903004284,-2.411652841247017,1.1452113562441789,-2.6753125866378486,-0.8912848040380812,-2.8290945346140594,-3.351872022631272,0.014291027113690014,-2.880331070908716,-0.8820626183757179,0.4806798225430038,-1.631387159302668,-3.520545434719149,0.8463085158111179,-1.5284234551990937,-2.868864878873829,-2.2116909068073724,-0.040665827352404097,-0.47015328854052088,2.8867065572893457,2.9842421082441819,-0.17249131887997017,2.783351379260198,-2.2198083306581557,-1.0786943617472622,3.528969038020591,3.7644683730067358,3.8978487606629237,-2.0015256366188147,2.9694081471870827,-1.4658796527573406,-0.5457236402510033,-2.9030724275824806,2.5028488774614816,-3.191725634299509,0.36592836908139239,-1.7563830126993916,-3.8018143190022917,-2.487568532335594,-0.4168637276694991,1.2369425912119008,3.558884013197881,1.2891097286586045,1.5946307129553726,2.0305573565633887,-2.4167795684321744,-1.7670217426727906,-3.7630406711209609,0.7384964082586265,-2.7530034979573285,-3.2807415202721117,-1.9370899211270272,-1.192143511171012,-2.3679614517778306,-0.48566344558410559,-1.0832835628837625,1.3761228344618477,-2.765679094371178,-2.707023179447492,-1.8717840886091997,3.8979442166807916,-0.9798723864510741,3.693395844960695,1.803911049695742,-0.5134867759600477,1.9832662019400367,-0.009111982478571923,-2.9079672532963007,-1.8673418110490586,-0.14628685544552257,-0.3342722225696948,3.3763213837107486,-3.5399794243274389,-3.197897485879003,-0.5376007197161365,-0.7757916657083559,-1.6885754378646139,-2.307901981799394,-0.7356702344649706,-1.3960948412270682,0.2676009727431161,-1.2798467368188265,3.983748774513206,0.9094180995102574,-0.25004477225965529,0.19737348995867433,-3.067293319143767,2.7655840830191718,-0.8364499699126833,-3.105232488052205,-2.831650535775566,-0.246628309459072,0.43094888478370577,-0.031967480989082867,2.9083544026901766,-2.054125582806374,-3.208318069857495,3.1772922255475386,-3.475037020343791,-0.9028043885380279,-0.40426169332164565,-0.4143486375797609,-1.6883383104688863,-0.7014500493663205,-3.3022704026085325,-3.68180848096676,2.7692256138535056,-3.8316781150524248,-1.3885269050565426,-3.94974113152176,-1.382904554911834,-2.762056613548915,-0.0807901481169877,1.0036369097458176,0.35535524355081185,-3.618645995215373,-2.3679656688163055,-3.8123284169087654,1.2021091396424506,1.9140881846295184,-0.44759722409286875,-1.7789568195495927,-2.5515432301969565,-0.43521419120935236,0.9506028832591005,-2.837150976373694,-2.2176653759922919,-2.726792950993816,1.9690963643375144,2.3682923088847085,-3.166084923832077,-2.6153693702399005,-2.393857482173167,-2.3234154425798039,-3.407298440220054,-3.3863824378212259,3.7168996404114216,-2.467634330494308,0.7607896775097709,3.352932023169389,1.6284509878604193,0.756233154579939,-2.905403358080445,-0.10082023971905918,-0.3741624071421017,3.526726255921802,3.7631383016109218,-1.3624402581453164,1.5923836123434488,-3.988421027693378,0.6520010423875018,-2.469157019784012,-3.332131142285103,3.1752335306542864,-3.1901145918808089,1.7905535629036118,-2.962662660923188,3.320541778848927,-3.5883338128937165,-0.3284560725151282,-2.8804386001477386,3.368155688566169,-0.5246048760515338,3.4146297773576155,1.2881523184016173,3.176348039639306,-3.1599331256365685,-3.934882605731927,-2.3394609575805438,3.0224489626589285,-1.6241721560248089,1.2542675568816897,0.1870538315680168,-2.600461200473056,-2.1637074758698597,-1.1867335060052673,3.9591270981223447,0.9772139616031144,-0.8623855642857594,2.232880603376576,-3.9576867177644665,3.1353872227448056,2.052462673270946,-1.7858534934359514,-3.178620980220508,-2.846338797781696,-0.11062280041181438,-2.947504130848449,-1.4220876140092678,-2.962805591331156,2.1343016758964854,3.5736816808046525,1.3869821899055,3.0672204357304659,1.966533710345117,-1.3675262697036013,0.9877303035175942,0.2498452362503114,2.6617755908830746,3.551116429159838,-2.1026891835306209,-3.915080452506163,1.3851523584536417,0.3891095826097617,0.26528090411778218,-0.1615660388220539,0.3274255400533779,2.8891843474863645,0.6639311619049586,-2.2813975658685505,2.4635804680232997,-3.2476801386242855,-2.2839784192416108,2.2853864274046735,0.09360237145139205,-2.1698574615968306,0.7741674707473036,1.1931220359134729,-3.882294717958999,-0.3640187314070529,0.6098723625863354,1.2268441832286215,-2.9794977130774606,1.0212564092855035,0.04466763749362013,-1.1713503388547653,-2.599148343298422,2.548104611798945,2.736458972021489,-1.9871675657903252,0.5148108611206945,0.2562023126835671,1.3752754728596575,-2.9001311317311719,0.3984589812980843,3.959425546978439,1.6421967450758617,1.7801956018045742,-2.100888926350436,-0.3512857937641263,-1.281731782348688,2.7581384117558205,2.284776778568781,-3.310278446699537,-3.274330900179528,0.9239103478093211,0.34701542252880027,3.620625612535817,-2.4490118094626975,-3.3426010259845384,-3.0406439300450964,3.6411010154416365,-3.583168896830834,-1.8956815418749254,0.20571771330207068,2.3996559697502999,2.7934985392916538,3.7679882314231447,-1.1535575176117235,2.194276003564971,-2.641904257510621,1.6919064275378393,-0.26946046730860298,1.4815734498002105,-2.8492049890396764,-3.2278802592922819,0.22592069921581627,-2.6730187715027098,-0.1464835125935744,3.9442563522810305,1.3733654939126412,-2.6735598685066916,-1.6584880254859836,-3.743946696566094,1.4741740477116228,1.0936581268967869,3.084583445483716,1.8726599596292682,-0.0193599896830714,1.0161535857612477,1.507673845329772,-2.7016462899924216,1.681614319063507,0.7885603407626327,-1.120193823078024,-1.9177821977435486,1.9952063136593843,-1.9584150210107865,0.7298069624421988,-0.005213307185384375,-2.4808001584610359,-2.080246000333064,0.29711923681415267,2.3860340192897224,3.5541731686208406,0.8599225340155554,3.636506047098714,1.8985467398373404,-3.9540582438158058,0.5474282832389887,2.861437196832177,1.0807620993007766,-1.0147150075351626,-3.8844537185346397,2.6597899294897209,3.271753224515832,0.6685641301857999,2.7447031462741044,3.8668420557726046,-0.8092564539257516,0.639081234514709,2.97063303008185,3.63836537679072,2.355477380240857,-1.2997866636083196,0.3499215019515214,3.207090001572835,2.4822465919333798,-3.223072465327708,1.4825769634456796,1.1175493381633209,0.48265520549671506,-3.269099778210421,0.4976978210702212,-1.049074175943626,-1.700114854907776,-2.8015048457903539,2.442644865546871,3.518149069771236,0.9383443367534827,0.014097904794042826,-0.6527380052734717,-2.1634546036649819,-1.4883323643529603,-2.6175239035606667,1.0055078414515047,-1.206404677913496,-2.20350727322373,-1.6451292385541654,-2.144602905760782,-0.3754096258788111,-3.2316282689931485,-0.25465180120391675,-0.27931095410841935,3.352401323337366,-3.5250644374409099,0.6882573357162878,2.8320197561816755,-0.3398500867632466,-0.17488133415825736,-0.8077341122824198,1.681695291282959,3.775884354911325,-3.863004856415123,0.6893786726984681,3.99113406680968,-2.1536082908285856,0.9954028637828181,-0.8015249854745399,-3.4366899187316477,-2.501164041183703,-3.014754307680091,-1.1492669186163965,-1.065904710560968,-1.6589544339797602,-0.6333081785277921,-0.989246801388413,1.378112662616795,-3.5596219518026954,-3.406074966063297,-3.2218169963385847,-0.004488922031500309,0.16873828463807517,1.9016736465169926,2.952591599359307,0.7249604200870889,-1.1508812071240283,-2.2555426016920157,0.7550718011798354,0.5050554109674588,3.7396759002758737,-1.0517923937519103,2.240916758295035,0.6175792085215557,2.3065311771849688,-1.5630084002126906,0.8684270201974105,-2.181356586549561,-0.18890384398547845,-0.10437631675961345,1.632982943347998,2.2797527916978135,1.4952873293144605,1.8901112348993552,3.5641723060291117,-2.590471354916744,-1.2820944048543679,0.08133193890274004,3.91458828168623,2.211998177011382,-3.5462832545105336,1.2180179893668522,2.0068328469535325,2.982790181652218,-2.8854398631846855,2.3375995733876548,1.1844391982909662,2.1075939265920047,3.517576567677926,2.8538463713865109,1.563886083637029,0.13972137483029369,-1.5990881333267207,-3.8073458332422716,-0.4964604929652199,-3.1633516580333005,-0.3021941864920823,1.9214129457809835,-2.862623967576085,3.4579592134548466,-2.616057811137785,-3.9654539909887029,0.3526121128308546,-1.6848100638954054,-1.972738274275038,-3.0888856774324298,-3.827391610322362,-0.4136092201720247,-2.2342961151582747,-2.616920747988507,-2.8577205194898065,3.687351733057108,0.10870684112349594,1.2942881583185875,2.4346679395547436,1.295192244103129,-3.6602019960580938,-2.5643641263936995,-2.3812437300421056,0.3285954582576398,1.4246301217909219,-1.2373236594490414,-3.2925426132036694,-3.847899400499454,1.883986889123138,-3.6081333501336569,0.48598949716575126,-2.9450180973504089,-2.403688357375211,-1.319158984661878,3.6149205945243985,-1.0937121751600752,-3.276903510576746,-1.1204610536083258,2.985128782206468,2.4218483362050415,1.3336098604658187,-2.9206836992566904,3.6997306331193,-2.2507940626001448,-0.686839633625661,3.556507582955237,0.2650564673788507,2.8001940056380105,0.3955227899857494,-0.9705557338366793,3.1200881639323967,3.313938046420261,1.5774107140353558,0.3663753882895451,-1.6953959062710718,-3.214572438456674,0.2613272768811008,0.5950117326025026,0.8736860390977244,0.4787155906612588,1.4746979854254204,1.1549818552363354,-2.48321650269634,-1.4134631981494082,3.3739620935048828,-1.2259835651528369,1.22792655980565,3.919635677754508,2.0071829680669346,2.527011475783441,1.0953828102821426,-3.3532301663536687,-1.4712809406928623,3.731086464631538,2.10507301309753,1.2437515704968823,3.2739240076055156,-3.504964888884544,-1.782729637532446,-1.2138239552092552,3.7550592345698678,3.9376423135698594,2.753371618681757,-1.7614131663942859,2.9052229997325798,-0.1209994092027129,-1.1858575231962652,0.8454271871998085,3.912851726525589,3.7843432902693285,-1.6024152667382934,-1.1104473775970379,3.078226335355957,-0.4562467750932768,2.8349520901882805,-1.6990556250642853,-3.841005784188119,-3.80097310355894,-3.04055837397115,0.1305780222244124,-1.6942258335284537,3.3555401458628966,-0.3661087841592747,-1.9073607168787028,2.9806996745195528,-1.8658155020433505,-1.04715583818254,-0.2121339784475591,2.9918217503554977,0.7259937816811615,3.504598745119516,-3.1820151788082047,-1.158684135448434,1.2922518255632066,0.4407818150928202,2.571757653684287,2.5431956285318968,2.7402662893436435,-1.1222246873280997,0.15043051931804375,0.7972134589862572,1.0717240423150454,-1.5325558089653715,-0.2702609578878705,3.754958266983598,-2.263618494161369,0.550501806800745,3.6365531438590166,0.6302270004251813,-1.4310002661536495,-1.5408477134665513,-0.16213912082481309,3.213106518356989,1.0513500348638623,2.400213658357327,2.6815006240395444,1.6624900663772993,-3.469417777151298,2.6995092217147915,-2.624863619487482,-1.8297325962445135,2.690572617901365,3.5616976557736415,-1.1703978432446543,0.15390901578538153,-1.6502087923906617,-1.4828544883793969,-2.6291240668230708,-3.7951911951082639,1.7424304950323216,-2.8843166335098937,-3.0447709643003355,2.6639455084850569,-3.0029494491973116,2.3242500179203375,3.6159162864072966,-0.9551060421847224,-0.9594748286605492,1.1128097132996287,-3.304512771593152,3.2454288355884035,2.078435153004552,-3.365468575723602,-1.846509914772164,-3.216511996842293,2.41487446509164,2.2828705136192397,-0.18245517340632667,1.9218592153428685,-0.5485550039384126,1.6473591708654425,3.398630857560593,-1.5657447243650824,-1.8975552498762909,1.5725643726509873,-0.7654860648829851,-2.0381442212777074,3.0017431539564818,0.5650960159990977,-3.236442394162353,2.0238080008762839,-3.064487229802589,-3.606896237857069,1.5472424656955335,-0.06826617647430489,-1.6316920405785849,-0.28242472058184889,1.7929728195845867,0.21001321264130547,1.4662892409300153,0.8654016272587182,3.2717468716784605,-2.4003406169752798,-3.653554919938059,-3.6041323623291108,-1.9694891641998416,2.799776110538125,-0.6280140128554772,-0.3265883542862307,-3.832083374841977,-2.5530822623506195,1.500344326961125,-3.2314150489063966,3.98790714669372,1.4400678528929998,-2.8258580552254957,0.4416328111837782,-1.076742619035775,3.6882690923175707,-2.680783205164384,1.2144814842717047,-1.7256893168105896,-2.202464293541576,-1.0310154059954544,-0.45000122997063288,2.7971917356441127,-2.3001952009835566,2.0638698542964768,-1.3154688646104012,-2.266633967180123,2.9735068639162565,-0.36478289894048379,-2.503745501995674,-0.634923188995389,3.5432917497254214,2.1718736927127626,-2.7841743815175485,3.448199902700714,-1.0733420748974219,3.40526521868156,0.4393754499969411,-0.12723728073290298,2.331561662457222,2.721226313987656,-3.933325630023379,-1.2322224666527202,0.7837350509217078,1.3871977851650633,-0.6370047713302345,-1.5641797534364608,0.22508927857185768,2.398241782125444,-0.113071315174059,-0.319843101948285,-0.1710714261456323,-0.6167602556518288,1.7057284184915292,-0.42288128347674638,-2.216557373133181,3.338271248675521,2.802875539184221,3.37854979013009,0.04443811765096317,-1.2059151257939365,-1.155382437121319,-0.6401988166968922,-3.2830425165642227,-1.7944903058449314,-3.2984051628279209,1.2927854561836494,-0.35739318294226388,3.932147421702723,-3.8938609308614247,-1.4703484717683766,-2.356129137251183,-2.475863637789697,-1.5600468804782884,-0.490353701855639,1.5307916055673472,-3.778652919805311,-1.3380369220696596,1.9959721148380752,1.4381459626698155,-3.0318532594486058,-2.160128426957108,2.0120653021969225,-3.781925458555402,-3.796308374852978,0.46306627522444279,-0.1419318788171946,-0.28523914473228909,1.3972595281571723,1.846300224545705,3.5659520747358837,2.467885175785617,-0.2499357356030476,-0.5484174088652358,-2.1554205490301614,-2.8985387832878848,0.24025154250492876,-0.9028061778725347,-0.7078960693033773,2.9289480105901246,1.0846309644939148,-0.19798500950274956,0.842185421838626,-0.8427046549675235,-2.912317178091251,-1.979977786694114,-3.6745383243252647,-3.398051494461975,-2.043601616757927,0.27565572200304447,2.6745771538954559,-3.3856177341676396,-0.36732938584032329,0.15411551128620538,-1.8667946565999297,-3.5661488606876148,-0.9298432094676203,-2.2087989245909904,1.3842224263491892,0.09766475570957489,0.6631968503343382,-3.9858923508086327,-2.9900302536354594,0.036678165236419427,-1.4134093791602434,-3.6653763171077839,-0.27126438131651389,-1.4405777938374114,-2.8706732430127417,1.5163873680588376,2.937327132561083,-1.3440156112469473,-1.620840458410961,2.160875522042603,-0.3785368768844348,3.268877792333491,-0.4009467505675124,2.5176625247842718,-0.9929039385481797,-1.1242852283621153,-1.608209462443381,1.6734208957613408,-1.783155244537821,-2.471590988911087,3.4809906454078689,3.0791922299910539,-3.0134871103623634,0.19874405812101249,0.9528992133147929,2.0681676121533636,-0.35964985898239468,-2.0973368584840266,-1.658516363215352,0.03537062434275118,-1.6163955393756844,-0.07521496588517685,-2.1283466324733935,2.104795863609872,1.0815978840065724,0.5139506042610824,1.8883264485241834,-0.6612674331759862,2.3217091818136694,-3.9741525858084669,0.0236193591509668,1.1779049003804785,-3.7954962298065126,-1.7399679636209725,-2.2329766912592676,2.2936993877573546,0.06109636881173319,-1.2466546054910817,3.0135135979510299,-3.4287535675575375,0.5972819493581172,1.1649858820585176,-0.4088237041291185,-1.2235449127599092,-3.5486075222274717,-1.6161218342299664,-1.1429222100594219,0.6369163255221846,2.834513946335706,-2.5812972796399915,-0.6585596782973899,1.1272928885786718,-2.089663387420985,-2.254787783260248,1.2314679091449295,3.551877306616797,-0.6637790886057644,1.5632762884822054,3.2836909170266308,-2.257494568786144,-2.446896703592106,1.8200062812711205,0.6024636736238982,1.2476477143456198,-3.7774455766879386,0.5903142999428104,1.120433161768796,-1.0728323607362294,-0.7985575713246247,-1.5227460457501303,3.833579480104971,-0.6910123155529122,-1.8101091820321785,0.3679638476107927,-2.651955330224286,-3.329837781364736,-0.9246356354316492,2.017013380687372,-0.9086232671477565,1.6877020736280413,-1.8433235391429166,1.0225901456677687,2.9610039880469989,-2.4169590117890236,0.10499441073328608,0.9453978352911427,3.7094282614114126,1.4242270120528665,-0.9789369248843025,0.7279207164652002,2.938672592009768,-2.6320414168490835,-1.1640654878122324,-1.943730206677679,3.0314836925823469,-2.2621381291246047,-3.911976291673561,-1.8069493744313777,1.6144920259159399,-0.12348893727024923,0.4754511593008015,-1.1878035178851099,1.0245353157582038,-1.1509015050366094,-0.29688046856850316,1.9994829835472974,1.9968291716952172,2.178979224436869,0.9369027866096626,-1.4489217591242978,0.3375779647052859,2.925212534047798,-1.00449849137717,-3.9483506269910375,-0.15174267288293653,2.6267600385890388,0.18641008066189714,-2.8054523939693265,-3.3539579564088486,2.3796612547992108,-1.7783276112565352,-3.035715510425817,0.7509718927780567,-1.304409791226657,-2.2643450517815957,0.6927761902804308,3.5303640341803117,3.6821645044052335,-1.0666129340060342,2.4846474549559298,-1.4351325587675313,0.9360408503006257,-1.4032572174009897,-3.1867928716849507,-0.17595307658351468,2.4799369788962997,3.1396725178759885,-1.3784826114923677,-2.638632284940722,3.45460003383353,-0.6654843594214344,-0.31109340174046787,1.2818401128832609,-0.6786059310689512,-1.6987932953609369,3.7496513496684908,-1.9334149588347372,-0.8240973440443702,-0.37936650012623099,-2.476304930844889,1.121887304239353,0.874571181186754,-2.65174445291517,-2.302120350371295,1.4921767262856669,-3.409736938643203,-2.557717555837945,-2.048187119915931,1.9904051160459897,3.8973349061738586,-0.5667116919514212,-0.5197779107088065,-1.9264392643204008,0.35957001662796275,1.1468219782870489,3.438765264749498,-1.3843250552024067,-3.368154785969976,-2.959279519676709,0.16702346185725859,1.320571240115897,3.43322292460999,-2.698960440078232,2.955604012537579,-3.006274755920977,0.6180762625053609,-3.228930234273843,1.8758547605385366,0.8633246929861427,-0.15280841544483615,0.9681559249530984,3.06256826935336,2.3630183161588818,1.6908711759032338,1.8206420331549165,-2.083507891282208,3.0170068429929417,-2.657465939716235,3.4703076571753908,1.3105874896276309,-2.3559935090006327,-3.0117111521623309,0.8466954513265232,0.09716297936183338,-1.210875541257903,0.7399754955988867,-2.41531148676499,-3.391878912901177,-2.7649220303778048,2.1470174325052646,3.30868368628583,-3.326781028645965,-0.5354591270291567,-2.6625289748689395,3.3380923883068487,2.7274740876419587,3.997160301620556,-1.2852794118549563,-0.45723068596069207,-0.24128041575668214,2.840832043563802,1.9873403580525447,1.9090267840030678,-2.5781520011507288,-2.4770753665906239,-0.30517202800935708,1.3230477323088437,-2.4581065082764308,-2.233044045387371,3.2347539592971055,-1.9022108719376716,2.748606881738124,-2.3726760592094147,2.1853883455639835,3.962548355878786,2.2997290983917226,3.0476956831976427,-0.67364334472763,0.07856348304868277,-1.823454430567521,-3.3404991375626507,1.03227389358611,3.2936133792757804,1.7751981027760709,-0.9703713272750376,3.7963493463843758,-3.3848979137346228,-3.046660199184343,-3.0292029171869645,0.5176785223849469,0.7779049433763339,1.7816541085300948,-3.1605703809641128,2.5685802048438477,-0.03987590332836177,-2.8874460534943475,0.49189613658328748,1.1081887194658365,2.239495647608952,-2.6351306989215699,0.019610381662245936,2.578591166889085,-3.4221633757605405,-0.2111441358229682,-1.0304286340385145,2.0735907459978977,3.092884530065472,-3.5647989408479026,-1.7614915425657747,-3.323839276031129,2.1167230904753326,3.7412857602739448,-3.721869702719946,3.302665677941035,-0.19493887264354638,-1.9684280747158907,-0.645391699135242,-3.2482916393355847,-0.7774317353514091,-1.3985063052811174,3.2613187434519377,1.370751710243887,-0.6144419818876605,3.7040121369516747,1.2746882454449713,0.6542056472492286,1.143397693173383,3.674471676331419,0.66342449187563,-3.790718762851407,0.752368451018163,-3.1113956906800155,1.4366433503371044,-2.2233390732242137,-1.3076098317634753,-0.8600096259571224,0.8173668177509956,-3.7227625787858367,-1.2180804073130783,3.558671983950296,-2.801329981251267,2.794995166501499,-0.7301834241741518,-1.6083408528506623,-1.384419767279223,1.874989604533921,-2.6048640399463389,-0.26441729920372128,-3.646905877517579,-3.428691566754387,-2.0510175990987005,-0.8355913221526938,-3.6732625663896716,3.0479666457493428,2.873440801700866,-2.096917333844056,-0.37876761712192588,1.4389843524389044,2.235616920787173,0.6868683147329513,1.441974776202506,-2.7303015000905557,3.0241157592290195,0.8063509568000757,3.2943761694216064,1.5198455746369249,-3.4886248907469774,2.561809924783632,1.5743315414634785,-1.0472294689555122,3.9724779415834909,-2.576294813846893,1.9268326910432548,-1.6386268343498414,0.8895617493135308,2.7176148491283866,-1.3520227637110499,1.698462599236434,1.690923135727802,1.2327313951142314,-3.287486912077278,-0.4747988692890548,-2.9118930107295508,1.567936999806233,-1.0303101024239876,2.992033010151295,-0.9148069614946746,-1.2914386259087232,-0.44464700384775948,-1.5096837219826489,2.1303264296943755,-0.577584052185028,-2.7986711162363635,0.6549484248628783,-0.6453374038338688,-1.4647720220128476,-1.1672905344700644,-1.3174319814207769,-1.2471690020227744,3.8053973191515295,-2.1390620225109506,-2.2639564212341778,3.025403307322282,2.1284798463361787,0.22260224231619309,0.16236478122928767,3.819162282985377,3.195065058902741,2.4562165083600826,0.8799709343702791,3.028203999205095,3.0811052741041786,-3.028038947994313,-3.063179237212391,2.860325079974457,-1.9102112312618945,-0.05642283495326339,-0.4405385792780405,2.0818562074247239,1.502576298210661,0.07616531916474756,1.738122173195145,-2.4790842268550925,0.942750549077858,-0.7257562650845832,1.343911048798896,-0.7977850855713735,1.4655121430251459,1.6397165839041037,-1.6947826378317066,-3.595174873121614,-0.9245366481190163,-3.186962638558768,3.9243627119778194,-3.8221475067092616,0.9494540146599517,-1.2152172335073084,0.06338587406298579,1.9345929521196093,1.650082031492742,3.044572520446237,-0.8412532613628339,-1.6928204241166487,1.631810938427443,1.7856696611078898,-3.7299380489149938,-1.8598414699217172,3.8858999989830496,-3.3978592421454945,1.905978797267764,-1.9086591270027756,2.0209060909901748,3.3096085490523237,-2.4901990475238007,-3.507989077509661,-2.6484416661633825,-1.4071296301854482,-1.6438151478522,0.08597481049218825,-2.0015574353449709,-0.30679475143734949,-3.455526849084217,-0.841335970170219,0.5895392824065642,-0.3609136509101587,3.441147602555132,-0.8321883444633647,1.4658789110487343,1.4694821967447878,1.1944647282217158,0.7243056929436271,-1.0215297477462977,-2.9053433264490859,3.217746813848424,-1.275488188800967,-2.7001095006931346,-1.8651882412754384,-1.1014149987939773,1.9308674868625744,-1.1883972083542623,0.09677498602593104,3.636051072373286,-0.5514171144230282,2.537638690787169,-0.4932364015384876,-2.652347381694991,2.371395171456572,-0.12025966399525934,0.5005722572774669,0.5563966573977446,-2.1047234626898616,0.5955294049145445,1.2543642804984279,-0.40198919122767587,-3.482421496340578,3.770921931037317,1.7158675869636469,-0.5308713828757785,1.0880409845879813,3.5662602989799456,-0.5928669082171059,-2.5388722843074289,1.6844126356777594,1.5623625361105678,-3.6233307927452307,-1.543908568621573,-3.5317322643984028,-1.9843643505442855,0.3611611703736264,0.3256272786424379,-1.047920602068771,-2.609404026146265,3.025382119105908,-2.049780740205385,1.5904579500059022,3.4000923930848749,-3.4111490366427077,-1.8216428873010218,2.7836271159805596,0.6634536486842819,-1.050674773135193,1.5705760101434372,3.412742101414004,3.5487076140979498,1.2005123925171253,1.9738866452776903,2.3315216739412065,-2.064620188479995,-3.5198273405617597,1.603136159907928,0.60516272430384,-1.8155394938123839,-1.433090155167861,3.0730157279660448,1.512002223292881,-3.246827483308463,2.2016984623508755,0.7372166070703603,-2.1258802729122,-2.355695371532507,-3.831199097133358,1.3510216194660814,-2.6379301452451138,-3.4125713860584918,1.370938400561731,3.5364748682509887,1.2907104028711896,2.119281415598887,-1.1937390132423769,-0.11971624197166175,-0.2899578631567137,3.4158223527744786,-1.5645767737689172,-3.221424839765943,-3.0021465582435589,1.3673165210312393,-3.549721762292563,2.6696021074046,1.1911719034890452,1.0485881341152448,-2.493879786599102,2.1805688968354088,-3.9429954821680459,-3.34026782866259,-2.208173091380691,1.8818361032031828,2.4612275775031957,-0.7069576183451363,2.321884187545124,0.5460233862569295,-0.38842027156108385,-0.8077616430737817,-1.5783174906115745,3.0254332149702209,-0.5292739866282412,3.934549157635307,-1.7454663305481544,3.5462281114488167,1.020226846682493,-0.6974018598534786,-0.060227408723353418,-2.938363153470563,-3.288465146816516,-1.1229297740143276,-1.0482437227752118,-1.5801630729579524,-2.618134843508016,-2.3064350543795024,0.8807548529192708,-3.9757252270691207,-0.09148589767865723,-1.1415059263314918,-2.1737407673532029,0.716112449719394,0.014826703568451727,0.37077633940502166,-1.4489045627337945,1.8645599552376196,2.4206341429318956,-0.03796249806119456,-1.6389991280748453,-0.025008329254188279,-1.4391157351068456,0.24142269312066667,-0.3996218390642854,-0.3001016823793474,-1.2028053157887638,-1.7608034872396124,1.189931058726268,-0.9726475879835306,2.243195280905333,2.123393616723636,-2.7399317445467989,-2.66880010945917,-2.9866429145748158,-0.4539170796780445,-1.511635618543352,3.1844812666074988,3.7620577197984756,2.787476657998524,1.4080198379815157,-2.3524568514691275,-1.9435859519828088,-0.8968691898524559,0.8999562828591197,0.24019163475672568,3.3827776710343606,3.5214574666603957,-0.4692731973594144,-2.0945301748362725,1.157125880075406,2.3640668285871149,2.848668603500178,-0.6007283166455169,1.146972790469583,1.498395152141521,1.926761648424729,1.899360807607846,1.7263127164978958,-0.5300750538436896,2.225765785322877,-0.32969116500427578,-2.146205764411958,2.6821180222967264,-0.04775192285826457,0.37293136653175198,3.9058460383432029,2.6042597086962449,3.7195879657039478,3.873181334950562,-1.5276940920887956,2.717674029648692,0.10960771905947997,1.643594594627178,-0.12532125993607558,0.3798508959411109,1.0009871201382934,-1.3282064787940356,-1.3016947667858239,-2.754357378683469,-1.6646206877957453,3.0295810769189019,2.0892142074041004,-2.5677235864294118,1.5707672041112142,-3.319335588510249,1.8539953941304975,3.5372198110691865,0.07216118081124989,3.049723287084599,3.41983618637717,-2.8508695893595137,-2.968836840225313,-3.8699560345216765,1.0161404840704967,3.9658703941685164,-2.1813872800546898,-0.3254411545881233,-2.602127206644737,-1.9323903171291326,-0.9420536727218047,-1.5125702337180905,-0.007450439376441409,-2.9946452584774247,-1.86717140625232,-2.16820458998924,1.3270766387538693,2.6248272345444567,3.7116457098823929,-1.585842336131977,3.974446456169308,-2.1159044933745045,0.34102086666583988,-1.3752654062069852,-1.2076107725329682,1.002032292941962,-1.4576662238082714,-3.478528267939229,0.24618501618109257,2.155100165730545,-2.943131840761537,2.81243558858095,-3.1783639075761886,-2.647470431188623,2.1860046188812349,-0.35525717541761017,-0.27180889555557666,3.9004964542614486,1.4248404268420254,-2.191392303254453,-0.7536528125731978,-2.514191272608821,0.9500157789711334,-1.5369171311696164,-0.6288388152269766,1.0491758700620162,2.950531291862302,-2.7771350173591609,-0.4029093789035161,-0.023651397361436289,3.4441037184768898,-2.0989632072086907,2.4911731956008369,-1.1938068556591349,1.3483558706137844,-2.1834955832318139,2.6676419549969196,-0.21713825484006955,0.33655547965809876,2.087152919267652,-2.1764359650662108,3.082214474292348,1.0905619160799774,1.165684734807387,2.078017627988606,-3.6098660268206705,1.3705847611682423,-0.9432402860397617,-3.6591991430228214,-0.943688829220295,-1.283457612158652,-0.8905126446665621,-1.433690151451695,3.471786545640442,1.932307392576278,-0.3970617533458525,3.973283072125443,3.878884562786788,-1.9011863115244359,3.373378089804688,1.2262356918720024,-0.1390203519927029,-2.3180195323541055,-0.16451714691613263,1.2506235840953073,1.4336382618385955,2.671836689746482,0.4373902850373472,3.16228852683079,0.24931032560709455,-2.1160117528231368,2.051501823792881,-1.176247720880623,-2.2206489762766976,-1.8297696290839463,0.3449851724169548,-1.400310168383449,1.6183895898901426,1.6735333895695748,-2.538044238065164,-0.9596418034069674,-0.5565204875564769,-2.5213158890640745,-2.7412831128799608,-3.7775104103538927,-2.8552621681365686,-1.6432790679021777,0.8702532804555672,-0.4272171437801937,2.4301714936894989,0.6656452362864016,3.186067283597513,2.5301671284942754,1.3233329091195856,-0.11990718956230939,2.8022702172172098,-2.509146360156718,0.7951016946263865,-3.5438448560005968,2.9612184109618537,-2.21178609470953,-0.5419165723675983,1.5359470927667954,3.5465085335836106,-3.642713758345449,2.7622955616952167,-3.0675705597240618,3.691993502138386,1.7619154830838593,0.8499591371050999,-1.9888282091417898,-1.8097586977885352,2.848800589230523,1.8749714999754668,-1.477764139446123,3.225257214873242,-0.5661354761337536,3.1197378286640538,2.2655721442432306,-0.9513910613470156,1.8328017155433,0.9276781783918375,-3.074254891305099,-0.482356233809645,-3.2222418990252335,0.14459143612416359,-0.37450253588427975,-2.56585956952625,1.1589200946713927,-2.157676986081394,3.5518387142791605,-0.1869424509303208,1.7321615280566665,-2.682346611069586,-0.11554182588270035,-1.3445526538274884,3.0949043042963888,2.767727935635259,-0.5576006292281592,0.28867308162237928,-3.522702613978301,-0.35789796163126477,3.742805599811761,3.8655057518946585,-1.1636776869547996,1.5066413059504767,-2.121518997222715,-3.6598297871614307,0.9377530583706379,-3.0965987759424076,2.440888444838632,-3.3522495386836708,-1.5091250911165977,2.6762144227881476,3.5521736749736778,1.6623409322762104,1.6050476781839116,1.6440088053056448,0.729204265042501,-1.531765834416749,3.395920663709372,0.6561000618801742,-2.557585444207488,-3.9805890527843816,1.3606852011748219,2.5944982577228616,2.198701805031037,-3.185378205455274,-2.187288240355663,1.1523951725925735,0.09795655468731202,0.2391630154570059,-0.9272872574965545,0.7742846946403992,-1.7993220697472872,-0.5168971828174185,-2.257696590077919,2.129235690763692,0.8431399959371762,0.04292540151113666,1.3150370232864335,0.850008591171469,2.409036113584744,3.535279982659284,0.045677564772620197,3.56627380330895,1.510364443437445,1.4824417414751299,1.1001343340192085,1.7481732191327853,2.8410556221909868,0.5253135861706433,2.699086102444265,3.5931284756696986,-1.5940704011543812,-2.4082496341732986,-1.0491213501723636,2.503901445184833,2.105042423413736,-2.0839829075180384,-1.278721204317491,-0.11574742839540853,0.22117339669741299,3.5592646320303125,-2.753938747670171,3.0336853724814185,-1.5752585731092095,1.7836970538516744,-2.223598951121412,-2.8185479681531966,3.9320026980046558,3.512523966505383,-3.088884032751289,3.5345253157911769,-2.1862903187685518,-0.8350281868270242,1.4507287567683252,2.9409517841458614,3.6379875290139855,-0.35600124342274155,3.4882773830900115,-0.15487616262140747,0.51767794641626,-3.9981245268854108,-0.9388489970875666,-3.709755675577603,-3.428286306301059,-3.2985844042579757,-1.8111317139597115,2.2564975846133885,3.077960402434565,0.5893804831029721,2.516817768021947,1.6863419014327157,-2.8216823544151099,2.480255104599178,-1.2350481398763007,1.2056422025866028,1.9991591802195013,2.963064003991117,-1.3807288515107937,-1.525286643256395,1.2496463147606223,0.002443564211873195,-1.9282100691870517,-3.434684988335694,2.8915812624577548,-0.2030471785950334,2.856872947279699,2.5652472696656085,-2.1139472840145618,-2.908478361033106,2.138750802094962,-2.992419273220248,2.6752269360603444,0.6379633126972086,-1.7835396264585946,-1.1837766143215607,1.14658524300396,-2.5795068452741019,-0.4988755972044385,-2.2587872582646435,2.0853862114685279,-1.2899968833863663,-0.13801144166800029,0.3037139944805203,3.4694551179221158,-0.6978661077890855,-3.475574937267881,-2.8469259016787085,1.2951098997001998,-3.2636449646895526,-2.312047145108288,-3.8592986154616808,-3.282480116660139,-2.953045394489857,-2.1835785764130675,3.4853386354715649,-2.0694537672198418,2.084129385512516,-2.746102099614956,-2.638367643625344,3.6106451639930965,-0.8940816364193536,-1.5699374570448049,-3.700261890368706,-1.1872824601681076,-3.80990481943937,-2.8097329730560585,3.0020153468084116,3.8048803819828418,0.05350262455415944,-3.045799034323708,-1.4163056953528353,3.026295537935014,-1.3522955568891622,2.806450613875655,-0.8327581574427467,2.863903779073663,-1.1609958736813704,-2.9946996859152117,-1.7402956814198747,3.673893082976197,-1.206365911319362,0.9605014041148836,0.19425636602889097,-1.284673857438868,1.7257060552141584,-3.9174911954499906,3.895200077177263,-3.661246179368205,3.396191458354921,-2.864949307138682,-0.9305548629075693,2.1814197653817519,-0.7666066061909431,2.271838603827238,-3.924507349720801,-3.8801252746598466,3.7468049330842767,-1.349174301362794,-1.9171814071494813,-2.7480287610449345,3.173600924521355,-2.353023086382378,2.1388958529563277,-1.1337869184304169,-1.6662394178869209,-2.6030755500807558,-0.8950880506922339,0.7645492265981106,3.7632799614162666,3.5617585937653288,-0.1105199951164959,1.4161239023654675,-3.6280514720067416,-2.2860159312222008,2.065156621717601,-3.410874243306198,-1.1316247358896626,3.789557914640839,-3.555339237617189,3.7438889321611619,-0.4656980568566633,0.37059444669693689,-3.8104651347430709,0.4897442833092631,-0.9805324624370486,2.989349919464341,0.9801758521459076,-1.3885286345397843,0.8047048029161292,3.315390293896013,2.3770732268526224,0.9081930692640805,0.719565534985378,2.2747980672003518,1.7041639078181028,-2.3180032286010325,-1.3143007340818025,2.0907199844512185,-3.145255359535261,-1.0053485844231743,-0.8279809559329747,3.3145346502874828,2.3576496419679566,-3.010783765489168,0.30110536993153227,2.5385493623375714,-0.46380634278205426,2.4047893019557655,2.417913617879692,1.9846776579445989,3.0875444936407518,-3.215790621785306,-1.9422531810512125,-3.3633889671114689,0.4135767965920243,-2.4106477935958257,-0.4418723362821082,-0.38132631177346179,-1.9964978979383988,2.081621164864443,-2.010435873592379,2.738989269222193,-1.930110665356998,3.6386325810978858,-3.613733012109707,0.28075335167946227,-1.2654758681221577,2.773333960395809,-3.6088368667313608,-2.954017322926738,-2.0386487703328877,1.334677259968874,-2.877558252443402,-2.916972398985175,1.2584901971654477,-3.916923938885211,3.7902697951374195,-1.7624063512084086,-2.292553938051583,-3.7933583795764136,-3.7405678676253908,-2.8227063514687318,3.8550265092611886,1.4577217014595095,2.7759160746498328,-1.2620143669377149,-1.6902601421981272,3.486750806215219,-0.18038392760777478,-3.736764447384272,0.02490357331749582,1.4336447749139696,3.473964876105919,3.9469263580591926,-2.580035896812964,-1.1161702824542135,-0.8306567103067908,1.3341166242567165,2.0737863285151407,0.7511550408801107,2.0955684865742825,2.200957149802907,1.8238271620228446,3.498397912347487,-1.3698234970971084,-3.5068953244430816,3.3214404513931869,3.423565611100166,-2.486805434830579,3.718819990457477,2.820712031017221,1.5204607336134295,-0.4269800478848449,1.285597550899463,-0.07671467773465324,3.6939983414156307,0.6701028947564387,1.848069177852122,1.5851924958687978,-1.4072706490289802,-3.9063646523820427,2.2998181947241518,1.5120361582291198,-3.8089488553338937,3.174420897341884,-0.5002402465514528,-2.4544338339038846,-1.3817012479800715,-0.2413677550152753,2.0879089846979275,-3.8971304476601276,-2.555624601495822,-3.3173295924780357,-3.315680091888245,1.5884239744115539,3.2089189802294024,1.9511009202418733,-1.0299999476145805,0.5747309496444295,1.7912008363770165,2.9510940955485509,3.3633605037014329,0.7180056198661564,-2.6264440379991136,-3.4955903187845616,0.19228693186880187,0.46743925710295378,1.946156933938795,1.6072324521893649,2.408743198125122,-3.9048679571659159,-0.5484329587210937,-3.305359726219061,-2.7279181973423469,2.1174448099007057,1.206768544387658,-2.173968751986374,2.4368665252050958,0.5419599042457461,-1.2190674183037287,-1.6037699560649417,-2.2948518179967118,-2.129217474443779,-0.7785274867077414,-3.860064912519918,-1.1779196447275847,-3.7981588866297386,-1.093116123668738,-0.7270672886253156,1.7408261104315575,3.9053774569776227,-2.754643548277432,-2.6327178994052256,-2.336460888736493,-1.3862231317430656,3.5859222792423948,2.32825387003939,-2.2568852776626109,-0.43070482579411287,-0.9330709984131518,-1.4231873431700733,-2.0862817034400349,-0.4344462401615008,-3.1963781325129076,0.7776905188649863,3.8837518420811456,2.6912308997896305,0.4219335764230161,0.253179183409145,2.327351932974535,1.9732005424104902,-2.569337290787189,1.6794565603625165,-3.6123016015437425,0.17776442424435147,-3.3553570558681988,0.9976260185897621,0.9557353108813089,0.39834617021931875,-2.602537232311814,-3.6837074300332288,1.9797920709027955,0.39216906036730317,3.143743447355342,0.7986606684042661,2.292069942809709,-0.6240055275790442,2.393210638559828,1.2100734834523675,1.0400043217003266,-3.7256621650017047,2.6681916341071627,-0.9302457937064563,3.8979233614235868,2.6183404251196444,-1.399249376881654,-0.2732215824162294,0.6705404834417301,-3.735183026717359,0.48038295359707386,1.6366550766569948,-2.936955420519679,1.5008416713135376,0.5235874469239272,2.6929489634400127,-0.7734690099158164,-0.04459598814368526,-3.2641258924139686,1.9853438578233194,2.033449455790726,-2.4931627910110727,2.193384721640122,-1.8546215944352147,-0.05728038191513729,0.8916882374984683,0.24075069185693466,-1.1594291013580565,0.3518386946069114,-3.4146958696470657,-1.0328047813554644,-0.9001353423032195,2.5796567075055094,-0.6643401444251202,0.05874348847839439,0.43943110841937207,-3.1556119915958904,2.8517817105264839,3.326572325139179,-1.04273685932268,3.296824191561881,3.115316202464153,-0.8933908679775158,-1.3933101159851605,-1.0209061214232947,2.3908678610517306,-0.06919971993860252,1.3985276831635929,1.62793314663186,-2.2777828705985785,-0.7429657030217545,3.755290802850948,2.29367721337868,1.3320634810700965,2.8283351992660998,2.0853612943631578,1.5792090975591764,1.2993509609691119,2.4777145766604935,-2.8713590671051625,3.042721037517561,3.4530079253430214,-1.8363587686923176,-1.3515232010426178,-1.0459112288338118,2.8423393885957015,-1.3525646200736133,-3.8445355569948589,-2.853942415047947,1.6744437355510007,0.7705335772785888,-3.976637483498923,0.5410075252626951,-2.8596858223015326,1.9636087990965079,-1.6632979014944934,-0.8014525353582105,-0.5032916717566744,1.65982149357903,2.7895606550841665,-1.4400882076263709,1.4930173576703263,-1.4646644198315198,-1.3513080586682494,-2.5636372096439485,1.7275337006326926,-3.545835202602551,3.1418172607545005,-0.39653112018597116,0.11458357419765886,2.6824915693115898,-0.06716120881239451,2.587743752586799,-0.06963613060135843,-3.1000178787548036,-3.3938489086112666,2.5087393471891836,1.6815975058065212,3.228860320696799,-3.782229539249432,-1.190469218447209,-0.35508045943795199,-1.9553678560087607,-2.210493809718873,-1.3351850472952425,-0.3556351947577623,-1.4572842167882934,-1.7737151028160643,-2.2175849354716634,3.2441701752545306,-2.116542836163145,0.9125392049140535,-2.048869228593235,-2.4662523697014198,3.8146776535599917,2.194739349838894,0.04893609990520886,1.563164007841289,3.988423296949817,-2.367319341389626,3.9022664585953219,-2.1143320557512785,2.577269097336602,-1.5054845669581152,-2.8130117271928229,1.1437564773391014,-3.6547670762548298,1.2513647776535884,0.6048643819241342,-0.9850013084971996,-3.015493922036839,-0.06478161957600026,-3.5308662972750177,-1.8178003468133684,-1.5690119081830672,-2.7909719060344537,-3.2459802317618378,-2.500171330932104,-1.1769221347975459,-3.1213734144025055,1.116998453177474,0.8849840973065248,3.4989439713575098,3.4806936961007546,-0.0990810599184686,-3.847620033355681,1.7350886521383604,2.9783777960132644,-3.4500013787813028,-3.094803664000211,-0.40881234367539678,2.473638425670261,2.8309616038376346,-3.6860992692540197,0.9960079812139915,0.044358032204179668,-0.38753532365316958,0.6230236509866884,-0.5872741113983766,-2.3716804846119574,3.004695105263875,0.9872111780018873,1.878618178851613,0.9013998295256123,2.001434961507414,-2.704242329832973,-3.2915584789195444,0.824960067484569,-1.4245515369707549,1.4992824744600287,0.02804463376071986,-2.0557727811239276,3.1764738222655346,-3.3372355857694346,-1.5361887441528895,-0.770987871046245,-1.192118948974656,-0.5054323729477046,-0.7850263766228736,-2.8721920350740115,-2.0565932999071778,-2.748907351714955,-0.7257911628414631,-3.365420986096191,0.14558509877651816,3.1189545857882274,-3.52635347870401,-2.6538920433463044,-1.5528370559677285,-0.7054211002392563,-2.8060196974556437,-0.3002846166229707,1.393801471001967,1.1674604015269532,0.9845657913584818,-0.9595674026557146,2.3615509465117459,2.7364309618762698,-2.4538095614087478,1.9015592057703677,-3.9228644786911159,-1.778202835457873,3.594630134928262,-1.2599423822939802,1.575780988230239,0.5707160239948834,-0.6773029645563442,-3.238119565306903,-2.9105166069844747,3.887986829157323,-0.027843803058764883,1.4169147124962125,-3.1798048925119568,0.1426664649971361,-1.4580693630477093,2.2876328109198038,-3.83391719489412,-0.26287433642698856,-2.366629844984913,-3.5566789839336145,0.016758978762227984,-0.09884686733607695,-3.4290912648266635,0.6700423325508194,0.7828404344505193,0.8519242952561479,-2.3987192958473599,-3.8046901038925338,-2.6398825762838467,-3.8552636836764968,2.9261319379999186,2.4770680668251447,-3.8591650764114595,3.553504111501808,1.6766124398086069,3.7204114682353328,3.016578052232137,-3.206065710037268,3.49022425444418,0.6335379026308159,1.8266407423009837,0.09349676573968147,-0.930005640631264,-1.2809562236032586,-3.997901217622407,-2.2326423174785416,-3.8182358789484605,2.3040418448360224,3.307181229436237,2.297598570866074,0.8368019733291421,0.20807859163660503,3.127346726425963,-0.3913833064015295,3.291343376267581,-1.2503841464829433,0.8824530845064551,-0.920202989587825,1.8575307562632029,2.6772996875831138,3.4740267825549484,-2.708282554248412,-0.9149606320158297,-3.3300149063303197,-2.6268596647772215,2.5905355877050768,-2.753358330955318,3.5629582831516499,-2.0782372872796737,-2.8743653463803584,3.4901845358974654,2.410944920455332,0.6171657163761593,3.7696542062636357,-3.075290756471963,3.351242519603491,0.39938639847474369,-0.5377985027644128,3.316130429461337,-3.6763151714236166,-2.3319349318430504,2.676649402435645,2.876514496748035,0.5388397785893186,1.6284338184275705,3.135492320336315,3.7432185729692026,-1.641172964352795,1.2042445654616856,2.5523184578944466,-0.24831108417230753,-0.4022546646130749,0.8388251946881153,2.6589070802539975,-1.5490617076482663,1.900659766377963,1.751608066791257,-0.8096980107199359,3.8531060315893335,-0.8829185832136284,0.9875632074764988,1.3526286279693692,1.8411833003346195,1.4724119445538034,2.8920161600936815,-0.7317043975970246,-1.5368710347453166,2.238211170065698,3.9966841505519428,-0.25289820960552858,2.512061984300484,3.067879280953842,-3.386552020206434,0.5188463674846098,-3.8556724301438125,-1.1548180206137345,3.3248955591642588,-3.5194001817704398,0.6527094088969152,-3.4872403907268758,1.7189145194451224,1.7251499221456879,-3.9023978228468225,3.6427638716804706,1.2841921512679813,-2.1042106744289859,0.70196926839591,-1.2591685442511276,-2.6861566205225477,0.3692395432795106,0.3808250215657507,2.8974978440962078,-3.9758255252708176,3.1191241411126775,3.275159510009839,-0.2601835578657197,0.8731785389281237,0.10677647555157677,3.3658533501166936,0.5345064459584394,1.8341201768387983,-1.0530621398564522,0.9078116369473213,0.5562668114982312,1.6802979160113694,-3.0673077986954988,-0.07570508360636197,3.9840104116916548,-2.2752737803402036,3.064537294012867,-2.6206352819615059,2.861843072991359,2.751662425973384,0.9791986704484526,-2.6307099600080265,-0.9518895093087698,-2.148479238102005,0.4887252795705166,2.4593627445998988,1.0112109671906913,1.06094960140645,-1.0579634874181759,-0.6763475757148729,3.218862433570143,-3.7379361727230098,-0.565952951938784,-0.8630759846514025,-1.9050851323623706,-1.2225155184858814,3.0699529527674196,3.059540051391032,-3.79924479385311,-0.2973893322306944,-3.6092119585196675,-3.3814653400260195,-0.8581685930272531,3.94032506700965,2.757749951455306,-2.382446759017369,-2.5206368184851577,-2.624697511504799,-2.3749312365995509,2.892958863449044,-0.46150363933331009,-0.4639416346109846,-3.549738057737562,1.8223370371560055,1.1591021720619797,-3.768500948431467,2.147866643549855,3.886013767544629,-0.24497161172281757,2.144985169543949,-3.9157341034653196,-0.005990035054937115,0.14815333098201667,-0.2597762049747958,-3.628825515542469,-2.462382326025425,-3.5202459536559509,3.7298384729199638,3.50633592137532,-0.9608185257608517,3.7348616716278455,1.8613228428168718,3.6428697032170129,-1.9553293696170398,3.6064545682197259,-3.7983394220658477,-0.8087236272938367,-2.9036953984089566,-3.5855816956803236,3.7584470641193317,-2.468936405512867,-3.877701413553165,3.031622100998934,3.700055469852364,-0.5969362999375922,0.5443457343476252,3.1805108682245049,-0.1413631750424693,-1.3961070690824045,0.8621199649189757,-1.9183368964809964,-1.7982529901549447,2.01113062776479,2.2010517365999586,2.326023417384998,1.3667998168624696,-0.8555030730498352,3.6253515379224749,-3.179674378290807,0.37997762758451439,-3.998001662731677,1.6869916640700398,-3.5141915895616435,0.9576217135148841,1.7690635891512657,-3.1499182681786799,-2.3425478858729216,-2.176752207199451,-2.392711076656208,-1.005405251568796,-1.3162752307242105,-3.1316040450507875,0.41744977787592765,-2.808132915806145,-1.6182860167154607,1.1105140539254315,3.845608273292016,-0.2781918872898379,-1.6807076480525965,-0.6417201832356891,-2.983906670367631,1.2173139298071814,-0.7290276856047273,1.583690457602735,-0.04119203449394604,-3.0816206495241849,3.938808287948248,-0.5657086590924312,-1.394989616568301,-2.3233247328710817,-0.2026148179011953,3.8746882131943876,3.516825201964034,-0.5194414888923669,-2.354765784360742,1.9755144460846897,-1.714523963008572,-0.8187927180311532,-0.5955626388434645,-2.5216921072777795,-3.0299115921426624,-2.3031331105526329,-0.20853687129856825,3.1468689880343945,-2.8299596007377438,-3.0702541999317098,-2.6097657308277055,-3.5426764118660234,-2.0004736660320514,-1.7244622453843777,-3.098665928431328,-1.7603075169693965,1.5175219816097752,-1.5046340154374143,3.7671783306055675,-1.7239061542543366,2.462378878005845,-0.3730460477222213,-3.6985083978387465,-0.05832840445560605,0.6049453927964716,-3.5197720595053729,1.9431176272844804,1.0196082382992105,-1.4454401040010119,3.0765253634656615,-0.21393613192366368,2.011906385300791,-2.7734697949907956,3.159078615431665,1.785228444842292,-3.2049973404543197,0.012879247225239255,-2.5826903020096259,-0.055557956950755608,3.17756651929073,0.5642774380393973,0.9488446808743145,-0.5901596225784687,3.4036955292653667,-1.1851105184373454,-2.050555722432181,-1.1899921754877659,-0.15994481806999318,-0.5019594342047731,-0.6603046390098528,0.09529801021829076,-1.0277899785435239,2.4302112821191157,3.4148065330137697,3.211578954343426,-2.7463400790845604,1.0402308207052693,2.8252057203811695,-0.5833972727378018,-0.12504507445503866,-3.772607389295737,-2.4921903772214479,-3.9292070966693668,2.2128355707609508,-0.9800220863157099,1.7618952175450167,-1.6514408740802634,1.4408706828537686,2.9115009032467764,3.9739798292356838,0.46146108146823208,-0.3651205312790049,3.721210902513622,0.9264874925050988,1.7170184027200728,2.873516749374433,2.33319736843871,-0.46178634242863217,2.6965823922192886,2.354716593724879,-1.778367221277212,0.7443463903735719,-2.9671039193718,-3.8120887194255026,-1.6306203304848355,-1.1122184916173695,-0.788109276325696,-1.731206344971042,-1.2448889147470206,-0.42648494362715719,3.4046885615776789,-0.6622892114659005,3.2931599580676647,-1.735244820096568,3.914809491141514,-2.84204246846269,-2.8402041079897826,-1.7739335987296246,2.0855636886427817,0.09151777211540679,2.3521702306052525,-2.9698385201917576,3.0836599438977627,-3.441341857949939,-3.3377789218008839,1.2684024245707316,0.44213714952222818,-1.7143254503364256,-0.523441737312279,-3.7134486752125657,-2.5687710452569636,-1.7782939195002692,1.4850731233968385,-3.1193768359169526,-3.871606365279341,-0.7882260419464089,-3.042627339271897,-0.5079535080773459,-0.23836054897184145,-0.87659899905028,3.4521654452195378,-3.1001238253946674,3.4564631965405896,2.0822459532528718,-2.5367290033213525,0.8222711885240095,3.5867609884892994,-1.6986471823947723,0.8490752871199101,-1.331820103479881,1.636953157100332,1.3521123541284626,3.6833845674102196,-3.806266376209253,-2.321776393314005,-3.6048533187015705,1.050737899303484,1.1652820063262502,-1.3056513675028947,2.0285814544785687,3.888153736217994,-2.9990312446128426,-0.04723509947193172,-3.072785206996601,-1.036787207921706,0.7695121915726215,-0.3875568961178857,3.845466263003587,3.500326208378806,-1.3229640924278714,2.8858411031452935,1.8177011682137199,0.5486986265138638,1.0546952651777729,1.8729736582113726,-1.2929951877400468,2.7319087392636129,0.08420465108580988,3.9767455738115879,-0.9190175265264333,-2.6930545205459195,0.08434309564144904,2.6172042163026676,-3.4838699969293076,-1.30233251647358,-0.15945085764298007,0.2591585104270875,0.7633624915581398,1.107948980205827,1.0322971759183855,-1.0875688744838606,1.9810695629359563,-3.526095428308804,-3.651121246578878,2.7061511266057085,-1.9314336959555616,-3.3104270747810125,-3.0403156170452636,-0.32164992305458486,2.570364647173526,3.5055619508962474,-0.6265545095803271,1.7545797800652823,-0.23773784361942686,-1.3796322082799793,1.287735843502281,3.1414762633943136,3.140302246179461,1.5040095301770525,-3.3356693792852356,-0.17134630751054459,-1.5499178880960827,2.6582542305603624,-2.3893936880358916,-1.256017738047695,-2.848648705893634,-0.08737394852626124,-1.5919556507691724,1.818423784057309,3.6086081696712535,-3.9261136018175426,1.8285154818459582,0.7979836679145675,2.981465030467483,-2.4944449865552889,-0.49860486011453367,0.06670388092219693,2.9451871991374469,1.051635721827699,0.7813436118295725,2.070833608310541,3.8840851354733916,3.682367503912178,2.9822288254772308,-0.3389702952239535,2.2534588039538159,-2.5195575941788519,2.5029233392424707,3.815983818003067,-2.318326822802149,3.857702192329775,1.4194634009634167,-2.1685730987682776,0.6408973364985764,-1.868672740271329,-1.5876262543372522,-3.014998860863164,-2.5455997853581584,2.312648238671251,0.6850458630899121,0.5020778857170365,3.764020873399077,-0.4680567797318247,0.5653767557733742,3.9448739805091055,0.8055944515355389,-0.1404644917955542,3.9296581696260866,0.1963007132053214,2.5006735548154737,-3.3567093658986,2.7975235133115,-2.4613709390640796,2.5682059209604857,3.411617844212264,-1.0350972016277185,3.4113565581519529,-0.24701912024912965,-0.3771930972081936,-1.6436357833295968,0.3918924870909546,1.8084461812049515,-3.6588184740529208,2.8613745809816519,-1.42577133262638,2.4927957866671148,-3.6759436504184199,0.8997065754241289,1.444002500493231,1.936569737879152,1.1215094944133899,0.13024277491177295,3.408476821088952,-2.4727527811575999,-2.302458175110809,3.305003792328895,-1.7753562336294169,-1.0240974952236733,-1.0079837785013977,-0.17118492676996056,3.4852598754083017,-1.4877183475327465,-2.5851606427583837,2.3417745749227736,3.215887663669707,-1.2674446692967419,-3.369657611117443,-1.3981706493324107,2.366341114041451,2.604972093224272,-3.8368352809109798,1.9700643397442708,-2.1285300186825575,-0.06479631040954792,-3.09845692669022,3.1425916239676026,0.9901234788620128,2.065759822852537,-2.363217974531647,-3.828276585205911,1.2427240988264386,1.4803307876646744,0.7498339007016268,1.029611901913488,-2.623500840536982,3.5929396215133169,2.708244989790491,1.3985363896692099,3.953471359533685,3.6052457553620407,-2.7300055453626266,-0.9749134540573152,-1.6335075957596868,-0.7910515180203035,-2.3826994356657167,3.390241823198222,0.1766232131915677,0.09956477410037401,-1.8782124776417549,2.285389796043118,2.112063714464073,3.8875966110821809,0.7736237246334232,-3.531356655089545,2.5471356476543178,2.281180587039593,1.5424882033053136,3.2553960121302785,2.296357521591191,-2.2472493529110597,0.05865768112712466,0.9117501935080021,2.7308760726149918,-2.3050118189099528,-3.9018451511147527,3.096744047625509,-1.2629363849965528,-2.081379241682299,2.9208474310590608,-3.2290653988791435,1.802587643178411,-0.640595532536131,1.0876155130778634,-3.072658145518968,0.12695785466858568,3.0516974877229927,-0.9849399820362752,0.6260535389186357,-3.6452696769754358,-1.5315247719586225,-1.8581744186657384,-0.10101903068905394,-0.8548655239742844,-3.639862414909392,1.1562855246212669,1.8371381140449828,-2.508167699200616,-0.9726979734096022,-3.3713268770186026,-1.1479183246548386,2.1528578717257318,-2.3221028075042424,0.8865356172678744,0.2763550685275664,2.6310149459915257,2.3214091784164898,-0.3281613664003944,-0.6062898200161959,3.6217589970985806,-3.8968849223745947,-1.4196784574094553,-3.7548301560384518,-2.524535616168274,-2.744021029135781,0.11654524024045099,-3.29096824893554,1.3823468164533175,1.3179642148712843,-0.6298248468819609,-0.35687052557699597,-1.2725975198922493,0.7073302867731783,1.8760281186549586,0.6539803056405678,3.8082929436698897,0.42566186684737597,0.9406048398481541,0.9691051534800979,2.7223903980702008,3.0746966602769225,-3.0159453312867967,1.5558061920942912,1.8470751408824278,-2.8093475848060409,1.8418901665366168,-3.6399950983199327,-3.316094864447023,3.153146674599193,1.7832082350680772,-1.390012607724232,3.000943367500831,2.670275178449101,1.200794384073494,-0.28988061868477646,3.2505042460319508,-1.5035612377068306,-3.8747069227652508,-0.37968067427698229,-1.4107838648461755,1.8278678582546784,-2.4638099532158179,2.026002944972853,0.9847249688422615,2.6539078803183306,-1.7277649679046344,1.7423961673177396,-0.7915197765127433,-2.98365218139429,-1.959972918625388,0.32890776635102006,-0.04702417414469706,0.1469573980841874,3.7087707082631837,2.5326519328822538,-0.08623774011769903,-1.7773477023738274,2.98035774317563,-1.6245723843457949,2.902443836868775,2.072215081460958,0.6122909913012604,2.3072169050784225,-2.802425656165344,3.8691005781758278,1.281836412690101,-3.353517119461171,-0.3551142889761634,0.6928435758774691,-1.9005462871571449,3.4256035648049618,-1.7546844973843572,3.732549835299503,-1.3639847858606638,-0.007359250535501793,2.708091636288655,3.258480725875957,-2.6714783423594499,-0.5400085027577548,-3.326291477644846,3.1690329050155174,2.3786905101996558,-1.4060920517857894,1.798834950497703,-0.49971704197380109,2.038664570538187,0.13569713737966894,3.051957414607662,-0.48411929375322507,1.991912038883469,2.390691826861633,-0.015189274178432522,-3.4310049003856779,1.3871072821556432,-0.18396850168434243,-0.3342730383481456,1.124589256335078,-2.9054795214372026,-2.0524889332758136,1.3611993727080095,-3.8676345907290567,3.769930434415577,2.200442640768075,2.7941919676563486,3.9758046551592436,1.6407128833987042,-3.990773383964024,0.9516499557418383,-1.3995247319032558,0.20638936445488555,0.4819166808381601,1.3034416759990695,-1.5783312525691394,1.981013602695655,3.742727176175613,2.6135116879993127,-3.3136482680603915,-3.8066987230837485,3.2923181115843755,-3.301697721992504,1.6232921651710318,2.9611395239367566,-0.832771171190128,2.4713686364744635,1.6178145090531429,-2.420015096586596,1.8760465646217793,-2.262903121371118,1.377363208419653,-2.4064001488524848,-3.9262606359962826,-0.4732178300999246,1.026680539432891,3.7948558974509289,-2.714359831713354,0.4318494090719316,1.8273837780315106,-0.6471592929948482,-2.780227549748883,1.0557171327882938,3.4274932537647189,0.30761316217959147,-1.086302873342934,2.1548912844662198,1.1044653431681662,2.48521141891118,2.8889620700308207,-3.337067892721155,-3.9008420977926514,2.0116068006079974,3.6765969889798217,-3.5149732308361116,-2.2594399636319295,2.7328727210071115,3.320608784655348,-1.0731240501460707,-1.3900631747291064,-0.3629068929930972,-1.226643490110254,-0.41622185220314536,1.155015948151073,3.225188237433791,-2.2937489994350859,2.074119882741538,0.29530708863006618,2.328668622966525,3.474700761243068,0.9782001204524828,2.428886068233113,2.5898674189889929,-0.3198318281251016,-2.8259145738610496,1.8452089001420316,-1.915606654900923,3.9673144543822405,-0.7753635100698793,-1.7423890219955203,-0.2397603910347792,0.5875518021419284,0.35362131443427016,-1.5786950944961509,-0.7440996845357253,-0.5700687550895829,-1.7355978797529995,3.0784341805326846,0.5788935652319038,-1.8931045905911946,-1.469310588262214,1.1476832970665028,3.2247586662611855,0.8416241674675957,1.7347818764088077,-1.783690213000311,-0.30191019248582387,-1.80549963674963,-2.930664422881259,3.5177289498291799,-3.6158163974044896,-0.27509069722351656,3.0073112983974008,1.5049056802232679,2.3545876327264434,-1.4709771258937,1.476553236195441,0.3699864108818707,-2.3077307149500116,2.365792041194382,-3.326641376487826,-3.394086941654593,-1.4707591884028118,2.3688308492062086,-2.8657851614458735,1.5640508424453073,-2.4160858760425425,0.3974451465654205,1.0895474311512157,1.3901869036660389,-1.9340870152048258,3.6906606400305668,1.4377779891769063,2.866432447372892,0.35892910817145209,2.9966254759179939,-2.6653625496243888,1.3314559213642286,2.5387033858531096,-2.311412633726494,-2.2615817495040364,-3.6698263293906656,3.2973408768199068,-3.015362827629189,-1.160592456195504,2.1295158713923216,0.6510217993192571,2.6458862189166938,-3.493437807896565,-0.4169902796935412,3.485747607896995,2.1331945942308234,0.7331868935998545,-2.1066403474767059,-1.4172620995024426,0.8000094353498524,-0.2846040201598472,3.1360475158677838,-2.83552298011746,2.1376782679255017,-3.219129959808731,-1.7608072980904047,-1.9999866990725937,-1.327524249554231,3.7486493211074656,2.0924777530895035,1.5173433847851854,-1.3198679177063593,-3.2777319628674066,3.9924983067260255,3.18062110667921,-3.746555422409724,1.507704310500591,-2.0167386810243865,-0.3391075641559924,-3.7097446392287365,0.9526956105235609,-2.423860882705597,0.6054934995370953,0.1293961902286096,-0.13632262003003427,-3.829084425361395,-0.7858443722992918,-0.9263897345193088,3.9686939655207835,1.004657216857857,1.7453076843485187,-2.1165273357801688,-2.0790129089342814,0.9962219400488195,0.6723477756103824,1.4087315973416575,-3.963426738986704,-2.4151098768590817,2.703164590644813,1.1197928374490154,-1.4384485613736749,0.9126799370824665,0.9904528185014163,2.553376505265474,1.6660178525476015,-3.4077105490826655,-0.22726203137354163,2.652142143857847,0.7386671226202424,1.9601111566527819,3.0123312010148828,-3.9753530461862818,1.6236062841184627,-0.02408787651934019,3.893221907319072,-2.876223733768774,1.2152258837016055,-2.980873775094439,-3.6983995123139667,2.0261542941960819,1.6257758527508513,1.0812652242283552,2.962605657964077,-2.1007801592372665,-3.4884930090244889,0.20145455113090805,0.35621938219853446,1.498277634215909,2.0913378604176806,-3.3993192396916287,-1.6533998069644849,3.3243861761435644,3.588210094965495,-2.109123381671073,2.3144371298695889,-3.4813515581916167,3.4792233768897704,1.0203241007216315,0.0669039020593285,3.5794952422313974,0.395738474802231,3.043350812891992,1.1182325333894428,-2.1988449672807919,-1.2015899349350017,1.2272654559171548,2.0003215530748745,3.980355809237924,-0.31973651643842007,-0.8521100742330565,2.2130962695957496,-0.30802619582962068,1.8185488223999125,-3.115534121592111,2.9136044724409206,3.520224144348017,-3.719338703942606,0.1148614343100931,1.4318934618808346,3.3949870405306958,-1.57323226026665,2.0387234407139216,-2.087462230027201,0.8950453351721173,-1.7770969423261285,3.463658885146101,2.1415088496994736,-0.4902517715576382,1.0300513928669429,-2.709249620265463,-3.7543204881438427,-2.5621565392980285,-1.7530718696816695,-3.476239666426089,-1.2647652159544265,3.33265036523777,-0.4327659351260653,2.706007721206868,3.7092298638916745,0.0002666137864899554,-1.7545623399078545,3.0223886658598619,-1.0166517872975723,3.0711258893095136,-2.6965383532707678,3.6398225109661608,-1.6993844310558275,-2.176008582041055,-1.6902513426156796,2.4019659192592117,-2.8117187876426525,-3.501023623668984,1.0412567757306289,-2.997865026930782,-1.327156900489932,-1.5911415555586164,-1.137010978945055,3.9225838205843237,3.147311296393128,0.4806037467524309,0.8457221060424116,2.6219886119866535,-1.5348919744227532,-3.655040199469421,-0.06538933250037338,3.030244229323877,2.7619100834314267,-0.9786886021487489,1.5905342151147926,0.5953723815251379,2.3743494419842436,-0.8527817284004977,1.9198096971021439,3.625930539013348,-2.9233510108577667,-2.919084856885142,-3.629917786282749,3.6955821728779707,-2.6877804257887547,-1.1956553696300175,-2.1520689593145487,0.11026724751611283,3.1353722989527217,0.8152056959318781,2.565784512839522,-3.8737067352288845,-2.8423867076902304,-2.9982164972838749,-1.637828216501312,-3.464953716219356,-1.7282064080706992,2.5973380945092634,-3.319660027266682,-0.25595960439071865,3.922621849252158,-2.9796018402129045,-0.2439922425082448,-1.9588541417629762,0.8137240629598352,3.1639211217850837,-3.7656635500608077,1.8364372337912576,-2.241363419781343,-2.2014461390792174,-1.1616981084929739,-3.178184767306594,-3.8157282118053965,-0.4728900415929429,0.869494730705882,-0.5377298464222979,-0.32471753859405108,-1.4524294049047626,3.4536848234963495,-2.042154371901706,-1.2493649147475479,-0.9117745518543374,-1.4381897145699699,3.5077171441721477,1.7519058566751982,-3.961980309672212,-0.711540621751741,0.6624757426764489,3.4338325855696487,-1.8083918833232267,-1.4754742221573647,-2.0469550685569919,3.1425647560598897,-3.9598443423147966,3.3448339484156257,-1.8902484206045889,-1.6060903750266827,1.6524373569215998,-1.7801219559072763,-3.3220306220994866,-3.4836086513127118,-2.813635987454438,3.7481516053386727,0.280898528564931,-3.162005548819966,2.505282673381955,0.37097283593681409,-2.819352947981855,-3.404556678630489,0.3874284556509817,0.5682328928802418,-2.435506861704452,2.8667815979658535,0.7983441228729937,1.0287448681550755,3.8657293752026424,1.6204622445251209,-2.8841132464720626,-0.38272279847278437,1.5171209610808996,-2.260619509593659,-1.2475345650920107,-2.5221326903296585,-3.126014048475384,3.671203619101699,-3.037856597947629,-0.40314014888893925,-1.5577172906753523,-0.26871297006353758,-1.6974909436496153,-3.034816098210171,2.8139167063768149,-0.3114635124047389,-0.33327210805148335,-1.7176283869134788,2.4909968192183795,0.7051972248882406,2.0976501214398706,-3.051117071307,-0.015728454319340558,1.55386340775292,0.9636373375477438,0.2503681442109169,-2.6835920956486136,-0.19346643513992135,-3.6567350026171905,-0.5241709299472106,-3.1269878819777654,-3.726958306676682,-0.11331373004795409,0.5508186385169847,-1.7639460789765354,2.982718833498782,0.8881972641871236,0.382977302504365,-2.2246839175845247,3.903940904709895,1.6679997264921998,1.8405215375993045,0.16218741438010476,0.22842007376207097,2.841962680977537,-3.8454197774958605,3.3848618960972587,2.192337400068004,1.910511618612449,3.1278210499560936,3.400039513432673,1.7577268700154357,-0.12163281101117996,2.5289127350719236,2.4583863291615275,3.0583657637630088,-0.45632510355209546,3.52323713770405,3.88215266378716,2.847579560037361,-2.446146783067464,-2.1100814804534817,3.9693764032960905,0.5324592109680015,-2.6310903462352677,-2.0537201118786667,2.959989970119854,-1.5045092100609046,3.7012692034933769,2.9165625418215699,3.325887758266206,2.8484245116960755,-1.7803170847898995,0.5330883708271328,-3.8637777687198167,-1.9216425478043116,3.9921587896364976,2.5522214838887304,-0.9048913265228586,-0.4543872066496528,2.067992539394461,-0.6814883870045085,3.002731081531583,-3.1927355683766,-0.7003716453435518,-0.6116307922423767,2.481142326474293,-3.785392736289971,3.0717346833513625,3.9487723842813,2.0527425363748454,-0.4506686977465879,-3.8238312808982615,-0.3202463769029764,-0.7243932008452723,2.232427802063669,2.175316406029655,3.92429656524822,-1.494688318068803,0.9160153343582982,-2.6417636815596454,-1.0422788490156039,2.9286504500084717,0.2950110931984984,-0.9521358748700115,3.86295854899302,3.391476473978221,0.4533829064211954,-2.306705070126819,0.5859923731472456,0.2505436395514664,3.162510960166407,-2.4457103989754858,-0.22260889479256486,1.355501769815655,2.87991099302391,-2.385816971933468,0.7787520118862377,2.499133547690982,0.04505260045799542,-2.1173759840135,-2.45128175718369,-0.2632438622585178,1.4591199334577878,3.2857748875305479,-1.106925533669205,-1.54714605945564,3.3095452391164246,2.991378494852529,-1.0636918220016847,3.2024704131174355,-1.7520150596833853,3.5314905131167926,1.8396700462810154,2.5093402860289215,-1.3059840005299302,-0.8260576389598073,-3.2284181066976656,-1.7724664310333032,-3.2319304157679857,0.8035171878675849,2.5600945599262054,0.4158392236152002,0.1240209739668856,2.0871326198282489,2.950410685380697,2.6765135554768717,-0.35970363446153366,0.022600770160745577,-1.6359265977323423,2.9721898595803957,-0.337913831603448,-1.513761693752224,3.079302391230593,-0.5259122299722501,0.004209103082377652,-1.3717847838103324,-1.4287501864433834,1.9176567101537084,-1.9191830947088778,2.869447051926751,2.153812491973878,-2.375404092421265,-2.1357109217020735,0.00930120168021098,-3.9053130034420757,2.2516596228704568,-0.3778494033920614,-3.641987016045359,0.29267091425975347,-1.8722755517302546,1.7007148895397402,-2.8817574000244177,0.4711981261514131,-3.9660735749832218,0.6871681789915627,-0.3425169463515907,-2.6346374590561014,-3.684382327763915,1.7499568859634245,0.6660500096291111,-0.8367939272758298,1.2021849997693073,-0.37252800087905149,-0.23187687099765753,-1.4076975288986924,1.0359589466363089,1.701721179563294,0.9057017921627315,-2.267414439684252,2.9910036235707615,3.5644320237741926,-2.198582640185186,-2.955882409928085,3.6437482039396418,-1.6520301602120376,1.897349190788698,3.195131536094303,-2.1361847196156704,-0.8748057058235725,3.451776315037117,-1.4702027591734135,-1.981430375900783,-1.5713367082269814,-3.2998284437101477,-3.1337438188542148,-0.34367163107498568,-2.758062093831403,0.7579418026990492,1.080466189151859,-3.163720982387505,-3.221823192085454,2.95758685647722,0.2263955250005747,-2.353743300648768,0.8599244596730413,-1.4626021026821799,-3.169656960621788,2.953780025015476,-0.8816223101454066,-0.8807252778994117,-2.920185757111189,3.154327438407311,2.372757986455748,1.5734737720147587,-2.50884047802872,-0.044908750470677109,0.7811800565703031,2.902783833484814,-0.8613350761062752,3.3723589949716326,3.1352195783980667,3.355030807422973,2.73893783200616,1.0060325317314432,1.560330891738876,-3.3198235799973379,3.8332482690089044,-2.0217119458133085,-0.23915882480464369,3.4602188154108024,1.4145801219998138,-2.1352701110111909,-3.59566004135986,3.3280209240745766,2.1939208582971236,-2.8190797964474756,3.273009635378437,-3.9446434539999579,-2.1928308624941579,3.296780178871268,-2.2128743746668526,0.8253515751036105,1.1457284616488002,-2.637318583419508,0.35328334058096369,3.614629017188956,-3.236826431379707,2.5847869907016118,-1.1727889973807396,1.0051955529137918,-2.1960573050075444,1.4947285704476237,-0.08634318641739802,-3.331864322707899,0.04223411649409847,-3.332794028547367,-0.8117070280405547,2.102175173528588,-0.11684871731936397,-1.0605337619271962,-2.1351240225800804,0.8073292151296929,2.739503606619188,-3.9248160245976608,0.550463119985845,-2.1992918485938235,0.15651615937188535,0.4010525249786392,-3.6230075647717667,-2.3743316021181615,0.9657160402894753,1.1410318250909227,-3.08652643809389,-2.9347409544833669,2.8794514202859569,0.40066407489719949,-2.9555580678626587,-0.4855728445080256,2.567843323091096,-2.0292467433066996,-0.3473249282860289,-0.17297699327116779,-1.764723193952504,3.876514134202914,0.3152385224487242,2.7003991473534114,0.2882189829344579,0.18171260878243079,2.730756882877511,-2.8138612904723434,2.6302951772159259,-1.036563634514797,0.5845609937490526,-2.616877481159878,-2.4541611046681668,-3.9385493182704938,3.9728468688694145,-0.012452398587227132,2.3229354984598569,-3.5844403088001837,-3.512967548511832,-1.859090954600694,-0.3744138604016316,0.9075971840142101,-3.9876595909314416,2.106369148705749,-3.8282143378032389,2.3300132819173724,-0.7056461128030964,-1.1648089993013438,2.2911788958610117,3.4209152447262127,-3.4657186810523816,-0.8627023607735946,2.0669856909548196,1.8680108702533823,-0.4474722648620215,3.2983010257374918,2.8335558106223486,-3.712877711780332,-0.6230838373032714,2.6643770453706958,0.48157973847832027,3.2799477213471937,-3.9991593539022878,-1.9910808768447597,3.2867686893853076,3.0914138740838874,3.0655979137715239,-3.528775682435289,-0.20315876748843565,2.256454552826586,-3.137711444182658,0.6963427134596802,-2.6961955161590804,2.8196105753784668,-2.2716010887245536,1.6619657683055547,-3.913582659803751,-2.362508410398836,0.5643275056654113,3.0411094700457426,-1.342900579732312,-2.8802878337279997,-1.2052797848763036,-1.3003068111518115,3.5623140937705566,-1.3070038485660567,-3.1803277711020936,2.375090240679163,-2.3722894555584679,-1.6987050063212428,-0.967111856621476,-3.543560986827397,0.5595303861434333,2.4005099814266908,-3.419273760712829,-3.996327322315877,0.8297260469014427,0.010418622778922249,-2.172211139350294,2.315729233922305,-3.544662015343083,-0.9619250474246872,-2.501589759767173,0.9242852820809384,-0.9921156094442116,-0.6227351593681634,-1.6975473340646448,2.2959846425317886,-0.5218246533848754,0.20548665908320364,-1.0263084294232672,3.799597500694139,0.4368562470466921,-3.5605111204880055,3.432091313869593,1.3839471313856767,-0.7724737712304395,-3.5751910670356565,2.80143553269971,-0.912644615061577,0.1474016865273322,2.865444940967828,-0.7811993374575368,2.1882578558639684,-0.8373692482557473,-0.15393912618677264,1.106411245810948,3.8165252336915529,1.670593795431519,-0.9032349626962901,-3.540917929967458,-1.5683698426964997,-1.533119228144801,-3.6715855901490137,3.7819530502595954,3.114330906331186,0.6510619651835672,0.8673573903269691,-3.627404478727617,-3.9021994576305767,-1.4725710226635037,0.3184256086272672,2.2143312621919835,3.2076091469986478,0.7152835786561154,0.0881591052151407,2.8179383345940218,3.8125312067121346,2.9376780495292778,-2.7849194502409029,-2.4387026570612697,-0.7867874223545448,1.424384849347005,-1.6387457270090745,-1.742646766789594,1.052976779287059,3.1778793824801747,0.9425652334197583,-1.066949048613532,3.518400566636191,3.5952020000795477,3.6840164263058696,1.334331265169773,-1.68857549785496,-0.462591189482378,-0.8690179668521401,3.015228880311626,-2.8097690896918996,2.267908177241619,-3.3762970349637335,3.4387360943310227,-2.3755337820734239,-0.47862260229156919,1.925014320202604,-2.9241949754541238,-2.7464680856236649,-0.6212370195936066,1.1483911669495238,2.2707250259389575,1.645986908215094,0.28937219827038165,3.4195691161209647,0.7700245957153564,-3.131631732349396,1.237413312605331,-1.8937446647534016,-0.17182164195243233,-3.5946115870091486,-2.5782259496841259,-2.8368996297048154,1.9463951890881584,0.9125667705420382,-1.0555516128711684,-3.5416531918432527,1.4846237870442237,-2.2044247701257415,2.1886002353704949,-2.868351569468973,-0.9018355186921612,3.0245226306771837,3.2389287004594689,2.396614483219734,0.7565534146775033,3.970808951545373,0.933933782368686,1.3535811849305307,-2.7070063242346746,-3.502805326661595,3.6425339057000478,-3.5878259892770236,-0.5893451071229665,-1.8909049486114762,-3.6242245883701926,2.8600265355363998,2.2753843125816166,2.533361590789559,-0.6794823060394304,0.787597251151757,1.5412603831048069,-1.6435071380158382,-3.529793373072782,0.7784271951015533,-3.35987962317786,-2.414792901424887,-0.6154892140854473,0.9227513788971438,-1.7782387276627512,-2.675484602813854,-3.78904665709012,-2.2661635768466477,2.720036801982814,-2.6230807318318867,-0.31968894283172047,-0.8778131814422354,-2.6579236186150405,-0.9337339556113997,2.280625250102628,-3.1723095943711456,1.335071917872014,0.06330052321103708,-1.1101397463333954,2.061816147819764,2.7500116438664286,3.2685510705894664,-2.0250710635743944,3.2657392168208867,-0.3290949467500939,2.0685002065621225,0.14857860829138493,2.699761256750805,-0.3270951766278065,1.4083801236415293,-2.124118675835028,-1.3119523044628532,3.7183307042107396,0.6473528365493868,-0.6840034602566456,3.7817126771821805,1.5614434419660226,-2.6430094139280335,0.7072756482349645,-0.40224179295500575,3.1580915748498779,-0.5029650640673784,3.4502055515629239,-0.6324568983430472,0.740268492131972,2.1088267441871526,0.07373102256379038,-3.945442419286292,-0.03466808875504257,-0.6201747841728003,3.725201927036598,3.8368637626149857,-0.7116359756045727,-1.3102479081277266,1.1705230604914867,1.0850643706071166,-2.5967062388897794,0.6735249190706005,-0.4557216736273675,-0.23449829812968749,-3.9267251881938955,1.1634031876226248,-0.22646262140028895,-0.7374284837472394,2.815021667137393,-0.5389053946238231,-0.9955578872986168,3.061511176398776,2.5002190108843616,-1.8783003409084332,1.735803176063012,0.312872445930398,-2.3597919609062227,0.7979105828422357,-3.247333006223042,-2.826115890818927,2.4007993468985138,-0.8017369185038801,-1.0637438081537827,-3.372109035676864,0.7165780760422447,-2.1983875140424,1.9745440985397407,2.5879694854235479,-3.5333602937830799,3.764554642256879,2.330527120004411,2.930236622260196,1.301000386929946,-3.406938498786765,3.9671357638336888,1.907876210119607,-1.354115554790325,3.9788260127355166,3.629986562160627,-0.7654067091407038,0.26895056482732118,3.691934589617958,3.483098111296963,-2.1059642781254688,-0.9304081679867977,3.703042024649741,3.7776225693286928,-3.4587785874205787,-1.581246526236589,-0.6735615376681592,3.2242510818966698,0.6361006880790443,0.6405099561189482,-1.126623889883083,-2.5661279901952946,1.1436967763011419,3.8072190078709378,-2.208281251003114,2.260792723907321,-3.2148643748215788,0.46750982440641489,-0.1529296716666373,2.05689919894672,1.2981084247626172,-3.3184201022532759,-3.085102314119359,3.7290727849732629,-1.1441222028978997,3.7994924627566526,2.5587202369305546,-2.0222538268333878,0.010749145455839937,3.9510105501169354,0.3535983899832642,2.5055115637258709,-1.788760970007363,-0.6513810480991671,-1.3261043066823009,2.0079599457910994,-1.2272281700305206,1.1964907992812056,1.3010204971593167,2.023831105429207,-0.010557785873750447,0.5975032526973205,-1.4054522286685194,0.14834037948642998,-2.4158202329857358,-0.549408584979201,3.6419745170843766,2.6596067399192178,0.9664818520934384,0.08690977692029112,-2.104023057168246,-3.011848955260202,-1.7713998813334469,-1.2761768736230304,3.6226173882444216,0.45015109055095517,-2.1690168553951167,-0.7453800926509677,0.9184748663782951,3.5307441293498735,1.3619005375196479,-3.707264039517894,3.560676212274341,-0.9066127268626181,0.7229348997858693,1.6007924986841085,-2.581254124464449,1.066248416693674,3.0428428436806325,-1.3286655031809949,-0.17599112763462977,-3.240402006952289,-0.16240336848304105,-2.50261777252609,-0.36658876541203769,1.2271380920639379,2.2772812814569276,-3.270452901914271,1.7299601862954717,1.9916173710626329,1.4007796730146014,-3.86304953193474,3.3276322584566024,1.0682958154825642,-3.4659694988664135,-3.6628373544362056,-1.1641818227722239,-3.9148147729537037,-0.03806061931421034,0.9965797971097095,1.3092134221911529,-2.32349031233817,0.3429717348917727,2.5642589302697997,-3.5695452287573108,-2.0835983769045249,-1.1527246379886123,-0.3554594143414478,0.2868160762321814,1.2421759433401337,-1.0421890568210329,0.2241964204801281,3.0661146434282058,0.6831253098540104,0.932659721083251,0.38225041899768366,-3.675396454856961,0.8930787906127069,-0.40157531400791038,3.616156952494123,-1.5125686934881964,-2.2591316676640167,-0.9672837166084654,0.47515398130758337,-2.761942787141354,-2.736865095522642,1.4885767186242714,0.27978482178631838,1.3576754019955129,-0.17328659396050684,0.8668797424640049,3.8467489885810979,-3.612757387471304,3.3838319910363436,1.9114910191697288,2.940854370270179,3.4794642676997107,0.8493772215195934,1.9047442026198196,2.5311487164636707,1.4005104184303674,0.8621099033943782,-2.0308425553738287,-2.259456535459842,-3.469534155040515,-3.2221746065216587,-1.0440486662701718,-0.10544853531213505,-2.9458044595513046,-3.380484985795567,-2.804612920246419,-1.870601567689505,2.589112236526672,-3.1695835038396016,1.9427810066090015,0.17987631351596446,0.3694876677744938,1.4238302209839776,-0.6763348992572968,0.5190262144646081,-2.6071039556825568,3.3059725087298128,-3.9663792989124309,0.8277600033389669,-0.4971380977922857,0.24533485888712204,2.7280906262962629,3.8306145279182965,-2.843939198537253,-2.711536830669395,-3.9804969388204558,3.9381042972363744,0.3105024313635427,-0.5570929323954947,2.523241384233625,2.4225669513879044,-2.7404923948749335,3.812333901934931,1.7880027026207355,1.9776299439593812,0.22828390440465275,2.618198517587822,3.909362191293593,-1.2725608039399204,1.6357263842354364,2.3200468572075207,2.35363859629131,0.44015521670815796,-3.5066452820151756,-1.4832097213864684,-3.8259632928284956,-2.6939225442497927,3.139451190693542,-1.8506367424838784,0.9375540391262627,-1.485298232891852,-1.1120729836665869,3.2486546999104926,2.4490492588623269,-3.3385465498404427,0.3601095362508744,3.923962931946753,2.942858560201941,-2.7212557574342597,-0.33072421470376148,2.7411105585749144,3.3880675369680155,-3.445273940982262,1.8564879114183582,-0.4447343080202799,0.13092542815213993,-0.0046509356107138359,3.3121852735470975,-2.4536144377494706,-3.2588868657049625,-0.10869054608064688,-1.3334475836191278,3.885832179821393,-2.712366092747205,3.3003708219141005,-2.2880804257779188,-1.7700850777477096,-3.985622876793692,-3.658314645244828,2.691916971994395,1.6180203127769329,-2.8294073059917945,-1.205752037947548,-0.8975480507535272,-3.4535124015482436,0.7546112004010945,3.799346130068831,-1.8828514238775152,-3.614687180220363,3.5695995169845116,3.020277114903676,-1.2433927425646745,-3.379427301055836,-2.5761646287521389,-1.3731908499732138,0.6749764890755063,3.5716138922174318,-3.9398103329255269,0.8360281989615919,0.03267787595478122,2.3300765221720605,-0.005605821808841505,1.0834618500142793,3.078316490465756,-0.9336542367284435,-2.297772835900788,2.82857187606485,0.5624922913092911,-1.1522237581396846,1.0703254266724783,2.6326959475585216,-3.9450711586496398,-0.5512437609561793,3.9585445282023778,3.297492322922958,-1.330932791392874,-1.0740997425421173,-0.709556829701576,1.3390613105564873,3.1668280458137749,3.635625687450294,3.7864600966266357,0.7578195424147616,-2.0401920677006277,-3.690532458708793,-2.306812119166728,1.9946854047878846,2.3525503689525228,-1.291339803905994,-1.9036346202487809,-0.6089179020359679,1.9331972980515274,2.8227170597601356,-1.056593456763778,-2.3018673509615219,-0.8948026218016703,-2.018685139689479,1.0714741855332815,-3.8489177654724688,-3.884673215771061,3.2967997918786935,1.2583876571444366,-3.4854758957946387,-3.5991385224024929,-2.4766292957394526,0.02391447355067733,-3.9660168431932769,3.223756672947765,3.326800020410836,-2.850199901432715,2.738514531967586,-0.208128813062201,2.371017606412493,0.34970875767970535,1.2717751706672403,-0.32701257282613396,-0.6794264198162681,2.2683524256688747,3.482509703015671,1.6300553305388226,-0.9662967150532005,1.5564106735415076,3.5961307475891015,-3.904543310246848,-1.6483770960269107,-0.7901009057661055,2.7473575130773009,1.6393740640904878,1.9765202571097707,1.1484456056552413,1.3414961695399122,-3.0710493295629108,-1.0833772533877558,-3.935049287389109,3.801874591893177,1.4212672987758835,2.2462534147173169,-1.998528956912111,0.412422747631612,0.47057300238757718,-1.758760769436689,-1.3615957041166345,-0.543811659216846,-3.112948985038347,1.5047691644024939,3.8760700633541029,-0.8616531752813232,2.2573527096990917,-0.6212386451270662,3.9942577562301109,-3.0730479266063366,-0.03515842376721978,2.3851526938208966,3.056882164848827,1.591243805305484,0.8519100743081634,-0.35617185864707148,-3.515665999282266,1.3320395300328266,-0.25043497483739776,-1.904087800848904,1.4047961246128758,-3.9198995158644296,-3.7548056818708659,2.069987557382052,-0.6241184604976224,3.384324854048721,2.0652662970308315,-0.8924534548361178,-0.979593779899588,2.9117321666064335,2.965897226688937,-1.6488627933235112,-1.6690560780653883,-2.7257939953675427,-0.6377852327793756,2.552545136122233,-1.2599971031745397,1.9479421600463836,-1.3600028000327074,3.5505002273466434,0.7037743685004179,3.630346720010288,-2.1599475697631416,-2.0938749808731575,-0.11739674954028079,1.981111353755379,-1.4388949248364845,2.7870803368734355,-0.7405585015254912,-2.1249493088705266,0.6823095831705999,1.6246328193831428,-3.5980695125742034,-0.8318194600898652,1.6175522139149577,-3.4594345397608379,-1.9315686149298513,3.2542564908957969,-2.939334143966196,0.8561791264769223,-3.528034256838711,0.4821326424781134,-2.7045830331042479,2.665115540706542,1.221765941959334,3.8902234839980807,3.8058616114209995,-2.028518721452709,-0.6562013943606326,-2.9050236914963216,0.059130845953590419,-2.979477431848884,-3.183846876996242,-0.6382038265670671,0.43022557379800299,3.7690936620852275,2.771613910151477,1.9291898999281685,1.5020756789792414,-2.0621556143499095,-2.6814635667175858,1.3901018643552635,3.8565070350178987,-3.3677383567336696,-2.1849592131705046,3.2206891026030286,0.8725040676799285,-1.764392096414033,3.8600302093017069,0.018155549090723257,-0.5028855792001261,-0.32847566229104588,2.501706544354761,0.757124241970093,0.68307714073232,0.23731098605245028,1.029725406157998,0.45718973850316049,-3.1069584722371017,-2.5702290205984985,3.7840903337448799,0.5745852847379194,1.4120893307580734,-2.8321122944041567,1.7602900399929436,3.174820500579827,2.770737674301203,1.4623356165956949,-1.5929102315254829,-3.9318850165610659,3.3912974865936507,-2.8515025179419828,1.0819144732148632,0.3247093415248967,-1.2544294623698234,0.37348501002555425,-3.8399163954214137,-3.1366703518623986,0.17258322675324057,0.5509179801559752,0.35881149049656449,0.8618365483803103,-3.9331238471926799,-0.3801098590505243,0.6954842854928778,-3.6581813033517056,-0.04945754960705262,2.999254772081949,3.7690371658218257,0.325920867932604,-0.4969053962486738,0.4527622406976244,3.979238598654951,3.0765994144659736,2.8987636963152907,3.0953642664519016,-3.221177183459412,2.7477398807595705,-1.6220234553992799,0.30661258649702197,1.8795206983110076,-2.4065783438410648,0.05121799116129733,-2.062948375290441,-2.44823892462494,2.2190204590246447,-0.01227660471928238,3.860439033289042,-2.8680474670871218,1.2625583323075143,2.708672245642254,-2.7320561366616245,-1.7491791755302702,0.6467902957921803,1.2174111756559647,0.5861548640128991,2.0916959892161666,3.5369305701730475,-3.1659984837093928,-1.3116511465742589,-0.062179807361470777,-0.4358507533346503,3.9670398784088798,3.2584063712861406,0.8178912792079043,2.6051685864172775,2.1625548578878908,1.7600905429601284,-0.41657515021959648,3.5160827646715315,-0.09787221404038049,2.3151223448084066,-0.24999408893781717,3.62014563935704,-3.949080602322727,0.11035923425042604,-1.3466833256319649,-2.5863074754531309,0.833412284975128,1.9928620171709613,0.7457652826797672,-0.08575766849916433,-1.328844615316669,-0.7212010493415644,-2.646158958525424,1.40867132567125,-3.178538139921905,2.834888965582852,0.8556155188099393,-3.6719352317640716,0.9658404761629962,3.4685580695646216,-2.092189458422558,2.47889969809859,1.1013692965755083,-1.688653468352344,0.5031046329850666,-0.32216712919372117,-3.3675914579561638,3.7528951503896676,1.8131583087740344,1.9703298754147066,-1.2001408179156508,0.9525241754114733,-3.8432628911027448,3.6989650296907818,0.27516098894555976,1.89130270660723,2.0746036927779976,0.6091005709581561,-3.3490337728600299,-0.21457068626159149,-0.21508369889982505,2.931903063759589,3.883073040649765,0.4261702459007424,1.2626866118562293,-2.379408283550923,-2.434264182030552,1.794177593474303,-1.7594945602278463,3.597042320133803,2.5431911486688598,-3.552061685561248,-2.9753511851779796,-1.146147815156919,-2.9791920544947194,0.5383883376793843,-2.373480015259556,1.089537424571743,0.8768106321341511,1.9214451158086075,-3.0950026294171888,-2.9764559840664779,1.3347973409872128,0.4623949883305709,2.649012756293242,0.08861734177218495,0.24304215360103943,3.101292727216827,-1.159715091873787,0.5114081669996571,3.081255081977548,-3.9486202296235115,-1.627548477292283,-0.24798104424768198,-1.833098144955449,3.9388806427416798,-3.4921007629571578,3.016849569767185,-3.894507135657549,-2.124711196598059,1.7090582154861425,-3.3416169523534648,-2.3586944806146805,-3.0258955624971568,3.198756111248718,-0.7581045289072692,0.36502902385297988,-1.8748866662928577,3.0425225124517647,-3.8728169317006646,-1.9300293012434758,1.4088052884941745,-0.5788384972866376,-1.9019410762989789,-3.2332226517514996,-0.01392656391488245,1.3729403546263593,-1.0747424441715579,1.2895014797955469,-0.42002532165443698,1.1746190428998729,-3.0827619184912535,-1.095551991145955,-3.8602671719314349,3.3420624185443588,3.3214932193273558,3.1379220429336884,-3.9153465648125067,-0.2352159810860428,-3.9893422536651679,0.925607075241456,-0.4740818720312434,1.6548433615646632,-1.8127262840355246,-3.5821432869904319,0.7203300018131582,3.2587052988862528,2.977421335288976,-3.4482227879898987,-0.816184954755286,-3.121813457054981,2.7873923713388368,-1.1433366809077617,0.34922450215324388,3.5938717910436779,1.092728781601295,-1.7917871053443416,-0.3010421725122354,-3.921937463670127,1.3185067311742876,2.3133347485324036,-3.17945845038121,-3.0531387486777454,-1.5149016871074715,1.4493932138037514,3.125848261534272,0.0011100066539224685,3.086453666073747,-0.8989012294278407,-2.3970053979072478,-3.3479893399431805,0.3028533159765683,-1.8407246432603897,-1.4980454302562072,-0.8768902446530371,1.8306728031423268,0.29596481958768719,-1.2871859663287156,2.7102810162244994,3.995833416515392,-3.8401548690831595,-1.9770584094347348,-1.980020337604616,-0.5257929102621135,1.6479519307536812,2.4472251886755398,-1.725915815913302,-2.426989746043424,0.1580095602462448,0.1105453744298952,-1.0049687273465955,2.0964251216543827,2.5191563032654225,2.0928376445902066,-3.8977438569507596,0.5538770603083112,-1.0848390794583134,0.9408202772982666,3.7834443788966629,1.8350668226062875,-2.3032673432718004,-0.4788997274868174,-0.9643488355194858,-3.2974109109829845,3.635882886236886,-3.075769371958411,-1.5754506338973616,-3.8262305201173145,3.0806094030050277,0.45178132385780325,-2.424159883767266,0.027817846737861808,-1.2313000374179515,1.3197493735794695,2.2333143184503427,-2.529404802032505,3.342787604342104,-0.5598520629294284,0.29969111863114597,1.9181012752456388,2.7277558034429205,1.9500830537515626,2.565793367167749,2.2186142380962554,-3.915327473806463,-2.345252682861478,0.9934304060092956,3.912596083282673,3.1434800402438629,0.9351580612573036,1.9957330105842326,2.7487725125490458,0.9373599617316648,-0.1784093618671676,2.5694468263531746,-2.771675705600252,-1.7966432506243495,1.1467302071381278,-0.12978138189358202,-0.006164880953371643,-0.6267176485548074,2.488262561478531,0.7761786752073441,0.4676427703977435,1.090060534199564,-1.318625395263931,0.9702732061390238,-0.046933120825057409,0.9972907506366973,-0.4422116776523479,1.7289001563601297,-1.4050606577537313,-1.2459404020941403,-1.2696178250300128,-3.0055294930424036,0.10067733235927978,0.09352620726010574,-1.3045689757818744,-0.7591036454061646,-0.691035945874253,3.3163587382931727,1.1148387263240949,-1.9030758347425823,-0.8859035949319234,2.926190017384749,-0.4673133350647749,0.22895282427523079,3.3605813656047367,0.1732081078788319,1.4246244259721666,3.0508245675990057,-3.619469856792917,-1.028757053011521,0.9892270943850745,3.168836085537026,2.8057371470663226,1.1268710420914312,1.1137962422589487,-2.3874674775307369,3.4933166388735179,3.331158917930666,3.6796764113139499,-2.418132546402359,3.53600935224185,-1.2067240319385595,-3.2368706604798787,0.7701517987877624,-0.7413654368175437,-2.938547754524712,2.6136262863072226,2.1937294802030555,-2.0529225014113674,-3.964547179976753,-2.1878594911610316,0.9244498754686283,-0.7709635222110434,2.861685369324306,-1.7442547547961765,1.5394379907984375,-2.3514269340470577,0.4480803118366241,-3.792706677435934,-0.7980080792147677,-3.258126645318759,0.10614061791769025,2.3616223273287364,-2.6601652144913805,-0.9445775544856512,-1.7120995664591235,-2.1337364718207318,3.0007869394144865,1.286817296783343,-3.9714724582414657,0.7365841791332555,0.16445955592302664,1.722592993834125,3.2186438953910248,0.7714701027338284,2.5390472607689835,1.5001850409389324,1.0744930126679729,3.3257843107297235,0.13314181316317787,2.373924803716788,0.9440200248636961,-2.293367878563382,1.0475149892163627,-0.47807194859670068,-3.377119004404957,0.5148033220076229,-0.39917418995980316,1.409094461252673,-0.5814195283930683,0.818808202417804,-3.230747521750379,-1.0036832512175325,-3.909669295206876,-3.133886093775603,-1.408842670770733,-1.297037525348018,-2.7916673918042766,0.45348084834265559,2.640090865773545,3.74337468230714,2.498815855240257,-0.5568871365670882,-3.7567279768343955,2.0786835246273869,0.6578970992037858,-3.904457858816764,3.051331665832227,-2.928292318748996,-2.538963344036322,1.9871306358902033,-1.2891769339329782,-1.4147804296425848,-2.2267212862251659,1.8326333432749325,3.9963872382163476,-3.851535420674786,-3.951416944583899,3.307917367214813,-3.5028394572870296,-0.4130897428647904,-0.24453886287425154,0.7260399409940996,3.9815068942996767,-2.36794173075583,-1.2078020883028596,-3.253821017406059,1.8794252631313065,-1.6153639813429406,3.0091456642152476,-2.1788884456712704,2.412803080867998,3.3995774450751465,-3.3689628753428986,2.2852637706812208,1.5439662787505002,-0.3795087711697107,2.0965597836122216,3.547062143612986,1.7295203586172612,-3.7853244489039357,-2.0669065528764669,1.2345745797559138,0.053272915567434967,-2.7226319986618927,3.532590354253327,2.116961287924866,3.0033741967878608,-3.9281970172543296,3.474460449703807,1.762973784114532,1.4781646615496663,2.3551768313053289,-3.7611613125540739,-2.253797047801715,-2.6726815791841505,-0.0988867716121844,2.381071888320829,2.0740193450828938,-3.599960780829127,-0.17488487303050505,-3.8503448974730958,3.4889988054147489,-3.035012031123843,-1.7966874630592838,2.9166338548650128,3.985267259448115,-3.395067831736365,-0.46297477890382146,3.145306745946648,1.103600342487451,-3.7526152777422228,2.1227411837605665,-1.184866292200775,2.1767120641969619,0.15390816218331694,-2.9452380476393946,-0.7554282002846477,2.661570961127053,2.9606532720750646,3.153801516217225,3.588146496473133,0.37450315182290608,1.3450969950566104,-2.8958872124029195,-1.8722547035495383,0.4602425039604565,3.1536179323934476,1.5482246106058293,-2.530382929128434,2.4184026897498249,0.8771352069777203,0.7982396393881457,-0.9599419711214665,-3.5183917033212745,1.6610577241978258,-0.7574190970175712,-0.5072741613355378,-0.767348173223082,-1.0522512012397874,-0.7586167257732512,-3.3458504438938405,-3.7761144473262746,-0.1448511766335583,-1.3842884101273745,3.9989503925928497,2.890442625485611,2.718231409749321,-0.7304527619865864,-1.6505691239768874,0.40424006283462968,0.2939312063254338,-2.942249094216316,-0.5964940068118769,-3.0626483481021635,2.8175122607254519,-2.7130697463839708,-3.645875243802477,0.934629216155253,-2.2939984267259065,-0.565805370751705,-2.930021843115009,-3.4890404417360374,0.6326299634405688,1.6479228640873718,1.132538556136236,-0.751113922781955,2.4777930467666167,-0.07894399164562227,3.056660262928453,-1.0841495007238125,-2.953950703976094,2.065516925491642,-3.0602667339592974,3.2723341981260107,3.370475258451295,2.1817591327634604,-0.828628313691711,-0.8871601400245561,-2.874201692264081,0.37981596160177136,1.6690656093798948,-2.5963317129562837,-3.5736442506254875,2.882605458520704,-3.441522090646968,3.158763238679424,3.1416240292554136,3.930885906970632,3.8931860954688055,-3.6185337909334649,3.4796471980590057,2.063724272224344,3.214218681888698,-3.0568660779444478,-0.23503696544540965,2.945906680304563,-2.0290245897999155,-2.4303795370724687,0.4401641439392394,0.5876688508940626,-3.7073997443746284,-2.665252162034937,-1.7650140713047334,-2.7930920802675578,2.3038716230521159,-0.6623658846867624,-0.04962473800874978,0.9594117930062298,-1.592532231100126,-3.301152377971756,1.8900384340933752,-2.986476529321127,1.5050462603965969,-3.4303652738238208,-3.235542568471728,0.0391880495071808,1.6467110199750943,3.9851219823188774,-3.1232305209503936,-2.9217209703620794,2.9559846245597436,-1.9550611600279345,-3.0552099867395956,2.63047297735784,-0.6831294348656467,2.7933740280351788,2.4582985476855629,-3.32880197602608,-3.9370433308929959,-3.728924600456507,2.6505258277621408,1.544258846748777,-1.7216164932359944,1.8542659291037112,-0.5451722173761748,2.2866587761846768,1.9585173120253377,-3.8967322680465585,2.0812660859485048,-0.004342107763977587,-3.566661942728115,1.0702613569813285,0.5246681284091617,-0.7736170676918368,-0.645279809638797,-1.1497379160723063,2.637537046470076,-2.4320441371529659,-1.2623116307771694,-0.8262815128365295,1.6051663664232284,1.4199420222837152,2.5069758409152724,3.515680787977372,0.38150545267693128,-2.3432177590176526,3.953772008683333,1.5468358955096715,1.2707106108450166,-0.47443609115455867,2.662720903159622,1.3203559107518146,1.3920814811878222,-2.5019142372701976,0.08925088838083806,-0.010175004683032674,-2.4321364319831089,-2.219347989729055,-2.5319724836416199,-2.8388001992562428,1.9511238342142523,0.8628305637261668,-0.10241842557872971,-0.3522580223403511,2.3699120703844365,1.740546604638209,-0.2642006278888156,2.6694370345582358,2.777489339387035,0.8846165089097537,-0.44905581650629058,2.7372079055109896,-0.5983727264100371,-2.9832664930347878,-3.1858166650729577,3.788053687057258,3.328285651946917,-1.521217634965,3.84024862284394,-1.4078392061209258,2.0384754533095865,0.9430643017739859,3.451138187668011,-2.9215759748793497,3.57784541196028,-1.818468387934699,0.015047803462204357,2.428032095850945,-2.4151713364180358,1.6093271860356673,-0.5421967069668225,-0.020747228052318213,3.9822059777880787,-2.052188357661744,2.3396689299159867,3.677066629805804,3.058555543277908,-3.836043300082552,1.3347197087328607,2.533891545994428,2.9630642990941498,-1.7620595918158005,3.7992713184084234,3.694161100980587,2.970440787318715,0.5412223976275641,-0.17322248704866384,-1.001235017047602,3.3471212096174716,-3.913611195854717,1.3027999324670825,-0.03129947853660098,-0.5468229522013599,1.9667997283211456,3.0312525993413379,-0.524185778410228,0.6385189475311615,3.8443671016860918,1.876033702056989,-1.820297239061352,-0.8335018686062394,-2.142795277101335,3.3943617643189878,0.26090431061507415,-2.7211319341354329,-2.1098145516025328,1.7360337295550635,1.3382454183553954,-1.4832380446451444,-3.6412594699564568,-2.3849200843669937,-3.5788385279566707,-2.7797655155052309,2.2649482596590877,1.4083709016825408,2.1250069896399168,0.01155823393551092,-0.0535228526302467,-3.9761284629868944,3.511448637760105,3.6287144476501869,0.7175127777105059,-3.341318067342784,-0.4822863247628524,-3.5135418735195689,0.07066835088566581,-2.3649303459574488,2.3886948459800028,-2.0420817263939385,3.0195944416931859,3.5036587331616539,2.4811790941915214,1.7713202823685804,0.19482130921739405,-0.6998481481333441,0.07138957625827214,-2.236436375611322,1.6895460657141977,-1.730297020782528,-2.75981373545637,2.3186236425371264,-3.8686529637728839,1.076587172277777,-3.164756637275362,-1.1024047154761106,-3.3967973713990045,-1.3713718388634194,-3.988706914158384,-2.3848076293289468,-0.0976846348819409,-3.1652241199392687,2.884526402067859,-1.9470544130728647,-0.38354840215050625,-0.9655077483586636,-3.428321911238176,-0.6407085902823189,-2.2045748470521406,-1.9786050060703747,-0.7108793853885251,1.3609597686445954,2.999458686480545,-0.17904141931989416,-2.7407673372858669,1.4402237820755977,2.020647273792931,2.1113656010157557,0.3102110218289811,3.3173706706904895,3.9036602113943354,0.6034616788179035,-3.587848584165994,-2.4945746578310636,-0.8157360857344662,2.593639062695053,-1.0210190606820009,-0.5004287261489593,-0.7811200317287348,3.8369510547257485,3.455712491495891,2.04287250963121,1.5407059383215085,2.9722800070169628,1.517692162573252,0.4240418958930192,-0.41709001025739669,3.890170546180281,-0.7068335286956879,2.4898587276561097,-3.682516124925712,-3.7561618622922738,-3.390627328868443,-1.5678902067125374,-3.9108529263989357,1.045101067625085,-0.38062119490588688,-2.3071933844533296,-0.3173874317055523,-2.382292220807389,3.0581221652263057,1.155084702337053,2.3769495945592506,-0.07533158347304592,3.4597535433274038,-1.4513538997304319,-2.934831396358655,-1.9251593567577335,0.20847800760314695,-0.14440202591498697,1.801392592754321,2.919726658581334,-3.5690257577601356,-1.140008603441142,-2.115208614902187,1.8736967576329136,3.9663581323453176,-1.4347277706303923,1.184693969578281,-0.7561396427023206,-1.859067544715165,-0.8525775830778508,-2.8666049962364728,-3.313992762372582,2.091366969001413,1.0920533561701982,-2.352298798827202,2.080454695061806,-1.7025921531571873,1.010849253893535,0.13523627612858037,3.1471362470446024,-1.2901608649664172,-3.3795706287972795,0.05712543580146079,-1.6167645368999804,-1.8272949390511302,3.986707976665758,2.9246799472869684,2.3847744002720274,0.1537772163599085,1.275726638561225,-3.6003635929458808,0.7482451463909756,3.7014498898476528,0.4467507667129498,3.101596313007091,1.8581220012979448,-2.4087178546313945,-3.7854120064670626,-1.6744530634098416,0.36335770240777257,3.54657345966144,-1.04324876629855,0.5693859197966411,2.0798952238506258,3.184614629940813,3.138326259805611,0.07556394492843666,-3.0493357680507344,-2.519948101452158,2.677528925330007,-2.786036761126219,0.5694568338470942,1.0881968180067077,-1.30801670871724,2.297725574953817,-1.6972543856930296,-0.2579827210685206,-3.2797472268484029,0.06131989106183422,3.8977533803708779,-0.5307804726457057,-3.0803056176069818,3.7324694957034429,0.8958113747484386,3.908661642330536,-0.668396363326407,2.6102775180582427,0.4690088432730892,0.08353755204042024,-3.3382648567186274,0.05652665368160825,1.987594700731802,3.7616271246596328,0.5677588248908636,-3.069068662007675,2.6864885257601367,-3.205571676060867,2.1988193368413428,-1.4215723548748896,-0.1879724925369377,-0.7443530919130958,3.745402527628059,2.5643395441504177,3.2342183813581899,2.8100836379702178,-0.3009553394112272,-2.7950805089959669,-2.764268230755577,1.6135497989814676,2.420565228949221,-1.8539222809675685,-3.756541970056386,2.6211880467350534,-3.0497405114611686,-0.9227597993296628,2.869858312923613,1.9131549600201999,0.1236702291482521,-2.2399792115217567,3.5347926920115668,-0.36532750932391347,-3.9339929527576116,0.13067998126939263,-2.71330852935506,3.5562677576105177,-0.5647668199090441,-3.6539859805558114,0.5820470078183249,-0.700259275362086,3.8036663382343596,0.48582897313538089,0.30904521457213809,1.7719129508791483,-2.424152919291025,3.2527206584483805,3.0734764205387608,-0.6130412343851239,3.1894191678875938,-2.588682709560694,-2.817050594212658,3.8221907064503348,-0.14330259803592527,-3.084729729993196,1.3787096280972434,1.967739668846889,3.7490512127038588,2.146394043685688,1.0651197961382276,1.9027932653342239,-2.2021420284154695,0.608641788946767,3.2136359564176777,-0.20997774347482779,1.8647719187902903,3.7159877227636004,-3.255809145717304,-0.5418699882003075,-3.222284847126888,-1.08605647173583,0.7606116597717341,-0.478525815333702,1.3991729840042622,0.6694312125921149,0.46748698278309055,-0.27752026297288148,-3.2637037260250967,-0.027123558042325026,-2.6190420745926525,-0.7223620055652729,-2.0982229555918856,