[[2.231775227747626,-3.6597664556321538,1.1118349622008995,-2.6207066972497685,1.0407891681711768,-4.726852149231336,3.19156732634463,-0.046947165630179647,4.900490077087074,1.0024150946883657,2.650468984856346,0.25690875339288246,-0.7870152291254491,-0.5171139664159075,1.4485879327252747,-0.386929245954871,-0.021681106272366525,2.3849618679919306,-2.7069389329101547,-4.965863649556277,-3.434618535006867,-1.7254085932346266,3.877447657433928,-1.3124243073549993,2.7321391240824166,0.0935151660009792,1.2521533941407024,1.7796292006753037,4.466697088728644,3.53215216148139,-2.682878108344723,-2.2418670002445086,-1.084526558438368,0.978329927824185,-0.3051634979925537,4.2169301217952299,-2.15225529768966,4.360329548509487,4.980257742041648,4.041062951160676,-4.465336137200524,0.6042412511732085,-2.977522177836851,1.2741094406924756,-0.7472070925603882,2.146102849855758,-1.8583723748881754,-3.927578272561515,3.197961902076395,2.697856765326012,-2.2377991685391409,2.545655058245745,-3.5148375476507747,2.015352995085399,-3.350874156942627,-4.677066968248418,-2.811332436175256,-0.321872489224301,3.8215638209089546,2.6408714960298909,-0.1519199734976766,3.045975894362161,-4.721760945562459,-0.8471949125579958,4.960974888052174,4.970012265283252,4.958693593329864,4.592921242244561,-0.8698132237712422,3.704473775296634,1.6919341313291492,3.848547201989538,0.979321419183198,4.975137919127867,-2.485318622848438,4.150959645285896,2.727672015780116,1.7219011708520214,3.5975020617996558,1.203918558111383,-2.3991882154250465,-3.6066566717775556,-3.4342831608831214,-4.31125212058436,-4.289017981208343,-0.4109598484361059,-1.9345629269099219,4.0680571172285,-4.105937758013962,-2.8912650289083698,1.9455885230207173,-3.1906269007309868,0.8351740597924096,3.7425668021218176,-2.9804380137193897,-1.1601185108874846,1.2123133131044082,3.5354075874420447,-1.1086150072312909,-3.5058122158798379,0.558269707830247,4.418976479946082,-3.9050941435769856,2.287228879035462,-2.2941389947352199,-1.3368298580659757,3.3255625110367608,4.782355280089492,-4.8866365897127779,4.490742407751373,-3.8325375877481009,-2.5923604233569206,3.437285189301525,2.2545857691119766,1.8446030067115285,3.1407645553775707,2.3455555799489788,-4.077725464882387,4.83151853371454,-2.9308148503587518,0.24332696957005596,1.1892183566226214,-4.025384793184411,-4.976726070603052,-0.8870237787927255,-2.959462007008511,4.8455394957029729,-1.1139912139906503,0.24191390189308405,0.6596378930892524,-2.685192063933533,-3.3401343248226325,-1.873342518800065,0.4326678527729291,-3.5832619753356544,2.4060581185827099,-0.026318536232487589,-0.2360219181156631,-0.6179089800699678,-2.1333546030526797,4.600012716885567,-1.4290930292063562,-2.6118751852393116,-3.9667046476427436,-3.8954530749818585,2.4403283866940699,-2.7610329798122237,-1.3576649542568074,-3.37050073131914,-1.093992859781208,-2.7055255406375546,1.4469123989058872,-1.3352182635345127,4.802135175358725,-1.2054720723734305,-3.5433065269174426,-1.9813878043620273,0.6098679016621667,2.236492630075807,-0.399319997158603,1.0689734379721872,-1.3846362384871379,-1.891142305998348,3.5713806559709075,-0.48791456509100686,-3.442024973690261,-0.05274194406241817,-2.7083242669769236,-2.839296742087094,-2.57596227479344,2.1497132508024636,3.2531333994765427,3.919990399565622,-3.659711109799789,-2.4785229219421298,3.8957640887225906,0.6454342967866431,2.3830025624522817,4.04022892601526,2.3813874951799915,-4.949763731970455,-4.388796051274305,4.558877997345988,4.088680664705825,-3.436197128444529,-4.289537183449248,-1.0511668076026562,-4.858400112993937,0.8150840603798653,-0.18125890084077546,-1.0042071788881744,1.5494764902279644,-1.5904487900155023,2.6987722870906518,-2.8298894609250926,-2.590491417968442,3.2443394390003759,3.9933669056829546,-1.539886821690213,4.244744915330385,1.6759276462343698,-2.6909950727104796,1.8589264858260935,0.1381933958578907,-0.36899371399230498,2.7992274509892267,-2.053222960112766,-0.6832349113471707,3.093952834415031,0.4360976823019449,4.462969978779732,-1.5723721517939895,2.704981763437625,1.6858084705569168,1.1966856426659492,0.3489160876888988,-3.430324941345228,0.9899059869175,-0.2673053367567042,1.3748538319832636,3.1526701164491137,-0.30517013500892356,1.7275585546253503,0.9173663630180542,-1.3992333953591088,-2.956137828704141,2.2306711059279058,-0.7861391038841581,0.986325677630977,-0.8366709412545119,-2.635266400488172,2.1716366575955527,-3.2050044248543037,0.05455291644031579,2.954221613638383,2.184828255269167,-2.8863748891144178,-4.839613869945072,2.697005192460283,4.2197808248814578,0.7760148175035431,-4.211253878520458,-2.795126568612276,-4.69938371238154,0.9283459284425168,-1.260433926177626,-4.30234987741763,4.275066583271306,-0.2855997830893724,2.342396700199246,-0.08137528685149143,-0.9643391756998652,1.6180176185775588,0.19363832279730709,1.0277629714557302,1.5478734415094556,0.9896898208453822,4.518682631375748,1.961820532667,0.4184937856821769,-1.7906101696515545,0.6635424761189812,-4.994476534842454,-4.072723672496661,1.6853330234225963,-1.6686928469973169,1.9330213652028297,1.335400523821538,0.2460337729162374,-1.8194729446925307,-0.6046315592906244,-2.3234681636014389,-4.523231474613492,-0.5685736088138227,-1.7888210187859444,-4.871808030259794,-1.9050803020446992,-4.307794475933605,3.4639124631437747,4.127449337212791,1.7592017199664554,-1.5444670254103477,-0.23125844548033393,-1.6171579348011758,4.270506828997668,3.3762139380414064,-4.30949563261505,1.5373610039813022,2.2189725828987507,2.054232077815196,3.2481014703000836,0.15585794685480892,-1.5091075693611656,2.785332050231779,-2.044962934781036,3.254616770729779,-4.0399639802329549,-3.432138931238644,2.0269824891693926,-4.4454551099369319,0.6263123996424733,2.2040137784020148,-3.8603031370443086,-2.8511244173274035,2.1428716898160244,-1.4609878518345412,-3.0827198599595806,0.8334687213846852,-4.5245513781471,-3.399802445476361,-3.8743987152680985,-3.94350627771393,4.588689975765638,-3.9803634662742874,4.971668881257781,4.722553286028264,4.683019579509921,-2.1054868625687295,-2.6400440674544516,2.270801145304233,1.7105245320624044,4.7097912474896639,-3.9762802307600508,2.2994945184417778,0.4866864722402555,-0.4466365793023863,0.34415159866407488,2.26622673252346,0.6699663341978246,-2.2328659934239516,3.0053617472646545,-4.024308355047966,4.549038750824403,-1.8575279212364802,-4.406768204061773,-0.7015416142572195,-2.151442956276675,4.686795622504512,-2.604218450893839,-0.27137651534695808,-2.1732668225426234,-4.922314088618364,2.0175551757642307,-0.6511720321564085,-3.8942641296875144,-3.8020229786820094,-2.3256611657323686,3.490800018976522,-4.953155159613628,1.2322263213500309,-4.5721103789885639,0.7935194036503832,-4.548121493816097,1.526096167650277,4.603841875437517,4.698230352580264,-4.960346203395487,-1.3867616752937249,1.894602317261036,-1.4022826045838775,3.7876193900231547,-2.9435536080431059,3.3402597792225316,-1.30262160792562,-4.381503378047016,-3.886452403473204,1.05811788681339,0.6718760019014392,-3.0368652979326216,3.3788824960705265,3.6826878409823484,-3.8259914805109966,-2.959603668662785,4.587848055673106,-3.0494578967739818,-4.77502179872209,-0.7608738714286805,-1.8830673207277629,-3.991099836426786,-3.482693566295392,4.858207577807606,1.6237328476786486,2.0657392311217519,-2.0037072512924705,-2.701866738748792,3.2622399448851988,-1.359033343242926,0.4993919965174154,-3.134244173972716,-1.4718830234705907,1.4463220996610085,2.505663432925954,-3.847903680101879,4.375691729313779,2.7746416071959558,-3.0322565785922697,-0.8942548554288443,0.24237641446519476,-1.9828330855371288,-2.359639680506069,-2.2677485307644629,4.996576427175981,1.2323394490326436,0.4360633484262033,3.9290419103207308,-2.611795994391799,-1.5482842608703185,-3.051536296283438,1.8251068339418196,-2.625212871397913,1.4401278773773863,0.6828824593911183,4.257974148824461,3.791397152267512,4.584628894941108,-2.0194134711283366,-4.459844029979374,-1.7351233421003345,2.822555715343066,-4.90449331911962,0.7102639906348598,-4.57739765730812,3.3504780846091117,3.5313246912446378,3.236549007945351,1.856317313486353,4.034641100845333,-0.8560747745113702,-2.403627046479133,1.0712118424768827,0.957980724774254,-0.9482363669938128,-0.42481529436113699,1.2226976105403234,-1.0566647715568499,-2.853134326810365,-4.5752688608495479,3.1357809153876956,2.427058614159505,1.7565047333635598,-2.091054201089718,-4.398881332108518,-0.8453081556214439,2.6923882614406837,-2.2581736751991148,-3.0723816006919204,-0.8258963590273991,4.940091386592847,-4.587932435174862,3.1518520614119249,-4.6335112889748679,-2.8202785370866296,-1.3984727147609369,0.4081040410515149,-1.8291685408706225,4.248712464540478,-0.014417441557210254,-0.7059794659587206,-1.8262271101833692,4.600571968615066,-3.7951683838576146,1.4689900653101094,-1.0744004367264113,3.529515746737763,-3.825916440066294,1.5617178319593537,0.5042580306252953,-2.6148786031159556,3.1930724617091608,4.985625459488345,-0.8020449027781273,-4.712907605049876,2.1670481800104399,-4.431065183197337,1.388367745180885,2.135557056209679,-1.4132648959839314,-0.751148174112501,1.244264524729278,-4.9433297601782268,-1.8676103713974215,-2.4662649292965579,2.530320949964045,0.11141711821723099,-1.1451704077627059,0.35052625619766966,-4.922298244163972,4.029382116704953,0.771498718154322,-2.9721096082334697,1.4056026987074935,-1.31071912026097,-3.1771659320679226,1.2310590289841948,4.351883838216569,-4.888852573227991,3.4773899992968935,1.4621880722927037,0.5897421319650054,-2.5416416318244137,4.286220909592725,1.2386205314147534,1.840385669391531,-2.7287787542742407,0.9567173888108771,1.9842852312527582,-3.6548622726427117,-4.017383165170669,-4.770541136491571,0.8115577987701332,-3.2094914336865405,-0.817475404777412,-4.561747422865885,2.733282357823792,3.004713010360934,-1.1582961244378716,2.814224948976138,1.4775016126096699,0.8646590024926413,0.17668167859312867,2.953861939211783,-3.3772796383464049,2.410487325600026,3.7975768578744826,-2.983510475629801,1.0263759624521605,-2.957071854490698,-1.4802347641292349,-2.408947411587521,3.9049777155619,-3.3761942125260075,-0.4574746875806053,2.3138910390003124,-0.9435039141704653,0.3666283769700893,2.03887739583611,-1.065843157876327,2.3267382277955965,-2.5271872063557545,0.421412682272698,0.6238474332315089,-1.460496038441347,3.2526636318789534,-2.952944730251079,3.6025841855506988,0.6633909380606076,-4.675106168927606,-4.731840185063847,-0.05957736855741258,-2.6612714630610956,-3.300553043713828,-0.727256053912118,-3.8721940249713677,-1.818581144450305,-2.3648584650339865,2.0519467914306368,0.24927037673251019,1.7130927409648047,-1.5703034777609529,-2.6293226203188615,-4.134031589905707,2.8583492063832578,2.677009484141312,4.7751434732075179,-0.9750367765670456,-4.266741122448694,0.9838502252958854,-3.0465578596071838,-0.4785511093638153,-3.9148547739682959,0.17402052969451543,-2.2925021265180325,0.8156903132733042,-2.1968709538128285,-1.0447227640836597,-0.864540037309951,-2.6983744068995487,-4.910656069950861,0.22045461740835305,-2.251417574224588,1.7033209668712566,3.6744660005577076,-2.296910365723117,-0.418633140356921,-3.8165845665018818,4.790395054450281,0.9048767802032378,2.424068394777798,-1.6498392396186077,-3.104438854195621,2.1988304741210067,4.151215235130763,-1.41091183911322,-2.925113872537274,-3.4846393737292464,1.0284913788114967,-2.9920673557804937,4.640420332155712,-0.12428089231940653,3.3574322285692608,-4.3856962452794179,3.5724098025400456,-0.09066862661128461,-2.0869612643111656,-1.3823170464667083,3.4126962658160009,3.101631285740126,1.5623640611916115,-4.963180874271959,-4.212232865319605,3.8833565945833365,4.730873134056834,-1.9318242326225208,-0.43598319403449539,4.347560510744602,4.915613441541387,-3.2506525666179106,0.1594616991386566,-0.1740551711315903,-1.0346367012742218,-2.6095866959116975,-0.6297674383636762,-1.5750974825150002,3.826468339819691,1.2809967204886943,-4.040259024438939,3.9639231257506188,-1.5917227688603153,1.4652177665344655,-1.6009655689527965,-3.336596784770933,4.354139134148674,-2.416177707897469,-4.814765430244911,-2.202484675772415,2.531228433501413,3.1682213906389937,-0.3862426704059949,-1.1450759989207485,1.545812428195681,2.588912816239329,2.0443970236590305,-2.7991313460163216,-0.3453488959240447,1.0477369075073986,1.730560862647562,-1.758973798281749,-3.424314480575522,-1.5886943620669627,-1.6528022039897939,1.2109734299869937,-4.485361441764866,-2.7931727680043938,0.6343590313686551,-0.06067237056060604,0.6329182646743661,-4.11634692798679,3.6300844017686555,4.687254647713248,0.8902078150205366,0.44925320800090509,-1.4471772025370538,-0.8886195037341094,0.20409051568606974,2.6004879094352058,0.757603447476443,0.7569506861804136,-2.6271908230926579,1.0622566470573505,-3.6864509678429249,-1.9489031442346497,0.43514604296695227,1.6328342427570706,3.9139427205417998,-2.397260257539502,4.159683231745854,2.6508301777576994,-0.5332293256556153,-0.3014648716170454,0.4002975681233689,2.5774956237430777,4.6146578007927829,4.185891604744192,-2.1725266874528765,2.563760397226096,2.123190358671674,-0.6848879878944469,-1.9321367619539834,4.433988416775943,-3.781779511143613,0.5267523324426122,1.5141974460440846,-1.6914594904165646,4.875111170417448,-0.773637680181471,3.807541024272009,0.40728655541242189,-1.1932991114514149,-3.6118186033575858,-2.6938613608729584,3.8433746725054545,0.6604498844142857,-0.772908726745797,-4.202186687140137,-3.6755060257907816,1.1435167285208215,0.9661477926135742,-0.9595548582844167,-2.6078077652490805,0.7768980282587741,-4.832735659185531,-3.64524540403027,2.450118969402629,-1.7981631706232569,-1.5210585205230665,2.7919854411870306,-0.23144438213125574,-4.64119866692577,0.5362087870099082,2.148018334865915,2.898881433415289,-3.9294246353427177,-3.7403133249754716,-3.341981315733971,-2.9307749881316607,-0.31221396934642967,-3.4216699092619438,3.7725770571697345,-1.6132599111834334,2.3041505500443639,-2.0901259415015929,-1.7900276268994242,2.8672907763119399,2.307724979022825,-2.218779581154733,-0.2770981532744732,-4.985121891123459,-1.5415751556047684,-3.1806773509424466,4.271795912823311,-2.218421973376441,-1.0398538602518635,4.2611714073536579,-0.038137894503761596,1.3502980628293547,3.492713611037573,-4.244029277429609,-4.9198953540875849,1.071504741157183,-3.532331366750883,-4.980211681846959,-3.8831179952787915,3.4561385738440366,2.0341240846725769,-2.7826814819892435,-0.3648953204468035,-0.9586651569566933,4.586069436262797,0.17348881883630175,-3.1394641600552175,-1.9434227893669379,-2.834026110604265,-0.43319054338511089,-2.877345619703029,4.690283302029869,2.649764378656644,-3.232360650601168,3.0368118481172035,-4.49176174117129,1.276881338655592,4.358192124214508,-2.886097952929952,3.3300540123663135,1.724179140231186,4.1069658010435419,0.4993603306679626,2.1577109236614495,2.2841632114590206,-0.1902327183117558,4.629578447387617,1.165361786938657,-2.0938081164598478,-2.5219044387217925,-3.7441101116010335],[-4.0548139849919029,-2.674524690880107,-1.0208883231033175,2.096458963181255,4.763481672736635,4.883494392624424,0.09746677328889497,-1.5261198702413915,4.672309239305763,-3.911699294789987,4.257864243843988,2.7547994007631306,2.7105831377226634,4.8193458475628809,-0.9835446634756542,-2.8418850675386988,-0.2557635730300891,0.26482144197050597,-1.5131857170573305,0.7801575119209128,4.501162006566862,-0.39825123844193657,0.29022871441090639,-1.7792333000455594,1.6740375443104539,-4.777159967843305,-1.9163602974210468,0.5834783721758639,0.801513962160759,1.5179114807427708,-4.9907403800542,-4.285523009018759,2.029327319449255,-4.981827397013181,3.1818921729016695,0.29818325148218696,0.21223744366509046,-1.5535120337121502,4.655102824752426,-4.454923325822113,1.5896739151944619,2.456575861425046,-2.3506786865401909,0.9193041910236675,2.8791081916428844,0.3008612807560427,2.279956361852057,-3.845063623228936,-0.05622522533889285,1.5157939470922522,-0.8708464155875939,3.5241527433146735,-3.3028930470448336,-2.645733827448982,-1.5286226400654819,1.0446649552815437,-1.1059705726287215,-3.222521650917752,-2.727489551317266,-4.08147724548307,-0.3266859634529724,-3.5997653311718937,0.7011413857466655,-3.7728894103467289,-3.633535518584539,4.960045105402228,-0.551737620005035,-3.056054103112384,2.7730167518267549,1.4807292871039904,0.06254446835540684,4.03752302559567,1.754394662929597,0.8196597962810373,-1.256775806029827,3.2638181585732726,-0.38729462289395935,0.9585922315887308,4.278362564107908,-2.533384806898292,1.644673442861083,-4.122605493790694,-4.364267685478362,-4.335453212968843,2.4187130071024649,-1.9296915742852148,-2.175882975884349,0.3963363277344323,-4.782691403480134,2.1629563347317566,1.2913088181345636,1.301792595420319,-3.110356957514991,-4.342634991730891,-3.8920514748580574,-0.7891575330773115,-4.207366236078629,2.879157237992642,-0.10091336863272904,4.773981501621945,-3.2341810388800797,1.535910128736787,2.055101963753316,-3.0229210417384175,-0.036285689739450347,-3.9590299141793237,-2.2966384737547709,-3.3339985199595216,4.988390000032567,-3.367298990062865,0.8717028835140797,-1.3647340628917358,4.236813994031152,-2.2133074159670964,-1.5413688558488437,4.568008746553531,4.491031301691095,-0.20035335628992713,-4.959163018799092,-1.7954629733035877,3.0995527831026417,-2.1151517539790118,2.9658962023824468,-1.5640109093640376,-1.2416893268362035,3.761073640501379,-4.396892643818803,-4.813410909147942],[-3.8159875714909807,2.4630656116688014,1.4232862689424595,-4.635039741265776,-4.665093045375691,-0.16433167217339318,-1.241748826825644,2.683301192305139,-4.994444249988629,-1.5744679734716319,3.296347960904482,1.394590964002406,1.5204751763762703,1.7672688833119912,-4.2044544295127779,-1.2165020172113313,-3.536211514967329,-1.525061892286976,0.5100185556063135,-3.898671695584156,-0.3924665357819892,-3.8738212542396246,2.5094967118576498,-4.914570278283612,4.447772660420142,3.6035986193246396,-3.14853788895356,-2.3458767181620576,-2.7126643576328908,0.2571442903902268,-0.5992786185289054,-1.462538069018995,3.1170932441006906,1.9307388720146544,-1.4994978966943398,-2.409294928275221,-4.930373868339097,0.05387974996649003,2.737519901198249,-0.7700022863971583,-0.14229358268188009,3.0707640475750006,3.1224051056319306,-0.27809925104139979,-3.4763308096953238,1.5227464532856683,-2.81202116076946,1.244120239701367,2.5927395039288294,3.0446285388980529,-2.7522741197462485,0.29984726404260977,-3.809603464391172,-2.8798365458110775,-0.043722028917317249,3.2983325414758739,-1.7401619981836445,-1.551298367607429,-2.0117721947653335,0.6849053958168403,-4.926909472470296,0.9538334108891657,1.9803925676831756,1.6215777997425054,-0.9971113640245903,2.0717042283604139,3.795843464086101,-3.681164589955019,-1.5101227492645837,-0.4118457453138529,4.739911261734921,-4.862641824717571,-3.183754245737076,-1.4867744291145977,4.420519170659386,1.923245399487856,-1.054406133893515,3.074767201968907,-2.0926187218161798,2.9274009525931445,-4.679944899428036,1.8760832185293053,-4.09512206147874,-0.11833275201442106,-3.504936979217879,-2.7458394438067215,4.743429843355857,0.20018312773412728,-3.349024972882053,3.96028870047431,-4.0493205444615019,-1.673101526817252,4.8692455207467699,4.735383275398096,4.846805285687507,-2.4933188990952575,4.471321786063784,0.12718468620698343,-2.1898280733509685,-4.9495156027283528,-2.566154365425297,1.2822405415800287,1.9099724533485694,4.664478806546606,1.3121490704323469,-4.638011291485198,1.38678843903112,2.243101843848125,4.963086858047813,-0.6490127097171339,4.938186427319762,1.759278814073303,-1.1637954633573089,-2.961948892218408,-2.568365483832543,-1.208664640258257,0.19255728883176283,-1.4044747547468453,-3.499562598042923,2.1137315338095155,-3.939260016652458,-0.44050629904307928,-3.9495820313802589,0.24686046195989776,-0.48187872518533006,-4.985566971585815,-1.5988849096246245,3.0179704787828247],[2.337995136082477,-0.06992181021430222,-4.310341252567746,-3.8722868788331494,-2.700509679627179,3.8989073342221376,-3.284238061223256,3.343686395546028,4.578633806902506,-4.668281100127077]]