[-3.242589532276315,3.2077300830425488,-2.7836274577787556,0.8284313433291919,-2.769299334796049,3.657887934591397,3.176059218307718,0.8298151455926561,3.7424568825533637,1.133694088807606,-3.0022803742761088,-2.3029223380731365,-1.243359730056831,0.7257791367291047,1.168488733108135,2.919899011981143,2.2883727588304154,2.0350550735013535,-0.06754156185549842,3.236876718083564,-3.6456270559712768,-3.9183748230107477,-1.8443797455318239,-0.43809369865367389,-2.7971962663681255,1.761991755459091,0.2839201050611946,1.9454632458882282,-2.1140167113814165,-0.5306610169805657,2.1123559012147625,-1.454488055357439,2.6645674021098264,-1.6762907107946746,1.0199139333366319,0.4220678611377515,-2.7537578140560097,-2.187139779158122,0.518100876129866,3.521092226781507,-1.6214959075888489,-3.6324808244262556,-0.7690877851940092,2.2650497509620814,-0.8527776590252021,0.04914809564798883,-1.130389362046981,-1.29751781364258,1.7722598169546009,-3.101797671234581,-3.827263016772136,1.7610832428359507,-0.5840875286106344,-3.990024504280618,-0.01370274873513977,-3.667799389431977,3.2158099026218167,2.6727417193633515,-3.1186117316782528,2.2436775215387669,1.9737367545017959,-0.47020235868392237,2.5815966699012415,-0.2807291224567583,0.024888171631073598,0.6761621363234607,-3.8140790133077679,1.1782343228176507,3.9094015538864195,1.5115221806010367,2.5951965002910866,2.428480016653615,0.31223800466149678,-0.14482424159417918,3.163085116157676,2.7360851117577296,0.7488637902835302,0.2372877300928895,2.6522046638656837,1.5548569625465838,2.2034243795630266,-0.13402816274695596,-3.01125706637154,3.664363071533515,-0.8741253484548537,1.2714464663207928,3.1581470858514297,0.5401981612814604,-1.212757336166607,0.16073878552958477,0.6389666787008173,-0.4782062352511487,2.3870347067379518,-1.6294405110119695,-0.4001473097292454,-0.04504106259959251,-2.9948186833159706,-2.7295442876707129,2.3779650900607658,2.1001899575466087,-3.060215328694192,-3.652441901165142,2.4787992765950257,-0.5061466396888958,-1.6768666845988845,0.8737771349444268,-0.5561481671250723,-3.5588632031907609,0.9570227203478305,-0.13223352197131733,-0.7865566213237418,-3.5148128288292428,-3.7600828716301688,0.14503372737290477,-1.8453548257165465,-1.1950154463953436,-0.5984494391740489,-1.624932147978514,2.6105929681712967,2.7959285697548168,2.0662672813664137,3.1785537706946078,-3.612042172297347,-2.5173326473624639,1.2245585710731826,-0.0011822621512693755,-3.78235343700823,-2.4158888492151746,-0.3469038996960201,-3.017592772184373,-0.4340608883476398,-1.5046405886099843,0.5390950388947209,2.0011728024182737,1.082706089343037,-1.774453459381788,-2.591185634992952,-1.977495498096953,0.5754881641209924,-3.301731895383366,-3.2374652127792684,-0.8301723722467693,1.0767842450703623,0.8562524581093838,-1.6480957430566017,-3.881998579169034,1.182014080403622,2.6037043490051507,0.9171604973460754,-0.6842234483197112,1.8354506237777227,-3.0794929413351737,-3.851316891706853,-2.3092915886753699,3.306392990127544,-2.8924573829406947,1.3724411331726279,0.30029515120382746,-1.0362791087630965,-1.2660234158327926,-3.5217965790626186,0.5787303072843359,-2.8139202808347338,-0.7427091086632842,3.502132406016794,3.332862664371177,-3.499653944014624,1.4740646413097532,1.226838325391057,1.7938792675697722,-1.4128717868025556,-0.4470558825169517,-3.518787686636715,-1.959781584869292,-1.330194474502382,3.957569922178715,-0.5131747686716535,2.561595512751241,-0.7742364505048707,-2.5539915373878676,3.4179643269858657,-1.7830570523050434,2.0935415328539239,-2.818300075631954,0.9997947284580482,-2.8297823778952244,1.3665910368431665,-3.592060666928065,-1.9371508812998553,-3.1452540865938856,1.26194401212853,3.3722730395686826,-1.2254120116260976,2.013562774187517,-2.1522019482229899,1.5973719949049886,-0.943557473023902,-3.164392241439666,-1.7412110077567638,-2.3112686919092955,-2.016601222050375,1.8269158567961493,-0.5318777199460418,0.5231779586852507,3.3244283124559166,-2.321103536236901,1.4464519676890194,2.951960390355943,-0.8882041065459883,-0.4329958997070309,-2.925564990080037,-1.7749480743702809,-0.963045853192863,2.8504163650880756,1.2741040464499696,-3.2237225687871655,-2.6958368026259249,-0.8824121810655576,-1.3377473132053693,3.285496501669118,-3.459031120502618,-1.0346018132859654,2.892169766802949,-1.5701200254185273,-2.2250970495551929,1.2869661128136168,-2.0629281747883647,1.828145186098583,-2.6540300829188938,-2.4999719771823054,3.484107968458302,3.7680474884996517,-1.5485955338526694,1.9922089786922799,0.7643952505686089,-2.7982881554550076,-2.3995843383435995,0.7298716630790585,2.0386607602761348,2.6550596956329697,1.2391127986170592,-3.306355804111943,-1.0378700844521197,-3.6273128720605687,0.21307034026386163,0.7599934148016976,-1.9214923676431755,3.4167623167284359,-1.845887306340237,-0.791843603522361,-0.3633110222384319,-3.116349886984156,3.292768473656891,-1.5692522708856549,-3.623491532139611,-0.4485286321590749,-3.6714984712964124,-0.40846338867905987,-0.009578309547661368,-3.49678051896906,-2.9057493986715716,-2.7120762775723179,-3.959782910988168,2.7649626857447595,-1.448797885780445,-1.5253468424034642,0.23154316528855913,-2.6337696372660366,-3.3165712566825569,-0.038435616059177,-2.3279693934022918,-0.017084886965726299,-1.8369146650143014,2.4078508310307686,-1.5673532599417384,2.210821561491171,3.9206069654716968,-2.885427190035779,-3.422215522971003,-0.7577787508741984,0.3423313077665444,0.2086129042741991,1.2677419868158087,2.549996478919514,-3.88940862480118,-3.1047390710871065,3.8889924634967878,2.6440637375094395,3.725150416270135,0.5492248460927014,2.185133789565014,-0.2280451381580464,-0.054701380857587137,2.1674631370117369,3.326700041732045,-3.3947355664950269,3.489274840431942,3.5019937121051427,1.5928799477155727,3.133822717336484,3.724496035836694,-3.22895243029574,2.109486903820553,3.5194629669562529,2.586649613704618,1.2350858572541679,-2.889549336163605,-1.710648414995986,-2.311159609416353,-3.026506196936766,-0.44022107138327729,-0.1592594368089406,-0.745549170072807,-0.5024319711931122,-0.9414461851675284,-1.8820051665350144,1.1782462687208054,-0.33861866409450327,-2.4783471674698749,-3.3907117827507298,-1.5440380753178822,-1.573411297769734,2.216104292108688,-0.08288753366027479,-0.04847035865988225,-2.587320081008058,-3.0752750348764668,-3.49471223193948,2.2139385694871089,2.1080917439315778,-1.8954785246881727,3.503909748181778,-0.628664508874589,-3.473502182160786,-0.6656930879789835,0.6050324367720563,-3.868488843232564,3.523286317752577,1.0742755311994508,2.850932239511981,-0.14848530549120987,-1.1565424116071055,-3.8038397405838388,0.14293575038544938,3.724865633630169,0.7908363739774957,2.010520472564222,-3.9698304132764745,2.3093529463367146,-0.6680333506220766,-3.9463749411003166,-1.092745091943267,-3.474521488462015,3.0960003173490229,3.756377587225664,-1.0437526761890544,2.6010088612228507,-2.6473906097104189,-3.0498125131117046,-1.4168750050102306,2.8459562177706054,2.8698565902063866,0.2272096482271957,-0.6184069482534476,-2.3088836284417146,-0.5262065132035936,-2.0557470589718029,-3.8704040720237709,-3.7641607769348228,1.5195254215357848,-2.4816464098384,1.200892569521372,1.2825426011875055,2.813611445171021,-2.8301066181300298,-1.7261853208552458,1.888903818149128,-3.000733333030211,-0.010098029165749756,1.3077240014468617,3.843126934002677,-0.4224926758224965,-0.9023288545903299,3.2935743233773335,0.3304563848943598,-1.9728539380653257,-3.664643660335905,-3.9509899284968235,1.1549590340497043,1.8339576611705928,-3.5449093139783365,-1.7740699049252387,-1.0809547919566827,-3.874159968823612,2.645465287942467,3.199359499875909,-3.2620489918784338,-3.5877038502714218,0.5159200409911104,1.0357390589626646,0.1163609839767572,-2.8760725513654394,-0.998615411130723,-3.0116416601709385,1.7213138374623532,-2.4340400042395817,1.5590609154198579,-0.6147900055399094,2.9002245770408674,0.7340869652881752,-0.8680821293323371,0.001740317032898453,0.8710646551964185,1.9593697759524514,3.2415236447087309,3.136024693973189,2.984048428022305,-1.0840206860043614,0.5314443451550837,0.7549258407377186,-3.151802151082596,1.6013011001251059,0.32159327331161249,-0.16807794329504678,3.6032806059944786,-3.0671425097925546,0.9061461768286803,0.9256951438670455,2.135228786480938,-1.3748601624391182,-1.9453104202579379,2.2133468616992246,-2.2138607933559477,-0.8557962107935191,-1.8856597153648132,-3.5823719625749357,3.5849138098608508,2.612814031691401,2.387750372278952,-0.19537304851210636,0.40974746208373338,3.783436909480054,2.043618298468993,3.5957388771205167,3.6236606340999018,-0.8053488933453485,1.9846283003239789,-2.0639394074449468,3.1103890987680247,-0.4227394675596978,3.7784918005959087,1.7294438987356716,-1.318097582937388,-3.071696825446753,1.2876560409832916,-2.0536432367534509,-2.0146614852778077,1.9648893028381683,-1.2169431291851412,1.0517435112400727,3.7187497733760397,3.8850048884193555,3.707181632232328,-2.4318513319046834,0.5491243938452959,2.7828183786052929,0.6462155433447112,-3.458439772334801,3.921417377676212,-1.331355951168675,-0.9659403572135989,0.8221419845154987,-3.7834711342026825,0.26939590430150509,3.773745758152554,-3.948099866391808,0.6127010840494096,-1.685729467026647,-2.9250145998655574,-0.18119256553982567,2.9157101495725969,-3.591229643178461,1.4331499995955213,1.5587012552399769,1.5153624980517365,0.8749216010803167,-1.084774101948508,-2.5948306922889756,0.8971232816654959,0.2763765800790301,-1.8772331111433119,-0.966437548641675,3.0604227951235929,-3.3005465732447378,3.087916493602454,1.8054012221427254,2.648700103171694,2.8041406898515017,-0.8270979774355309,-1.8103991723424154,1.1379309953191968,-3.239102869498847,1.0680840667551462,2.9421798376968004,0.1385043175068077,-3.1868443226889475,1.8390442243390446,-2.9923965594295716,2.23812521624348,0.5531410174915346,-0.14266980786551465,2.5779458542146367,-1.1885985489294593,0.7050463448387605,0.5580866248058793,-0.5372301221099087,-1.7886693961718872,-1.3831341311877259,-1.3929304846833473,2.996009798178984,2.0903679425999366,-0.7926741156499775,1.1569664950548245,0.8764168297507089,1.6247052268248057,2.239546745076603,3.131184250906145,-0.907031096950387,3.4750379419382408,1.7584591805618946,0.029932568957124596,0.9232340309063662,1.0950371559617054,3.3123851407965798,1.8540035195041976,1.9175365389184017,-3.7542298306661117,-3.539871884089221,-2.914045461028304,3.7729744274372649,1.7587052302522333,-2.7194447307956937,3.1895142032938637,1.4667621943748115,3.5606543210866556,-1.3331353551895556,2.4920873261348577,0.7863258315075026,-2.4574507346416558,3.4351676437283604,1.5963645120447386,-3.9916598246844545,3.739323404423846,3.767222178852302,-0.7174477359025646,3.6241645749888287,3.3831616123949246,-0.6342399975666195,-3.0367061290625338,-3.9590059474376728,-3.1983266686987017,3.2163036168862799,2.2436092548744774,-1.3062945421022816,2.5185279641465279,2.771187393669196,2.5979849558652656,-1.4827081997691539,-2.489174054511931,-2.304245318447169,-1.8025935708107513,1.5549093281755067,-3.801121901519414,2.9625355096436296,-2.280854514789323,-1.5505898806608232,0.3099824093334185,0.43464291694507475,-0.5768505371803725,-2.985987946374828,-1.2295024519654474,1.818220254611977,-2.669874407120112,-3.422796235384326,1.878822112145568,3.3349453205175374,-0.9153816389687224,1.240528007985712,-3.8361361755051925,2.76903864984091,-0.384979976590486,1.6707583364436003,2.90960088499609,2.3737468023284808,3.704148869517077,-1.9543935418970345,-0.7153197365035184,2.825621065986203,-1.8728033411953194,-3.3308786308261686,1.3103215087723479,2.888846773962209,1.6027112240985365,-1.0066068936959896,-0.16337382981424043,0.4692167820881732,1.8974155093150814,-0.21951528961919654,-0.00012887410263595633,3.457141826497355,0.3255731579226149,-2.936096914809598,-2.1834382574964854,-3.337008384609123,2.2778067548173217,-0.9526317285872084,2.376631311211204,3.1246520177966436,0.5714380564243724,3.0433474368521225,3.1942403586729686,-2.6045574924352197,-3.233757968621452,2.9036644171586589,1.5072428385401704,3.0459193852904455,1.9364377560184397,3.574997094903045,0.8111519698256453,3.191483603460652,-1.317519353655282,-0.4501296995965882,-0.24987849917862427,0.6666189608301405,3.778591891355558,-2.0225303148243238,3.1161345098613166,-1.6928805249878778,-3.4248690540221107,2.421525527356742,-2.2351342538403546,3.6662357832761049,-0.2185616166169435,-2.715202020537798,-1.7153495791628848,-0.6444494288773326,2.6634432857576506,-1.6063428609078568,-3.7185784601316547,-3.823168251505198,3.707071687115252,1.6306998227062844,3.840631748948506,2.202794364831502,1.1305078101254314,2.017167709478678,0.9843544091164187,1.4922456426647753,2.0246936024600377,3.8595169310780719,3.564710286104929,3.950877347880752,-0.17852102485733013,2.3883271962025907,1.7776416760810774,0.5249147346603955,-0.34057004439697127,-1.1671809333635926,-0.8043650482209797,0.7896975009286438,0.8643993835002402,3.874740606087409,-1.0895044907901979,2.6894645478995837,-0.7763525527626527,3.1600408521074287,-3.48633302117371,-0.13196148105108408,-1.5492745785471558,-3.8672023380355835,-3.01039453501747,1.3709740312194506,1.8574570656005883,1.3014870649859738,-3.128657356891779,-1.647383754267093,-0.6606651596592013,-1.7778539409199797,-2.990933893737542,-2.477848055571462,-2.0753451388329395,-3.3904027576306596,-0.07189536785200179,-2.5623812337193359,3.244482447713226,0.02954033622806662,-3.597228083611844,-0.7528193855753076,3.0518650379763327,-2.2427205058206738,-0.154184926854124,0.6404749590870287,3.4108627811301277,-0.5478895839132887,1.2889142577296396,-3.1129822275558958,-1.6514575054886985,-0.9754784382872861,-2.3597079570407315,-1.6360067936448309,0.5743197656334722,1.8147716816073479,3.189410622811497,1.1557209881271816,3.7418416628376898,-2.187722741372773,-3.562869449477608,-2.0510295639979025,-1.676548592693157,2.526307287345136,0.20282423551125196,0.06339874846186433,-0.9888550743819506,2.4575951495944796,1.2725778471434719,-1.04695386198895,3.4144323940321268,-2.283303588899223,-1.9155374473386838,-1.7012203290860629,-0.08396860631512104,2.0835653380340757,-3.0074256384594317,0.18023584267496596,-0.9632918941174273,-0.4860742878544464,3.23192669603906,-1.7664045374070943,2.44402773795775,3.4995932564588925,-1.9048901496103279,-3.588052024950441,0.7988805700464052,-0.7295789460712996,-2.9147741035204826,3.5656223761338365,2.519274412810348,-3.95669857907263,1.5567918415760583,-3.979956951994085,-3.1006220224970164,-3.4831980746440509,0.8678225429457864,1.014422864519509,1.9362285413156313,-3.0973088746853048,-1.364711627616086,-0.7022548036223297,-1.160249630633759,-2.913873453008536,-2.732079626037864,-2.840500484796853,1.3912713360666365,3.877896491683509,-1.9738306569467688,-2.2712300500930304,-0.666595581448542,-3.5444664575527664,2.70209093023609,0.06229283765988747,1.574094035802057,-0.9242430555873897,-3.5330569837478658,-2.546219667745124,3.5985036057402874,2.0024059229413044,-2.4259875877941505,2.707396529171687,0.1226108144751743,-3.629724404504338,-1.2576918679918963,3.86682275055965,-3.0659513738938974,3.5169485361575978,1.931270218147608,-3.5275894530823326,0.5336521964749279,2.1085016493575026,3.167225074191915,3.6217237847620789,1.7704283450207533,3.7255803152214517,2.032626501408366,-2.404231644477445,3.762219719989944,1.3632389874742419,2.6741869299175224,0.4523248509395916,-1.7387136919018096,2.123966760457977,-2.8295365220631885,-3.568752817939032,3.271427143960457,0.09786206929724362,3.8214279028290214,1.6863945719486005,3.340133019018504,-1.753510282444376,1.8980545032528254,-0.5885416134668906,2.077081135967637,1.6807299172026014,-2.5796894525091149,-0.21510688606887919,3.6562295682376169,1.9650390256419002,2.4746230958264565,0.9156483221323342,-2.8641822246376664,2.0938484264257024,1.4891484817552785,3.040017397671618,2.06241114642443,2.8319633386808604,0.7620187799484715,1.6855659968053134,-3.0733974494308908,2.1328104982164595,1.497302779016671,-2.1099931218942844,-1.0250978157744904,-0.9507948173720437,1.148280612528457,3.162853310322034,3.7666562791195306,-2.7913367423978174,2.620853836975999,-2.8022140162209689,3.330317589609659,2.0481088059584469,1.5830353401748685,3.7026445381668058,-2.297601552596773,1.4943291144675986,-2.9607290421235037,-2.5493897107780567,1.5426535265426669,-1.706144748830952,-1.1118010720865952,1.565104605400208,2.644278921705661,-0.8541598210896444,3.763939221336199,0.2071801910498543,3.7511208724280564,-0.7853916343320007,-3.751027545999274,0.7207148252529319,1.6386660817715884,-0.044778832399862137,2.0703252800839877,3.560086234966051,-3.0440268944542616,3.2269829296331986,-2.73961346519544,3.1272264135609246,-1.6693644635384884,-0.004406547036598596,2.4602129435592126,0.8685237862326973,-0.644414224226521,-0.8359504990943714,3.0621683975337126,1.0927712036978195,-2.97539533656684,-0.04441302018172899,-3.3179322220780005,1.2310925160271805,1.9370111077567405,-1.441861770455425,-1.8134014193438602,1.7766676747800947,-3.766291625440166,3.151993342059561,-1.1160778422612639,0.42134313568424278,-1.8101022624285078,0.07525811437727903,-1.6226592673517646,-3.3260158252223919,1.498743821080323,0.7795546369630646,-0.8652765332120573,-2.1232421211115959,0.5242804936898731,-1.7918485709026356,-0.9330515183642965,-0.18162195840103569,-1.8239579481500366,-2.9089343699551799,1.5594162399450147,-3.479724229000242,3.394059845757008,-0.865937179489835,2.608817789198169,-2.4474316254771919,-1.8592454113283859,-3.9002253974828617,2.348061240325154,1.5041082667756403,-0.41004824788414409,2.212875207585448,0.003185489971056832,-1.3065160929452269,2.7926052004211989,1.4756039584336689,1.7325779821882899,-3.454425850870309,-0.5233984476814142,1.3925809861023107,-2.863388467367775,-0.4534480298409056,3.184365371395521,2.201620366244348,0.9985012822882355,0.17318115814884917,1.047345399805189,0.9595539281876153,0.2846014477074599,-0.8789937750596921,2.5568912805310628,0.8749115900522115,0.6752227035225342,0.13299927584200245,-3.9048077268890797,-1.0556013690801072,1.4051113017111732,-1.1798043742797513,0.5981173721028839,0.4309897597318244,2.3439669261497144,3.319746654271494,2.010582415260939,2.0946793611541238,1.1170574608468256,-1.9700967269279169,2.3268564689898199,-3.4809163705826764,0.23362389279649865,-2.1910181196628386,0.5547678928111157,-3.944824014017211,1.9522603464393625,2.710769745083171,1.6049397184581596,-2.705959634470604,1.8514759066344793,1.5788987875553025,-3.130427746120356,0.6157997574799641,-1.637820514982412,3.6103003612957025,-2.1759078371459248,2.563624818349574,1.9346071752901289,-3.1620674577020377,2.066281035982419,2.960477038659999,-1.7512808633587723,-2.045299776551757,-2.0007660558009148,-0.38411251640912349,3.917197406542874,2.413313831376862,-3.1132054652040628,0.177755159183274,3.8085449461438944,1.9844329376228923,-3.0876111285953078,-0.4249964692281696,-0.31577821838871658,-0.9767056641708634,2.007449859415792,2.249537369352125,1.9273127769961596,1.5209631019441395,0.7407588213780523,-1.7764765257593068,-0.09752658941899939,-2.719208224101897,2.395691258117849,-0.920829979887805,1.5686889755124734,0.005843143440165122,-3.2969348752407079,3.264272243019162,2.385452221268774,3.7589601843357878,-0.9484458116721262,3.439132638292377,2.9276040557589617,-0.20875916981472265,-0.01416580600223849,-0.9498884101069525,-1.0462917190000652,-0.6834722111577316,-1.9719718778195388,1.9026715291764003,3.6173062903718735,0.7802409381648614,-3.3334294204657679,-2.965798379629783,2.450786410559364,2.8304385166631924,-0.08777874131167263,-3.240760622127544,-1.6345300695960814,-2.8064928050600939,-2.916372528973433,0.4072477171992199,3.7734179557467284,2.921356029418461,1.3388234668032376,1.8261000060626165,-2.764659275975516,0.7167558815583099,-0.8655609120426393,-2.8320930171134677,0.684056864323459,-0.3774674357717922,0.9644688030703499,-2.95864724157677,0.817380300446934,-2.703990567321018,2.658392158321088,3.302644491345304,1.9751327489451374,3.600906489294567,-0.9673385948567737,-3.528288678622343,0.6902762704961027,1.6194683786542257,2.0015686190388966,1.261035253581352,0.1817946984478649,3.7726920342485776,3.371275814782612,-1.3166594509106853,-3.7364349860283649,0.43507701168237125,3.4460498569565054,-3.761614152684361,-3.4865556719742969,-2.671120927780075,-1.002085084685242,-0.09387228627809719,1.2543188725876658,3.8288972543809187,-1.9314296650212593,2.7665582217590076,-2.827320411615349,-1.6546101898933208,2.7377383513026327,-0.34758672288672645,0.46511073208711997,2.208282359388921,0.6382865901055368,-3.1423189921822836,0.08253119620684046,-2.729487402491353,-2.7774445999527428,0.6518563302402054,2.8193223664764259,3.1985195770581225,1.0099276220200109,2.8658377728340618,-1.0698515261175337,-3.5583515333263886,0.5571180365471387,-3.9005292099286796,-2.753270682942719,-3.0734531705420737,-2.192549752709266,1.7536093401047844,-3.822554678627321,-1.3352531740636425,3.2141757244725825,3.0467772749733079,-1.805339472750619,-3.3532555046243885,-0.15304409403126385,-0.9109715931829747,-0.7707067893949764,2.4417151522890094,-1.8000160102380854,3.276003978446141,2.9997530972023416,3.363634745804987,1.743001578637438,-0.2306548310095815,-0.14225357741542322,2.182020432975201,-0.8005424469729663,0.2847092345733522,1.7285758137748602,-0.3833891050973046,-3.526715521484661,1.0652223893146707,3.2684789117035697,2.5551485892714744,-0.20290658559358278,-2.569175736061899,1.368865642341122,2.042438027940249,0.6464164953368137,1.4260886806586753,0.24594169904439323,-0.5660364742601336,-3.1200104015593475,-0.6627985270319028,1.3129120698400617,0.9822966676976375,2.816444709719673,1.906486966374806,-1.6711937232506953,-2.5539882696361104,-2.4374249943404067,2.9110529208009705,2.311433003643266,2.4782437910077617,3.262792741729294,-3.888066859274648,1.0557422397713126,1.012990183655094,2.3905558901398189,-1.4120880915095689,1.538185114955712,3.8341544602562269,-1.2198643141004598,0.170018212734786,2.5073481555846115,-2.2406738909474894,2.6794846479712097,1.780489292814134,-1.8962032818224553,0.38500552601739015,-2.063446725921361,-1.5635158363163895,1.158666788478012,-2.7043238032999898,2.0212382886560507,-1.451260956984279,2.2293981336154404,-0.9151466475185632,3.618727299189585,3.3801761069017806,3.9735401774246945,-1.4874661264399836,-3.67240758422097,0.6386510333092117,1.973730831741805,-3.6826510143810244,-3.827061487505209,1.928705419230056,1.3696073209080489,-3.6853955455347124,3.0984081385025199,3.037899653189246,-3.999887463075117,-0.9662917335241941,-1.1750884557870017,-2.3614164038778826,0.15696737768377923,2.3652949928384219,0.674558344998121,3.99339790431086,2.1860419984185919,1.015187036510695,-3.025107573655707,-0.9352012731597517,-2.2686542904970787,2.7560547199346985,-2.400804224875257,-3.4034042948319866,0.571301198069337,-3.535125813924674,-2.6046192392440146,1.2028705424517679,-3.9771449833100629,-1.1077149889194014,1.6551972181798993,1.8673409710658549,-2.606308623853673,0.7896053592702943,-1.9477042902100495,-2.817844985200031,-3.626322883778288,3.0152193530988544,-0.3698362918377536,-2.996930546168385,-0.5330968467315387,-0.17764863296185164,-3.0640035314059865,1.1253024636280893,-0.4399368276166653,0.8099207775898876,2.44516919881825,-3.6200709858636408,-0.05596294326089635,-1.0254499762051912,-2.8891713455213177,2.5157978417034716,-0.5763906396637706,0.4799609053263998,-3.123612831321248,-2.9618614299306289,-3.5911230737098798,-1.6259941024491403,-0.19476999660849104,-2.487090773829112,3.0766368597455608,-0.42702679370941878,-0.734132714443174,0.3532457470384136,2.2122144682928486,3.1611817944551614,0.09582012925835049,-1.8691580432691746,0.6429888757656244,1.0124068845325934,0.65707982914084,-1.454234795153557,1.9575637589545148,-2.9396297695408259,1.1806933348496634,3.988091664609514,0.8694925836393486,1.50552701802037,2.6447336146206039,3.4000157890503939,-0.7537585177154755,0.40381961433175386,-0.16577623861055103,1.496281853834696,-3.8561274524229285,0.6639349563836072,-3.7455852803240354,0.9789049476680454,-2.5024117685426088,-2.169133269397329,2.8673748080013254,0.16436673039628414,0.8916556021847741,-2.37936294509005,-3.0217346437924998,1.527392242205294,0.6303893106142784,-1.0983415583231795,3.917830241135624,-2.3146756762907776,1.9508749588694406,3.4537601432191069,3.4639434785987266,-0.6138993998065194,3.280791012732027,2.415702837778178,-1.4211904576983666,-1.4423064683904186,-1.9422590554617008,-0.8754265984089082,-1.6448371373023392,-3.5337393647583914,-2.942057743558826,-2.7055852677636906,-1.2829483938636133,-1.5701241565033613,-3.3964062083497206,2.1968705342347087,3.5539894795301665,-3.0956950555759246,3.3249230774815938,1.2720718469075543,1.9634643359290705,-0.15004066563054864,-2.893013244725333,0.5215794587054488,-3.9807832324813958,-3.101439397096186,-0.5925387394448813,1.7324974980728679,0.6133984246082003,2.7486883447999395,-3.9659887328397245,-1.708086261558108,-2.1306758211842879,-2.1617896087183876,-2.3424895869862265,2.7324972712547277,-1.2271393365056598,-1.551419290042668,-3.736092179201904,-1.8898939051977702,-0.007077032430204744,0.6218046609240107,1.1074576829760475,1.1775866433084286,-0.06565491734748386,-2.6990711598604859,2.790095659683261,3.4432540739898016,3.6467675875096514,1.0752209831193965,-1.1376711728499343,2.358302437387291,2.5249481708643275,-2.4703213611623227,-3.7782849962210918,1.2458658408843438,-3.321656231216921,1.278942332720196,-3.5640073047660758,2.505686115237869,-3.849142863648874,-3.586964119914188,1.089237943732476,1.5545629267575923,2.6790048363667608,-1.7583287481601735,0.7082094246869302,-3.3501402756711888,-0.2620712181748637,2.0084313680499257,2.0813638822268825,-1.8493268798441439,3.377589248529527,2.7225034707317787,3.4710441903938644,1.9356370098231928,-0.3419180983612635,2.4556497632854299,2.6154298101723159,1.5925218472855117,0.6912413858427211,2.0888767979098006,-0.7138625513530281,3.1630997882666529,3.523372024318367,0.4360862017979885,-1.07729473272457,3.9781463818564024,-0.5244638917661548,-0.47946026107092779,-2.826056197363867,-3.4898342608272996,-2.0701454487908368,-2.8656558873991875,1.7329771085921247,-2.0677174770738349,-1.3719344607539148,1.0975176473027864,-0.06388699231967876,1.9312934085790073,-2.5868404698332947,-1.4549547919637219,1.8430974480129994,-1.333917332983968,0.3513275579626871,1.0572417662475707,-3.661473812839314,-1.56972853371402,-2.8670857549185237,3.192361841025119,2.4768197898698229,-2.7388722761845747,2.270634121148513,-2.268987601069389,-0.10915670422781343,-2.8703706224896985,3.3937788574943017,-2.20066740943697,-0.551439297561872,-2.9505024412466156,0.7658543429376969,-0.6645647731347566,0.20207857835303767,-2.270042511638824,0.19138889654427783,2.0737662558962359,-1.4556525816210293,1.6990894200193348,-1.8352229600077923,2.230468600961819,1.3576324600304509,-0.8113955316156289,-3.342619569336284,0.34555428856742678,0.14361980184155688,2.9498440924345097,1.419230046078706,-3.5481706974611146,3.8583202874911066,1.9624770526746112,-3.271143341812712,2.970866444501831,-1.7252035166947897,-2.7917675504994889,2.31122352920731,3.5294885946383269,1.288886333167608,-1.0491354045095252,0.9470116580205401,0.07840516639657747,-2.5500597702208287,0.054385331932613748,3.656451311264293,-1.4088371923123484,-2.287200917272626,1.2594920089968547,-2.196806376550853,0.13106302987796515,-2.453084809818309,0.6106708363555402,-1.7871247268049635,-3.1782906440071656,2.8304772553779165,2.3550265278780619,-0.2936610573730736,3.992272183557965,3.746331441858561,2.2167091519538486,1.0338817754931916,-0.5916145798143475,-1.2479591087283764,3.2356217369493285,-0.45591817302742246,-1.3575895991858678,-2.918027410196001,-1.0570001581178446,-3.3470036051896354,-3.267464231781492,-3.864180817313197,-0.5068270276496103,1.2546701971527164,1.5187515056359935,0.7601196988138437,1.3094994772525546,-2.3817995053945788,-1.4454626923507677,-3.625263462053172,-2.50436628948822,1.612517525470925,-3.251377255901831,0.04785045118485254,3.1333455312362927,-2.188180751214019,-0.9687514731957556,2.0975559669839125,-2.4226832292331839,0.5796069994232509,0.27297517103394766,0.05017005306801359,1.1064420873243953,3.8960301963796786,-2.9397600154105119,2.975248187245371,3.3043620414685419,0.5452678192497968,3.1738877640963079,2.1885797212480195,-3.899492687532085,1.9370083243016679,-1.2990093783749064,-0.7726542755968433,-2.9291762034177317,3.7515806267292879,-0.7460704708028949,-3.1784332926095955,3.937205592268345,3.471365869756716,-1.0644298295057449,-0.8311606869699428,-0.17356289081379806,-2.5352006465332614,2.6033786185076375,0.9447845507788033,1.164791755333452,-2.3966655234945914,-3.3992341946447759,-2.645787039516681,2.623954014732014,-0.6923711328781186,0.5243191394455797,3.2490181729229876,-3.722105315574929,-0.9810297433528132,-1.9061525833273772,-2.6871831812325945,2.731364134767148,2.6050143902338558,-1.9121362046359119,2.0194839401751807,0.1814621153162186,3.9613301342736007,2.219981059177238,2.842169325967732,-2.9679458558292977,2.3911399015703429,-0.7657871049608145,-3.154469470396174,-0.9590013384574894,3.602734188922688,3.8186179917786715,-3.0605918053555687,2.9914530283431075,1.500119397105106,0.9296134047212528,-3.088032724222523,3.116007172308544,-2.619895937464193,1.30424391126975,-3.3190164755934514,-3.9267121877151425,3.452188236609036,-1.4647472241555076,-0.02539466621196751,-0.5794823543651899,-3.3000108770300429,1.0773965322062625,-1.227953183067343,1.99443268168997,1.0759625744923227,0.6122550949632881,-1.0384287678653748,0.5118292180346584,-1.9110959724827022,-2.7515146788021,-3.4507189538078766,-0.3528209109220173,-3.4010048839452917,0.3753455109491819,1.4900143006470775,-1.6609918088796614,-3.1301689967456296,2.750097006617497,-2.921096042700264,-1.9413278404961203,-1.6689364590140239,-3.378773217439674,2.329712378324584,-3.415711777637992,-0.002135760029504885,-0.5567881371432186,3.2910598671015718,1.5960586067407068,-0.7543137377551685,3.813387173019472,-1.5666075880044142,-2.745392022613073,0.08895268602018725,-1.8288392020776264,-1.0940111876119543,-0.15604880997943483,2.6875497385858555,3.641326712522086,3.4620591656938988,-3.2173571507910587,-3.53677864040739,-1.096182634525393,0.7785734062586656,-1.9159810283788473,1.8463189954532462,-0.08461772167206316,0.4965274618671671,-2.008828460882821,3.1520482472977919,-2.737033548507779,-1.635066793337497,3.9246744653086145,-3.1157825195929158,-1.7401808181695487,-1.0036279603646099,1.8018800302490439,-1.6942367633139404,1.584039594685251,-2.376597957764125,-2.2316824581414975,1.6205614028791864,-0.6614761530203277,3.0013494774173168,-1.4831480169286134,-2.258902305201552,3.168829980483288,-1.4622103434229886,0.9472250435504295,-1.7769067817740483,-0.4200113889829806,-2.852988597822444,-3.8221192586718608,-1.204538779243884,-0.8896126101725448,0.8506756289097268,3.0639532189353675,2.564275243169317,0.5287496600944195,-2.8941417964609128,3.093390846955571,-3.891162553068874,-2.8855085266183204,-3.8367659221526519,1.3260992793817339,2.201859444821003,-3.109985179336597,1.0788282611369083,-0.840438358225448,3.999775203415921,-3.4386286209589747,-2.1960277949292026,-0.02366481157222311,3.366241141050354,3.665586655304602,-1.5529266615386615,-1.4997733980516606,-3.531437923861211,-3.2872369579839555,-0.41141436802410227,-2.514803450357844,-2.272225407268852,3.1244329079041774,0.14877236559014496,1.1996660149487122,-0.1394151573553195,0.7298954561882196,-0.4288241412485212,-3.040159635680901,3.3095362798520577,-0.9555873711463869,-3.0721572745118159,2.7212358526905868,-1.55961837062077,3.9442637143848238,1.9590514416198835,2.501095343839383,-1.478895038118223,-1.6251981807583678,-0.7688724792227486,3.664197833193077,0.017270922817977487,0.2699393968589616,-3.531018044398566,3.5880467332179499,-3.1704982798274576,-1.9539277090683678,2.375327175066764,-1.7482390484927466,0.22960976913296705,1.5845575254789042,-1.825032613167089,-0.14438799016450844,-1.243446121695069,0.37413853474385308,2.814277380082915,-2.683490717912897,2.9604001278799725,1.9283592132055976,-0.331535870066789,1.4221219010237026,-0.1646088365073355,-2.7943071071638236,1.03520942678582,1.6647877841413328,3.847711405887697,-3.0050078077088209,-3.0442742941738665,-2.593997246950048,0.6614310468976461,-1.3129460767441268,1.925252044856741,-2.6617842836889187,1.2421963674509034,3.163973412144731,-0.15953681313750324,-3.1644721663493975,3.0254842642128816,3.0380886025781086,2.919516180985556,2.192848921765054,3.810182764380368,-0.8099178992293064,-0.8282746153851568,3.2371944199615667,-0.3176031020670864,-1.6625884799484199,-3.571691425785253,-2.59981767602531,-1.12852630659912,-0.16642615662660099,1.4819818524585458,-0.5207655579451851,2.8361228534526159,-0.05285072639936339,1.8588425335308845,-1.1373002049778025,2.311605770790088,2.553722518708379,-3.963046561068202,0.5981071051343756,1.5885232059881256,0.20719976945551545,-0.3189825175066543,3.9473160231570469,-1.4307077950623326,-2.320146854753747,-3.8351088177726648,-1.127438424161781,1.5972107941214314,-2.2123233878138288,3.4474945600397968,2.590103531080884,-0.5166156000481907,-3.1733464111966915,2.235159274591431,0.6990037190360505,1.8978118377467688,-3.631211965037995,2.92284698351099,-2.869844622271624,0.511192393307617,3.0457147355672387,-3.54732738679059,1.024888555478757,-1.6697590208587999,3.7150398322871247,-1.4318418958979483,3.8125211622906178,-3.7451536606540838,-3.4514752379420816,3.1819917821271614,2.7737567972721814,-3.17677996553127,0.21942984563318647,2.783022511888116,-0.9247982601643068,0.7624691039758993,0.5318836913954126,-3.0963337388530016,2.0825074892030228,3.582180534414828,2.8745562913829358,0.8363063554703745,1.1472770922523879,-1.7312901450943157,-2.5192384633649125,2.4777600490281577,-1.4851267744363952,3.268221396495628,-1.7702516831842526,-2.369509077898088,-2.135211830123211,3.7174827985335687,-3.687435330677464,-2.7623650895951998,2.7061587260711956,-0.7418989559549853,-3.984138536253166,-1.269597121762278,3.5490835550003396,3.2818658938400526,2.998522348153073,-2.784031226435344,3.422549189209751,3.6092500572411128,-0.6481196334618888,1.306906267717256,1.3676068883575897,2.9522601577072447,1.6735359605260448,-3.3065731870526298,-0.23368163385808517,0.03464851525178325,3.8674253919685839,2.4728312738275317,-3.4217802828394348,3.5987101980578988,3.5729494860987458,-1.8167345007592426,-1.5974012626102177,-0.31166715352944598,-1.1905725956945573,3.862662000519612,-3.3744261675198485,-2.888573060862054,-2.2997460056529617,-1.8794695135121756,-1.4423988749610955,-1.0182859661189919,-0.780593911569647,2.47072230765096,-1.487205983833027,0.1654406539473774,-1.353288277674199,-2.7877366472569298,2.7701616588580588,0.3063760861774174,-3.2780448299713944,0.7484629204191684,3.7641952976490247,-1.5515574978574789,3.1736038990055208,-2.2729453155735079,-1.9579354595920935,0.007074906765883959,-0.8868752540780174,2.410581288300918,-3.4700065876299925,0.8572509050529664,3.346879735770872,-3.982561551814623,0.9670140908184042,-2.4645869639459825,-1.461007795164111,-2.671619309070336,-1.6973157356136548,1.5160876993389297,-3.6439719784534745,-0.7011030113500656,-1.2357598902629353,-3.2049657752042499,0.41846025234012709,-1.8078175366992238,0.9576334747543669,2.403730770425356,-2.8723619480215509,-3.2586773623581735,2.1342967488380459,-0.3648015264472484,-3.81801234369547,1.0658647409548703,3.1835839066513529,-3.4810120827044477,0.9876640827932972,-2.2782843337746119,-1.390164661913973,-0.8160592647308234,0.36531951979408197,3.850246395110757,0.4968601449704346,-0.379833617704177,2.9779846948152697,-2.36349907495371,2.4134216831886068,-2.363882375393761,-3.7984686754442338,1.8603917871872363,2.7788951017101146,-3.304995458706303,0.5102835859396713,-3.4281406779368899,-2.5025262122364717,2.5997307897141548,-2.6841661422092306,2.56496865836575,-3.9773267559961704,-0.30768052016813188,1.4078718916518272,-0.031485008621894298,-3.9767376435239187,-1.6148732495315128,3.8268427909659215,-2.0156329957013199,-2.4959651576983825,2.826622950260891,2.8636926763935417,0.2512343043730585,1.3708059906772619,3.725640181651343,2.913572708881718,0.683453313421289,2.2582468392050707,-2.1172549673359004,-1.3517443576999265,2.588174188883989,2.824043477150216,3.33888633666081,3.959609229521713,-2.638080233795013,2.320782502404592,0.7614140697676399,1.949541587730585,-3.155335204374584,2.364667907274966,3.7290596383429195,-3.4469743737756586,-3.9060054212434496,0.2167321861248901,0.06420632080272704,1.0118097954735275,-2.8499518656326447,3.89060017625249,3.132422567315211,0.7115590672409979,-1.6122818123287007,-2.5579039117314545,-2.3891966587015869,2.10308112869562,-2.2193199508716017,2.2549985255666016,3.399389362724289,-3.4590742603818329,0.19066174176439255,-3.5079003249305735,-1.2956892285260322,2.391984972043013,1.8106038071576745,-0.3605371042223984,0.3420109047880793,2.1171089082636644,-1.602083853941888,2.0229081446851255,-1.7117365575770434,-1.7757851338302393,3.4000245765387895,-0.04376940764507076,-2.35676361140057,-0.4500687067014759,2.2803277892299746,1.7572567671775757,3.4789596940395288,0.8405240071584661,3.721113726528727,0.4065843609001272,-0.8860374879791684,0.31301313164065105,3.0648885882111989,-1.5774116241739618,3.517805129675592,-0.9621580236308456,3.2034890484237987,0.9129108221028055,-1.1388600694701555,2.639163782265511,-1.4933125808481487,3.8353531887406628,0.6676431154819067,1.703406637633826,2.7776585751444404,0.13078548473539709,-3.3034088768252118,-1.642512830633114,-2.3525059346666099,2.6946871933630787,-1.8933309759803677,-3.314574239782509,3.5652983552058279,2.414615317184614,-0.428733165554805,0.862676775324192,0.6800407228892746,-3.8691875941013329,2.5309356575070218,-3.868637247396677,3.7036483074173764,-3.580311269469602,-3.806273762935242,1.1541466559539569,0.22773857702289125,0.9656578787739667,2.2201136349499368,2.29957277177457,-3.7288581764336614,-3.9180264495439767,3.7753301514054495,1.5892098692619952,1.1034888039074709,-2.9408988741436108,2.0638454784669228,3.296044239280448,2.6487597325159246,0.05478247150043458,-1.7044306579014899,0.8999711182941166,-0.4651718891995946,-3.8086731067329424,0.594137660058701,2.372669101272641,-2.6968999866499487,1.2226475338145778,-0.47409760048964758,3.86696485162041,0.8331447849749223,2.725668981483805,2.9461792821829304,-3.7859830704391257,-1.1504881937979468,0.6717502545787282,-0.997689881720415,2.849992177701991,0.3275915998554231,3.9670432799401658,0.05123693077748559,-0.10011442353196265,-0.17528479726318126,3.9293180320883387,-2.2983137077078075,1.6588293323777297,-1.0939804301565593,3.0019988777713788,-3.807591629843163,3.3452760950382176,3.0366720119851777,-2.2131049300550016,-1.1512515018260415,-2.4215503862969669,-3.5403585230576697,-0.45078543138691376,-0.775011496960353,1.5356714962802416,3.6312091678283568,0.9812332949423528,-1.1829102253075066,2.530184971271334,-3.2201649021553138,-1.6858642933816553,-2.1300362066083657,-0.44016765656027148,-1.4288986887547975,-3.2200289281429974,-0.8616265342665868,-0.5064574333229217,-1.842825997836668,3.9634676712981067,-2.4098155635553546,1.1644831778401424,-3.9014590450256758,-3.6688863150118458,1.1663171841765126,-3.4065770825355274,-1.578997016155185,-0.7426844812196833,3.7556102514390519,-3.8594490162360426,2.3979523419891537,-1.358918368012031,1.5211723230896386,-3.672747068016327,-3.4710039250690816,1.7431021802970808,-2.4523310960327437,-1.886402792250082,-0.4400613687306427,-1.450809304394035,-0.6601522292331958,0.985193169933928,-0.2577634904203423,-1.0413097488244132,-3.0632645157660347,2.0680585285506645,1.531315526119708,-3.1320453547676285,0.1671011548852066,3.087181179267189,-2.6027470262535816,0.8082721879743078,-1.7978061675495772,-3.8589316317060096,3.557387657025716,-3.9243642184390188,-0.5351811587163449,-0.5703622890206412,0.9516690186378725,1.834075025018472,-0.6246038065002137,-3.1488570958063004,3.8543093212826946,-0.16446861312149098,-2.207682894133887,-3.9431459228212697,2.408892423122996,0.5715617240634181,-2.1168228489092719,2.5394359322258595,0.012902079043661807,-2.1087437574339509,0.07475530349198056,3.24231982816616,-2.1780410609747689,-3.3183411045668409,1.4177469400143466,0.7760401995930089,2.523949121603996,3.8829281378205895,-1.7441869914112347,1.6589876959428356,-1.4964027710437494,2.8319868087829427,1.1188325627372198,-3.6833019370725319,2.0408948963855959,1.3681039601677787,-3.255464797203123,-2.0591873112282688,-1.8201032404782114,-3.2792653466374537,-2.4103755050323407,1.3790999003900622,-3.5901110778422238,0.7871123434678431,0.2913493511872831,2.4568651301985158,3.7223766968289375,-2.9068824620250206,-3.3222059232618479,-1.9943797150342553,-0.8007543363749046,2.01753378903413,1.6354530100746825,-3.1426192949946376,1.9571763620126053,0.5258155912377394,-2.5010268790504694,0.8313436235146545,0.7703649680020073,-1.1580399362109342,-0.35343881899297338,-2.752113371699334,-2.5553685155462979,-1.8137124993076162,-2.1900199031689446,1.3637318243981272,0.44432679370902497,2.4301961915386904,-3.278694658651526,-0.3332709041120703,1.3138398473609155,-3.0011315445406065,-2.208001703724884,-3.420333416949913,-2.3353779747746818,0.9134488786159327,3.1717642527775578,0.003174468112200124,3.9029424603025939,3.2804323364463316,0.03892438019071598,-3.463453882214706,0.3011604331340827,3.8687176497497957,3.4108454266310668,2.690901765207065,-0.7019795612501403,-2.7997565339794496,1.466228337583055,-3.9791804578631417,-1.7557245850741373,2.107467402402878,-3.70063836729381,2.7026608414414676,0.010884738028810404,-2.702996123898081,-2.4395949353954178,1.9635451465485368,0.6244801192503315,-2.2404989094529137,3.742470958421042,-0.9792456445576869,2.923995077375584,2.3032890804815828,2.8311210787818936,2.931196979613998,-2.6561236417449578,3.2922853123815836,2.7646563058500206,-1.7493807865874927,1.663163639324294,-1.6609116265074223,1.7139503543913213,0.2691319783520374,-2.903050801831699,1.6978577953585906,-2.002564153809672,-0.27523517533632538,2.0818790176451618,-3.6956267006537946,2.3718261752634426,2.5388202559106736,-1.6649141070664273,1.5246295889778834,-0.03047880143386461,-3.096088569296163,-0.1754914307089619,2.3100018012206275,-0.9574360942904354,0.1780791974066025,-1.1509498872838338,2.7462116218018055,1.3398197949252975,3.606485910626585,2.514976935008539,0.8079183569713617,3.042219475889789,-0.04852899352404627,-3.8070602956054655,-3.9586705698557465,-1.9156837681740254,-0.4759876709946076,-0.7319645088985682,-1.9758935328795356,1.0909945026640733,0.48264642802503046,3.3661884770720196,-3.608278355314261,2.860935642938977,-2.401940031135549,2.21203370716864,3.541919202740174,0.7422585157424608,3.8517378632221108,-1.5828312124481519,2.8737187132094457,2.6504940956161526,-0.953099924106569,-0.4557831487086794,2.800417894973492,-1.7623269094258225,1.4416969956035733,0.7546139352368408,-2.8651027716749386,3.1453134473531856,-0.7026783994598809,1.0945628133136865,3.6878797071588389,-0.5863238819670436,-1.1857203739961744,-3.8885144703115328,2.424348665419794,-2.492073122455076,1.9072013585406236,-0.9829792450338053,3.9123117199456356,-3.9253590818955974,3.858402883416707,-0.5917183224562699,2.3499677601111887,1.5749507663153777,1.3793636132802388,2.1954995103734546,-0.9073865995005301,2.916721748319877,-1.6655975279809648,0.24220632284009725,-0.7351509303742516,-3.3064727328108516,-2.0735696728098045,3.496785698392718,-0.3783835670657405,2.358692321969926,1.8888239299990222,-2.014329934641742,0.38198541858695736,2.0124608696830208,-2.4917155749498836,-1.0737111062081673,-3.2706026956791724,0.5675733136669416,-3.5696729468900276,-2.860624064484636,3.497300448834822,-1.1860499707840158,3.594202591628062,-3.474317238641916,-1.6015677870572285,2.880348511387406,0.42474916099765816,2.563013592172653,-2.4214491097992596,3.73973824812336,2.0700665337539387,-3.3050129787995239,0.45790693043614807,0.2931581979672355,1.4064325183949569,-1.01952545391959,1.576036992370045,2.753500825062094,0.9916730031163024,-2.7491992640396516,-0.2475701979625322,1.2637795773969876,1.5836047933618094,-1.561939602601325,-3.130764961521347,1.5206618354307047,-1.7698270767022529,1.2470265971907236,-0.2494000941367991,-3.8356472170222668,-3.1885586098245346,-0.2234877115149183,0.14872180882895592,-3.686767700302765,2.1227698237927479,-0.534796453931911,-1.1779915710363805,-1.7470413565642818,-3.322461884272495,0.17713336114230406,-0.40801859563742229,0.8781535697564245,2.7532801299086584,-0.7473895863029387,0.6714448526547914,-2.0437647892932597,2.392845461313332,-0.10786293032306715,-1.0403135557837684,0.3830364620783593,-2.0869786060984758,-0.5667454519191162,-3.700434407976376,0.5048969342412359,-1.503608206670668,2.590994604115087,-0.39692022742743329,-2.4705470671795108,-1.474971369840459,-2.427493791949008,1.0609093657726723,-1.5709115162373289,1.1788813024718615,2.092044024925112,-1.4522766733313224,-0.11592520002951523,-3.07026201051091,-3.7982729961674419,-1.2047963115118508,0.6178824358344839,-2.4573646720292698,-3.0441234509009744,0.7644821521369254,-2.270773682235027,-0.4130839413152074,-2.442459636794683,3.1521642616733445,-1.5576478138259018,-3.7783732027662539,1.7881186802272434,3.162043691610789,1.4216763104902973,-3.4376777811000345,-1.9926593600362422,0.8243357308299464,2.733265604233215,0.32648388089287919,-1.9818257805920468,-3.6303504793313507,-2.074170399841453,0.9486123995075522,-0.7531844021556839,0.10335307399628402,-3.791692854403064,3.59351444483531,-1.3645599530081239,1.7947064366939829,0.3888587892241677,-3.5763955457192679,-1.8600312086541846,-0.008151799051201892,-2.779808481068863,2.772382029224328,1.263640213496437,2.2164597762951745,0.5020684496862913,-2.718628180166501,0.08971809062877689,-3.033624321026501,0.5813203870065689,-1.203007222246093,-1.7961984423670368,-0.7800802294278724,-0.1890261882641988,-3.7466783555096629,1.9774936717930052,1.0145184767940814,-2.004670595949708,-0.9486920468806028,2.0613752228534727,2.509503590793079,-3.056057619469633,0.1631965483264075,-2.5022993846418819,-2.2488604869219257,2.2530129347705536,0.189838441180318,-0.9489471907391158,-1.3631072141490615,1.896739860049931,0.8342532183656637,-0.49130811496841267,-3.7410910661739047,-2.1798532467136937,-3.756931176967207,-2.5884700063570955,0.40237460027252505,0.7614280800607238,-1.1433496363532199,2.216347490620022,-1.2498313331496603,2.390602953844728,-1.4922444039129828,-3.961002956122525,-1.6981511503144747,-1.129189344422979,-0.3967635311748212,0.9773560945258888,-1.595879507646858,-0.543188776841413,2.9978613083468907,-0.036663554874612817,3.8298480726267369,-3.704017619509746,3.2880842852979859,0.4485703220861419,1.0616303211306662,-3.7906554025681995,0.9142479313113672,3.957505189244724,-2.9655122902982278,-1.9614119774129267,0.6522460381403992,1.1776634090901608,-0.5532127241209894,0.6669058622113715,2.517222981548378,1.0552238932036824,-0.004006731088074034,-0.9110811544097042,-3.523671173266157,3.726425871825092,2.7186085246331155,3.9479558343420626,0.04484205638601502,-1.404555172615252,-2.6109399342059165,-2.7431503643167138,-0.39241881107475887,-3.083989050344832,-0.8690063099522389,1.1968683238796026,1.033397955082819,-0.7824416793498494,-0.12722492268336639,-0.5897190843918558,-2.9938476369618938,1.7525719625612482,-1.3186875389808466,-3.327635902408372,1.9216958926547152,2.527190550889685,-2.44330514091347,-1.157733733487606,-0.7008816572780994,3.6402214164856669,1.6518535201583263,2.3182624554894994,-2.3365854850612068,-1.5947455838748342,3.641833033238811,-2.4575527474268687,-0.8462849322022521,-3.693757388535892,-0.8744411753916632,-2.651173402328059,-1.4531391508407037,0.2406287957626363,2.7866151467150868,2.004639513841653,1.7335644856004367,-1.9189139895811976,1.6411458077155548,2.7325826349344046,-0.28360327355242789,3.3089064897813618,0.8340739801196522,-1.4487159493546012,-2.8011180910742476,2.799103566084722,-0.2919814810743888,-3.1533427145090107,0.059443239554807018,-2.76238009267379,-3.6126440775990069,3.084103877060347,-1.599851974517179,-3.0367024414627057,1.920883550049755,-0.33225380517424787,-2.3554042591492054,2.7291051368211116,-3.8395337762098489,-1.141140118861834,-3.4827198157742238,-2.904883912108464,2.281345976451137,-2.4840238196304709,-0.9519821558050621,-0.7066361391016152,-1.6469818309879428,-2.3746227468434997,-3.4626291333458028,1.6385567757305034,-2.9890908560781099,-2.4802129316574339,-3.7350045567357315,-1.960535888089403,-3.420153502303153,0.2965852459696059,1.7227749493589544,-2.761834728069239,3.0289667524767376,1.7003003753307358,-0.6157885775873737,0.5553597037645153,-0.14404442136742746,0.1698028512892309,-2.1019646669268869,3.721258703067752,0.5148029904390166,-2.272868324540627,-2.8963875337557667,0.8490724416403124,-0.1817702222233546,-1.8063728726220683,-0.8675054601915635,-1.7094584880436834,-3.4556789719569664,-0.9029733944779963,-1.3644988160699597,0.06669922763229952,-2.8735777173615215,3.1367663362769448,0.3210476195324814,-0.03085441155413471,1.5219383041690727,0.9255704611898183,2.085149492255983,1.6940743746285528,0.8758044548319042,-3.6026184669861109,0.4940629876232432,-0.3283908285467465,-0.9275155399104174,2.6417102102415566,-2.617084886179791,2.4138030074584977,2.864541916648207,3.1354274630781324,-0.2530698441389847,2.248245943271897,-1.6105846078216309,-3.3374052631323556,-2.4526552361435307,-3.280415898110312,-2.978971155522175,-0.4939274452534175,-2.1498379913147165,-1.0249622021989505,0.19318171218833947,-2.200145406741644,-0.3705261305156675,2.339476555169683,-0.8385516632241912,-3.47095071167091,-1.6225965076390774,-3.320853609212202,1.4310214157764474,-2.1918727799134425,-3.4875260514415649,-3.335929740652669,-2.081579248735723,-0.11566514987697807,1.2305496143711592,3.5388366579165035,-2.9406518337941627,-0.32665735808520526,2.25573857586446,-0.15954506745615583,-2.0918091278129289,-1.451040340060107,1.616194474987502,-1.3082285595820365,-3.420024559683256,-0.951592637847809,0.3272136057744657,-1.9831571806337698,-0.23354530714137756,0.22966808016751817,-1.9123717104544638,-0.13782315173773175,2.3912187728455596,-2.34220490472765,-2.5443179856607278,2.290755884683456,-0.025850963826830277,1.3745415020059797,-1.4095787246954946,-1.8400220582958627,1.390639042230779,-3.552910541738208,-1.808991852031866,-1.4940007248940098,0.21380065798423066,-1.8517850555779172,2.0547674734017118,0.5443766691908678,0.7972924046524055,0.2169710982246542,-0.400736868190271,-3.530005630270071,-3.3436361550070217,-3.4817267457511837,2.9381764726255454,2.335835717449667,1.0466725323527993,-0.8047240617552935,-3.6483322256129746,3.4665663140943696,-3.331756403294782,-0.638822369628425,2.8790173872063828,-3.489743522540582,2.089278697170882,-2.8088011331011355,3.0710621025742519,-1.937513803561111,0.5208344918802963,-1.481218721605458,-3.278855816733974,0.893229250216721,-1.4303633450432616,-0.5297846775666566,-0.2782901125314412,3.37656262637727,3.422004848911566,-1.2335902634011032,3.147835180101324,1.3374162770282415,-2.1774167509163107,0.9919094553433361,1.357798916052369,-3.5959141130368534,-3.83038646354267,2.2118057635443089,3.3140434883622875,1.0313271786445686,-2.585066144092786,-2.4314681978666465,-0.3742954347563996,-0.8030690875644646,0.9199349009916746,-3.600192821367852,-2.0409190769256826,-2.1923829442844786,1.3594766680884148,0.9523708284359378,0.17000469161181809,2.351439557624256,-1.1953548731202462,1.3524718509957153,-1.5372827776391398,2.584263321523963,-1.9241577118050584,0.6567942637018351,2.2979615689130554,2.162256216607714,-0.8675625964626725,-3.4422367835526135,-3.0310960755850928,-3.8625176523765489,0.5055731138024067,2.0574316587144434,-2.7852763179590349,-0.3831160410258496,-3.9660424538850416,-0.8952675137490163,-0.7503366663426982,0.05859691894723884,3.0311879676721338,1.9420672623830449,-3.7249336231931409,3.017324758419263,-2.693078665990728,-3.3784710249584277,-3.2543833051093307,-3.643167967357214,-3.2950519368178998,-1.5200682540255404,2.0814239167901249,3.335123989021983,-3.054081084664534,0.11491441932304536,0.22880205068550819,-3.4662295290880138,-3.0382381650217287,2.941084608683876,1.3553584468623559,0.9094555145996832,-1.861436234517653,-3.2291578486721725,-1.688230053745485,1.9276522452709504,-1.2577394443950354,0.69877905089165,1.7038876698495882,1.7310321082430039,0.0019374972398509272,-3.754752455392482,2.3118267652259467,-3.435703669620718,1.8795055480159438,2.996146940593995,2.2437817613329429,-3.9294416293239609,2.9462885656293089,-3.8755302015364965,-0.15468921769968525,-1.3080836402348944,1.6566266712126608,-1.3354572167006556,-0.05706194938808107,3.030256611542704,-1.0298181938350342,-3.6484872613626688,0.7024667262592743,0.5440931582167217,-0.5289244557025816,2.96350596920095,-2.8339224714285384,-1.4644533842877492,-1.8646846857399,3.663821854992915,-3.1819625938169366,1.3979458944962727,0.12990457032846604,2.4040042563249806,-2.0479374445007867,-1.1662095765756074,-1.3783277555200054,-0.3378419073584009,1.8349123007529729,-0.6942481709753461,0.3759885346260887,1.380371728537547,-3.8088003728670456,-3.3525326163834627,-3.3648319359513279,-3.715221094159265,3.352494752469587,3.7296701528994697,2.9126616851019255,3.8999152125959295,-1.5372491840436438,0.9334810381664953,3.6842408946470019,0.9821320621922594,3.1123264939398505,-0.7057160112913454,0.8623501718526079,-3.162129045163102,-3.805741584354818,2.2590531482128206,2.1343274958217934,-2.1754347352322167,0.4947404024949362,-0.2845569046163712,3.4991160228841196,-1.0160069956284839,-0.14873425245437289,2.7282309277026917,-1.0558188694874973,-1.0890072358305636,-3.0290557361097916,-0.8274496953821056,2.3772037685419518,1.7271922274300354,1.1334392954044983,-2.7525863901803104,-0.8860113492312962,1.6420250265801127,1.8979820809227484,0.11188074160307071,3.840167162117835,-1.3147536357702406,-1.6901162175396599,1.0065646489814358,0.2702042468997714,-2.245436338243519,2.760404281434762,0.6609200338937331,-3.4904537356813796,-3.692160203841392,-3.6846532861328784,-1.9067855807553072,-1.3742188096587427,-0.15113084394179644,0.2812685939156081,-3.7828597533263998,-2.3895224997239365,1.8372675595582023,3.5073292793225647,3.5920893628975198,2.9355686438356356,-2.624336391658524,2.750845941340711,3.708705050388156,1.476101287026089,2.348083739689425,-1.18388952281653,2.624822033851242,-0.8742236368180321,3.500425827992758,1.557045755033191,-1.4389091043371698,-3.91342767552245,-3.9549873225814506,-3.4401843981590014,1.8260448128015706,-1.8165672102398427,-0.21986453766174009,3.095505437768031,-1.1939819727427142,2.6607961790834349,-0.5890193220284488,-3.281196408444421,-2.9853123865229227,-1.996482190812692,-2.6192168107632645,3.793977753753218,-1.2147423135622698,3.54955153025044,-0.13705556472794634,1.4641811943404762,2.185013176935568,2.4770817567241689,0.6797751783243262,-1.876469783967446,1.627394284891139,0.7438060583914918,2.782547691408931,0.2548438066309373,-1.4286728170500017,-0.6221894435833784,-1.2091435339310868,-2.436520091269622,-0.6063221258948497,0.055695945459552479,0.48439614803451827,1.0352749978882657,-1.952384093260017,-0.017819956768638569,-2.662398837486556,-0.5062987075750849,-2.3794094516373187,-0.9576567432344634,2.030663459574151,1.952609476343505,-1.2876294729095788,-0.5046870047154437,1.7952711586191504,-3.780274113943233,-3.201791106737125,0.49338853533493146,-3.343008708164696,-0.45354199052916779,0.24705539753862827,3.598704732927107,-3.3896518562281345,0.39967461667558448,0.705614821661551,-2.027358534052296,-1.3101400431761337,-3.86491495341164,-2.9212224252813074,1.8373286560627858,2.6377304057320085,-0.5683738225101838,3.216726825082752,-2.9211843838623618,-2.4572654870484849,0.24783613434593033,1.2463821851044097,-0.47312930520550747,-1.0569525425052169,3.2981651508776297,2.236108017072782,-0.0012780174780244736,-1.863840751539076,0.23433529302388313,3.6361730985532016,1.6350458235273485,-0.11194266976764844,-3.864814111429072,2.5334228084183945,0.17189318552811984,-3.4164870477770297,2.33310505341906,-1.2033075971612795,-2.293872196785844,0.3415296618671917,-0.7149372611960787,-3.117006230243998,2.2637917410093708,-2.539649132974086,-1.059449256387711,-2.276183629273879,2.537679924334153,-3.0111716862448505,1.868912836668816,0.6486002532251991,-2.403892365655971,1.8528645393436723,2.3645922750389358,2.7682846327796435,-1.8875905797903914,1.6241117264696917,-2.2073414032154865,-2.4678545805153817,-3.0501890129505879,-1.9438639113367094,-0.6052339637567885,2.222532017976027,-0.2506452966295092,3.363621388837311,3.8643647438885369,-3.2648896492062997,-0.7703701525174955,1.4616248946973594,0.5245353559018318,2.0951248256710679,-2.1279840390562407,-1.1009030777297524,-2.031226530379847,2.853751592734139,3.393449157057656,-3.9371107251162176,-1.829734302616446,1.7280986864383846,-3.7168860487899257,3.0071029850323098,3.597053779913807,3.769530310727295,-0.8814706372680663,0.27628429507455989,-3.877045207476532,-0.7842879211164018,3.0236833878947699,1.6113313886490746,-0.9361458408075958,-3.228738816785656,2.749495480389295,3.0935446247046167,-0.7739247215227367,3.2323231978515976,-0.19186045545028475,0.5211318401919725,-2.913104839031381,-0.067974895929515,-0.4198182637446237,2.4150787686148726,-2.9219149410883036,3.668389834578142,1.2326314050532954,-2.0409304807127617,-3.2976439986293499,-0.33327859421860497,2.226075728934349,0.6597399777173854,2.8860431380207878,3.0966022090965898,-2.493306875019278,3.498019828045434,-3.536950127574877,-0.852926576134017,1.8199350695521508,3.0649194585474177,2.797274578261997,3.4990699605168578,-3.7994948790019729,0.5937961529013469,1.3937377667511415,-1.5222557363019609,2.377252445006114,1.5046941090851727,0.5953485780652112,3.4214463365666925,-3.6989554509610249,-3.7077964622179424,-2.052051592575233,-3.3375996966727445,-3.1037120836584179,0.34779715627346965,0.6908682880491082,-2.5875867170361337,-1.358760761664106,0.13530602334209619,0.2563184076879983,-1.3705775069061963,-1.2910806415402388,-3.2346311235230189,0.044386397954026438,2.9029435929984066,1.3764136414121593,-1.626730030151322,-0.31311137095079269,0.35152595295933777,-0.9480443275717378,3.41948085179696,-3.0133436058874976,-3.910299209333969,-3.038885510864737,-0.3052851960964249,3.3543554505459989,-0.5588687816525366,-1.9630233340309414,-1.8709506853709875,2.1237747561277526,-0.19140994197165107,1.9399233858226115,2.2687114202224567,-2.126757979706529,-3.4523855726751586,-0.9071501453527644,-1.0176004554288983,1.0668459218126554,-0.02937149098917935,2.023509135136825,-2.0313383665963817,-0.15647602694384966,3.2711675745410515,0.5948526560782828,3.16301480269774,-0.0020279402131127,1.947671098032921,-3.3625225748895666,-0.550517565224119,3.129626357669501,1.908775351283686,3.733961208758357,-3.869882033249066,2.4829601462055654,-0.03313451118818933,1.4186248344705473,1.510398066582483,-2.8499696056609755,-1.2463821191351512,-1.8881801789648725,0.15138019179243046,1.3338602419520989,0.20389308036791754,-0.4402660467828614,-2.767931988113869,1.255837993778803,0.376534755747409,2.2527369817697524,-0.4301653293358507,-2.1698900902896698,-2.354757764372078,-0.9924998864162158,-1.8572626027472413,3.9755825511044318,2.328497412110197,-1.2753505573366726,0.04755423912972212,-2.375838277277465,-0.6105861791533096,2.3835034818229685,-0.02082937919051786,0.1723236446696239,1.4087800492760457,2.417948245341919,-3.8372196561085776,-2.1933878037653624,1.1243599121516824,2.7050695822042316,0.5187499024072189,-2.6726040117028058,2.473269938627233,1.9122926615498513,1.5615765063496019,-3.918389598574751,1.87599699970996,-0.026190551595212109,0.19002851439545588,-1.5575412094507116,-2.3492254103842029,-2.445658607798512,1.0709729066028926,-0.618463328712435,-1.7934535447522962,-3.5808624257996417,-0.5566642333542455,0.3566898530590965,3.0868493824274365,-3.131002479101041,1.2295266141226949,-1.4807995941115258,-1.3352524904431767,2.5073532740907558,-0.6182091851906959,-3.9692994342354268,-3.406194986004076,-0.6991789479762538,-0.8428621045175229,-3.910581332830377,1.7869655168747416,3.0192632083161579,0.6990151557079685,-3.3237131177003444,-0.5741861886218445,3.9454533148320189,-1.7565522260056339,-3.849519683539615,-0.6743538094350985,-2.962269158004891,2.3631480812868368,1.4369812542356444,0.4603206262011321,0.5259449224430863,-2.4181375621215528,3.2137907797713378,3.840420915712224,-3.659483779227277,1.7319906973701933,2.6232653225102497,-0.23453451242375412,2.1424367088059217,2.2614593379122178,3.6469968279295088,0.14815052818997199,1.202391390414098,-2.7653276719360839,-1.4589745600392535,3.440940305503136,3.6079498525603705,1.7046339242761555,3.7686341151121116,1.020239578208768,1.2446267225467037,-0.7010240394563228,3.6108477579946918,-1.4284589728018363,-0.9277622164755377,0.9939847553005849,1.4422818887184104,2.7460127498497339,1.7037491932176173,2.6503034328416694,-2.6574190364013416,3.860779595673697,3.7149752457657918,3.2586505626837356,3.435186495106972,-2.92653429139877,1.701007336552892,0.1369577545995435,2.2777135542818085,3.4421344778044347,-1.932526779130441,0.967756917819738,-0.8012736022616185,-0.9061196129594142,3.9413534283419588,-2.305448860237499,2.1206729488218798,0.7758155306374945,0.49381113420347769,2.320623565802755,-2.799075029101399,-0.6955694248573374,-0.459146661629658,-1.2819748739722259,-3.8508438934939885,-0.05869494729145841,-0.3903107844734226,1.355321515460445,-0.5696837664297094,-1.7938827547036794,2.292152621010506,-1.551242068031402,-1.9730887422474768,3.6729513221157665,1.5470856173752204,3.1999975726044305,-1.3007754439791393,-1.0952291293201174,0.8820416738214885,2.016172483147286,-0.5827990161181624,0.4766617748187576,0.8964710516762935,-1.2932508937858243,3.7136780829658875,-1.4485384905763015,1.7530855818155696,-1.574331673768925,3.82872077726807,-0.4933041017870057,-2.6183553947074147,0.14640231276308669,3.1253324895161507,-2.081739974097733,0.3358315827028804,2.2217742471832775,-1.1055793447653526,-1.964700032237461,-1.686623212529943,0.4283827777760001,3.677304499796888,2.082604328054221,1.1541280107560824,-1.1515689923825539,-1.762689104042603,0.253142047491826,-0.6195029780551911,3.6211966450138659,2.6269809535004917,-3.757064093048763,2.380553312845074,1.7231762235545976,-0.5600905270655661,-3.548968057151767,1.6483098395411,2.453426800125582,3.2244271286483769,-3.00730780636364,1.2402953583750929,-3.529500967266877,-2.3714011388287306,3.9526542449946655,-3.4500712125032129,-1.263123485485046,-2.7538700561040327,1.8654846243415487,1.7880289616450336,0.1412336932327305,1.0024947225721937,3.468248768541346,0.6790597311616846,1.3126392603409905,0.05559191753757009,-2.5886215707476536,-1.7777505049186635,1.8033886082651743,3.0160813583452636,-3.279674998929753,0.4518199354595618,-1.0895208396039758,3.679006774867478,1.4842044090573375,1.8368756556366135,-2.910636566645125,-1.1345471567886246,-2.296807262605167,3.969223844453241,2.844882751160976,-2.852332636043405,-1.863749121265827,3.9380332032936007,-1.1091154505918973,-1.7460260341966647,-3.404504452028239,2.9272542194605899,3.0208719644860198,0.4059552345132751,1.6783260640063694,0.782138466168746,0.6521688821390708,1.259928238411911,-0.9603648197300982,-0.21594989582615033,3.8767531550874487,3.9500885113517256,2.261973537898193,3.1853239277426068,-1.735760894092662,-0.6470725673731097,-1.2425936634800295,-1.047996195539891,-2.680129365903573,1.4372927929377229,3.2089102363218027,0.3428396264247082,1.8566935588906804,-3.461692537792139,-0.05761388310374915,3.8954573609950415,1.379150108719637,0.7743645257877683,1.2265808739815257,-1.9422502775301514,-1.9905879803611653,-1.4795438533329799,0.8775519975370427,-1.5755819674148919,-1.5876561351135453,2.3554255946916999,-2.7566361294913159,2.5617963603199129,-2.6771097071439504,2.9159513129223795,1.2016792590235755,-0.05200576604448859,3.3765830869012118,1.7958484149033272,0.6301111301252069,3.6701416599876595,1.0379337643586287,-0.13405298983293879,0.18263618017542883,-1.548863109310098,-0.9289379078722038,1.9405424042277134,-0.12148269969698511,3.7340114005981555,0.14716913276463385,-3.889237725837037,1.4541738175386093,-1.9027699403063177,-2.4938771400763537,1.8258194540554192,3.5644387534351127,0.8277720349615043,1.0751668949605336,1.620759036092946,-0.10913911573256363,1.8805780061664086,-0.3568207648987156,1.0326157221130732,2.0799370326761217,0.25763946565655795,-2.92396127969159,-2.9168356352645086,0.8823998527494616,-0.6021508623915681,3.75758508113353,1.399908952949307,-3.853252614103585,-1.4126153836652747,-2.322361086053485,3.936188212107556,-2.9284102786299206,2.3293533690927337,1.7226240569815934,-3.5688894204415959,-2.129182657692315,-1.6130231578757215,-0.24033864756370328,-0.5164277359842755,-1.2722752538430607,3.1826210884439156,-1.8111325666163092,0.3012226984204691,0.30516628320014407,-2.371650193729522,3.774287220799126,-1.7441310100069887,1.408045940985157,-0.14021873699015664,3.6159210862522457,3.2021729811828729,1.3757694144949185,2.0983921621342045,-2.9984497200346356,-2.2053102404962674,0.6672317516185959,-2.034316825082068,-0.32392573583633857,3.724751672619651,2.776422595603557,0.06022470485789899,2.6222100453133487,-2.8794506200960896,-2.264398530281892,2.9640437724456127,3.305378755782619,-2.8863457674939569,1.9809374938416032,-2.3885360598375184,-0.3737824406845147,-1.6571772089423769,0.23785380889135333,-0.8444878945080472,1.2910897371701778,0.19279638008983558,2.7443232467491205,-1.9710732844898702,0.31835799575897819,1.7707637293201977,-3.5047966715837859,3.467909117817654,1.2481073386970519,1.5939181742650757,0.7637546921913501,-3.5979910223661797,-0.4328609740039058,-3.875961955747208,-1.4781388529207543,2.9060116473310444,0.8314732141171373,0.37526305139263008,-0.6078005809826497,-0.8074110252299223,-1.7099855157248263,-1.2030611966421337,2.9230851778895259,1.5544865808756754,-0.8522601421588385,-1.8315384403655513,1.5117274516582429,0.44157940718171409,-0.12165711781954714,0.11321660824960578,3.7585041720344565,-2.214489364679779,-2.55674466071496,0.601022382467101,-2.4266007012096084,2.0947682970883818,2.6525132316886648,-1.8030408679331842,2.00023386239865,-3.0338646359461824,2.649353877245151,-3.2166316438077535,-2.8838081184647637,1.3421906469315399,2.0678506674327039,3.8559356860372739,-3.2500829063698006,1.0581431078956732,-0.7472270659808424,0.4876438955194411,-1.463024642125319,-3.6896319981513274,-2.6789612274273475,0.630398724201183,0.5739682379316617,-2.6483568281917364,-2.0821375116413876,0.7944119986295659,-0.6786518677064921,-1.4554515044827186,-1.1701999838451156,2.412114736952179,3.921848229812281,0.801018202769118,2.9830338578711697,-2.1525970949149224,-2.5833091567015886,-0.3518557394742894,3.7562566914458559,1.344916540065885,-1.3267041223848144,-0.12706655071659,-3.710035716454102,-3.7793381389375444,2.867111396474691,-0.5492863674350321,-3.7380583367008697,-1.9654289574039317,-1.1596630711292165,1.8548531321341342,-2.099113979305349,2.9091320283746375,0.4459510403041582,3.0613342893235284,1.8909696256211169,-0.736675355178587,0.4248495636608176,0.5169663199812762,-2.2334323215335,0.7077860648308736,-3.0431759972143466,-3.475520426262027,2.7130685459879446,-0.843017461549435,0.3866550502109849,1.3441371254210984,-0.23466093391360966,3.143395620283038,0.66392308781304,1.9371005519773093,0.008166886520456274,-2.405807671122953,2.158335508668359,-2.719194750912444,1.4305297199195666,0.3370995497140834,2.6379341592857914,-1.4365649259940574,3.4899813679134086,-2.327494316033394,-2.136183280867999,1.9530397389346908,-0.9600598910497309,-1.786801450284191,3.384769435413401,2.1788569984923855,-3.0486252493278496,-1.3876430837506176,2.8725109082267634,0.7089756310897268,-2.5404507937154108,3.040406898599911,-1.907143476941673,-3.870959311247651,-1.5070586213614375,1.557921203885818,-2.733730375778947,-3.7899278476010336,-3.5703385264593594,2.366395323242487,2.2285253524130326,-3.625616652425676,1.6296947135335076,1.804469682529347,-2.549521514213348,2.2425476097216077,-3.018469675220194,-0.026625840409739033,2.473160517921312,-1.587700637947581,1.7175623149916338,3.2512617146930955,-3.071449090934701,-0.5982869193857889,-2.3479998867598317,1.6906630852010452,-3.915971069262354,3.428534558284027,-0.14316258216887357,-1.8518010187042314,-2.404838694604046,0.22174029385588146,-2.331996006711748,-2.0630526404446387,-1.2592939578962066,-0.23395959527663047,-1.599603554057147,-3.98841363836927,0.6963602501471531,3.9708140594920318,1.9349738771423475,3.029259172407489,1.8451553209247163,-1.1079278706048568,2.2076575609809705,1.620469250281018,-3.8010495090026756,0.49877786340157206,3.6202064260938524,-2.3327979162145136,2.101939509464919,3.2121438124490497,2.7855003344463729,3.9372291558837659,2.7409785353305047,3.288978205817398,-2.934571993833832,0.12320903957688412,2.2014356247600039,0.5450716285340338,-3.792486341895737,-0.8935475688637302,-1.0660514018181014,0.6296449259101928,1.6516613503379745,-3.7622627969075008,-3.5794720581521268,-1.5440969476141886,1.54011679037239,-1.19383749004983,0.8396179230842868,1.6576874342188584,-1.978732075389278,-1.6228849235187868,-1.3497876235147964,2.3626495156269504,-3.8955496265087357,0.7073658589053373,2.1911669822557728,3.49534703965836,-3.2442062633632124,0.3289367754883159,-1.2038880552392398,-1.954833234060236,-0.06404255364895129,2.694879971207575,-0.11647740037416021,-2.4373379541486948,-1.8990192329651346,2.968858201764159,1.3104183794738287,3.4680003348089905,3.270021844380519,0.3064189555853476,-2.5656115215114836,0.9778369329950776,-1.3711609628079638,2.6644418470225075,0.7281880142386097,-1.1870167466034405,-2.8959864585396959,-0.4727488805603579,0.25274938641972968,-3.5089740041512789,-0.13771092047826473,2.618885751943554,-1.1029585931878126,-2.299733515689452,3.1041773842697859,-0.9229099634636582,-1.1429923833663092,1.1651262505899283,-3.888596537863463,-2.5465687376230834,-2.1216345666113307,-3.400299118356063,-3.566661104379663,-1.1658982078935252,-2.550370836325982,-0.32649280078145739,1.363721759192643,0.9287828707181909,-2.018929906765038,-1.4171346159845795,0.8848628258031024,-0.21908184017540067,-2.5838366835245329,0.1107111136675023,0.5585585195835972,-2.747230226879063,-0.29826227384142559,-1.170150782712337,1.705553006824597,-0.7890473007903649,1.1056102689519519,-1.5130755843555389,1.8992076297116896,2.3788547543815445,-1.5437260313538468,3.8100165176994196,2.079756962993587,-0.8750376244047173,2.072845712400092,-1.9092027784312143,2.225274853525266,2.5465018728001267,-2.541813275796657,-2.963165850021295,2.6103462561596357,3.397972864492184,-3.05062281749676,3.021476280574083,3.2774169911029658,-0.4017655450126556,1.8782431627848455,-0.8187007641626691,-2.137443769485273,0.6359337224422417,0.4141107229971466,-1.3009261515328348,3.9752748132224466,-3.1038616742522029,-3.261277568667211,1.9595433664241445,-3.6151851573759865,1.1051587379595063,-2.804421784592833,1.4900121303371999,-3.6375331240296928,2.1106768966772426,-1.8463380129305716,1.5103099554547237,1.3081936817659008,1.9329546916087637,-3.329130384962326,0.7509893947048507,2.493625589568441,1.3034934758783124,-0.42161367141386477,0.8558505272329615,2.598581689576423,1.6084058754120978,-2.053250117412489,-1.3402065206530834,1.1913338851200246,-1.2324916962126303,-1.4962308777488452,-3.684654931150985,-2.1189739412338488,3.8332960990955344,0.9880342136483149,-3.444351303486849,-2.679478962422076,3.5960601135332785,-0.8846420137390885,1.2634100272199112,-3.5000375531475989,-0.3951695111808122,2.39056777393949,3.294606065493384,3.6589421419983676,0.1084663168717368,-3.8919626809963789,-1.5331385905981828,3.1764014849143109,-2.297450888367935,-3.428098385842131,-3.5587485940756196,1.9706497414810694,-3.284172722892455,0.7620700271432188,-3.740287358353834,2.0721181002507,3.52762221683843,1.3375785461241768,-3.4192901104092225,-3.3749800605737745,2.215086111182515,-0.35747067920954125,2.4489030945403149,-0.707758103677181,0.22895904695077452,-1.2007400181710244,-2.258282863334636,3.9587577209773006,1.9910738273939873,-1.188825932191036,3.6531347108829808,-2.6584358719468215,-1.8028538095863594,3.6618108161425937,0.10248244085111846,1.629139604544818,1.260602485252206,-1.9006152589972639,2.8001663545552626,-2.5182179533548725,2.7866496691983135,-1.5344771952263905,2.7356559173215739,1.9636294623214826,1.6268448765842978,-2.7157318464051736,-3.4792579484048069,2.3162837647663716,2.3535741543906267,-1.8323419514924427,-1.6213334019880748,-2.499901155420666,-1.6504421652647566,0.2417489716293577,-1.480801676375564,1.969364204917471,-1.865414975959614,-3.362713393794798,1.999046775585395,-0.2631331561161725,3.1164183013691888,-2.241896093172368,0.4638824934332959,-2.55628170578092,-2.1905377111754964,-0.609376508047822,-1.6572482253576145,2.214769114368309,2.946857182502823,2.352771093354991,-1.2545725368277537,-2.199969174550394,-3.917465072796346,-3.3354665826309617,-3.4864609757565967,-3.3604412235128437,0.6594411282643637,-3.05585836312886,-0.5459897552420276,-1.395772956419255,-0.049858384629164479,3.736942006884359,1.9845730142670038,-1.7658958793107063,-2.933728895216186,-1.6309281877549245,3.5993134784110358,0.22175707322707617,-1.4515634215862255,3.7307279646329905,-2.021732042282366,3.4800649065402879,-3.5045644452856674,2.2746498880340075,0.05542608641185964,-2.177364913085249,0.8012323465593632,2.02708873518727,-3.9591433380240588,3.7162005940574138,-1.510400995018733,-2.138042614963112,-2.301096655338604,-2.9686991338679276,-1.1298311353495428,2.4198012439585998,-2.6395245628433114,-3.6464497983951356,-1.212450075530063,-2.5465709953542134,2.23401104897993,-3.0503608999070837,-0.1371285839597134,2.382933479968086,2.03570874327346,-2.4756169219754629,0.11506867335298043,-1.0633141040864412,2.878383041017008,-0.027045654998940628,0.30270259594284179,-3.5800115037427675,-3.4123188130637907,0.44343018770009659,0.8134158677893097,-0.5602877579616656,-1.7906344162994137,-0.8712950073700192,1.928825136980123,0.33493553243146759,-2.24291618837697,-3.246058201011585,-0.1749219233474406,-0.7541162282151908,0.343305120935276,-1.701372367597223,-2.5249421342805,1.1272429469587922,0.4725314537309879,2.6430060152792409,0.43318375367419739,3.1516456353616277,0.21998865124421219,2.5719575169476585,2.533850506413671,-3.9238467853467657,-3.413116451282767,2.454856814130239,2.823586580585263,-3.067601930451586,-1.4003670341678587,3.41096941571549,1.4277915904371517,-1.5984311121863702,-0.3875833953189671,-2.6544854532517787,1.098005706270495,1.0333947111299776,1.637754775481942,1.4060798279195126,-3.5066902985451655,3.3590136425328147,-1.1438059207246294,-1.5588137446811379,-2.7768680888804688,-0.03603244114276816,-3.171970417118433,-0.052256000605335198,-3.364150252795187,3.833653548415062,0.7077253888216752,0.8489259571099845,-3.369143546392557,-1.311053003798113,-3.0525309810850684,0.49628948505779926,0.4362963045352899,3.3864445100531688,3.671457090528949,-1.0216185320925642,-2.56877944221631,-3.009397888236781,2.546588423307936,2.18621225194567,1.3507804381364812,-1.4312540839937942,3.657162366422372,3.2341040778868894,-0.4112049431461253,-1.0506949371847315,1.0970728365946317,-3.2076507099716045,-3.2218324350381906,-1.2749489610008463,-3.1719789667966848,-2.304689446556427,-0.8291717094894546,-0.8466345001518443,-1.286730473281592,3.3766288095952037,3.3509666546602885,0.12137565673065876,-0.3523436905343471,-3.6012704637015888,0.2500128557421881,-0.40585375193166675,-1.533545386312369,2.2272494493738019,0.9768925922198175,0.45050912665696876,0.6610106041835078,0.6162228976856321,2.0683912639048316,-2.3666553867195967,3.6847007741332549,-2.591935165383159,0.46584562298233669,-1.3320705042204662,-1.3161163107729939,3.9425023215144554,-1.4033078981969316,-0.028987147471335685,2.9533677641780109,0.5601506381910646,3.601069629226778,-3.387316913091289,-2.486981374772583,1.977191560390402,-0.8910830140337449,0.5296631065467405,2.853109847894813,-0.1896793950064628,-3.394352173754273,1.2142360052771473,2.7207998822036849,-2.4988273472365218,3.1204503320949357,1.995619538758322,-3.0472329308864598,-0.33158718256525768,2.0408461059230289,-1.951720404731632,0.5775454558346072,3.2738490826155495,-3.251168255085445,-1.513923846562866,-0.1291099528796078,-3.3459513109715806,-2.5461999986481267,-3.002811431461107,-2.19338030216465,-3.153488913626142,-2.2973968459868567,3.322478311753046,0.5923784329411292,-0.4070586083024692,-0.9832976479682962,-1.1066040047199524,-3.0700009318299994,1.7496012215530704,-1.3864212420315614,0.7441562313284589,-1.5631656899433236,-2.33006587461768,3.5915435890959106,1.9315197707499988,-3.2150592931424795,1.0439371502440676,2.4056791790771294,0.08483847637522324,1.113117663792547,-0.9381797383354014,-1.7722712654587658,3.7936585373568389,-0.28819060421153055,2.4010620910123627,-3.9133567111044025,-0.2312650471088309,-0.2525501982419005,-0.9310921256739648,3.584758365665359,2.279622437539442,3.9557143524025326,-2.1591089993379795,-2.4636367742036384,-0.009787217159850093,3.635152160198831,2.5863272602279858,1.00194787804491,-3.600430267164631,0.10283891441958382,0.42709468597097369,0.2540211835037267,-0.15057641352893626,-3.826857584779315,-1.2498770522646264,-3.3438147594458815,-0.8200729443673291,2.7531626182228328,1.132753261309067,2.74746559720581,1.7316394490128274,-0.44658392661714077,1.2470843634884803,-2.277314272038417,-2.028011254206703,2.0901336590045496,1.150887730509293,1.4839871727165984,2.153237340798624,-1.7499631078592178,2.0316150091229,2.8168371155744325,-3.3450971469673247,1.0288194199788415,2.148425756411581,-2.1191033625846726,0.7477876430976771,3.7508713521549454,-2.50808239478357,3.0630492190778506,-0.40812179649793536,-3.285811740247232,0.4477707724720421,2.1625258682011356,-0.8801516540708736,0.18296178802264774,1.7906347853309264,-3.6187209423425275,-2.046900681156669,-1.158191235564714,-0.20719330687171379,1.99851708309785,1.2550794304093823,-3.0754533974292928,1.397180863826983,-2.915308292362094,2.3672619447206877,1.9297338870191832,0.3391627073097734,3.1400733654309125,2.9035708959716635,2.59732307485661,-2.355837110296452,-2.6259324606568708,-1.1844782909677283,-3.9604611888591316,1.437152089024356,-2.131656186398306,1.8837690124187994,-1.9463742044239026,-2.1137523534934266,0.04815444775190514,-3.898165252997277,-1.9420151643384645,1.7733102715471656,-2.6966288984808708,-0.4732039493838054,2.6060367234627677,2.1790041550560126,-1.7562418906672937,1.5556595373743818,2.3732428796756048,1.3596965728315765,-2.5792034963003838,-0.9006976243510954,1.0946731971533846,0.7796004086589372,-3.7402485774777549,3.3647649325131274,-0.8391487901364849,2.9092932048647395,0.0037304755219187415,2.4909865071907024,-3.240956840489547,2.713214834990735,3.089971111787479,-2.439485423573858,-2.71626557516133,-3.0801073615447978,-3.8727661249072247,3.7188442311665437,-0.10171137437807065,-0.7992552234792443,-1.5541802283873532,2.2634426540455578,-1.7581804102167616,1.8310235978197547,-0.5589291659132607,0.20238917576675509,-1.8123238389821189,0.6867312041841629,0.7562714716332692,-0.4563830324508229,1.1400913800101745,-2.70960612350477,3.800143718873823,3.62577737714665,2.9887102799963687,-0.037588128728843987,1.6139142197122967,-1.8475589482709563,1.3650566810250969,-2.5386560903474759,-0.25914928942682549,-3.0865694845516886,-2.480713113170019,1.0486591907586558,0.9893597580314237,-2.429930203985264,-0.3051530303493146,-2.237246251617936,0.5335132148201236,-1.9098864918492238,1.303570366492008,2.158892927793393,3.913458237130201,-0.8502690890566333,-3.5138733431641757,1.6036356560368708,-0.4137164107758784,-1.6613645128860595,0.921283085602643,2.871250692484325,-0.125773076564341,1.0762781635218444,-3.390239042834076,-2.397533304349583,-2.0067996627675486,2.1658761714371925,1.16587183730085,0.9166001269903132,-3.3866369684738917,2.0803476385811487,3.836556118317999,1.539448694922429,-2.772942141978799,2.9834869418526956,-3.240814214749193,-0.3537199585620423,2.1584052899953516,3.8193109386457175,1.381375890808151,1.4703379624029954,-0.5296538952976186,0.8054003134316217,0.23905778727595185,-3.7276393719065306,2.7121745118158397,-1.6011133921048258,-2.794070465226296,-3.700961901172927,1.4186387002359613,2.955852109201003,0.6549457899065985,3.1835421208899836,1.5909222998259445,-0.9393291200189626,-3.5801251468298647,1.2048215316747948,1.586867524962618,-2.3230100294883346,2.18456136816888,-1.9021378315331248,2.7645904892470627,2.7861375694622225,3.322441735385029,0.4466212990903351,2.910665037517565,-1.2845710197423499,-1.8800290508800737,-2.893484985546422,-1.562461914255378,3.011645815029791,-0.7468396291919675,3.6783608794935747,3.787656459405418,2.168808328936959,0.8675962518570097,-3.088252245747727,2.321306907799447,-0.4071528598611778,0.9245805937063558,-2.088769445724691,-0.2942354227528803,2.1149525937067965,-1.8530108084247219,-1.003772875251476,3.4176212124888627,2.243726144516378,-1.1874621410298776,1.7085511083147252,3.8680740169696046,2.066677517473715,-1.629991052557006,-1.4448925918473206,2.901876580679862,3.6599626235606417,-3.4892381119414539,-0.8464033094625909,-3.1727369507664529,2.801438547663113,-1.6859178472212476,-1.2980628543836586,0.20109428809542963,0.11950805087085304,2.6183096941510666,3.6189090897835296,-0.21356173524930378,2.355943760996615,2.1520701496524765,-1.8439257558629832,3.32089545321549,-2.5596014827028776,3.873382943858613,2.8490055228402317,-1.7584505940232822,-3.790069089342829,3.929853937078941,3.852084699364533,2.8406632775286484,-3.326129637102806,2.285137587678596,-1.0505454028500668,-0.35394726652253719,-1.9887728276664963,-2.711433611521218,-0.7148617587054782,2.7449471875625077,1.5456229419787678,0.08862625140562486,-2.916597776442676,1.9591466521833932,-3.1601872003367665,-0.2319021727425279,3.743320652811965,3.4544168413749256,3.132025578812475,-0.945252292398834,1.2373942113392583,2.259847376870775,-1.208352508865506,2.0059720477594178,-1.0905323501598714,-1.4795195433960454,0.9932897037297543,0.8794487333050505,0.04660143871057354,-0.35948123108724797,1.4547413264773513,3.9670102343051054,-0.5260002231056804,-2.4101957201386154,1.350536781162102,3.0225613173299337,0.21585566879076,1.1650482672764869,0.3541163593880974,1.5256537839403395,-2.1529053180840789,-0.5972711607495631,-0.8251789478754779,2.8101878610236028,-0.22428138807145915,-3.967149816926792,3.8933928912947977,3.0339484535694156,3.9789602037335909,0.45938842064148047,3.5786707232938665,-0.23573961376271747,-3.5602749702740068,-0.7184520400448078,1.5167322450155334,-3.2901070624951069,0.16382239863927684,-3.1723504897321534,-2.0777262823869435,1.6621760995659188,-2.8165747365050448,-1.4058742630932846,3.022962436928804,-0.8840629095058079,-3.390335841039885,-2.32776175598932,0.5546015211836322,-2.498814415660685,-2.936821395653343,-3.5502682809697285,-3.626615137054716,-3.5968468271398166,-1.4641119134815613,0.5939129451939733,-2.013924697912497,3.7272996727647937,2.5814100954254446,-1.6469881377456437,2.740309827198831,-2.9476175485789346,-3.1115406748316438,2.1817974172097607,2.296937388046624,2.8618572789964,2.4294639747061996,1.3238698691584113,-0.6123945782220117,-1.9613971817052803,-3.8733047763316374,-2.6814644815252679,1.533269525706645,2.7661364849053857,2.217976565782645,-2.7451092318128724,0.25862175668990608,3.7453444250128724,-3.0406017466397845,2.469832602403037,0.8537391095707774,2.695331789928913,-0.9547287679901455,-3.365230983033687,-0.3499938876822055,-0.3485975588346024,0.9252037814352025,0.09871619685007094,-0.5019268684474767,0.007531791942186672,1.4189069881738413,0.10245179750248568,-2.0485161158003377,-3.5228724163268128,2.756193351097287,-3.179641960119727,-1.0821179953458347,-3.4923740720038678,1.1583414089377309,-0.6083196574194341,3.8705055661109108,0.3925891969940567,-2.3049572370033069,-2.1676532961254919,1.823649974218843,0.49797651148548729,-3.5977700623630994,-1.680883314410682]