[[4.6083964760135,-3.825517423039243,-3.2732886224625785,-3.043301034780822,-1.8113062186412597,1.281998700017045,-3.705641202268318,4.527218453624402,-0.5313143643647567,2.469439108157766,1.4698433630539379,0.11366371209334947,3.94908693330644,1.1762109256230336,-2.0831756924279589,2.9677260988118165,2.9069876928585227,-0.21022570790994878,-0.24168406656049913,-1.0470076416409049,0.5903597090665684,0.040608705240950729,-2.567801083516409,0.3696074795943023,-4.249851257799035,1.6524920936410004,3.8553965708707755,2.254621356679375,1.1044753824953837,-3.7842008824444979,1.2557409666874842,-0.7154765133785466,-3.6870119603556299,2.2692129748974194,-3.866616385091386,-0.6654460211505757,1.2923601479748373,0.4575132050336075,-0.2537618747305501,2.8512538202649138,1.1416344586520513,-4.868942078106148,-3.0662454343676766,-0.3759149111752662,0.10838172779721234,3.546715548345203,-4.560001537587695,-3.9553478594469007,-4.053198128870946,-4.707337150908268,-3.816652312350747,-3.8569044550599265,3.056826285219204,-1.1405061897410749,1.3750504127232564,-0.26470952260938365,-1.6688247929568512,-2.8228822841053016,-2.049590492852329,1.1254754629895656,0.598411568230599,1.739966709334455,1.768042413093184,2.7660778019883169,-0.6915790174717844,-0.49425420850782766,0.6186745714250677,-2.4257421628899147,1.346306097025792,3.1941395245625414,1.2005709914624943,4.447668009145499,-4.246366920290221,-3.126768962356554,-0.555181215122635,0.16759414010083696,-2.3708367886790437,-2.4041894641709566,4.833265254397073,-2.562813747017173,-3.243936835365993,-2.252603440448413,4.243790820968254,-0.7946298308952549,3.049857357705243,-2.7899768183609536,2.086380758910332,-4.978364767336599,4.7886896684787179,3.854999431253022,2.7552692929655286,-2.8938964730096696,4.241295136400021,1.8964661756379829,-3.4597772039250298,-4.395782211883528,2.6451291952743496,3.650092971487694,3.641711634887205,3.6364536917876184,-2.2416795243623754,3.82757207623952,-1.6578478491810298,-0.6575338660924137,-0.23044511207020736,-3.1565642922918859,2.487702515816453,-1.6599548207360163,-0.7490181536275262,-1.6476579686223294,1.7607820033485525,-2.8668899448645459,2.476316798965473,2.4258497922060977,0.053856910884099388,2.202646868265009,2.3227256102055735,1.9697712626571987,-0.5237579277374893,1.2794017724557563,4.980671670008215,3.385068246410029,4.35049721326741,-3.1441421335729138,4.751713584061706,-3.892453626675657,0.3373639705487408,-2.2856766209555978,-0.5407550524919564,-2.857176118099626,-2.498732099731951,3.2759780144307997,4.973557323722664,0.602776901279972,-3.577456352573055,-1.4627051673206014,2.7553501376453299,1.3079408263822714,2.954495005049913,-3.767956301831285,-4.1757620990128949,1.2093562776326808,0.6363351360010103,-1.3733185364953276,-3.013515791972697,-2.4731361460069136,-3.896816157993552,0.9037135814912816,1.449152917951647,1.1487730625894877,-0.4962665160785491,0.7273276697563071,2.83309859614996,-1.5673834656475006,0.19725734446053079,4.6792088806606799,-4.367654484732648,0.8616111081019735,1.1429063298846068,2.4686787046289035,-0.6235628592334126,3.1843983738041019,-4.45776992385216,-0.3224568634323237,0.09157526782423897,1.8341568038334586,-4.067364848882892,-4.8867154561547478,-2.222275263800519,-2.485422573405611,1.4391938545737829,-2.376866954589058,0.23804447921619244,2.2718562249649558,-3.1800268337953829,-4.835439783643194,-1.9680390953007668,-3.1633223965350978,4.265801630003409,3.2194482332582035,1.5524970427193417,2.0390326927140745,-1.814897784511624,-1.3069919660110155,4.745793723507486,4.865963785100401,2.3878519194803875,-0.36161672968890459,-3.9594577108952828,2.1586409349039217,1.328176420703274,-3.4900497468961979,-1.4573841084326534,-0.23876229704669783,-4.112382932064154,1.6356058453761336,-3.9576131482380907,-1.1166789218287912,2.0733654146457596,2.053300245604336,1.633876354405437,-1.5870256306883777,-4.196197914233564,-1.3127645451542458,-3.332161143417311,-0.833260886765891,0.4586967347346729,3.3166478246251329,1.724966209942015,4.108004174835047,-1.706997562038195,-3.6309580548817057,-0.9585813527882605,1.5181485328137976,2.243382323989219,1.8477286506582778,1.346034745213027,-2.274466533724304,-4.176951284365304,1.1892228193686026,-0.40619954009149597,-4.605647755292427,1.2709388603977026,0.30179590760676158,-1.8554478718889538,2.8081962784064178,-1.0573729092635312,-4.645410446752798,-2.8294919532260645,0.6214823762094754,-3.9658173000472347,0.5101928344283158,4.29471908291063,2.2304494233548004,3.655139672041612,1.4822936685441466,-3.9841204564504855,1.9927259548004486,-3.5488508247837347,3.9228422004389698,-2.42154735952973,-2.704952970783685,0.9116682931871223,-1.5119380131748939,4.584629125101978,2.769183723149262,1.2944882032373242,-2.2711533529644667,4.981673442938709,-2.695939395292901,-3.5355172072687348,0.8802646300514656,-3.3949753900341306,3.8106168751316948,2.676591734060638,-3.066671377157483,3.0564590915069305,3.058291270862581,-2.257590021127113,-0.06569576255452514,2.923499838203573,-1.639823457088074,-2.7597398078961854,1.266984271051176,0.06696200068939362,-2.482999218623383,-4.8837794134065028,4.174978182411625,1.7524953995800399,4.039390074948653,-1.4788459946800357,2.587035392142237,4.50472306946164,-2.95230658000413,4.650001235434862,1.2166881266290775,4.431346214836218,3.9565197269968168,-2.065552595755004,-0.8711720897546389,1.2318404308177656,-4.111776012180414,-1.139123329292242,-4.569601936332687,3.21363590791006,-1.8815793108759092,-0.5492030438513513,4.703981062871119,1.179467733148849,-1.9827162292352064,0.14607559974812113,3.4767279645510138,-4.951126520127234,-0.7729686849460578,-4.762671056824976,2.8115576457376667,0.4207222487571709,-3.6649166178055454,-2.37085289432976,-4.074596785951092,2.11545102192151,-0.25272246800388489,-4.35620365651495,-1.1096159812077787,-0.2636256154276957,-4.928312800810611,-0.7956580993139633,4.639999306625292,-0.37265882736561375,3.696877308516044,-4.933817749030187,-4.443639630467146,-3.3615337614544975,4.009597958271575,0.9014963797876199,-3.0030238602076464,-1.4858445672014796,4.1358422707080699,0.9522610579149635,3.509132110822133,-4.834267063671951,-0.36636776241093829,-3.7987754728611344,4.761675391473286,2.1542516520868837,2.094715967086726,0.39823278684841059,-4.647205128824318,-2.3450151525495745,4.255422306781611,4.896012618528838,3.332533681964277,0.09269478248327445,2.6019129673560554,4.775864004395972,-4.000495865196138,2.403235096333992,-4.827903632132909,1.7840009115015053,-4.98427680319213,0.7350726035278434,-0.6347298883076027,0.7145262456048229,-3.9473304788793208,3.2162635786244424,-4.472005968993946,-3.6802071945959828,-4.449981696061188,2.539810838095952,-2.302270017206631,-2.5981420182732029,-2.3954848456341164,-4.867228098352021,-0.8989787080665028,1.3642413502323283,4.606761736453652,4.64425824233081,3.878471708652875,4.228957968400302,4.648793455349891,-1.4737096385685787,3.108987977066766,-0.4872610097954282,0.8685785258777381,-1.1992625851401753,-3.4329251393540125,-4.854629468837967,-2.0974993465365907,3.788853883722018,-1.5882055605397732,4.638171837027512,-2.471743374746871,1.627193311453552,4.720588569040444,-3.153651717354783,1.4703573768660397,-3.7726304232780234,-1.8049317725044787,3.418884656707048,-2.874293224022213,-2.464724112087903,-1.3019899644999587,-3.5123412277833596,-0.8903212437451833,-4.706626184073745,-4.514776654583422,-4.786409893339618,-2.0713314497603054,4.31186485280746,-1.1339584366665312,3.7881692460961058,-1.702827617236209,3.422052549657659,2.686863248305107,3.1963782466592436,2.7464627155455156,4.080639911620432,1.5355279891335725,-2.1675555343082157,-1.9017039869145327,2.7115144449412886,-0.2035083926551713,-2.885989198193542,-1.7735760594022377,0.9181236012553642,-3.5005636773485966,-4.092284125504358,4.047743314691365,-2.531961000576512,2.123836026682185,0.44965646407644047,2.491670571646556,3.5937526318343759,3.0302466501045979,0.08072352531166693,-0.13773087808108376,2.401210727891155,3.307826574439977,1.5676277342298227,3.0001527715809166,2.628028902144637,-4.346206766463174,4.406446030233656,3.243775557123875,2.624817744943914,-0.7504738290460731,3.8754529142409388,2.000996498291152,2.5931254719249896,-0.8228895593705534,-0.4265877754148173,4.360996687447937,3.169169028108202,-3.561780267850876,-4.804609454459591,2.8670006989668,-2.005971537934723,-0.8233879555667105,-4.5646886919184059,-2.153853555363048,2.9271270994507114,-0.7458911484510029,4.3558815711597049,-0.3343445566578218,3.1341104154388814,2.956609479486419,1.5740225014528866,-1.3414394609269023,-0.4107706092094383,0.8139176149361145,-1.0974651705770118,3.7286960308184295,2.5687246737184514,-0.7691916767455282,-1.8089213587565499,-1.8351829759286345,-1.9560239697768079,0.5269157426667901,-2.5191992676985368,-0.41661582926787679,2.072609567083571,3.5533303481572959,-3.0106468660712406,-0.7044883855471773,-0.028737741755114678,-4.012057870648347,2.638220893018353,-3.079125961249729,-3.6432767778308809,1.2399313966007529,-4.578680845889952,-4.843448706637352,1.880394018545224,-4.148336296645041,-1.1919070950827387,-3.958949804313334,2.0604916991423085,-2.336428855328747,4.591077105785622,-1.72312409036955,-1.5603263321201136,0.1738420932830822,-2.774764918950358,4.831080829390565,0.6192922831350831,-4.92652446431771,-2.5425265151797529,1.147804478908255,-2.2017849069712605,-3.205739575876123,-2.2925438384454335,1.372502864867229,-2.9826010096020765,-2.49193067536185,1.2079482057148408,2.2880006065391438,-4.583902871669142,-2.8862160425498288,-1.2408267481602558,-1.6449267001442403,-4.096589526479772,-1.3723150941852467,4.115507446821583,4.673281494733164,2.9999382206981606,-4.170462511218347,-3.2480463088239057,4.288371489904664,2.951975810174102,-0.5571456508769126,3.1916363536365734,-2.9295387553585687,4.2017061031067659,2.526745499201396,-2.1289141938540636,-3.6090030603979157,-4.973995016189224,3.031610553461313,-4.197529639857512,3.753238326546084,1.929561671810717,3.612482940364458,1.846465574176789,-2.8133760341939886,-0.06520985485327202,-1.5472348815517423,3.0062045356299569,3.582964890127336,-3.4465793309465875,-0.36103186445499527,-4.513847277863144,2.5916834828355617,3.087797323299446,1.3723120198066,-4.141993584410175,2.950483522273556,-3.267351761774835,-4.078219543587579,2.047070752031167,3.949939517253935,3.479904265566544,0.6409778848985734,2.549183095601225,-0.9557182804839766,-2.485635859426063,0.6275070116983148,4.348379095794799,4.094667707303028,1.2833830214541476,-2.0213880619754205,3.593424263219253,-0.5483440241093538,-4.076294115899092,-1.921414285906077,3.4261442214702439,1.2116015179842619,-1.2676908952758573,-4.839537059320669,2.6158890858622509,-1.1423165273738177,-2.7593353133072506,-3.3992368132991777,0.8111489059002324,2.5869070309273747,1.3599069109865239,3.079875608729545,-0.9472931203536339,4.19633145365774,4.411312871392543,-2.079119385018963,-4.067923328801244,-3.742849046611836,-4.897815742358043,-2.790224766026088,-1.390023564422619,-0.7484934864047581,-1.8077238135400418,0.8808388375545633,-0.14447834064114807,4.1618161611037209,1.29607109968876,0.5832171511701869,-1.8859490029969717,1.1905395727943625,3.280175208758413,-2.5706310687649589,1.1737136850755628,-0.7009170563993039,-4.5912500271500129,3.58212175171667,3.7669990611651769,-1.2098227945844565,-2.788997666804537,1.8317544819676668,0.10296582508106944,2.3908568190245917,-4.206452258628353,-0.6392301047546685,2.9794112322787766,3.008330677435376,-1.8089666775824629,-4.214728697362558,3.1349116145254745,4.2832966331913699,3.6135007039319406,-4.010052794338746,-3.136487480297763,2.6651273406398747,3.5270039158303136,2.1978191592931477,3.65191162786766,-1.3630244584184069,2.693263264570925,1.644566413545662,-1.52506041221087,2.7058517389077565,-2.818349390511452,1.337902450888986,-1.8641817508838106,-4.793756424247265,4.8885269620581959,-3.6399832471974049,3.9240631923252797,1.380563306096084,-4.628415458575762,-1.8721291851961384,-4.436255662758516,0.5086942664592984,-0.3119171347200931,-0.7249264388202832,-2.590523075534162,3.4907943782636758,2.581308092173275,-3.9878472203115269,4.17125117432864,3.6794096961273139,-3.9590942661814467,3.6345841980829407,-1.3603881298214569,4.757160530699034,4.5073787355168719,4.967861377853733,-4.447123954462064,-4.002857247076948,-1.2829390250964766,-3.0750261122842597,1.3661294692464508,-0.9300459255136389,-1.0594857597984622,2.184481918167066,-2.5985865475237759,0.17392423652200063,3.334231141220476,-4.678962628458287,-1.8856821502465946,0.04513071425951587,-3.0711906897413749,-2.9396806444446845,4.24943123992254,3.3330386099591484,2.8317529304212529,-4.381259719416663,-2.2991331459379369,2.6253757324908246,0.24016484004529738,4.994102740914803,-0.6914688342184014,-1.206033889208932,3.408962105621569,-2.7522394549414166,-0.8727247916729333,0.8744947071963383,-1.4769085202405808,-4.328602757560834,-4.055425705480566,2.985814991750545,-2.578224116528034,-2.8668536378018709,2.9937727485245988,-1.8148762726538284,-2.976637333635802,-1.3414542415828637,3.9167696250157468,4.598560274175259,3.3595691266970837,-3.2689208410208758,-2.9593727200304498,-4.45498013444419,3.8713027948300366,4.933350576341718,-4.541684696669805,-0.3316330215334986,2.2835482394274368,4.520647873738465,0.7459074052674728,2.702449370416158,-4.2933495350091939,-4.628724380073045,-0.7899960803353698,-4.702317261404235,-1.2464217641097975,4.689988698016505,-2.083689929370054,-2.8269001416160899,-0.6385595205480938,-3.7585111035724929,-1.1362092856067728,1.004325177711193,-0.9234462901820173,-2.725121108609143,-2.953860192004381,0.049324842371327729,4.282924278365572,-2.895512967077095,-3.550220047046123,-0.41233512441598965,-1.3256052246906532,-3.603212568855312,-0.2566010689814311,-1.3275411786590939,0.17217022426764395,3.144478463134367,1.730717904907577,-3.6522644255311489,3.2268973734052119,-4.495986972164911,-1.5517310421657249,-2.65367174929397,-4.943439361222516,-3.851179194066694,0.8695789099584674,-4.075065806717362,4.6265298855523959,1.2832715328791942,-4.5235635719073479,-4.075052675496458,-0.7325171323935593,-2.09543851332342,4.597576320442153,1.3002485749316116,3.548137956525434,0.955907374599839,-1.5569754316106269,-0.42984539647619526,0.22079909332861015,1.6480644386877666,2.540310602243485,-1.9623948359284374,2.7533742722135434,0.3382981140734218,0.6949420968716549,3.646303615941068,1.791173764583065,2.409704382990511,-3.7469120041159345,-1.5891777622610713,-1.5097986182684387,2.3150716018041397,4.477413897501279,-4.496964602473012,2.465417743755662,1.7208856361631074,3.3771370898766746,-4.056993099572864,-0.4880216690400019,4.32362561260457,-4.84635561328088,-4.931040564760552,0.6740749881938202,-3.6667207480435839,1.4497679493743352,3.646772126282175,1.0318726653839239,0.8326801925917433,-2.4418264622674998,2.606300317693112,-4.795663588616588,2.738937132212902,1.701960791548707,3.8366503184265978,-1.9179923600122049,4.158140624359914,0.4152514876146469,-4.290187899937187],[-4.544488481315145,1.5494991437230166,3.7993910088849947,3.915343112538356,0.9209242414164933,-3.6521602787684199,-2.6723770795273928,-3.6158629558109824,3.343686679375468,-3.6368622989141068,-1.056752849442077,-0.48228756128846986,-0.925559477008866,-0.7834260620105931,-0.623214569718292,-1.7700435728669928,4.583599603082268,4.1064041193297549,-2.1868580577512599,2.7201066774782145,-0.9833970820893798,-0.24706220789019096,-0.1998951835891165,-0.6703884740184947,3.012514324662573,-0.8695472926661765,3.343313545166369,-2.8798091056682546,3.822985910831303,-0.044310212393416929,-2.363786534799061,3.778902565430165,-4.623850045275764,2.9539902338267858,4.956812200021716,-4.668728182963626,0.7703648877371494,0.8603556446200864,1.5871830567398802,-2.518024754906916,1.6828690632924169,-1.722606459544569,3.188506912655697,4.442263778267442,-0.8722017098921593,1.6344038627325189,0.8011018993878016,-1.334370878944469,4.963818965232798,-0.18017390306655835,0.07718777654412357,-3.3385817072948376,0.3660187427596444,1.0820472882838184,1.4196624921223622,-1.9852883324112234,-2.4303991555169057,-1.8455280795937128,0.6399314249877266,0.21494087559759657,-4.8404467273085409,4.14337112186659,-0.6534375042353191,3.6365796876418399,2.8958630240522984,-3.872018945062427,1.7485567417475177,-0.19298213641301488,1.7056266769742604,3.179859179629202,4.108188662554619,3.4667778684312067,2.095145549829967,1.3474053105355664,-1.5927273439179839,1.9491298262777,-1.1910252858030626,-1.000217600160064,-4.357416072306356,1.147913097896982,-4.7452738473580509,3.127366281888797,-3.2242752107070009,4.157212919867437,-2.396739559288652,1.3358395494644029,-3.05445838238825,0.7623617270045422,-1.2522704435589094,-3.509676458636481,1.4931065675826317,1.561086768274338,-4.799393445559167,3.764287253425012,-3.1802542971324567,3.372228979405948,-3.1701484984877217,-4.2251388794426589,-0.7899572537881525,1.7211071869386805,1.9702405470642824,-4.265630674855821,3.3668384337390759,3.393912919116745,-1.5385355974791236,4.384652205381286,0.9431920820021711,-4.302028567998008,-3.4671569426414488,2.3358729220660559,1.0249284578602005,3.7509641585934707,3.910785218744238,-3.4206403299218754,-0.6241942353208185,0.5532629417134274,-3.5504856859490756,-4.917305328301209,4.6150075897685689,1.4297429555193977,4.8329493478604299,-4.670902177643923,3.3867125104377435,-2.5497945775395705,-1.5308537385387613,-0.21734245827266064,0.9993124079745996,-1.971210031662838],[1.7463221644023977,-4.407888474780483,-4.636624800151059,-1.5602853112594815,-1.5046096786510326,3.006059487689773,2.6003120378563819,-3.4864271131023019,1.3743274998345366,4.047283445103529,3.1358415018785967,-1.8633336013303573,-3.0146338592271908,-1.8335971325706356,3.646464748483501,2.763648553774358,1.212722935165047,-4.941845069224675,-2.2317511212752949,-3.0762824162026169,-2.9073747442936428,-1.3866762996694893,-4.791493553909238,3.85251767906896,-2.637248269751966,1.4138094970431823,4.080321939274121,-0.4638021703145938,-2.377892968079496,0.8436064813950885,-0.547733168793672,-2.593197229303672,-4.26388160747101,4.872346402189331,2.529897612019444,-4.495796464379438,2.117387667539422,3.8311515472491997,-4.549835262736803,-0.47373869886738087,-3.771046146597826,0.84129285008372,4.903727521229657,0.0028009735767762224,1.9464855991882156,-3.868966307089675,1.4287375282012028,-4.819557028388665,-4.578129832720528,-4.8526325619424199,0.5580308642650849,-2.6991455324684106,-2.245352184905245,2.361573748185056,3.0955011056242847,1.712137445559497,2.812974952863888,-1.078093347850486,-3.7986332704246297,-4.40242122244903,2.1985897247367918,-0.6604041336252671,0.10598044323514877,-0.9936765533177683,-0.24949914883373126,1.3918483960076176,2.807935016784037,3.114902166243924,0.004403709411878509,2.1790598484299137,-0.7809226847587825,2.4670019530002467,3.893504437921864,-3.789134390856038,3.0279621452141844,3.0578760971860605,-1.5462228673650767,4.006730948959815,4.546252915309756,-2.680300786471382,-3.8535592162869607,3.658363234150689,-4.951292724462375,1.7486699395887576,0.2511939258212177,-4.920453860142539,-2.840029120851826,0.38463519952331018,-3.752568560548763,-1.1386873305004475,3.0760905822975657,1.2997663689121444,-2.7092887536530085,-4.432554354172081,-4.603427072880172,-3.8081636000455867,4.591626538510143,-3.060747031526576,0.06753869965459902,3.4487989173861779,2.0390184708146696,-0.014445769484149995,-1.138771250115668,-3.595275845915177,2.375361514530362,-0.31655716239340139,-4.204188344068578,3.9290383100996668,-1.5005473885106489,0.8196917134085391,4.85435333155637,2.476356137246598,-2.4029512476949899,0.5250984114729782,3.74424472768045,0.4579758832506,0.12537451137839196,2.717563977351726,-1.4071766366111783,-0.7561213862447658,3.123782479440889,4.05759421203307,-0.09076748200247353,0.6599534925718098,2.3263847088579334,-0.8172535949886668,4.954313742982425,0.27436051485991977],[-1.50757444623882,2.7003389284372956,-0.6070854448229852,-1.1399235639273276,-3.8487801046380385,1.5793678865488757,-3.3717735821669305,1.8282124071101623,4.114720817068898,-3.087053796421411]]