[-3.764841567534927,0.8127161053926288,-1.4057275831651249,-2.532433483850663,-0.9103732269384333,1.7319101317528319,1.6438517478198627,-1.3546525986480669,1.787161385267507,-3.004032572706194,1.619954662644977,-0.015528722913259685,1.1585328130809787,2.1677859479966568,0.7654783992173968,2.403319145362321,-0.1696112523215907,2.411042149426022,-0.8315385067479646,-1.7983439357912128,0.6541650693411167,-0.8707879628323028,0.44409287542634159,2.83584086782993,-1.556491742445713,-3.9978475567886528,-1.170536995376847,1.3371081882152334,1.0286530087279778,-3.416317993150268,0.7837363982632697,-1.0282116972570246,-2.595560293409493,0.9088610082503008,-0.9933805377437857,-0.16639388112318355,2.369955794363798,-3.849421917208849,1.700653609002397,-1.6396504888432467,0.5474577735616313,-3.6616980116967836,0.11794946128382389,-0.9898545158209275,0.5517183828156185,2.490802738583689,2.813417302861155,-0.29767583098245256,-0.8318526417833807,-3.1633630367379039,-3.8825169906098049,0.36846079142404078,1.2709228283094856,-0.9673253631342205,3.4782608763479887,3.7863067066811997,-2.3418819334176019,1.7724135698697872,0.09647923065519759,-3.209831648974953,-2.301246824618337,-2.9143138336841556,0.5699655833521815,-1.578285295567653,-2.373089052861518,-1.5044657773790389,1.7805308391211448,0.3977800457743026,2.6511233813655048,-2.6515952410103509,3.7249978947100326,3.7315759176863398,1.4621650213891027,-2.339797602002542,-3.613907100048003,-0.2468923754217942,2.2656236109536875,3.7248133844313378,0.3918482852803784,-3.3885507876539036,0.5951291526829534,-3.4740266312823566,2.3850415818473698,2.8564529131865008,2.137991708249122,-1.0146765932769009,1.4866421942737543,-2.6970351562734136,3.7890985836317947,-0.061089063071597008,3.916306454136457,3.766162959424358,1.8613049681242977,-3.471099359605713,-1.3988557343866182,-0.3719912562551597,2.7607224236581278,-0.45610944959454527,-0.4561327988745738,-2.017606151103579,3.889603032001796,-3.7349789366818246,-3.028739588385803,0.8673535121280107,-2.480088873299776,-2.3576617795384404,-0.3359161248931857,3.7238801901410909,0.3804173157095274,-2.1783035121379248,0.7055202100308451,1.303561228116057,-3.4137150335649188,3.587550056396518,0.8062625661559535,3.552692648842714,-2.3253431875697885,-0.5249045870400215,2.850204104268137,2.642977860037046,3.1739819531982249,3.2864212517046376,2.807007070110184,-2.22389839772434,-0.1937282020143145,0.8659529403611552,3.3821311882357829,-1.937246830055262,-3.852136995654952,3.8457649693964166,-0.5454285480672318,-1.7583190574961983,3.0895192288312547,2.457379820762978,0.49425227379552885,2.592786471162972,2.5685523169288464,-2.2824535063661877,1.48147243185708,0.5984062892850668,-0.2417548186504399,-0.07347725035933728,2.7090965716687425,-2.6054851844190045,-2.393473673523779,-2.404490734624096,-2.6005790677716078,-0.5144088785307126,1.0956658784478118,0.20106613204327673,1.2824915773591226,1.950852178962739,2.586774066071758,2.849293407764711,0.8750018143646239,-3.6683075597569214,-3.587285117933341,-0.7068830877058288,2.571093469884291,0.44252761892048478,-0.34864520991520667,-2.5444971308271127,-1.8658922454959238,-0.2176856040681654,-3.2146060327643184,1.3462127221668486,-3.8515194810101427,2.916724086547821,0.994991055745424,1.884980364401808,1.2030831476291324,0.5952302034146983,-3.5819287465853124,3.0408370122810028,-2.344809172489539,-0.9520444323066728,-1.8096194775752628,-1.199568675497732,-3.7944955346479345,-2.55486905182429,0.1169157636880156,0.7594778165807083,0.8561787742098987,-0.8227768502962365,-2.1331627326861044,-1.1008719542745063,1.247250191748635,0.4694180096629017,2.481119162090864,2.6920958120119797,-3.21824141516485,2.4318214306996719,-2.603031166081437,-3.010450296681543,3.939304502023459,-2.136552930954272,3.1613567247792568,-0.19278862277711096,3.3874978711357315,-2.4531773736948629,-1.7145763789785785,3.4145988286309745,-3.4370321609580749,1.064163667633335,-1.8437221834875482,2.4249264092273874,2.1795447703156114,1.9417554441096954,-1.6679159630058374,1.7573867819440246,0.4633379028386555,-3.531357283745052,-0.7983455564508697,-3.0180468013549257,1.7012316841796774,-0.8679675163908547,-1.422392319634563,2.7877262129125448,-1.4681150518631479,-0.3550682860830501,-0.915112526266106,1.4001723854805253,1.5658898874856764,1.4776285011220134,2.637627391335207,-2.755309602317827,0.21843336462130126,3.034594454219863,0.8800883923033531,-1.0041105675328249,-0.005641950840965526,-3.684655779254517,-1.6542454018630518,2.364172983204809,-1.5217529956213552,3.117141738839174,-3.799660789577744,-3.439346314538769,-3.3882287852334524,-1.8496534708248814,-0.9032744059971416,-0.09650299423787168,-3.995824480069814,-3.8082498275347467,3.6892267226415589,-1.1058125117606073,2.4204355874067104,0.513183093817001,3.9837535220425455,1.4960031824951879,2.6979872076805186,3.4228412222489368,0.4550486516652983,-1.742717204414703,-0.818620177262176,1.5289886577291352,-3.220553230076151,-1.5570912936630724,-0.001720741469487086,-2.4260463972431127,-1.7283188424269902,1.5330035248628003,3.2930436970110694,1.0978306225774813,2.0597304357194847,-3.6051658291130206,2.3192004963717549,3.4962618312231648,1.1658537435453838,0.21006824910959843,-2.156920164928713,1.063821454440859,-0.45158902495531985,-1.817159320989486,0.2539412540369401,1.950581184397266,3.233590804944064,0.3072890850158263,2.3881766718737884,0.3019647248947699,3.249335831264963,-3.974495508727089,-2.2654719785802088,-2.102523312519409,2.194255982745915,2.552976894185848,2.1240086874755326,3.067958307464828,2.049509538840425,-0.6432883366640567,-3.0811915288115045,-2.7408656537230939,-1.2328361657980554,1.2625260995515034,-0.11974696851821154,-0.9714131143448805,-2.8032336580056267,-3.1076526371085047,2.9550830500034817,1.4574104957789303,0.7696445049045355,-0.5820681026704919,2.2785602343727389,2.256311956982681,1.5074726344512018,3.027124356639842,3.4147549397964909,-2.861270239326476,1.5633866096800864,-2.4517755202930857,0.8702853871081047,-3.472623288773926,-1.446927235923047,1.8330859935180826,-1.7822157273992086,-3.6405384207585058,-0.6097413503078304,-1.6221229121899086,-2.2169343502632605,-1.25502494339805,3.4877755898498608,-1.015813636569993,1.076671262763556,-2.2870150727456837,0.5314730094387556,-2.0444591669760507,2.2208818306121547,-3.9186929747724577,1.093972843990036,-1.0411556080606115,3.3393425261561635,2.4825642700202614,-0.5223354188279645,0.7001126724783768,-1.59542457547148,-3.486474525828884,-3.4750807522942939,2.9826502462053785,-1.6910767796596185,-1.7381429489265914,-1.6236292509926378,-0.6732859637287474,-1.4238538805553043,-3.6845922390119885,3.6710881028271276,1.5094263079579485,2.7025571018211309,-3.0462413850437475,0.01610554319630708,1.0168337637778545,0.37115585982564527,-0.2791871220203055,-2.392833277023703,2.1104223568401796,-3.49185060717827,0.1593681103848228,1.3730427047120238,1.4900864498726306,-2.5852550725750715,1.1245117698322274,-1.557223649915394,-0.3963260143271965,-3.167309124065608,-2.3067637732112198,2.9149256684940596,0.34264020855347257,2.0963487780474638,-2.4444782967120934,-1.8535418679936227,-1.6945429530593559,-2.139661993825478,3.1927339399320564,-0.3234621965383828,-2.9495897331555369,-2.3593089965459956,0.924128808443867,2.9005698953181104,-3.4198983327678729,-3.0981342793236159,0.378688148260407,3.612923278185546,3.920640819737817,-3.8527132887541795,-1.8257512677724746,2.9942906485545919,-0.5829130951886166,-1.2772515286071578,1.9673972786445582,0.12011330888728278,-1.0393876830888436,0.4866492946712704,-1.124007969493757,0.9073983607494824,2.3232547747255367,0.30813691493331599,-2.115920260049049,-3.656756026948491,3.4476792551093276,-3.4028650148477137,1.334445690228808,-0.5469829437981935,2.0158841580436475,3.1611074038277504,-0.15137755066475035,1.644885832937728,2.804670621166272,-3.077952427125992,1.0259116613366768,3.4326807384939936,0.05695875313832932,-2.36763368967902,1.4030888531993782,-1.130796078708588,1.4599942041190888,0.9204047735607226,-2.042201381282614,-1.6543676944041226,-1.8534971234990854,-2.4051312229223,-0.7342256279944879,3.7218814432714337,2.38153164829476,-1.0920200392406292,-3.7558462926912314,3.61004049575398,3.4634008288418318,0.40683436762373229,3.6686345036857395,-1.3638958644486988,-0.1330907400594068,1.5809628211937544,-3.1972175785386858,-1.4382457552924602,3.2023459494519637,2.2560887435121774,2.32047183480599,3.0973958992986505,3.2385943654560176,0.5792208217698676,1.7374547548549267,-0.9329386732866176,1.9529945640864713,3.8549054772924675,-3.1948724217214297,3.0257429239362576,-3.8046741809721125,-0.7736155756927223,-1.761996421898897,-1.6289053660395352,-0.641947949988527,3.9388726729387546,-1.213569958653341,2.282655958694276,-3.2070188473391108,-0.04268405584012136,1.6650945563855624,-3.531401505024925,3.470082231472989,-2.6418116627353775,3.9554179570450165,1.827335062487311,0.9233561881895103,-0.2674260384999998,3.7793199213581296,-3.315668529880634,-0.9554051553403922,0.4545307171441628,3.0510416319726758,1.4825221379227909,-1.3699413247406947,3.49143300296703,3.586502718091926,-2.272331498529222,3.313098657005895,1.1763950530734376,-0.16089436288518067,-2.205718840907796,-2.4314731226152705,-1.7927263455850418,-2.5918412833027526,0.7166477129157931,-3.4909805940705578,-3.617627036388914,-3.6339580311465919,-1.803132193044223,-0.6773691605742351,1.3430975295296133,-3.541523666143206,0.770732191351029,1.1587392317723638,0.10554412298877925,-1.000276865564821,-1.5183154013653387,-0.7515292842461934,-1.853374998467988,-3.9501595544156125,3.7142822893863389,3.580719349677775,-3.6120409696720445,1.446560581165972,1.5921970817631408,3.7953117447447575,-1.401581357304128,-3.2451520825131618,-2.511131955661577,-0.48617835450660876,3.4603965860770069,-1.7397501227786075,-0.9136218032966932,-2.272212755224036,-0.9777050772619838,-3.6033617873052297,-0.7135393495283184,1.3280735851555719,0.9337608305053466,2.43621534370149,-1.1121437661824763,3.2857508406699305,2.7942253013347466,2.0067949930493045,1.0286486513023974,-2.8159893013169805,1.1571828924268326,-0.2550574979326914,-2.9415180871881434,-0.24795693891972182,2.4933558221089227,-3.8158541221677719,-0.44417339689476678,3.2707086809529128,-2.29878403056164,-0.3465145818975497,3.0145862971145487,-3.281164258348066,3.95918011356956,2.3290905157567778,3.0147886390037605,2.631668341926491,-3.865064256909327,-1.3545457353016995,-0.7827290900681216,3.1480350153919769,-3.494380897633042,3.5431465381520406,-0.5984529928609579,1.5966468914201464,-2.983362048628787,-1.7525867879809312,-1.8762451227545277,-1.5865371455224918,0.8592282454551192,-1.2149230788412134,-3.8133708476885515,3.007359821222554,2.3451988571324087,0.046786754766673158,-0.26827676750855025,2.007601164421704,-1.4048082108193417,-1.6036240805006817,-2.1236747072183759,-3.968842219399251,-1.643278424944777,3.784215519722907,-3.724060944376003,3.718041651121899,0.07907016435834713,3.859286983932816,0.5213022754010837,-1.046148577740263,0.043828057321175787,2.783782219893749,0.34119009969930139,0.11916544924609252,3.1406276973878137,-2.9429011129018889,-2.898137758816312,-2.4800964460285295,-0.6783987194867711,-3.776670382991804,1.5264855272686769,-1.8104615314706847,3.023262565807376,-0.29901475330149576,3.130722084535348,2.8073438132042849,-0.16162726955575924,-1.587565173107965,3.7363252142448228,-2.335182531854163,0.5885302077419707,-3.4665467737318398,2.690052557680751,0.49094301273714616,-1.203153009203726,3.074757105487916,-1.0308492076565943,0.5235553242554767,-1.2504655425346485,1.5347035034061714,-0.4733736478362809,0.8050846039553825,-0.26674509895639156,0.4902951155502553,-3.1865392686625819,1.8551465053493122,-1.6866785903037725,0.19660210085138719,-2.490277326789882,-3.9411604446995138,2.3610128209840237,-3.4622819866603349,2.6521229252269569,-3.1800333830312086,3.7023329548541206,2.1612935459346556,0.8274251997074806,1.258811681608611,3.897554446346402,-1.9901949467392386,0.1052171268322395,-0.23158331103194186,-1.8203372778743914,-2.894794058726599,-0.9254509117716891,0.4616996249625842,0.8639673844658002,-0.3466606623331894,-0.5973106838827087,0.7848559930273709,-1.7206291631673454,-0.5054696937608307,1.4905520281110683,1.9001054749755265,2.2528953658734744,-1.2009255753638649,2.033329880191829,3.1334865882795936,3.3884652662389138,1.7322986305514956,-3.6785176659894756,2.8935761830360446,-3.323381155226741,1.4590272739996575,-1.6389464398431884,-1.712390863427997,2.5411198076031455,-3.7381928410797959,0.0720480290189327,2.0023290714770098,-1.5487255195902388,0.9170667397447812,1.0187377506642,-3.6799377209912755,2.670337815032946,2.7220898213356419,-1.0219934858524376,-0.8292955329701692,-2.9740961200235445,-0.5365138166912882,-2.6734366394058,-1.196576266736166,-1.339485703243466,-0.6815213907439828,2.236023846582772,1.886019101609695,-0.7683986281114112,1.3109752218712619,2.270715964257194,-2.8690349776285108,-2.084130678351676,-2.6228512816540405,-3.050630263484881,-1.7300549875768854,-0.07021845671053928,-0.8555539148260705,-2.1838989449874957,-2.8532192513900389,3.904391547099433,0.16685152202507148,1.1483088555139994,-1.1193931152316559,1.1921504777653534,-1.5003472292328016,-2.666091400223391,0.7912857230822503,-0.855018453189035,1.1777065899295183,-3.776908392917205,-0.06957006812643463,0.7637944973975923,-3.3568207008119046,-2.4401239715780305,-3.2886804679533778,-1.3875362305217432,-3.833223223453957,-0.4191274947053356,-0.14066548825305426,-2.700770345180329,0.7257330736252721,2.084369436554133,-0.7132917116706015,1.0075391220562109,0.47418347917651629,-2.708741251769294,-3.538180430224723,3.118304950203501,-1.0953646326711653,2.7966328451650614,-0.8034932487291657,0.5047502084637534,-3.07482362270674,2.5198056387606408,-2.5316536351825524,-1.3251505900310379,-2.0548215416136559,1.2272243025319983,-3.709062274680724,-3.1695732380294077,2.286304987025254,0.2534285343369618,1.0381278349698749,2.231557112045934,1.87663998406651,-2.33491659664021,2.9743480913706739,1.155707103034767,-1.0966222199279233,3.287413053149976,1.53468216831188,-0.9230912904327739,-2.08150364331366,0.558504625031361,0.42413797123024468,3.2901139147860087,2.951274043116446,0.34048214776581,-0.7765540738457748,3.848669842907965,-1.365277723404767,2.794447998652836,1.1285669384345019,-0.8868494547887043,-2.0722988850055588,0.913317184539503,0.21977492444527248,-3.4293278460346716,-1.616083029139128,-3.1617523721087394,-2.711826144283612,-3.7567614885495077,-2.478975380711116,1.6475798224400489,0.856824313692031,1.1214009585074925,-1.2728599939618766,0.7937546950047505,-2.0344137882325059,-1.6371090299323035,3.703562049203186,2.557880396367991,-2.9136689657455454,-2.7777360661089389,-2.8093031775492589,3.841132856786664,3.5302408574235928,-0.07129730208725782,-1.29031713151563,2.15236782137758,-0.7719800077013135,0.9716939053744493,-3.543410782937441,-2.9188373916987979,0.2233260562353463,3.5495958860081684,-3.130681107734514,2.5748144464730204,2.283399634484347,-2.568638579950301,-2.0616473981901848,-0.5101078377702832,3.98611790123807,-3.94621831858007,-3.685323648850437,0.10799994425087789,-0.36843586171104017,3.342007639223814,-1.6279046461922263,-1.7139204846869183,-1.1163517379389097,2.0463847461682169,2.1140112597625979,-1.2308279272506922,2.0264327834467057,1.1127785510258983,2.437833682218841,2.242287615567947,-0.22612530881604776,-0.9390972234346968,-2.894901686657204,-2.8508915628339528,-3.889285549745038,-0.494642145884737,0.4767137365442844,2.327496411950496,3.101221766281827,0.184461646081151,-1.8270961195355505,-1.4852839974473895,3.0550757161139394,-1.0398821724333572,-3.3905048686562777,0.297834034260247,2.3474706751701008,0.6568478817098358,0.77926664534405,1.5408365799977793,-0.9112415986866667,3.8759550304121008,-1.4899921081130892,3.114083922292168,1.5201927172672694,3.0706126254725074,-2.4561595871999906,-2.7385334583664786,-2.2791670814439044,-0.9077715949501923,-1.5139764417782174,3.1581248906236327,-2.009087142400298,3.1785133880778666,0.18193365999383816,0.5465977894817531,3.8401829286126718,2.0262104323402374,-2.1920574946348809,-2.987862656626797,3.09928733675328,2.9736356128252714,-3.224822046625267,3.980381579294745,-1.4014979006999154,-1.1277372331412155,-3.316078340150809,-2.3858146641494359,3.238360938558503,-0.019415233792770438,3.9488447753734068,-0.9297515813805541,1.3011068716284067,-3.635176613229425,-3.2229017123152987,-2.276370969603728,-2.690195222553311,3.739626727551296,2.693305076816653,-0.2485907683993689,-1.333365798689968,1.1868264550477888,-0.03786628539590531,-0.910887677222985,3.2010898406895116,2.815505718351136,-3.8238809049951687,2.4706351621358806,3.446077663188116,0.1753829310551529,0.03964630190087792,-1.2019173742267986,0.6887200666803022,3.9926818182298566,2.4519772688059797,-3.531146895234265,-1.0697565395398563,-0.8945151058170462,3.369482880239877,-2.8238322798303647,1.1228539917263057,3.948809430991642,-3.432986764548793,-2.256873722875331,-2.0756136883241877,-1.3052737721946104,-1.1187656754768829,0.9874552037748385,2.3765895420990965,-0.83740355302041,-3.431668889156379,0.6885449020491077,0.4068570841883723,3.7070742380349186,-0.08018013088398846,2.466868499085095,0.8288088165830336,-1.46892066742047,2.166921362435642,2.7395827830270464,1.5984545321640802,0.6780517849942518,-3.468903085010097,-3.1085331690413158,0.6936980021354158,3.300982356773809,-2.66531047724939,-1.7065625118494464,2.4216790033011508,-3.565839996197967,-1.2260549369730596,-2.795089146502595,2.2575331978167565,2.1053335834226187,2.328241431647914,-2.3440615290932049,-2.5075319194155396,-1.7665712543409598,2.7404319128235787,-0.10767443628035345,3.0845082609826965,3.9881386824092335,0.8227755668588355,1.903174069939352,0.3313392401810642,-3.4535967488940875,-1.3343359630012318,2.689865001488201,-0.06486377735157611,0.0906955207918605,-2.494160614890048,0.4713224696985163,2.988511401465602,1.3712082366079939,1.7900881884205316,2.9974391025717228,-0.07167133316675512,2.5293846768714216,1.1882087465788152,-1.2502330765724397,-1.9135514882330709,2.686932170125382,-1.567460500495593,-0.7100761604233696,3.663756360141293,-2.369252018967008,-0.975309177876504,3.8373865810261478,-2.1511188733943076,3.3502122404140417,-3.0430879912086628,-1.1596840113165526,0.36142814270157866,1.4325795394570334,2.3777972477893716,3.1514578809313065,2.0547838020099338,0.9300711368301906,-2.506949014068999,-3.0153510664493146,2.9255627727306576,0.867224206734428,0.5209454023511064,-2.710531493617472,-2.6527333922092479,-1.1873212956339945,1.4223025437019353,-1.5527388362497936,-1.8430618340563197,-1.3469855731538445,-0.6459272749662537,-2.867612864630593,-0.4196482812339275,2.5267956841004119,-0.9112759904040919,1.475555045167292,-2.771628144132997,0.7781223452959898,-3.8903479911020417,0.41477853527340616,2.318805682624898,1.7615370077131188,-0.16407160970991997,2.2447506953000246,3.0568484332883916,0.9986374967508693,0.9121439026431224,1.2852974015472372,1.8965031748434714,-0.5825152161368032,3.7291765240406509,-1.0967885832742308,0.3027141422304398,-3.6251805999060586,1.6243326716005307,1.9765732919015733,3.1393204894685464,-1.920997383847798,0.5470639984056183,2.388338891043743,1.2845001953353546,-0.6623003273940205,-1.1496364001279338,-3.3620672936220377,3.609893963745738,-3.2060432112440537,1.5105435204846592,1.8486413557335233,3.3605009805700085,-3.8683912706737519,3.754729260623159,-0.004657257805399162,-2.8323627447750745,-3.9561508088774088,-1.2367789953753213,0.7933895685311105,-2.6337880845240617,1.8722929329576089,-1.0352304434831812,2.019320970129269,3.345418999663594,-3.3672446458629317,0.7757630459482776,-3.411584792409485,-2.1860827197721797,1.9905949468010525,-0.2741680287753212,-3.226323241630853,-2.655630319605498,2.842671986599628,1.7116898256212859,-1.9391645119763992,-1.3006413251779708,3.1799687096392175,2.484135893261209,3.125452712970441,-3.176503629190517,2.591378964815977,0.5719047406356532,-1.2485431155884739,0.328178815207667,-1.5095080913025146,-0.3134011192427322,3.693741842370044,2.78751394211535,2.1690522937227687,3.961698066563023,-2.5973327073422824,0.41674009780520829,-2.2591187353955739,-0.5223878451208348,1.492936427662074,1.5885347193993367,-0.5899709723847815,2.181510101971633,0.670231274774947,-0.6310714585471535,-3.055198286070673,-0.24847115055543957,-3.6090826879181119,3.224045180910184,-3.2331639434159999,-1.0224635394190518,1.4492899235630832,2.2425531658997519,-2.4342115131487889,1.4383134943889325,-1.8691918817424347,-1.5274386437468382,-1.3427121739900346,-0.021963756668218927,-0.512223591536239,2.6648041885922639,0.8669771576254783,3.8414481246201186,3.2239234380537455,1.4916917663579304,2.261476337140694,-1.682271822708481,-2.447020618965489,1.1869631791509603,-1.9322537782778436,3.845550430323044,-0.253669207603924,0.18630017748991979,-0.45594877871851127,3.931974768429832,-2.3399005416447959,1.655787485141487,-0.929085587531632,1.832462057418133,1.4508032440682178,3.423346542716084,-1.757550458810304,0.5625174629112042,-0.16905488911752165,1.9527764123872525,0.9191276456992306,2.25487281975216,1.2679981096897209,-0.82283325906419,1.732736268379444,1.5584078697936806,-3.8494389314576944,2.460878366247032,-1.2718730234284639,-3.420652584381039,-1.266857901219474,-2.5937831623512279,-0.2567949496623223,-0.5229663545632839,-1.8532253557866785,-1.156353589795437,2.813751468581663,2.163465458037246,0.7430451533229467,-1.633092475166807,3.690792565409579,-2.25147555818417,-0.43860666191698707,2.4842464319736266,-0.22226070339218774,3.4245831420314598,-2.8052729591912737,3.3341763741732048,0.011833170095042256,0.6111656553530676,-1.0272244670355198,2.256815623364929,1.1641325994267425,-0.06948197864274319,-2.261469572742329,3.014239957366711,2.776787127294357,-2.708254168704814,-3.09158110450898,0.14756450224880969,-1.4897904147587602,0.9779450120760442,-3.236809241722246,-1.195481030619315,-1.2245692641337618,2.8877088973348608,-2.457634864724324,3.0454754338220155,1.0137750254181706,3.867710837363483,-0.9382011648430806,-3.282999517835182,0.6764520275173309,-0.5274858642476483,-0.6994810246318108,-3.6641727785552256,2.12395097427813,-2.8387608577593514,-3.50804663693288,3.113907579898954,-3.722455682548506,1.3137900442679245,1.6055192559953416,0.9310893534196687,-0.9671380093499442,-1.328509833539158,3.440071254842607,1.613990094864599,0.8591397503334575,-1.225423626885954,-1.819265897833409,-0.6998065911292661,1.8209187280352577,2.6088502193971507,0.9780863398534709,0.06013815120347932,-3.251411670817756,1.9865794076055404,-1.6950883208617194,-0.32387574435547075,2.261274888292168,-2.6056436018887867,2.3729990538454599,3.998544373512722,1.1163116488902488,1.627561230800481,-2.3547007220059905,-3.3080062267019745,-0.23563064978661808,3.8795887278274847,-0.8793411676582943,1.6883151482744295,2.1489666610224669,3.5597571073415947,3.2402089658450006,3.451247776521294,2.4035040553967397,2.461870923896189,0.7407260328741083,1.0576410847064235,-2.8216773977419509,-3.9217151894569728,-2.811676688912959,-1.1117282905638737,2.7009949899212328,2.0251976497318839,0.3414801364219242,1.8960977547328045,-1.7871286481856244,3.6795638305824829,3.8339644846903235,3.9849029047693156,1.2125549722078058,0.3160087324025085,0.34866734813293479,-3.540227864196585,3.193833596728548,0.6347227231397188,-3.9126487868724499,3.4432370070617015,-2.4867250969150325,3.190906924376309,-3.2831181892928766,-1.2559228246408374,1.6918818921511543,-1.7253923366670519,-3.8227890257432115,-3.230538828836611,2.8697536043196738,-2.424354409676244,-3.811960136335288,3.694956931429341,1.6909353850196052,-1.1912378811912694,-3.675608793540394,0.8107543102343362,-2.756195811548684,-0.7653577916603167,-0.849213378738739,2.006979700165452,-2.718110369935686,0.13764544465132023,-3.939169205905504,-0.6102512878743172,-1.9286179428671862,3.360575616315707,2.2644094039544875,2.2527123236638015,2.371363685345738,-3.1415255666795707,-0.9705363117972974,-0.461146690868697,-1.1693696784940802,0.9692831229869849,-1.5951046397555465,-0.7527120304388353,-3.348151463523588,0.46726086458688789,-0.909470474310826,3.0935936883394348,1.4701267398841918,0.7463155408296505,1.3422692205472267,2.6095568419183214,-0.415439915447507,-3.406657023942434,0.21739546533253674,0.1838851577761682,2.1123521614853137,2.394422846638795,3.1374133431671238,2.2336347456157386,-2.668051494890218,2.814102855281087,-2.6005966665302626,2.90698175991641,1.4336504861884834,-2.8803530561824948,3.181871332079532,-1.8399304766822918,-1.237035710132808,3.0544987338647129,-1.032918926414876,1.44363045305401,1.2840989115903244,2.296533700104418,1.3268071743672519,-1.6235888067995515,3.9292488768950415,1.930277821141341,0.049961483688189648,-1.979736070996906,2.3448289125521786,-0.9543773165582665,1.9925740444038498,0.4765340926389596,-1.138293386143815,1.8224781131266746,-2.452308391351628,-1.0520979352638698,3.526849639591684,0.47731748801375409,2.9895268687825187,-2.597583970639354,3.190037130404434,-1.5970700283502935,1.3781206691811719,1.290033577011588,3.8870052041308558,-1.9775926488537919,0.9779785963718144,3.143327761517905,3.746858235657064,0.2926913411029126,2.005773033692968,-3.774473899211303,2.3611620563980635,3.833067914838738,1.4863907572526678,-1.4047395028742587,-1.6217275799657516,2.6082654442832595,-2.2652012635115428,-0.6894515583481766,-2.7568024931184587,0.4512459946873699,1.0747498041120114,-3.58907454107604,-0.921617843539998,2.240150722356767,0.2003646314371359,-3.5984569424560339,-3.698579956352294,-2.9525731147839648,-1.4944462269427819,-1.885245266463726,-0.5886334048131285,1.8904660597716597,-2.0506447558718179,-2.7453004936531215,-3.34609802089365,-3.279169031421689,-2.3756075193868,0.8649564392103173,-0.9854563937979035,0.11208244541187274,-2.448465418871092,0.6308770864323661,-0.19329136103419487,-3.418768202901985,2.510355707257756,-0.7332482889873973,-2.000170533373078,0.5558298173295944,3.520731173093113,1.2603956864075672,-0.7872180252978536,2.2144321125694654,-3.590282922222525,-1.2623486985722695,-1.5511737591385713,-2.835627585539826,-2.796658765575101,-2.4503444801692817,3.097350664455514,-2.007903444471749,1.0228030638490165,1.096462607989685,1.64748496630716,-0.42097424749978265,0.18528687085097673,1.1872406200369819,2.613086243938608,2.1716414076488199,1.8796985331087859,1.2726473573982098,2.44914159442399,3.794028642455209,1.2636343039328475,-1.15245463361508,2.855142471391705,1.196050128689751,-3.105317830584079,-0.667450336554847,-3.104473751768823,2.719961423429231,-2.736251116021217,-3.041952073781668,-0.05300222774159735,0.022224091434863703,-1.546918237569763,-3.938310004190577,1.9603856562180396,3.857625918152486,-1.718781419352686,0.32138819029632606,2.902388243448102,-3.206235413547925,-1.024563588600753,0.21141472630162373,-0.7753871959667682,2.756622585265279,3.9587714787207766,3.251640012366738,-1.5890508195526126,2.7700709170995907,-3.1084262482317719,2.7114806391139165,-2.8251467309407,-3.8182577659734138,-0.7056126559820812,-3.6587138146744078,-2.5549695574122346,0.1802652027836693,-1.2552177056948269,-2.0986903125729929,2.220715048913644,3.1049959706723468,-3.866295487328437,1.3571685585887963,1.4450219786258308,3.5577481789104814,0.9005913307444766,-0.5513485168154597,1.5721480225898912,-1.9677307698606495,3.102148430119936,-3.8393077774545549,0.17197157031285038,-0.10841489301476792,-1.612439597923126,-1.6785996072155723,2.279068555257462,-3.1887864555150777,-1.1197959995433407,2.4158255490504008,-2.487480778774163,3.4563079354965975,-3.525727059733807,0.3205453971019896,1.20955929566305,-0.8605896138050027,-3.9900564960854698,0.09773522988197936,-1.595941009087297,-0.5947514458966123,2.9095893525132645,-2.4104507365925427,0.2609128924376831,-2.99229356787038,-3.750190457724031,-0.13363672055998267,0.7192254355771937,2.0676854458774924,-1.5332107169339473,1.9031866062982533,1.400777613204312,-3.0278009886543968,-1.172257216722052,-1.3745633798515654,-0.9934011336573283,-0.24563949911748729,-2.9063532633398596,3.64730536373163,0.2996133537092307,3.8913070724617677,2.740860245778146,-3.5959855934942777,-3.3780978298147357,-3.063171337305606,-0.34271159717964197,-3.1073538698261409,3.843910027971285,-1.5070265093474349,-2.0184392987535446,0.040844750275114808,-2.6768225437223505,1.395061794877983,1.1432835577566048,-0.6562169295168963,-0.11571155387653875,2.2433078315175747,1.9062070468873627,0.8309307419351457,1.889782590427921,3.2407955599514146,-2.984921245923042,0.24179547363259513,-1.8068614447014667,-0.027810868152336134,-2.0907481622445998,-2.0021570207231269,1.6444134732021763,-2.1363064753129308,-3.8211554878672358,-2.6566816125154268,-2.8228298425581865,2.516754135556824,-3.8763027745271447,1.7719092402363144,-3.9352700874577088,3.4036297532797059,3.635365012860837,-2.9849284126427717,-3.7723894028502755,0.701515780218954,-3.5732322587051188,3.4592005693101939,-2.900825732515247,-3.5998406817269146,0.783957482812224,-3.158032016221367,-3.0296391099152,-0.425752265283297,2.5842626856307309,-1.1622742065763173,1.225128900777916,-1.1266157957725514,-2.9431632702221126,3.5975071990352829,-0.36302073707073237,-3.030071024498735,-2.8060688214279176,-2.745337649655111,0.988325839207973,-1.599743042212829,3.628367559718904,3.5824171485947255,0.09096986758726189,-0.27565919704132449,-0.8043446138042258,1.0837961113618154,2.043657105407717,3.6249216189667798,1.5331701079432936,-1.9259833351810106,0.06525645605031905,-0.41855470949197817,2.6882049918980508,-1.832871981355382,-3.2180508207302829,-3.333984546495712,-1.8680737704366637,0.4749667345255357,-0.38622408705901969,3.6038055194852758,-2.388788379901178,3.0667861875456445,-1.7507929428847904,2.434555002690572,1.0921816080998275,1.5490761154184228,1.7781197643157869,0.09166818094720597,1.7468787759259348,-0.04855279854333561,0.540653874554641,3.9541085371830579,-0.5994930110678416,-1.8797884503625045,3.455941009042701,0.45427745234877206,1.4223394785756672,-2.352749410729171,-1.4911656346970599,1.8880090250564026,-1.6314969237144366,-2.899330520412236,-3.682303428015632,-0.6197790539340069,1.2998617847686456,-2.0841819885454226,-2.7535069046760887,2.2655760702878888,-1.2168746793716745,3.2720991331767754,0.7995109007755987,3.6466927294098667,3.9706339481625054,-0.8741026528745062,-1.3746481602894834,2.7077398876330758,-2.453946769985051,2.2583999947739894,-3.5826429181073085,2.4116735066513437,-2.5004310317216218,-0.7491330133191829,-2.3200843883917354,-1.431576348681002,3.5526967258846486,0.3242437795313995,-2.608355322993745,1.6401413831824892,-2.013540380054044,-1.250858238662152,2.9414665574269325,3.9489619382274396,-1.5714822030277383,-2.5934309131208934,0.7889626964582881,-1.7229691845320654,1.7473927385209259,3.0347878047677314,1.81373681695705,0.0036835067120639666,1.18505713778017,-3.9503440288769919,1.1468930124578183,2.8519382693059516,-1.0049352208921112,3.647634053806385,3.247975095012456,3.616572407887208,3.580478612560385,-2.7427175125091436,2.2925550059643307,-3.025110963612166,0.8709356794484453,-2.5601466921546986,-0.7731556100957393,-1.8105367979541365,0.3783870237304674,3.5551167255549585,1.9785365956363635,2.8938630165138408,0.6684182538192678,-2.200451307880283,-1.464906505257157,-3.018234775865772,0.6831510708356454,2.9162485770257158,0.15574429347339525,0.8589031861352838,-0.8955044619998029,-2.968337002685047,3.343659987124532,-3.2343743570994896,0.9275929293642822,-1.9992643397700383,-2.561242786694911,1.3748992194263635,2.772196368138416,0.23739717041339504,-3.4804387223068327,-3.275360652544789,-3.0896442907786145,-3.995767726060878,1.5638413409862909,3.8327837681745677,-3.1091569068865638,2.309978978034075,-0.46897934243529329,-3.154389273573379,-0.6524527817244044,2.5500130886966447,1.0515054629219086,2.160665113605444,3.9902382576944159,-3.9760333414473836,-1.226815648571163,3.807184386053204,2.874423879899698,-2.288627401519486,2.4100333997105869,-0.09488086609707502,0.007633314006854519,1.7319676412121599,2.6853529932833988,3.1548532179135915,1.1841780619951586,-2.051203677010183,-2.986861381842372,3.8338698577945689,2.5718531549630354,3.651351576306814,-1.134982016435858,-0.9143614152688124,0.5277734433500996,-0.4892535595463199,0.03932686852273193,0.5052433756290924,1.7558757324219095,3.5964927893083695,-1.510068404488746,1.1183923568730503,-0.5719996759723818,0.24410297129459924,-3.6940255749717716,-2.2448940033126787,-0.4271372265722819,2.381891843910858,2.442673355768954,-0.7688202809740696,0.6012290233906859,-0.22299813655767787,-2.7203395113471204,-3.0659033884653779,1.0529360690685304,-3.16940163385362,1.9912626451931939,-1.0745054037926272,-0.48089626852547698,-1.8852869848851024,0.7740893044334882,2.4554541480615788,0.5322681253629762,1.7801887229387008,2.4399026952076285,-2.7117070218765466,-0.9000778726669116,1.674534639291056,2.832687490779877,2.280086487583606,-2.682600870428124,2.992063016545382,3.9824516832588365,-1.9648223790749405,1.9470055804058735,2.7175161669138916,1.3707332001681483,3.8671615465828417,-0.09104235376358383,1.6705167293640245,0.5443329329493087,2.3193783927165949,-1.0673881158136159,3.1155115595595275,0.41982677743550936,3.5318835336083396,2.637662852851581,-1.2054950453285079,0.012826899194002373,2.6504605446295308,1.10056444098944,3.173346842514632,3.062088464812427,-0.6287970612333789,-0.9032171220256637,2.3484304427894919,-1.011802112022588,-0.07569224136318731,-2.148411154335192,-1.3056775103921099,2.077254881373662,-3.8299802949510957,2.9953471822492219,3.745620791200019,3.4982279982927118,-2.061707940305719,0.11599709037388628,-2.1990454238678236,-1.5876845023453863,2.832770167906541,-2.8011677243769208,-2.6490435432193708,-2.1916325124249829,2.957371278405442,-2.696161683741649,0.6268478367469035,0.3506939504046205,-1.6733852631575986,-3.1946163361982915,-2.3009959818436629,0.5260004273305725,0.8672515520335491,-3.620471562674397,-2.208985813541502,0.21561525992174514,-2.8164677812591067,0.09474174620766274,-3.0259518280100456,2.0174580706846,-1.1684812813219432,3.6673846662756057,-0.40568920313146408,-3.549604046113079,2.5674815960886647,-1.1303716708293446,-1.1614610645472965,2.599247325355339,-2.875838821058621,-3.1432757467043235,3.798982097797425,0.36118046221775748,-3.6852359526838409,-1.920123529575985,2.271215416684619,3.8996548605950407,1.1115124961144343,2.157945745996283,0.3922844357351183,-1.625987825199404,3.5701825879698898,2.4710131485687238,-2.572792749471459,2.2013879338576824,-2.4024208229357679,1.619081364920537,2.0575291466851084,-1.4346699111401867,-0.33100436879146147,0.5519398593746798,2.70260760535181,1.9487852696480089,0.9631421471649766,-2.8964005824228185,0.3647883070684852,3.0067467235545735,-0.46509089919325477,-2.642387741160256,3.293240090185268,-2.0641928114822587,-2.5361953550504738,2.3374389314372046,-1.65917786459455,0.19483800870439617,0.3091297507774815,2.843958592903732,1.9016568587475656,-3.348275152345715,-3.0595444707984464,-1.1681605606270119,-2.3172114898660247,0.08945301863544764,3.1380605687293405,-2.419054808787383,1.267813831562016,-3.3803772041825139,-0.7965030307077698,-0.5092233928060583,1.1472182360984747,-0.6842154941067877,-2.18451717377265,-1.8411050738704729,-3.1928283313813248,1.0454849561745788,-2.451417714178037,-2.3317576222817495,0.8942391449182825,-1.1578370109343697,0.07668802761873295,0.3339349837800336,-1.12246271721581,-3.3418975906796666,-1.531952845345893,0.2208640228437453,1.1344484206730457,-2.4796461142934644,-2.035071114600713,0.16461399964504065,3.1789947063690606,-2.490676904362288,2.674829682294517,-3.0980790450752986,0.2538212642483284,2.948982529481299,-3.7355096762551938,-0.7895157959878072,-0.42846300849424159,2.4186466204910488,-3.9674880077269005,2.1763608083984185,3.757443778350205,0.33934040938562495,0.7083651622585254,2.779995322826406,-1.9854592907144362,-0.17727246165913169,3.7180596310895295,-3.677111614677604,2.8926958203356367,0.23882238704542137,-1.4262912579686609,-0.29799073327747097,-2.463801940758822,1.6520467824415813,-2.5487531742665148,2.815771012798657,-1.722494111673525,-3.2441855500346934,-0.8066380645306284,2.3272224701939105,-2.500204312264719,-3.2513569455884747,1.7788361714811619,-3.6658570138662478,-1.4999615854269646,2.4146749867441459,-0.16186555418794613,2.737134583628632,3.026079122348529,-0.4266609337691454,-1.7491757254698577,-3.327278967820318,1.9432436252071606,1.8520943130600474,1.3938186585517914,-3.1171033825393126,1.5360841940794945,-1.2659725065733767,-2.0754233040426257,0.09067056009056618,0.599407385478365,-2.2901392286360435,-2.448975440160739,2.8183285354582106,-2.9762333986516378,-3.633639046153787,1.641447358170785,-2.001168403447341,1.743228256693933,-1.8508379320543594,2.11342948715082,0.34358635378234139,-1.2673155389640299,2.5322279810281218,1.409764102315565,0.8011765862774682,-1.6205364799765326,1.3071157662379785,-0.8171374058912129,2.678558384371394,-1.9310679670857883,-3.1168842516861199,-3.138731440708063,-2.1511310561548919,-3.0748829837415547,-2.291700590417374,2.6131917719242345,0.09325684575157922,2.442774562760218,3.191525682004176,-2.9149015131334119,1.8247842698624038,2.5512606697012289,2.9538615189180179,2.3643373857426814,-2.0953245823716388,-2.2939670263598126,-0.902875523211289,3.778854999740587,-0.8623938399106417,2.4415732851776497,3.9872534350437744,-1.8313166426401433,-0.6092498248253973,0.0800502125918543,-0.1988519079118254,-1.7576849739330387,2.417921180107844,-0.605259750307308,-1.0969783280352473,2.108008301627182,0.9586596045192675,3.3200342119055046,0.5657908833083107,-2.1621578195211059,2.5957212307901944,3.4216941107828564,-3.7423257801734826,0.12745161801235839,-1.3153802736076459,0.6959630422004359,1.1891901645053747,3.986696995531136,2.3384369951402839,-2.366218170595366,-2.098299426333071,-0.18247396413743822,0.014625571478286581,1.7467296317062493,2.4090164713962709,-3.053211339070045,-0.19640635608923774,-0.06807044759553183,2.989147352037808,2.8769531371140308,3.6363611532261448,-0.546414804338065,2.188661839386117,-3.465477411662828,-3.261809391709116,-1.6140511871152444,-0.12681904475802953,1.2367094443216207,2.7123145242347368,3.4912428128439076,-1.546057829267854,1.947034023717353,0.22568143872347247,-2.2753069242369508,1.8917092799883744,-1.9181489900540366,1.8157006724607019,3.0339432874844638,1.69935218514071,1.4483720019298315,-2.324759823412574,-0.16279032196597344,0.44735750514678065,-1.7590683068064035,1.282365600837811,-2.2602493313054028,0.5626606408815995,0.3331384313888206,2.452266975255113,0.9297576254552897,2.037552664030251,-0.42282235835082307,-1.257588747696178,-3.0508396214990984,-3.9477599856873626,-0.8151441298106468,3.82079595136498,0.1408329950080658,0.8561944063792204,-0.38354512498499307,2.6655556840453595,-0.0813469179624422,-0.5374705053288251,3.1082641814524889,0.7935985259671821,-2.767818347408179,1.4127898156163586,-0.38686348576477616,1.432933291229281,-1.1458100399236176,0.13343277348506089,3.5755077663317875,0.8307790005961389,-0.5866880553366185,2.036404127645869,1.4178187232703224,-2.4023002165363955,-0.5272027785147984,3.040795272141243,2.9816618881843786,-1.3205087230259816,3.5855678338959979,-3.3182601478173856,-1.0712450360088187,-1.061235915663916,2.5709670328309874,0.9640555559099804,0.6763016917941052,3.1661959088593294,-2.0325449255756524,1.0023579990371304,1.6760608121576013,3.698019399414888,-1.940588821109701,-3.4785693476133607,-1.0996800029698173,0.49144208339187048,2.898267673531529,1.049247464724096,-0.8831029576929572,3.8928923291786114,-0.6713856844383228,-0.6265158403359552,0.6459778082403185,-2.8656513830419536,1.883464444999655,3.3127864277022436,-1.9632357303123094,-0.7654414367710318,1.469987304712955,0.5542690943919668,-3.9840423455128946,-1.2366773802985778,1.6266093241194418,-0.9261462183660993,0.776722363416817,2.4265423648447834,-0.8052343423186892,2.285015122465026,1.5652663823527258,0.8907153979994167,-3.371618865758381,-2.978316090468688,2.320213333391795,1.6032688808507195,1.4976510102117376,0.012603112074211609,-1.2408791663123645,2.7319750655382517,-3.460347376579655,2.500498994793981,3.2291049339022885,-3.3738011794554438,1.165798027669914,-1.8296379232869776,1.6054587013772386,2.0043978216745046,1.4827910276792702,2.541611473552984,1.4284875745059847,0.07625678501677591,3.8312940041862815,2.267232850954655,-2.4445779867831396,-2.4856086923899287,-0.29342154610436657,0.27379225939660847,-1.357927267714726,-0.5341547548108034,-2.882018681323143,1.8026039628694326,0.38987704166561967,0.5066793217742838,2.781356456249089,3.975472704251689,2.563176739228889,3.9813747976704434,3.9128827187397565,-2.9230751577964977,-0.6908346983223697,-0.1817220606709995,-1.4217140731667966,2.124345413201943,-0.40045309070712267,-0.1738566489475719,-2.7264014677318384,3.7948494468827027,-3.915671811942846,1.4348256710914918,-2.2041026780476598,-3.9686948772216894,0.964989909510761,-1.6472819727832027,-2.3822610076081158,1.749524790397789,2.42281056022156,0.5406346023897548,2.142785370111227,-2.579344063671245,-1.2684740517075613,-2.558218365662543,1.483115636521351,0.19554287653802406,-2.1145188728799946,0.9475723646178418,-1.7497430053838874,-2.5327392713581897,1.3134482211770476,3.4908770061939187,-3.2480985096124188,-3.5989317884545954,0.7909778615019176,-2.825232555766414,-0.44768892328475676,-1.5834746011996482,0.9480730653123706,1.3168804172180222,0.6154351312436575,-3.653029296372246,-3.9803942090946888,-2.2900680548120464,-0.7722343822140516,-1.110334667423009,1.5615946868138675,-0.11985220354339865,-2.7375112820364526,-2.6018178145936448,3.617627229354216,-3.7916222592920878,0.7377980051771349,0.2575676371620723,3.355255399176091,0.5201962804669016,-2.4189896571499984,-2.677306638578308,3.4426111025173409,-1.558699391619813,3.667071572287866,-3.8069904026364087,-0.30085120765668607,1.3488419128996166,0.2841914972111459,-3.107479513146968,2.4730228545093366,-2.5229125846247575,-0.6120003235830127,3.407758680493944,-0.3950290155120255,2.7910287433698279,-1.6372227660982584,-0.3652879660310637,3.9548694356662015,-2.7343991134902438,-2.600228828297589,1.5961240082183679,-3.6407513409621288,2.486708406437401,1.0577054122156203,0.82535428058861,2.793440008039437,3.8490399998395699,3.3256876409501574,-1.1496681494442403,-0.7995375071290187,-1.8559443707054416,2.9012909694717656,-1.863799669729434,2.8189427362914198,-3.8892340291014007,-3.374883210633447,-3.1074296719860756,-3.6464041348592648,-0.9952410330729711,2.1896542858168299,-1.3685537063761475,-1.345766240413319,1.9130769693611197,-3.9107522567588388,1.4888577275474085,-3.437581747457398,3.2246906422289607,-3.2633168539019907,2.4555436411584274,-3.052794772354778,-1.5058320407346496,0.03383378538752613,2.5577622821382279,1.5032756096824596,-3.2319129969114908,-3.629417402140664,-0.8488134442340292,-3.5443306005777677,0.03297478606633053,2.917133208813051,-1.3252621983925564,-1.5376159732298527,0.1532790797814716,1.8666172145000868,-0.28418416377344948,2.754712330506062,-0.6794798668242821,2.2440256896403856,0.6556798831184834,-2.7464083391890998,-0.5329794403417205,-0.15192814315297577,2.046605607143782,2.202641515855757,1.265552241014177,-1.5312051592436016,-0.560576980765954,1.5467895051181975,-3.7159903747657649,2.7952771532453299,-2.4568508160879949,1.6973346165011574,-3.689740318331965,-2.9397340775469198,2.256090357505747,-1.332716697070266,-0.04744335774404629,-0.31043964461051867,3.427040780202131,3.4309397375878429,3.2585414496870968,3.0217803735908648,-2.3353423044234136,-0.28881113884399869,-0.6495345230106473,-3.361658844318276,-2.3318790342857689,-3.5430476056727047,0.6957349109558679,-0.5116077028068293,-2.0006178436828385,-1.2643989553731799,-1.340598305799858,1.6159489314988394,-3.188195979103485,-3.499304439198057,-2.212833165790798,3.48201353237501,0.14825299819108207,1.3191887877476063,-0.043296862281712259,-1.1890914787508838,-2.9805387769507796,1.5542046407758577,-1.1927922560518736,1.38056960925325,-1.641344418785003,-2.5356135773159398,-1.1594499141647097,2.782848897851312,-1.3218888110748078,3.4037944202559169,0.5496839731136518,2.9954673520892189,1.8925159296184858,2.018755263381708,2.714222987413244,0.19156324585734287,-3.3943872442502505,-2.177160280345289,0.18102406350991363,3.063000684220648,-1.6748452229188955,3.1876291746678548,0.2542123504836926,0.15167500561155834,-1.8575464663544959,-2.7072073044708446,0.7547182267934343,1.8391374057348183,2.8151066390983265,-1.495307108415705,3.6879448811080515,-0.6691939780470939,1.7723521749635163,2.809941869218979,0.08471634006392748,2.0214864322811989,1.175479014842538,0.229641684709474,-3.0064423065431127,3.4712405082364468,-1.6927001202715764,1.6454352726267026,1.3253313685547293,3.8174183152639884,-0.8638857178343775,1.743438883518408,-2.442513955330414,0.608762001601793,-2.856001453179765,3.0196612258398076,-3.7834836370531086,1.4723590196985353,0.5001578595477394,1.6034762216273305,-0.6370433349540496,-1.85814009781474,-3.0789709091087085,1.1651177205157107,3.6018111961679386,0.8626206486791936,-3.4855693103056,3.3159602856603369,-2.6241076797362998,-0.1954941536421997,1.9484109157654795,-1.990513798467398,0.2242480030196825,-2.8968059619525725,0.8729523517543152,0.7153793983271779,-0.646856604467924,-2.0035160106249707,-2.576263227037285,1.3800471117253866,-2.284440402636065,-0.4339532946295179,-0.8644950290369797,3.2344036082558809,0.30014144478213736,-3.926730705210889,0.010540420530288586,0.2034992838972265,1.8452090574197842,2.152637239340681,2.1012034785289614,-1.3587440108079748,3.3169446540596656,-1.3436833754103417,3.0669300025780066,-3.0329467819506625,3.113138452600591,-2.294117254087264,1.8533837382274748,1.4213526845869602,-0.01116126492111369,0.8686873411641694,1.0626775424345878,0.05066728752392713,3.573101908627579,0.9660753172276735,3.0830931995189685,-2.763818665541141,1.755373825139503,-2.2085481346999984,-3.0384183033325735,0.4950263543427704,-1.458173754055485,-1.6623623653862119,-1.5471917208097069,-3.70664186879743,2.088532642647678,0.814132898383833,-0.41835816809780748,-3.4164520762043386,-1.767844271408315,-1.114187913936208,-0.21444128689652776,-0.5360026260249613,2.31428132885973,3.0259270638564015,-0.5293732373008435,-1.5242907351170628,3.6018882307234847,-1.2082235801863873,-1.2294694185418882,1.603441734941164,3.6563033691445607,3.247131329531989,3.53317020798828,2.4926028701282618,-0.3092316241738471,1.9440877356849527,-0.9481475637429997,3.0634011800894278,-0.4240844842691589,0.12627854714975585,-2.1313063811587087,0.2188121801299907,-3.109426190879935,1.7258579559423427,0.8386302367371181,-3.1070645570769708,-1.8772539545477883,-1.1203524475383853,-2.9712475426411126,0.345744422960764,-3.1912489320100159,0.35450537069699097,-3.8535205755572967,1.5868718850472866,1.8687082402182096,0.5561925996815189,-2.246891681188501,-0.5757027834726711,2.991288067152312,1.039560859408688,-1.6750077800904342,2.5209896894707048,-0.45966460030873637,0.5152332864719433,3.3575894474848519,2.9177940257427688,-3.476944511875093,-2.9210512478316259,0.1726908398103948,-1.6442147123466704,-1.434765480827398,-1.0674198028424125,2.9124746706052457,-1.5011894582033015,0.8153974562086024,-3.8245222517497448,2.1057035245035724,-1.3141612001654635,-3.0261855958085999,0.5836298914285365,-2.290204725372922,-2.1434597561608177,-3.134744281817155,-1.0914897628750298,-2.794817707497928,2.310391515083321,0.4508518575118856,1.1586073412216429,0.22243647750984509,0.17009770583663109,-0.35010816426641236,3.011020954863321,-2.0520442485232808,-3.3317877803324498,1.9839398680501326,-2.6140210582460989,3.4595686275261379,3.4989105424534179,-2.8600048294997064,2.0831548744272156,-3.1561080876048628,2.107045509570651,2.026282397168705,-3.3069102371645178,1.7117096080722947,-3.55401594368905,1.9379997184754379,0.46674640483757026,-3.8197964895919247,0.7359678953753077,2.4590334136582845,-3.159324482550147,2.600428797829509,-1.9216681764488027,3.601717798247611,3.218234963254294,3.3729443601142679,-0.2722037784307896,0.3371895406765715,-1.1368494387152915,0.9453409765447267,2.0456180471495069,-1.1714646568136589,-1.9764113218902458,-1.3031855074449839,3.6359358132284864,1.2404601343840689,0.4986844636803829,-0.17288676356125788,-2.260002618181087,-1.7805455537565734,-1.8489716789706297,1.450776953327118,-0.5836095159655523,2.074227740895198,-2.9851505886656168,-1.793221375578412,-2.0488480514245719,3.239650147533192,2.630907507637234,-1.0936028134885199,-2.6798970429570279,3.0580034898032268,2.171546929219083,-1.466052974423267,-1.4997893954397226,2.3700874038792909,-1.3269292703023599,-2.081315357488358,-3.0541853352725818,0.4394221829435061,2.870641854843278,-1.731483151012024,0.6214264598381236,1.6733934695397493,1.0793131266475343,-1.465055777559238,-3.7047348690933585,-3.855395338730462,-1.9251029042453339,1.3510308000051286,3.1768415362644477,-2.5478026279150027,-1.1844458028803607,-3.8007756326517239,-3.406311976046159,3.408252197818732,0.40606760282827017,-2.745834005415375,-3.023991580595161,1.068835433007166,-1.8070988288256765,-1.4473401022447077,-2.132741947713564,-1.3566798339323656,-1.621063593922161,1.627221882121881,-3.957996739138795,1.2329122468916874,3.4419366818206775,1.8870996323229692,-0.8071547797929932,-2.3403783759485838,2.8378137174525506,0.521390778700118,-0.7792820282580699,-2.426857360976509,-0.9323728420767328,-0.8069872110412659,0.7404520148032772,3.192605981866574,3.875563437270186,-1.575140108110222,2.9615387982241776,1.8535137045174449,0.3611338249464833,-1.9316629629868949,-1.843346619264411,-1.435758844671499,-1.7990972537717012,-1.315591353158963,3.147476581466772,-2.0045297557734438,-2.315061137614096,1.3033683896935236,2.7582508880568508,3.9789021333205278,-3.7874230102762578,-1.1989662807530853,-0.45916502135511197,-0.20258093731420158,-3.558145254307086,0.8355556990183706,2.1810415655472585,1.4701785234757825,-1.6154795195081678,2.6097176700990065,-3.550466278949326,-3.622299215303247,0.8927121561959179,0.6760578864596569,1.0468776591228402,2.5318811043867885,1.1179168197884418,-0.9066621577449519,-0.28482806015099629,-2.2367698798832738,3.8866598695858256,-3.661331159232593,-3.5194715042293049,-3.780590638982636,-0.7174568768384793,3.0007350242617409,3.760734870885523,-1.9461671886134156,-0.39059735912930396,0.09547771980378706,-1.019261847771643,-0.5043624773247102,-1.3441008807088578,1.4051372544851458,0.0990286007954948,-3.942844412977564,-2.4760247736334959,-1.3405902358351352,1.4630743976414698,1.6122889530209524,-3.065823140827188,1.2009885645482826,1.9338492214142074,3.5934335024066215,0.9010766682463842,-1.7258022385713672,3.5807767954759166,2.488968602092127,-0.5784431343362717,-3.7930246880607907,2.0447500076985856,0.13390475137601766,2.740000152330351,-1.4361458865831052,2.349123918792266,1.4361815091617647,-3.304505024834021,0.22559319414107649,3.183314719239788,1.5803260509262432,1.2817742191109636,-2.4428618557375705,-0.6304836897250576,3.4791208091380598,2.3377163335475048,0.6125905498158604,1.6819019536733296,1.6069667511967714,3.9747808671975246,-3.717266429164553,0.29484557675881187,2.3610759470513509,-1.2436718464155013,-0.028307141922627289,-1.2698710898344823,-0.12632285117674425,-2.3812346782242148,-1.745969755336099,2.727354212858078,-1.2986524475453934,-1.63003804851832,2.7547257580946846,1.2088850086631596,-3.4802785963501989,-1.8584546013854322,1.5500935004164163,-2.124171108880347,-3.3839229490194819,-0.8243580589303106,3.4231969706377809,3.892989122791133,1.5949931392405184,-0.3020636097374003,-0.959581908872172,-3.643613888442739,-0.6598093157669691,-0.635355621417407,0.1478897969811923,-2.769327648451317,2.322515656434713,0.1996676208123649,-1.9875352102817486,-2.226375957718722,1.619658047197282,2.5033198710403647,-1.157057074948062,-2.715191351157892,3.6050771756851445,-1.0456924005635565,1.3147305950931454,-2.7145579257428738,-3.3023120598700599,1.8612807501218383,-3.611135561280979,2.390360071940444,-2.702569723994932,-0.9044730874927238,-3.061561855725177,-0.11155103764925567,-1.9632214591839128,-3.3141752649757656,-0.636976762763859,-1.9952782476039877,3.2953710114612466,3.2311129276729995,0.9521336463628165,-2.0155067970951876,-3.3915722440352749,2.4296623003847408,1.1725725145294775,-0.53961402272959,-1.5799526616326303,2.402115087588226,-1.5851695987201778,0.5442935338871813,0.8958788449485295,-1.2468190695771729,-3.508833060327407,1.2207446504822395,1.9285237422306763,-3.7797448033290736,3.793051677857431,-0.17597707663038254,-3.3860878846370605,-1.9234517667991674,0.5446543821220162,-3.0431719051772125,0.3158715977719684,-3.565766367176966,-0.3633559730377891,2.9012444680369215,1.155277027768074,3.2410974974559325,-2.2042490722026057,-0.783553446017148,0.39707618776537237,-2.794721322918676,-2.1738248542646865,1.1761803013920487,3.6795688448215975,3.209408796731096,-0.029898167186662273,3.392219436195454,-1.548563084799085,0.3909368045882875,-1.9941864855071474,-0.4238402251686997,-0.477108233441224,3.27625377880838,3.631541971032741,-1.3933028368158882,1.9219982407151895,-2.5624742491742209,2.1842758870105536,2.3823214420570988,-3.8894538899855899,1.2467195426260132,1.666487957348914,-1.1418009322825507,-3.703617334502294,-2.3712899922680359,0.982346023002072,2.9591630086635725,-3.774251789025497,-0.4890376752710974,1.5214515777408258,-0.20152601518502268,0.5287284467021696,-1.2232333395785793,0.9256639381091238,2.910297739905922,-2.4570113924569858,-2.346566662319045,-0.9152988460577944,0.6765713663872308,0.9871841128013337,-3.888902731918681,-0.6200936543274518,1.9340398691471253,1.335011617910328,-1.2573486242558277,-1.2089847292130965,3.3419699879623847,0.2803790745230348,-3.255531555258334,2.5323768867303055,1.8810493186610176,-0.14135698279526033,-2.5156957294721566,-2.922635707657471,2.3433904299499579,-1.8223147359841808,-0.47824775719557147,1.373735751288625,-2.6996540543168265,2.323053527640443,-1.33499671916847,1.2430603335163256,-2.8888457776762426,2.015641880929395,0.9215530371113783,-1.1684124574707669,-2.909165930783031,1.7872670747622302,3.60622728436028,2.1285879571545349,-1.9775838313714829,0.6699138029423972,-0.7815878265802292,0.23776779478886213,2.6715594824796806,-0.3391809825340282,2.8300810904163855,-1.9273057010514406,-3.7361450447160404,2.8052008409060225,-0.3417897018307876,3.188342984176484,0.7287192357941406,-2.7937105647989499,1.8650178938003937,3.3998245159657545,-1.854945666990921,3.6646649893364229,-0.3987804999399882,3.9316277853189929,-1.496109365064141,-0.2948364554292515,-1.2956911096112514,1.88780848196481,-1.2942974395465703,0.7676611481299212,-3.12983775483392,1.5167865633780507,0.7330522378857216,-1.9856776902003975,2.113984667572911,0.9925791343297723,-2.7652839289522248,-1.8486367155568946,-1.7798376456767498,3.690761725934707,-0.2941011120905346,-2.0501672651803819,-2.6508839582247658,-3.8260083884724924,0.4976312160571297,-0.5082673535301518,-0.6478947702291826,-0.4471205810149792,3.953134769928008,3.0513710141224568,2.042555454624754,3.586327108757648,-2.721173310109145,3.0992557510026597,1.8706232996354988,-2.6690141473731456,-1.2188055488012229,-0.9451394571653848,-2.6520880476682988,2.722996406125672,-0.9581648700478942,-3.6989835926058,0.2759693718157443,-1.2744318771838766,2.887497712057458,0.5142832511121096,0.4244517773990246,0.3048441587954427,3.795522471853131,-0.2970406545205657,2.6022881817742515,-0.4716388051803557,-0.3868642256300747,-3.0568660842245558,1.8371060645850657,-3.558156098443246,2.1312900539000765,0.3515555675672939,3.5806298726894196,-1.1625058707688565,-1.8547680186637388,2.868027087028648,-2.841895255190951,3.1480671524695316,3.554200492423048,-2.8626646214696507,0.08183526735585378,-2.606310745314328,0.4857529139206074,0.942188014096141,0.8047187326864052,-1.4689422386981657,1.8543286636421988,-3.698318880324446,-0.3947163168663488,0.9152875527614466,0.9975926665745849,-0.06455151162292006,2.713517385199691,-1.4106956151878778,-1.5046952557434639,3.064816715140645,2.863296905437613,-1.8505128692151436,0.2674626156289248,-1.7417537196466083,-3.2518470181833978,-3.817350883965406,-1.5186634353062019,-2.6949789722136749,1.1110008702980725,3.820361110241275,0.5048320980271583,3.967051381294592,2.584456274280802,-3.6924192660237,-3.727291134561649,2.9739947816431178,-3.7904519879405678,2.1409711213380886,3.6216430969437729,-2.45871348662219,1.126672198526851,1.8326300042579922,-3.889465201545817,2.3527874947237716,-2.580133152321512,-2.413184611882512,-2.725171686224373,-0.257268541888946,-0.11863396172483376,2.85642810713622,2.087803421097024,-2.2256827868536179,2.0948406509383448,-1.662727007628712,1.873455999170491,-1.6111900759327045,0.11263065093146985,3.2262499222452156,3.578417486587237,-2.986168971891412,-1.6780201501117445,-2.6598068841072388,-1.7953995488264989,1.5042407737037583,2.343235106795884,-0.6703084777644295,2.6511079408755506,0.019254629444795058,2.2818372283954444,2.8631499312953387,-3.3313943015121154,0.37594976538261629,-2.145262747853817,-1.6375065442089059,1.9280929893910984,-3.288062129328332,2.116885262266665,-0.1837029520797342,-0.43975290303970207,-1.0893767300883626,0.4780542903015297,2.486754085177176,-3.689912692713956,-2.7129374263441665,2.1599171424397847,-1.260815262953698,-3.0553002592044589,-2.546041627191798,2.6420589470650555,-1.251889210624549,-3.304313503718271,1.1767956362774453,-3.8774997151345138,-3.413641664797721,2.804482034151648,0.6670494176099417,0.09058115598964811,1.7320291192005142,3.6685399880494877,-0.27683381130917819,-0.9775934226115963,0.9207538532976987,0.5654668579583433,-0.43899020694243787,3.7277041983517469,-2.435081090931977,-0.8042501912275297,3.659764091711695,3.5017307776526618,2.923492522708206,-2.17524228018506,-0.9506261946221297,-0.5035615599577135,0.7185820757121446,2.1772512781470629,2.8085896300052735,3.652264521843138,-2.8547162967839245,0.6633013575948557,1.6585708197781557,-0.39036161545458705,3.4233662827001929,1.0930638309300936,1.4250593653083455,-2.143173832891457,-2.130016647011522,2.5379638839704414,-2.407048461281816,3.259052450517488,3.1873942497141538,-3.3822117355361875,1.432034991973004,-2.88222995481597,-0.4717656902581693,1.0232006296540917,-0.9500943954778647,-3.209068394320295,-3.855199932145519,-1.4077070932982479,-1.8421923369054634,-1.7348357014627638,1.4820571235299518,-1.4820837243659713,3.9117970886953996,-2.812406685142901,3.5956530557934256,2.7557523531693306,-2.5213786388049534,-2.129505962415207,-0.5805018615628406,-0.764578769490807,-0.011187863031219436,3.092238741414909,3.143909696008363,-2.364375716184071,3.5636123421526086,-3.0173824492838108,-2.9484401509655839,-1.2939065725805035,-1.731117266256514,1.5727157319305639,-2.772138867162832,-1.2790185264491472,-1.6392089714522642,-3.0625792505476676,-0.47502317200686208,3.5728015809097419,3.1272533955123045,0.5180915773967065,-1.1496651244898014,-3.7138388709537226,-2.9728410934823215,-2.4234914767663886,2.5562376674868245,-3.790443559315876,-3.7366099802372609,-1.0383029990129114,2.641537132495955,-2.260894899756715,-1.3422127601254559,1.7023126044671316,0.5966095162115632,-0.21714734355698529,-1.9832519981995789,1.0023299184038637,2.61427985838902,0.41137877189493468,-2.216564074806981,1.5299765558157468,-2.757556564394349,1.5955573306513654,-0.6600664374149128,0.4438754330307173,1.4215561126962256,-3.8804736087945868,-1.5204914207711929,-3.022530015936373,3.051471391739896,-1.8608876572054245,3.9699548990833799,2.4282075220096637,-3.1600936308975937,3.5054204998928419,1.490431360246336,-2.250882172088102,3.4927293597815867,-3.5820768384371579,-0.4284031974744169,-0.4608179809479547,3.1928923315628197,1.7552270904850609,-2.3470210899197996,-1.7925213124828028,-0.8846847700865086,1.3389554907144659,3.8203593993542119,-0.6191727875365911,0.1432969736352625,-2.5824113553695584,0.04541328738196526,0.7355734069182045,1.4513436786242418,1.4384265009540239,-0.40504765968289027,1.6472340658773189,-1.4487077089794669,-2.4886493893607017,3.0515806119036448,0.25398895659676859,2.493736826833266,3.691886793911924,-2.233302187486136,-2.6067087657802627,-3.531532097633389,2.756327928743139,1.6185256176793237,-0.2452019173870832,-1.1567144097601734,-0.6522324072131449,0.16048522324741655,3.011404302459093,-1.8163729735154333,0.4632237863476245,-0.4613346892130623,-1.5848208189732363,3.736913265452541,1.6801103235640538,0.6716183002569665,-3.337911107130479,2.2243360942592824,1.2768638246717857,1.47706284548335,0.6174766239474216,3.4786041845192736,-1.8360629593103329,3.7592016140406789,-1.861660108363397,-2.3799430100599388,-1.82441660602752,-1.5608098517414766,-0.5779238955125068,1.7164050506311633,-0.5704993019552047,0.5458028516158358,-2.275574647663076,-3.9192590432265828,-1.95038452657392,-3.421137990326393,-0.1675110253820984,-0.15357999412065216,-1.9514227175197226,3.252608558068971,0.37362672365368346,-1.7169981330109339,0.6351747690001064,-2.3931199615227,1.9608882787385023,0.7464100871254402,1.4308190641060455,1.0753021057271628,-2.1709278780119067,-2.19444848007696,-3.283605747068254,-1.0305131212094719,3.836784715183593,2.244123130313927,-3.399492943427525,-3.1146165649150614,-1.4866603129700525,0.9153064104620654,-1.317744612517606,-2.526327609805632,-0.1785395554991176,-0.0914901622015396,-0.08854093417023479,-2.9321256148121748,-2.4220414418036038,2.8400263184766576,-3.8983554748604076,-0.6473419084533132,3.3046436615719587,-2.225457441690759,3.5047576723655426,-3.0447988887337189,-1.7301523456990749,-3.4141605150696305,-3.1303507401072885,3.4960349840437656,-0.6497372710689591,0.5826695636209314,-1.4876981842047555,-0.8055920991443732,3.7765685771846337,0.5191738053659867,2.2852686642533408,0.6820230051304499,1.5767096503266176,1.94748143174672,-1.6156236173381454,-1.3565889611273668,-0.7496981830449998,0.0743355903646643,1.8102502880882572,2.212023322050344,-1.3461149942542675,-1.0961679434075327,-2.444017333123524,1.871839520872153,-1.2554260496368404,-0.34629624547871198,3.8433483590367265,0.961845665400662,3.600067519625063,3.2965115213094986,-0.7092672394873179,-2.013016154207534,-0.46751603762530538,-1.0818280250262065,1.28399055013604,2.657515234273993,3.330609293574719,-0.8484578726362615,-2.9916770869414117,1.668031611086099,1.3670972836593026,-0.9233389544455726,-2.9148986977710207,3.4364790859365508,3.779668745171275,0.18656141187712817,-3.255005512586999,0.020279225947104075,-1.528625698675766,-0.016245394252418556,-0.46654953707514248,2.8324673581925898,-0.43546756368939745,-0.5599626049421482,0.20975583149475253,3.3719354308891278,-2.0729311409220037,1.0247602048383407,-0.05133675940457372,-3.440926792917198,1.0078074063080856,-1.8780169901094704,-3.1687807986766289,-0.21275893576478567,-1.805115454990383,3.456711966684998,2.460438359652313,-0.24109524668368088,-1.3578563702742717,-0.8032589524626488,2.1703628208742229,-0.7293409623712845,1.5221085782219142,1.2084731330068027,-1.2533896733641788,1.1570736567282714,-1.937995101231631,1.6012351594816244,0.5508969052073027,-2.5206483099300289,2.120705732034942,3.765490481662943,0.4477155014465284,3.7956889588551778,1.7718350888341519,-3.807048653452976,-2.613843768691276,-3.7462215693963385,2.7835517599085115,-2.3172383192465277,2.325588139842459,-2.6982761884156787,-3.89488664233906,2.826776729310806,-1.0491051922471789,1.8899104101644078,2.143011031608135,-2.7419071365543017,3.432537453160042,-1.650412922547016,-0.4595097625077509,-2.6454999950773709,-0.008382803187928723,-3.9188230211452428,2.9259517379447894,0.6001304681484259,-3.1588525028017688,1.862615217399605,2.8660986801799925,1.9402716811563563,3.408043238087486,2.3886362932126738,1.5324591627931082,-1.8666939696641636,-0.12865392610592586,-3.7664261668266088,-1.336109723230171,1.0094780786338636,-3.3532104672796096,0.5042826685924773,-2.2615288473845895,-3.140931367092545,-0.3765208759594765,2.613170922917586,3.3942320639650047,-1.804030273740313,-1.525444077865805,-1.0855268092791344,-1.4642940470039585,0.9060053432776929,-1.8119948662536994,3.8453944876658729,1.1733799086282054,-0.8992587727811865,1.0964233618136908,-0.8187622840363895,-0.3804435236715127,-2.223760427423233,3.3247115367259374,-0.9527888285302824,3.297918869430151,0.8508226348448034,1.4803239602736494,-0.6881011518899529,-2.2283558190010215,2.2532838268073336,-2.9899329603199815,2.831587714853403,1.1119836118797429,3.949806998021449,3.230418473260139,2.6715722518015738,2.480236145796125,-3.477745100575933,1.2256387645390295,-2.9250501171968414,0.09329270664255418,-0.1529675744463146,-0.21357520025828426,0.24003865109553502,3.1769030088594736,2.755468103599564,1.3089314100863874,-2.5904056869521296,-0.6866368287537872,1.8689514247115593,1.0185631887361933,0.5828340805921473,-2.877157117560939,-3.930355095615025,0.16626845830407523,0.5724125222863039,-0.18169323219194845,-2.1467122669619798,-1.1205796330358402,-2.280682109451096,0.7231761129691599,0.25269911111708245,2.7763550172925406,0.4059760222330251,2.9348250911033917,-2.892309751621444,1.0869417450370663,3.8776561874669266,-0.8961227996144103,-2.155049149718045,-2.5619866824314538,-1.6078847132202315,1.4045101332194854,2.875986102063144,-3.5140695528487138,1.0731390120264646,-2.1641336186495367,2.0222738549840377,-3.68822333957751,-1.55760059481569,2.0923651343088967,2.126695002511525,-3.2811316882819856,2.850650267774035,1.4523544542560476,-2.6439266977738367,-1.1977406828398252,0.8961540389106695,1.5242668855340327,0.7006216191915886,-0.5264625389564035,-0.17974713711132218,-3.9390188614341694,-0.31382223165247527,1.274951425290122,-2.617964438970935,3.975542209770415,3.5264633433970848,-2.0983493193645375,-0.0376228219747512,3.626808311775868,-2.139380493223708,3.8114955497641427,-0.5163982330431727,0.3335225367611363,3.901967612824361,0.5418953369334618,-0.43776547391120937,-3.104914506640487,-1.3358201597987328,3.172508144594137,2.1837413536843588,3.6573451294561076,3.6649727702477747,1.277140248709041,-3.1219200748429287,2.18839494488671,-2.027129119465501,2.6919321867226939,2.567155810836492,-3.0485382492017258,1.9474915740578327,0.386889349900148,0.1456533476902484,-1.1885487893495362,-0.3280013144999554,1.8009663556402096,-2.7786380134877595,-3.355140948909675,2.5016830204127258,2.260201335897799,-1.5695754294322724,-2.6163229836998616,-0.778286443709856,-2.103117793469874,0.20372246688234786,1.772810373595501,-0.22431778930180513,3.991858013520699,-1.2445109800612378,-3.5180452739399454,0.8305811386304152,2.101903933956163,-2.5031745010851225,3.359834205360082,-0.1290464082716909,1.236584733722939,3.2063275203410299,-2.3155057943246959,0.44298813599621225,-3.0214207921588107,1.6232893860325195,-1.5619013103383018,-2.233637579087322,0.4168829131603058,3.4406072466183676,-3.513323155104393,1.233321670547883,3.9519052814109649,-1.8799550102276593,0.3071813755934798,-1.0496424219433225,-3.9192212824332657,2.1020781319131327,-2.689594246749736,-2.6424077150424258,1.5169758453141223,3.345172968761008,3.4247294001805255,-3.112579545830349,-0.8001380611772158,3.3797523235004656,1.2245186053173863,-3.2597659725432175,-2.3763595979980707,-1.7504688614781066,3.6720983851162485,2.799033880282699,-2.805361492700861,-3.173603039629864,-0.01495601677320857,-1.130172551399889,-3.0806318019400464,-3.2210102529216266,0.17740318397711175,-0.4389960528929535,-0.589359694849499,-0.1628664009015568,-0.8603772540809684,0.8589493532749035,2.516195226590175,-0.5291324399370703,1.2804600244315366,-2.977174877859216,-2.1395911168089167,1.6060764958633076,3.7654891493583468,0.5546990554864886,-1.422667209060766,-1.9381869158086503,-0.09850108116152279,-3.0129700151253679,2.866595392906313,1.9216863319656419,0.18254197978791976,0.3770183692164464,3.981094436603559,-1.082114402940592,0.9267476955106702,1.324660251717277,-3.246318551511739,-0.09085423592273556,0.6289206334242028,0.6215214976920178,-2.388321891763736,0.11891081903414413,-2.3789816994833288,-1.906825038029867,1.746890276512267,-0.0910622751734591,-0.0998020527514678,3.1377424213512885,3.078317398824626,0.29841970832434586,2.7452669164109615,-3.0992017089991075,2.5716010260139638,2.134019243333589,3.8018069327258665,-0.03455910514129834,-0.04468108371192492,-1.100189748792385,2.0998053422194404,2.516491119683847,1.7778467443539814,1.4378057488225418,3.800983220928342,0.8373944312614201,1.0081706887494058,-0.3157712977823284,-2.0178702143732138,0.6892838738327134,0.7072234247123808,-3.08124533363495,-2.439660878304304,3.2500330497300009,-3.4931876316808649,-0.17713276010714219,3.888536785454461,2.110875378903496,3.0708752631858324,0.10232815158958886,1.6424219014567943,-0.8790316666500662,-0.0693112284806785,-2.50490854191393,-3.016383548452618,2.3715292984161584,-3.4493997785658339,-3.5466534653931109,-0.6003398200001404,-1.6223213192867355,3.8775226091579295,-2.433973936362154,3.826628904832857,1.225194536061255,2.1555888352429486,2.3973019761486196,3.3228724415191168,-0.4068645529694024,-2.305739644945122,2.569829497319601,-3.5311171120185147,0.5481065311680737,1.2677032583658648,-0.20331581464928928,3.904219485852538,-0.5166014484262158,-0.0447380827265782,-1.7484915791429705,-1.2842931298791352,0.8751839731694959,-0.8850648457178476,3.261180236706325,1.0647139089496474,-0.4949858302993002,-0.4586583397163666,0.12490150872093686,-0.4202292043831628,2.380270471947939,-2.8854495356657567,-3.9129907052547816,-0.7529642103728824,0.1733917318310505,-3.082109065563916,3.466825603802974,-3.896224865278332,-3.3840370924122888,-2.674493661229465,0.16159885336309988,-3.820939404806495,0.013156752557903495,1.7206170916723727,-2.608194191603844,3.6572409926293236,0.5802418446402715,3.11560213880331,-2.3577155054784519,-3.3431591279104877,1.1418284748677348,2.4128253552345857,-2.870080519868491,0.7476563819612503,-0.022023688827786937,0.596348922083747,1.2196417298619569,-1.06836133875973,-1.3357777794123198,1.2959626651120627,3.923133349583475,0.9097218007885122,1.5265376886335052,-1.8060083850655209,-0.8124614740550191,2.5836490063213004,-1.0244889257266595,2.323009941745764,0.832994249253801,-2.742073674329328,0.8663155789750787,-2.8434753225128839,3.2174872778588625,0.08759020760827774,-0.662303209420765,1.7873762847931643,-0.6314415851520563,0.16580810492683363,0.8430067591119181,-3.9040666561807475,-2.2852662423330676,-3.2078598997768035,-0.11265003259863704,-2.771865612764829,-3.3837612672962118,-1.3333468371435009,0.1020909089845814,2.0108429799456557,-3.9576995090508575,-2.67496565051516,1.9894165234987718,1.7718415562483,-0.15730718643803333,3.0084923195189328,0.8682544879988265,-0.5469008112484326,-1.7135586968765182,-3.576012848744612,-3.539902567615239,3.8855476180381505,-0.3350249790035631,-3.474744852472222,3.2434741038119876,-2.5817905106225895,3.4117930203023567,-1.4802323256392039,3.790254797795175,3.4271912543121729,2.6062539644272819,1.8851424533244519,-3.3560025460648807,0.34807999721904717,-3.153064511457486,0.24652303814218347,2.1877100737927819,-0.8491265618469563,0.08933125693871524,0.4723969450994767,-1.0386960665046577,-2.951768892788028,3.0496622037013996,-1.094021176235933,-3.4778346274001699,-0.8219362305287203,1.5922636997826044,1.952403499766083,1.2014613543248345,3.700754969593407,0.10421759119219676,-1.9754579302375322,-2.6900350453060346,-3.766698760623676,-0.09902922152187355,-1.1714601135448993,2.9072760594104416,-3.583412860220207,-0.9691831086047247,1.5997562873094804,-2.8204732993742116,1.0416353105413299,-0.7784371251309119,0.7115647842263932,2.5540824031665396,-3.3206996063528537,-3.6345731694004614,3.986124925981004,-1.2209456449850063,-1.8700891679532499,-1.5838475150332965,-0.7721448919384599,-2.7367330342884674,2.9996965514878886,-2.5300452965191075,2.6247512477166134,1.4931076098698979,2.4468863751978109,-0.2886172596906249,2.1407153802476426,0.06213242478839209,-1.375008243667022,2.090017187766807,1.271598117224559,2.3431627058640895,3.7426841062527984,-2.4114736485631784,2.967999484551977,1.0043486261715158,-2.7716118717615316,2.9453624380731506,-3.3496526602202119,1.2098603345418342,-1.8501607995772054,0.8558115669288622,0.36889794071994155,-1.1433899159828834,0.3919015865026392,-0.7164402240266234,2.198294631505056,1.6929666255744316,-2.990809405628193,-2.4711286571778947,0.22945920847074142,2.969752511170478,-3.1676674658267469,3.3776276510249056,-2.074251653022541,0.6573317813841415,1.9830963425678255,-2.6692144570603126,2.0490686097341266,0.039145258043403078,-3.1028713171570505,1.4311041815054875,0.21515991966471227,3.5504026264458306,1.0783019758680786,-0.6884970099699397,3.577643275923964,2.566686266204494,1.5206637283930436,-1.3069855430214193,1.9983431126680796,-3.385224590341915,1.2371507736636956,-0.5265804904532025,3.1078206943560229,2.4900280240778587,2.326738103681363,1.8525370194100877,3.356631520531831,2.9259562989504497,-3.1014087816199966,-3.504004868897881,1.6008673716246645,-2.3788084569288836,-0.25512816419550768,-2.0998673222755999,2.1682689636511567,-0.12088813639765572,-0.5708557668532441,2.02456059839019,-3.218126542730623,-3.1017606248621485,-3.394138333067449,-0.5065874614178716,-1.6223044382864645,1.2093261215767975,-2.34452929709874,-0.20179010575124124,1.5402028277803038,2.9759552917175169,-0.054937295536017897,-0.9845906519284144,-0.6727872924898219,2.6659349484317929,1.539181908015128,-3.3472234267409126,3.9776003373460488,-3.6873652141763406,-0.1226302742634322,2.9268752296776716,2.194144577271463,3.094185866324125,-0.395254818262021,-1.4785959555063997,1.4120223614194974,0.46837860442867376,0.6332906403862006,-3.1476138697297886,-0.6667980738767552,-3.926611230148125,-2.5890588084869554,-3.502707251195713,-1.250923049844728,-3.276716435710462,-0.10440890819575066,0.7353746611021599,-0.3966991511959721,2.7465294132315698,-1.6548824903905398,0.8328918845934332,-3.807472719885637,0.829088721116312,3.4792817718320139,-2.472376755294099,3.038957475092907,2.1850458251220647,-1.780859871668971,-3.779342660319707,-1.8690054475586242,-0.1064646793086883,-0.9440128290252987,-1.8596926474909017,3.873579843231017,0.07087073814635847,1.0427704639479352,-3.090308563731221,-1.2741008675718318,-3.422998275314101,3.0947507560898579,-3.4942733685095739,-1.9092199575423868,-3.5513589790025446,2.9847631702884289,2.4718185258340457,-1.6467866383178356,0.26990602283584055,-0.8717826741602588,-3.3266677216936397,-0.35996651526464876,1.1424955013509442,3.784414938693387,3.201022147711554,-0.8201633289525114,-2.3377932593580388,1.2234649559699405,3.2268368982940025,2.6507426153708959,-0.6503413702782073,-1.6816277915362184,-2.889747338370949,-2.049239474129906,-0.3205394344256707,-3.6529134657172497,-1.7932176686254274,3.627230933530451,3.4678377892983036,3.4004793910264219,-2.0853753606548697,3.1318570000544865,-3.1078741197124355,3.6183445529999025,3.865097956172588,3.0300066452003104,2.5940661646925466,0.4939577759381706,-3.9940078378767245,0.7536371562663993,0.5003008820737405,3.538846022994975,0.3776681988550452,-1.1248173490891949,-1.2806397386389906,-1.928443862053717,-3.710169615860445,3.1313562719763015,0.32618570754378775,-3.342573693815793,1.8792432998315976,-2.156749107532005,2.020713968033096,-1.3382457418231296,-3.983002603235424,-3.8830118467706429,-1.3074153038090089,-1.193474079098307,-2.9367552786373825,-0.531721001551668,3.2339756602240579,-1.8551536858478058,-3.190457759900754,2.2227213793908096,-0.6877446838136001,2.6758262831654298,2.855276012692351,0.31692411903327946,-0.7762213432431446,-3.787498988108756,1.087076791043187,-2.1686018876206116,1.3878181573721227,2.2462946871905569,2.507360839188121,-3.7780958604560039,2.948166551772463,-2.884891678758396,2.132598351861679,3.101046327296224,-0.5002466392564478,2.744767620159881,3.7351911992059518,0.4417665575385161,-1.914397769306168,-1.2317813196872268,1.6657098923059027,-1.8774402117413803,-3.662525423426337,0.04361723417351282,2.58469440056117,-0.6398146666035851,1.3017678716082042,3.8388408987909159,3.834599143643219,0.6944745582772116,0.3170839892176316,-2.4370331850100976,-3.967192561637974,3.496707036919047,2.4934011493451599,2.1012822057555127,0.561914031164827,-3.474720728849654,3.0282274078886548,0.7150234742413808,-1.0083499441153856,3.4764062719049386,2.041453989297361,0.949960297431069,2.360273216277787,3.907415441135469,-1.3217957449785447,-2.565412998009327,0.6289491857555118,-1.4727538969766679,-0.49588954049161595,-0.9849261544186669,-2.7283406926249418,-2.377564140464825,-3.400968136074762,3.967263743860717,-0.09759266642141817,3.3726133425041189,-1.1025700376745833,-0.3141351758658393,3.555835477240616,3.8812710236821408,-0.8819604254577405,-1.107143428204644,3.333850063187273,-3.926055537609506,0.19520781644549246,1.4772802933796472,-0.8170985643197675,2.0637922352562896,2.443661557774867,0.6027156808512642,0.4309129951135837,1.796608272713609,-2.312893398584184,1.0244923975665037,-0.739328672642972,-1.4138836529388888,2.1663344075429746,0.7131818699057142,1.6598129060587308,-2.0738713769694465,-3.8318368914118965,0.09081971843460757,3.013086143930699,3.8639403187432848,-1.6166044019333244,3.3319503418557669,-3.4060011449758216,2.343568994550007,3.4153452992084256,-0.3564785002235764,-1.6908118172934899,-2.165928328478506,-2.7612200581653409,2.1784898166768009,2.3749974241350788,2.912314095948478,-1.9447303771137945,2.829280003303583,-2.0663707225625744,-0.030084593010792694,-0.6312453173901533,2.2458679501356508,-2.3430771372887628,1.7420759573605072,-1.005049939695028,1.7007001243884795,0.07609909891486666,-2.883883754801367,-2.905824365978198,2.8737514083169808,-1.722756626032547,-0.29789873645747258,2.453736918068577,0.30188456652759845,-0.1634987715342433,-1.7257540093969555,3.7759621936856204,3.355283644391575,-2.410966256186632,-1.6236688817613739,-2.1983048692487339,-3.672093679235714,2.20138200517391,-3.796736209033707,-0.6790567273035373,-3.170552586505333,1.7613421531456855,-0.9359776218295979,-0.11306233115075393,-2.66937816071073,3.718492817403895,-3.90334314816815,-2.4698646632117127,0.24306049785318874,-2.1681478511117646,-1.9245403838789808,-1.1058757802301136,3.758503246667967,1.0968382840551448,2.814709694849065,2.849517373101391,-1.632399547948786,0.33875353552597078,-3.0440477387480779,2.330226018837836,1.565245167687368,-3.8485478466828937,2.4336692223029896,-1.1958647130395653,-3.163581982714401,-3.851781725734254,3.657598617869448,0.6989608071545934,-1.4441355644573353,-1.1697026244354137,1.6141282490535148,-2.5946904154102965,0.8490741378068076,-3.06781179420925,3.369294792641206,0.3201530487111466,-1.7944307165355762,3.8366216693431829,2.7363814980473819,3.02873149816637,2.047941690515282,-0.049006872795444248,1.606153543359535,2.4764968363616566,2.1042758747551479,1.812603957082489,0.23888444281151423,2.334287120578674,2.7498382069865219,-3.74629796761392,-2.237518045418552,1.5251190611791188,3.1313761034425529,-3.1304234976327844,-3.1792522409670225,-3.6502757547003839,-2.8444103484355409,-2.023105486196317,-1.9846517843313079,-3.128175390848975,1.168488455314944,2.013997562599247,0.8846281926383135,-3.462399520159596,-3.691512427988796,-0.27597081127146697,-3.912350654767315,0.5519352177920451,-2.0497634902240069,2.8389520411860804,0.1533754645556451,2.718862308963928,1.3280866652665147,-0.8747937967907999,2.6480676148058759,3.134821807222303,-2.5349758859696918,2.2651419893810047,3.4125415026147856,-2.372042827777081,0.6779113199050117,-2.143690141885674,2.4368573897274254,-2.740157848232754,0.2793985493407458,-3.2773476111206278,-1.5962075230449529,-3.9972235782471428,0.8495470332384043,-0.42340612885777398,-0.4730695118437138,-3.052280586041422,3.944038180493915,2.5569349484680679,-3.9478108816928278,-3.5136361344061335,-0.6963384290362884,0.35847216106136328,-3.016964715157866,0.7140434037473433,0.17670976569543218,0.009981582708632253,2.942544080139494,2.139810292211899,3.251761958723997,3.8980023070213667,2.7349710564739748,-3.778929817360125,-1.5423422868511097,-0.3705519711735137,-3.586715036812267,-1.9376932669473244,2.0005886196616515,-2.4229349482924595,3.4586915485000846,-3.26193802331084,-3.6011606539833567,2.5920653605196746,-1.635713292262343,-2.2554450747029337,-3.811918215948439,-0.6723971957325201,-3.748867948145122,-0.8249388449368935,-3.213317500935176,-2.6098524627217429,2.6312786577583155,1.3541754850643262,-2.7976520711562724,-0.8092930081903196,2.365794964555585,-1.7843822985797902,2.5092464053222667,0.29939578590902019,-2.6916963223319287,-3.830565745881678,-1.3181675025295266,-1.492309527576606,-3.370616573218233,-0.7857324638794887,1.5448154341990055,-2.134441732778762,-2.0382329567833636,1.3867363752306812,-1.9753127866627638,1.337816888276742,-1.854847450388265,3.6588445420363726,-2.1860108035102554,-1.6909228486426995,0.6040654272536994,-2.325585587564854,0.6486689483241657,3.744265034394748,1.5735624080730704,-0.7622723176166171,0.7537977925691264,1.0190271247219505,-3.8110953371014899,-3.7057731330644776,-3.3147610109087157,-0.6340482950144517,-1.1860897744635147,-2.7543463372562719,1.3692590987442995,-1.5980482655591895,-2.040321546340108,0.25193288376768666,3.40722119319575,-1.981085705832131,3.726158343722041,0.25505736612609999,-0.3879413561499361,3.2866417219048698,0.805515699772914,0.41447436771897819,2.9507629921163538,-2.5583894301689797,-2.9699052114430346,0.7754670010828519,-1.8860348856616272,0.2359958523738639,-2.5374645412572738,-3.7440377390149619,2.477741902637688,-3.5715972711493295,1.8004827357794025,2.547528436503896,-1.3839252659833879,-3.737840577429467,-2.463042823534619,3.213706195564976,-0.7185454609329618,0.6922714314723821,-0.8569222560443217,1.125968620315244,-3.9116936866901934,-2.4470479188833265,-0.9512044957362456,-0.5803364813254461,-1.205138687750788,-1.605856618272166,2.6398341015130866,0.20177010159902587,-2.4448916766394097,-3.149693876234517,-0.35959076819331928,1.6071309809659678,-1.8807415755694804,1.0055823080169928,0.5347711919576135,-0.1323942661200681,-0.035885452960423117,3.5094048545691525,1.0543055226399832,-1.4632731007540346,2.0565077165826866,-3.3580797269464259,-3.1483955609261349,-1.056512218910196,1.874403926256277,3.972384509998891,-3.321348285475617,0.7199224951553642,1.5938252749776814,0.27508125822212917,-2.2199263469655428,-2.645498579612658,-3.393660107662953,1.2624499699617538,-0.972717603022855,-2.1370352334640847,-1.3976465720336136,-1.4050354515599966,-1.282727437401638,-1.3447606599843576,1.2077977426120068,3.024789655847049,0.7055393788541133,-2.3782986780063277,-2.384819498111117,-2.5621982773281388,-1.1699763234724375,0.5720897028246377,-2.3832041829817776,-3.8651162670963687,3.2983416406639938,-2.80349791883656,-1.1518300395469297,3.120739162568026,1.6073485472986687,0.03241757277346746,-1.6104606991554483,-3.8852626668600598,-2.233924971496849,-1.1936120362818879,-1.679308594444291,0.9173235312296519,-0.8054378928440418,3.760056859136996,0.1870536244597485,-0.7689651953687244,3.424555394090013,3.476393108141478,-2.3955096273635698,-2.145026527813455,3.309415627493051,-1.5104805918740872,1.5788552818420226,3.728122789503919,1.1253019741551862,2.353124981465828,3.5966739917492065,-0.22156105552105832,3.716919055397579,1.7844504481244075,0.8872718340159693,-0.4252964086792288,-0.28790503341078468,-0.2649138393029906,1.8289876242052437,-1.1123021685339792,-0.8394787405285376,-0.6048270593379483,-0.258154817872118,-3.9590833080434688,2.416648240068617,-3.002290774852905,3.7585746034322149,-2.11176755077304,0.983498364398006,3.301644482643254,-2.7081336236992206,3.254746626172169,-0.5352211827709574,-3.5077922137791868,1.2074115602638767,1.1595015286401278,-3.2872189709520267,-3.208861313438258,-2.7173977725548488,-3.075835066231562,2.0287891563728559,2.6377900292949327,0.9802379694744809,-3.4697282036711316,-3.0680626053351887,0.41597808626367796,3.9387062732891549,1.6023323395985126,1.6716402633780474,3.4718885219786186,-3.36199234250745,-3.907471447012008,-1.0835367539301404,1.4340858964142376,-2.4538241840627359,2.4928106846247415,-3.8746945623314339,-3.2853298120946787,0.23706384820771565,0.8193607953870457,1.9742288649438483,3.1879740360608457,-0.21121737887249293,0.28662663583429018,1.3165423475137308,-3.0629112716100579,0.2596773892851987,-1.6028258206684212,0.5154159969430454,-0.4640053778740165,2.2327250429733649,2.859778803520462,-2.072138025110676,-1.490187297696659,-0.9646873703426371,-2.2915503805049886,3.4622004788313784,-0.5223725430783839,-2.4330626008903666,0.5601376314217426,1.1975191440567815,-3.5927424518316188,-0.3598316955708025,2.8632017548035018,-1.420619603222617,3.0341760542055065,-3.848260338323631,-0.681385653714087,1.595569420407065,-1.10835866509594,-3.145178470120851,2.1163566416444716,1.860513011905569,3.7777087342118644,2.5946203040123407,1.7718366826780594,0.8161303783552771,2.555663021253906,-0.6743706071213547,2.6975030020643,1.6814063270398796,2.371414634980404,-0.38128447790995625,-3.0720334054343096,3.20205162751284,-0.7319976378795055,3.887720970245848,-3.4724442124349457,-0.5550375010748807,0.3586214593645636,2.244284348712829,0.5610382014868076,0.7616740667582524,-0.39314654711071897,-3.5453139372941848,-1.1802125727283182,3.7108110104110505,-2.2785120407930874,-0.7445716894014076,3.4659153408436946,2.9193751905949139,2.1484867322520504,-3.0615322174682566,0.30034503816505966,2.3155479316256608,-1.2597708242874062,0.042277648476763299,3.396741112632327,-2.955389869942217,0.9911777816396397,-2.430533873329253,0.8486260689054976,0.8565841638293295,0.20541534529338002,2.5087607948842507,-2.7959378282837186,2.389523278865277,0.7574811689765708,2.0056627726869138,-1.1901680227657919,-1.4641661147959085,2.82629643908626,0.4875612318499236,1.5062114687039952,-2.1664388840692725,-0.6652519125186842,3.299807530090958,-0.5237914272777262,1.4099826819877333,0.38669712874758668,3.6591650872939578,-2.5568233999060299,-1.2847799623287122,-2.7154302955785267,0.5351040392290747,-1.161760829164315,2.1234089624085357,2.6204862856843018,-1.328685606839744,-0.4166855774064169,2.28906420001294,1.2202905279412697,3.1642453519146205,-3.034717883175154,-1.0744888147311225,-0.9069942817708601,0.873639778284538,-0.4808971897056633,3.1835846365200846,3.971261756474343,-0.8865694587692035,1.153495159384902,-2.4655438242128637,2.122953666092161,1.1896631479939908,-0.7771115372493824,-1.989579802861549,1.314743790223602,2.7727207210833155,-3.9357268717266349,2.607810474732905,-2.628762962988924,-3.2311850769003627,2.354740732639443,0.8581633771448534,-2.416872431674336,3.0350362488832429,3.519489435286234,1.6401608306964795,0.16176588510635615,-0.6222994201990977,1.2425333033933859,1.900588310569871,-1.6623044881022847,0.9956881486420723,-2.5815681482015195,1.3553003136237632,-2.322037787760724,-2.5543964759083535,-0.44282932980398118,1.47633741395767,-3.3949642702045326,1.4542455315991055,2.9315799611899617,2.2523946456327419,1.0433424034188628,-1.135109394393587,-0.297575228716102,2.4764759394573039,0.41015770147958099,-1.1216031009040526,-2.004415272372894,-3.7167530650316689,-0.8871583833021732,0.042076835150549388,2.6447219812756517,-2.1215198089308178,0.24736414378494765,-1.5141757608884808,3.751840550500006,-1.708863462795067,3.9576959542126888,-1.1722510715679169,0.2067545920009346,-2.3070461974230058,-0.8772845896419366,-2.6345678026484435,1.46475854486948,0.1689682462197517,-2.328169414529561,0.8122429742283428,0.6912350773115099,0.9903954896872307,-0.8712609996746226,3.5824334109751989,-3.6333475214170445,0.6216615948919069,1.441960332706186,0.8566259363351199,2.6795053977834559,-0.565122934989442,-2.1950706582527514,-0.9372267900867479,-2.4636258098410934,1.780432193487206,-1.3418730067348988,-2.9752909610092947,3.03092425183387,-1.7859482945636176,3.1538296998907029,-1.5080367995070836,-0.641951804296667,-0.33346386474141079,2.2595500786502455,-3.0018209593217888,-2.428192308564502,0.9852539568510688,-0.8302746039177427,-2.6881736005071419,3.0232980848353057,1.4023995521093298,1.4041682202066133,-1.6637844208473849,-1.4960558850828064,-0.006113767322730723,-3.5603600426136055,3.4835344673622057,2.747642247886157,0.37226371150320239,2.994298309532901,-3.8394014221526415,-2.780558522952031,-0.08139185679085892,-3.772542805654755,3.174547432808011,1.8994446373453773,-2.656130820224271,-1.493888231180355,2.426486427532689,2.3413938303945098,3.585169961670302,0.4346266730782027,-3.8601937651750086,3.8301249592492105,1.1974761129245,2.445722011315852,1.8324291530556734,2.1202586794551827,-2.4448160560299199,-3.6434668255373765,0.7207332464971676,-3.869881594706693,-2.6607809465676865,3.347251871160676,-1.830776359261472,1.6848688111970063,-0.48337777505135906,0.5887796461093622,0.8782535026673699,-1.239659671444155,-2.8141852735310408,2.5735774745436128,-3.9613834423051577,2.785117911244158,0.5177998086267861,-1.3781251627096519,-0.07170737399813931,0.6799006685301965,-0.5779678340522754,0.3248238839822335,-1.1654758347312624,-0.7932208066165112,2.469162085319132,1.3247975680921469,-3.9965396598938476,0.13969860117208644,0.8007175352092384,-0.2041724863208234,3.641447348811611,-3.5926138384550256,-1.7466290747047495,-0.2764960240134682,2.9766307207502527,-3.766975605683321,-2.810811696192313,3.6027216691311425,1.3516593035161817,-1.3868443147317853,2.3585164304999228,3.7186126275101154,2.5132433569119536,1.6573426669298189,-3.428517334897399,0.36135848752053958,-1.0270399440510046,1.928634972662639,-1.7786737848610169,2.4051078692001148,2.6685094329462188,-1.5941375104966085,-3.5624842251489134,-3.447190776816999,1.7442527599055762,-1.5451800373161274,2.175091057595621,3.432058050380288,1.6588624066306768,3.962935536266736,-0.94390723692317,-1.4135132776384228,-2.027547241666963,-3.2251254493222625,2.3279868420156797,-2.5398416913083246,-1.8712139405710869,1.621357629363275,-0.5779368617412617,-1.1082244100224957,0.20956720954111852,1.4707251838680673,0.6704587353189204,2.412665491313228,-0.8068845545727079,1.0754805662351102,-0.9255939962021815,-1.3654642117077743,-0.9032066417911808,3.7295423693309797,-1.5724431792515433,-3.308252812715347,1.737350789711937,0.7918961273059351,1.674505519345943,2.2622409770130007,-3.4150633945320916,-2.4047204992601669,0.03651477566100869,2.5775810350033909,2.1152857615326496,1.530559821540729,-2.093590580431454,-0.9137370388766806,1.9629800748197122,-1.7626889943815128,3.732219491461727,-0.9417315167015092,-1.6419238026684154,-1.0311323740790366,0.9325368633351108,-0.8519242958220161,-2.0695609483013586,3.99746071076798,-2.2798784591293499,-1.3821805692509042,-2.8640798378073768,3.0567881835896548,-3.55226480424965,-2.571413444054164,1.3780648858523855,2.6555310298070777,3.2997230539879318,1.3839699975713718,-2.73376030984158,-2.241943957360583,1.1625784737821424,1.6433491831252996,1.1067666601876587,-3.4339868214384188,-0.7377778843540162,0.34363674298105098,-2.977211730271531,-1.6811695890947434,0.4863653489272055,2.2257302667797527,1.6243093234300857,1.0142103994505565,-3.3164472983750858,-3.008545157852577,-0.6353942619784492,-1.996295706538322,3.1874766510289929,-2.798601148384239,-3.347016449156751,-1.8315400965532663,3.020074931964804,0.528666108691989,-2.4860043988342754,-2.8677250912237977,-3.2499037605575165,-3.3255306182397526,-3.6257180751392727,2.124441112753651,-3.2856599513838597,-2.0913597323084325,-2.7844406732682627,-1.3619693142490075,0.40067114988855137,-2.026775669817985,-0.6849191936331225,-0.9449915166702239,1.8093266196981369,-0.10658118149237184,1.3849847342752817,0.09204998418672261,2.532403987177724,1.367645983650366,0.26331731851513587,-2.0866819813178489,2.7045961877365878,-0.3333041380950996,-2.1622045773554907,-3.337755087108331,3.7127877648655067,3.54956084755902,2.478280773411438,-1.9813079313688092,1.3482673209725987,-0.8635638420977669,0.8689297954898523,-2.0888912491547879,1.5263211350051159,0.42153580715305508,-2.7320616318223189,0.6007049274620169,0.7139716783994885,-2.8481314076063386,1.708521848011018,0.40968690018979006,-2.957307061538641,3.090864041902603,2.2881856327874869,2.1643353149279678,-2.2799603629653877,2.7090260298370234,1.6901413314471432,3.2051638690669588,3.839035050851246,1.6492590663770859,0.9297077246947048,1.6761258549547514,0.22590740697008017,-0.8547810585046349,-1.9617952794668812,-1.5230728129803988,1.1684852469364869,-0.9298746189526543,-2.3612627150178424,0.8233525328081681,-0.5741536253091015,-0.9528747218544373,3.5549423026191455,-3.2686604587731944,-0.3566236556026823,0.93532043872752,3.4561876529539576,-0.590663262513913,-3.8386601008239848,1.7175448081929963,1.3200792167642908,3.183943141004094,-0.0780939466335917,0.9821518860518381,-1.904090794639128,3.8545303171075604,-1.0953995821649026,-2.333250657064048,0.584844599010772,-2.6021479513430618,-3.82462195077445,-3.2040974731486457,0.5424510733019012,3.9585107884866019,2.6986604951137069,0.21900254948932219,-1.1532245741017482,-3.2523116290435984,1.6353181646051339,3.218101321406932,-1.0039970209932632,-1.3154250854362273,0.9772846390485928,-2.3691661122173448,-0.9642523521734232,1.1637275903676754,-3.1704900092639098,1.3371245424460883,2.8416866435035068,0.3826164213344798,2.382833195741675,-0.6018219781769216,-2.5678943881957174,-2.0468548006848277,-0.23409368213208715,0.33403959586521117,-3.896530408943848,-2.1337997503548928,-3.4996893728144364,0.22091947207167185,-1.067903966813301,1.544425740371783,2.1330207372419567,-0.3249359820367721,-3.0426003832625234,0.5771186033772917,-3.425512055834224,2.361933589581821,-1.3681714438658122,-3.8182440283246494,1.4447700215814373,3.249398310533378,0.7944148053749389,-2.9294688007172189,1.3434824703677873,3.002561774636762,3.9068310281125084,3.1301720826120578,3.6539656000074567,2.033708548101795,3.374391928715988,-0.2740013936607697,2.057659492961304,0.8223612078752192,0.028438854804102577,0.6049825656628034,3.1770270073093558,3.6635169340003506,0.4754646307598511,1.670563222473965,-2.723572429943389,0.8237335767360721,-1.4407518175453283,-1.8989009142084752,0.7850678084825873,0.19710207121807689,2.0661833939569105,-2.2813347604617144,-1.0616936842220429,-2.239644114447163,-3.9699093873653874,-1.9623692815650722,3.4638661039237768,2.5606721418247515,1.5840684675836663,0.07207771650269646,-0.27074328718791365,1.1207127319517306,2.845051275099512,-2.7601290976891379,-2.319478177789729,2.574891506091987,0.39491471165259198,0.64551267960496,2.7465243100769616,3.7448832201003565,3.1309980885727306,-0.03018563930051754,0.007727969137437896,-0.9846308436988129,-2.7710197376120204,1.5443479073278779,-2.907103142646611,-1.2195293808195389,2.785591638003142,-3.2767635237021786,2.954356725785341,-3.0531408928342049,-0.004047231546328689,-1.1557376441558403,-0.8074338446466298,3.166246637171062,2.1878035469961265,-0.19519615927899815,-1.9476213352100738,-2.621503396610107,-1.4830069296123032,-3.1774371123149338,-0.9505935405390174,0.3006175872672676,-3.3566894374204878,-2.6574840914266799,-1.6298253020908134,3.813815464004917,2.7734473672215369,2.008474196929823,-3.8466442524118635,0.19780373688456,-3.1282033715623775,-1.3619647139572715,-2.366760811153979,2.284820937108708,-0.9791031326053901,-3.8073938679633478,-0.7082784304810923,1.0249843602109677,2.0729550720084308,2.8650012003992826,3.025412821294787,0.6087158620849502,-3.100410838413799,3.678926799503907,0.7062893225730171,-3.5654569975542245,-2.5514874375115257,-0.9341199924391257,-3.5938533195957396,1.674509092164839,1.2148690519875185,2.552860588147386,1.306227950230638,3.027833373008143,2.184529159096412,2.598486677937302,1.2926801263458554,-0.7875859808324099,2.818567181043707,-2.07091701221559,3.127655002327306,-1.5743837783925925,1.5425970382932129,-0.952005017224488,3.979562872191406,1.5796947272265332,-2.297731979052105,3.1367305279701185,3.991983536118001,-1.9571340886784504,-3.9404204529889688,3.3082032497762858,-1.8349560371254013,-0.4822965292106147,1.5768723532248333,3.1136787845433648,-3.339029926946858,-3.9336505508220078,3.3316461170639988,2.0905063721053205,-0.5342268137941189,-3.4810000632640669,-1.096221021836602,-0.8132077276319409,-2.432492967650856,-2.2502850033855887,2.4171278739121968,-2.4886300543571515,-2.4622965592509535,-2.6383127426566475,0.04620182639119186,-2.6021671335524028,-0.5954183681697334,-3.8626689747298537,-2.9561378173051988,0.6345598632267935,-0.7776169800858428,-1.150781381613644,-1.6677529184187916,-2.4656051631622004,-2.550041475721839,-3.2515715876335609,-2.614587077021702,1.732474789505745,2.7149889588517857,2.364993645690797,-3.7785779274448458,-2.9664372333082165,2.8176381147816045,-3.9523450501191839,-3.5841794322901769,-1.278203842114568,-3.6516586710796146,-0.7943858267871826,2.6884707695996106,2.7242396849792316,-3.568693663758313,-3.6135474570217198,-3.5940094842312648,2.5972189686817996,1.4801000787487669,-1.642597240663208,-0.6566346185173755,2.3466258396765147,-3.6108846014214039,-2.185694444205625,2.8043370248332746,3.8190773423692407,3.2694780109286487,2.8777880651570966,-2.8571722390623135,0.7552570482822496,-3.5019040411285635,-1.3770258243488245,-2.3011147601095427,-0.2665156217739517,3.5959593919054608,2.288299219888894,-2.369855129014552,1.3288969515281615,-0.27404912854199106,-3.4034619189679136,-2.6294727749709727,3.725198457608,-1.5238996613748233,2.503314698667203,0.22172058941967344,-3.349210997198405,-1.0574258586165455,3.7014555514807956,-3.5271772161828238,-2.80832972984007,3.932705830967734,-0.973314722853033,-2.704965724461271,-1.9049150582890826,0.6586328791689642,-3.947576989443709,-2.475897240673347,2.189274794173297,2.935650317697407,3.040200078455242,-1.6439358591538494,-0.18201298403241518,-3.543870519329359,-0.5428371949676141,2.4049765189489538,0.5667303069631959,0.8645353090802725,-2.773875922972527,1.391063641349957,-0.3414720199892569,-1.2558991802536728,-2.19948823759338,-3.3090864254604659,3.301082635002272,-2.6118873285366108,-3.041799968855834,-1.302920272284526,-2.84196580805719,-0.6225557132433321,-3.400600002969453,0.1133685070979844,-3.913984596386088,0.2737137215842447,-2.069573580476219,-2.3363854979769389,0.07217535427298039,3.4643198662241279,-1.2308835273011363,3.4312249927058184,0.5861378093807881,3.0243164084369198,3.3991188586755225,0.17687502666564026,-0.765102848082833,-2.217739428162618,-2.8444573970467896,-0.6140908609664117,-1.9138378479017695,2.3856654519170794,1.3722960199412127,0.9749938083372438,-1.1027656339602832,1.3054257031003785,-1.4501240563703418,3.1584879532035199,-2.0457073995444476,-0.670678308070068,-2.4314647261420498,-1.8205825002256706,-1.7684838834396866,-1.7260363496232794,1.1357142448603526,3.3969075855242254,2.5718829604771225,2.3105498428025994,2.528909628142615,1.7681512450260276,0.6879886251172751,1.8624410327167116,-1.175422359142699,3.389865065877064,-3.989215323582253,-2.3261119510586738,2.927024768498436,-0.6746216729730312,-2.8071154620805007,1.7562527755640645,3.7270534742697807,-3.7964920937401418,1.4798240890040333,1.222480212221968,-3.3723358239389205,-2.123480944713611,1.7806556541276289,3.907277601431433,-3.390531569003886,1.5359211158851923,-1.7842195479850008,1.3614892227448552,2.186976394036204,2.7123448213009935,-2.7588542414679209,-3.3294885787496666,-1.4383703453945805,0.3555055046656701,1.2568269292069179,-3.3139643404400589,0.9327482840011232,1.874460136621428,0.8299273905026876,2.3914839013011015,0.6888412165639224,0.05647284007015241,-3.685883998524611,-3.282324384096542,0.693662663764453,-3.0954180111273095,3.9017447801899198,0.9736677853440359,-0.15842106832903103,-2.836235214155865,2.4029116390668205,3.411445816693921,0.20920664005677826,2.12326123098722,0.8979250971791153,-0.5058885225128105,-1.210737465756429,-3.7573554882881936,3.9853699416208174,-1.0254056985889158,3.0109950004039067,-3.5499195349313918,1.4920868667852574,-2.6117635456498018,3.4758385825328697,-0.28082499944461838,0.019878416479059525,1.67694992551586,1.3916273136730198,-2.5991580938244365,-1.0828404281788016,2.399334347728815,0.760752273909028,2.767366295311472,0.20453850617761483,-2.1796855924389577,0.6462063246578138,1.5648972692649573,0.6396911659728115,-0.07535179056313957,-3.9531194235854247,0.4222085631789785,-3.3236848241935847,1.5907740108234423,3.3242498213834885,1.5842237359356668,