[-0.7010527466824106,-3.99627096495602,-0.23624699192605815,1.0811889935317707,0.9131530302964848,1.3032556907412652,1.9709714971755537,-2.1031407633254437,-0.36449698690812917,0.8289320122105997,-1.1642665040910403,2.6912086620212189,1.2985236219608325,2.4614174798709689,-2.1785988872742987,-2.4649251584512088,-0.5058822606267326,3.581958654047808,-2.9221815349905144,3.59892504235689,-3.5581122586088709,0.9340498107753117,-2.839148778304474,0.1289981600217116,2.9591902006642174,-0.6166673737475188,0.14390293526698984,1.2367488189306775,-0.9655223390926524,3.612420148015607,-1.3424873154834989,1.059690757244895,3.7815033771059376,0.6354675107739229,3.905196635278938,2.4374783246656017,-0.2998790849367525,-1.4702124558838466,0.8793357495970913,0.5739029364030222,-0.40368987197568786,-0.06515290835855137,3.6878150726307119,-0.20310252991558642,2.605076369534631,-0.4809843376408365,-2.603390097978779,3.85371439044087,-3.4502117569438885,0.9340835375697729,3.153068688039233,2.9658485492391817,-0.2938063266932218,0.08887725921470224,-2.890692534878583,3.701672661459517,-3.3531822021771857,-3.299067965524859,-1.1475132545463185,0.5011949125513215,0.3027695197271836,-0.4102867708446458,-3.872708551216121,-2.5006876174687244,-3.537808247938629,-1.7952840368860519,2.288162523516182,0.9749877361769563,3.829198769634216,0.6710932433309882,3.9839126729213838,-3.9332701934955658,2.336459296990313,-1.6387335258752279,-0.5151776445124214,-1.8259319537659769,-3.7691923286713626,-0.040569710150869079,0.45252720070494059,-2.1057216723511908,0.13872097846476273,-3.214786761112869,2.906935931412727,3.111803688248794,-2.3120130897148476,-2.452649259704895,0.4071069805067493,2.194323491761529,1.8880465121727559,3.6170890122070418,3.586435117070544,-2.1205557416179978,-0.19791353455807138,-2.033360766878789,0.2931272430538936,-3.7009262482303377,3.262455918247846,-3.8942001776285428,-0.251472644673598,2.4318429368752998,-0.7077846829590795,-3.3840392531637759,-2.539523703901292,1.5134394964237768,1.334120184479966,0.1017794548077422,-1.4163645161274039,-1.1201303517766162,2.1203052341207799,-1.8739673932043628,-2.9113850219115466,0.21042138587614457,1.3581167739999085,2.591199598045989,-2.1611293929384027,-0.6924127911177891,2.5775172354403246,-0.8243581167900216,2.5873801463638728,-2.7563738326728908,-3.461783810111431,-1.4195733251346832,1.6431605115250552,-3.8664644804207386,-3.139129653630034,3.342330169788924,1.9475801223785379,-3.0367198383817666,3.0400961410999098,2.4654651702379857,-2.1752745000338757,-1.1055843260347159,1.939156853586085,-3.5338210804244545,-1.9797950119703066,-1.7165598728870888,-0.4670755354989353,2.0478124690957228,1.7896707898235383,-2.841593671139238,3.0170897449771045,1.1170823687200855,-0.3186155209648467,-0.5374062093313503,-3.1264103603869639,2.3069324874475196,-0.09510955755983886,2.0207698220742769,-1.1103645568006604,-2.3017764870491268,-2.9815473842166204,-0.45239670078289709,0.1688721039393304,-2.0913706368968256,2.1408920682098468,3.6953777831535907,-2.5952259921674054,3.4465488687509389,1.359153476405507,0.8772508101578742,1.870449125613919,3.677534257127891,-0.271093773622769,-3.1945337641582869,3.7529470748750954,-0.2549634517075168,3.159945132045758,-0.9838608885564997,-0.7324973323304045,1.9515627688969373,-3.9171520827375154,2.7415711183557249,-2.646800478025197,-0.4431867229864803,1.7548822103007496,-0.7692366133156332,0.3011512472232045,0.16222481860894079,1.0617474472134135,-1.5712213580647206,2.2271778408444229,0.9055153465080803,3.342489637192365,-3.4735466435073638,3.8861362013582205,2.405491873475783,-2.857129508530436,-2.973677090201295,2.896987925762727,0.08656441473854493,-1.4368752778908967,0.9676994334630571,-1.8819291511071495,-2.5277425562523758,-2.2588867099119458,0.2610322632221216,3.3781823301483735,-1.6442229409488763,3.5386307573131754,-2.025528378563468,2.8537506256949287,2.257907195100673,-2.402534745845548,-2.902158632853247,2.3812077296986686,-1.8602758441687755,2.8371567360241025,3.1631720589216236,-0.4597202028301881,-1.1776151202001045,1.1139687714518534,2.6617487704078774,1.437541377767161,3.3733058643714814,0.6468922577532217,-0.5592144691928154,2.840398110048464,0.42270233281123828,3.6720885042591728,-2.1236002482428164,-2.6201849911426287,0.28202125435198335,-2.911406021307413,-3.179367322358627,1.8781350271825766,0.02415036845844476,2.7478989656345256,1.2830700286636923,1.6401740403631485,-2.832619050972654,-1.213847934371711,-0.9673081250950624,2.4240975278552776,-2.751851143845231,0.23705647970597444,-3.629144817567944,-3.7473097835354558,2.165663489328977,-3.8163076837707967,2.486869924260792,-1.2723536808991976,-3.750062744665243,2.0155125401130409,-2.905819948498568,3.360325946293533,2.6632715451190505,-0.38138797858568176,1.2332748535105767,-3.9835791264704234,-3.798245556318194,-2.122443415525888,-2.7058077508150859,-3.5621117093117569,3.088786961485104,-1.7675043381883349,-0.9053888278533533,-1.7910236171048569,2.936267092141742,-2.5196676987108406,2.8924149480082006,-1.3698181885141188,1.1585486849617973,1.7120631064776042,1.2302767713237595,2.1810529851492435,0.42604893211312069,2.503113370477366,1.2115554670189229,-1.2157845324542374,-2.55402450001181,-2.3787592771547354,1.615800077780838,-3.6710881444854985,0.46593899807079267,3.865886947594837,-1.058779101883264,0.702549780152423,0.038756885240500697,-2.1378759327662708,-0.3824022250191854,1.1122486828878389,3.385400947859744,-1.858017045016991,2.81573339324167,-0.8689770688857765,1.0059810401236087,-0.991278534412011,-0.08199036814106986,-0.582374401531071,-3.0456388317532605,1.8829143119016819,3.5430749771821716,2.2932694180793495,-3.844161770042544,-0.9150333958849179,0.12639601168168913,3.5132358009838855,-2.4685553269617968,2.415105696882491,3.0458413369376089,-0.3770617328765018,0.7992676786630755,0.7094786634737291,-2.26107544692384,1.0289322844129645,-1.4213154111682505,1.9084294010072949,-2.6022570624753085,2.8628952582886555,2.8201537022488116,-3.3720439432570554,-3.15951262431914,3.8036449557354317,1.2328847102298948,-3.4202738927728886,-3.4507558537982687,2.4572834696435308,-1.9711201080199237,-0.9839881709668008,3.727133262142474,-1.6914295008460914,-0.697052734294509,1.605189786036961,-2.71635228382726,2.682241762067642,3.3022116711433275,-1.6801775086657925,2.6083077412949224,-0.39107163492965216,0.7309749324593486,2.1494510615886099,-1.1732387874898934,-1.4106637806993403,3.5022867896837006,1.523722515830653,-2.121224716597994,0.9978513985460547,0.7541026667451716,3.1068043860204934,2.0917446207095597,1.9167185322795728,-3.0810255099799619,3.052877752863611,1.946178615921779,1.0487846132327095,-3.678106570658545,2.8337399331369479,-1.4409784663481314,2.951682815519673,-2.1223849873743818,3.726118919918618,-0.0009846511047717499,-3.7642031961348145,3.517799786429096,-2.352790935176996,-1.3166450226413718,3.170748976061292,1.3605414540516199,2.5509263959725168,3.4042663545822098,-0.32448412712031229,1.7964136217798217,-0.026595995633129866,3.868783487993035,3.191773535918818,-0.48168962356928538,0.37353319312442948,1.508506615278292,-0.9682035371605915,-2.35899796998153,-3.9050592138548447,3.475627269262806,3.949401172870896,2.651396301115483,3.074128020985121,-0.12724169186166968,-2.6487279989398937,-1.5137642395594187,3.787615847996376,2.069889942095018,1.6489212255906037,3.074859803958857,2.9373815693671556,1.990680219996496,2.2490241300537248,-1.5150383851929235,-1.7598541676673314,-0.16355807912063104,0.3071925839658416,-0.07756932833315999,-2.937482161511629,-3.1346348850295016,-0.9800621968957157,2.7434768205411448,0.43696737730029958,3.027642732530045,-1.6794205803124796,-3.1703150730635629,2.5573301733773565,0.6998861041065796,1.7631875295203133,-0.5578601500524061,-3.0297387979744947,-2.8326935942600315,-3.698672844029537,1.5549217999189305,-1.686159888356537,0.30525779532646615,-2.1384736846767788,0.8026123721941634,-2.9106439437305378,-1.4227816392759545,-2.9515900910226167,-0.12172384451445595,-3.927434664932024,1.67212271584821,2.5224061004769879,-2.778869883020488,1.3603271786723648,1.7452525165007984,1.1658516537636992,-2.077347713050261,-1.4810158014123376,-2.343920726588885,1.0124943774799782,-3.281796905702679,2.008534416950254,-0.08575307361499718,3.676325307830372,-3.283436070611355,-2.3454866944067769,-2.9657056458346195,0.7965318236775127,-0.14502682478026886,-2.1867980553264898,3.654514821425316,3.661601116970049,-3.6619611862480836,-0.4521556717465638,-2.0453051860360018,2.003731736592047,3.786380142691895,-0.6515532887568378,2.714422803533556,-0.16141960257692768,-2.2672781658477696,-1.160804806562366,-2.5284205341778867,1.8012427225048509,-0.4831179460690924,-2.8484918152398785,1.8138682234637776,-0.43735702834815629,2.5558911520256588,1.915794002593846,1.232670849915987,0.9541370071528714,-0.6753686869112894,0.8520565088059353,-1.1237719445841874,1.46149197712107,-0.5291785774826645,3.276297024019974,-3.2345268979596657,2.1117219325995268,-3.9434802208957464,-0.5369559886678734,-3.729526192887511,0.11449186734616124,-3.844462104858091,1.120011485808992,3.7106982830508894,2.9551771118898868,-0.4133752893286937,0.7579533320661591,-2.8936467461091297,3.7933207390708167,-1.1592172033079563,1.332925332081886,0.7869994494498629,3.2639595078580525,2.1567664285068108,-0.5671709808593202,-0.7958082974235898,-3.2787237560929087,1.3477930328068153,2.160017230037125,1.0635868527777275,3.9813092906077278,-1.4264499642252382,3.635786562189825,-1.5674930089390005,-0.07737537376124681,-3.4933657784035567,-1.5801824744375273,-1.1410219539954119,3.449445323891071,-0.5404187342479823,2.621619574327161,2.0843864600381245,-2.7104192007903267,3.3518834589549666,3.659099171131553,1.0644690007245386,2.0534404459705319,-0.9048872994124357,-2.3764833675672447,1.0587528207940702,1.5037095195808137,-3.3603258082149765,1.7172131265095532,1.405106702096993,0.8641186545750292,-0.3479773727288491,-2.026709735002913,-1.5265374753016019,0.8528215409093383,-2.2441993387864684,2.2842369897656864,-2.057420445143598,-3.8049818408666935,-1.077532142561851,-1.3881820287021046,-3.60475410693894,-3.0330379965636116,-3.157068396547139,-2.010870288902069,1.178081076216965,-3.543455822469909,3.9696161402316445,-1.8508258822599615,2.1881576171868835,-3.8505029142741256,3.5657231020824406,3.675226041405857,-0.5754965641806822,2.5479730917408558,1.238646376008731,-3.056536210070143,-3.6682221957230576,-1.203012350796097,1.8022583704535605,-3.9844707742640006,2.351073715087929,3.858347832240014,-3.4795784147679518,3.6501542840457148,-0.2746049049987056,-0.5868514357179846,-2.3875131429382865,1.3763479669060868,-0.7762677763608659,-0.37186540498224099,-0.9439993344639708,0.3245127341750642,2.4373514014170416,-0.8398038518072963,1.597685119356412,1.9119952099893718,-1.7101596469473164,-1.3958486828207735,-0.720305267535778,1.1479105736951505,0.30616208326933416,1.0228117499648324,-3.488565232556506,-1.716731247279248,1.2041302321703978,0.25191305911194208,0.503810606764973,-2.657167194519383,3.8316969704401186,-1.617912188555344,-1.3907613590820416,-3.071071643529402,3.839918206201813,-2.0322324977504806,-2.538142815122214,3.2111833759306807,0.8866810092942412,-0.9469245575901406,2.2514852595496697,-1.1423778798318259,2.482267109469622,1.9080797934075423,2.2245309535045,-2.5573561408078939,2.067382067979036,3.832321657034629,-1.918825169447704,-1.5034820857083114,-3.6692870479445807,-3.9185589219977077,0.7052485100882562,-3.759867315345021,-1.402302039497024,-0.18742681492059888,2.081864200806292,-2.5613787897353976,0.7964572689086866,2.249544337160674,-0.2877887065117901,-2.591842775587952,-3.392598286720564,3.0764705604378888,-2.206982155199599,-1.469224050412249,2.94318856221944,-2.0242402896222115,3.903268528615044,3.337650349546789,-1.8313119479070375,-0.049192790974688319,-1.6465801478388454,3.573682594987547,2.1065683141490165,1.6439381912656695,-1.7988201646676315,0.6037247979048939,-3.8055160630141264,-0.5397619877614217,0.6379794690018876,1.6768236141602389,3.855004465977829,3.9598437968728934,1.9759240315224985,1.9523446141840957,-1.194951112662258,2.6682434555143317,3.203633137046311,-0.9840573054025903,3.077836363722181,-2.646794363058418,1.8657901741971097,-2.9518743150433135,-0.9739388529317408,-1.1014618841057038,-2.9703247887113077,-0.40958960220556786,-0.22390695431687769,0.08338603392611344,-2.1843725548810974,3.2606839777391336,-1.7414910324189797,-0.1070363909650498,-3.750885576434994,0.45673872593463829,3.8346768267192017,-2.021189563691509,-2.4210201683326817,-3.617285745471899,-2.663456174823086,-3.894924779672964,1.9943465763263877,1.702997043937824,1.5387804112935513,-0.9864935853884989,-3.031651897199903,0.3539127345225772,3.1136898168593944,-1.493856296463357,-0.8516069427510224,-2.612086770888898,1.8926105032767407,-3.0414830210422378,2.5166248874909016,3.6576562821949558,-2.25860140202985,3.5008431431101396,3.0441771433243716,-1.7389507890285712,-2.920364647530138,1.232387640583764,-1.116983525893607,1.3110952237679064,-1.4861907321560624,-3.726620919211534,1.1175212086724625,-2.0648818602483436,-3.1173321996847376,-3.6005766115191157,3.0586611662611,2.29623764511551,-2.9571915075879859,0.15009049439038159,-3.067039686811781,-2.123281500405132,0.9039426699362974,0.7257662003916785,3.402115599687904,-2.1658059253704629,-0.7702874889471387,3.396449069632853,1.4970759118371655,-0.06292329086416238,1.4261591378643504,3.2740253920124058,1.0373176869199475,0.7886370724324294,0.8814468595364486,1.036056061481287,1.5748639210578457,1.1227525336702229,-3.0503676125119005,-0.4900388567132625,1.0076467752502465,2.4563195421258676,-0.8652555833859088,-1.423155443368148,-3.008735568189434,-3.365435447868676,1.401893233545489,-3.387521855268603,-0.9811944004961555,2.6085508569259865,-0.8961724448823014,3.3867542505409986,-2.8970149126089987,2.098619312114928,-3.6866832472946724,1.7454599870483066,1.096774660534873,1.7851708497626496,3.3757157108372359,1.0639052490481956,-0.8377651515491378,-2.6230490794370544,2.3474102632923348,-1.007406544902432,0.6416052477666057,-2.4546463313816284,-0.9164066292122775,-3.2003486764685844,3.8233494367142679,-1.8279471069607257,-1.4371020474531014,2.316287855754557,-2.4032723253393408,3.257516837834541,-2.103693412877824,-3.437542286127006,1.1606420992072356,2.8679857061941664,3.174245177657216,-3.0876338515879926,-1.5723080381838495,-3.7355590803258975,2.0952254724570738,-0.6863944349867124,-0.2913421808730021,0.2603936772175741,-0.002825157144287438,-0.11364948322548885,1.4110793416767456,0.04480076739019889,1.8763718502587877,-3.2967781289927169,1.9077944354668955,-2.952462602957091,-0.8367922478624266,0.2731634839086752,-1.8244231525519917,-1.4488760615256633,-2.5709925147869585,-0.8008697927460167,0.7969274457614759,-3.249048388671908,2.202890738167877,-3.888876483886394,3.604528815411962,-2.3107882242293718,-3.0195009398306116,-1.2218524446060697,2.800186190602685,-1.878678385978362,-0.09894487820872633,-3.6443265920417149,-3.4512023422804365,-2.5844915970414759,1.3081696042171647,2.826036743068462,2.866672064196102,3.387959145264187,1.4741801283583929,-2.8350221105548565,2.9209136977332035,-1.3484314091612638,0.19239678316468113,1.3737327072966519,-3.228639414639331,-2.578099544416035,-2.1821583603180487,3.170090526797739,1.117535230758718,-3.4012086154500045,3.806851250711248,-1.4851641413731416,-1.7338148048923666,-0.5438968930495756,1.67620875834442,-3.8466492831045828,-0.37766413037184778,1.8509259747026637,0.9939128090550842,1.7594849825812027,-1.1905172476916766,-3.4155598178428647,1.008754951667461,3.9341992201184707,-2.822553372233182,2.0966237195213308,-3.3842321572975839,-1.4116989370008213,1.5800038433578916,0.5893272401229899,-2.9039342348102936,3.272461865914332,-2.0941384132674036,1.744220888786681,0.33464947374661949,-1.2414015221140194,1.9730100235765127,-2.1125619660339209,-1.8049455532452106,1.1785823750676512,-1.5260089796853845,3.823222847845484,-1.101729613473866,-2.73969326589906,2.4517944685394585,-0.31711536934470199,-0.11146420625973885,2.7714370889392034,-0.9505971421788821,2.6891955940363827,-3.316376096377386,1.2368857164813703,3.7425044236318945,0.6372039938502478,2.7134460696373869,3.4869278967596628,2.1751305816844646,3.4750058809089,-3.3932149055777849,-2.500447395565362,-0.12796821628716249,2.5321732330003039,1.25530537576521,3.8173350943324619,0.28203883859352088,1.6083881993144998,-0.9860616342193751,2.229137529000141,1.0467365241321947,0.6911609355050574,3.3765991807739299,1.4137974465773829,2.1478940343862025,-1.5474181284581219,3.6363015302117009,1.5522194675342017,0.25426956260390468,0.3007939297628024,-1.9816480307842264,-0.3556280790194828,1.8942861369856097,-1.295058874506655,3.945576094148481,3.7139025139395178,-2.4320047085346809,2.285622374001372,-3.2691600199710217,-2.6828426864954,1.6296135408173172,-1.8134359513141758,-2.159951012070321,3.3361713061823039,1.9556861100698298,3.056040209202636,-3.388045890615836,3.4835143657014777,1.3104320057611645,-3.212264592756016,2.868103163126536,-3.647679161340652,-1.88620743211575,-3.7529381134249446,3.1714708872682086,0.8095715852154628,-1.5072997888684794,-0.1473189131453525,1.967413307235713,-0.5962650740780011,-1.1633782453770323,0.958794880168873,-0.8169127309009878,2.878656230384241,-3.7203786965536524,-2.0908332440539567,-2.878014003443413,2.81586545385675,0.6178884141579637,0.8509745765637611,-0.9794617309744178,-2.3581539902452226,-2.8840673503499385,-1.1559349405611704,2.011278200327867,2.6720944229823528,-0.1639265006585049,-3.2899606422593656,-3.634045401700412,-1.2638721698767697,-2.1640737230575946,0.4751138354562965,1.9394952966298638,3.8765342968861278,-0.12986318318431956,3.9114055491649246,-2.9851434031238668,-1.0185477180801053,1.8501396616472042,-2.394834478533296,3.7988450071673718,0.5330557897029218,-3.0668408888852989,-1.4027562336413764,1.470183469657111,-1.3234745091279683,2.9495485881230056,2.6159438499254596,0.7173441883251019,-0.022034316945132916,3.5292641488964957,2.2086377157680188,-3.236102759683722,-0.8409695729541395,-1.9541655157508389,3.7879341848412269,3.0022717918903085,-0.9054218092066184,0.5952792011141543,3.07187157882049,2.512392234554172,-2.467125406410478,3.356805113314204,2.8407746537461318,1.9168182103781906,0.3832782260827532,-0.40735065671875839,0.2605099603742973,0.13819813248379465,2.635106833193638,-0.9377376086438085,1.372971836672983,-0.05760389991963977,-0.7137409718603072,-2.7959666097319895,3.565928151677868,3.034235670835418,-0.524079610019875,1.4977869743920076,0.30949928902037096,-1.739590660666437,-3.30847232712215,-3.009522298841807,-2.5467225834243978,3.916574066902717,-0.12698609737968503,1.190070800102025,1.1305622191626066,0.6555641477279472,2.938150625088987,3.4914508415489076,-3.8294497196487917,-2.4905801268273057,-1.78150796014895,3.6741190103481529,-0.20624281989170946,-0.24160423909614349,-1.4393895104531654,1.7496671115259588,-3.2452568374735879,0.7394344482950404,-1.0491722374506934,-2.640842998279979,-3.9294481409097559,-1.1529639631071119,-2.445460659488363,-3.7194469985054647,-3.8218801797285275,-0.8888608579794815,-0.7691382376743314,1.6598962624232945,-0.05351684893578201,2.3948631387355316,-3.3055573808129088,1.5895622915594885,-1.5770067112278846,-2.687503046550689,3.2851506322477599,-2.3761819920883466,-3.6992437470540544,-0.024756695350436565,-1.2516279400442104,-3.8383475490301208,3.5705540707927758,-2.2584856562351565,1.8296283225166015,1.523681613303017,-2.5967003732477167,-1.836547159435364,2.7257684177100298,-3.1463860825989515,3.460406195704718,2.9829075948204979,3.409730414520963,0.9711306782694429,-1.8388503223727744,-3.8482434434081416,0.14669611650678594,0.3275519025359719,1.9823485810343522,-1.5041570267893046,1.0157587657782923,-0.8669110363952834,2.7481711478698296,2.5132777343720908,0.5116850365597321,-3.562526551457406,2.685322093143423,1.8857579028598935,2.333192571915279,-1.9180112734183164,1.6929760194568502,2.7732731708984499,2.70926316790539,-0.9087068380189782,2.87401251332453,-3.038010994903061,-1.1921649456725859,-3.3273855828818759,0.28718282641889827,0.7031317214558452,-2.7733964320947637,0.8476684754277546,-0.6644486132049237,2.1192771983444329,3.3328291434537684,3.725006498151677,-2.9937415393756678,1.2816748663547424,1.2366589704647329,0.34790343992097308,2.1415084337922929,0.05622700078125753,0.5055847244068641,-0.7534038503773475,-1.308160082919425,3.000674988139891,-1.3692957922328333,3.6900517358544739,0.01858010603626603,3.950287306758291,0.42590955355718487,-3.6105629637010256,-0.9663687870271396,2.2842509142701949,-1.699966241198136,0.43640249073047868,2.71515419389278,0.8457890501232193,3.8992888325851036,0.8861019741873246,0.29975945199875389,1.9134442171182409,3.5499552007477819,0.5363478281293554,2.8351420392875248,0.09324591534169624,-3.4718688400743167,0.9600404698978258,1.4359433162813052,-3.0483983621138934,-2.6921618156986737,0.8432307878283352,-3.8760681513596397,-3.468359232168681,-1.5128106990499502,-3.5513453262036025,0.6058345284836122,2.9351704690266668,-0.4916948238792427,3.6125756875181995,0.8282150312503189,2.6916230475280109,1.3404546816411092,3.6179825995811685,-2.5737956215044059,-1.7880714730297223,3.5400554202472547,2.1509843678432567,-1.6348609814074065,-1.8316151030943342,-2.263464106512986,-0.29403903458400029,2.687286267504244,-0.2908241110938088,-1.7135533391986009,2.4474178224670357,-2.318275175526683,2.8681525449080267,2.269743250335779,-2.035024304734418,-2.1910747710873759,-1.9437205929224908,-0.710960920752852,-3.7193878828029067,1.5217253238273,2.194976127510304,1.87780198960629,1.6648548319539228,2.2158824394086924,-1.7180722251752168,-2.640913408345525,0.35721388045599236,2.6111147238014738,2.638218483349611,-0.684142726414807,2.974531406919837,0.13365621044375243,-3.870563477053649,0.4816267530470286,-1.0937732242387577,1.2362049683960406,-2.1178123212317958,3.031770939570743,3.3979938104588776,-3.871997054327161,0.7153753794578268,3.3177697319909535,-1.890128131174957,-3.7655227804825159,0.9447465218532338,2.785214816731557,-2.500046457351184,0.974522641926578,-1.8241000691638112,1.990731515665897,-1.272216811456332,-2.221231158899678,-2.0652029167446175,-1.7082954724426163,0.5981118844852453,1.6975966328212265,-3.8121706061773859,-3.920813769262942,2.073535567741252,-3.4211096624458827,3.6304836814115566,3.180598443025562,-2.3711020389246766,-0.0026057115517732489,-0.5389630356300357,3.6896220866334588,2.7889914853777846,2.6901142517609868,0.7875315158350569,3.030065627421113,-3.696419367868528,2.8888819411633248,-1.3843820418107098,-0.8122517273119447,-3.4916812066090729,2.534899051617078,3.714826398170021,0.08133877678537971,1.7408980686209335,-0.210151096453975,0.34958248435501018,-2.773671877497807,-2.3926229826182237,1.6862381623545595,-1.298953249830708,-2.031740939088057,3.983016739295123,-1.0970570639831008,-3.0340482499576266,-2.176465866749723,1.929687912359121,-2.954735976203305,-0.5946097159175958,-1.4746953319344396,-3.3089396875774916,-1.2218472746175844,1.6586400634470185,-1.7550046905042172,3.3000787217164007,-1.8916380902182946,-0.19568952960096376,3.4015646690940439,-0.850624658858889,-0.4620474416385656,-0.30569301448150756,1.2408296669388106,-0.2641826808594645,-3.1404956507446064,-3.833912436613107,-1.3763128707034094,3.718358160889432,2.957342886705728,2.68706699315588,-2.5487388457274724,-2.363097564082434,-0.41493661362163616,-3.3747455599776439,-1.5396826635553252,2.6705740474851344,1.616359283526525,2.1671767823814278,3.4688553866545428,-3.0955847975399797,3.240836889756033,-0.37072461212110677,-3.820728605490448,3.759322307820744,-3.0870002983367677,-3.0712765199750509,-0.9539567244895801,-0.7295608128640636,-2.1972480642703386,3.5116854211845078,-0.9796564971115611,2.9329092958420759,-1.4814921992652599,-2.67437129553863,-1.5320999943580456,-2.7332218821504075,-1.427440673256134,-0.4155995374022614,2.4002358986608476,1.628572748280444,-0.704480617659794,-2.7264636908109827,2.7431528294680218,-1.7655706798249203,0.905550878249632,-0.13853845258875298,-0.4145148844976463,1.7249549682979355,1.0573356138990616,-2.94109792917832,-1.1418565391524718,3.472797160910188,2.42308051825942,3.383088297639123,-3.5239017006627568,3.2057380426674344,0.45064965376648749,-1.1417266347298006,3.865332875793065,-0.08492201189185433,-2.100737806242625,3.8822919041036325,-3.3867829371186977,0.3741401764189929,-2.953336514507784,2.7750424546234484,-3.480939460312988,-3.88361829532254,-2.3349017929715716,-1.1354215158758195,1.9364642816120404,-2.445373408870174,3.288924267160869,0.9118089546676886,-0.37666316323986406,1.2104858471883118,-2.2272154127412504,0.03584644812200022,3.8485494906930919,1.7268260906704747,1.4497496437562126,1.482162317054188,-2.678537774699704,0.5639705156943728,2.5230652349704565,-2.935128019235128,2.316401865095923,-1.4382851168190279,-3.327344292004688,-2.58505755894166,0.593811042362292,-3.815566149434378,-3.53508370456837,-0.5188892758265629,-3.778481913833346,-3.9095132988084355,0.5524702512518189,-2.2231782072525956,2.7524511608363175,-2.822719018510327,-3.9502321068926067,3.6183486370171398,1.0018213467571915,-1.6650353287426745,1.0605362194549067,3.8528647637674746,1.7550391045553174,0.37899085576219795,0.12404593189146951,-2.530772658679326,-2.948851806938557,-0.4879036957675025,2.717360711342139,-1.5647789427896815,-2.0616304688500586,-1.361452944598594,1.758131619639454,1.8231616291399764,-1.2023121367517982,-2.262965787304024,3.0586611261685947,3.97608546822775,-1.0682532017285794,3.704210382369376,-2.7653586917497927,-3.110936429603722,3.3432854192513119,-0.3328968038469027,-1.1961469752900165,3.1561713661327754,-2.335626810784719,-0.8609689975725301,-2.468908614362915,-2.9071655679346746,-1.567098994022179,-3.3214161470565797,-3.7929392989182668,-3.5566515810796854,-0.2547111422540187,3.8316026229246997,3.942745814711958,-1.1534261330956873,-2.6941804157801938,-2.833656707775442,-2.0886807135197724,-2.3644965253167617,-3.5076160203574648,-0.5254102929271183,-1.9548025906932803,2.470755153695298,2.5780002816566638,-0.3863414705423862,3.640122706638623,2.5585781364692865,-1.5922459191384773,-2.81536644918151,-1.480614412513834,-0.24109900510454364,-3.4455730063361988,-3.0050248451248775,-1.878277635834145,-3.6525281941333507,3.65007720674404,0.008589868058956896,-1.4165208285688278,-1.7097142049554342,2.11090225013153,-2.813535679197374,3.1474952138008867,-2.3406421683969276,-3.874439182365185,-2.8251268044528858,2.3629914412434909,1.8346373395170988,3.4868158683630829,2.1799238792887225,0.8946163184368334,-2.668557340853133,-1.8921275322687093,-2.8352929682653409,-1.77298188796591,-2.3112807524900829,2.628503711336772,-3.834959925954874,-3.462037473644285,-3.4667763584194377,-2.5901848591948317,-0.551357023107226,-2.0928341601848947,3.8601632956441405,2.679305677796121,-2.91887036331115,2.6134574747810817,3.691333329331841,-3.4311695878837584,-0.9995900758526963,-3.3341579949043584,3.9887837477698184,0.45879893936200846,-3.455984694302595,0.0683186692891411,-0.13158071683063689,2.0522250536404558,3.688962991854555,-0.46453755155576106,-0.4034010821449465,-0.45256727134333199,-3.68075529616564,1.572362424885931,-1.533166655360999,-1.373735743385386,1.324711288545048,2.5709704618434268,-2.660548506213294,0.5508276464154198,-3.4955681222653629,0.5885348550300806,0.11210559029651268,-2.005745710087858,1.4439296728512359,1.5090727564246232,1.8072154647401054,-3.8983660922078569,-0.7385956097309112,0.27813816029747509,-2.374144465017708,-0.9813819817442793,3.916178613363619,0.9412990155248284,-1.4932743417663764,2.1161874491006085,-1.7385441330653536,3.431308460484571,3.374109487744323,0.12765437975567818,-3.3318178329932657,2.342530892892678,-2.4897074072516869,3.3852325379749947,0.4893964760866609,2.8233092847988896,-1.3583045333599336,-1.2616643757960835,3.7952528472585769,3.7539022891136577,-1.3657740023511505,-0.3537704049455117,-1.218507802101886,3.2308601349127379,-1.080811054711914,1.3955653226005414,-3.8189761539047515,-0.7001161995639746,2.2631494836122929,-2.844816749052139,3.7038296546490514,-2.3229951956065006,0.018557204721520116,-2.688904675984425,0.4331547731067671,-1.8916653703536959,-1.1451455187160134,1.50679269442168,-3.8706187521397119,-0.28263955043180646,-1.6320905640501993,2.4129551955204979,2.194369476772872,1.81716335464081,-0.5907169342913419,2.606027000404536,3.4078777830275746,2.9245722076989786,-1.702938347222396,-0.041989542996819787,3.082409207841282,2.3843832339560588,0.4432905913140175,1.5976152402056263,-0.04190990531696648,-0.5848418393380612,-1.6063018291853313,2.493671138613599,3.2522292603043034,3.909315063541288,-3.2593062668167525,2.3716261627569228,-2.18864991554205,-0.22708937741500535,3.9599108154577316,-0.4453232088604777,2.447178644003575,-0.27198898728894096,1.448941812807579,2.885524783791764,-2.028594462938244,-3.249631240244356,-1.0071502248615228,1.704307903974593,3.519122090733159,3.454877475987451,2.896003377808041,3.3692658883436916,1.1326349046598204,3.5409968510781697,0.9031145789889319,0.15118310347196219,-0.38588984140386098,-1.902922828849036,0.2701755164440973,-2.1995987608457776,0.2772250087491974,3.1547846970699107,-2.0763657419894416,2.9406181464193965,1.2295912493584159,2.246310166836224,0.9554694535390125,3.1866630640688804,-0.8026195222194064,-3.9365537202231417,-2.5673216441966089,-1.4845723996544394,1.0718427554929866,-1.2617786066785078,2.194389575551818,3.6911534528065514,0.986396385023145,-0.5787471811306177,-1.548954127294065,0.7085774623222045,3.8436161829668507,0.7393289022212102,-3.5330203433656974,3.3489112804254859,2.484200677424237,-2.792342234559449,2.3294010872326238,-3.3351182609820855,-2.22821147755893,-0.2924385847878066,2.281321269045697,1.7394554680210047,-2.7553570836799556,-0.2650151905911269,-0.4826132352881827,3.983265238054692,-2.384205414732161,3.3524727359727164,2.729404156435807,-0.2393693973374562,1.4522499715893736,-0.5219636055999599,2.6295480978360779,3.091916214248532,0.21692852061209323,3.282307826494381,-0.5981371532234687,3.7739658678821978,1.3589817272429832,-1.4545903132329044,2.422994848291456,1.040888310147837,1.3708019567258019,-2.9349668802778696,-2.1699098912217416,3.1318534304026928,-2.162374422347817,1.9380055148003406,3.516527055222075,-1.3350614525472127,-0.18309953759087328,3.9622704093612546,-1.0534848192010778,-1.8024474706437364,2.105937926188603,-3.568262746380591,2.668692142292846,-1.4132405168635283,0.08865990825338788,2.964137954543805,3.348473701493873,0.7890125297153663,-3.2342192951163515,3.9414541046535556,2.7216309462952976,0.6943377290326094,2.296937356523448,1.176517819556131,3.027959939993538,-3.11207771916201,-1.1222461552917092,0.013166771069520245,-1.953343206141887,-2.0087917346299415,0.059560501290774506,0.9748672728349757,3.8125607706348898,2.10487328538406,-0.9188914468459144,-2.8415720577508,-2.8269599469895887,-3.952131682917128,-2.534690608094145,-2.9075085849818569,-1.4876321874235848,1.49482261558206,3.685314221119456,-0.633457111462649,3.0868826096979085,-2.537629533976954,2.169976464001337,3.9222019779966148,2.3349393134892999,-3.0415407510200938,3.6424031287484279,0.1526329569048528,-1.847993940447929,3.840965723526777,1.9052933524389282,-0.7189146440887628,-3.818063507579933,-2.4642733553985529,-3.3765961590179165,1.4258931819486725,1.6619509852007318,2.179803559129751,0.2928194483162381,-3.95154630496571,3.1097661336574937,1.2425701959153087,3.165311125320123,3.217847353226051,2.909296025238982,1.7457680533963008,-2.3980387649494014,-2.1620955191069006,0.24791120947539103,3.605563242472509,1.9233749389848499,-2.1767310564567925,0.26246540831085687,3.4773047762038855,0.38000429804088489,2.8464868385063717,-1.0947326092524677,0.6770606771642944,0.36048183338464759,-3.7622898045945138,2.4363052796022037,1.516640147929647,2.7300532076294177,-2.0876001165985009,-3.081868190550175,-0.26104172888358959,2.7485338390442397,-2.016455711588307,2.1969501317574675,-1.7381155694961732,-3.8535494320345258,-1.6347421137771166,-2.9523961462450325,1.358604928708691,-1.0866319721184075,0.894312099612498,-2.5516934402753179,0.7461267429985661,-0.4541973744328731,2.228635314922256,1.779116335624927,-3.5516422599812786,2.9383766405134708,0.794958576588165,-2.461128539225795,-0.32288237006745837,1.073099468762936,3.591649505093213,-0.9721733481326051,0.861177523817573,-0.4688481620559608,2.5418323762647558,2.527937722359855,3.644980727327712,0.20866030030826455,2.8701051857031656,2.307623737193678,-3.2874163635150239,-2.616222621553364,2.654672164077759,-0.19751338281025555,-2.1774838759239,2.3562209883347897,0.28797045684249236,-2.3060751405351516,0.73044813068518,0.54550063870819,1.9926767801535884,-0.7329573859735312,2.895944603678781,0.34369649311883246,-2.7555813273712976,3.237738342904783,2.0247059538682254,-1.2369706912512284,-2.5003358696389226,-0.1491782324889004,-3.052948339267587,-3.158961619832163,-1.5066450586013412,-0.7550403510551271,3.338931336031769,-1.101200076397182,1.7075630350022087,-1.3154398717180902,-0.6011105983247305,-0.4014800987603513,1.3773962837439742,0.5903881497581187,-3.30100250719034,-1.629905982915872,1.0217729077845209,-0.6785324416460519,-2.5475123199804896,0.37859213599144239,-0.6056164934188979,3.067730906873586,-0.11545304574064464,3.9306269105265398,1.6845251129037405,0.7657896544172651,-0.586909001884875,1.8327374224453746,-1.5092171526998864,-3.0345708404944657,3.3972304353542377,-1.2814731508439259,2.424526798574769,-0.724828858624617,3.9222628280857876,0.8529410287555033,1.8977232529722699,0.6831164425837066,3.50276420658031,1.3965439019010298,-0.6888898633506349,-3.8271800616845157,-2.859124101983179,-0.26043959548552478,2.4902107746636759,-3.5713408838092919,-1.4442112048376806,1.6414809949627012,1.2430509144025406,-2.3759648594301039,1.2560084550963469,0.1613507646166532,-0.06139135055153133,-0.5182248620009888,-1.4777083146235397,-3.6431340552286874,-1.6205207742797124,-1.0455283414409687,-3.0383627318898789,2.0980906020066998,1.2668456327544684,-3.5081577950616955,2.481109978005229,-1.1532914535005477,-1.9979689466655429,1.2116916711056272,0.3470379261205112,-2.0678336802296419,1.1286851624583,1.3866040815633572,-3.5750890021962338,2.3268843198502546,-2.5337929831094598,2.538108956682061,-1.0815228047279926,-0.7042424680202837,-3.7860177084825477,0.5192868324074382,-0.954630090313733,1.4613834094280645,3.7265475140813084,-1.8658254150558718,2.043655210532876,2.3465894085716387,-3.493061358683076,-2.8516159910340566,-3.981048946983843,-0.7866491551508956,-2.389402583716306,-2.9287031212015774,2.903989449174862,-0.7752479301583344,1.3991263619358768,0.9322376414895706,0.9924144547284337,-2.9411377837077836,-2.601088296622507,1.045661823809536,1.446924726019903,0.8024640273234311,3.4202797925766577,0.502629189846103,2.0674308330770856,2.2518668026792225,0.8960119200846552,2.2215930628600919,2.5246111924199354,2.103122362311608,0.4224084652170408,1.47324787995613,-0.9797726219259191,-2.921012268984711,1.0868616954137629,-2.1214206188610227,1.9624593720071105,0.2545524676904938,-3.873137200344236,-2.9318803135026636,-1.1693038782877654,2.0948981998957638,1.8348854525213252,2.656361559333998,-1.0953450826505078,-2.0304369458614328,-0.709419759898835,-0.2899541013148925,-1.9092068850724642,-0.8216156815828617,1.503477894483913,1.2047639136570414,-0.957373046788506,0.2032505870682817,-3.407398480773259,-0.06496654709865801,-3.9953780854560598,2.0393869919837357,-1.4274459950911896,2.4056704794444565,3.451789901179935,-3.753156766907189,-2.7049532216435736,2.121039715392895,1.0499765465164668,1.9072042653133244,-0.8501724634751933,-1.1604685285999493,1.6953378119240679,-1.719971716269547,0.24238867693660016,-3.8938212923172417,-2.1878509222495197,-0.2526466390114981,0.1907451516327301,-3.4345473777613666,-0.562898089308703,0.47379583370620007,-1.0865529994664947,-1.85416009694634,3.0137805030912574,-0.13645320892326419,-1.5090924451117245,-1.2760883288794629,1.1284297701891877,-2.943065946684749,1.6879161132608705,0.5096814263421985,1.4632321238083224,0.9928476203038548,2.894520881049779,-0.02505359741307167,-2.4679360692658376,0.42217292452872359,1.1643246948820379,-0.12158862480476862,-1.353712695478671,0.23966617871644226,2.6367697978925106,3.1490444145912317,2.413911228399807,-3.6382243632853159,-3.6142069746644269,-2.3759606974018778,1.9212405960441022,1.4637176002318544,-0.47242427858208649,-1.5522528041743816,-2.541688448170871,3.404390241808472,1.5630405224136093,-0.9215631173234902,1.0108479470564858,-3.629474884984857,3.9960415989038307,-3.241687451725471,2.6720873457687395,2.652350781938746,-3.945620106605923,-3.396412802566709,-2.2209700597005908,-0.9228652886057622,-2.101609291890007,2.27904776288059,-2.368075795462805,-1.6292226524654057,-3.2230883767209699,1.4654372830279785,-3.9777389789236947,-1.101219037559188,3.4328919746572419,-1.487315789285236,1.504352367084536,-2.4419179611579429,2.001279674839269,1.3467701855286363,-1.4841028528231262,-2.168192957220283,2.315684678650525,1.060813907706323,-3.0633405288519235,3.4478738217475506,3.314315924210275,-1.8034905654990488,2.145153575885928,0.6809781100190078,1.7191671876740618,2.0160412309704975,1.0730736059405893,-3.5889973867750806,1.0886609842039539,-0.395070074011189,0.49015464407760148,3.080461416894643,1.0360471503940652,-3.285952494697267,2.1326015093519228,-3.5695092155713636,0.684497431553063,-0.7365922817999489,0.7621230070093068,0.08002068318851752,3.241288323465544,-1.2644569641755739,-1.888613460367207,1.6305586140291109,-1.7709115377425755,-1.0681768289179497,0.11841904445077223,-3.444901957496401,1.7246973564772042,1.143038585879581,-3.9880839012705877,-2.331796579636329,1.5423531846351387,-0.06492550554279553,-0.10402810791387984,-0.055479712884796587,-1.724036754887733,1.5684798111249006,-1.358436498949847,-3.088686557247563,-3.527515884890181,-0.6611481657553673,-3.366201216676969,-3.560468116182106,3.1547641556260945,3.571239540817965,-2.7051480158519149,3.771128045176562,-3.032243851667788,0.9092087011254488,-2.2873497862029827,0.9630044190045632,-2.6912232588639286,2.5830359762354346,-0.648779052166155,-1.66212032394822,0.6857594947682344,0.8411519686390196,-2.383280881487229,-3.4240305667873818,-2.809793952753843,3.009992236361234,-0.543785903483027,1.3164450764444463,-2.5644360724370856,-3.708408937704334,-3.529047774264627,0.7748165944413277,-0.3929281512875997,2.868520929233404,2.351238928389069,-2.9490949935513086,3.115787934488079,-1.0869024485171393,2.740223972446098,2.46377540729324,-3.2739608088035494,2.426154931988706,2.114440123710332,0.9341940139552545,0.9292814075285536,1.9504143843243354,-3.9831386106274619,3.286870444088893,0.9071220054209972,0.2229778339230748,-2.35637004039328,-0.1657672222187907,1.287460465638251,-1.296958988656895,1.2662327273227546,-0.7493238570196164,-2.2023817651492054,-0.020484046165407445,-0.11402197033055095,0.23401448400000114,0.44243931997278276,2.4017210202047405,3.173681958729352,-3.4416009015734909,3.166656991567516,-1.4158521379986982,1.2616037473439877,1.676068911875035,1.2120507489425264,-3.4210005792098725,0.41252026800437227,1.9241165698571106,2.6786921320170649,-1.9352471678699424,2.5507971767627568,-1.3546942878224025,1.2886268427527288,-1.0050577599857862,-1.3750634519947427,-2.0514971242144517,-1.5640760940733925,-1.6895288914340497,2.087252479226077,-2.285953617092228,3.2453553226264617,3.471762022360892,0.9261129164757644,0.016195386355878584,-2.4765717335443497,3.261069309711851,1.4889233909892159,-1.0488340284493063,-1.2174936420782337,0.15285506775611602,0.3195119038836989,2.222367977102195,-0.9371623246459047,0.7005457262055996,-0.3872309079878882,0.07975199625583152,2.7623438732702194,-2.6654135726397074,0.10216054344748482,-0.5960168290980015,-2.6705590684017235,1.7614748858500847,2.7850044181233448,1.2245287742284319,0.7959701039649785,2.501903275683718,2.856550483662412,-1.8140460724499355,-1.1527853425712218,3.974203776030328,-1.0222431803718502,0.8707643391433972,-3.387903225195343,-3.1627894398497879,-2.1619880943535456,1.2613625517327787,-2.2486974452175838,-1.5479020100410089,3.1076179701914956,1.9753361429993435,-2.7839830920515995,-1.6697842870877778,3.821788801838985,2.1562249925663474,-2.2389409158858468,2.5331538084383204,1.6374229167303636,-3.54752306524069,1.574751578967919,1.030581097911023,1.1249261405938223,2.1825942764882075,2.7248002833564994,-2.5281031154882136,3.871775409433785,3.900787564783921,-0.9932302572763752,0.02384709706910204,-3.6984942638447384,-1.6782925646870358,1.6209699712186297,-2.3261410547515046,-1.524895821011665,-1.9452847356253456,2.1229225696222295,-0.8911802304506045,1.926204828703968,1.4526341734058193,-1.8940140607967314,3.5464716789728225,-0.6770652085422659,-1.746424373775615,-1.0988617836219475,-1.9972336746431827,-3.61201734237809,-2.256987553043534,-3.3138830707516799,1.0342406659785973,0.5334534889462583,-0.6341982664077097,2.2258360788813915,-1.0119090097861925,1.7742740374277073,-3.75709753955853,1.5454196814789479,1.9036476007839439,3.0197866655150848,-3.8022857312162126,-2.1135125240843175,-3.034413962471362,0.15193147563467147,-3.2582808047354474,3.577319586782746,-2.3554096180648917,0.11243774243001248,1.9738244811138098,-2.3814481625130545,0.03962494806967509,-1.1565894900183656,-1.65925866354401,1.1758512214068793,0.9733132486797125,-0.9412963613500009,-0.26262998958054509,-0.1934068841136083,1.7760168096472953,-0.2020208619425503,-1.5075834127200683,1.4933141254823142,1.0215246004546526,-0.3836306474391602,-0.5942704768725375,3.6425423203670448,3.781195450332148,-3.2008597686178614,-1.987266974471546,-2.294716823403512,-1.6922407533149997,-0.5983256000792725,-1.5152008124715358,-2.185881692166313,1.6544522551139718,-0.5449929939869334,1.1439641707030246,-1.8488431183808756,-3.357433526213474,2.096746621217978,-3.1424933911792989,-3.2033018387003437,0.02213015020405429,2.7516192870001578,-3.01295798797452,2.855814036667046,3.5346977889850166,-1.090327682003082,-0.47531114359300377,0.3314186474716463,1.5297284441475086,1.6512694339855872,1.9556174135558094,-2.3727624905682935,1.101896284872197,1.191749415622823,0.5763676768337716,-2.147989648285435,1.0202014611476065,-2.1620403452072818,-1.0713186522193886,-1.8369327826847358,-1.4650842439872245,0.37307826525437007,-3.0649272434355439,3.5515655369834846,0.1899080521084544,1.0561920726900143,3.3356608259000026,0.714204639781701,1.4164109584527794,3.0364706020477314,-2.866686670759501,0.9750229664570931,1.649616425017582,-1.214145219291428,-2.886105836852116,-0.3382868320448127,1.7457127223532699,-0.9304394069322539,2.8235842617245767,-0.31933195379983828,-3.003278155772456,3.884245924146705,-1.583037014866919,3.5450020671133535,0.2855484860344246,-2.8310034187509744,-3.407894855727725,-2.977441855383619,-2.7418387663256595,2.3633243582521787,-1.8171921206454105,-2.7748640876123105,1.5750210996085672,-3.65928020764935,2.9660466647145489,-1.112449794529507,0.8018924767341753,2.2566333030156029,2.6403520607165715,1.2931143235452237,-1.8601961015010105,-3.87318817276537,-1.3435519245705144,-0.25976371645742826,1.177657818638485,-2.8471334249605215,3.2172907214492927,-1.6653112126532384,1.8852015871816273,0.19846753607746504,-0.8448389753207886,-3.3446173974570758,1.5788003446539723,-3.1218494768798257,-2.6765012330028918,3.744190676449758,-3.0185792785502398,-3.4243000208934388,-1.3896123902231086,-0.3945746345090695,2.660251539294997,2.293117276942535,-0.006777680472250802,-0.8781978097286514,-0.44956700792020656,-3.6528704024607014,3.262655633215573,0.7822944684986064,-3.1700555786409536,-1.949291444901174,1.7855772387666243,3.1992459042911545,0.6287220575840387,2.8584174429158937,0.9085961182308431,-0.8009313642173304,1.4182411611529374,-0.04686823225073233,-2.2127762893683737,1.1480576465679873,-0.9576360794982843,-3.3614559642167656,3.9953411787873884,3.918260783236616,0.8816670282494528,1.9441503364733777,1.6724163127547245,-1.1297592712932785,-2.848575376309846,-0.8473429379909214,2.8413796395974177,3.711812549668954,3.244763244601116,-2.8581986880388694,2.538326956836225,3.5383640160813965,1.8085156835245507,-3.548601984809455,-0.7448437937372587,2.8317521442577018,-3.2538981544267244,-3.6530882752341515,3.810657120581138,2.6275676271485794,0.9113166729964108,-0.041334941736193678,-0.5140513214412812,2.2502369969624516,1.9694146675671825,-2.4195051169961019,-0.3949817704409069,2.514002298754284,-0.5126937649205754,-3.781247848523825,-1.306140544890174,3.0788542023236538,-3.6519850033730689,2.211602823013913,-3.3661208247709766,-3.0945048028087598,0.17845471686933135,-2.399359398363858,-0.3430710928331502,0.32355169192131685,0.8473638650218955,0.7531372406669998,1.0132002322127303,-1.5645327666515643,-1.148088081555822,-3.884745924575575,1.7834765072951769,2.3657051411134875,0.08796038317265964,0.9627523718457667,-3.2242291090448189,-2.2387725463493108,3.4783052115900539,-1.0816115409853034,-0.21163698870806514,-2.408873376239118,-3.274282382466323,-3.8152942520146206,1.5538684739443554,3.1000840967159277,-3.4741034267695296,0.3051266131103372,2.6225563270631948,1.7385873577980027,0.7220099590729641,-0.2975977891610695,2.9174665379033435,0.023333408836791138,0.6870925713865477,-3.253163376139975,-2.3315361617634187,-1.869895185132718,-0.21770218820412014,-0.8553457791373822,1.4922610648947892,-0.7263227211670316,3.2901576051303618,-3.1727831476762926,-3.081138779686542,3.1605723571309136,-1.1378692851069572,-2.254073451374115,-3.444229049947169,-0.28448854422309557,3.0811137997864517,-2.77072419529015,1.2710423171952528,-2.0109872685900669,2.064503013002372,-3.140584877058604,-2.1219050229488856,3.885650266482374,2.3724794742031136,-1.094422884428539,-0.8755665885284076,-1.2251979965883917,-3.328476891740042,0.3577651349667983,1.0774829113817895,-2.886627075799785,-1.9074976288015593,2.7673360163014415,3.3930907127514287,1.894908035103624,1.824907346518792,-1.897843536650022,2.2845474489410195,-0.05028077012474008,-1.7296905061399815,0.7746359316713667,-0.9723123748891007,0.4093736775247203,-3.5336147590065716,-3.5516280611878718,-0.4917390971251743,0.8274965012426421,-1.4164352792536764,-2.09807738228597,-1.5995652464966328,-0.6950377087638255,-1.8738017096702094,-2.560988776741935,3.574131750879766,-1.1190584066735499,-3.88771805893027,-1.3031931853587902,-1.5282257608320705,2.1202096913412005,1.4956152903607843,-3.5904126363662787,-0.4069368305026435,3.8765354837454009,-0.9082982114179001,-1.5210261648574833,0.24224056861244226,-2.3392130598696765,1.4569104829991293,2.3651464461426485,3.063882120753571,0.09424647801748254,-3.0636472315666998,3.1612725656098616,2.023471999769278,-1.5251237580293103,2.9739439636377229,-0.04340227550959774,0.5167411246665452,0.21387609057312496,2.7128804409280216,2.76464755115685,-1.3133821323885143,-3.9909812523236516,-0.35083717182069509,2.1007574775351545,3.0564941623439809,-3.921163349567898,3.4603983217207716,-1.252579198907224,-3.556003275762257,0.3223891609864751,-2.9295124513886998,-1.1000956592427505,3.1887379540625444,0.8043598974285242,-1.2652953260105893,-0.14172481051126718,-0.40296281908597489,-2.937018060454424,3.6201650551273625,-0.25103716734992878,0.5354775848412858,1.8185210894762918,-2.658022822127914,-2.8487928497914174,-1.2174595322221647,-2.1244395085412925,2.734638701017815,3.204005743923755,0.9820028155952523,-3.19738245750552,-0.9913063268884945,-2.5637628973226009,-3.625180212839326,-0.17511042212628626,3.3838939614036667,3.2095343990178817,-3.201744182109433,0.5052212748976661,2.7657568533989389,3.218496283383989,3.50932177091998,-2.8510728726670866,2.8657022830756597,0.6131618334549218,-2.6725860736633768,-0.5908401171207911,0.7858895323451867,0.2889857523596522,1.7594453544552958,-3.6698510912461739,-0.2581765669534173,-0.962745073126344,3.6141021631149305,0.6676478670746384,-1.2072285821146638,1.1313903771777936,-2.2060960339770867,3.0345668880051015,0.7031839003955884,3.832785445920008,-1.5367879087580792,-1.739479257656294,1.1701759181547083,0.7857103581966793,2.358553169942984,-1.790886827640909,0.9351484515064117,3.0949440947292317,-2.6292732765842157,3.1056602455437458,-2.003713420510886,3.5800900310388945,-0.542617315814149,3.899035318448542,2.814243643629154,-2.0464769083129719,3.3580434479333105,-1.490245550398862,0.5588167804580273,-2.9655194083442,-0.46928933725437718,0.31079810375601815,-3.4045170427031037,-2.496628766696407,3.8237585133064879,2.7592188802154888,3.975603719821213,2.7653089395930108,-3.860487420741036,-1.1312854038161505,-2.3326622879472715,-0.9869792742897017,-0.3646304123135682,-0.9393001137337758,1.573216736438881,1.6761709780606849,-0.8826374870099263,3.008593776516337,0.07458958464739674,-3.460755381561632,-2.102387789670269,-2.539448256184312,1.8540873341565023,3.4061407459756669,-2.421893174944147,1.9751655630781855,-1.7053827473687156,1.981130761143496,3.4497842223560459,0.8093184655592642,2.0138336161808398,-0.9491505459841143,-0.13681551174251539,-0.3042483120131456,-2.8288627934509327,3.312516387268513,-2.491489002628307,-1.067087491525637,2.7473875914543637,-1.7336332136865656,2.6604561199443506,-1.6459228384083725,-3.0224764569857145,0.07757829001464511,-2.1798182783445538,-3.782461777397181,2.6497766913457756,1.1796496759758677,2.4995165934210048,2.7346256877400449,-3.6303533076984415,3.1293432693689517,0.044700844463115178,-3.9977560011323236,2.2415696351967595,-1.3722271080694298,0.7346877090942439,-1.8497579543864509,-1.02857064906674,1.7626929940806653,3.653933702429857,1.4712338837018014,2.8303687295563098,-3.673908430570454,3.502652916246741,-3.1157753599526725,-2.449486692951533,-2.5612780869605418,1.0193346988310035,3.483456595538459,-2.7862163377409727,3.881816952040279,3.946689998988119,1.7085997557640838,-3.0616530799572425,1.6301351933454962,1.473746161460781,-2.9774423108094885,0.017127940410492039,-3.1227135649479615,-3.0240345979982896,0.28401688914347558,1.2054151370538283,2.0157852061703638,-2.735769301474021,-2.979506361497042,0.8663520537635217,-0.8349025372939893,1.2163297832040119,1.157436192523786,1.3459013584987397,3.2652650986946707,-2.560089990129602,2.407997749467609,-1.2091813864825075,3.6111744949881388,-1.247663443984772,3.415986319267982,2.0830245940208709,0.9516875724488605,-1.7890817968344893,0.14405102440452922,-3.2106483834459427,-3.9984966311534055,3.048336593294617,-2.9377126460506899,-0.9416209421554367,-2.4207030740184765,1.9269719710926579,3.247886313599147,2.3703789516511968,0.6164013786804876,-1.1055922181129979,3.056554366984461,-2.9744433024339624,-3.8944124072353709,-2.0021834064555756,-0.39314573319682269,3.7218786342759229,0.591337660597401,-0.44078189597464859,3.5312905259690545,2.4199704656818916,0.23406907742974959,2.812175878010345,-3.219325753494104,3.7916600605881376,-0.25808243179932158,-0.8703105995315648,3.487911061923101,-2.7095212586174206,2.411202435939839,0.12599402201533306,-1.10386881255672,-3.4285940207992455,2.6869879975688955,-2.3409308972876534,-1.2727647323489589,2.4426216162006346,-3.0303224796963255,-1.160901084694444,-2.1491689774324556,-0.5292162290373579,-3.3802856023578347,0.9427681004498734,-0.534284802510455,-2.615802789565766,-3.59908156287222,-2.4499498039705749,1.8709214936419878,0.8262192285757655,-1.822165829918183,1.0783506113280668,-2.2642653862341755,-2.286255902119228,0.250453039536235,-1.3281673017926146,-0.5523491006903925,-0.6061734037652933,-3.9248220807484959,2.4675509639586696,1.0404235427886697,3.5612159050779059,3.7792657825893647,2.9886103907102905,-0.20427836903178354,0.7078362469007553,1.4234392628665349,-1.57614869118418,1.8963283284813458,-2.21861221398646,-3.1839574933895387,-3.3949592410760145,-1.616604578001111,-1.665638273163017,-2.8685479664480058,3.005077060233978,0.02854121769506701,-3.5076568419629,2.334201312890694,-1.5610804702728514,-2.481046947567563,-3.9351380333945888,0.30172750311445908,2.9875454410162085,-2.0766644434911329,2.8162106339134249,-2.578813533666014,-1.1817808608926835,1.8516890195913388,3.8820970970635439,0.690532475969782,0.30529653517389657,3.1857494656022578,3.4457959486527809,0.8169047997635968,-2.3127522570725924,1.3889256216696664,-0.0843565841731666,0.7775890296827894,0.07405314348190118,-3.7933218101589079,-2.765774110970935,-0.2236883638230589,-0.3620451959135289,-1.2853113484201695,1.2230097043209707,0.38918279609930375,-1.693163121480891,-0.29418309103502718,1.3681198978878753,-3.8511856884701407,2.6648597849978215,2.900166574846362,1.1186248932927683,1.9965182697054003,-3.716515715124274,-2.305172493449483,3.2548169452673676,2.457273145687238,1.1676007231293549,-0.6256691995219372,-0.7146472981412364,1.395373485302021,2.9432435835774548,2.0101278848528425,-1.2252697934871096,3.0729229499924308,-2.4056063657923518,-1.630444513363428,3.4955016007999646,3.398451696424921,0.7872695829136873,1.0722452201446738,2.7217565283708344,-0.8860754305554808,-0.3437699128717713,-2.590229018060712,3.939574414607356,-0.7764106790108363,1.248962843588453,-1.3339110679115507,-1.1098119079388092,1.966268180490931,-3.5030092560766254,-0.16999383583914508,-3.8920756327348489,1.8132783065881669,-3.7571190171490107,-0.9441563745885786,-3.6008579668191746,1.3323509514682739,1.9680894227209569,2.656875289599202,-2.809247145826861,-0.4775520185049782,0.49817047309427489,1.256580847606048,2.255250419929734,-1.8823864727299125,3.3856294679286798,-3.811610437663389,0.28378622880790518,-2.3282472325187628,-0.8046429119285969,0.22067743379382688,-3.3839533428056915,-0.8838864355679243,3.09572509560767,-2.2008921490485386,1.9992208206844087,0.4559353182967447,-0.016451264432336467,0.9033260880987593,-0.6012866060867064,3.2403595767659469,-1.3861862750518677,-2.7155659935726925,-2.968025528324824,0.9244030329299573,-1.2978701604853074,-0.7619215109899109,-3.9913183448054294,-2.4366687500456676,-3.955398959168728,3.783287521900898,-0.010340215608227732,-1.2360406451552438,2.9797271199450305,0.7041084958124149,1.484801777395016,1.8276375028963506,3.5634977584863627,-0.8224246232295913,-1.4921944765542899,0.8966558166772387,2.16480165852761,0.12882080707822397,2.61293151371524,3.5213584180638577,-1.6415542463938276,1.1994587033341109,-1.5465186605407147,-0.9172964524668901,-2.8863263738115725,-3.4599999584421416,-2.6525908215845819,-3.249266275594664,2.8594385313686248,-0.7709815748853848,-0.6377431630374018,-0.2122365442158054,1.6071399446131372,2.0540244259761586,-0.9970793147882782,1.1400977971040157,-1.4269796004198379,-1.3790730302580619,1.8761483969834317,1.5643949391184889,1.6930527132862939,-0.49871886358816389,2.5608989147107854,1.9541410730462384,0.2597025276657279,-1.4081954762004754,-3.650292013379034,2.3162520614849599,0.9474369931491262,-0.11529100873046816,-0.5355141899413451,1.19582673672911,1.0285464129322746,2.6507821905703885,-2.5991002296180589,3.343387110299142,2.646239783946549,1.428294354750479,-2.9328815275732724,2.2139137317082167,-3.4874410949423035,-2.0252110027736647,-0.3560198984509526,-2.574466471691199,3.746089585759613,0.5083790902881367,-2.288565085095348,0.043638806199934879,2.904486020823996,-3.940495920290757,-3.435352746976129,-3.731671230265756,2.6593506280383947,-2.475444489379951,0.791101641029428,-2.257532097923204,0.13397867791107388,2.526776805729222,3.8983931831376825,3.8930745483892625,0.6479104531644788,3.800610712346314,0.8521599121275223,0.6687046281568145,3.8024683193675905,-1.6522906013353467,-2.7436133417147445,-1.0729197084599934,1.0700756262355463,-3.0865646368030248,1.052852936063256,-3.540069776688875,-2.2182113738960345,2.1088876178330047,1.9620807214497225,1.8439759383399262,1.3891333787463874,-2.467611850706602,-2.150444237922895,2.8950351049127249,-1.5259343413630704,3.8953510260647095,-1.298545950402807,3.361006265614569,1.8579869234972675,-3.526975641082501,-3.3265343780240457,1.072149403072638,1.5629672625011093,0.8147912546732457,-3.579623869768386,-2.5758006047450197,-1.8653006299465345,-3.069020338638097,-0.220390016198184,1.5467494907337978,2.097445018502664,2.4508686301218987,3.140791725607137,-2.8000775704557796,-1.8168170897743557,3.510229607975403,2.235350929569875,-1.9849731433276983,-0.4648746864206996,-1.9435230677020353,-2.8591127581451927,2.119714430986181,2.8000809473644407,0.17141425195995109,3.476811766836046,3.8052041396476588,1.5328093253472624,0.3937891711971391,1.6204136791817972,-0.19875733077340586,1.1006761812196598,-3.8994388606042147,-3.9620051694433489,2.3301686462545287,3.91544378227427,1.1268662476766905,0.9261528984314706,1.839554712257863,-1.3473204895925693,-1.255411340798162,-0.7193156836778165,1.310977648853842,3.6176661960960194,-0.6999889753191582,2.2973352019265338,-3.464484855230822,1.2416892557778479,1.4696134822769445,-0.07438946524927293,2.8891115193443266,0.7206387218461492,3.597408915688395,-1.3078259757693039,-2.744607083180445,3.860210153985574,-2.350152291902199,-1.178873052395234,3.4371602427218299,3.2073677830982678,-0.2455828786126224,1.621741904298462,3.044064477885951,-2.378709940733703,2.233479144071361,-2.341592483669084,-2.2197087944854827,0.020032271290860494,-0.8775785081869314,0.4024057935648351,-3.044819715286934,-0.5413150318575679,1.4040636800970772,-2.6091751390755917,-0.40148676932679719,-3.6905119526590068,-2.3095428370925434,3.2458077006873147,-3.464617145406157,-1.0304778259758954,-0.5803752756416747,2.4008548132633829,-3.205059267068598,3.729630734940601,-0.09013346647287057,0.8441981326986259,2.6178870905027944,-2.8046067218304087,2.0675517617905596,1.9892329899520487,-1.6194609690498843,2.1814959199783319,1.9412759735372474,0.9429573922674699,3.135241702961072,-0.7835515646172047,1.1764377553042734,1.259402095654667,-3.4839931076453567,-0.2689426505879242,1.5657062773413309,-3.0623819106833656,-0.5408489938998748,3.3785112985607608,3.470816277083368,3.4529467458664007,3.1319557455086945,2.2722141779098834,3.0554352557381518,1.122432393486033,1.0749929856666594,2.4075544396676307,1.590567168254542,3.880526392327546,-3.2572918486106339,-2.3670984667485639,-0.022670294602327169,-2.2996928537398046,-0.5368671572320656,3.090783027768695,-1.2522069931028546,1.4422859156165844,-1.492947905010045,0.6502268348723055,-3.8132768020520357,-2.4520005689105668,-1.6036788577133339,0.2545231061998692,-3.530067472594964,-1.9866925980106205,3.7154300339741495,3.5150222760904388,0.24928878850733406,1.4326291923589745,0.7647415674483673,-2.3916453736951555,-1.3653233461922315,-1.5761216531821339,3.872383217629382,0.5444302574223334,-0.16728743085716303,-2.794366166536536,0.834927101788578,-1.2980284395910003,-3.693444270247377,1.3890615498076962,-0.8654359971640879,0.3497023738563234,2.7685916949923454,0.49171229530821228,2.8223379390923046,3.073001054674542,-0.03747179141692758,0.7940926815511666,-2.8843425557868809,-1.7681169428317978,-3.7087506844497239,0.346207959156386,3.180412285844308,0.5555616161868668,2.1320850382841964,1.301688939251858,-0.26521757984077168,-3.352042940578005,-2.4078028309444328,1.2739956097886057,-0.07656586401619947,-2.5644737683716238,1.31593485741445,-2.7288401511435564,-2.454765005489265,1.2375895502693615,2.6521909984905838,-1.650048603553129,-3.102548671123418,0.1337320382526599,-1.3340371674362333,-3.0957702126516359,2.8950638823139238,1.5990392614005078,0.21630235968451573,-2.1728375506659125,-2.506590424327735,0.7135734415788644,2.1551235448917449,3.4607532093621238,2.4837104315258866,1.7016155598561565,3.7499056827762926,3.284025268245988,-3.942557303738724,-1.3412920638274407,0.4614937677313069,-0.1497464496671448,-3.951246921508333,3.5995162591906597,-0.135105386354625,-1.322832765216022,-3.3940707036628314,-0.8888462340820238,-3.1513837633360879,3.821039290842002,3.1776855621377928,3.921727518967968,-3.2665998886417135,0.04165767188336211,0.34506987050400186,3.161262076840316,-3.767045952685393,-0.45667169272421229,-0.9334553999397761,-1.7956588463240698,1.604198258281051,-1.4252784767832756,2.048726394062178,-0.24905580453427568,3.8954214588245206,3.8974915871283315,1.9110286049405368,0.5912482777567538,-3.579687618530124,2.6575954670353898,0.5142726502442709,-3.787840952279594,2.191325798528305,2.39763847557544,-2.8623500146836937,-0.5206288602644091,-1.1943792032095695,0.15357134118371808,-1.1078077502160276,-2.106067488061788,0.29623328087723257,3.045675860041687,1.2959331100689804,2.463591582924651,0.49104138867904636,2.0787255424186936,-2.8944842247348099,-0.4380197856588788,1.6011078210777293,3.9990204289707105,0.685867883372274,-1.1889394990127079,1.4946438841673704,2.751702297524817,-1.6413167496295247,1.5111076839594056,-2.658649738222932,3.108946037080212,2.989742276527031,3.234019538679208,2.767441004927318,2.8009124987834097,3.552401955170679,-2.5707284506193606,2.061347910291725,-3.5933160995976056,2.6061165638029815,-3.567688998186444,3.7664294405321696,-3.6813327624402305,-3.7851815599441176,-3.223003398651283,0.044927615977898408,-1.3959557965616368,-1.6086148001852508,-0.354654223102032,0.14979236492692395,0.7747356030790975,-1.6317519994904153,3.4402210166830686,3.6448338066318755,-1.524220492492435,2.3129280145109307,2.530081155304189,-1.3559955759073717,-3.6844027152890037,2.378040003751728,1.9325886887291688,-1.8637334160781228,2.623829846615627,-0.8337844159951793,1.8415902824026809,-2.0740002555641459,1.6874294718822443,-3.314992768682126,3.7183488990654069,-1.549610839975598,2.7790713433674227,-2.78930506007573,-2.3696761117559239,3.3857429585919105,1.091941673053788,-2.4352670596669645,-0.5601010622603173,3.5940110166862064,0.5908995275736118,-1.9924002619477912,-2.9035616652434488,1.4094306939884716,-0.06443910353420712,-0.011130302054956465,-1.0505739624223834,2.1125659279835196,-2.6053750314424475,-1.0473660526686182,-2.3987272145872424,2.544568634691916,-0.9155483683627195,-2.4938951734744174,2.7015338491087839,1.0109770124511784,-2.1687097477876788,-1.5840307192711496,2.199945069493541,0.6722967882981932,-3.4123497033685838,-2.635338794972533,2.7164059744271755,-2.895668686510355,1.0803431868356759,1.491091274718725,1.8494579746957803,-0.29943825142933835,-1.1822224836737823,2.818750573648531,-1.9576482360844095,1.6067764616093135,-1.880181648179815,-0.48731459314523919,-3.989970256424046,0.30685746938192529,-1.800640967265782,-0.8695327138037514,3.083680215810567,3.9393054688087565,-2.024076751751023,3.508571109293274,0.6949419433317301,-0.013638818697339739,-2.8574785772671147,1.104403103703393,-0.4263260535231359,-3.7790323013638744,3.800037463483835,-0.9318472809602094,3.137046236869719,2.159246576831312,-3.2250650918698868,1.10733827039786,1.2716159931198608,-3.703807470608454,2.449192710172971,1.867362635281113,0.8824790947659942,-3.8062515578738598,0.22476235283206415,-0.39302631932225298,-3.1284991385670297,-3.8040045326585547,2.475597992917998,-2.296282200857994,-0.335438753446615,-3.2313941205558889,3.1590017480231245,-0.6288879616808689,3.85704012008046,-3.066583381466657,-1.454767534063693,3.179389136272473,-1.598461430166,-0.2655534097430665,-1.0104056462331015,0.06533630082135034,3.2562757983791608,-0.4577518791021953,0.8018378248846725,-1.763960628538033,0.4425729583605156,0.30242237804122498,-3.55077739270513,-2.820022423451892,-3.495391720558777,-2.756748669290311,-2.68182628224233,1.5473152479371893,-1.9788835912595369,1.5852607462476379,2.2014835811584074,2.6157737960399416,-2.879071927198682,0.6147548601258448,1.3696033305259797,3.2922876342976998,3.3926617187120335,-0.46444571444803786,-0.6908867156932042,0.41309845849001106,3.721221643962724,1.398279001113404,1.134500329307353,-2.798798138712532,-2.4843108169397745,-0.5598576732392022,-2.5762649634051888,-2.6399800700049367,2.7617914274450978,2.8132347697572515,2.072606345358084,-0.20204258313565938,-3.66050898392694,-2.3489139222812867,-1.5756994567833625,-3.008871230166492,3.0448622297645375,-3.422421132528142,-1.1522613721041853,0.2705661518197351,1.4833029345803715,3.527986468733631,-2.0018888974743929,2.975016328169181,-1.0010678924102932,0.9413618502969587,-2.5576651544824857,1.6419532569282476,-2.3150893114782438,-1.90027294477021,-3.7803286981625678,-3.390627876791238,-0.28691491005434269,-2.093468707040974,-0.46316243860331776,-2.9582850929226476,-0.9237782519640803,-1.4888792071174289,1.834740621340262,0.8551097668172814,3.6492820799144765,3.7442142435937235,-0.7242568700028249,-3.872077247222208,-2.056716560846983,0.49688424620471408,-2.8101186431794247,1.053942311425585,1.166178394679938,0.7999808532153363,-2.9304472274560364,-3.0328210736232714,2.58349791755887,-1.1422093005663357,-0.0038758723266012486,1.06401131922265,3.4070742819292016,1.8575148001999047,-3.8491519478501168,-2.1526552105814469,-0.7511559693057928,3.4243789271079647,2.8377830946464188,-0.7008915631997388,1.0880250953178088,2.8451791632871314,-2.743682645191032,0.7346001079107287,0.747319123364508,2.6764643125795866,3.0544726729124536,3.8381929134096888,0.18559562527497687,3.445452730490344,0.9483175026408173,-1.5268230686888727,-3.1482659841541764,0.5065031396768065,-1.3806597408117814,-0.5637218105649708,-2.9828611507416697,-3.5784242318236414,-3.140895970259379,-1.183874000401902,-2.638918743150934,-1.8909698228665724,2.4483739624156888,0.1252789420218594,2.223186781047241,0.03365867382665222,0.6403039989803965,0.91779157378358,-0.571921724381417,2.2661570237582344,2.5308953746531888,3.274312144552548,-2.0039557042941666,-0.2853988257883824,-0.14309292718990286,0.5194000071505966,-3.067321051775359,0.39371909928393036,-1.9691208360191597,0.43574540385375828,-2.7726468141070059,-1.52370135170709,-2.8576039393211376,3.774175103939542,1.6517036095077096,-3.644307828932064,-1.3581448878297904,-1.8239133365773733,-2.545545027031273,-3.6215779376519068,2.6902723194962618,-0.03387857427173824,-2.2713437117357415,-2.357330060745003,2.4287868410083286,-1.8987957690385875,0.6075657428814374,-1.299392330124958,1.0107330421027312,0.7053206253917699,-1.206160494377337,3.943219354498943,0.781386393436911,-2.1572133044086998,-0.5748233689816009,-3.662630033112876,-1.8476371416667983,2.7393273861153828,-1.4379138132278229,-3.7690743814258829,-2.5226807079821276,2.512687895329255,1.1688873825214446,-2.3127923032123425,-0.8693516476648104,2.002303990992371,3.9577610938435177,0.0076112914972528149,1.1092097472130159,0.09478890923356343,-0.23382022599319453,-2.380501557615629,-1.8197360334724718,2.4653887835593819,1.9098054173981618,-1.0195386294606124,3.7133105209392669,-3.8690749913711226,2.440739687086726,1.6388308634485754,-0.3009127442883299,3.5782484725058447,-2.3850363833050718,1.8351359485432984,-3.854677556234538,-3.8033003697078895,3.996357536488266,-1.311974135286862,-3.153794619476784,3.7542158366899178,-0.1660601918090412,3.4631917596109078,3.8660737823010526,-0.5610262152017382,-0.6396298031889245,-1.5455290325382718,2.5784954185209116,-1.6346414900150757,-1.1074243598794882,-2.7066989643193839,-1.3801675026065308,0.5356280820733845,-3.67205570485258,3.3533469904639157,-1.4909487431477127,1.2557082735971666,-2.217378757981103,2.4084336964196986,1.9440146887537778,1.9439999440899439,-1.7372560387773577,-0.16297453000560048,-2.687686907791793,2.390138144284844,0.46863104857237306,2.229969990559601,3.2938816300926119,1.0293509751121848,-2.865985517992282,0.15785909904828178,0.6569601750367831,-0.1514094577765226,2.1051168977543366,2.830061853175173,0.9545654248735582,-1.0623287626112766,-1.4294960313618069,2.5108179232920184,3.062972236592664,0.36357259808545985,-0.031435152490916887,3.5818532413007118,-2.690983131024524,0.8021734069593443,2.117991387113194,2.383884347572935,-1.2982759486939495,-2.313790811023175,-3.7220600983659004,-1.0437571662933794,0.9663319997074895,-1.2934568435492436,-0.33415433701250576,-2.4503665938837138,-3.9536160851778066,0.15478748354693207,-3.1278159444964928,-1.4209009219792995,-1.893385160275992,-0.007495643546589159,-0.4435801002114861,-2.0496290321952808,-2.364100187325632,-2.55216505262387,3.0800079035728968,-2.70995013388037,1.9492467034909682,3.158665487534221,-1.9601216905252539,-0.23905775352358894,-1.8250119515399386,-1.407472440123569,-2.722400551469745,1.6531664703725709,-0.4325372809955039,-3.1910250492584817,-2.9579375970490018,1.5014282899301135,-0.34530936560021177,-1.3691404252444744,-3.481034085788723,3.771702218731762,-1.8389238606233268,-3.1978567424491119,-3.16912836532231,2.7308807941029107,-1.169330588077781,2.336890608598064,3.1631341671990347,-3.1528652778186929,-1.341220888136904,0.44327350760953,-3.7501587170283594,-3.4568908256386878,1.316149737623733,0.29895127225758957,-3.3358873422589729,0.3773002244214192,0.40327818123507078,1.7456951361551472,-2.8598175838217978,-2.42550965533143,1.7834684053334682,-0.657148887908698,1.4375473087196005,1.9234551004315419,0.9816712103492824,3.170367292408298,-0.06542714303737452,2.0425290955689929,-3.361355398282388,-0.3641097745688222,-3.5169136742785378,-3.9602688694243577,-3.011322944443685,0.18888529154332635,-1.2907265839689544,-0.9281535437550552,3.727524480808955,-2.876515688606128,-2.4224661435168697,3.498854003809134,-3.118680160605515,3.994228545304548,1.3934584850840253,-0.9224988063627497,2.4417659794226855,-2.55272803345692,-2.7025890264556606,1.104370884275026,-2.45505542116413,-3.750468133084498,2.4357534239655287,-2.4865366019243666,3.68951104576423,2.090953993643593,1.5690935198441754,-3.6456649793407998,-3.9401468893229456,-3.317610019138254,3.524230046443514,3.7518591235568019,3.126936132856584,2.3463388813884116,-2.859103963157752,-2.1385545299496178,0.7277367980573244,-3.300257774516333,2.141721241930874,-3.912611422127128,0.5296572381848828,-0.13516885264429136,0.9229384661777331,1.4107279608055139,-1.162719548948652,2.2545608879531064,1.1171757406328942,-1.5617462770491828,-1.538442642728109,-1.3330812580832666,3.5777058854030354,2.5669760340665448,-0.47584047320737557,3.1807786942999929,-1.8148712582947209,3.2929468811512168,1.112588607702481,-3.131262387562959,-2.5464500258232567,1.8194013416604414,2.6715462436355894,-1.4083952478530242,-0.7116476686326116,2.8043441514941405,0.23580811264306157,-0.7857071368389177,-0.4154056050671189,1.8225908295130938,-0.6505635561890157,-2.804032759131168,2.515631166504714,-3.0582608095114045,3.596843054607195,-0.8438770896831604,2.949278741970131,3.5677662111346049,1.8154205345750994,-0.3123502807364831,-1.7032127496824268,0.8351802042637901,-1.1738570070116994,-2.349414659703192,-2.1442447977646736,-2.7216215131238794,3.7446383187923315,1.1910421139615304,-3.0189596552839106,-3.1186041090567384,1.479429931848303,2.7540964927813658,-0.4966603007962169,-1.322680999994665,-1.6907876110918068,-1.28990791399835,-2.047696882419655,3.3632946756267287,2.645051421225064,-3.9702190825725758,-1.705126626854252,-3.4478953793540407,1.6292864830990058,-3.9533754612084115,1.1098258993868547,3.774458981714213,0.5054789321169633,-1.447447858132666,3.305422175296613,-0.946569611670544,-0.03980808886722986,0.39867861229907577,-2.1811223903327479,-0.06731608256107347,-1.603503878097314,2.954451988435638,0.04920443806889985,-2.8012065017479417,0.45552415016086647,3.6615644141982468,0.0651398468264972,-3.4442601189726886,-0.7596894666098122,-3.431383996432152,-2.2549946844907948,-0.8681831709387069,1.0518117801557728,-0.4546518218243156,-2.227199057597937,-0.8054964462376786,-1.1775234329254725,-1.169711155197964,1.0977857125600635,0.5274402390449788,-2.608794025028274,0.2643591316463194,-3.869494613971897,2.3161138479177429,1.1064883670689696,3.803295565463916,3.735939586678267,2.0743402053773769,-2.653725803683102,1.995767947097102,0.6718332983142483,2.6556205548808284,-2.729366995348121,-0.7730094045405205,1.7838480878724373,2.9058141514113124,3.5912649775318279,-2.5602621081999894,0.8289187988926932,2.1731558088598765,-0.087558990070983,2.3837374359784544,1.4766510417197916,1.1152389925115767,-0.6803974763754555,-1.870428287022615,-1.601057959348257,3.3524810416217338,3.148680449012236,-0.1405847278897452,0.059995103670456909,3.144673269026814,1.8543385296630853,3.061195156019558,2.794535415478605,-1.9855103921812718,2.991337520228474,3.4776974752915166,-1.9604262848495878,3.5323286462910907,-2.2101970335186378,0.5356105486999434,-2.5867476108221716,1.944882788827531,-0.5749656089976751,1.4816457410859459,1.04455261300689,1.3536582862312817,-2.789572774990721,0.9643251559581367,2.8429473322672837,3.089770329361115,-1.2208712009959622,2.8325732607929936,3.4944803339340435,-2.5904268506706256,-3.8809896470563149,-0.01387347854232579,0.859226666171212,-3.7309063920361558,3.6783582665861749,-2.1265876769341069,-3.289784055661176,1.8307346312990616,-2.0014681677467678,3.7427053930400078,-3.4246138234718899,-1.5427925626369695,-2.429703413860433,-0.9474494442373269,-3.699579616884428,-0.04434635534187792,3.5609523229979969,2.53186355561904,-0.34663622618142489,3.6747882237792579,-1.4064146873351949,-1.2071541148185985,-0.4253689606998483,0.5699585487939745,3.3631034275850357,1.3486918841359233,3.787128591739643,2.67855213703886,-0.5648214422637601,-2.375715341578778,2.112146886756748,-2.811740396611034,-0.3957996324612676,-3.586626587212783,2.679854143927777,-3.238593527742088,1.0398977402282475,3.854256798021292,-0.02793097750667939,-0.17398654652759228,3.7055541180837467,0.5072086734397914,-2.738323916685493,-1.3064191653743327,2.750199920134868,3.7935753232586526,-2.249640101826988,3.9697449979971237,3.3552202179730949,2.261652054844368,-3.3036912294636266,-2.426908357779819,-0.7769988226072793,1.0534288958122416,-2.9528665387707937,-3.352387176660783,3.884661143796383,0.6518330519088957,-1.8674694771129874,-1.4185210607873205,-0.12216462633550562,-0.5269612328641484,-0.9603539811100001,-3.8202670240156166,2.7307531473777768,-2.990474254868378,-0.1665049970251682,-1.8895252999765858,-0.8639370704995706,-2.4856720243735568,-2.3010822100768308,-3.536786896795367,-0.5218498779681626,0.7855104248326725,-2.3204975736841826,1.8466472349815578,-0.6885934895370054,0.5068084546121154,-1.5386931863746157,-1.9272553977088665,1.4210471366780029,1.197192125825203,-1.874887616132928,2.849649768373679,-1.9549321121054216,3.018045128307355,-2.925236171161483,0.6453482275252727,0.877908610777383,1.9070046096504614,-2.6109675343395688,-3.9910041480084237,2.2942806980572509,2.640746099621273,-3.0420424424195939,3.8851358451672679,3.6863763863502569,0.5357642325682646,-3.463105569710897,-1.6876379449807447,3.8067715468045906,3.4645183988839989,-2.5151106089301358,1.0754609370338555,-3.9263286634372545,-0.8159065137027746,2.34970289754048,3.5197675949798379,-3.9498256542182066,-1.1593911894622702,3.717683456517123,-0.022838287860483143,-2.211385195117338,-1.5861986468359933,-2.0821990197203315,3.759616847007657,0.76441187561002,3.9361051354977718,0.4717670049163978,0.7387481944160035,-0.23350961846633479,-1.7003826543113548,3.006084638830127,-1.0660365780327792,2.7386340736032199,3.1082881732537865,3.126735848659685,1.9789338695950996,2.8251593907667544,3.045577934607145,3.1829232908153468,-1.7048916065200129,1.467140647095409,1.146449132337696,2.13271117585513,0.20315613559054403,-2.988774256264551,3.591507955235148,3.053714248663014,-3.3304470669188248,1.6166030215481984,-2.3189121381268507,0.6253414018180052,1.8786946126320619,1.81828262468557,-3.9221141209766916,-2.0502189352108575,2.398303918755677,-3.9546715761725546,1.6204932968047237,-0.10314957387986312,-2.4334012617464388,0.17040002132228339,-1.476467498434304,2.1563129677926895,0.33333590919425229,-0.6822146649095124,3.3017871689408775,3.8561264551936675,3.8562579791929805,1.295042441137916,0.8679070804681413,2.0246566861941055,-0.2745780899423167,0.46046369232955888,-3.264904851525836,3.0576866717749437,-2.3842544648711909,-1.1511803415203002,3.9885225061093418,-3.2668771213132237,-0.7267292858614967,-0.09778723552422819,-1.5242868307389619,3.2922967778865885,-3.801657679464455,-1.691872798430631,0.039392132157278329,-1.722383381386587,-3.381990157488156,1.3119118614895796,-2.3180398051210577,0.7071243027066112,-0.16365744075826339,-0.4556573956925367,-1.074510213952145,1.8344355813287168,-3.2714119866743127,3.437048262846144,-3.047335709755597,-1.5003920403339402,3.213748769779799,2.277619670371842,2.391879063277332,1.4053407863327117,-2.4057904650831336,2.15662171952025,-1.2257602801882206,-0.27988749059551756,-2.79038586014157,-1.6824342030957134,1.7103318711140619,-3.6936815261651469,-1.022004181911056,2.7060002549509498,-2.5980253115291,-2.970643672592713,-0.6624216619950796,-2.234543178997102,2.1892768506602566,-2.287800200736931,-1.2158213772377816,0.6677659094756363,-2.853531938376335,0.9377031444659947,-1.7353058086365978,-1.8938265617005608,2.027182609639313,-3.8509348593563557,2.233281254809449,1.0517281137212589,2.455989004863791,-2.1874488150432596,-1.8436266437875236,-2.4556861983843509,3.9766687519295527,3.094596994524064,0.5543116120893128,-3.485550407493718,-1.9699501849851713,-2.9648087453988367,-3.738995739023051,-2.957671928217465,0.6591915567239672,1.946256890445599,-0.05233581291425171,-0.6012924858826221,-2.8914067147453599,-0.5399715768701048,-0.6849351726973672,-1.1483915116592416,-1.7107698226223534,-2.8386908920531885,-0.8680008926625626,2.897223532625242,2.3365608844992469,0.4323568543417089,1.814135800992581,-0.0004685329039419983,-0.6120122192857886,2.278025547090275,2.5451319382296528,-3.710620040496849,-3.70279993564068,-0.41760891122950186,-0.8622989175257958,-2.9987340787506495,-3.770471342676122,-1.965774163614367,1.5132945631332282,2.120255227965899,-3.296706745940366,1.9860593833024325,2.937595373080276,3.0082769406730716,0.5208670202804235,-2.005898667577646,3.1222036396919146,-2.6795484412479846,0.19940244697267407,-2.2453053248412049,0.5829467483341988,-3.8095382086278786,1.222534646888402,-3.621483637462446,3.00538578410138,3.9781478534438126,2.8776838537478675,3.7624512501563505,-2.871002327280383,1.610026473121125,1.6840885179016346,-1.7647017460401289,0.8282317572917037,-3.869831031135262,1.2674817524723104,2.9986069830199986,0.6452613015164816,-2.164553741637004,0.8147477436880655,0.33768223276741518,-2.0705025470990856,-0.8272753082602657,-1.4437077805594197,1.4191869869810097,0.25898425464312427,-3.317086855948146,-3.818226397887752,-1.474722654393319,-0.07930114067253413,-2.0952907805651046,3.8147666237331299,2.657563897359104,-3.916362530646251,-1.2296199229988856,-2.8107742822083878,-1.2311821703870829,3.8010994271005886,-3.906081215780281,1.535376716813646,-1.108163876777624,2.804866411920379,0.7909380085041935,0.0036338796212627146,2.864027242462387,1.652359199849423,0.6911148284888551,-3.902865397750144,-1.2172115414913432,-2.479099979883939,3.20372990560855,2.4438266733829989,0.8887285580394826,-1.8899436813731959,-2.746003193620009,3.378600480843401,2.3482255906832467,-2.4465137452834888,-3.0749898681159086,-1.4224001354040513,1.7676283415666614,-2.322333176134067,-0.19030134669400046,2.685862867521153,2.9000709297205109,0.6696708154678088,-3.629314679873567,-0.5010177554430333,-3.9804914509447286,0.4863537452393647,-3.2721428366013827,-1.4938515389905563,-1.3048140764952337,-3.7156393337477029,-2.6212474728423347,-1.5749632151440703,-1.931225396858352,3.5751350490735076,-1.042971065166533,-1.0868303871518988,0.7573449020497085,-0.7914061558476346,0.37611710279023838,-1.560489051628972,3.327169469430916,-3.8233667442739289,-1.9059543044071399,0.2926539618595969,2.6843233958160725,0.12417817429402423,-3.1194678365376218,-0.46078065406724658,3.8503197943536495,2.4487425441269217,-0.9812194629564512,0.7741449223942407,-3.8907649327549747,-0.38123495213271299,-2.9921033050740144,-0.0955345368579914,-3.7955598042787974,-2.082695379469139,3.36128723526695,-0.9947974786864628,0.496860246806758,-1.030920474364292,-2.001353800909884,0.2575098070271995,3.139678307506923,0.28385192411374496,-0.7592148021613647,0.8042254861568923,0.5739482797970261,-2.658409532100971,-0.25454838441013996,-3.6224906728413028,-0.11327262652984871,2.369872235665434,-0.5571557328982486,2.7609262765131854,0.9079220360764371,-0.07972670861886844,-1.386016440944447,1.8663302880215254,3.709489223714016,2.6608666480295026,-0.49970993124451348,3.7140267853955164,-2.146166636024528,0.005587678925208728,-1.2637427977603364,0.020540236752327524,1.1435764971777829,-2.1872584175610587,0.4098632658135619,-0.2115555418422952,-1.2088003176463236,-3.262132595072975,-3.8290688286138447,3.9825102062957935,3.0965123647611776,-3.711170741871138,0.8205178673752798,1.922494506231165,2.8068891621983997,2.1411161993486589,0.29491606602016687,-0.5757117775049689,1.5083868440589159,-2.7673742244968846,2.396620245579591,2.41389410678281,-0.5540266061614825,-1.9340117034927327,-1.4997908067015633,-1.7209283767905639,-3.6538976837996097,0.2998950594385743,-3.2447008699684787,2.569468830855814,2.6688557914384445,-2.5596889342546005,-1.8224845575938143,3.993737505378231,1.8236747392697268,-3.2868901896952558,-3.0189531839538574,1.567977065575147,3.389149105680004,-2.5226775630986166,-1.2876392862702153,-3.006130990955045,-0.7309642698849039,-3.151601087965382,1.6507329745823008,2.1889915821939267,0.8791366229861728,-1.8497748084690005,-1.9690354241611504,-0.5538906413263953,2.519026873769885,2.4900185379991068,0.8550284643701387,0.6703204410168837,-0.3544958221586061,1.0382278081682853,3.492739278987724,2.4156420006790357,-1.501080953899514,-0.2014150747808776,2.35791977503943,-3.6007348076956857,1.3906528710764628,-0.6591014870022729,1.0078713498328549,3.3814963703166,-0.9690197357233421,-2.5362092328927234,-2.641913512484847,-1.897882816852313,-0.7915401209992456,2.9055980787770077,2.8097866687544785,-1.0854063715182659,-3.1978475574706914,2.763818570524437,1.4859434303945918,-2.6386798497362387,-1.436796939169895,-0.6592263401598546,-2.2587845580138738,-1.769072590098168,-0.15534422103017343,-3.6439360997153535,3.432947549754772,2.1062642089009424,-0.7618093770913694,-1.589303273631674,3.070567472432642,2.125322283351159,-3.6563740350220828,2.470766593363023,2.4696078794289928,-3.134155922431944,2.0655353031119505,-3.0571478523075008,3.761882294089804,-1.9858139046723489,1.7109381679986644,-3.5073792389655749,-3.7837199542193487,0.5169287715785984,0.5704644931175258,1.015742877722599,-2.1375700997711997,2.472624937004146,-2.57978297970946,2.1854234195494159,-0.5467946850676988,-0.7995196216398453,3.067154449442432,2.9444035884681929,3.8015715099500184,-1.0489181175675547,2.350060821372735,-3.7694867945454346,-1.3555869929749814,-2.520120828851824,0.2587902619049167,0.03588559439126637,2.439882438653739,-2.107441600376598,-2.539906630060724,2.951935054679428,-0.4528421733364807,-2.404651917024534,-2.610057716980368,-0.9595909312002027,1.9031032578147765,-0.525917772166663,-0.510824618990414,-3.2784777406165315,-2.9521841495743734,-2.729692735296105,-1.417468327123153,-1.2903733157813769,3.4540533672912847,-0.20639164845225722,1.9326491506484188,-2.8498621057869668,3.3916846525989285,3.7124381211200658,2.655402939797754,-0.20845262078061656,-1.483272530510468,-3.3819076379686479,0.019774042899406653,-2.2773860871663418,2.4506779139291279,-3.714918120712241,2.404414954357496,1.0790967554893172,1.6825481029845673,0.25995165392992805,-2.0983956240914267,-2.2261060827007466,-0.5462202108065597,-3.8397669303604919,-3.786983583697644,2.803818191143753,2.6749666796847038,0.38767695890161227,-2.440503682247206,-0.9219347615833937,2.99256674228909,-0.02249050225336746,-3.0462056073152947,-1.8945460003506334,0.8217476729393596,-3.797791381399218,-1.9975376562016907,-1.2772139275101505,0.4331944412869344,0.39225317372184778,0.45887766955350886,-3.5237576608468705,1.1825081972514973,3.386802276453989,-0.5987048809922682,3.848875219515211,-3.3914197235658447,2.259834100563179,2.740157990671081,2.9387739167170636,0.4323848381115809,-3.5065721736256858,0.28960837303025235,-1.6019092762739967,0.5393585768651645,-2.368961190886523,0.36115805277010618,-3.3595423563094064,-1.9622352216856703,-0.6612813756228471,-1.5922920991002292,-0.8656887677261631,1.3480763742015585,-2.6960320590718478,-1.6523761578964303,0.2250574182344467,0.21729746512245463,0.21623559869201437,-2.549559573787043,-3.2619689404832457,0.24273289537249188,-3.7609073510560169,2.597435383323191,-2.7810328374961275,-2.0853622212298879,-3.6782185419577706,0.5550914275790362,-2.538014275093488,-1.6902798182909569,1.7427914895839605,3.0206510162561619,0.7888646620623581,3.2314947184345215,2.1935198489135869,-0.5892401767137399,-3.4383558034955277,-2.265692647511697,-3.0938774615638735,0.322812911594232,-1.8256469755549885,-3.7185318896679746,-1.7695166631885633,-3.9945471963570187,0.07504114910757309,1.7224090797392516,-0.7078757594721383,3.450059716817301,-3.197075063443597,3.1533640391956077,0.5224357362518139,3.6008371706365747,-2.6760871968933674,2.2098166130016336,-0.020468026695184883,-3.6349101598655535,-0.08491672108022797,-3.0620246868936009,2.7414762677693957,-3.2246079149854527,2.7459438944737837,-3.4248836950199514,-0.34479636350584799,-2.8783422422784437,2.2261327896571707,-2.139116270954106,2.8489302672682825,-3.4056229517041789,-1.9164688146538167,3.7426844258752629,1.335579004620227,-2.872718799902013,-1.2436740891030327,1.0611088140847854,-3.4118925232615364,2.1457875073044727,-1.2428192158961762,1.88076829521484,-0.08637170822075979,-3.6978683148711086,2.547695580268978,-1.4117457574604322,1.805378099467191,2.560351054555462,-2.2190985041492334,0.7888951713890355,-2.007664251147599,3.6760167312045866,-2.774292076398556,-3.972332503173523,-2.572065029920707,3.2073821713057457,0.8030882431926987,2.903133431825264,-3.311107910617568,-3.75460053572718,2.565440548470214,1.3483479766662035,0.2008706734379757,-1.7148039780853457,-2.6049904640155017,1.8432484099675506,2.501725047123995,-2.984739918372549,-3.4432329175802085,3.307354535427569,1.2321036567759967,-3.4340239916696149,3.817981345380913,3.363939125269299,-1.2386484019035802,3.9762497013827788,-3.990534306298441,-0.5828494435190414,3.0752127720903079,1.9292840118119586,0.2206895101983024,1.614420996929642,1.8975913677380323,-3.6183455714061134,0.8642748530899853,-0.21570820489629928,-3.061079112247845,1.649155316514797,-2.1705886006466459,-1.0118239084078669,-3.533108801204163,-0.2830234535162637,-3.963849866740219,-1.3168736097615102,-1.8428769422254803,-0.5294007205843023,-0.9287594139970388,1.4624578463489542,-1.5397514627972014,-1.128369433693525,2.083247261535228,0.9242847550155275,-2.303444666256633,3.608701808893099,2.0779598545703807,3.263665355700833,-3.2324358502578649,3.22803094748226,1.2769470633468334,0.41507927029693639,1.5977733737898099,-2.217910326193918,0.4220982192702474,0.9434795241168361,-1.5436553076087665,-1.287696134777596,-1.8913499598815369,-0.4975906319281824,3.0704375780675727,2.320840116045402,2.111546438408256,-1.6765472305643608,-3.347348657345904,1.728741825943402,-0.6244002704918303,1.7404249224813358,-2.208831875380066,-3.117044369081542,2.3570855032935649,-0.05149136586460101,-1.7494044814015786,-0.6702504665547406,2.556717544662134,-0.5478876258381684,2.2636859345452589,3.0708655204534605,0.4176473603098403,1.5518948921738814,-1.452533530489957,-0.474854643251142,3.3270697742165966,0.18136944880400564,-3.5969458254143058,1.9980656925606919,-1.5032415003468654,-2.115117043184167,3.8252905737922306,1.0037137497924107,-0.023300351466694959,2.209337957903694,2.4982265004180936,3.2462484557597817,-3.9065165148952616,2.9847495314363519,3.6921544410925248,2.199181521762166,0.7879564203263172,1.4976151367225859,0.6804634071345204,-3.45918339500372,-2.194460153437766,2.77219556955464,2.678236643280443,-3.291421333545677,-3.7568210286204399,2.675120096569378,1.1125481747797004,-2.5650786038106068,3.0341832122214749,0.6164170809014227,-3.606788071592388,-1.9982433613870754,-3.449541604274322,-1.8512374617731445,1.8709667533139003,3.7628663285603087,1.5473578550017262,-0.16280048935530012,3.072562334746924,2.596684817509267,-1.4428678393711552,-1.6796137976358204,-0.08801598810722933,-0.13814416481344894,-1.8925651229572045,1.0558000738544147,1.079946898076753,2.2091271563575169,-3.315585594847657,2.126230572492621,-0.1128829407624854,-1.392219848035239,3.616381706000875,-0.42048839261978357,-3.631123314542865,-2.448445232383981,1.195589665350858,-0.3730011742196959,-3.403571715523526,-1.2183396152452773,2.0431260876836188,-2.396195987265471,3.4438625404560039,-1.8482893412567079,-0.6030681800692503,1.8248155080467852,-3.5181022174210678,-2.381480507406504,-0.663929259646274,-1.4437423185963619,3.9263890552269089,-2.291515665257987,-2.3174260651278866,-0.9464724048393836,2.8105389879117865,1.918317458336575,3.1478389497703729,-3.0621514004966485,2.426039077501941,-0.07768125874638532,1.0903339308959695,2.9935078458187087,2.8789157043229727,-0.8909276682583425,3.8298512601047927,-1.9913487274996287,0.7467341313049802,-3.7648614344224544,-0.8128662943792948,-3.5602119119836397,-0.2945218035933055,1.835338504310612,-3.306507349655333,1.7774077068418155,3.6517741932342906,-0.9809648050255886,-2.4397055292372729,1.3300108907648563,-2.560684146190276,0.4549840455792191,1.821969650292453,-2.342234263331009,2.4617000136648565,1.2302409336142378,2.677644647378857,-0.6707638086691805,-2.955438674901063,3.716379978559056,1.2840802521803366,-3.0243684084708395,-3.915889935976378,2.6858371800719489,0.4673965652384364,-1.3381047243514406,-1.6503744349875687,-2.7188535733100815,0.4547992946802255,-1.5427849116348645,-2.011135763427917,-2.2121956322886415,2.3327987044495019,-1.8072420978320843,3.732802183661466,1.7785520192222198,-2.9877793956403755,1.6594135742364662,-3.0879492869258895,2.8058475495494976,2.6860414061814428,2.447367442930739,2.486933121614527,-1.1797648406405726,0.23304144347636325,1.3102061940144099,-0.8494622798318405,-2.445155129876179,-3.3280647906565514,-3.477819356837534,-1.7532682615956646,-3.9490139090144327,3.0099371475254275,-3.4554930256804274,-0.12378069603910458,-1.93989880725917,2.3083514914546257,-2.4857168191590714,-1.828945630401221,0.9595729240556921,-0.26426986244585839,-3.3808546130461307,2.857324944863766,-2.6260568886422765,1.9627387009394833,-1.0887514943518913,-0.2502143347865131,0.13000743473173238,-3.851704889642628,-3.5995642883334755,3.1012482571412365,2.740354432900502,3.8764315660193437,-1.9952047937750897,2.5129455370609996,1.886133660549424,-2.642035313480597,-2.7936142530961804,0.00924780723088503,-0.45874705143591068,-0.6397982492235526,0.74271629453645,-1.4603397873190636,-3.6764270074583447,-0.23950877734962695,1.5114857149439614,-0.08117399916846702,1.6274245188568016,-1.0678787223389413,1.0579243384826516,-0.6373460623768734,1.8968355045553427,-0.5090024183842934,0.9391729718729618,-2.3064572044951028,0.7373502723803735,1.3350166060917986,-2.5289032944167886,-0.01830767761829577,1.7536776619332955,-0.6632174707884202,-3.4557779007254227,0.5430474711268811,0.7538341525106826,-0.28467532419348987,-3.4088912720976696,-0.5886979511145201,-3.790973213154664,-0.21165507586334643,3.726675422617724,3.202765383472637,3.7304965971004808,-2.6361330194079528,0.26691620613386038,2.810772324861766,3.7649942484725225,-3.1583417669771984,-2.4367509087301455,2.8809709391556277,2.863368524013689,2.0648610382228416,-0.434207780478423,0.6590916371711444,-2.757404739669635,3.110267539186795,-0.3786023462236974,2.1353561249588965,-1.4024321145915054,1.138087055148418,1.858873271909303,-0.7384577549218934,-3.4939860050905819,-2.699036423824845,-0.37060755457557117,2.0691242084887229,-1.2164086297494346,-1.1684414261121763,2.376256859646297,0.35055670708714806,0.3719126325144666,0.8762568055017717,-3.8345367404658017,1.3698241392983369,1.5595872185170353,-2.1227330822271446,1.0442128427834457,1.1840553039095108,0.14887651404478587,-0.9074206617614939,-0.36280195559469266,1.5219755563016256,2.543507533473936,-1.7026977031389062,0.3279253840850771,-3.4689128329730725,-3.3917995337888646,2.749569441429208,-3.478519370729641,0.8497983968361593,-1.1896729895614185,-2.128748374138943,-3.613665764812329,0.3402664163088298,1.4630905762778977,-1.3037566848654903,1.6394441237192164,1.2323530117301678,1.545484067731481,-2.1113006379752958,-3.2205186116852264,-1.2132026612964913,0.4414760157863977,-1.125107382055118,0.2921324075835354,-3.24902449999961,0.6312905160543494,-0.6422335085978945,0.0031594375690096045,1.4933183440094294,-1.9059198285980923,-2.798218541106568,2.713772075062413,-2.405795438665833,-2.533322071765908,3.717109579952517,3.420289325977733,-3.7733376229848254,-3.6931602568327657,-0.27145726296240527,-0.862214534051521,0.10375331899231455,-3.259556893338755,-0.5988226742162279,3.676498160913451,-0.2792790300987258,0.8949813387366827,-0.6058734237093104,2.2353051111403587,-0.28239994346461119,-2.902930782681672,0.4046297778855168,-3.3115501296060447,-0.11713823291275638,0.42795318349094826,-0.6683522776578377,3.094795544996524,-3.2066114222822588,-0.23505217640618326,-2.989508636162424,0.4394418365013566,2.2296891843135047,-2.943834438112459,-0.3875823957004467,-3.591772972117848,1.295588036754026,1.7309125839851723,1.7964747750494015,-0.540312500918894,1.766412292208166,-2.0555003428026756,3.006008653762156,-2.7096722308261507,-1.2839341401917304,3.574149899027767,-3.730434347880786,0.9620593938610886,-0.9807863475696872,-1.2215954858726557,3.428654754113542,1.9702351379224066,0.18997098222702037,-0.03257067595957608,1.6276309962333944,-1.4733005904410455,2.1561133314547815,0.24028474190905947,-2.4769762370203445,3.3045266137789097,2.4111022573835845,-0.09416309594117345,-3.821799490819699,-3.6157941641201427,-3.3464816004295105,0.20979684252153864,-0.4990516980545492,2.248623915207567,-0.019089693087495087,-0.47544939926267029,1.622572286490147,-2.343774305487516,2.2673512614633166,2.457999160157936,-1.8266147351555793,2.074254039262353,-3.5808826706885767,-1.030857704007493,-2.086858145105297,-1.5577252190450096,0.6554017105211178,-0.38050872913089486,1.6903231462755555,1.30040729040563,1.684783257202426,-0.7424499275347323,0.6887157876937096,-3.9063608506649487,-2.5201145485426155,-3.134355871600878,-2.8632823932104767,-2.1843809222594778,-1.0410644703939687,3.6749770288496208,-0.8168199244324403,-0.4633460868020842,1.7669426198514522,-3.1194799055047337,3.1634090810354937,3.1250543207358749,0.32103817726109887,-0.30409168168204028,1.8668329192894282,-3.1856435397236018,-3.3484497339842536,-1.613642902429895,2.102447255011561,-0.6711120555691339,3.5980427456247359,0.2145603525776627,0.20260094967167409,3.2214710289609247,-0.2335366749728911,-0.4078160963622499,1.77743351236745,0.11642246793149713,-3.7102752038436197,-1.611706048936858,0.8827133598619747,-1.9831865480051525,-2.2190229809077639,-0.8318565435733278,-0.1612408991078096,-1.8069071553864085,-3.2773824117485157,2.4727877121405115,-1.108135963487339,2.5887360956711999,0.4604639836723594,-0.7412564822577055,-2.757183027070597,-2.2156271669127296,-0.6538337123427276,-1.395558814699517,-0.9399830987278426,3.2347911587399125,3.0315827037662306,3.4191910805886138,-1.3825864597041547,2.0602866183666634,1.5691942848534053,-2.795113198170127,-0.3900651068825225,1.160351280047795,-2.5265166240341587,3.164502161706797,1.0845645484082987,-1.3564827072533759,-2.60332385055737,-0.3124013418545404,2.650327353620523,2.3837886332296049,0.9611289997564132,-1.3363424339564814,-0.48754786889007209,-2.8290808359224828,-2.5185957845307724,2.0130218035077585,-2.061583581775939,-3.0987054416131265,-3.4189204901494696,1.7424117619716402,-0.6626264602468674,-2.1049491473508716,0.46673345556048587,3.464579749881734,-3.7942565717029197,-1.8339034373164909,-1.8151581520592973,3.792409247545778,-0.9586317610672419,-0.8399750018556718,0.1613542057992623,-1.9846636634939297,2.5398419978644037,1.9763798807426732,2.8753675091732999,-1.3480797473580728,-3.6317155010317938,-3.3700787469894459,0.7414758414264053,2.037816262754136,0.24898372344896115,-0.2412704734624933,-0.3581930077297637,0.03354075371777654,-1.7620968761044174,1.9223771002494488,-2.498594675943087,-3.2904646926226315,1.313813698974065,-1.8815568685012192,3.0315756876253525,2.0243084777771278,3.202226665810678,0.4060861466115373,-3.6574631145525959,2.9512250028207669,2.019888549023535,1.8208382975299813,1.1399443035694166,0.2804877328009443,-1.2792721607849827,-1.6764890246081033,0.3342834952384708,-0.762011000776255,2.1808526283049325,-1.0631307634634793,-3.8519048635791455,-1.1824689020891606,-3.123888910179165,0.316681514850365,-0.58439049570762,-1.0835060110754749,1.9323134124950992,-1.7586161987971603,-2.436635655670334,1.4994674496956986,-2.196668066929142,-3.690654638647035,1.3351468984682269,2.577866384416107,3.920453881572084,2.172733934268037,-2.4814808016366536,-0.2233276998423952,-0.03806953490481124,3.7449103730169917,0.5070564997690044,2.9301712519335085,1.9144655665233686,1.904857468165785,-0.6473945483717092,-0.6404698372008235,-3.043173396790669,-0.42397723426353575,-0.4856462315507082,3.8416110912533627,3.822842651441336,0.0009612480998226758,-3.669452455059962,3.4358258259483085,-0.010550035491128318,-0.9652625951787519,-2.796253372062152,-2.0663974236536495,-2.8454294361728058,0.947196320926313,-3.284800582235734,1.7500597383211929,-1.3429165722219508,2.267399051808324,2.8642670481864647,0.48040869700173696,-0.10837593304959992,0.34554647179371136,3.6489796417914457,-3.2567466335514334,-1.706095559692651,3.0035106486299334,-2.8980626978511569,1.765745521427018,-2.1815334760921756,-3.4096319840879518,-1.9982937740825043,-1.3067043207456502,2.944983734466944,1.4301025459217157,-2.7281456687227045,0.5960689982957783,3.6279308363562716,2.7379011559102519,-1.6065210508867625,-2.8698440598492027,-2.667760480347627,-3.777397199643759,1.2988265359540812,-1.214493295365578,1.305390404537695,3.849881300364382,-0.9816972078161184,1.9410841612744286,0.6008662984568192,0.6302819158101798,-2.329623214300626,3.910025274623952,3.7821870890838005,-1.5186311442868466,0.5906120197503748,-0.7722943108572675,-2.4813110310304449,-1.9687817698941013,-2.6503858061483598,2.2900882689917125,1.730926410566357,-0.0062818020103845299,3.7841371713831499,-0.4130401485700954,0.5237361771023794,2.3789756133744808,2.712961976286624,-3.1491745626539098,-3.896721226671689,-0.2916725352985843,1.5239186029303369,2.3908599908662939,3.9395037545216677,-2.7158529986912116,2.2836031481582097,0.833568330992275,-0.06747227637016074,-0.006813007591230047,-0.4434956945201698,2.6090144914550548,1.933093531107824,-3.3222970621628198,0.2952188972905896,-1.9704308299608862,2.2297489312127398,-0.9993868524806526,-2.792351414986217,-3.000821355689885,1.7127460097045227,1.2296536430911874,3.4473097681554174,2.271533712677938,1.7968706074070742,2.395506895635128,2.08428453108139,-1.2163645208895225,0.09423473335238253,-0.7569775302469977,1.2295353288872484,-2.2785618327683005,-1.130452066846244,3.8021470891335245,2.828499985582857,-3.9271125596015787,-3.100820092885513,-1.5447839583871235,3.2670248512565838,2.7959335662637727,-3.263090375168728,-2.1557913648014557,3.331776158241575,0.3366164993792866,2.589766937663396,0.018426149890249378,-3.8061929933929825,-3.3803471961363416,-2.709602536884744,2.3977422251442777,-2.6768139153442496,-1.7703248824209733,-2.829059132935143,-2.460002973016702,-0.3271501744996499,3.9441917756886024,3.138802181151563,-0.41997052072023868,3.899120457146016,0.4571077688163969,1.0894453039850314,-2.1851908608574659,0.7143332417430415,1.0292182880988153,-0.41410453659335469,1.8581205013408014,-0.2504659753175391,-0.8484802404723855,-3.602940499173233,3.194912689150203,0.5425110226393883,0.6099233701254452,3.2876681931357227,-1.6474730640902158,1.5419381079772326,-2.5311454822322787,-2.8796078592193456,-2.00063496909162,2.729329013443122,0.8094971260676722,0.7664557307603763,1.4544831946849178,-3.9956859061071077,0.15116560150307024,2.876407776490396,2.1866751993109787,-2.3176591633488545,1.0089380991949657,0.6666409369360915,-1.4439802590204308,-0.3207511553627713,0.7224584214962038,1.5343338581952769,-2.2075895200651285,-3.76336945785926,3.9345914305089959,-1.0217151109571808,0.8835505742339578,2.063472021586268,1.033732828427767,-1.3532751568184765,-2.289867570359198,0.8660103355322573,-0.24588901257895103,2.474939944877266,