[2.9540529505587527,-1.9969649105096926,3.564779982832901,-0.13874607057018707,0.20210585749091515,1.4240570450124679,1.8102013542300819,0.27500892853233607,-2.5302732901527307,2.0374278115817816,-2.3555446904601897,3.930641312859845,-0.8789026859456648,-1.9401208817103948,-3.0705292940822765,2.111227849870085,-3.8567226041585407,-1.6314287894353906,-3.673424526623881,-2.8841418553711808,-2.5134823433793187,-3.289528717494142,2.181609486897324,-0.2785698034401758,2.8201958527790289,3.0501770601985038,2.078699349021708,-0.1356515409864194,-2.3965755850674119,-2.3567279237510316,-0.011780899536585565,-3.7734405769059267,-0.658907229036064,3.37686395893967,1.2840163401574767,-2.756200428784588,0.052939339676313149,0.8402132357347822,2.197141087949995,3.9134012688773627,-0.05900253821675938,1.4030026131174714,-0.4669938732954242,2.1684167700347904,-2.111226299443964,-1.9791443586131606,-3.604863884335421,0.49212754483120949,-3.46556408204711,-0.9643943198827076,2.451584304034154,0.48146692045938357,-0.9949995361461743,3.5485814111582609,-3.2505317592642974,3.1090067052001304,-2.6409349189005626,3.443795187572376,1.8421586836763134,0.49637108802871846,-2.6198700526559826,-0.09724204562611227,2.208815362028715,-3.0110844041062165,-3.474513317469838,2.0057647079256677,3.1371651933763307,1.1698443156120444,3.7348794475766899,2.6494423491150975,-1.550884857433074,-3.6622277541953407,-2.392366036490401,-3.374543691038742,-3.0685275925663495,-0.48474507204358177,-1.4001033402239339,1.2107412785630115,1.58060260218019,-2.5070445032605948,1.0574464119056355,1.3003951315816096,-0.4822189196179123,-3.123195618707647,-3.4449735297329466,2.3931884098059159,-0.25550707860204016,-1.4766444374075772,2.4776483827105126,1.3682401214102447,0.22950793745287968,-2.480931399326084,-1.6647132896237614,0.25290498366306038,2.1260699763136898,0.7522687698443447,1.3179074112645939,2.6797324435832259,-2.261913258061126,3.6634643554790875,0.45033972547917058,3.9497600598419577,-1.843474462913308,-2.0798296777692109,0.8967537260060112,-2.485253129142179,-3.4760565093748907,-2.719728899824739,-3.0485042914686506,1.0279087323992409,2.3212837814162476,-1.974370212136533,-2.8459022406884069,0.9513719576741435,3.810350104162927,-2.6993988721755048,-3.950647279273828,2.8162280197929379,-3.9521393760177947,1.867125001826813,-0.7165279151032156,-0.19081972474325149,0.0038959710393520199,2.81325151775302,-3.849302100342668,-3.0842858319844206,-0.6993514930963531,-3.765133634228162,-3.2884511313937354,-3.3228570764310865,1.1952896989075335,0.9980030910117739,-0.9634954113017977,3.3173615153697719,1.1870065658173284,2.5499492149745857,1.8484182202883144,-0.987424296589972,-3.5845112023691607,-1.4951884773028779,0.3528307551851393,-3.2961179938205058,-2.390692229532311,3.941683050330136,-2.361711166361938,-0.2839108117207667,-3.6737977992984716,2.764379627831107,0.10357835123824799,-1.0354330902223988,-1.6759866387923897,2.884933152857122,0.04251451729331723,-0.2956008666791963,3.4261868203247127,-1.3902234424510794,-0.6523870793565516,1.2472454505951598,-2.4129841870466066,-0.2390678227581784,-1.0214701779538907,-2.4497097375854075,3.885596830766082,-1.159850795619299,1.710921678981026,2.905325227748232,-2.3107951011345149,-1.1408775752140306,2.2572865331921969,-1.1558830723412968,-0.8203568970337385,-1.9476341224436907,1.451664663524693,-2.0129990415906766,-0.5754693017106833,3.8786503035037196,2.6293364060461359,0.7174397402473316,-1.065702472693494,-2.251085829423122,-2.7729502621781156,1.7309404191795457,-2.8654914664802479,-0.09128172657564626,-3.815649314415337,0.602291559602337,-0.20519748579732068,0.8629058953281055,-3.888819214542793,0.0764659730139714,-3.4392721020127734,-2.910135105848666,-1.8329999753024249,-2.695431991781457,0.8249414154667578,1.347947328579572,3.871324669780644,-3.3101480854501528,0.5742151254779682,-2.532096692401419,3.9574197394951549,-0.4238488527567519,2.1618328453694479,2.9163017315691528,-2.2436197291753485,-1.3855389812612876,3.6589817186131237,2.289459657849358,1.7226655686921407,2.36952459673848,-0.02524280862768813,-3.9733852383141308,-1.7165278281273962,-1.7028806366185519,-1.798371174645103,0.5758433111822381,0.35686339200821495,-0.10663970067399498,-1.5994995882546422,1.436030675838686,-3.9322370937274968,-3.7790681061370359,-3.0687709666531157,0.8930024922807833,-1.092399130379273,-3.133522474430433,1.641932213061387,3.970421663001689,-3.648384233590341,2.7111564436748045,3.0033761790354456,2.944807441493502,3.4680802739625147,-3.196892601676457,3.7492720355486028,-3.4605650763829587,0.7061171588485147,-2.586379945539467,2.9877142408909318,3.893584406374602,0.7317269047029162,1.3370837532207576,1.0479861864950984,1.058446278833114,-3.510654812003268,-3.4145025921646239,-0.7927489146315041,-1.0874557868850508,-2.76637348542467,1.2704557634533318,-3.824540061113848,-0.23780576701177837,-1.792142373155739,0.7867688016074697,-0.015660682438257468,-0.20246020751985206,-3.0778270217588217,2.770652253970468,3.6064941503813214,3.4155173572602388,-3.3615946744353906,1.5962725256706767,1.4803266799621709,-2.384252926973237,0.49499297650583076,-2.2610042395597889,3.130509040154884,-2.3002793958015745,2.0947899675008507,-3.2125382351794879,-2.080058094356758,-0.13362921169013654,-2.587935494214185,-1.0933795414188035,1.790788864337867,2.1779793562836335,-2.3017263375133165,-3.62750754203815,1.7530759853108667,1.9807886944909364,0.9128962107400653,1.5090684903286596,1.7617201863599937,3.407574486797145,-2.6684998089147644,-3.3335902377644937,1.163884160555142,-3.4472702864960835,3.193531145054311,-0.8546690779037229,-1.0313275684868542,2.0622458205993654,-1.3095389409680545,-2.9610640483676819,-2.8922875567269488,3.007055048813992,-0.9220641545315056,2.209411541210871,-3.119447060993802,2.5773349458531626,-1.598582788760492,-0.3352424270395771,-1.7488023891491463,-1.9598624580237838,0.20471747437531996,-0.06934622144504688,-2.441883360641942,1.6774050163744426,-0.581600282181489,-0.19195883024438044,2.2212632653080188,-3.0111238947826308,0.732978541189282,3.6632023056733375,1.4163200320609768,-1.1929878549659792,1.2067112885499106,1.9263223017387886,2.0092586694182756,-3.655247394971253,-1.6227434337429419,-2.3870433605437846,3.357565743439708,-1.9263369050732207,3.901900958530489,-2.19518137667204,-1.7040765701201719,-2.211194939675911,-0.18551700141306227,0.016774981891052755,-3.246477085433673,0.18636672711551584,0.7350888412697634,-3.6815530208443638,0.35366891147016235,0.5059805818589949,-0.21483936993194265,-2.356029990718212,-3.4879572448022495,1.5194411663555414,1.1460488641414442,1.7379811874868719,0.5917181879025852,3.4988331467718929,-2.2826125721683869,2.3225029750466916,1.7290029991499,-0.2300665054746316,2.430167779497048,2.326189284186384,1.3259025709291557,-3.452943875781986,1.8679075612619523,0.6886413856722742,1.4610239703375463,-1.7495192046707955,0.7181835713057296,-3.6499828029090777,-0.8194470739167363,2.4535918512181658,-2.4556769302468446,-0.5005661954844849,1.0483911024325208,0.3835853764005348,2.8785097104915549,-0.4981661885004973,-1.7150598827748,-2.4437819539273164,1.366692791460082,-0.30882457967079715,3.819783827552631,-2.4986114757907549,-2.3409793710756068,0.687146065241472,-2.740530284783075,3.100171156756738,-2.1956843972405206,0.29311330887371325,-0.24222278856761093,3.9488568756008926,-3.9224390101827124,2.418657917681962,1.1357557871199458,0.504525316673881,-0.4268830689085694,-3.247315047235495,-2.592809557329307,-2.4506510423196365,-3.8478119118765985,-0.07976435983370145,3.758028972084783,-2.5194228267054434,2.961084697000288,-0.090263574797939,2.6178869224710556,-1.6651652712639218,-2.8846387219553186,-2.5746487811348617,0.838090542127242,3.577406068367302,1.4112941028087436,3.3521457149254676,0.08219583776047213,0.7045839317605909,-3.608625688992455,-2.7983709927226245,1.6278926681343622,-1.1237630231971308,2.6066311877039904,3.087284640131979,-3.908220426139536,-0.11397874394982766,-0.6406667407134223,-0.34759620919551917,0.028519094878050489,-0.8184031212725929,2.3812003432876276,3.5953017799315249,-2.1706331575907429,0.16207386911741573,-1.0759145558071799,-0.018165723987017658,0.06667716660090939,3.1457632324558526,-1.6963863747057034,0.7416702198475962,-2.837267528387862,0.8435349396910281,3.1877660155028888,1.6013085208262626,-2.340578179158335,3.5215194388899189,-2.882886547863351,3.963571828692955,3.8413735560398365,-1.7528477032819448,-2.3499469128715386,-1.7343820648631959,-2.626998325771825,-0.3816374486521603,3.2192717279751745,3.3630614082062735,3.4699371778202208,-3.4052592432493986,3.665341230615036,1.666511291368085,3.787937653329953,1.266549949125503,3.099065783177208,-0.5629274670827729,-1.448217554430375,-3.569498130300774,1.7819899214740654,-1.233801860802557,-3.3520471853669866,3.5882180631245275,-1.1296325315386469,-3.249435071630425,3.5444638750286368,-2.3973965655200795,3.1002066021305234,2.383644337401269,1.494799281691864,-2.9132776717087287,-2.1622343349127828,1.5210108178778548,-0.8709415344873397,-2.732004815573716,0.4198077768052766,1.118420064309852,-2.2801912310518279,-1.3128265234867183,-2.736565403585961,0.5381643420236477,-3.9116786021307847,2.3393393301168858,-0.9548850435317116,2.648367543297841,-2.020015034140073,1.8251695897976994,1.8968932166390005,-3.2883241359666925,-2.9326365656258286,-2.5550099013306815,-3.795122471200157,1.2390519269438328,2.9707876664378176,-0.4750365123301188,1.7916738484219268,1.2595063825923303,0.530597131660568,-0.4437787109765312,0.7116912590971589,-1.3710684530975002,2.08685194041575,3.4572163228692736,-0.8511294580990969,3.787960530740362,2.2157241340649156,1.9142357205909564,-0.08423428509698372,2.5002496883742175,-0.4945695164545787,1.9587784100396038,-0.4349883067191298,0.506432738716919,-3.4889804932613517,0.6641403125438057,1.0651407280344696,2.447555398322838,-3.0874020053917148,2.309638332670298,2.695068706988245,0.9229557707375093,-1.2273451854477485,2.314194554535047,1.1762320566407985,-3.3199212103593629,2.718506508710422,-0.7066011611021443,-1.3162920654253859,-1.682267061616919,2.1781964161128766,-2.568580410531684,-2.4165465615564578,0.7741330996125617,-2.8813846460163106,0.10762066418784056,-3.2304174602870185,1.9277643267669254,1.8008105011664269,-1.7948729360882974,-3.8588432788240825,1.7843098970985745,3.348276752726016,-2.017017799426034,1.6383623899227465,3.7871352006753336,3.089375956153906,-1.3778725081913699,-2.2769061919486095,1.70258173382999,3.0251180718594314,-1.1267149413990883,1.7266171316424127,-0.530915629140164,1.5895722100188846,1.3848830412547173,-0.5782188967410653,0.3408092153844837,3.910804310263905,2.817661315977052,-1.8275957760332078,-0.9551099014082392,-0.9831887315473731,-3.6715282817672296,-1.0939122124579202,-1.3022217587460974,2.9051286476956665,2.2674682058650577,-3.4813649483862978,-1.3013592463137356,-3.5323702275737549,-3.0148431457366806,-1.360826369921906,-1.666087561353633,-3.620350224547261,2.1406483291625246,3.8416708572010904,-3.479501830682076,-2.3168830255225876,-1.3659102960311478,3.9638357569817765,0.09365987858528158,-2.8695931092188919,1.849523874589698,-1.8811716850168188,0.5348383112636013,-1.463902593307141,-0.28125154442283498,-1.1354882616015763,-1.6093736049633103,-1.5888704933932412,-1.3402951579735838,-0.9440310847671449,-2.1990196700136037,1.2319916754103498,-1.9141032908860308,-1.7418109227558496,0.4703065110938791,3.8904829433513656,2.300127811606351,-2.3399787477675106,3.3158975037464595,1.0799376367981042,-0.5604611967562327,2.2912385657473557,-2.5327404944089837,-0.5084708076174449,3.3733718700971329,-3.0943764055812208,1.5075944886762223,2.9547001682048119,-0.7084950147211446,3.507953691668404,-0.7596678836672923,-1.0014985586052419,-2.446429370228632,-3.752363973357789,3.1658960171919467,3.5226119772010469,0.006931487205124043,2.49281839379522,-1.4752846353162417,-1.380485072087561,-0.8320590058544903,-1.9349144102180116,2.3883518871897779,0.9282620828001837,3.7909710621106695,3.5052412220811268,-1.6483699894378903,-3.820164749133526,2.447258044031071,-2.1719005876749719,-3.740438637168788,-1.0539052927077426,-3.0714987914532108,-2.050124246542431,-3.2082377411539815,-3.5686292513936088,-2.6400255516125386,-2.6240940170962405,-1.888156987710798,-0.9835936493167949,1.2793251533692845,3.665669381855051,3.8863465133127539,3.741847824214023,-1.0284849461531923,1.4425958274308322,-1.427983327395632,-1.065360523257587,-2.242403093315712,-3.229234197900576,3.267043434855217,1.1557056019628647,1.3411032607361602,1.258224424244684,3.9573503997434038,2.923727273532588,3.0080440250875446,-1.0659918981610793,1.4995295522791743,3.676229157988187,-2.0062402682287319,-3.472877914189538,3.4074632642021847,-2.051427775267058,-2.002876331375826,-0.1859543201343108,-1.9103256627999803,-0.9773378472272265,-0.9730678547201253,-1.0983383938237399,0.4164023734542175,3.011025519286566,3.701306377297626,-3.191398703176376,1.415918003562247,-3.832337325101588,-0.6914474875959102,1.2358411532455103,-0.5278090791463888,1.133061467595832,0.7143857284198241,-3.4243033273207805,-0.3887077008798592,0.9499185938262977,-0.4159693388916865,-1.3833211844598293,0.8364847734025984,-0.8960892590520155,-2.5445451801535166,-3.8863624476798916,-1.1231651120698088,0.5636922814469001,-1.2638079674912426,-0.08972663008083437,-3.4017917773959365,2.6275497361140864,3.540290877216975,3.8996973459725678,0.10571786217455692,3.4017234819793185,-0.9165069260764254,-1.403086883367877,-0.8584827690419115,-0.8261230873720129,0.3728051877107301,-2.8468279570826775,2.1227911922453339,0.07529005918516685,-3.626348703289838,-0.46485866088137497,-3.611095479160708,2.6831038518651519,1.714809090237531,-1.0881143623603463,3.424738229597451,2.1708042723343965,0.45504335439241219,2.8592843351243868,-1.7642314351980682,-2.6856159469709075,2.7179218475178539,-0.9161242194745063,-0.03712046692000137,3.023497656448093,-1.153648238428695,-2.2038052862547827,1.2387426041952044,-2.9512224773907755,-0.4135950089134628,3.2372684593697409,-0.7084142227273775,3.4474324076884779,1.0030926592359704,1.0265248762854543,2.2086875250485349,-0.8047517175739216,1.001400355417875,-1.2334635932651106,-0.9553607019775432,0.08624064998215797,-0.2695106963447307,-0.5625203896594166,-2.5615021134441484,-1.3141641392468613,0.7126367876675408,-3.3768199844028476,-1.4846108568095534,1.8866583033560645,-3.3535610375703746,2.090700576999466,1.9690274424135784,0.03332277678697615,-0.9327579323536028,0.30715187329157525,2.5787298802701938,-3.135385315111213,-0.6369031185552201,-2.5412086264665367,-0.5138327670055478,1.13272377159109,-2.591589040131197,-3.831607422710766,-3.476061467974503,-1.105600692133784,2.527073897440806,2.022239460576558,0.8721931711539908,-3.3655329278836847,-1.3573091834124538,0.30199610129436396,3.5313386973119158,-3.960327306692969,3.7377433665649999,1.1379684429560993,0.15581986454363684,-3.8683782711598928,0.3169592743179246,-1.2695692375467845,-0.9093152019196404,1.7588961043037062,-1.4301496848875675,2.915052848041684,-2.2072846215604446,1.4555997001335,3.1281571586543608,2.0912071870722155,-2.215354524208273,1.7086613333939785,0.2659530491740476,2.4991744719514825,-0.6635940010104944,3.7654708136841386,3.2080647369582095,0.9986730608885361,0.15035972068346127,2.067974984993607,-0.5473025020987485,-0.6275701989308127,3.649983518325529,-2.103532503236841,-1.6523802353219853,-0.9009475557071518,3.6217265626529056,-2.990628282817193,-2.7775775800208217,1.4063964629738682,-3.683224831511004,-2.3549176238472917,-1.5478628374972994,1.3454433728592817,1.2856807968085509,2.6151497979106095,2.6246285049693247,-0.7305436476822047,0.14011667217108848,2.0183984541254045,-1.8374020993961625,-0.9884972758122155,-1.981824374784509,-2.64916653863477,0.6824417471727324,2.8390282061108058,-3.14613370139854,-0.8219642572642014,1.0477289344730352,0.3960479692255028,-0.3054162264399023,0.6498670481143138,2.9256753509874677,-2.845036003946177,2.120147968869248,3.5826057445028924,-1.5392113530215764,2.7860514964471898,2.117093743831629,-3.8670751684928357,-2.078980818303961,0.6357700848082262,-3.458982556071115,1.9277160215775258,-2.9987287594758689,0.7744175007802969,-3.822674300024996,-2.1362895056039754,0.20174484684849149,0.03505240618159178,3.304446247310028,-2.8826604880365886,1.4601140142718104,-1.2531518394331778,-1.050254697972713,-0.44129882993651728,-2.0270941238980386,-3.876114204488662,0.10703419708390349,-2.8277563547770656,-2.03308574032578,-2.234511300755589,2.9132070344152964,-1.8925148500054159,-3.5636961691874129,3.4685809576682118,0.33082614542439617,-2.804897779550304,3.1001152636400377,0.15174660285084763,2.74626609104158,2.4543349496253628,1.9068545286749173,3.429603031161676,-2.922120204247367,3.6055031619653858,2.3575930656119539,-2.268675309171292,0.8606002901751184,-0.9815984748679656,-3.0257046890861849,-1.9681345104064486,-0.6335520304101996,-3.9916864572869334,-1.0058694523708172,1.9175154972760194,-3.8899679392709398,-1.479966771546257,2.380499785885351,-3.8624378141234958,1.6870975971848186,-2.415052387174784,0.303365704284456,1.0155630826300204,1.4071849549956089,-2.131027073007756,1.4203957525268277,3.776987041144384,1.454246809617799,0.28035118725415755,-0.9458037391040319,-2.542634615406632,1.6451817200730555,3.9876620131731999,-3.2920338922040237,-0.16992093834466982,1.5873683025164339,-2.765389437704516,-3.393872131599842,-2.9391406929151255,3.6220815404863258,1.302785455714143,0.4645023754814357,2.438245550002697,-3.1364869612942396,0.24530891496683705,-0.01868911240547022,0.19014656675740405,2.3765566290974418,-2.6014092777966324,2.702491418212257,-1.205158386282484,2.2607648872445047,3.2661675693293557,1.1356109323274817,-3.032285636352605,2.8050653235635476,-3.5800767699208144,-1.0854781336023185,-3.398243960064802,-0.03619277207133087,3.6131857842307415,-3.651926968366147,1.6282719670108108,-1.2636020109809235,-2.8560767824515969,-1.279002059576861,-1.7900695315630147,3.3309736466869728,0.6250614964222514,-2.928768510985045,-3.35482744119993,3.974687910502616,2.9766999673869058,-2.494932993934805,1.8379624865591362,-1.5066739290789538,3.4693174306370917,0.5438138248694164,-1.122464596900076,-3.3819585347656018,-1.7214355464953213,-2.177086810601617,2.8249058858148849,0.9757816214069379,2.9707706407299208,-1.1180491000548978,0.5845457137516359,-3.3416826979921776,-3.935289613265107,1.599215970622864,1.1829319046159164,-0.24104512535407864,0.571018549122849,-1.968268748206814,-3.9238781372253657,-2.4471987676095789,-0.568096460633023,1.478271974625624,-0.7177242787930867,2.4607182330392796,-1.8093125480233488,-1.1566851044599203,2.8562213865872945,3.149261832842364,3.431941428644734,2.7517190079770765,-3.0232886617983167,3.1082701733652744,2.8723143409963765,-1.070179446982821,0.37086588963776637,-2.642933047941069,-0.13094661004943676,-2.692340857397742,-2.6952718842941838,2.733925720935111,-0.26512409346397716,-2.2561739204269735,3.2890523722537576,-2.399511327924108,-0.2412184789462115,-3.203277331632753,0.6669560959965191,1.412960765289557,2.2937939740050314,1.322095136856892,-2.319401139152027,3.2234721048292656,-3.504934440293625,2.073015842716454,3.940208757033015,-1.1954870739065469,-2.351897589734346,-3.4493823585055445,1.375105097666296,2.4973194691434434,-2.6806037707587189,-1.665388208437106,-3.1847078160542594,-1.3819033622414017,1.0430061932281909,1.871775415864131,-3.821419105772211,-0.7555546547386884,-1.4166938714513649,-2.7938496178014917,-2.77048006846632,-3.3912089068806425,-0.6941539091477251,2.8394617580742924,0.7385005592681946,-0.8545987315805628,-1.2845185406542648,1.8033416583364615,1.0091853058862964,1.6865866586935808,1.8614542083299526,-0.5192685734570974,2.1442457784092747,3.230047317715334,0.6690384677695569,-3.0131467559362656,-2.2135810455240447,-1.4277062997629549,-0.4516965847778811,2.8920959899540339,-3.2632396574574598,1.8135812580367628,0.06593814916510255,1.3670715483701904,-0.004169533980193485,-1.959429993713368,-2.679099489415689,-0.2696071201430019,-3.0064396525663206,0.27216700175502508,-0.2613432447984021,-2.5010594508624708,-1.5394164706507328,-0.18751046228790625,-3.0473596279362065,-2.7431045998485885,-0.8261725617992708,-3.6453242218088199,3.080074428142848,-2.6621132244382048,0.12811032021658609,-2.6982842084912628,-0.8657839423113762,3.889394445118133,2.845888952505268,0.25523604753508258,3.9500787812691637,-2.650754679581837,-0.21503452233341137,-1.152045871321253,-3.554469768408582,0.7882582415157087,-0.8583886083612136,-2.7451278897485018,0.17478966425640775,1.7332796166870957,0.396470523382769,1.3658009143915103,-3.599765174822431,1.691519706484077,-0.7597214214049757,-2.820575317281925,1.9269151179384947,-2.7859485701544228,1.8668587444537473,-0.418055554718765,-2.5697604566474769,1.4099769295463274,1.1826832536771539,0.728894854520564,-3.275180901616663,0.3030085131634115,2.03592046238729,2.278191193680672,0.7606131443502209,1.1448971515810396,0.5623913520016552,2.267164089363356,0.758035687889608,-0.8959862568625405,1.0766461082073012,-0.23816252880652323,-3.253481485244161,-1.9379500877699867,-0.7877650451525808,-0.7528575379203224,3.6150242904809666,-1.2919454911256008,3.510890155209596,-2.9765691163797625,-3.5574427156828598,3.9161967214305388,-2.601336392222013,-2.4746695739543798,1.4557896368439432,-2.11968846577836,-1.0523407555957343,-0.47168151980976549,1.2665387937904225,-2.819928763342559,-0.5822023845092301,-2.6812726881057156,-0.13151279192231137,1.2262810723544498,-3.210636344491677,1.7637243173096389,-3.66895197670096,3.0663860384827688,3.7957024631394118,-1.7218106961650189,3.208267619579173,2.9937693878694189,0.7380058819386077,3.402877390447191,-1.072443649171154,-3.0424080805820816,0.041832066072923449,-0.6717569816219824,2.600771202821951,-1.356891712132314,1.0196081296973115,-2.3329546217442607,-1.521873759621057,0.9883434413944441,3.545168172485776,2.1303335947451247,-3.50083084687775,0.029076386092220298,3.455854325199935,1.249365531572554,-1.7923354183418346,3.4279810530826895,-0.7535185425269335,1.4118284070686418,2.2521547162678035,-3.323957150472709,3.735755511264406,-1.51984228005672,3.8571516469132458,3.4631848577954535,-2.6162409644134287,2.3906601771717499,-3.3737447955622326,0.04048934200658927,-0.350010847448865,-3.3083910159293605,-1.751286463902562,-0.9109754805169124,1.1423250280193785,1.3729659463878346,0.5266855007505003,3.0232731110950805,-2.104016263465775,-2.2269684226481329,0.8282345244074341,-3.827481160512093,1.8487975553287042,1.1356706226340015,0.04772169767641987,3.5217072207984509,3.1000676404983604,-0.9136506066953365,2.647266678985276,-3.2025514696493859,3.8734068926406897,-0.9883784310324801,2.8014776633721256,-1.004602011683575,-1.8910385767431917,2.1831559137960809,2.718877061248204,-1.2111801778516647,1.6487633193714065,-1.9421867974993233,-0.10091268529031883,0.3696752954241562,-3.827873568824252,1.7410989394302954,0.7599558141198575,-2.054528977580084,-1.5050429332469362,3.770740696717624,0.7795276703812659,-0.9582101511965393,1.2984989722345475,-1.5091235765134173,-3.357782277769304,-3.3678954398831459,-1.6653478530016968,1.0043972321354354,2.8745214315464304,-3.992108823037791,2.375472583674954,0.5285974773573532,-1.0186798227294228,0.6319002812108083,-2.743031984339579,-3.9771755993646176,1.1246078849649229,0.29438232220848006,-3.855164547302853,0.5111247980303899,-2.2294617485376975,0.6822733313359164,1.3960112765955036,-3.9070626963959356,-3.204806994078359,1.7323445311450323,-2.2301854613594136,-0.16562157320581706,-2.9469482971687306,3.0072167754665175,-3.001107759924536,-1.482039568617556,2.611516468699774,-1.4401207770317016,-2.78596020671032,0.8760893264169072,0.23107443858889188,1.2704663785310873,2.576811273217186,2.064299090065168,-3.653209049620349,3.397946340804409,-2.5082457513875617,-3.4814738650622187,-0.5449505560424335,0.5141608910764832,1.8209147655128409,-0.7926815656229496,-1.7657459752104748,-0.19197303201656114,-1.9727816039985502,-3.219996985248449,-1.6682570630505298,3.1565354309968249,1.4597414274373524,-0.4534667594408057,0.9458423138575736,2.04479999465823,-2.6554638985847287,-0.5593114299113973,-0.5811980331123097,3.1746720408288287,-2.5484230541208268,-2.4734237557594316,-0.9620849904900164,-1.2586226160480916,-2.190352920619799,1.2533301945490508,-3.1715360122968008,2.3795053686251474,-2.9700175415540395,-2.308083931755,1.112652730597282,2.1356197658200388,2.45243164199671,-0.69701567071024,-0.5803115839683155,-3.7941761202637629,-2.53470958719514,0.42094390457926159,-3.842265440300535,1.2043705643709082,3.559780457662904,-2.106679998348236,0.04270364588683684,1.4362838221569972,2.1712690811410297,-2.2002644125815369,3.3314773520276574,-0.7024561801109126,0.314334939049985,-1.80799551314497,0.8611182896499656,-2.2297793149049669,-1.897716708094043,0.31743555800464398,-0.9195291149428755,-2.4101988112278578,-3.962186452705268,0.13459645294742818,1.5957269198772313,-2.627223528914543,0.8090274048507489,1.5317234434337266,-3.9350606269966859,-3.129287547160156,1.9982802251157255,-3.3385913891881664,-0.35342448642280469,1.0236371124067328,1.4631675582794977,-3.279922184378446,0.5482246260367587,-1.7965444268474967,-1.4099220347130078,-3.603081194512617,-2.3452122140205988,-1.1480766182927598,-3.6656095230210514,-1.2731996809656483,-0.6797665060687965,0.9382983902962563,0.4332808462299784,0.5140604905937112,-3.9285362708562019,-0.6048294706300839,-1.9440775549156564,-3.0268018330441377,-0.8276892079161959,0.9822343746966347,0.06809427451345762,1.2311173565765233,-2.4296115829431335,-1.598260027868716,-1.4939640480629644,-1.7464818119559918,1.7078125986037503,-2.20172426423453,2.584116791983419,-2.8419543962025486,2.8780427336652929,0.6571610364600451,-1.1926034995244986,1.0014121564154648,-2.5957534966493664,2.17349652956361,2.240845936673307,0.7482082692436327,0.9080117826862892,-3.464316796018265,1.8113538507653582,-0.13669331591950319,-1.1282171422049352,3.223714768337058,-3.174374810029927,-2.049716301920933,-2.5986090766513438,-0.23385907759867509,-1.4633632149069032,2.830714893667924,-2.4847887970741455,0.9827282335728222,-0.2175366976012183,2.3779079662118,-1.9861300195252872,0.584097601370571,0.025501593085762054,1.2748074489004813,2.2114629016522766,1.2461553096158245,2.1127870546760709,3.9323234234032435,-3.060648041189494,1.5055147723956717,0.7023993613805057,-0.8001091477533,2.5196866475067596,2.7210337196830638,2.9736265029059556,0.9919101268207671,-3.247493165979611,0.9435779369735062,-2.1822725485069638,-1.5111657135193857,3.6040594855214698,-1.7612960108483907,3.946112026600508,1.320848061304444,2.194270556181305,3.3359247143571979,-0.6415290101263551,-3.787502661091728,-0.5833975804056235,0.49130157959002576,-2.912097232275914,-3.290249448782804,3.367570392720274,-3.2563411645599658,2.772171290510107,-1.8637341898624913,1.3133161650318837,-0.3483869229407881,3.5880976781058218,2.7836497293933935,3.7817466422739596,1.949649148947345,-0.47274754080728678,0.6187051172002542,3.252052567004453,-3.040137808176137,1.7381342010769619,-3.631786291825784,-3.3958981868709,-2.7068168789435846,-3.377708461433663,0.7059307726512483,-2.6073683740470576,-0.767037051580415,-0.07742425674229647,0.6206731932004184,-0.47450611725672178,0.5065525747556769,3.782424807295248,-1.7391076324819173,-2.44191916302288,0.7735936055851713,2.061286521944673,-3.215860638501267,1.275508465324009,-1.1049328859260988,-0.20147887930357046,-2.3680855476342614,1.8996686361959326,-3.982766417444074,0.06097890594354549,1.3811301137120334,-0.698263694639599,2.4102920206811566,-2.5589388873007357,1.7431757625583249,-2.3360149651378867,0.30654458985345647,2.5133184679133047,-1.10804298182477,1.752743052630958,-2.5972202976550706,3.0847267739912098,3.674104746825881,-3.2385340921905136,-1.3406051841709344,-1.9969556291053688,1.8326308574065058,3.044154949877374,-2.524251641945561,0.851290446187356,-3.6080441442951516,2.315788432469999,3.5499695378391928,0.8330313711787811,1.0829323824435547,3.31445593172732,3.8833827299455248,-3.6380795357537885,3.66684220365308,-3.4160952263473165,2.9176954385530404,-3.641112202566984,3.806550483389506,0.07550301824867933,-3.6441916352307137,0.9028516792156713,2.662105698445214,-1.024065787402437,-0.5729231539124724,-1.5437312183687109,-0.2351591945037319,2.407611414943375,-1.9682633198262006,-2.3291956001339795,0.45733072636814678,-0.02924863381004794,1.1106891943440536,-0.464334556484145,-0.8453283561066654,1.4623931677481857,-3.1523009216028816,1.6407024467980263,-1.813914282178464,-0.9671472309448799,-0.3309396698969449,0.927360324786342,-1.151367451845024,-3.807414319600908,-2.530371698220849,-2.4920972104707355,1.8904836285598803,-3.711448684378065,-3.525296782225234,-2.67617399145683,-3.569923810804516,-1.4596024519362932,1.0439936635705154,2.090887102134473,-0.7636425534195122,-1.6206176831194735,-2.4553957100751315,3.4677981031274447,-3.1721036023956357,-1.2100641047458483,1.7899014525232496,-0.697367478260781,-2.8713831151574995,0.2964029480256247,2.688633953286602,2.2706117789825246,-2.5003794297570218,1.8292495703919514,-1.585612343354491,3.442925743686473,2.137315498442219,-1.068198523171402,-2.673398658059533,-0.503538685499751,3.2731087037060266,-1.7286009904571207,-2.051606105959343,1.421391986866042,-1.5102509454785489,-3.6057305240476218,-1.7660116328868137,3.4218983087462568,-1.4701806377411045,3.616321203070002,2.6260561199143996,-3.5825521943828617,0.8434186742916472,-3.660644039379851,-3.3972690476092186,-1.6941747456456733,1.4789793149526256,1.6474791128344065,2.8454229274786506,3.024977191421242,2.4563651309049696,-1.7125236971455112,-3.476289514536031,3.092318377760022,-1.1713689704738207,-3.3251917713065515,-3.640563734038695,-3.7345991269264049,-2.1103857413830546,-0.6549904101026289,-0.029156208611871516,-3.693395626867277,0.5619395764969761,1.9155769398401948,-3.8723551784599916,-0.19393064685692153,-2.25287297193897,-0.3064475471414658,0.3804383141676553,1.8031671089097863,2.088749535569577,-1.2208539112106332,0.20228812272642394,0.8280839275809466,3.7931988149719455,-1.428300755178805,0.21813680233192568,-3.997392413005521,1.419873443507627,-3.3030573860578347,-1.5407123637380585,0.9626311688971381,3.4532058979168047,-1.5868640726679955,-2.4244532050541505,-3.013518430368782,-1.4903191918829129,3.4912976229238428,0.5059229799252787,-0.9499313773186424,1.7312904100501756,-0.8842624242708501,1.5036631859877537,-2.9008743194288124,-0.30126344633823246,-1.174473508440757,-3.0650837284931695,2.028994857669919,3.6335207129078457,-0.8911730873769974,-1.0713099649811662,-2.2949207973372216,-0.03298219657694523,-1.931924153372808,2.149833140104917,-2.94190772354389,-2.0754899835674918,-0.32691606715919777,-1.5667747734886213,-0.5459113223957297,-0.3264000854250926,0.654470891079372,0.0843756584859987,-1.997256212256036,0.12560107208722649,0.13920386798463636,1.4091675855183086,0.0065655756765305999,1.683468594050134,3.8011404844249094,-1.7962059264264783,-3.445284079509724,0.9332410550094199,0.09729141551026022,-3.1663403526031077,1.5010372082666166,-2.228559035594807,-3.153385936143483,-3.0314311455230795,1.6410640528849206,3.0543761327027,-2.0149271373799415,2.918091931511058,0.14893916151545207,0.2775946890448502,-3.4141172859685859,-1.3886696926286353,1.0986126562760897,0.05722297674596799,3.7143462459668648,2.190467807860279,-0.4964850145295683,3.020501861084675,1.7709076419991919,-2.3186478196369668,-2.125624490035598,0.3761287794088144,-1.0891179020376283,3.3955084903893857,-0.48506958796440716,2.616122961434473,1.7115388923074049,-3.1544460148017849,-2.769228420092201,3.4276032901924449,-1.446873572480227,3.0666338542819,-0.13649780499639697,1.3567538554323858,0.657985924949279,-3.8275098035644339,-3.637916200746882,3.9261953065119865,-1.9748774108926855,-3.8052464430676995,-0.3087494283090093,-0.7658299143244944,-1.4897384627765087,3.184604625172624,-0.884689798293679,1.571315919480404,-1.7487789839562407,2.1551065268486235,3.091794564997099,-0.6325775892875951,3.0476099296500305,2.9688320435480719,-2.7602151782457389,-2.2702035775924465,-1.2698220212603333,-0.4110311042440351,-1.9906524633951835,-3.706842356837205,-0.04868486368376157,-0.5678389919690707,-1.936580202984395,1.3899681287583353,1.266509163367564,3.600173729699561,0.11119593111083148,-3.2285261626791,-0.14932338097095888,2.4646236990335339,-0.22124736258700729,3.814660910871849,-2.351255372010539,-1.3640196381557777,-2.1100297508198349,-2.0680679357879656,3.5953405888632545,2.2087684329680279,2.650529219133941,3.329913051091384,3.7764713443581074,-1.611555126586886,-1.2553782463430166,-2.023921964738383,-0.2354590309916258,-3.882577391471777,-1.5776846792625834,0.6077243132110608,-2.5767451909607006,-2.2693753874601274,-0.1642194167944897,-2.7019992617224579,-2.9452342198447756,-3.4272958394089194,-0.4998919110086708,1.8158902198292495,2.8774332882441255,1.1501100857340454,-2.446594673163025,0.183627187392287,-2.9795081644571708,-1.4008185084124104,-3.13274900551757,1.6140210324561775,1.1872681865479234,-0.07730464341303312,-2.6197685614659,-0.5700582563775194,0.6540703325750155,-2.2207081158396519,-2.6776804821563369,-0.7828073987337128,-3.8726243723738849,1.9069318888424656,-0.36725688348920029,3.9889049949557577,-2.6362087042447905,-3.052459913367933,-0.37040967202641919,0.31161887657442569,-0.9648393938742783,-3.1098176624879878,-2.7970375554358029,1.292870354755257,-3.985098271730166,0.9226042936925412,0.464453845606017,0.8646501817256107,-3.9910243465013419,-0.22492129763115277,-3.256237885924575,-3.647797319895708,3.4862421519492567,0.9365221243889188,-0.09706289976146199,0.021201776891651926,-2.528754521102398,1.0460145788209668,2.148954682625849,-0.006184376474106523,-3.2677548554092219,1.7827928573342265,1.2137374393040706,2.3418390831002915,1.0622302127560675,1.3742770496608872,1.2871651836283676,-0.8944665239631142,-1.3608114746947227,-3.046032529726176,1.7683708758555748,-3.475465015363568,1.7137432041590799,0.511117258547511,-1.1034049468885404,-1.3054398596962945,-1.924705806077779,-1.8009498664622612,-2.364768894644903,-2.244287865308004,-0.5933500112415038,-1.1080706204076949,2.548726344041887,-0.20481302902595445,0.9091499892648001,0.3831043789912769,3.342537742596578,1.5109425754917583,-3.452000974966065,-3.0573693000008514,1.999704817845939,0.6244654060595671,1.8986310220208953,-0.1234268945311443,2.0640707544005147,-3.0116898840143957,1.848378739081861,0.5591031057990961,0.6094177586825342,-1.2987402311887804,-0.5637301671677759,1.856706508531727,1.7096510080542667,2.6400274780884587,-0.4165447199332546,-0.4119719045954451,-0.528662342029576,-0.2214440127146915,3.881265001371432,-2.164303234893932,3.3819065654602378,-3.1002556073336624,-2.4135274501750318,-0.6044964857823354,3.8158846753190645,-3.180551428349334,-0.8919232246342668,-1.2178523806296946,-1.049032353019028,-2.446988861210672,2.081321833484771,2.3808220043373886,-0.7650470757158523,-0.5334119011802867,2.002438343145249,3.2895208251531216,2.522865578312123,2.7651558247869119,2.4402352996626845,-3.9070684581101444,1.003431929099544,-2.7369088236780234,-3.204916370861566,2.2645666206075969,-0.1901881406236201,0.6928983897021777,-1.0848954297698155,1.3416895373122149,1.2214210164922124,-1.4602665859232849,-1.6875356788493612,3.6416392874972987,0.7254347223763062,-1.9522348095566094,0.4432137040638855,3.2021937806110527,3.8692034252235025,2.783874643388091,-1.3924746976980507,1.8181123159164008,-0.6118737689547693,-0.3216021646694023,1.9701821388512029,-3.908972890372513,-1.3924356576061375,3.9543463006962149,-1.1904648783115482,-1.3099152440569242,0.5932692248012534,-2.6167704506420659,-3.4720632593870697,-1.9914448225218385,-3.752307172227357,-0.5002906829360221,-1.7515193391620654,-3.6622216090847417,3.8163192886811156,1.3490211736626803,3.311409353799853,3.3976357597740707,1.8931235862133323,-2.3490939928263128,1.4112002446728252,-0.6869404440597167,1.7229628247028349,-0.7661521367137674,-0.2593405668247337,-3.1009883056345526,-3.758191257165622,3.851281136270649,0.20037065076158457,-2.8458784345503975,-1.769325754057345,-3.5863372990068838,2.0906730852886969,-1.1220124586392384,-0.19043564957791049,-1.7042287218521522,1.467734264422802,-2.989368963237462,0.4125150393441057,-1.68252805174153,3.9100445777655858,-2.4292500327135304,0.7743430117456409,2.8864093700769626,-1.4539104405995716,-2.861817724325644,3.582822224030905,3.350041926434967,-1.1192418988027502,0.7954633499828567,2.6391380244802518,-0.09295433969093203,-0.04082430095634115,3.6164178576780285,1.6632958281120845,0.6203519374310771,0.07336253277562044,-1.392883010415584,-1.9739952205794696,-3.8841479265427818,-0.4516581824617649,-0.10726813683815273,-3.012744757913791,-3.48294054585051,-0.8906539604673105,3.303690740561138,3.9394300452572796,-0.27661402437530549,3.084974095372787,-2.9060519165409897,1.574341573290388,2.5586455188590149,-0.9903869725666381,0.06637113584212973,-1.3674912301746094,0.46236184556782336,3.3458787480730667,3.4755743816825275,3.9793714552144356,2.0060730753734168,2.802337157889421,3.1241577944023,1.8092803920150865,-1.886400763162669,1.4210045895272164,0.7788093037015518,1.3531809035299976,3.5103657193316559,-0.01940474186928598,-2.8820014928769206,1.7864403445107407,1.0177023919641509,1.4273080004920856,1.2475493418047386,-1.4280462913014296,-0.316616598267766,3.8364108081185757,3.806314572009356,-0.7530602117866694,-3.7252125335164179,-0.8419135999982694,-0.6920506745198962,-0.8752600492615406,1.4229287691433746,-1.560843959190125,-0.9580972040431226,-3.796631298363777,-1.56376613854618,-2.6736646420939449,1.2989310352392734,-3.8544744551605234,3.494286227824677,0.38519656520782688,0.1549067646734512,2.9469679556910455,-2.5576519902777816,-1.9431616090089739,-2.114400392494016,-0.9198799658098835,0.15234676930884206,-1.2449223222633619,1.0434013305947492,-2.262194116474589,2.421709615925354,3.636693654622154,-2.737569191152999,-3.3923992459910785,-0.9872980555584237,-3.7816155242763598,3.7961281500750054,1.3125492295749278,-3.806528335352694,-0.8163509546128269,3.906987862923331,2.1065971059562864,1.0467907153856695,3.6134388218328796,-2.1933055650481938,1.681707013928678,3.791045732168083,-2.035686301987786,0.39714764304520946,3.6235307368690687,1.608351868426496,-1.9260285127063908,2.012029685986141,-3.906347692474542,2.370492577305785,-1.9279265468090897,-1.7688175912004292,0.6528364927562746,0.04651017600998575,-1.1294854458528419,-1.0674835821895366,-1.5766035246021704,0.18313107522408424,-2.124397989824006,0.15586297507869774,1.418130534456779,0.759178571594405,-0.6861449150592094,2.959190973316975,-2.073804285368473,-0.583666250835005,-3.0805776718844335,1.218772674377183,-1.5554939716738739,-2.198085920280075,-3.997214678118022,2.3566071507805939,-1.3281178861863295,3.704244373726638,1.715785848163681,2.8015317456038666,1.3065642500405038,3.6373001760943888,3.5172956204462055,-2.1774070088781256,1.2236983721481548,-3.3390891440590408,-2.04792921234188,-1.7125549885926732,1.417885393690801,-2.078952328118116,3.400750675969257,0.9904353123217531,1.979042487724353,1.6724993164468325,1.410644632569202,3.480328200882595,-0.35904590268605776,-3.7247544578315958,1.8209162165746538,-2.3630307606486724,-2.240794763264395,1.7807038517341383,-1.6561979180608562,-3.1159732529241479,2.5690015516332229,2.182938040097911,-1.4889852082883826,-0.22573057330683689,1.515380875039309,0.4047354556043503,-2.137891019978082,-2.730593024737538,-0.012816426591813146,0.2801900854866366,1.5350240739170325,2.325706316104604,-3.7370139143857568,-2.569877672132379,3.887912112656444,-3.2128971488903126,2.4673754884549217,-0.4280613160024531,-3.5768254829477028,3.6254457946514107,-2.426591087707365,3.9810187444379574,-2.7239335755956057,-1.7928186870483385,2.1872334866493707,1.2282733049231816,-2.405793022601208,-3.336344315389466,-3.723765895401777,2.4252895031963508,0.01830289530963025,-2.056039912019009,-2.648019701355488,-1.6593343219562345,0.9820123856695124,-2.1419858013638155,-0.07993125083253161,-2.5001009071205049,-1.7829395653484655,-1.984325865877767,-0.7976279249666971,0.8038413518628609,3.4400306909346396,1.7261117614459459,-0.10744273636734736,-1.138058970605025,-0.4467931680738,-3.716255401706693,-1.716011914852084,1.3875955169512118,-0.27442468311106818,-0.8666954879728497,-3.584703228794581,1.3739994580850175,-0.5149037230001581,3.3905815469214728,2.2690064094622288,-0.8763211288149515,1.5247301126925379,-2.206637627078239,-0.004910310623388758,1.7658847389032362,1.3575421600855116,-2.601147329492318,-2.324167351105843,2.830528146799648,-3.7744466563924048,0.10553467094057467,2.3540410306791639,0.5940522266136439,2.6347639934170017,-0.8044697482096686,3.6774451674333905,-1.3328974499610578,1.9816229014015284,0.4549527639899198,3.448756919814227,3.6713240301948337,2.4033758333123487,-0.6790595667542461,-0.530890883253532,-3.027575486541534,2.444965916410503,-2.1334135395422395,-0.21590474508716274,1.307593402587412,-0.17180300043293607,2.4601654586327328,-1.788845092632181,-0.5044814891924903,3.261418628417716,0.39736557303771127,-1.344586116541224,2.526468898747561,-3.728529174087912,2.1439854490307379,1.73743928313489,-2.605549026583243,1.4609814379212436,-0.040274710758662738,-2.543541560192173,1.897305262259005,0.9117420381815453,1.880811050114957,0.8755092011822869,3.715638818308962,-3.3925608749192657,-1.6263736451297924,-0.127423574271897,-2.3386308492854974,-2.478246514953912,3.8617920937498688,-2.9327935760595524,-3.1228293394074058,1.4809595935775013,-0.7066110338689784,-3.3754007362118054,2.964519178356422,-3.1414947769734544,-3.014165397650732,-1.3775926221864375,3.38018913398668,0.8288385353087495,-3.0324170388804365,1.3654526335312394,-2.512972904304644,-3.1267170567829618,3.9158348983096857,-0.7868407444160697,2.7350830708987665,-1.1158211679930004,-1.707614807880162,-3.4105980751427005,-2.581424030299641,2.3704936670585745,-1.0820553684146009,0.9885325570701999,-3.257048295676938,-3.808669220547877,3.7215785357536497,1.625285244503516,2.2545843882102805,-1.4218384498873036,1.461005488515232,-2.2801691977975109,-1.13954651762468,-3.074057284768897,-0.7795505320650467,-0.516796287264299,0.28178654302340436,-1.9476461530574412,3.7401730593505366,3.402983220598064,0.12295995896599621,-3.3181210524354567,3.9069679294900085,3.3507035142438319,-0.6899288452241217,0.9390676344959505,1.9722847022485022,0.17347284417136334,3.680353016167925,-2.3759008169461115,1.0308948060014345,0.053393880395967489,-0.454869477341477,2.120390054123339,-3.352590786560941,0.10569748610842389,1.8319640019769504,1.1404693176916548,3.9472711774879327,-2.6093455501400397,-2.0907017698197558,-3.6208175282813945,3.3597367764331285,-3.833200058871313,0.36304025244296059,-0.3567998404113164,0.4660965830696817,1.296949661971265,0.8539142835161169,-1.6731679068710293,-0.01790160863491419,-0.3943491073088907,-2.120017209424006,2.0041393450732505,0.7968267962926676,-3.4334861893458825,-1.3170622590315622,3.776158611068916,0.3811707515302958,0.7106258103756069,1.1608256259897499,3.8378446047811485,-1.463173711495073,-0.8929994840372926,-2.84848048744428,-2.2942013400814886,-0.6100910385585829,-3.4155350643786095,-3.3106536315793164,-3.5274255872835527,0.6572146801873622,-3.640277619890835,-2.4667418216235879,-1.4013142581218595,-3.6281335588819525,-3.580842763957129,0.9256854710625806,3.305968926811124,-0.4051260756685606,-3.1607075020179016,-2.4519633049510105,-1.319680064888713,1.4463861436242223,-0.7296902428487133,-0.37778036567272346,3.528832714256559,-2.3665921696025036,2.6882582134404275,1.8177878124037453,0.27333286787215896,-1.070864971237414,-3.3297989123727058,2.485833341880431,2.4590825011276928,1.963073608561496,-0.20880812964692042,0.9680422579065873,0.8324329585298322,1.790853970005264,2.4386700212113867,0.8514614396701612,-3.0777550719843536,0.8163448195654697,-0.1335481204662352,0.7749269129622229,-0.7258026935376662,-2.673665190043982,3.5377989207065756,3.101919305640261,-1.9222745622292068,3.5723821453813517,-1.377701312978031,3.5581985811628558,-1.4703079972261988,2.909107832311588,2.5754873241466269,-3.9093517869940594,1.5593785030167649,-0.11567757353561525,-2.828097472068394,-1.0439342898063833,-1.6423891186055393,-2.290388486329702,-2.5932475338787546,-2.8401270242076848,-0.9972386855179396,3.1987846142918769,3.794036354387078,2.9333527534336998,3.087299541872482,-3.132458577356509,-2.9040413928960024,-2.185723040926143,-2.565572633258917,2.0362762031223067,-1.7311433565573625,-0.13238525623168563,-2.949049949616877,-1.9635597058336603,1.1575784540552974,-2.504526487342794,-0.9162959577757963,-3.452325135126949,2.6569056849015,-2.008115215967922,-1.173557463006575,3.044246951546052,0.18387192659666774,2.8346400043621848,0.8690818576044137,-2.4730779560368738,0.8706546314809263,-0.09513349605416566,-1.4783464792882717,2.8297892422813648,1.1742973966028024,2.066958995434609,-3.8820886638577347,-0.3950256872296707,-3.8031436456723846,-0.05964467358073211,1.5052926841370758,3.952807911880888,2.7892290312148839,-3.5738175573689006,-0.9194218255424769,1.5488918391772142,-2.4675944750854077,-1.7387485955116835,2.7701863620917779,3.760841232692335,0.6029673509255762,-0.6719660009183561,1.8952354847945579,1.6203463058507595,-0.6558002964159273,3.145047581148785,1.261780505578356,0.9669375093981358,3.9602869346182114,3.0510131358594334,-3.773959670386022,3.049388260591238,1.5143937144971558,-3.4388498128890685,-0.5904251242061067,-1.4353445740845743,-0.7744199428315712,1.7541248934812508,2.3432471191277486,-0.44145242671096676,1.692929032120304,3.090643769951895,1.076845317236928,-1.8134445841228227,0.2061840437769087,-3.234581554582788,2.8227265698522725,-1.222734453428381,3.7114325175840117,-2.9236782114565607,3.579825165031874,2.748542402466761,1.1217402598159617,1.8810391197343953,0.05928087398544957,-3.3558720681723459,3.6903654576094588,-1.4553124181348345,-3.4801388812744085,-3.415993886457623,-0.10337302005561733,-0.3078143887278264,-2.299187460362334,1.046450803503049,-2.5390474202222537,-3.7549741058250927,-2.2734453461283286,-1.558057245773087,3.441624102541093,1.166836532127153,2.3481727245280137,2.2646785444327195,-2.4642125711726008,2.6181035046400185,2.424635738316458,-2.8838646444628148,3.150665328930325,3.8950737033010638,3.350629355144588,-1.5522858625626166,0.8109642872981517,-2.048801151826928,-0.06683167986945349,0.014911914338741284,-0.966115560570814,0.29094627004813758,3.7063296529514204,-2.2347221131217447,2.993332506384948,-1.6545026916403727,3.2236608062310996,-3.012767197648116,-1.82827307037409,-3.4186222795397525,-0.32924607116168849,0.05989157905845577,-3.311040016690704,1.8784403495160334,3.568334904589057,-3.745724309113072,1.40648057053407,1.2944575132510235,2.4375642487252557,1.9087492667952307,-0.18592607032304743,-0.5004339760296288,3.9440387496666675,2.9613126800706048,-3.0319417044732459,1.2785301656642183,0.9107425740537503,-1.6352366717697414,-1.8683597500166656,0.20703815643766444,-2.168151450658808,-2.9952734594315126,-1.2726742095817044,-0.6358868846274675,1.9151307386859263,2.7089362868770747,3.671443682298433,-1.9211174947143446,3.0044436247034529,-2.7666705350381735,0.1577026448405734,-0.3036075977203778,-2.677321379439867,-1.30673405350092,3.2517138011915076,2.5001470184905578,1.7109090245306434,2.740415371599881,2.435105601426975,-3.970612342117893,-1.7707210399857259,3.757518301563956,-1.773002162527991,-2.9320121716166156,-0.3394463377210082,2.712272890482361,2.2569903463057585,1.5940110753917525,0.19041490331661049,3.630619378244117,2.6533001648183864,-3.827846007084939,3.8104028131855296,-1.1701497677267237,2.554137999573805,-3.2111873245156827,-1.2752287682035844,2.037347133621669,1.212836826880494,2.4830011643790907,-2.702504298409516,-2.8289418384603328,2.439823786126155,3.969118891754799,-3.1976723184328907,3.2723018032676318,-2.4476489727697929,3.221557195810674,0.9770728530954402,-0.3040756183201301,-1.0013150344034303,2.139212537994916,-3.742593906719888,3.415248996575907,-2.116527909358612,-1.909024521028959,3.0721121953000045,2.22904020367754,3.7327031182909664,-3.100056298532291,0.8828486956146833,-2.864650488566917,-0.11903130245990656,1.9134597823775952,2.625161491495244,-0.4075959734318635,3.6672364330258118,0.9691202530966452,2.515725082295303,1.1566799726223299,-3.947746570093372,-3.1579492661818975,0.5907490674382752,-2.835382428764218,0.26359307684667146,-2.3711935962274337,1.2909281031896543,-1.0097677472733118,-0.058316063466073767,-1.906867884494318,3.1866807908536316,-2.874758611116068,0.057871524489230278,-0.05156805307781398,-1.157164144693631,3.505409286933612,0.553790108559097,-1.5939257897039534,-2.8560958145057304,-0.46616660588572347,3.546346404157471,1.6741096916461827,3.9572058509892207,3.306733389376868,-2.3505277634448378,-3.71806956170826,3.642343721134017,0.7373171267472793,1.9007513569859365,-0.28810402826929595,-2.2937595139881346,0.5500575666499987,-3.635332437116345,0.42790077828844366,-3.94848522043843,0.10025984879757655,-3.0534867575986794,-1.43236818902208,1.9988880836227914,-0.5330056916407386,0.9832849483698016,-1.4527228143426625,-0.555647472158203,2.22384755337482,0.870797770265102,-0.27085443177865456,3.3495305772180714,0.06176404148045833,2.9883557103915097,1.3728393040779637,-2.5977715272231567,-2.671392802371866,1.5028516847402128,3.4365230203540788,-0.8150258184731951,0.11789392556483147,3.8171715369782035,1.6891753278138069,-1.3687369390330356,0.9699416186565495,2.8187163475910328,-1.0216428341167879,-2.70758866322236,-2.234663438377317,2.5275250209164774,1.2591090466189084,1.20357693434958,-3.9232597601293914,-1.9005716402264914,-3.8376564422812198,2.8081678052560194,-1.839947291808963,0.3049414475163026,3.9367479676969747,3.7769905989799676,-0.65878307471511,-1.9178111704446899,2.7555899272827935,-1.6072148706170353,3.167966748948994,2.3316893325902248,3.244105958445328,1.6111267435674029,2.8688593274483544,-3.6168798530880785,-0.6824751217643319,3.011044863328215,-2.7605285996271249,-0.7910116186461949,2.2869416908955628,-0.13548179786328896,2.8559994282273948,0.2698329710717502,-3.8318407270781416,-1.2452637811895118,3.5174448653375869,1.104124435233273,-1.944189046192507,-0.6388460124035227,-2.760978607578739,-3.418096099470846,-1.0902474068973032,-3.271807898779091,-1.069730750101636,3.1579502591166666,0.5896630118061106,-0.1377205478427621,-3.9252993100485256,-1.309722899116984,3.7206281485622005,-1.7795094491131385,-2.4826808274255685,1.3436328245447227,-1.6589518925876646,-0.10030248359157224,0.5913532646581867,0.0696660455836513,-2.0836316401011656,-3.441008897681856,0.47388918881279898,1.3392742606336379,2.935144049168235,2.1802106734394206,-1.638184653040202,-3.1119460942960428,-0.5457516777860596,-2.298771230328822,-1.8860345421448193,-1.9639339215637133,1.7068885275876458,-3.925739898366837,0.2163923021693961,0.6909146880674877,3.7816899217348158,-0.7385431922210177,1.9016830942980417,3.735578399790681,1.655357131123453,1.6703687793351776,-2.646836264821042,-1.835271885072684,2.881613357834757,3.2690347814606959,2.3346820694606409,2.455722389570921,-1.2469951733814897,2.90459294732344,-1.4715098394178695,-3.873996461475701,0.637562130229175,2.547738308411911,-0.15229139456529773,-3.8743480509321737,-1.6036887601229706,3.1729043990667087,-0.7121958955870866,-2.36801904154502,-0.45819428177694,0.6859446514346654,0.1330006061517004,0.7257397231842768,-3.946334644972465,-3.6498174549733006,2.3249610453623816,3.4082486042244986,3.3036596606995767,0.15806441318337595,-2.6557988977584978,-3.7776979071343206,0.07562474616926096,2.5272807868084925,-1.233512303984055,-1.492245780787167,-3.5692000307151785,0.026901210862093629,0.4342044475541238,1.0934654522462042,-1.1590468552262634,1.5796331138711422,-2.4772925393848546,3.0722149877877396,2.014608809815437,3.0764903105254239,-3.006271218016453,-0.9770498250813768,-0.5906651514074193,-3.272266574002945,-1.2413752591332337,3.9020223780851825,-0.09390212484307536,-0.5788557207065834,0.12196913390281505,2.49694584757761,-2.3680060607885817,3.5129869975016208,2.5482319573076488,3.3240269458201885,3.0368617618099806,-0.17225135668736869,2.89124580251859,1.53842373266896,0.25664880518988478,-1.3046947118979658,0.27785907096182607,2.70040739763329,3.8466882926511305,-1.8711434705999617,1.5104449445724813,1.296780524826799,2.642990665146643,-1.2134028127373782,-3.8585973390450096,1.818887907864318,3.2221521342019265,1.6300953525497218,-3.6753085394039495,-0.4403306018942159,0.8790073360340163,-1.8830249127200647,-3.815293652438111,-0.9076563375244453,0.5716020727996769,-3.3455842102243418,-1.8656216782057323,-1.4334565060538299,-2.1272448442496598,2.6270697513554506,-1.9760623212533864,0.9576946666755619,2.8182292210072656,-3.6459367957271127,-2.6701189155347935,-0.506668701441698,3.5218583928388584,-0.1596164511149405,1.66558666003424,1.1308098995334853,2.629394216097447,-0.24256805181638087,3.9537405202999587,-0.8561742409849276,-2.689118505541792,1.7022637824184095,-0.41289545202877978,-0.22586140150076873,-0.3567378995102606,-3.5898430776728729,-3.1459352503756508,0.49579791825916966,-2.1785921841294,-0.9223542872563293,-3.9714591843737505,-1.8527038283722866,0.2131019693486529,-0.7719507000653396,-1.8749782078613749,-1.9015045103069233,1.2366488920011288,2.3940128420764745,-0.5682142053496992,1.9687523204727047,-1.435240576268473,-1.0341878958924864,-3.2831432456337898,-3.623684024276497,0.12064361999220452,-1.4201515226630779,2.977175369034426,2.4101066307490299,0.06148830137498784,3.399993689261443,-1.017812659607216,-2.8331746566131894,-1.8916266476298718,2.306278427848053,2.196136225187251,2.7059475723336359,2.413743491013178,-3.8373925823912655,-0.6387654967616407,-2.536798821112221,-2.2156484784869354,-0.8177379913291105,-3.452957145268365,-1.562738602608132,-2.3627521482062709,0.21437497406278983,-0.6705429008124479,0.7764273788032119,1.656077609628971,0.8806571662442835,3.8833020039617658,3.7390052591541975,-0.9589687794075876,-3.907549197006418,0.7283717086208332,-0.3280481901983938,-3.452453056908414,-3.4468301748173797,3.7345180155515678,-3.017139523448969,3.048437126821484,-0.12923015510192016,-1.8712970378919947,1.0493174990802388,-1.8335354907552509,1.1591109057820833,-2.639208596526837,3.7402002266778258,-0.7986260959355986,3.0783343904754876,3.790975841194938,2.699902446354118,-2.5790890062575508,3.8454965662186986,-2.653284546242703,-0.8784447310128913,2.00603951600249,-0.013067141367954838,3.6740374829246287,2.4452975565568986,-0.17905037735579144,2.3137803413848978,-0.8113807222110827,1.05539254344108,-3.8029480270520139,-1.817075132816365,-1.1552327582519036,3.0850041161796577,-2.221094360770376,-1.4809471874347565,0.34725034947624869,2.1678336316445394,0.5400007801627877,1.0480213197455398,-2.3733397881703146,-0.4968763205162654,1.3202865551771686,-2.5373192982313865,0.9364147448702864,-2.0566713000334078,-0.8236799475444305,3.292730395986797,-1.2076256928305094,-1.010757221854217,-1.530406689298877,-2.194402171628867,-3.0306546224191495,-2.279134797670052,-0.7606455568504116,-1.4156760444984072,-1.1530789659806973,0.18981599907023839,-0.9905720945926626,-3.847315525414772,1.96100890507173,-3.7691234307327869,3.9439790909912935,-3.920283672695488,0.02661575748767042,1.2677367703281038,0.2653363801249702,-2.3402692568133798,3.5192111403430497,3.5008785297209767,-2.5468900556123179,0.9490923253505823,-3.76189333288029,0.2774919943996119,3.3309478933282028,-2.609784000921275,-2.3361798667225459,-2.4780629124219066,-2.234577760130927,-2.4198606585143898,0.8263959859599179,1.8667549179183079,2.699682307131572,1.129780507438741,0.315094372881803,1.3590252085631889,2.976475073496424,-2.231575449522661,-2.3719978259936775,-2.5716940190057908,-2.049810780081284,3.552703058201545,0.267763846896802,3.675347824448183,-2.9383478757003944,-2.198459197870722,-1.7343773552470028,1.2934465635565698,-2.2072692817651715,1.5997938860835373,0.7447746086608822,0.0617485443114445,-3.3850579867589127,1.8996196463204554,3.8405562930335339,-0.325661467957884,1.0888592460352094,0.15181567003693886,-2.233745106165399,3.734423574055455,0.5761691311631596,-0.19455110601359849,0.594008569383619,1.3620832151621843,0.20171204646187403,-3.410045179136648,-1.6315323129111706,3.659314633582663,3.4508145699023107,1.315027113286642,2.407017727572809,2.0536172329378958,-3.178333190832303,2.720417016289818,0.6582825358448146,-2.200372481241878,0.6259662267589379,-1.7565102633182246,2.2284216255534305,1.588517442014095,0.9641566849831884,-0.21064418869254476,1.8739931249784086,2.35061899553493,-2.0816856715765574,-2.5972641168715446,0.1359850698164351,2.3507876947340007,1.291201052302001,-1.4405493656019977,3.1116532775915175,1.691979657217959,-1.0209403562979758,-3.4575081600010906,0.7836785795024275,-3.740437229920488,1.4828670117990895,-0.7802546674787079,0.6456940623063563,-0.2993488069046608,3.058600825457397,-3.4660917511381399,2.154051581615496,0.3329702028129313,0.6824838862926361,2.641569294808577,-2.5585477825688,2.5628382940766727,1.408900415381141,-2.1245602340585636,-0.6327311436347929,-2.989783506432798,0.2717778948660241,1.6936131289955956,-2.2757114479817419,-0.6332525521470063,-1.0322896256429122,3.852968269674669,-0.9186366542343534,-2.1807690139840316,1.6729065924565552,1.9601971533370355,0.9780681776160298,2.59167536472361,-3.314215982316835,-2.3047726668138726,-1.0985690221301286,-3.4192618893598878,0.326319421392375,2.3222609123927739,3.533650361590716,-2.570865904441149,3.43445683024233,3.3511906548873284,0.644289358851915,2.105272029997825,-2.1653428016514715,0.7760910739264784,1.5163867570508352,-1.9608469456903122,-1.7034749163091528,3.6116460292779939,-3.581396956920199,1.7405943803401947,-1.27636365743283,1.2362444126483717,2.3935067312279205,-1.8825675122101507,3.5900061747564546,-0.8385662128025826,0.6860825269131237,2.075857261890704,-2.7604256014586028,3.908740040449219,-2.2351642027338975,-2.5849598350547646,3.847738266823715,3.5519504176445384,2.662063599013841,-0.6856697955068951,1.3188354371962863,3.5094613439136994,-0.5474062956631813,3.890421997633217,3.2994552820458109,-0.026782253338126118,3.1144899279680668,-0.3755950784973907,-3.466844562944102,-1.547620582590646,-3.9417086196437358,1.4249595040679415,2.345162377136816,-1.9134540515639656,0.8821249742871586,-3.098249269432424,0.9903310370270555,-1.0068068580833816,-0.6998774556884362,-3.5677420249205999,-1.5887115407128843,-3.7134492060477166,2.827236918391691,0.985917257148043,3.097876550868527,3.493489059365987,2.740078693309157,-3.2731676157310218,3.353843231668092,-2.3105878253880736,-1.1071846465852958,3.5630717955121948,-3.876400206786717,1.5762754722674553,3.6378678070008876,-2.933592574860506,-1.705995581261706,0.014704592230656566,-0.5803673611438773,-2.6503971180548815,0.7000574613985418,-1.6425245608923918,1.8240450280495325,1.5704380180421698,-1.316189443870963,2.309380212935671,3.662936891726142,1.3883952833174576,1.639021593617974,-0.7458115471206526,0.5612818442912353,-1.8097961267239476,-0.5063513467242524,-0.6947294330734228,-1.6991472550889846,-3.1504394357000145,0.9013516734824716,-0.897770942958565,-2.915376548512154,-0.3440001200996592,1.231991398380723,1.5304239927557824,0.37298141129729159,1.8575431156551137,2.2408558090962966,0.5474415625993228,-2.5757652344353785,-1.6304194216454065,1.6791995577098629,0.14356553079293289,1.9358420062080129,-1.9748462500797415,2.282344295439482,-2.0183737909308609,3.40173925212481,-3.0145324390133254,-3.477094613680695,-0.8784480315693026,2.3430604995906378,2.8054019512221135,3.568190180180159,-1.424621901094998,-1.8508413126501784,3.877585072673172,1.9983571610899036,2.419355887364781,1.3100867383036566,-1.6914112668230155,2.536671149826895,-3.2831663503482098,1.3818353444499235,3.581749290109939,-2.1537864143435057,-2.5691652210041715,1.2875463123658646,-2.1024799624871939,-2.052645718285346,-2.037852204633805,-1.887429174382377,3.6242041790193308,0.6573125812381822,-1.5092535407823407,-1.1237261263700414,-0.6984508483364564,-3.918640428258856,-2.583004960712617,-2.245161842378459,1.1237943924997663,-1.7617311826916938,3.8900341489790914,-0.8579395299569084,1.0267772651189998,-1.097334501320777,3.728987144233094,-3.951179150625145,0.6382584582194735,2.4353387771131977,1.808679560219769,-2.6288861616241698,-3.811072209444716,-1.9549631194505067,2.9339636333464185,-2.762233910785807,-2.7391208050471596,-3.9662786783898609,-0.3131244137538347,2.520337941430644,-1.089394843206115,2.403721952310933,3.816170164073264,-1.5922283199211019,-1.242326615151619,-0.558449455553957,-3.477701714112623,-1.5023579947206776,-0.3882563139274193,0.20343030904714966,1.8437588900012339,1.967255706629433,-1.20155463134408,-2.894319048459163,2.599746281712152,0.31245944182967558,-2.837576936928505,-1.1722027323392584,0.17100609557280856,-1.6253140401147948,-1.6515546440327543,0.5650253108825023,-1.8653538260041228,3.338556373541782,2.616817415229547,-3.359169952525818,0.21820224839076375,-3.707398806270592,0.7093698627900746,3.4361452770697555,2.1196448999090329,3.654060544907934,1.5326370636227705,0.974332470159256,-2.6743000145290889,-1.7958717382485415,-0.14602799337963558,3.606722820887617,-3.9811511868294664,-2.1657584691947564,-0.02264495740831074,1.5504589716733924,-2.9266354185915466,3.9954306697493928,1.8182979495330303,2.4646289180082867,2.662664866947541,-2.785721773735059,-3.406410131140417,-1.8479109226646787,1.457567175177065,-0.24109981155362715,1.9056231809735947,1.8439232055663127,-2.3327356213033978,-2.319745481750936,2.122416926977343,2.750988610046634,-3.798052248804744,1.667252713062779,-2.392899889195637,1.643292099848698,3.62476296353392,-1.4799946185198539,1.1572278498514904,1.029924874012786,1.3388605163265926,3.263583887074268,3.726688925026182,-0.5528049024222186,-0.20253110609836434,-1.5841819993193509,3.22416365462003,0.7153891595451611,-2.226092279796058,-1.9704131267768555,-1.6303686414978847,-1.4634921879344356,2.6737106853764649,1.5236679256703827,-2.5867286358825227,0.8569401803477792,-3.9051625929820528,1.2688726178962569,1.4019348724783712,1.7316191949791798,-1.8537429358119247,1.3516229539722833,-2.4097774454961957,0.5023467577781169,1.3179134734904512,-2.7411761142044988,0.03726606844122937,-2.4769763233711119,-3.713565108636523,2.648576135853088,0.07517107368435117,2.9317816215642455,0.20356822830712763,3.644266575455469,-0.45043899174074678,-3.1639148863717194,0.5902212757138665,3.215226725364782,1.2636145319075194,-2.9333661471846819,3.190312432922097,-3.975488066590189,0.0016173867243560736,2.8475808382333156,3.1576627583469234,1.1402032660360684,1.9686453674996445,2.2279270544719687,-3.907759716315284,-1.2777318435175274,-2.06607788500322,-0.42895195283603218,-0.4376910004868053,-2.1991417409212348,-3.913152703519808,-1.3864223619618217,0.596751852237535,1.2914153750666229,3.7899111535000138,1.541040092212687,0.42411467273016348,2.2549031459048187,1.602842461320657,-3.2460626170184359,-2.7688019259514817,1.1366833499203653,3.908835105541427,-2.1747757900954136,-3.1704085482036907,1.88716587199868,0.3968301875951816,-1.5456783213889607,2.370285365998951,-2.5948518853458566,-0.8183345007283032,1.3779116580396016,-0.5433237086215863,-3.5412088580082266,2.52734832578217,-1.3072725670299439,2.996732979438085,0.2920395112066574,-0.5644507789616922,-0.737447706428493,2.4509615940132427,-2.797176392432492,-2.7001067891320735,-2.8208284178875155,0.7035213663541464,-1.6774358637982816,0.197948166208036,0.1119866981665174,-3.2585031669872785,3.243611945802879,-2.059274003539862,-1.419267507951913,-0.27043511844200376,2.9516006836751407,-0.9798529048676397,3.836675106845899,-0.3345550262613255,-1.627515071431665,-0.5187426730090172,-2.166698249396145,2.6441428357222316,-3.133029666743994,-3.17253177185661,1.2149860244936904,-3.893704949156688,2.7666480391283665,-0.4140681309819383,-2.7386985894876796,3.588156987712523,-1.633704699089093,3.6184554328479567,2.465607250707567,-2.883593071266688,3.0903821302329419,0.7511564935359125,-1.2324703220197433,0.6728966203483697,1.7856889707577253,3.209939238425579,1.5101858744946597,1.4271214083892723,0.3926660408922711,-2.8903053092346466,-0.3359301419316072,-3.5853162639189728,0.7618842189371833,3.2242272338325206,-0.9454669751632812,2.3872427092565147,0.4960524234162822,-0.7527979178431463,3.035331282671044,-0.43920261745330949,-1.467974071969521,0.07867559655733647,0.6512325611572685,0.4176784902342794,1.4692543942321886,0.35738800545646579,1.3398172046422854,-2.0386693953890795,2.3728612917437807,0.7802110762406622,0.09569010758685259,1.3215035162327258,-0.5871733668641765,-3.353910629876231,1.6593807613164975,0.06531317619617738,0.9779171398479338,3.9503315122654705,-2.108578374649735,-2.73758853290078,-3.3108745406233055,0.4934064992659071,-0.33609015622534157,1.3453810973193754,-3.4840427214580726,3.6047854982409799,0.9039128869059248,-0.825182795722835,2.1107115864315446,1.4608133466368419,3.1911775909857678,2.907999864957657,-1.9560757177945208,3.6916790164498005,-1.5421231069122692,-0.9986508863956356,2.252229092765557,0.9430433719418998,-0.9417219587926697,-0.5140110216229692,-3.69179212873658,3.8838123088785565,-3.1651264438276387,-1.8851304823399585,-1.0918845674419287,-3.608870373780695,0.9419627281803455,1.3211323060480567,-2.3452306934558484,-1.9140891810684516,2.723695325138644,1.4660395341925173,3.8510134821927917,-0.9862868419620161,-3.989706375946251,-3.5090936417767937,-0.8564591331480498,0.5054720033477187,2.469629442658138,-1.080762819344265,-2.4313997244212004,-2.479173297450343,3.1875402828877714,-0.15256974971902705,1.0966038343452152,-2.6348462904842195,-0.10178069781993515,-2.405312676189049,0.21971527294494742,3.8344466745457099,-3.5502140151602035,1.580758917763978,3.6203304389944206,-2.9287716852966749,-0.7166208538470018,-0.2427314322949885,-1.5521224972469557,3.645430683837289,1.9571120963451714,2.1383257942320457,1.3823626518606567,1.8858544186872282,-2.9439525623385807,-3.8010639488827184,2.086172262908776,-2.46915803925941,-2.49616403500654,-3.636189935111778,-0.0772542928547788,-0.6895441706044476,-2.3125527992313925,-1.3303777331345313,-0.8305331112048311,0.3799789812191463,2.948755012265865,0.3128379502195804,-1.242924939034092,-3.865635740090738,0.9260655438922907,-3.604585634669707,-0.3018946734875101,-0.5893111375437439,3.727140288214458,-1.0631922158577974,0.8597780101316852,0.4631820049594868,1.211059335427544,0.2119836702937885,3.331737200080812,-2.007735082523194,2.974540858144218,0.48449992667119,-2.7763424031820156,2.470995261880634,-1.1447675772956716,3.282640348765285,3.490402644617271,3.5532689626265725,-1.9572531148356288,0.3992366369208078,-2.814807141668582,1.8312813345371515,-0.9159295587329508,-1.49864438755474,0.7280481141244399,-2.837935108086052,3.46748375284562,0.32577751086584519,0.41626277383822166,-1.8048313791857327,1.1554050540623334,3.6940126180837744,2.1714059393285138,-0.5928193964359592,-2.4261882160473577,-1.8904122471079648,-0.7984715342517363,-2.844614290460446,0.4923312792741523,-0.4454676986998629,-0.6827139674477023,2.5421301789695489,-0.2007991834167253,-2.482289942553356,-2.757463306930882,1.2181874648049363,0.8480079702386059,-1.2713103607561128,2.9275857127604665,-2.962331780980504,-1.6384356181640099,-0.7144518723185582,2.883373673439727,2.8168736506775566,-3.0004032301359215,1.132478655065011,0.17820752365125437,-0.9365527549599992,2.3590141375844118,2.5186749669471224,1.132533550201015,2.125852599138911,2.162968477878925,1.9340530281574858,-0.8864653587448925,-2.208889101350655,3.4672984090334477,1.0038816764120942,2.106437534558765,3.8786822618405605,1.8549471246523757,-3.128545857329171,3.6215634353978105,0.32164691540937798,-1.4566074672226464,0.2550684826536038,-1.4333497278036094,0.19871357545354585,2.250401465765953,-1.3272218543418673,0.9804238587802336,-2.8367880163208367,-0.6970687072050479,-0.6091739484391017,-3.0710128976930104,3.219851317651167,1.3785192237132309,1.3069726697593494,-3.3854224434942914,-1.8811175757861317,-3.9909086113660248,-0.844378976542153,2.7318252066443104,-1.1739222813088708,2.701562285579242,2.963405619471498,-2.7410582373437064,-2.550045574114371,-0.9981657597578144,-3.597519627725174,-3.4553251771535438,-3.1865699849216737,1.9543346879401505,-3.4192092063378469,1.0208212963485375,-3.279796344674513,-1.9791442422931507,0.7144222758909464,-0.1852839820843657,0.540220714452122,3.089645586877717,3.141612682903248,0.056286367820667319,-1.1484433656850366,-0.22044913286589108,0.8095757383983013,-1.196462040304799,1.5073597670807227,-3.909910576132587,-0.09738696171004158,2.6082102222831677,-3.3840376718526059,-3.8129959909969175,-3.509008046296856,3.7595250511787325,1.9756444612033182,3.099351742154515,2.5770907143808774,-2.806648965419561,-0.46225166859909608,-2.3462536470815005,-2.674527646359061,3.75683158711805,0.09614456547795669,-0.693371732671334,-1.3457748950259759,0.30919334934572176,-2.914075922763855,2.909287395879792,1.3264353163449965,-2.0758345425289725,0.05831239906086694,3.3652362927915115,0.5533894773898904,1.2155068997047157,1.8944868910231466,1.8891653691844104,-2.116660960706584,-0.08888964593544402,-0.9030273150519028,0.7767615109912258,-3.185324559711315,-2.5231545115513125,0.7555174185116584,2.919844143515782,1.890132982947354,0.840286526397664,2.0584177091493345,3.8438105980113308,-0.9462346401648991,1.352938744845539,2.1319910787244495,-2.3319192374901895,-1.9851028168823815,2.679275075344033,-3.4214714309316767,-1.018571802534943,3.3031600772408007,-0.29562320260970856,-3.4209472037010828,-3.7399188390627815,3.239956528055014,1.6947712184921349,-3.6662056093548669,-2.829640476795169,3.5234675345598145,3.5977876948890117,3.375963276704347,-2.752947548097546,3.2669949827646755,-1.3867138146867247,-1.8978125349244215,-0.4689790403856742,1.1193409711676985,1.397038902944753,3.2844332629350978,2.2240158442505395,-0.675633199093534,-1.5674464511617735,-1.5971593519251402,0.3626264855222958,2.8699656056789104,3.4002092708836004,-3.5251181132652755,-3.99885174970842,0.4000937707420009,-0.05688818843113186,-0.5231993084814386,3.7395712923234054,3.0125157092509315,-3.2540890760746716,-1.7181868983978815,-2.153046706045986,-3.9359557755269067,3.5695408397225387,3.9908283304659797,-2.3157655092902384,-0.5632138963788238,-0.08777115991194595,1.143515798072123,1.1490191502670282,2.697648302714386,-2.177145734378686,1.151924018803876,1.6930183261995593,-1.898438462475953,3.3715314949427119,3.4916400616382807,1.6461410470324172,0.05416699677189829,-3.419242835654668,1.157542794828454,-1.8202802536831425,-3.4420950889021126,-2.6529971364927098,3.1093646132612839,1.8025312181851093,-0.7790137326110214,0.680596217842556,-0.06083942327262726,-3.3527974430137128,1.356788724622814,-3.27129996358481,-3.062835638552575,1.2861760423073508,0.26195672820899587,-2.509671172637999,-1.4114503031811463,3.4112734810996239,-2.018805137529867,-1.556356414572152,-1.0173986490115397,-0.020967414354302828,0.9225125892532438,0.017311343039914108,3.4474304520179475,-3.382791670558105,1.953929985690685,0.49117793082451657,-3.0685931657533738,1.5874187775574039,2.451091027269994,-1.9088833462841324,-2.596332047220157,1.602483609489017,3.623760272297961,-3.232184781862121,-2.5585290378487839,-1.6265351188203783,-2.1008190582401697,-2.7239134927625967,2.0760095848193824,3.780251278838416,-0.7588367280709907,-1.1943225402226519,-0.8890930340533425,-3.842230681147348,-1.6145121412913444,-3.309902447048204,-0.12371937876384265,-1.549497464355058,-0.7708010623007111,3.1748734186641007,1.426022472881777,-1.7829320719853863,-2.3108113007366137,-0.5125951062367007,-0.06591279205765144,2.6054301363124114,-2.2745727812080629,-1.571874444183473,-2.571848270679598,3.658895836810827,3.1137855078735949,-0.3319727045721377,-0.5317151671345535,-0.6170064980710226,2.5212230213852306,1.9992483991243182,0.2664336891857122,0.9660518260331372,-1.265610136365938,-2.305058144529964,-3.9077088359395208,-0.17697756271042754,-0.13298901171034872,1.0475904551145448,-1.7023607231494227,2.0129054661028684,1.7460269990818454,-1.0385535318949515,3.822175012521906,0.1867450213418822,0.3487400296386838,-1.9581171010663275,1.1428317932453958,-3.3356852627011994,-1.1802778775496726,0.9773314907495836,-3.7257747184325344,-2.499838835660446,-0.979645074133378,-2.7698308693985664,3.7059155353897914,1.6258640882002018,2.321552398091904,-3.5017479699955009,0.2615318127398405,0.5142398825204797,2.6893510686962607,-0.8558351762587808,0.3496464890354156,-1.8945810158859385,-0.6837147278942659,-0.2968556977193282,3.9806874286292528,0.9727542847216038,-0.566652448557811,-1.6812531612150946,-2.033387457116831,-1.1793030882578515,2.2978438619661389,0.1726637630664305,-0.6048529979858304,-0.11952067370404063,0.6553243954876997,2.5108839246826459,3.2848253579048976,3.9591894523153634,-1.4761252714076004,2.358955434471029,-3.076097245443913,-1.9041551194411677,-0.11182795059551132,3.775888105853162,2.646344236520437,-3.807904386026486,-0.8664372455606164,-1.3227216547716905,-0.6631424349251363,2.002535190379356,1.657087786291572,-3.1233773664615969,-2.531701960175517,0.4136840111440998,2.268804344140481,-0.3390584340756426,-1.9790059341158149,-3.911665365014951,2.513459225501432,-3.2645077772164319,-1.9171367737774253,-2.104345581987488,-2.4457076399945878,0.04994374663449985,3.7741875105401325,2.5673931069179867,2.772522045228585,-3.8787037145521046,-0.5476634032186079,-0.9306474457197309,-2.4876955810240259,-0.866599981600775,3.3401186627537786,-1.6442741270374215,0.08895932446931276,3.880615722603334,-0.8982064785826809,2.229560506110243,1.0885624561538699,2.0747606224395129,1.159232454326303,-1.0700521153733685,0.7322648027828382,2.226618758144628,-3.984833169694796,0.00898764213590919,-2.683842156789612,-2.2784631719619128,3.46037096627908,0.885222669087705,3.677233767992373,2.818358736896604,2.010678310069977,2.883196984676541,-0.19068696705010436,-2.5813316075419747,-2.49506106865571,-3.680415825620112,-0.0488593832733768,3.778412113111142,-2.8183177038617286,-0.9385032445175465,3.2136598787678967,1.718857425163657,-1.8452507333941298,3.761960537603728,1.355679143647027,-0.0894823186212994,-2.4991003637519064,0.2639975126844387,1.1721247287914106,0.6714106073224375,-0.1680443405385026,-3.2125682340235199,-3.340026574639527,-2.8189566826382057,-0.37536480559884835,1.5238324554492886,-0.41209187476568079,-1.175271684371416,-2.069588983455434,0.9368517267561503,-3.4092155099540246,0.4128148465097947,-1.5108894288513979,3.761393370013776,0.1393235781422968,-0.48088336201090367,-2.831399431979423,-3.8483913837388075,-0.7088653666031879,-1.0423825148381399,-3.2792483236661349,-0.1950494935455913,3.7866425619505286,-1.9811626036224353,0.682339586925198,-3.596531136379821,0.46996370292570069,3.157775207720597,-0.1098420403455167,-0.6006483256249433,-2.654197861493172,0.8091193168686193,-0.6960882452647377,-3.510326616362476,0.3961572849039001,-0.33508363052647308,3.408781123148782,1.5336751056675989,3.917985155479429,-1.0455372444173355,0.5114274167478836,1.4567063495002338,-1.859877842515704,3.3059496145721738,1.7451355320113243,-0.7781357245766909,-2.722049020949168,-1.474036834581396,3.185842861226681,3.7834697387341178,3.4025587916070387,-2.985642713956458,-1.60411245656646,-1.8181997998196787,-3.3353367446720849,-3.285618283271705,-3.683799497228267,-0.5884838956720733,-2.8346322331739968,2.919206121483109,2.359883753209851,1.913810990326752,0.12243896775579444,-1.6518484586739162,-0.029127255507870099,-0.5944266412991768,-2.5915626380390339,-2.0143406936251937,1.487867325901223,1.545811933994191,-0.08337588405368179,-1.4176458311895913,3.602716957264529,2.797361525624595,2.3931716325545668,2.113822234009855,2.793332338276869,-1.3672332104140706,2.853051715291195,-3.919751900239415,-2.22961814914422,3.311585816795131,-2.3919922264935584,0.755122675802185,-3.1813110500835295,-2.880096573880526,-1.123337073233923,1.217102252252256,-0.6958894773168878,-2.9493692997222604,2.991089109429292,2.4385275550151306,-0.20951084583071467,1.135238269629193,-2.256283375650651,-3.766703298889756,3.651907595805026,1.572796886087235,3.61594837648319,-1.5561311412492609,2.867518445178087,0.7988049131083841,-1.6653647266756693,-1.4994579345497579,1.096473901447724,3.3110214887265094,-1.9870917914864153,-0.3149510614330391,3.23956598682204,-2.3948976908870547,0.685676998568808,-0.4015475712997796,2.3017092265429035,-0.4564213378573039,-0.7254436702151361,-2.9839846287671447,0.8066397975057269,-0.7939296156156617,2.568005999801599,-1.1327472985736494,1.4361741716992845,3.569954373943645,-2.9887919799013646,-3.0640215284289669,2.7016175131301978,1.5047308696835958,-2.527008341590883,1.292738786635078,0.6461377045053469,0.835540289143089,-0.6944870190331185,-2.2892280965290014,-0.8014626325546426,2.1898461140347189,1.4574703482861118,-0.7686405325742778,2.6190110150970717,-0.07838802004114576,-2.6363424125582979,3.916767321356346,2.991485255530691,-0.526658589074513,3.595845299785382,1.0803036343358166,-1.630092032844191,3.8592905052326564,-0.27031071330175596,-0.3327844672570306,-3.4144491273470258,-1.053235524499206,-2.193212602373724,2.315403994915748,-2.1122886267390355,2.315238860512733,-2.099575333221619,0.11982057542493596,-3.5010160054459344,2.1985641483673499,-1.5690243847218673,-0.4799118431464231,0.763955386006212,-3.912702900343067,0.7182054838351517,-0.834909517496133,-1.3644487406105448,-3.4560799055335265,-3.562591792284734,-0.9004937475149362,0.48597406705295045,-2.1128247855736186,-1.2067179783160958,0.7274703121669406,-2.806823670260778,0.6242586300005542,3.631692931492955,-0.1348623464234373,-1.0921753791257425,2.244365781073977,-0.8879088984864774,1.1733527492704586,-1.7508889477482939,-0.3224019905340807,-1.618230124039144,1.338493756550271,2.0993728539525895,-3.8225641711811857,-2.1283188550816556,2.0580785420028224,0.5974257581620108,2.2068913191244645,3.858531935479453,2.4713767929238008,-1.7659682983204155,-3.3241150593394606,-2.9266362485640649,-3.298755723748572,-1.0553841194375465,3.41784995367233,-0.01675909836682088,-0.09675974866039994,2.4653440036300129,1.7858088462347706,-0.734737342477441,-2.9369691253489318,3.3729549116313048,3.7565592447448008,-3.64707865555929,-0.06866105576397685,3.6495931395617298,3.675710770820533,-3.3281845828316829,0.5708585578700696,-1.0993602469097166,0.8815514442218442,1.572243398443124,-0.09324470095285342,3.6794654185703736,2.296199279542848,3.9662371982773196,-1.2114980040608039,-3.9492765466927537,-0.4427504881257205,-3.843580735941595,0.8312036725116956,-0.7267294298541616,3.7531376794766269,0.8348400958384428,-2.398704880485128,2.878702175614003,-2.898755031219663,-3.7621618737074584,0.41661282604930519,-2.971130808579499,1.8088083460118654,3.014913203102375,-0.9525684138633714,-1.4595816504504987,1.3899389322511536,0.37892653101825327,-0.11052213389649168,-3.359500144998268,-2.850952286759618,-1.5125713571656885,-0.6060778268161853,-1.8559339464761158,1.6212829281781636,3.258321714513346,3.900419040941757,2.1095543255076478,-1.1129900324063853,2.582948791066448,-0.7585247016171886,2.413490789455964,3.802595302020663,-3.436024084796766,3.4962771358333715,1.572947720049945,-0.01711484186477663,-0.03647803767842106,-3.6526540120375987,-3.0900787198543595,-1.5522968226028882,-0.038007932670540259,-1.0809384250537629,-2.7314759179718397,2.1764756918054655,-3.7697679212692538,1.1277626560508063,-2.520642765768642,0.9688929194923368,1.1461428901885702,-3.91177386116616,-0.08109796610579068,-1.3470605237698106,-0.31757481168439485,-0.6370942166120572,2.12434332537652,0.38172338330307556,0.894135293589609,1.0939574962329273,3.897302874283895,2.1836125036870275,-0.3387992663843049,-0.6423790788939767,0.7790957565242689,0.2871990043548447,-3.6439764190426686,0.789847659523196,3.779436834011264,-0.12742184088459664,-3.7026546636250368,-3.0061439303897909,1.222986550658045,0.6881343594112535,-0.7822466084594231,-1.1878830888361985,1.4316457739697724,0.1151718401629731,-0.924601251786938,-2.4244310208440078,3.5904672789121205,2.9401701170582905,-2.66542138689013,-2.5791341895111214,-2.0341169061925514,-2.018530595710522,-0.9814475331055201,-2.601970690546307,3.7217898249698919,-1.7898739992655324,2.013854335889321,-3.33101293955556,1.1951484606508807,-2.5683019047501149,0.8276644931422803,3.9700905152082148,-3.8283753239139779,-2.226411152351508,3.4931475050295894,1.5981952571082526,0.5474584784944891,-3.9920231243632084,-0.7458601337131618,-3.2655620423356819,3.4067390729470636,0.7393478447723192,0.6281104883849826,1.0262086619783349,3.4353136768069847,-0.6456808083205301,1.3656304870097254,0.7154001760792816,-0.8282609838055384,-3.3839005164262216,2.2629272599427106,-1.9445175003763995,-3.262274227517172,-2.5190162326534386,3.9580010031155306,0.7169496389327863,0.062455732375804377,0.1328421830010189,-3.579066880525966,-0.9084522411266851,3.371931142318606,-1.0005392298098775,-2.422885899600277,1.3751890611584399,-1.2326049970773819,0.5376568042154259,-2.107477103482986,-0.9200284891717177,-3.21667522831158,-3.6935966854909507,-1.6882586196240839,3.1624414716595696,-0.35077310278125398,-0.1195402221579831,-0.417185589531365,-0.8027863458955178,0.7244468458516629,1.031019403815609,-2.0831163128040686,-1.8094987154501466,2.742507900596137,-3.003392527701439,-1.43715800732539,-1.6014167793737775,2.635391017199864,3.633850980843558,1.9251447758407459,-1.7809282105701104,0.40048771176743527,3.484769941851755,-0.47623580435674897,1.7438332215307817,-1.1019397418852597,2.4557245459768888,-2.700831487723349,-0.5913032161966376,3.3219227342928168,3.160705315085198,-2.216985813001589,-0.428326594546965,-0.21844477083727277,2.1691958360517784,0.4616763688046861,-1.7992887121822348,2.6272622269521319,1.965700607589966,-3.235783142858498,1.274566515300653,-1.1804286467611274,-1.1289358063193094,2.8564914313048,-3.618680783528311,0.31092542512378076,-3.571083040379934,1.262760688736786,-1.7180208169570879,1.9831819898747903,2.812810715156016,-2.8723880880082026,-0.9478069076380964,2.0344581516935289,-2.5464394964339709,0.4325331166805828,0.40834681367277617,3.237060227793094,-3.9533078150532336,0.22287784555994606,-0.7439382246299591,-2.226069104211321,-2.046199180564991,2.6563351372969086,2.4952409189111375,3.59857504339488,3.1612530888040144,0.9291922658838949,-0.18221645614508498,1.528563626339226,0.9951175459860586,1.871348561140147,3.4206320190841525,3.6452299824789868,-2.2037638883720049,-3.561929860053284,-0.659389464871895,2.384234095596489,2.7760588381909194,-0.453553535628304,2.8717841574046067,1.3957745863383675,0.34327458537860258,-3.0419491971867709,-1.4071893275142389,-3.7449249054827344,-3.3008363511242306,1.6289264658554395,0.4439350110663556,0.8247449684069332,-1.8525132387503157,-0.8798425172848807,-3.820123731370237,-0.5011923728952501,-2.4267003331367658,-1.2179869831987614,-2.58568614084163,-1.0758479059926119,2.014306554871352,2.9789799710399649,2.7252479803843174,-2.7098361328243625,-0.4801226175307862,2.5359267271828296,3.647819970653024,0.8265279607307825,-2.569006424938384,3.2208753973179746,-0.570265739911562,-1.1735406662027169,3.1032314329972516,-0.5972125407148565,0.8524723253355928,-3.535293231158418,-1.3745711272421859,-2.062031822050974,-1.1253418676117695,-2.8254130144454576,-1.3849963204569827,0.7792489452297486,-3.137154676706441,1.140399501583274,3.185825901243021,1.65522540063394,1.3027024665815832,-1.8716701244004795,3.3755642950716888,3.338746246763246,2.775453688211826,1.2297322379140852,3.2004433226818325,-2.064795860083229,2.203515519505098,2.2432346105014124,-2.8239234443189566,-1.73779135480928,-0.5755477600179739,3.318915238481015,-2.5418214286984686,3.5251718790292987,-1.0989183795763893,0.06092062326587655,-2.56134875895244,2.4980533072756927,1.5660471832768029,1.2806745710073662,1.4552916203090379,0.5906921245043071,-1.7757073076498545]