[-0.062399088986651699,-2.608064924563143,3.4491854124993388,-2.2427246509427976,2.7412457750601568,0.8805363117698724,-2.3526307281993299,3.5615184123996554,0.8786594069360358,-2.5693493572259049,2.085538662586549,-3.859602071698302,-1.4376018482790097,3.1005399729624889,-0.7782749622188616,-0.15951516831157676,-3.3849408054999836,-3.326358204960642,3.6852080156049276,2.4285884045466288,1.6831370800544488,1.3578257952888909,-0.2696197219689671,-1.7270056782705046,-3.0134877049045105,2.5630286703723215,-1.287647646091604,3.352737104353989,3.196899170745289,-1.560789023373667,-3.113541678861103,-1.0099580408632943,-1.4661333487918134,2.4226129392819306,1.1972239400511163,-1.9540112388327969,1.6502582628809615,3.257653170201511,-1.8479036249485626,-0.28720107906192796,0.19993924244393747,0.17595417046726337,1.9127907658976389,-1.6679249035297277,-3.5547015450895937,-3.8107972277554857,1.4687805950352049,2.7086726080389829,0.6986073529960546,-2.3197670214911128,-3.8220257971670774,1.326495067501396,1.1650122050919035,-0.8310680357659006,0.07328614818173129,-0.490625652059439,3.4335199635784026,2.264877517636501,-1.126782576354714,-3.161714655330681,3.9609198973819819,3.9912887380531627,3.3465620243185096,-0.4686704906445023,-0.368692675673129,2.458011349100219,2.669889925568273,-3.5823608631387708,1.3781887711401968,-0.5859095121144391,-2.224477249502425,-2.971603242023866,-2.3025263491052119,3.139775764986208,-2.564625547337486,-2.6864966522646638,-1.8039675276567325,0.3919640318860136,0.5324596853762733,0.29822156147179337,-2.9081838705611728,-1.1195517394505395,0.6431541980986726,-2.826788023161706,2.3480902077552239,-1.8523615653409503,2.857658049838099,-3.4745369450355287,-0.4379523253418893,-3.463510181977303,-3.2117867499766277,3.157929143650673,2.542179126752475,3.8260307981126955,0.7972771137941948,-0.888322738025517,-2.2699223947048567,-2.598548600031801,-0.3322013877896879,-1.9802811557163336,-3.077466804538748,-1.8267008484641106,1.8254490439305018,-1.1151945690564143,-2.1727628444580535,1.7953095316528885,-0.022851185533376174,2.1318144047835014,1.207553024882884,1.6675067482979938,2.546530815912016,0.2665191654606831,3.986187324338304,-2.407611672115215,-1.4566206317497815,-0.1605818062056299,-3.613683983193887,-1.316840789730498,0.7090159014116084,2.4913539427176367,-2.7164781733811589,-2.3743975817474318,-3.3339593900641155,-3.8035357677368717,1.4412161927987369,0.18846606456848837,1.7475605360714042,-3.492738445574994,2.270496025296155,-2.540151289844008,-1.1150787134898126,-3.0017350958912685,3.0584526092291188,1.6469521603980076,0.8737473115516456,-1.1037429479769996,-0.20947508085376755,-2.2005835668393187,-3.8174914296977704,-3.301452067217169,-1.2690290516731864,-2.5372265004064218,-3.8437352967994879,2.362959786380565,2.6345047811528028,-0.9302439655006793,0.892025789853542,-3.2409934315589306,-2.2051087477803019,1.3999671634365703,-2.2363745988472134,-2.6679303647650558,0.8678467709568558,-2.465047218901253,2.046522581030807,-3.0940003602025154,-0.522706504370035,1.2513842648773129,1.4989357482349642,2.8966682379867407,-0.09060620849976964,-3.230170218528416,-3.1243660979701666,3.3233199125717336,-3.9786494058814414,2.2353632104541365,1.5688518523015312,-3.9303555162858494,-0.32573867122867408,0.904194167485806,2.908629628056337,-0.9324114095049636,1.1454583248289368,1.9864573849159646,3.9288365830543645,-1.8636454252182125,-0.35077393985255669,-1.9534868553962408,-3.5768104696108606,-2.3758879553311837,0.12152634169926913,2.6557122132584416,-3.8648438790244636,0.5805891210693339,-3.3054862411436796,1.9498994998284128,2.7197749856402124,-2.4086952240299537,0.4254753853370765,-1.365299571090687,-2.7073657855303248,-2.2662286230391706,-1.1711932908086314,-1.796762063874384,3.2274257292161385,1.8444786897770378,0.9762316185868372,-0.07316816265531756,0.22711479890475418,-1.0700807088972626,-3.5986548244847906,-1.038967095663056,-1.1807691472313416,0.16823263563263159,-3.328718274696014,0.8292049228865244,-0.9611182161085585,-3.1619212804070875,1.6601928322583515,-0.9970127696647575,2.5300177772868999,1.563141232991728,-3.844298651815615,3.850513313910633,-3.5671715487739,-0.36800841456090596,2.973961109988294,-3.6572556891247034,3.2695611074164114,2.3379124991187805,1.9041709174323405,3.4247126376944996,-0.33944907446662478,-0.3122925594483972,-2.6100297833879555,0.1328582219481813,-1.338889944278476,3.0362721948559185,-0.0724328714294129,-3.7382415012079486,1.4025816082333434,-3.4781384547082867,-3.346680827219954,-1.5729546742023369,-2.3982823582729138,-1.4883808468187683,-3.4806731111685069,2.1354878024801078,2.7116832674994999,0.9765160488779952,1.4767659389043138,2.123239010181293,0.23114057777068365,2.4976010500400704,-1.726514823307955,2.1421469062903517,3.6853314209273995,0.64625309107167,-1.600593491822277,-0.4422197189962629,2.8653854918970849,3.585114803372065,-2.3216557794623009,1.843798452899719,2.1036493878023885,-1.5864496600710714,-3.7443175885334147,-3.080741423777848,-3.9391101093103968,-0.23788834218373013,-2.2073096539358394,3.558093172186891,2.1378947053939285,1.3253595203202027,3.2861804867750754,-1.228767246899853,-0.529859238945692,-2.4718399528350156,-2.290729885791455,3.020501485531339,1.8635073134031908,-2.934732533972169,-3.112884061794724,0.974237842124313,1.9028093197223868,0.9220398449557212,-1.600244834212894,-1.0306101790656047,-0.5058315461184859,2.550095108482817,-2.1811051653567654,1.6861315423297026,2.5600657101508554,-2.314115076044824,2.014026263236193,3.666862004685459,-0.20856399400308613,-2.4847444110067835,2.044873944599604,-0.9945217444877519,3.0801650026496034,-3.3449336017814419,1.901643212256749,1.531506720409232,0.8105253357057984,-2.9853350348991585,0.9105416103491608,-1.2387509986961272,1.6270750950153268,0.3094400914199271,-0.5982448854989801,3.9614617691894749,0.6201748937553786,-2.3859408565774169,0.010196167006944812,1.4442308496660408,0.27554603885693487,-2.4197659589999604,-1.4796691096131829,-1.7363376994678506,-2.2097393556592275,-1.8703764843406783,2.7302784459972777,3.3051198970505526,-0.4365871646735131,2.613522200500566,-2.156068617038769,-3.8516131261145114,-2.3545162533013466,3.063034047354365,3.7065233085448856,1.2916421869712825,0.8460796142009679,-1.4388468043609626,2.8255279898304614,-1.1566356742681415,-2.778417153183419,-1.1208818023869183,-2.4241935873430604,0.3536317424514124,-1.4852256891390779,-3.3968803943306256,-3.0273259176264268,-1.7941391995647965,-3.726549363718874,1.0655671437056685,-1.188708315802337,-1.3555376114652023,-0.8589422974750622,-3.528117676357069,-1.6040202294557029,-3.054390086893674,-1.8940639298646796,-3.9252221852203794,0.11146753415844835,0.3083202475345814,3.6321316038019857,-3.701273293035781,0.23748281918269588,-0.9989169510467892,-1.8879307794471379,0.2690504676242238,3.4412731469342336,3.6264954673511804,-1.3886596693986245,3.053477565993836,1.7877250895641668,2.692566677294036,3.555069436564886,-3.0493619079660858,-2.715738613401685,1.9632145624875773,-0.5959535260547195,-1.195371368137552,-0.16824066970554875,1.0593111532237343,0.18055731921296126,-3.9607046775441345,-3.6503336953820169,3.771534791393983,-1.6148199760800195,0.8420901619893151,-3.3439212414818124,3.2363740233512514,-3.212892294420633,-2.7882242888618444,1.297747697199176,3.8058437530939015,2.1109634497129878,1.964132991498202,-3.223241533514643,-1.7883673913415768,0.2995270859622634,2.7938535223165426,3.092798671236735,3.700703403979679,-2.1739258829199468,1.4482339812216383,0.367786822084474,-0.521346467264568,3.6219918187687307,3.104113503348927,2.139085667804008,-3.2872511888293847,0.14894676623167503,2.301943286709257,2.809249738318295,-2.7334987825241958,-2.6368435208580136,-2.560583280740129,-0.07430095976760409,-0.10480344234421302,1.522107417934298,1.8165354588145642,-3.5439225916404268,3.571923231699807,-0.9548237841002794,-1.6922388943928438,-1.7412803685570682,3.603734376857851,-1.8992273960866815,-0.9708918739767862,1.3223783424524563,-3.788105972239123,1.389183631200778,-1.1989176839965783,0.12586033054938373,2.3570127801291589,-0.5483102517747407,2.1704658865698587,3.6737321176705217,-3.627347519400061,-3.6527650108979294,-2.546625498675696,-2.395206266835963,1.8543200756236678,-2.08519882823164,-0.46397705573667027,-0.9657323596085998,-2.840467087722029,-3.6507718030228926,-2.4882753052896016,0.11361507596191523,2.0083353866326538,-2.868009952413483,-2.786308903916293,3.4961710054001378,-1.4440017177333875,0.32856950557292566,2.8763422920003078,1.1320854919981587,3.427255923913778,-3.2909780622864668,-3.6334086579280324,-2.215492258485952,3.6789590554858808,-3.127068026753024,2.6517532810353714,1.947065277335522,1.9845409329876116,2.260952216553238,2.826380525447928,-2.687534850179299,-3.3068027649485636,-1.92480213143992,1.6695436650030385,3.845451954097536,1.9812047471627175,-1.9128575032755,-0.9958012032370169,-3.2842166071603646,-0.3064961176170051,2.648842747449838,-2.414527777074892,-0.227310643984316,-3.334645308003017,-0.7359332741014006,2.0691424002213667,-2.7549146140643,-1.6808368456683883,-1.353601334241018,3.993337782103646,3.947448056536298,-2.4608006577546508,0.0192343718628063,0.8855220799011008,-2.3780677252804987,0.8424705259821312,0.43095470558372286,-3.3118441528138424,-1.3796496245053918,-1.4959476276514315,-3.9977814615207736,0.9658388119516461,-1.9220593568365912,3.2361172237228299,1.3237620407475506,-0.5574405470029751,-2.424986166651447,2.609314868856159,1.640773443112173,2.8216812389963534,-0.6271357178652472,-2.4325814065129398,-0.9100969302893125,1.8610326725810085,-2.3321924367185078,0.5800524155640474,1.374962923087141,0.14345912307385778,-1.7167710062946145,-1.7778210677441509,-1.435780805408186,-3.5475698066944556,2.572501470764985,-3.845476178523504,-0.03889588020199586,-3.7815603616528534,3.570925492629316,1.7819010430301266,-3.2496521095966548,-3.858435281465373,1.396583895011033,-0.8456449627818277,-3.6248679079751797,3.0586581790206797,0.6343446671118809,-2.13234239547693,-0.293645379024827,0.1443437982763518,-2.3111992200257598,-3.7291108981939464,3.5057266720241309,0.9494356680814917,3.7350914069548919,3.519853649558754,2.148543385871175,3.450996349455429,1.0805549728321325,-2.5872925799517905,1.841709219736825,3.6392546042323348,-0.6632367740040654,-0.38844658732491146,-1.7822816973104479,3.364056830264281,-1.0264898480922596,0.5914016656218815,-3.351590287072839,1.8183818916758857,3.2370651358692728,1.2203814232183979,-0.9847720136188372,-2.867554474898194,-3.876465742975766,-2.7918700783169498,1.8975886092601356,2.011478715320602,-3.2683726692149337,-1.4288735925714405,0.3873431311079232,-3.5134232204317588,-1.2691762332489188,-0.36771618021559329,-2.060453683718176,-3.41152399804427,1.3038069420347585,-0.8856421425044578,-0.5925589418398387,0.3182175049091702,-0.46570190709985317,-2.8937028938634796,1.0823918873545707,3.895256061720933,1.2794755165821439,0.6197968002899961,3.506144301424544,-1.3220826804357114,0.5586429524287517,-0.882326459607427,-1.2992948850176074,-1.6827411566654905,2.1766127859126067,-0.986475451978273,-1.6919713658960485,-0.050836380552170549,-2.445256909130859,3.9425276662334785,0.131444623296467,0.8002299755274356,3.4413546739428346,-0.007388498510620067,2.431965191639902,-0.5416307437346424,0.38516746365481149,-2.158609371017831,-1.6905344703701558,-1.0502985510741992,-1.1307839807754426,-2.6610433370942347,-3.8815224480149954,1.1761330700624635,2.473624721051288,0.7171894753585963,1.2738614279333139,0.4364294084698832,3.8774225553698065,-0.38017538328938108,-0.10551300216790138,-3.061386972656649,-3.8265669333542187,-0.8308602828873981,2.046086052291031,-3.883682539204937,1.2405958606967174,-1.038617038066194,-1.1842778458433936,-0.9352435015540743,3.36764931689123,0.27995647584400276,-1.7788227086676545,-1.5235034164071895,3.136548220437711,3.871739413962291,1.2194525019316896,3.952460240010744,-0.2827383821206144,2.1645285674473495,-2.2493891440545736,3.252433238750105,-3.7079612986271,0.5640224674079724,-3.160836733135774,3.8170552543044415,-3.0953732604365244,1.5899429033860884,2.3302831109824719,-1.8669722593314722,3.4640631751072936,-2.40169773568753,-3.2387361839033677,2.0131422049226499,1.175857258610117,-3.6053726845141078,1.0845257811914069,1.5967861602724032,-2.189257582532999,-3.7134613446107558,1.664022845377354,3.7442542368899405,-1.3575444884139432,-3.3208679608384958,0.7360742559555584,-2.2252217476833069,1.507497938995363,3.504037761246561,-2.9374373370113258,1.098185846819666,1.0755833950537728,-1.1044440473958606,-3.754817662646113,-1.0768095294079308,0.7130615128002944,0.05761286410524313,-0.6688916509080745,-3.535680066538897,-2.9671368749375386,2.8248689354347986,2.9861127354234986,2.222142191177035,3.226636673845915,-0.17113592458219085,-2.5253023389592865,0.18544640978536454,-2.336239566747686,-2.886926559125194,-3.441800900612927,2.648937066784929,0.9444410671526677,-2.4366614374954045,-3.745849255000407,-2.025753796064885,0.6375924768567947,-3.1566530900365565,-1.8742267313918857,-3.4742153106501458,3.853958520595654,3.7574269745426287,1.2692548409789995,-2.785998468946243,-2.0700360872548657,3.575552564482332,-1.863642971905338,-1.675568149834529,2.001763988330948,3.2148476431421395,-1.6504283619283067,-0.49349955457980068,-1.6150120589067792,-0.10659671698484963,2.5719633571749496,-0.5991610846344047,1.210502768145771,-2.3474903515709304,0.537480052682124,3.0278593742931889,-0.951401605872997,1.5821571695013078,1.006426670242294,-1.724024214519673,-0.43786732586305257,2.8019279611069987,-1.594623720927041,0.9498982655647481,-0.14322038116421077,1.0369098156711072,1.1098786216199379,-1.494304119304016,-1.6413406729179939,-1.369842324576302,-2.910683921733477,3.2347591514969409,2.3298715234806837,1.0526817704300716,2.776033737108672,-2.9762125323069386,-0.046680179478513886,-1.3636935661004799,0.5651788024970044,3.413889169854495,-1.0274994270041873,3.9796648054565519,-0.5053607400475988,-1.3820171632614509,0.6374694937654075,-0.5842628270412682,-3.362445807988042,1.542589248419442,0.7688066835721257,2.4328113366157648,-3.3580667068790248,-3.013676869561464,1.0705941483429796,3.006706043408516,-1.969405644190589,2.0949871981904275,-0.7304536501352485,-1.2435767530159139,-2.455629914655086,-3.4050183911574249,1.156059817991486,2.9085986824388065,0.7674766493164924,1.9944847861465718,2.535401203487085,-1.5025036491952866,1.6790874142014243,1.9899696555639537,0.692438874798003,-2.142319702140149,0.44192140540967986,2.532270212078039,-2.540094858482238,-0.49664104996355809,-2.5353775827199529,2.336210411402134,1.7658705836604903,2.2114697776638918,-3.789491391748423,-1.0610898579254895,3.595623135218979,2.7977709958856886,-2.8363759757331419,-3.9114567376476216,2.72196293963814,-1.4437570571516434,1.782137263901932,0.8033691954061402,3.900757078682891,1.7388592715524843,-3.9939627315073098,-3.4457787581146954,-1.9100554280184224,-3.9022898190371277,3.2611952290595784,-3.2890023745386278,-2.0013577687267567,-3.443134791452481,3.9502009922279877,0.5423807930393645,3.3500957320756195,-1.7544439693892527,-1.5586563187324194,-2.7986879763675089,0.6417348490348962,3.1813561275715287,-2.0183339135235647,-2.234142758974704,-1.434393281839638,-3.6926014554296655,-1.8710814666562375,-3.095125639878531,-0.8044030693992363,-3.5357715365304189,-2.1588929578901245,-0.8198135528498936,-0.8796114532892787,3.367379809342733,0.2675031215225223,-0.15612019679360124,1.0144860226088755,-1.2100008737595794,1.3064153776981709,-0.0106004393610446,-1.5603796402023507,0.04105298496045062,3.6806377680217867,3.230558752869305,0.2838472700313597,-1.6849038039620917,-3.619452468705778,2.886571503882144,2.576459509887881,-1.439471583386446,1.4772128720990426,0.6457581122248497,-0.3795229331977643,-3.9332528238849324,3.775166157570892,-0.6128322922211247,-2.439189007727938,2.1377683242988265,-3.0303961912814438,1.6030962940241809,-1.5073149934662083,-1.6758898800111036,1.4627795425799395,2.341152230120046,-0.42936206537795687,-3.697474102838182,-0.05875681398187993,-0.47616220679440937,-1.5072306643723997,-2.256616537985045,-2.6205124079445065,-1.8871896283945356,-1.7568641133778487,2.636806680556025,1.3810687358574177,-3.8942085187026915,2.865416184213772,-1.4019405303174944,-3.5291061042979257,-2.0477168796017128,2.1116002516044425,1.8685544275933124,0.12022972640496121,-1.383353079122874,-2.827042770732737,-0.6818389125604156,0.7607605995257165,3.637004420371146,-3.987023709598949,-3.756454252305442,2.7525426417588347,-3.8546705176419069,3.359493876158874,-0.24208847576633198,-1.0596910382013987,-2.9020136923922887,0.9026906961315788,-1.5084525887637073,-1.0679097815700927,1.5353504198060142,0.8714775166923685,-3.166215418757778,1.6973070057091473,-2.884906835783216,-1.543357229729856,-1.5996691230302887,-0.7268883494463108,3.842226714080766,0.44209136714196886,0.47680328245419725,-0.6360899143289645,-1.9507713700686305,1.1881492649329034,-1.6636670398894973,0.6595501449268744,0.6191692246142013,0.40272247959877119,-0.061743134005804559,0.8021015656548407,3.245636113573571,3.0566569904116784,-1.8182265245208723,-1.5232586869477294,0.5670942849090963,2.9732597036611256,-3.3958823886236795,-1.3054576543933634,-0.03119841833596748,-1.414154024590962,-2.4262794875043598,-2.4145719737286948,2.5757550699903808,-2.3987251022983564,-2.731344010387404,1.684404336376705,-3.320849919950999,0.35690151494489888,0.6317758199576371,-1.2618999894816925,2.446922542209734,2.4677186933644625,-1.076136926064651,-1.811673455264775,-2.872553849318135,-3.288823788910933,-0.8604849450323135,-1.1717583188357246,3.9495745139365514,-1.2161539313160573,2.0861503215601839,2.5189936331859776,1.5802392014393024,2.7322358820105618,-1.7863133058579468,0.5760597343244074,2.6380583300464099,-0.8058052842702841,-3.6106949145676525,1.8502259758730003,-3.385131177081316,1.618445697949591,3.441657591075842,-2.0847489658703539,-3.015993270976182,-2.1546390792472076,-3.2891507028258699,1.3774220642113556,2.3754094075892935,0.7788452877078909,-2.1204788250061386,-0.782217661252421,-3.3687566505658825,2.9696508980977365,1.5207324734006012,1.5279168919502447,-2.0732383770677584,-0.3159213469763005,-2.9638951214569539,-0.24048704215606898,-2.0388905315823839,-3.6973439287706499,-0.22568998203005465,2.5486111069201504,1.3427482970896537,-3.2781418595909619,-3.8864299689429666,-2.849654260419909,1.6915293556714844,0.19537097622759704,3.4524581131778735,-1.3719002217279089,-1.2694439693678333,3.5609567473895415,-0.5998889618647993,0.2581349097147543,0.7460470403155188,0.45069658281545169,-0.8630514882227851,3.721398719155597,-1.290732601601585,3.6852115469207886,2.251751122213859,-3.5407118064003528,-3.910569672483044,1.7756884241981395,0.5224791754081517,2.043342597548077,2.5858519765262475,-1.6604461050968665,0.7610113226499129,-1.911449621129499,2.5722006619110617,-2.910758736401739,-2.4308216081986719,0.36680964565539578,-3.083606217558854,-3.0934828089449626,-1.0805053827711842,1.1830882634587586,-1.7930667054868624,-2.566749200222149,-3.0827936024779047,3.038951732254068,-0.14061550572872684,-3.5945085734953734,1.0078304985378273,0.8031588952759723,0.787407466524173,-3.7870699836929457,-1.1079983154836795,-1.6337980328958056,-2.886614217311947,1.0487511729476884,3.5211223512252705,-1.8894393835830317,-3.6465425281486185,-0.10688244972923755,3.789174516963037,-2.2280727191277478,2.7035199024093128,1.336598393141025,1.3075535838043564,-1.692598157702436,-0.8532089631991973,-0.2874570502375511,1.9350666339509282,2.9343254248354428,-1.6420590587422544,-1.7929137057965186,2.057921842086695,1.629675623133318,1.9970216397716537,-3.000291755649828,1.2459136214055127,3.1695946344612428,1.8949104432495805,-3.9178998804603735,1.124645722494896,2.215770588727283,3.7689595797486987,-1.120454111063105,1.867802990131481,2.3210994480808084,-3.281975420798423,-0.6000134325574145,0.003112927309923741,-2.6714240127234945,3.955400197883362,1.0303632047901053,1.14703928262188,1.2673670619843467,-1.715052487975993,3.0815203990826847,-2.6459153749528836,2.206773457722216,-3.9701476836301685,-1.9983089257867415,2.603249471535932,0.702298859265297,1.3327772858233323,0.3997989565470803,0.31383707592407186,1.0206391311275907,-3.0150668471209167,-2.050901756501129,-0.16662065631330415,-2.888508670080002,-3.365111539805028,-1.1172862196970142,-0.7670491757245956,-0.5709616337785173,-3.5410887079778625,3.2432462729663049,-3.2548928588214727,3.75565224855165,1.7484925385652126,0.9515585676486627,0.8573984299877022,0.016023299640338885,-3.1229992343576917,-0.9094019171079297,1.9093113002366283,0.1123106814582222,-0.3822810962794898,3.7300878450735865,3.126573087144007,-1.1174879910175256,1.462183011482784,-1.417671183719552,3.9123998364164205,0.8610743923240767,1.2173477132001285,-3.5960384245446637,-1.063886696766584,-1.5854393937351737,-0.19716209581048006,-2.082114992795548,0.49588730774811387,-1.4706403922320278,-3.173712039919539,-1.1929889130951202,2.0462485070117877,-0.04691888189910798,-3.5636610013168994,-1.0612647857037985,-2.3994843577270856,0.036276529405086858,1.369821499756874,-1.9469878366743006,-2.278007166364251,1.4183375661336646,0.4989617409841456,-3.2962849552157724,-1.0778704152605006,-2.3404070681209454,0.35407525677373466,-1.9228959171961347,3.9572916950721055,3.4882334411026676,-1.7902015791907074,0.37070001015380518,2.1310568244290186,-0.5482969691787185,-2.3056871311287097,-0.3884216023655265,1.2393700267527237,-0.5607681417278132,-1.6173104691834122,-2.117335595365157,1.4882676499351178,1.6146696526114824,-3.981030189718626,0.16119135944872554,-0.5795069592369335,-0.30052002048044637,-0.5644460437332877,0.9809821246772685,2.6533677685339835,-3.345944914075658,-3.6119013965159896,2.8002765303057,2.8717856898904809,-3.3706647896234784,-1.2904885215585394,-1.9635095680049999,-0.5117467579438868,-3.714942985480942,0.7045213821858019,-2.0449538701059595,-0.6658268653994224,-3.3687361281554848,3.464585892570958,2.6507989994881866,-1.5126424180143224,-0.04503755949285804,3.45552412198775,2.541384910795518,2.1851877055315489,0.29459262125107169,3.2900457866269408,-3.581981228912719,2.5291724700190345,3.99119794498797,2.536124130241257,-1.0018886345441507,1.5337088938906379,2.508881074724285,-0.13748916169523896,-2.590271288572402,1.8623227052949965,-1.968984407149014,-0.7212258827577218,-1.4886644421378375,1.6748687895857009,1.5735730315717734,1.100231633671915,2.4669365675524839,-0.018952978623771878,2.749614981027422,0.40098457289459957,1.609621568445598,-3.1167559126807138,-1.9031105280647099,-0.06459684140945488,3.1397832544191708,1.022081146867249,-1.9669236642708533,-2.2723395490919495,-0.1512007047626529,3.869055287014965,-2.860169239223354,2.61862028005282,0.4231055134477515,-2.086524982437739,-2.493933817236938,2.5077560316592155,1.3162027371870809,2.353384622419698,-3.3672449021584027,1.9623063419143315,-2.686544770907523,-1.1181075342774048,-2.5928028592047065,2.5580063350316415,3.4188056068787819,0.5372779315893812,-2.11347851254906,-3.171417231720751,-3.6725763329669034,-0.97366414199335,3.9393790469169938,-3.1237592903583,-1.9182659347404485,-2.200972848427684,2.3352559220281678,-2.172589398262211,1.9700312945494166,-2.70505610927545,0.7702008021968059,-0.5614927901130662,-3.0126149469315939,-2.5987175393521317,-2.5402020365516719,-1.7120958059498433,2.4716007229094947,2.4361853186537898,1.911785894231702,-3.839946618245177,1.30348694750559,3.2430998026318935,-3.931214404704132,-2.3975469734386856,0.6156777170920904,0.9093703524320169,2.5165537754063305,0.9251944883658467,1.134523735656134,-2.1746617249132695,2.046415278153275,-1.9655677943913457,-0.9007007034654675,-1.9151471412723185,-1.2674867913843953,-1.8059450267054394,0.3554188133779581,1.932015388667609,0.7736074446172507,1.544828903872281,-3.6416823967393858,2.902774935567834,-0.25566833832420157,2.044335465114301,3.265678530638646,0.6955441576196835,2.156164490835601,-3.749140532656983,-0.6424529816262992,-3.654534765222456,3.6720830637113188,-0.09115522832537693,3.8723845583138818,1.0938332574916006,0.45612465886686506,3.8988474127056769,-2.2279175305714284,-2.9339386460540259,-0.9501561962638574,-3.3349416040535786,3.984857981780774,3.051761548301532,-2.2943957328406459,-0.6036400749644777,1.091524001358497,3.0544940898417956,-0.7461214825443585,3.3431135171229036,-1.7549387663658143,0.8181294302680966,0.66880856539197,-3.51335202543114,0.9622790540558208,1.8866041988210052,3.343076466440074,1.2391624683190763,-2.355114551283606,0.4728317053398916,-2.398137418545013,2.768034894349146,-2.306702459832307,-2.4598774093779589,2.014011133948717,3.5281791707379916,3.998131152237061,-0.01400911325336196,-2.886055753382495,3.6069702120414277]