[1.8381783264729528,0.21822760748478754,-0.875702974524472,1.734658477457728,0.42249176548910408,-1.8891158473707746,-3.8195370403847415,-0.9158869998641128,-2.4787289449318985,2.1474553253816159,2.731349049237811,-1.6318470818590323,-1.2861551010317785,0.4216421876570333,-3.8890604837959747,-2.525203430035572,1.1340726908348593,-3.3910854788622375,0.7470563280067823,-0.1963864254556802,0.3796579605107535,-1.8106267648703467,-0.5081852999591519,-0.110598358117171,-0.18003492166664948,-3.419115294481518,-3.981399442267894,0.11574537431227494,-3.9904612853511418,1.0180009391503227,3.4038437008950437,-3.669302162214466,-1.396702172222569,-3.2909285653279447,-3.631890963619181,-3.4795301937788407,-2.5328990268857689,1.4750847450197063,3.7234142643701997,-2.2721140820791376,-2.1273711604322589,-0.8450004354530192,1.182556956621486,0.4770747348527049,3.350927798725844,-3.106201830294145,1.6645632052810875,1.0517388644067465,-0.7787448126797925,-2.175423155150929,0.29789185107684626,1.533202518790115,1.8229451834248263,0.047282366847550608,-3.5873744972027667,-3.6990661141433245,-0.050390094167797497,-2.1046318087145847,-0.3186956957186913,0.0173756145623436,-3.543167132597188,-2.4929660633940795,1.9263743330413812,-0.6832607934440711,1.423875863994252,3.0792076489170459,-2.9479938122919568,3.1899581055907078,0.6935548028156351,-3.652840851845493,-0.5607784491805772,-3.794676176185847,2.8055736998135885,1.7378474424495379,-1.5420871399494214,-1.2033559037958422,1.2475613169621527,-2.193775203914747,-1.960933187944561,-2.477779759085653,0.33982272763286139,-2.7170708404866366,-0.24631071116776027,0.11466625265145503,-2.7724236944557996,-0.7000216430176349,2.0191822503462184,3.2617352311475606,0.0064516493032229509,-1.1318441423312267,-3.558402782639913,3.4008705930663627,-0.08112022915008743,-2.5493489723140918,1.0045057592723615,0.33697967111574025,-1.167520568922587,-0.265169301085441,-3.3655712699418407,-3.3724213331053498,-3.6922299780545897,-2.3998174196644799,-2.5671684382378858,-0.6235890157994122,3.5229675362165,2.580794301718603,-3.582956388779886,3.1786090134838496,3.6326912243672027,1.6310419742962772,-3.5721834991012244,-0.7551920589444263,0.8677239146325153,-2.8361537394431135,-1.2169701873607375,3.545307271146502,1.0776763180742375,-3.9180946637706768,-2.5903439420460296,-3.6374835258250375,-2.1984709988305228,3.345306955128561,-1.263554506775721,3.911102206374519,2.236437852248857,1.5845005578325236,1.8684650773513019,-2.2334532010850625,-1.1623856959394508,-0.6948058353002808,-2.077642512807417,3.2086485885899655,-0.14049561118695109,-1.463593532168874,1.1122466591842466,-0.6305404957931609,-3.9755979274356996,-0.6118358504433663,-2.140177644630021,-0.7017517280827121,0.9414975739262959,-3.462107583735083,-1.6124205746435197,3.218741098416558,2.1209019127868737,-3.639619869758441,0.8410603431687997,-2.602617390292747,-0.6133970574459775,2.248514501586242,3.2266800063076079,0.37361261425086225,-2.6505207016875316,0.30565876830869068,0.6202124494464991,2.25953130021224,-3.6704214354966249,1.4759166047159589,-3.841950831340311,-3.6146181895075477,1.148646403431222,-2.135616119522581,-1.6917345167551208,1.878044869317053,2.15033122750346,3.3615132204668436,1.746749599211598,1.2326447426727168,-0.3798062570408218,3.6079616527794666,3.136171385849363,-1.227066704511179,-2.8776492665019317,3.133942878910135,-3.7431203335749805,-0.8753838097426119,-3.6108814825100286,-2.5831579484666387,-2.0475757900824718,-3.0412681273080386,-1.045908120802932,1.0836115741666142,1.9867957622260129,2.538215768724907,1.222085890813391,-1.265000030268708,1.7110660549516475,-3.8577652798682475,3.189804404495743,-2.0302082491566244,-0.6884218979371879,-0.9568095371092475,2.382037410514485,1.4450293710268909,-1.5988942621164269,-1.3858117954548757,3.462944826563409,-1.8803115497077577,1.7607651010945836,2.709513714537586,-1.206242446885561,0.8067725653250113,0.4806414677015356,2.947107940329605,2.301916122630021,-1.422178133705193,1.021693660031648,3.5252132580255175,2.6538399125858138,-1.559742887786559,0.7422236289989588,1.6519574721032396,2.048682748219413,-2.448788393932621,1.6745404616120228,3.5027229024505246,0.3716602719198727,-0.029635115016383163,-1.4392276090927059,-1.6813517343570892,-1.0376643938948469,-3.9258420119948376,2.5983145130016656,2.0643402651044369,3.071426971215425,-3.888878564555381,-3.875918774643674,3.0752830721584409,1.2360325478587378,2.858345588405718,1.5783471381440695,-2.530242906073455,0.9733121882783431,-0.7090551341978058,-1.702257522461161,-1.2100754657527147,2.2490274409021584,2.6085976875606606,1.1010094533014848,-3.630924564681745,-2.3532664749747056,-3.4867214973435924,3.491739564186628,3.4079442148436644,1.2351724743197759,-2.0147120847988626,2.596607323859721,1.3905443520922339,3.4751899470598275,3.5701204883744346,-1.2371358097638119,0.22230800976593025,-3.997787720805123,-0.004253821996154761,-0.5102413179855321,1.0529236939347176,-0.16152558070866419,-0.3926018145945134,0.2718883139980379,3.957967130022488,-2.349654413286731,0.48440441195583708,-0.24096140733204408,-0.08134650262872634,-0.007809663252936749,-1.2268475046177994,1.9084196195495498,-1.642821509071066,-0.05463474317247563,-0.14546807616649283,-2.657848075332762,-2.797497799752213,-2.529175899668193,3.910216289413646,3.22018759731401,-3.6270260756009744,-2.7502618667395009,0.16089295979561769,-2.3923341785962508,1.627822651760897,-1.8465214198490828,3.412767841643354,-3.5297210898030748,-0.46780494559701948,-0.8244882566757257,1.5367501369017536,-1.6162703420104772,2.9111343108477225,3.7046976753498539,-2.8725815298659667,2.008811073066185,-3.301630158618595,2.434762644054592,3.1461999478506179,3.962027993492508,-3.828876423821699,-1.0651286071243187,0.5037331639852489,-0.3579301318363388,3.9365512500479244,-2.2861493420522125,3.536580695684356,-3.4813625102554059,-1.4163019214866546,1.2845325150110974,3.5085568966542475,-2.499525917581254,2.5456255566223637,-2.371068666687691,2.24368691114102,-0.9391000731298893,2.8243863651846059,-0.16055015821405317,3.5969059680777928,3.6826249640185955,2.8641149674963115,0.48859971947890737,-1.4170197834281942,-0.425642150221039,0.820526137514447,-1.1672225951472655,-2.637191742974374,0.7997990320226665,1.7325381049556077,0.17279267340455374,-3.6169008801605075,-3.982665851446825,-3.3301622681633624,-3.1988926440770326,3.146708119912347,0.4944431594278882,0.010883371543602749,-1.2870818531097206,-2.120243583659054,2.491792571540352,-2.2649968244646176,-0.1431693208036935,0.7000468879634729,-1.8088830688468998,-1.9564420203644409,2.582132338993328,-1.924952990971786,-1.63317825388327,-2.5106686974561098,2.5106414253753508,-3.5240593370591668,3.681765376897176,-2.5230630258900428,-3.65043541693567,-2.4976014555033858,0.700445630515893,3.800962096224997,-0.7798503460816468,-1.0075192465339927,-2.4201668068696664,2.456994672841544,-2.288026803960472,0.3248609183862756,-0.789423255574446,-2.500749741397387,1.8900817504403689,0.5393784335576228,-0.15764585764561524,-0.19979820748366906,0.8330492215051937,2.2891716078462709,-3.571558126580644,-3.4190001996686787,0.7659780256113731,-1.1867130660411574,1.870371342616564,2.676478968130933,-2.027440084760607,-2.9198510625654388,2.5827870667777814,-2.11410240278847,-3.9428893010635397,1.810252330806697,2.2317065889851346,1.669021032945965,3.488169305263547,-0.6682555923518605,-3.4625775226807207,2.908059598853616,3.367916982613436,-0.5072529106582324,-1.4838665404705589,-0.7940791357161103,2.244689639410918,-3.580148855406237,2.5123528693384928,-3.415613771050956,-1.733269497640812,2.062854010253621,2.6587082951017679,0.6699688045465253,1.236040959356652,3.827760316799133,-1.3900600448939864,-1.0371081142618002,3.825758216677916,3.7988248690490318,-2.903008923372729,-1.6843190207972876,-3.8365333674507697,-0.5099712267525929,0.7619415193357986,1.8079326720454692,-1.5406319927805763,0.7575214063630273,-1.7509846449708145,2.6594706564412888,0.7015061917880896,-2.3341822263639004,-0.34224310122433168,-0.8661843825542304,1.6370187884609076,-3.6577630310872379,0.07131369887378369,1.564159798942744,-3.735313689080705,3.913374185858884,-3.836595135465271,2.3761011338908144,1.1536570250893297,-3.509639644329705,0.9301464136840929,3.440615059696033,3.8630552591975428,2.970272046090334,1.1431375434770184,1.1562279736682113,-2.1331365468410885,1.882564967268885,0.008076475938419314,0.5892997206375217,-3.121317818021507,3.4282719595518236,0.037339317139177378,-0.6683434223527556,0.8975307275058961,-1.1252260108509907,-2.038839515402225,2.3363218326781478,-1.9842072869258516,2.657270812120184,0.5016965815631096,1.2561594964554158,2.9670540019759006,3.9056571254125229,3.4131250704796169,3.7477898121153325,0.4093684293065465,-0.06895315997347673,-2.3074985975813737,0.8238765864173505,2.3941549546202349,1.5984160310681484,-0.30361501198500298,-1.3246447452167923,-3.076195579097144,-0.8094976781366829,-2.3893112105093,-2.949176376114365,-3.724581065897146,-0.03875675321763694,3.2216527527489786,0.10336102847780104,-1.4663582420448463,-2.6578846901288779,2.1853232506700177,-0.9829380643113286,1.9215246802723663,3.605993450368941,-0.9318862582479659,-3.8692708770886528,-2.0501790665685055,0.42899976363072325,0.6132470592832284,-1.0400887729664364,1.8430528030448406,2.4703835953906996,-2.8790382196596484,2.3161442288773879,2.0833670901220415,0.18126222221399325,-3.4917778162221646,-1.3241060556353868,3.7331097298487085,1.086990665781963,2.8222044110977615,-2.1457877882509717,3.3042849468643249,-1.8891201261077014,1.0184727894907644,2.217300128387641,-3.6494809085795225,1.4916057678106638,-3.0656390962953656,0.5556058326661422,1.206182341783001,-2.277238117047202,1.9603714789674909,3.9610255338085285,-0.3353274677205018,-3.602394766362253,-3.6743920696632577,-0.3457289487666344,0.004157624119317305,-3.7629280124165058,-1.7004004109402756,1.2014221979890803,2.376708376583659,3.777132202431858,2.9394535495302938,3.917810516082846,-0.7612363606941235,-2.652466835387064,-3.5292427459061868,-3.0924877568078195,-0.8300522876584038,2.248055919542556,1.183453117963567,-0.44343704381508167,2.1906372972839227,1.3336798526617227,3.3078885057063225,-0.9314428543925706,-0.9710522828405539,2.0182826792605219,-1.5240364083909342,-2.604505631521177,-0.8773653825400116,-3.676062594326738,-0.9888898175529119,-0.8706814029528598,0.0354152697580572,-1.7181969368122448,1.5255095473932779,0.9392723248975425,-0.2690917706280418,2.342125466950164,-0.08712878373986954,1.449504456015367,-1.1072214044908367,2.5429703684706626,1.6343997615615545,1.8721257354659918,-3.71324881970005,0.7918780795486944,-2.2876790524198187,1.0647266144078458,2.746398935449882,3.114821195020707,3.1922527266756877,-2.4586521045985449,-1.0264985682488759,0.3358128682716517,0.3105687873734615,-1.630235021182913,-1.4895984398543408,2.482938967422882,1.8431161955566724,0.07622646311692449,-0.6577757594496836,-0.31541786460908485,2.630615446527192,-1.814506141392627,0.9732196583357879,0.3710953110314845,3.402234550245244,2.433730588067209,-0.5274379526016129,3.6543095656135824,1.5895401360763453,2.6750550866138864,3.396722364478653,-1.4738295617306252,1.5060079761077994,-2.963510555872322,2.1078307090784067,-1.0402574437188835,-0.4064825336662865,2.10141807587143,0.9938270738783004,2.814796983889246,0.41580049627466578,-3.2569292631969279,-3.2740881125974745,1.5071767258704192,0.7850932205145318,-1.1585219624161712,-0.8777170998703061,-1.4056881029258593,-3.575952787835445,0.907631560656486,-2.0167430658480809,-3.7837011009265835,-2.918266316288955,0.23353499687872415,2.6021693543602959,1.1008176991645842,3.298956112990207,3.938319707166948,-0.6196050912021089,0.5296198256034641,-1.1812282248561879,2.6157136595032126,-3.8879610641143058,3.69852834447493,-0.4771886871204123,2.2603793309614135,-1.854586732594601,-2.1994349801266939,0.007250499969975621,-0.5506081062674342,3.846522793342121,-3.398298622846119,-1.5150029316526508,-3.9358680818683275,2.2690433897796566,-0.10705522935263279,-3.152107373571675,2.0389352610678399,2.646071057133124,3.5660377646452616,0.1425483498243807,1.5524948997023965,-3.1392849646326077,3.4702872175625538,-0.25972091042311887,-2.7437815921027335,-0.2351677833966035,-0.003788395784361631,-2.8754303208296,2.59053864896541,-2.0935384205186,-0.683340813683831,-0.9900885125716501,-3.086445552770808,0.3645175312840241,2.74317737917786,-3.7888396770715095,-2.433723845058653,-3.3047607034564265,1.8949149358351285,0.7779618050030139,3.3080516324581765,2.700051439557389,-2.900122149404438,-2.7542923566962624,-1.2587312014528199,3.652922497241291,-0.6900588170220248,-1.3449951489166774,3.2584653583286,0.8568043766581877,3.129820683041557,-3.914726326266088,-3.1348904337143068,0.9375112342323506,2.410645821037596,3.8286746660645889,1.8537945932267493,3.118416298040115,1.3101110165834067,-1.6600951582272919,1.9338831833387938,-0.5315003120266602,-2.5717290362462537,0.29174428656442066,-3.513193439802035,3.099909836108414,2.3475064824600224,3.9934618938376884,-2.791352383212562,0.04403567412134546,-0.5212351692439297,-0.9556716372999963,-2.5676407024325469,2.360107955175926,3.208873107638153,-0.041998747032640618,0.09862610861232568,-1.0838697775590288,-2.8338601478509579,0.7743661203514423,-3.0931111657804717,-2.3465994356329427,-2.259040785128299,2.757166808266282,1.6463673342152659,1.98430281463395,3.2182665866116917,2.4376913285461399,-0.5923778517360843,-0.1396871176583021,2.7883897502916819,2.0409342936153687,3.318246578514417,-1.9396594580575109,-1.9198921314879399,2.3152512275635175,-0.351120166555434,-2.2948404486030098,-2.769384014632217,-3.5590611228309738,3.007607307883349,-0.5890414173079082,1.4067131141420957,2.8808562183318644,3.814625005456321,0.00918987616542477,0.48205918057645649,-1.45877219726043,0.6876177420895546,-0.761805128051005,-0.7858681742518046,3.0113826088718449,-0.7567281621076278,-0.45123979892714086,0.6367188486842075,-1.9106361028532802,2.059871507070314,-3.920481657896169,3.874463871448139,0.38247507003096095,3.845390275505375,0.6346505164085619,-0.005303802088066467,3.617669536926787,0.4374224519350838,-2.880839911444845,-3.2915840796530606,0.7692656730075749,-0.3534798324680102,0.5808741236204122,0.5176294118898932,3.6476816142606118,-0.43930191403618737,2.6932264905540554,1.6244909738650045,1.7406730453641064,-3.357815861756219,-3.2325339858316779,-0.3638065201622771,3.0133042470091366,-1.2304452316943762,2.94269386090894,2.6871118068529098,0.9371348849593293,-1.9286002571260193,0.3914556732911949,2.093700040987697,1.7882526093578202,2.391766472347605,-2.488917517424464,2.20277747156016,2.55810406909508,0.4777177493360725,-2.0881931830181408,-3.762856719339826,1.2741480912192405,-3.306991469905726,2.7767886213509138,-3.394159292775969,3.2010055682521054,3.306655838507514,1.3053130345798563,2.081757621086198,3.935752064643448,-2.035743973953032,-3.148186873836825,-1.6967370623206722,-2.1645474404173425,3.698265040807641,3.208985304370092,0.6685681965478185,3.525582743978876,-3.3595356787471184,-0.17594154930978535,-2.7374057333507606,1.8833030623609242,3.844955571599419,1.1208803642321206,0.1610424127190262,-3.27716624357765,0.16081170778387489,0.5605414035970675,-2.0440835878025318,-3.60009755834343,-2.389766074535551,1.1700835576038343,2.469188984309171,-0.657572687078984,-1.6580782050262944,0.8711822390513389,-3.8604299715346128,-3.850349775437949,-2.570500135109267,-0.6980264806638432,2.8274334486055325,-3.808520012435685,-3.533890191305863,1.7556351053216056,0.5835497966681622,0.43344618619543687,-3.8348248039110714,1.3518773184430542,-2.071127283374903,2.4739954746096295,3.0015889333264944,-1.3112687090934523,1.7794532057390536,1.140421405602316,1.6043451218107566,2.695548162401602,-1.745350112316122,2.8792146868772034,1.3360047817352534,1.3820538117438508,-1.4377936117658506,1.093286266901786,1.7066852767971268,-3.9169730387649226,-3.395319263997944,2.496751864758747,-2.406905178684151,-1.1716612199718937,-0.9592980997108802,-2.622946135556825,-3.1499356272115257,-2.379720265374991,3.232444289760833,-0.0012974613588470075,2.643825665447169,-0.7350843096992763,3.1179782351634337,-3.605681374846495,0.6856971366918572,3.7416420152890206,-0.8928846500327659,3.4007084705385086,-0.0832433974627731,0.42044605421350758,2.421533101534906,0.8848432886908899,-1.474426226535586,-2.6311531757603605,2.774344433673585,-0.32583685087513017,1.6717773160801759,3.7012039413761625,1.331537904382956,-3.553023205061777,-3.885831873756162,-3.1786532742808877,-3.6432196747551268,-3.9742357617583146,-1.2166787162464204,-0.39412678943943449,1.5476873578293376,0.45659174162272989,1.1838181065083467,-2.3525173678754909,-0.40161391375855529,0.5317176019938854,-0.6592663743841714,-3.908775246160377,3.681808017761382,0.02376133997078167,1.8740180814381296,-2.683537546504615,3.5252959759527444,1.3206301233381659,-1.7139480241291183,3.717921436289564,2.920190109107014,1.639200084166462,1.7222616024452036,-3.134598903111246,-3.307057125139276,-1.7355200008640007,2.7933879077233119,2.377216897920735,-1.8761759690406626,-0.03574963571422507,3.108293499269342,2.844238595411359,-0.9710095333296902,0.05610559810847526,3.8672144051570997,3.5244514931032535,0.8557345308049351,3.8885447103816848,0.9061422696095018,-1.473202947986457,2.4629331098637134,-1.660788316215058,-3.642065630390345,0.8940276414280524,0.17383763915257423,0.1164245057733071,1.369105961285186,-1.5146914672647663,2.1896991641630816,3.5940255981284769,1.9287997049032138,2.348917889852018,2.333253225088874,2.6108505954010807,-2.3245358168122296,-1.1980055260951608,-1.1927657459017398,1.2973732005073977,1.9334853784188298,0.004796991563368103,2.7465820234347184,0.16674943202335336,-3.5700351630986759,0.8299230372588404,-3.8640437763880008,1.9029613494154392,2.050774756538777,-0.16613485929156547,1.7962253532013835,2.5712058677638138,-2.6974439171496806,0.6492811463210648,-0.18296025964952634,-3.1527962102067947,1.5509235472135244,-0.1771143369769137,-2.642043241726409,1.2765885218604166,0.8130447290188823,-0.35445934594849329,0.5038867259259003,1.9783339110849534,-1.0987925494343687,-1.0032482131603884,-0.6743516392734248,-3.334364146007055,0.2951227902530409,-3.3000132607505865,-0.5740340794195424,2.1421204307379027,-2.64611709061149,2.4305754396943799,1.5703948369467949,3.368724601368161,-0.6284354039996087,2.042923781846791,-1.4693466821287693,-2.5246175307167819,-0.7830946329109123,-1.619972608658353,2.81332430688414,-1.1402857641086435,-2.5925521385703798,3.65489043904571,1.4962220712520039,-3.560135801369814,1.5198371489818188,1.4332682728622777,-0.04017210845307084,2.437987491470727,3.4092405757833728,2.16223781549313,-2.3466787685252736,-0.6530919076015707,-1.2960709872238748,-2.746561520637247,1.8422764047582839,3.1076855815088395,-0.6436264243538317,2.957429740386319,-1.2442963580683895,-0.15111147946945659,-0.6395994381259511,-1.638143748752498,-3.169390515414473,-0.5436543861349372,-2.26337814943905,-0.7236110919058536,2.9890870871047134,3.0810973750269738,3.0402457534975859,-1.0102074151331538,-2.819517245363916,2.5098149750804028,-2.354415874638529,-3.45085420345087,-0.3787565032762279,-1.4976839638211106,-1.3197240244588143,3.9292534642222796,0.7033779929047466,-3.891919562833004,1.0337469492779886,1.2139618926591736,-2.9753847172205765,0.3019468403118948,3.7575014507055535,-0.8811163119673837,0.4949885702385872,-1.026382715985626,0.8105050652056658,-3.621067741830611,3.7544273596298955,0.15195123134246825,-0.02710003877064948,0.1454917791889585,1.6289321731766924,2.5426544938909059,3.814951307841059,-0.17021576934465977,-0.5504423352032504,2.580302082037943,-1.338285107260929,-1.3050030799169686,0.03209551899396512,-0.08540738298175454,-3.7688044174263615,3.8494207073611967,0.8620148114379198,-0.23148976250482734,-1.4324057314714818,3.588530702258929,3.963966180749222,-1.0413033248456823,-2.504192045372294,3.5487158249991026,0.08071050680378544,-1.1929390747269009,3.3632502894100639,-3.9618613275210317,-3.487273218485557,-3.024617724515892,2.7536198095146346,-3.3116279081225068,0.5049442704081626,3.8231339261891668,3.501730741910304,-2.3544782327055868,2.296935955338536,1.3786479583170089,0.6173734227819354,3.782446547561861,0.8118069247363424,0.18649583183999408,-2.721358860803936,-2.9352296481485515,-2.5503228344710289,3.98405064337231,-2.0101222464133015,3.528396421720384,-2.268090806250318,-0.2032210978958986,-3.188862955492752,2.469215578164045,3.0900768420814295,-2.950987505323991,-2.8494652047179889,-2.1598529212272306,0.7324341399276841,0.2180216881657806,-1.848485461350296,0.4310619061591847,0.6233808385064172,-2.941338300621153,-2.057286171976184,0.6082139961350777,2.7867483971864379,2.6979657516868729,-0.03204184974243618,1.30597351256114,-2.74384325104105,2.4143808468875864,-0.9440971409201779,2.1151312546064018,2.924461036162736,0.8902754337060452,3.9412528098925927,3.0668663108730405,2.1577091050697128,1.0773350690549819,1.015639279102528,1.904992965529524,2.927803667318355,1.1266772429245329,-3.242731078872957,3.0783127361438735,0.7376578737540944,3.2417440823846759,3.0700062433526176,-1.2238524982680535,3.449551865441669,2.8268414468443456,-1.9141753671415112,-2.8678449877132845,-0.6589945208366943,1.626916404807318,1.3343705404770097,1.4898080364446678,-1.8099205799176408,3.5240901100206178,0.4427432896487469,3.263319225838427,-1.7801476389180389,0.08327968367959837,1.6877137589548897,1.7937190720300933,-2.5968795173500407,1.0318444338867803,0.029991054376100835,0.6085436600127174,-3.077960897137088,-1.3710770254369589,0.5823667141635571,2.190628515254069,-3.411021058849757,-0.868439868879108,3.6875709259513549,-2.54019202438531,0.27136818229468676,1.9692539643763816,2.954258417378073,1.9685476314509974,-3.4851763955691945,-0.49792656219513367,1.0375066175789414,-1.747266088380246,-0.02951956015142243,3.5355490575467005,-2.374527711102848,0.7286705907066757,-2.2746816250511019,2.7661399390104295,0.4072977831654665,-0.8001688483282956,0.0557013277534244,-0.7993468250383342,-3.4357260192472038,-2.128219779222702,-1.1919183527937547,-0.420970686145437,-1.2609098898030427,0.9787078355497876,3.848431559124811,-0.19744245090667235,3.829671407691107,1.8406136061177528,0.8200777029645749,3.3220777701288846,-1.0519445583602636,1.898683761328944,0.4290444600048282,1.6377962870746102,0.7954531459046628,-3.4711189609996007,2.154561631758595,3.3757266203336488,3.6432706308143034,-0.5829448716509385,-1.188409433732655,-2.241496801410804,3.52877268385153,0.6560452871647806,-0.4135217982413053,1.1933643991851542,3.263621072389377,0.3362860063308206,1.8653278558312244,2.249475313326208,1.0961910922662526,0.2493644813863245,2.9950271988755077,-3.5366493816948418,0.9575878647045917,-3.264037653687744,-0.3694955866378802,2.843045595348907,0.9338919121319966,-1.0717311264707404,3.2223130254188279,1.6103613670327182,-3.8671352527899707,1.666995560300303,-1.0157265509134528,-2.5692788056792725,1.6882625959212652,-0.0674526023961517,0.03066954151101431,-2.166963093880546,-3.603530641085035,-2.3502214862146344,1.9405615315728256,-3.960573957036419,2.7423158107250558,-0.34623704855696127,3.3453203166810638,-3.4731857617258399,2.1044155399312736,0.16992510617443114,0.24966142587300678,0.060768976359992347,1.7895569535312426,-2.5469284260808164,0.9046150220567917,-0.5533983796062314,1.0638318425335234,3.162404763999829,-3.4584581646874836,1.2935812788405077,-0.3171646811418134,2.4134115648665048,-0.7972028172341845,0.9957545886433046,1.2042885501508192,-1.3562294603163193,0.32483696755696025,-2.3973333957216829,-1.8362221516032216,2.237011805450603,0.9412220970986,-0.013848488878045018,2.8894348818203836,0.758975495661212,0.003935110222816007,-2.0175822878584279,0.6736482544709821,2.0212417641007098,2.562563861277476,-3.7342053839817996,-2.9133887822232769,3.9866356131516218,-3.102139793128024,1.021710816692969,-0.942794330978117,0.8365739068494209,-3.5129178168159,-3.6479000975722144,1.9223266951286089,0.2397456909134119,0.8610727032312919,-3.9362551892724717,-0.6129407306802739,1.2573783217247528,-0.8044090546242817,-0.9137498079821418,1.5782191542434765,-2.6232411665041779,-3.7904068926333904,-2.740413901965935,-3.3606400368842097,0.56266778257128,-0.0418962046862108,-1.5636272306758628,0.17045406544691933,-3.9067413893519085,-0.23477863390913357,1.3823137870489442,-0.6552867976881205,-0.00414647900018128,-0.6744921270880715,0.8484339896657209,-1.3423861327981113,3.8803179777041176,-0.9565158726107663,0.019076107695055634,-2.114700226782542,-3.197673343326996,3.7543423069838148,3.8461394107952948,-2.364226723691008,0.6422864895329372,2.0865402637819718,2.6241806550982069,-0.8672539957531482]