[[58.199473776574588,7.226390195337962,80.43199157306286,76.98157850741812,57.5575226864769,-10.3017743112043,73.67229792194462,-30.212679665716885,66.66342900924264,-83.92424902586633,13.1898764587774,7.0765762629634338,14.771994669104363,30.24184291613461,54.85011832828587,4.3267436866040749,32.8415061049217,25.93309467331581,-0.43083804338698125,21.189197003675,-45.40789926786526,-68.93719984904593,26.5153318680377,-17.661516139107424,47.48414451535811,-40.74473594543592,29.417585130844107,-106.61507707001174,127.73337787880357,-52.82957726003362,19.407529335048907,96.09699404789849,-87.93587505618318,32.56617399001068,-38.14688477993904,-41.61782226184902,-12.921766112564704,62.17461706230764,-20.136055169187946,14.219875240153814,-68.59603371418246,82.02647468864471,-23.71689175670142,53.01950105924459,-65.88617285930838,-111.31701264182232,82.41439719791096,-20.435586129928536,0.8755906585966163,-13.015063015536365,-91.63689454939896,-49.47010994328657,17.703474648974347,11.773318683877703,-27.629616992312064,-98.97953852549895,66.18270485373746,-74.5526343272983,-16.1494687504478,-32.872230124358399,81.77086103280228,-12.518061113469797,-13.821214264114339,90.7231276892168,80.42035974646538,49.22374836563208,24.31792312041689,-45.8126474515866,31.674658345074758,-78.79375027900275,16.40481417667673,-58.81478226563081,8.820351367052128,20.85642315700515,71.20903758874131,-0.03942402063203974,54.3375397900131,20.52233919094777,-26.872896222893396,-14.159799030128017,111.09139840688997,-1.1699957445224743,29.897126465322836,30.33399216879268,-10.712088178995714,-122.20231627033742,35.066537081703767,29.738045196036408,-5.9483930460438849,5.185952969665384,-77.91514123924695,203.8242323641822,21.898521413596876,-10.030648512781588,78.67436167645498,-93.75478956980591,122.0968969796141,-11.059735314791068,-48.51373914998192,-43.22983282080913,57.693940745327449,35.84090690240565,21.237521496037876,104.64150537976103,-10.484670750453349,103.18196650090597,30.085076926171977,-24.088873604274128,-61.85420094563108,-67.53078392164932,6.372501670844877,114.78993363322654,-21.774598129459734,-58.92173474497467,6.448535290706796,95.63122756411413,158.41530990989467,151.87097497417114,211.85110931240286,225.216324696484,127.07576312287331,118.32930264676398,-48.086814223355997,-25.856384587346697,-110.10339107004755,-145.28149221000653,-151.37839457586493,-146.8663179225573,-78.53356323318694,-42.37950694863593,-35.57059035541502,91.702319766397,33.49167032969724,-58.037065320175177,-11.55067299078309,73.39791926604635,137.98477945547445,-5.643112412445928,-11.698662813660846,-47.290189616765569,-34.962840471586378,-34.818582483919318,-26.81219344138627,146.27574494656833,179.9851929702157,48.92879785953606,134.25038685492397,82.07563015376475,53.26932807290562,77.80506917131314,25.509233228416276,-158.72051564809812,-173.04151255376113,-171.0189895885728,-282.33509659970647,-339.8520133250554,-214.82622629700249,-205.54672983919864,135.4959353711841,58.998316726918819,10.865611965163194,47.08479622430115,-55.580059169157077,-118.99897024989608,-0.8230640151445482,61.75864648777935,-55.734194795353257,-75.36611078456279,43.759892632863309,49.32616168746384,220.8317736717369,49.15429822001834,181.56257516702233,16.168672932666018,180.3673274818513,109.65375076213206,203.55007278107596,27.099204043945375,-263.3047698935387,-468.9057669711889,-540.9347867491932,-471.93837091173938,-238.90802844248004,-160.96600490408228,-270.367718269662,-237.6246461760814,2.0807209963414126,67.72092003542189,221.59175956882803,34.53903364434698,-82.64738507517073,72.1923302827551,48.573375991980309,22.69848864365313,-5.015194090182472,35.3168008798811,-30.233140155151589,117.61692761551044,234.28784683974716,148.48652954584618,65.69728433324859,9.76191679369366,175.72079644565717,289.8860909333392,158.6260913630538,-45.1068864432518,-600.4924808162982,-614.5768984551792,-383.18146299587667,-453.17849667898789,-247.68897500790119,-378.5686397642427,-439.27617934124108,-196.89387659511272,-28.921847056507116,-12.853782510275562,214.5056715782417,71.78615279837887,58.91031657721844,42.1068804718212,82.98533886444067,89.07828965333458,-28.861333474571816,-45.04409123308436,-68.0716161711436,127.56695823810955,284.0567237752885,318.91411096880815,52.04851714837208,-27.076149484242,271.23149328632027,299.6897893418104,146.51932535601297,-420.44576329860686,-583.6810332945149,-592.4303351406165,-399.677784522608,-365.19889394251006,-175.49642137530706,-185.27020343815216,-285.93855060742626,-110.06666357673767,61.598506025802958,-16.44488204520884,120.35120250199336,127.74541818641464,-42.80561328491154,0.43279957398278598,19.545946958816569,56.832190292903728,-52.55945420908487,40.982540776362018,3.6609416079874448,37.5294606670222,325.680500521699,151.37381848570105,141.57260451853527,229.05835219005409,458.0251481490723,212.3714168421283,-162.56929845635828,-849.1393381936885,-924.274825394692,-683.3980562753263,-322.18468226235538,-350.5790994140809,-389.076852477758,-456.0632344595188,-372.87524712118968,-281.7765654299595,-351.47926337616686,-121.09815023202482,60.077757127676509,278.8377123521096,59.587563334521949,62.939606309111749,-57.5622406916756,-73.23659974510882,-35.86233439384159,-29.427116159393984,-84.23504036133477,201.9241313667798,386.84541959793469,137.047498851458,5.106161777603216,194.63670143590884,686.9368302649033,502.15663793530879,-255.7211208825688,-1011.9914698899339,-1060.9525483215992,-728.3692757176201,-346.9524815023274,-254.08020736710859,-439.23732709305696,-498.7798021802349,-381.37573513782248,-409.02852140112148,-292.76322375155208,-323.89514526855927,-126.86415957820151,198.37865507939453,349.5949151220448,128.2377077588644,109.3171109326023,112.5161689806165,32.61619717796273,-34.96456799699269,113.45788833045795,148.02706383981394,459.1200221954802,108.44166421677176,-218.3203135914793,125.282093551132,691.2075320236775,606.3221337188494,-59.93047948388499,-810.7208069031426,-843.3027705393386,-445.93997918002597,-532.7118833469666,-508.89806640060496,-672.1023220607518,-665.6971815685304,-242.32096436980033,-16.980429173114698,-32.786703639232239,-123.96316938238846,-310.4988289801505,-189.02705612289803,97.71882301973172,171.59447009819145,-4.920801472816825,18.58684367042452,19.46514803399398,-9.073090409568925,-11.501219132997896,61.38533312158113,299.2053584225628,-47.94630722132916,-603.8690859455569,-29.96506748383148,647.9736112889693,698.2070359214202,186.9403161602813,-732.4580206485481,-866.6562200223297,-593.8496445897953,-371.46241141825439,-503.2627127025412,-728.5871282803219,-563.7671952733857,-370.43155919235115,-107.36674837690349,12.359572513235634,226.50650672670248,-34.92175528308082,-234.79913802015018,19.815198153159018,473.74030569119318,100.66336844648318,74.959746645062,52.260823700937617,8.306164087816997,-35.42215550026045,97.80445501181313,356.0275186037289,-371.8308928140377,-506.1624394385489,-113.4127948217528,164.14451636378818,665.0048220260261,381.3341696197386,-540.2671067775735,-557.7350717377478,-590.340057681248,-426.48556282481106,-310.9254609142883,-339.4193442789865,-210.73320303485694,-162.9322188298775,38.31266868190716,-49.489881448664998,269.4012864917368,159.0187365793021,-449.9851968809199,-71.8796469166321,418.2168170206459,174.91817889089598,23.332886190695008,-37.986241855938178,-43.04512396096769,-123.74678221004328,274.6850754440927,210.89464279659274,-352.45103952596238,-402.6718329455653,13.708969476203837,183.57183703717466,112.11795402356379,-10.585291620386425,-417.51556447063668,-594.719561502578,-699.7870864615635,-755.2041394104361,-266.56002010515837,-175.74996915928063,-201.30689463503266,254.5400582366862,252.28575178030753,132.66583617579819,423.3508806214315,311.8760095744728,-205.02669641508903,-285.05231874232387,381.38836994063299,288.7958416303517,151.3613300661852,103.62852642427186,-127.04230678365117,54.86401718764085,123.12627864795107,162.4850043465413,-123.97936858633205,-269.19344429627878,87.21919974327526,291.0030415024751,334.63218739340166,-87.46425537609248,-312.94927911816407,-525.1507807859346,-582.0031688288733,-949.0949378559172,-634.6345825905078,-493.54359836228675,-399.3260254285066,-29.85006025328986,224.0421888223041,250.52482016841734,461.64696355155828,443.1370706127305,-156.17970102100655,-379.1201020587509,250.8518412139082,212.1574003545993,58.76054564997051,-15.411803202525153,-17.478900771894375,123.59532278336534,214.3117828967792,196.11775895027467,-264.51386058958635,-263.6552427640027,-117.68319193481179,287.2414084970261,472.44323179433118,31.267920851088435,-135.0868446052576,-656.6285204345992,-752.4485853053834,-585.4093866267175,-842.2629811543137,-669.8799019881516,-511.5452144181743,-344.27749769753748,-206.0708767654588,-64.87560124823716,289.59566464505039,142.6114401822821,-92.48384144984543,-346.9430395370955,311.2800133306758,313.1620601265076,91.86704246071206,-16.680986971858066,184.56768041165535,51.2322028027895,138.242423936272,209.7547489133487,-296.88765462156638,-648.2450356896777,-323.5777455356678,-62.522170945418647,437.16553589034768,503.3335766528595,88.10385449910507,-220.66824180152006,-389.463501388552,-304.9374987634187,-606.023647580727,-490.89159275708365,-392.10898531060919,-357.15353983296719,-337.2523024110172,-106.69827699030945,-87.73532633809929,74.21746232497218,-88.88398923069143,-293.91519222812266,319.6988333805658,205.5359047533915,79.90702924026572,103.56905189246578,72.75161761154297,-54.43976815118343,48.44965892761464,146.57109527449348,-118.7075504907567,-385.9424903849533,-351.29168688208656,-200.806269422781,184.45588047683757,462.7282602980152,465.7154186981425,34.28932131449727,-290.84473049550015,-186.5902273954723,-191.4416384526807,-320.51462349720426,-460.4187983675384,-405.3956521822369,-281.75327806938949,-5.570878036271813,-141.67371646535183,-160.47146194098799,-240.62346884464896,26.76892344317782,308.9321421895845,348.95303544353245,87.04505338743764,-57.77902528660629,-67.5322354364966,43.406474971958129,-22.591450687828794,22.24562148108122,-209.76620312541449,-211.52468768675213,-208.20182445458137,-125.1179112169668,22.56281536132647,248.75756840803923,287.2248297972322,359.2897384734549,80.39603680607743,-217.676312869928,-406.66077406946297,-449.7993282505272,-584.8765315380459,-742.1851669162754,-745.6977188331159,-332.9409632921417,-109.00671702743749,-127.16244227758443,-29.49809847287439,41.44610439880106,315.2501777354784,122.09635589747289,71.28198220113386,8.192082619059916,23.500735092896993,-17.555902458793505,67.4373429125625,-101.69505623940141,-207.3983282342475,-302.35877692388717,-145.86744650998845,-232.7174022387119,-110.77562210304372,157.42916198552207,151.22292666012599,139.06374997448777,-56.06922153879421,125.5474418084568,-87.9351597674523,-346.12538869739577,-694.9285029430115,-744.5157664614321,-759.7518107570062,-373.751734344022,-111.72110694751506,-89.3136344228815,-53.12013479258721,17.457420341058929,160.82105625563717,204.93570639440558,-31.739378348759887,-118.4197609736178,20.521792716564144,66.34862845153184,-91.40419658378443,50.198836502587777,-161.17908209354816,-242.10350295669466,-115.71959100554142,-188.7137084330743,-228.4438616401369,77.71721483388511,180.47683340603113,282.0474362989232,174.18771363464774,209.86083002810023,102.45924114290412,-321.8272258509638,-613.5262186949549,-712.9886534311639,-632.3066056331429,-461.8842951755943,-124.23034966784583,-189.5084044924165,-129.0051566910162,65.87063085212573,109.46967431866368,32.05011140484048,148.14793080913104,20.57879419932805,70.51928334185378,-32.44713452712605,96.10512947659365,-133.23020772925757,-37.29087759743674,-103.22456005809588,-93.08600456148386,-26.21607555846812,-89.85573349363368,-48.254713218768987,71.62638418143327,79.45463878227156,130.04374512123253,133.22121553594787,5.406366153244862,-158.48875537623105,-248.53908477824744,-504.48887856155837,-630.494857613746,-362.672549259094,-185.17299291061188,-57.738690684888748,-56.30457535397217,137.5924932295622,54.26074602749914,8.111945162925329,27.427342229938828,68.9736045632281,93.19101052672993,68.94275248711878,-44.01557078757534,-159.29986839103075,-5.168832276761119,-150.95983545993114,5.394133140942774,1.7309215941448906,43.77981695893577,-63.29130886192309,78.18573105066653,98.78899432723071,-51.87963063031595,18.342987758501196,14.089530720876973,-23.78437856053258,-133.11232050165936,-163.6047068521252,-320.8112023866905,-158.19824935973029,104.49197209656616,163.93324152405843,-1.9780884995047308,133.6064779379175,41.18616447027763,96.54521049776186,-64.91065700001339,56.04874957568186,33.90716092601354,-20.555765168293733,42.64364263400832,-71.57600442781815,172.3083158496671,-13.819718126027782,-62.47834636203675,76.6891312678977,56.535453607228578,-72.38147011749412,10.589882639606522,-24.24305036186171,-65.80925254599066,31.69163913097713,5.171701308502724,83.39454298110884,-7.784724977090873,-14.845160740299717,141.47397144131399,310.4639768372213,205.10128031502959,320.9179632320127,126.82845869846475,88.73433842627722,11.363371351961737,24.34630331572722,59.88694168455925,-85.16130980023519,-63.309893239832828,22.12795414113391,50.254250818582899,94.01788085852684,26.609872398504004,92.688322266211,-84.28444587995705,-14.543783604932545,-86.32451702547538,43.32230701660401,-55.00864512812845,65.22000278286183,-90.93349293965849,-21.478583388139304,-42.641028139218828,-63.085337650898669,4.526426228823921,-5.259958005532925,78.18163034585416,173.16507104877463,216.27595433682425,135.0910954802514,77.71206830906539,4.079170336349603,14.625182801016362,-65.62853486060189,-38.06875884777045,37.009330136994858,50.87168648877132,-4.965120836370569,73.99030286391398,-16.69239746357565,108.0540413261288,31.870148655225944,21.79623374312843,-8.460811470971624,18.29872999046471,1.1628517065769233,31.64915584974209,-92.29779426943374,-19.95573803031902,-43.67148982593098,-36.23389684770155,32.107878288371349,-64.77649813606587,63.3236539796942,61.60484588494821,62.16332511703356,3.481913107418355,-42.18268702997711,-71.13569793499991,-143.8420146155662,93.7652692159864,84.62059281791174,-65.91023031325624,197.7680645093932,22.022574251304666,-10.400655797593333,12.020789101527465,50.41989718838564,36.58756249607246,25.715051229235585,20.495352797519815,-71.01058114747817,1.3472029590424349,-3.024597021896361,-43.572349722002098,-105.0690432457617,-29.482596708329564,-93.33365996623106,81.75305432371565,-26.04070479430923,-25.377876449390777,36.266285942334338,12.32518012758374,93.66144164454718,-50.22159734868499,-1.2085244141697758,2.3092022508443086,30.219939278392716,-14.340233291026939,-52.899633798236198,7.853772985732566,27.21128946894712,-72.58851008425228],[-5.624993631108535,-1.8117311789349045,0.958639652477457,0.03360514534839766,-5.932730567076789,-6.926885284959098,-10.51662072321789,4.080536892864771,-7.595923919660755,-12.930040876168338,1.2747726905143347,1.450189531670823,-6.645467755788951,-13.404439731085296,-1.6648016166765643,1.5864025644724922,-5.3636736331719609,-2.515122106803864,-2.807444429644294,-8.397161839834853,-18.256332711986209,0.13634976863284407,9.275514665946123,-6.630419704635968,-1.357670882118789,0.7570933343155479,-0.6835271059152227,0.30011356665025026,-7.1291643120924459,-18.225722808882656,-5.821788997039791,1.63689670188579,-1.0081501391716024,-3.4575165338603166,-3.4868467556078555,-2.8768593221765546,-4.213164769393389,-2.694520746173938,-4.620902460157045,0.3605611034036234,-6.389705901204707,-14.68242890232166,-0.9655661601487715,-2.5176318369449608,-2.34330020434087,2.4679990007365095,-5.652483211205597,-6.932770548969553,-5.900396297869836,-3.4110845350503729,1.4417871877792524,4.248538180280818,-0.856975282949373,-14.15501908094435,0.4797516599709903,-14.540426253463574,-7.528811212039481,-8.423119666979757,2.8194413802216449,-0.8305843858958812,-5.330628455959845,-13.277706608850553,2.4400476102486925,-9.114274681381727,6.7656913306872978,-5.089596291522225,0.03152275645332392,-20.50535376038321,-3.320765700591058,-8.497032680803898,-10.637816747530012,-1.079847295402356,-9.437408383956586,-1.4943905193969605,-7.169128731689702,-7.040690262642623,-3.455530744870195,-0.08066534864758386,3.9724701935156179,0.8719850542057365,-0.20017311643135636,-4.426747518528764,-2.083994338315985,2.5031793863648148,-6.259036779326845,-1.5499871746174139,-0.23611331056782909,-4.105848030447963,-10.825388048287623,-3.740243766083869,-9.588002848334268,-14.914581653545158,6.63296960114475,-0.028039505426799725,-1.4880240877742992,-9.288936861440304,-1.5343199936678332,-5.249084549906233,-2.449872136809707,-5.013379698570691,-5.423369021635082,-5.365966585301826,-2.5125185799171438,-1.0848076621829113,-5.781295797808333,-6.538421936782372,-4.978769926207436,0.29051089449356806,5.08531631697715,-7.799125235988345,0.25523833655900288,-1.0292614930633156,-8.18894880097026,-7.1831202838304899,-8.734641681440119,-7.194984778321172,-5.1419165544089939,-0.501950854308287,-1.3466458446870667,-12.561695616482967,-2.234134938734758,-6.9966449123333309,-11.4213351975344,-3.5311029252888908,-5.760776310023056,-0.024325590051289305,-5.297050974625557,-1.1543477072385482],[0.7943551616839802,2.6835271662967599,-4.72284280507256,-3.2950989217166457,-0.6322394350553845,0.5466018081671756,0.33492309848504006,-2.8138397937340184,-3.258433746567111,-6.814779132967875,-8.270922252332305,1.1381736727418773,2.6288210569039456,2.210570438569637,-0.5977780029724618,-1.741941084512197,-1.7904439027131705,2.3132292286295699,-5.867901237089203,-2.6214214084453109,1.2207985261900634,-2.13451275016458,-6.124354145325796,-0.2798465645079702,1.024734510546148,-2.298743032203205,-0.21272811018250963,1.4550691379368868,-1.9531088334235237,-2.0395970738616815,-3.796822631045354,-2.55412133164331,1.4586446703224537,2.8286572195901398,-3.3476333439550705,1.682704358638249,1.4577646163247243,3.918650188821152,-0.5584244282560298,-0.8016248484795797,-4.510561519073086,-5.012980001979426,0.591081503305748,-4.671866666124717,-1.1870802121380704,2.0025299715144508,-6.615121954063317,-7.153719979345001,-2.469674275141638,-2.4465230115452538,-0.46602693603740377,2.374098465443656,-4.229432331732632,-1.1182643774078687,0.02342469183707181,-7.084190707035523,0.018789474948219838,-4.71176720272773,-0.7654532257656012,-5.708556711625296,2.1378747976723346,-1.3191752632459382,-1.0758550053514169,-5.738792398085424,1.020479122136748,2.871277780547807,-5.697164062030783,-0.23557195139102339,1.3305795446489997,0.33937260289243389,-6.852901464236263,-2.972602164810346,-4.96664725596761,-1.1594219165534392,2.391186991526639,0.7122749202860901,-0.27491965734466608,-2.886650353527221,-0.12633674692501346,0.15736876391564492,-5.92677779573493,0.8882244907510521,-7.498367382430352,-3.3419531140592459,-1.7781433117089658,0.41450207035462657,1.4542003266115236,-4.05278477016043,3.046299256729166,-8.193131744634224,-1.1010653008662022,0.12156163541155221,-4.7465708023275579,-5.734023965226982,-4.106065017508695,-1.7865078740819847,-4.772294178379607,-5.380870244889741,-5.333712402822866,1.037117854749458,-0.7625105274689329,3.2975001975488187,1.3021196210990947,-6.51691698917254,-1.6217438927515225,-4.951954549438893,0.8267979148544249,-0.22562354949829414,-1.3893898783101684,-6.029228112353046,-4.4631464914125609,3.8150986115358487,-4.965591727768177,-1.9965292355707929,-4.025020076636064,-1.699916471922022,-1.5109855412678273,-2.3889096300739216,-3.1707283319004966,-0.8471726430400502,-0.3760330182249086,-0.9238664603510314,-2.4751436935892174,-7.125281720606281,0.5038769643632922,-2.137016904761037,1.3383922132941784,-6.621301042909617],[-2.8526926939171255,-2.833466283866544,-1.3495353465020248,-1.3260713514989476,-5.489895094241468,-1.3134895603599537,-4.346247439453137,-3.3082212126919479,-0.6402965674389752,-3.01405311845417]]