[2.2262632947539799,-1.3409778514311164,1.5861543120459705,-2.6546669742112476,-1.7302875982235034,2.816632203283953,3.8880037724260085,-1.1860899707443558,-3.418483593716797,0.5226563882816979,3.966160189315162,-3.5970376470691818,2.965129182642555,2.333834368961472,2.6459699848961177,2.740073267444207,-0.5082238404044511,0.22234567747074733,-0.9655818612558834,1.4013883265689618,3.6026956875103806,-3.710251572420496,-2.9558916958381657,0.093953598395537,2.6016234827743527,0.7926253391255669,-0.9156439784170777,0.2333980791937919,2.951050897202233,-1.1794596653758347,3.2718213413573919,-1.9600671898360136,1.400932823650961,-1.1442133656838263,3.219019886420486,3.606167581899909,0.650024102814578,-1.2287328364507114,2.1235743267344167,3.6120755862629214,1.7204737235239363,2.7981124303694719,3.2723133307303486,0.03971073689893134,1.6449175814086623,2.3539184680515627,0.23777297119245367,-2.11862638238545,-0.1392311231220164,-0.22577996262067,0.8885551130244824,-1.9135550624892684,1.0862651409127618,3.066000468272803,-0.8390592382165725,3.3848656949324167,-3.8096846702010209,-0.5347770135060876,1.504618724038995,-1.8439089955344273,2.9949542520417617,3.6109437083160538,-2.422317809210282,-0.4594911009587346,-1.8433027307793378,-1.7885897464642507,2.5652775085741088,2.4551733177844818,-3.4509827553984127,-1.3278415688137478,1.1787341803371053,2.3147134232906505,0.5686767002219232,-1.2656694585918749,3.724040503913044,-1.987831774478821,0.701651409387163,-0.020589828436644587,-3.1891676002512039,-3.579782493591624,-2.5852476418355456,-2.8816099850799126,-2.5541619288264805,2.713559743540435,0.7954203175758766,0.17803913824905213,-2.235337556895065,-1.4325793415284368,-3.096229553923016,-1.2252595801708826,0.04941211654824487,-0.4097047625899115,2.9720212702407386,-0.23479914329046817,-3.592282331728174,2.7455470322033745,0.38801503178532456,2.5847257529691585,3.173732636084334,1.6331257034722533,3.768511026987947,2.1434432689223485,-3.712470963243028,-0.18566997756684507,2.5776939555289646,2.430797265070978,2.8891768150536527,0.9769546150148221,3.2065877682938934,-2.659450189342346,0.7942623513726073,3.2549298687370098,3.735198037560834,-2.8555887438402149,-0.41746668494416147,-3.9490787225679115,-0.07254536829321691,0.0803145857644987,1.8564206025296899,-3.1230763214424974,1.3362567381900128,-3.16910396465755,3.69827498377602,0.2859604152030087,-2.7134623249920297,2.387374084331246,-0.04986440729246878,-3.0094219022766448,3.3090992401124019,-1.010216949587601,-2.990920861094855,0.6065983682732234,-1.850008402443784,-0.575729474517769,-0.7987065390774453,0.9741554121353007,0.9909239890458297,-2.195675031157964,-0.77542632611034,0.25731714792037777,-2.1487130513057854,-3.9648388616243039,3.4142268976725189,3.023688482749682,-1.75992545954332,3.0483542242014005,0.431893958290285,-0.26808529492705959,-3.3181892122100358,-3.0603799605882955,1.9134485270861169,-0.7499853455385486,0.25873603381524115,-2.692430214412222,-2.5816642633235977,3.7411723003244736,2.515339605610449,-0.8728838943926613,-3.3139497941684405,1.7631657507369072,1.4035883449686653,-0.31246874644821767,-2.7309392946335855,3.489523906763721,3.232245438085858,-0.855968137689642,-3.8365333862229855,-2.282107105416154,-0.0870303551358349,1.2090529999447349,1.034367511674505,-1.434000487360624,-1.9275826260921994,1.630558788588985,0.043320575752545668,-0.3786889174981132,-1.8406381354788708,0.42972203073439099,-3.078304969234412,0.13213048508440207,1.2763682492176685,0.27195225621557386,1.5376340869159942,-1.0438175084631265,-0.4514003186037563,0.061387702012041248,-2.6818882476085577,-2.8476388965565837,3.6289673101460204,-2.4216746813803349,0.16872334064297513,-3.4300814415022708,-2.636147918090307,1.6319679910669845,-3.5656946853832709,-3.116654603279038,1.1061506307590979,-2.251025138461376,-1.3947635632355269,-1.9130139676537115,3.271590443635314,-1.0081256911929269,-3.0070286489098985,3.870648111926571,-2.752881034514994,-3.53037093543083,-2.7762833194157947,3.5828904152784846,1.2458916713089306,3.924421079601661,0.9830465165637907,0.3200713617671447,-2.581160571373168,1.2348323983439019,-3.518365203531193,1.2226790967946216,3.1453877893693686,3.7994198614783505,-3.0716751821672689,-3.7845816184536478,0.7738481996129325,0.05963381071922669,-1.7286374208698475,1.3215275121706958,-1.4547729737778835,-3.410032513840024,-2.9967884515632168,0.6267561328986604,-0.9424410227310036,1.8574996037078853,-3.713387849039708,-0.533382656851513,3.1825708931208904,3.0000199567439367,2.6927351743539429,-2.108769389812953,-1.3514199404321284,-2.5410734692861265,-2.502657735905804,-1.6182138149745189,2.864182727478978,-0.2928032533806162,-3.7373536138306049,-1.0600849223849567,0.7488049649761184,3.9120203249215814,-3.277344562220774,0.7014787235230795,-0.8907857221203086,3.370216533481835,3.3083830811768779,2.038078327775353,-2.8760775831050457,-0.2632040372197535,-1.9354816648657745,-0.8589735119660611,1.5455806405231254,-0.6948320190587169,-3.801455941844371,-0.2856389091375444,-1.816083102527248,3.8491089475565696,0.38638545138821459,2.506490138906602,-2.1023886615598634,-2.6576549479541056,-2.018650051878625,2.7339164193800755,-2.538080850152612,-2.610416000522278,2.3021793798784397,-3.8787704930487267,-2.30569343401677,-3.993713994108435,1.017667427663974,2.802890657988695,-2.764123962387517,1.6080152954300325,-3.5250314028022506,1.4691388520258367,-2.449019547677276,1.1578629831859333,2.826033773953932,-3.239929039445907,-3.058753408944682,2.2595417744209165,0.1922689673703344,-3.0711416309291827,-1.0016500893333918,-0.05904259286378277,-1.6137409138789048,0.21665380220042608,-1.0874278288122293,-3.872241810288812,-0.2996771230651687,3.335282247150567,-1.7984324700718697,3.355704466011364,-1.87614405547252,-2.3546047197648827,-1.0525728388400487,2.2465762754931415,2.355474482641146,1.971959245120348,2.268861291005969,3.4794896761789184,1.8486485412065923,-1.4714259303071947,-0.29283721343320426,-0.10220694474379233,-2.112486502520169,-0.4006408382327571,1.2232486819375864,-2.3592399553620977,0.12161667445109448,1.4266200149898599,-0.7232147184422297,2.6166209436271545,3.784160896252817,-2.7466378571115594,-1.3582734730863129,3.209705505023897,1.6821333297504273,-0.1906852612911054,-2.6598076734205309,-3.3829294819960218,-2.3717802488722867,1.0448682039757902,-1.560081011054991,-0.7115353954853434,2.375686298215654,1.213030369014465,2.695964275849102,0.9270737067509112,-0.612307155764199,-2.3031271789249496,1.2243894871768868,1.7585605423164399,0.32680893370359689,2.696909290885535,-0.1634491361528534,-1.0728226325958675,0.23288248495483544,3.737189343643081,-0.2504765368894686,3.1630377072409567,0.6566660568472651,-2.613870005160976,1.4273045790816568,0.523298887680876,-2.2228465639016088,-3.9584268590461955,0.15950386221035374,3.0875705320268267,3.1971656779613468,-0.231580462649001,1.3395307264850827,-2.931603036440957,-1.5490903183296275,2.842410255517433,-3.3717402923727137,-1.142499321839425,0.41738201192872018,-1.8343298139632403,1.588665685846804,1.0158303726257563,-1.1861678096879674,-3.4013794559167618,1.3999146178512776,0.8582848002102512,-2.3577269982729369,-3.273811839430226,-1.6257184079123002,-3.9308721230522698,1.0128649338304224,2.228274087020977,-1.379237480448789,-2.5348686831342466,-3.7298553314806366,3.1123043412823438,-0.32322658743008839,3.985151636766626,-3.329919997253989,3.152990852048272,2.268265871118432,3.6129361429731867,-2.8047509471270208,2.3772381561126059,2.1932251274787815,3.0697254061560255,0.23273808576858813,-3.0441147067201488,2.598657425513256,1.0753170679945737,0.9858971155384966,-2.3281915144232405,-0.08723398973094732,1.7916270542361268,-3.957770934320691,-0.5967443267960819,-0.6676754433669176,3.0052206318844378,1.6339043276567554,-1.7628001930697084,3.0769906654667915,-1.9148898511910309,0.10912559410081357,2.8052818184526266,1.0560742149787804,0.5229208824299967,-0.49815243562397529,-0.0032674784754489485,-2.4567075606927348,1.8510509084968528,-1.4085301498904537,2.665928067876556,2.5223872243214506,-3.0418749075697395,1.2014296311992459,2.6836918697931768,-1.4346108687956587,-0.8247741242361473,-1.2953724939692693,-1.6706195680438414,-2.2144850807007527,-1.4731985019867296,2.16830802148037,3.122853410611156,1.049429351803333,0.6113447801416214,-0.7550620424698931,-3.5895810758812765,-3.2011465287996154,1.7696890023742765,0.27167822216840156,2.428034304310663,0.8000376289748372,3.293368590311628,-1.1377776799571178,-3.677327970249335,-3.9928764066891357,2.1726217984841487,1.3014928482579294,-0.5658003198969048,0.6395558813259274,3.70665809479968,1.7402877176750496,-2.873216271790575,-3.5807842288945945,-3.016762400878555,0.37169275292830319,-2.157356183831701,-0.6746372615350482,-1.3978823820591835,1.177157830815676,-2.3934320151877337,0.5673621350329974,0.890471849834312,0.1834898884803131,-2.9186802295484606,2.442875671141006,-3.0862221566233289,-0.7594141246099506,-1.8601236635690182,2.382482610935786,1.3409619705648766,0.106965067510564,0.05817565990413254,2.0995870247237624,-2.082537235240391,-2.6225162684790996,3.0995269757440484,0.07683354824449573,2.4120242145778238,1.8106918231037295,3.4718560906332378,0.5992996779014117,-2.034175574058467,0.24153370852206725,-1.7235434771791279,3.849852253741318,3.5599881557767105,-3.4777587822885858,1.496249041260473,0.7607978096604429,-1.181055732323914,-1.4243280803800627,-2.0015997810694747,3.1679791828445946,-3.721599581680576,3.114726544135096,-3.001678620740913,3.894232014350826,3.3700139809845179,-2.2905505820379208,-3.3087662425093757,2.59192626865039,3.6498433633811606,3.228506809244272,2.581618910297106,-2.120038783024601,-1.0855103893001879,-2.812947239028837,0.39351353811747105,-3.367542823449117,0.2766010303738655,1.1390996734593096,1.3243140619328662,-2.0978677559682934,-0.9744919899548956,0.8037739277860005,0.3182980276633067,2.6086874921275724,3.498605325821937,2.5618204361962437,-1.0197167730425408,0.3027444301750126,2.9723259421690626,-0.20221865533339135,1.0449965542689626,-2.6054495143774725,-1.6880585351808629,1.1643983759061039,3.782998328472238,1.3046005258714964,-2.0834817414374529,-0.1035970375129196,-0.5599252983035372,-2.8350341391788698,-3.054282188173442,-0.3319974443443703,-3.6554174923366204,-1.0344026345039679,-1.0742125429561913,-1.4656690619770226,-0.655291501539792,-3.9348979236886496,-0.30564233995889458,2.5168582931263998,1.513971814238837,-1.4461563771508764,0.16678369347647149,-3.4179738859046129,-2.4205561389965499,2.224680789060457,1.8767810423282355,1.7577297698396635,1.887737935300823,1.5725929670371786,0.5449010275288195,-3.770235280189036,3.0571263931712249,-3.870511809787292,0.45171499817822627,-2.2264908956683548,-1.0000085048150647,0.8536583060862109,-0.24504523280493929,0.8024967692971705,-1.384308081034641,-1.7169092476809154,-3.647459398145738,-3.8452597962012389,-3.219058481318073,1.025269910002292,-2.7020887019155497,3.711781606835504,-2.177571181023797,0.6621555954224307,-3.0557273084513465,3.7092596722036728,-3.869696288314117,-1.1480848154966817,-2.2618949255284788,-1.6513465399229164,-2.72379600823726,1.5935208799277306,-0.24225870094682534,-0.7372143098794661,-0.22175512383597696,1.384745078266823,-3.0540066061267945,1.086232189174864,-3.9858738331886256,-2.466492607976594,1.9962548521365378,1.1445262802032695,0.8680275905699615,-2.3054203242540085,-1.6487865261690827,-1.7607491686362496,3.2974758726456647,2.989527846556621,-3.600872763309356,2.872284921516136,0.28797322437998487,3.9215730316846715,3.387624865000146,-2.25951679772308,-1.990267818514102,0.09535696885167244,0.7031702071374726,3.8885438985018947,3.048590887565358,3.730531727520913,-2.660735096482891,3.9791560938330159,-2.3654046096202085,0.48516960174235726,-3.270227856093105,1.8399217075225983,-1.0734569927122007,0.08103483853965887,1.6098856252832894,-2.046796208651103,0.5354868084486792,-2.562999408381021,-0.5037501927154808,0.9668930319232834,-2.1863364719764206,-0.0182396866996013,2.0960210655392297,-2.8033379394754345,-2.038349512526473,-0.803566075770064,-0.5366152668485784,-3.7944177719596086,-3.7555780015004407,-1.2511861656036823,2.680580770612398,1.6851147875012105,0.8478802748784089,-2.4245265890077309,1.9320664130567345,-3.2589096951929168,-1.0850261737734864,-0.8936708288546367,-2.857869756930204,-2.1730775429998889,-3.1714907621078467,-0.4374135394231493,0.37698975780139679,-2.988301415107083,-3.300768311706997,-0.6973713069266729,0.42579759386275919,-2.9092345611704797,-2.066147228542147,2.5960642244893146,3.374828558159159,3.2766378799543656,-0.4225095511691246,-0.9264862694826359,3.9995447108698416,-2.983074968723395,3.828404283292337,-1.2182943809108294,-0.9356817647856808,-0.42814855773639928,-1.3998875215939997,-0.42595395558881946,3.6335241935429396,-3.862066596172748,-1.8308695769550878,-0.6902100670172899,-1.0642843219582224,0.9876709006381015,3.9633395568421729,-0.014528479975108866,-0.8140656135029418,1.809485166220309,2.481327368006127,0.9228149910643797,-0.8419052061476775,-1.8499750035734642,2.6815558036917306,-3.363355434697791,2.5750438574805134,-3.1436776189337145,-3.26956079754886,-0.31395926259012799,3.8350973994950454,-3.850298469227422,0.6701302259213975,-0.18240915337236686,-1.8767149177501724,-2.412149417206672,-3.399166266677292,-3.0618812168391544,3.0948649500661524,-3.012188221087124,-0.27590158079800078,-1.7474717132756208,2.4574355536832295,1.2984842663107062,0.4821373361232517,-1.9368042506576809,-2.3092805577769299,-1.7233866820494104,-2.3490088062887546,-2.860839165020744,1.8162695760138075,0.1625232430322585,2.2112389134384697,2.3828024157694607,-1.602752654743526,-3.209280551152121,3.88157270095068,2.357105937933147,0.7637291161649538,3.579862886618022,-1.9223445105261848,1.9825809796343155,-2.6776358107411735,0.5650741423515164,-3.8946397108620749,-2.267958008670428,2.1650880662632376,0.619231893625412,3.852029902938419,-3.069338745595376,-1.2154672906278555,-1.553632951180763,1.8058586139286197,-3.4864676736746595,-2.088713583623772,1.6400967028402738,3.6527863813485945,1.1363732431461369,-3.7697508784995108,-0.026895195274281526,-3.1810180271520824,3.504802054858705,1.3818761305511549,-2.010804159953925,-0.6079872121196421,0.3032221285129255,-2.213854703467807,-2.2608565523812675,0.8979390116576118,-0.39658929252465727,0.3779711487039332,2.6141316030156478,-2.5084142161266227,-0.24481307258801245,-2.8344930967656039,-2.2846496068297315,2.9957928622184397,0.5144847158457999,0.8950954520202279,-2.222561641232323,-3.8374786385481718,-3.3446496707079538,-1.5525634420907737,-3.361941948699652,-0.29472422120470456,-3.492262908382239,-1.9778375140142055,-3.2704317053396867,-3.4575496872747877,3.3398498449873807,1.4633265713637159,-1.4796603744817747,1.7481485964350903,2.2580934357510555,-2.88372410743765,1.8511100413607125,-2.044903025107235,3.2834296294488007,3.6964869873660035,-1.668573786949329,3.9451105103357229,0.41580922785269527,-1.9920122464826789,0.23777331234903266,2.0923090752006558,-1.607417564284882,-1.6685164239228454,0.8799202082660802,-3.207100401278714,-3.4551129249932357,2.897429666592781,1.327724348904776,1.9170586143998865,3.1389986503031279,2.0934574642551855,0.12664869581450145,0.12180541889881802,-0.6731751241344233,-1.5601684392531512,1.9399097763450684,1.8129236267412852,3.3485888242668295,-3.9169528230190284,-3.8466944295890146,0.4191370551765994,-1.1712187772290488,-3.9279499043768908,1.5869859658526818,1.402130123971074,-0.8054247046844181,-0.16477201213891314,2.3950610065168718,-1.2457887624423199,2.8899209921368476,3.7570433297005039,3.9693509428969095,-3.814740916812579,3.9587505378454894,-2.00002172628904,-2.931732406032234,0.37345796778571396,3.9335697878253894,2.62846783973915,1.2269414186226016,-3.6082410819077408,2.448572148224682,-3.7677756920401359,-0.9849453758430462,0.042603056565426736,3.8504374198390094,-2.450673421247447,-2.36881980193865,2.0680221277895667,-0.8016717062496441,-2.642540725365926,3.8257232552919344,-1.8773360427272073,-3.960492398675438,-3.2206619414995174,3.3980543818842205,3.6443578315714859,1.2537387366042606,3.4222254690795266,-3.54832940159475,-2.64440296870141,-0.44477202252475558,-0.34794079111462308,-1.655518931773907,2.28682226609284,-0.8677950331158177,-2.8234376309413005,-1.4243362903607527,2.1160388533408724,-1.6229223980880852,2.809153018092247,-2.427712786882168,3.854525256139868,-2.916154334527336,-1.6795892610366059,-0.9644782355693184,2.5568415398841966,3.403707288987305,2.9185649442944534,-0.01370528912319724,1.3025910655775884,0.09056256655176842,-0.9376325481529795,0.4503452379145436,1.006272670483444,-1.8382233578025523,-1.8158287652355976,-1.9758454330710616,-2.943280709466733,3.8077316687198818,3.747992145354215,1.0807136740692043,3.5244903457863456,1.2338253923448753,-1.2038818697211456,1.8643637394355067,3.463558654505637,-2.4412794384757925,2.8296939452989529,-0.0940473932501309,0.2094071643099218,1.8978114679533454,-1.1819152639438154,2.899134899696665,-2.6519779518358819,2.642167749954658,3.5748536622741398,1.3379691970756254,3.862263925159003,-2.2716316324584797,2.6960188626889449,2.636757656099136,3.3673272130719624,3.1219748280154766,-3.9374942659576845,-1.2095520327943386,0.9158839847318552,-1.2203743582809675,0.20036253471133137,2.3715760213208458,-0.20444304593332864,-0.40593041434612178,1.0160568723451667,1.1866235380394948,-0.8592225285225033,-3.4473860036406105,-1.0439435267108249,1.2999088486005475,0.28109160559165327,0.32504445938505457,-1.4517226576972507,-3.7832130897860658,0.16670464043607237,-0.8512068432302213,-2.4922407698561299,-1.7910097620056869,-3.534081800393924,3.9252904648293889,-0.27370539674453467,-1.4076759217763296,-2.8997467117291286,1.8261644263037323,3.4669628921499857,1.226322565809026,0.35926635797765718,-2.57591927117703,-1.9053463408887675,-0.42607467898966946,0.3065819622338859,-2.9356806683942748,2.6716112364327495,1.5653283438914878,-0.7048895656483838,3.78849474658921,1.9739418905750848,-1.0763986675800655,1.2774628351324582,2.0293974651829025,-3.118402458923838,2.2681197945807627,0.2597382580308114,-0.03293174713793601,1.3545214444031109,-2.4356124911847649,3.047694339925055,-2.922989273213121,0.254550156847011,1.076958863628155,-2.390296016699657,3.4847899154655428,-3.678087513129899,3.9147714710704486,-2.4476609326287948,-0.6958592172702558,-1.5632507512778558,-1.1127317179659607,-2.593384572581007,-1.0959669358712204,0.9270925702543673,1.9173725364911265,-1.0194227350661665,-3.6195253380973124,-3.3306532492051428,2.703424435850474,0.4277187828092952,3.21738450410316,-1.3787924407552117,1.4041280222136488,3.477037719854443,0.8937708531033524,-2.6154924817527585,-1.163171476898352,-0.2765617594615082,-2.1956272222910746,2.696238260026239,3.138487376804952,1.242634326093289,-0.34278257975500817,-0.33781995875817918,-2.150749995319164,-2.1926351267087105,3.1174499731746447,-0.14836127021198565,-2.550968141145278,-3.1525110944971006,-1.2892615798656149,3.69240131938529,0.49418348736063147,-3.299697299415233,3.0289375184184266,-2.529599579744021,-3.6019498986950184,2.489927052802992,3.9800265665205227,-1.1031432461775648,-0.955560100447318,2.197926453591683,0.9093712899362005,2.590805282267552,3.3578599884466806,-2.4922375490123755,-1.7565006606599747,-1.4041588098526284,3.993527176566565,3.266367639477809,1.373815715673973,-0.6482604568807009,-1.0121583415133229,-1.1305518320867963,-1.7681317551419514,1.6228968143065288,-0.4167101088109497,-2.2055700063323417,1.3341012351729012,1.5664545479727839,0.08979224402083741,2.4156786849064568,-3.5255303267384958,1.5571703978960408,0.515088694688214,0.6147181866561491,-0.29084914280980969,-3.8348697916310297,1.3234933277755979,-0.09324175927178558,-3.986818298943997,2.9658042900816596,-0.778468758467719,0.5642418553953919,-3.2286713708624195,1.20222699865168,-0.8588287556416949,-3.91252413952736,-1.8343188780300588,2.172402431596569,0.1440638244795256,3.9849606398758805,-1.5675439744353055,0.4632170852391493,1.7015853729758819,0.2057276329877773,-3.1260253102268944,0.6781291580510667,3.7775235767524606,3.276602355578447,-1.4292374480195814,0.8550179699983112,-1.195265417344327,-3.2290471062107954,-1.13736994514616,2.9687271202170706,-1.2091196925396413,1.3933596453012554,2.824937283304177,0.720148413793015,-0.3427768751093174,-3.9848410199366128,-2.5045113891846029,3.618367644615982,-3.0006334049241696,0.3112008961264561,3.1871287337194884,1.002370755480137,2.9963543160919077,-0.023325787424535839,-2.1677434738099938,-0.8762579610965835,-0.028502526210092195,0.4373210073174203,-0.8995827072530434,-0.6296224654539773,2.204550672894185,2.446881735783501,-0.21550517918293878,-3.16860971445883,3.004155216827466,2.0080589701751609,-1.5317175594296638,0.977289287490068,-3.9362594964854038,2.4447084319555687,1.938428494827611,-3.2105166466157994,-0.07861680840334806,0.9006327187620986,-0.7705339080686888,1.0284431939057326,1.3905633941845324,1.8295787561965638,-2.76622901382925,-2.9606038640681495,-1.1007550957630779,1.0405171101697182,-1.8483179608075243,-3.6942820238913738,-2.1427919287610459,-0.9634672661830814,2.722419118173838,1.4721542514573667,-2.593957099204699,-3.639731110883721,3.2461680636820127,2.134652621351952,0.2527396985394619,-2.252324544897294,1.5574538721977769,-3.0132776750467489,-1.307477416458572,0.29347600175553448,-2.09661669791146,-0.04488013492023213,-3.6701316050686119,-2.3375857781036,-3.0372120094941534,-0.4703395845069567,-3.7095612701668916,3.0106769334150558,-0.9917023472805189,2.9601076905432857,1.6813483057154875,-1.8681931586000014,-1.8081442352919793,3.9511594327096288,-3.027820725784114,-1.003566210210918,2.6476757586052495,-2.361147952818488,2.2261057330407398,0.7190271733260154,-2.576536951028091,-3.010910330310681,1.1736065678000456,0.6522460459550654,0.8594006592688492,-1.508535792421284,-3.108740653668394,2.495833322064768,1.0566191087940605,1.0125093305176956,-3.0834564505034427,3.593951543742369,-1.8270710883956403,3.171346244580998,-1.053676689865149,-3.2290422608258808,3.633817777735185,2.4064073358959296,-2.1249510513656775,0.38690045253501106,-0.6211701008928789,2.4246373628520905,-2.308091082957363,3.6215093045880426,2.8241872114715216,-3.5524252527037669,3.440823122901576,-2.85171479297344,1.2447887651944348,0.8904986285515806,0.7210084057356569,-0.13174185441805243,3.110423663333032,3.2403788155165866,-2.4363030211266984,2.173184019007495,2.784157044822096,-1.427837446253923,2.05447869475394,-0.5107847391140454,-1.0215794099103315,-3.59095729322845,-0.0208146579265307,-0.8425233113486443,-1.192590394446874,3.946951431242983,-0.6048575938248675,0.6430380804072327,2.5270894175810616,-3.593446763689572,-0.33824647416957367,-1.3584207422851534,1.1858515277676567,-2.461024658060248,0.9100598031033069,-2.3800043066687399,1.860039676808638,3.5358828652122877,-3.66418863640187,-3.7357814245123768,-2.5896221968449728,1.902204145029339,-3.3938283879475099,-0.07268270099940466,-0.9155774873478642,-0.5452328945214975,0.36691402413687959,1.8116983712670046,0.6527348915139202,2.4346076959496516,2.3713283985252566,2.8846985685334038,1.053799102848541,3.7491415216047656,0.990608715341434,-2.4073746903642148,2.9247223875781156,-0.9879655551806996,0.1260983581668036,1.7770098023960515,-1.567835106683097,0.8304419230923115,0.05162690793353608,-2.909001020071404,0.145353855864788,0.9159812123931408,2.8893899464980565,-0.4918981752974716,-1.052041032762605,-2.6712649348473169,-2.7655121414985306,-3.6766980772412785,-1.456225779338469,0.38989841290191498,0.1598892113824375,3.200583621348259,0.14998488496265506,2.219266728689777,2.9271808438817654,-2.5813193186893228,-2.421782043417931,-0.8508277951409564,0.8492649318933685,0.6243450506555313,-3.040916642468715,-0.8033608791036686,-0.6440444060171446,1.914499216427008,-0.7122040657134277,-0.566527726989352,0.8476417781533314,0.3871736294564707,-1.365951379476285,0.9846382382873724,2.287007203263699,1.3233290718248166,-0.2008279149883503,1.6299283200255293,2.2012454898280149,-2.543522789534631,1.4618492678546505,-3.7714306103881425,3.207498954664093,1.6585179566089439,0.36383930050973048,-0.47982031868205957,-3.732769095527698,1.4812468420834062,-0.6413915250303608,1.2131298449379938,-2.3142696786610994,-2.350850014266923,1.1014506487121843,1.6674523461689815,1.4637395754583383,-0.39855769938579246,3.669240324664673,0.2234573042495036,-1.7951262024687287,-1.8099402991258407,-1.4591557441620689,2.6390975512162537,-3.9820191226993906,-2.9730202027818075,-1.4457621100256315,3.1117262052623388,0.8770152342765751,-3.5154553142783584,-3.2236833255218224,-3.1275805487189727,-0.7576096071865857,0.953637003085106,-2.2600493421234155,3.8146540541170328,-1.6493210259708314,-2.5283309096107287,1.505710879417527,1.10613180708504,2.106404392966409,1.4819352782954108,-1.8005588456155406,-2.968023596142257,0.5273749685323823,3.058520464470183,-3.7080346112666318,0.9953110640469429,-2.0881981067659316,-1.6870271857673756,1.1038412462925776,-0.8759783905287302,1.7015573570449068,2.2460945142728496,-2.855035721371083,-2.6749034543292726,-0.7239595923973761,-0.9593376536876497,-0.2904143117265858,3.1425992626826435,-2.266053359865669,-3.6095870441993904,-2.70766686844134,0.19435215568295484,-0.6961287551068247,0.68681125124907,-2.1119594011024969,-3.763194939173866,1.504757183009036,2.180006300136255,2.777139733619328,-3.4811880649574089,0.597111712804093,2.660357748331874,-3.7969585159492604,-0.3881995105979197,1.0915016447868489,2.5163391906037599,3.9869563447545266,3.4933857247791826,-1.4502655325288883,-2.3439825570604508,-2.818990444987719,-0.745393406031363,1.4477843138713276,0.5712180349758596,1.757866694394533,1.1642101998971688,0.6204049024461593,3.4582288268302969,1.410455643924955,0.012399157262234617,-1.0069088098489763,-1.2659963429046799,2.0504040209363127,-2.4870499776632135,2.4709892690720665,-3.7757290428101868,-2.035417767273948,-2.681841626188758,2.8035173227779488,3.4233363082059338,2.396428400223738,0.6478431079587681,-1.9141742493438994,0.7249512565081213,1.5596101029199705,-2.614996505535869,0.6346923508531317,1.2106435824017217,-0.6279661753246584,-1.2455122583786107,2.4835523210294205,-2.7146644590693009,0.30436386226257819,-2.130504001719882,-1.4126224411251754,-2.4486304624151566,-2.4055417702705848,-3.252999503821359,1.7187214200385289,0.9473533327030657,1.4514584551194406,-2.5073391747509765,-2.9068992314742587,1.079429830563842,3.332952101280946,-0.5156133716580449,-3.528195254458981,-2.1145730083536486,-0.7391101943895082,-3.416818950743071,-2.627675442644149,1.6034875495687118,1.5896254609651282,3.857410390161869,3.847035937366333,-0.8109333913264794,-3.693264801338189,-0.7388376465669067,-1.4523171281073353,-0.8729731420488294,-1.0544074791497027,0.06546715874495046,3.3683363751182826,2.2943511718561044,2.6326449408947036,-0.45286363741152249,-1.5793914296043906,1.240208284760401,-3.8515094481758389,2.691066346872546,-1.767980142213961,2.483758564906527,-2.1177438213620087,0.7449037340732785,1.0722247569937667,0.8751537046185423,-3.9666699800177964,2.281478575583587,-0.9294681827823548,3.0149786169201935,-0.61778106274417,-1.6389075218744172,-1.1191723482542742,1.078505482507456,-1.608499319519498,-2.700985578396099,-1.362131429667931,0.04431199475519332,-3.3535755560841338,-1.41084267819822,-1.226081447629677,1.027158365489381,3.2899541531939384,3.2696313645390484,-3.7009729717602397,1.0620248266075772,-2.882353622122512,-3.18934003340006,-3.958551185438461,-2.8965569120555729,-0.18061336657034933,-3.1544966981492585,-3.6831964613972705,-0.8036291016974815,-0.7933633558921125,1.5973344399890364,-1.4173941222618465,-2.4809210564717478,-0.17080383687824408,0.7569687918516017,-1.6889715871489169,-0.8711210650763837,-3.6056435824361685,2.1055214319048476,2.8190225341030086,-1.3204491803721359,2.043372691871223,3.8861163775393985,2.3210953024151266,3.6239880253909328,2.1211387343808649,3.3744998817539875,-0.4109043908311669,-3.508694620732677,0.7402907321030279,-1.7332037306067135,2.6318729304068695,-0.3525063292343218,1.4324930279914288,-3.4243904772380224,-0.12037301553089663,-1.5793509538604127,1.9801724479278296,1.0756503023134184,3.521779886507412,0.12142609938304894,1.899504956379669,2.363754816300662,-1.6050543553720332,-2.2803163993416426,-1.4037837104813578,2.8508095181652886,-0.17652080517728664,2.36490630579371,-3.757095974734103,-1.4981772465730219,-1.2860138354269318,-2.7842207492623478,2.400599843917921,3.094212480736129,-0.8115523023477476,-3.64679581008071,1.896385839881897,-1.463779063215342,-1.6011921833267975,-3.522978833989167,2.4289949273149125,-3.299171385996332,-1.4979566148262996,2.1809798822839978,-3.132804669173061,-3.522836953731767,-2.766362892287047,1.3702738710008449,-3.1435991440313195,-3.0289919491170238,-0.4575417049200299,3.411986170655916,1.3938772364611794,-1.2109190776385573,-3.545390589733306,0.6599309957042667,-0.8367574791523025,2.7820259850699546,3.934341595455008,1.3382932172456715,3.30537210622869,-1.3814896704868097,-2.9773711241261244,0.46403530123325878,0.30891780230556167,1.7984872074991794,1.534917104563399,-0.48782345639331306,1.1631543360100772,-1.6717120377262059,-3.317893890237806,-2.263242166692428,-2.4803503742569994,-1.500804093069753,-1.9802645878328074,2.898530520413714,-0.6059232658937974,1.4503770039429807,-3.6825589121073616,-0.08694064153122838,-1.8694530932281455,-3.524269598013362,-2.753931069786672,3.2496735258482838,0.062042321023364269,1.431433784641233,-2.0464246013009346,3.0716946229686856,2.7049785362129254,2.1344287150317129,2.3405621195631189,-2.823646426246323,2.6541516340079696,3.8739854452682076,-0.4050833712232409,-1.2633089261334627,2.7243149452389519,-0.5758376983535973,2.5555587284459717,-0.8175108221975498,-0.3655013246105481,0.8757700570656049,-2.1883783771101896,-1.690861949208719,-0.45134185324570988,0.9287131057519789,1.9694497877197908,3.617138526131286,3.6668440518752947,-3.9810580320632287,-0.08128896969736643,3.2952922056946996,-2.822768257266082,-2.671332849646581,-3.94785510885841,-1.108085840203698,-0.5615802712329663,2.686722137916198,-0.9113524835582927,0.9022250506073384,1.5569553452964753,-2.2340959495131775,-0.2526188426001694,0.11136229647910323,2.801289179535681,2.736232343675602,0.6570670512256127,-2.9012777843141706,2.3775815023870274,-2.9797046675972469,2.0066807430654807,-3.432614759367717,-3.8734714459904344,-1.1507364560947196,1.4941674004787773,3.3752332755545177,-0.333058444759204,-3.260794123053474,-2.1552934432232337,-1.2738341148028297,3.128012527733686,-1.9009628439942555,2.0087529867471005,0.17674860218219202,1.7442456989233089,-1.520253393119351,1.0972475519749079,2.9116606360901287,1.1109884344215964,-1.6231569628142664,-1.6209254917919616,1.529000345615958,-3.1015128361866397,-2.2203642388045798,-0.8717951562918911,-2.15362599178596,0.8644718055315339,-0.953336796084554,-3.3060421742086767,0.8365014358607832,3.647311528963554,1.2414378344994806,2.3178088712601054,0.09905971822772664,2.918063029510521,1.0486865050966606,3.6792767785889186,1.8021180233463597,3.272299761452949,-0.41020949706444456,2.5887004218922646,-0.7639966881108711,3.197669227927091,3.3846577059540525,1.7425498833905318,-2.3261854696781079,-3.415466897179985,2.7986774701278929,-3.4758283870939259,-0.12372192969661788,-0.6870299591470326,-0.22792043799475104,-2.219058836773531,3.343545317747484,0.11327789241964137,1.312091480003799,-3.4791939113281176,1.7846922060160067,1.6601285558690436,0.7965705978506348,3.671650649377333,-3.6449560902680977,-3.9954232059261249,-2.549954767475641,3.1941310710428194,-3.843502840328922,-3.992810005571977,-2.1297473670778466,-2.2517655990058857,2.720764960801331,0.26572074624017097,-3.2031580419172087,2.2515529903866886,3.2035533327573217,-0.06663384582597609,3.165815811437369,-3.3994229179034596,3.1424439033630504,3.009182568893314,-2.1782031011435185,-2.1954950047524726,2.045676612534125,1.5165735307599287,-2.653359442487229,3.947504414257244,3.096885883901092,3.63293154123057,-1.7217965463022287,-2.0065097610175934,0.32694450617145956,-2.3562064525555028,1.7864860185318135,1.1712976564698679,-2.2248175538042318,-2.3522397335452416,-1.9640730914766296,-3.0869274896783045,0.7232067664386479,3.684138067844488,-0.09300432378691626,3.4254637823115239,-2.131597469128339,-1.8486433603056539,1.0612277294241164,3.117192636082949,-1.8766364983419104,1.8136692034595843,0.06573504959963383,-1.3898397636062508,2.6310403554009049,-2.698146579884771,3.0494389674701116,2.328623181201105,3.9133854411492674,-1.3480492937222002,-2.2495393443991924,1.6464103320906345,-2.732506740156678,-3.788812304912306,3.814229674673604,0.4221327546492546,-0.14519262244488097,-0.1457713455417904,2.8181312089711838,0.26236007077469206,0.5573660911022174,-1.17420185854623,-1.9220475104266708,-3.6356773881291186,-0.00689265033937847,-0.04729915347771274,-0.373389306605735,-3.9068457984551507,0.2977449525275597,0.37335527954304928,1.4668789608666347,3.5605286993992619,-1.6213654504816673,-2.6069412607387987,3.0369610463311709,2.81593516367795,-3.342171506013795,1.0244693418213747,-3.2218504312913129,-0.7621992736668319,1.0617413689207603,-3.8138562870767478,-3.3260551441204919,0.3642402192920331,3.251448314263894,-3.2761608220866647,1.6221043078137605,-2.77887815823665,-1.6603145540009843,0.6415317895466632,-1.6891149847077747,3.396930066840386,-1.4874253963683105,1.4346119097157493,0.19993150671555605,0.0322957044166996,3.0906976686360458,-3.3080987681399058,-0.667103980551847,-0.947714933137406,-0.5736616744983625,-3.9614793153348257,-3.816224051401667,3.245304101323101,-1.3114626225099076,3.670778050008521,-2.417862971521883,0.8881181767395736,3.835731473707253,0.33293686494563437,2.709765024801685,1.5951188672142225,-1.1476066937159484,1.0004614968930677,0.5005871418666708,-2.2919428046417966,0.914839353395279,-0.11682492936036737,-2.5406509173256817,2.072779423087633,-0.03023475998195302,0.29077826322157387,-2.476879990379275,0.33749375184337718,-3.963646291865029,-2.02645366030219,-2.2269663947888,3.237166735940205,1.257450013964819,2.902425348523681,0.8064896390065393,-3.052185748394934,3.8764915430098076,3.4319414784488178,1.5714376070868568,0.5275869488755518,-1.2061745192136409,3.7205972542234697,-0.5399090402816462,-1.2810250361593872,3.4692671102203276,2.2279019199892087,-3.409689981981952,-3.5721789599007849,-2.0896724803258595,2.6481654142934145,0.88081706361318,-0.6267452992395297,2.3632484346528868,-2.903047220081019,-3.9921871758704654,-1.7640491832528296,-3.3386299200373914,1.6065973926975659,-1.0799456981083873,3.9331005938432419,-3.9726782296061406,1.2654785023920264,0.40397950431545678,1.1117599152990279,2.8152083757247348,3.7216041087252536,3.0230816033497436,-1.2166116046686873,-1.0959656475539397,-1.6752282648525113,-0.4937586003437332,3.0772658824632899,3.985039513092327,2.3170801593876164,3.5543484972163705,2.405447580949672,0.9360500767043755,2.3804426979059349,-2.506013348540356,-1.7793996393775534,-3.624867878862846,2.6803140538759786,2.9385496262393189,0.5066422988531131,-1.740095391242795,3.7745776281934315,3.355013335044061,-2.6195211024868558,-1.3209638092803114,3.059955851074258,1.6356278114293444,3.7928215075931615,-1.7228735102777567,0.7570041931163795,-0.11679838517773525,1.1215958681889929,2.4254450794879705,3.5302383761196398,1.1443506700042135,-3.080489520641992,0.8338349816739211,3.185937510032019,-2.9351501074893635,-1.2886504186613266,1.2834197021390963,-2.0028878324494556,3.8183198525873665,3.244524384364394,-2.2352286543972816,-2.362193708082227,3.694356905224708,3.4594852867715355,-0.9567170335030952,3.2185087741475919,-0.801754927889173,2.3373522233612729,-2.2699370028461609,-1.0097516862690193,1.7722276647347415,-2.0297034055394485,-2.547934974077256,-3.737340417576329,-1.3713335630032533,-0.5653193531732832,3.4950223000989,2.441936537176441,3.4132564186120435,1.2423412347900814,-1.018452974412304,-2.484941786481668,0.12387657862451038,-2.566485501419295,-0.3346088098323607,3.4978649313190979,-2.201168312457808,3.2464165904280568,1.3217521489667408,-2.955860760139993,3.4343685445979315,2.6640827701548819,3.4281090944494156,-3.1932694376036765,0.04490083448432795,-3.076565377841231,-3.3005046194617417,2.7075465069679867,-2.4451169301427826,-1.2646943163278187,0.7932902848912502,-1.8824914852635002,2.6376947434227935,0.19341721720682004,-3.655717071378562,-0.2881964233125371,2.637860210696143,2.3226740678224599,-1.8757781872915114,-2.6459085728185789,-1.4382319889591136,2.4158975690096899,0.8539902773936072,2.1713605543223695,-3.7718966689070729,-1.2928436435724138,0.9699460041665177,-0.2393218997977004,0.9938006934891164,-0.8297724013956431,0.1838228114261884,0.5527984391683674,0.6184505025104571,3.8069586191460318,-2.8106119941343525,-0.9623784511406076,0.05078125853376662,3.1385076965608085,1.053179799108867,-1.0003396780472967,0.8705055072705182,-3.4849484098443748,-1.0132022174113929,-1.7522184286813858,0.6055956238867132,1.0953260998568997,1.1520622593821977,-2.888628584636427,-1.9694397493508818,-2.730184854331951,-2.5652227251018449,3.0734550597831826,-0.23886597117728543,1.0905386065764489,-3.820095015207337,2.7060576112162408,1.9822598110208596,-1.3178135406173198,0.9426078067968829,3.685292144314954,2.483002370096726,2.6841858837863907,-2.5546167241921644,0.8748810899974985,-1.6691708835102542,-2.9724181933493316,1.0022996182913018,0.45975732068260236,1.8422830415953826,3.166619417118592,-0.5016688420485892,0.01299628630325878,0.23087135339997773,-3.4726740080137854,-0.704187474104165,3.196715344326551,0.30349761279991796,1.4381859367381376,-2.895517252166274,2.8172088463595865,1.4014532151787585,2.0832392189888426,1.0097985578665705,-0.771427281943612,2.2702256825895339,3.201159396479354,-1.253937050768281,-3.3559588076781714,-4.1887076955294149,-1.4538729580330215,-0.26777376888930856,-3.6955857099670759,0.24101977062841963,-0.4279579209416953,-2.095925271674976,-3.176929188989879,1.1505632394129182,-1.6813406704504897,1.790084607939762,-0.7164818457653307,-3.7750511461085507,-1.7763078786778713,-0.9457100758043094,3.9147965856570869,-2.7759958972587528,2.6431243073859895,0.9009133163515561,1.9262972926749807,3.2946201929703724,2.8331930552616746,1.4503654937372262,1.3558302664028455,-2.438855152357463,0.19003156725505208,1.0359767107696166,0.023022556560001404,-1.319005083595668,1.6049821361084807,1.1562208508688479,2.982858507016832,-1.0188344743173766,-2.3151954377289725,1.319735215788439,-4.056942177394526,-2.653362748354546,-0.5421771613845001,2.4486501505366338,0.20486424710833366,-3.715575882135479,-1.8775622112664219,4.149923171043598,-1.2955639408245999,-1.6354947082471514,1.7370017330598593,-0.11068966405104536,-0.6107250232913464,3.6709791016455277,-0.622047077728774,-2.6597317771255937,-0.9083674693146886,-2.6335324739670407,0.28994120974190309,-1.644945054561956,-2.199380521225904,1.5674544886515725,1.6684336419165762,1.3614142447038347,1.8694145528479727,1.8873738871234123,0.7726768165894046,-3.370278710264223,-1.3204865340605286,-4.108837563301135,2.1231831861584165,0.9165461113857808,1.5747175824002285,2.3949592134634885,1.149981981057789,0.10966770620862712,-1.1777382828723558,1.0227366347957643,1.0039665934560685,2.8443777891954826,-3.2755447230896,-3.1900245164911169,-1.9351102148429583,1.3769462992816904,3.9718133761151508,2.1857646013144107,0.6772937154841174,-0.14528778242439109,-2.884800140790376,-2.9998026460213556,2.025747527370159,0.8438524825606719,-0.5941611996939701,0.9230691844423616,1.5502243741539615,-3.9928359937673498,3.6357415284502068,-3.773989671233466,-1.6734352049314996,2.526258330484317,3.700388208856272,-3.4136071367657769,-0.9027913092392023,3.6236525117924,-2.2409671548577205,2.490039132660785,-1.8600775128848713,-0.8556378635110905,-1.0171113791916263,1.4864100425173026,-1.2112565228194028,-0.041731038921297727,0.9179836924036429,0.5836735201581819,0.8677493856192468,-1.8498598741836193,4.035040342629733,0.10121258409923711,-1.1532870386330457,-1.3973852641436309,0.776646786829488,1.8273164648530894,-0.7889627162147511,0.08230541405880859,-2.852449325405747,3.1670557449505427,-1.1332194740873658,2.6626373460730865,1.176092568915103,3.959580169055996,0.10848079242158328,-2.7365004896960007,-2.3640628049436489,-1.9497284992331956,2.242942356328955,-2.750931318541179,-1.7211051035034375,0.733517907602147,0.3261663904507491,-2.752030548772796,-0.27490075606365946,0.36490747507107165,0.6093308414387565,-0.7117406985622393,-1.5112333803166869,1.6203875235506765,-2.2858308296297844,-1.2369535538190602,-3.6481566091411845,3.9005032235643046,3.5478260797958249,-0.8975003220015768,1.3449273017633239,1.436425225720733,3.485290553320682,2.933743377870778,3.4125088919970989,-1.9464149207631354,-1.0231165953277058,3.0342526282018476,0.941078084461472,1.0221540569699113,3.753150636285722,3.330461102651141,4.169270452322219,2.21669469608236,2.9499484692848516,-3.4485680633008064,1.3125837955958322,-0.5719362706284349,3.8295141169648256,-1.756761776081983,-1.3883448605672562,-0.8818681019642596,2.688279383704059,-0.3843308496995952,0.046131112617204168,-2.4619875179079524,0.947368764834864,-1.5419963627133895,-2.5404096138913268,-3.166630982296752,-1.1466461312650545,2.531666984535113,1.6440693925105996,-0.03221214980800925,-2.1171421753335277,-1.9724935576703149,-2.4840652743115325,-3.206506853280602,-1.493440957488977,-3.603868823603948,0.3140551631502748,0.8876506966362872,3.0706667450890747,3.9032994174771584,1.6826676999453656,-3.4396581682114757,-0.8243124785318398,-0.45870805573716708,-3.3819448131937097,-1.9296019215853629,2.7673954607620434,1.7270965458001147,3.7695565967897255,-3.6264013562213295,2.7779585404965307,2.639788860715159,3.4439702594785874,1.2448885645605199,1.6167627431315573,0.01979607469516797,-1.4213315553889945,-1.4487475798529846,-3.579600700156326,1.8583882639129097,2.6074241532466688,-4.022947170253487,3.356233485015124,-0.31425242207515688,-2.3522666453749405,0.9802074747575906,-0.8353819608711941,2.2158972460722174,3.7199324840226648,3.255963500220435,-3.7330869878454866,-3.6470769316141595,-2.3436190489681509,3.8960063726657028,-2.7522523374690417,3.8829273231164036,-3.5290564235463046,2.4811170046731747,3.2436650227839034,2.258504747588573,-1.849615518540699,-0.0461557877747806,2.9184088501824756,-1.8670752444435357,-1.298639577881301,1.5530866263860046,-0.634382432994872,-0.40206832773965409,-3.2526611065500705,-1.3236769892476737,-3.583124837540562,1.3144800829624149,0.5135240080354532,1.4969992676398139,-3.0132932025799938,2.624627611603752,-3.5799088972754595,2.8070668282762316,0.9297414558549463,-0.5019216423070584,3.710460361585014,1.0500674929643393,-3.779068969577958,0.9063885520280587,-3.4477879404757556,-2.1752448548647309,3.6129988685455114,0.4427593461672334,-1.398097305409369,-0.6548364382503887,2.645269146968816,-0.7793760149891921,-2.7081820777512308,-2.9461693470376488,0.4986159531979775,-1.470458770470852,0.9656227071481904,-0.9302570441373208,2.021133861089883,-1.185275779374221,-0.6715981463248634,3.3947603744161305,1.388094832724915,3.185287587198711,0.697764647273992,0.004080448106537846,-0.43199320629512708,-0.6830973939401265,3.129690629904918,1.7213478074748879,2.5777531861243534,1.8301808834050959,2.7945911901461728,3.5562068701401037,0.190394694751171,-3.6216154882604014,-3.3167878974527755,-0.8087988522782583,3.6027066453347555,0.8840996661606749,2.2909125754284016,-3.9552351012728588,0.04041815229608398,-2.1978431256449535,3.575962185825442,3.719468838349752,-3.0566229260910746,1.4344764618838042,0.5114760512959476,-1.5984964463709402,-0.41907785376802406,2.6824752064506267,3.5999660960202868,-3.4913615144918999,-2.120683679672158,3.585029047214556,-2.8286771439538085,-2.205583710555777,3.0144449849649908,0.38544877297704696,2.1660547432745855,-3.2514511617145764,0.11352690897512397,-1.0663869840515568,1.7757840155556764,-3.133132705667983,-1.6977723770244542,-0.17842879193637874,1.9083437961125896,2.216689058667545,-0.3767461305789116,-2.036682026832525,-0.8975637152205058,1.8415262517748657,3.1993769491524195,-3.9906906986864327,2.885655231813458,1.9548867370411177,-1.9643629588512719,-3.9014315091449798,-3.70078253407585,-3.3236166707343814,-0.5107660211935903,-0.834865795289817,2.3300883601051076,0.39769273661808948,-2.402037413847589,-0.8208950717895761,-3.9405425054994307,2.9241234476835857,2.4984914904039545,-3.9335491164904,0.5517428185243322,3.2053457972975285,1.5372159434413167,3.115341091759309,-0.8479208709533694,-1.7681646086810646,-1.3846422703497992,-1.5332746238837983,-2.672706915625825,-2.4433609531090445,1.8061575343346097,-2.4211419852423234,0.9788431676413943,2.125112350968459,3.3370100957844177,1.4953604520233704,1.2959467685762243,-1.2581464716827644,-3.813742753024412,3.7197995785553137,-0.5062880593649514,1.2615460814338,-1.5402308048443743,3.737227549187269,2.881597010790102,0.15628786029442844,3.8368751747491367,2.955725612895291,-3.362206980972425,-3.1231334719431547,1.4358854239739567,-2.105277243266132,-3.5023803749344846,1.1796510217771104,-1.243596757241351,-0.8206735976653773,-3.8704485754316395,-1.9873682807238958,3.6039290708678886,2.336661367143028,-2.109258809019191,3.4076526838691798,-3.9508945390133585,-1.2769768015806924,-0.6255018904848767,-3.0149225149434715,-3.3509346159533019,0.9413138907471709,1.944475091019277,1.6475742384504002,1.6367728917938172,0.014992782903695258,0.19026647677872453,-0.10825208174534382,-2.556422739649493,-0.7056189415764699,3.744782858529661,0.3745686223599615,0.15871864363922423,3.8865945383256026,0.878620733202784,1.140773933528612,1.2005885839074287,0.6354684470436641,-2.6684271790415368,1.3716073952935642,-3.770161256906247,2.7313642451099917,2.280118821126394,-3.247223009958477,3.3063039308152497,2.7923717940787387,2.807119802741545,2.767071607888665,3.9651834378286168,-1.145558180088061,-1.9593900138556376,1.5133201684904326,-1.3132057536554658,-0.17100455854813249,-3.8119864876112365,2.6504556709058688,-2.065240957691066,1.6738644445249456,-0.19306440859012292,-1.762731095822131,2.3735294895834007,3.554151688093509,-0.7805127143654758,0.5039948401643611,1.2279743069725029,-1.3799356840491322,-3.4073700927613959,-0.6070331553101581,-3.569793415478964,3.8355169715076968,1.8001425401521665,-1.300263207443229,-0.5836457723436478,1.3565389002829247,-0.104567224820534,-2.096893673466239,-3.6119815294859269,-3.1709865835857959,3.5887781765169084,3.7468845220864046,2.8256506248952837,-0.4427933698399836,3.5410146760383904,1.3583973229745679,-0.6198516223528884,2.1355891693155706,-0.18670057031401267,-1.3741014404957526,-0.5894916987265856,2.172360761189778,3.1694938495156497,-1.9455436855521927,-2.4763401632356936,-1.6363165989613276,-1.8812595006571547,0.04514774494092219,3.7690039628225207,1.633564515547092,3.221749964028538,1.0029330774437706,1.7129667456672142,1.2029927472988078,3.405549119709813,-0.9820918781787744,3.0482526394892277,1.1085013058559806,-2.804428805977505,-0.4123897695542331,3.5876132292494988,-2.748821606811336,2.723267764334431,-1.8188892344275836,-1.8959018267872266,1.6848087954991629,-0.09084225287096626,0.1164082010477614,2.945743442993492,-2.548612485055541,-2.7896080543529866,0.9081141926252192,2.8052633515194866,-0.14952782529869158,-3.790581265592449,-2.47655700221073,0.6097120241489318,-0.7995937323914679,-0.8261877283270724,2.526468737313163,-3.9035309710245986,-2.559715470895653,-3.5416954454522004,-1.4794597457063488,2.657857617745008,1.6608376586507748,2.915665519434352,-0.6512306113023809,3.440333111864277,-1.2457418358654434,2.6213953628685999,-3.6847031834062307,-1.6069290930337257,-0.6873469897605631,-1.6404165741949966,3.597782395484801,2.0011421034110299,-0.8208062639665155,-3.373205502768709,-3.7598453690635216,-0.1536075645893833,3.511191788050885,-3.2788002598186667,-1.8919224234932879,3.8799994910119226,1.309172683739531,-0.1417578884192583,0.703806044663752,-2.9693932048308406,-0.5224115877781692,0.7797808244286992,1.6978857817344678,0.5694179507179467,3.9881657159357886,-2.6573306960943885,0.5155665632654367,-2.4199728463066565,-0.3522208370667348,-0.1443859326288417,-1.4499785890466067,-3.694432932233237,-2.43727854228017,1.672911187183713,-2.521067924831022,3.5082218173284698,-0.9782340865394466,-0.5461934739665413,-0.016716123667395168,-2.593232771895572,-2.279184599691531,-1.3177639982379484,-3.1254623380283759,0.38970518695195457,2.166157128422663,1.7383357366341655,2.5788013644679994,-0.2041345899388991,2.648078719185449,2.710562780228031,-1.7623798074672619,2.1672302798592835,-2.6579468835604036,-1.6842679308350848,-2.1514771412360957,-2.3169125117273348,0.17570702385129345,-0.8732104354297177,-2.7000793277841845,2.596377326934901,-1.179626758737701,2.535277694094856,-0.6201315523354405,1.6301002901782474,0.2742102376714515,2.8699200441227257,0.6911439851939516,2.393283483990201,1.159017165666631,-2.7411401782077888,1.5036925408506053,-0.7636296806253542,-1.1853885654593397,-1.6412601182813634,-1.38740443930879,-2.0482567214554017,-2.297843938436616,-3.899975838184881,-3.1412459737485385,0.7274348364701337,-3.3591433419957577,1.896711869777869,0.5656181657285746,-3.469363047218434,-0.5418545561904276,0.4255053890890421,-2.937044388023244,2.1935277127661418,-1.5774615394928163,-2.017887013266554,3.3574281759402879,-2.324402345299119,3.850649088441668,-3.6080689049054799,2.0377685816027935,3.7933060970885217,-0.0987280967060451,-3.876130698597744,-2.5972368128476459,0.5188996572655489,-0.817554942811437,0.3585496425955377,-2.7953107440986608,-0.7625143369369143,2.2751425518252876,-0.560967735419502,0.6424014535376896,-1.109903217785888,-1.853007329101751,3.022608643174599,-2.5943268096429437,-0.7712056955895361,-1.3681505013754488,3.0124208535202268,0.7547283081845642,1.2100884595158617,3.907102948962624,1.6945800783805512,-0.14654663800095503,1.4845232979413715,0.6360861030661535,-2.6087425264607164,1.7956989794838832,-3.4517353796825445,-3.818228062230812,3.542431621170075,0.7210424304719743,3.1386776595336327,-1.6773829039255757,-2.7353196106659505,1.726158898114143,-0.7306139589503378,-3.6132312557740287,1.7134881369380369,-0.3618116335081256,-2.677897142994535,-1.5365463229064043,3.7757335835926026,2.545746674338205,1.512641199870565,-0.19008390830074885,1.1067661260986528,-0.17773326849159488,-0.48101054195863837,-3.9354018125651164,-1.4141128392143419,-1.0251222886429792,0.9040498927438145,3.9882036952307367,-0.5606493495548346,1.269095015144762,-3.6832466675206474,-2.438887653996593,-1.0388526514254784,3.6855223207782608,-3.991408196138421,-2.1531817301409648,0.5297254856083411,-0.3775426791560843,-2.40580118622871,-1.3783328301118783,-2.847016509608191,3.9280929933095969,-1.9231741827903569,0.06725257662776407,0.3896795111071887,-1.3468866193138925,3.8831259678430758,1.3023509815644428,3.4484024628340936,-2.3625176028346486,0.32773288483838317,3.9726655711800289,-1.2072063478701774,3.55807738058195,2.3462600025333328,-1.1430618931405457,-1.672009664148863,0.7705242649641546,-2.568062224327866,2.234276552823955,2.5358984284473298,3.820750463280624,2.782743834570594,1.621117874428812,-3.6570093295882648,2.9530016279831354,0.10346829091313215,1.9375184692161494,-0.27522004273914849,3.271835673781495,-0.5501212487610874,-0.9395945070552758,-1.1415269411441234,0.907633660258659,-3.366579680745807,-2.7417764299484768,1.2689248450881526,-0.21799225331537842,-1.5772320518059138,1.9487809808354069,0.6178696662976293,2.4250904485929567,-1.181081515987481,-0.9389544735159472,2.7815408505445289,-1.4231461376561206,-1.5011033635157843,2.21697252769021,3.0746004310938677,-2.4918975779833447,-2.5658311276608298,-3.470119455901796,-0.6759039557201734,-0.6492035988724778,3.9485450705137214,2.052210020179066,1.0989987488512974,0.49331542148761278,1.1406539516983197,-2.93962292114034,-3.1765705149756595,-0.08694795933118638,0.5643117359053482,0.8054076372997985,-2.6098163466563788,-2.1563155560701166,-1.1014021336316858,-2.784885350041224,-0.4988024473665115,3.733224818150911,2.4272132842699869,-3.0631497121663959,0.2853448942578346,0.886846256490855,0.6546603260027591,-0.7031998885050848,-1.9172628393162477,2.4360001491551417,-1.5716908941908779,-3.056700493554634,1.6726237948666776,2.8771891664282296,2.810614809532719,3.7272510996191698,2.3170691852339297,1.9427113156392742,2.901999986826451,-0.3506420423464492,-3.1131387126904834,-1.40920837420318,1.2978274887297097,-2.291059679757362,-1.1658953182692296,1.369628463840076,-1.2992259401428093,0.5491926059218272,0.14880867836917734,3.185732618490938,1.3069631033128156,0.6346451530853869,0.09101795234292079,1.2952447469374989,-0.19363029711704797,3.6973631514227365,0.64209632645339,-3.4755758423329774,1.6060628919197373,-2.5928875836436897,-2.8930927531975234,-0.4464590743552147,-3.842710828090118,1.9652280026838709,2.994658392005832,-3.079913282929752,-2.1029976988276055,2.4576400905111237,-0.5231259503014502,0.23842817662690697,-2.6745858005104394,3.05397005165244,-3.7667100388565717,-1.5273322740562199,2.045399252620548,-2.951499852181622,-0.965889307864119,1.710909786381303,2.102362893524783,0.6455786373980987,-3.009636294179386,-0.7665023569786106,1.7211570112082233,-1.9764795022951616,1.7620824985200272,-1.01675602662647,2.3193780629359308,-3.7125453887793,3.9129172667555767,-0.3530600594021349,-3.4704788138075965,-1.660588472480938,0.8838686253591487,3.145716240971075,-0.6534015912684971,2.1423562819804897,-3.51780646855885,-3.7774767841393825,2.6846343330555637,-1.907663361950647,-0.5934036428262073,-1.0175930337842288,2.1060007145127987,3.437925817102508,-2.6661462979929859,1.2998506412618288,0.2381296498413489,2.6313835036160886,3.403330562782796,-0.4942983325834919,0.5005564736892596,3.5508280145131509,-2.3207623440332365,-3.6016121778527308,-2.906531483414037,-0.6995529530736243,-0.7692566765373184,1.150060656165746,-0.9040508998201993,-0.12508081221616569,0.20146165735706185,-1.4319556909567444,-1.5566178168565426,1.053637921968682,2.9637980282233218,-3.6857011563582624,0.06664968124157221,-2.9936606324705257,-1.5965582280154516,-2.3691060057452746,-2.019327970038911,1.0468772152659037,2.2566610663635378,3.0084789765744719,-3.8892209643317838,3.9225219349762128,3.583573823197717,-3.2346859091266069,-3.799526639756314,-0.4375578330661445,3.5086364841494515,0.9190435185232422,1.7218076659316775,-2.99553712887367,-0.8048075338130469,-1.1195579695799572,0.8451755471455005,-3.4988416668140944,-3.166053714308464,-3.0937230904154395,-0.42956929098560067,3.8651582359031897,-0.351753019345146,-0.08812988570408954,1.4936106923688406,2.9429655991171366,0.6544361320849248,2.2762273599306419,-2.064722849630453,0.39256527856494247,0.8222395689404619,-0.3769460606428344,0.5934127866151582,3.934869580404142,-1.9352510430626684,-0.43468467403050239,-3.9860915406378156,0.6100885603194679,2.1614293388264009,-2.285706287665489,0.4193387836249701,-3.4437769470992225,2.330916220403273,-1.3317747368470366,1.740469905311731,-2.847176611677673,-3.613135362031268,3.5938705876024508,-2.7579542765056259,2.2894774615057345,-0.10876807936372426,-1.6111159584939239,-0.9700546220400526,0.6359930422944178,-1.592160598699455,-2.1225758788026076,1.788765257187738,-1.2380844742801909,1.5971414802079723,3.454464966435592,2.425018680391581,3.7718307888143829,2.0370055353555949,3.985794364510799,1.5069882255983072,0.026346501825556195,0.5316561058588155,-3.7061781720640858,-0.8779482567768979,-2.6181396825718927,1.9595561680017695,1.0216555598749076,-0.3552762328924044,-3.720725203388346,1.175027426934317,-1.561258130396771,-0.11965959110185598,1.1076057488898286,-1.6127635912313805,-1.0187888206510836,2.975570391663703,0.7072886813932777,-3.7562225336917809,0.09735352195422294,-1.5799911864871215,-1.428203930791205,-1.2242792983499667,-0.24557190122544207,0.20630699629510694,2.5316561700972386,-3.3091476942567596,1.8513948448076366,-1.0939350968916387,3.2693668248505269,-2.082105448242417,-3.199346726106679,-3.1414743485574534,-2.6969188397945498,3.5642419256715009,-2.1069955726390017,-0.5615575182323133,-2.900876031930143,-3.232238265486341,-0.6752554146936872,-3.521675577878137,3.2913170179342976,0.5762119095376255,-1.7056921615094958,-3.0696546163595515,3.384951019740349,-1.2576698249834535,-2.434166286601477,0.8843641086650581,-2.4095346308210479,0.8925696487920093,-0.9115281800900404,1.6471953034977747,1.9736513636412696,-1.5755231469990428,-1.112900137044007,0.7924420685895298,3.0983711680712169,-3.9576003798351317,-3.5052886334105879,2.1371140034374087,-3.398225147639005,-1.4102623425227239,3.31420703647572,-0.9089661826277026,0.31298594384608927,3.5421216732853968,0.3769367943338652,0.7766888491928715,-0.7012003245913226,0.9376757324031358,1.5632548786095704,0.4815431084466837,1.864985605968709,-0.6742926253774161,3.993920197852918,2.0852237642159374,3.2341001537756757,1.4590298476949375,1.101962996864727,-0.5925542826128607,2.4683463784009467,-1.1976918170248626,0.5964465229405453,2.335858863768057,-1.4822879305243009,-1.72174925818066,-2.76508513719763,-2.8993691786947055,-3.693329229910476,-3.008279731805124,2.7519851389010867,0.746655036032652,-3.853795153204631,3.5308436446089148,-3.3656526328250075,1.978875926298703,-0.4252398755869715,3.8355531405863685,-2.8026661243599575,-2.2782138129947926,1.2326727346214704,-3.8021223287676477,-0.8759655538311295,1.119246133959388,-3.8647784760427887,2.899209511018131,-2.6156325325914127,-1.5541946722776599,-1.3939154957933638,-3.2099817718117906,1.7304901300306286,3.1511048903925245,-1.9600740059974554,-3.9568104175443006,2.9457977959357066,-1.6043778995669327,1.0366679387326184,0.19923014824950159,-2.807649835831235,1.5281737303410035,-2.0500668633693914,0.32276364630420498,1.6636852372363223,2.8819719834302495,3.8635826178215124,-1.589851864598668,-0.6760881995864201,-1.4581562239713444,-2.2354834358249429,-1.699795569774044,-2.057878915960168,-3.7599078826675198,1.0415735152136883,1.173723711758841,-1.8128583753604846,1.5253828409351967,-3.428862032772077,-2.6167996145189926,-0.3232523969106911,-1.4301010588802648,-0.7680490638836603,3.160544149601833,-0.8609680090892047,-2.872070690376339,1.4728260226907546,3.2872029240804094,0.8257957308317563,1.8745640973254894,2.277326760770989,1.8244957030084477,-1.488862891392838,-3.742887386081871,-3.2792869225659455,-1.0437089077121034,-2.714621003754008,1.249587085963526,1.9433701593525852,0.9527429534739795,-3.325107757554827,0.7627393208180786,3.4282861635165879,0.9073264623458321,-2.8796267894535516,-0.3534586475330348,0.3166419557988629,3.018833655242916,1.97366432025449,-2.846861677233692,-2.1980004879416707,-1.8366860301231099,2.5310318430263596,2.052216503109274,2.380629492974604,3.245257373176405,1.535464445221411,2.750663499801031,0.356059469729062,3.3121033290679229,3.6244554023725774,-1.7605554932064445,-1.56726065568283,-1.25789834542832,-1.0598894234219528,3.797591250907022,3.4591483746798517,-3.80662288233773,-1.6757256803771253,2.6537897304250119,-2.662381989067888,-1.7667770119723505,-2.540715471811154,3.4530517891222747,-3.5036917804972065,2.357929667827678,1.9775355643927047,0.34453609170385848,1.0978001138720855,-1.3344638423624813,1.677320303646014,-2.599721331916811,-1.1918087796685913,2.1765763292238917,-2.3697247135437875,1.747276355749955,-1.0714904707332916,1.5993884257820097,2.996883967942466,3.9609183307369886,-0.9017004615492709,1.1423416006391119,0.9638887359261287,-3.503234741168989,-3.7273928968692129,-2.8998921213271879,-3.8072989726105654,3.6966815674330837,-0.25248074427451869,-0.8407315255196686,0.04699152209968955,-1.633785524372181,1.7988962641694407,3.8878272989438686,-2.8855003213713608,-2.8006702857351017,-1.2409567388013483,0.6632181103194328,1.0115335892801838,1.5793867785038099,0.6390626969564709,3.1526389419002665,0.22170455978115373,2.1269578903369066,-3.463676195332395,-2.2999275942002566,0.6117096259673498,-0.10164440105863573,-2.6903799321543566,-0.5021549267177328,0.08444554357242668,-1.0550236424259086,-3.7506551770366745,-1.0628294300195683,-3.9524774584095194,0.6641355444289687,-2.008485174239316,2.3120501498640677,-1.5416199614241724,-2.935857994568641,-3.6920562597082275,3.9307797614413526,-0.6304344462929582,1.101627930891464,1.4120083057845752,-3.2836707720813638,0.9956954100174204,2.523205327412765,-3.8589038110237516,0.41140073760181619,0.9554637398630622,2.646568014730856,0.5663856435728931,0.4985960582651008,-0.645978627621524,0.3949504550304984,1.5627817323770042,3.6191023758244835,-2.670447788254478,3.251554987025757,-3.539227239244531,2.448397005625967,2.385159122267058,-2.2000538821318518,0.5562725886430316,-1.932126278843549,-2.918759557968332,-1.4652315792360507,-0.493155529528967,-3.370288245055314,1.9830438596792648,0.8649638919393027,1.4359182678939858,-4.011671386072204,-0.9801072985250278,-2.9593656772148675,3.662178378914248,-2.0415912876860027,2.205163426126268,2.589147743308561,0.15329160557052003,-3.8944841242007595,0.5071205193317961,2.7371900830300577,1.179142354318212,-2.7560467573501348,1.3949640918951938,-3.9478392822195125,-0.33951213326334619,-1.4951171421653434,1.5588946050305484,1.1389244554125564,2.7098798815430964,-1.9050490583563074,3.500838453584106,1.2416924278010642,2.319474522414485,-1.007134549480633,2.6049458375094014,0.8850112265528808,-3.9906195049254564,-1.9991077759995644,2.3486989194081349,2.7730436146965995,-0.06415057275759159,-0.7269350098499208,-2.5607734739560477,1.5343178879225277,1.2849876115141244,-3.000467345125282,1.0636202276728378,-0.4616692079855564,0.4093986384905267,1.66290944055238,-2.8019366555822224,3.611168569330421,-4.025572214104004,-2.076663241586888,-2.7443366047218595,-1.1455541709085915,-1.7312693924174559,2.392941177144058,2.183015912430964,-2.543826046549264,1.4188783808936197,1.420969496404579,1.6476347943196113,1.4870465683915178,1.8621721579699818,1.207000377000842,4.09682124623924,-3.7689011121254429,3.981679656865178,-1.817602938845206,0.616007653597617,-1.6953348706743355,-0.4176869408567517,-0.16752622563690909,-2.7797763077860457,2.737168286176724,-0.9033917898856254,2.8412861790542789,1.3976214521569899,1.2473759128576192,1.6184017434885363,2.2027998260193799,-1.3191144778486753,2.114106595840054,2.444748207340724,1.5895229299977976,2.532532390214142,-1.861472210259682,-0.3997124330117059,0.16513318632759894,2.593729168121054,-1.8675988772799,2.091077499503965,-0.5512018063565141,3.895381506719662,-1.2791894118757257,2.5455039848011529,-3.4209610507763568,-3.684934457157526,2.8121435876291196,3.6608883191940979,3.3696384153170135,-3.3746445231283546,-1.294669759172081,-3.1309609489906444,1.184211116391944,-0.30299814088612139,-1.6168325733251333,-0.9897336619684312,0.0015885766384847646,-1.1086203152428358,0.9822372846031002,-0.10438744209323529,-1.1910346546919715,-0.02212554391472718,-1.2445003229440624,1.0954102147212466,1.4722251305694949,1.0739153123347612,3.4080688301811765,-0.7737300656797196,-1.7023329161591272,0.279636874826649,-3.6058631003671648,1.7307998383788657,-3.7990836114287496,1.9813519767385513,0.5492147625442161,2.1000501587807398,-0.6741470915942094,-2.249177321431719,0.8158368630622109,1.98862840548976,-2.5981630634793,-3.2834260300345838,0.26219911595362357,1.8226925340560532,0.15421021518496523,-3.7553785250484514,3.107337830798356,-1.343994234985399,3.9083559459254477,-0.11290602561369018,-2.6436850057661904,-1.922341231655909,0.37064844905994367,0.4845092224746995,-0.41867768120017437,2.092076216373372,2.7266629406975126,-2.720400893725641,0.136136343256925,-2.2697977372162394,0.8433327709552179,2.4636806613224326,3.299676686125788,0.7916559610806634,-1.764655838384509,-0.6791005401991944,2.6447452857503936,-1.7650343871168069,-2.6664155523495305,-1.1418125248736389,3.381468986127868,1.3938246893361746,-2.629169104331602,-3.2985029838075086,-1.6012168310482078,2.5054964869685518,-1.13581740777254,-1.0593106635592518,-2.2632622055722866,-3.267798567229549,3.0024802486276589,-3.4948860557598309,-3.338592950499745,-0.10305823760681637,-3.540054322638313,3.6638282541687645,2.9987902444274239,2.3461625405622366,4.1370903340128619,-0.1122010946457605,2.9709655121908025,0.8459564061862189,4.056495154535101,2.7908304871457769,2.744621546711492,0.8776841234570272,3.453739893725089,-1.4412024636859469,-0.27052308608816708,-1.754608444380624,-1.605538160553138,2.279408456158936,1.6133920045676622,0.511841151828351,-3.7984545568906409,1.8792603737857646,-1.8835579541310919,3.1726645695682835,-1.815147114184302,-2.5267583619542366,-0.3974999606795421,0.5914053264359528,3.0491022173480388,2.7671754250481559,3.214012260193809,-4.014280441179858,-2.814422580468302,-2.580867017514809,3.6083577790749756,-3.25711594194273,3.2000593576127596,-0.8746729152264804,-3.738923478940193,1.9165554050143628,3.147651611801011,-3.287719702760648,0.2638383464543972,-2.4769602679849767,-4.067249334063699,-2.3120099378830218,-0.3082542592267299,-2.3797472986569998,-1.6548755481008722,-3.7564015672830735,1.361983538341619,2.7480870860112036,-2.8824161742755116,3.9622257397480724,2.396950199360786,-2.93436754225437,-3.385318367670078,1.462274552448947,3.164045398962255,3.6533134143642425,-0.6924354362046811,-2.888601734971624,1.5411673415774104,-2.9885496137521128,3.564004911994232,0.5096266316518153,-1.4548524378668784,-0.27454480081162588,2.171849250291144,-2.496907454622911,3.8970517045962436,3.557559890292102,-3.7309632586517624,3.1527467238130328,3.4766203505498445,-1.942132732421276,1.48153492188115,0.15426701935218593,-0.609448556788491,-2.9668669214626979,3.248287720384448,1.4006269136421077,0.903686447191115,2.4731775152314388,-0.7361911691536921,-3.533339732717211,3.5410022519763255,-0.3841859815980877,3.3933287414474129,-0.25913427525525237,-3.133252096426125,1.0274674679249004,2.6838440672072636,-3.6178398453407865,0.7892005943593644,-1.0617293939436273,0.7764061747022356,1.201002548498778,-3.234796596314602,1.895311303493863,-3.24568502908691,2.12168546500509,0.9403770418000745,-1.4833561096318389,-1.8062142583185148,3.3938273444344988,3.700106365844699,1.7867514105121514,-0.9514719881118832,3.8958526880187156,0.8099739084790515,-3.510921525622828,-0.785989940217233,1.6052497468741669,-0.5689124976569909,-0.3864391604395731,-2.7849855301128727,2.7694223518697664,3.784444971366588,-2.053610514310457,1.8687617304844296,0.48878513747457977,1.1852124762909416,2.0545982544994296,3.7115361708515497,-1.9361814955212822,3.4535503612576385,-3.5996234861283784,-3.413653673806423,3.109690101075168,2.2462877219448456,0.030718224520883694,2.7108417846895445,2.5150081090736666,-2.028478900004683,-1.7399712848127798,2.0054929108162087,1.8079723687579608,2.690470911587271,-3.4945854919995567,-3.4111663558372404,1.5244335535056384,-1.5838619521652083,2.806225755636156,-0.07834155367320862,1.4254859039880926,1.5933924143138874,-0.8100331774019621,-1.3452781148497229,3.5074599583363237,1.2891759833164443,-1.2854017813226082,1.8424718144787958,-0.8647604229198292,-2.491575997878686,-3.3896979418162576,-1.3609045699736966,-2.5548883079179527,-0.16812067059661879,-1.3804963183573019,-3.4072694496427018,-0.008207500246295139,-3.9332513331245937,3.8892960354943977,-0.6326869080256267,-3.4585146211905677,1.6737399603638672,0.9776711110366315,-3.2146700852235265,0.8964934881702248,-1.0869388872180115,0.768922592219637,3.6146346493852539,-1.6046035375956714,-3.654823920054953,-2.157228689126353,-0.011103970217344689,0.055202079674829009,1.8788520218513152,1.799818613430111,1.487962677030958,-3.305568347638463,-1.3533569192077644,-1.574787979640836,3.00863088783785,1.580604217221666,0.07677710270473041,-1.823562652621035,1.9087441712627567,3.218742560257959,0.12604779124343833,2.8802965571242824,2.028015102078422,0.7029545539100556,3.8274092351956745,-2.0964148879062094,0.4168799431729586,2.1818053843752178,-1.9472893545780772,-2.084584587009569,4.199159630427687,1.0523098974149757,-1.8963329859274428,0.1602969502553067,2.671362724416319,-2.142721176242344,-0.21131019060104948,2.2431141942057728,2.4093877726266559,-2.9361064988186347,0.5138954259358357,-3.874957478782697,1.7920767310455115,0.6020310414222683,0.1805109725099285,1.6396263636740328,3.5119431579739586,1.0256282365100283,-4.102414718209069,2.3852512156622849,-1.9474335026403034,1.3001523547928747,-1.9498700000270227,4.292399859296776,-2.4966292573520456,-2.2933353232127438,2.5562088681182617,0.07637816100900381,-0.2411635104622673,-1.6908048471702105,3.948340770181639,-2.9606824960257485,0.6647724905832995,0.2894981026444823,-1.856302598175659,-2.7623631632215899,0.2130735576937146,0.3765751034372816,-3.2800514782425504,3.9084894153654639,-0.6418259552986648,-4.132827041384889,0.42392557531207727,-3.7602519923839856,-2.176722083251899,-2.346004239247209,2.118876690275345,1.069043548033198,-1.7969756198407956,-0.027866247632464804,0.6546845681578739,-3.287697963878964,3.5127111255130147,-1.7966308268240024,3.332702054424922,1.811986603994649,3.4142205636073994,-1.689683198657324,-3.2320040219167125,1.0368522128442724,-3.217678650008226,-1.5296368645265693,1.8171757459643852,1.7897315026082684,-1.5454890511079765,2.246179626942174,-1.600771786817542,-3.888993962578471,3.005319317602522,2.2136251326324705,2.530246602083537,2.669366469302301,3.5212472282693154,-2.1477010566220406,-1.7890128708545754,-1.7922534189459696,-3.527892754632601,2.9845466330723138,2.960406624203168,-0.10690469485198506,1.0117224763093205,2.953743183683026,-1.858665287743633,-2.200786267244739,-2.86582976570971,1.724605893176805,2.7757958072307344,-3.003123402238531,-3.5076676353477929,-1.1504037553622133,-3.9849448572583716,-0.795703865729787,-3.7745105624415506,-1.8711275959955383,-3.847013513995563,0.7883742789607777,2.4036499745736266,-3.1007437845363068,2.741381286639416,-3.891981854924771,-3.871368086888101,-2.467021706841648,-3.7372388812838928,1.2834749517548232,-1.2624649399937964,1.057133638785563,0.7559666707307724,0.3323851242766089,2.884955429868587,0.6012984255702202,0.3088284277619189,-1.7771628742665036,-2.1416221902386196,-3.985890779038587,-2.078968019475705,1.7728493684704386,-1.462750235904153,2.660332473221333,3.3993993500619625,0.7217468222628471,-3.3804533779407439,1.2276463575986132,1.3418202274209477,0.2684692158733571,-1.4550668151692199,2.8532554218750336,3.393910781312706,2.348093834232706,-2.9939619355148059,3.2485720460277069,0.9702301969490502,-1.0326972015489254,3.4403943420117368,0.12960567319647185,-3.176572012015374,0.44582673983750917,-0.3367727711898682,-3.109739270918124,-2.495500408738856,1.0452950868690012,-1.2817290282611194,3.8784345593913676,1.9995796696346305,-1.1485042758315587,-3.904437589603252,3.919491207182789,2.68410930776181,-0.6114726868086029,-1.45162056461601,3.2526436340203936,2.0696420411579656,2.3732479213055628,-0.02986824828403239,-2.8783402139329095,-1.9986127581830325,3.1490914524999558,2.2581285727818236,-2.5297882887155787,-3.175377225627641,-0.3196723984868944,-1.5767744364093118,0.8822903000232388,-3.965105097316608,0.3254010043574004,-2.607257326239568,-3.7531374118899589,1.7989085868321924,2.3898366582881964,-0.5845941934876497,2.2793599062178164,2.929173146656758,1.460225261444431,1.4404344482400227,0.9100782982146666,0.9133659006356524,-3.1581671991568278,-3.8950014791295146,0.01357850675177216,-3.9405666638764456,0.5807761616108145,-1.514625864333288,-1.7911833910226889,-4.00501559450939,-0.21718026235160363,1.5770307060849916,1.3015806922127496,-2.0022629511137226,-2.5030582198815134,-3.3114658056389278,1.6305207026571978,-1.7104623788516416,1.7439545827734023,-3.663240436475482,0.21660247629401153,0.49673627065044737,-2.4680713995450085,3.6818679731189665,-3.5645429178766667,-0.7751968385258972,0.5760035901640768,-2.904988166384145,1.5310278170231265,-0.1745096157277981,3.4370984635147137,-0.7712695661565834,0.7834856369145236,1.7135237397162922,-2.9231522919723185,-0.7315353523628643,-0.16566987038626647,0.6037255045739505,-1.9385420311481403,0.26532072407699305,-3.952830240151057,-3.3265289845310548,2.521972522456659,3.1731677434443776,-3.7056374255004576,-0.8841411673244544,-0.08810657722325366,-0.9659988764901488,-1.8850091628390696,0.8503339730642825,3.454295691539789,1.9984268655516724,3.012593359188818,-3.3123376678113738,3.819699235864496,-1.7348564320638707,-1.8719859840304539,-3.3610491686006878,1.4601146522070599,0.6474123072450881,1.0985723231510836,3.3929788197008197,-0.9881909871958223,0.6124962943785874,-2.0187871019750407,-1.6713112121302614,2.2361367787084847,-2.6085384789920367,-1.396650089871214,0.4389315697235645,-1.5518183444611165,1.851070275702905,1.1215112114863182,0.9553730406112697,-0.19435020939909099,3.320823759604856,-2.3459300861217384,0.3090460641084851,-1.4901547964094475,-0.5754333258830011,1.4024576625004857,0.06152931915807791,-0.7190020728365747,-0.0627962293269757,3.1561071264013247,-0.7263341871976865,2.420078894002361,3.346247287796965,-0.13400124505410195,-2.4418703922240017,-2.770502664498488,1.4624050063741452,3.4506617221754016,3.018369748771999,-0.7473378808159141,-2.3313745646383214,1.8962035984079329,0.6107681571053396,0.19953325786231969,-3.9517846099239559,1.7761087930338713,-1.437331502072832,-0.5766500134110917,-3.8158360116346694,3.4798744439809985,2.1219042288028806,2.4417613441171737,-1.417403093823907,0.6144466608435337,1.1398864814441048,-1.457955387704416,-0.22163262173616239,0.9489076908354388,2.8922684401254434,-1.527463958430664,-0.4117014583811598,3.0657148619050424,1.5427409770951366,0.5510792516128769,-2.9523166897254358,3.4111276234114706,1.1180139561791754,1.4724439249479922,-2.4882777562544788,-1.6966879726766225,2.007357267466146,-1.5272343058550134,0.8504812518528979,-1.546544215773791,1.3303214305677873,0.8011219130499239,3.2317609059439587,2.7706906697115638,0.30264216113023059,-0.8495614023127585,1.5398527874594122,3.366479037640535,-3.8850378856409337,-2.753348184288633,-2.3420756437439458,-1.2487954583230339,2.064808883389885,-1.9870318580738198,-0.8390774894923947,1.0472182457265112,-0.11703360727108092,3.9048779937690947,3.267483624807535,-1.8034159350842228,-1.8095496747837048,-1.8075969677135709,2.341570148365311,-3.3274579825034937,3.991543822148877,-3.863305690081667,-0.03638783806066659,-3.4066357113734755,0.5983383113744409,3.482971661717106,-2.008023784281888,-3.853298441236989,2.63043093082171,-2.3282661128019148,-1.0185800028656938,0.49657427975355619,-2.086824865448799,0.4236350537953948,2.5792147016105808,-3.404652636849237,2.1438981647009109,3.5594475332754866,2.0006214095212258,-1.6490860269081918,-2.2198066216161695,-1.596010901401037,3.517751345645192,-3.423668401551783,2.834477530942527,0.4310358556181395,3.2321521173106948,1.3831287226815477,2.367451347547007,-2.7924548050702695,1.3858884845825444,3.859849169923555,-1.4915272945430882,0.9008550480076032,-3.4691147767486196,-0.9379751723821999,1.9035753896604773,-3.091648615658954,2.1650920911109026,-0.8300310806060125,-0.8513182899016074,-0.9817531765558751,-1.30161247892568,1.3330775270649787,1.4615812053865965,-1.0279221900991956,-2.3150136644765615,-3.441945103526252,-2.0266090410168626,3.142709601487903,-3.3556373723729706,-3.0841976564628048,-2.1213648163930598,-2.1069063574939106,3.745794990077168,0.25686091170737948,0.8343511540837874,-0.5982676546550765,-0.14911163044671817,2.8711478435000945,-3.9183284312943869,-0.7280620407581393,-3.7715861854361698,3.95004638983794,2.330353099614218,-0.2728584107724019,-1.9362935795529366,-1.652425418336441,-1.6000602773522824,3.487629874516527,-1.7006653810623425,2.7024649294415674,-1.7816790362757116,2.0779240455513348,1.511029425918851,-0.1659760986652321,2.460218482778151,-0.20303269176707085,2.8308841165912739,-3.507516257948329,0.23014304691342869,3.31370677725766,-1.1972174772475848,-1.9587222836562353,-1.475258144160769,1.4786916466412708,0.07188516710191095,1.1163784963190367,3.50125685461148,-3.7694346213154388,2.6587526114189528,-0.12630317390536639,-2.763299735316023,1.8360207718019437,-1.6638774919468285,-1.350752344624217,-3.634330571584118,3.9038238161072744,1.5478723576257663,3.018715197816128,-3.8098634671868289,3.236235700901031,0.370137547733111,3.503183443363162,3.858081465202366,3.327255267606998,3.3863893109440665,1.62063979188697,0.6385599173333425,3.5050922409857909,-0.11256741919303992,3.9309039040202995,-3.5066844309245974,3.82861384194255,-1.8665821472308669,-3.0062899700741108,3.6024203769601419,1.6233130411259636,-1.9893239091924429,2.7024620851891569,-0.5445454709333146,-1.3067489818579914,1.763795783398315,-3.8778205655708097,1.3838739860310546,1.4853134608782579,-2.374267490219549,2.2125587307410736,3.9402339270939148,-0.3203464170135566,-0.45137320911596015,0.09092309126768061,-2.985250063320011,-0.6631250975292244,0.35480061284279609,3.4223036125070598,-1.3847166045752742,-1.0215993588451085,-3.153944229745589,3.9590882236845035,1.8109634912383888,-3.490095919649443,0.4224665198639954,-0.5881910784698849,-1.9711604687695948,2.2311761985200686,0.07213034640315019,-3.124635901700654,1.7612092048958133,3.6599252148879257,0.7094530308896685,0.785904452543603,0.25087981712654097,1.2991333407942314,-0.732469634655901,-3.6838296842691227,-0.4761432768315377,-0.6036363738208408,3.249239164097518,-0.5071140349751229,2.4730160244674135,1.4182756955141019,1.7020489187876056,-1.770324799773029,-0.6816603457512303,2.1571412985794939,-0.38283921557136915,2.744322754397637,-3.1730588991169847,3.899956631579114,-0.7486257737404232,0.34038390538250776,-3.6844940867581394,2.2265576354274199,3.076711442347965,3.5088206758358417,-2.88292794715733,-3.9896055540682298,2.8945417032717986,0.13917763574473963,1.321229352107446,3.373973742236368,-3.997795286125778,3.2315936236896256,-1.1886450761563124,3.15485126536083,-3.63170513971035,3.639264245468011,1.3413310219740807,3.312502768550724,-2.1318074456274385,1.9314896963044222,-1.3376458131204119,-1.6610501500323396,-1.4386388081442192,-0.1577620556861754,2.9879177946612076,-3.5816252220065305,2.491000856676944,-0.19784261100014279,3.8734970926728415,-1.5444168037068685,-0.725996844687165,-2.1661183464975934,2.5647381572743797,0.5977249091542047,-0.49275194614377706,-0.3720808764438619,-3.0773384619509818,1.381468093242125,-3.378893083624181,-1.1274503428000207,-2.4786169146725669,-2.1636548320829815,-2.863653654553982,0.11114236912582598,-3.894388909506463,0.6844502962901808,-1.2081423915677548,-3.776331035837777,-1.2382368908203328,1.5223339413610156,1.4294305281348408,1.4130035887931128,1.2518703054523073,-2.456393574665734,-2.925395095202168,1.6400637488297969,-1.0722034412059427,1.7784746576154769,-3.8647769856803357,-3.2893471942423044,-3.4620013149708219,0.70901166711917,0.11986381384596268,-0.30657276132401437,-2.3797200080001099,0.8129682187999583,1.398423417833282,1.5736048871511193,1.2605340056895163,-3.3977546769383695,-1.1941545439582564,-3.8149394938090879,-0.7805689188454232,1.3398751060966295,-0.7193795982313418,3.85426665444363,-3.315056332928381,1.5536764125783167,3.637943156575446,2.5354117459978209,-1.7274789554449972,-0.941319857162001,-2.04307270692013,1.4045590701827262,1.0428015908542304,0.6255516426672703,-3.5710865472775117,-0.6493087226050918,3.4494705911706324,-2.400340420335782,1.8577536385185383,-3.4738541166703769,-0.2046072043675322,-0.09740590819295769,-1.804470837069938,-1.2869256712848909,1.3937159235894097,0.7773808771776007,0.5541957246234448,2.5936007554194564,3.6708643464500234,-0.8954095821309371,-0.837589071254637,0.4764861275303387,1.1618097045319394,-0.49851331517272948,-1.9052762395789367,-3.4250517275530178,1.8858620596413243,-3.9699560103211546,2.7820507816961346,2.238777970196282,1.6564529750249682,1.4830025458994545,1.5201089554961352,-3.652613108636527,-3.4310132587419215,-0.9760629741846005,3.9947417973378167,-1.4250303280630735,3.7666923794939786,2.1625541807606156,1.8597721464349775,-0.6473861264912628,3.326884875006791,3.025630812932543,2.1781303874116064,-0.9227304367731646,2.0869505101185448,3.673617556488062,-1.7704170982112955,-0.23817421690771058,-2.7515215113470079,3.9492463436618907,2.5153422831468825,2.4457744050116538,3.918389335725019,-1.1525223990452425,-2.623563172084383,-3.8879828531106099,-2.366085014656277,2.820646760164549,1.845882311387446,1.4117049635602684,-0.1577119007146146,-1.536106960167925,-3.17867735509161,-3.937060974598782,1.8015455379223005,3.406001131370905,-1.9558235961659494,-0.00942981925373787,1.0508450633434397,-1.501483934640836,1.8306072959558844,-1.1315127508290664,-0.7885596985293264,3.77213924545139,3.573111904451637,1.9280539469182907,-2.1322835144178047,-3.232742936397768,3.7094914823383098,3.1232321177935669,-3.794943417274226,1.5995936587826974,-3.2542455200994935,0.3331633203050197,1.9488181704308217,2.1283181680175318,-2.373635823673423,-2.7008580911355777,1.2145630047860552,-3.879546158983021,1.820950751070149,0.887786069327066,2.8278737895588836,-3.0911059285191868,-3.124619536241797,-1.2248624632221779,-0.6428549332550855,0.14472900211295326,0.6592753463467576,-2.207030355045598,-0.12324118580870103,-2.7515430877514026,1.5610432651671787,2.472632335005306,0.0549351661486428,2.858778557783846,1.13533483378772,-3.8948265216717639,-0.6810611591967613,3.6594462166210874,-3.648454010383543,-3.6874513343455286,-1.2687963028170176,1.0181694535352,-2.748790477166697,2.9148979281244324,-1.647542032344318,0.25786381946735928,-3.196993927123996,0.9762324233069073,-3.212690410671464,-3.3002865357708899,1.1397988036011775,2.021081489109876,-1.8422297884579935,-1.6607840874676046,-0.9190720731840558,-3.9849411944324908,0.05061614499831979,-2.8339014824514185,-1.9218983995341453,-1.9534557948476908,2.0774999293864457,-1.3539203121191559,3.2271927300988958,1.6501987011421369,-0.37905206750420819,1.5402268265267508,1.0521282662866165,-3.201453852156943,-2.1879843168183816,2.354001523777443,-2.2498990467133526,-1.8186790722717612,-1.4684091721857434,0.7548834334015249,2.945784417444197,1.839697710067421,2.162526095507986,-1.6111900892894456,3.9897504964915377,0.36380549154060307,-0.9306484413525924,1.3608114075756497,3.4916180836641494,1.771906460763799,1.693277362079149,3.9070266835993445,2.9422084076029284,1.5251202224133467,0.7777819531999723,2.6195205460343899,-2.3658464228246949,-1.8726440574673698,2.8526910826598,0.36983180187108469,-1.9261187704723986,2.4180488757054245,-3.2651616842486295,-0.36852945494223557,0.367565020935678,-1.651700626244214,-2.725696891119994,-2.368459513678001,3.305128831579224,3.379744359531874,1.2752364557471286,1.604433093729038,0.9561652733726289,3.6236628947493756,3.885864992911565,2.4012376712187359,1.6582818790937096,-0.2612311564275638,2.982820626402664,2.4402034205622895,-2.497206721645785,0.8189082523018172,2.1406027342003748,-2.051589370333276,-2.1467053753408766,3.090775046038953,2.598471529329691,-0.20611002440116067,-3.960059835620913,0.014252759435794183,3.621447733338652,3.883945742601445,-0.1318767896093449,-0.31663297752090538,1.1373193294928275,-3.057466533807511,-3.9894879555528579,-2.0395044378628137,3.003575600926652,1.2845742173722954,2.29919566154562,2.4228928404752958,-3.7439677721013329,-0.23605330509374035,-0.14604063645107957,-3.8600840628366468,0.8757127981309152,-0.40414433272315977,2.6463174589300308,-1.3078656897214068,3.9504539385812436,-2.634391098640343,-1.4282946743355343,3.392536445868049,1.015097332285488,-2.1225402547418108,0.04470254800655393,0.9610311136054062,0.16522074904718843,-1.786539273377061,-3.5695634028722456,2.4182902407718167,2.7411694645013364,-0.8669794925855501,2.5121954349915969,3.8012037312985909,3.8924495323745766,-3.3427900721280929,-2.4429630786952387,-3.6743856625149506,2.8549700659502914,1.4104162758408939,-3.464829642491373,-3.868037722134239,-0.6878273126088299,-0.23384918392375354,-1.8639284382816933,0.5213906340209285,0.8936201189933994,-2.0335463769265784,1.7692390073807243,2.4634660923964697,2.5716340996781028,-1.3310148557756492,-1.217291737663892,-2.16242305161774,-3.1484304996341478,0.16827478501790428]