[-2.059148371496867,1.7987044139792364,-1.4758962589420029,-0.41722664257531696,-2.407381514449058,-2.2722485613329077,-0.5736434348446348,8.2335874386511,-5.5264534193238969,1.4773965374098504,-1.1785678397167845,2.7945309624715599,0.44698170861179195,1.2346993442530963,-0.9866122051102434,1.672071606050758,1.0364087133837512,3.553199421610605,4.577623260749591,-2.0571951303741087,2.344104281756008,-1.826464124756601,-4.782387896998098,1.7424524900715697,3.7516687164354276,-0.9820065811404463,0.16343646689772557,0.9875716535248561,1.8885176025177238,0.33045598264295847,-4.749865994255778,1.4718764938264973,-2.8819190244923145,2.3620413172294589,-1.6829154221744319,1.6077422983904673,-0.18549950995174148,-0.07702424006695387,1.7441291999688467,-6.090776709391147,-3.649899231810147,-4.870664363793113,3.090450553869932,-0.7804001955790628,-2.003336710829253,1.8916474845157235,-0.9563704619110179,0.2289073728417654,2.8587969546391149,-3.8973548645559816,9.853570864186658,0.5578338207298966,-1.6143922718440389,-5.468688088897297,0.8271282255561773,-4.773235489310277,-0.4623278866614741,-5.114277237224949,1.8865213934034416,1.8936334355970082,-3.1223435689839738,1.6181513239969985,1.7832816223595283,-1.8798751821361036,-2.90669373783657,-5.092575124791033,2.7362303456761558,-2.621184541062917,-3.3082280602727009,-2.5777900746525237,-1.1112445206213995,-0.00439485306071214,-0.6907773475684668,3.235666414645547,-1.0389013928786342,-1.2044599237666696,9.539422034955259,-0.8289247855295039,-1.8213818934393007,2.663060665925379,-0.7423216242379803,-5.7351174088261669,-3.4763403353692436,0.46956293159781689,9.158837091557416,0.8423654362429365,8.112112255786219,3.353730276987671,9.145746052669228,2.610398595614398,-1.4010962671061223,-0.4576273769210566,-4.611395803309194,-1.0217425372276059,5.885373375161798,2.9525310462292015,1.063921215133998,-3.4965426258173499,-0.3907514870233948,0.29093479790831247,2.324517676476189,-3.367517008590596,-2.6327819150548,6.056219392882511,-6.2195279137418348,-1.997908504630032,0.2833860447877371,-6.208500202804172,0.6521028343638947,1.6289184540792346,0.9232317987939891,4.198606614856081,-4.671267804640623,-2.059959700735978,-1.610725526067741,5.353659897865772,6.656987577813913,5.1050239752147139,-5.236528900122328,6.270329423229118,-3.6564493922469376,-1.9996912193268027,6.727177549760345,-1.2153473487259279,4.701979986089406,1.8059105266455569,4.989816173376605,-3.15572964016424,4.2243477933172219,5.602743717117138,7.966857453189222,-8.117709429421496,10.545681874479954,0.29816963220336326,-3.9126241975962925,12.96336118026318,3.9448954400592219,6.581532615824323,-1.1560967687683393,2.6945504910494528,3.9660870548115989,2.06890206584687,1.4549631245305846,1.812441160324766,-0.6400298252680491,3.661035504544389,2.383703695152205,1.196098280954483,0.3101766879572161,-3.6200655489573565,0.027903826856588398,-1.238336962659132,-2.557095901097557,0.7606494019397913,0.6983928058231886,-1.0112001635181159,2.9954300010630896,-4.542837964621922,1.0502124634892472,4.450809773231275,7.074081252603703,2.581890324036507,5.579273533493819,1.6904050821602795,-5.8484319962765769,-1.4496261702541316,3.010950197002483,-2.2530698919092346,3.002484062875172,-2.104658020018509,6.879942456990814,6.684763793007544,4.870302901283033,3.479848931018045,-5.431985303867154,6.337024438560522,-3.570753602837027,-0.5765522471928837,14.078553121470677,6.564034976751546,-5.086302414122086,-0.8385079555389788,1.8342018273776637,5.1385885050822239,0.007847644244223519,-4.130741785752356,8.172155944698467,-0.6375450718789432,-4.778956003054401,-2.1178712904598049,11.704219261156803,1.073874569058132,4.029880347454251,-6.928944457096611,0.8084632469359434,-1.7803949303145157,-11.864624830853258,2.7508715984428004,2.800722082729425,-2.1491313453740785,-2.06496979099621,3.7833224123829658,-6.408791975095063,3.6098700504566958,2.7842532990783388,3.519086794433117,-4.79099159666894,4.248643235873711,-7.169634977882063,-7.846220983352008,-2.5613054446580998,-3.437025870813556,2.8782723637932707,1.7997005574286085,11.145561878746982,4.306592891005983,12.742365639608602,4.500338682601304,1.7943829674659294,2.492497974266248,0.6070012999739392,0.5923322756190311,3.104022401750419,3.259028106644924,1.326984529155459,0.2597417744575503,-1.5712176238658336,2.2964849666176825,2.685244968848468,-8.629422228899533,-0.32849205971572639,7.687916259485269,-8.582588615232713,-1.699374596573508,-3.665656829676737,-2.4464376210164375,2.930402640611207,1.8369038054328249,3.7749745905173048,0.8498347535169689,-10.63573694495128,-3.031969066077418,-0.39174667400411697,9.464796339731443,13.18269179121659,11.093337482155452,-6.885847018333328,4.373208636606274,-3.392493232085678,-2.0800578600597379,6.980648625522363,3.9247409336696728,2.811741225531508,5.236102762858165,7.984534442718831,-4.758793481636624,11.18785573156515,8.82718118031774,13.6897172766944,-7.730377236295433,16.36622449218606,3.4017828782277208,-3.3317232099767395,10.633209912498345,2.9052657979454596,11.121509389542009,4.3315019944824419,5.361448350065905,5.365145593404993,6.870497340596858,7.9584884367439809,2.340163128504313,1.2727058839270662,3.6429799057565686,3.5407478876548925,0.5773803150899793,-2.1747301239095639,-4.251623423606534,-3.0125220978927009,-3.1994918464967898,-2.7224143071712665,2.391173583405801,-6.399265016239601,4.612143957458902,1.9266979714858892,-0.736588625005021,-0.8893948652464877,10.934833435530694,6.797889437408563,-2.657416597831818,1.1769945314456623,1.0773927622317666,-1.6517516800169654,0.13793598644343078,-0.346905909579617,-2.5767086269781465,8.524194504842619,-5.685220339668781,3.8831451252288509,6.52597106002339,7.338039928724076,-4.318957658432704,-2.808500839457055,6.094248081886944,-10.974949728802095,-5.269317307412616,21.217287360733743,5.433794626408887,-5.264966829283944,-4.287990924176821,4.598068194215058,5.337642058854136,3.8339659654196676,-5.0022726111428679,15.30047595427467,2.5922060908978099,0.5323583389288334,-2.363445429005648,12.913061564355458,0.8641869338752422,0.1564627142295024,-2.719518418683695,-4.1196734346811019,-1.7565044244773354,-6.127451358918678,6.794550533352827,-0.09069188352711767,0.23790883358216489,4.39691827103829,-1.4836199839368277,-0.12910902430110247,1.9409459274768435,12.138746872377287,-1.054402886078876,-2.0665357716011445,3.50813187782778,-4.708932979824094,-3.3747243721816559,-4.255590423027247,-3.8967114290341424,8.42411024043545,-6.562997640218609,6.254099025018317,5.766793714619021,16.97930737120788,2.100649094652904,-3.5366776335305869,-3.470720288830579,-1.8331253840156843,-5.916110496911082,6.601064487739674,-1.7340243170571446,-0.8216551466375878,-1.9385222186954856,-0.9857280621693493,-0.5803440082042413,-1.2055334579703605,-11.053262420140639,-5.436891051299789,10.716375948095683,-8.18967392669531,-5.377759854933907,1.528202528048117,-4.615053134641788,-2.4918868855639948,1.7698269438040509,6.613942527447165,0.2590651197391002,-7.259381448552312,0.3327792747408617,-6.134596254552854,6.118290202859489,13.656408100066648,8.030552694045037,-5.646237448279562,3.8689499179929696,-3.527649804902915,-5.128985937384014,10.4489631658288,3.4940553663253719,6.779689600614487,-1.786075827112822,7.043584610312759,-6.368308584790706,12.099750134335782,12.009320716836115,3.7013393534750596,-10.790167977271795,8.502432887221321,-2.710700856304827,-4.66083871307943,4.085531357466449,6.381300869684705,8.264373908952552,2.840725081547397,11.334524396079575,-1.2951594310929276,7.226919880658278,1.9123907083359582,10.193490721354558,2.2333437820853736,2.6548242681533797,7.755041393824261,4.378772877072725,-5.492724141024438,-6.086525567964208,3.642877148083856,7.77355433248292,-3.330407778855507,-0.9726486669368482,-4.1546427134387529,-1.0041835342959862,3.75068356863976,-0.3455906997503733,-1.0730636410901149,11.533790920613609,10.445156988704332,-1.10405543360793,4.648399893047856,1.570229643032039,-0.6138535685040572,-2.7393743037579378,0.3645558258951266,-5.5958958483186189,6.233789357589357,-5.890098010452983,-1.2953839061593209,8.934542596332838,5.645237502183299,-4.488448873019269,-2.636410022440274,0.32436276914803288,-6.812626720843545,-6.393089835917077,20.61656469350296,7.580722161190172,-5.732739921585459,-2.138241741959399,10.457627134316145,6.779839550869807,-2.574797384545218,-4.595404021199859,7.259696594432949,1.5727221578890998,-0.2421523714147823,4.170763329731986,6.450141692620835,-3.1341340861325586,-1.4289552686747749,-4.046199610877923,-1.7517024149336325,5.0772111774967219,-6.12671449574411,2.577291013078654,-11.232966675071852,-4.051195990836483,7.776914020253537,1.7554808225980184,-2.554695812025796,-6.095498646872033,13.030045394755211,2.3436270047896516,-5.293813781698603,3.1350346118568837,-6.332473225709737,-6.043362769397831,0.006263739609916928,1.4943463185425606,7.576756520598559,0.9567159297558028,6.505544440469005,9.553884377738493,21.644089342875593,0.47827508247512298,-3.7589248346089789,-2.9717232304697736,-7.188144818620688,-10.931228265407335,12.45721731164655,-3.567924047098245,1.6296947405560319,-2.6529642136756328,0.5924177462322787,3.7269984535664779,2.065736937563479,-5.969761293040429,-5.065316170624751,11.590995793395648,-11.142616813223173,-4.873389748473417,-7.152413035794509,-5.925074435617872,-2.8268932267560675,-1.6277368260565613,7.426522408909605,3.626028575795008,-12.963998207659302,-0.43327282109414169,-2.186452797483114,5.458524650963517,16.36404332811473,6.173983502217078,-6.3919074514984619,0.5124575939395462,2.9298161459046598,0.49926492227149496,4.493673125737579,1.6700302134303474,12.246408954265572,8.367308872893377,4.548420698423813,-4.892563742864006,9.92906294186936,6.12938353029532,8.031061409894829,-9.717722843383298,18.968701977392255,3.4186437099349336,0.873961575507905,2.54003807620154,15.524932541224218,7.4368299490770959,-0.4352120261035169,4.295777672385211,-3.104587781827926,12.269099591444414,8.012291087674545,6.635621458476127,3.3817564520164615,-1.7998313006493183,5.7530658376364569,-1.816864038310558,-5.822665126357073,-4.274527792185836,-5.343598282715877,-1.5987513372827047,-2.5944231297041155,2.582971625479435,-2.1489648246823935,9.151596564260434,0.44060049534414827,-5.746292626111461,-1.2360336816575422,4.484740949572495,10.986629050598403,-3.382070502883111,8.262132701637821,1.3461528017243816,-3.671649359951266,-3.048347697268089,1.5047994757355976,-3.2601172031929708,7.871004757955805,-4.1115197812626349,3.5647440228139297,5.843380717205098,13.725256272131896,-2.164286301196829,-2.04352759525483,9.03267431661729,-10.292912399927305,-7.0286278384910239,21.019543157024239,-1.4915435260164425,-5.429402635660932,-1.858325783387343,8.042030610827219,8.0905730440772,1.9636257663350963,-5.421478870215259,6.728737592900543,-1.0139773464315774,-4.319410723756222,-0.029626294107333349,10.61537003028354,-1.9678372191434446,-4.142097328888509,-1.8388455903355452,0.15659574949547143,4.848003510925202,-8.41577242159264,0.030553679215220718,-4.978054762403133,-3.0798763395994,4.463669145265132,7.660688562870571,0.20504553664652604,-3.4863000724111519,12.885379587143176,1.5417873869693529,-7.067911679417677,3.3278461836708455,-6.675875451253378,-2.5104545799602806,-1.284420697918393,1.309559715004345,3.325225661050061,-0.18206272601398058,8.357143653263368,15.700701631367473,21.933432829839718,-1.7132667213554052,-0.003072849607583446,0.5108149931687215,-3.6987193736927956,-8.485527319436219,11.023938625164473,-4.689599328972004,-3.382671484341279,-3.3942856047787628,0.019751813022328397,5.356919126503441,-4.1371375679495,-8.9332477987674,-9.936226410943128,11.682129933415526,-9.801827358312887,-9.806452282071965,-10.866149234696602,-6.472087068595726,-3.0996054694803565,0.08705494749353758,3.8179570741440709,4.558134258656148,-12.953451767072297,-3.2356059660634326,-2.0872063194410495,10.73355864335163,14.544647486693929,4.352433566964433,-2.8628867225745577,7.526869366797248,2.3184614290875547,2.487107789675424,5.920127147173947,1.9291943184403962,13.075622981700353,-0.44839488120737838,7.802458473732114,-5.784655669429756,8.020432242612982,-2.2335658375968698,11.200830738672896,-11.196604078277395,11.119637822976979,6.142153474442121,-1.5155045660244054,-4.940883623393983,13.624951662680442,7.7388560492983979,-5.3425958522797549,13.367402155431194,-7.981850171694801,8.685741199474779,8.975501413066566,9.650167971120326,2.3709771625535387,-6.053553764763296,7.798086512286644,-2.246246643096802,-10.22721270239086,-1.6398045804234754,-3.8215714300175129,-0.4470956286582668,-8.158761955023222,0.948079720325068,-7.131809457671012,6.977457985665916,-1.5895250259195597,-1.8298599344172498,-0.2262965717800474,-1.0815069170724208,14.412047102922802,-2.4845092715058199,4.677394291303269,-4.978847536198105,-2.018683158191321,0.48901166854042896,-2.324457033129485,-12.465014226753383,13.291025194873548,-3.3839426078730274,6.533324119152078,3.36526694109188,12.677833451221698,-5.850702160432548,-5.546992807120083,6.828782985476709,-10.263625670981219,-8.516729624542686,21.056118198784064,-4.606335142200972,-5.832377737563603,-3.5472996543919677,4.799339348298437,11.041659383795148,4.769058998577212,-4.6496529641200869,4.302546105376109,1.7328641573118214,1.552723059350215,1.1334630738861183,5.0280533383342009,2.1057949858487037,4.323072399040139,2.0652436795464368,3.682032906577278,7.627747483751491,-2.3952812024499305,5.788683664415908,-8.506478023979325,-1.4538473672844208,-0.7828096196391329,1.8856936057374079,-5.0026705179875139,-0.9631263093394025,7.599236642913965,-4.418504120012519,-2.152835593125103,-3.2567979047711548,-4.017062058608811,-1.1284154798373239,-2.4260335401820529,-1.687014543800006,-0.9110926568921552,-1.5351820869745157,4.282353370272117,11.098425414786286,13.96525104533232,-3.158824668268448,-4.946045348893531,-0.383327734207267,-4.2050336898737969,-11.83797265865988,-0.7431533198034128,-4.51742519313768,2.4926590362152485,-1.5891279907314143,-3.6811640622302685,6.375934960355024,-3.5429538724520626,-2.4073305106622389,-3.2858963937678959,3.0800444314310879,-9.546289598288908,-6.8602417371889,-5.424699360990602,-9.119047747904899,-2.049332407725119,5.353495600639525,11.134197600487229,-1.3666935564977712,-12.981004138858113,-1.335709612883176,6.160603465592489,9.502585929899432,10.382250805538085,2.6979221975914409,-7.198725973660307,-0.7590872166704865,3.644235420294039,-1.3597978523987302,-3.050869816878666,6.010667369349268,10.556223125214937,-3.3164046340907444,9.99652322288592,-4.0513841810310879,3.640938296266769,-11.53421908172445,3.6764597596762824,-13.695236796431816,9.97766756251911,-1.2730461351658653,-0.7982479146085056,-4.134714852994614,5.817804344326085,1.7180664911844044,-3.39810856889271,5.391012734107084,-10.332430711197862,9.241447627369946,5.6594659241833649,11.767738619950239,-0.2274519639242508,-6.590055660654532,1.4557316424913332,0.05008487937971278,-3.7606252260599857,-2.886115534412062,-5.0823983741350029,1.85460470105635,-5.3995274608931169,-3.2445602428851747,-8.08139146556769,-3.5984643794842765,5.2953612362595019,-0.5861460590685765,-3.975148901990926,-5.884735320377943,4.1126458156800249,-5.297508707489624,1.2811115182193587,1.3560423524268184,-0.7702401154759258,-2.7250354455945997,3.613695359995374,-6.109112246230832,9.65636207933937,-5.277947784017546,-4.658906203992041,-3.4546195678859528,5.053790711789377,-5.634340855661714,-8.418138608395206,5.716383880158354,-9.445654299640163,-6.61746500643783,15.47499220920293,-6.30464274535095,-8.913382619039205,0.8651709595112163,1.5531309824370754,6.481953098783546,6.919323178221604,-0.5589628170694938,-4.067937049180044,-0.45470420203826336,9.729248352393635,-2.0489865359917598,-3.0431873040005867,2.446086363372319,-0.7578612101625349,-0.8032582218983598,7.0118242899476839,6.073769039713569,-9.107336558407946,6.260621707576289,-11.15806008660224,1.330808457267778,1.067967103160074,-2.0755035368021259,-0.7581785997567107,-3.1573744614183969,4.7237399011795129,-7.12939566021912,1.5351698613912597,-1.6357399370472757,-4.738971285828935,-1.4197321212095764,0.38161805350353669,1.1452838677303068,2.4597227241006887,4.820272853402298,4.612077996718012,5.49723355343215,13.253475856888079,-1.2054775091307673,-4.402194639567603,-2.171493762155413,-1.650421088817541,-9.582753701740435,3.413529815365315,-5.337952752577826,0.45357722989326595,-5.20499128080127,-5.337568677818456,7.482125382635569,3.1554968313741496,0.35702424763451726,-10.843052617086216,4.039443089364613,-9.632395483233353,-10.249698043870139,-2.7554416797578527,-7.0237895657234079,-3.179083619063916,1.0704184980905039,2.668066277851304,-2.1588616883186675,-12.672928643832984,4.088440099497241,1.1352974788868849,4.337608722916738,10.953240035734286,-0.6792631838102347,-5.822470006231229,-5.711473913486771,6.924411694031342,-5.379510867102453,-1.3567899713845229,3.837080719912072,2.307171211632627,-4.557364062874788,4.36921339591752,-5.317591640731362,2.2714315828110256,-6.785165349305207,2.667013560013726,-10.594909487097742,5.838347983815928,-4.899370841024737,-0.2244613582973673,-6.173355707075096,4.670689532190404,-0.31584011786680346,-0.9874670822225992,4.758070412058001,-12.88947257993259,2.887816770776976,6.833280808365664,7.928664084996839,-0.17035559082327793,-5.644754847898669,-0.05138558654474705,2.970987991831884,-7.240109023943881,2.2475850530132686,-5.389072287569281,0.24534618230055744,-3.4755650009177407,-2.4662921058982456,-2.991876674301374,3.6378634478553995,5.758311650421296,-0.37947185404915176,-0.5418225638549807,-6.300816480373464,2.224819512102926,-3.0395134845211757,-0.5549170553709911,-2.3463352775958707,2.356471612752126,-3.6598793938026805,-0.7258472554635945,-6.845344272909097,-1.34223372839064,-6.659059671513461,-0.0044159811786416,-4.2066269651406309,7.000759927912884,-4.062613172193269,-3.5867551212958368,2.858345434237675,-8.43617683724483,-3.5486910997742679,11.27983452272141,-5.690190748172176,-3.537331332101665,-0.8422990160446416,1.0035413058173393,5.535254170923766,4.855124744309307,-3.9495052605768867,-3.140320982831189,-6.427560454745181,5.759541795911009,-5.96949685387294,-10.03488444320765,2.735338655050759,-6.519993239777346,-1.2451553570654846,6.265249455299491,-0.8842784885409158,-4.823233071213301,-1.6651826695682098,-9.001699638687006,1.9753314484516316,10.250780241585016,-4.678570158865409,-1.8243709080901026,-7.765506872121869,8.545718712412049,-5.688427410792488,-0.05660013992889247,-2.6241159109011598,-0.8525008565518949,-1.465611590178774,0.44476885482449288,-7.347534348072566,-2.3647291423945075,7.137463858546543,-1.2914396523813692,14.396088595661447,12.556302011943125,-3.2201366149936598,-6.941843369406656,-3.6774896235427976,0.2885482787512555,-18.647344548259285,6.721774481037773,-5.526912518624478,0.4920368188245864,-3.0440792143562538,-2.5806991407795878,7.2454563946579599,-1.4461871310002915,1.3222455058391714,-9.874157096819168,7.090546756259961,-5.66945301995484,1.2297666543448094,-7.822889715914122,-0.31943584368757796,-4.922058752770704,8.58942292206701,6.16591109020051,-2.4792023507425444,-7.928805787656211,6.035720066441889,0.44087080176291418,4.878230375600369,5.994879854434703,0.7741572919363657,3.9689912674743939,-8.910639237351042,5.00689798171161,1.6901927683655827,-1.1656359438886013,1.0729119456473062,3.1397900048128455,-10.468980016419179,2.184426566453663,2.2985833061226166,6.2691301812869189,-8.8216668886021,7.778116252282558,-9.806111572342298,3.38041227088035,-2.3482835681618137,0.1388832757998703,-10.661897892383399,9.301781213043947,3.138246946663126,-4.231069201543398,-5.937177584869413,-8.144124099856367,5.634473079309965,6.879266766368487,8.666877041312985,3.022021186975442,-12.127981355226096,5.80126775870059,7.391155931447279,-6.752711529501904,-1.9239937061367068,-4.038483844223857,-1.108884583430641,-9.85976798696383,3.4529481649161135,-6.005948168177035,3.3022520575670266,0.5627899628351994,3.4489537333503179,-2.369122715845141,-2.50024770275076,11.876473971079414,-1.3420251762775686,2.1351043189290674,-4.955205364717961,0.7000977335956269,-0.49459386778720895,4.098626846003664,-6.358926547485376,-0.15391500008788457,-7.971022941977943,5.591590487170514,-3.1145569520235649,7.517274365918834,-4.01277707552787,-1.8842322586466103,4.081951554958447,-5.582454468938333,-6.501418951495694,4.16990512846745,-13.447998425146269,-8.200898549626427,6.643053169046063,5.272902302676644,3.0204474165748036,4.0661418115183409,-0.03331088780906116,-4.399044135846678,-7.72709907903202,2.739981717298805,-7.1078123165713189,-10.419996839453109,2.9775310226223947,-3.5551086373651397,5.8997081346825939,8.470989036420447,-8.527084601471831,0.7170236100869999,-2.87832524634904,-14.198851684201144,3.3845562079193258,3.8113603256400188,-13.54457582475476,0.7532995117726118,-0.9358556569886936,6.680112143153288,0.8360737168170237,-4.171819185020111,-0.12328408404835606,4.067307172560024,3.9604134139515558,-8.302301948024164,-5.761404346409157,-11.609519526554636,8.697623103798716,1.4131043940345858,10.794257031202447,11.12103402384528,-2.6420736920188316,-3.191780024792966,0.689394891998758,2.82695446238915,-12.065973308213847,4.9272879383469709,4.235088323567989,-6.74153800451825,-0.6432355082796569,-2.2670609000783275,10.074617766635793,0.6429765851115787,-3.760290256667187,-11.596435510537706,6.260474875846823,1.0886751428859678,-4.772210142939747,-8.725003814316099,1.4126957842353272,0.12575365619447036,3.4721074787878605,2.4086886760827519,-0.9218791844495179,3.327154627218443,0.4154775947490155,-2.775412752647684,1.8558733568410378,1.9550972857137433,-11.803416553098869,11.764948292778165,-5.736725401867575,3.4239529084792705,1.6716941404606014,7.394334686898963,-0.7542839606601678,-2.343897539364478,-13.925912570946771,0.6714864583065091,1.9423546687487819,4.724317756065188,1.7526602116485464,9.177231280168173,-8.192266087901216,1.586385570704496,3.059899770536835,-8.187525280058097,-6.773505454927211,11.053510014602008,7.391025041567109,-8.799741254049437,-2.5792372996030306,-2.5079803599892687,7.273293499746375,3.8780348442222598,9.413206023735686,-1.8285270217732597,-10.474038674607315,-0.18916479803012924,10.774926348483027,-0.49525583829832955,-3.1057767698892606,-2.548316757851618,5.266090929462023,-5.369012757807559,5.579849813098918,2.1085928256160617,3.6807022036983696,9.043250967864108,4.4737100879898,-4.683049771783962,0.48809081740086365,4.398922576321394,0.2456323631370662,6.299968569781239,-6.682166124979207,-2.426335101460579,3.4029541622327397,3.4833086303382756,1.6503523266731893,0.6039775147381408,-0.7290297061382148,8.507255129255169,2.2220327616507387,12.933769846072272,7.415736579189388,2.0001939056303166,4.9017894948962958,6.065464709231586,1.3566800035074103,-3.442097589522508,-3.6045494749759725,-4.638205956811927,10.042331212550126,9.946889012516934,10.455417338422194,5.906103610984248,0.8060790543074838,-8.646507483421623,-0.08909511777565213,-3.6883665751966405,-0.29957624429613785,-3.4672660337353617,2.942086786964666,-8.515171829809166,1.5192106496555347,4.806549586013358,-4.489071260839393,-2.769286670434806,-12.062182741503799,-11.031626286989792,3.3069167095104334,-1.3807233484887689,-19.671767618614337,7.7680296819006779,-1.2020643692449964,2.341036802466086,1.3186317628424716,1.2209898137770066,0.4222749778037654,6.3846762665719158,6.62488780197523,-7.600426592572979,-2.3325390123964397,-16.113012262538925,4.195839412536823,-1.6590089631861627,6.575367984737105,6.264146235237921,0.2599701107121807,-1.9868821339567234,2.5903674440758008,2.7287269029595437,-5.890635452915264,-1.5749539036404026,2.3226527159204179,-5.499933906359253,0.2660335584652957,3.7519728184519449,1.4304466124753029,0.888127458031399,4.37678036220698,-6.299859220589417,-4.405897725062679,2.311973952559109,6.490013123584556,-2.335890116331059,4.37332661248202,-0.5671736574450984,6.238742035199188,-3.7536367586199339,-7.11340506808317,3.300281260724536,3.0257163060034437,-0.6026104802109643,-6.698557907993142,-4.659301299187167,-9.718581990484804,10.777163305952453,-11.013808793775248,-2.969141989850735,4.547033553327725,-3.0450633400838589,-9.786490904724154,-13.235029343359584,-10.30889566222173,-5.487000064530037,8.502052838700262,-2.6469693369272919,-5.346856113085344,0.44969958191092787,-2.698365635717015,-5.311602410867999,0.7509654422787265,-11.133974632075688,0.017520995108127978,4.46017247538805,-0.5081201405909177,-3.2582623666870198,-15.312772457653449,7.7764672275337969,2.310255727299544,-1.049561770349161,2.281391101449924,-2.8417065307401718,-9.282016486382095,-6.439303806108142,-1.143208831710474,-1.6387025526121136,5.054025770792146,-4.997715051031723,7.962396602807062,-5.215367022652344,5.394364269106989,-0.506896890456267,-3.129408804618775,0.958562303275502,-1.6693409565400577,1.2936808071046087,-0.39221087687359215,0.500676242496757,3.6252913349050237,3.2656350485729255,-4.305010318400769,-0.6457248064421494,6.096777513490168,1.9982401815744618,4.032777727282981,-6.485009836056699,0.8311438206469729,10.462580854335596,3.7253418865248317,0.9359017227241694,8.562877484235509,8.022159835474368,2.657502914037866,12.027120171347969,3.249984505622932,-10.968762436364987,-5.614102696554313,3.592727465600149,11.879761119868137,2.004595455125866,6.930593228602689,-2.5914032080511788,-0.31915756917095647,-5.018717088846479,-2.200971393167372,-4.949085066275619,7.4675575278849399,-4.33119737526557,0.9808761996499792,-2.2842910938930349,0.06942712389077632,8.57963797104466,-2.5212474495335668,-7.8822350110056569,-17.852921485858297,2.0746515086464218,-4.855647946387561,-9.43684064937599,-9.944000853282683,1.2895720131334992,3.05149670038012,3.568033234692615,2.560711849095665,-2.967406308495232,2.56961261742547,-1.1883249583581217,-4.054018889168432,-1.6338941208847429,4.512491740490558,-7.906186962343963,13.170623240858133,2.574916452554535,1.513662273404915,16.3080821425613,3.8684043732040336,-4.831986382847241,6.607185130611702,3.8921977487813526,-3.529059932046289,0.5655497697211743,3.829388011269131,-1.3308247418535447,-2.026882146335988,4.48461336241301,2.1422531616476427,3.038412001751936,7.578988743416449,-10.07570239530095,1.443643767367587,-0.7145479850555307,12.934748253809899,1.0694792920367744,5.025650791568195,-0.4162788360310232,1.293311782845343,-2.377419745267924,-1.3452189452827908,3.569107560037385,-3.568080026950897,-1.7447170440584757,-1.9369885504428588,3.3470095920110056,-4.939525903149835,2.442949602986659,-3.988705468524173,-8.474212774660641,4.509774343004565,-3.14584508946123,-12.167453844245744,-8.326275407521797,1.8819039014571582,-1.2797479350800745,3.4042736541689755,5.741832032882009,-5.472885625210614,10.190206693333263,6.238072143946048,6.01186954908158,2.163035391816325,-7.527080629117035,9.826152283663998,-0.6957083770456743,2.7761465406057366,-0.8077230050972821,-20.9213090759612,11.857201680660115,4.344247208217074,2.156168097266449,-7.32755985287326,1.9078925464777719,-2.6044681432880649,-3.5448553978395087,-0.41342832094103795,4.840267207130241,2.65932678176244,-4.348720136856908,1.57179096305305,-5.410302928568468,3.8942067234019848,1.2365787195474672,3.245822193627343,1.2151027445145053,-4.880718096906367,0.743891733480713,1.2315596625440367,-2.7166162572212109,-0.4244169705712769,1.3715114492464698,-3.529282225402823,-2.3417592807194875,-2.144938972946136,2.7714200018385215,2.3106124275440544,-4.113198764356142,0.19368849149268614,14.944337662212507,3.34046341723488,2.4919608853719086,2.435476744021006,5.701860464543432,-0.27286489518369796,10.172633943551159,0.6898360342253384,-4.568710203608851,-1.6037894641298565,5.863622764000119,3.9991281319343816,1.5236409905936812,6.8060020645568459,-5.954329523425909,7.760315106947471,10.782410402708381,2.2445085831821909,-12.916854867914458,7.394331410956492,1.1465387070718896,0.6128477478416764,-7.778631805407782,-9.199380173727615,-2.069177299472227,-3.117888938871759,-11.11295948844984,-13.615308698102185,10.286053251285474,-0.6376941809269398,-13.561886744091263,6.997018194367364,-4.892124814712424,0.4544421278303894,8.604177023985079,11.999607494963462,-2.9443370018892618,3.397463529823611,0.6724302672911524,-10.526908400960915,-0.7086077499525429,3.2743514855579,1.5141990653699729,13.791162014039326,3.4855777129485419,0.340570474281943,28.46992893274575,4.161489495182061,-2.1183362725579926,5.958729267415587,-3.714368108088678,3.7117021083988095,9.646938796097273,1.899971407954672,-7.157515598994512,-1.6164788279417873,-1.341605188280015,-4.548089526169518,-1.055027907482014,-0.1664061310745785,-12.318633374508206,8.189095950356246,-11.224627070742482,17.717145932786239,0.46000672075300239,2.3068152065325839,-5.851931298674514,-6.264148854581169,-3.320234770290863,7.7045630461878729,-2.437762324539931,-0.9101742890164836,-6.750519230490365,3.187102408035258,6.887550965592712,1.3692016792181175,-4.952668943288226,11.794163772699417,-4.745304398207164,2.158280961098951,-7.849470023193043,-7.180880727640989,-7.172609761646294,16.2045692586884,-0.2381619707703396,6.1278045785207839,10.554609407304085,4.240865985688168,23.57036760300809,4.31794282275004,14.93454780128554,9.202975421532289,-0.8768420428194828,9.066945021656148,2.6342917609842866,9.209657443916916,-4.701608055468433,-13.06535604605634,7.844826988557354,9.274543727940119,4.364309554013457,-8.27714741410112,-4.796122550892611,2.099187999211112,6.128626843971907,-8.252944991883876,-1.882976305383432,-0.09113525428177538,-10.141817549816976,-2.6065347992493925,1.2022023122006889,10.494596336622675,-5.090824666792671,12.846534988355229,-3.8482600084848337,-0.33871419657266385,-0.9869691210610161,7.669805950203491,11.401629083516758,-2.0879386961949266,7.471799697795848,4.059502598254364,-4.898247139256278,-5.1713872957723618,3.41542410621165,-2.065893124678045,-6.0660923605419,0.8085936668272029,18.023340842011704,5.745776513321819,2.1357804596683969,0.11484779050111514,-1.8100022800563889,5.595328499177322,5.964509117322472,-3.228805937554847,6.979476668340543,-5.23562850918915,-0.2593012524654405,-4.640332789821086,5.697862777262202,16.787322252880587,-3.2960154029155759,6.483379809632545,17.76932572310832,4.905755010020817,-12.7031554072147,3.0678827395578844,6.115499931076052,-5.605680649230065,-9.88806299777821,-12.354712805714911,-1.6892938351916596,-3.5588307494347419,-3.957958444892502,-8.673923747561473,9.298776139009006,-1.2467675878950105,-13.984336939073533,12.66180312689959,-13.83742566952163,0.2590829232122691,16.338638528654003,10.870005782339075,-6.565494228291549,-2.7790531652550687,-2.7700403732782679,-13.586242623035267,4.0480743191401,4.309445085063134,16.426876582824919,-2.239997743751117,-2.928790089079796,3.188200986121323,27.487099797714185,-2.6076929962379165,-1.815575775144672,-0.6403256960631988,-5.797589026553384,4.046956297946336,11.810022433624152,4.59312236064054,-4.331739144465792,-4.80992662898601,1.5593486785564157,-3.750324359045573,0.8655903025689319,-5.035872047658778,-9.740772153584758,9.078792088215934,-6.804122032722563,11.662233023318312,0.22874101948866674,4.018237324345598,-9.18556935122516,-15.257075353588812,3.7781513167307896,6.13724772544712,-0.27247039881830267,-5.994412622639287,-8.192522331983497,5.049714093412634,5.9115057344964969,0.02515537146626389,-6.8378215006635119,18.061392490660169,-8.420130846940247,0.5184357891927764,-5.672487113976533,-4.938135040179235,-6.909858606221505,35.95269083148514,-4.608787721504457,1.5451111702245502,16.22128715619893,6.551327909109513,14.821876027996327,21.573288295713419,3.6443161455164998,18.27172230250605,1.7801945401373012,6.7822962227857499,9.701498295002214,21.43156211489642,-4.947574300457488,-4.149922531390241,9.432979228532539,8.357590365233066,-5.195992973551155,-9.771559997294299,-6.906750513519501,9.60963293904764,13.855339371708494,-12.738616238478296,-2.721777749727063,-5.09884411204639,-20.153585759488789,-8.690974426634414,2.1279376009823238,6.334538932601234,-2.1960094438960779,21.730591080534859,-13.13585674078138,-4.356890888509455,-4.462655380317993,12.38329129435755,9.723647938695127,-9.50264520757903,11.231389960562645,3.256004671296466,-13.623828456776258,-5.565042374334919,6.501718825170779,-3.590584212721088,-3.5541700848997959,9.907703223648293,19.351525201300299,10.46273339669556,1.5732072604725219,-3.1564185597142817,-1.2504826820042557,5.170956880018678,5.85643462905567,-1.9058937092165136,6.969111338273768,9.830249954037408,3.0157963348112855,-15.523123393783301,13.694508946347938,14.002195714975802,-13.597545343614277,-1.3900658958164838,22.83500042897353,0.7832224742224766,-21.313877309706944,-3.5650365188354797,10.287265799032712,-4.213534504455854,-20.55438458168862,-21.294770206119954,-13.516720086369434,-4.642397484609716,-5.755590532076207,-13.484641400951674,7.0425231014326539,-10.858162780115727,-18.800690563251825,11.850175664001517,-16.69911608846513,-1.68313564412211,11.658973611022102,22.952685964343485,-5.283258007979038,-1.8015277395254313,-5.98294386932274,-14.233078102533759,6.168229174264575,6.58698330117206,28.776568204554349,-9.834099583375594,3.7645637428454066,5.5185097527012829,23.301373207873089,-2.4462107743437708,-8.297404572158433,-6.375526589261572,-2.243347885367469,3.309992741239302,11.99877100796556,1.8353897003340399,-4.898791475355011,-5.500245946588251,2.875209618074185,-8.157366972904584,-10.216696577096668,-18.327129808643645,-12.59480813351776,3.850418659621,-0.8029694921769086,5.949296851250795,4.667789326288564,3.403610564527536,-9.57714531607457,-26.02904582530456,-4.087375055349115,12.913690185503582,-3.721213326983306,-5.295084194506595,-10.737360751302838,-0.9575268124609252,5.600396423597191,3.4415531974189208,-2.905962000135683,29.842170182845899,-9.179477729906483,3.2194228504695965,-10.418996442083673,-10.193285632990352,-5.307289991063966,42.311245090672539,0.2830637001027223,-6.061530805889639,15.221079960057749,3.7621269618492438,16.298824097049736,24.85692228860575,2.107180284896913,21.233948503506399,2.369979571311726,14.678633648605683,9.064158988540989,31.4579507422793,-5.5821609101948479,-0.535610129543028,16.6358328836291,1.5277755509247744,-5.063443562141549,-12.345939722567753,-11.76232813335952,16.902653186996074,14.601644428380073,-28.327860515617475,-3.912379031714092,-10.930113416122286,-21.721458875981587,-10.017941561140815,2.1471973999832314,5.070520433777181,0.39924740153182378,21.939387998547287,-23.38659218064018,-6.025592814369174,-2.1836516068311568,13.433828632765941,8.446773918776247,-6.186189713455695,4.1873439428959229,2.254438763899962,-20.706124902269509,-6.594230972241225,2.4137124762707389,-3.2285158740043324,8.689499630183818,19.32742717557602,26.513384418719594,11.17181302384167,1.2442560754630552,-0.016163313764892136,-6.60407651573739,9.813779933925849,6.633756842542133,-10.322829897606411,8.05396874721103,13.521789933088629,-0.31745883222505336,-24.188513619059699,7.052506797116965,23.75726571502416,-16.81258662571486,1.5962601537274992,23.190136913322946,2.3292507621721354,-26.09833612660647,-2.9058696400673398,26.523333482129357,-2.5215179103878095,-14.896640034667364,-17.267888120885567,-7.1200508468948,-4.85210609977615,7.149434759268305,-10.112259159751403,0.4707920132600339,-5.538890842300957,-4.319135764713007,4.589004947389677,-13.358819071077905,-2.428363360032099,14.18100613094594,18.698447369967206,-9.540074350848024,2.396680469677332,-9.278412691435755,-10.14618094112379,-2.7714760450309714,7.788883174601181,12.12297743117678,-13.73410231967321,-3.246355753105078,3.78816995128183,10.288902655034992,-3.878562881125951,-0.22617612113638259,-7.110384336394616,-0.6104477787378257,0.19650958691273366,12.51573184831191,4.722373771632042,-9.378065001729695,-4.983685109430084,0.9992867637940153,-4.939202120421346,-3.7925985826572554,-13.985268541084329,-9.601395564195374,-1.9420906545511104,1.623373976989924,-4.199845171694716,-2.0527411859741848,1.4997024818293033,-10.02681009777282,-17.810890362533987,-3.1256654499597076,10.224610942859608,4.716360743912852,-11.080689413658538,-9.387510602365819,-7.306070343006685,2.7364299945556667,-2.0822640264724536,3.578016944045442,25.229698441379957,-4.246691381757858,2.7164864531806036,-2.0287042939133048,-8.418921861837588,-1.178014090463921,25.985239350361068,0.5392574950673676,-7.318209072905542,13.752184077146728,8.803219307329896,6.560405749373239,19.15611237340389,-3.5222342457296489,21.978914120217433,-1.3053681389602277,4.70708206677192,20.368408577448354,26.298457555229203,-13.32706514738445,4.43398309170052,8.635520166192869,5.759368200753396,-8.607094751402878,-2.09016999082103,-7.906211308965238,13.509918719566354,7.164962556865286,-27.0678296385569,-4.0757817972347019,-11.919709893044719,-18.738983770240269,-1.6766863799586818,1.2280267115821,-1.7546261213514428,2.6949578896341088,18.803831863978148,-15.32607894940112,-4.45302252936995,-1.6058806069806587,10.726649068801029,3.042127617282307,-9.507395160592323,-0.5804247719863506,-3.0378325994186299,-12.226889327715421,-3.437362848023074,5.1393272581242839,2.083975401654539,15.066798253125392,14.402307494705717,11.341207124246918,6.374152007504712,4.817289876993377,0.5520189352884142,-0.33578607681166186,0.8758704270860923,5.18626659167525,-9.684601507156474,-0.4388414090624196,10.5060718409839,-1.8656678012717639,-7.480423497788632,14.05222373646998,14.994160976840755,-9.872485718105214,-1.8510732043045284,9.211461937159604,10.186988993358283,-21.659644669663444,2.4023719696269558,25.55790148841886,-3.4925166180982578,-4.158509055782074,-2.873391948520443,-6.11101323636891,-8.3540047191297,9.77909490016547,-4.658868852409962,-8.558060990400634,-5.0894452972449699,3.0754079879938138,-3.506697274107829,-5.587828228495309,-0.6932858117564934,11.373623491676618,4.718325079114095,0.41119972524991957,3.983114279958268,-2.845263152155575,-7.152579338260057,-1.051557552040561,-0.13108996157650025,4.47825219261306,-11.181756161308155,-4.044602359696807,10.942729183079252,0.6955045626187084,-6.076488196886836,-6.704683573335929,-5.803794910838875,-3.5002061572838119,-0.15087237330718016,5.207155893438188,4.325223841928518,-8.389283773804844,-7.153465868396615,-0.7581363191421543,4.248198860631935,-5.039404266591763,-18.954651340436148,-8.104382875018246,-0.6832804368013504,1.5906869543268703,-19.12962417830582,-0.3843942874405314,-1.6094210927514654,-4.087047716447545,-7.711625979233409,-6.760614092257198,9.35010900982071,5.387372803485844,-8.024578995271533,-9.476100117924125,-1.4721970865353589,3.574809755312796,-7.749966913472827,1.1882924284247878,11.480681027939589,-0.6538284755089063,3.763176185490336,8.172684984253232,-3.120737562796787,8.034037075944932,-3.7096414039339198,-4.37497205958296,-12.733314662812975,10.013930561097656,2.2794466059919666,-1.6958908586678037,5.060298751250507,-7.31450080260257,8.02625302204111,-6.001976137158756,1.7054246853534872,22.557789930154259,14.750898253236283,-10.259195035226988,14.408070795331609,-0.6859285477875076,6.299165468432849,-9.372646222569215,2.2662760273280448,-2.608644392217845,3.333304643409469,4.302557655750612,-12.356903337711742,-1.151457936662915,-8.892161771422208,-9.487937014306765,-0.10964422704828902,-4.759914804508876,-4.461868630921578,-1.4355153167164306,-1.6254496379493567,-10.090680701734357,-4.158738227990592,-1.366586845609909,11.311205128571232,8.311388462379396,-0.5738825146138128,1.0937156799076214,-0.24872260067405203,-12.042977744143578,0.6698459956862178,2.2521225094552488,1.3787395104105127,13.110783540297414,7.670989545197253,5.269108068220536,1.9025338089950615,3.676608039674104,5.150989127899858,0.7484066708385438,-2.0870804943821357,-3.3600153986820087,-7.055720174114826,-1.6183072242503807,11.293710645979657,-2.591473985572489,-2.921921781018047,9.158067833039857,4.525452601011174,-7.26892178561392,2.616788758534264,-0.09762845235223931,9.8062992066594,-14.463260233465999,9.130677924358789,20.283230494218264,-3.066203724655311,-4.423646508440481,-3.3214538625376539,-12.180299358684886,-1.8719055155279417,9.368660290106796,6.65799664544645,-14.201525665293986,1.1852310005693614,11.923373980146336,-16.12168888962324,-7.913496909088398,-8.16547769372692,4.990346956845579,-3.012644326268383,1.1033999496133707,-1.3588551406455068,-3.0406394027826386,1.0132216161837513,-6.004494090613323,-3.1386798089262748,2.0280364712122886,-20.4619243738375,-0.6934780951530191,7.794316049083089,-9.79309288523174,-8.052957367657373,-1.7323825307569397,-11.46204805982394,-3.216494224543662,-5.178014034088164,1.9277664226892688,2.153200833466433,-1.8547620031076178,0.7435839046780245,1.4670340230486872,3.660552445446399,-3.0091189007874337,-19.609311666765565,2.5496896719458288,1.597959162691108,2.113695383340408,-27.8335834077818,2.6085378943420647,-8.433566850934893,4.114035859052956,-4.820367740354932,-2.391576617539044,5.64321515823966,-2.672215817291279,-2.2150290067074764,-4.82919971179037,-0.29099922606737968,3.9540821204912395,-5.939215485801874,0.49972007624902517,4.911694179095875,6.061034151997705,1.7351358961610937,13.539329736248968,7.0660748086976759,15.716356782062473,-12.462421060109828,-0.9474353982602864,-13.339940676567983,3.4677044542818016,6.589932665295651,-12.873703465775702,-12.323134469899417,-10.00865171883228,0.009979646363651751,-4.660882197129598,-0.07790695188430423,21.860758123371473,17.35874262945308,-9.66141305892169,26.140372517588376,-1.7040973717471253,5.2675026349040678,-4.562391227635181,10.471839785351009,6.040977838305678,-1.3754570848380972,2.8211298874281169,-6.997848525619563,-0.08323528904361533,-4.679106425083765,3.7020881944872969,8.142868660950669,-5.2750937573508349,-7.792547948067882,1.0270601332477445,-0.5997775686925142,-3.12101172181185,-6.10088092144449,-0.26815462580721585,9.87368588411213,9.206288559418966,3.7075818279130905,-4.3440186207528,0.3954727161679696,-5.774901405256115,-3.067791084931998,4.614068496149863,-7.797966067025359,23.89257284454209,2.546949919705842,-9.033234181645709,-0.9381845781540276,9.9703251247886,0.2567161506839327,-1.3355001332573886,-2.5288472228666527,-12.493839319628434,-4.461635569524532,2.934592912765291,12.936405493977377,-6.613952403485033,1.028548868735615,9.034974136151416,2.082295633853779,1.6580153082213006,-3.195478361446785,-3.637366538909638,5.87004719800993,-7.11351889132733,2.441563985364925,16.510395888243417,-4.577982964702975,-1.0681690809507683,-1.3193338592922304,-7.361716584890897,-5.931392954917841,4.8815839768724589,10.720962628343239,-7.033445915467472,2.0417367154126127,3.9068567657156505,-14.948906806968863,-2.4757573364121274,-3.523105455685428,5.013286317350159,-3.1379370761987199,2.782509771941102,-2.362185438920954,-0.7255327033089472,-2.962711798495965,-4.89272751501802,-1.1831607258138195,-0.9055421951089102,-18.387685206533296,-5.287504477238962,8.923282080095229,-6.041286959275686,-3.7700504468042745,4.216438398315459,-9.88571273745801,1.9719397743042942,1.699936872650768,3.044760129929246,-3.854871746075158,-2.8740917653774487,1.6270881202515486,2.0155921171952855,-0.8228519876121537,-7.49992020208586,-15.503544705010992,2.8136080829814626,-4.8246135832968559,1.522056058461671,-20.590632394543794,0.5048329637748507,-5.220510817735519,2.9328560130035918,-3.767595881862353,1.061736129752538,2.6709428392433058,1.3172424218337085,-5.783174255091713,-8.0349361409796,0.9597143698337735,7.559335503369551,-3.1164782227583807,-4.6289011204364078,0.3932689440205329,2.255294033753222,3.014448822922902,11.94556909089639,4.620326498999303,18.562510809815437,-17.66389349446534,-0.24587581757368627,-8.070761423563747,0.3880262279008976,2.5487317645163136,-8.168982514073856,-7.3762357945378309,-10.32869287872177,3.942034527664484,-0.943838085321043,-4.7479898658491,17.10259248506293,9.826530378036646,-5.3185723557885409,25.174519032539146,-6.845478078214664,4.565247170127693,-0.0929551797383284,6.861198238547032,6.989170444796542,3.3564831720696617,2.892211798944008,-2.939384174334874,-3.0730720223188565,-5.309036736621157,3.3476412433509248,7.914150900486179,-2.6328231003797679,-0.8320934409047599,-1.6950292782097745,-8.892635041868419,-2.747686819588251,-4.838662608666837,-1.2806546016145298,14.299152546202486,7.171429921566095,-0.33151396444274636,-0.372177855627273,0.08583905000101404,-7.170883795610153,3.621959160510107,4.526596588499256,-2.061981947879345,16.49784443569986,1.6257700108866689,-6.794541323916212,-4.57275486297078,-1.1984429859576829,-3.397032610095198,-3.0277302161038319,-1.5868825569949592,-9.362711484371271,-5.266446765731289,-2.850475884245084,5.585370325311356,-2.611386625672886,-0.8058174696306586,10.62161662189074,2.4339233086551288,3.4046885012888907,-4.136525875275748,-13.312882568216028,1.578239369451842,-6.132286858098729,2.555380132245645,10.179804749996297,-4.97419252453788,-0.11556567539832871,1.89888219924379,-4.184476334465177,0.3569982405265916,2.1782763057509739,9.408756102731506,-7.73139692167016,3.1835857397303197,12.6013780504807,-1.2544294780940402,-5.864793000544667,-1.6306004717419434,2.899008971851487,2.892283175002753,-2.759331938418712,1.4207228833648098,-4.213811690113044,-5.7109489930778969,-2.1998452781952526,-4.545141130614921,1.2931989973829683,-9.236845955696709,-8.255248745312589,4.0976730976389439,-7.412395673529538,-7.65224007036708,2.2152847815664065,-2.9651479309754045,-2.6522746992431625,-4.890081806941165,5.490539646717155,-7.8197989817469699,-3.1665360903941126,-2.366793652252197,-3.433653000907236,-0.04242759333948038,-4.354478365221702,-10.019905759046424,-3.561739509081799,-2.336929741303479,6.190399590113162,-11.48427917858226,-0.16740362754934455,-7.241626568193225,-1.8497612320123059,4.03417490322044,3.5818522124808429,7.136094663121944,-0.588483833759371,-6.889881582532331,-0.3555611708059575,0.2490247433331922,5.195808385028559,3.6314603884832978,-4.6993096789588819,-3.0512215337144168,0.620098748793441,-5.5001127688410789,3.0823894450746329,5.520352118840485,17.94531875248977,-13.784779449174433,-4.876398330518228,-6.279927117460047,-0.7931653552176332,0.9958912522371674,-8.163150320519039,-8.820218769623489,-5.78372686332794,-3.8339170699694309,0.8171883430093457,-9.202981005862008,9.75703998713096,6.202800381090376,0.4178090937977646,17.568085034490659,-13.104250218725625,2.5987893406984257,1.29100016257163,3.454948175071127,2.2962351609011075,2.2256741962378676,2.0071617210766874,-10.93086917817317,-2.425920442488796,-1.8412754137892143,2.829742336058043,6.314348706384159,-2.5086413395493678,-2.932146043849997,-2.464311436247481,-7.276435443312306,-0.04069067903000645,-3.514679759572251,2.1286637518529867,5.873299914034481,1.2268662996389082,1.9098093745186924,3.0921592081436719,-0.4286453901931593,-0.6432171225685068,-4.4390891518053199,-0.6932397072367765,-1.1560697003572767,12.197359436482106,0.5607951138401585,-9.429319632705056,-6.526190052113459,5.483914955301066,-8.198963226904857,-3.5695873982838188,-1.7770084639696178,-6.787123067399837,-6.786582276821131,2.3425880116384678,0.5633357239133591,0.5004802959837126,1.3893313987615075,4.84833295851965,10.485629869203164,2.1100220373459606,-4.25705388038079,-9.788512492432732,4.405168388116195,3.608191914039848,0.9325999592165741,0.8265359520206141,1.66628919531286,-2.87351970347132,2.877411659758317,-0.751060916921015,7.140031815896003,-0.9439493097385914,8.134182497355907,1.7886044334128335,3.679152384162993,13.57005469054755,10.13927970497085,-3.0419557086711115,0.7511659309568578,-3.69508727716869,-2.065781252808936,-3.361400543386005,1.555658654593933,-4.318836278977046,-3.374172537404297,-1.4998475595501424,-1.3548129341934035,-11.056859606526002,-1.4441420817205209,-10.577270512053149,-2.5408693921733387,-7.800308447417332,-0.6703702172646815,-2.558568507406476,-7.090328190409237,-4.1747721548033269,-0.3957939732911664,1.413367291140711,-9.749145093304254,-1.8505984350766978,2.1625107451290086,-0.4618491739645621,-5.668330503142306,-3.1664686860317539,-2.131977254973171,1.5025313729704056,-0.4793100518939077,5.3726186608424328,0.21306781309158319,-2.768860820456354,-3.3199850561770685,-2.413858939171107,1.7694105259015634,4.444930911146422,5.317994473827031,-3.144874206904846,-0.7455651979026952,1.350672674924305,-1.0267122225380399,-0.8246875689820192,-0.2039343252790993,-5.218560371282636,-9.079713058318634,4.6347141489736,-0.06525562019714718,0.26866232588253188,5.004756635579061,5.986039337865886,1.9214765000933112,-0.4633415618806064,3.6051243547697848,-8.63547977958868,5.227755132076839,-5.701929539025503,1.7016209313204192,3.036483745344195,-10.474636115148027,5.289377702155964,-16.93699426912111,-0.10167755160392469,-3.714402509978366,-2.0538398292504165,-2.464572622412874,-8.457840231418008,-0.5389854604165919,-0.27468393629069656,-8.325804383857955,-0.5959821704326667,-7.229087581060143,0.5011665990590044,-9.194479265054064,-1.1733227602631887,-1.6870687001971439,4.770832962505776,0.8540799980451721,-4.546370759741285,-0.44786962647007685,-3.738649004960563,-0.5018855248615729,-3.0006750775262907,-5.6671045665429269,3.992478979398502,7.169965502530345,-3.0622334291721495,2.8274697177066727,0.3233017348219143,3.476493293238408,5.879723479994343,0.008522742208258445,-1.2878959848289602,3.2630436715573407,-4.886056389617467,4.8786943233021999,-6.454471123720071,4.661280943152926,-1.8476927770839765,-15.368745362685472,-5.803737145112766,-5.560282856909761,-2.8762159876251767,0.5090470403144416,-8.320863310788687,-9.905522613999926,5.41655883719147,-5.784176685943846,1.7694673406889948,6.359037844213459,-5.878726453875132,1.1333982907255747,-8.760753561142188,0.3745531912323163,5.075701829077938,-1.6482692625916036,-13.686675469260213,1.7257526392349512,-0.5468826462194051,5.649374758802426,6.9737527532674179,5.332767847679069,-8.018788925080634,0.33396114778430077,1.6095672700822444,1.2386564892854193,0.2751045933488069,4.898510413934222,2.949260084059559,-4.499867518886369,-4.709325076516772,-6.189840782535102,-1.9199930126918284,2.7336898313447195,3.5828591089776866,-4.499971190917112,3.7742663785774894,-5.847935109340891,-6.021357720574913,13.337059732440786,0.15209260745426085,-4.439287814228921,-2.9951141677472394,-1.905491090682715,-4.184568575121855,6.001542565937146,3.4940908847962657,-1.460447136835027,-5.663071913589151,-1.8426480095782046,2.349596403299704,-2.089963467864492,-2.697819320886146,-1.5404855582229909,2.842776028476838,10.141816855262573,-1.7576497878894393,2.893084483148308,-1.122978844301455,15.177825114934905,-2.8638871494694477,4.062558542119375,-1.3886432770509368,4.9265720586448469,-1.2368477594488568,-7.644999484313126,-0.21070568621722914,-3.781503669223551,0.02207179111604032,-5.345761647304856,-4.785551851925445,5.498084277229476,0.34124997224406736,-8.795440088647898,-4.057506081299775,-5.642279700537387,-7.1769690643070869,0.16983604555070595,-0.7962211222266391,-1.5219793739465879,-1.730824507849979,7.139617777258885,-7.592057347435115,-1.9813543879986713,-1.5370084312625879,-3.0310168655990079,6.2136671752909,-11.606494970596487,0.8621967468593755,-4.466396500317749,-11.24828701635022,-12.298674221304424,4.433658529299812,-13.153404177261713,-4.948296307131592,-2.6465193645719626,-0.17358744636264249,-9.429528891270659,-0.9443197125667215,-5.236905940387871,-0.8350245975239159,-2.8088606353150546,-3.460800824866004,-0.8078534370393702,2.186632558378273,-7.565837774758974,-5.850061554896443,1.0198066837784126,-2.695916729418495,1.2885706413318699,3.5863895296809025,-0.9930672660321156,3.777485295669187,-0.08157265400743555,-3.216732066808359,1.3510359022490373,0.0013911235192770869,0.04209649515890817,4.84688031715952,1.3999010226544802,-2.2547054409467188,1.2801646525816668,-12.303358975954773,-4.676508337122859,-0.6162981479817026,-0.10075106226743326,-3.071958315220457,-5.011853217312493,-0.4511823702512521,-8.339400771804824,-3.6758653213211036,-1.4655229024185038,1.0965045922836057,-11.401533350256666,0.59095319954188,2.826530493727152,-6.296588603708279,2.723062838997277,-2.822446049084419,1.4947530534987557,-3.012327971287282,-5.281480071771573,3.0014657618308586,-3.5326275888164955,-19.035334173415934,2.4346213671619085,-4.181087355502598,3.0493569908349187,8.06000662598065,3.688252461931631,-2.9341127029245106,-2.0668049214368158,1.6254279994553614,-4.567990111661025,-9.840827681011368,3.206930482387335,3.498688699260121,-3.4868479468890238,-0.001846282246098627,1.8456438542094016,-2.25934367988338,0.9207875332323066,-1.3442123249345302,-3.700465882960179,4.347774543073147,0.5999498691105139,-2.8086364532525578,9.114242576551727,2.9421482297216676,0.7631716507704428,0.18237091694509353,-0.7267766748344309,0.5699361031839056,3.3224113059151727,1.725370107586952,-5.192020819537132,-2.0410965514697989,-5.585459871448969,1.3830859270008825,1.394590976053219,-5.646466161497402,2.6395898086338827,2.502116603144818,8.012797524680716,-4.530814956493858,1.2078577125807036,-5.491163445656603,13.011398185736982,0.2457037499883023,3.66293727473351,-3.4579864626863308,-0.9293673406690843,2.7860642435843445,0.7036843117182942,0.49471292417148568,1.3827398807653438,4.394682842038047,1.1893015661313636,-4.280813315557067,-0.6321066221837929,2.4549840591466727,3.0870148929790037,-1.941154281993204,-0.8784089725875587,-11.597828821344442,-1.5724615202542376,-8.784515122537276,7.898661744136402,3.1811607490597226,1.3810032622442064,-1.7118682071815795,-13.856680867886052,0.2767286602895768,0.9402997080026911,-0.869878103135114,-6.347292262576769,1.3805249929011654,2.635571732252575,-6.9991031421252869,-9.424390452645401,-0.25679088211935116,-12.551100924619807,-0.32015682258158276,-5.893354746817468,6.380100495894315,-7.953716886739117,-3.65800541635155,0.5339356381508712,-5.178304613103166,-1.4161709179595575,1.5061477787635214,-0.1415693680454827,-4.54853917140638,-5.783206545044852,1.5053412760467296,3.6525343730010007,-0.514790655313622,-2.0745015040144119,-0.07890655907858946,-2.252226822414697,0.5171380018798435,-10.130047552741983,-5.9623507269503179,-3.6551409035856965,0.4403225301244207,0.7266300522169862,3.3892231749263055,2.4832375071391397,-0.6982346013784766,0.8527674092017169,-11.28986728767203,-2.1348687607502558,4.033173843443044,-5.230077045515655,-8.337196975326437,-0.4641977811338267,-0.98693580267998,1.6330430708618256,-1.1001676239245753,0.9457259014353974,-1.1130499215129266,-11.426359427163419,-2.6777216616193306,-1.3286534332315019,-7.852580394852462,-5.01681665969198,1.4404456646860078,3.3687698944068589,3.3066475471355498,-7.500896467306164,7.090552858950591,-8.960228014097739,-12.837004176299546,3.9221776837297797,3.312105668728436,-4.227774411496819,-2.595515198265098,3.191047198712095,-4.915798824723209,-1.1092579913547658,0.177915955529096,-0.23308335769521525,-2.1967098218743827,2.608970735551803,1.0914657174684786,2.8789471416418168,1.3548841972881037,0.8479715185190764,-0.9499115838665538,-2.0936838799997319,3.2121628783593354,1.3117724351732008,0.6267468131258348,4.153456810546456,-2.06035440909988,3.472348616851766,-1.5007777492062656,-3.3180685005923995,-1.066965045419625,1.133770738517116,3.871041263398739,-1.2274612518030517,-1.3557327878018979,1.9504334843446334,0.06782587040942778,-0.31880756060294976,0.735530060126782,-3.6840339061510996,2.886195946726731,-0.15566022787080015,-0.5596182998359788,4.760397697980916,-0.8521491416736242,-4.111073103984105,-0.2587857173673547,4.703489911629331,-0.7938146609208101,2.4065471560680367,-1.7527507139568095,0.6363395471341383,-1.3969111491808147,0.42982766860519536,1.507080565955048,2.827341821603748,2.4931213598960548,-3.200707438250762,0.7474113952873029,-2.5535839327117957,-2.236145120997993,2.125034814774288,-2.8016167440930546,3.8885707480537707,-3.699694000776997,1.9538855071118083,-5.832783769681623,0.6593040212050388,-3.481532738199411,4.811497470630804,-2.353539281173409,-5.7511498023956559,1.538844588863974,4.756841400442363,-1.0652763896292752,1.6098143823942944,-2.2141360322424306,0.9366755155509873,-4.105028706426563,-2.306195668762135,4.1173426306986429,-2.793887682062768,0.43790140041599898,-2.5585645998730066,2.965925108310448,-3.8902377797664475,-3.4221595612023987,0.7397008523573778,-3.615518010149838,1.7278046219859443,-1.661132933275794,1.5682871322411376,-1.5415620578495948,-2.0128673309905875,3.545432129179868,-3.716432407732399,-0.717234144814777,-3.6197631069378835,0.2711488331369749,2.088524599635354,-2.7713686402170225,-0.23938570220752956,-3.0235147489007514,-3.8132550737954595,-0.5255333297551292,-2.910525078981227,-0.9682938011673608,3.006147757450775,-3.1143948257144218,3.0790833029044086,-6.955799855356931,1.2737373890726823,0.03409182985658411,1.5756942544584146,-4.291269239497747,1.488662250316731,-0.4617216587219635,-1.7502006933848176,1.8317420507063858,-0.4159156833901736,0.216621762974742,0.43199565858131269,2.2964327593244286,-4.138662920623096,-0.7542956082760488,-1.6752282031937094,-3.2064092544319209,2.2818361226566568,-0.9956189042982313,-4.513611910864732,-1.7628774678707957,2.0682034707530576,0.12740607954695286,-0.43848678136552196,-0.5620245872965902,1.767179056084774,-3.032988555700082,0.7849420859700794,-3.152795258126407,-0.5557206549156253,2.1981133070125877,3.1856590097922918,1.6484305613312856,3.2857909725055909,-2.81124585632646,-1.686286478181304,-4.247561743465917,-1.79511310302119,1.0204611125525756,-2.2230718667583608,-1.215349870323149,3.7969145897048528,3.0510539910417195,2.9903448582721978,-1.3694762761279043,-3.178834853159228,2.333839300942414,0.512527587003599,3.612148381836245,-3.3075334037433938,-1.5485078953122167,-1.0918823380076286,3.295189682914777,0.8814728842214912,-0.23465073173290555,-4.2003798976682049,2.295228470031871,-1.7923696904242348,-4.054680518884678,1.3495477114433894,-1.1554642619432818,2.353120751708067,-1.362067959946534,-1.6880029885476824,2.8003008069475614,-1.925979248308267,0.618374919850744,-3.3673674482565225,-3.608667822451806,-4.028408136710077,1.441273936636238,-3.967653978210518,1.0632010941703277,-3.95344223187096,-0.887664540059238,-1.3139853708000702,2.0412453992100785,-1.3469141769457625,3.8321943712147905,-2.206263859580243,-0.1160992775510284,-1.543470011932277,-4.9560397488252099,-1.3062017432934737,2.424887558624511,2.183948099469728,-2.6120092270876045,-0.8007981445121999,2.827924304588997,2.026342145797281,0.7637307169718165,4.468703231020188,0.779010479397274,3.2810373269564949,-0.07949200489753138,-2.398707020911603,-0.8455589437878528,0.8964273485877093,3.6388756557429384,2.1784389862263775,3.2709435654781977,-1.175183898656113,0.10978770231469869,0.34511789984367327,-2.3924777277528119,-3.422359684722951,-0.6452681012695003,-0.4418476083942948,-1.9826948267805809,3.361810978056643,-2.9336857218091176,0.8298902807617647,0.6028477443511807,-2.2561660542628108,-0.1778837782804471,2.1604538921090778,-3.490675509521154,2.9794792274624735,0.7200631183814463,-3.5057790310505236,3.1459406731178527,1.0747316915731027,-0.2856885970815025,3.7239276441280708,2.859969264657132,1.9356963760413746,-2.5756254588456346,2.2989619444764659,0.5834381064208986,-2.7246454418528756,3.961955779583434,-0.7740373194950305,0.002889764342382775,-0.9400405461533917,4.166909918397886,-3.818503705452432,3.0176428470153007,3.72386636563333,2.572142747081803,-2.504143321252815,0.3441130222170069,-3.5989053242493798,-0.27753405001730749,3.4980154685160027,-3.424929995822819,-0.24806220353856224,1.7083244431961929,1.5945602816323644,-3.1273031153988786,2.5705425787551117,1.5982681408539812,0.18844001150100957,-0.38855554994007415,2.0998567234293468,-0.5055257197807708,1.6710887888198825,3.4774175335485069,0.7853488385500898,-3.6226123146741475,3.374230080439615,-3.9822392105048287,0.29697931330358609,-1.5193915441199375,0.7935142049088189,2.312597670109387,0.5514332909916524,0.14479662758459889,1.9035164520544595,-2.940647993005361,0.6146203730896103,3.3899733722601219,-0.6662613746205368,-3.346963644659686,0.5879835465096424,0.3109230034105366,-0.49916715929399327,0.311711700908587,-3.4987032562522897,2.3002395142583786,2.065815997393237,0.7861634030475742,3.586115049663742,0.20758439406248198,2.205051750532146,3.0897461741532474,-0.43713173945821617,0.5213570000156746,-0.5739605318432561,-1.3572005876447114,-3.9881164022698458,-1.1953182274423915,3.870836546320379,-2.1799769178584986,0.07434042814169573,-2.2387906073448216,-3.028460954440564,-0.7487082037754347,-1.9722588736444705,-3.464654461971155,3.016412445084465,0.9905678162526765,-0.9769967150889032,-3.333966526162424,-3.26844840916257,-3.321268705062943,-0.0827531500037395,0.066933893676004,1.9067765094171359,3.330877518608675,2.896163901257405,0.553487924124977,1.5092430563735358,3.458142683025419,1.4025580316067688,-1.9949040632809363,-3.5692030446765274,-0.8432032925270561,-1.920840305040028,1.4839455136721914,-1.5693136221912019,-1.6021878431827579,1.25327579768296,-1.0896970940069047,-2.548254349868671,2.48496928236648,-1.0650733420316512,-3.7382120836212735,1.012772252054578,-3.0943896468029647,-3.2943815930126716,-2.6788251047031439,1.4974071208656819,-1.9843831843674967,-0.5266193108400366,-2.8860193891667524,-0.5705342309320509,2.671771829875781,-3.574890734352439,2.6205501277357037,3.381945266034884,-2.568796467559051,-2.664880641423184,-3.9112293978465386,-3.031260732830118,1.643242224504725,0.34790670693280748,-3.032898862655194,-0.2785482925311289,-0.8258491214368318,2.848405766391732,2.5464142913682759,-1.5042365861537375,-0.13657415667008,2.8916897449934506,-2.9999635395560144,-2.953704337016851,-1.9811928467279499,-3.869878275617257,0.992278967092032,3.660356735380968,-2.2586290787840914,2.481554186877931,-3.3387412986216224,3.632937948289187,1.9563715565399616,3.051233684583295,-3.5162860197523324,3.8971320160606846,-3.3439376370389537,-3.3229597780730755,3.3963173999651126,-2.9226836444922199,-2.109229667076277,0.4087995381513432,1.5015309498775596,-3.9810697713436227,3.387021041329197,1.653080634982901,2.9653648920347646,-1.5371483792398329,-5.035004737503059,-2.9901739870039338,-3.6672783274316944,-4.224974247286715,4.612299464066083,-0.3545463792412397,-1.079653926178358,-0.21377313669150728,1.0606954192362972,0.4157605396166018,-3.963926300626432,-0.664038325594917,1.2717236557859435,-2.063065603952787,0.4429586352542702,-2.5980771238024356,-0.2895021531825155,-1.3748139224588947,0.15576370202749535,3.7498970559073885,-0.8382028972698034,-2.822714266164996,-4.318064779644583,2.1734866299450315,-3.20820955438153,-0.5246184941598638,-2.865179574033662,0.09983945320058024,3.0282020324720926,0.3141356803839815,-3.4209794403170865,2.3148353368281304,-0.6386917546280619,-0.8831266181733123,-2.214650259866594,-0.890775514791947,2.5859726671085019,1.8994643995137528,-3.1960560575303877,1.0100625426085995,3.419405938843389,-3.8149244444004499,2.13175672871466,2.3117383303238316,-3.6205256818302908,-3.133413492097898,-3.2355306544650994,-0.47939226680182059,3.3762584557269386,-1.172797269541184,1.9565405059325712,-2.9422779736779596,-2.471596890191616,-5.611771222048853,5.037932679942638,2.9958415252971934,3.6643907409780369,-0.6894198568344703,-1.675395640106004,-0.3007726755725225,-4.750645328268134,-3.385311988865344,-0.8600643334077488,-0.6564727844148536,1.5694020269362095,1.3756454904246885,2.01264341996519,5.080176586473654,-2.0825110835265825,2.6386060438682619,-2.6615029884673735,-0.7310610193091754,-1.988736218920536,-4.014664099021717,-1.7416556490464557,-2.012589783400453,0.05864216677167913,-4.3205788199776748,0.7300426409404884,-0.07356710031220082,2.6118658744778298,-3.4547029511743498,-4.250956018546722,0.5186735992335002,-3.2189387147059445,-0.7252440484191072,2.5364148864350519,-3.091670608383564,-2.799150017606115,1.6397562245837814,-2.6409087740824379,2.081657411620451,-4.07544848182472,-2.1758510497737277,1.3825637959700937,-2.4484337185319946,-3.278838522184725,-3.5338899743365306,2.5014069848273028,-2.785167744893023,-1.269050693919233,2.153595820267309,3.7796704287470228,-0.33912510226930767,-4.463756236561564,1.074148417986876,-1.8320525915479498,1.6107384619558423,-0.06243935825127901,1.1361399050476169,1.4693361144195785,1.1603885728839963,1.5488898010910062,-0.23484560103903519,-4.543845209436682,-1.2442077814607058,2.4445650016054718,2.7004522241102988,-1.522846892562646,0.6380613725019503,-0.44335883981723869,-0.9919278427239276,-4.062760264277079,3.377227251344567,0.4773972180329266,-0.9869174127403444,-1.190642956865239,-2.9720634894051778,1.0975212431326818,-0.7837859071862303,1.7826400903658125,-2.7263146418836809,-2.1052112366294266,-0.5194357540021828,1.7534059571615819,-1.8453836940419733,0.011134541742740834,-0.04488975011365867,2.3316136677772829,2.7676987343605665,-3.5692379899687358,-0.941058203621382,3.3949394308425067,2.2891881006181435,2.2046347883432055,3.4500371353944097,-1.7219195380423738,1.339042853302634,4.340196749660766,0.2241684983512824,-2.1364521306606298,1.309931360290588,-1.9032864313558698,-2.4234322985929799,3.0333929564891926,-0.07050483661696307,-0.16808963411987466,3.3106150639463318,-1.0759547730804243,-1.2398174131676867,-3.376256095952435,2.0405875266716015,3.110309365465108,2.965504372110982,-3.0205678587472355,3.3794249860444749,-1.8181169298641327,-1.4837497188849207,1.9449585033638007,-2.393339492203711,1.3896132106609558,-0.7632148892280092,-0.2974645990720274,2.4011484763189094,1.8370700548105113,-2.40361742545059,-1.0895346764238776,4.180778383548263,0.41099461581836868,1.6451619972969763,-3.0374022637690047,-0.3228636138014031,1.573566578830172,3.290647432371962,-1.5682799317198404,0.04927636222643646,-3.1814835903248968,1.2213961052499585,-2.8471907675289049,0.2962636263466766,-4.2933666074925569,3.408170223478793,0.0589637451900821,0.7253149155007899,-3.575356207490518,-0.7915108508510317,-1.9601639606806303,3.1060011046909148,-0.17897642199726308,3.740874895538619,-0.21940065360250236,-0.5511346369013047,-0.9695711640850059,-1.7651549251330093,0.29878831928420598,-2.309759475351509,-0.4860837107725495,2.0967540403953226,2.732426230263461,-1.9084237444780965,-0.5583620181655511,1.7253610731658425,0.8902034278302787,-3.5639909216288077,2.581581741607287,-2.7384034845509435,0.689169532780799,1.5807719404981596,-2.0984651486021,-0.32353797751951499,0.9337165758445407,-2.754065912170671,2.9003402244690439,-2.0280144756009386,-2.3286133413294207,0.6256519666945349,0.024019124388408264,-3.232087390727132,-4.067143160921428,4.009767834389375,-1.8294744751369235,4.167195723273567,-4.019159047570692,5.2416351448478679,3.9091215870982549,1.1568888424373794,1.1059200886649523,-0.5943152921454463,2.7708038660764737,-2.2159714697566894,1.6725423782142697,3.220322306151949,-3.9231051912229129,0.9057838412333198,-1.4190942217304577,-3.029623553038694,-1.9827966109967555,-1.8413743293180023,1.0306937099542224,0.5207314208390531,-3.215224426257307,-2.904385025057455,2.046015856722367,-0.061342591096813798,-0.7120652408195881,2.680012310267472,-1.8883231561934973,-0.08570349995359213,3.241378145406933,-3.5106643484681325,-4.1222411551373059,0.6144145409661228,-3.401713541124039,-0.9814689694257767,-2.9671903447929965,-3.9242770732782517,2.3806622701714246,0.6274471523921207,-0.9298422043223615,-4.267988394238255,2.9798663038350727,-4.029466765202081,2.0653092160537045,3.1137075269124767,3.025133994099996,-1.3003371256283516,6.977783734921407,-4.933239518773141,3.2774954842349555,0.6588991879237012,1.6888264306507835,-2.077766603643973,-0.6449810820261515,1.3691565359032439,3.453283082964808,-0.6897755796656527,-0.8927846639938034,-0.476725605874464,-0.337168176615191,-0.16658316446839126,3.455486275608867,0.8377613467600309,1.0019670008188578,3.6735103854232076,-4.6619281263993,-2.603370186666284,-3.6267157133956826,-2.2510445673372785,3.5484289731995988,0.7556670262574243,0.9156370894729996,-4.070596897164741,-2.0635441880008589,1.2028470356794086,-1.3920315856084078,1.5208757190585878,-1.2771844127351498,-1.7597596037271548,-3.4712732662726246,1.9635024561746886,-0.6812244251595356,1.2881269667828062,1.346966462019172,4.413411650486173,-1.002297345471134,-4.119745053535363,-6.389180126756354,0.09733318944667582,-3.2084165882940618,3.0791987510058789,0.8909873755220458,-4.64823198562827,2.0119591862565024,-0.14831833137311996,-3.903891519928318,0.3609564522343558,-3.7249802824008477,0.44315440324498808,-2.8951354199994197,1.0553528949775433,-0.36088668843920448,-4.424649482732719,5.974613621337058,2.291661173822092,-4.655737127889945,1.1625034034361175,-2.2157289918420766,0.4601218832551191,2.437731705823007,4.458909811804006,3.9615628621435254,-0.061246709358670717,-1.7138147464528917,0.2042048684253237,1.4579668541371583,0.4172292990931054,-0.3010667372626844,-3.7446713090103409,1.2571356089312749,-0.6067448458466304,1.4144007292354529,-0.5230371512721562,-2.9557066665829598,3.9092148775341819,-2.593979571268187,-2.3420464770858557,-2.7694761749483529,-0.8408950900155694,-0.09724987409176039,2.060917551675996,-3.667278425492175,1.1609076373481782,3.567253722399023,-2.4960646409460458,0.9729842460275443,3.321655251638308,4.257233307778031,-0.7364024803357393,3.8304264831709617,0.8694457126103133,-1.9456615232328747,3.5957787650486656,-2.3884478994665487,-0.1477192869848976,-2.4160520639785516,-2.721231128787242,1.5894158006990574,0.6316085785090714,-0.5709312339149684,-4.3152580569068219,-1.9262418417464443,-2.804488613831096,-0.497155591904784,0.438183415831423,1.883747723357391,-1.364905349733594,-2.362536464167437,-0.6987730774697073,-7.855404102424389,-3.04638694347293,2.341408962362557,-0.4930632695438087,-4.614941109549076,0.19418071173600832,0.24369006899820157,-0.9579809507915679,5.489390418572828,0.19555578707901956,1.2825614100515422,-0.9037059725678073,-3.876459593164601,-1.3441313021735094,-1.900926064595344,1.3799388378468212,5.487351498219234,-1.3750151000171338,1.4193383498621355,1.6897509424714923,2.1264875410648966,3.71906224969216,-1.5291474352855979,4.089720427057838,-3.16681707001788,-2.1273900065208717,-1.0365121358327952,-0.06307700996563305,2.974316550850879,2.9299676786333626,2.7498288652100708,4.612253420552344,0.4694881549739597,-1.2799398284178918,0.5613930343311645,4.6752578961926078,-6.185168051243446,-3.320743205143293,2.612796143808718,-2.124455470345638,1.3716878912995683,0.650666396034421,-0.5838038535926184,0.4016397451781551,-1.7400880976485234,0.07848174192758095,-1.6535502497047424,4.076681546778831,3.0265693475325809,3.503843210363138,-0.2904423824490161,2.741446160446989,0.5538686456171446,2.495897762275241,-0.6208076280524152,-2.2715068252445844,-6.125227346319701,1.316184842506523,6.105923152667294,1.124792467132081,3.766319633559155,0.18301895067372504,-1.3611571922098567,-2.6034687389566635,1.0282581974349144,7.081658375464061,-5.076335353426992,8.83586480212458,2.2207044136498439,0.582545952587587,-3.592350201198827,4.268741516072803,6.907624667945976,4.506070314685407,-3.157890363115029,2.001465903259955,3.0384729092438449,1.6421588431036014,3.251186611876468,2.17112072482194,0.06035716503741697,2.4515001150738855,-2.160176743046765,0.8942510724217054,1.8258529761852789,-3.494107975845055,-2.937515030370948,3.4251301655815307,-2.1948416441498419,1.651240218312525,0.7685065539620224,-1.0540808204012418,-2.1108206284638197,-1.6800765837989909,3.585624512186944,-1.6639821016305206,0.6227688007432575,2.6007273213368009,1.295844880040065,-2.1724909257909359,0.7935520122609814,0.873305625851003,3.6326101131300239,-2.0865641767813107,-0.6167357584916666,0.1000773719655362,-2.2391674122748395,-0.48560604560866385,2.877491670019313,2.392820594109114,8.629335897829597,7.676952849505847,1.3980156523812733,-5.749712503053555,-0.8067570980345203,-1.2736676805574268,-2.7032614712104299,-1.2829775014596159,5.521835828758039,2.5884859415366638,-3.0535923694759354,0.24272292784153655,1.0313182019005834,-3.679991864486292,1.5544590553592315,0.10504571375640527,2.4528959215637644,1.2050558974122546,-3.4229200005338917,0.903425984877132,1.4537738942741985,0.17291532353554957,-0.32530053464809646,6.73898638599687,-1.2819933513667717,4.413293938038131,1.9542288770960335,-0.9768117819946073,-2.072827625424574,-0.24119987315943265,-5.793468503478769,-2.06966546187799,-2.7063782550832666,0.8166773567867679,9.649309974869471,3.015917545655049,5.02230156849588,3.1867964367528596,8.704279802458262,1.8048270970482865,-2.464221707315189,-2.2588639713004037,-5.52565111326047,-0.6452332643997968,6.69803849801291,4.400937000451413,-0.8034775703747934,-3.1009988203903986,-0.33791344181381335,5.8800578380213539,-4.569648244170808,-8.394818794300896,-1.522339197162298,11.85270418283573,-5.743217247069672,2.57986338402403,0.17916677180839028,-4.089061983294549,-1.7314905890219808,1.225412848775837,-1.6771919275037979,3.1345116264975525,-3.589667058754168,-1.175701241325457,-1.6605109614811414,12.362461293609389,11.325048712674704,6.189142934027307,-4.265129148879432,10.795148158146074,0.35411836549929689,2.1619843774145988,5.3038849873250319,5.280268705159873,4.236562260728711,9.089723638165453,9.896815180792303,0.003406854567972586,7.048918160116346,2.085685355693519,6.624537665488175,-11.432072718679857,13.077596733507275,8.17472349949478,-1.2952343855050713,7.838498561505595,-0.7087632165544371,8.777817095932838,0.9647304602889981,4.6044939602924839,4.184778946418384,5.5550537252556329,4.243852945694489,6.823165539986645,-2.74459709040009,7.387388140572215,9.006883478060951,-3.814689624458854,-3.2550931916779439,-3.8515632334785216,1.853988865564439,-3.1555461528555117,-3.8790528412806029,4.308206185020224,-2.252670947384704,2.557466660049488,1.5708393057114796,-4.0982140460539269,-1.6429795747685914,0.7458439083704568,1.6672565101684883,-3.544066283624015,3.9067878484963365,1.8948852925773086,-6.299136460727028,-3.1008598167488365,2.8415784023666688,-2.5180544506330446,8.817640310362437,2.939181356935154,-1.1980792756569927,3.333804960010231,3.5255684819394519,-0.4760634647993674,-5.412036893931754,3.069460312495401,-5.810656260746601,-0.009943488859136723,13.287010649312702,-1.7330577757801636,-1.238481052909867,-2.3660495707874586,0.8843059076636072,4.54287244732919,-2.3066876103563955,-3.371873577318333,7.060057883640248,-0.8632025905018619,-4.447314296272641,-4.331588950941757,9.268600448896699,-5.1895400305666039,-6.016283749383832,-1.6057564696623575,-0.4984764555077084,4.142187172459532,-6.855854014628331,1.3592313017133846,-7.203278102396342,2.060622072404852,-0.6719473928724112,-0.859027236980367,0.825478815038682,0.4999701870692634,7.8763002017468,5.067268612061336,-1.454130628949342,4.151830883920149,-1.890340184873302,-4.748407655288035,-0.46717118478157196,-0.6106949078147804,1.8491705244921693,-2.358107028402099,5.550847822783736,5.731750701107403,8.676313943160459,1.1342051285903632,-3.963025916714376,-4.376451607381226,-4.24147955706379,-2.5554950260578117,2.1081735996455799,2.7055633141780306,3.182692685137642,3.0595807340411818,3.02535828755481,0.7479444763550105,-2.3995944599772618,-5.397837770127384,-1.286775290527945,7.705292773595521,-6.648266996091263,-5.956322209879984,1.0830594382320594,-2.0479233328114287,-0.5938679549614442,0.9289148329812998,5.811266760455935,-0.5366215966466057,-4.394150468513324,-0.09835555260050666,1.989210763322319,4.881875736050535,7.481899869437084,3.141234413823987,-5.981380493999701,4.957754691098589,0.03327570784619752,-0.5887687803211461,5.4395505441939309,5.634083988865982,7.003739469580901,4.465079834490961,6.276434633115332,-1.0177837718002108,11.585518560039923,7.735448682803413,3.7140516542123525,-8.806897553795148,7.295740597216716,7.754878249349145,0.10157471216930805,8.139132113519059,3.725242004941542,10.29775671933834,0.1876061171112879,7.598874340000428,-3.8049517799926639,9.999857112271233,1.3203773704733346,8.63334185908079,-1.2281561085399533,7.434325945928939,1.7516242777237628,-5.839301106383773,-2.834543067009179,-2.258188003250657,1.890290056532171,-0.10827251178409778,0.7155872180513199,4.973515361275596,-7.993481554369761,4.90005768596817,1.6975845724823918,-1.1292135283952499,-4.343800511043206,3.5411435288437005,6.280798965742336,-4.787290277326741,-0.7482952672721125,-2.237901422399962,-6.551952526751559,-5.334675468284834,1.3158472984982693,-6.1053907047717079,12.389475700204749,-3.643384685280238,-0.6784995239074086,6.727624852623865,11.075332174157996,0.8581866005771979,-6.944641686053508,1.933644168559454,-3.082308870038935,-7.043275386448195,13.656449123011435,2.223629331855302,-1.0190779967240614,-3.8661858992362458,4.849137876741734,1.9411676044011648,4.440392072599644,-3.0886049811182718,9.978017585638903,4.92327017616376,-1.3791959174355056,4.612931884126041,9.77450377700348,0.5558073128471008,-2.6928596264789608,-1.9858604191393628,-3.713348754936871,0.48948049824145498,-1.9477018188600639,2.685219942455302,-9.658901662364166,-2.5484358080404996,6.307889361285708,1.0600296577740017,-7.393503041910432,-2.1547118649530074,6.062997839126795,2.437796837282253,-1.0475411162993722,6.665259543090538,-0.6017267773376493,-7.852801413027798,-3.1798400742487797,1.5021759388178238,5.675163949627285,-1.526839142367179,4.2704917268256559,11.292475036517992,19.889689479989074,-2.9349564814269168,-4.692361923659331,-8.13139410206936,1.030042888655155,-6.104326972831456,10.861699879712209,0.3169335197927164,-1.3336706019405556,-2.6497461119364735,0.7281187870754451,5.7799920826178259,-5.256157540525064,-13.188300458774585,-11.000413829228963,8.187524601778275,-6.927636478051728,-12.71912931156113,-1.0042987703615845,-6.227722776873846,-2.4896738006981455,0.1816806975707724,6.114832337131774,0.6455042156833335,-4.435844342233218,-2.240796562511618,-4.151529121818117,11.076752812831284,10.979290161622439,2.130523678951008,-0.6585275333166322,5.376733023793303,6.649781703128084,3.0443659968015805,7.647580874515748,5.4974482889424289,14.557087822785798,1.857288673181977,11.852439464945581,-9.037652325097575,6.742074640525275,7.228083777473343,5.667605274507665,-8.623806505202806,11.043317734722223,3.9211085391058759,-0.3460825369477401,2.2495943347856768,15.253399719110075,12.937391367264123,-2.9060375633991204,12.876347973358478,-5.7031044203185,11.8852167889986,1.8638935572093145,6.718962775621561,3.3753256534176758,0.1620278300077127,9.496881127983924,-7.241920955632215,-4.912948458665092,-0.6274153309769854,-5.367204503310508,3.0911394134340348,-1.45777171888909,-1.8295315309680307,-6.707163490209634,5.142527047732376,0.1687309878223937,-2.353111701933677,-6.692612040261027,6.393126733970937,6.065051928956084,-4.794927393788538,4.293746094652522,-2.1809502770888,-3.2212242000518476,-5.9941291014192779,4.784612732056373,-9.62857907701671,17.630918788857284,2.0341409042798848,2.918054234890764,4.381640456717601,12.483725853148498,-1.6790721264732665,-7.985787806434089,7.551089096855528,-6.3749652087945,-5.61831754224736,14.650208840735575,2.284657897575388,-6.4924728912709119,2.1597937089559946,13.520871933845447,14.717468056268296,2.405031083841505,-6.15668772593569,1.122631261446552,7.273103165251096,0.5418609955115478,5.84095118270637,14.46512861049437,-1.3614594702333367,-4.014555102783154,-3.4751796066456115,3.661678032697006,5.530324371009727,-8.457892802765536,7.4702754765350118,-5.749700037032565,-4.5073561294020039,-1.999533026210495,10.39819863478274,-3.098171365780447,-7.065120376227965,9.741562413278077,1.9476736200064669,-2.372720117034066,0.07005627913670577,-4.607546576460879,-2.42929602032587,3.986354561384327,-1.2818331312116316,4.335514070803077,3.9924669234294405,5.698131166106399,8.677173367916686,23.210680572603616,0.44755949463976199,-5.308357367848542,-6.623127202774082,-0.11760775996124277,-12.851541690832889,4.851290878339062,-5.736751345761512,0.9910839142513264,-1.965484934738048,-1.6005220887245735,6.273283208004013,-5.968273132794337,-9.361937658399619,-6.6691924139554479,8.90399621707685,-7.337976165553662,-6.4608808155300478,-5.468761993639732,0.6034628567592913,-8.450438027512467,1.572953406962317,8.005731529297354,8.25199372359127,-7.196383805863611,-1.732945913270547,3.0256998229554554,7.701216337917176,14.476704433417606,6.9856228286277359,-2.9281607027790725,7.070057063236011,3.1672004848526735,-3.6478649678579497,4.733576093506612,6.219855889605998,10.130974298102208,8.294005454104316,5.547509032969992,-7.8217115140309689,7.978302928471707,-3.525149356349403,11.8934937299218,-12.204040730320053,18.97238896685439,5.455979266784726,5.655259727627275,0.46379392255026177,10.762198149305175,7.902283880448382,-1.8892303477698154,13.11053836476951,-5.686449422159938,6.687859626266807,9.526479427230317,13.194327311336317,1.565110516080067,4.325054247240236,7.257181658577196,-0.5200481514527773,-2.1283979012735427,-5.11414277410031,-7.043238182857332,-3.8075472109524646,-7.584367450706791,-1.2425324098741129,-5.27629992166186,11.881853464717834,-3.86136824954893,2.094159670889703,-1.2202666194968417,1.923668989821968,13.19171860874203,-5.931236711838266,3.9852205549539345,-3.8713127260052579,-5.108462660368463,-5.6418342108657699,3.305439114955592,-8.94820389009676,11.895259403272059,-2.3991988697507766,5.525576552274709,3.6049972365602156,15.248008289418787,-5.490014697598048,-6.6680345561238989,9.352548241938577,-7.657637537113587,-7.2107414797407449,17.874574075617355,-0.8322556783828544,-1.5630822459942338,-4.488768564620578,8.230371034112368,15.05685402650427,0.07336546188292327,-6.124056859771058,2.361018141129122,3.367304972648825,1.0493315499706828,-1.8913332295026022,6.534848312079546,-1.2030005347002857,-8.740507134960686,1.969818479086116,-2.617874821946076,1.8838282354501186,-3.632364570554872,13.296879675778868,-16.003337513878308,-1.2847322006653126,13.798924129264544,4.220018516135939,-2.9729687302866476,-9.877965331420669,13.46514781398157,-0.4513051748606323,-5.559851275231988,3.4542117530859746,-2.6922402250086865,-7.290149501463719,4.99875391965864,-1.4762320260726934,1.5182548400671628,0.2675641713379841,3.418535848778078,11.03760153251094,19.791346609569457,-2.834123849333612,-7.051562461093077,-4.50778199636517,-1.6928524792274798,-16.538834136446089,9.44417397017479,-8.487682792612896,-3.072020246199472,-3.8994926860437495,-2.0049059399282167,7.2017808573897199,-4.707553854143501,-12.830715750044853,-13.107350734852382,9.385879652911301,-9.1179308383472,-11.665399437557623,-7.114420695401273,-4.993507933386573,-8.357911513213655,1.4065672206567588,6.435819613628026,2.407068689070812,-14.685533724920545,0.35988714080094527,0.97162243116208,10.391239228893227,11.98671196738534,-1.7158613561265457,0.6350801305217583,2.109642777750331,3.247262909990135,-2.8678682415089744,2.9550816273995785,4.481171588940927,10.080710507992042,-0.2753381159488816,8.676923035772248,-4.8985155360061569,4.743770303259444,-4.318578179080498,7.695041571531993,-9.292972894236982,15.703893607105844,0.6791240171471191,4.633269948046805,-11.333118546285967,15.852204593495909,9.098492125951534,-7.001495295352705,15.143296536330697,-9.477797771284932,12.752607388145917,7.783197805948082,13.501031611682148,-3.649168808634552,-5.472551086998254,8.117232669702473,0.14017800555029975,-4.7651884640085859,-3.379159560112626,-8.073390002253149,1.5314245818218464,-8.343359454756487,0.42368488179365518,-6.520517169217379,8.322972553390802,-1.1227830458818742,1.7190029041155899,0.1394303222534592,-0.8573402657036202,7.488698821965645,-0.16258850803722356,1.8735151413080436,-3.155402247615901,-4.623746144182102,-7.706485682221261,1.6355149666902094,-8.568453903885441,12.928084776141713,-4.00795067420445,-1.8900804133750864,-5.0608445086014959,13.551646942833843,-9.916612513817656,-5.817172615962166,13.216714656349595,-6.606322536721386,-7.284437950914007,17.49073175952128,-6.810825769537486,-4.372735511376011,-2.0614137500963838,8.283809382039145,13.635475131498423,0.16256439753291319,-2.7547848058037887,-5.5677129655840649,0.7528642379424678,2.958734061982244,-3.681434103654643,0.4208533971176715,2.7619196121253299,-7.738073944803097,1.211195048056425,3.1634497696892129,8.27636709453941,0.950714338714502,11.457484928281719,-15.18676749598875,1.5382813051914433,10.555295228356219,-4.673720270148366,-5.302879680286027,-5.487588038977232,8.750422054645899,-2.9002325378104678,-1.5518430880742598,-0.16866070561485353,-4.741828548955752,-6.161456210455516,2.0122002426256198,-0.9802112777873119,0.9911428614429694,3.420296043182771,-2.05578209306762,15.385249374546124,18.34601456878545,-5.754492902066371,-2.8109045110826189,-6.997025131502139,-4.844146943443527,-18.706752552931655,5.374918154027684,-4.204767784168142,-2.0909262762139617,-0.4017304711227342,-0.5823379794674959,5.229854873052009,-2.7554582047225248,-9.020947113466465,-11.827020614805754,0.3487953556945115,-1.3475618394054013,-15.027095929574753,-10.752217384966495,-1.6354477880946044,-4.101889563118223,6.999598682332531,12.731714507295362,4.741173600986944,-13.3249297564186,2.8071951263166095,1.9486111487918386,1.1810508800495843,9.799779914343475,-4.409304051709363,-2.0993330916631489,-5.782431704843256,4.736133804319465,-0.8214660049681201,0.4877564042406959,8.91417493313514,11.860744834815075,-8.679174009832098,4.6313154783542409,0.9656097551670264,4.1051285448509,-2.7146269068558697,0.01267701043485569,-13.268612720430328,11.473141105021436,4.42116271095163,1.8632743680211755,-15.955318716876479,15.231577550459969,4.659457295039801,-3.731631391313868,14.478405819564373,-14.499197813812242,11.707696353035585,9.288301323310315,15.281695476200822,-6.087533167671054,-4.033493107545929,3.8794328417428836,0.05014427719958008,-3.4950887336449365,-0.1584379057064137,-0.17499580471789767,6.940004831921621,-5.834020521574071,-2.0392600308896835,0.888874202245055,9.576690525548847,-0.5869036975518515,0.1413163882502381,-5.139675285855103,-9.68188721507717,5.85472202638911,-1.599612247232235,0.6769112794471657,-2.950304389998026,0.08645864310597037,-3.663618717151049,4.9789747425764319,-7.057639981881193,7.387144145712108,-1.5698001210189543,1.2226690792865898,-2.8357658944757535,9.720063928957803,-8.620781099132057,-4.112918260806397,10.384222660816255,-10.044503404239676,-2.8656656200299106,11.539866222729155,-5.274370293343466,-1.6468534257607755,-2.6922457325566326,8.764928953325413,10.529345791218378,4.554735606159125,-8.650023421727925,-10.156291759815698,-3.5791792109875368,3.3649180718091205,-0.15640123091406886,-5.1804305372110639,0.39557403165643986,-7.848785787911472,6.985441792618983,6.28964318048275,6.581974423173212,1.2412693210745969,14.686004102355169,-23.248185518207689,8.835837237501119,15.610912858267879,-6.6587448240480999,-1.3909239419316393,-8.06078330268967,14.142815368025298,-3.711729531283375,-4.969483346384312,-0.7133067150899486,-4.082856813401332,-1.7770962892234204,5.308810693706945,-2.213393715674057,0.20858507400262828,3.4065870102660957,-3.6294908310938966,21.00930163259308,18.427548171669274,-2.9471854705988358,-5.040228956494346,-5.7076691191532709,-0.0571374212120093,-20.061161988628549,5.899697497683261,-4.841419187197496,-4.187969673652355,-4.519103762906225,-3.486605078957687,5.008033058611602,4.112404216144857,-8.239875735836288,-16.73923963671141,-2.3511354739620207,-2.296156785224756,-15.750418117934018,-14.210376055380897,1.8905701611444446,-5.14080629239867,9.515109310625796,12.15067037179957,2.765738020881133,-13.698335411223275,0.010450507978139609,3.134788268524054,-2.7124283630041896,13.310117177450506,-12.18388459094699,-1.264452115509192,-10.614051318639812,11.717478185119566,-4.163898960957664,-4.559911941188568,7.9921039895376639,11.18308731914988,-10.6477355616838,5.830780339713877,-0.3039755631179225,0.5286866060978833,-7.551916443562191,-1.0687796864132957,-3.7150732559444745,7.2195246163946849,0.35365769538350846,6.970068596142402,-18.014178835468046,12.134360404361735,5.4246717978826999,-2.29773082331991,3.979105860374842,-19.242033876849669,9.22283249264595,3.532254847533476,14.106289339692692,0.7040087525157663,-14.909232029226603,2.1739164600662677,-2.8480591846436988,-7.640232600988802,2.0492341676549907,-5.801503884884497,6.869820552172707,-6.455798622191529,1.6275410468054299,-4.576953242167582,9.857961577365586,2.804557211901419,6.794722153565748,-4.241921888497144,-5.935522895975813,7.092832934800117,-1.3452997891542907,-3.1566182222505696,-4.012484144512973,2.9469584807742286,-5.544808614123805,7.83555766543053,-5.393888694230959,10.110960060465122,-3.257775404322265,3.551022952184897,-6.0072323162292309,10.965587410770457,-8.917556062004503,-7.3370518377070159,5.648946085753578,-6.385202274998095,-9.224531703151449,5.89016088249204,-8.12249993924226,-4.635318487423916,2.6044075655024194,6.587905529962891,13.372774708524295,6.4633046673052318,-2.4964447723688445,-6.930829959602542,-5.176232237377393,2.433756889957361,-6.316161500699734,-10.045202674432709,4.0882000935196098,-3.654417925664919,2.2608114527877216,2.469214968233588,5.470324873780776,-0.39253793289936636,4.685871709373834,-14.832544206665505,0.15103522254781696,10.144906710869665,-9.269329962585753,4.4009792678003099,-5.7672423359898359,8.315764735837562,-4.250125534189328,-0.9253327053698296,-2.1838867123770777,0.6074759196873314,-2.197853901107662,5.715009429639072,-5.258514711334382,-1.3117958985868666,7.544731046893806,-3.237653057161331,9.767710231304458,9.822242180579819,-4.883471445396156,-2.8892503387326124,-2.7744061767704224,-1.6488994338289916,-14.371450419333783,2.2765966548495184,-1.5515283575443555,-7.296232594610703,-4.230788617820812,1.0009364658428249,7.097738692669294,3.829209191189558,3.2529476822970655,-12.303885925273708,-2.11771709316828,-0.6203336294302403,-3.179398039702059,-3.4420592063874957,4.475272573788273,-4.317600872575479,6.02310206625535,4.108083329852006,0.9380847635989695,-6.278026328446036,4.8618203218634818,3.322198878017085,-5.338558226633182,6.3115825176707329,-14.225265840900299,9.27877499333365,-13.696390254570828,3.347195018672641,-1.2244135954712803,-9.788338498635984,-3.5481201418740149,1.9151538264079409,-16.04681841804637,2.5288027481664194,2.7700915396639846,-5.2318375793272369,-7.6565517224337269,2.361020359638648,-0.028946956374879805,0.5198740506522037,2.498919897234576,1.7572000057327793,-12.288984195850454,9.18509799263191,2.9590709711945277,-7.511102062167084,-3.4684163449609688,-13.904515224659363,8.765505235830819,3.29131817442127,11.32163117872022,-6.171718053494938,-7.428737993666529,2.095475876910296,-1.808849091472603,-7.371856890349569,4.222719166534501,-5.46442160589112,6.546186096287369,-10.346015830971208,2.798280869099834,2.7703690551742494,11.77406755203012,-0.8388544748222703,1.8434103064537873,-3.02720193466971,-1.8674245706194348,9.672043012092719,-3.502214250291357,1.1848530953251333,1.4435275338171905,-2.1395696139264315,-2.2742411593267866,7.14516455813665,-2.491287690882924,1.5653187439296637,1.4144674968743536,1.7061624959786322,-2.4529302683650919,4.6707251700800989,-1.4020416357172696,1.6778073665979656,0.836633597279547,8.055782994813715,-1.6368351819814709,-6.004390549409436,-10.499061512150359,-0.9332049834451962,4.131122273126064,8.195407248127403,8.520874039905632,0.27419762781361309,-5.650455868327158,-13.293222182178808,-4.945848469524457,-3.5389555124362634,-1.709450410179475,-13.313177510578946,3.8784025125054808,-5.279158624463889,0.25082296426692277,10.520011700891617,-0.8163150802880367,3.921762878015489,-4.848704360327989,-5.800725011446807,0.5385082164411463,-6.696126058366616,-15.5199882935248,4.342363217962827,-0.4450417053873527,-5.814689958803969,-2.0177318708647666,2.102189499119242,-3.3824442650138715,4.765854833657522,0.5783950016145069,3.5224529403427184,-2.4217746401278608,-11.996746309452332,4.54484118570806,-5.05672295532266,2.510100877962719,-1.970698044218354,-2.472776136956485,-3.3384237616054039,6.805583764159135,2.188512070486875,-4.613104261590566,-4.471841201955149,-1.6994792692848009,-3.2492107778456704,-4.682020378676232,5.138533458246074,-5.035345903801194,3.4415389767133108,8.016476365624385,-4.967215835133173,-11.927556669889948,6.267222789302164,5.021540052850889,-4.201429931635768,7.7341286047978479,-0.33173766030572757,4.742853163607588,-0.027834257539034583,-2.624443282165898,3.479059240317278,-0.8530690346824167,1.4940657708925005,-21.705039938222055,-5.513758972488457,-12.103334891724098,5.563562042690103,-13.376648056762637,-2.327593391142772,0.7862247753738823,-14.182222920371489,-3.469022820834832,-11.226167564163108,-11.548279928501869,-8.77272125884523,6.942606690262801,-9.702817588026873,-10.68785155772942,-0.4587022624648055,7.672897294373718,-7.262689803316234,-2.4903994757854006,2.047101820917035,-11.624304319653767,-4.243708258160259,-10.710122108972217,1.2788351510377574,-22.69511861979416,4.131308691951955,-2.630597405733916,-0.32958940529580219,-6.17400534033511,0.28309679217921038,-9.208617646070861,-4.347253614924475,2.0128773464535194,-0.8984194682869114,4.4186708504988,-5.368460191092696,3.23515181154909,-4.796461455585299,5.751061562850935,5.538426979311593,3.509903984771051,-0.08263922037391104,-0.6518301465085632,-3.6105674761986958,-8.042709869854324,-1.246772324206575,0.04258173195078273,1.5094161332189933,-2.8301048363524416,5.270042697978186,4.103618348693932,-0.08518023243386797,5.800467559039037,-13.411287271964902,-1.259729399766123,5.224050954387741,-0.6389310243990759,-3.110951967608144,5.434134330733544,2.1041840480551938,-2.6677981791854856,16.516159244316215,4.580057436264386,-13.444875067058492,-3.6742263697380808,3.9611267104247336,2.9824896326234935,-5.078731399991638,4.256587329743855,-2.377832210176102,7.4911904659247059,-10.249545309257045,-0.7977817260821026,-1.1499272091945308,4.600125963378937,-15.912464744167965,6.020700066790784,-6.095347617378371,2.155085192011919,5.927791617213982,0.2998488183157915,-2.315946880274383,-19.037580194329754,5.467925372417637,-0.7264960419357328,-10.496327942614853,3.7465908175641258,6.201037539004511,5.547014725342976,-5.212916470485923,2.9847843928954709,-2.416503432838005,-5.815178936965853,-0.8605651886307284,1.7806538778119892,-2.6357640489478144,2.077531029266023,-13.131688711373155,11.904875607496895,-7.074878747618088,-4.040177265377315,2.851139395876055,1.6505408307706764,-2.401807309913601,4.807307672781589,-0.10604850984266912,5.477828332354817,-2.451302251298462,-0.18772648269912096,-3.507781359501403,-0.7756734966861881,-1.066526520248862,-6.609848090223283,7.591061174866083,14.263335421548107,-5.345309841924148,-5.6620343092660418,5.435420430768039,24.72101512562656,1.8313402534661954,8.34830185155012,-1.6184844242925374,-1.6054790244728477,-3.50395352664278,-4.316166258944472,7.40711642223801,-5.077607545062671,-0.3139305384964185,-19.92882027450786,-6.466021288107565,-7.219742757721923,-1.4030694013224359,-8.130160332326021,-3.5878238631578278,-0.9858139761361636,-12.193035896572848,-16.609076448029119,-16.640117100054565,3.7205326154603917,-7.318306025324668,8.63079950170124,-7.3894801778238909,-7.57699455946028,5.248530839850284,17.698891012195717,-5.60866782776392,-2.7854211715954966,-2.5878835309549386,-1.323952068225023,-9.741525612289277,-4.82848993668985,6.646704309550737,-32.45294796030157,12.796750807233244,-8.13189114732721,-8.847660411982499,-15.521989926195288,-4.541420475932556,-4.437883546533492,-8.220601308140529,-8.375669704381263,1.6353982887573369,2.8975778366168547,-5.017922264998302,-1.267525362946407,-0.3651237198198044,2.8615819302306626,0.751566209193997,-0.19271414420641948,-2.5071918823309917,-2.5077511762150359,-1.108783951185184,0.6478329579507266,-6.716396454770676,-3.434816904512561,0.29673832532048768,-0.08351486345065194,-1.0443332597353917,0.8343435919801039,1.8986625492579604,12.368841006159764,-15.024091860824628,0.32416508239538718,12.790457159620628,4.116229156003937,-8.823147937874522,-2.3727928256753585,4.771249574341562,-3.5569131040766845,14.213464361681455,3.823734095293209,-15.817782937194468,-3.292916771988591,10.506926263637558,-2.0228535051364129,-5.83142691848474,1.5775995597373565,-5.1942244767424239,10.864003027597408,3.178751184132248,3.5108181571873198,-7.686872693255039,6.5600964064715,-11.77215933884359,-0.0833104438128737,-5.595352813370312,-1.6996577420506094,1.3384257353900256,-2.9615938764844897,-2.347739814626383,-16.05403882844333,13.734529393641509,-0.9293783823543705,-13.412100151611409,8.898420043540302,3.473925524023672,4.831546056948872,0.430055643881128,7.7186027924385549,-2.6924992301752006,-2.2441335504607164,3.670897101533823,-1.3863716381956324,3.3402488561501935,-0.9759628459403001,-2.9222507534845625,12.32504398669121,-2.4264998336707248,1.2634724795016855,15.959385647050338,1.108882309857595,-4.6310586926891539,0.6503873153698231,-1.2630543350542536,10.313839093847739,3.4211488967142689,1.9646893957029735,-6.930342548372177,-2.8444673764122294,-3.0117047133075789,-9.805538078168534,-0.5565944024832126,6.912535645883795,-6.465119120441917,3.185397424332786,-1.5859838390119337,19.982722704293925,-2.2317322807199009,5.989206512802274,-7.565135290261618,-5.610665838096051,1.6089707256789717,4.384533952463842,8.374550988335314,-8.340227834662798,-6.720419939355392,-9.706418471820271,-0.8682012354542562,0.713860214005903,1.600187132034379,1.224475214593446,-5.56664654253481,1.24343593897424,-10.324692386779715,-12.548368879804839,-13.956255273110792,23.904240622241767,-9.637605895180157,12.963208224508588,4.150065905060667,4.386435758467675,15.905928020521161,23.968069628124998,3.2436314557417349,6.596145803949022,-1.2789173496776643,5.028537110771779,-4.203527444309449,5.64830753281195,-2.806063826033375,-21.12276873800833,10.304011950219678,-2.5547593914557735,-5.788015107962825,-19.310978152596,-5.08635419067363,3.5111268519340794,7.481693566244292,-1.8880373036110437,-1.5487992467455159,-4.591569292644029,-7.863617804978225,-7.152229601764832,-3.4181782975034045,9.933264458083168,-0.1002648160260481,10.958714962075126,-6.8352508834536789,-3.415022634456454,1.5276493870135908,11.112524082668655,6.330561590083825,-0.8124390822179852,8.613878224388549,1.8772072089292549,-3.6011718554884117,-1.1977538346316846,-0.6837692548364914,9.34252917286128,-18.180346755549534,12.900461628703108,19.814890278040087,9.959713262571587,1.6646716080531168,-2.23316692175847,3.780784174759698,-5.570668424467994,7.9422311763058339,-0.6759852013775565,-3.4246634288737458,1.2851035028467253,4.7946848354314659,-10.563761189465256,-1.4241553937103154,11.256278167758705,-8.600827857639912,4.31850537897249,11.53409973440527,-2.022490034975001,-13.789468819101712,-0.4611750522948853,-7.596825726749853,0.03712452701302401,-1.4346749746192178,-10.576199355021647,-5.897419175321944,-1.4014855561665536,-8.21238028912493,-10.559354770307206,17.76043133080629,-5.254520448903809,-6.81746118824771,16.998495587606639,-3.770534608534072,3.8526904185009238,8.473900998003187,14.323025858054864,-7.910951534866373,-4.707182169050984,-4.733679149012664,-8.733343912250373,8.814410105736958,-0.000882413120930207,12.564901561808889,-0.10037216770959946,-3.0162737021007706,6.480817010630078,22.76866215344825,3.5355688878077395,-7.103991105213192,1.7279407485577676,-4.8606348479650169,10.017631510423687,6.65033329548016,1.4252822987545284,-8.516804979569102,-3.8133861713610637,0.7199312896014737,-12.404983719746835,4.125711369409822,2.5202166321882735,-9.725489959068808,8.089502276146633,2.377844198557798,16.46400998102773,-0.8374797260782295,10.06594296439743,-7.355291343069433,-13.255970324841499,2.09723500056891,5.236118345149302,1.2346193829680346,-12.341400987786141,-5.821445602762795,-0.7622119257545224,10.796601329681856,4.461741065030799,1.3484971478977975,10.578142878481604,-6.032110942316828,0.07602810694078854,-14.516618108166249,-11.189396282827146,-12.27052693330062,29.94924832121467,-5.979925839370106,5.783698433267133,10.524003685155949,9.106035615479936,15.420246070120399,32.383286179618227,4.891000039934406,9.891918850307566,5.392514211028548,0.39523875087074969,-0.2086836627262899,