[-0.7815994851780115,2.815589739159189,-2.4484137379175427,0.4110517834626144,-3.9792230356775075,0.7883353718505513,3.3415903367590795,-2.908175283614076,-0.7205076834736557,-2.257052298830316,-3.223246109697998,-2.726802038682708,-1.2195281463353068,-0.9593164209085072,2.2643244771841486,3.4855453000656126,-0.6560822393116075,-2.0377590128304208,0.32825840192601066,1.1942887608008599,-2.532620458138025,-2.865054735453759,0.16321698629431226,3.323487059621641,2.075040555488065,-3.698268904801367,-3.260236466343482,0.7504317983593083,1.3817756267991124,-0.8010138287559387,-0.6246085380803566,-0.30996763257850526,-0.1531654862563696,1.3993869046043717,3.739308631163219,0.40188957255912519,-3.5145046192726578,-0.8925858955448813,0.7114337068719143,2.6032995344790246,3.014150853365342,2.6708816990921608,0.7560919629793297,3.4988379624971035,1.9841622337992933,2.975882375528279,3.5679141631651527,-2.9300444793514339,0.7187555800958325,0.06401364506122587,0.8589678736328672,2.4384952171836549,-0.9167339033076267,1.5555241659354309,2.608185230449104,3.9590181967151887,-3.689880686687564,-0.3641299745094051,-3.9831691001467,-0.6302213602281321,-0.24215214921192564,-3.2181635023021828,-3.0098490890767479,2.8181550569964548,1.9736599854078714,0.9309580739271093,-1.3149629709269724,-0.9095778273546602,0.5082672344236139,1.132820877629202,3.3787908680753828,-1.8074638925113478,-2.2225835571616114,3.4103718653417127,-2.239504919920674,-3.4183027362016427,2.4628890029729399,-0.807441120154712,-3.59703408625274,0.09211512422300228,-3.2173152411708196,-2.9019747191045734,0.8048757945137899,-3.319224602033251,1.4738273902544368,2.1874303728312638,3.0896398691312276,2.5418140024264535,-2.848069076560476,-3.3537340970942415,-1.3541352945557568,-2.8176925932255676,-1.4088996108710248,0.8667683996285414,-1.322509688062648,-3.4857956209497447,1.0622997671270645,-3.2769821963352019,3.2025853941619966,-3.270686024000934,-3.2940186857639377,3.4206742641320329,-0.6383168553317811,1.3521125025163779,0.22678319377560375,3.6968550321655329,-2.329645044827238,-0.8329996700854627,-0.17957422466919249,-3.1369204951191564,-0.9687109777219627,2.8051069949068845,-0.9379682069099617,-3.5601914880516256,-2.3406977349042954,2.7258230523034587,2.663167930550161,1.776207195692722,-2.124256699953756,1.1984381992177414,2.4518070670703,0.958151317594627,-1.830626239250227,3.282290802181093,3.638236118378207,-2.1450311935438748,-2.9998843691306504,3.401787670712441,-0.8158377320455204,-3.662647154098951,-1.7823351649114665,-3.1006035025718106,-2.2121027039354628,1.2414991215422955,0.22219259859319075,3.264427893982207,1.7249030826843992,3.898318911386,-1.0090261037730566,-0.45885878531704429,-3.3609403523720626,-3.722422874641711,-1.2128595043207078,-0.48130863961317718,-3.03832008588582,0.7947538084219445,-1.4243772847898753,-1.3966698052519496,-2.136203108489614,-1.2752455122840818,-3.424169648530855,1.3755515429620565,1.2287579919236809,0.6210849844190118,3.748037282794269,3.0299710753610924,0.8240120662662163,-2.6081856683924595,-0.5612749891960573,0.07462747274006532,-3.2720187410535619,2.022154262650102,3.765993780196215,1.815915749803355,-2.2557100720886815,0.17152471454608965,1.1923396491322649,0.8511411839566261,0.29440435329402528,-2.1351018184638006,-2.7745651627496938,1.57870394715082,1.6305423126588892,-1.4872465183220003,-3.6094168712649798,-0.6355538052374428,-0.1713441657350261,0.5850706091491658,0.022520647427356267,-0.8579096580628187,-0.30820690762735217,0.4039779734466835,-2.9161317119086975,-0.3071242993224006,2.608491877092596,2.731780841629843,1.225828263212838,-3.1985315388111514,1.7876959611552615,3.9269500207521688,3.822787816375415,-3.815731334967989,-2.859843949692256,-2.1231243583273438,2.133414353329174,0.1691159181037465,-2.767317057661474,-2.2354255673071306,-0.9899444913337625,2.245259122274545,2.866781845276175,-0.7626887977116263,2.4532422359150365,3.856935469408798,-2.021434703504676,2.0935557120593275,3.0574386046009209,-2.780988222230601,-3.372155322206204,2.787271621589844,3.6645143052306219,-2.925791059463271,-0.7304424751073368,-3.327044384697742,1.6967108230418103,3.22522630704625,0.055300557441353429,2.79853513230319,3.599780753343551,-0.8789272069957681,3.866520796097719,0.4072681181241311,-0.8350967557180982,0.3083790549338863,-0.4396219363915872,1.442824771255541,-2.217112325917519,2.000305763762449,2.7999180254955338,-0.2678897507867892,-2.47614811499765,2.471943468161676,-1.9687588800999434,1.9796643443285094,-3.3770669992660364,-1.2209216790859759,3.278443453740059,-2.047422392204478,3.2766025539075347,0.7301485891919342,2.8217950848353938,-2.4416227338816327,2.802758425576476,-3.155071246894593,-2.0629776508964179,1.5367045247660967,-3.525759041082682,2.415052835474687,0.3455850123278337,-0.5182092085276151,1.9002209328063407,2.0961035999768038,-3.0699359317908705,2.4523572168466885,-0.08359440283849029,0.02994393335229173,2.9935049234756176,0.10252017744573827,-3.765464818389967,-0.8210074843658022,0.18932695372734455,0.41656241718798539,-0.792051460064255,-2.81872273114483,2.939479955147381,0.9712119402472723,1.042573446799853,-0.8623131825215316,-2.9890757149704436,0.5581534718262846,-3.15815792396348,-1.8910072498749633,-1.8360793921452246,0.924956909463444,-2.5075255230507969,3.6644157990215318,-3.9457674092074939,-2.4540109440052388,-0.7152120830112649,-2.7438358932274324,2.0960916818162769,-2.8820509618617615,2.986634974826978,2.364149077610768,-3.8829830206524198,-2.5828614032172956,-0.8378510206706709,1.7945385816984674,-3.8249191093673309,-0.8773238037150735,-0.0021339507902700118,-0.6174163197602598,3.053612296180882,-0.4507867869609621,-2.169462685854821,3.6403838436616979,3.1412317880282467,1.267192424947205,-3.8803395024296787,-2.3480219006945637,0.8982578499774663,3.2130433481590767,-3.2276192802036087,3.607514719722591,-3.9989624311176126,-2.6538465984769976,0.6568243317567655,-3.4821197935729115,2.9884613236046677,-2.0526183854709698,-0.17664262911528806,-3.2098376969967745,-2.946426061115506,-0.09943121131563793,0.005992740395455165,-0.018161183966519224,1.8950239771860176,1.3190013601611997,-0.9702711903493368,0.23953834726188728,-3.3806642938193756,3.2228162165243159,-3.3534036649386307,1.6277703062038214,-2.2409433149653434,-1.3245220862801457,0.4063952672429956,3.476951750961484,-3.4660142667754325,-0.7584022523996501,-2.0026961437583958,2.736849598792812,2.4155248352975695,-3.113459696725455,2.3969902148944168,0.36903732167013017,2.3480054739570228,0.7285429784072974,1.6671190958312812,-0.054784403824699848,1.4158403238792943,3.3594733068360984,2.2425003874777076,3.7804521916299604,2.1310618836992,0.4617354537880498,3.262490972346381,-1.0902568785589396,3.7429839734042327,3.528998824932777,-2.686398911869645,2.777685247521478,2.3771806872383856,1.4902079108311855,-1.3461538026409768,-1.1885201212496206,3.828961503830862,3.326530531193277,2.172467523468268,-3.992347009442268,3.183061337372574,-1.636036095479958,-0.01865583829450812,-1.1665112632202917,3.1438928239084316,2.7390680164601299,0.6301495981010223,2.0293171577822388,2.9191660015823697,2.2364160099704417,-2.01478037011531,-2.0094405552603646,2.317615516386211,1.6038429337515555,-1.0986764216421686,3.3000483001468616,0.7914354123006193,-3.063631794566308,1.944941678948263,-2.9625316698065529,-1.8994136768842385,-3.1367811707643344,-2.695815359526561,-1.4953811613843849,3.6801193300804888,-2.484897313947311,-3.140688349077406,-2.661103227930547,1.1422728918591148,-2.9533178916838276,2.380923000598827,-1.352891774874658,0.4724277162644359,3.1089438953698096,1.4109084985907466,-1.7060892566728645,1.8968020669243045,-1.6659341122305849,-2.023038691634566,3.072102562061356,-2.592602833134194,0.20320053192011756,-3.278697743634905,-3.563600489857923,-3.5811434163021369,-0.5617827198293155,-0.9005158921240459,3.0678534012305445,-2.0477005104071166,-2.6105743747433189,-3.1478271376169966,-0.4814108078327062,-2.6997760154606684,-2.805727128466523,3.947662679313601,-0.08664564416195209,-3.09067619747551,-3.579034770104986,1.2616185781542156,-0.9268254270336476,-0.983253457804057,0.7454177329807274,-2.693279120173882,-3.1770087511147588,-1.6273148283432697,2.208637681247011,-2.6989932719721194,3.4146794776183606,1.1129521726836345,-3.934934687986673,3.671748827193184,-2.4148931761228757,1.5700973141481623,3.752132218609196,-1.3747072879677527,3.438894036563217,0.5449423557165147,3.9112062503575064,1.7539201136629057,1.3198581728636816,-2.307417503112104,-2.2394163371961888,1.6462885303859496,-3.0486835813041974,1.5178186183416936,-2.179309023073068,3.919664392411553,3.137529968521049,2.8379475942822784,1.8128189531504564,1.9151157110811364,-3.575918064504916,-1.6331537646209052,1.9340790002573885,0.9692030639939659,0.7333105344372166,3.34141208901669,0.5411777802422231,-2.4274630482479777,0.2218917339611881,3.5369201910266527,1.9478295256013923,-2.1277346141138828,-3.8603079169414267,1.4556222773468167,3.888218898972993,2.522346674483953,-2.214264102809503,-3.3128741281066045,2.072359031191663,2.078020233711224,-3.6503889419959849,-3.1823465816386307,-2.4626477531261807,0.8562488461056583,0.11630504707191669,-1.6953672866453556,0.29367668297420215,3.2773785932953398,-2.6970064197660159,0.7776552471614826,1.4183582884371094,-3.849290777824148,0.8339476176694092,1.6857780778578287,-1.0825081696722175,2.0403882212383968,0.6239674907315838,-2.2671786364190007,-0.0025038903127230229,-2.3942835248367198,3.4702897221031554,0.48162862290422217,-0.2857364147578034,-0.7142334613710162,1.8474295778122594,-2.552817437058895,1.5486164676688619,-3.272808602387145,1.6719072017726636,2.8394271272238944,0.9646177079731357,-1.9351044129434217,3.431646934306393,-0.7479409556876204,3.908770071219644,0.4208011716503277,-1.3783698733745498,-3.132237099466388,1.2618055188458258,-0.27063624820033108,1.9507020826454654,0.005077686965973882,-0.20716186436498064,3.9958022435079538,-1.0834832387625005,-1.5169028548705637,2.690427482141687,3.4899527356445638,3.391327374987868,0.9430310070765122,-0.2143339067794292,1.1517217100556057,-0.6339705786175536,-1.0867405269033093,-2.230371998699149,2.514518859758005,-1.608669490440702,-0.0850487761053671,2.9330859932873496,3.573385610992851,1.7845622147285064,1.8349009848705898,0.09382266206735768,3.526100012768161,-1.4805306763290956,0.5614135694678284,3.115918580898592,2.6339479341159155,-1.627651628130778,-3.8152457715895089,2.5367827324844125,3.3590308411255966,1.9797477929534404,2.820557401378341,-3.8387984158299979,-3.8779728227835106,3.4254131790309527,2.6423248974726505,-1.0445259366115194,-3.3493498423781196,3.8615406822498565,-2.439634404281822,-2.391096583231171,-2.972643518019016,-0.7382529778643807,-3.0346099373304717,-1.7758845655552618,2.5559985398788589,2.8177500807416004,1.958537354376939,1.876605159877717,-0.3229650402654547,2.964052925463858,1.4089344805583926,-0.14809698431744157,0.9521642463741111,0.020604263443969374,3.130172993480854,-3.5289778184316296,-0.742402072780777,2.6933415318952145,1.7692387724066193,-2.962244598947006,0.5949501078638768,1.4749052640261394,3.116920290131265,2.899537780484069,1.7051254553480498,-2.7333345955923624,3.688115531735839,3.673052065207422,1.3011296361910656,3.0256136456142288,0.25480798810638385,-3.193791082218512,0.9036679913937205,3.9612465679650015,-0.8115019783648352,1.830181944761784,-0.919081169259204,-0.6033065662936699,-2.1633906211854265,3.253946380060799,3.0027107280490448,3.234837597518294,0.5688024463927226,3.001011418721207,-2.880039063462749,1.7060406210217876,-2.828278668685618,-0.3101439220559017,0.7815891939844057,-3.5242539265987729,3.442268343961164,-0.9843243259626471,1.7282171625686358,-2.5630776877899068,-0.40151186642933558,-0.07199220721866961,1.576572237353611,0.8887284416671086,0.22148480878301503,2.8270259066972915,-2.9511550949705755,2.2039601355200837,-1.7458821032285155,3.0118484221919887,-0.4485468160237447,-2.1375408276336715,0.9410297120371514,-2.4014449317134449,-3.139033674578502,-1.0177844924614954,-0.003658466888069256,1.0895675741023095,1.367093309126382,-3.163880722429421,-2.2417689303396139,2.1478293394004526,-2.8761592058821519,3.5734159456084537,-1.3015104269258465,-0.6838633461947516,2.586938634708944,2.8125793784392618,2.840763669420534,-0.9436966140540368,-1.9741890915111038,0.23033597308640808,-2.3414663389143026,-1.3225617345342682,3.0866530896386745,-0.9538162815934781,-2.7400150877934115,-2.8077882808485148,-0.3636079906023115,3.538439885664819,3.4831665711373835,-3.7001293599996547,1.1527497912535605,1.46802014629937,-1.6637513053645726,0.48547507182904239,1.3505853653968636,-3.549431057143659,0.5097326296663987,-3.5614065310678715,-3.5254772667155285,-2.233292096928831,3.923558353968942,-0.0766382966868735,2.4211554931571097,1.4010754949586489,-0.7606098421184031,0.0762406489422629,0.9611421860135225,3.894814204784729,3.092492117837657,-0.4809287020417985,-1.1892452209853668,-0.04360199910437945,3.5152617737032587,-0.5149430813497007,-2.377254836421467,-3.6180710591431568,3.927435155688591,-0.2636680976506476,-1.0278467831439129,-0.873667791327678,-2.703975410953074,-2.5209251663938518,0.8116267922394025,-0.8677329691147639,-3.132466488081114,0.22963404796570598,3.0186250560844405,2.8002883025671094,-0.7765387160236854,3.519907777724126,-1.6079846252470314,3.597260900695974,-0.7997538113829086,3.1154085645156437,0.7363170255391598,1.0038739397257555,1.0981173603448218,-2.106616735832496,2.674703333215658,0.41511863976774956,1.7840427688280514,1.2515168684049672,-2.134748142097804,-2.2091862574298295,-0.9625915058262409,3.866168879009922,2.802786408212598,-3.1199841004587256,-2.1453204901582,0.7393086592418658,-3.61958722804303,3.037275719494936,0.653615402531269,3.4602572511737028,2.070748565899967,1.223545932182426,2.1848520052498916,-1.8487188955996675,-0.43271642382777589,3.2477859930724,-1.7840417279072372,2.2550388370262954,1.7773143720998013,-0.13132462018041303,-3.2509347875247469,2.312566621630606,1.4880841478882952,-0.415364573360925,-2.255547102446746,3.5106602590637365,-2.964009642848363,0.881477775220521,3.6603354605372875,1.2345212576717196,-2.627725920015626,-0.09620169668189593,-1.7184560210371327,-1.1364488561257674,1.2044822746202338,2.4372758817746078,2.6927112358881848,1.2995492483358673,1.7989876082853318,1.4463322420708896,-2.322495546371602,-0.8134567356334304,0.898685898712885,-3.1908150355923468,0.6742696206282837,-0.32440706459107729,-1.0818979897560278,0.6445932980319444,1.6359658033915672,-3.848353256133465,2.860015119958665,2.286175352062883,1.1371138067849805,-3.8689861100738938,2.6469479779300606,-3.8272718566722174,3.2158340578027397,2.657097114645297,0.09345715720436587,-2.221781470905655,2.0021177563097707,-2.5854551048174549,0.00418717443333172,-0.9380517732898559,-3.999301642387639,-1.1904129024060426,3.014637536603634,-2.173554737064256,2.3462769686924647,0.8529316794689414,-2.524715652970162,-2.786641220712334,-2.0778391491673506,3.8224458783431558,1.3369686920775719,2.623811659038738,0.6720151555767266,0.4807856735922833,-1.4494556276083695,3.02371524736599,3.4574502010055587,2.572823941055324,-2.5127704807315984,-0.8119306537852096,3.881935081337171,2.001609147485885,-2.0106622362606307,1.2388607552988554,-1.9916558699967946,1.6771682293706523,-2.742873894486557,1.7728027878452162,0.7355941961798598,3.4989406857016505,-1.588150148961267,1.44694763586679,2.4366853595749005,-2.7839135552833946,-0.1594105128067438,-1.5651620003993899,1.7352773307598462,-2.829564955888099,1.1300840831278408,2.2087205465631989,-2.460495667843559,-2.597638861777635,-2.5780712749021266,-2.118006499430342,3.0873463536989256,2.2072117035386444,1.142909152797733,-2.4569026628657806,0.5813332461020266,-0.08589974700266523,-2.306187020237558,-1.8759100076761189,2.9536015385980258,-2.7542939493943816,-1.8087292947350698,2.596714257049949,0.6479876777750997,2.4905303170496815,0.6707691161020675,3.155782682505169,2.681070052139175,0.8245088196566366,3.1791408075940454,2.9287793052254864,0.4953598944174038,-3.89569711590266,-2.762054364305172,2.2655902285286206,3.7780188790625814,3.348746934736117,0.86552015624095,-3.8632866081297037,-1.481234987182539,-0.32704185090217688,-2.3171389334079057,3.0737493135265137,-2.441354924863546,-0.03222041522780805,1.5489410326829907,-2.5585744538435035,-1.9765216995357025,-3.801402819711563,0.8059943166876611,0.2411259429655388,3.754733161216029,-1.0679499320365158,-1.890976509971136,-0.04840477087594741,-0.2315780618203631,-0.28842275678001019,-1.8063357176695332,0.15318666017521033,-3.9757501521189129,3.9045418582504816,3.6935720613840337,1.2756162256866404,0.7252291299093105,1.9737824013518797,-1.3995801119289162,-1.1224560260998154,-2.551745849334016,3.23421738676772,-2.9763258967627177,-0.48208740667742436,-1.386088408403378,0.08126447180407226,0.5290966164228381,3.1787827993002359,-3.5971395187927879,-3.6436271829735817,-1.5213429926685116,2.977201704328963,-0.762027160198304,-0.09563880097678546,-3.995282590673259,-2.455188044416473,0.5027809495041407,-3.4601906235873978,-2.422811915927701,3.519782950758711,2.5690328228643635,-3.9277502417455745,2.644642951140817,-2.2971035664164924,0.28385617227807816,1.6444080882790733,-2.0765079151673957,3.8636392099391,-2.7336666512976839,2.791692235046006,2.6374977444812739,3.8655373749726547,0.8514311856467085,3.2879889887923259,3.3126580314571605,-0.28425206899077418,2.3891274546573175,-2.1554396010207137,3.032778262846982,-0.7375358987967982,-2.837487260429972,2.9631572997878825,0.06437280566741777,3.1624073732367936,-2.7812384364232507,0.8093616790808724,0.0514564583513577,3.3023857474935127,2.4815489783644475,3.2572465950497966,-3.0957720556727477,3.005833609858543,-0.11726522700640096,-0.6739869737961843,0.509142362944706,-0.48407368656761898,2.5713201661066726,-3.983506699199298,-0.5994317545173493,-3.9213490544096309,-3.2611920093717288,-3.6923169168090919,-1.6403761629800007,3.762206166171082,-2.4719477523591095,2.8811724826990297,-1.03695216711945,-2.2670703739240105,-2.7403217423406867,1.1468210944732445,-2.3502246556905215,1.7664398583683028,-3.271946952810321,0.5238973568680247,2.3320201740575738,2.680495497978625,-3.8947924446529278,-2.649161707100755,-1.0837424233057538,-3.851628006361282,-2.329357560820198,2.073678968843426,1.8618543144237477,-1.166734414450108,-1.4992956132865727,-0.12899054176599,-0.3862363070371062,2.432674704796778,-1.0584346923330339,-1.6393107344422014,3.1902080951329054,-1.7111432670308338,3.0425136086194195,0.5956670143532392,2.9857002793824076,-1.7200384246383909,3.736663331342739,-2.651231150734782,-0.054012651199437659,-1.8191905378328768,-1.1759897961535533,-0.27633312629574627,1.7764685107387069,-1.176541724709037,-0.7947700545730305,1.346180454967218,2.5790967559149955,3.5295034702077379,-0.12881490990433543,-3.8119851694512389,-1.2517739776601476,-2.6994461644920104,-3.9848342107522738,-0.673269961862176,0.9185388393539631,0.506241850803681,0.11553179601878405,-0.6232852998087439,-2.9533993097102977,2.2608503357160929,-3.5625628763432779,-0.7061555520202196,-2.6188051458779144,-1.609310806263351,3.0944297960624507,1.666611160955429,-1.1341204152866096,1.3852252968792885,3.662914311348448,1.5579827937012212,-2.032011534306874,1.5216589248462836,1.8407587744105545,-3.4287930194467748,0.06752273982429191,0.15973313379231247,3.322263738867912,-3.2649550708071359,1.6721233202335686,-0.47188100901947119,-2.670217090036993,-2.928921226513695,0.7910617070387005,3.1491806023075039,1.5638214634676429,-3.2092474440362634,-1.2515952989977582,1.979229926732497,-2.5999640378539725,3.6790284122369796,1.0098957771155446,1.5794838626060726,-0.26664354831050809,-0.3666208823802106,1.8361984555008997,-3.6131616668585506,-0.7897326548861212,-2.1166754872643986,0.5569316253999377,0.5753042430340116,-1.204104209922743,1.7039359860986406,-3.05616740778047,0.5444828622131599,-0.3383314407308473,2.167139614795639,0.5254633676170526,-1.378853210736283,-3.3964263340041258,3.5765543988711885,2.9420543344221645,-0.11152177504782923,2.7013003024227304,-3.584328376993077,3.814002728506164,0.6723528100123373,-2.485259492272543,2.3168010435130474,2.3588571625692928,1.3619909373681117,-3.2988159068017328,0.02326324736955776,1.5204006272432756,-0.25524417660701195,2.9483197690049307,0.4199230333251256,2.2581938605055065,-0.8115604556774754,-2.4608465670111059,-1.6144082870945627,2.583792220781832,-3.8181083537398337,2.536702898479975,-0.5378715071565685,-0.020769275002038735,-3.072522307595758,3.103535549676188,-0.6593115888428693,3.1462517637173734,2.442244768084336,-1.0900691705634938,-3.8334143562862836,-0.5754656187333263,0.4197282483656837,-0.34678059646222528,-1.9075759435608078,-0.9622126360705481,1.5701528232196714,1.6792918671236877,0.13122515664821322,3.304033997544547,1.3854084451187694,-0.10329664799933003,3.0842598824742319,1.5008438221570489,-1.647800088750605,-0.16030161206521854,2.8851628914433808,1.7201269311547396,-3.6964881819852657,1.9477213395137519,1.6518766489230235,2.315537689354092,-3.810794318162319,2.3144008590266136,1.9284472960095923,1.2715286689347565,-3.692240096965408,0.6186663366186451,3.254278480262455,-1.1763371065169055,-1.3662151730616826,1.2022526810469847,0.9946737648042481,-1.1517812095291456,-0.2934546703789602,0.4085786903872126,-2.344717074109809,-2.304418621822883,0.35428209432443849,-1.0250693453701346,0.7908084253543564,-3.745664486434584,3.729761906315802,-1.4267226932862905,-2.761774421283577,0.2624729083148951,-2.0874125523470559,3.0140629944300985,-1.9742148546778875,-3.7284210636045449,1.2008257955169937,-1.5816354263033715,1.4980226063603644,3.347742830140308,-2.116332366572488,-2.1818604345833778,0.35249083221631408,-0.9730779374195426,-3.1064382314192748,-0.9449058802177566,2.463015087499434,0.20434909721132844,2.7053001753067287,3.4449282519707848,-3.5929903980524244,-1.0002077955066644,3.0542535506264629,3.7303670108161608,3.1686290445271485,2.2875215359518625,-1.6007208869163956,-3.699088628382496,-1.982846363093463,-1.9340904658421226,-3.9603197943073944,2.88703359856164,-2.630984870996567,3.7430865389567877,-1.9263394749305858,3.027825641956982,-1.3595467711705709,0.439415289766667,-3.3026676519840505,-2.7624881752784899,2.0005550968080767,2.6963332942872677,0.1763816903310449,-3.538132141324823,0.758531761559051,-0.8283735596182833,2.7756892813594975,-3.731065312796585,0.8408509337574186,3.2185451251364238,-2.4264795520295907,0.93636414094573,3.2243266475411609,-3.953452518940728,0.47014857151029068,3.157529003353898,0.7820786019255603,0.3211489455151275,1.6213270362912234,-0.2853201450691083,-3.550435556840389,-3.048628254863713,-3.7348531017340607,-3.819298263136999,0.10362804195342435,2.827802596943907,-2.060928338546187,-0.7546086350830203,-0.08418569313889335,3.950807565893032,-3.688727466236169,3.9608456939823064,1.512717072647396,3.6662354460691999,-0.3921999899352413,-0.2542087837099596,-0.7450161709757561,0.8196504816942962,3.3878467308795239,1.3823942200413156,-0.750671292450658,1.8659927476923848,-2.787997666117259,-0.5870498244808042,-3.934155637386673,2.595358346675651,0.2710807039936469,-2.515952754782683,1.470570228596352,0.508427695290611,-0.9783542279890887,0.09864340280019057,2.6479536146101756,2.16715575703493,-1.7017751464642448,-3.827483107058285,-3.6573016825864395,-2.076100953595418,3.3045504762395456,0.8823877211666131,2.9958537718840576,-3.3232810844555997,1.7013052956911663,-3.5224552945129865,-1.3231434058268404,2.8213206513836486,3.880332518677151,-2.2750248295193886,-0.8709369368280482,-0.8498584992676597,1.8522230281780754,-3.296172546787676,-0.24901986958102108,1.2606231041997874,-1.8062633727127003,2.365307936784716,0.20846183830883015,-3.190476685504108,-1.4731997238189472,1.9158237122002069,-2.753129003238282,-0.6907978037146487,0.7931094486056409,-0.6034516764204208,-3.4137987109475169,3.255438265704006,-2.1869793544180418,3.5421011281357357,3.9594805705446465,-0.7965860944359469,-1.3576327905207302,2.6055357161101044,-3.6167446678636274,-1.6781508163603205,2.1664851172403587,-0.5233781874525203,1.7922311117655028,1.7410316969859885,-0.6984819467664272,1.7541197695117488,1.512079217295267,0.29153434081606646,0.0901109009828227,1.4297835068163707,-1.2403085296391412,1.9069027172748206,-0.2095506355664032,-1.951126804174981,-3.800035456328933,2.6125804656220774,1.5343813823527537,-3.68224089077549,-0.8862644458918891,1.8033332247508689,-1.9767054632028279,0.35953363963264098,-2.839803897631098,-1.9033701194728785,-2.633998677954825,2.2115514103552966,2.5029961774419258,-1.5015639983136425,1.4105943362233103,-1.4428264943417073,3.654875606001945,2.7889097359460646,-1.054708480868381,-3.3490706643296876,1.062890171075078,-3.3094759753130509,-3.089350451647923,-3.015226674015709,0.5635907524458332,-3.6635392269792765,2.8288533461591776,3.1312760820944485,-1.2171665305756177,2.4310557161126455,-2.7712683874613708,0.014983892498880103,-3.4023198880054155,-1.6118710601410394,-2.2344382565034399,-2.6374622216542624,-0.28888243137136007,1.1512616227152597,-1.6770495145528986,1.7570026377065178,-2.659525535254563,0.8870330953984738,1.9600914402920289,-3.0962264353406487,0.3672146538459362,0.4580048870766378,1.1572254852253697,-2.8477652756463689,-3.101283505412506,3.801146278802583,2.5723860088382866,3.19726221914612,0.17908735976218805,-0.9783815569574745,3.3227427624840617,-2.6652642211256696,-3.3373427990276189,-1.8295421665330434,2.895821252475427,0.525060795734702,-1.845818611265484,0.9506949139575172,-3.797613648371568,0.5447167210282835,2.4885348494595886,0.4698866553151646,-2.5016852789220609,-1.4814569516616166,-1.7947703637548965,-1.2730093394669009,-3.077699751879944,-1.7794335479057273,-3.544348941101773,3.8491755026154186,-0.5063195352423369,-0.8218055391144485,1.6999046300536574,-1.6814016784060509,-2.3811496941368119,-0.857788825300249,-1.598669359511087,3.2191051922041584,0.11005489109202138,1.162822602338415,-0.08719968731602834,-2.9793095633740478,3.8202517774320787,-2.9881804222261545,2.610971179283152,1.317016289784119,2.629059781324889,-0.8957217905750792,-0.6199339383611677,3.657820636263547,2.4548628119006326,-1.7663134508643775,2.933919803020503,-3.971652510742995,2.971207372737741,3.032847932870242,-3.5371346049048828,2.5302594302963854,-0.9228706407884735,-3.6340285253675255,2.6139977064565649,0.707803966265331,1.3313662976858308,2.9899132041586364,-1.7473848005883104,3.2354193127338988,-0.12771036456931007,0.7015978148037556,-2.202613683404617,2.4712844967399407,-3.5696693780433739,2.176392121084805,-3.1989867408251344,-0.44109382095309948,2.8544041588438135,-3.336960599018644,3.0428331832038255,-3.9566274619234766,2.309169482061746,1.044174363246145,-2.292951831272134,-2.086538763932273,3.0080904552255758,3.48918256340483,0.05965920345644715,-3.6654670852754416,3.0857221848630536,1.6625703977773166,-0.18885416661838384,3.715147032376964,-3.620872719501567,3.7029571555521194,-1.2357447732111309,0.5767092654888923,-2.6891069718036748,-0.6346763401636295,2.1284307578557586,3.891985537567094,-1.969771091822251,-3.3320002987732,2.082286982134284,1.1550295625926275,-3.011827905964955,-2.37806630864197,-0.5939107327231563,1.3733427318627758,3.015183151307988,-3.9515230844534399,-2.3259297864997787,-1.934658741962281,-2.6951792549718975,0.5501911698431101,3.523202611582927,2.1510318860304196,-3.0393802153222246,-3.2872462506867157,-0.25038276845095255,3.709051085515364,-3.99067336260281,2.251440566126239,-0.7782992184541948,1.285708035541517,2.8360678658515425,-3.75504491431389,-0.5544864980368691,-0.563773086657468,0.02910410787340023,-1.1976976251356382,3.8918956371263038,-3.8674871418454295,-1.2645742915823826,1.7624513718558497,-2.8677104829228865,3.337446436012466,-2.5189526003570874,-0.31785008179395449,1.578494475458796,2.582756966395465,-2.8291884300218017,2.736432173663765,-1.3446042495929352,-2.602447100825529,0.25427697324938328,-0.41009882124797217,3.36560454472699,-2.7202282922354259,0.8726971147651117,3.4317836113243018,0.8454493850389264,-2.3960947874047928,-1.553625983138427,-0.185499803646062,-1.7559396376207835,2.5690796450925665,2.9709162946867559,1.9230946368316913,3.7899078728992068,2.039988139414949,-0.18864608836473296,-3.824399097064777,-0.9374443497360601,1.7417504370302597,1.3987373326186977,-2.6397951224379785,1.6271091363094988,1.900806590941718,2.124269168897235,1.0449095391540864,2.233787387170368,-2.578698984871428,3.718812194070641,-3.074844937958704,-1.7845121708863834,-3.7593925005820836,-1.807499375218679,-3.032370613660195,1.068297448139175,-1.946214626526279,-0.8361018177030033,2.8844305071194284,-3.481017731627519,1.3369583424171792,-1.4779264206344865,0.07994170128768108,3.4671235534885884,3.133913053603605,-3.832073694624504,-2.2184108824303756,-3.328894213496576,-3.4645836088286146,-0.5372476175550387,2.109993480243851,-2.93385141105444,3.5698431176988354,2.3376151831452098,-2.766673897564975,-0.6836364118539942,-1.8063369213176737,1.9847836965129782,1.7689694012422984,-2.739973623946046,-3.785739024959179,0.2640795843110757,3.267987592903287,-1.3175021545683113,1.2416053670482637,3.5530690265722599,2.692493971276712,1.423398379032923,3.4618271977654917,2.0770753503600609,-1.4547792376019405,2.043524389111691,-0.16332889148939334,2.058914644660507,-0.8989655067167666,1.650212860125139,-0.09505171422293479,-1.7620139113769076,2.465335488458547,-1.2483712965448933,-0.9670530025200395,2.48825745754924,3.4267707744758395,2.954605758984517,1.8245371473070123,2.3257351736712517,-0.015120956766288885,1.018503955830342,2.9636748158696379,-3.102660702046947,0.8048255410801382,1.9371504546687169,-2.139147481965229,1.2657100170860272,1.0414913611102357,-1.1112612159564146,3.657962265207563,-3.0898313239531358,-1.600857419137169,-2.001256728754333,0.3530349720276824,0.5552593056504858,0.28968207655102598,2.2489600093166786,-3.0486331023199035,-0.5078288008346215,-2.223337537669572,0.5310147860205827,-2.972493776230711,-0.9282961684335656,1.0236432258649169,-3.8320941558192826,3.30625021166433,1.9639968941152715,3.019594424027093,-1.3721322921947615,0.7455560644321828,2.893815538913744,-2.2737784296863108,-2.033410853135984,2.267921589122513,-3.738590300520019,3.524701073985229,-2.79303993919188,-0.8222521501701634,2.9206103207415774,3.344493510484818,0.5385538222310551,-0.27519434367819697,0.2864992783507043,-0.785075613948379,0.3758591354653191,2.964024076233338,3.8114064243573946,-2.743064663375473,-0.497412736692304,-2.7661267637672024,3.328572949071247,2.414759889732184,2.9819371093002147,3.1910379647912947,3.084810784805402,-2.0720141309685804,1.2251639459971769,-1.0735470407041595,2.608410590333139,1.8619668571141777,-2.0658616273416499,-0.032010544022833768,2.0583501689050935,-0.7732709565934339,0.8228784531554148,-2.905672653206592,-2.2798718001909687,-0.1680266733776976,1.0372948004373282,-3.348679309781521,-0.7041444727506052,-1.4383236086982694,3.240362862075872,2.209187330996383,1.9342720134376715,0.23904830074557283,2.717661706490099,2.0308530241847189,3.7131197713128305,-3.109474368566807,-0.45403375638194368,-2.207625598644393,1.292576970060594,3.564762499444301,-0.8699918384573524,-3.383639293057212,-2.7815807369524405,-1.4288953463267705,2.3277880120867948,1.359864072568569,2.0622532252580099,0.5606056004681301,0.7686211447255653,-3.303776221054189,-3.115349964355554,-1.2109742546927967,-3.797065624948991,1.9201071945886108,3.0241789500316145,-0.9321485922168831,1.6777265595646088,1.4953407343111689,1.5271088994165468,-2.686009595511269,3.06942213088825,0.3168200979828564,-2.463837423295648,-2.2630634605214094,2.4445554974521066,-3.843347037675106,-1.2719249553278703,1.3422759252485879,1.5250674927773203,0.3829216591089253,-2.7155185985196299,-0.7795313371814563,-3.0111346982870668,1.8473368608512396,2.4486449767418367,1.6116338811620299,-1.6760921607503987,-3.909236575470021,-2.0912577167317298,0.7102795187176136,-3.6781607863962124,-2.3859377026829966,2.8194368226415795,-1.9356932347388243,-2.268721659873332,0.16795333734333885,-3.406391095603043,-0.2684216012616618,2.5644901249141984,-1.4876411586391046,0.4070500044640841,-0.4053173027732948,-0.4351149428277934,3.5628621606355299,2.1399802328556838,1.0619537386406517,-1.1264292136983605,0.18056144044333245,2.48729394361691,0.42943454234475456,2.129497196340288,-1.402731849016889,0.11442874363903144,-1.391160040527936,-2.0797774832817126,2.1639815478938155,1.667127346750604,2.38132800519101,3.3058164377623706,-2.6318736313797057,1.0623935527900406,-3.6574135386302926,-0.4245350632104028,-1.5190356416562899,1.5718991176355637,0.3159778262019275,1.285835285187546,-0.491064194252691,-1.0738135473957693,3.346464978307927,-3.323492881407387,3.892538558122344,3.378343674220644,-2.0083665871095697,3.1894616770485397,-0.8216095327824033,-1.1408373894167863,-3.336527598938739,-0.966621904231296,2.9252711570380436,1.3334415392458948,-3.7256130638955415,-0.8348688048247028,3.1577686974802017,2.8994573637089768,0.9152482290307979,-3.6333955419407877,-3.250194207602801,-3.960852837276584,-1.4436454081552078,2.1554713552153377,-0.43502068220266768,-1.3098978435647484,3.532720186887696,1.6672572646846505,-3.0821673499762625,2.673825436883088,3.4680501467604438,1.6450838825239416,1.7948779104892899,-3.012167088865443,3.851850190479033,0.8804787906210088,-2.1460536957362326,0.020887595343909383,1.0146818270628897,-1.459281940645183,-3.2427177128129109,-1.2442506257346298,0.4722811749535243,-3.7611954609459916,-1.8038426032406923,-2.6215315865928838,-2.4777062520115846,-1.3649144314898676,2.2750588161289224,3.577208961503014,3.2151892886745525,-0.1151696678360088,-3.491747214194529,-1.173586974642889,-3.9316426867865754,0.5642186432241392,1.1792944849949443,2.8385989454745585,-3.7420766529619309,2.0545337027958006,2.0548527416459638,-0.37256360644529687,0.3485346859423881,-1.658476266141436,-0.4965372179912242,-0.8119535281977033,-2.65259316497234,1.1552752116320262,0.6918410622273425,1.832647616132694,3.150027752934279,1.0688321825494747,3.981809058451419,1.2721467668308649,-0.7425729729870214,1.348490377870215,-0.5046007915581026,-1.8932984720050004,-0.7836181356449359,-1.207150022510823,-2.3448193603319575,0.7089863054502876,-2.06740296831976,0.42982973081402067,-0.07359117202664223,-3.8485352909674495,-1.3988572424634463,-0.7600825085597585,-2.2832868196256888,-2.714305684169106,-0.0757119577786094,0.31389101501665897,-0.6332923848301031,0.04171259911791392,-1.032187293642659,-0.5932757307017178,-3.7546702338645359,-0.47401197033450717,3.7124528676773966,-3.48048616499001,0.4963498606981096,-1.3326874691647293,2.3175691186296678,-1.4039756832960302,2.7283722566121479,-0.91634642027008,-0.5460398288097219,0.7589630438583956,-1.4300639264222837,1.6627093336136963,0.6943870740381914,3.697565650910228,0.3159151040607595,-2.067898406172275,3.979710503878734,-2.7191301455393717,-1.611196522606965,1.1475332839577926,2.5690262062831357,1.622120193140634,0.5347773585733373,-3.2679510988940567,3.4487603982644456,3.201998731359672,-0.5205001882460527,-1.2701121491972319,0.4839388210834299,-2.152559968155825,0.7455864266185772,1.9919963277697184,2.758133741991477,3.3733911968740095,3.1092975003813896,1.6410648065501814,-2.1197745887446786,1.0754919325021702,3.380351923155775,2.783891257442125,1.7471261891142503,-3.102380336728757,-3.378071073764932,-1.7083085431318475,-0.6805893313486122,-1.4275708656043449,-0.39835803335829059,2.268143203811875,-0.35824536536664,2.0832075761178245,2.5263594333821999,3.720650222592906,3.9712258480886355,1.7570990447396807,-0.95935375750909,2.9758683503497176,-2.588898615641753,-3.0523051614406695,-2.922579176528389,-3.3682574391436557,-3.4255350410850946,1.7043505620023503,-2.7368122330899338,2.66999630197303,-1.6391032309809786,-2.692908828833918,3.629887874047638,3.1463889511675227,1.8445272996981848,-0.2607699936043115,3.6036526921984759,1.4383229042674249,3.35332080329594,2.6922412902312757,2.07807765327002,0.7993353536217613,-3.6125988996913387,2.2351859424225859,-0.8938175008392089,-2.6087249623643018,-0.5639766982132548,2.2953919490106688,-3.5721117059234119,-1.3079613195305642,-3.5258702015544784,-0.4349273023648701,-0.31346853086139428,0.3981488495535963,1.1569153008206188,3.2062158790817865,2.7499848502554196,1.50685962576068,-3.3859949561384266,2.467387952803218,-0.16333733890478897,-2.3753239888574919,-2.2320548441620309,-2.119655437261917,2.67850915659679,0.31976078606389538,2.8283461046809439,-1.0341907847063468,-3.460974594481356,0.6494171911859423,2.4562398993336336,-3.5083756152889036,-2.884682636153763,2.913597647006661,0.8828367582585681,-2.1141377484750949,-1.7898815393356929,-2.6842612783996708,0.8285573189899438,-2.7521510433385858,-1.0587035314718032,-2.9412665709624186,-2.225209894770181,1.1585065197832423,0.9348888843158969,0.6142953347005298,3.6744277740153574,0.3765128042042818,2.563612831542237,1.5856156893639213,-3.125249496611058,2.10248938479302,1.6951952827532289,3.2891008546273117,-3.082020896991768,1.0499268625813008,-0.15474180358998147,-1.0121209848935847,-2.2969627970992869,-1.2967206099191644,1.8171321259322584,1.457587770335258,1.8603840509656964,-2.3646987008108368,-3.939625855061779,3.013382429169397,1.2969374218474635,0.8110279082831262,-1.1508851177638305,0.8852314646912687,-1.2859741431469445,1.390445802700052,-2.661300991305713,-3.8187941896135557,-0.5419319766439905,-1.0938222635029276,0.24144803652589975,-3.2352988091755359,-2.8439571032777097,2.1717969457385069,-1.359559604613314,-3.128925756605023,2.092830150559247,2.899000944539072,-3.151453065968922,-3.8869752886338047,-0.3906123746500716,3.6818328068202117,2.933094159587715,-1.3347971907520533,0.8114221726661439,-3.7006162492743677,0.9064235460516317,0.008365168747433316,-1.0881897282508566,1.2016576760680443,-0.5094276840990695,-0.3704495206891709,3.5082779667567367,-0.3926432175860002,0.9980014005866664,3.134683764948167,3.8124631325664488,-3.8491310254171289,-2.9442539114636459,3.4557077909564049,-1.2777279069281276,-1.1650046569602067,3.01250156265702,1.2843882421641322,-0.7585301847521038,-2.908633439368433,1.364400428689346,-3.578450146356732,0.4863875378921687,0.6028133445204711,-2.707243552988194,-0.5364536365950317,1.7575534512768388,1.4029296290977272,0.7653519660145589,-2.4179774022889628,1.0909390785428644,-0.24463045150477237,0.900267129873157,-3.223087280548789,-1.7907277142384537,-1.6289029105817888,-0.35286221076006898,0.23876808151432095,-3.925611576472546,-0.8459261591932741,3.812468582798739,1.1084917847426832,1.3600000869012643,3.9286770444041716,1.3432469104208833,-0.8095900467886246,3.329818897918817,-0.3271667529779867,0.3602035112670148,-1.0790217382958157,-3.595855644178746,-1.5620876305050944,-0.0564710668766788,3.704807346058204,-0.6215336446357325,-1.8093872169676404,1.3061947235856649,3.5575754217866715,-3.972854365084486,3.3885812364230816,-1.1124556607117369,0.5544208796494141,-3.2534968904849,-3.4690712115721915,-1.9114881787567875,-0.3369851416329679,-0.37595293107036045,3.0072811017137059,3.219503430253253,3.11691485204942,-1.8572925243013519,-3.8248097411771484,3.433608428863592,2.4317559755354827,-3.3337141429547438,-2.0109323697864909,-2.288992061554194,0.5910065820190749,-2.4786306683477017,0.39843151892718078,2.969428618552958,-2.8330252394571424,-1.535023679433232,3.6996471526101057,1.8361223943966492,-2.2123225188657917,1.0506346418798405,-1.5414231541352637,-1.379646418838882,-0.4532128259415982,1.6621781267854239,-0.32159075039239407,1.2751821048124228,-1.5943598072324834,0.16207029810765317,-1.8607132621368388,1.4085451215472578,3.4438699165469579,2.498669636213357,2.817544528249117,-1.678779110388364,1.7188732465146668,-3.263108278654343,1.68327226448727,3.901876431614718,-3.011379995553468,-2.522907404818767,3.746902191761799,3.979229751147625,0.21890182487430288,-2.229105649109729,-1.1352329826053005,-2.367613317983814,2.519900086896792,-0.5282291729981052,0.5919616202725919,0.8456841299752131,2.0755878378273895,-3.594475759625019,-1.3410554497121626,-3.96701033363244,-3.31219134681226,1.8426236204079043,3.346979621940733,-0.9313820747864048,0.04726482603221438,-0.9404425923884452,-2.6957338932433236,0.03878039940950373,-3.4492907684943896,-3.7316319768237138,-1.782388408658096,-1.816645322180927,-3.730165209036093,2.974281999861403,-2.466773317647542,-2.221801148726506,-0.6745140015652282,3.2862478391725045,-0.37966742980561998,3.871630661128367,0.32319330752639888,0.2218360260453398,-2.7774658380320309,-2.392659457916314,-3.581384781816933,2.2587987547722356,0.7300354544096752,-2.6076111405141777,2.2130785951483569,-0.5031100068632428,-1.4697016746380174,1.089350411016924,2.9840272625572146,0.6027052966467661,1.015064926720619,0.8356474241825902,0.5322979465633111,-2.8407321502769626,0.03292741690777312,2.951429828529707,1.1199526125424973,3.0085192659016437,-0.7442031761927941,2.518175936243387,3.6738208290414988,0.537771942964155,-3.382588572382316,-2.133709685652411,1.5046092370042273,-3.4008548601457866,1.276228359913854,2.531876324030944,3.53631982180009,0.13953611037910286,-1.7590774673817836,-2.049002080435324,2.758006650320051,-0.1118015432785402,-2.256669122944043,-3.9944392379202036,-2.1296776842606297,1.8769947212326504,-0.3626191865451567,0.5140439812594746,3.515872199224825,-0.4462659449041029,1.7730591526649065,-3.3641405940991166,3.5914261311705335,-3.6840773665345916,-3.5747123646558487,0.3745348598964302,1.5989780808963686,3.8171461669947375,-1.2834980815712874,-3.1051213271482096,-2.0462145962552986,-1.876500815339135,0.010809021774465855,1.4560606519049478,-1.6365039918561489,-3.6584226930670269,-1.3397739530110516,-2.6603359813356386,1.2801494008133308,-1.5898572245040859,-2.807460417983104,-0.6850950937830846,-0.529441829909505,1.3638211256107953,-1.5341389109477036,-2.4107289134993339,-2.771621070033211,-0.9686534003728584,-0.39986694995527918,2.0255801972336719,-1.0254622178916789,-2.853268894101226,-0.99570463339302,-2.473062193757217,-1.682270296188918,1.019945764655601,-1.0752995214147808,-0.8932494202547174,-2.49897630971523,-3.6077463186564779,2.9865882300224548,-3.8520243001484228,-2.3822936436388906,-1.5112225023594966,0.3178469679406275,-1.7235524964092675,2.796343323783253,2.0062142863149878,-3.7391973471557629,2.3267662023673978,3.1863484044974195,-3.8301878304361409,0.08073923621076151,2.6824388521983248,2.062302431098712,1.1317420159547159,-1.9309541313232133,-0.5484457897386319,2.24727639812492,-2.5956599478787698,2.210164924802787,-2.8173232972651869,-0.936460069773295,-1.2485633888656152,0.1919778249984514,2.4875051220800019,2.3613830165637577,-2.1740048729749334,2.0230266857110035,3.182600647962751,3.659458921148727,3.444132310712387,-2.5695053657673405,-3.153349757516385,-0.5982215283721768,-0.8192696759499822,-0.289328090879712,-2.2412775836834566,3.0325902332354515,3.8286677669661506,3.8142567927562176,-3.4122552994310304,3.5540462405517578,3.119529231593461,-1.6402684685780536,2.4379004196664209,-2.942743654011897,0.757874729645474,-3.028177537342585,1.354618746558848,2.878764198031398,-2.6287881813063915,-0.868059921057311,-2.16150474387105,-1.2454679091223347,-2.969381957324555,1.1008925196506923,-2.3697836386685164,3.371142388381214,-0.33477383181637046,1.909313093429434,2.347330605788879,3.3224095413163754,1.7913618462612089,-3.5736556300988928,-1.8454311228446879,1.823000071595171,-0.851767645453597,0.3016846260814825,-0.1205587842174205,1.3855682428014023,-1.4401145680566306,0.9859188855086689,2.8549344844940025,-1.0129216213117454,-2.915920331206559,3.7614225206621159,-2.0628868536184878,-2.4634700277270067,2.7323915714543789,-3.4452812944542119,-1.9700812383184359,-2.075734907211527,3.7146261758084915,2.842463260781642,-3.219134143869266,2.2184178822833919,-0.7638324005967006,-3.270466407277115,0.6363314006254965,0.16536150081138957,-1.1120519925180708,-3.689734345461453,-2.1007081652304988,-1.392442207659152,-2.5924727901228987,2.902869347725205,0.5043974801419031,0.156097689925903,0.34390938749552726,3.4723566560994607,0.4689101536371192,0.880364431456786,1.739898896185431,-3.985746549934973,2.8150336959458874,3.7382704289451098,-0.8554827211771181,-0.05089261557146352,0.8914600089179023,-0.06582671627059966,-2.964972902419211,2.175731989175989,-0.8338097252858523,-3.1088857504231219,-3.171997321409358,-1.111944435650341,3.2765547365569356,1.0531769879709723,3.131100522149665,-1.071567797376144,2.9993628446804916,0.6274077828031377,1.3515748244642492,-3.0612712351062116,-0.09586795464127995,-0.7773553895260035,-0.9299342245435989,1.7616668340188655,-0.45159380581600297,2.80644228135906,0.06459548558675987,0.9307711993020682,-1.513588707231401,3.790303552677506,-2.7858243351250469,3.723319121982021,0.7695794735134562,1.1222796833818718,-1.6473604845291874,-1.9129966270571873,-2.781129161572909,0.6237217600834688,0.6178405827248374,1.4895694667083906,3.6816305311450856,1.9616217376061088,-2.854035898216668,0.5992193132219645,-3.872134836608055,-3.035866805204848,-3.479014466409593,2.5551330996628645,0.4096089984126001,0.09508984881101235,-2.439143404504443,-0.7716458337954271,-3.232304894987383,-1.4506142474747073,3.8774944502933099,-3.808372411095169,2.5254645802720514,3.962547190939799,-2.6602205485692478,-0.23334939049110127,2.8891762696893235,1.2105926836728936,0.12701072109655876,-2.6241112914360125,3.390169994636164,3.1688276665057426,2.771362146555777,0.31853236384145769,1.2167008942879108,-0.9752487258906248,-2.2986493194092567,-3.0893812441974957,-3.4572277494701124,1.3823453124989805,-1.217591017237204,2.4424463277115358,0.2735580526530077,3.6336653926894186,3.824278838274169,3.29961319080616,-0.6530757062697676,2.1651753568932907,-3.7370285656338195,2.387329703943422,2.6342617418346414,-1.3337248440221255,-2.4566067977119108,-3.5609524401219927,1.9814745207508793,-3.1040844160668534,-0.9982323065816186,-2.6220453791273119,-3.8752806281220577,-3.1985430927049265,-3.7916575460688319,-1.90909383876639,3.4013893832009689,-2.328295859613509,-0.7879797433623237,3.04034719533923,2.5017755868290898,-0.4983201504484158,-3.739472240209988,0.3020706067791892,-1.6997055214965753,3.482997082677408,3.9220156762208475,2.8210275396615565,3.272021049245459,2.658173787171166,-2.2397963516784076,-1.1188036492291825,-1.8484171382593362,3.3928327850663697,-0.7978299082193099,2.0600300460039859,3.7486972084975269,-1.3833864094125757,-2.720395031968711,-3.1727626973397919,2.873726289399179,-0.7108770876423021,1.6606644490486069,-1.2258022419381272,0.5817159528947302,2.872416654323856,-2.344869624449908,2.666442524002739,0.3959508956971467,2.382117127816958,-3.9316699487556967,1.0952303498710086,-3.9192329762554349,-3.0730038109634947,-0.6280588509160126,1.4914730780791735,1.232083695210032,2.6393082074543328,1.8736338419247858,-1.2981870595518164,-1.5954718503688595,2.998168234546587,3.4668269568941518,-1.2363083919637772,-3.2898431125260174,-2.8254326458968928,3.706023333148572,-3.221591960721577,-0.06258273164858808,-1.911881824956991,-3.956323959157789,-0.6423308562846835,1.5233390935174996,-3.253587360913315,2.6522732461803617,3.6681246948287828,-3.5794957618390939,3.875505986421441,1.7346485468085744,2.3564848300432477,0.392054246286051,1.3889477970922837,1.3101634399901486,1.4154642121374499,1.2864993580366982,-1.897229100453691,0.1766064830271752,0.8340952617603774,3.643972570338966,-3.3034042772968474,2.8726868466699937,3.2790924334442836,-3.070454564077803,-3.6912665318497668,2.532320615264873,3.726403942362559,3.2995859441695467,0.4585357823439935,-2.616623296939517,-2.2296379069147607,0.9783779154421426,2.114840497411401,-3.7656383625034977,-1.8595826481653362,-0.7428892552830462,-0.293631152336296,0.14123914504765534,0.582817284925988,-2.4090638647712909,1.1763373182481197,-1.2229236816767626,1.9532907536798892,1.7765644180450524,2.836966046946606,3.3615809962110836,-3.729073735439532,0.7435627688191611,2.0712283292351545,-3.830447415484164,-0.5109875849432741,-3.455462061414668,1.545655914971162,-1.4783599454998997,-1.3588681496415003,0.388109558707848,-0.34267230469938605,2.67385294959659,1.0567395384957426,2.1370616098565184,2.4339750191579609,-3.4148115364517155,-0.5759089866600373,-0.870408367044156,-0.1525755338940693,2.098355064715152,1.0238469107117734,1.8906205082869088,2.5350472642766794,3.369566165454481,-3.9245190254900894,1.2303784747882043,-3.35392874117451,-0.25073538363767,-2.530313039285115,-1.6471186551878832,0.711461640439687,1.440143872786301,1.6891652540334148,3.764732193247756,3.3339293080615208,0.41479133547489779,1.092932895472254,-1.5912540444410726,-2.984762249432242,-0.6680747903882536,-0.7469156678126703,-2.763923517036389,-2.845460995297163,1.0163829177624644,1.8467527857766735,-1.7258084045846838,-2.141351600929897,-3.181506988208599,1.2194925957700953,-3.4414957348767825,2.9958696858400835,-2.1757650728584396,-1.512006496325621,3.761784243578873,-0.014313321709195748,1.2153778325205363,1.7634346749494512,0.5027912301926154,3.1468877000662784,-3.743230218916894,-3.3790811317390245,1.7911054853518734,1.9723178357407188,-0.44951251214025969,-0.5074830595173749,2.1400085102202928,3.609486536633624,1.5882333553681863,-2.4456943286026879,-0.4605669644060777,-2.8369019245671698,2.6244113881761068,2.198990895092427,-1.6279589744566819,-1.240539550345443,-1.0742658925240927,-3.449712640065848,2.2380124095803595,-1.8208773961138434,-1.246556015861735,-0.4394547968654743,2.4521028552654755,-1.6555536206193387,1.7276993110708894,3.397242589046278,-3.785356918999283,2.288907821001703,-0.6793521138597087,-1.2622631183944273,-3.8765656580753244,1.1720060206156094,-1.0360661607501039,0.6596995735577975,0.8869835439328808,3.0115495632166109,-0.3350372759468696,-1.5727059677119222,-1.850855542512586,-0.12689916153024773,-0.11777050713767223,-2.4089599827338139,-1.379595336861305,-1.0286185968326385,3.906854506418564,3.027603087088692,0.5354553512327476,0.5639046187585928,0.8639881911124334,-1.7293252573885363,3.6813017901856854,0.24699055039264018,2.217334541594356,0.32047857491247636,-1.8086661413901589,-0.4125383729834786,1.9169028912302802,0.6800973930395635,-1.5109141222743524,-0.2652334750184293,-0.9259503858867555,1.0151077089730532,-2.3745119800900156,-2.156626621304155,1.5512940786688426,-0.23818653996709905,2.0100459095725187,-2.7557447559114616,3.509393272878593,-0.953948212397677,-1.192522411634766,-3.8638203715723415,-3.943469368043772,3.6690049932165227,-3.7906980593987278,-3.0981098075010307,-1.4122989895460148,-1.1269930193550802,2.458085082583664,1.23902146985923,-1.9513424354771,-0.37158949367526175,2.5122471117873887,-3.9163144544297259,1.7271004478714183,-3.2385203363656958,3.489986867799998,3.173590684550729,2.273455701222505,3.1212973271659179,-1.1461350229742574,3.1655878040755844,-3.3730433741258869,-3.243087328935081,2.198186357974138,-3.4659652784192955,-0.10559315520604451,2.9596557957517248,2.3422574588824967,1.6944213366414536,-0.789061540115487,2.126197171628502,-0.010210513866173665,-0.20191547774260977,1.500377091255408,-0.05909318172380651,-2.108058138909758,3.55380585175155,-2.8453456804097039,-1.9709542061277717,1.3881738082575082,3.5008603262446149,-0.5135666173124529,-1.7170367680561434,2.1065465146995248,-1.6108771327175973,1.3449258055240137,-3.7124269242775016,-0.27391771704606229,-2.622536829711133,1.0926279338863748,0.42202769688825905,-1.6296997421793478,1.7802319295729872,3.2795715037923518,-1.995568027459302,2.691825042473459,-1.2335170552135005,-2.2840452875447658,3.6230578701488165,1.7795985279568534,3.9876535324193016,-0.5728207368195568,1.8114072123064338,-3.4337510902156156,0.4091357083286189,1.7897993730293998,2.788015429781588,0.942260542505351,-0.6975152088821395,-1.6512087866749464,2.2107685796861329,-1.9163443955416658,2.230763317185108,2.3975129143923379,3.810695406722777,-0.6952291363571594,-3.464862551607207,1.6339125072518944,3.906476374075196,3.8352768844501528,3.7024779500015807,-0.4426233726259792,0.3126478857715904,0.8197019371260925,-0.15692928834959653,-2.7408608232827404,-0.3089958019848593,-1.995377460016275,0.9773995470212293,-0.39826743742289408,-3.8400161562822259,0.9050587929684895,-3.677164467622064,2.898096840631575,1.3215410767375309,-3.0107465863732107,2.814321919746125,-2.8101822313930917,0.4419036570303909,-0.2430811702150708,-1.073031221522963,-3.542762915453797,-3.0768260953010868,2.510889206782931,-3.7585368752841319,-1.8837069079219129,-3.301470885664531,-0.8510773593613337,3.979916102313817,-0.39066814508614758,1.336239830615571,-3.329053689134007,0.2837685329235562,-2.648761052120764,-1.9726156973448746,0.41634867692269586,0.5825384131702034,2.7447664882347286,2.9234555992730089,-1.5719991912424634,-1.9697123603247687,3.270589363807698,-1.9284256127727364,0.13290780326354668,0.4789106951721216,-2.2383442293297586,-0.6034533388147567,-1.1170182970998273,0.4846744718863256,-3.218177691688414,1.9666300884011783,1.1230679392736525,0.6620494566304558,-1.4260459035959006,-2.3539499505143715,-3.326661726441075,2.151759718876561,-1.0672642444889978,0.968095060647082,-1.9462592201919434,-0.028495302562001613,-3.616272364608629,-0.36469642894611278,0.05522958883907858,0.5578210580610223,0.13595534947612898,-2.104355410410265,-2.9253723149675645,1.289664478829951,-3.893570823696373,2.2660219790283779,-0.2244725938961354,1.1924113712352274,-0.22969089325689374,-1.736001881774527,1.7383728972627433,1.727885454508555,-2.2204098655834878,-1.0116936180117369,-3.7927823706548384,1.4124137000146382,1.6500073088370897,0.6615446174586541,-2.5903610937080616,2.2219570720311054,0.3885399729230361,-1.557573629901742,2.411508152613659,-1.3085459529090289,0.45705483137309779,-1.9097360576551586,-2.5803229925635779,-2.7685875456983366,-1.9879193297628566,-0.3435577169284778,3.62504155056328,-1.960231709028015,0.6082458397538408,3.3625616313466386,0.636257111336672,-1.7819009670830964,2.1414757462215645,-1.2386671622213897,-3.0161025164539856,-2.844698491094829,-0.32239896147562399,3.8775379053546716,-0.29665015124214758,-2.1597560734981338,0.4061433813363653,3.9315529879716788,-1.0942465827152495,3.247591104174921,-0.314575151004995,-2.677575762539977,-2.4982346260577898,0.6952736517111458,-2.559825048939638,-3.385963928861515,-1.3682210589244273,0.7126184594732532,-1.1632784472835747,2.1084210057754655,-0.8186227522364808,-0.5248269501237699,3.9274138594406509,3.8145744444804636,-2.4864872030245008,1.568502508616164,2.2036241441514567,-1.1273027842100528,-2.004867078734545,2.428592651644217,0.6574506304475012,-2.5601041054116759,-1.896428996350833,0.2007725507004654,-1.4680690456480717,0.8285245737360238,3.7324452568099115,-0.6804600481061076,0.16213496765457958,-0.6859289481927677,1.978483569370729,-2.557113642629176,1.0824891127154653,1.8477212585642767,-0.7927898110848963,-1.4351623852032296,-1.2634786623050117,-0.2292496766394072,1.662642767851331,3.340935001037237,3.7785119273428169,1.3812417809624958,2.744115913738547,-3.8254640662949539,3.517899626369876,-2.2193508306041958,-3.234962658226589,-2.645509465056856,3.372183919024148,0.40478250932713069,1.7789836375017539,2.0168669479197325,1.1035919533037273,0.712906696682504,-2.659798626687693,0.9905487637193327,1.7868646052012239,2.210947254404945,2.7994568606396159,3.601568125756704,-2.9128143356923648,-0.5411376238558658,1.4683498159472342,-2.5127366104152157,2.6491593882680606,2.9680552198826728,-3.5475681351191659,0.878671789862854,-1.6812703213031382,2.468159491373214,0.7526402642386323,3.7469777702103448,0.4834647874419282,0.9765582293682815,2.721258192675017,2.587427457290512,2.8582499902772344,2.709774792237436,0.29961874535854707,2.168029395061957,3.418831059966174,-3.330251377825908,2.4768701278695728,2.2660125426180546,2.3483866146159428,0.44436629040612188,-3.342251054584999,1.2622004130932104,-3.9099394216390737,3.5089477683318455,1.8699158811862838,2.2785965343887479,3.842818908560467,1.5149540321468989,2.049750484519861,3.9345412753188366,-1.3423467714004823,-0.08983374348536266,-0.7728475931800605,2.218680673239116,-2.200978463267247,-1.5676228823229677,2.5325350784916038,-1.2282902773550762,2.8664605564878729,2.562532426409706,-1.1332687465280814,-1.7360465184412897,0.4102454677732048,1.70009749141198,-1.400566823659612,-1.8304495747507846,3.7410821827431297,-1.389422821391644,3.374718461515913,-2.3705760694039066,0.19066920257396537,-1.0782097556904307,-1.62471777574485,1.179268020760298,1.6073676307661753,-3.674335432136921,3.78543769926673,-3.186238887320102,-2.5170824034129906,-1.0088963105358957,1.2451373151344445,3.7571270444105409,-1.4309948131274997,-1.9126938544864734,-3.514337103082312,-2.2493546110252309,-1.4760002334766734,0.693935837029942,2.3135716310969895,-0.17811255932137039,-0.6180671669894975,2.964986316152797,3.596760031654484,-2.3579516147046979,3.1896390112224415,-3.036222307482846,-2.653253166596463,2.3675428296612326,2.247644459273249,-0.09587026148772537,0.11045931211919591,-1.0829587081464907,-1.5245899266351198,-0.5735418050392129,1.3580779869811677,0.03196156448905274,-1.4274133672180698,0.11465902572558484,-2.9274211912973229,-0.456805539264022,-1.1891258224185979,-3.6760701536541866,2.3489377976166487,1.3796086837403916,2.0266203555991506,0.8148169810458104,-1.5377982637139063,-0.9898115254520699,-0.5493277206537994,1.6760481508304493,-3.34139987443975,3.7005616514844288,-3.182640955806736,1.3691488861164967,3.020210635198225,-0.9729231844596116,-1.9040854459487982,-1.604731158369459,-1.472312361987207,-1.6429224823621072,-2.287628225433952,-0.11082255342762282,1.6861198001127873,3.04367791858114,3.830300428724491,2.4364884110621247,-3.6192050008438176,1.1375195424890139,-3.561765053202601,-3.773830428796119,1.6110243325535665,-2.1870825306842187,0.33642313219238587,3.068527245204577,3.9301163995128025,1.2529785308618858,-1.9590059532010678,-0.024447809301250124,-3.6935946758045414,1.9334973100928679,-2.723423598417007,2.441329653192648,2.587553185752469,2.4188913363449915,0.7896088553103535,-3.9962156668495805,-3.502119480273281,1.1889276590792833,-1.37083367881542,-0.07162158362118199,-1.8063264776307167,-0.9381033247893933,-0.2270074975329004,-2.09726907784,1.5503533280098579,0.45116117329154639,-1.9606800666965188,-0.030687865587906594,-3.53383443126567,-2.1265195438956097,3.042450662859438,-1.0265414559118147,1.997501000445478,-0.07161681746466697,2.782576425101377,-1.4593041254809487,-3.9103822538502666,-3.7480407307714156,-3.6581414380987038,-0.3882561071781152,-0.8797394646341188,-2.196598643232548,-0.5495581180134339,3.037032486663432,-3.624950195804245,-2.416237034198603,-2.223839673188529,0.43667376026696216,-3.7779243651002289,-3.2885253081266976,-2.249647893122285,3.623122528129757,3.310787088278369,3.871423764081144,-0.884558930997217,2.5531930748535425,3.1672133659154895,-2.8085527654937225,-3.896321229656384,0.517264681920552,1.2121531663502845,-0.9248162246398355,1.2709169883083603,3.3173633497674626,-0.6950745118274442,2.8549153051709537,-3.5700224674164868,-2.9395716258811719,-0.9182846331554861,2.8438225962283036,-2.3893480226483856,1.3575165787143835,1.525152407423839,-0.7134042159676939,-0.0971968461011945,-3.480224535889157,2.6206845941855629,2.4328686814797466,2.815162669164052,-0.09833325347435795,3.798440132743514,1.2484828875470769,1.8886811276205285,-0.47128697191791338,1.3180920503193586,1.149687482670342,0.5393923081973409,2.89740443571055,3.096443260280674,-0.7137498206167459,-2.156140915525544,-2.945890838335803,3.5135161195679958,-1.225827818154757,-1.9191954995295718,1.1094972469966616,2.2188577080172555,-1.3952246768463069,0.8351423975324339,-0.3622595478989845,-0.9051462692216274,1.554498406763786,3.9490037530165695,0.9882815296201999,-1.5839367779185539,-1.974100495782858,-1.7865917349959888,-1.7916703208417877,0.7991766573166323,3.2722756903643086,-2.088024685094851,-0.690035531848814,3.6741631001823924,-0.9042280241024097,2.2935525578170639,-0.5803374084145359,-2.26543811366881,-3.0312890669488858,-2.827794723712981,0.8376576146552281,0.7705227811921933,-0.2250003150502009,-3.5277929325273629,-0.9451093875045942,-3.067601916165658,3.904500139177502,-3.0701090365687255,2.5415331090231936,-0.6921620818642031,-0.7622921172235857,1.0021617022861014,-1.682191187756372,-2.8999537979833258,1.2397190792088378,2.589804870040523,3.125572622365067,3.6018332029926745,-3.496255657704319,1.1531657688468098,-0.3828555416875348,-1.0404928672401584,-1.6096638747388495,0.4892727393082925,-1.8508371211557598,1.7792862306405129,-0.19847938470625715,2.0254020876109317,-3.0536615186531437,0.5199915419483965,-0.16244563629569898,3.1381482623928944,3.752180197952537,-0.9238972636413418,2.8740968818183578,0.13497214630415134,1.1417809114186506,-0.06731569941095139,-3.1618265670003078,0.668542192978296,1.2893974496933396,0.3301884879256276,1.8077005950472503,-2.9434117204901177,2.5534746985107095,-1.2537722592881178,-2.0433859898515545,-2.0275499085489026,-0.29114209031546248,2.2861489790741809,-1.8285105208633999,-2.7327078822906065,1.4581899272070152,1.1221711265155845,-2.955941837483918,2.7902424334703275,-3.085217751053146,-1.4060212742255194,-2.621689704437843,2.0869815399839215,-3.815879697389213,2.632819128951689,2.184998039490896,2.379286403910257,1.6273477500237413,-2.2548173393430668,-1.5747076070067133,-0.13963159186446906,1.6229967142314533,-3.914168662488999,-0.08104354057473273,0.9905580024620164,1.10875028027497,3.248341926227713,3.911627828792674,3.8789511814720099,-3.7516224779205409,-0.08883042694034926,-3.7909470478657028,-3.068114699086026,3.0940160107386189,-3.589846088340983,-0.6435112240271543,3.895559064604983,-1.1361597675327407,0.8587311002575246,0.7275819237130863,3.9589652655121414,-0.31300408861791087,0.141299094165106,-3.2470027357687876,1.7250815770203963,1.0730888880320704,2.5882013583416425,-3.388475109599484,2.1798625040736336,2.788266151859478,2.1001626617768824,-3.4994495670115715,-0.7261834333047956,1.0883735664300396,-0.619581832310814,3.1133723437363995,0.8214820110692864,-3.532493005169971,0.40212001059557336,2.405818404957846,3.180831779348721,2.540301172680115,-3.4260508116183248,-3.636112695387932,-0.3053190374193493,-2.875724554387764,3.295012273548524,2.0580049891773228,-1.23900314929638,-1.0923489955424233,-0.9307045247584911,0.6144319708903137,1.3796454316064973,2.5732065331092786,1.877928755742535,-0.6735204000744461,1.0213978889350753,-1.4569996547627869,1.3254138927018878,2.700859152135183,-1.1077891104375484,-1.8819430683181973,0.9524428394764737,1.8264186891816037,0.2123158438680397,1.984064879191024,1.611946219545124,1.9392822384065412,2.656474596139356,-1.9231996428823098,2.057108681005632,-2.1197903176349905,2.1883806642392686,1.5401183770643466,-3.735088740410684,3.0496245244517157,-0.3467457682411583,3.4750920211709026,3.6046708775640114,-3.0938061013381636,1.276971671750359,1.7454727955474266,-1.977927943216432,3.0077208785683258,-2.07346937096343,-0.5622003994420377,0.23855647446601137,0.6022900846328199,1.47636177681155,3.9565962968680266,2.6317596469246258,2.4773177327786168,-2.190568696863587,-1.4526221853905546,-1.0776393333620627,2.1807249192464637,-3.1813237424805296,0.5217250700649228,-2.909762778302154,0.8777722996899264,-3.3096312256608577,1.2327393369343379,0.8766184933877756,1.9559545450836247,1.4883275201086229,-0.10394345286441986,-0.12169626562272029,-0.3506103005326453,-3.094833869210486,-2.6274670564039086,2.0507352239901728,-1.6725290204854114,0.23618460037187373,-1.3785403861458932,0.5915858324539398,-2.496125394742876,-0.7894728407179381,0.5816014684058768,1.2374438936847048,-2.0289249698003726,-2.1147061944307046,-0.22130314830824616,1.147887805807363,-1.52194793255768,3.791537922032701,-2.6659765491094546,-1.2530904830958035,-2.1752012742584956,-2.8994827310838717,-0.3675615477563363,-3.723162628059227,0.34072801745975225,-1.287200519418606,-0.029742994596880125,-1.817878063781353,3.4940625471098887,0.7486165725921969,-3.1791359834442289,-3.3047141750880888,-2.6707021561503359,0.3111758363207686,-1.9793101695274465,1.6584860239643682,-0.9205605278731446,3.217254499901692,-3.927894078599887,1.3151382108045802,-3.7638737484072557,0.37497066481828958,2.8935014124416504,2.51403307077285,-2.9799362932848174,-0.4317581937354069,0.3922016967209725,0.5524281220639313,2.8304688621944278,-0.0029890276261583805,0.8904174396050673,1.9830991313212075,1.3777557800149199,-2.5860804662863776,1.0519884481504498,3.400551869976761,2.610107344450933,-1.9398783220985268,1.760168010655205,-0.16730678250998744,-1.8707318893812522,-3.9780181798828169,-0.8456623371654022,-1.4104761945214877,-2.0688891181819395,-2.6851975148938456,-0.2656408556089396,-1.846818118328198,0.15615475062869867,1.8937164824339759,3.988710970559688,1.870856027329589,-1.1697589177264763,-1.4572593733526456,2.3004976374609775,-3.639741411801686,-0.6685190577168978,-2.9924714539538419,-0.2580208251174232,0.1004667533584751,-3.7441618357186927,-2.767210942057188,1.8917793072301424,-3.4706797533790318,-0.7807674610488744,-3.7389257876077259,1.0111726157244157,-3.6847256539870179,2.2215132552982537,-3.633574238246058,-1.4531548957104795,3.2872750059109938,-1.5564882907392013,0.9271984114261009,-3.4332725416857094,-1.8457518726002074,0.9160421106304444,3.987426592322845,-2.6008160096774928,-1.6956686492821527,2.555860686026917,1.163661972794551,-1.38236867527979,0.9795843014685302,-1.9415970288700438,-0.32920589961693716,3.177917785507902,-3.9726982105970709,0.06522997945927234,-3.9137802241058425,2.1877167075196386,-0.7406154411120616,-1.9458125154803375,3.138361894155442,2.444000441897069,-0.5711926017130002,1.787071177775176,2.1278833107521057,0.34781078843057058,1.6830651378711626,-3.4565000717151799,-1.3072152591009537,3.4166058827608047,3.1750565142745978,-2.9438003684743085,-0.9490939338157445,-2.9415606934647124,1.02119804350441,0.13194510133570426,-2.87876527979775,1.881142925890579,-1.4063004854373498,3.3381775430177047,0.3248577781257378,-0.9436483473633326,0.8724955870155622,-0.3474650872259135,2.1068260948410106,-2.9210419041199247,-2.436227997226921,3.2343002809884826,-1.3395214730897037,-3.180623340275403,-0.4244635451538217,2.128777584255105,2.4593674690129108,-0.7379911041052862,-2.4783800656072545,1.7401282988166953,2.738943072487168,0.6917975626038624,0.8487114817013266,0.6777118348389735,0.09516085820720743,-0.13814318242189239,2.8675300392778046,-2.4110519202984248,-3.5539080240003875,-1.2462308793359256,-3.24243995377459,0.5528996486035149,0.12145176525340684,1.8474451645515738,-1.2226689082508958,2.5208819787912626,0.9548545553171595,-3.387679668117066,2.801440755031689,1.4022876837513599,-1.7388966583876853,0.7171004273293438,-1.7718643862843485,3.170676264214751,1.2428169915601766,-3.93610563651211,0.06528199297504234,2.8923171500617839,1.482248629080618,1.1503125193507673,-1.3949093234926678,-2.702600275114933,-2.0808491423980008,3.232090079048813,3.781537730486151,-0.19676382680510863,-2.0309864463045868,1.6237591332293562,-1.2518911106495896,1.0309681717680173,2.2434562001368087,-3.9617547157768335,-2.653037736347631,2.005788593580795,-1.075583625354245,-3.57002339463119,-0.5214575604766738,-2.1241296656930785,1.8388206073206198,3.7048839980098258,2.5271647958550789,3.495818458746517,-2.0955260589577788,-1.2215588609086597,-2.835445877389538,1.0427641341312164,3.385137011016904,-0.5405090868080256,-1.711273514538898,-2.609595780379351,3.4998768989630957,3.524961190061049,-1.5930322764212166,-3.3404261735791689,-2.2308953271995799,2.411304528038718,-0.6258816761447485,0.26400559860221498,-3.6877612019849419,2.5425368403623507,3.254539173780352,-0.02553429207178759,-1.1655529276439767,2.529252500707549,-1.8056173262663436,1.1853512219365694,2.234307954855068,2.2576356135689439,3.8522887234955309,-1.7829320418862087,-1.035475882472423,-1.9507369638876409,-1.9393989925440103,3.9406502559618925,3.2547450133485027,0.11202114703301103,1.2462596863757032,-1.0592677536627274,-0.9947947702914179,-0.22203759269200064,-0.48857950921150286,-1.3953136856653777,-0.8334466565536902,-2.8515600098235458,2.2065576074868664,-0.5584655520421578,-1.9553839755059544,0.8501926664818162,3.514314965415899,-0.05769314228817901,0.0642771243990321,-0.6655281581103685,0.4335637317204917,-1.4993535335179862,-2.4557120120106026,-0.09125991187488314,2.021881324466448,-3.038730318059071,0.4115009167735293,-1.6834688512735563,3.0578536674622569,0.7512743701318101,-3.300604989636696,-2.1999204919066015,-3.11717369039044,2.581683602429237,-2.321394861123225,2.412335989157908,-3.807618352686779,2.3133468651314716,-0.5311561004928436,-2.0677021373961885,-2.392130401645904,0.5965634796294443,1.6936422755369983,0.3407402905115795,0.9371376650205603,2.199203773872691,-1.9034982879358627,-0.7499334463180125,-0.5784524039586172,-3.274893022011165,3.7545655087306857,0.9033977176432995,2.62789159182719,0.45739233384321489,-1.61656461633343,1.4730140133399879,3.8421273081692979,-1.647476088727396,-0.30652425701173927,-1.9762771024576198,3.145495984265988,2.307990485302388,1.4587801241238774,1.7873987787772566,3.4005939988016546,2.334409869157681,-2.966297856503462,1.337687939359391,-2.602062190211745,-2.4414788988151709,3.1757744968475967,-1.2211773262075,2.7610876902599728,-3.8027234423704474,3.9432100263566207,3.9069500132202847,-1.8494934620142126,-0.623662356764549,-1.3573252748545635,-3.233330602654971,3.6348337168160098,2.8170902871965,-3.7256614777958578,1.6840133514029035,-3.5257538438275608,-2.1974404941492766,2.4762562568683448,1.370529318435116,-2.750580076404642,-3.0673428616729048,1.7620357577607662,-0.1543800021442221,2.8475650138839168,-2.6693490704310207,-2.252536559520017,2.701694393757198,-0.691292726424801,0.2639367414046836,3.893968837048754,-3.184589429518341,-0.2964262324313027,-2.463449305154948,-0.5346007973136493,3.0701556590891228,1.2616549876900259,0.6899477911162668,-0.338430080581297,2.032083243129817,-3.617648862288787,1.4160969927964029,0.7241238909580732,2.289864923602587,-2.946972361297731,2.791954425137469,2.59845947417313,2.0599756822666874,0.6959639649311873,-0.37591343405907709,-3.923846792536189,1.1127153592261392,-2.7325490015409068,-2.4401699268514127,-3.9732987888585935,0.5141878462929403,2.4270270962440785,-0.0886639117607988,-3.6377708581952739,0.4585133642719512,3.020809283398039,3.0035083343753259,-2.824863466353099,-3.7271425384236567,-2.314442095647691,3.3422452247778589,-3.664354926263858,-0.46168940686157869,0.26175210048025746,0.08414018700185988,-1.5611574843901262,-1.6612951489742525,1.4642786860438824,3.2430187989602725,-2.93457571292069,1.1147816794882469,-0.46415326568480888,-0.897551207008334,-3.2859527973684754,-1.7268643573101377,2.017277908696065,-0.5725944351633194,3.9683787520259399,-1.5050971753865624,3.646631756945318,3.2570107911302106,3.248901479186425,-2.365163178248821,-1.3019012231879968,-2.738149568715147,-0.8913866819876863,3.559385866767709,-3.6208195804788136,-2.3421847876150867,-3.964932412300393,-0.8763773806757629,0.20811590157084759,0.6778171104374167,-0.0591100428716429,0.34520047710935755,1.534875488360079,-2.2360675575931809,3.373912830179229,2.192508278390002,-1.5403901250763737,0.5252889157592255,-3.90790220288725,2.610432276532662,-2.5901906146648345,0.07924013917710404,0.36210028886009928,3.550562369802793,3.7624598340268546,2.697440982839386,0.5423912659520624,-1.7179322688793926,3.088632919239698,1.9240493522738139,-3.0360502101464865,2.230766982638638,0.057026697522048589,1.2040076076242379,-2.9201431345036008,-3.169873249923018,3.9769557669778878,0.5807094270114996,3.867413732306005,-3.5349956339327557,-1.028989428665013,-1.0341270716763716,1.4115922304832216,0.9331864421577594,-2.5703737447540204,1.4178751656699956,2.1269609472450057,-0.9400498877621919,-3.3454897259629465,1.5964196699748197,-0.8160456117065067,-0.23639651927295825,0.22674079929692238,-0.4748086613556117,-3.1018890067406916,0.18901232147125936,-2.2485127327760354,-2.4213334488212068,0.0031074754253328509,2.2542642877754934,-1.6027846929631709,0.18757495024505567,-3.967165452232833,3.302040697931716,3.6436552378751356,3.99813217582956,-3.3857043644891426,-1.970189628491848,1.90674914047157,-3.2015487679115006,0.5912225391010635,-0.9203418817056628,-1.57573141423827,-1.8592432289891115,0.9117768969944189,1.2120076493711878,-3.126515051466191,1.8257760242258856,0.9178784333362371,3.2967789443928066,-1.595262716512204,-1.0589979107300243,-0.08091672666877892,2.363051809441716,-3.8113559689479947,-1.3783536433138713,-2.4339325903792794,-0.8220409943719338,1.718425956287354,-3.6514294251144969,-1.9127738447016898,-3.891356501496417,-0.4575332832941632,-3.584576177215024,-2.2665832858816534,-0.3112473243812035,0.2307562660614524,1.9968131707132955,-1.104566923299532,-3.480505035781775,-3.9864799727890247,3.288073767744126,3.4003174142976988,1.5270683497775828,0.8120923447058042,1.5691195783822166,-3.155117525905074,-0.9823793765910003,2.7307285870613198,-1.9296832374700915,1.6284337547286577,-3.6771072486957978,3.193851214710226,1.1866413069732636,1.505114079522917,-1.0613254734422482,-1.3480442479197435,0.9930666181570764,1.744055399462245,2.683547400294307,-1.7530388187227344,3.5121772956718848,-1.6051412828801875,0.9601846908657779,3.9482085105197388,1.9869840681630918,2.054180043075622,-3.6053133078228267,-3.1518073493325424,1.0057895497129224,2.3890626668443675,1.0881390399182545,-2.080237963056925,-1.7088409879035516,-3.6970998730812667,-1.8618584010091608,-3.4595581259704035,-3.6699082000332199,-1.9733672991626124,0.4222039312842689,0.7948728640371012,1.0197954708215873,0.780744308492296,2.9131106238977848,-1.2702505683080133,2.248945681690997,-0.5005317404076608,-3.5838133034810975,2.984083362109267,-3.2006522398471679,2.7203478671050798,-1.216415423864948,-0.8513040392599789,-0.7571436792966677,2.021703365566279,2.3909251216107307,-0.38069945751196979,2.7270269327597749,0.04166527201464287,-0.2656141834196477,-2.5928550297424399,3.619462611585254,-2.146250886591554,1.1666555951934675,-2.5895984209463549,-3.054492147581837,-1.1014998569500004,-1.3007188649008468,-1.5339126884171302,2.9805380759782116,1.1895711615680336,-0.6995218789446485,-0.6058376258493341,0.3203109982404282,-1.4472683735145944,-2.0285347979326637,-1.9769392833156288,2.1404499749901566,-3.400345787992424,-0.7081824154476886,-2.4803170602163,0.16607386553353455,-1.3112732813894324,-0.4384546016497781,-2.6550595551840585,-3.172167296411474,-3.4164077489189577,2.450972776564634,-3.9300903933400308,3.853255372405199,0.8900941181555959,-1.3516045377298059,-1.3389080863391845,1.8430147052188986,-0.25312175208560019,-0.9008605039969149,-2.2450491484988577,-1.5639343652150047,-2.2086108508194774,-3.543716837749974,2.388707836576227,3.505263187395376,-3.3348330977348805,2.359886144787552,-1.1197960339521396,3.904857720333222,-2.8513719883457959,-2.9080760119907778,0.894001056912133,2.3259683298131197,-3.73465326344438,-0.9781322825849559,-2.634565701905755,-0.9362907273590935,0.4060249468838384,-1.163269971140367,-1.0476789497435304,-0.6484564639035388,-1.9409058882866717,-3.5599344778614485,-3.5162672027459589,-3.3200320448614608,2.805220637008947,-2.0656193824733837,-2.9211490862119398,1.095046731211995,3.127531175252825,-3.364403165830522,0.8307859583153325,2.9767005419855607,2.5622227022806065,3.811922437144287,-1.1415099883242233,-0.3800726415060216,-0.695642583253326,-1.3417520922440523,-3.5564176047430564,-2.4089472953435298,-2.747297465660976,3.984949055590633,-2.88318476096794,-3.773403713138416,-3.1239253672051445,2.99677786465168,-1.0261392188602976,-1.6243326450177416,-0.8777965742152469,3.6006500137469095,0.3892177317172756,2.4176125934977259,2.5696489383805938,-2.5453987677008049,1.8517957602366462,-2.5187578682314779,1.5034290037577325,2.0104299050011376,0.031947600064384577,0.18382274179825676,-1.2519670294718575,-2.325185918204525,2.2042074389960577,1.6296543687615089,-2.468559438140163,-2.9841699716258196,3.488772340217885,0.03797974423065931,0.44913754923262508,-1.3255468545744565,-2.262043991754876,3.9090626523141838,3.4815367542915016,1.3567213526763676,2.6703051444067906,3.5059671940325298,-2.362873301448211,-1.183994616811505,-2.5873611856465175,3.0527318597926786,3.657614395823453,-3.018045019047694,3.7243169035420484,-0.13187912642833589,-0.14551851022777718,-1.3584138922746155,0.8683514704079336,-0.4104606249633618,-2.034381917990032,-1.813386189192441,2.484745555909509,-2.818223021537195,1.519601188466826,-1.754833866247525,2.8306466209031404,-2.3095313108574215,-2.957579178833842,3.078444243528523,3.8139159312787864,-1.3679615339448306,-0.636967479838576,2.0675438096550016,2.645657001554256,3.6495555003370976,0.3493145293291571,-3.1155373693748356,3.8912139322930985,2.3979228792006639,-0.05417434577415903,0.7844355559855174,-3.3380216669709474,3.0280325726775265,3.207831323320561,3.323918029049479,-1.3557367067198154,-1.3221350544587,-1.7926629018963088,-3.6135965069674427,2.7662935846680085,-0.4448272980745571,-1.546831148549041,0.9470310619847817,2.125823867915014,1.3861743632126329,1.0480856674310842,2.560117870403648,-3.6019103713189626,-3.25758147344788,3.412698327780178,-1.7049243903082657,0.025325435850541035,2.624027430442842,-2.3535957431667615,-3.204906245721083,-2.6143548322645726,0.048455211473632967,-2.478579588035714,-3.6785249724845627,3.3283373460979899,-2.7982577309942835,2.8157551522718817,-0.7209340373622817,-3.2692037478289368,3.89903078472072,-3.1744378359452005,-2.441367837981569,-1.4892556682955754,0.8683953016610406,-2.0430891220615408,-1.8097887118983314,3.545710199807192,3.945103606857475,1.0498371584768114,1.9395890944877632,1.3665846935334463,2.5183331647303985,-1.2439599070161196,-3.5411884862629146,-3.290181058550206,2.1974561666862879,0.8210617335126322,0.1848622474437196,2.6067939332999314,3.454419244535382,1.7880391572526478,1.7036834322209043,0.39114065784411347,-0.08188666836694214,-2.7168638970038456,-1.808686255833152,-1.4701420580358207,-0.0023583166046601269,-1.261164400032114,-0.9813098250970744,-2.5770443631393435,-1.3324491592424295,1.9597347019502909,-0.39010182304920329,0.9473891182804852,-0.26106544842357928,-3.8863587458834569,-2.9717674985407,-2.062198432539166,3.395224404896288,2.1154944793758467,3.0718937455080494,2.832049210403116,-0.7643545658334769,-2.125287509186813,2.8390431350161089,0.31877235739627265,-3.0826895900856376,1.152361198112816,-0.7264812784165855,2.123918861436552,2.98935177960942,0.06854746249992339,2.8188395458475794,-3.6473844555326115,-2.028511735217273,-0.011863927770129346,3.3119510303496995,3.5613533839935229,1.1668595947649668,0.879946588329978,0.2268051728986391,-1.0189356528142677,2.962191911788908,-0.03784308582065399,-0.043702014848108209,-2.9244529313666964,0.023312536846841426,2.5434973143611909,3.3869879055555378,1.8227943442187647,1.7634488212355626,-1.952821273096033,1.3154293422934487,-1.0396796293331472,3.1474006859873056,-3.8914412381247844,-2.4112767535308139,0.04386629053851898,0.4349255188537162,2.944145150159023,-3.3801596559679627,1.9289733398988656,-0.667577910702879,0.7471185821251236,-2.9937947707725716,0.31796144580377386,-2.4991864015517555,-2.716727301097473,3.8925697801929797,2.628287705533787,2.5601495011859889,-2.4210028299323946,-1.12896414280696,-2.3474691714792597,0.7374747144487186,-0.9900727347350868,3.776373811740875,-0.7199982426393066,0.9979986437551078,-1.571981612071129,-2.1605611266720547,2.9670237353453219,-1.078791560887212,-0.8621710753559091,1.4800123968495376,-1.402922096279909,-3.0488196280096275,-0.1669345926751742,-1.7590291173107569,-3.084653554452519,1.2892813873398517,-3.580062872044455,1.2275357043294602,-3.4381453447342364,1.4050336804840296,3.0854742617401786,-2.194605579989984,-1.9325338421641385,-3.7732869113297378,-2.600310146508641,1.203349508576979,-0.15858578736788865,1.2566592791160929,1.2840558266700724,-2.1360854794147476,-1.351402502590057,-0.6018518204894452,-3.49887574307202,-2.004712437174458,-3.0949074373265628,-2.4835857413302397,-1.9801910231042195,-3.0909756334639306,2.653697976349693,3.106076001061817,2.7644986967762215,-1.8868087015307305,-0.5700526260039789,-1.262884014756857,3.4778781271542185,-2.631329495213585,-0.16548899592682687,-1.9623908746669346,3.8111373809195339,0.23321651393515098,3.111171146962806,3.007621594742589,3.5161388874901196,0.03970595361814233,0.9189324633800231,3.8336345122226467,2.4880285857153368,1.4481588290947452,3.2706020738874894,1.9543538999009016,-2.0494496942798259,1.6774050302539943,1.2414137927909686,0.6997688988426329,2.5260937992831575,0.22622325521215104,1.6684700338108405,-1.7264677995567673,1.3289130292389305,1.1037361473161714,2.2571883816619167,-0.2301686467952706,-2.0328243386960755,2.480326994539505,0.43682050862311785,-1.6883940373088662,3.86528037984848,-0.5373130883937423,-2.932054424267628,-0.13870221802568939,0.5863134428299839,-0.5297241423754544,-3.5922395258484087,3.1319951653695794,3.915893193962411,-2.336706738126039,-0.8479777511353157,0.16928722930773078,3.7047686234589758,-3.6292326682774496,3.6151673008075448,-3.2219092244330458,0.19028497301538395,-0.8080012318256689,-3.125533435584413,-1.5315732704808467,0.4993698857792648,0.12779985468783029,-1.9584260446741678,3.275003017858648,3.6229702941281447,1.0281250719188285,2.926474613175552,1.0373654118596508,-2.675098717562304,0.3596338586213781,2.309205228907139,-2.3473564315453467,-3.4272069773753319,3.903975627058652,-2.966603217876722,2.14091073538453,-2.822680860177061,3.2277275617362699,-1.7324924378394302,1.2689596275311362,-1.4472858694610658,-1.6446891146827146,-1.9231746655055047,-1.172208556042774,-0.8965272977774712,-3.0386345871571427,-1.6744083796863103,-1.8628271359936355,2.4873918195361517,0.37767710618441088,-0.651496579297433,-2.273385148804077,-2.2144930129964459,-3.3457425000099079,-2.3490916158102657,-3.917593062128483,-1.9496459997226783,-2.4996553564477308,2.4533378632727818,3.3250125230547979,3.695429570665631,3.601902170933804,-2.650172848956581,0.48272215445936519,-3.868296040744636,2.740348564919567,1.515098930190124,0.25271218185707058,-0.2472148175333322,3.1399465793802436,3.569905892051702,2.3229981255275549,-3.8302289736048724,0.46154759434086936,2.936661722092488,2.2927591541051735,2.022117406316018,-2.115655458196061,3.356478207591823,-0.9181396948578569,1.6296942717445103,0.14066950148012048,3.6126213747592796,2.832076782000297,0.9281008192586295,-1.195274301498637,-0.7048788120410476,3.414163638478267,-1.4094837079672423,1.0764253703274065,-3.11965822611993,0.2474307382974743,-0.14154802329034767,1.6513962751587546,0.3861077195431468,-2.7471819639130228,1.1166347920235956,0.698900536510946,-0.37678869812081197,0.5071244996865278,-0.19821730367429936,-0.9796029413575447,-0.5025881677320081,0.5921331344876961,-1.0726211092392158,-1.0397095121635216,0.1928625038325933,-1.1496879318868337,-3.2431414707653509,-0.1140572497382879,-1.130213186540866,1.1085560975954386,1.2383113687997148,-1.9482275766712416,-2.0100594027871248,0.7194497554385304,3.9659505929849017,1.916453552496744,-0.56157767984393,3.1918826490998937,0.24089760185122345,-0.011763292134402193,0.7462404635805555,-0.2286046433772706,2.154599849288301,0.9900561194185844,0.5482610256041554,-0.4472866227922161,-2.34850953006971,-3.152997865163334,2.101949575674678,-3.5667006907596807,-1.8557521199901748,0.9282471985166279,-2.6488884194351778,-2.535930134661853,-0.8535396752231177,-3.1371231443428018,-2.2723711126712917,2.1241055703130149,3.561732381938615,-0.8054443350133589,-0.9809246296467953,3.651456588288526,0.43309712803475977,2.2883660136766696,3.462013932801473,2.7144097394011466,-2.113365229515164,-3.291630454893806,-0.2567498809822568,0.7817975983668211,3.7228833256656568,1.0059186796916553,-3.178717116065566,3.331768211608339,1.5396299935733505,-1.5452337631290263,-2.9000041425042637,-0.7842505913593667,-3.5132705567551349,1.325855593838729,-1.2755509884389503,3.193103147741537]