[3.564736267141864,-3.7428289059737729,2.210989186445482,3.462312956872694,3.76083899609963,-0.6001109965358646,-0.8842501813910415,0.5254659927833059,2.8089260090283165,2.4872688152173145,-1.8257277875384815,-0.11705137475340255,1.8256448380162658,-1.9835671441633645,0.0010306384742619912,-2.626332453262611,-0.8009589855577426,1.790891485899195,-1.7394718269933228,2.209799340640691,0.058122691917693817,1.5257731002797064,2.719454148014009,1.8385169283825658,1.078570238979121,0.20984699629246873,-0.52458648501183,-0.41855280131245289,-0.5903868560437677,3.233550121239997,-2.8988138198438309,-2.142560826120449,3.301284617477176,-1.7121772295993603,-1.6624572188211564,-2.989827019749703,-3.2413826479695464,-2.393111173129082,-0.8784082439891365,0.33460689609711827,2.024423570759935,2.605806470486023,-0.2820763966459998,-2.66228391073105,-3.2577844572841005,-2.0552351041979248,0.9128085996650244,-3.927236144405791,0.3093115909761597,-2.0835711698128209,2.535258712796658,2.301415465463884,-3.30725496330641,-2.596501079965047,-2.010770693254531,1.9976311065363027,-3.818023553484723,-0.4123152696296868,-3.978884412354022,-2.163523808922478,3.1581571850480927,-0.8152365156414101,-1.6595513642529539,0.4480781826371043,-0.8273057861892337,2.679369968450196,3.840971440526097,0.3323145694414018,-2.2936719282467736,-2.215412610534151,1.2880082390087227,-1.449310648971375,0.03660234482326885,3.9750748091135295,-3.579484657042003,1.1794830356026447,3.9511016218494809,-0.33758895505234345,-2.7497251256176939,-1.2681202618936,-3.9721914691321844,3.128988451096146,-3.6627662597131467,-1.4044148130371424,3.909340056522078,-1.3625623711516087,-1.041932609175307,-1.0539181336155606,2.59220303898364,1.4927520870310476,1.1564319191191724,-0.14456003243642513,-0.5500910809135542,-1.789554245893063,3.8033803802092827,-1.3108774806295729,0.5066436903104554,2.395442992536757,-2.7820680589034119,0.41509996927766226,-0.6870358777277732,-1.6426863551206133,0.8646768341477991,3.4708249006456839,-2.470449314169999,-2.7440590014195989,1.958802366711745,2.9770733861975975,-1.4462123529608722,2.7332651477549207,-2.286621813211978,2.277735847565861,3.099368753097454,2.9285667443633818,-0.8048128991796857,1.2081711014428418,-1.243604008273351,3.649952748818822,0.4768903249857992,3.6173342668123418,2.4998228859150437,1.514306289041846,-3.552845743210371,-0.9043481029729534,1.254212022403312,-1.202188360498049,3.8032695108846576,0.21126587951107735,0.1851963426811576,-3.6229494710458747,0.714683567155892,-0.40050854038135066,-2.449134575085603,0.2520121456971527,3.4407910458680917,-1.639208136496948,0.41069344626065087,-1.7419474000465485,-2.136555135125051,0.9628903094996204,1.829627411289672,-2.5383197809428479,0.006197261650039643,-1.4612976446506699,-3.805766807946127,0.716733934581443,1.653968845255637,1.862638890598328,-0.7794468781641601,2.045920974898947,-1.1197439158361602,2.8554225739548357,2.483858720197527,3.5731310276955368,-2.248368409773483,0.6577323171915923,2.3518393006788429,-0.0915015534921837,-2.8653031691855874,-1.7507371042201774,0.411567737614563,-0.7985646624718379,-2.791922308024115,1.3885760569194786,0.060151953050921139,0.8881234120405717,-2.2489152635221618,-2.154936875154103,-1.6884295757624619,-1.4283730876824559,0.03780490046647422,0.6190877808068596,-1.8880916114106244,3.022538683897359,-2.8260928251944668,0.7127632173314815,2.891651981248641,-0.9938805289377051,-3.1331807707397809,1.9971873876659193,-2.2630594046651906,-0.27617383335641057,-1.9659956082394213,-3.415402783344745,-1.7589023378009339,-3.2186709216596327,-0.7128082438621386,2.834614320949859,3.551843766350733,0.4084051773035835,2.1332199792074446,3.858732672588091,3.290089461483104,-3.117349918173268,-3.8384579904647975,1.8874533631203479,-3.9316557605319204,3.4822662311342889,1.6051057516850938,-2.7811588100376509,1.6702859902568897,-1.2665509655518597,2.917455190857023,-0.2834324259378891,-0.8318144838223629,2.299381252537062,2.7118240033414828,0.041704959346225759,3.7502303488669437,3.0396955500097464,-0.41618371880978968,2.4017085650078338,3.9214672333115558,0.5080232558224278,2.3345456326501825,-3.0426571379934925,-0.8882040330835628,-2.555366888801954,-3.0202258798379457,-0.9787574837060857,0.41675430246095948,1.3054194990780142,-2.6482838128341319,3.2060077218428439,3.5270063542681679,1.8791360231998394,-3.007208631862441,2.2770508316933757,3.409624100487788,-1.6816945246923299,-3.5649468792327685,-3.9760159801840349,-2.0636246673779006,3.6694110865664957,-0.41741942856043048,3.5756536746124816,-3.823011734359663,-1.0685238587712827,-2.810817415990928,2.301199753231602,-1.7352577942199217,2.7720236981748309,-3.7627424925182275,3.853313862229765,-3.4875610795143956,1.008112156508747,-0.6865682554538493,2.3538690800657244,0.8628406431424915,3.0902945060235345,3.0081307467667877,2.6804497670384705,-2.5475730922527335,-2.046256590370267,3.6388397609599014,-0.7296912532746429,3.734274694544001,2.548604801021165,-1.6984708934396365,3.030332549727853,2.8043928795506538,-3.4700494440200648,-2.8975918998433487,3.747260668728896,-3.6978787415327565,-1.6508794074567262,2.132183539644241,-3.433864522761592,-0.8240176102330084,-3.8416142121153227,2.4215422681663689,-2.3477629320456048,1.9593770538562252,1.6790237384616198,-1.9703448735176164,3.933085828590129,-3.0676761392250997,1.0853091397568103,1.8091358451730378,-1.5666592970297216,0.271148738161787,2.4519749166100377,3.0171273924414168,3.5638290346956928,2.707408549789445,-2.3830408209080096,-1.3727054806036057,-1.5434182772520276,-0.8706138160513677,-0.08306981057937768,-2.1501346226567907,1.3529346124398405,-3.598631100599569,-2.810319658247778,-1.4555662709118354,-2.964266728506125,1.6168590092930595,0.1435340224950803,3.359033226623727,-1.7023518898622785,0.822916172223155,3.354821586957647,-3.410027402083016,-1.7261483857626135,-0.10909445561294695,-2.9646505897825738,0.8373052297779715,2.4884268673547167,3.302442820419375,-3.3402605469912798,-0.2321598622704537,2.0746274383759095,3.792462280504532,3.975474749802303,-2.0491432442971915,0.2234522821010394,-0.5279699246590335,1.8152378746669867,-2.122957918066783,2.0852206566881259,-1.916014440607058,-1.8903821826365717,-0.6126419381074886,-3.9140747646389446,-3.111586880558658,1.2152369548467883,-2.696918369300808,3.622339278907649,-0.5299526114369153,0.13319409146665163,2.8632722105023706,2.2981348424516527,2.8595115822296348,-0.7530399664869094,-0.5850889211847568,-3.927291694215752,1.797398098239979,2.1078587668537018,-1.7374090095385438,-1.2008323041322405,-3.3625856734918404,3.411738400899444,-0.09148257009626804,-0.041663444477466397,-1.0208316653375749,0.9757788353642276,-3.753704535659641,0.09552764506800404,0.1951393268580519,-1.2260857093145079,-0.536084912061443,-2.812760545861048,2.290899492132076,0.5915403157507004,-3.6329483146963348,-3.2159697335567936,2.0075950689356825,-2.6732001946328127,0.8941127907602784,1.1968136770391969,-2.7334097863766084,1.468427595222077,3.6921077511278259,-1.5136714950817663,3.329915776915101,-0.8421431254339213,1.0134595134538192,3.9725820953029178,0.12907878910299876,-0.33550634914904,2.57933599273038,-2.061647987374344,2.82126376879991,1.8154766815266524,-0.509663645121126,3.7507965261230318,1.3061891297283257,-1.4746240659906514,1.3247489114382765,1.8356037223985676,0.9520834394566853,0.7041045246561755,-1.1108609474330047,0.010742250182798508,1.4408548665813479,2.5059478447958014,3.2481943063887366,-3.408609081214264,-0.3243356698892983,2.1223818787479438,-2.9452833194569898,2.7705053841138538,2.0228817205722189,-3.2685892849247377,0.8270172775187792,-0.03793233256172446,-2.027031115243382,-0.11192116274555897,-2.8570466021907885,-0.19891815153903548,1.0812128342802652,3.259935848961171,-2.0579673955232007,1.7369927912352763,-3.782875445536928,0.8996237573695822,-1.9547983940786243,0.5796669325773767,1.7616492500869275,0.5369218634731183,3.7310774064624967,-0.7403963943499543,1.8644350383846487,3.3219320176813476,3.654520792579877,1.4213946362221304,1.4724679367442093,3.4236822868878,-3.319342974452141,0.2984404421192952,0.26459077629747709,1.0986755656013215,-2.537711777774536,-2.105526434146828,0.6702251122923268,-3.052116913781413,1.976417144475973,3.613995609859651,1.3815819561782803,0.766144466512376,3.197450253259932,3.8766497500800964,0.03730897166959668,-2.6642162098639119,0.7103234903333799,-0.7591292005154511,-3.3140993097736759,0.33131238255050646,-1.4295391435277996,-2.899679612537714,-0.06447386666998711,1.3235840418735059,0.31284900458587386,2.938568087824094,2.024872596506711,-3.235321826162717,1.9793925352697377,1.032551578764961,3.8269854002858585,-0.31273097696812438,1.8191693286459306,-1.2351920706047617,-3.1755955299221947,1.4259739082061565,-2.345673002425782,3.2694356273766935,1.204841605036152,2.694193718423083,3.793651245364436,-3.3230754297999169,2.282432132652965,-2.211564176856289,2.7435789089581545,-3.9806062680736167,2.0184044938529874,1.1336522302696848,0.15438749314334733,-0.3522219894445806,1.872000920517273,2.863270551849289,1.5304421219827749,-2.8043273039810296,2.4378255337090746,0.18027503516466937,0.8679083259667513,-3.3281007396436115,1.4992243823666432,2.2809815111045417,1.9765558282172285,-0.4144533028999364,-1.2872749982698546,-1.5182580150906307,0.9619481002457535,2.88315126440438,1.7789481426089529,3.1659313015780299,0.8472534867534733,0.7252170916991094,1.4179554968734634,-1.7888969687666006,-1.0430440153169807,-3.8492291309146058,3.557254698037805,3.426957338714029,1.8355129772441493,-3.079413684553649,-0.986724503469661,2.2237035317829294,3.1433436603997269,3.0333457355376689,-1.1819706270773909,3.284779201446425,-3.4291757598049639,3.647994287600252,2.0180579717187516,2.178706033872383,-3.556044621613773,0.26224151587899149,-1.977970865637143,0.04209867766203956,-2.484540133283226,-3.8355286594648678,1.3987997778199084,3.6180846740641536,-2.8204081302359826,2.4559829713336125,-2.8542875144100918,-0.20865848389514952,-1.6811276342902098,-3.963292219415562,0.7000135835260259,3.8078479581033468,0.6117714400133734,0.3752036896211486,0.5297708569441877,-1.300129630107316,-3.84935068976701,0.7315808257992131,-1.8426290265632377,-0.9448396279523001,-1.4900938917053353,3.930767907734948,2.229246117184859,-3.069501737860774,1.8787211729942622,1.2744767619335705,-3.9081498338490325,-2.5386710756986918,0.5037793528556529,1.3339631733113198,2.495068012512542,3.777680414513431,-3.640036058760093,-2.665561300337446,-1.1503179673592375,1.065093390631528,0.6816653630026979,3.139435185363996,2.096612978556559,-1.7404825186480518,-3.3993220487347157,-2.9669886760463175,-3.171129067408283,-2.066035431644889,-1.397578307498697,3.8861953403287075,-3.1631416917856045,-0.9320433827506331,-0.39129353015737769,1.43165545744621,3.545157451667282,2.0944557657903895,-0.4787363566616243,-1.9201537804650766,3.6139830472017095,-1.597035311541732,2.358696256868045,3.762518292234314,-0.5244539753347619,3.7195054747862867,-1.6944973598161113,3.2525748962306455,0.6525740134589633,-3.1298138602277509,-2.959284832184883,-3.4422567726145898,-2.2495238924154279,3.7037056521199398,3.199828994076607,2.5467527042372088,0.894822745524003,-0.008697430915217686,-2.2094368264851225,-1.910766891578593,3.4517816182039624,2.442168524085046,-2.9890543210630389,-1.2368908746760035,3.1237149716055434,3.9165877646937554,2.684385205170906,-0.09929113417846103,1.3707947064768283,-0.8858232600407254,0.891588054893016,-1.9973164137037208,-3.8437693713689375,-1.7485330307543086,-0.6659119324443485,-1.2820956899621086,-2.193750912696226,2.172332806140777,0.3666486081182052,-0.9984823833894598,0.3087466112519346,-3.8291426750013208,0.36931771864945076,1.495471392014439,-3.969650145294648,-1.7962254456247136,0.8854097155562313,0.7735323373860412,-2.6565751382600455,-2.7227127318125969,0.41262066567754288,-1.5982140269866927,0.9124448226928008,0.9469615487888854,-0.3665533593884278,-1.4186778428012259,2.63976271365906,2.504631284350042,0.2952500162347187,-1.6275404311210613,-3.1068909655188907,-0.6202907161359388,-0.8309829355377667,3.437276075842555,2.9204860090898627,-1.0481828804938403,-0.9058504320310752,-2.3529237754301279,1.6945508954302149,3.2191298564767969,0.5635437834644046,-2.527790153921969,-3.4384333436121619,3.041745664618662,1.4360785456749215,1.9270567802619807,-1.314106465724266,3.868269588493697,1.8172621233112257,-2.5924184806060586,3.3340190862989775,2.469128198083519,3.4703283845682595,1.4721908379042486,-2.2409960636122498,-3.128050810009257,-0.3989538794098557,3.0560423272076617,-2.2821271819262227,-1.2339106765755573,2.491856257306476,3.1475685553705574,0.293080730379498,1.3457688194490923,1.9499608897110737,3.1783199387821154,2.2963744794177076,-3.641578022787752,3.9185356335645888,-0.05315884918706382,-3.4821065346565795,1.0510721195946645,1.4510491212993646,0.6548692996204926,-3.618261357215501,-0.19484126886851883,-0.7501892191006794,-2.4260469359358556,-2.0864595624684325,-1.7014552200862073,0.09369867668773147,1.1624612068752703,3.482212854627857,1.5571482564824857,1.6962889357840672,0.877410376046762,3.8609729331557096,2.257124500245192,-2.8346119684370096,-1.2221460159298994,-2.478723780975071,3.362206793545548,-0.1641431916075744,-1.7468170088761018,-0.14344037049205395,-0.747795867990311,0.10818827460069347,-0.09472171480982628,0.30177835672473299,0.2527613434937308,3.655815366033754,0.5072503866557465,1.4770672128810168,-1.3650892408110916,-3.0811258752139265,3.843058840147232,-2.3463048735344369,1.6053650957760333,-0.5533244819508754,2.935110876102364,0.6811710090467331,-3.1096532376820429,2.3801995592387135,-3.1450006092228834,-0.9444786550466768,3.953963152039446,-1.4842726073988238,2.7373531079216075,0.5388776099816139,3.4204150984791648,-3.824533874241559,1.8290507932722458,1.0539581356171244,-0.6382887540670763,0.3484963352183428,-3.600316473028686,-1.7553090990666649,-2.4514644128816167,-0.9886505164839416,-1.694294021734269,-2.8288181576138875,3.818364251916913,-1.156673909492049,-2.0736370323074349,1.1966725316252305,3.3237047050437438,3.957349832644426,0.9146117884830032,-2.3249057173876039,3.630611635616079,0.963390553746569,3.5532550370389917,-0.20843274057418705,-2.4382954699703385,-2.5465363417942186,-3.89175367734782,1.4073561855574486,2.007912268688737,3.1144856670773395,-1.7986299773186259,-1.1374779200721977,1.87559091268057,1.4944553369798027,3.1668724403939576,2.0366664656291055,2.8781393135057184,-3.819496341083755,3.46436926162478,1.7093444691967497,0.5024456731906355,2.7790481219626645,-0.32881463039377958,-0.7944872864089783,3.493364419053184,-1.8314951746212243,1.0416774775991265,1.0882508050672053,1.849899785214224,-2.711685383704861,1.8776603918680142,0.8077723582093492,-0.9825656216211114,0.9318772311885377,-0.8696630060639199,1.251262130565598,-1.970886848061637,3.9170945747738745,-1.9971006868570152,1.1380374513182883,0.2290022915893859,-0.628720294212525,1.8780072271384976,3.5218878296732125,-1.65571940010026,1.0053882755532389,-2.601001551847588,-0.7660760913013585,3.837662485898263,-0.6323634565654785,-3.5639643902760707,3.178543502968811,2.1715224944846698,-0.31738939429897408,-0.1682616287471761,-2.499101166036743,1.4169832808830867,-0.3800512400294398,-1.9163358124996746,-0.8744861716702488,-1.638972136615224,-1.0573697357691237,-0.535166011559375,2.3765270691650226,-1.240230484201799,0.051748574462139988,3.1631808045681115,-3.829070674013809,1.7253892960949573,0.9922061909353772,-3.28690460906561,-2.454186984147607,-2.559411428062269,-1.5373613071136577,-2.962280390803765,-2.827555294615655,0.156004536269859,-1.9408104016180519,2.2199184952940316,-0.6815268473874083,-2.0756805378334617,1.1621658541723897,-2.913946955724631,1.637869681575098,-3.4357066428163014,-1.4176866601999479,-0.20622123083809908,0.3630485340813756,-2.539098301026523,-1.5333234807336103,3.2690600445985424,1.7046856535344946,3.7325222310280274,0.3334549245302547,-2.3628938640103067,3.487671553958327,2.306913263978064,0.4773897584702169,2.889076251284564,-2.5040845304655958,3.9665469064431484,0.4055367188092909,-2.8274915334806067,-3.44137295584804,2.877345079711345,0.7747953806827068,1.6452599000671909,0.2775215529332735,1.8365797598964724,0.6061811102058714,-1.9075986311892204,-0.9022443739718538,3.8154662331042639,-0.13145424301085585,3.747453733007972,-3.1293807367016477,-3.2475278016651849,-1.0221880259579417,-3.7108257671429376,3.2085960697687474,3.4803269552365636,1.6092272120515228,-0.1498133141943061,0.4145698120281791,2.157215057532686,2.4836991749854544,-2.7418280229268205,3.586358328542439,1.3199595112851342,-3.8417302826623285,0.03323110355441372,2.166446147609552,-2.8227475861548845,0.6225704517371788,-3.5407741010733968,2.881657263170786,-1.483470344395018,2.2336317138699899,2.474510458720398,-0.42556457939101147,-3.7590869580420609,-0.5803223839797891,-1.4807864378892788,1.0433145257148056,-2.3842790045690238,-0.08259652809005314,-0.5068653901433609,-2.181727257774062,-1.0197759266192146,1.2274309550399796,-0.794375533403693,2.193896163320603,-2.5075488264233085,-1.5683026954957616,-1.8317062197233616,2.5869350189742068,0.7522273170949827,3.9584815230899865,2.4959812832201049,-2.4282342082960675,2.8474748422959266,-3.814047772030812,1.9034109770674875,-1.9679053170493453,3.145367583932245,3.7865056825507796,3.070741456357723,0.1410862724904618,-1.4843186759483445,3.3150973500543507,-1.1050824106295557,-1.7434442566366338,-0.7061047507844103,2.1432339070395649,-0.37882464732198276,-0.32401417085586128,-0.41646286215404718,-1.0860068324234289,2.6444720661062277,0.22111909983068668,2.057922351213353,-2.349191578568491,2.694501988962652,-0.4182310399576368,-3.154039115604899,1.7313902363996299,1.7778120544493126,-3.399462368435066,0.8157218408031755,1.7203348859103694,3.3058888115588225,-1.3277921585416675,0.6261287165522589,-1.6691370017029373,0.778478844401314,-0.1826217626342752,3.9031563314958594,1.912334972504401,-3.5637071372440358,2.274696979717196,-3.349631479829025,3.2866710831269625,-3.6120839516933644,-1.4670559395710213,-2.8339570159315539,-3.9184385811518647,-3.1852122390202517,0.4143819427438329,1.353590414478563,3.524918245258851,-2.974994104776396,-3.4683431334059158,0.8725533479582088,-0.07060507210127498,3.786221994606543,-3.5454284326595095,-0.8826847575620798,0.524938350049462,-1.0931168523507518,2.925632277722057,-3.585360443060238,-0.7880077470426175,0.426036959301376,-0.14530803192302089,-1.9874575058324729,1.6675044902536219,2.155221232339546,0.30897853177694759,-0.13216387956054177,2.997530250087297,2.0234448843859527,1.944169376736128,-1.7672101751405534,1.1857959332231075,-2.5718618865165459,1.562793468802611,1.5219169359046437,2.6342754423598198,-0.4106461517951432,2.281042352969256,-0.05311261717705995,-0.2987476464840475,1.3479615821419975,0.9026158129227664,2.698752498180837,2.603254818079,2.643325717299698,-2.3408840728166915,2.0101264605321838,0.9882722340717587,-3.864999064286881,-2.08734333274022,-3.2449962772277649,1.8769568683817247,3.0528872811025007,-0.16856282676837987,1.3559381540101053,0.8818804279908665,-3.486442584379609,0.9145212626709602,0.9202914533409379,-1.1022780323672843,1.8776894223445276,0.8937114264923896,2.1033664493507535,-1.7481739562900283,-2.398920038382795,-2.0617720728766235,3.19389842691632,-3.2566454629836976,-2.920343618211003,-2.986442410101466,0.9767257559844955,1.9741565742909729,1.9550274259894476,1.7231206436248794,-0.31832991457971029,-2.1144908308213514,2.4328175700707108,-1.1165312026045109,0.967945256057333,1.5628095543593217,0.8087229713782165,1.3394924113783323,-1.4765753409456615,-0.4193792523103035,1.3140139738827089,3.7053136164716378,-3.8767058065725639,2.5861022860385329,0.5726623764645664,-3.5610224384227999,1.2699065962743453,1.5832749375121198,0.11328821908827536,2.9627110935511666,-0.923566789258464,3.886096599053296,0.6130960888238715,-3.3111711984522689,-2.412442043181599,-3.5893413759483749,-0.3411720049754512,-0.37158850393568168,-1.6344503382338276,-0.5204038036521812,1.067168411626601,0.6580395436447528,-2.7037684908176695,2.289789362869146,-3.829991967987154,-2.2218872579386685,3.735880217394822,1.0756835682830533,3.384441798515004,-2.4650535646821405,-0.9631805962757836,3.91895258172874,0.20372916976172296,3.803934646609875,2.580903849926095,-0.16305198116956655,-0.8472926378979269,3.8146189775236447,-2.916670686432856,1.196834321847481,-3.911992976955524,1.3992570360356434,-3.7083700404075099,1.3191932706977055,-1.5602635095395153,0.9509720752355388,-3.922594055867834,-3.6449772727690066,1.2887904344067192,3.287835455589362,3.874830389821546,-2.210790257333029,-0.5311806898691076,2.121456172334949,2.0067118492607589,-3.917704018365596,-3.1098844605626079,-1.2729661132288284,2.7907609690561427,2.772337578887403,1.1056886346972377,-1.6154848592203158,0.3560184594749263,2.0121693012185526,-3.449493530595454,-3.0118308636907669,-2.6867121594801075,-2.2025124301154479,0.6856484540120462,-2.501264454437333,-3.421752181115874,2.220944772111598,3.3729521471325984,-0.04845071727835659,-1.5713957764831486,3.452836570474921,-3.8951055589255274,-3.351986193466381,-2.7191056123827499,0.7288962053485157,-0.8753400012987509,-1.473017979204248,-1.7561082024833237,2.5541922174846798,-3.2441871822944536,3.301907369381661,-1.697325118204901,-0.09374177524863026,2.7314761447896824,-3.3354249586892026,0.6654319876825543,3.662697301956708,-1.5353668986330205,0.8236668919518273,2.4901129010682956,1.066321071833885,3.7938113201648617,-1.9680351709865347,3.653348289048962,-2.3888009805594567,0.1514936776732423,3.447102502738196,2.152165812415155,-2.7836109287074155,1.4955913432225332,2.16627902343917,-2.575949934545733,0.9388320159096608,1.4231660737930217,3.5315341259469648,-1.5271220040803498,1.3651732977563614,-1.5989971469917118,2.2110560130779568,-1.8626996219207913,-2.088216097934035,-2.5193383808049258,-0.9124822529686041,2.3708322143259998,-0.12998941125752085,-1.3601169888584233,-2.624482730690862,-3.3824996299551106,2.7458108467425026,-0.7291524852723406,-0.7648583506143423,-0.47648639254660787,0.2231472494868969,1.8570267870679445,1.8756453194237973,1.3818700620156249,-1.0251872870452384,1.9281502476567037,3.123918453043867,-1.487585617205253,-2.1596529082249598,3.7262367686489625,-0.5860393210908628,-1.2505284984249708,2.7720156266751205,1.6458019224714687,-3.3818518303573485,-2.9239876148196037,3.384209373267935,1.1494533155214076,-1.6279431299830536,0.9429740098963126,-2.475780428264958,0.6683968935712406,0.02418452031436047,-1.1015956040331708,3.7912182338396676,-1.5397522915464466,0.7783704928259656,-0.21218934119530798,-3.1623837900732596,-3.730513590420112,-1.4263507464958095,-0.8073485941624361,1.965229006963849,3.1903435438381937,1.801215861122257,0.8739135974491052,0.6093424513307495,-1.5891902210116609,-3.165076769782556,1.125471945105084,1.0011587837473837,1.4710638613087,1.8946082286359332,2.8270776204284369,-2.8503139536744479,0.15325948555523717,-0.028572912677114594,3.249893183696223,-2.787331728436702,-3.61168287239418,2.8392393279057579,-1.5536572948189767,-0.25301604309610306,3.3254822442535296,-0.5100551268314124,-3.2219815417614248,-2.874171789369763,3.905554733951515,1.493156769339266,-2.6563956911714126,0.18978418563925193,-3.470476028787642,3.216790891928814,-1.5166549934882648,3.92431649595661,0.7665589607195384,2.489602141888498,-2.528616814933641,-2.478824294960665,1.4919290743737009,1.6268865678013658,-1.1075717558699377,2.3726054132369986,1.7234040026649345,-3.827663971604987,0.44950708000238839,1.7235700763027744,-3.012143309760696,1.9311850093200392,0.3174306691541915,-1.2840715611852185,1.052676070200115,2.3949500003497325,0.5650705266594036,-2.694319218635921,-0.7792736042837545,2.614316442976947,-1.394534714258616,0.9480674127819251,-1.7409345166146216,1.7532739752323386,-3.3573563362500424,-3.5147213122516476,1.7631587186141396,-1.2291067254985356,2.268250048207186,-1.4607180227831354,1.701377378191034,-3.111008831609298,0.4494366725234338,-0.8739526714014803,-1.8455044594629549,-0.5303125450883108,2.273459652376057,2.3474125564127377,0.19098770203499527,2.6758215671932916,2.9180591346856055,-2.2114986418877047,-0.22067355146706725,0.7725083632633298,-0.6278616080011032,-1.1737812168799596,3.112544046698207,-2.0705398544196287,1.6716383237739834,-2.3676073945695617,1.6306194107190067,-1.4566574923919849,3.3584663157688086,-0.8421759162451907,2.0112702531793467,-1.769785155229883,-1.5689083873265817,3.2316380488472875,0.4849476534666559,-1.7888287809647088,-1.8514169556932077,0.5809297377912621,2.5583572717422635,0.5007270533651047,3.392163713850734,0.05632806215824537,2.7423211688694888]