[1.737558501430794,-3.717791792165933,3.3902566581594799,-0.6940804456114473,4.232899243800437,1.1421023805036575,0.9851820779196692,2.8635921069869609,4.044940522086965,0.9982237221858294,-2.4446614605753536,-1.188406715034062,2.6891465251951724,2.4414675138295829,-1.5372357732259304,-1.8778933292274856,-2.829399706673865,-0.28519552180794097,-3.9166512044223604,-3.5772549490550409,3.458060652705471,4.926527925896517,-0.7061112990224693,2.200186914547652,0.9506099786913794,-4.618916410432212,2.0878769857431025,-1.4363183845520116,-2.0247824299188275,0.328653840629313,-4.07923418248446,-1.9466070100842839,-1.627291800388119,-5.70896691668819,1.1532209074217417,-0.09240253217111098,3.268710458170468,-2.0054898798123976,1.8912591514479274,0.7791003997116848,-3.650098646133181,-1.227760339351019,-0.8362894688876876,0.6774517691400527,0.7985926387620284,-0.5638277450553869,1.5058560905119947,4.192292868838943,1.505798128989665,-2.562284199163819,3.5541745277026846,3.8271534460413365,0.06068237887793858,-1.0210993389749275,-4.239768704917621,-0.9770795696471244,-0.9752377957602184,2.114429066336026,-0.7393845736904046,-5.354505735273952,2.7851361025337599,2.0657116137240489,-0.32948009361228489,-1.4408379559325218,3.3708643186544284,3.4928121099651219,-1.1740039329582968,-0.49898662394794487,0.9504055214779543,0.21034008135444333,0.6833573052917071,3.481017029108573,5.004242579675117,3.0636836994612146,4.02603588960031,2.8639920021592095,-1.6464126620831293,2.7507586573819826,3.0235523839916746,3.193398535706053,-1.5995714046391168,2.4825076332816549,-0.4872874220747709,1.662781291519274,-3.8842810692419684,3.6758252736468379,2.6189462117725847,-4.1849224380215619,4.567815247637391,-3.387645110237216,2.697044112948321,-0.7340109378001366,-3.4864381746470829,-1.636230370859884,-2.7014362993900544,-0.45122809113353326,3.724756796083236,-0.4193701321467836,0.8433477380304677,-1.6423390406188739,2.260153504430855,2.0031052821418746,2.292637773887686,-1.0211647689258037,0.6655872900202671,-0.5755552376023819,-0.4866844383119106,3.1405961213275774,-0.8051021066247717,0.2181309257557297,5.1653562688332139,-1.6499505077890529,-2.19980547954388,-1.8505458241633173,-0.8145730771542155,4.399614199627578,2.8564291433392556,-4.374423926371095,-1.4912585997910657,0.08788947394243564,-2.843665609151305,3.548530218926417,-3.561557299748766,4.042241447853264,-2.8539733781776257,-2.3918603265187254,-4.177877103151061,1.5043984436412299,2.9630513317656996,-2.320450912612858,-3.948205602312791,-4.724447033919961,0.31225404957130478,3.4487431833491004,3.8278568275542317,-3.628280802783275,3.4911954365476998,-0.6719009478812019,-2.8292663687500316,3.459338476364396,-2.3525255578738677,-1.612387608663979,-0.9708007362720379,-0.9792920649910616,-3.3076021166068907,2.118369523986073,3.4285895187835826,-1.2748200295779078,1.2983628703072783,-2.2656301403894609,2.723559361103192,1.2013578418675644,2.9987458282476138,-2.944312494871056,-1.9912589510725203,0.03970189032052024,-0.7015006703545598,1.4127791217654449,3.1977755372880898,3.4078309245815388,0.40968643316439448,-3.02797945130352,-2.871262306724034,0.7927292154348153,0.1027819067702137,-3.4971691661953727,0.3067730092755848,1.3883956397641988,4.140983210965231,-3.105568949904197,2.7492992501613524,2.685765818940789,-2.1905491285418487,-2.9881346912560935,3.445440253597168,2.1030053882096326,-2.077029257959239,3.9667853879365317,-0.3833847801256015,3.1509606627237627,-0.974545855003528,-0.5531417100682925,-1.4922556127037956,1.922606062265672,3.034298677966183,-0.6344738644420562,-2.5816355782825868,1.616743231757214,1.2370200909424059,-0.34683690625638177,3.0834383171919979,2.1587623881850388,-7.224658187918229,-5.58695360342432,-4.786631312081212,-1.574954949597666,-6.179611915777528,-1.937963717906186,-4.388229813048942,-3.6388648032167585,-4.247375727134771,-0.755803744070681,-7.5678920260959139,3.136519863639369,0.3512768848856466,0.7936660231768019,-4.88422814390377,1.2695696397936594,0.7454823964896402,-2.2909517252796989,1.4654217160599788,-5.7906777535480649,-2.0986577583097816,-2.975728846737992,-2.135826864544065,-4.6466691620884339,-4.961284892063337,-4.069987012212188,-5.1576025063791859,2.138650527509486,-5.545571992916197,-0.7455654552055372,-0.8298985817558042,-5.500691543159683,-3.6672953825343916,-4.560671769993871,-3.894497486966131,-6.390151803868114,-3.0945889739295446,2.9086250161743116,-1.5136280543260952,2.5999554043112398,-4.074419803064589,0.8798231995809928,2.5962500952858549,-4.838771328143835,-2.0962993274799195,-3.006047255282899,-3.551254249819543,-0.4429282154700583,-3.932845464412864,-4.668688469130015,-2.3400931680826666,0.19679453099920025,3.8702208935562294,-5.362175834858296,1.8975094373246698,-1.9728023586507507,1.7396463591240033,-2.588826821007137,-1.475076896343638,-4.415368721482435,-2.7828854963266425,-0.20620806020926933,-0.8430013689507775,0.9265511980330006,1.0585412616472488,-4.210303814624305,-2.5817902775132914,-3.437939690333947,-5.3688841193845679,-2.3585749760347896,1.8843660328815426,-1.3426406365478819,-2.583744186823312,-1.7379321990525063,-2.79221998772238,-4.742709128586832,1.564047635676582,-1.8022348422044657,-1.0038748212016769,-4.611334089079237,-1.1530818749170718,-4.236828063938702,-3.0715211290119828,-2.8542612170782259,0.840907648482827,-0.08823909205006435,-0.11081539554988591,-1.5320205632143323,-3.5546212316763299,-0.863290030470853,0.6376445801219436,-2.7799298518945845,3.4306342974033097,-0.43439546715791746,1.2326928525475043,-0.3080961523944701,-0.21748889386035046,-2.8431415655735865,-2.604523127812475,1.2047347684388193,1.4070135024117228,2.3071781189397728,-4.6527291604687959,-2.5595849807233095,-4.029160256306304,-2.450181024948265,2.037410088927853,-3.5614943786711148,-1.7291143849507156,-6.138852288374795,-1.6082256856631048,-2.4087076624127299,-4.5947215839527539,-3.6757047353031,-4.756806497072888,-4.046960433729872,-2.5936662814989428,-1.2036538693778208,-4.58401730952039,-3.8517818699896115,-1.6521743620475707,1.4731363524844448,-2.088341967739041,-5.118087943305053,-3.16830594802388,-1.4157155674309883,-0.6756717923521486,0.0922868609722921,4.561522647449881,0.6221080879906707,1.4137024157857586,-7.424777824834567,-6.3162136824088359,-7.889988942649374,1.4581469339955074,-5.514634642656411,-10.204902038515966,-0.958412012824441,-8.570299470004633,6.183803263387504,0.07050782861441475,-5.694736193819196,5.333116023781081,-1.0379381018599579,-2.2795670457424839,-5.245533073223648,-10.88166115749439,-13.409883334700963,-4.875874906060377,-5.7602088402567939,-2.2450363211511799,-1.4413625900843917,-0.7880703075789791,-7.9242828647804199,-5.496164383806772,0.8900704811859996,2.3611927180177956,-3.8081111018337698,-3.477403573161592,-6.908192685525334,-0.08513140048696277,-4.084304175040697,-0.003019554841736045,1.9829748809869603,-1.7263985009653265,-0.896793720237328,1.6208947759490904,-6.112544289158172,-2.8642788452784506,-5.652222427245694,3.8713300829966474,3.4990469678576208,-3.9079880126520054,2.3532270259279266,-8.499442403167075,1.3288108595681188,-6.758158323885498,0.6665827377358968,-7.779406833027406,-3.8322655860993399,-3.9603440657807935,-2.0970890943881459,5.09086927247286,-10.851497633186247,0.9902482058566957,2.7345271227638427,-0.09075397739884017,-4.379621675548527,6.088190975541408,0.11051179436983982,-3.653490378837899,-8.338802257790109,-5.333048267459134,4.6259517291772689,-1.885844934726811,-5.124711316431501,0.3429620376991473,1.1713712658158202,3.6825090294367768,2.627081927332476,-3.7934003411416876,-5.966401741940556,-0.5714283536682128,4.192442184665216,0.7791471081128407,-3.887648857832522,-7.957864740040218,2.579072684671821,-4.77165686214498,-1.3728241474405685,-4.426292157648536,-3.0051126970184658,-3.573867996198581,-2.8782857333703526,-6.8042089411604629,5.617400908081825,2.998694272117554,-4.493146119537488,6.644228163100725,1.5396415615743644,-0.7972701568985088,-14.095720357918762,-0.760693329484768,3.8428003833218726,-1.8227065265406406,1.5022387653298988,5.842685307281278,-2.445694487811301,-7.008546174164911,-4.198749410081554,-0.9393738541797327,-2.403067124388542,-2.82566811646468,1.5139605617614609,3.5661481524305649,-3.061554155970201,-12.456114284244784,0.7287607886039262,-0.5439113741308335,-1.63082150849392,-9.646880146799058,-12.808300934545887,-5.342305235863741,-5.1470765227137849,-4.633639950858206,-1.1373979717536119,-2.183290259365679,-1.0512506898020338,-10.3580968559223,-2.5074218504544114,5.309852667321324,-6.735679177074058,0.5217192570231609,-3.9151711905025925,-2.1193443589775584,-0.9537958995082503,-5.641706147848013,-2.0120478421207474,-7.608488871317772,-1.310780366229392,-2.8365703752720337,0.23963784116201512,-4.504256875741996,-4.111384902852402,-4.16080078987729,1.486185628141896,-4.941958759888908,-4.842337957147343,-8.009380699978552,-3.7606932207647194,-2.6096133026642147,-5.801538855197793,-6.174855243539814,-5.312371342293568,2.109685595181424,-3.5843345680986418,-5.577141393711446,-1.1103738180820162,0.11470921042504757,-4.723355028207267,-4.826619927994904,0.0351541610387043,-1.9207573210746283,-4.732347840846792,-6.839457279751162,2.263817221180082,2.076138110156001,1.8849978461515503,1.2092643400164896,-5.4130724961723459,0.9265089283095375,-2.3920299739237125,-1.4047559609251646,-4.854553608024199,-2.6076502740792688,1.6327470147786685,-1.2956144634889824,-0.7794653628935195,-3.814392756517531,-1.1446135301720258,0.20826149345759879,0.9655770683576086,-7.32666435285978,-6.575460743428249,1.1369352621161074,-6.040340431073506,-3.894789314224157,-6.914860515178672,-1.3026297095884143,-5.820091375766939,-4.737488881325531,1.1643109261390244,-4.270748173160632,-0.8346862575591013,-4.574865569945262,2.2346299860229754,1.1387743916680445,0.8868132207436511,1.7595165847996888,2.1829537309557756,-0.5695848355815428,-2.3432014587106608,0.48236669878246,-9.186084450447446,-0.47745925921317969,-7.027364370527949,-7.50879603411811,3.713273131275338,-0.08695627996919896,-1.6829261062251809,-2.5903188718581617,3.1080251598822548,1.131457340245335,-4.687826890744876,-8.229094158988382,0.4946076372548762,-3.601335966101706,-5.043572124497122,-2.7553769427154455,1.061473310454251,-3.786260191603326,-1.0512350739919608,-6.415106071344875,-1.8606508833428573,-3.801455585671499,-5.026314931674702,-3.580976371656482,-0.8420626958282651,-2.131814071923922,-5.959442860873265,-0.7645263781520775,0.4408340969640962,1.8496338620520459,0.05014682409100693,-1.9835676434928047,2.285573910792439,2.382524405770192,1.50045895732362,-4.034940601565337,-2.4770571067797779,3.007672761503681,1.9234378140674187,-5.385313150590635,0.07459592247963518,0.7409336355676751,-2.1878706722238165,-1.1289365271310977,-1.0233680915054618,0.09281733137976818,-0.397342901643776,-7.48705090183316,3.8615538691500346,-1.494674336164951,1.4957684100964779,-2.960418772564279,-3.5605949230424769,-3.6961212040889,0.8593124268241045,-2.4015038487941839,-1.600161601001463,-3.1437525182198469,-2.875542185336196,-3.2279541028744025,-3.8736381679702758,0.8197910483994295,-1.9215072323391338,11.734763001260858,7.65234433466427,-3.0065981661548029,-5.563153772265291,3.0954960533679936,1.2141237144312583,2.7113142120951778,-2.4529495926252404,4.847142730245649,-1.2286859950734368,-7.485252659335419,-4.011425873122196,1.7960849917520774,-4.753633143758631,0.42760144107904526,-3.1701624431184545,-6.346923819302673,-5.124685001379729,-2.66722694907663,-5.901012580189178,-0.2897011374872365,-4.700335220547455,8.917602004955324,-5.315152385657654,0.2007229334823692,-5.5408186239370968,2.285113818737617,1.2723953512945539,0.24464954572209078,4.05739909754845,1.7928819867221027,-1.3238405708784207,-1.7163030576037613,3.4296937918145566,-0.036599384679458609,0.5904167402345791,4.738086120009992,-4.875558587372531,-5.188057180613274,0.47955100764021277,-5.714079337258797,-1.6191173599903595,-1.1110685898073434,-5.336882801364307,9.95172268526943,3.145476267580832,-4.021644801615097,0.8754068817696088,1.8103498304295017,-7.9873577068092749,-4.893333700770432,0.9319127408692879,-5.653081986043983,-2.4185775067236006,1.9708717697173286,-3.398494511725829,-6.72998182781472,-0.9089755956704337,-5.978509029203987,1.804435826755693,2.697991915357025,1.1908105779051806,-1.426152455897587,6.852274787457065,-0.6304949191872743,-1.8662982473756614,1.88021988638969,-3.656862337604989,1.4892096685553223,-8.100282094635196,-0.5652455284760031,3.3888540972011036,0.14104183347861913,4.139568298703459,2.821201134461765,0.5255872026165583,0.7077675945360136,5.158042060036911,-0.7401130297970662,1.8178204505147327,8.187244041917199,7.326358575393611,-0.5203566594608379,-6.059346355188882,-6.82530080488551,3.228019587185469,3.3214560193383217,0.08897862736051104,2.441075197358056,6.516572253306222,-3.7838251994222436,-0.3291018700898912,-0.3945798192688142,1.1714930508445492,-4.614708434652691,1.8520374445693447,3.221725007711718,-3.0277660387734008,-3.8175919064802179,-6.900728816372662,2.5600785536945707,0.091623170451381,-0.23640150086487628,-0.8205662843727417,-0.02874311245833947,-2.4497015000740038,-2.213990222311339,4.490179189490395,8.582662600599424,-3.799132926636671,-4.851312068311394,4.803971970860251,-1.23210808827403,-1.8132390455450259,2.5321817255105416,-4.631595511059859,11.775643828444345,-3.609962835040436,0.41605039760101028,-4.787533788002326,-0.6278970194091592,-4.8053825943496319,-7.364800616743619,-1.3877610384518564,2.760781893751698,0.7201458394457073,-9.816832456810645,6.4587314537846229,-9.61179280276907,-11.156161727016901,-3.6142681114824066,5.2132622497390799,-3.6512114016535754,-1.1771195768064556,-10.770364156567256,-5.1072964184847768,-4.6572274600586989,-6.1685506330544419,-2.051839190913086,-2.4642067903495055,4.740885036110503,3.6124219230769887,-7.4908118076153908,-3.442257284325295,3.8189861080077476,-1.4084615965843315,-2.0990393065897896,-1.0225146395591387,-7.575257628571859,-8.965294712663838,5.746433164189614,-1.335069120000597,-3.7309715178169564,3.06915507882804,-8.879039291451873,1.539452309540023,-2.569929981575499,-0.19410084448798688,2.968909415139798,-1.289617948091616,-2.1330874793767564,-4.7574734461315348,-5.728217048994325,1.4017785607112306,4.542050972145208,5.820365203953815,4.259060966142813,-5.046555845330792,-2.3670238480988008,-0.36563487080758147,2.8533758148077998,-3.154470294271276,-12.927566612860529,-10.662230173796758,0.24522691477300477,-2.0717394904072279,-2.191290666501553,0.2721583592916125,-0.7262319514951142,1.0560534245085574,-5.93323003473873,-0.7745711018148282,-3.658471220042464,1.1158931292380899,-2.421397731952841,-3.2213967362548234,-4.615426254574844,2.479223015320527,-0.5232965688273654,0.36876801094887798,-6.997835606462766,-4.449791829972158,2.981594658859433,-11.699533186235636,2.4813590477784888,-9.66295771316447,-7.286936186716411,3.2583714739997755,3.2628349075166547,0.2955487776208969,-4.062844299822911,2.4760378879776669,3.9530265380715119,3.0288350694468546,-9.135015532028925,0.47094910783041546,-8.1075636671513,4.630277730729554,-1.531440677201397,-5.247417308777489,-3.1683200023995319,0.9038962627650854,1.8082736326622846,-4.331000570716188,-2.803653339563298,-7.5653793021078619,2.7324900099400346,-7.288410964598812,-7.191301835401286,-7.514877572240864,-5.173216936749424,-0.9687342250782236,-0.15931301761227699,-0.4422059940449181,4.525986337691157,-0.6365297378774585,5.293121553095074,-3.711106741011023,-1.3237010301832795,-2.2218730792797629,-4.175850526716867,-1.9445570335206275,-6.269005797286719,1.2197290610753487,-4.146472363319552,1.9567307357340825,2.939262025351956,0.3571182454447121,2.1221999831664877,-1.756140865136883,-6.037574993570447,2.256516333347122,-3.18722532277185,3.187164695907913,-0.4520036370929444,0.3974693279626461,-4.686592954716641,2.8258117839184186,0.19533299750131814,-3.4542159970337917,2.2381220582065968,2.730056952193781,6.7812027956253939,-4.046244697805557,-4.7250483616713538,-0.33731391846529559,5.531837637493912,0.395410291699383,-3.847012796347111,7.631228126631072,-3.0227556651825089,-3.4639819255666257,-2.8090216915418715,-2.9057266013518165,-4.235628469502748,-2.8699488141375224,-3.9780364059441246,-3.8151048608909607,-0.29464931062689217,-3.810345218868584,-0.6708497935896987,2.6228867110312858,1.6052058852441989,1.3784797318515918,1.0335913966346818,-3.04562408978795,2.38766935302398,2.5262952326699845,-1.0413911894893418,-2.103248423547794,-6.969326910164474,-0.46704838074009938,4.846830202039917,3.8207184994422977,-5.0192064141205299,-1.330464608640156,-1.4439874735368553,2.294121789411336,2.1754429129354779,-0.1279550675523408,1.160962821687502,-0.5978107772493285,-3.904904576076168,0.8816399200206014,5.277585415566354,-4.920579088693309,1.0957168242796665,-7.861654586097561,2.2461492701263126,-4.164196490743149,-2.887148902807889,-6.089052992649682,2.645867102763344,-4.701358314832425,-2.774046102758568,-7.723904561282865,5.055166115362935,-2.2816698377248039,0.3033885255651335,-5.62290186167927,-0.6862469302565226,-4.991843637802911,-3.0507660864591239,-1.5651650718448834,-9.733756036082376,1.1530497044224993,5.483715178723369,-2.27388464117778,5.151682954341169,-0.4392064398776653,-0.13252190238291659,0.5063432892803835,-2.045582732679549,3.448978978034879,-2.4654525270507126,-1.240948424152154,7.9336607486425,0.9672439220630961,-3.108543798948544,-2.5788834089679617,-1.662679718451369,2.832375315197981,-3.7409856864814294,-5.220769505438358,-0.813486214760558,-4.534868916442364,2.4902139248788215,-4.65672566433684,7.376015189630751,4.664978915991852,-0.9997291386690275,-2.0950076004315334,0.0029685033481192159,4.913452236719467,1.1675549957154579,3.8001591722893117,-0.8042468041271624,8.025783269281473,4.361277697426165,-1.951746014558917,-2.1275719965997519,-0.06932628441586306,-6.949331016831194,-4.5429444953803419,-1.3323862130128466,-0.42044393930917969,4.584332194027001,4.773074285467166,2.6042545418398506,-0.09180145915781471,-4.270209243683819,1.698126732309316,1.9021419511185307,-5.76572028033097,1.7003155917924824,2.3034537714406047,2.6039879936626368,2.2819422309035279,-5.646581431456102,3.8130254212270029,4.513048793405098,4.099753136164177,1.4297911150315797,0.9283286667286037,0.2809175617563784,4.019722147179344,2.4855477763144195,1.1903710656794518,1.3360270722051944,5.612297109495854,-1.5357166546536545,-1.5307844429639315,-0.8082633540883935,1.5009517424904373,3.7633174755577718,1.9670241092381403,8.467367601769525,-2.119323903295027,-2.941616848799774,4.459169086966115,-6.326916298687523,2.4836375883555914,9.7718054429005,-1.4146241750255393,-3.1945721064180319,-1.2135558330130232,-2.996015971542093,0.9751840692946343,3.8132710047159219,4.761727966311892,6.339736083670552,9.282892503985192,-2.148355147378613,-3.1592741375154764,-3.100853062098988,-4.451282241743831,-0.3340472403889791,0.7356383715812878,2.385056556241988,1.3602673123834699,-5.479216140975334,-5.017854782349213,4.181979828191783,1.982076298346082,1.1710079915230385,-1.5005738949132169,-3.927522249114618,0.47118456927490345,0.7926971165919252,-4.504635270347867,-3.4443508022320366,-1.8471609337842523,-3.48932341476526,5.33121195980104,-6.345252617223287,1.1529735084887237,0.5164362160059063,-4.974931338016331,5.672099756411758,-1.7355934087278693,-1.9123644876443629,-1.7689245735239619,5.219730366392842,-3.373899247583786,-2.5700488481571446,4.349685857034948,-10.57463398649586,3.806850265566089,1.4730065383174298,0.2945685450514338,3.087314425944699,1.9708741704773836,-7.879410167621645,1.7588462282102338,1.2531978142659633,0.9385614813504972,0.9022881372851712,-2.525769438322542,-2.631296705837708,6.594613749126073,0.10008490996313219,-0.8739310974645456,-6.594765376402875,-1.6803850716966185,-2.952799436675981,4.214355744944527,0.8979012924334884,-0.3782638993850945,-2.7067467904133104,-2.6685302562272437,0.6398918308323658,-3.2239170052178895,4.000308658784769,-2.13913221092416,-1.4143256669849316,-0.044439380463729149,-0.8419957747217897,-2.1214509572096218,4.500915929651643,-7.0540248385764399,-4.034187936375352,0.10026619217913678,-2.8863963057265056,-4.9249267538350989,-6.942662646950616,3.272127531489798,2.1833958566923656,-7.816130838148319,-5.1794584945855519,-2.69696180353105,-4.05050011932737,-1.4067332994735367,-0.972918469238906,2.409162903659427,4.490590473250781,3.5478338557172806,0.5159078222181138,-1.709670747917343,-1.5721437646045869,-2.343605911473428,6.135775984939291,5.1731733754351,3.4426720098792868,1.2720253694593827,4.373523223899802,5.4238755965252409,-5.302119196035278,-0.10065957927423491,-2.559248895392033,2.672047889766341,4.965116197830193,-0.04970157086147473,1.8882014944861033,-1.3960009239639689,-4.39000712083825,3.470079956263408,-2.782306820720278,0.2083156986027382,2.4411032189329138,-3.6480440616890075,1.1657006790090399,2.5573036905233654,-5.368583697792158,-5.636604766412943,-4.203565524768064,6.709834069947682,2.664846230096748,-5.604854090327476,-7.02533808924655,0.4270115400112557,-4.004049797556581,1.372023629331444,1.746814337232933,0.8835024962976885,2.740571077727371,3.193313035671715,-1.0248360636069685,-3.546051145201081,-2.023307602042533,-4.786980923970422,-0.1600025837757696,4.032356727077609,1.6446237808180715,-7.858527449926517,0.07422584788147138,-5.175218775160525,-2.0207791272772699,5.39555983131163,1.9697720760877616,-3.049430481262786,-7.170541320466097,8.975829574934858,-5.944969667285353,-0.8247851776229846,0.07335244438277235,-4.433926707776418,-3.7707380360222269,-1.0201221080793928,0.11869757695215365,2.4598642116044044,-2.3710713605028217,-3.6591156634083967,-1.5525696066851223,-6.5680076802735949,2.117388072173384,5.1548646503583479,-6.006429002695588,-2.1858396139975677,6.813614507584216,0.7679553301166782,-4.288402989675247,6.172403102353072,1.1082879451682422,-5.370142476703242,4.435820801871901,-7.872812676144596,-0.3798120457381702,-0.578576120390222,0.3581975754542444,3.3744393956997595,3.1277627305708775,-5.83578625183676,-0.8325717240568147,1.0068096138166907,-3.527347803227564,1.5333921140240617,-2.467120801766647,-5.941998647082411,7.0621509226850629,-3.3469032511223166,-1.8015860475912418,2.0730953830091276,-2.180394148160308,-1.3237297960327506,-0.8559172679582109,0.22518283013290994,7.152311033802664,3.2744212449818579,-1.6978015192750995,2.7534923405856586,3.8211494068254008,1.531511207934533,0.33126298836590797,-2.0216068347367308,0.7823704355760391,4.072526543677867,-9.005500066176046,0.3891180467771761,-6.403168172942392,1.6540946833142454,-2.044798510366213,3.7821165448163005,5.0519804505450109,3.4786877873801176,-1.1603358352668945,2.082142904376771,4.501992252384599,-2.960435385944307,0.40380525918646906,-3.4525701554167615,-2.249622180684341,-1.8549588530031545,-2.149187377816426,-5.435346795465063,0.6026963961369244,-0.15897052308857616,-5.269295470846771,2.325657790201217,2.0420276809955437,-4.17628083030557,5.793535039344181,0.24744052304683995,-2.5214778279883536,-4.901459887180159,8.006561390061112,4.711945704540133,4.1232127322467859,-3.2022660694730438,-4.181301203562707,0.06232942967422802,-1.959272299892656,-2.9430386784792619,3.9225369681815747,0.31005631933188979,6.026212001321807,-1.001624064463381,-4.032874527101096,-2.3558011239619955,-6.7228751154209729,-9.70700211180015,-3.2722080238318296,-7.321474092463646,0.23356550654307704,-5.1612016762648749,-0.6823479129323735,3.1502649031067206,-2.562022404799896,-9.291083471992291,-0.06313619840807865,1.4077169157259589,-2.588868209045359,-4.3787307571171569,1.4082849184459039,2.9784092991272255,0.955345769954494,-1.59583034656468,-4.844266408941087,-8.079385968850318,1.9259575562275518,0.7273935039718652,3.621595436430152,4.927324798514457,-3.6633966080061119,0.12387849799469816,-0.10770146343137112,-6.901739737386589,-0.9970096947930309,-2.8888731766726685,-2.0200406127986487,-9.906347410455642,-0.8858676966654686,-0.1920668419058969,3.995918879178701,-9.206411672940983,1.2342158884809345,5.157752983261574,-3.2226424976478675,-0.8923078689601157,-7.481195968749811,-1.6870456586402656,2.2455518258736655,2.387708385713975,-1.9010228545679183,-0.05202421503302884,-9.159976090185446,-1.9228630021991363,-0.7227189093660755,4.911912423931017,-1.5251848981120047,-5.80671466683186,-4.7053581237020369,-4.785220515585997,4.796791921504646,-3.6775012997319509,-3.935695014952195,-3.009656303752727,1.293969974337014,4.151082839526661,0.49247283411633577,1.0535541003197815,5.272113589317257,-2.4821286675327629,-2.8500186279040555,-3.170626562223472,-0.9724306580731774,2.192282511003383,-8.853339924082942,1.3031155537274835,-3.328175303525544,2.1062822804101586,-5.135203781333455,-8.742297644883563,-2.0308115694130239,-1.4915341851729492,-4.2459419439388059,2.0187893431219297,-3.974737507290069,-2.958725374751091,-5.9441380162238499,3.0496058842982034,-2.7450523921399907,-3.2474227849847314,1.4812382992603484,-3.9779541418936099,2.6072176832112654,4.2227389500103869,3.2846893371468508,-6.886402752075552,-2.773011686514575,1.2582939010748322,-1.211345497264734,-7.541047651087232,-1.0544043821951706,-1.646548394606708,0.22682399947812738,-1.0001175986144222,-5.776852615739633,-5.4939777337952508,-4.34257151339843,-2.345310480502356,0.2325153213085567,-1.836230261523671,-1.5021854287599639,-1.532649482412154,-0.39348952345263568,-4.746708378578487,-8.151022269696347,1.7129546896082395,1.484708385300136,-0.4062761577396979,2.3907250899649936,-4.474007774029696,-2.8051878131651559,-4.667306845220361,-6.155296322067488,1.6419180542804173,0.26942189648945599,2.740825791511965,1.574193416939317,0.5311445817435319,2.6931254348855528,-3.5775543544593328,-2.6719986092433518,-0.2288269519146116,-0.32032725062880126,-0.4534534134387175,-2.335101336947794,-0.7030966597313834,-0.5588578763048085,-1.302067639467057,-4.437378315133032,-0.054957941911188457,-3.64078783103284,-1.7044779006500968,-6.203622336966864,-2.692970331802676,-5.080719878506331,-1.2715188683359023,-1.0644161941084443,-0.6997557762920806,-1.425120469279041,-3.7910253132694837,-4.951281567885068,-4.611843643029497,-0.2052753759949598,-4.496509065330922,-0.2971878385076946,-3.724594032613421,-1.6344546199124486,2.339560433910517,-1.886685587701532,-0.13120454295981613,-3.927277684501024,-4.553819436742188,0.81470043624981,2.0869922499280668,-3.8359475303386985,-6.447176331672339,-5.4635129125336709,0.47756280736311026,0.09761934166858343,-1.4432562206312192,2.0121280353488228,2.0123541785222045,-6.553833377170244,1.3471746427900875,-6.305103229391892,-0.6820366868279012,-2.5707801895837529,-2.09675100123202,-5.2237741802729389,2.3432953096007806,-8.298890900848928,-6.7383590041290069,1.0734866041035188,-4.888292218301386,-4.860609388845188,-2.821912930605004,-3.394461975654453,-6.953887049569566,-3.6255892298843426,-0.10657821348000242,0.9970313933756734,-4.221954194947344,-2.2989977714050386,-4.837899202853733,-4.686911630590472,-0.728244449392775,-2.686654620694622,-0.2118735675715044,-2.780633930257774,-2.764296662100079,1.5998863278558913,-2.278870684715812,-3.5355935513310898,-2.180947189427783,-5.546384209828726,2.2996784659575009,-0.5149468462871744,-1.3809204436592547,-2.039999347201409,-3.3290920303116926,-1.5549411955418058,2.05724708744062,-0.5629408086678461,-1.057655572705069,-5.234980728263758,0.3529869511070895,-2.7116383597598396,-0.6842835109374243,-2.6451500217259609,3.5185470732731916,-3.126927743702539,-2.1398319524371729,-1.5404102016501696,0.9704847195675421,-0.25218906360145895,2.1612830387843546,1.605712718542758,-2.2179798045109999,0.5018458695671006,-5.0811004446929479,-1.143027292165294,-3.5630921627649059,-4.53727299169297,-3.7239671838705936,-2.1195163406631796,-4.33359534819141,-3.905418399282853,-2.879833747280514,-2.715816875776751,-1.212571718762662,-1.5855186563335933,3.0174952333320426,-4.715521859993313,-0.8979820822287674,1.975471213882213,-1.363321658486367,-1.2885193301052747,-5.9563554272613,-3.9722039525197578,-1.7843844424444107,0.2653222364012787,2.0473543419543729,-5.8835625630991779,1.9972211701321213,-3.158066574086585,-0.24408400369346995,2.823210699849603,-1.6986745498469023,0.49528066607831047,-2.0067339030372635,-5.234167620457253,2.1927407958306466,1.7021806673370277,2.780306888911017,0.08060709301055154,0.7243722452685143,-2.6274363050586326,2.5317946070122314,-3.790443854807833,-2.6856672961357987,2.042984584973342,2.122979368822048,0.3328604553962039,2.1164816236965735,-1.2997184857707037,1.0728862916708462,1.324623296696956,-3.0118068334111278,-2.946710602644217,1.0150299081511234,1.8255544124595796,0.25385304545480055,-2.791261975421718,-2.725616674573699,-2.1271652701280736,-2.002853755605376,2.683332554566995,-1.213785378781254,-2.409736178278515,3.3789660046206575,-0.7018845938730453,-2.4986725572492824,-1.4640146881266812,3.1570060504994319,0.6320855283174602,1.337878491985603,2.8543411837105849,-2.402413809096427,0.784885520718354,-2.840202425501944,2.1789824175436895,0.17165217830020583,-3.5710963028623174,0.3875370931802606,2.374243120828168,1.3759610568746937,-3.365371141272929,-1.6606813611756542,-3.3847656594986854,-3.4331252361046884,1.617239513984731,-1.2074411701149075,0.07698165132050904,2.776625113058392,-1.5894885171669274,3.3027993385192899,2.736485234400324,-1.034475645870068,0.9642900263932448,1.8822142300928074,2.001530019439141,-3.348097512872439,3.190359226525092,2.8521267731196167,-2.7133692917906124,-1.6465641114661445,-1.538879425050061,-1.2421449360860902,2.309167446247943,3.8226102290312689,1.016127540622675,-2.09401227468886,3.597379523566191,3.7176751026343499,-2.992342393909597,2.6200870817931856,3.0761076111758127,-0.7983982149488246,-0.9628941029367876,3.8248761563831206,0.26177181180567396,2.6929669133453717,1.912577671042039,-0.5059599447171271,-1.2011734377181605,-2.428742788655543,-3.21660610610885,-2.035419011506612,-1.6031438732356876,-0.42672311328238107,2.051222109887036,0.6020361107777794,0.8443448270516022,-2.7750665943359658,-1.839478474299509,3.652926259699244,-3.6189257724363936,-2.09354756761631,-2.636504969825076,-0.5689527576916929,1.7942784631653648,-1.4668465276611949,2.4580921362955334,0.09739963885208182,1.873840346243172,-2.8881876543552726,3.5955352617842908,2.809223087280255,2.6723606790505229,-0.8539026469657495,0.9578427273965171,2.86467557786864,-1.4681960249829569,0.49978460742598426,0.7560205743624856,3.5296761118947579,0.7649621714215691,0.5815705096314621,-2.5543680316559018,-2.0210963735703975,0.3418636328159931,0.09023288783277575,1.6871687948661667,-0.20167099220737207,-2.8342110845174988,2.0235382329977975,-3.0912662190064634,0.07895751889746984,2.474431275637153,0.07691159914125183,-4.160505933048665,-4.87212632602165,-2.336264984493153,-1.965909233545132,5.89362600750736,2.0495347069058158,-4.007334381835441,-6.194554329233084,-11.082513692829174,-1.5148684752169164,-1.288268547287346,4.966638694345548,7.83714329287437,-1.8259149268903086,-3.3822907118662575,7.049442373672273,4.357847330725692,-1.813687787969628,5.707075949457776,2.991145337439567,3.095754536862591,-0.14351554518922086,4.234771302008527,7.794302647779976,-7.118533935330948,4.105183225059322,2.6528190914065834,-4.626232877201575,0.5050494119537006,-1.52392926106131,-1.3827689369117516,-9.29345062080195,2.7230345407392098,-0.9222450744912981,3.5460040565431658,-0.9822614969498943,-2.029392695892235,1.5003960964501593,-2.481857671961674,-1.6791690764305894,-4.5288931428369258,4.673473138484098,4.0310727846731,-0.3265273616892889,-5.049299788177036,2.1439106717853715,-9.252413545436682,1.1625314085527532,-1.241122852796131,3.5315106453894655,0.9724806661702534,-2.6141319625216088,-3.0619084400867448,1.2298849991657897,-0.15311104116043479,7.443777127567143,-2.626384447572171,-5.341948451761141,2.6498751812316096,-2.408400007682679,-3.3009366252209539,3.1460894114008957,3.0311672203914594,-4.274064984605285,6.324379676940625,-4.009961205215447,-0.15306158046033628,6.214673643905643,-3.314755793710506,2.169941608244799,-1.2477161931559958,-1.0772387138053317,1.7697010814678192,-5.175061590590658,-4.583381570107562,-9.28732783141618,2.245228898726275,-1.0184482054494202,-2.0422704560630429,-0.20471313330677314,0.3917512712230771,3.069501785824281,-9.239254626962977,-2.7178120190501566,6.861139289713152,-1.1388135967361884,5.311947296829364,-0.6634207314825646,0.9759421008665952,5.0600238371887749,-6.347542243178197,-0.4437640722849186,-0.8959826120473889,3.5670390009413746,-5.618187789839501,-2.56962977819743,3.3059972725520816,-1.0534734822817782,-6.448871886521293,-4.709279828902199,3.1086058748702309,5.228239724741428,2.8323214251476949,-3.646098638372582,-6.726873140940665,-1.697326586464714,0.6977513442631664,0.5035684696831391,0.595043256038821,3.427022312823418,0.007288406479074986,2.1592463494833176,-2.696489278393832,-1.8967432942158289,-2.5544075607429366,1.820768918341034,-0.7131374480647981,-1.3697309087596386,-4.099172657500699,1.703650855377336,-2.598080293898821,2.0382545318392548,0.7578562835158311,4.1119617804828769,0.8739352778907643,-1.6952485104859945,-5.0255311433659399,3.1891056824192129,-1.5843115009141169,2.7049269565599305,0.8894365903121713,0.1932427923492074,-7.574937014859504,0.6159068086715859,0.4143530492065162,-4.859496954237559,-1.995860197396129,-0.5473413251237298,-2.765528283638746,-1.5551800733261323,-1.7917726563486445,-1.4754523898343817,-2.149736086398928,-6.070458084057017,-6.293871431629322,2.553246754765046,0.3991504766467502,-4.843596875054706,-3.954892716837672,3.6809283217568078,-2.237415423298144,-3.5493396349188157,-3.1576052363074265,-3.142903217051811,-4.5082569989779179,-0.15233304664531448,4.30587644535818,4.895913559213935,-4.98944773563427,6.389973229758481,-3.471603026313261,5.689120749881929,0.9053938506845805,5.255843671507979,0.07340458499816467,2.4997620077049187,1.3262235676833039,-2.475474271306593,-0.853432727230393,-1.5129669830970428,-2.9529812216404189,0.0045682917936824859,-1.5140132705509768,1.4685474187332533,-2.946676553936746,-3.1295701129339079,4.958689410645126,-0.9862834260853506,1.2782871301396133,-0.3156321780875508,7.541368538788756,-6.900158123264835,0.24562454052430958,-7.296472592605914,-3.060218165791518,0.941791407185175,-5.922322905585684,0.4953420170001505,3.0358441922051324,-4.868649488333175,2.751124457586687,-4.02760902575848,-3.538618807975474,1.248832460907331,1.1697319493065302,-3.849665522237551,6.044649124452756,3.3876226777078957,0.22522177912992015,1.5080898313032357,6.285167381389775,4.899085370266976,-2.824674096537362,3.742626570871263,4.5549711416906499,5.746357937401217,-4.6821561089572409,0.9230435049511964,-1.497792843881992,-4.1101830671339469,5.785363494954013,-0.6381982990804592,-2.7688661235828677,2.7171638571327629,-1.0024319548539807,6.5284670651656209,-2.282517745331919,1.9393902533160164,4.039117069067528,2.214314162081963,0.22806561489588507,-0.42159812283062317,1.3766628903968164,6.630946358730893,1.8708447582958892,5.548296606024815,0.8286546926401027,1.0527666792662674,-0.37444211867327245,-5.210510091429718,-3.460320783146971,-1.4895888496025303,-0.4945252298562814,1.4551019677208277,1.2478376225867716,5.731268961945284,2.5178544595687475,-3.5951295129036207,4.771835737828457,0.6329173607673756,-3.6633352169738435,-1.7964407473003852,4.392741826065724,0.612993804323692,4.566161434408131,-3.9741039658331607,-0.8882660091298797,-2.9709434630087716,0.8763263824594091,0.9331689747055175,0.6401421709751609,2.7299474459341388,1.9776082488117804,2.0231415492301365,0.5577796286098908,4.535702322969832,-0.7734878170577539,1.112959186352545,-4.5996019893904,-7.80956889412712,2.475032829597051,0.9975984774757308,-0.2009762857941457,0.7273736755087157,-3.633736952571622,1.5647825800850644,-0.9013220749266495,-0.6786753090553467,-3.0635108845521339,1.069043194419255,-0.12734727254305673,-2.4252110380563067,-5.422733764794244,-5.564938977902307,-4.40764796449565,-2.1954117487207136,-2.49457704290419,0.46218814328896959,-1.023706093367997,1.2029553703243524,2.6074204162180907,2.7823397369539615,-3.386153328877544,-0.1142560497495872,-3.743387447825722,2.7350734619461756,1.1298166146478773,-2.4046959085511294,1.1678779668448703,-1.568807746320519,-1.900433436180152,-1.2615372372381449,0.5003056399292862,-1.5189516787286142,-1.3404667527780408,-0.7086220452828312,-2.1370191721338416,-0.8691745522285684,-1.852934781049652,-1.3513080585609088,0.5825776053826571,-3.2843901826477417,-9.223910787477803,-5.607219727200186,0.3965251667679216,-1.3150861783922648,-2.166618392116095,-3.8754116203713249,0.6304678952668887,-1.1884438099433517,-0.3426225277097295,-3.356651735579084,-4.633471392054471,-3.770355740848139,0.7943130611779958,-2.144682192614242,-4.240077013234063,-2.2327601413612334,-4.43215175566634,-0.4092795365015314,-1.1371066753342068,-4.760543115925711,0.8206820010240336,-3.4282467562479916,-3.1489708392233894,-1.9785162367904139,0.6568931585962169,-1.9981808007548137,-0.1917067874875566,-4.755958938718729,-1.1487950991532772,-0.5050138552744857,-4.272769740613096,-1.730772897867067,0.5494090706983379,-5.222641199741946,0.7464858216117623,-1.554546836713976,-2.1295430293144514,-3.213448167795345,0.8002701374852241,-3.216467140653167,-0.6798114389750788,-0.8948647468304515,1.1314134196438149,-7.693972603405712,-0.7291709551814775,-0.2268113277551758,-4.1130178922110069,-6.529678473880344,-1.674746888355014,-6.408842641654586,2.2350806573497916,-1.4297824562029958,-1.257804439991616,-3.8088066640895739,0.8328059883228269,0.510550428916,0.012541217916208108,1.0870282098497542,1.2116238145567314,-2.4516093619289807,-3.236404064279926,-0.4724723110258816,-4.510432284675828,-5.420486309455133,-2.368430294569202,1.899251943194539,-1.6146858073817397,-5.089480538400069,-3.8103380212179984,-2.4235267086576806,-1.643385549559336,3.158725363265825,-5.065742074490752,-0.26731803584517568,-1.1838105043935732,-2.062801328357019,-3.114328229526053,-4.863763899679851,0.9685967072068038,0.5108562742791863,3.707962341207891,0.3857946414740549,-6.111458057352007,4.6183325902315739,1.103748382988924,-1.4129431596483629,2.9857942205642717,4.996698193556976,-6.359931532382156,1.141491531049816,-3.051124832663206,0.223118651631999,-3.6566477739987675,-2.287055555947161,-0.40190032615919665,0.7260758561104266,2.3145243548181488,-0.13295120929563343,1.796944136873522,4.647452083414699,4.108114269326994,2.23729501593849,2.7841678103219769,3.013730018324859,1.101612582890812,-1.4099014946081435,-1.9793536377902619,1.50927996854222,-0.8745259267273929,-1.032891605635887,1.896994164405063,-2.633464011507036,-0.6740207121123472,3.8865045613330326,3.4343078594236848,-2.5717919695641879,2.982550182673504,-2.862348367558736,2.477465554781088,-5.378084811538136,2.912051551214179,-0.6002717568358454,2.2756368582436168,2.9744272887774789,-0.16340400726867056,-1.970314401245424,5.4471104981177549,0.2738095915943098,-3.6502777072614127,-3.0842941167295154,-5.404233429710686,2.7976144741954087,-4.098322221142803,-3.417754357435638,-0.14173594633327478,-1.6034245507355476,-4.896171920826659,2.986115548632563,-1.7155811432575035,4.9979421457071588,2.877667733538512,-1.89252753486591,-3.0464900133125725,-0.9759964677507994,-4.139985072270032,4.109123657538577,-4.433027036889397,-3.1945266977957664,0.8907741131285789,-3.550091244836087,-1.5916942522878069,-3.2135837136774785,-3.0967911436219008,4.93342657416329,1.4755291605100963,5.979882287901833,-3.1773929098303537,-4.408724958864398,0.385517356451764,1.8251489165007309,-4.526026112568525,-0.1839476762871833,-4.000965767622236,-2.1298722594958474,-3.2060688630894584,-3.039375350518161,-0.7554136994453762,1.9795564445168408,0.2759233671987962,-1.5025286539187946,0.179382152660537,-2.1929669536246227,-1.3859458858104526,-2.435928892229139,0.575481541017026,5.014467543599305,1.3257345639049297,-5.812401259462247,-3.7742047882373179,-1.7861328932759713,2.767855776602529,-3.14043230569514,3.1012753896920457,4.9878939083236999,-0.05681742067130795,2.58143197205089,-6.0515013839554119,2.076051082567156,-1.311616313064433,-2.914324971363505,2.1016699883137059,0.8473186060335289,-0.6510774617167692,-0.9240480706089105,3.8858514969855708,2.6574779482994117,-7.292504809746738,4.9586971849743739,-0.8482775562169648,3.491519807365693,-3.521187685243163,2.4442388814713129,0.18090436121967608,2.850293104004376,-2.864757498010192,1.2173932884463548,1.2680576690607546,4.096511991749076,2.507926518970254,-0.25507908258606079,-5.447592562986928,-2.1242415448696727,-0.7032826393927938,-7.257480586536537,-0.5952299076301544,2.0879223613981585,0.43246574811823526,-0.37907266817421106,3.4162637379223979,-5.6586913794930189,1.6033056790543133,1.1733088770346636,6.573670752551798,3.192387889247829,-0.38967104018670387,0.5634556494112046,0.4171565027730916,-2.098560689480681,1.1888073762385796,0.11432239533542801,-1.0335079458065478,0.803447712606971,0.9735344271058438,0.5731350486581506,-5.258496923775871,9.1371410309997,-1.776811637382215,2.7550406130382125,-0.7476217448392423,-0.566424337600628,-0.20397772658075578,-3.958026015928646,0.001565985709265582,1.4919524836147374,0.6489737531521853,-4.833661022314294,5.314726295696748,2.528441264842657,1.7493350867242939,-0.6868211741667707,-2.6924184376814828,0.13316440539191555,-3.3282106660653785,-0.9485264852322378,5.061120029573136,2.8164484587166438,-7.523018550070025,-0.9362481827366933,-1.563849639698494,4.606250173550216,-0.329796659929689,4.536088503515512,-1.5663581277768859,-2.1396475075897638,-4.664428044157056,3.57020927484835,-4.043575962077323,-3.9102722171181316,0.09986602373703058,5.275007979610821,-2.3460980937821436,-1.0479657652887625,0.867424685837615,-1.274386308358876,1.413000695187584,-7.095437338005029,2.9604004149336315,3.9054316568677396,-4.658079366885025,2.8076611991047986,-2.9782452701093,3.992687469487936,2.0246807804197748,-7.026243555575044,-4.441333510687437,-2.357521423418845,-0.33677503458087179,-2.0043014830153007,2.323161515605528,-5.887113210181639,-1.670562018448854,-1.9148777556579138,-0.0672654655532507,0.2335297300387542,3.432548928222904,5.532456246448316,1.1109562379178906,-1.9095019442369426,0.9459409624132522,-5.876156050966809,0.6073532223056376,-3.118980410598596,-1.2285905278221366,7.203839479795058,-3.16089136741223,-5.72144002423272,-1.5695270474909349,2.197525677603472,-4.366899202966541,-5.691708961397112,-3.435250281883015,2.0762839264566135,3.4560703935275027,-5.003171039418184,-5.578850263130752,-3.4900623716268148,-4.094054074300067,-1.2163804147211075,2.5605934160966079,-3.2662838828693139,-6.401253742235521,1.0444467899818307,6.547930755163266,-1.3424317921161915,2.396918147993636,-1.6542557037496886,-3.770809310356065,3.8105632226849286,-4.758316373062075,2.8500024459737456,0.04911350125266859,-2.62339345731564,2.933347175770187,3.3814033180616827,4.670196819111106,4.524354501955395,0.5980938564014464,-0.9201357883008575,2.3963610184316868,-1.6933837785349356,-0.4681551345194426,-3.0749866764550686,-2.486715878674622,-2.3484737894394489,0.19350702345473509,-3.708778779691891,4.468357638565841,0.4104621253571017,-3.878704122513997,0.5778094349190625,-0.6229575734426629,0.271554492318448,1.4702469204447993,3.6146958695852069,-2.8349608662409668,-4.676652690410925,1.7457254291854406,0.8359792532673628,-3.8991406173376208,-2.4410071106474886,-3.295441652558876,4.527816478742285,-4.967580764417907,3.845855027787899,3.235710315612794,1.0861462540941236,-2.4370310094352387,3.874355238839645,-4.715874479339549,-0.7275581242982807,-1.8779581025581687,-0.2892051593219762,4.121930363365122,1.0443172106565433,-3.0425503787049799,-4.218738898310401,0.0931095826072256,-3.63343599637737,-3.3572048704169039,0.6388337238568441,-2.293462369845939,0.3517486556438953,0.3890339873042664,1.0923103078981787,-3.7444328697782098,-3.0538738602471926,-0.40548516204647297,-1.7959852461438184,-2.460094365416684,2.034597290315067,2.3441607860978816,-2.529760558272464,-2.3459881644784437,3.5598982226160005,0.49222655744242047,2.470376757917261,-0.6131262467589155,-0.13604873013103042,2.910915655895588,0.10684821280119465,1.420318157981579,1.0562024814132203,-0.786116791390121,-4.612690029958144,2.018420969704013,1.7923570609927933,-6.029879330344826,-1.7775854149044737,-0.548990623122956,0.9239518603948342,1.4135329032778963,-2.3186297039777488,-1.9822257955359129,-0.7607911339546206,-4.4550949589436359,1.4443592972998918,3.232660232370788,-1.5724314464831438,4.908044223974576,-2.941849559874467,-2.955263991497285,-1.0944593788285846,1.9715257456274025,2.6244062157782186,-1.8722308524356928,3.759227626912888,-4.334374923522419,-0.6654411077745939,-1.9881846511028667,-0.6256015390199078,0.8700115061312825,-1.2987501843643679,1.8288765300410686,-3.82831098836478,2.2760281765766958,1.09074229510126,-4.2955069983621139,0.12958004964679299,-3.6156197266170237,-3.3112350459361536,0.13292746511971346,-5.049946013826106,2.2194716768222855,3.5954168187049619,1.7664972603611507,-3.5614720288918026,1.8863267121470962,-1.2131990200969658,0.25601686404235166,0.44290717929772757,-2.6499855895873458,-0.22622929789828048,4.863999234901992,-2.044065203401708,1.203195083739383,-2.790499124339035,-1.368628869426698,-4.823189301991035,-2.766067379747071,-4.837916066783358,-1.5199288723049956,3.5581765220643994,-1.7455087548835394,-2.6637430868740368,1.31890878306187,0.9694430286200296,-2.6300291792873278,3.1842569356067744,-0.8948024331540271,-6.142613485905947,-1.2090099754573223,1.4171779210607223,-4.195786018532188,-7.196371982744139,-7.486312737265555,-1.0028265930423333,-3.022230176691711,-1.359582920389412,-0.5874573580031405,0.24361872515275,-2.1566914561882037,-2.676238158845479,-4.564443015186338,-3.9053457735076329,0.9222727266276497,-0.9147342321721629,0.6600868010708456,4.04441518160482,4.3397809647840079,-6.249735724638769,-5.3580719085769019,-6.074490056369662,-2.4481049063977236,2.3134002948000789,2.8427622757200554,2.670806569092638,-0.3384173798104853,3.970922022864578,2.3087199962714286,-2.3111516567885346,1.9686367614686285,2.4036560809760254,3.4945568468185685,-6.577291078150696,2.253480570672944,2.436172186116551,-3.699184099164767,-1.821070171856935,-2.5699981010362977,-2.372178097028167,3.2639547459116597,-2.7195860232835655,-1.2046764604442582,-1.6242287658051447,1.9215784332505673,1.6369756259206876,-4.590622140427644,1.4048729824402882,8.455264279689386,-2.77903837007334,0.8418771667123921,-5.250011347164031,4.250751696150183,-1.840998433980938,-1.4821588194903857,-2.212888922181088,-2.058531093819939,-1.3561338085102777,1.3987903724527054,0.7210748415784429,-5.016029576634859,-2.371743636993924,-2.249793898134047,-2.2327665040501456,7.72567189033162,0.7113900186214524,-6.196598863599336,-1.3495399090616583,-0.699326096605073,3.965002369300082,-2.1415026208864655,2.7506947181373855,0.596094571969016,6.7908050715643679,-8.027414998164092,3.5949404593845917,0.20709866472614395,-1.6626469875123367,-0.5480544361501323,-1.3886569516264405,-3.952470468735988,4.513217716705631,0.664186434443425,-1.8156740423241853,-4.630578195875169,-1.6637811646299057,4.618982923947838,0.3619119468717882,6.618236993839559,3.4019242572779677,1.996544715693796,2.4765480105862567,4.29478529217935,3.1370819435449386,0.9751214525153844,1.6893487123188896,3.359127001332723,0.22450179223841874,0.5060599999184752,1.2786908847998742,2.4308117806630027,-0.8591583183371672,1.6572944629599918,5.07786412070791,0.23701305365604906,-2.1869811543605226,3.6605079362854018,0.10408199947001937,0.09082191889732191,-6.924096064417622,-0.17089314173044488,4.9456133293542259,0.6774350129720704,-2.497294311832297,-1.8944748153506038,0.03988574405872928,-9.679454220774853,1.757531782063087,-2.858179945533755,4.2334230003814359,6.5922679511641129,-1.7736968325412555,-1.6084214198060876,2.5971685005852187,-5.02820584772023,-4.201485551987451,-4.912565018295856,-1.4092067653589183,-3.171999667089263,2.092713630534918,1.9199625244507446,-1.0488556200947346,-0.7156186237577465,1.1064806877954359,-4.888399930738487,-5.215202598339725,-1.2191284531567138,-4.001415906647763,1.1089420766326775,-0.8772618664263913,1.7940333304637338,1.3875989341184707,-3.728704266256801,-3.1654859591559445,0.8445482531099282,-0.47835168180389917,-0.8951629428265965,0.8161323444006937,-2.817756160235076,-3.295741292673735,-1.750136783741015,-4.599062187030978,-1.0504861189531807,-2.2076556954069739,-2.816870557144407,-4.755968575312918,-0.8323985839938624,-5.894055597243617,-0.8136872018429756,-4.310653067895553,-1.1989747513909007,-1.5913279646022157,-3.644096590567701,2.7244822062733835,-2.4470845793139825,0.875392323068287,1.8890646328194512,-0.19652278963704512,-3.1175502556479457,-0.44713889799752579,-6.819703715882562,-2.6718008750750359,1.0557649167664705,0.4078289851777725,0.5720942529085301,-5.77009746245893,0.779873641142497,0.05882451916016407,2.3929158753782668,-2.4982016019046799,-4.221048245186713,2.5862223159422705,-5.005126492234268,1.5564417141471525,1.3350232928077699,-1.1372665811609589,0.7026494526468308,-0.9796666293594288,-1.359677759467769,-0.5394314020314425,-2.6739558423416227,-2.65126053776525,-0.6598359619539925,-1.0785079547931354,-1.166688492312491,-1.1055662248495098,-2.8860126954873075,2.9197312581785788,-5.05787839346834,-3.805425487137394,-0.7952591069993125,-5.622508114495451,0.20410741774737299,2.700650438243557,-0.9281776052047055,0.08355854940898666,-0.3110013868739743,-0.0020839237093922696,0.835999592461787,-0.4624541599212426,-3.4299087487746706,1.0870337569696583,-1.0521640759178553,-1.4467900838800679,0.7599997378173571,-2.7218872648905294,-1.1466068521746918,-1.3521908613236407,0.9673646552985592,-5.460108291436215,1.1389862871141828,-5.856084360397091,0.5613258768016263,-1.8965148789366382,2.0510340556293165,-3.2237785479333844,-3.989379592870583,1.8658462442893383,-3.671356975085823,-4.243572686817224,-1.67674119158341,-0.6217439788972567,0.8960805851193918,-1.6442853811224019,-4.219015659351557,2.2761662370407276,-3.46524683132959,-4.558124588740737,-4.8770642051398129,-2.2063878625794035,-0.42145540742686796,0.1314496492980586,-1.0455695636965433,-1.5017650080136036,1.4207457114483242,-2.04749188542211,-0.1462731843928247,-6.9850990760461439,1.1402355697869667,3.1198284620949,0.4424268491583962,-0.6913676653979335,1.036506794086773,-8.061649855449325,-7.3892432442563609,3.174804022792185,0.5163563546699493,-2.2068097879978545,1.242738814108748,-1.0365355513437747,5.421921341842484,2.354414627319475,-5.666196789407597,-1.576157242036823,-4.218016508345145,3.1601972924517485,-4.996270758063481,-0.7394058619797347,-1.2601398444703763,2.607882759846955,-4.785672464494701,-1.8325094802794993,-1.6623165797563926,1.6071961535979374,-1.9687800898176,6.090282855886195,-0.3898339403876836,-1.2109600167852202,2.6974588996365118,2.27110943594554,-3.099010926297874,2.4963791659540828,0.04515666216784022,-5.617594267743391,-4.837505055515719,2.679559363452987,-2.10673350702182,-0.7162509625141984,-3.4580368269081487,-1.9337244832310286,0.39237442075445519,-7.610604144020761,3.2935827293452686,2.4465603566241675,1.92440439595505,2.447776207411012,1.6543098211259935,-2.356962466592996,1.770486081660262,2.48040941907081,-1.1028084868505957,-1.1898821550966828,2.9665953614849935,3.120993553174402,-2.3873023797021717,1.9084846639588567,4.0419658225644989,4.215036578990616,-1.4774602450706179,0.7064778863593046,1.0787853610774943,-2.612331353675765,2.4449450002459107,-3.1573777171217,-4.639741067927038,-4.7140489766179549,-6.378506040987042,-1.4837920424642933,-6.4274525344539239,2.5588941496169967,1.3253628139005376,3.6444063819794287,1.699676762310543,-1.4139287039143105,-4.070504018276096,-5.396023680069984,-1.208688296215838,-3.1301852346686158,-6.066644030394703,-5.9104816660728309,3.2129821706142547,-6.579568232962995,-1.0962839182958153,-7.593104644722788,-5.890857954169469,-0.48233969639462778,-0.4918877174504076,-0.7832985560757882,4.278475524584935,4.8614373994142439,-3.7628939789360338,-3.9711591318239014,-6.115422613811874,-4.838667703381231,-1.8872247650313288,-3.9488068060652945,-1.4797144775241789,-2.5396372217200096,2.250082132679748,-0.10045688609660428,-3.255486056924972,-2.0550783677095918,-4.31148849877757,3.1695059334069457,-1.1582502388402834,0.09084955374569265,1.4009276312297743,3.231820603672613,-0.42190424093215425,-1.9618159360461974,-0.8985356653369939,-0.9924808291076421,-9.213082188052626,0.1759286932191845,-1.542532941297245,-4.276624549058791,4.118966044716531,-2.9944772198795479,-2.050903979031581,-0.5013324311699425,-3.332710595990363,-2.081392687500049,4.171305339602409,-3.3617483976638389,-1.4916316757363484,0.24891044538392574,2.742201804322598,2.0554870445195796,-4.23651661071015,-5.938936763263331,-0.2689768099503684,1.001461643311846,4.368147439869072,2.8882739996625075,-4.215772420413674,2.640803617966608,1.5308670994573218,1.1421369617361279,-1.0034701790442696,-2.549037200930407,1.373423205718592,2.3310396723140847,-3.1867041677577276,0.42582398590052758,-1.5550942835260394,-0.9529400293636384,-0.8721663896003197,2.090805210895934,3.3914203903482837,-1.7608127715037932,1.138843656757702,2.8085300118326308,3.898272491191884,-2.2540215054008079,-2.9926459401734486,-3.6095436245579388,0.8948782762175114,0.1493818866856329,3.017754088310493,3.624292322791046,2.951579591982736,3.9321237713665715,-2.556245073618777,-2.1569333681986997,-0.8875331258301974,3.749945404483723,0.261952855063467,3.6168163863838238,-1.238711540761666,-0.21000296511647519,3.757135024858799,1.7679166505530766,0.2570817611819722,1.20895774728797,-0.16097256569104385,2.3253001401659558,2.2161684398523109,-2.0575952713667426,-1.1079769395587196,0.170179928882725,2.0665563722209856,2.263495177609238,-0.7390627888238496,-0.1826386059419055,-3.2886767526143885,-3.385043209189258,-3.611877589098562,2.535656781287779,-1.8088883170190744,-1.6621858416757745,0.7588659876041208,1.0006600095131287,-3.731208558793436,-3.957173428668216,-0.4689304152183135,-1.3375865851376823,1.6519024130487455,0.5444684114976461,-2.559604968869491,1.716444595869056,1.6650057909768817,1.6561267396745943,4.398451067660405,-0.2713769113978098,-1.75585324467445,-2.5831876930972106,2.055082060881191,0.7687526575713044,2.164294319578446,-1.5650529109026917,-0.5276731708083656,1.3364789795494599,3.526878517668846,-1.9630229355976657,1.5210548383639842,-0.3111325590220468,-1.7981427260082244,3.6994366399917735,2.246072614150505,1.365299227859762,2.275752494676597,3.3568307370998857,-0.5027806668490079,-0.6114290587119012,2.645434271761082,0.6556292646764426,3.1891854363381015,2.034687956287432,-0.3841005824943994,0.3534283629538116,1.5962535206966376,-0.14519503563800374,-2.829970562759339,-0.2782487480576757,0.7031503015042365,1.6417606297673564,-1.8076381147017775,-2.212297422965258,2.719009569534664,0.4078932573000652,-1.9330702497883497,-1.9521761922969346,-3.777120558646892,-2.622719563234623,0.1819376409945702,-3.0587549018617157,3.7420668930429614,-3.3373522132065038,-1.3103079222510657,2.6615948339308388,-3.996147680022305,2.298197056730572,3.9685352688065969,-2.8702306465700135,2.6247773123807986,1.5413139100555969,2.3891908240881376,2.312529599131417,-0.09070787753564777,2.5583478048254775,2.349429839214126,1.9293790562932796,-2.814957052043136,2.6842167451881466,-2.1625749743582656,3.5118462932598075,3.132534534297833,-2.1196570286180624,-0.24404649766895426,2.2022865014524175,3.2126001017441569,3.1155091758176005,-1.062998343120119,0.8409685094650071,-3.1655563319619586,1.8911305368082423,3.08721968693228,3.1304328055559837,-2.311773985462594,-2.45456054361624,-3.665232771723816,2.007644868751773,-1.7804005403413089,1.968107678551767,1.031809232644141,-2.58011681303095,1.034908308705521,-3.7590348834097995,0.17167894116227595,-0.5634145476964064,-2.681604983900634,0.39034430012987156,3.1334591639056934,-0.02483884440210177,-2.4424423882631407,2.7190934731182758,4.106541436998597,-0.6124176085941471,-0.08707997570393245,-2.477983589553861,2.401343624391816,2.810063733130358,-2.426403557428154,-1.7378682632728522,1.8593547006719007,0.5465405949819097,-2.2282053841275286,-1.596798096800121,-0.8412715774261533,3.3778176663403669,-2.947313315684484,3.002834331310531,-0.440431108047533,-1.365165841834005,0.08637458541060815,3.4700509362540639,-2.577751898629137,1.357725998435776,-3.4150172857617786,-3.133905377274655,-2.7369974354753729,1.8356589266501953,1.9132065950336955,1.9531375655539143,-2.1077967838535724,-0.07277617186847438,0.65473061561377,-3.510323828482937,2.090597255865028,3.5181086304468769,3.6068665746801797,4.266949975526575,3.2571244369520726,1.9403408645574465,2.8086276913413434,0.7117883805027732,-1.9363424129535685,-2.8710121958745176,3.7614086816350524,-2.8260906333874136,-0.8165374476527959,-3.0075837241712235,-3.2908634577599487,-0.3691639322849689,-3.8812223108865857,2.432568457591496,-2.1616705586001516,1.463165034325813,2.8074824019722808,-1.1876360938099278,-2.768822304294465,3.4206562413424699,-1.1056437303093643,-0.7998478197401395,0.12198893920518854,0.07290500661657137,0.12933529250850377,2.2041603213723834,-2.095558258155527,-0.9646180137156497,3.518295244479686,-0.39728927113025938,1.4804574839279734,-2.6855550538237078,1.1511592786639882,-3.527381720675694,-0.999245810784919,2.1340149631961387,1.2660537144373985,3.3219595608480616,2.1547842723568335,0.8534862541749403,-1.973644327409935,0.2550520562079052,-1.3678489229334459,1.6201973562788923,-1.8049006784063909,-1.9392381315697467,0.765676474483266,0.810157417241708,3.4034101712426909,-0.004542182342062111,-1.5390090956900946,-3.9332303706242315,-2.2386176922009719,0.4314427101277884,-1.1956742446597935,1.3912401322122235,0.36233583821526169,2.3267712864675018,2.0282002248342918,-2.1796320973160037,-0.19246087258295076,-1.4073356737862564,3.3613633738061945,2.7635107433991288,3.8285711118686995,2.773312267373746,1.8678087561049957,-0.8629929760075296,-0.10931621480006229,4.009540992138571,-1.3815101262934817,3.973141644545775,-2.3772095842339895,1.324711117825497,-3.2226848130206839,0.4638038289344763,-0.6437066378231411,-2.831444905915057,2.860592094588494,-0.2424558166523381,2.560860654275513,1.0052030712333218,-2.773379852480913,-2.2252649944549058,5.005278072299028,-2.4597825765259335,2.655478031368197,-4.119893845094537,-0.8513933382541165,4.234992752520725,-4.029041772628021,0.4334103369614498,-1.1093586802462639,1.2015769474587966,-3.54017692648789,-1.279416642280442,2.4076070831161129,1.4706589910868593,0.9008907352411817,1.6175537627010733,1.6258879183964535,1.7785219991890856,0.8323782623314501,1.6740454685114848,2.0443365641708066,1.001274576739641,-1.6817883970262738,2.0592588662760806,1.7061645677965974,-1.7228464975632239,-3.8625697843324424,3.1784761803914889,1.5780622785092049,1.4600885221129912,1.0581317344594659,-1.8406525019652099,-1.9614283507656672,-2.8902063470398229,0.5416246485716345,0.013898785698412584,-0.6902921790787063,0.8487759312661124,-2.797611381556371,-1.8416715224273852,3.519358749363252,0.1852206986015816,1.971844578731759,3.3975304988700136,-0.3721542480382911,-2.507028464882141,1.7023305195329013,0.5270278752028863,-1.7588492350767402,-1.065120239432011,0.1759474567232375,-0.13030215858169176,-2.748305373177731,-3.351547620725305,3.2629637108248348,-0.9672607099971438,0.07608078403880518,3.1083241748254877,-0.40999087385516627,0.6748299424255679,3.3108126707280007,2.5471864818757528,-1.549756565490675,2.34804503550281,1.1244707979532039,1.5984896693890989,0.7523820073514692,3.228076797117408,0.29785171363186926,-3.2104017007568705,1.13435455211886,1.2650493515617596,-1.4769045266106,-4.432959577237226,-0.23823090738832376,1.8018401535563403,4.781209432554893,-3.896357292397474,-2.3098953031905435,-0.9097851668612365,-3.8892312173560397,1.105215364787984,-2.1294070024238138,-3.6182555317649509,0.3355654738739816,1.9423936730431389,0.6588206652628053,-2.6526016850685067,-2.642599360214301,-2.6299128928028558,-3.859146988526684,2.19872576571876,1.306360815392891,0.3834037940807877,0.009671656778238116,-0.9112390835122669,2.8898621874291385,-2.531060280756069,1.8791843606389656,0.16451445580204908,-1.3273256815317283,4.085409412881672,2.609273466970849,3.279017469966597,1.3311999837328033,-1.3757393144360482,3.7762292601953546,-5.065450462586473,-0.11557935339081124,2.7178949483595535,0.5563841697508566,1.5936895398688687,5.192408273535267,-3.0588258757632436,-1.8704027696882244,-2.98196744146813,-5.439814226842214,1.0516764663810603,0.42299565701659178,5.111092612941526,-0.9380087858937277,1.4557663314233727,-3.083809427494183,0.16105747987328263,2.3777543171105117,2.3865061108223419,7.557395707512051,1.5078144382633292,-3.6925447932067096,-2.3450938766094366,-3.226285921534065,1.1777281258011124,2.2489808488974925,-0.7732046406908797,3.197953378728868,3.7686519914679494,-1.6272373711115056,-3.667491115933,1.4512381099546033,3.6837519472085766,-0.5978543603234147,1.5987691002477534,-2.257372546316882,2.219932954435075,3.5042445754090227,6.924670330310618,-4.963357238346689,1.1854506661058087,3.0177792174610436,3.615775734289497,-1.7202803402578502,-3.5275909770421678,-0.5874482821623193,-2.2150984811418596,-2.5521807752731076,-2.906768859159508,-4.171457628621505,-0.13033659417500444,1.0518359647412153,-0.6141734850363173,5.200557765017776,-2.2100730332902729,2.2218264735179464,4.249045605728443,1.5914749426790725,5.307030414410484,-5.955805666264138,-0.7334477081372326,5.493963942339725,-0.1223259438687971,2.067146781260502,-7.329276894022566,0.7574635819616726,3.0732639633937497,-6.805314080802948,3.1265337861775039,-1.9757943045337315,-0.23879343692768513,1.198747824578416,4.654699202164575,1.533674511079437,0.40032658908053267,-2.0187463048812526,-1.354723566408834,0.2461807643060274,-1.8972811486420563,-1.5294536068244676,-6.3169526337153469,2.031609406981036,-1.3263243974342137,1.3117264022834133,-0.700533493478704,0.07061487479026314,-1.820063860785416,3.1656703928309124,5.025252726123084,-3.210449123802708,-3.4681115028029629,-8.475436408763706,2.2414533008523995,2.005474631218535,-4.832909648125398,-2.3561809707541094,-0.038594183340372869,-1.208065884620093,-0.8709673528661603,-8.679079849689119,-0.6856777440400983,-2.389397760765816,-1.333304598497455,3.8269340136280136,-2.259571566549666,2.385268788166025,-0.7473929181033502,-0.9069931605418485,-1.359468611638327,-0.026038993739041465,2.652102849211278,-1.3984336626099086,0.6269340993140237,-0.8250558686753413,0.9661656082429723,0.8084380194074502,-2.738507536127046,3.4055408813711236,2.607937634859892,-0.35526246934971369,3.1662915379574185,4.301749129489618,-3.0413919838061167,1.964660766100974,2.003883911128041,-0.47131579237129225,-5.21226497986757,-2.042871710301246,5.004840759869436,2.2068715916577519,-2.7898163975637288,2.6655972477926834,-1.0521018893255086,-4.226443168901897,1.0821363936884328,-2.3822764564510154,2.9065818968984717,4.7993029701469729,1.0777605545781244,-1.3019959653943175,-1.555933266859068,1.7293229134580913,-2.6525358675558325,-4.572793457565777,2.400066915645673,-3.9966659725378368,-0.20050944003926828,-0.722113742433352,-2.7549525042863296,-2.737068294820197,-2.125941322418548,1.0254460555198804,-3.0148365204531308,2.3491823986111175,3.8009214852686314,0.5689734913150506,-5.011292298036253,1.9375524522649975,-3.221972933448048,3.381727218170496,1.2238952705733739,-1.6450597749041363,1.373525295768454,-0.7175204965281438,2.5910864455294839,4.734365281996658,4.10206079272124,-1.243636035310116,3.158128798679306,-1.4901193064393619,5.435253956757871,-2.688399248656119,-4.022285432265494,2.3926400244045329,0.14919589526974867,2.9538192859364855,4.048513145861581,-3.4211574015993575,-1.3743358357053773,-2.514655194061156,2.4353161542077554,2.3490275013783297,-5.222673154416257,3.3336563257487334,1.939719075169725,-2.8691087188599977,1.839276822393137,2.9252590026888325,-3.75061716537862,-3.6956460261104029,-0.3892017439766217,0.7202112798939455,-2.02725334510469,1.4478018137558698,-0.5857551000838353,2.5360083681439198,-2.7972123910220869,-0.6292224222501366,-1.1709908436053747,1.7623998647269704,1.437046537890856,1.1613507413744065,2.269290794664148,1.7761983587363875,4.717641996077985,-3.4312545360782629,-0.27580531216366946,-5.302859946754567,2.717687255967901,0.8689444677540446,-0.09212763745147468,1.1368827217895046,0.6461602145440138,-0.893957358758198,0.14020343788120799,-0.0995897570496717,2.996911468780603,4.101004836957192,0.7021883392328087,-1.3525592325458936,-2.4947031049502699,-4.295073407649604,-3.208363790822123,2.998164126160076,1.539404374761434,4.720321466933684,0.2458547925196997,2.813708620329838,-0.936353667441914,-3.4593709795035285,-0.5362458014168166,1.2790191067704036,2.2623797999332906,-1.0860094830739849,1.8438352965429224,3.4343290076390278,-3.4633964082162018,1.8662089883015303,1.5585576061700837,0.8976375576517499,-0.4901733031192022,-2.0177650578476578,4.742000142199346,-0.45841607027717787,4.027725223798772,-3.115496098678033,2.387441579255538,-1.0893885713653969,5.074965590554797,3.4806208387231174,0.8950885228764932,2.478185478294008,-0.06881631871185359,-1.6622443510741428,2.751342424706609,0.8496708651287881,-2.4435065847229135,-1.1130099311382836,-5.076039260244723,0.758655928008653,1.3141701276762717,-2.230117413005775,1.1239590327381984,-0.691892237296869,0.5271036907323095,-2.7564591695036837,2.7313964656035418,0.21433407719720988,-0.11528076089154219,1.1244332081928526,-3.4851946978396488,2.6994114958861497,-4.493971672052582,0.05951993376843011,-2.8687886729050167,2.7501234461984089,-2.905726906948587,-0.24745391786012337,4.058199059731418,2.1509084669203077,-2.793966555304152,-5.012923846281495,-3.100280144489869,-1.9180158820706768,1.9686280552961005,2.442083635567605,-1.0699085559300814,0.5985004343352758,0.8452701569997299,2.921157985901966,-0.7359596107841662,-0.19253101002298848,-2.7566548791574214,2.161118320569125,-3.3438166353566469,-1.1290084514044286,-0.03655472872925117,-4.718695205816449,-5.572364784369359,0.34020679810231549,-2.9386418436380987,2.793915927218186,-5.166072005525773,0.22431300094980789,1.6160126158393534,-3.1237666317728838,3.09218953363954,1.8885918955735926,2.457820539883595,0.434740178216527,0.6260849493651397,-1.1236900878422589,2.9276930789975879,0.11227746722681204,-4.58530698040112,4.038522234296274,-0.09146679008490359,-0.9950672444752744,1.9023357355197637,4.033819868080775,0.3130145480279854,-1.347423596549035,2.845678163008558,-1.9313101967300886,2.9526787859550907,-1.1023280650916006,1.0436536232725376,-2.528277231933304,-0.5732553496337022,0.16819677020656685,-4.111519075599899,-3.81927402255643,1.281789490449869,1.8219230276441874,-2.8455632144555547,0.6240785263072972,-3.4648917920118409,2.94467201975876,0.5470915993536166,0.04994028248557867,-1.8246940589866754,0.4001707933683383,-1.0234279521896388,-2.3399275523457909,-1.9127370667752524,-0.37127550547331009,0.24885531762073818,-1.1082169789834158,-5.650849808859773,-0.07996758902702345,-2.2981261180292305,0.7413409510513079,-3.5305186915915947,0.6621929153536463,-2.008358135956104,-2.843039555389733,0.5304466970596111,3.6527665196130885,-3.7406264516613696,-0.13052716990819999,1.5017339251767872,1.2987815216373687,-3.5186295144354009,-2.812898769710438,-3.1849881303212954,-2.482568330586167,-1.1459931220996496,-1.2213088494161498,-5.121207869700416,-1.2635832976521889,-0.24600226134735177,1.0883238642624669,1.9204670675803127,-0.10408436908566646,-3.4134506177285814,2.7616992860443907,-1.749830368325917,2.259080427301271,0.662919790820932,-1.90947769461084,-0.3461793225567765,-2.484459228853732,3.7244179230909029,5.05352829057217,-2.1657743167424114,-1.4173997649852633,0.9390798516159314,-3.6279600214175349,-0.22628160442573606,1.8661332841691563,-0.4958852743682378,-1.2351109280871,-3.5513479867806327,-4.184832850489709,2.103654159093331,1.7896810359200864,2.1830317897546078,2.023275271420841,3.526148351115009,2.0299875625083434,-0.7944765953050589,-0.6063784594493312,1.1281031212295909,4.351214681683655,1.200238194924067,0.7136940176432927,-2.0486645805326759,3.5619474711420997,-2.6208597267557747,-2.713484810948444,4.072757954164827,-2.32882518103066,1.952617281445451,-2.421974278902939,-3.088585568295087,-1.309706512977829,0.5722936160978335,-0.23231975434978845,1.3551021989142276,0.7445635482311857,2.5064521185876624,3.075213976314011,1.1234313605020435,3.515117356440551,-3.124801100025484,3.369304497094911,-0.20434449223332988,2.9045458419369618,-0.8305503790579158,2.0352238637612807,4.32825040659626,3.550511030473296,-1.4412834844557672,-2.547574297979426,-3.721492365013681,-3.79539403354587,-2.521233237018988,2.8730665431231734,1.9739665040580437,3.1120250940305809,-0.9199734338188331,3.791846717042636,4.382172656001204,-3.8527947171957046,-0.9580605613389416,-1.5492978268659692,0.5247538930923406,3.23315647339616,-1.8719675041179425,-2.008425035861988,1.697833077536926,0.8060976417621014,2.20137774222816,1.3687341067016459,3.4130211126733309,-1.2472506887162629,-0.24611455677129408,0.310158654809019,3.167564400432075,2.6870622023280958,-3.450416451906383,-0.05499421191784314,1.1761472615193947,4.436355594648786,1.5344800950750888,3.2554985923461055,-1.1917776317106655,3.300180740369332,-0.23566222115427033,1.2197982421080725,-3.583598438216773,-2.1566329397099466,-2.21446302249498,-0.10339237952281255,3.1507743559108207,-1.1985400968544578,0.1395910710764606,1.226373998628171,2.3003637489274015,2.6541138325464468,1.2933736944480617,0.6769122849260851,2.5437189590724844,2.8557809556691646,-2.641644336407511,-3.204426870202124,-0.48235248883405337,-1.9779439926205154,-2.049672284775818,1.9156311484807794,0.9475576042116599,3.3433622857005238,3.2702749602769045,2.230964350846929,1.5894232281534853,2.9358074657220678,-2.0310940748723307,1.062882086114144,0.9366971121599463,2.1863219514357419,-1.3036731581683554,-0.5819018869835408,-3.4542849914820006,-4.817175750148694,-2.0559797908312058,-2.547468797759778,2.1455526095914676,3.380245970390563,-0.19383094872924964,0.4978507241873167,0.642346148393537,-6.26754351886021,-7.765250491392883,3.6346236532429456,-0.206034011076114,-0.41593760447770808,-6.5353809052749149,3.0545113374050638,-2.417289367357024,-1.1254995106458024,-2.7948825213908288,-2.3503423829592897,-0.7102896518961752,0.890423090845034,1.3534084283637398,-2.989781216682999,-1.0290325058682053,3.1383489555338168,-1.3046625324807726,-1.0542462361374435,-8.861604925616696,-2.4918220156039867,2.256671216803888,-1.4023848014061662,-7.330440927378003,0.7356514236369148,-3.392944826047096,-1.314121220082754,-0.20918734611142007,0.7952878510038466,6.530136633823595,5.241757215433564,-0.10493498481068708,-1.524155695909776,1.135398724248538,-6.445165166349,-3.3663029624166178,-0.2000640361629356,2.1201699043746764,-9.259495608881429,-9.14066210092256,-8.658734409849421,-2.7702979977981987,-3.879967907279689,-7.920320091460339,0.19010149160129548,2.5038329408392756,-1.317469103397603,-2.606858462227274,-1.8648431201441347,-3.1042419966500356,-5.041585421231323,-2.2910187125466807,-8.121574689605052,-3.561327520143861,3.963406767388221,2.995265055165298,4.179245255775017,2.0853208317102447,1.2505069000699179,-2.451354676749808,-6.402313778212584,-0.243695202295897,-1.8716731340956548,3.553324860593644,8.14405256853433,3.26778445461613,-4.494203656861657,5.276039140727683,1.5081796598097257,-0.757091155194818,0.7432254624468535,1.6984064935788877,-9.094750461719546,-1.0234458219806316,2.73428466135683,0.5255107712164019,-4.67243993535096,-5.74539260787602,3.2420542476689446,-0.6595640372427442,3.9214502609484844,-1.302357831362511,2.204647242414485,-5.262782036488032,-1.3707555941736312,-5.407470494514671,-2.4010637689275229,0.9192230309491171,-8.66455957908916,-5.227174962536239,1.0081564470161342,-6.32059167530948,-1.374684764721711,0.7762697920123601,3.0370666602310916,6.007510918725847,1.7313893622121342,-6.452364017665058,-5.309701059169867,4.291616379046785,-3.4846203440269978,4.014797559630868,3.5119840181589105,-3.3664119492836419,5.877724320909941,5.070743721946082,-6.190461077342447,-1.9236563705301285,-4.758231090219667,2.336480449615699,6.450614933304245,-2.327414720586099,4.078186282646027,5.1065120760752908,5.478166819993691,-11.7568672040373,-5.157000821596733,-3.655495102997623,0.5646298846262102,-2.4314636509857436,1.8544213638461409,-1.153371616318914,-4.004519992787297,2.498714035413307,2.726147197362725,2.271988095250687,-2.0471842773051924,2.2930431420355195,3.608913787875471,0.5690030655770273,0.06002256916383292,-0.6901814942184329,2.682673028673226,3.904724207217919,2.836106260938613,1.231506166761061,0.10660683893881742,-2.0321034336271928,-1.7194248786443834,-0.4003350824897694,-3.066033254134162,-2.163017724313154,-3.104143732680992,-1.4023379633738445,2.205262965064761,2.147497154235884,-0.8194223685925665,-3.25935443373628,3.6032726077124859,2.3193594940303918,-1.9733038575712583,-4.002849974230976,-2.0173919469545837,-0.1338029956575881,-0.4329390603445917,0.8734929797189835,0.8151401547780017,2.78480535295523,-1.6907000670887818,3.2941483398880369,2.1047363016503235,-1.0823794854959004,-3.738529428351932,-0.9623387298120153,3.887082573469773,1.187708203639865,-1.3857988883034962,-3.9691358048983167,4.342355936707999,1.7584841429755705,1.3786900533567206,4.231087669011281,-2.1933167512690665,-3.7678000315266759,0.33417263069092775,-2.6872475207080037,0.673588789143539,-1.7026844998846059,-3.2062595167665406,-2.91044800204237,2.2712770607333194,2.7854924945531649,-2.407769988204542,3.5243404443036678,-4.027569429592534,-0.9957577459359382,2.7518481376116856,3.0570362058833298,2.8509366823273418,2.2985265220829835,2.5205591474368278,0.43712970240681178,-2.8527796897375135,-2.4620878208053718,3.636859161177598,2.939817417416538,-0.2854127298559928,2.3503377776714027,3.062300429358271,0.5132303254675552,-0.4519035999566464,-2.9945252049437305,-2.487166052343853,-1.7172888784185015,4.475533519961259,1.6212593158278388,1.780898494229251,-3.2206500045408474,-2.326151258481344,-2.2014250138829487,3.443160003567851,-3.676183132381996,3.263436908059805,-2.3072934691225268,0.1194895565762025,-1.7742590810977844,-0.1565038229339326,0.6840317231481379,-0.6365727999475229,2.021497181375299,-3.9156161547947625,-0.47649895551878637,-3.3987226989461369,-2.116368550626894,-4.151704879821074,-2.5141141172556367,1.6116965636755077,0.9436921785711324,-4.097389540091931,2.424603335159985,-2.430764726419635,-3.832088376101273,-3.0848738836786175,-2.3893954768178498,-1.805484432737863,-0.32204477208253837,1.1603645206657012,-2.8603934298013264,-0.5562472200795171,1.859891660960128,3.3729648493688528,-0.6082402012989009,-1.8553680749359903,2.4857189029373716,4.051241838142644,-0.24820767713533238,0.9044500863606678,-2.6547251336462924,-1.5214053146301033,2.5548626128652387,0.09236148941035906,2.0796878093431117,1.3693045696484499,0.3575461904734263,-5.2763595337660968,-0.27657862300570137,3.739109683656062,-1.4602235738168013,1.1530344197479945,0.4063901699629123,2.247273326181909,-2.9943277572904676,-4.354913267739118,3.2848841964797925,2.6021350796561326,1.40154823090628,-2.752939206450053,1.500132769911179,4.137708552615847,-0.468118684993652,0.550890555070985,5.265108091655471,-2.2184609584632026,-0.7275953523607155,3.279650884890571,-1.123175644565432,1.2166650507622155,-3.5444260406675585,1.3211449190740195,-2.6046848131002986,3.730840314560606,1.782160923897104,-2.3462280536166686,-2.9140901501663625,-2.0287469903578527,1.0104118844093347,0.9050156498920794,-3.1444262097617865,-0.6758728449425966,0.19721707199525227,-4.028828767149541,-0.2429716674593126,6.147617064138808,-1.897888904751559,0.3807465502309284,-0.8946656823160822,2.199097722097735,2.1040433783203258,3.341481303296843,-0.05188485953455159,1.489699146056012,0.4782998192728239,0.22142268473229557,0.3509408119202921,-0.9337923103632344,3.1958843544531807,0.4855009901626547,-5.59238903511786,1.3916251653351107,-3.754731868073323,2.2920276982014897,-5.317528874316343,-0.8052695190580064,2.2945121222584667,-1.6873229067526099,2.321343879106805,0.9516419887641886,1.5851970813142713,2.3748368250762859,-1.3345761227319287,0.37177175812048959,-3.8303322773792938,-3.259740378779639,0.2416051697658164,-2.8692640979892496,-0.5622733206624279,0.8862377865181882,-0.497803854568972,2.418114476228441,-3.5930967622998599,2.2449847336681265,-1.9819610998026274,-0.3498509915879137,2.804878513844433,0.6412583480430002,-3.1830986493898818,-2.4043671249762048,3.3370879915516529,2.0723101057207256,-2.53573531490197,-2.0329494711011115,2.8422890286970765,-0.6589817101155664,-1.317765690025026,0.5157692280189614,-5.0222681177928119,-5.816688441308691,-2.2223564619751796,2.26664620872695,3.228993752738708,-2.200521543136631,3.5648076175425325,1.001912471971038,-2.1144738266671765,-1.2639669897744379,2.223356178291322,0.12875802391497297,-1.1827239442987239,-3.5159584103502929,3.231698637562982,-1.5018171796006684,2.1322203980522476,-0.09653652224911494,-1.0613743434950427,-0.733129671610852,-2.935091511664662,-2.420606482138351,2.391760506379084,2.428818024003817,2.3236265820820178,-3.058426406144428,4.094196661413635,-2.1834926372998626,0.024991507711954597,-0.2816228399735711,0.40391737138631819,-0.26993970127645808,0.08461507232307177,2.1402555965970997,-0.47947072623925326,-1.4421545622613093,2.780306248809259,-0.47384614595816418,3.882608486884009,-2.9536744093051494,1.282336507560964,0.49708463412812706,0.027804722275214409,-1.1485193534291308,-1.6564628998152454,-1.3377650950301077,-1.379402262824781,-2.591997848870536,-2.878644940064798,1.9238819354530992,-1.542748377996142,1.9895537747116384,0.8361054427123351,0.2923889767508628,-1.6010362015576257,-0.19986391836324506,3.8728968307902145,1.5901538668109375,2.131895325988919,-1.5850313550337596,0.8201981725225617,1.101845666940291,2.8037847578457169,3.604254822141338,-2.4212771988724715,3.1086927817788849,-1.5549278927521702,-1.8276125000954029,0.9699866542257504,-0.07259943446827394,-3.2257842911466505,-3.4697047475871329,1.1249618581428056,1.525158836158131,-0.3756474229173451,1.853122024401917,1.2423710801375028,-2.436153268074186,0.9733787913021135,0.6696529182538096,-3.8702141128877667,-0.9825574438030407,1.650237458971657,3.140936839250409,2.4908561479399649,-0.42990584302409048,-0.15800752051215495,0.8448298938301052,-0.5594508099880351,-3.3704997625117678,-1.2809980545866962,4.556647925187858,-0.9304313257284654,2.0619854961528234,0.7309041403724549,0.6254355188801407,0.7909856581654998,-4.85065067048132,1.5168184824811173,2.1171187404108027,0.07113868688998589,-0.5928884146350868,1.0523541563247734,-3.355539448994555,3.807035721115627,-1.3065930843062735,3.832040168500983,-3.2417442055269176,3.6666739822673226,1.0150157118083714,2.3548175114902984,-1.7073588450401239,-3.591356054881414,-1.9882128493798744,0.053780154450236958,2.812115822905761,4.385735836284696,3.5785166496820248,-3.5925395876432257,1.2870455518877336,-0.7250247775992997,-1.8170165458655364,0.6594549560861445,0.20099158479939273,0.46280781932385348,-3.650112604763528,0.9330214289591906,2.9772161144376536,0.9119669883331393,1.0429968708345643,2.030914633544852,-2.3946551632420869,-0.965674770456005,0.6704122622030612,2.979564118828255,-0.7582144812474386,1.904042643902695,2.2124715675194377,-1.939398785542812,-0.6784293991414883,0.6516017126274789,3.0908759627918176,0.3659949238436088,-2.465053116659763,0.08426957011992514,0.013602015861769422,-0.11867860106264011,0.7652177737300953,-1.7344591840773099,-0.6247515889491474,-0.6258542148145895,1.2761167681704165,-3.5218036039840787,-1.5074902183058432,2.3157168210743839,-1.1599672250804243,-0.9370876466736126,-3.3840291601571135,-0.5336668560046508,1.238809545980458,0.5127684903354528,-5.452196204230779,-11.624731616662958,1.754695252598091,-4.271696163816541,0.3048794630087697,2.722528475972898,-7.9052707995924929,-1.172520758848258,-0.6264680065653109,-0.5756230046955326,-2.977841636345527,4.1766820784933149,6.354564244733785,-2.4083269359116934,-8.558114952263195,-8.564898790849778,-11.526054903238875,-10.589625961786047,-5.903624783973996,-5.001675125525599,-4.121514301686588,-6.838664283245745,0.330080046987933,-11.170697787476389,-3.4126130634153037,2.2866556431787257,-5.248376092838992,-5.00935755457415,1.7855260866965386,0.3480882546507624,-8.938330518466798,-7.152804677631558,2.529588008831768,-6.540335394124995,-9.094930221885106,0.20954457585216564,-6.539406423557037,-7.479751552575719,-10.473828575613612,-3.512580412500656,4.3657136421434539,3.4204685985995737,-2.635622463192481,-2.4922348536717719,-6.417058266725149,5.231816260267823,3.1133447105730878,4.52543307918741,-3.8669482300589008,-0.6967297102929569,-3.9986317076586315,-0.6743052092167238,4.020416716051346,-1.4815002236443083,-3.0381283792117008,4.312191749000042,-2.1773751712949598,-3.784385127166246,7.256256709063472,1.712926283201905,-7.224279116414869,-2.225774511080532,-5.297331636900121,-0.5488427904112913,-0.26079221242607616,-3.9853609282236457,-3.5202916849006127,-4.164591294716214,1.3006316080607,2.6061421039271566,-9.715055113445916,-5.907608990749902,-2.455509675237461,-2.8248548305400584,-3.879225199542962,0.38738531415336099,-0.18320689474815952,3.1935866642931716,3.2887392722066615,1.4354290674028383,-5.629756721668038,-3.1139095250857835,-8.885639876052553,-7.37507231613139,-8.578277393619797,-3.0737383142109566,-0.6535619628254771,-4.152373430664053,-1.37886852750879,1.4386284708991684,-3.8126501567395629,-12.655336900191588,0.8423485205495127,3.5642860868926857,2.1351576942220764,4.722643951857842,-0.19659651239106686,-2.6593491419942687,-9.238944048549655,-8.306516380868644,-7.685611269295477,-9.717014789630444,-3.479025838635067,0.7368123193192824,1.6610128486789018,-1.5362122440914715,-7.850619497615552,0.21806827567812077,-0.5743056207432539,-2.0703256784825969,-7.963838892953994,-13.786802340186885,-1.967090026718643,-1.9657402885783489,-1.6856024910134747,-5.305819964438696,-1.0970216227907879,-4.845929873410707,-2.0347761151516736,-4.703598777852678,-0.1305633780462531,-3.4041393662753327,-2.973457042772437,-2.5139931556497085,-0.1645642705921849,1.3186084114899155,0.4552053578885474,-5.770683590769752,-7.6109492555304298,1.074418795713628,0.9354258999179179,-3.587744761353446,0.15625818233179759,-2.559168984946316,-4.036878485564844,-0.6432410576751069,-2.305127323416787,2.4281884815460774,-5.502275297557157,-3.8054971877367178,-0.7467706512037731,-0.7424554195818083,-3.1161713933907646,-4.581956577490823,-2.160677455281585,-3.6571359287588995,-3.6554912347169257,-0.5034263555460433,0.7715333102733941,-4.924265922207421,-1.5796182018261969,2.423249706032679,-4.702615154712416,0.9919038185976413,-3.2929634707605914,-3.981294153526202,0.36584862281279459,-5.192641710094482,0.33607308810288397,1.3802279135263247,-2.016478758772461,-0.9445048799472087,-1.0369112386954627,-1.3966408219369462,-3.2933368600217487,-4.080182561714392,-1.764606347087378,-1.0531139491438455,1.2025782519095292,-4.2993350906494289,-1.1676725599882914,-2.611673454653573,-6.638787408122759,-2.0255870586663686,-1.088818631441236,-1.48366147959829,-4.292734780718753,-4.484134994631522,-4.096078890975886,1.6631944387916915,-3.229890539422135,-3.8474964042986805,1.4986049518965479,1.8075793263987324,0.6421796110616603,-3.9703636883607356,-1.038792639143756,-2.245356137128703,-1.5990970130781408,2.0724462829735299,-6.050011036309397,-3.206259256482872,-3.9867699388529296,-1.352244062778682,-6.302193846534718,0.44971819880527666,-3.5522755692196168,-1.3769344965835673,-4.369689133580856,-6.266695336924594,-4.168073432971413,-4.319535925112739,-4.567831620167027,-4.847570377651364,1.1254318471823335,0.2115672405789963,-3.9200774536165539,0.6706967376027329,-0.5418740914459777,-4.910654179183492,-3.9035295766167197,2.419958498795599,-0.987864708091763,-4.847639900922717,-3.651175935645201,-6.739348330631189,-2.4336308410367697,-5.474729953755395,0.05958624486598814,-2.5253736613778234,-0.5566545599724879,-4.798990739164173,-0.32249440109135438,0.7628011263747185,-0.5233879996237498,0.7309839708784843,-4.814181796821073,-3.608857994544608,0.3274749846111649,-3.9865090251396464,0.9651791901490053,-3.8517564439162768,-1.53266249358427,0.8618018283484551,-6.8486501330188249,0.2205813959484012,-3.263120509846865,-0.347744993717696,-1.1114455941146986,-0.39146815686202665,-4.93773129176593,-1.3945739140365248,-5.493064454509443,0.2585395171548257,-5.5840729052417379,2.617182433307255,-2.5016005331796675,-0.7817856886733143,-1.5384840729099878,-2.0182527177956834,0.4351081512239901,3.591165090678707,-3.7951971652444045,-2.9286549703027227,3.721981410720718,3.143249390586729,-3.355362499876273,-0.23376900148769606,3.094495460127915,-0.1494044903375924,0.2638923414915215,-2.2437971471762379,2.5514022049467406,-2.8542559255643087,2.82211402419111,-1.1820206411326362,-1.2395352500973647,-3.2751775738615507,3.9820812917235206,-1.0211774149909668,0.8477994005688475,-1.8423366805589099,-3.0031794040973445,-2.6328832555857999,-2.6184386604251075,-3.0282992910645789,0.07545723615774897,3.157441885790058,1.5247523791052707,0.3207464168857725,1.1129844598083115,2.585796095549193,2.9577388782847846,1.7888993240176273,0.9152962894192904,0.9046195270521038,3.7889503840973037,2.6325620420506619,-2.3212996911252099,-1.382824092482943,1.6684997794028965,-2.8956039797533497,-2.3436710187123608,2.3727013582771865,-2.496420870789055,0.6520780848759796,1.4491109878284514,-1.0625112336323324,2.900211344558371,0.425400139668562,-3.736946435982551,0.5650789116860001,3.6479958471049556,2.90423932501299,-0.8797193993976131,3.7089546486357776,2.359958844753174,-1.1954791224773949,1.9814765197173379,1.2520924410722279,1.5096856537337163,0.5342583900318801,1.3504829446304505,-3.541856584451349,3.6815428849261448,-1.102123001207725,-0.3291145136302656,2.414465574415944,1.9796011658220936,-2.733633481351776,-0.8469532838509548,2.7255240534391755,2.9547662951629216,1.4212951427827623,2.7896568337075409,-1.1097219268038324,-2.6179386928480419,3.058319156547477,0.2510455835135426,-1.1323575998255167,-3.74060057600278,-1.1711702250854528,3.5904295378685529,1.4253844336635624,-0.15099929993641604,4.304894515317898,-0.8803808105064315,-0.24183882768062468,-4.1661444558898419,1.662433489538222,-2.801010208939664,0.37305799531760278,4.018766785238533,1.3397216638523604,2.525990714214272,-1.1926705096907174,2.4176840209206258,-1.6308334934781297,1.0680765753379258,-1.0115986705488043,-1.9204210957969497,1.1822654328891463,3.6345659707743747,-2.057348619072258,-1.3188998273340722,-1.929940017971864,1.728372797608976,-2.4836972357104249,3.0998783993218317,3.609745203917995,-2.6756407094919116,-1.9931159008019928,-3.745484698370092,2.766332620123372,1.3386870592896443,0.2196003096896649,3.8866949956941676,-3.3917638863937018,-2.7796020681814328,2.7465593887416719,1.1125706285120317,-1.6623550979231639,-2.548848951948784,-3.268797052163434,2.741499182343374,-0.000694080729014689,1.5325774477271919,-2.855714865770545,-2.1252317873529025,0.6210115652490968,-3.5178143020103844,2.7591852846298008,2.4762905525512806,-2.517656181722285,-8.852293561196257,-4.415789218753114,-1.7556943289025362,-6.661511036052893,7.163226135061445,0.044709917284519177,3.309613118985449,5.065859552485107,1.1971807885466515,-4.096885106769415,0.8321027089761138,-2.7227176006200897,0.27375447367403196,-0.42100293620946596,-3.0012943046654314,-6.236376932940688,-6.141186730529921,-7.579713580382045,-2.223429294455072,0.6681649484421042,-4.655689586212862,-1.1504479272971775,-0.36789140753187796,-2.712163481786938,0.9263343049599192,0.7930575000441251,-9.479157542003499,-0.5011106957080806,0.24024220391841825,1.6556521853959768,-8.519346227885937,-0.22566106730494812,2.8190812433955938,-8.18399161864918,-5.462660875727649,-0.7936303148375751,-4.02291956034862,-1.5437981954310985,-2.1718374436843219,0.44587232287514247,2.102554058709656,-0.14369332446375297,-6.8815444442958209,-3.2326754767342,-6.630908833571168,4.1677921861753879,2.84637466160293,-1.7479874637269002,2.7058091910246579,-0.43002397603896067,-2.1399231372156879,-0.06172200111562964,-1.4096365022147777,0.44794254023074589,-4.70277251407292,1.4524843838373709,-2.074421119124308,-1.9548507868283296,2.622883207094786,-0.5632155806141692,-4.617381340963693,-3.2429064908601825,-8.085096022384626,3.7113050692500404,2.2795740313641077,-9.867121498505432,0.07068300958235957,-3.7352159373690227,-0.4094247587933664,1.089291181810966,-7.067187849559825,-6.050464939944688,3.0671452087997008,1.490987299293104,-3.42642925798573,-7.113907292536079,2.5887994139120229,2.2313781718873169,0.3640008477218367,-3.0085260612877717,-1.8463660478669624,2.8455374338403565,-9.564608293399404,-7.111106836958994,-9.565649826836277,-0.17664904798865825,-2.1212734382044076,-3.515748498710719,-3.4762783150732878,-2.7061290993927837,-1.5689080413549437,-12.660509977183997,-2.4145261820155246,1.779800859856797,1.0571666840462247,1.1257187205708533,2.357085666432558,-3.0709257229874695,-4.185361771116399,-2.7871710780155896,-4.897384040785044,-6.724572961148165,2.8742374352903208,-1.631957796050197,-0.5201422614730564,-5.066971702681064,-0.5646573706843784,2.2830888387810215,-5.15850748833489,3.3243779176773029,-5.005535849117561,-4.902029195689961,-1.2798632637033359,-2.273734824102392,0.5654807178010493,-4.926341758283932,5.141660059016689,1.0064260980000575,-4.159684277690845,-3.1506014265977,-1.2569193571687314,-3.3263180956569555,-3.3952524736371547,-6.404759899212189,2.137872978708363,-4.861342089021615,2.9817301141230185,3.281858143585315,2.9324379087161365,0.8280402845681639,-2.401622463671004,0.038343621922763877,-3.994086453549628,-3.7682142124584145,-2.346843603654241,-2.752195894853811,-2.335058824468436,-3.2067285713641269,0.6204143695837812,-1.4951852355269722,-1.1462309853590945,-2.497479929165303,4.627262337834449,0.5760788026786153,-0.4832038685897825,-0.8702784911237562,-2.0362417969164419,1.931453628312259,-3.6029281895502005,4.015278988795205,-2.561706115895203,-0.08217287457598237,-3.184144195927717,-2.8104708757825396,1.9003083924275346,-2.896780561711947,1.927146141636926,0.6449599496483994,-1.2310367181424256,-4.230477174840269,-3.3514012339848455,-2.0663088761578916,3.723852712224958,-4.368592742114328,0.04710880358958767,0.699148101799576,2.671009481600834,-3.3158585483088105,-0.8536092215982021,-2.3197589671414087,1.694529515058359,2.8571997432451288,3.9544210740491958,-1.9615023688878286,-2.554713172096284,-3.735984242651527,2.9959998211133818,-3.5914455818866619,-2.8954159583385965,0.9158040468757666,1.1138426726956546,3.2288156479036718,2.679672200028729,-4.219370154320905,-2.4620039973617198,-4.322551647373336,-4.495380842223577,-2.52318405259976,3.3836403199536,-2.901943952413613,1.3542980471123594,2.142621463846543,-3.636447786716445,1.8623846328938994,1.9551546680919217,-1.7736584729660126,-2.947593025676829,-3.6512674915524938,-3.13966557648311,3.67906199393146,-1.268447636756699,2.5495711463670278,-2.699409252229356,3.4857190437438976,1.834590523055366,-2.787882934059069,2.9104589953665109,1.375401156445811,1.1162589268215178,-1.8800368364362435,-2.3674211099069288,-2.180749182110155,2.622697868224527,2.134811212805904,-1.5161954933067668,-0.4133530238598847,-4.804037968591908,-1.768260026863644,0.9170672273600719,4.098276494203774,2.80610631040642,-1.4209137153236065,0.26900986367213156,0.003800512152584863,0.2657913884235754,-1.9270551786658055,-2.0883581875838947,2.8059386403620136,-0.34569887124614548,-2.413397326319684,-3.732086477301342,2.4490304635434398,-3.922268590116227,1.3791662850939913,2.6857621408769214,2.3626936930056807,-3.1459004341888767,2.6230317252804848,3.769025519974454,0.7945361339302641,1.5888048375854043,-1.8407672710507158,2.035786442563844,-1.2811664470243707,0.4485656164857803,-0.7998249736595559,2.8560137936501128,3.4788597004066386,2.3025483806136766,2.7659111302503649,0.9197461505703192,0.40952922139213729,0.28749140012502,-1.1215786570231239,1.2156707888784993,3.4356491663344514,3.1179040060320437,-0.5297849934303404,-1.0447522003578534,0.5956769892368213,1.3704774243006697,2.0993630052726597,0.20790690147111416,2.777314607582775,-1.6505462832630178,-3.67417893266453,-4.191876528343946,0.506886867215682,1.3678901350741795,2.448558376118281,-2.978641099582959,4.21504390992059,1.5624013009074316,1.0143058440762352,2.1948161390901395,3.65098712697194,-2.309681051326444,1.6591383902865503,0.8524529285286007,-2.2187618017802115,2.7981911378187047,3.3257083448853947,-1.2637310543028884,-1.319960807997393,3.436779132549795,3.128863250099566,-1.703739702653259,-0.11704855906513104,1.3329433979784895,-1.318187507213286,-1.8114761794254802,2.4197037540197838,-0.6848144541992901,-2.3551885278200355,2.7515202918354677,2.840710258968061,2.2606733252068049,1.5556893771419507,2.437507098165329,0.7397333584500564,1.5643580303775167,1.4853439093135162,2.330944108850634,-1.4626340538756897,1.8358082603225783,3.7026915035484158,2.71941272664725,1.4211904698965179,-0.12360293071995356,4.194021987604893,-2.624375178943299,1.66406849924318,2.5480970654861156,-1.8037194308496246,-1.665499523799194,-2.8608387053256685,2.8025434703246385,-0.3707417383781824,-1.465695147142331,-2.4454674605073229,2.878830745074099,-3.227984555843661,-2.540166335440018,-4.100117353466695,-2.4745268671950169,3.3669151022948879,-2.731926255784733,-1.1549468914688089,1.5797171080047834,-3.1109078462013408,0.09065907046069118,-2.7868264834550615,3.6032190167313145,-3.207101947509638,2.64170201070536,1.0121218510451698,2.989853540792156,-1.1729787874489884,-0.5465122507068906,-3.440791404594548,0.569461200005413,3.956603115161692,3.4491479377540137,-0.43464224602352327,2.980691678538724,-0.18418554533081245,-0.9781085164431275,0.7193766638718904,-2.5756502843448039,0.45068697033147905,-3.4792401848309004,-3.4902087842353288,1.5772313881486467,2.1121754057333006,-1.900922624053066,1.2024175688221326,-1.9799891191650914,0.25309744988535018,2.4794829124366739,3.68720503929333,-3.0767497278655875,-1.0796659622248002,0.14742981110815146,-1.5140542748964326,1.9017946971657294,1.6004249403543598,3.1648767447761076,-1.9074811300563517,-1.4073094386579479,1.1198004560327022,-3.1041272814049627,1.3591240395078855,-1.2178141870331834,-3.2655441683471655,0.48604306349313355,0.5365877959170362,2.5586068610194028,2.2253503442643955,-3.8448160354302405,2.89037945989091,-1.0383950484069018,0.6581906474505986,2.0392149017422924,-3.4403807117568707,2.234162099039001,3.4709088161864658,-0.9962709141710412,4.514972569231223,0.1371647540272441,2.2187695978428625,1.5828840279373915,2.5046284616587539,0.9821693225095874,-0.6167198761350908,2.5108912102668214,3.1042786515125995,-3.1580837636089158,0.3490968897327431,-0.8584176223906014,-2.551764025766894,-1.2891529550943233,-1.7703819888496988,3.6237209046391087,3.743755487269558,3.4786938521539825,2.550021537941531,0.07192438763777276,-3.6292640366279449,-2.22034290824628,2.9137199014033325,-0.5666301261883666,1.1203061989188246,-2.7919695283711265,0.7141493907547705,-3.620298588389989,1.0804820395055328,-2.4387737892539116,-0.30315031254653859,3.99275861616206,3.967114760118701,-3.3320688573104797,-0.6654120425448308,1.0015043601840168,2.9935187251384138,3.4608971106810495,4.035200309662073,1.2228875376041984,-0.7798731990170145,-1.0870624126250144,0.9164604343921423,-2.0247148584897807,1.5225985680132819,-0.3663134116848876,2.603607999353777,-1.7275836186354095,-3.065706304643722,-3.4002663523541059,-0.2879465584873317,-2.6330460929144374,-0.8723780598690506,1.6944313320986356,3.475790341701654,-1.476891739040225,3.2355655376773426,-3.089000642116626,2.3359332698295964,1.5713731881540088,-3.3677679621834417,1.2221077903189724,-2.9776274395340618,-0.8800525387977118,-2.479692165053581,3.914574376342992,-3.447483866196793,-1.1765669378464124,-0.8101031162775524,2.017046661018019,-3.0665827184089307,-3.4267308486985534,-0.555568580760994,0.8591541644633011,2.883137331966704,1.36255986153687,1.6375251897697805,-1.326979441174061,-1.2751474215147663,3.220320752956193,3.3527022183985419,3.9148757875625335,3.6622099524097568,-1.2002197088585434,1.1828243981835776,1.0338571933050816,1.9198718207812516,0.800898268261482,3.314009309689197,2.5579164389715656,2.750562045220719,1.7002567269253073,3.3995472881890116,-2.4023877067518826,-2.884183292083152,-2.8849797914715356,3.109915614016577,-2.10208873831352,0.15229572891318214,1.3753118335630575,-2.425474322803498,1.3720739568421028,3.17320697672139,1.5817793711124953,1.381101450465364,-1.8409476106526777,-3.310497185040181,0.8699621865146916,-0.3588429865479258,-1.1700131081689096,0.6445254867021509,-0.3268084199220311,-0.7627025993211873,4.1484084565200229,-3.4895338482399977,2.7117581659710758,-0.09082699812719462,-1.5156412067141048,-2.488526597680863,2.0850013168263636,-0.7454230653358865,-3.003017099655993,3.532502440476516,0.3565750337849172,-0.32680085229852048,0.528030717615163,4.110191199723019,2.1419336479176644,-1.9873826910085076,2.6055307453437717,2.906584285197021,2.1257230321949556,1.496721460173535,-0.23603670922224763,1.4274641018305426,3.675661948480904,3.7538854727456445,-3.639063073155945,-2.999704781862695,-1.0729119237075058,-0.26783876578707929,-2.6824287496602148,-1.273174415672021,-2.1213134532315385,-1.2000546560312158,-2.8886068039360706,-2.490158080735125,0.8152255583124506,1.8663301151042744,-0.5437543967973246,1.3836644543176567,0.9101098492875662,1.2412057789484763,-4.616164453205053,2.726282747404499,0.9768236701226024,-3.455175870746436,0.9203973103589972,-2.504293598494068,1.0120635822834395,-0.550970908218707,0.13681921538017934,-0.46578540013814059,0.4842925100713111,1.9369591877939945,0.30360154859592367,0.8182001458434847,2.6487954129291486,0.7044770638870958,-1.9243356592882142,-3.8604418359950598,-1.6837420906646548,3.4849782447271604,2.439861036452223,-4.991776390149371,0.15989388104820699,-0.7646189434424905,-3.3949280884048704,-5.818548320102401,-3.6431866258439657,-0.5004691482583119,2.10653247968113,-4.368010165735027,-6.895625896514949,-0.1693360490370651,3.2993889148281858,-1.6766506087286389,2.3699877047333546,-0.22623217195498608,3.928615534895433,3.0384837688718595,1.501717306277421,3.007508348851825,2.008388641975634,-3.972510365965423,-2.8613149147445866,1.2854924180601793,-1.1792396741525653,3.2073376977114598,-5.777467108479973,3.2880371234234024,1.5091775683521503,0.055295055173759388,0.5324445262715625,4.644825506027918,1.9383601496599435,-2.209670145160941,1.4053163365557895,1.053114129372398,1.076494680021107,1.8613459434959725,-1.6151103307766637,-1.8003379032520138,3.1279135097877215,1.6835895915351662,-1.279076141626602,1.5301109715443067,2.2575836275175908,2.850734623684751,-0.64917903509802,-2.222704795085506,-2.1942019211748127,-2.8803469048682457,0.5119066488795881,-0.07243319455859439,0.834752519460844,2.819976338361506,3.324129613225403,-2.421686368974549,-3.6552189810401476,0.9350875539077118,0.4147193755536865,0.008632026650517329,0.6670895985776935,-4.174844420380811,4.1669228064801289,-0.9106358955764309,-3.8103569127045304,-1.0913163399699076,-1.903071704254909,0.8041356384959316,-0.8930319437573767,1.9722599465389353,-2.4974502476406865,-2.64345816744024,-1.311917917606204,2.991791949207382,0.8825604277756768,-4.198960043304057,1.0734781663577287,0.38831307458462008,1.4116458256972747,-2.554045696434905,6.217479965075505,4.055993127406074,-0.8697124024022233,-2.6184000911463589,-5.13619157154929,-0.007904256813440715,0.35659982502798606,1.4454839913306588,-4.015010139969332,3.846745217117653,-4.492137821325394,-0.609814907899291,3.369317808396224,1.6108422228607,-1.6789249010167247,-3.0799092373827685,-2.247178315140412,0.9407275773461171,-0.5784137641389141,-4.095364756172045,0.6717183589341309,2.5507853363596384,4.666184503141308,-0.7400047621256496,2.3146378931817845,0.9721906635383748,4.460140259738673,4.675131107482916,