[-0.03324113847155386,0.3887319328689138,2.481355438160453,-3.510719393148197,-0.9829465562305,4.6921600115148529,-5.62427633806629,3.4168109829156707,-0.3856240430712532,-1.7943418092338775,-4.215480657988386,5.208774114307813,1.828585440679746,-2.013939983519697,-1.519351749646929,-0.6539844439986632,-1.071606102876754,-0.0599269304562524,-1.3960573339445733,-4.612328174374905,-1.9356505800120015,3.625500082010698,-1.0710415782851335,-0.31191371356190886,-1.5663090229300339,-5.218259314302457,-5.461979459166179,2.197746200364146,7.098966196314265,3.852560465306082,2.81587836528229,0.6453642308934625,-0.31220332059005809,3.3352387684838926,-4.261451927296109,-2.515227917532612,-3.19715118310379,4.0876219560057909,-3.1740514129817498,-4.633101699515793,-2.882755325797762,-3.081356042078124,2.483180433887985,5.522889285751023,-2.300184349591717,2.1690132967971018,0.08592677989151183,-0.9302285764636022,-2.9188046946376859,1.0816224344708406,-6.465260542708712,1.3906167180229317,0.574112879288108,-1.656979258713553,4.445838516591987,-6.897535140983836,-4.683666447816382,1.5072997653913214,-1.206336088195079,-1.4254958319937199,-2.6754496654986905,1.8834038168923098,5.06571248951743,-5.601140160592053,-4.648642026049823,2.1770428887224324,-2.300321920818363,-2.8550922305863697,0.6157483553482333,-0.009688220997438916,2.1387567593381169,2.1723663446967755,-2.277497938519878,0.14185592304015508,1.514025689519278,2.365849221631506,-2.428905017771655,7.304577704270248,-6.448760819479603,-1.766572671997028,1.3113349631826164,2.7391120603206149,4.2750645865535,-2.700632382100587,-4.300039101568975,-1.2686664894224385,-1.0079033765152655,2.798530559576904,-2.311729622517981,-0.6698079138917695,4.52792939030096,4.650742994779063,0.9669836224589925,-2.746895398183165,1.3337345506255674,-1.0029919039814946,-0.18489577989736509,4.2841956481359209,2.7801966563814495,-2.205039494714012,1.7318707708547403,-5.482866205618164,3.4827162885931597,0.7358543827415713,-4.377909243651271,5.321162381845642,-0.07908458365843083,-2.253489658409331,-7.215708115393344,0.18812941437194154,-0.7798732195774206,0.9594891649325008,1.6317913063983734,-3.133990686361007,-2.9011279833817964,-1.618385713461467,-0.4911915766568134,-2.795690437677569,0.06293902889447208,-0.21697676286600696,-3.4753536031397176,-5.329022479630403,-0.5129872258093169,2.6310653653652169,2.518971507303835,-2.704544587090944,1.2693805518968294,-3.1904223794446309,-6.17292310005294,-9.902208294954214,-2.479834453491107,-6.408608088086826,-5.471870959838659,-1.6334758655180773,-9.271019246162389,-8.368836236543265,-13.283450887949883,-0.8372964318958337,-12.075098316390994,-1.2576359316755122,3.3095570883456029,-0.48224992248824485,-6.87711777850358,-4.118682102708835,1.2199168134832957,-1.6352325453127919,0.12060696562494117,-4.56468610937764,-4.750636900347287,-6.097403878872753,5.967464986051075,3.7355673804193114,-4.504901824320868,-5.024599463497879,-7.729734458069322,-3.903371848752131,2.232278774250511,3.5204759066682236,-5.985720352846887,-6.806384781742442,-5.205334687306883,-3.8890776511005464,0.7965118432766412,-6.75048307924049,-0.245843232104169,-4.549350210811095,-5.201928614955146,-4.424461399191575,-11.845103107080347,0.02309157273632369,0.6872593814309629,0.24518480138181562,-7.681649332357377,-1.1685438206786274,-13.267115392238133,-8.990645201351159,-0.07795604078876707,-1.1833849509897539,-7.616746681336293,-7.4696101547616629,1.6231482672923008,-6.479394119852118,6.519859210153407,1.5773693926908317,-6.910399101401141,-8.0197958361547,-4.223712144734692,5.779498858199036,-4.377637158411162,-3.071413626909299,3.6526815162131247,-5.387275897462101,-1.4232215008329999,-9.475333159130602,-0.8167847051404625,-2.33370898270891,-1.2066288198938844,-1.4723505397589905,-5.5927849531536168,1.450335193444294,1.1937846247312399,0.14947809998722207,-1.8042942168504104,-7.545576400106836,1.9660466714046308,-0.3854511976525568,-7.942561852849598,-4.164789198541151,-1.144065398640284,-5.446500567149981,-6.308050518328443,-6.6378925960133758,3.2800805103726109,1.7676264437775647,-9.139953843304296,3.402637617526244,-2.6791143174341407,1.8583982743051338,-6.205488885730619,4.097765983278465,4.490238742155396,5.82524806897689,-2.5339880339593079,0.34251375745156328,0.24034152149643285,-4.0733126256141,-8.71135890962884,0.11388797554717979,1.556891557135926,-1.6243569171792765,1.5990419031434618,-7.199967256928668,-3.0720707040356287,1.4937043697860904,-0.2962256295731233,0.2085622620309409,5.277537528083603,-1.4558275768104157,4.021265951524212,0.531337019046628,-3.347652731524691,-10.679147026371722,0.06106192948104451,2.571321186658434,6.124452697082753,-2.373105558632796,-4.466651842152401,-5.004192069164315,-3.0743633794348876,-4.415448537844797,-2.3282881118947529,-2.2526673287242295,4.446326275315603,0.7662813434642111,-11.710135432275559,5.857398148838035,1.6872746768206,2.7781249843750928,1.228862303085439,2.32098887043958,2.2658073091110477,-2.31385161294558,3.502955097420779,3.8589047717389595,2.4681418743698106,-1.7696638537623706,3.7794629097051999,-3.6973748904560677,-0.47345902177954776,-2.4625673859474395,-1.6841854493735316,-1.3481224581647647,3.369494146766409,3.2578735736904389,-0.4738767598271995,-1.1106042213989028,-2.632579658175412,1.1544808638177722,-1.3491772142394437,-0.1264488355087174,3.5507302510401095,1.9217835719512347,1.8714475598558565,-1.4094096410445323,-2.938322045144063,-0.2978501013489035,-1.9523579007332468,3.220320910781242,-0.8716563165731343,0.9325546170948387,0.21468391665584347,1.775251896032942,-4.000996494291074,3.4641662671213298,3.3935376599961537,3.270396925823631,-0.72329972481753,-1.7508520799691692,2.1028737355353939,1.9162389806190845,0.9172595670393876,-2.388145780435141,-0.6415788938436894,-2.670674569740811,-1.4531207194293566,-0.8833075931579805,2.399600857439744,3.183371579005391,2.4323318878510866,-1.6223748697810888,2.269738732295136,-1.701758804872784,-1.3193980223854416,-3.5027424940613085,0.4462297300706158,3.03635606258994,4.439876219424751,2.8467524378832427,-0.019308664379887296,2.197067257813798,-0.11394605069415036,1.0369214129074569,3.2663211847168447,1.99386425935533,-0.2151109354681467,-0.4513984149784061,-1.5252735749030136,-0.3344459293425095,0.20491464262907367,0.6394905592074206,-0.033550420501316628,-4.049423006305491,-4.35328721567998,-0.11139021917579158,-1.0517439712696615,0.5078407606120937,-1.4401589123359287,-0.42541393126227997,-1.7032311961913276,-2.921946115683079,-1.5037616722301975,-2.5892572287784669,3.8993755245207,1.8838556756549645,3.0310123232436125,2.3548461341150648,-2.746759824301967,-0.22909683278942778,0.6540542284509618,3.68820846007837,0.36516858020744988,0.9744748730209083,4.123834972288502,0.7326568529698917,-0.6863103428390917,-0.01516245314786291,-2.497410661285369,-1.6944084146170058,-1.8503545303953018,1.93411769741242,2.971194170344787,-2.565818157397892,3.749317114781448,0.8277914012529801,0.7490821624249671,-1.108711549069537,-4.785472628768383,1.1717244947521422,2.4225340149132119,2.2490939273056087,1.7712465568686884,-1.4942780083644747,1.192164883779115,-3.257833638766782,-2.4019011045303939,-3.2772815842952878,-1.1939834187759029,2.109621938568706,1.5998994652230412,1.580631144931043,-0.4070873735103566,0.57545922857779,0.8988492230692182,-0.10763747141092212]