[-1.2922491421763243,-2.2887081440686769,-1.3476551125211509,1.6292231598604277,3.2434209124423996,-0.48909035713068707,0.8232478586311682,-2.3234008399255865,0.5730071227649853,1.6545808501392428,-3.462004367364787,-3.403368410950045,-2.219128480710502,2.0397929842721869,1.2779446180987258,-3.9301059833502567,-3.2611044635213117,-1.1232543566633242,-1.191216054687624,-1.8984941632381052,3.382179136108375,-1.5091000472982553,-3.0271923384369376,-1.7697119592713673,3.7277004456126567,2.205534742209296,-1.513982765166836,2.72820886981917,-0.9509611489488687,-2.3284281980814329,2.317340780037811,-2.0810681053911468,0.10649326189873687,3.936131101745919,1.9959886323782117,2.4648663352141595,0.15114534821017057,-2.745078614825313,-0.5331897311364431,-2.722408319397145,-0.4597728268455372,1.4036225817549105,3.3474953870411197,-3.763917729860646,-1.7624379902385615,-2.255833209869099,3.789031793846246,-1.9462349123201426,-0.6110384308722134,-3.304742009939387,2.3580382172417675,-1.185687032054718,-2.9533573588731398,2.4105962452698375,0.78013111803077,3.948862678240622,-3.6850990771313025,3.043772562019119,3.0859334248143046,2.3658783487450716,1.5446859342229163,-0.04281900047029907,0.41606689730295356,-0.046636852128849607,2.175451692378445,3.3248600589754995,-3.784177588659558,0.43095213170652438,1.567087252732513,1.003863613910089,-0.27632804209245967,3.2496197381351656,-3.6992863598345089,1.9105185430414125,-2.1428460968108746,-3.6335260608198647,0.6318624125924011,2.869570305281659,1.159178462198632,1.5381635890556825,-3.9289758193661434,-0.5981379849778892,0.5669772100230182,-3.19992397460277,-2.506852568804568,-2.221729507689121,2.6743104677277369,1.7406764598714695,-1.4229481935961666,-0.1872641837150939,-0.5204494229076013,3.739651069327955,2.192998259938922,0.0579247996948995,3.734418910986144,3.5325112201149277,0.32167239135706007,-0.6706673061917075,2.943859397064294,-1.9195008095377644,2.6780104018408599,-3.1802847995525767,2.6706861220727386,1.239580061788244,-2.3142016482019738,3.6746809119345977,2.927615934057962,3.0387109556111717,2.4495010625900459,1.1701743862885517,-3.6430727412085668,0.9323961036209205,-1.8784261783674819,0.6949767326144603,1.7171334592133878,-3.40886874166757,1.4927410951500564,-0.7845009739564128,-3.8121809076182719,-3.4349178002969307,-1.7009747344521829,-0.6901264974994097,2.283315229186342,2.701891789797762,2.5440147697377144,-1.960812927916594,-3.2246302625764384,-2.4124511155003418,-1.1582593497421703,0.9669891825112718,1.3074857236070523,-3.444160101095778,2.944996915304227,-3.2383384547528974,-1.7977713522430568,3.7971152090094186,2.244634583563628,1.3909333527996442,-0.49381810273201678,0.51166942012041,-3.4898642673136859,3.5923429588612167,-2.5212497745642805,1.5712152536909559,1.0601605537938968,-0.4052872213313441,3.8512116203427686,-3.3449406363905149,0.5207100769067603,-2.6669768263632225,3.248347370472893,-0.885911507818905,-2.699370633192328,2.144693736959499,-0.4590293340070988,-2.69639653446211,-1.3669501687298825,-3.72807465228861,-2.137404210351116,-3.1661058499950229,1.9679349437480074,-0.3679989689061698,-2.910461944631697,0.5805857279057944,3.9871213037079267,-1.0884052023084899,-2.4421330298996049,-1.2961166024249194,3.163638291410786,-3.7573084509825325,1.478686454181263,0.17960081433997389,-1.6084779283407136,-3.9250670792367119,-0.20059979490781977,0.6462827040019814,0.6306203654057203,2.911810395700945,2.9998131998220716,3.2733387464364185,3.681861203538446,-3.7025118936703027,-3.0538592474771937,-2.125025685128932,-0.7353174628549881,-0.24201728666689016,-2.5230953975268397,0.8488191363847113,-3.140648217344788,-3.298861111024248,-0.15662328086086675,-1.604468782011924,-0.8874937952146587,-1.591849904884115,0.19096708404466956,-3.6433614675153436,-2.6271543648903625,-0.7601451639182277,-3.802764601531978,-2.5056821433244638,1.4566962655005816,0.6116405199217994,2.135294539551057,3.814348312960969,-3.543371760861734,-0.7951276929054301,-2.622720366265102,1.108471919067263,-1.8101932542203423,-0.07198342979019135,3.1461724713771979,-2.919786024335542,3.101868233496594,-0.008281588868016776,-2.9009618912870689,3.352105034738943,3.486632596773977,1.3798152332466174,3.677379430999183,0.3290112009350379,-1.423619611515752,-2.610003115970315,-3.584793540273255,0.10741637750724742,-3.4159376409949457,0.564104085752728,-2.239382787039876,2.8232850071417596,1.0085114121959116,0.8942169008088259,3.9226736643253394,2.949982271615381,3.1994718810591644,-2.9709387702258347,-1.260015484641773,-2.821808092452587,-1.3952954027779328,-3.6940229334533507,-0.3348950143681775,2.4990688726803089,3.168107183662821,-2.1667975618153347,-1.4579309817586089,3.440487584856575,3.8224611109832855,-1.7492492993575076,1.1098900321179182,3.877987444923833,-1.88818487894362,-3.326823697527714,3.9534248312724129,-0.01602426550446623,-1.1672629981027869,-0.8745933283946401,2.4592079911858377,1.5764307138200425,-2.6518127693235966,3.6565554066498908,-3.8953895924093047,-0.9733232581371007,3.6236970089733164,2.0567837425394677,-2.056197250180312,-1.2210777095095483,-0.040606637311682017,-3.021470825318044,3.805950824006735,-2.2935838680080407,-1.159661405518639,2.642697703422196,2.193673854819801,-1.2324983673147232,-3.0565070818530719,3.8507412270247229,-1.4425429022424206,-0.19589863304594158,1.6118313894695336,2.4911609839580786,2.7945822675572398,0.08361637978535086,3.871498238511947,-0.14086835161955259,-1.4777715441231588,2.154933998041299,3.215308874284575,3.883932754054558,2.3703454165780206,-3.1712024631369859,0.3454928331035001,2.0080171488524698,-2.274198737388758,2.4996039820403599,-1.568820751344891,2.598702019387651,-2.1411367419289615,-3.8671872870493386,-3.1863470866865386,0.01284351570603004,3.498216920065773,3.267384800222567,-0.1013042803519768,1.101552204577822,0.14632891029883855,2.7308974997059618,-2.837532540009507,1.7247610838951078,0.5669213741312618,3.601826356723506,1.589056845368102,-1.1325685742194625,1.010954963145938,2.667308275786617,-1.9065436854217047,-2.9285696066438726,-3.202571471747129,-1.3150229109954453,3.3117520386406786,-0.22162732683309906,3.520602109385351,-3.951188678147531,3.035991868064019,-1.025886184360326,3.9325945995434568,1.0174543224636859,-3.9071434993021034,-3.156274970297333,-0.2853108998837077,0.4421465340577182,0.21194480476370448,-1.9242989438075693,3.1875047766424418,-1.9928849536295524,-2.5628973662036005,-2.9726754249891504,0.7798652540665874,1.3544299329121002,3.314956419006535,1.6414168121555406,0.4771926806922746,-2.0284674750188635,1.7663455769536248,2.0482418226663086,0.5835657105571537,1.2193050143158022,-2.3028736721286595,2.7877989669348928,-1.4241300930942218,-0.4193201207753605,3.3312167686774929,1.9738595476094388,-1.8735284703077842,3.2992410988380005,-2.6039850178023489,1.0175577015253632,2.320792227310669,-3.815190855198428,-3.7449220312129816,-0.5360723119883408,-0.0866154616444279,1.3854075320606594,0.8446759903207113,2.8838090321485305,2.319192233483415,1.835880048708873,1.7021120212702368,-3.1948721532688149,-2.680929592061732,-3.1011785958822335,3.72732960299711,1.1130068249799985,0.23524786419044298,3.9797366026404434,0.647617655896096,-1.6791135946805627,-1.4717912783454142,3.2762905956606289,-2.5214553793769047,-2.1218261918640417,-3.7828283447825985,2.6881813726331407,3.0362177170719377,0.833788629294343,-1.4541914477725156,2.9513556996607228,1.479312155838885,-2.6721013141283658,-3.445221952773398,2.225390092119029,-1.7196864211517318,-0.5741565265396753,-0.5255913803331325,0.2831628890874791,1.2393249369885507,0.8915037609050502,-0.9107519521363283,-1.805386094261774,-1.0253825361933425,-0.445416798716886,-3.397345986896976,-3.205175674068668,1.378406495326547,-2.320607009327806,-3.052222089422153,-0.7025519561073088,2.047331727605245,-1.5335771557977956,2.158336277166116,-3.605554688311946,1.8458257418857934,2.479025177168894,0.8867884773298096,3.105521719467135,3.4722247486423498,-0.8358762677207741,2.372690238773716,-0.036149366570860767,1.7602832577714223,2.598224996678316,0.5953466134599088,-2.7283022346478988,3.2075679824513507,2.9433369728924987,2.458384936838997,-3.002177207794923,0.46798952701134147,-3.3286295736794155,0.03638729129503471,2.5102143679641788,-0.9309436110889617,-1.2522209879228239,-0.6630134441962687,0.9677599914814934,0.737438475310249,3.3538367076884958,3.4751807268350536,3.2401580488955608,-0.020743718618101649,-0.7100612749953905,1.3879187347932343,2.569450122548699,3.7260266905556156,2.8191344787644274,1.2974075509913475,-3.6962147224037089,1.9194055139080826,-3.1059843293157449,-2.9705339949363926,1.5181034635303599,2.1345698861119359,3.2542731960290984,1.4465647464674696,-3.776031832703362,-3.079390998246865,1.2907416161337509,-0.023586843413700544,-3.2783192501372397,-2.681660909731293,1.1125327032471822,2.471356708416395,-2.5206543447522327,-0.41608913688284679,0.9964725508551551,3.410820204109802,1.7020575704959278,-3.329107353787812,0.41593271756273078,1.9516721050820128,2.2023545529522119,-1.847632061697813,2.4230915733969464,3.654171776757911,-2.605199773332324,-0.4885579011614052,-2.0881606206761829,-2.8914341684438877,-1.3372486788603393,-2.793016547555852,0.8852942248197566,-3.7555345359213057,0.7076403018271007,-3.135375132769852,0.18531954597955115,0.07982150378294506,1.0633396876866268,-1.9671935310385953,1.6204637355493113,-0.8817019033090157,-1.0093412760595866,1.137892868515685,3.3082139813712905,1.8515285687485106,-0.18885833662789154,-0.4604396471790979,-1.1733027732652062,2.3133724269887185,-0.9473656695158559,3.813393242805158,-3.1931044148020035,3.036049887274518,-3.5096430466206867,0.9377366748150626,2.7661949453913499,-1.7372353078726695,1.3970297029389043,-0.9881737887350361,-0.2835889554128863,1.8689848008884509,-0.3306943455103921,-0.3234038917684332,-2.8166056268730257,2.3911236562941449,-3.0764486635843628,2.1830678739112958,1.1765805042471974,0.9797498778681097,-1.5972339705006844,1.3928375512984559,1.7632554691016989,-2.4649279122377214,1.5106240245918219,-1.5937622424323744,-3.587547209570798,-2.3739277011104109,0.537125759155046,-0.5074833017976135,2.113499774589722,3.4118809289154488,0.28794257829197,-1.4694386984467239,3.418878039405139,-3.978219020310295,-2.0008186421794109,-2.042884101958852,-3.6478563598574809,-1.5146332468748334,2.884452628333719,-0.2665781018301929,1.3369085699620094,-1.9903775547479584,1.4159859209001776,0.9072659057188366,0.8332236185213837,1.2155026393964104,0.5250263136870608,-2.124203600133952,-1.8977482030678717,-0.8916889057116109,-0.32799629328791349,-3.9024502392663056,0.2847458674656087,-0.10318009423328589,-2.4985924295270047,2.5350651553254446,0.6860133723878787,-1.5521265028536407,-3.4582401012061529,0.23443759120390074,-1.955259179253181,-2.2292594516688934,-0.31760231502904348,0.21075553536809545,-2.3973864434122644,3.345271553755552,-2.0222046361382395,-1.9930982233818622,-3.327053908302468,-2.6087562032151085,-0.8614091348601625,-0.6532505239680582,0.03266332791521709,-2.65813622877946,2.1961631505223657,-3.259160287904038,0.17059501217368124,-3.1224311500538759,0.3973903073719596,-1.3473511037420032,-3.9991311119749399,2.8008360185217997,1.3748240283168239,-0.257920577691648,-2.2021646568450388,0.6405030160780889,-0.39747585194849557,-0.01350487490597252,-1.4281033495474365,-3.692125644987441,-3.7968417197575095,1.6615054551445292,-3.231391816215356,3.1960661584831815,-3.2881404883278568,-2.5108637549567875,-2.169837149365094,-2.827405444791058,-3.017400979314565,0.10770510176505432,-3.2280346972835858,3.6919866137257406,-1.5850447658223495,-3.0983867531410755,-2.319214820854242,0.8315054501193835,-0.3188931001767976,1.7897444140664467,2.8867518274254646,2.8819600224276344,-2.582529058324398,-2.273715197804121,3.357402687714319,-3.6836512258491238,-3.7799966802066295,-0.41101911930850756,0.7608501461100081,-2.7560913345725988,0.026112480799104888,-2.840005770699883,-3.53297054349634,1.6060404279936212,-0.34747961804231389,-2.4215658997600215,-2.3759125098386866,0.48557691532017258,-2.1385271975894479,3.5165027438165046,-3.3268195268523845,2.944785022028068,3.2358150388248525,-2.4014862177296,0.4405317534420812,-0.05014242326385898,-3.9373535041561746,-2.0321207985963438,3.815672784716324,-2.823394263260755,-1.719875860907864,0.1525081566838944,-1.1186789524063903,-1.140035508206367,1.5245467749545157,3.8967770983583698,-3.604906216749404,3.231999824205582,-0.34861103642129356,2.386441128631974,-3.9374609131224256,2.0399916382895535,0.7532286280847851,1.6148634381218115,-0.32010142936818478,-3.3752526675269616,2.950550717412998,-2.200583453431106,1.0736447204079128,-1.455272548947896,-0.9879913959014175,0.2997422568409478,2.9981837062399459,-1.0499366863729736,-3.219903743144603,3.9035806048831676,0.5257206950767186,-2.248924013452333,-2.7320774956966007,-0.5520010810288021,-3.0330199495297256,-3.08066483214001,3.5142902228176329,3.8972422583628028,-0.6997870017938281,3.266480983575989,-2.1008053405508777,0.6279331381212812,2.8375203710335965,1.5249439928544933,2.662493019260589,1.2327257535757266,-1.6516238733541296,2.080296932453189,-1.8874346745103379,-3.8337324188839005,-1.0137093326202003,-1.018744007022308,-3.117068368924053,3.0675965212352107,0.21618746448326754,2.5200663927698425,-0.18495871980988455,-2.3854470010540078,1.4420379143311797,-3.1380085054073865,3.4374959526561197,0.2671573860522125,-2.9320569663066484,-2.464975191995192,-3.0135064705409038,-2.1059611019627679,3.4471912339997639,-2.287381282826563,2.215873822081841,2.3594456071438536,-3.0583108613796625,0.2066220348894925,3.218839283641236,-2.835914318417366,-2.4089697403805125,2.0340696418796364,-0.05579885784139038,0.8781274719022978,-3.5608814842774096,-1.1851533882875237,-0.3139334465739354,2.792923967639962,-0.41557708297433396,-1.5071337341918448,3.904086120648847,-2.7587674108158106,-2.5316175415835895,1.044708993731824,-2.6999556906115487,1.4945618628127396,3.8408135185631098,-0.31952778099335457,3.0962298461672788,-0.7414491370250647,1.7016958285006574,-0.9765083045856988,-2.818788011092522,1.8679326126790033,0.12559696070740679,-0.03988516616366744,-3.4609722950484844,0.8691802851701285,-1.4528265201094686,1.4702262948426892,3.5988629622255239,3.5623582008842975,-3.037561504742289,2.9579441610371468,-1.7647535928040475,0.9857373330584247,3.174730110058257,2.1166091128502186,-0.9156067496519205,-2.461876623309778,-1.5707025067813752,2.0887454673450627,1.1403241724217948,-0.6814071909373638,0.9867886090212066,-0.22824863924429196,-1.6347954736754336,-3.1580893891432124,-1.0830721448545087,1.513507583295297,0.4123669595506616,2.545140055231971,-3.3792267629091654,-3.585207151657361,-3.304461589104365,-0.8771229793475592,-1.3985349670025258,0.026018768760959433,-3.684426452970068,0.14307548424514406,0.286948003269357,3.352998014158155,-0.6635871528891748,-2.7829679423645459,-0.8420403303636181,1.4550079999613406,-1.997457939598962,1.4401956571324224,-2.971880756796465,-1.1918593293164746,2.3380688204512527,1.4373489972274794,3.3254041963295588,3.349996233585167,3.9003708979687765,3.709695165719366,-0.5326842702976711,3.583788582759775,1.5517893408312436,-1.3011746241945135,0.7283647750857085,2.3054447721267286,2.497496788287677,-2.2609355109455828,-3.3078079850140895,-1.406260836561698,-2.051932672138533,1.6480708993089266,0.6859654840500946,-0.41647764863178429,-3.6930427662282998,2.2491670747235235,-2.1799008637085768,-2.2934076663036064,1.730808525758329,-3.036183517769934,-2.5322169300280645,-2.502885770800173,1.070859876297492,-3.141069723476984,-3.7920761171719699,1.2028950358092523,0.5048861694427558,2.717494525081886,-2.8590265582079716,2.7290260937824986,2.3988556640235867,3.4139418991017287,-2.7383663725674,-2.6005907881241576,-2.4083907076790096,3.2379429533276884,-1.8384826365141694,-0.5607916635567791,2.080614795910116,-0.6100359967268287,1.2953342822221857,-2.6498223226353687,-0.01909932532837999,0.4728394710298014,-0.2378159491542,-0.4314857400119676,1.2266081681290633,-3.1978453463215077,-3.753590286075122,2.3477884245208759,-1.363463949622249,-3.54191098553654,1.0374055619472059,1.2949073386898489,0.05317618169816907,-0.39893802583003437,-1.0403757072766605,3.259873903197124,2.9615710892184365,1.3972128505181525,3.6089681814647607,0.829740600918921,0.7015478930021839,3.9418559361252969,-0.07812973158999182,-3.0040897959733714,0.3269051340864957,-2.1583263444015774,2.6516981987274415,-1.8967472900490299,-2.19542531142634,1.433708127673337,3.7466778973076,-3.330225334224645,0.5647735909055376,3.791873635723074,1.2275160975610824,0.6733948116425399,-2.9975797246067747,1.218872404915425,2.384897002191985,-2.4072467390275946,-3.8718698529068185,0.4017067718951033,-2.3729416157121028,-0.21313895003207174,0.3749936360576065,-1.9485480916426755,-3.616013125097515,-2.3818382756413536,-2.809560276429048,-1.6267036814149448,3.577071922008635,2.4875077320870648,2.380040414213574,-2.2969459123410109,3.23587646621397,-1.2062505983562025,1.7296980164680083,-0.14441891361639937,1.5418325201227159,2.452349129874823,-2.120802886624528,1.8903463914003292,-3.295118740634236,3.4140619711196384,2.1209131879447229,-2.6766382962322377,3.7834896555966015,3.783459021605853,-0.18210046211152876,-3.632072737593216,2.7124457454065764,1.3237431355946159,1.046955881066416,-1.9792404524939809,-3.33049516509414,-3.0604831870539499,2.6393765958109709,-0.44864388238894828,-0.4773593243943457,1.2191520099817757,0.009981872639225564,1.7249858206383664,0.5044810045092509,-2.5988120544784545,-0.925988874280504,-3.863343263090105,-3.328243481577001,-0.728031412662663,-3.9640811291315094,3.813932676955469,0.7560924699077001,-1.467829396651581,-1.3280385155578303,-3.187635505862893,0.4579389656039412,3.151813246639354,1.7856360231453526,-0.37566743726200815,0.47648874993811765,3.8689816833373165,-0.9620227555310619,-2.3054026034854067,-0.7950759098790277,-2.672417788899496,-1.803935181046915,-3.3020989589672409,-0.9631848276621104,0.6885464990877397,-3.429160016806417,1.3876704116053596,-0.4934482321553144,-0.0227090353018069,0.3469243341907724,-3.7210027090812485,-2.275223108562491,3.961167102806338,-1.8871825150630315,-2.4730613840358215,-1.093265274591591,-1.0395608451442425,3.8602114132838656,1.8857310195180058,3.8493523469559545,-2.7727590049382906,-0.2464189820373388,-1.232095121642777,-0.3900583149199426,1.7980378339454495,0.6317056262560863,2.8278096391503446,-0.018991401134027309,-2.863594220188432,1.8731710275386347,-2.5424603139610246,0.12341941481322394,3.447997465990177,-3.931498972860674,1.7193797844118404,-0.948770914056146,3.6943287625609786,0.7902398195538245,-3.1708054066541546,-0.515979648200515,2.2247482290790829,1.435114972463837,-1.417618446616264,1.5884220854381442,1.4898708061787707,0.5388699936288655,3.643345781840247,-1.3705680696197283,2.30966709925337,-0.7850587146127737,0.9252191096728568,-0.4128594025893866,-0.862126815444807,-2.3022499930377204,-3.6636363191948506,-1.7030493397557809,-3.794095312486923,0.10791244793448485,0.2437028424045593,-0.9418143379636392,1.0591857570856736,-0.9662588816153475,-0.8943564167930882,1.3315098617596802,-1.254173627965123,3.1186746079874556,3.112437269848618,3.5136211645560007,-3.612805121614926,0.20360077271828648,-2.0632848629287645,3.7688355982750796,2.91251490621001,1.53795591587388,0.7745763436793585,3.9358709854985145,0.8682755153380155,-1.6150927205203339,-2.049722294690678,0.372525517997488,3.4311174760275664,2.199342037805242,-3.2038574079567239,-1.7548043379571273,-1.3795970584063667,3.212368004690597,-3.616458494579325,1.8213887891753027,2.060360781756147,2.1367740410221316,-1.5635292964475225,2.7170843925416507,-2.06799953261996,0.0474426262684009,-3.6333237705063308,0.791257050159909,0.2085556241282136,0.3003582323815772,-3.9447627003573979,3.823110380459643,-0.013382843414382784,-2.006328648051486,0.8938515390058024,-2.258642058311226,-0.36539139580752058,0.14661899800179246,-2.814368345894051,0.1745711980984579,3.426225757767469,-0.7030496462132332,1.2503581154894246,2.2576539463120515,0.9672670753978476,2.2294566592313096,0.622420626205928,-3.265120349397412,-3.196803947321012,-1.6151618620316713,-1.6102004962831443,-1.7554994321044362,2.0529615590705507,-3.4020438363765725,2.62274011246478,2.728081129168225,2.1270318114759787,-0.07160817872723135,3.487204756927331,3.1467194718300499,-1.9222632177270312,1.27111516761489,-2.957056273611842,0.8290677651628196,-2.438181670836853,0.860303675715512,-2.6218059329340877,-2.150050875856758,2.9509797739568928,-2.670955351111253,-2.5646860752476678,-1.4708624833711648,-0.3130338378697868,-3.3280280844183238,0.8790540634865298,-3.249621092798053,3.035313516260504,0.09668913729406636,1.401848828342259,-0.14534022328286,-1.848870449711364,2.3583224174405394,2.5368495942543838,0.28870314033348967,-1.6074413566101705,-3.4473340691652689,-2.4181129703117056,3.9014426371286099,-0.17177768512185666,3.4613531936391999,0.0050187846052391908,2.4975434504637139,0.41864022395024405,-0.32291689718455265,-2.246336446099507,2.5557478301607388,-1.6330068182659333,-2.4667892148427059,-0.6932929552487417,2.917915146753156,2.917042661672342,2.2798426143408054,-0.4361573182814986,3.1528040789801308,-2.4420136842683837,-3.1547027711934918,0.5660099849175291,2.8025955753320375,-3.4716483253899765,1.5049783924983249,-1.2392454869305032,-1.9883506842782664,-0.5857938462200742,3.3875303956035056,-2.56250071868023,2.337689307361134,1.6149548827333345,2.3221249011484517,-2.6377707524204139,-2.5078028366608047,1.0148016017629438,0.36260685884104495,-1.1669886691891219,1.511829499477825,-1.0637106437600946,1.5788234146653438,1.361520627842431,-0.27574740311318438,-0.460098565789977,-3.788240650372167,2.175265014508378,-3.4550921932527656,1.8128874105327775,3.2449950127132629,-1.0171562728811206,3.263992499474475,3.8048466921487149,-0.6313663427314848,1.071279394316326,0.18692737953223305,3.965015127731215,2.0052659024491454,2.4952120235319619,3.973917003428987,3.8152080620276767,-0.7379406221186342,-2.5536921752394194,0.4170887922190083,0.8679364987860163,1.4836357056159555,-3.6487092315571765,-1.3681245832101524,3.69396602207338,-1.3536722956932595,2.783317347630815,-2.4652553123155185,-1.5383201967512366,0.810015957809548,-1.5101595691720089,1.82177393950598,-0.4520972241170895,-0.1468067496431471,1.4821187758221797,1.2191309757548759,0.7258641910274095,-0.21417006361339853,-1.2831970798613562,2.8929852892767435,0.7761489864979936,2.7438386008127457,2.4143342073280076,2.734518790139542,2.4226619201032877,3.7983081814100778,-0.659620569933532,-2.0196410060126235,-3.352846247818273,-0.038299653894873667,-1.1183563243456154,0.05088153468467915,3.4395022786381546,-1.4615778092859194,0.664132518398378,2.1942872585090624,3.876668009368573,3.1038444533806865,-2.291591595250413,-1.1359617722146638,2.6814170303366655,-0.654198538842973,-0.44599407520030445,3.531094600099361,-2.2494919757297335,-3.3870341049568726,-0.143944678522824,-1.0705183553405445,-1.688601762477237,-1.3093590659535899,2.3843922319579144,-0.6234011045496979,-2.321152820254861,2.28927209437607,3.958364443062762,-0.37055534171816775,0.5881488372845816,-3.4832727786195498,-1.135764531315832,-1.13548402194362,-0.730567818468745,3.1417236617428756,2.9704983879945408,-3.512440349979836,-3.2365993284467127,0.4940274274793488,-2.474600202074712,1.0469202133742713,3.431149121372928,-0.156822790014983,-3.7139331581568237,-1.7446966291841267,-0.6487239076337303,-3.5236362359743405,-3.294525161650502,0.7158501966578585,1.9231946718036675,0.3213831838067005,1.155375894982014,-3.5215775184687096,1.781263089765579,-3.332543914727327,-1.1962146926404918,0.8249165475171667,-0.4028648817671263,1.4569671529660076,-2.611926722498829,-0.972487822645167,-0.03315724649920959,2.7205223569521639,3.2089972716540995,-0.9248135552795009,1.7427277989984945,2.8435946329161156,-0.8870329811936573,-2.96324996793971,-2.000711508550989,2.0556681552788778,-3.1003811164191594,-0.1942748535428136,-1.1683204702646295,-0.7384014674872086,-2.0546219914576255,3.961739311957377,1.603278544878962,3.4704718568745838,0.5557097069961099,0.07929261508708496,-2.764378332527067,-3.9305987297884,-2.051652426526643,-1.0879711314937053,2.6937221674971267,-2.9002993846120779,-2.7606245859254496,-1.775996918136679,3.1008374658083568,-2.216887239303804,-2.612506996450618,1.4220660615933057,-1.7340280636202304,3.4287840256130446,0.9155327162126321,-1.401943892858425,-3.1784517847589557,3.0868608799732399,-1.3627793428504538,-1.3865799251908937,-2.573975625768294,1.4965284907465009,-0.12429433943681034,3.7988512256773259,0.4754746103645422,-3.773988308225017,0.7682011369801103,-1.9209374093203043,-2.1385139740353527,-3.878500378632965]